~o
<STREAMINFO> 1 12
<VECSIZE> 12<NULLD><MFCC_Z><DIAGC>
~h "s095"
<BEGINHMM>
<NUMSTATES> 9
<STATE> 2
<MEAN> 12
 -1.274306e-07 8.056904e-07 1.479839e-07 -8.221330e-08 9.865597e-08 5.754931e-07 0.000000e+00 5.508292e-07 -1.150986e-07 3.411852e-07 -8.221330e-08 4.275092e-07
<VARIANCE> 12
 2.081338e+01 5.480698e+01 4.698565e+01 3.925877e+01 5.142997e+01 5.438018e+01 6.421123e+01 5.162871e+01 4.935738e+01 8.083929e+01 6.947798e+01 4.897249e+01
<GCONST> 6.908025e+01
<STATE> 3
<MEAN> 12
 -1.274306e-07 8.056904e-07 1.479839e-07 -8.221330e-08 9.865597e-08 5.754931e-07 0.000000e+00 5.508292e-07 -1.150986e-07 3.411852e-07 -8.221330e-08 4.275092e-07
<VARIANCE> 12
 2.081338e+01 5.480698e+01 4.698565e+01 3.925877e+01 5.142997e+01 5.438018e+01 6.421123e+01 5.162871e+01 4.935738e+01 8.083929e+01 6.947798e+01 4.897249e+01
<GCONST> 6.908025e+01
<STATE> 4
<MEAN> 12
 -1.274306e-07 8.056904e-07 1.479839e-07 -8.221330e-08 9.865597e-08 5.754931e-07 0.000000e+00 5.508292e-07 -1.150986e-07 3.411852e-07 -8.221330e-08 4.275092e-07
<VARIANCE> 12
 2.081338e+01 5.480698e+01 4.698565e+01 3.925877e+01 5.142997e+01 5.438018e+01 6.421123e+01 5.162871e+01 4.935738e+01 8.083929e+01 6.947798e+01 4.897249e+01
<GCONST> 6.908025e+01
<STATE> 5
<MEAN> 12
 -1.274306e-07 8.056904e-07 1.479839e-07 -8.221330e-08 9.865597e-08 5.754931e-07 0.000000e+00 5.508292e-07 -1.150986e-07 3.411852e-07 -8.221330e-08 4.275092e-07
<VARIANCE> 12
 2.081338e+01 5.480698e+01 4.698565e+01 3.925877e+01 5.142997e+01 5.438018e+01 6.421123e+01 5.162871e+01 4.935738e+01 8.083929e+01 6.947798e+01 4.897249e+01
<GCONST> 6.908025e+01
<STATE> 6
<MEAN> 12
 -1.274306e-07 8.056904e-07 1.479839e-07 -8.221330e-08 9.865597e-08 5.754931e-07 0.000000e+00 5.508292e-07 -1.150986e-07 3.411852e-07 -8.221330e-08 4.275092e-07
<VARIANCE> 12
 2.081338e+01 5.480698e+01 4.698565e+01 3.925877e+01 5.142997e+01 5.438018e+01 6.421123e+01 5.162871e+01 4.935738e+01 8.083929e+01 6.947798e+01 4.897249e+01
<GCONST> 6.908025e+01
<STATE> 7
<MEAN> 12
 -1.274306e-07 8.056904e-07 1.479839e-07 -8.221330e-08 9.865597e-08 5.754931e-07 0.000000e+00 5.508292e-07 -1.150986e-07 3.411852e-07 -8.221330e-08 4.275092e-07
<VARIANCE> 12
 2.081338e+01 5.480698e+01 4.698565e+01 3.925877e+01 5.142997e+01 5.438018e+01 6.421123e+01 5.162871e+01 4.935738e+01 8.083929e+01 6.947798e+01 4.897249e+01
<GCONST> 6.908025e+01
<STATE> 8
<MEAN> 12
 -1.274306e-07 8.056904e-07 1.479839e-07 -8.221330e-08 9.865597e-08 5.754931e-07 0.000000e+00 5.508292e-07 -1.150986e-07 3.411852e-07 -8.221330e-08 4.275092e-07
<VARIANCE> 12
 2.081338e+01 5.480698e+01 4.698565e+01 3.925877e+01 5.142997e+01 5.438018e+01 6.421123e+01 5.162871e+01 4.935738e+01 8.083929e+01 6.947798e+01 4.897249e+01
<GCONST> 6.908025e+01
<TRANSP> 9
 0.000000e+00 1.000000e+00 0.000000e+00 0.000000e+00 0.000000e+00 0.000000e+00 0.000000e+00 0.000000e+00 0.000000e+00
 0.000000e+00 9.000000e-01 9.999999e-02 0.000000e+00 0.000000e+00 0.000000e+00 0.000000e+00 0.000000e+00 0.000000e+00
 0.000000e+00 0.000000e+00 9.000000e-01 9.999999e-02 0.000000e+00 0.000000e+00 0.000000e+00 0.000000e+00 0.000000e+00
 0.000000e+00 0.000000e+00 0.000000e+00 9.000000e-01 9.999999e-02 0.000000e+00 0.000000e+00 0.000000e+00 0.000000e+00
 0.000000e+00 0.000000e+00 0.000000e+00 0.000000e+00 9.000000e-01 9.999999e-02 0.000000e+00 0.000000e+00 0.000000e+00
 0.000000e+00 0.000000e+00 0.000000e+00 0.000000e+00 0.000000e+00 9.000000e-01 9.999999e-02 0.000000e+00 0.000000e+00
 0.000000e+00 0.000000e+00 0.000000e+00 0.000000e+00 0.000000e+00 0.000000e+00 9.000000e-01 9.999999e-02 0.000000e+00
 0.000000e+00 0.000000e+00 0.000000e+00 0.000000e+00 0.000000e+00 0.000000e+00 0.000000e+00 9.000000e-01 9.999999e-02
 0.000000e+00 0.000000e+00 0.000000e+00 0.000000e+00 0.000000e+00 0.000000e+00 0.000000e+00 0.000000e+00 0.000000e+00
<ENDHMM>
