~o
<STREAMINFO> 1 12
<VECSIZE> 12<NULLD><MFCC_Z><DIAGC>
~h "s020"
<BEGINHMM>
<NUMSTATES> 9
<STATE> 2
<MEAN> 12
 -2.825702e-07 -1.236244e-07 1.192093e-07 -5.651403e-07 -9.713349e-08 -4.944978e-07 1.059638e-07 8.212195e-07 -2.207579e-07 -4.194401e-08 -1.324548e-07 -3.443824e-07
<VARIANCE> 12
 5.342124e+01 2.709095e+01 1.728678e+01 4.703747e+01 2.909382e+01 6.047027e+01 4.072288e+01 1.276626e+02 3.366772e+01 3.263892e+01 2.896771e+01 4.668959e+01
<GCONST> 6.627343e+01
<STATE> 3
<MEAN> 12
 -2.825702e-07 -1.236244e-07 1.192093e-07 -5.651403e-07 -9.713349e-08 -4.944978e-07 1.059638e-07 8.212195e-07 -2.207579e-07 -4.194401e-08 -1.324548e-07 -3.443824e-07
<VARIANCE> 12
 5.342124e+01 2.709095e+01 1.728678e+01 4.703747e+01 2.909382e+01 6.047027e+01 4.072288e+01 1.276626e+02 3.366772e+01 3.263892e+01 2.896771e+01 4.668959e+01
<GCONST> 6.627343e+01
<STATE> 4
<MEAN> 12
 -2.825702e-07 -1.236244e-07 1.192093e-07 -5.651403e-07 -9.713349e-08 -4.944978e-07 1.059638e-07 8.212195e-07 -2.207579e-07 -4.194401e-08 -1.324548e-07 -3.443824e-07
<VARIANCE> 12
 5.342124e+01 2.709095e+01 1.728678e+01 4.703747e+01 2.909382e+01 6.047027e+01 4.072288e+01 1.276626e+02 3.366772e+01 3.263892e+01 2.896771e+01 4.668959e+01
<GCONST> 6.627343e+01
<STATE> 5
<MEAN> 12
 -2.825702e-07 -1.236244e-07 1.192093e-07 -5.651403e-07 -9.713349e-08 -4.944978e-07 1.059638e-07 8.212195e-07 -2.207579e-07 -4.194401e-08 -1.324548e-07 -3.443824e-07
<VARIANCE> 12
 5.342124e+01 2.709095e+01 1.728678e+01 4.703747e+01 2.909382e+01 6.047027e+01 4.072288e+01 1.276626e+02 3.366772e+01 3.263892e+01 2.896771e+01 4.668959e+01
<GCONST> 6.627343e+01
<STATE> 6
<MEAN> 12
 -2.825702e-07 -1.236244e-07 1.192093e-07 -5.651403e-07 -9.713349e-08 -4.944978e-07 1.059638e-07 8.212195e-07 -2.207579e-07 -4.194401e-08 -1.324548e-07 -3.443824e-07
<VARIANCE> 12
 5.342124e+01 2.709095e+01 1.728678e+01 4.703747e+01 2.909382e+01 6.047027e+01 4.072288e+01 1.276626e+02 3.366772e+01 3.263892e+01 2.896771e+01 4.668959e+01
<GCONST> 6.627343e+01
<STATE> 7
<MEAN> 12
 -2.825702e-07 -1.236244e-07 1.192093e-07 -5.651403e-07 -9.713349e-08 -4.944978e-07 1.059638e-07 8.212195e-07 -2.207579e-07 -4.194401e-08 -1.324548e-07 -3.443824e-07
<VARIANCE> 12
 5.342124e+01 2.709095e+01 1.728678e+01 4.703747e+01 2.909382e+01 6.047027e+01 4.072288e+01 1.276626e+02 3.366772e+01 3.263892e+01 2.896771e+01 4.668959e+01
<GCONST> 6.627343e+01
<STATE> 8
<MEAN> 12
 -2.825702e-07 -1.236244e-07 1.192093e-07 -5.651403e-07 -9.713349e-08 -4.944978e-07 1.059638e-07 8.212195e-07 -2.207579e-07 -4.194401e-08 -1.324548e-07 -3.443824e-07
<VARIANCE> 12
 5.342124e+01 2.709095e+01 1.728678e+01 4.703747e+01 2.909382e+01 6.047027e+01 4.072288e+01 1.276626e+02 3.366772e+01 3.263892e+01 2.896771e+01 4.668959e+01
<GCONST> 6.627343e+01
<TRANSP> 9
 0.000000e+00 1.000000e+00 0.000000e+00 0.000000e+00 0.000000e+00 0.000000e+00 0.000000e+00 0.000000e+00 0.000000e+00
 0.000000e+00 9.000000e-01 9.999999e-02 0.000000e+00 0.000000e+00 0.000000e+00 0.000000e+00 0.000000e+00 0.000000e+00
 0.000000e+00 0.000000e+00 9.000000e-01 9.999999e-02 0.000000e+00 0.000000e+00 0.000000e+00 0.000000e+00 0.000000e+00
 0.000000e+00 0.000000e+00 0.000000e+00 9.000000e-01 9.999999e-02 0.000000e+00 0.000000e+00 0.000000e+00 0.000000e+00
 0.000000e+00 0.000000e+00 0.000000e+00 0.000000e+00 9.000000e-01 9.999999e-02 0.000000e+00 0.000000e+00 0.000000e+00
 0.000000e+00 0.000000e+00 0.000000e+00 0.000000e+00 0.000000e+00 9.000000e-01 9.999999e-02 0.000000e+00 0.000000e+00
 0.000000e+00 0.000000e+00 0.000000e+00 0.000000e+00 0.000000e+00 0.000000e+00 9.000000e-01 9.999999e-02 0.000000e+00
 0.000000e+00 0.000000e+00 0.000000e+00 0.000000e+00 0.000000e+00 0.000000e+00 0.000000e+00 9.000000e-01 9.999999e-02
 0.000000e+00 0.000000e+00 0.000000e+00 0.000000e+00 0.000000e+00 0.000000e+00 0.000000e+00 0.000000e+00 0.000000e+00
<ENDHMM>
