~o
<STREAMINFO> 1 39
<VECSIZE> 39<NULLD><MFCC_E_D_A_Z><DIAGC>
~h "s000"
<BEGINHMM>
<NUMSTATES> 6
<STATE> 2
<MEAN> 39
 -6.726654e-01 9.194098e+00 2.130457e-03 -2.236521e+00 -3.676785e+00 -2.030834e+00 -6.715970e+00 5.249553e-01 3.130336e-01 3.452544e+00 -5.455031e-02 -1.177976e+00 7.650306e-01 -1.406158e-01 -2.881440e-02 -3.805510e-01 2.649408e-01 4.194824e-01 2.343915e-01 3.801348e-02 5.450520e-02 -1.900790e-02 -4.260999e-01 5.208859e-01 -6.948678e-02 2.144311e-04 4.104062e-02 -1.367219e-02 -2.933536e-02 -2.607722e-02 4.745777e-02 -7.385991e-02 1.029942e-01 -3.316394e-02 7.766201e-02 -4.533240e-02 -9.990876e-03 5.086593e-02 -4.097942e-04
<VARIANCE> 39
 1.121005e+01 7.055849e+01 3.370167e+01 4.149936e+01 6.129539e+01 2.616164e+01 6.097610e+01 3.122692e+01 3.325727e+01 4.941983e+01 6.480524e+01 3.108070e+01 2.311645e-02 9.945023e-01 2.176189e+00 2.476757e+00 2.702953e+00 2.448149e+00 3.180333e+00 3.134399e+00 2.772246e+00 3.993195e+00 2.497366e+00 5.654836e+00 3.121243e+00 1.630596e-03 1.176244e-01 2.604259e-01 4.090889e-01 4.777010e-01 3.870182e-01 6.639303e-01 5.229604e-01 5.192581e-01 7.395397e-01 4.805036e-01 1.097301e+00 7.011707e-01 2.454506e-04
<GCONST> 1.000204e+02
<STATE> 3
<MEAN> 39
 1.957554e-01 1.613644e+00 -1.141116e+00 9.582459e-01 1.143023e+00 -1.588558e+00 -2.507370e-01 5.038354e-01 5.978847e-02 -1.270698e+00 8.223475e-01 7.184892e-01 6.939213e-01 2.726242e-02 -3.421770e-01 -6.628540e-03 8.894717e-02 1.330232e-01 3.250557e-02 2.631123e-01 1.697654e-02 -2.392393e-02 -1.530501e-01 -3.998269e-03 4.797338e-02 -2.737008e-03 3.842307e-03 -6.199203e-03 1.297698e-02 -6.983990e-03 -1.180180e-02 -2.643567e-03 1.704681e-03 -2.678626e-03 -7.305690e-04 1.271161e-02 -1.636612e-02 1.632979e-03 -6.866096e-05
<VARIANCE> 39
 1.686945e+01 9.094283e+01 2.802916e+01 3.466722e+01 4.094610e+01 3.962425e+01 7.598409e+01 5.422649e+01 3.969917e+01 4.832416e+01 3.508607e+01 3.150155e+01 2.326978e-02 1.444285e+00 2.753755e+00 1.959817e+00 3.007592e+00 2.913064e+00 4.727671e+00 3.466799e+00 4.287723e+00 4.161242e+00 3.121120e+00 4.855292e+00 3.057535e+00 1.886429e-03 2.340328e-01 3.700601e-01 2.483172e-01 5.054582e-01 4.387363e-01 9.746676e-01 6.101125e-01 8.029448e-01 7.011195e-01 4.780071e-01 1.038733e+00 6.931092e-01 3.283775e-04
<GCONST> 1.043507e+02
<STATE> 4
<MEAN> 39
 1.577833e-01 -4.163888e+00 -5.233157e-02 8.027381e-01 8.858979e-01 -4.195467e-01 3.241293e+00 1.330277e+00 -7.319206e-01 -2.163042e+00 -3.150906e-01 2.146442e-01 6.635085e-01 1.881261e-03 -1.901582e-01 5.739058e-02 -1.645623e-02 1.298579e-02 1.533519e-01 8.353978e-02 -9.042113e-02 1.475297e-02 4.495609e-02 -2.838034e-02 -9.438640e-03 -2.196752e-03 2.794356e-03 1.404704e-02 2.324394e-03 4.169076e-03 4.453128e-03 6.340060e-03 -6.325528e-03 -6.805639e-03 4.825145e-03 7.864447e-03 4.151328e-03 7.612066e-05 -2.410691e-04
<VARIANCE> 39
 1.814436e+01 4.371610e+01 3.119423e+01 3.731065e+01 3.602489e+01 6.011857e+01 5.227461e+01 6.837397e+01 3.280296e+01 4.292995e+01 2.144702e+01 2.761064e+01 1.956186e-02 1.885442e+00 2.153831e+00 2.192956e+00 2.870553e+00 2.770390e+00 4.669969e+00 4.039261e+00 4.677936e+00 3.365223e+00 3.754357e+00 3.244623e+00 2.763856e+00 1.826608e-03 3.486629e-01 2.804821e-01 2.605723e-01 5.061055e-01 4.564003e-01 8.229350e-01 7.164783e-01 8.733820e-01 5.892622e-01 6.344956e-01 7.387007e-01 5.889453e-01 3.220532e-04
<GCONST> 1.024838e+02
<STATE> 5
<MEAN> 39
 3.191273e-01 -6.643855e+00 1.191317e+00 4.755467e-01 1.647857e+00 4.038935e+00 3.725402e+00 -2.359065e+00 3.590883e-01 -1.880967e-02 -4.526902e-01 2.448359e-01 6.045724e-01 1.169222e-01 1.882710e-01 1.059421e-01 2.111654e-01 2.571205e-01 2.836131e-01 -2.996931e-02 -2.525263e-01 1.270423e-01 1.935938e-01 1.300882e-01 3.971902e-02 -1.027480e-02 8.144031e-03 2.727095e-02 1.364058e-02 3.921470e-02 4.221170e-02 1.822221e-03 -2.892121e-02 -1.952625e-02 -4.589399e-02 2.900615e-02 1.775530e-02 1.720040e-02 4.897763e-04
<VARIANCE> 39
 1.364651e+01 2.202434e+01 2.070864e+01 2.840996e+01 3.793511e+01 5.347353e+01 4.807998e+01 6.429102e+01 2.519377e+01 3.035177e+01 1.182937e+01 2.167154e+01 2.752294e-02 1.385651e+00 1.566505e+00 1.873604e+00 2.084995e+00 2.252766e+00 2.886502e+00 4.115296e+00 3.430376e+00 2.517727e+00 2.666376e+00 1.653553e+00 1.833248e+00 1.375052e-03 2.636006e-01 1.811708e-01 2.649293e-01 3.754116e-01 3.778977e-01 4.357255e-01 7.028610e-01 6.633753e-01 4.936451e-01 5.318493e-01 3.687238e-01 3.364753e-01 1.951313e-04
<GCONST> 9.120319e+01
<TRANSP> 6
 0.000000e+00 1.000000e+00 0.000000e+00 0.000000e+00 0.000000e+00 0.000000e+00
 0.000000e+00 9.603961e-01 3.960396e-02 0.000000e+00 0.000000e+00 0.000000e+00
 0.000000e+00 0.000000e+00 9.603961e-01 3.960395e-02 0.000000e+00 0.000000e+00
 0.000000e+00 0.000000e+00 0.000000e+00 9.603961e-01 3.960396e-02 0.000000e+00
 0.000000e+00 0.000000e+00 0.000000e+00 0.000000e+00 9.603961e-01 3.960396e-02
 0.000000e+00 0.000000e+00 0.000000e+00 0.000000e+00 0.000000e+00 0.000000e+00
<ENDHMM>
