~o
<STREAMINFO> 1 12
<VECSIZE> 12<NULLD><MFCC_Z><DIAGC>
~h "s021"
<BEGINHMM>
<NUMSTATES> 10
<STATE> 2
<MEAN> 12
 -1.309220e+01 3.834100e+00 5.134866e+00 6.289050e+00 1.262664e+01 4.369928e+00 1.121717e+01 6.987984e+00 3.123161e+00 7.727499e+00 3.366757e+00 5.757637e+00
<VARIANCE> 12
 8.085103e+00 1.697724e+01 8.921671e+00 8.578474e+00 1.415178e+01 1.802151e+01 1.387907e+01 1.614660e+01 4.313129e+01 2.789041e+01 2.024378e+01 1.171924e+01
<GCONST> 5.482927e+01
<STATE> 3
<MEAN> 12
 -7.596241e+00 7.959433e+00 4.723332e+00 7.029868e+00 1.139100e+01 -1.300122e+00 7.530896e-01 2.034413e+00 -9.134892e+00 1.043090e+01 -3.552393e+00 5.483424e+00
<VARIANCE> 12
 8.085103e+00 1.697724e+01 5.437160e+00 8.578474e+00 1.415178e+01 9.108005e+00 1.387907e+01 1.614660e+01 7.475642e+00 7.485218e+00 4.832042e+00 1.171924e+01
<GCONST> 4.915110e+01
<STATE> 4
<MEAN> 12
 2.311126e+00 -1.366215e+01 1.089074e+00 2.935473e+00 -7.862707e+00 1.591576e-01 -1.001143e+00 -7.272072e+00 -5.480425e+00 -1.077550e+00 -4.597373e+00 2.856386e-02
<VARIANCE> 12
 8.085103e+00 1.697724e+01 5.437160e+00 1.078048e+01 1.661714e+01 9.108005e+00 1.387907e+01 1.614660e+01 7.475642e+00 8.273671e+00 1.351213e+01 1.171924e+01
<GCONST> 5.066864e+01
<STATE> 5
<MEAN> 12
 1.198691e+00 -6.754690e+00 -1.036573e+00 -4.585742e+00 -3.390088e+00 -4.207428e+00 -6.802956e+00 -2.544694e+00 -1.575473e+00 -4.798377e+00 -5.339567e+00 -3.030638e+00
<VARIANCE> 12
 8.085103e+00 1.697724e+01 5.437160e+00 8.578474e+00 1.415178e+01 1.146152e+01 1.387907e+01 1.614660e+01 7.475642e+00 7.485218e+00 2.186131e+01 2.971757e+01
<GCONST> 5.182090e+01
<STATE> 6
<MEAN> 12
 4.243599e+00 8.779076e+00 -7.317814e+00 -3.852901e+00 -7.452543e+00 -6.556272e+00 -1.145359e+01 3.626846e+00 -2.661201e+00 9.269302e-01 3.507111e+00 -8.502997e+00
<VARIANCE> 12
 8.085103e+00 1.697724e+01 1.651156e+01 8.578474e+00 1.415178e+01 1.865891e+01 1.387907e+01 3.258479e+01 4.603876e+01 7.485218e+00 5.899759e+00 2.644256e+01
<GCONST> 5.451243e+01
<STATE> 7
<MEAN> 12
 2.569510e+00 1.117375e+01 -5.695459e-01 -7.879430e+00 -1.507833e+00 -6.078579e+00 7.541649e-01 1.265273e+01 4.220016e+00 -9.097894e-01 6.128932e-02 -5.740181e+00
<VARIANCE> 12
 8.085103e+00 1.697724e+01 5.437160e+00 8.578474e+00 1.420600e+01 1.634225e+01 1.387907e+01 1.614660e+01 2.516786e+01 1.934751e+01 2.651086e+01 1.171924e+01
<GCONST> 5.360536e+01
<STATE> 8
<MEAN> 12
 2.031791e-02 -8.868953e-02 1.226736e+00 -9.310591e+00 2.056163e+00 3.354175e+00 5.975206e+00 4.736426e+00 3.026946e+00 -1.105351e+01 1.238067e+00 6.537388e+00
<VARIANCE> 12
 8.085103e+00 1.697724e+01 5.437160e+00 8.578474e+00 1.415178e+01 9.108005e+00 1.387907e+01 2.602845e+01 7.475642e+00 7.485218e+00 8.911847e+00 1.769892e+01
<GCONST> 5.065297e+01
<STATE> 9
<MEAN> 12
 3.470757e+00 -6.514650e+00 3.849568e+00 6.199686e+00 6.210838e+00 9.038365e+00 6.107662e+00 -1.318558e+01 3.994905e+00 -1.551370e+00 -1.229824e+00 7.737870e+00
<VARIANCE> 12
 8.085103e+00 1.697724e+01 5.607212e+00 3.328675e+01 1.681468e+01 1.201125e+01 1.387907e+01 1.614660e+01 7.475642e+00 2.826928e+01 5.646710e+00 2.904491e+01
<GCONST> 5.337916e+01
<TRANSP> 10
 0.000000e+00 1.000000e+00 0.000000e+00 0.000000e+00 0.000000e+00 0.000000e+00 0.000000e+00 0.000000e+00 0.000000e+00 0.000000e+00
 0.000000e+00 9.000010e-01 9.999902e-02 0.000000e+00 0.000000e+00 0.000000e+00 0.000000e+00 0.000000e+00 0.000000e+00 0.000000e+00
 0.000000e+00 0.000000e+00 3.796104e-03 9.962039e-01 0.000000e+00 0.000000e+00 0.000000e+00 0.000000e+00 0.000000e+00 0.000000e+00
 0.000000e+00 0.000000e+00 0.000000e+00 9.002157e-01 9.978427e-02 0.000000e+00 0.000000e+00 0.000000e+00 0.000000e+00 0.000000e+00
 0.000000e+00 0.000000e+00 0.000000e+00 0.000000e+00 7.955841e-01 2.044159e-01 0.000000e+00 0.000000e+00 0.000000e+00 0.000000e+00
 0.000000e+00 0.000000e+00 0.000000e+00 0.000000e+00 0.000000e+00 9.283952e-01 7.160486e-02 0.000000e+00 0.000000e+00 0.000000e+00
 0.000000e+00 0.000000e+00 0.000000e+00 0.000000e+00 0.000000e+00 0.000000e+00 8.326178e-01 1.673823e-01 0.000000e+00 0.000000e+00
 0.000000e+00 0.000000e+00 0.000000e+00 0.000000e+00 0.000000e+00 0.000000e+00 0.000000e+00 7.566248e-01 2.433752e-01 0.000000e+00
 0.000000e+00 0.000000e+00 0.000000e+00 0.000000e+00 0.000000e+00 0.000000e+00 0.000000e+00 0.000000e+00 9.003360e-01 9.966394e-02
 0.000000e+00 0.000000e+00 0.000000e+00 0.000000e+00 0.000000e+00 0.000000e+00 0.000000e+00 0.000000e+00 0.000000e+00 0.000000e+00
<ENDHMM>
