~o
<STREAMINFO> 1 12
<VECSIZE> 12<NULLD><MFCC_Z><DIAGC>
~h "s005"
<BEGINHMM>
<NUMSTATES> 10
<STATE> 2
<MEAN> 12
 -4.967054e-08 -1.192093e-07 -7.788340e-07 -3.218651e-07 -3.178914e-07 2.543132e-07 8.742015e-08 -1.430512e-07 2.622604e-07 1.430512e-07 9.536743e-08 -4.172325e-08
<VARIANCE> 12
 1.311151e+01 6.179665e+01 7.469804e+01 5.045676e+01 3.857087e+01 3.409665e+01 6.481540e+01 4.869961e+01 5.336670e+01 2.719294e+01 4.582393e+01 1.845136e+01
<GCONST> 6.624543e+01
<STATE> 3
<MEAN> 12
 -4.967054e-08 -1.192093e-07 -7.788340e-07 -3.218651e-07 -3.178914e-07 2.543132e-07 8.742015e-08 -1.430512e-07 2.622604e-07 1.430512e-07 9.536743e-08 -4.172325e-08
<VARIANCE> 12
 1.311151e+01 6.179665e+01 7.469804e+01 5.045676e+01 3.857087e+01 3.409665e+01 6.481540e+01 4.869961e+01 5.336670e+01 2.719294e+01 4.582393e+01 1.845136e+01
<GCONST> 6.624543e+01
<STATE> 4
<MEAN> 12
 -4.967054e-08 -1.192093e-07 -7.788340e-07 -3.218651e-07 -3.178914e-07 2.543132e-07 8.742015e-08 -1.430512e-07 2.622604e-07 1.430512e-07 9.536743e-08 -4.172325e-08
<VARIANCE> 12
 1.311151e+01 6.179665e+01 7.469804e+01 5.045676e+01 3.857087e+01 3.409665e+01 6.481540e+01 4.869961e+01 5.336670e+01 2.719294e+01 4.582393e+01 1.845136e+01
<GCONST> 6.624543e+01
<STATE> 5
<MEAN> 12
 -4.967054e-08 -1.192093e-07 -7.788340e-07 -3.218651e-07 -3.178914e-07 2.543132e-07 8.742015e-08 -1.430512e-07 2.622604e-07 1.430512e-07 9.536743e-08 -4.172325e-08
<VARIANCE> 12
 1.311151e+01 6.179665e+01 7.469804e+01 5.045676e+01 3.857087e+01 3.409665e+01 6.481540e+01 4.869961e+01 5.336670e+01 2.719294e+01 4.582393e+01 1.845136e+01
<GCONST> 6.624543e+01
<STATE> 6
<MEAN> 12
 -4.967054e-08 -1.192093e-07 -7.788340e-07 -3.218651e-07 -3.178914e-07 2.543132e-07 8.742015e-08 -1.430512e-07 2.622604e-07 1.430512e-07 9.536743e-08 -4.172325e-08
<VARIANCE> 12
 1.311151e+01 6.179665e+01 7.469804e+01 5.045676e+01 3.857087e+01 3.409665e+01 6.481540e+01 4.869961e+01 5.336670e+01 2.719294e+01 4.582393e+01 1.845136e+01
<GCONST> 6.624543e+01
<STATE> 7
<MEAN> 12
 -4.967054e-08 -1.192093e-07 -7.788340e-07 -3.218651e-07 -3.178914e-07 2.543132e-07 8.742015e-08 -1.430512e-07 2.622604e-07 1.430512e-07 9.536743e-08 -4.172325e-08
<VARIANCE> 12
 1.311151e+01 6.179665e+01 7.469804e+01 5.045676e+01 3.857087e+01 3.409665e+01 6.481540e+01 4.869961e+01 5.336670e+01 2.719294e+01 4.582393e+01 1.845136e+01
<GCONST> 6.624543e+01
<STATE> 8
<MEAN> 12
 -4.967054e-08 -1.192093e-07 -7.788340e-07 -3.218651e-07 -3.178914e-07 2.543132e-07 8.742015e-08 -1.430512e-07 2.622604e-07 1.430512e-07 9.536743e-08 -4.172325e-08
<VARIANCE> 12
 1.311151e+01 6.179665e+01 7.469804e+01 5.045676e+01 3.857087e+01 3.409665e+01 6.481540e+01 4.869961e+01 5.336670e+01 2.719294e+01 4.582393e+01 1.845136e+01
<GCONST> 6.624543e+01
<STATE> 9
<MEAN> 12
 -4.967054e-08 -1.192093e-07 -7.788340e-07 -3.218651e-07 -3.178914e-07 2.543132e-07 8.742015e-08 -1.430512e-07 2.622604e-07 1.430512e-07 9.536743e-08 -4.172325e-08
<VARIANCE> 12
 1.311151e+01 6.179665e+01 7.469804e+01 5.045676e+01 3.857087e+01 3.409665e+01 6.481540e+01 4.869961e+01 5.336670e+01 2.719294e+01 4.582393e+01 1.845136e+01
<GCONST> 6.624543e+01
<TRANSP> 10
 0.000000e+00 1.000000e+00 0.000000e+00 0.000000e+00 0.000000e+00 0.000000e+00 0.000000e+00 0.000000e+00 0.000000e+00 0.000000e+00
 0.000000e+00 9.000000e-01 9.999999e-02 0.000000e+00 0.000000e+00 0.000000e+00 0.000000e+00 0.000000e+00 0.000000e+00 0.000000e+00
 0.000000e+00 0.000000e+00 9.000000e-01 9.999999e-02 0.000000e+00 0.000000e+00 0.000000e+00 0.000000e+00 0.000000e+00 0.000000e+00
 0.000000e+00 0.000000e+00 0.000000e+00 9.000000e-01 9.999999e-02 0.000000e+00 0.000000e+00 0.000000e+00 0.000000e+00 0.000000e+00
 0.000000e+00 0.000000e+00 0.000000e+00 0.000000e+00 9.000000e-01 9.999999e-02 0.000000e+00 0.000000e+00 0.000000e+00 0.000000e+00
 0.000000e+00 0.000000e+00 0.000000e+00 0.000000e+00 0.000000e+00 9.000000e-01 9.999999e-02 0.000000e+00 0.000000e+00 0.000000e+00
 0.000000e+00 0.000000e+00 0.000000e+00 0.000000e+00 0.000000e+00 0.000000e+00 9.000000e-01 9.999999e-02 0.000000e+00 0.000000e+00
 0.000000e+00 0.000000e+00 0.000000e+00 0.000000e+00 0.000000e+00 0.000000e+00 0.000000e+00 9.000000e-01 9.999999e-02 0.000000e+00
 0.000000e+00 0.000000e+00 0.000000e+00 0.000000e+00 0.000000e+00 0.000000e+00 0.000000e+00 0.000000e+00 9.000000e-01 9.999999e-02
 0.000000e+00 0.000000e+00 0.000000e+00 0.000000e+00 0.000000e+00 0.000000e+00 0.000000e+00 0.000000e+00 0.000000e+00 0.000000e+00
<ENDHMM>
