~o
<STREAMINFO> 1 12
<VECSIZE> 12<NULLD><MFCC_Z><DIAGC>
~h "s054"
<BEGINHMM>
<NUMSTATES> 9
<STATE> 2
<MEAN> 12
 2.271292e+00 7.588429e+00 1.108771e+01 -8.974983e+00 -4.978165e+00 -6.659559e-01 -1.463950e+01 1.195332e+01 4.798007e-01 -2.189363e+00 8.891193e+00 -4.474170e+00
<VARIANCE> 12
 4.105900e+00 1.115316e+01 7.375241e+00 1.631877e+01 7.056634e+00 9.669612e+00 9.555467e+00 1.991153e+01 3.839911e+00 6.510634e+00 9.425695e+00 4.145097e+00
<GCONST> 4.702473e+01
<STATE> 3
<MEAN> 12
 -2.327439e+00 1.330998e+01 4.242846e+00 -2.072472e+00 6.212450e-01 -7.075418e+00 -6.301309e-01 1.133056e+01 3.774583e+00 -2.329047e+00 3.708322e+00 3.707224e+00
<VARIANCE> 12
 3.310056e+00 1.115316e+01 7.375241e+00 5.441338e+01 1.938505e+01 9.377711e+00 2.005517e+01 1.991153e+01 2.073478e+01 1.006099e+01 9.425695e+00 8.713228e+00
<GCONST> 5.259933e+01
<STATE> 4
<MEAN> 12
 -3.974059e+00 7.373947e+00 2.728312e+00 2.364075e+00 9.966300e+00 3.014615e+00 1.983642e+00 1.188898e+01 2.530060e+00 8.599114e-01 2.349412e+00 3.380363e+00
<VARIANCE> 12
 2.689009e+01 1.906090e+01 2.815964e+01 2.602491e+01 4.400661e+01 2.168185e+01 5.588394e+01 1.991153e+01 2.820510e+01 4.524588e+01 3.079491e+01 4.067054e+01
<GCONST> 6.305073e+01
<STATE> 5
<MEAN> 12
 -1.166967e-01 -7.237982e+00 7.346028e-01 -6.542194e+00 -4.820652e-01 5.033886e+00 6.581010e+00 2.000291e+00 -7.718359e-01 5.330657e-01 3.374808e+00 -3.344687e+00
<VARIANCE> 12
 9.893419e+00 1.115316e+01 1.328749e+01 8.403910e+00 1.842958e+01 4.529234e+00 1.375397e+01 3.571224e+01 6.597755e+01 6.405199e+00 2.344407e+01 4.145097e+00
<GCONST> 5.271793e+01
<STATE> 6
<MEAN> 12
 -4.568627e+00 -1.176332e+01 -4.601527e+00 3.534658e+00 4.995687e+00 2.825218e+00 1.655498e+00 -8.875826e+00 -2.778016e+00 6.914358e+00 -1.471341e-01 3.329001e-01
<VARIANCE> 12
 3.310056e+00 1.115316e+01 7.375241e+00 1.992021e+01 7.056634e+00 3.740824e+00 1.206709e+01 1.991153e+01 4.408421e+00 1.008808e+01 3.826548e+01 1.407692e+01
<GCONST> 4.949209e+01
<STATE> 7
<MEAN> 12
 1.653881e+00 -6.144902e+00 -7.466966e+00 1.401478e+00 -5.784027e+00 -2.244988e+00 3.426498e+00 -1.263847e+01 1.431256e+00 -1.153859e+00 -1.098475e+01 1.164341e+00
<VARIANCE> 12
 1.881600e+01 1.115316e+01 7.375241e+00 7.644966e+00 7.950123e+00 1.817927e+01 9.555467e+00 1.991153e+01 1.033804e+01 1.162001e+01 9.984487e+00 3.242169e+01
<GCONST> 5.222343e+01
<STATE> 8
<MEAN> 12
 5.435703e+00 -2.155461e+00 -6.201974e+00 7.688668e+00 -4.372028e+00 -2.352333e+00 3.989770e+00 -1.288548e+01 -3.337582e+00 -2.590152e+00 -5.949037e+00 -6.432348e-03
<VARIANCE> 12
 3.310056e+00 1.115316e+01 7.375241e+00 1.614610e+01 7.533838e+00 1.923238e+01 9.555467e+00 1.991153e+01 1.825817e+01 2.445350e+01 3.917129e+01 2.660078e+01
<GCONST> 5.371771e+01
<TRANSP> 9
 0.000000e+00 1.000000e+00 0.000000e+00 0.000000e+00 0.000000e+00 0.000000e+00 0.000000e+00 0.000000e+00 0.000000e+00
 0.000000e+00 8.889430e-01 1.110570e-01 0.000000e+00 0.000000e+00 0.000000e+00 0.000000e+00 0.000000e+00 0.000000e+00
 0.000000e+00 0.000000e+00 7.990352e-01 2.009648e-01 0.000000e+00 0.000000e+00 0.000000e+00 0.000000e+00 0.000000e+00
 0.000000e+00 0.000000e+00 0.000000e+00 8.910010e-01 1.089989e-01 0.000000e+00 0.000000e+00 0.000000e+00 0.000000e+00
 0.000000e+00 0.000000e+00 0.000000e+00 0.000000e+00 8.375758e-01 1.624242e-01 0.000000e+00 0.000000e+00 0.000000e+00
 0.000000e+00 0.000000e+00 0.000000e+00 0.000000e+00 0.000000e+00 8.699356e-01 1.300643e-01 0.000000e+00 0.000000e+00
 0.000000e+00 0.000000e+00 0.000000e+00 0.000000e+00 0.000000e+00 0.000000e+00 8.694723e-01 1.305277e-01 0.000000e+00
 0.000000e+00 0.000000e+00 0.000000e+00 0.000000e+00 0.000000e+00 0.000000e+00 0.000000e+00 8.929198e-01 1.070802e-01
 0.000000e+00 0.000000e+00 0.000000e+00 0.000000e+00 0.000000e+00 0.000000e+00 0.000000e+00 0.000000e+00 0.000000e+00
<ENDHMM>
