~o
<STREAMINFO> 1 12
<VECSIZE> 12<NULLD><MFCC_Z><DIAGC>
~h "T1375864576"
<BEGINHMM>
<NUMSTATES> 8
<STATE> 2
<MEAN> 12
 -4.098539e+00 -1.164740e+01 9.695604e+00 3.520081e+00 6.650012e+00 2.005040e-01 1.050735e+01 -8.490666e+00 -5.746443e+00 4.049993e+00 1.561525e+00 -4.516259e+00
<VARIANCE> 12
 4.476967e+00 1.025928e+01 1.870376e+01 3.347059e+00 3.913779e+01 9.164438e+00 1.503664e+01 2.213898e+01 2.120018e+01 4.177913e+01 2.291426e+01 5.778771e+00
<GCONST> 5.338107e+01
<STATE> 3
<MEAN> 12
 -5.777951e+00 -2.846958e+00 6.832595e+00 -5.765903e+00 5.355155e+00 8.226845e+00 2.095159e+00 -4.264448e+00 2.066451e+00 -4.806560e+00 -5.662935e-01 2.068938e-01
<VARIANCE> 12
 4.476967e+00 7.268408e+01 1.590396e+01 4.535696e+00 1.232258e+01 1.818792e+01 7.451222e+00 5.216548e+01 6.745159e+00 6.198111e+01 9.918591e+00 4.588668e+00
<GCONST> 5.334678e+01
<STATE> 4
<MEAN> 12
 -1.925228e+00 3.558350e+00 8.234632e+00 3.175755e+00 4.031235e+00 1.106023e+00 -9.942664e-01 3.899761e+00 5.221204e-01 1.050497e+00 1.183437e+00 2.274151e-01
<VARIANCE> 12
 5.747551e+00 3.004774e+01 1.590396e+01 2.279812e+01 3.068497e+01 1.509738e+01 7.449406e+00 8.560122e+00 2.246143e+01 1.570862e+01 2.659084e+01 7.901501e+00
<GCONST> 5.460651e+01
<STATE> 5
<MEAN> 12
 -1.911847e+00 4.799188e+00 -1.041720e+00 4.122653e+00 -1.949919e+01 -1.103841e+01 1.105421e+00 5.310054e+00 -5.754043e+00 -1.715230e+00 -1.328432e+00 5.776007e+00
<VARIANCE> 12
 1.379560e+01 8.597681e+00 3.769860e+01 5.251287e+00 1.232258e+01 7.889507e+01 8.243745e+00 1.359228e+01 4.171134e+01 4.854909e+00 1.492251e+01 7.428815e+00
<GCONST> 5.373597e+01
<STATE> 6
<MEAN> 12
 5.694546e+00 5.747612e+00 -1.508303e+01 -2.912204e+00 -7.570295e+00 -8.113098e+00 -6.966137e+00 4.254293e+00 1.703820e+00 1.820857e+00 6.513281e-02 4.765571e+00
<VARIANCE> 12
 4.476967e+00 8.597681e+00 1.590396e+01 1.281044e+01 1.232258e+01 2.127565e+01 1.492081e+01 1.455671e+01 6.802315e+00 4.854909e+00 1.165935e+01 2.304727e+01
<GCONST> 5.106251e+01
<STATE> 7
<MEAN> 12
 7.231817e+00 1.506284e+00 -9.292079e+00 -3.378870e-02 2.403249e+00 4.042824e+00 -4.492124e+00 9.272761e-01 4.034288e+00 -5.336595e-01 -1.356806e+00 -4.140489e+00
<VARIANCE> 12
 4.761064e+00 8.597681e+00 1.886759e+01 3.763130e+00 1.232258e+01 1.159421e+01 6.135571e+00 1.022460e+01 2.127703e+01 9.225756e+00 1.173602e+01 1.339807e+01
<GCONST> 4.946742e+01
<TRANSP> 8
 0.000000e+00 1.000000e+00 0.000000e+00 0.000000e+00 0.000000e+00 0.000000e+00 0.000000e+00 0.000000e+00
 0.000000e+00 8.750288e-01 1.249712e-01 0.000000e+00 0.000000e+00 0.000000e+00 0.000000e+00 0.000000e+00
 0.000000e+00 0.000000e+00 8.915222e-01 1.084778e-01 0.000000e+00 0.000000e+00 0.000000e+00 0.000000e+00
 0.000000e+00 0.000000e+00 0.000000e+00 8.923820e-01 1.076180e-01 0.000000e+00 0.000000e+00 0.000000e+00
 0.000000e+00 0.000000e+00 0.000000e+00 0.000000e+00 7.994672e-01 2.005328e-01 0.000000e+00 0.000000e+00
 0.000000e+00 0.000000e+00 0.000000e+00 0.000000e+00 0.000000e+00 8.824698e-01 1.175302e-01 0.000000e+00
 0.000000e+00 0.000000e+00 0.000000e+00 0.000000e+00 0.000000e+00 0.000000e+00 8.887948e-01 1.112052e-01
 0.000000e+00 0.000000e+00 0.000000e+00 0.000000e+00 0.000000e+00 0.000000e+00 0.000000e+00 0.000000e+00
<ENDHMM>
