~o
<STREAMINFO> 1 12
<VECSIZE> 12<NULLD><MFCC_Z><DIAGC>
~h "s060"
<BEGINHMM>
<NUMSTATES> 8
<STATE> 2
<MEAN> 12
 -6.654886e+00 -7.253273e+00 3.930519e+00 2.046555e+01 3.817848e+00 -2.462610e-01 8.250945e+00 5.233028e+00 -1.257464e+00 -3.644716e+00 6.607932e+00 3.413482e+00
<VARIANCE> 12
 4.765956e+01 1.554877e+01 1.184957e+01 2.191979e+01 4.028392e+00 2.275575e+01 2.218062e+01 4.023452e+01 1.789858e+01 7.916593e+00 1.985714e+01 1.762126e+01
<GCONST> 5.634576e+01
<STATE> 3
<MEAN> 12
 -1.654982e+00 -1.043181e+01 -2.887669e+00 9.581688e+00 3.099498e+00 -3.611716e+00 -1.512225e+00 -7.228654e+00 -2.768321e+00 6.293246e+00 -2.481771e-01 1.587115e+00
<VARIANCE> 12
 3.474730e+00 1.950121e+01 4.823729e+00 3.493597e+01 4.151276e+01 5.808148e+01 1.183036e+01 5.606543e+00 5.759698e+00 1.500364e+01 5.609249e+01 7.797443e+00
<GCONST> 5.392001e+01
<STATE> 4
<MEAN> 12
 1.594566e+00 5.176023e+00 -6.837386e+00 -1.027257e+01 -5.600851e+00 7.570637e-01 -6.149751e+00 -2.928840e+00 1.423549e-01 -3.910594e+00 -3.321216e+00 -4.267824e+00
<VARIANCE> 12
 3.474730e+00 1.257747e+01 4.823729e+00 2.191979e+01 8.222434e+00 1.071264e+01 1.183036e+01 9.304050e+00 4.831741e+01 2.949494e+01 1.912532e+01 5.336335e+00
<GCONST> 5.155986e+01
<STATE> 5
<MEAN> 12
 -2.130426e+00 1.018949e+01 -1.502027e+00 -7.044578e+00 1.356374e+00 -5.324264e+00 -9.406420e+00 1.783908e+00 -4.650378e-01 -3.221127e+00 -1.190880e+00 -5.242938e+00
<VARIANCE> 12
 1.224302e+01 9.446472e+00 1.944808e+01 2.191979e+01 7.694442e+00 6.770027e+00 1.183036e+01 7.744856e+00 8.733957e+00 1.029480e+01 1.201144e+01 5.472152e+00
<GCONST> 5.001535e+01
<STATE> 6
<MEAN> 12
 2.925926e+00 4.898387e+00 9.021601e+00 -1.408909e+01 -5.771065e+00 1.073519e+00 -6.000271e+00 7.252599e+00 1.091643e+01 -7.919469e-01 3.062071e+00 6.315855e-01
<VARIANCE> 12
 3.474730e+00 9.446472e+00 4.823729e+00 2.191979e+01 8.378204e+00 1.118810e+01 4.175610e+01 1.182691e+01 1.344646e+01 4.277644e+00 1.463935e+01 2.921290e+00
<GCONST> 4.875719e+01
<STATE> 7
<MEAN> 12
 4.359184e+00 -1.424788e+00 2.322137e-01 3.967021e-01 1.473167e+00 6.009684e+00 1.120431e+01 -1.304160e+00 -3.402122e+00 2.993752e+00 -2.683910e+00 3.189945e+00
<VARIANCE> 12
 3.474730e+00 9.446472e+00 1.587946e+01 2.541497e+01 5.880108e+00 7.963398e+00 1.183036e+01 1.851172e+01 1.915641e+01 1.249757e+01 1.325828e+01 7.042198e+00
<GCONST> 5.079626e+01
<TRANSP> 8
 0.000000e+00 1.000000e+00 0.000000e+00 0.000000e+00 0.000000e+00 0.000000e+00 0.000000e+00 0.000000e+00
 0.000000e+00 8.590112e-01 1.409888e-01 0.000000e+00 0.000000e+00 0.000000e+00 0.000000e+00 0.000000e+00
 0.000000e+00 0.000000e+00 8.876029e-01 1.123972e-01 0.000000e+00 0.000000e+00 0.000000e+00 0.000000e+00
 0.000000e+00 0.000000e+00 0.000000e+00 8.708771e-01 1.291229e-01 0.000000e+00 0.000000e+00 0.000000e+00
 0.000000e+00 0.000000e+00 0.000000e+00 0.000000e+00 8.824978e-01 1.175021e-01 0.000000e+00 0.000000e+00
 0.000000e+00 0.000000e+00 0.000000e+00 0.000000e+00 0.000000e+00 8.520951e-01 1.479049e-01 0.000000e+00
 0.000000e+00 0.000000e+00 0.000000e+00 0.000000e+00 0.000000e+00 0.000000e+00 9.090419e-01 9.095810e-02
 0.000000e+00 0.000000e+00 0.000000e+00 0.000000e+00 0.000000e+00 0.000000e+00 0.000000e+00 0.000000e+00
<ENDHMM>
