~o
<STREAMINFO> 1 12
<VECSIZE> 12<NULLD><MFCC_Z><DIAGC>
~h "s077"
<BEGINHMM>
<NUMSTATES> 7
<STATE> 2
<MEAN> 12
 2.487846e-07 -1.554904e-07 3.057978e-07 -4.146410e-08 -2.280526e-07 4.146410e-08 3.109808e-07 1.243923e-07 -1.451243e-07 -5.183012e-08 3.628109e-08 1.036603e-08
<VARIANCE> 12
 1.432031e+01 6.427596e+01 3.680085e+01 7.136052e+01 3.051853e+01 7.756423e+01 3.290257e+01 9.484635e+01 4.871862e+01 1.780382e+01 5.699897e+01 3.322931e+01
<GCONST> 6.687984e+01
<STATE> 3
<MEAN> 12
 2.487846e-07 -1.554904e-07 3.057978e-07 -4.146410e-08 -2.280526e-07 4.146410e-08 3.109808e-07 1.243923e-07 -1.451243e-07 -5.183012e-08 3.628109e-08 1.036603e-08
<VARIANCE> 12
 1.432031e+01 6.427596e+01 3.680085e+01 7.136052e+01 3.051853e+01 7.756423e+01 3.290257e+01 9.484635e+01 4.871862e+01 1.780382e+01 5.699897e+01 3.322931e+01
<GCONST> 6.687984e+01
<STATE> 4
<MEAN> 12
 2.487846e-07 -1.554904e-07 3.057978e-07 -4.146410e-08 -2.280526e-07 4.146410e-08 3.109808e-07 1.243923e-07 -1.451243e-07 -5.183012e-08 3.628109e-08 1.036603e-08
<VARIANCE> 12
 1.432031e+01 6.427596e+01 3.680085e+01 7.136052e+01 3.051853e+01 7.756423e+01 3.290257e+01 9.484635e+01 4.871862e+01 1.780382e+01 5.699897e+01 3.322931e+01
<GCONST> 6.687984e+01
<STATE> 5
<MEAN> 12
 2.487846e-07 -1.554904e-07 3.057978e-07 -4.146410e-08 -2.280526e-07 4.146410e-08 3.109808e-07 1.243923e-07 -1.451243e-07 -5.183012e-08 3.628109e-08 1.036603e-08
<VARIANCE> 12
 1.432031e+01 6.427596e+01 3.680085e+01 7.136052e+01 3.051853e+01 7.756423e+01 3.290257e+01 9.484635e+01 4.871862e+01 1.780382e+01 5.699897e+01 3.322931e+01
<GCONST> 6.687984e+01
<STATE> 6
<MEAN> 12
 2.487846e-07 -1.554904e-07 3.057978e-07 -4.146410e-08 -2.280526e-07 4.146410e-08 3.109808e-07 1.243923e-07 -1.451243e-07 -5.183012e-08 3.628109e-08 1.036603e-08
<VARIANCE> 12
 1.432031e+01 6.427596e+01 3.680085e+01 7.136052e+01 3.051853e+01 7.756423e+01 3.290257e+01 9.484635e+01 4.871862e+01 1.780382e+01 5.699897e+01 3.322931e+01
<GCONST> 6.687984e+01
<TRANSP> 7
 0.000000e+00 1.000000e+00 0.000000e+00 0.000000e+00 0.000000e+00 0.000000e+00 0.000000e+00
 0.000000e+00 9.000000e-01 9.999999e-02 0.000000e+00 0.000000e+00 0.000000e+00 0.000000e+00
 0.000000e+00 0.000000e+00 9.000000e-01 9.999999e-02 0.000000e+00 0.000000e+00 0.000000e+00
 0.000000e+00 0.000000e+00 0.000000e+00 9.000000e-01 9.999999e-02 0.000000e+00 0.000000e+00
 0.000000e+00 0.000000e+00 0.000000e+00 0.000000e+00 9.000000e-01 9.999999e-02 0.000000e+00
 0.000000e+00 0.000000e+00 0.000000e+00 0.000000e+00 0.000000e+00 9.000000e-01 9.999999e-02
 0.000000e+00 0.000000e+00 0.000000e+00 0.000000e+00 0.000000e+00 0.000000e+00 0.000000e+00
<ENDHMM>
