~o
<STREAMINFO> 1 12
<VECSIZE> 12<NULLD><MFCC_Z><DIAGC>
~h "s049"
<BEGINHMM>
<NUMSTATES> 11
<STATE> 2
<MEAN> 12
 -3.693809e-07 -1.074563e-07 4.298250e-07 1.410363e-07 4.701211e-07 1.880485e-07 5.675034e-07 1.208883e-07 -3.358008e-08 3.290848e-07 1.040983e-07 -1.343203e-07
<VARIANCE> 12
 3.344564e+01 2.326045e+01 6.292892e+01 4.954319e+01 9.193840e+01 1.164832e+02 5.876653e+01 3.796073e+01 4.309314e+01 3.932544e+01 3.894144e+01 3.175020e+01
<GCONST> 6.830023e+01
<STATE> 3
<MEAN> 12
 -3.693809e-07 -1.074563e-07 4.298250e-07 1.410363e-07 4.701211e-07 1.880485e-07 5.675034e-07 1.208883e-07 -3.358008e-08 3.290848e-07 1.040983e-07 -1.343203e-07
<VARIANCE> 12
 3.344564e+01 2.326045e+01 6.292892e+01 4.954319e+01 9.193840e+01 1.164832e+02 5.876653e+01 3.796073e+01 4.309314e+01 3.932544e+01 3.894144e+01 3.175020e+01
<GCONST> 6.830023e+01
<STATE> 4
<MEAN> 12
 -3.693809e-07 -1.074563e-07 4.298250e-07 1.410363e-07 4.701211e-07 1.880485e-07 5.675034e-07 1.208883e-07 -3.358008e-08 3.290848e-07 1.040983e-07 -1.343203e-07
<VARIANCE> 12
 3.344564e+01 2.326045e+01 6.292892e+01 4.954319e+01 9.193840e+01 1.164832e+02 5.876653e+01 3.796073e+01 4.309314e+01 3.932544e+01 3.894144e+01 3.175020e+01
<GCONST> 6.830023e+01
<STATE> 5
<MEAN> 12
 -3.693809e-07 -1.074563e-07 4.298250e-07 1.410363e-07 4.701211e-07 1.880485e-07 5.675034e-07 1.208883e-07 -3.358008e-08 3.290848e-07 1.040983e-07 -1.343203e-07
<VARIANCE> 12
 3.344564e+01 2.326045e+01 6.292892e+01 4.954319e+01 9.193840e+01 1.164832e+02 5.876653e+01 3.796073e+01 4.309314e+01 3.932544e+01 3.894144e+01 3.175020e+01
<GCONST> 6.830023e+01
<STATE> 6
<MEAN> 12
 -3.693809e-07 -1.074563e-07 4.298250e-07 1.410363e-07 4.701211e-07 1.880485e-07 5.675034e-07 1.208883e-07 -3.358008e-08 3.290848e-07 1.040983e-07 -1.343203e-07
<VARIANCE> 12
 3.344564e+01 2.326045e+01 6.292892e+01 4.954319e+01 9.193840e+01 1.164832e+02 5.876653e+01 3.796073e+01 4.309314e+01 3.932544e+01 3.894144e+01 3.175020e+01
<GCONST> 6.830023e+01
<STATE> 7
<MEAN> 12
 -3.693809e-07 -1.074563e-07 4.298250e-07 1.410363e-07 4.701211e-07 1.880485e-07 5.675034e-07 1.208883e-07 -3.358008e-08 3.290848e-07 1.040983e-07 -1.343203e-07
<VARIANCE> 12
 3.344564e+01 2.326045e+01 6.292892e+01 4.954319e+01 9.193840e+01 1.164832e+02 5.876653e+01 3.796073e+01 4.309314e+01 3.932544e+01 3.894144e+01 3.175020e+01
<GCONST> 6.830023e+01
<STATE> 8
<MEAN> 12
 -3.693809e-07 -1.074563e-07 4.298250e-07 1.410363e-07 4.701211e-07 1.880485e-07 5.675034e-07 1.208883e-07 -3.358008e-08 3.290848e-07 1.040983e-07 -1.343203e-07
<VARIANCE> 12
 3.344564e+01 2.326045e+01 6.292892e+01 4.954319e+01 9.193840e+01 1.164832e+02 5.876653e+01 3.796073e+01 4.309314e+01 3.932544e+01 3.894144e+01 3.175020e+01
<GCONST> 6.830023e+01
<STATE> 9
<MEAN> 12
 -3.693809e-07 -1.074563e-07 4.298250e-07 1.410363e-07 4.701211e-07 1.880485e-07 5.675034e-07 1.208883e-07 -3.358008e-08 3.290848e-07 1.040983e-07 -1.343203e-07
<VARIANCE> 12
 3.344564e+01 2.326045e+01 6.292892e+01 4.954319e+01 9.193840e+01 1.164832e+02 5.876653e+01 3.796073e+01 4.309314e+01 3.932544e+01 3.894144e+01 3.175020e+01
<GCONST> 6.830023e+01
<STATE> 10
<MEAN> 12
 -3.693809e-07 -1.074563e-07 4.298250e-07 1.410363e-07 4.701211e-07 1.880485e-07 5.675034e-07 1.208883e-07 -3.358008e-08 3.290848e-07 1.040983e-07 -1.343203e-07
<VARIANCE> 12
 3.344564e+01 2.326045e+01 6.292892e+01 4.954319e+01 9.193840e+01 1.164832e+02 5.876653e+01 3.796073e+01 4.309314e+01 3.932544e+01 3.894144e+01 3.175020e+01
<GCONST> 6.830023e+01
<TRANSP> 11
 0.000000e+00 1.000000e+00 0.000000e+00 0.000000e+00 0.000000e+00 0.000000e+00 0.000000e+00 0.000000e+00 0.000000e+00 0.000000e+00 0.000000e+00
 0.000000e+00 9.000000e-01 9.999999e-02 0.000000e+00 0.000000e+00 0.000000e+00 0.000000e+00 0.000000e+00 0.000000e+00 0.000000e+00 0.000000e+00
 0.000000e+00 0.000000e+00 9.000000e-01 9.999999e-02 0.000000e+00 0.000000e+00 0.000000e+00 0.000000e+00 0.000000e+00 0.000000e+00 0.000000e+00
 0.000000e+00 0.000000e+00 0.000000e+00 9.000000e-01 9.999999e-02 0.000000e+00 0.000000e+00 0.000000e+00 0.000000e+00 0.000000e+00 0.000000e+00
 0.000000e+00 0.000000e+00 0.000000e+00 0.000000e+00 9.000000e-01 9.999999e-02 0.000000e+00 0.000000e+00 0.000000e+00 0.000000e+00 0.000000e+00
 0.000000e+00 0.000000e+00 0.000000e+00 0.000000e+00 0.000000e+00 9.000000e-01 9.999999e-02 0.000000e+00 0.000000e+00 0.000000e+00 0.000000e+00
 0.000000e+00 0.000000e+00 0.000000e+00 0.000000e+00 0.000000e+00 0.000000e+00 9.000000e-01 9.999999e-02 0.000000e+00 0.000000e+00 0.000000e+00
 0.000000e+00 0.000000e+00 0.000000e+00 0.000000e+00 0.000000e+00 0.000000e+00 0.000000e+00 9.000000e-01 9.999999e-02 0.000000e+00 0.000000e+00
 0.000000e+00 0.000000e+00 0.000000e+00 0.000000e+00 0.000000e+00 0.000000e+00 0.000000e+00 0.000000e+00 9.000000e-01 9.999999e-02 0.000000e+00
 0.000000e+00 0.000000e+00 0.000000e+00 0.000000e+00 0.000000e+00 0.000000e+00 0.000000e+00 0.000000e+00 0.000000e+00 9.000000e-01 9.999999e-02
 0.000000e+00 0.000000e+00 0.000000e+00 0.000000e+00 0.000000e+00 0.000000e+00 0.000000e+00 0.000000e+00 0.000000e+00 0.000000e+00 0.000000e+00
<ENDHMM>
