~o
<STREAMINFO> 1 12
<VECSIZE> 12<NULLD><MFCC_Z><DIAGC>
~h "s049"
<BEGINHMM>
<NUMSTATES> 11
<STATE> 2
<MEAN> 12
 -1.291971e+01 2.854284e+00 2.180873e-01 5.236041e+00 5.481607e+00 7.232000e+00 1.646253e+00 3.366975e+00 1.114872e+01 1.168005e+00 4.512584e+00 -8.413790e-01
<VARIANCE> 12
 5.866316e+00 2.594324e+01 9.439339e+00 2.496110e+01 1.379076e+01 1.823376e+01 2.489436e+01 1.419382e+01 4.027351e+01 1.884965e+01 2.002510e+01 9.555767e+00
<GCONST> 5.582291e+01
<STATE> 3
<MEAN> 12
 1.410483e+00 -6.915540e+00 -5.434179e+00 1.193452e+01 8.558620e+00 -6.776241e+00 -6.421497e+00 2.316481e+00 -2.227754e+00 -3.667804e-01 3.446887e+00 -7.081429e-01
<VARIANCE> 12
 2.262430e+01 1.708729e+01 3.592583e+01 1.541980e+01 1.562904e+01 7.527747e+01 8.814980e+00 5.694110e+00 8.786364e+00 2.970420e+01 1.879108e+01 8.765410e+00
<GCONST> 5.598388e+01
<STATE> 4
<MEAN> 12
 6.004124e+00 -1.729857e+00 -1.455346e+01 1.556295e+00 3.830197e+00 -1.000582e+01 -8.431140e+00 3.175397e+00 7.900776e-01 -6.449471e+00 -7.301284e+00 -4.344889e-01
<VARIANCE> 12
 5.016846e+00 4.827728e+00 1.943361e+01 2.881870e+01 3.141716e+01 3.220145e+01 8.814980e+00 1.758615e+01 1.438266e+01 2.467950e+01 4.054021e+01 5.671411e+00
<GCONST> 5.484239e+01
<STATE> 5
<MEAN> 12
 3.802147e+00 -3.562998e-02 -4.191250e-01 -4.992177e+00 -6.105166e+00 -5.883238e+00 -6.440943e+00 4.582412e+00 -4.564643e+00 -7.094972e+00 -3.485484e+00 -3.795734e+00
<VARIANCE> 12
 2.608529e+01 3.489068e+00 3.561112e+01 7.431479e+00 2.632910e+01 3.520879e+01 9.554029e+00 1.128260e+01 1.483619e+01 2.555979e+01 3.956441e+01 1.889700e+01
<GCONST> 5.621113e+01
<STATE> 6
<MEAN> 12
 -1.928099e+00 2.890866e+00 6.982022e+00 -4.866812e+00 -9.627307e+00 1.608696e+00 -2.240673e+00 6.471918e-01 4.056596e-01 8.985825e-01 -4.081583e+00 -3.477876e+00
<VARIANCE> 12
 1.688015e+01 1.065643e+01 9.439339e+00 1.401065e+01 6.147612e+01 2.295094e+01 2.335684e+01 3.169802e+01 3.806864e+01 2.557697e+01 1.938802e+01 2.442374e+01
<GCONST> 5.903198e+01
<STATE> 7
<MEAN> 12
 2.025566e+00 -8.692684e-01 4.367785e+00 -6.505012e+00 -1.214591e+01 -1.134237e+01 1.088886e+01 2.316268e-02 -9.736173e-01 -2.230242e+00 2.895163e+00 -5.498475e+00
<VARIANCE> 12
 5.016846e+00 5.197364e+00 1.514895e+01 2.632817e+01 5.257885e+01 7.803934e+01 5.832277e+01 2.450242e+01 5.254176e+01 1.495774e+01 4.256335e+01 1.036258e+01
<GCONST> 5.964437e+01
<STATE> 8
<MEAN> 12
 -2.573884e+00 -4.328479e+00 -5.289170e+00 -1.551456e+00 -2.458997e+00 1.275809e+00 8.069417e+00 -9.951185e+00 -1.976999e+00 8.901240e+00 1.349124e+00 1.958807e+00
<VARIANCE> 12
 5.016846e+00 5.500017e+00 9.439339e+00 7.431479e+00 1.379076e+01 5.019106e+01 4.346267e+01 1.550337e+01 1.889295e+01 2.191661e+01 5.841216e+00 1.747875e+01
<GCONST> 5.332745e+01
<STATE> 9
<MEAN> 12
 -6.476166e-01 -7.013323e-01 1.249691e+00 -8.392891e-01 4.547101e+00 1.068707e+01 1.250174e-01 -1.242441e+01 -1.487090e+00 7.369851e+00 2.775036e+00 6.767423e+00
<VARIANCE> 12
 5.016846e+00 4.955865e+00 1.439303e+01 7.431479e+00 1.668324e+01 1.747248e+01 8.814980e+00 5.849993e+00 2.138192e+01 3.376242e+01 2.777336e+01 1.417870e+01
<GCONST> 5.211600e+01
<STATE> 10
<MEAN> 12
 2.471432e+00 4.948091e+00 6.108914e+00 -9.896026e-01 7.292570e+00 1.262358e+01 1.944000e+00 1.183550e+00 -2.093973e+00 6.888244e-01 7.383305e-01 6.589854e+00
<VARIANCE> 12
 5.016846e+00 3.489068e+00 9.439339e+00 1.469609e+01 2.133995e+01 1.789214e+01 8.814980e+00 8.931737e+00 2.503287e+01 8.839431e+00 8.313600e+00 1.682247e+01
<GCONST> 5.050045e+01
<TRANSP> 11
 0.000000e+00 1.000000e+00 0.000000e+00 0.000000e+00 0.000000e+00 0.000000e+00 0.000000e+00 0.000000e+00 0.000000e+00 0.000000e+00 0.000000e+00
 0.000000e+00 8.568339e-01 1.431660e-01 0.000000e+00 0.000000e+00 0.000000e+00 0.000000e+00 0.000000e+00 0.000000e+00 0.000000e+00 0.000000e+00
 0.000000e+00 0.000000e+00 8.910403e-01 1.089597e-01 0.000000e+00 0.000000e+00 0.000000e+00 0.000000e+00 0.000000e+00 0.000000e+00 0.000000e+00
 0.000000e+00 0.000000e+00 0.000000e+00 8.822172e-01 1.177828e-01 0.000000e+00 0.000000e+00 0.000000e+00 0.000000e+00 0.000000e+00 0.000000e+00
 0.000000e+00 0.000000e+00 0.000000e+00 0.000000e+00 7.344567e-01 2.655434e-01 0.000000e+00 0.000000e+00 0.000000e+00 0.000000e+00 0.000000e+00
 0.000000e+00 0.000000e+00 0.000000e+00 0.000000e+00 0.000000e+00 9.099683e-01 9.003171e-02 0.000000e+00 0.000000e+00 0.000000e+00 0.000000e+00
 0.000000e+00 0.000000e+00 0.000000e+00 0.000000e+00 0.000000e+00 0.000000e+00 8.966321e-01 1.033679e-01 0.000000e+00 0.000000e+00 0.000000e+00
 0.000000e+00 0.000000e+00 0.000000e+00 0.000000e+00 0.000000e+00 0.000000e+00 0.000000e+00 7.929763e-01 2.070237e-01 0.000000e+00 0.000000e+00
 0.000000e+00 0.000000e+00 0.000000e+00 0.000000e+00 0.000000e+00 0.000000e+00 0.000000e+00 0.000000e+00 8.011216e-01 1.988784e-01 0.000000e+00
 0.000000e+00 0.000000e+00 0.000000e+00 0.000000e+00 0.000000e+00 0.000000e+00 0.000000e+00 0.000000e+00 0.000000e+00 9.162576e-01 8.374239e-02
 0.000000e+00 0.000000e+00 0.000000e+00 0.000000e+00 0.000000e+00 0.000000e+00 0.000000e+00 0.000000e+00 0.000000e+00 0.000000e+00 0.000000e+00
<ENDHMM>
