~o
<STREAMINFO> 1 39
<VECSIZE> 39<NULLD><MFCC_E_D_A_Z><DIAGC>
~h "s000"
<BEGINHMM>
<NUMSTATES> 4
<STATE> 2
<MEAN> 39
 -2.447819e-01 4.440939e+00 -3.880308e-01 -6.650536e-01 -1.309725e+00 -1.614855e+00 -2.901337e+00 6.521308e-01 5.446193e-02 9.421996e-01 1.943247e-01 -3.137150e-01 7.244069e-01 -6.090708e-02 -1.601586e-01 -1.829195e-01 1.593769e-01 2.562463e-01 1.535895e-01 1.206335e-01 1.784166e-02 -1.501899e-02 -2.565746e-01 2.543806e-01 -2.032591e-02 -1.171264e-03 2.226689e-02 -6.561038e-03 -9.954033e-03 -1.467142e-02 2.053696e-02 -3.675440e-02 5.101035e-02 -1.860902e-02 3.939181e-02 -1.711839e-02 -9.758767e-03 2.598982e-02 -2.679524e-04
<VARIANCE> 39
 1.443548e+01 9.918089e+01 3.167687e+01 4.099606e+01 5.591090e+01 3.663359e+01 8.043482e+01 4.517671e+01 3.546535e+01 5.436327e+01 4.787814e+01 3.141778e+01 2.432822e-02 1.299345e+00 2.384804e+00 2.296655e+00 2.844810e+00 2.685074e+00 3.952535e+00 3.406418e+00 3.597648e+00 3.944731e+00 2.947879e+00 5.057710e+00 3.043227e+00 1.750495e-03 1.952862e-01 3.004095e-01 3.311342e-01 4.918314e-01 4.165752e-01 7.953959e-01 5.869741e-01 6.730546e-01 7.031543e-01 5.061353e-01 1.018058e+00 6.803983e-01 2.858834e-04
<GCONST> 1.035709e+02
<STATE> 3
<MEAN> 39
 2.447818e-01 -4.440938e+00 3.880306e-01 6.650527e-01 1.309726e+00 1.614854e+00 2.901336e+00 -6.521311e-01 -5.446237e-02 -9.421999e-01 -1.943250e-01 3.137147e-01 6.391094e-01 6.363119e-02 -2.627969e-02 7.099403e-02 1.149200e-01 1.550604e-01 1.983409e-01 5.671523e-02 -1.535731e-01 6.445335e-02 8.627196e-02 5.492024e-02 2.470948e-02 -6.325774e-03 5.644119e-03 1.728467e-02 9.757759e-03 1.983333e-02 2.062314e-02 2.583571e-03 -1.628500e-02 -1.247798e-02 -2.146047e-02 1.924347e-02 7.534381e-03 8.897353e-03 1.530848e-04
<VARIANCE> 39
 1.568864e+01 4.930314e+01 2.620091e+01 3.245843e+01 3.792191e+01 5.940829e+01 5.616291e+01 6.696406e+01 3.038841e+01 3.848103e+01 1.912197e+01 2.532252e+01 2.545597e-02 1.564931e+00 2.008755e+00 1.996108e+00 2.511114e+00 2.547375e+00 3.796745e+00 3.992965e+00 4.000193e+00 3.078234e+00 3.120704e+00 2.723261e+00 2.348090e+00 1.626429e-03 2.870331e-01 2.459012e-01 2.607360e-01 4.410403e-01 4.147004e-01 6.546283e-01 6.921084e-01 7.566904e-01 5.606970e-01 5.571889e-01 6.038694e-01 4.801404e-01 2.597629e-04
<GCONST> 9.867429e+01
<TRANSP> 4
 0.000000e+00 1.000000e+00 0.000000e+00 0.000000e+00
 0.000000e+00 9.801981e-01 1.980197e-02 0.000000e+00
 0.000000e+00 0.000000e+00 9.801980e-01 1.980198e-02
 0.000000e+00 0.000000e+00 0.000000e+00 0.000000e+00
<ENDHMM>
