~o
<STREAMINFO> 1 12
<VECSIZE> 12<NULLD><MFCC_Z><DIAGC>
~h "T1375423456"
<BEGINHMM>
<NUMSTATES> 9
<STATE> 2
<MEAN> 12
 -5.889195e-01 -9.931861e+00 3.139386e+00 3.854190e+00 2.583581e+00 9.132560e-01 3.990070e+00 -4.946842e+00 -6.810744e+00 8.108544e-01 4.996691e+00 -1.455042e+00
<VARIANCE> 12
 3.209848e+00 5.672770e+00 1.032267e+01 9.469600e+00 1.343091e+01 8.057841e+00 2.287624e+01 1.563899e+01 2.245246e+01 1.905754e+01 6.512558e+00 1.777462e+01
<GCONST> 5.091330e+01
<STATE> 3
<MEAN> 12
 -2.797104e+00 -5.848203e+00 7.131376e+00 -8.598179e+00 3.229720e+00 8.875656e+00 8.976371e-01 -1.671566e+00 1.670227e+00 -1.863319e+00 -6.107821e+00 4.569425e+00
<VARIANCE> 12
 3.209848e+00 2.745532e+01 7.124355e+00 3.404066e+01 5.317985e+00 1.106160e+01 1.034691e+01 2.269950e+01 7.697512e+00 6.307403e+01 1.148565e+01 1.960559e+01
<GCONST> 5.316011e+01
<STATE> 4
<MEAN> 12
 -1.904649e+00 5.478648e+00 4.603602e+00 -8.184582e-02 -1.706271e+00 4.501144e+00 4.384587e+00 4.015593e+00 -2.451758e+00 -5.014494e+00 2.181528e+00 3.785566e+00
<VARIANCE> 12
 8.749280e+00 9.054384e+00 7.124355e+00 6.271926e+01 1.242823e+01 1.690956e+01 9.873956e+00 1.438331e+01 1.735033e+01 1.614573e+01 2.899237e+01 1.709541e+01
<GCONST> 5.467386e+01
<STATE> 5
<MEAN> 12
 -6.492905e+00 -8.826625e-03 4.727112e+00 -4.836856e-01 -5.815913e+00 -2.667824e-01 5.543240e-02 4.767738e-01 3.105798e+00 -9.932082e-01 6.839059e+00 1.694007e+00
<VARIANCE> 12
 1.471844e+01 6.796295e+00 7.124355e+00 2.489543e+01 4.361857e+01 3.635795e+01 1.844904e+01 8.530348e+00 5.408366e+01 1.159087e+01 4.296148e+01 1.967956e+01
<GCONST> 5.744638e+01
<STATE> 6
<MEAN> 12
 2.477303e+00 8.228486e-01 1.220623e-01 -1.842509e+00 -1.145886e+01 -1.347359e+01 -2.904938e+00 1.111592e+00 -3.285596e+00 5.717859e-01 -2.566236e+00 -4.519023e+00
<VARIANCE> 12
 6.838978e+00 5.672770e+00 2.481614e+01 7.411203e+00 3.295525e+01 1.907792e+01 3.522184e+01 1.049643e+01 4.078614e+01 7.402994e+00 1.166593e+01 7.409712e+00
<GCONST> 5.345340e+01
<STATE> 7
<MEAN> 12
 6.912170e+00 2.480929e+00 -1.070648e+01 -3.109744e+00 1.821894e+00 -7.553832e+00 -6.293864e+00 -2.749276e+00 5.471843e+00 5.134217e+00 -2.793146e+00 -3.009831e+00
<VARIANCE> 12
 3.209848e+00 5.672770e+00 1.194502e+01 1.342451e+01 1.365253e+01 2.082518e+01 2.125461e+01 1.446294e+01 8.584992e+00 1.897273e+01 9.782320e+00 8.711316e+00
<GCONST> 5.095030e+01
<STATE> 8
<MEAN> 12
 -1.024896e+00 3.157105e+00 -4.609050e+00 7.354646e+00 2.384467e+00 3.379626e-01 -2.196579e+00 2.691985e+00 2.685991e+00 1.960788e+00 -1.036217e+00 -2.603355e+00
<VARIANCE> 12
 2.157754e+01 5.672770e+00 7.124355e+00 9.400364e+00 1.231456e+01 8.057841e+00 1.162039e+01 1.180549e+01 1.480694e+01 1.623414e+01 1.336508e+01 9.022648e+00
<GCONST> 5.085947e+01
<TRANSP> 9
 0.000000e+00 1.000000e+00 0.000000e+00 0.000000e+00 0.000000e+00 0.000000e+00 0.000000e+00 0.000000e+00 0.000000e+00
 0.000000e+00 8.910641e-01 1.089358e-01 0.000000e+00 0.000000e+00 0.000000e+00 0.000000e+00 0.000000e+00 0.000000e+00
 0.000000e+00 0.000000e+00 8.697516e-01 1.302484e-01 0.000000e+00 0.000000e+00 0.000000e+00 0.000000e+00 0.000000e+00
 0.000000e+00 0.000000e+00 0.000000e+00 9.256623e-01 7.433765e-02 0.000000e+00 0.000000e+00 0.000000e+00 0.000000e+00
 0.000000e+00 0.000000e+00 0.000000e+00 0.000000e+00 7.077219e-01 2.922781e-01 0.000000e+00 0.000000e+00 0.000000e+00
 0.000000e+00 0.000000e+00 0.000000e+00 0.000000e+00 0.000000e+00 7.687209e-01 2.312791e-01 0.000000e+00 0.000000e+00
 0.000000e+00 0.000000e+00 0.000000e+00 0.000000e+00 0.000000e+00 0.000000e+00 9.071396e-01 9.286040e-02 0.000000e+00
 0.000000e+00 0.000000e+00 0.000000e+00 0.000000e+00 0.000000e+00 0.000000e+00 0.000000e+00 9.017342e-01 9.826581e-02
 0.000000e+00 0.000000e+00 0.000000e+00 0.000000e+00 0.000000e+00 0.000000e+00 0.000000e+00 0.000000e+00 0.000000e+00
<ENDHMM>
