~o
<STREAMINFO> 1 12
<VECSIZE> 12<NULLD><MFCC_Z><DIAGC>
~h "s067"
<BEGINHMM>
<NUMSTATES> 11
<STATE> 2
<MEAN> 12
 -3.759142e+00 2.410454e+00 6.034122e+00 -1.308548e+01 -5.350309e+00 4.526446e+00 -6.125479e+00 -9.163139e-01 4.974012e-02 3.282129e+00 -5.107545e+00 4.292327e+00
<VARIANCE> 12
 2.151267e+00 1.651843e+01 8.753001e+00 3.014114e+01 1.393888e+01 1.195915e+01 1.136617e+01 1.144796e+01 1.556655e+01 5.507421e+01 1.777722e+01 8.546428e+00
<GCONST> 5.296222e+01
<STATE> 3
<MEAN> 12
 -1.057186e+00 1.340260e+01 -2.265433e+00 -1.316726e+01 -5.982377e+00 -3.370645e+00 -1.080185e+01 2.106982e+00 -1.248024e+00 -1.664061e+00 8.798949e+00 -6.438601e+00
<VARIANCE> 12
 3.506263e+00 1.458679e+01 1.120537e+01 2.599651e+01 9.528971e+00 1.195915e+01 2.131169e+01 5.902024e+00 1.530717e+01 1.015252e+01 3.815385e+01 5.692148e+01
<GCONST> 5.396328e+01
<STATE> 4
<MEAN> 12
 -4.798164e+00 1.382144e+01 6.783886e+00 -8.839458e+00 -3.962687e+00 -2.179746e+00 -6.312517e+00 5.368302e+00 4.198070e+00 -8.441395e-01 6.725159e-01 -2.197953e+00
<VARIANCE> 12
 2.272936e+00 1.458679e+01 1.778137e+01 6.212878e+01 4.546311e+00 3.234252e+01 1.136617e+01 2.663694e+01 2.826912e+01 6.589047e+00 1.447762e+01 2.804617e+01
<GCONST> 5.450035e+01
<STATE> 5
<MEAN> 12
 -4.534640e+00 1.135945e+00 6.624833e+00 -1.191600e+01 3.496002e-01 1.009331e+01 3.831286e+00 -2.840331e+00 -3.996524e+00 1.674559e+00 -3.129679e+00 -1.547063e-01
<VARIANCE> 12
 2.151267e+00 2.813794e+01 8.158607e+00 2.405399e+01 4.879644e+00 1.972270e+01 1.403730e+01 1.773431e+01 4.737894e+01 3.615269e+01 2.500103e+01 7.830527e+00
<GCONST> 5.424401e+01
<STATE> 6
<MEAN> 12
 -2.486662e+00 -7.858303e+00 5.547886e-01 8.289996e-02 5.488550e+00 -1.945305e+00 4.946679e+00 -3.234126e+00 -1.145830e+01 8.006835e+00 5.516335e+00 -1.176943e+00
<VARIANCE> 12
 2.151267e+00 1.458679e+01 9.195609e+00 3.717732e+01 7.141663e+00 6.154133e+01 1.136617e+01 5.094296e+00 1.647986e+01 1.548562e+01 1.909643e+01 9.179872e+00
<GCONST> 5.218811e+01
<STATE> 7
<MEAN> 12
 1.687343e+00 -1.144665e+01 -5.949677e+00 8.632736e+00 4.365265e+00 -1.446915e+01 1.856030e-01 5.436878e-01 -1.647315e+00 -9.374319e-01 1.776637e-01 7.223625e+00
<VARIANCE> 12
 7.597229e+00 1.458679e+01 5.186221e+00 2.058821e+01 1.283820e+01 1.486966e+01 1.809904e+01 1.790396e+01 2.109647e+01 1.164622e+01 3.802799e+01 1.573023e+01
<GCONST> 5.436377e+01
<STATE> 8
<MEAN> 12
 5.882014e+00 -5.376982e+00 -5.051008e+00 1.190978e+01 4.617178e+00 -6.798834e+00 -5.727323e-01 -7.902195e-01 3.238764e+00 -3.412157e+00 -7.543850e+00 3.416338e+00
<VARIANCE> 12
 3.204991e+00 1.458679e+01 5.550171e+00 2.058821e+01 4.329988e+00 3.629258e+01 1.715928e+01 2.154126e+01 1.517004e+01 1.446254e+01 2.810118e+01 2.496537e+01
<GCONST> 5.355177e+01
<STATE> 9
<MEAN> 12
 2.482491e+00 -2.764974e+00 1.153794e+00 1.195705e+01 3.953399e-01 7.422462e+00 6.986011e+00 -1.940785e+00 2.935255e-01 -9.515694e-01 -1.646861e+00 1.453966e-01
<VARIANCE> 12
 3.989235e+00 1.458679e+01 1.870774e+01 2.058821e+01 6.762097e+00 1.534266e+01 2.657066e+01 2.053042e+01 8.758428e+00 1.758951e+01 2.922403e+01 2.518913e+01
<GCONST> 5.465431e+01
<STATE> 10
<MEAN> 12
 1.493332e+00 -1.081231e+01 -2.356204e+00 6.559610e+00 5.451584e+00 9.971121e+00 1.372372e+01 -1.516250e+00 3.078264e+00 1.500244e+00 -7.642286e-01 -2.811148e+00
<VARIANCE> 12
 3.602264e+00 1.458679e+01 1.256743e+01 2.058821e+01 9.634498e+00 1.195915e+01 1.136617e+01 2.140048e+01 4.303651e+00 1.596668e+01 2.278155e+01 6.325646e+00
<GCONST> 5.101347e+01
<TRANSP> 11
 0.000000e+00 1.000000e+00 0.000000e+00 0.000000e+00 0.000000e+00 0.000000e+00 0.000000e+00 0.000000e+00 0.000000e+00 0.000000e+00 0.000000e+00
 0.000000e+00 8.643436e-01 1.356564e-01 0.000000e+00 0.000000e+00 0.000000e+00 0.000000e+00 0.000000e+00 0.000000e+00 0.000000e+00 0.000000e+00
 0.000000e+00 0.000000e+00 9.150414e-01 8.495864e-02 0.000000e+00 0.000000e+00 0.000000e+00 0.000000e+00 0.000000e+00 0.000000e+00 0.000000e+00
 0.000000e+00 0.000000e+00 0.000000e+00 8.643665e-01 1.356335e-01 0.000000e+00 0.000000e+00 0.000000e+00 0.000000e+00 0.000000e+00 0.000000e+00
 0.000000e+00 0.000000e+00 0.000000e+00 0.000000e+00 6.946777e-01 3.053223e-01 0.000000e+00 0.000000e+00 0.000000e+00 0.000000e+00 0.000000e+00
 0.000000e+00 0.000000e+00 0.000000e+00 0.000000e+00 0.000000e+00 7.250935e-01 2.749065e-01 0.000000e+00 0.000000e+00 0.000000e+00 0.000000e+00
 0.000000e+00 0.000000e+00 0.000000e+00 0.000000e+00 0.000000e+00 0.000000e+00 8.791744e-01 1.208256e-01 0.000000e+00 0.000000e+00 0.000000e+00
 0.000000e+00 0.000000e+00 0.000000e+00 0.000000e+00 0.000000e+00 0.000000e+00 0.000000e+00 8.662777e-01 1.337223e-01 0.000000e+00 0.000000e+00
 0.000000e+00 0.000000e+00 0.000000e+00 0.000000e+00 0.000000e+00 0.000000e+00 0.000000e+00 0.000000e+00 9.167477e-01 8.325233e-02 0.000000e+00
 0.000000e+00 0.000000e+00 0.000000e+00 0.000000e+00 0.000000e+00 0.000000e+00 0.000000e+00 0.000000e+00 0.000000e+00 8.718953e-01 1.281047e-01
 0.000000e+00 0.000000e+00 0.000000e+00 0.000000e+00 0.000000e+00 0.000000e+00 0.000000e+00 0.000000e+00 0.000000e+00 0.000000e+00 0.000000e+00
<ENDHMM>
