~o
<STREAMINFO> 1 12
<VECSIZE> 12<NULLD><MFCC_Z><DIAGC>
~h "s070"
<BEGINHMM>
<NUMSTATES> 7
<STATE> 2
<MEAN> 12
 -9.065603e-01 -2.705716e+00 5.338517e-01 -4.994714e-01 -3.685600e-01 -2.395304e+00 1.045631e+00 -1.719073e+00 -5.136964e+00 -1.398820e-01 2.477257e+00 2.511519e+00
<VARIANCE> 12
 5.800956e+00 1.532161e+01 5.646985e+01 2.623293e+01 2.263834e+01 3.861692e+01 3.086085e+01 1.620205e+01 4.347832e+01 1.982438e+01 7.039181e+00 6.300376e+01
<GCONST> 5.968436e+01
<STATE> 3
<MEAN> 12
 2.757192e-01 9.771273e-02 -3.797362e+00 -1.499339e+00 1.022514e+00 1.212403e+00 -2.505646e+00 -6.540023e-01 1.403860e-01 -1.489230e-01 2.057959e+00 -3.278876e+00
<VARIANCE> 12
 5.000912e+00 1.641207e+01 3.845948e+01 4.655448e+01 2.562165e+01 4.142265e+01 3.366904e+01 3.891419e+01 1.954210e+01 3.157513e+01 1.098758e+01 4.252322e+01
<GCONST> 6.066935e+01
<STATE> 4
<MEAN> 12
 -2.711680e-01 2.677615e-01 -1.961427e+00 -3.630508e-01 1.879047e+00 6.451767e-02 -2.008598e+00 8.358195e-01 1.880654e+00 -7.300505e-01 1.967018e+00 -2.984505e+00
<VARIANCE> 12
 4.512230e+00 9.948835e+00 3.343492e+01 6.364032e+01 3.492801e+01 3.515080e+01 3.366863e+01 4.116723e+01 1.160567e+01 3.345400e+01 2.112196e+01 3.722727e+01
<GCONST> 6.049778e+01
<STATE> 5
<MEAN> 12
 -4.849630e-01 2.260713e-02 9.049175e-01 1.762474e+00 3.033004e-01 -1.409492e+00 3.303793e-03 1.148530e+00 2.259327e+00 1.760142e-02 -2.706101e-01 9.926581e-01
<VARIANCE> 12
 6.020731e+00 8.901923e+00 2.076255e+01 4.536607e+01 4.335005e+01 2.823892e+01 2.550949e+01 3.302314e+01 7.440943e+00 3.042713e+01 4.333852e+01 4.074099e+01
<GCONST> 5.962880e+01
<STATE> 6
<MEAN> 12
 1.386972e+00 2.317633e+00 4.320009e+00 5.993866e-01 -2.836299e+00 2.527878e+00 3.465312e+00 3.887296e-01 8.565918e-01 1.001252e+00 -6.231617e+00 2.759197e+00
<VARIANCE> 12
 8.572525e+00 1.090063e+01 1.675738e+01 2.544001e+01 2.479026e+01 3.689227e+01 3.913712e+01 2.491780e+01 9.022576e+00 3.041007e+01 4.164345e+01 2.393190e+01
<GCONST> 5.886703e+01
<TRANSP> 7
 0.000000e+00 1.000000e+00 0.000000e+00 0.000000e+00 0.000000e+00 0.000000e+00 0.000000e+00
 0.000000e+00 8.809524e-01 1.190476e-01 0.000000e+00 0.000000e+00 0.000000e+00 0.000000e+00
 0.000000e+00 0.000000e+00 8.809524e-01 1.190476e-01 0.000000e+00 0.000000e+00 0.000000e+00
 0.000000e+00 0.000000e+00 0.000000e+00 8.809524e-01 1.190476e-01 0.000000e+00 0.000000e+00
 0.000000e+00 0.000000e+00 0.000000e+00 0.000000e+00 8.809524e-01 1.190476e-01 0.000000e+00
 0.000000e+00 0.000000e+00 0.000000e+00 0.000000e+00 0.000000e+00 8.809524e-01 1.190476e-01
 0.000000e+00 0.000000e+00 0.000000e+00 0.000000e+00 0.000000e+00 0.000000e+00 0.000000e+00
<ENDHMM>
