~o
<STREAMINFO> 1 12
<VECSIZE> 12<NULLD><MFCC_Z><DIAGC>
~h "s005"
<BEGINHMM>
<NUMSTATES> 10
<STATE> 2
<MEAN> 12
 -2.159307e+00 5.518735e+00 5.401252e+00 -7.240137e+00 8.491532e-01 -6.792449e+00 1.074247e+01 1.203749e+00 -8.038269e-01 7.023630e-01 4.822940e+00 -1.346620e+00
<VARIANCE> 12
 6.638819e+00 7.562783e+01 6.123798e+01 1.623815e+01 9.091993e+01 8.975826e+00 2.283162e+01 3.462296e+01 8.005005e+00 4.685485e+01 5.124878e+01 2.767704e+00
<GCONST> 5.943442e+01
<STATE> 3
<MEAN> 12
 8.088858e-01 -5.653481e+00 -8.655951e+00 -9.468037e-01 1.144828e+01 4.604968e+00 -5.685614e+00 6.536957e+00 1.774142e-01 5.559664e-01 4.274917e+00 -4.583418e-01
<VARIANCE> 12
 3.059999e+00 9.671834e+00 2.101646e+01 7.568515e+00 5.785631e+00 2.918122e+01 3.144596e+01 7.614720e+00 1.254093e+01 6.309185e+00 1.857289e+01 2.767704e+00
<GCONST> 4.942944e+01
<STATE> 4
<MEAN> 12
 3.904935e+00 5.710862e+00 -1.284502e+01 -7.866935e+00 2.199740e+00 8.459360e+00 -5.519487e+00 5.877408e-01 7.696651e+00 3.699278e+00 -1.896080e+00 2.390744e+00
<VARIANCE> 12
 1.966727e+00 1.679390e+01 2.032315e+01 1.936424e+01 3.562241e+01 1.837521e+01 2.482528e+01 6.146288e+01 8.005005e+00 6.379889e+00 3.377540e+01 5.426641e+00
<GCONST> 5.448564e+01
<STATE> 5
<MEAN> 12
 4.814867e+00 1.184559e+01 -5.253462e-01 -4.313061e+00 -1.834755e+00 -4.380013e+00 -1.219117e+01 -1.047314e+01 1.212496e+01 2.837626e+00 5.809142e+00 6.807916e+00
<VARIANCE> 12
 1.966727e+00 9.269497e+00 1.672858e+01 7.568515e+00 5.785631e+00 1.818294e+01 1.927295e+01 5.811234e+01 1.103524e+01 2.685989e+01 3.592836e+01 1.344702e+01
<GCONST> 5.334769e+01
<STATE> 6
<MEAN> 12
 3.926430e-01 1.379375e+00 -5.847291e+00 -1.655413e+00 -2.413660e+00 -3.512434e+00 7.263499e-01 6.696009e+00 5.587751e+00 -6.004740e+00 -1.211204e+00 4.504828e+00
<VARIANCE> 12
 3.124405e+00 1.382905e+01 1.120471e+01 1.242350e+01 5.785631e+00 5.218682e+00 1.370423e+01 1.225368e+01 2.515900e+01 1.482006e+01 2.011308e+01 1.027828e+01
<GCONST> 5.054021e+01
<STATE> 7
<MEAN> 12
 -4.064908e+00 -5.093135e+00 -2.371768e-01 7.850327e+00 -3.220306e+00 -1.014444e+00 6.808500e-01 4.906388e+00 -1.366772e+00 -8.533777e-01 3.058452e-01 2.173279e+00
<VARIANCE> 12
 2.963705e+00 9.269497e+00 1.528567e+01 1.700552e+01 5.785631e+00 5.114498e+00 9.722310e+00 9.266529e+00 8.104567e+00 5.799502e+00 6.978020e+00 5.379196e+00
<GCONST> 4.629193e+01
<STATE> 8
<MEAN> 12
 -3.041175e+00 -7.397253e+00 4.573545e+00 5.992751e+00 -2.774212e+00 -4.111787e-01 5.402490e+00 1.045201e+00 -6.782720e+00 -3.026586e-01 -5.631339e-01 -2.816363e+00
<VARIANCE> 12
 4.638566e+00 9.269497e+00 1.120471e+01 2.091736e+01 6.423635e+00 5.114498e+00 1.114392e+01 7.304942e+00 8.005005e+00 1.872217e+01 1.568418e+01 2.842228e+00
<GCONST> 4.797109e+01
<STATE> 9
<MEAN> 12
 1.417573e+00 -1.318502e+00 1.031721e+01 4.385917e+00 -2.072059e+00 -4.255919e-01 1.534022e-01 -5.111475e+00 -7.247795e+00 -5.460756e+00 -1.002515e+01 -4.991000e+00
<VARIANCE> 12
 1.966727e+00 1.117481e+01 1.120471e+01 7.568515e+00 5.785631e+00 1.582258e+01 1.539547e+01 7.304942e+00 1.515105e+01 2.074417e+01 6.873589e+00 9.645635e+00
<GCONST> 4.876886e+01
<TRANSP> 10
 0.000000e+00 1.000000e+00 0.000000e+00 0.000000e+00 0.000000e+00 0.000000e+00 0.000000e+00 0.000000e+00 0.000000e+00 0.000000e+00
 0.000000e+00 8.717725e-01 1.282276e-01 0.000000e+00 0.000000e+00 0.000000e+00 0.000000e+00 0.000000e+00 0.000000e+00 0.000000e+00
 0.000000e+00 0.000000e+00 8.264725e-01 1.735275e-01 0.000000e+00 0.000000e+00 0.000000e+00 0.000000e+00 0.000000e+00 0.000000e+00
 0.000000e+00 0.000000e+00 0.000000e+00 8.929707e-01 1.070293e-01 0.000000e+00 0.000000e+00 0.000000e+00 0.000000e+00 0.000000e+00
 0.000000e+00 0.000000e+00 0.000000e+00 0.000000e+00 8.553063e-01 1.446937e-01 0.000000e+00 0.000000e+00 0.000000e+00 0.000000e+00
 0.000000e+00 0.000000e+00 0.000000e+00 0.000000e+00 0.000000e+00 4.893531e-01 5.106470e-01 0.000000e+00 0.000000e+00 0.000000e+00
 0.000000e+00 0.000000e+00 0.000000e+00 0.000000e+00 0.000000e+00 0.000000e+00 8.386764e-01 1.613236e-01 0.000000e+00 0.000000e+00
 0.000000e+00 0.000000e+00 0.000000e+00 0.000000e+00 0.000000e+00 0.000000e+00 0.000000e+00 9.307430e-01 6.925699e-02 0.000000e+00
 0.000000e+00 0.000000e+00 0.000000e+00 0.000000e+00 0.000000e+00 0.000000e+00 0.000000e+00 0.000000e+00 8.682165e-01 1.317834e-01
 0.000000e+00 0.000000e+00 0.000000e+00 0.000000e+00 0.000000e+00 0.000000e+00 0.000000e+00 0.000000e+00 0.000000e+00 0.000000e+00
<ENDHMM>
