~o
<STREAMINFO> 1 12
<VECSIZE> 12<NULLD><MFCC_Z><DIAGC>
~h "s098"
<BEGINHMM>
<NUMSTATES> 11
<STATE> 2
<MEAN> 12
 -3.984348e+00 -4.251142e+00 -4.471008e+00 2.822876e+00 -5.062819e+00 -7.120262e-01 2.091535e+00 -2.318976e+00 -3.235366e+00 -3.785511e+00 2.140705e+00 -3.410821e+00
<VARIANCE> 12
 4.381556e+01 6.323499e+01 3.804310e+01 3.593346e+01 6.380396e+01 5.000354e+01 9.815915e+00 2.921004e+01 4.363070e+01 2.706185e+01 5.492632e+01 2.744461e+01
<GCONST> 6.532024e+01
<STATE> 3
<MEAN> 12
 -1.065256e-01 -7.627263e+00 -8.362954e+00 6.791733e+00 -1.053598e+00 -5.488262e+00 1.965699e+00 -2.104281e+00 -2.624707e+00 -4.568540e+00 -1.162347e+00 -1.257031e+00
<VARIANCE> 12
 7.303030e+00 1.723612e+01 3.738142e+01 3.774606e+01 5.052521e+01 3.492827e+01 1.451795e+01 3.243372e+01 4.219578e+01 2.405750e+01 5.849839e+01 2.646347e+01
<GCONST> 6.203976e+01
<STATE> 4
<MEAN> 12
 5.081774e-01 -6.036090e+00 -6.122678e+00 7.730607e+00 2.368389e+00 -5.248841e+00 2.878193e+00 -2.445464e+00 1.309138e-02 -3.380749e+00 -3.706178e+00 1.431942e+00
<VARIANCE> 12
 6.033541e+00 1.590693e+01 6.780140e+01 6.554969e+01 4.474313e+01 3.422825e+01 2.674129e+01 3.354243e+01 2.801687e+01 4.427146e+01 2.830634e+01 1.525016e+01
<GCONST> 6.234184e+01
<STATE> 5
<MEAN> 12
 2.064272e-01 -3.841267e+00 -9.587961e-01 5.435373e+00 4.749768e+00 -2.482632e+00 2.858508e+00 -2.268880e+00 5.575051e-01 -9.269084e-01 -3.328480e+00 2.327519e+00
<VARIANCE> 12
 5.401069e+00 2.912432e+01 7.516995e+01 1.468537e+02 5.300479e+01 5.002229e+01 4.491762e+01 3.837825e+01 2.055091e+01 6.069913e+01 2.256389e+01 1.155062e+01
<GCONST> 6.444898e+01
<STATE> 6
<MEAN> 12
 -3.046743e-01 -5.566613e-01 3.340252e+00 -1.285871e+00 4.644331e+00 7.767177e-01 4.408544e-01 -1.044260e+00 -5.919461e-02 7.705215e-01 -1.429926e+00 1.751592e+00
<VARIANCE> 12
 3.644121e+00 5.217445e+01 4.343556e+01 2.386497e+02 6.086824e+01 5.067610e+01 7.173375e+01 4.644149e+01 1.968036e+01 5.537696e+01 2.910292e+01 1.514304e+01
<GCONST> 6.577599e+01
<STATE> 7
<MEAN> 12
 -3.904734e-01 3.905954e+00 5.228917e+00 -9.045350e+00 1.854145e+00 2.675749e+00 -3.292739e+00 1.396328e+00 -2.162001e-01 4.519409e-01 7.599003e-01 4.564555e-01
<VARIANCE> 12
 3.596494e+00 5.799908e+01 1.769731e+01 2.173250e+02 5.847080e+01 3.379746e+01 7.910922e+01 4.938316e+01 1.789995e+01 4.538359e+01 2.930071e+01 1.828962e+01
<GCONST> 6.449297e+01
<STATE> 8
<MEAN> 12
 3.482993e-01 7.417392e+00 5.229349e+00 -1.135390e+01 -1.250394e+00 2.719179e+00 -5.019085e+00 3.938957e+00 7.700018e-01 4.296455e-01 2.131408e+00 -5.760652e-01
<VARIANCE> 12
 6.978000e+00 3.637650e+01 1.069913e+01 1.637905e+02 3.464882e+01 2.146610e+01 6.203860e+01 3.761057e+01 1.777877e+01 4.283400e+01 2.145208e+01 1.790568e+01
<GCONST> 6.201302e+01
<STATE> 9
<MEAN> 12
 1.759111e+00 7.317247e+00 4.150620e+00 -5.376158e+00 -2.983508e+00 2.627521e+00 -3.060050e+00 4.407400e+00 2.306319e+00 3.507435e+00 2.434538e+00 -8.816978e-01
<VARIANCE> 12
 8.516527e+00 2.535452e+01 1.058222e+01 1.696692e+02 1.450062e+01 1.858708e+01 4.598831e+01 3.144721e+01 1.692337e+01 5.418396e+01 1.461640e+01 1.800010e+01
<GCONST> 6.018947e+01
<STATE> 10
<MEAN> 12
 1.963920e+00 3.671756e+00 1.966422e+00 4.280871e+00 -3.266301e+00 5.132781e+00 1.137236e+00 4.389468e-01 2.488541e+00 7.502399e+00 2.160381e+00 1.580899e-01
<VARIANCE> 12
 5.446021e+00 2.048026e+01 1.014697e+01 9.335273e+01 1.099439e+01 2.883013e+01 3.013553e+01 4.207344e+01 1.383226e+01 4.096459e+01 9.264166e+00 1.716350e+01
<GCONST> 5.793501e+01
<TRANSP> 11
 0.000000e+00 1.000000e+00 0.000000e+00 0.000000e+00 0.000000e+00 0.000000e+00 0.000000e+00 0.000000e+00 0.000000e+00 0.000000e+00 0.000000e+00
 0.000000e+00 8.695652e-01 1.304348e-01 0.000000e+00 0.000000e+00 0.000000e+00 0.000000e+00 0.000000e+00 0.000000e+00 0.000000e+00 0.000000e+00
 0.000000e+00 0.000000e+00 8.695652e-01 1.304348e-01 0.000000e+00 0.000000e+00 0.000000e+00 0.000000e+00 0.000000e+00 0.000000e+00 0.000000e+00
 0.000000e+00 0.000000e+00 0.000000e+00 8.695652e-01 1.304348e-01 0.000000e+00 0.000000e+00 0.000000e+00 0.000000e+00 0.000000e+00 0.000000e+00
 0.000000e+00 0.000000e+00 0.000000e+00 0.000000e+00 8.695652e-01 1.304348e-01 0.000000e+00 0.000000e+00 0.000000e+00 0.000000e+00 0.000000e+00
 0.000000e+00 0.000000e+00 0.000000e+00 0.000000e+00 0.000000e+00 8.695652e-01 1.304348e-01 0.000000e+00 0.000000e+00 0.000000e+00 0.000000e+00
 0.000000e+00 0.000000e+00 0.000000e+00 0.000000e+00 0.000000e+00 0.000000e+00 8.695652e-01 1.304348e-01 0.000000e+00 0.000000e+00 0.000000e+00
 0.000000e+00 0.000000e+00 0.000000e+00 0.000000e+00 0.000000e+00 0.000000e+00 0.000000e+00 8.695652e-01 1.304348e-01 0.000000e+00 0.000000e+00
 0.000000e+00 0.000000e+00 0.000000e+00 0.000000e+00 0.000000e+00 0.000000e+00 0.000000e+00 0.000000e+00 8.695652e-01 1.304348e-01 0.000000e+00
 0.000000e+00 0.000000e+00 0.000000e+00 0.000000e+00 0.000000e+00 0.000000e+00 0.000000e+00 0.000000e+00 0.000000e+00 8.695652e-01 1.304348e-01
 0.000000e+00 0.000000e+00 0.000000e+00 0.000000e+00 0.000000e+00 0.000000e+00 0.000000e+00 0.000000e+00 0.000000e+00 0.000000e+00 0.000000e+00
<ENDHMM>
