~o
<STREAMINFO> 1 12
<VECSIZE> 12<NULLD><MFCC_Z><DIAGC>
~h "s079"
<BEGINHMM>
<NUMSTATES> 6
<STATE> 2
<MEAN> 12
 -4.410744e-07 -2.384186e-08 -1.490116e-07 -5.245209e-07 9.536743e-08 0.000000e+00 0.000000e+00 -7.152558e-08 -1.668930e-07 -1.788139e-07 -2.801418e-07 -5.960464e-07
<VARIANCE> 12
 1.333464e+01 4.315963e+01 1.724034e+01 3.379245e+01 4.749508e+01 4.166157e+01 4.489442e+01 7.546910e+01 3.977840e+01 2.358318e+01 2.204811e+01 1.079616e+02
<GCONST> 6.511439e+01
<STATE> 3
<MEAN> 12
 -4.410744e-07 -2.384186e-08 -1.490116e-07 -5.245209e-07 9.536743e-08 0.000000e+00 0.000000e+00 -7.152558e-08 -1.668930e-07 -1.788139e-07 -2.801418e-07 -5.960464e-07
<VARIANCE> 12
 1.333464e+01 4.315963e+01 1.724034e+01 3.379245e+01 4.749508e+01 4.166157e+01 4.489442e+01 7.546910e+01 3.977840e+01 2.358318e+01 2.204811e+01 1.079616e+02
<GCONST> 6.511439e+01
<STATE> 4
<MEAN> 12
 -4.410744e-07 -2.384186e-08 -1.490116e-07 -5.245209e-07 9.536743e-08 0.000000e+00 0.000000e+00 -7.152558e-08 -1.668930e-07 -1.788139e-07 -2.801418e-07 -5.960464e-07
<VARIANCE> 12
 1.333464e+01 4.315963e+01 1.724034e+01 3.379245e+01 4.749508e+01 4.166157e+01 4.489442e+01 7.546910e+01 3.977840e+01 2.358318e+01 2.204811e+01 1.079616e+02
<GCONST> 6.511439e+01
<STATE> 5
<MEAN> 12
 -4.410744e-07 -2.384186e-08 -1.490116e-07 -5.245209e-07 9.536743e-08 0.000000e+00 0.000000e+00 -7.152558e-08 -1.668930e-07 -1.788139e-07 -2.801418e-07 -5.960464e-07
<VARIANCE> 12
 1.333464e+01 4.315963e+01 1.724034e+01 3.379245e+01 4.749508e+01 4.166157e+01 4.489442e+01 7.546910e+01 3.977840e+01 2.358318e+01 2.204811e+01 1.079616e+02
<GCONST> 6.511439e+01
<TRANSP> 6
 0.000000e+00 1.000000e+00 0.000000e+00 0.000000e+00 0.000000e+00 0.000000e+00
 0.000000e+00 9.000000e-01 9.999999e-02 0.000000e+00 0.000000e+00 0.000000e+00
 0.000000e+00 0.000000e+00 9.000000e-01 9.999999e-02 0.000000e+00 0.000000e+00
 0.000000e+00 0.000000e+00 0.000000e+00 9.000000e-01 9.999999e-02 0.000000e+00
 0.000000e+00 0.000000e+00 0.000000e+00 0.000000e+00 9.000000e-01 9.999999e-02
 0.000000e+00 0.000000e+00 0.000000e+00 0.000000e+00 0.000000e+00 0.000000e+00
<ENDHMM>
