~o
<STREAMINFO> 1 12
<VECSIZE> 12<NULLD><MFCC_Z><DIAGC>
~h "s043"
<BEGINHMM>
<NUMSTATES> 9
<STATE> 2
<MEAN> 12
 -1.335112e+01 -1.279947e+00 -3.955003e+00 1.276839e+01 1.195114e+01 5.373343e+00 1.443203e+01 1.485709e+00 2.803775e+00 2.527659e+00 4.424499e+00 -1.907578e+00
<VARIANCE> 12
 6.465967e+00 1.552822e+00 2.937873e+00 1.194222e+01 5.718330e+00 7.605133e+00 2.243978e+01 1.771491e+01 5.616109e+00 1.433207e+01 9.251388e+00 1.255228e+01
<GCONST> 4.681947e+01
<STATE> 3
<MEAN> 12
 -4.029484e+00 2.186523e+00 2.741396e-01 -7.497265e+00 -1.216242e+00 -7.866016e+00 -2.599218e+00 5.720067e+00 3.623732e+00 -1.094537e+00 -1.426334e+00 -1.085673e+01
<VARIANCE> 12
 6.465967e+00 8.656683e+00 5.087743e+00 1.194222e+01 7.330921e+00 1.740679e+01 1.026535e+01 3.790347e+01 1.260098e+01 3.720919e+01 1.611517e+01 1.549194e+01
<GCONST> 5.266951e+01
<STATE> 4
<MEAN> 12
 6.198560e-01 -1.923552e+00 -1.068764e+00 -4.917972e+00 -4.625201e+00 5.850367e+00 2.012052e+00 1.492453e+00 8.408898e-01 -5.652842e+00 -4.546100e+00 2.787982e+00
<VARIANCE> 12
 1.543840e+01 4.848844e+00 5.557337e+00 2.227620e+01 1.135494e+01 1.902713e+01 1.716331e+01 1.204872e+01 1.376464e+01 1.474038e+01 1.638383e+01 2.388784e+01
<GCONST> 5.317837e+01
<STATE> 5
<MEAN> 12
 -1.596584e+00 2.934858e+00 6.807502e+00 -5.884427e+00 6.990565e-01 -7.810077e+00 -3.205254e+00 6.979391e+00 -1.859399e+00 -2.256035e+00 1.721525e-01 -4.260643e+00
<VARIANCE> 12
 6.465967e+00 4.437158e+00 1.503751e+01 2.178921e+01 1.347134e+01 1.311775e+01 1.321313e+02 8.663696e+00 3.956089e+00 2.354256e+01 6.199728e+00 1.297410e+01
<GCONST> 5.234205e+01
<STATE> 6
<MEAN> 12
 -7.922826e-01 4.376776e+00 -1.411792e+00 -9.556170e+00 1.901329e-01 -9.895872e-01 -3.286392e+00 1.690470e+00 -3.513305e+00 -2.300878e+00 2.139764e+00 1.092675e+01
<VARIANCE> 12
 6.465967e+00 1.373299e+00 5.140147e+00 1.194222e+01 1.214375e+01 7.605133e+00 1.026535e+01 2.641101e+01 1.264079e+01 8.982249e+00 6.448267e+00 1.308569e+01
<GCONST> 4.765116e+01
<STATE> 7
<MEAN> 12
 6.039772e+00 -5.884064e-01 -4.540895e+00 4.665057e-01 4.229796e+00 -1.370330e+00 -7.565468e+00 -1.019571e+01 1.786737e-02 3.036291e+00 -2.218559e+00 6.114176e+00
<VARIANCE> 12
 6.835428e+00 1.373299e+00 2.937873e+00 1.194222e+01 1.379474e+01 2.166019e+01 1.026535e+01 2.019662e+01 2.519984e+01 1.158587e+01 2.467257e+01 5.319614e+01
<GCONST> 5.174198e+01
<STATE> 8
<MEAN> 12
 7.852895e+00 -2.081017e+00 -6.748488e-02 1.203747e+01 -4.379501e+00 4.389810e+00 4.887595e-02 -7.452250e+00 -2.567345e+00 7.235278e+00 4.996540e+00 2.894695e+00
<VARIANCE> 12
 6.465967e+00 4.730544e+00 3.943736e+00 1.194222e+01 1.715097e+01 2.312154e+01 1.026535e+01 2.987337e+01 3.114684e+01 5.783587e+00 2.909772e+01 7.739328e+00
<GCONST> 5.164660e+01
<TRANSP> 9
 0.000000e+00 1.000000e+00 0.000000e+00 0.000000e+00 0.000000e+00 0.000000e+00 0.000000e+00 0.000000e+00 0.000000e+00
 0.000000e+00 8.333333e-01 1.666667e-01 0.000000e+00 0.000000e+00 0.000000e+00 0.000000e+00 0.000000e+00 0.000000e+00
 0.000000e+00 0.000000e+00 8.567281e-01 1.432719e-01 0.000000e+00 0.000000e+00 0.000000e+00 0.000000e+00 0.000000e+00
 0.000000e+00 0.000000e+00 0.000000e+00 9.198806e-01 8.011938e-02 0.000000e+00 0.000000e+00 0.000000e+00 0.000000e+00
 0.000000e+00 0.000000e+00 0.000000e+00 0.000000e+00 9.039872e-01 9.601280e-02 0.000000e+00 0.000000e+00 0.000000e+00
 0.000000e+00 0.000000e+00 0.000000e+00 0.000000e+00 0.000000e+00 5.756078e-01 4.243922e-01 0.000000e+00 0.000000e+00
 0.000000e+00 0.000000e+00 0.000000e+00 0.000000e+00 0.000000e+00 0.000000e+00 8.570230e-01 1.429770e-01 0.000000e+00
 0.000000e+00 0.000000e+00 0.000000e+00 0.000000e+00 0.000000e+00 0.000000e+00 0.000000e+00 8.976790e-01 1.023210e-01
 0.000000e+00 0.000000e+00 0.000000e+00 0.000000e+00 0.000000e+00 0.000000e+00 0.000000e+00 0.000000e+00 0.000000e+00
<ENDHMM>
