~o
<STREAMINFO> 1 39
<VECSIZE> 39<NULLD><MFCC_E_D_A_Z><DIAGC>
~h "s003"
<BEGINHMM>
<NUMSTATES> 10
<STATE> 2
<MEAN> 39
 -4.029610e-07 2.686406e-08 -3.626649e-07 -4.163930e-07 4.029610e-07 -2.686407e-07 -1.477524e-07 -1.040983e-07 -1.007402e-07 4.029610e-08 -1.813324e-07 -6.044414e-08 7.693075e-01 1.424880e-01 -6.523943e-02 1.796565e-01 3.060811e-01 -1.331593e-01 1.117703e-01 1.091483e-01 8.810407e-02 1.647776e-01 7.474349e-02 2.191293e-01 -1.388521e-01 -3.255139e-03 -1.659925e-03 -1.080536e-02 9.222491e-03 2.569953e-02 1.706477e-02 -9.104799e-03 1.674486e-03 -1.292951e-02 -2.047286e-02 4.527834e-02 -8.126672e-03 2.481399e-04 -4.496602e-04
<VARIANCE> 39
 3.067026e+01 6.091140e+01 6.810110e+01 5.952459e+01 7.359403e+01 8.547794e+01 4.891212e+01 2.341935e+01 2.495263e+01 3.569832e+01 2.509812e+01 3.183771e+01 2.021046e-02 2.098125e+00 1.519245e+00 1.510872e+00 3.443157e+00 4.366448e+00 3.222894e+00 2.712432e+00 3.610328e+00 2.913285e+00 3.356700e+00 3.461423e+00 1.936098e+00 6.952136e-04 2.917751e-01 1.614774e-01 1.585432e-01 5.893137e-01 7.629826e-01 5.137284e-01 4.948000e-01 7.326355e-01 5.238029e-01 6.086913e-01 6.630055e-01 2.688186e-01 7.214158e-05
<GCONST> 9.774557e+01
<STATE> 3
<MEAN> 39
 -4.029610e-07 2.686406e-08 -3.626649e-07 -4.163930e-07 4.029610e-07 -2.686407e-07 -1.477524e-07 -1.040983e-07 -1.007402e-07 4.029610e-08 -1.813324e-07 -6.044414e-08 7.693075e-01 1.424880e-01 -6.523943e-02 1.796565e-01 3.060811e-01 -1.331593e-01 1.117703e-01 1.091483e-01 8.810407e-02 1.647776e-01 7.474349e-02 2.191293e-01 -1.388521e-01 -3.255139e-03 -1.659925e-03 -1.080536e-02 9.222491e-03 2.569953e-02 1.706477e-02 -9.104799e-03 1.674486e-03 -1.292951e-02 -2.047286e-02 4.527834e-02 -8.126672e-03 2.481399e-04 -4.496602e-04
<VARIANCE> 39
 3.067026e+01 6.091140e+01 6.810110e+01 5.952459e+01 7.359403e+01 8.547794e+01 4.891212e+01 2.341935e+01 2.495263e+01 3.569832e+01 2.509812e+01 3.183771e+01 2.021046e-02 2.098125e+00 1.519245e+00 1.510872e+00 3.443157e+00 4.366448e+00 3.222894e+00 2.712432e+00 3.610328e+00 2.913285e+00 3.356700e+00 3.461423e+00 1.936098e+00 6.952136e-04 2.917751e-01 1.614774e-01 1.585432e-01 5.893137e-01 7.629826e-01 5.137284e-01 4.948000e-01 7.326355e-01 5.238029e-01 6.086913e-01 6.630055e-01 2.688186e-01 7.214158e-05
<GCONST> 9.774557e+01
<STATE> 4
<MEAN> 39
 -4.029610e-07 2.686406e-08 -3.626649e-07 -4.163930e-07 4.029610e-07 -2.686407e-07 -1.477524e-07 -1.040983e-07 -1.007402e-07 4.029610e-08 -1.813324e-07 -6.044414e-08 7.693075e-01 1.424880e-01 -6.523943e-02 1.796565e-01 3.060811e-01 -1.331593e-01 1.117703e-01 1.091483e-01 8.810407e-02 1.647776e-01 7.474349e-02 2.191293e-01 -1.388521e-01 -3.255139e-03 -1.659925e-03 -1.080536e-02 9.222491e-03 2.569953e-02 1.706477e-02 -9.104799e-03 1.674486e-03 -1.292951e-02 -2.047286e-02 4.527834e-02 -8.126672e-03 2.481399e-04 -4.496602e-04
<VARIANCE> 39
 3.067026e+01 6.091140e+01 6.810110e+01 5.952459e+01 7.359403e+01 8.547794e+01 4.891212e+01 2.341935e+01 2.495263e+01 3.569832e+01 2.509812e+01 3.183771e+01 2.021046e-02 2.098125e+00 1.519245e+00 1.510872e+00 3.443157e+00 4.366448e+00 3.222894e+00 2.712432e+00 3.610328e+00 2.913285e+00 3.356700e+00 3.461423e+00 1.936098e+00 6.952136e-04 2.917751e-01 1.614774e-01 1.585432e-01 5.893137e-01 7.629826e-01 5.137284e-01 4.948000e-01 7.326355e-01 5.238029e-01 6.086913e-01 6.630055e-01 2.688186e-01 7.214158e-05
<GCONST> 9.774557e+01
<STATE> 5
<MEAN> 39
 -4.029610e-07 2.686406e-08 -3.626649e-07 -4.163930e-07 4.029610e-07 -2.686407e-07 -1.477524e-07 -1.040983e-07 -1.007402e-07 4.029610e-08 -1.813324e-07 -6.044414e-08 7.693075e-01 1.424880e-01 -6.523943e-02 1.796565e-01 3.060811e-01 -1.331593e-01 1.117703e-01 1.091483e-01 8.810407e-02 1.647776e-01 7.474349e-02 2.191293e-01 -1.388521e-01 -3.255139e-03 -1.659925e-03 -1.080536e-02 9.222491e-03 2.569953e-02 1.706477e-02 -9.104799e-03 1.674486e-03 -1.292951e-02 -2.047286e-02 4.527834e-02 -8.126672e-03 2.481399e-04 -4.496602e-04
<VARIANCE> 39
 3.067026e+01 6.091140e+01 6.810110e+01 5.952459e+01 7.359403e+01 8.547794e+01 4.891212e+01 2.341935e+01 2.495263e+01 3.569832e+01 2.509812e+01 3.183771e+01 2.021046e-02 2.098125e+00 1.519245e+00 1.510872e+00 3.443157e+00 4.366448e+00 3.222894e+00 2.712432e+00 3.610328e+00 2.913285e+00 3.356700e+00 3.461423e+00 1.936098e+00 6.952136e-04 2.917751e-01 1.614774e-01 1.585432e-01 5.893137e-01 7.629826e-01 5.137284e-01 4.948000e-01 7.326355e-01 5.238029e-01 6.086913e-01 6.630055e-01 2.688186e-01 7.214158e-05
<GCONST> 9.774557e+01
<STATE> 6
<MEAN> 39
 -4.029610e-07 2.686406e-08 -3.626649e-07 -4.163930e-07 4.029610e-07 -2.686407e-07 -1.477524e-07 -1.040983e-07 -1.007402e-07 4.029610e-08 -1.813324e-07 -6.044414e-08 7.693075e-01 1.424880e-01 -6.523943e-02 1.796565e-01 3.060811e-01 -1.331593e-01 1.117703e-01 1.091483e-01 8.810407e-02 1.647776e-01 7.474349e-02 2.191293e-01 -1.388521e-01 -3.255139e-03 -1.659925e-03 -1.080536e-02 9.222491e-03 2.569953e-02 1.706477e-02 -9.104799e-03 1.674486e-03 -1.292951e-02 -2.047286e-02 4.527834e-02 -8.126672e-03 2.481399e-04 -4.496602e-04
<VARIANCE> 39
 3.067026e+01 6.091140e+01 6.810110e+01 5.952459e+01 7.359403e+01 8.547794e+01 4.891212e+01 2.341935e+01 2.495263e+01 3.569832e+01 2.509812e+01 3.183771e+01 2.021046e-02 2.098125e+00 1.519245e+00 1.510872e+00 3.443157e+00 4.366448e+00 3.222894e+00 2.712432e+00 3.610328e+00 2.913285e+00 3.356700e+00 3.461423e+00 1.936098e+00 6.952136e-04 2.917751e-01 1.614774e-01 1.585432e-01 5.893137e-01 7.629826e-01 5.137284e-01 4.948000e-01 7.326355e-01 5.238029e-01 6.086913e-01 6.630055e-01 2.688186e-01 7.214158e-05
<GCONST> 9.774557e+01
<STATE> 7
<MEAN> 39
 -4.029610e-07 2.686406e-08 -3.626649e-07 -4.163930e-07 4.029610e-07 -2.686407e-07 -1.477524e-07 -1.040983e-07 -1.007402e-07 4.029610e-08 -1.813324e-07 -6.044414e-08 7.693075e-01 1.424880e-01 -6.523943e-02 1.796565e-01 3.060811e-01 -1.331593e-01 1.117703e-01 1.091483e-01 8.810407e-02 1.647776e-01 7.474349e-02 2.191293e-01 -1.388521e-01 -3.255139e-03 -1.659925e-03 -1.080536e-02 9.222491e-03 2.569953e-02 1.706477e-02 -9.104799e-03 1.674486e-03 -1.292951e-02 -2.047286e-02 4.527834e-02 -8.126672e-03 2.481399e-04 -4.496602e-04
<VARIANCE> 39
 3.067026e+01 6.091140e+01 6.810110e+01 5.952459e+01 7.359403e+01 8.547794e+01 4.891212e+01 2.341935e+01 2.495263e+01 3.569832e+01 2.509812e+01 3.183771e+01 2.021046e-02 2.098125e+00 1.519245e+00 1.510872e+00 3.443157e+00 4.366448e+00 3.222894e+00 2.712432e+00 3.610328e+00 2.913285e+00 3.356700e+00 3.461423e+00 1.936098e+00 6.952136e-04 2.917751e-01 1.614774e-01 1.585432e-01 5.893137e-01 7.629826e-01 5.137284e-01 4.948000e-01 7.326355e-01 5.238029e-01 6.086913e-01 6.630055e-01 2.688186e-01 7.214158e-05
<GCONST> 9.774557e+01
<STATE> 8
<MEAN> 39
 -4.029610e-07 2.686406e-08 -3.626649e-07 -4.163930e-07 4.029610e-07 -2.686407e-07 -1.477524e-07 -1.040983e-07 -1.007402e-07 4.029610e-08 -1.813324e-07 -6.044414e-08 7.693075e-01 1.424880e-01 -6.523943e-02 1.796565e-01 3.060811e-01 -1.331593e-01 1.117703e-01 1.091483e-01 8.810407e-02 1.647776e-01 7.474349e-02 2.191293e-01 -1.388521e-01 -3.255139e-03 -1.659925e-03 -1.080536e-02 9.222491e-03 2.569953e-02 1.706477e-02 -9.104799e-03 1.674486e-03 -1.292951e-02 -2.047286e-02 4.527834e-02 -8.126672e-03 2.481399e-04 -4.496602e-04
<VARIANCE> 39
 3.067026e+01 6.091140e+01 6.810110e+01 5.952459e+01 7.359403e+01 8.547794e+01 4.891212e+01 2.341935e+01 2.495263e+01 3.569832e+01 2.509812e+01 3.183771e+01 2.021046e-02 2.098125e+00 1.519245e+00 1.510872e+00 3.443157e+00 4.366448e+00 3.222894e+00 2.712432e+00 3.610328e+00 2.913285e+00 3.356700e+00 3.461423e+00 1.936098e+00 6.952136e-04 2.917751e-01 1.614774e-01 1.585432e-01 5.893137e-01 7.629826e-01 5.137284e-01 4.948000e-01 7.326355e-01 5.238029e-01 6.086913e-01 6.630055e-01 2.688186e-01 7.214158e-05
<GCONST> 9.774557e+01
<STATE> 9
<MEAN> 39
 -4.029610e-07 2.686406e-08 -3.626649e-07 -4.163930e-07 4.029610e-07 -2.686407e-07 -1.477524e-07 -1.040983e-07 -1.007402e-07 4.029610e-08 -1.813324e-07 -6.044414e-08 7.693075e-01 1.424880e-01 -6.523943e-02 1.796565e-01 3.060811e-01 -1.331593e-01 1.117703e-01 1.091483e-01 8.810407e-02 1.647776e-01 7.474349e-02 2.191293e-01 -1.388521e-01 -3.255139e-03 -1.659925e-03 -1.080536e-02 9.222491e-03 2.569953e-02 1.706477e-02 -9.104799e-03 1.674486e-03 -1.292951e-02 -2.047286e-02 4.527834e-02 -8.126672e-03 2.481399e-04 -4.496602e-04
<VARIANCE> 39
 3.067026e+01 6.091140e+01 6.810110e+01 5.952459e+01 7.359403e+01 8.547794e+01 4.891212e+01 2.341935e+01 2.495263e+01 3.569832e+01 2.509812e+01 3.183771e+01 2.021046e-02 2.098125e+00 1.519245e+00 1.510872e+00 3.443157e+00 4.366448e+00 3.222894e+00 2.712432e+00 3.610328e+00 2.913285e+00 3.356700e+00 3.461423e+00 1.936098e+00 6.952136e-04 2.917751e-01 1.614774e-01 1.585432e-01 5.893137e-01 7.629826e-01 5.137284e-01 4.948000e-01 7.326355e-01 5.238029e-01 6.086913e-01 6.630055e-01 2.688186e-01 7.214158e-05
<GCONST> 9.774557e+01
<TRANSP> 10
 0.000000e+00 1.000000e+00 0.000000e+00 0.000000e+00 0.000000e+00 0.000000e+00 0.000000e+00 0.000000e+00 0.000000e+00 0.000000e+00
 0.000000e+00 9.000000e-01 9.999999e-02 0.000000e+00 0.000000e+00 0.000000e+00 0.000000e+00 0.000000e+00 0.000000e+00 0.000000e+00
 0.000000e+00 0.000000e+00 9.000000e-01 9.999999e-02 0.000000e+00 0.000000e+00 0.000000e+00 0.000000e+00 0.000000e+00 0.000000e+00
 0.000000e+00 0.000000e+00 0.000000e+00 9.000000e-01 9.999999e-02 0.000000e+00 0.000000e+00 0.000000e+00 0.000000e+00 0.000000e+00
 0.000000e+00 0.000000e+00 0.000000e+00 0.000000e+00 9.000000e-01 9.999999e-02 0.000000e+00 0.000000e+00 0.000000e+00 0.000000e+00
 0.000000e+00 0.000000e+00 0.000000e+00 0.000000e+00 0.000000e+00 9.000000e-01 9.999999e-02 0.000000e+00 0.000000e+00 0.000000e+00
 0.000000e+00 0.000000e+00 0.000000e+00 0.000000e+00 0.000000e+00 0.000000e+00 9.000000e-01 9.999999e-02 0.000000e+00 0.000000e+00
 0.000000e+00 0.000000e+00 0.000000e+00 0.000000e+00 0.000000e+00 0.000000e+00 0.000000e+00 9.000000e-01 9.999999e-02 0.000000e+00
 0.000000e+00 0.000000e+00 0.000000e+00 0.000000e+00 0.000000e+00 0.000000e+00 0.000000e+00 0.000000e+00 9.000000e-01 9.999999e-02
 0.000000e+00 0.000000e+00 0.000000e+00 0.000000e+00 0.000000e+00 0.000000e+00 0.000000e+00 0.000000e+00 0.000000e+00 0.000000e+00
<ENDHMM>
