~o
<STREAMINFO> 1 39
<VECSIZE> 39<NULLD><MFCC_E_D_A_Z><DIAGC>
~h "s005"
<BEGINHMM>
<NUMSTATES> 10
<STATE> 2
<MEAN> 39
 1.288229e-07 5.691282e-07 -5.229827e-07 2.307277e-08 -4.576098e-07 -7.690922e-08 6.537284e-07 2.230367e-07 -9.998198e-08 5.383645e-08 -1.922730e-07 1.538184e-07 8.669556e-01 -3.143460e-02 -2.166327e-01 -1.576859e-01 2.703297e-01 1.020249e-01 1.880514e-01 9.283906e-03 -8.915618e-02 -4.905252e-02 -1.942994e-01 -7.223663e-02 3.572459e-02 -3.092071e-03 9.816563e-03 -4.385146e-04 4.035680e-02 6.909774e-03 3.766720e-02 4.295046e-02 -4.407696e-02 -1.368043e-02 -4.424127e-03 2.789012e-02 -5.568832e-03 2.184250e-02 -9.382605e-04
<VARIANCE> 39
 1.268906e+01 5.996458e+01 7.517586e+01 4.995245e+01 3.757061e+01 3.408615e+01 6.441164e+01 4.794130e+01 5.188991e+01 2.707658e+01 4.648698e+01 1.804329e+01 1.118789e-02 6.148261e-01 3.081585e+00 3.210806e+00 2.035230e+00 2.861960e+00 2.533038e+00 4.845910e+00 4.525207e+00 1.994029e+00 2.875745e+00 4.110857e+00 9.845983e-01 4.359364e-04 6.374657e-02 3.111587e-01 2.919279e-01 2.816449e-01 4.719085e-01 3.542308e-01 7.300028e-01 6.959516e-01 3.332178e-01 5.049184e-01 6.491508e-01 1.489729e-01 3.373846e-05
<GCONST> 9.091140e+01
<STATE> 3
<MEAN> 39
 1.288229e-07 5.691282e-07 -5.229827e-07 2.307277e-08 -4.576098e-07 -7.690922e-08 6.537284e-07 2.230367e-07 -9.998198e-08 5.383645e-08 -1.922730e-07 1.538184e-07 8.669556e-01 -3.143460e-02 -2.166327e-01 -1.576859e-01 2.703297e-01 1.020249e-01 1.880514e-01 9.283906e-03 -8.915618e-02 -4.905252e-02 -1.942994e-01 -7.223663e-02 3.572459e-02 -3.092071e-03 9.816563e-03 -4.385146e-04 4.035680e-02 6.909774e-03 3.766720e-02 4.295046e-02 -4.407696e-02 -1.368043e-02 -4.424127e-03 2.789012e-02 -5.568832e-03 2.184250e-02 -9.382605e-04
<VARIANCE> 39
 1.268906e+01 5.996458e+01 7.517586e+01 4.995245e+01 3.757061e+01 3.408615e+01 6.441164e+01 4.794130e+01 5.188991e+01 2.707658e+01 4.648698e+01 1.804329e+01 1.118789e-02 6.148261e-01 3.081585e+00 3.210806e+00 2.035230e+00 2.861960e+00 2.533038e+00 4.845910e+00 4.525207e+00 1.994029e+00 2.875745e+00 4.110857e+00 9.845983e-01 4.359364e-04 6.374657e-02 3.111587e-01 2.919279e-01 2.816449e-01 4.719085e-01 3.542308e-01 7.300028e-01 6.959516e-01 3.332178e-01 5.049184e-01 6.491508e-01 1.489729e-01 3.373846e-05
<GCONST> 9.091140e+01
<STATE> 4
<MEAN> 39
 1.288229e-07 5.691282e-07 -5.229827e-07 2.307277e-08 -4.576098e-07 -7.690922e-08 6.537284e-07 2.230367e-07 -9.998198e-08 5.383645e-08 -1.922730e-07 1.538184e-07 8.669556e-01 -3.143460e-02 -2.166327e-01 -1.576859e-01 2.703297e-01 1.020249e-01 1.880514e-01 9.283906e-03 -8.915618e-02 -4.905252e-02 -1.942994e-01 -7.223663e-02 3.572459e-02 -3.092071e-03 9.816563e-03 -4.385146e-04 4.035680e-02 6.909774e-03 3.766720e-02 4.295046e-02 -4.407696e-02 -1.368043e-02 -4.424127e-03 2.789012e-02 -5.568832e-03 2.184250e-02 -9.382605e-04
<VARIANCE> 39
 1.268906e+01 5.996458e+01 7.517586e+01 4.995245e+01 3.757061e+01 3.408615e+01 6.441164e+01 4.794130e+01 5.188991e+01 2.707658e+01 4.648698e+01 1.804329e+01 1.118789e-02 6.148261e-01 3.081585e+00 3.210806e+00 2.035230e+00 2.861960e+00 2.533038e+00 4.845910e+00 4.525207e+00 1.994029e+00 2.875745e+00 4.110857e+00 9.845983e-01 4.359364e-04 6.374657e-02 3.111587e-01 2.919279e-01 2.816449e-01 4.719085e-01 3.542308e-01 7.300028e-01 6.959516e-01 3.332178e-01 5.049184e-01 6.491508e-01 1.489729e-01 3.373846e-05
<GCONST> 9.091140e+01
<STATE> 5
<MEAN> 39
 1.288229e-07 5.691282e-07 -5.229827e-07 2.307277e-08 -4.576098e-07 -7.690922e-08 6.537284e-07 2.230367e-07 -9.998198e-08 5.383645e-08 -1.922730e-07 1.538184e-07 8.669556e-01 -3.143460e-02 -2.166327e-01 -1.576859e-01 2.703297e-01 1.020249e-01 1.880514e-01 9.283906e-03 -8.915618e-02 -4.905252e-02 -1.942994e-01 -7.223663e-02 3.572459e-02 -3.092071e-03 9.816563e-03 -4.385146e-04 4.035680e-02 6.909774e-03 3.766720e-02 4.295046e-02 -4.407696e-02 -1.368043e-02 -4.424127e-03 2.789012e-02 -5.568832e-03 2.184250e-02 -9.382605e-04
<VARIANCE> 39
 1.268906e+01 5.996458e+01 7.517586e+01 4.995245e+01 3.757061e+01 3.408615e+01 6.441164e+01 4.794130e+01 5.188991e+01 2.707658e+01 4.648698e+01 1.804329e+01 1.118789e-02 6.148261e-01 3.081585e+00 3.210806e+00 2.035230e+00 2.861960e+00 2.533038e+00 4.845910e+00 4.525207e+00 1.994029e+00 2.875745e+00 4.110857e+00 9.845983e-01 4.359364e-04 6.374657e-02 3.111587e-01 2.919279e-01 2.816449e-01 4.719085e-01 3.542308e-01 7.300028e-01 6.959516e-01 3.332178e-01 5.049184e-01 6.491508e-01 1.489729e-01 3.373846e-05
<GCONST> 9.091140e+01
<STATE> 6
<MEAN> 39
 1.288229e-07 5.691282e-07 -5.229827e-07 2.307277e-08 -4.576098e-07 -7.690922e-08 6.537284e-07 2.230367e-07 -9.998198e-08 5.383645e-08 -1.922730e-07 1.538184e-07 8.669556e-01 -3.143460e-02 -2.166327e-01 -1.576859e-01 2.703297e-01 1.020249e-01 1.880514e-01 9.283906e-03 -8.915618e-02 -4.905252e-02 -1.942994e-01 -7.223663e-02 3.572459e-02 -3.092071e-03 9.816563e-03 -4.385146e-04 4.035680e-02 6.909774e-03 3.766720e-02 4.295046e-02 -4.407696e-02 -1.368043e-02 -4.424127e-03 2.789012e-02 -5.568832e-03 2.184250e-02 -9.382605e-04
<VARIANCE> 39
 1.268906e+01 5.996458e+01 7.517586e+01 4.995245e+01 3.757061e+01 3.408615e+01 6.441164e+01 4.794130e+01 5.188991e+01 2.707658e+01 4.648698e+01 1.804329e+01 1.118789e-02 6.148261e-01 3.081585e+00 3.210806e+00 2.035230e+00 2.861960e+00 2.533038e+00 4.845910e+00 4.525207e+00 1.994029e+00 2.875745e+00 4.110857e+00 9.845983e-01 4.359364e-04 6.374657e-02 3.111587e-01 2.919279e-01 2.816449e-01 4.719085e-01 3.542308e-01 7.300028e-01 6.959516e-01 3.332178e-01 5.049184e-01 6.491508e-01 1.489729e-01 3.373846e-05
<GCONST> 9.091140e+01
<STATE> 7
<MEAN> 39
 1.288229e-07 5.691282e-07 -5.229827e-07 2.307277e-08 -4.576098e-07 -7.690922e-08 6.537284e-07 2.230367e-07 -9.998198e-08 5.383645e-08 -1.922730e-07 1.538184e-07 8.669556e-01 -3.143460e-02 -2.166327e-01 -1.576859e-01 2.703297e-01 1.020249e-01 1.880514e-01 9.283906e-03 -8.915618e-02 -4.905252e-02 -1.942994e-01 -7.223663e-02 3.572459e-02 -3.092071e-03 9.816563e-03 -4.385146e-04 4.035680e-02 6.909774e-03 3.766720e-02 4.295046e-02 -4.407696e-02 -1.368043e-02 -4.424127e-03 2.789012e-02 -5.568832e-03 2.184250e-02 -9.382605e-04
<VARIANCE> 39
 1.268906e+01 5.996458e+01 7.517586e+01 4.995245e+01 3.757061e+01 3.408615e+01 6.441164e+01 4.794130e+01 5.188991e+01 2.707658e+01 4.648698e+01 1.804329e+01 1.118789e-02 6.148261e-01 3.081585e+00 3.210806e+00 2.035230e+00 2.861960e+00 2.533038e+00 4.845910e+00 4.525207e+00 1.994029e+00 2.875745e+00 4.110857e+00 9.845983e-01 4.359364e-04 6.374657e-02 3.111587e-01 2.919279e-01 2.816449e-01 4.719085e-01 3.542308e-01 7.300028e-01 6.959516e-01 3.332178e-01 5.049184e-01 6.491508e-01 1.489729e-01 3.373846e-05
<GCONST> 9.091140e+01
<STATE> 8
<MEAN> 39
 1.288229e-07 5.691282e-07 -5.229827e-07 2.307277e-08 -4.576098e-07 -7.690922e-08 6.537284e-07 2.230367e-07 -9.998198e-08 5.383645e-08 -1.922730e-07 1.538184e-07 8.669556e-01 -3.143460e-02 -2.166327e-01 -1.576859e-01 2.703297e-01 1.020249e-01 1.880514e-01 9.283906e-03 -8.915618e-02 -4.905252e-02 -1.942994e-01 -7.223663e-02 3.572459e-02 -3.092071e-03 9.816563e-03 -4.385146e-04 4.035680e-02 6.909774e-03 3.766720e-02 4.295046e-02 -4.407696e-02 -1.368043e-02 -4.424127e-03 2.789012e-02 -5.568832e-03 2.184250e-02 -9.382605e-04
<VARIANCE> 39
 1.268906e+01 5.996458e+01 7.517586e+01 4.995245e+01 3.757061e+01 3.408615e+01 6.441164e+01 4.794130e+01 5.188991e+01 2.707658e+01 4.648698e+01 1.804329e+01 1.118789e-02 6.148261e-01 3.081585e+00 3.210806e+00 2.035230e+00 2.861960e+00 2.533038e+00 4.845910e+00 4.525207e+00 1.994029e+00 2.875745e+00 4.110857e+00 9.845983e-01 4.359364e-04 6.374657e-02 3.111587e-01 2.919279e-01 2.816449e-01 4.719085e-01 3.542308e-01 7.300028e-01 6.959516e-01 3.332178e-01 5.049184e-01 6.491508e-01 1.489729e-01 3.373846e-05
<GCONST> 9.091140e+01
<STATE> 9
<MEAN> 39
 1.288229e-07 5.691282e-07 -5.229827e-07 2.307277e-08 -4.576098e-07 -7.690922e-08 6.537284e-07 2.230367e-07 -9.998198e-08 5.383645e-08 -1.922730e-07 1.538184e-07 8.669556e-01 -3.143460e-02 -2.166327e-01 -1.576859e-01 2.703297e-01 1.020249e-01 1.880514e-01 9.283906e-03 -8.915618e-02 -4.905252e-02 -1.942994e-01 -7.223663e-02 3.572459e-02 -3.092071e-03 9.816563e-03 -4.385146e-04 4.035680e-02 6.909774e-03 3.766720e-02 4.295046e-02 -4.407696e-02 -1.368043e-02 -4.424127e-03 2.789012e-02 -5.568832e-03 2.184250e-02 -9.382605e-04
<VARIANCE> 39
 1.268906e+01 5.996458e+01 7.517586e+01 4.995245e+01 3.757061e+01 3.408615e+01 6.441164e+01 4.794130e+01 5.188991e+01 2.707658e+01 4.648698e+01 1.804329e+01 1.118789e-02 6.148261e-01 3.081585e+00 3.210806e+00 2.035230e+00 2.861960e+00 2.533038e+00 4.845910e+00 4.525207e+00 1.994029e+00 2.875745e+00 4.110857e+00 9.845983e-01 4.359364e-04 6.374657e-02 3.111587e-01 2.919279e-01 2.816449e-01 4.719085e-01 3.542308e-01 7.300028e-01 6.959516e-01 3.332178e-01 5.049184e-01 6.491508e-01 1.489729e-01 3.373846e-05
<GCONST> 9.091140e+01
<TRANSP> 10
 0.000000e+00 1.000000e+00 0.000000e+00 0.000000e+00 0.000000e+00 0.000000e+00 0.000000e+00 0.000000e+00 0.000000e+00 0.000000e+00
 0.000000e+00 9.000000e-01 9.999999e-02 0.000000e+00 0.000000e+00 0.000000e+00 0.000000e+00 0.000000e+00 0.000000e+00 0.000000e+00
 0.000000e+00 0.000000e+00 9.000000e-01 9.999999e-02 0.000000e+00 0.000000e+00 0.000000e+00 0.000000e+00 0.000000e+00 0.000000e+00
 0.000000e+00 0.000000e+00 0.000000e+00 9.000000e-01 9.999999e-02 0.000000e+00 0.000000e+00 0.000000e+00 0.000000e+00 0.000000e+00
 0.000000e+00 0.000000e+00 0.000000e+00 0.000000e+00 9.000000e-01 9.999999e-02 0.000000e+00 0.000000e+00 0.000000e+00 0.000000e+00
 0.000000e+00 0.000000e+00 0.000000e+00 0.000000e+00 0.000000e+00 9.000000e-01 9.999999e-02 0.000000e+00 0.000000e+00 0.000000e+00
 0.000000e+00 0.000000e+00 0.000000e+00 0.000000e+00 0.000000e+00 0.000000e+00 9.000000e-01 9.999999e-02 0.000000e+00 0.000000e+00
 0.000000e+00 0.000000e+00 0.000000e+00 0.000000e+00 0.000000e+00 0.000000e+00 0.000000e+00 9.000000e-01 9.999999e-02 0.000000e+00
 0.000000e+00 0.000000e+00 0.000000e+00 0.000000e+00 0.000000e+00 0.000000e+00 0.000000e+00 0.000000e+00 9.000000e-01 9.999999e-02
 0.000000e+00 0.000000e+00 0.000000e+00 0.000000e+00 0.000000e+00 0.000000e+00 0.000000e+00 0.000000e+00 0.000000e+00 0.000000e+00
<ENDHMM>
