~o
<STREAMINFO> 1 39
<VECSIZE> 39<NULLD><MFCC_E_D_A_Z><DIAGC>
~h "s010"
<BEGINHMM>
<NUMSTATES> 10
<STATE> 2
<MEAN> 39
 -6.921830e-08 6.075828e-07 -9.229106e-08 -1.845821e-07 7.690922e-07 -4.306916e-07 -4.537644e-07 -8.460014e-08 -9.229106e-08 -2.768732e-07 3.384006e-07 3.845461e-09 7.219690e-01 2.131241e-02 9.648158e-02 1.562048e-01 5.701311e-02 2.323865e-01 2.383299e-01 9.733100e-02 8.409437e-02 1.849803e-02 2.502401e-01 3.700114e-03 1.146896e-01 -6.722868e-03 1.341476e-02 3.024375e-02 2.341545e-02 9.238917e-03 -4.245349e-02 -6.812194e-03 2.760696e-02 -4.706735e-02 1.168497e-02 -5.056866e-02 8.895003e-03 2.931937e-02 -6.815047e-04
<VARIANCE> 39
 1.446250e+01 6.976830e+01 2.891394e+01 2.367009e+01 1.018568e+02 7.862035e+01 6.151770e+01 2.365465e+01 4.535141e+01 2.741625e+01 3.125725e+01 3.744478e+01 2.992605e-02 1.293311e+00 1.393155e+00 1.559742e+00 2.914309e+00 6.151605e+00 3.562568e+00 5.762425e+00 2.474098e+00 2.689142e+00 3.508096e+00 3.480000e+00 2.096272e+00 1.234599e-03 2.003496e-01 1.851041e-01 2.240674e-01 5.988150e-01 1.080185e+00 4.736449e-01 1.079113e+00 4.879819e-01 4.523272e-01 7.320470e-01 5.814147e-01 4.197802e-01 1.215731e-04
<GCONST> 9.931186e+01
<STATE> 3
<MEAN> 39
 -6.921830e-08 6.075828e-07 -9.229106e-08 -1.845821e-07 7.690922e-07 -4.306916e-07 -4.537644e-07 -8.460014e-08 -9.229106e-08 -2.768732e-07 3.384006e-07 3.845461e-09 7.219690e-01 2.131241e-02 9.648158e-02 1.562048e-01 5.701311e-02 2.323865e-01 2.383299e-01 9.733100e-02 8.409437e-02 1.849803e-02 2.502401e-01 3.700114e-03 1.146896e-01 -6.722868e-03 1.341476e-02 3.024375e-02 2.341545e-02 9.238917e-03 -4.245349e-02 -6.812194e-03 2.760696e-02 -4.706735e-02 1.168497e-02 -5.056866e-02 8.895003e-03 2.931937e-02 -6.815047e-04
<VARIANCE> 39
 1.446250e+01 6.976830e+01 2.891394e+01 2.367009e+01 1.018568e+02 7.862035e+01 6.151770e+01 2.365465e+01 4.535141e+01 2.741625e+01 3.125725e+01 3.744478e+01 2.992605e-02 1.293311e+00 1.393155e+00 1.559742e+00 2.914309e+00 6.151605e+00 3.562568e+00 5.762425e+00 2.474098e+00 2.689142e+00 3.508096e+00 3.480000e+00 2.096272e+00 1.234599e-03 2.003496e-01 1.851041e-01 2.240674e-01 5.988150e-01 1.080185e+00 4.736449e-01 1.079113e+00 4.879819e-01 4.523272e-01 7.320470e-01 5.814147e-01 4.197802e-01 1.215731e-04
<GCONST> 9.931186e+01
<STATE> 4
<MEAN> 39
 -6.921830e-08 6.075828e-07 -9.229106e-08 -1.845821e-07 7.690922e-07 -4.306916e-07 -4.537644e-07 -8.460014e-08 -9.229106e-08 -2.768732e-07 3.384006e-07 3.845461e-09 7.219690e-01 2.131241e-02 9.648158e-02 1.562048e-01 5.701311e-02 2.323865e-01 2.383299e-01 9.733100e-02 8.409437e-02 1.849803e-02 2.502401e-01 3.700114e-03 1.146896e-01 -6.722868e-03 1.341476e-02 3.024375e-02 2.341545e-02 9.238917e-03 -4.245349e-02 -6.812194e-03 2.760696e-02 -4.706735e-02 1.168497e-02 -5.056866e-02 8.895003e-03 2.931937e-02 -6.815047e-04
<VARIANCE> 39
 1.446250e+01 6.976830e+01 2.891394e+01 2.367009e+01 1.018568e+02 7.862035e+01 6.151770e+01 2.365465e+01 4.535141e+01 2.741625e+01 3.125725e+01 3.744478e+01 2.992605e-02 1.293311e+00 1.393155e+00 1.559742e+00 2.914309e+00 6.151605e+00 3.562568e+00 5.762425e+00 2.474098e+00 2.689142e+00 3.508096e+00 3.480000e+00 2.096272e+00 1.234599e-03 2.003496e-01 1.851041e-01 2.240674e-01 5.988150e-01 1.080185e+00 4.736449e-01 1.079113e+00 4.879819e-01 4.523272e-01 7.320470e-01 5.814147e-01 4.197802e-01 1.215731e-04
<GCONST> 9.931186e+01
<STATE> 5
<MEAN> 39
 -6.921830e-08 6.075828e-07 -9.229106e-08 -1.845821e-07 7.690922e-07 -4.306916e-07 -4.537644e-07 -8.460014e-08 -9.229106e-08 -2.768732e-07 3.384006e-07 3.845461e-09 7.219690e-01 2.131241e-02 9.648158e-02 1.562048e-01 5.701311e-02 2.323865e-01 2.383299e-01 9.733100e-02 8.409437e-02 1.849803e-02 2.502401e-01 3.700114e-03 1.146896e-01 -6.722868e-03 1.341476e-02 3.024375e-02 2.341545e-02 9.238917e-03 -4.245349e-02 -6.812194e-03 2.760696e-02 -4.706735e-02 1.168497e-02 -5.056866e-02 8.895003e-03 2.931937e-02 -6.815047e-04
<VARIANCE> 39
 1.446250e+01 6.976830e+01 2.891394e+01 2.367009e+01 1.018568e+02 7.862035e+01 6.151770e+01 2.365465e+01 4.535141e+01 2.741625e+01 3.125725e+01 3.744478e+01 2.992605e-02 1.293311e+00 1.393155e+00 1.559742e+00 2.914309e+00 6.151605e+00 3.562568e+00 5.762425e+00 2.474098e+00 2.689142e+00 3.508096e+00 3.480000e+00 2.096272e+00 1.234599e-03 2.003496e-01 1.851041e-01 2.240674e-01 5.988150e-01 1.080185e+00 4.736449e-01 1.079113e+00 4.879819e-01 4.523272e-01 7.320470e-01 5.814147e-01 4.197802e-01 1.215731e-04
<GCONST> 9.931186e+01
<STATE> 6
<MEAN> 39
 -6.921830e-08 6.075828e-07 -9.229106e-08 -1.845821e-07 7.690922e-07 -4.306916e-07 -4.537644e-07 -8.460014e-08 -9.229106e-08 -2.768732e-07 3.384006e-07 3.845461e-09 7.219690e-01 2.131241e-02 9.648158e-02 1.562048e-01 5.701311e-02 2.323865e-01 2.383299e-01 9.733100e-02 8.409437e-02 1.849803e-02 2.502401e-01 3.700114e-03 1.146896e-01 -6.722868e-03 1.341476e-02 3.024375e-02 2.341545e-02 9.238917e-03 -4.245349e-02 -6.812194e-03 2.760696e-02 -4.706735e-02 1.168497e-02 -5.056866e-02 8.895003e-03 2.931937e-02 -6.815047e-04
<VARIANCE> 39
 1.446250e+01 6.976830e+01 2.891394e+01 2.367009e+01 1.018568e+02 7.862035e+01 6.151770e+01 2.365465e+01 4.535141e+01 2.741625e+01 3.125725e+01 3.744478e+01 2.992605e-02 1.293311e+00 1.393155e+00 1.559742e+00 2.914309e+00 6.151605e+00 3.562568e+00 5.762425e+00 2.474098e+00 2.689142e+00 3.508096e+00 3.480000e+00 2.096272e+00 1.234599e-03 2.003496e-01 1.851041e-01 2.240674e-01 5.988150e-01 1.080185e+00 4.736449e-01 1.079113e+00 4.879819e-01 4.523272e-01 7.320470e-01 5.814147e-01 4.197802e-01 1.215731e-04
<GCONST> 9.931186e+01
<STATE> 7
<MEAN> 39
 -6.921830e-08 6.075828e-07 -9.229106e-08 -1.845821e-07 7.690922e-07 -4.306916e-07 -4.537644e-07 -8.460014e-08 -9.229106e-08 -2.768732e-07 3.384006e-07 3.845461e-09 7.219690e-01 2.131241e-02 9.648158e-02 1.562048e-01 5.701311e-02 2.323865e-01 2.383299e-01 9.733100e-02 8.409437e-02 1.849803e-02 2.502401e-01 3.700114e-03 1.146896e-01 -6.722868e-03 1.341476e-02 3.024375e-02 2.341545e-02 9.238917e-03 -4.245349e-02 -6.812194e-03 2.760696e-02 -4.706735e-02 1.168497e-02 -5.056866e-02 8.895003e-03 2.931937e-02 -6.815047e-04
<VARIANCE> 39
 1.446250e+01 6.976830e+01 2.891394e+01 2.367009e+01 1.018568e+02 7.862035e+01 6.151770e+01 2.365465e+01 4.535141e+01 2.741625e+01 3.125725e+01 3.744478e+01 2.992605e-02 1.293311e+00 1.393155e+00 1.559742e+00 2.914309e+00 6.151605e+00 3.562568e+00 5.762425e+00 2.474098e+00 2.689142e+00 3.508096e+00 3.480000e+00 2.096272e+00 1.234599e-03 2.003496e-01 1.851041e-01 2.240674e-01 5.988150e-01 1.080185e+00 4.736449e-01 1.079113e+00 4.879819e-01 4.523272e-01 7.320470e-01 5.814147e-01 4.197802e-01 1.215731e-04
<GCONST> 9.931186e+01
<STATE> 8
<MEAN> 39
 -6.921830e-08 6.075828e-07 -9.229106e-08 -1.845821e-07 7.690922e-07 -4.306916e-07 -4.537644e-07 -8.460014e-08 -9.229106e-08 -2.768732e-07 3.384006e-07 3.845461e-09 7.219690e-01 2.131241e-02 9.648158e-02 1.562048e-01 5.701311e-02 2.323865e-01 2.383299e-01 9.733100e-02 8.409437e-02 1.849803e-02 2.502401e-01 3.700114e-03 1.146896e-01 -6.722868e-03 1.341476e-02 3.024375e-02 2.341545e-02 9.238917e-03 -4.245349e-02 -6.812194e-03 2.760696e-02 -4.706735e-02 1.168497e-02 -5.056866e-02 8.895003e-03 2.931937e-02 -6.815047e-04
<VARIANCE> 39
 1.446250e+01 6.976830e+01 2.891394e+01 2.367009e+01 1.018568e+02 7.862035e+01 6.151770e+01 2.365465e+01 4.535141e+01 2.741625e+01 3.125725e+01 3.744478e+01 2.992605e-02 1.293311e+00 1.393155e+00 1.559742e+00 2.914309e+00 6.151605e+00 3.562568e+00 5.762425e+00 2.474098e+00 2.689142e+00 3.508096e+00 3.480000e+00 2.096272e+00 1.234599e-03 2.003496e-01 1.851041e-01 2.240674e-01 5.988150e-01 1.080185e+00 4.736449e-01 1.079113e+00 4.879819e-01 4.523272e-01 7.320470e-01 5.814147e-01 4.197802e-01 1.215731e-04
<GCONST> 9.931186e+01
<STATE> 9
<MEAN> 39
 -6.921830e-08 6.075828e-07 -9.229106e-08 -1.845821e-07 7.690922e-07 -4.306916e-07 -4.537644e-07 -8.460014e-08 -9.229106e-08 -2.768732e-07 3.384006e-07 3.845461e-09 7.219690e-01 2.131241e-02 9.648158e-02 1.562048e-01 5.701311e-02 2.323865e-01 2.383299e-01 9.733100e-02 8.409437e-02 1.849803e-02 2.502401e-01 3.700114e-03 1.146896e-01 -6.722868e-03 1.341476e-02 3.024375e-02 2.341545e-02 9.238917e-03 -4.245349e-02 -6.812194e-03 2.760696e-02 -4.706735e-02 1.168497e-02 -5.056866e-02 8.895003e-03 2.931937e-02 -6.815047e-04
<VARIANCE> 39
 1.446250e+01 6.976830e+01 2.891394e+01 2.367009e+01 1.018568e+02 7.862035e+01 6.151770e+01 2.365465e+01 4.535141e+01 2.741625e+01 3.125725e+01 3.744478e+01 2.992605e-02 1.293311e+00 1.393155e+00 1.559742e+00 2.914309e+00 6.151605e+00 3.562568e+00 5.762425e+00 2.474098e+00 2.689142e+00 3.508096e+00 3.480000e+00 2.096272e+00 1.234599e-03 2.003496e-01 1.851041e-01 2.240674e-01 5.988150e-01 1.080185e+00 4.736449e-01 1.079113e+00 4.879819e-01 4.523272e-01 7.320470e-01 5.814147e-01 4.197802e-01 1.215731e-04
<GCONST> 9.931186e+01
<TRANSP> 10
 0.000000e+00 1.000000e+00 0.000000e+00 0.000000e+00 0.000000e+00 0.000000e+00 0.000000e+00 0.000000e+00 0.000000e+00 0.000000e+00
 0.000000e+00 9.000000e-01 9.999999e-02 0.000000e+00 0.000000e+00 0.000000e+00 0.000000e+00 0.000000e+00 0.000000e+00 0.000000e+00
 0.000000e+00 0.000000e+00 9.000000e-01 9.999999e-02 0.000000e+00 0.000000e+00 0.000000e+00 0.000000e+00 0.000000e+00 0.000000e+00
 0.000000e+00 0.000000e+00 0.000000e+00 9.000000e-01 9.999999e-02 0.000000e+00 0.000000e+00 0.000000e+00 0.000000e+00 0.000000e+00
 0.000000e+00 0.000000e+00 0.000000e+00 0.000000e+00 9.000000e-01 9.999999e-02 0.000000e+00 0.000000e+00 0.000000e+00 0.000000e+00
 0.000000e+00 0.000000e+00 0.000000e+00 0.000000e+00 0.000000e+00 9.000000e-01 9.999999e-02 0.000000e+00 0.000000e+00 0.000000e+00
 0.000000e+00 0.000000e+00 0.000000e+00 0.000000e+00 0.000000e+00 0.000000e+00 9.000000e-01 9.999999e-02 0.000000e+00 0.000000e+00
 0.000000e+00 0.000000e+00 0.000000e+00 0.000000e+00 0.000000e+00 0.000000e+00 0.000000e+00 9.000000e-01 9.999999e-02 0.000000e+00
 0.000000e+00 0.000000e+00 0.000000e+00 0.000000e+00 0.000000e+00 0.000000e+00 0.000000e+00 0.000000e+00 9.000000e-01 9.999999e-02
 0.000000e+00 0.000000e+00 0.000000e+00 0.000000e+00 0.000000e+00 0.000000e+00 0.000000e+00 0.000000e+00 0.000000e+00 0.000000e+00
<ENDHMM>
