~o
<STREAMINFO> 1 39
<VECSIZE> 39<NULLD><MFCC_E_D_A_Z><DIAGC>
~h "s013"
<BEGINHMM>
<NUMSTATES> 10
<STATE> 2
<MEAN> 39
 4.182782e-09 2.258702e-07 1.171179e-07 2.342358e-07 -1.463974e-07 0.000000e+00 -1.338490e-07 -2.007735e-07 -4.015471e-07 1.254835e-07 1.673113e-07 -2.509669e-08 8.282074e-01 3.160297e-01 -2.142698e-01 -1.879023e-02 1.262147e-01 -1.922945e-01 2.569839e-01 1.411707e-01 -4.661986e-01 -8.199918e-02 -2.638732e-01 -3.546303e-01 -1.171214e-01 -5.029219e-04 -3.991936e-02 -1.698865e-02 -1.949919e-02 5.795449e-02 9.551040e-03 1.049598e-02 -3.033014e-03 -1.632373e-03 9.687691e-02 4.079850e-02 6.168273e-02 2.619260e-02 -1.643985e-03
<VARIANCE> 39
 2.799253e+01 1.535382e+02 2.402562e+01 6.755240e+01 3.060357e+01 7.092625e+01 2.289345e+01 9.061552e+01 6.243489e+01 5.049831e+01 5.528866e+01 2.710070e+01 1.605909e-02 1.561269e+00 5.203087e+00 1.566954e+00 3.923379e+00 4.772709e+00 5.284200e+00 3.112502e+00 5.036736e+00 5.285264e+00 5.191365e+00 5.438787e+00 2.604209e+00 1.223406e-03 1.707550e-01 4.909342e-01 2.596492e-01 5.251670e-01 9.310411e-01 1.105303e+00 6.254461e-01 6.445351e-01 7.090266e-01 1.076001e+00 1.127513e+00 3.883379e-01 1.005705e-04
<GCONST> 1.074868e+02
<STATE> 3
<MEAN> 39
 4.182782e-09 2.258702e-07 1.171179e-07 2.342358e-07 -1.463974e-07 0.000000e+00 -1.338490e-07 -2.007735e-07 -4.015471e-07 1.254835e-07 1.673113e-07 -2.509669e-08 8.282074e-01 3.160297e-01 -2.142698e-01 -1.879023e-02 1.262147e-01 -1.922945e-01 2.569839e-01 1.411707e-01 -4.661986e-01 -8.199918e-02 -2.638732e-01 -3.546303e-01 -1.171214e-01 -5.029219e-04 -3.991936e-02 -1.698865e-02 -1.949919e-02 5.795449e-02 9.551040e-03 1.049598e-02 -3.033014e-03 -1.632373e-03 9.687691e-02 4.079850e-02 6.168273e-02 2.619260e-02 -1.643985e-03
<VARIANCE> 39
 2.799253e+01 1.535382e+02 2.402562e+01 6.755240e+01 3.060357e+01 7.092625e+01 2.289345e+01 9.061552e+01 6.243489e+01 5.049831e+01 5.528866e+01 2.710070e+01 1.605909e-02 1.561269e+00 5.203087e+00 1.566954e+00 3.923379e+00 4.772709e+00 5.284200e+00 3.112502e+00 5.036736e+00 5.285264e+00 5.191365e+00 5.438787e+00 2.604209e+00 1.223406e-03 1.707550e-01 4.909342e-01 2.596492e-01 5.251670e-01 9.310411e-01 1.105303e+00 6.254461e-01 6.445351e-01 7.090266e-01 1.076001e+00 1.127513e+00 3.883379e-01 1.005705e-04
<GCONST> 1.074868e+02
<STATE> 4
<MEAN> 39
 4.182782e-09 2.258702e-07 1.171179e-07 2.342358e-07 -1.463974e-07 0.000000e+00 -1.338490e-07 -2.007735e-07 -4.015471e-07 1.254835e-07 1.673113e-07 -2.509669e-08 8.282074e-01 3.160297e-01 -2.142698e-01 -1.879023e-02 1.262147e-01 -1.922945e-01 2.569839e-01 1.411707e-01 -4.661986e-01 -8.199918e-02 -2.638732e-01 -3.546303e-01 -1.171214e-01 -5.029219e-04 -3.991936e-02 -1.698865e-02 -1.949919e-02 5.795449e-02 9.551040e-03 1.049598e-02 -3.033014e-03 -1.632373e-03 9.687691e-02 4.079850e-02 6.168273e-02 2.619260e-02 -1.643985e-03
<VARIANCE> 39
 2.799253e+01 1.535382e+02 2.402562e+01 6.755240e+01 3.060357e+01 7.092625e+01 2.289345e+01 9.061552e+01 6.243489e+01 5.049831e+01 5.528866e+01 2.710070e+01 1.605909e-02 1.561269e+00 5.203087e+00 1.566954e+00 3.923379e+00 4.772709e+00 5.284200e+00 3.112502e+00 5.036736e+00 5.285264e+00 5.191365e+00 5.438787e+00 2.604209e+00 1.223406e-03 1.707550e-01 4.909342e-01 2.596492e-01 5.251670e-01 9.310411e-01 1.105303e+00 6.254461e-01 6.445351e-01 7.090266e-01 1.076001e+00 1.127513e+00 3.883379e-01 1.005705e-04
<GCONST> 1.074868e+02
<STATE> 5
<MEAN> 39
 4.182782e-09 2.258702e-07 1.171179e-07 2.342358e-07 -1.463974e-07 0.000000e+00 -1.338490e-07 -2.007735e-07 -4.015471e-07 1.254835e-07 1.673113e-07 -2.509669e-08 8.282074e-01 3.160297e-01 -2.142698e-01 -1.879023e-02 1.262147e-01 -1.922945e-01 2.569839e-01 1.411707e-01 -4.661986e-01 -8.199918e-02 -2.638732e-01 -3.546303e-01 -1.171214e-01 -5.029219e-04 -3.991936e-02 -1.698865e-02 -1.949919e-02 5.795449e-02 9.551040e-03 1.049598e-02 -3.033014e-03 -1.632373e-03 9.687691e-02 4.079850e-02 6.168273e-02 2.619260e-02 -1.643985e-03
<VARIANCE> 39
 2.799253e+01 1.535382e+02 2.402562e+01 6.755240e+01 3.060357e+01 7.092625e+01 2.289345e+01 9.061552e+01 6.243489e+01 5.049831e+01 5.528866e+01 2.710070e+01 1.605909e-02 1.561269e+00 5.203087e+00 1.566954e+00 3.923379e+00 4.772709e+00 5.284200e+00 3.112502e+00 5.036736e+00 5.285264e+00 5.191365e+00 5.438787e+00 2.604209e+00 1.223406e-03 1.707550e-01 4.909342e-01 2.596492e-01 5.251670e-01 9.310411e-01 1.105303e+00 6.254461e-01 6.445351e-01 7.090266e-01 1.076001e+00 1.127513e+00 3.883379e-01 1.005705e-04
<GCONST> 1.074868e+02
<STATE> 6
<MEAN> 39
 4.182782e-09 2.258702e-07 1.171179e-07 2.342358e-07 -1.463974e-07 0.000000e+00 -1.338490e-07 -2.007735e-07 -4.015471e-07 1.254835e-07 1.673113e-07 -2.509669e-08 8.282074e-01 3.160297e-01 -2.142698e-01 -1.879023e-02 1.262147e-01 -1.922945e-01 2.569839e-01 1.411707e-01 -4.661986e-01 -8.199918e-02 -2.638732e-01 -3.546303e-01 -1.171214e-01 -5.029219e-04 -3.991936e-02 -1.698865e-02 -1.949919e-02 5.795449e-02 9.551040e-03 1.049598e-02 -3.033014e-03 -1.632373e-03 9.687691e-02 4.079850e-02 6.168273e-02 2.619260e-02 -1.643985e-03
<VARIANCE> 39
 2.799253e+01 1.535382e+02 2.402562e+01 6.755240e+01 3.060357e+01 7.092625e+01 2.289345e+01 9.061552e+01 6.243489e+01 5.049831e+01 5.528866e+01 2.710070e+01 1.605909e-02 1.561269e+00 5.203087e+00 1.566954e+00 3.923379e+00 4.772709e+00 5.284200e+00 3.112502e+00 5.036736e+00 5.285264e+00 5.191365e+00 5.438787e+00 2.604209e+00 1.223406e-03 1.707550e-01 4.909342e-01 2.596492e-01 5.251670e-01 9.310411e-01 1.105303e+00 6.254461e-01 6.445351e-01 7.090266e-01 1.076001e+00 1.127513e+00 3.883379e-01 1.005705e-04
<GCONST> 1.074868e+02
<STATE> 7
<MEAN> 39
 4.182782e-09 2.258702e-07 1.171179e-07 2.342358e-07 -1.463974e-07 0.000000e+00 -1.338490e-07 -2.007735e-07 -4.015471e-07 1.254835e-07 1.673113e-07 -2.509669e-08 8.282074e-01 3.160297e-01 -2.142698e-01 -1.879023e-02 1.262147e-01 -1.922945e-01 2.569839e-01 1.411707e-01 -4.661986e-01 -8.199918e-02 -2.638732e-01 -3.546303e-01 -1.171214e-01 -5.029219e-04 -3.991936e-02 -1.698865e-02 -1.949919e-02 5.795449e-02 9.551040e-03 1.049598e-02 -3.033014e-03 -1.632373e-03 9.687691e-02 4.079850e-02 6.168273e-02 2.619260e-02 -1.643985e-03
<VARIANCE> 39
 2.799253e+01 1.535382e+02 2.402562e+01 6.755240e+01 3.060357e+01 7.092625e+01 2.289345e+01 9.061552e+01 6.243489e+01 5.049831e+01 5.528866e+01 2.710070e+01 1.605909e-02 1.561269e+00 5.203087e+00 1.566954e+00 3.923379e+00 4.772709e+00 5.284200e+00 3.112502e+00 5.036736e+00 5.285264e+00 5.191365e+00 5.438787e+00 2.604209e+00 1.223406e-03 1.707550e-01 4.909342e-01 2.596492e-01 5.251670e-01 9.310411e-01 1.105303e+00 6.254461e-01 6.445351e-01 7.090266e-01 1.076001e+00 1.127513e+00 3.883379e-01 1.005705e-04
<GCONST> 1.074868e+02
<STATE> 8
<MEAN> 39
 4.182782e-09 2.258702e-07 1.171179e-07 2.342358e-07 -1.463974e-07 0.000000e+00 -1.338490e-07 -2.007735e-07 -4.015471e-07 1.254835e-07 1.673113e-07 -2.509669e-08 8.282074e-01 3.160297e-01 -2.142698e-01 -1.879023e-02 1.262147e-01 -1.922945e-01 2.569839e-01 1.411707e-01 -4.661986e-01 -8.199918e-02 -2.638732e-01 -3.546303e-01 -1.171214e-01 -5.029219e-04 -3.991936e-02 -1.698865e-02 -1.949919e-02 5.795449e-02 9.551040e-03 1.049598e-02 -3.033014e-03 -1.632373e-03 9.687691e-02 4.079850e-02 6.168273e-02 2.619260e-02 -1.643985e-03
<VARIANCE> 39
 2.799253e+01 1.535382e+02 2.402562e+01 6.755240e+01 3.060357e+01 7.092625e+01 2.289345e+01 9.061552e+01 6.243489e+01 5.049831e+01 5.528866e+01 2.710070e+01 1.605909e-02 1.561269e+00 5.203087e+00 1.566954e+00 3.923379e+00 4.772709e+00 5.284200e+00 3.112502e+00 5.036736e+00 5.285264e+00 5.191365e+00 5.438787e+00 2.604209e+00 1.223406e-03 1.707550e-01 4.909342e-01 2.596492e-01 5.251670e-01 9.310411e-01 1.105303e+00 6.254461e-01 6.445351e-01 7.090266e-01 1.076001e+00 1.127513e+00 3.883379e-01 1.005705e-04
<GCONST> 1.074868e+02
<STATE> 9
<MEAN> 39
 4.182782e-09 2.258702e-07 1.171179e-07 2.342358e-07 -1.463974e-07 0.000000e+00 -1.338490e-07 -2.007735e-07 -4.015471e-07 1.254835e-07 1.673113e-07 -2.509669e-08 8.282074e-01 3.160297e-01 -2.142698e-01 -1.879023e-02 1.262147e-01 -1.922945e-01 2.569839e-01 1.411707e-01 -4.661986e-01 -8.199918e-02 -2.638732e-01 -3.546303e-01 -1.171214e-01 -5.029219e-04 -3.991936e-02 -1.698865e-02 -1.949919e-02 5.795449e-02 9.551040e-03 1.049598e-02 -3.033014e-03 -1.632373e-03 9.687691e-02 4.079850e-02 6.168273e-02 2.619260e-02 -1.643985e-03
<VARIANCE> 39
 2.799253e+01 1.535382e+02 2.402562e+01 6.755240e+01 3.060357e+01 7.092625e+01 2.289345e+01 9.061552e+01 6.243489e+01 5.049831e+01 5.528866e+01 2.710070e+01 1.605909e-02 1.561269e+00 5.203087e+00 1.566954e+00 3.923379e+00 4.772709e+00 5.284200e+00 3.112502e+00 5.036736e+00 5.285264e+00 5.191365e+00 5.438787e+00 2.604209e+00 1.223406e-03 1.707550e-01 4.909342e-01 2.596492e-01 5.251670e-01 9.310411e-01 1.105303e+00 6.254461e-01 6.445351e-01 7.090266e-01 1.076001e+00 1.127513e+00 3.883379e-01 1.005705e-04
<GCONST> 1.074868e+02
<TRANSP> 10
 0.000000e+00 1.000000e+00 0.000000e+00 0.000000e+00 0.000000e+00 0.000000e+00 0.000000e+00 0.000000e+00 0.000000e+00 0.000000e+00
 0.000000e+00 9.000000e-01 9.999999e-02 0.000000e+00 0.000000e+00 0.000000e+00 0.000000e+00 0.000000e+00 0.000000e+00 0.000000e+00
 0.000000e+00 0.000000e+00 9.000000e-01 9.999999e-02 0.000000e+00 0.000000e+00 0.000000e+00 0.000000e+00 0.000000e+00 0.000000e+00
 0.000000e+00 0.000000e+00 0.000000e+00 9.000000e-01 9.999999e-02 0.000000e+00 0.000000e+00 0.000000e+00 0.000000e+00 0.000000e+00
 0.000000e+00 0.000000e+00 0.000000e+00 0.000000e+00 9.000000e-01 9.999999e-02 0.000000e+00 0.000000e+00 0.000000e+00 0.000000e+00
 0.000000e+00 0.000000e+00 0.000000e+00 0.000000e+00 0.000000e+00 9.000000e-01 9.999999e-02 0.000000e+00 0.000000e+00 0.000000e+00
 0.000000e+00 0.000000e+00 0.000000e+00 0.000000e+00 0.000000e+00 0.000000e+00 9.000000e-01 9.999999e-02 0.000000e+00 0.000000e+00
 0.000000e+00 0.000000e+00 0.000000e+00 0.000000e+00 0.000000e+00 0.000000e+00 0.000000e+00 9.000000e-01 9.999999e-02 0.000000e+00
 0.000000e+00 0.000000e+00 0.000000e+00 0.000000e+00 0.000000e+00 0.000000e+00 0.000000e+00 0.000000e+00 9.000000e-01 9.999999e-02
 0.000000e+00 0.000000e+00 0.000000e+00 0.000000e+00 0.000000e+00 0.000000e+00 0.000000e+00 0.000000e+00 0.000000e+00 0.000000e+00
<ENDHMM>
