~o
<STREAMINFO> 1 39
<VECSIZE> 39<NULLD><MFCC_E_D_A_Z><DIAGC>
~h "s016"
<BEGINHMM>
<NUMSTATES> 10
<STATE> 2
<MEAN> 39
 4.401574e-07 3.667978e-07 3.667978e-08 1.100393e-07 3.049007e-07 2.200787e-07 -1.100393e-07 2.750984e-07 1.283792e-07 1.100393e-07 -1.925688e-07 5.501967e-08 7.032582e-01 4.176104e-01 -2.704669e-01 -2.670787e-01 9.200021e-02 -1.752701e-01 -1.164162e-01 -1.873068e-01 -1.150926e-01 -7.348626e-03 -2.345131e-01 -2.710288e-01 -2.679415e-01 2.857730e-03 3.362545e-04 -1.997458e-02 -4.096789e-03 -8.233186e-03 -5.242583e-02 -4.033263e-02 -4.116687e-02 6.669999e-02 -2.563807e-02 3.141509e-02 4.923420e-02 7.095053e-03 -1.531141e-03
<VARIANCE> 39
 5.447038e+01 6.856200e+01 7.571693e+01 1.025003e+02 1.162884e+02 2.968523e+01 8.642139e+01 3.280915e+01 4.407724e+01 3.168199e+01 8.201024e+01 3.599414e+01 2.952011e-02 1.263939e+00 1.469132e+00 2.904928e+00 4.643966e+00 4.870898e+00 3.167900e+00 6.453384e+00 3.821856e+00 2.603246e+00 2.440572e+00 5.706383e+00 5.263870e+00 1.258109e-03 2.132449e-01 2.039150e-01 4.348066e-01 5.736474e-01 4.889480e-01 5.433704e-01 9.917686e-01 6.408990e-01 3.838805e-01 4.937819e-01 8.409023e-01 1.059416e+00 1.105572e-04
<GCONST> 1.072100e+02
<STATE> 3
<MEAN> 39
 4.401574e-07 3.667978e-07 3.667978e-08 1.100393e-07 3.049007e-07 2.200787e-07 -1.100393e-07 2.750984e-07 1.283792e-07 1.100393e-07 -1.925688e-07 5.501967e-08 7.032582e-01 4.176104e-01 -2.704669e-01 -2.670787e-01 9.200021e-02 -1.752701e-01 -1.164162e-01 -1.873068e-01 -1.150926e-01 -7.348626e-03 -2.345131e-01 -2.710288e-01 -2.679415e-01 2.857730e-03 3.362545e-04 -1.997458e-02 -4.096789e-03 -8.233186e-03 -5.242583e-02 -4.033263e-02 -4.116687e-02 6.669999e-02 -2.563807e-02 3.141509e-02 4.923420e-02 7.095053e-03 -1.531141e-03
<VARIANCE> 39
 5.447038e+01 6.856200e+01 7.571693e+01 1.025003e+02 1.162884e+02 2.968523e+01 8.642139e+01 3.280915e+01 4.407724e+01 3.168199e+01 8.201024e+01 3.599414e+01 2.952011e-02 1.263939e+00 1.469132e+00 2.904928e+00 4.643966e+00 4.870898e+00 3.167900e+00 6.453384e+00 3.821856e+00 2.603246e+00 2.440572e+00 5.706383e+00 5.263870e+00 1.258109e-03 2.132449e-01 2.039150e-01 4.348066e-01 5.736474e-01 4.889480e-01 5.433704e-01 9.917686e-01 6.408990e-01 3.838805e-01 4.937819e-01 8.409023e-01 1.059416e+00 1.105572e-04
<GCONST> 1.072100e+02
<STATE> 4
<MEAN> 39
 4.401574e-07 3.667978e-07 3.667978e-08 1.100393e-07 3.049007e-07 2.200787e-07 -1.100393e-07 2.750984e-07 1.283792e-07 1.100393e-07 -1.925688e-07 5.501967e-08 7.032582e-01 4.176104e-01 -2.704669e-01 -2.670787e-01 9.200021e-02 -1.752701e-01 -1.164162e-01 -1.873068e-01 -1.150926e-01 -7.348626e-03 -2.345131e-01 -2.710288e-01 -2.679415e-01 2.857730e-03 3.362545e-04 -1.997458e-02 -4.096789e-03 -8.233186e-03 -5.242583e-02 -4.033263e-02 -4.116687e-02 6.669999e-02 -2.563807e-02 3.141509e-02 4.923420e-02 7.095053e-03 -1.531141e-03
<VARIANCE> 39
 5.447038e+01 6.856200e+01 7.571693e+01 1.025003e+02 1.162884e+02 2.968523e+01 8.642139e+01 3.280915e+01 4.407724e+01 3.168199e+01 8.201024e+01 3.599414e+01 2.952011e-02 1.263939e+00 1.469132e+00 2.904928e+00 4.643966e+00 4.870898e+00 3.167900e+00 6.453384e+00 3.821856e+00 2.603246e+00 2.440572e+00 5.706383e+00 5.263870e+00 1.258109e-03 2.132449e-01 2.039150e-01 4.348066e-01 5.736474e-01 4.889480e-01 5.433704e-01 9.917686e-01 6.408990e-01 3.838805e-01 4.937819e-01 8.409023e-01 1.059416e+00 1.105572e-04
<GCONST> 1.072100e+02
<STATE> 5
<MEAN> 39
 4.401574e-07 3.667978e-07 3.667978e-08 1.100393e-07 3.049007e-07 2.200787e-07 -1.100393e-07 2.750984e-07 1.283792e-07 1.100393e-07 -1.925688e-07 5.501967e-08 7.032582e-01 4.176104e-01 -2.704669e-01 -2.670787e-01 9.200021e-02 -1.752701e-01 -1.164162e-01 -1.873068e-01 -1.150926e-01 -7.348626e-03 -2.345131e-01 -2.710288e-01 -2.679415e-01 2.857730e-03 3.362545e-04 -1.997458e-02 -4.096789e-03 -8.233186e-03 -5.242583e-02 -4.033263e-02 -4.116687e-02 6.669999e-02 -2.563807e-02 3.141509e-02 4.923420e-02 7.095053e-03 -1.531141e-03
<VARIANCE> 39
 5.447038e+01 6.856200e+01 7.571693e+01 1.025003e+02 1.162884e+02 2.968523e+01 8.642139e+01 3.280915e+01 4.407724e+01 3.168199e+01 8.201024e+01 3.599414e+01 2.952011e-02 1.263939e+00 1.469132e+00 2.904928e+00 4.643966e+00 4.870898e+00 3.167900e+00 6.453384e+00 3.821856e+00 2.603246e+00 2.440572e+00 5.706383e+00 5.263870e+00 1.258109e-03 2.132449e-01 2.039150e-01 4.348066e-01 5.736474e-01 4.889480e-01 5.433704e-01 9.917686e-01 6.408990e-01 3.838805e-01 4.937819e-01 8.409023e-01 1.059416e+00 1.105572e-04
<GCONST> 1.072100e+02
<STATE> 6
<MEAN> 39
 4.401574e-07 3.667978e-07 3.667978e-08 1.100393e-07 3.049007e-07 2.200787e-07 -1.100393e-07 2.750984e-07 1.283792e-07 1.100393e-07 -1.925688e-07 5.501967e-08 7.032582e-01 4.176104e-01 -2.704669e-01 -2.670787e-01 9.200021e-02 -1.752701e-01 -1.164162e-01 -1.873068e-01 -1.150926e-01 -7.348626e-03 -2.345131e-01 -2.710288e-01 -2.679415e-01 2.857730e-03 3.362545e-04 -1.997458e-02 -4.096789e-03 -8.233186e-03 -5.242583e-02 -4.033263e-02 -4.116687e-02 6.669999e-02 -2.563807e-02 3.141509e-02 4.923420e-02 7.095053e-03 -1.531141e-03
<VARIANCE> 39
 5.447038e+01 6.856200e+01 7.571693e+01 1.025003e+02 1.162884e+02 2.968523e+01 8.642139e+01 3.280915e+01 4.407724e+01 3.168199e+01 8.201024e+01 3.599414e+01 2.952011e-02 1.263939e+00 1.469132e+00 2.904928e+00 4.643966e+00 4.870898e+00 3.167900e+00 6.453384e+00 3.821856e+00 2.603246e+00 2.440572e+00 5.706383e+00 5.263870e+00 1.258109e-03 2.132449e-01 2.039150e-01 4.348066e-01 5.736474e-01 4.889480e-01 5.433704e-01 9.917686e-01 6.408990e-01 3.838805e-01 4.937819e-01 8.409023e-01 1.059416e+00 1.105572e-04
<GCONST> 1.072100e+02
<STATE> 7
<MEAN> 39
 4.401574e-07 3.667978e-07 3.667978e-08 1.100393e-07 3.049007e-07 2.200787e-07 -1.100393e-07 2.750984e-07 1.283792e-07 1.100393e-07 -1.925688e-07 5.501967e-08 7.032582e-01 4.176104e-01 -2.704669e-01 -2.670787e-01 9.200021e-02 -1.752701e-01 -1.164162e-01 -1.873068e-01 -1.150926e-01 -7.348626e-03 -2.345131e-01 -2.710288e-01 -2.679415e-01 2.857730e-03 3.362545e-04 -1.997458e-02 -4.096789e-03 -8.233186e-03 -5.242583e-02 -4.033263e-02 -4.116687e-02 6.669999e-02 -2.563807e-02 3.141509e-02 4.923420e-02 7.095053e-03 -1.531141e-03
<VARIANCE> 39
 5.447038e+01 6.856200e+01 7.571693e+01 1.025003e+02 1.162884e+02 2.968523e+01 8.642139e+01 3.280915e+01 4.407724e+01 3.168199e+01 8.201024e+01 3.599414e+01 2.952011e-02 1.263939e+00 1.469132e+00 2.904928e+00 4.643966e+00 4.870898e+00 3.167900e+00 6.453384e+00 3.821856e+00 2.603246e+00 2.440572e+00 5.706383e+00 5.263870e+00 1.258109e-03 2.132449e-01 2.039150e-01 4.348066e-01 5.736474e-01 4.889480e-01 5.433704e-01 9.917686e-01 6.408990e-01 3.838805e-01 4.937819e-01 8.409023e-01 1.059416e+00 1.105572e-04
<GCONST> 1.072100e+02
<STATE> 8
<MEAN> 39
 4.401574e-07 3.667978e-07 3.667978e-08 1.100393e-07 3.049007e-07 2.200787e-07 -1.100393e-07 2.750984e-07 1.283792e-07 1.100393e-07 -1.925688e-07 5.501967e-08 7.032582e-01 4.176104e-01 -2.704669e-01 -2.670787e-01 9.200021e-02 -1.752701e-01 -1.164162e-01 -1.873068e-01 -1.150926e-01 -7.348626e-03 -2.345131e-01 -2.710288e-01 -2.679415e-01 2.857730e-03 3.362545e-04 -1.997458e-02 -4.096789e-03 -8.233186e-03 -5.242583e-02 -4.033263e-02 -4.116687e-02 6.669999e-02 -2.563807e-02 3.141509e-02 4.923420e-02 7.095053e-03 -1.531141e-03
<VARIANCE> 39
 5.447038e+01 6.856200e+01 7.571693e+01 1.025003e+02 1.162884e+02 2.968523e+01 8.642139e+01 3.280915e+01 4.407724e+01 3.168199e+01 8.201024e+01 3.599414e+01 2.952011e-02 1.263939e+00 1.469132e+00 2.904928e+00 4.643966e+00 4.870898e+00 3.167900e+00 6.453384e+00 3.821856e+00 2.603246e+00 2.440572e+00 5.706383e+00 5.263870e+00 1.258109e-03 2.132449e-01 2.039150e-01 4.348066e-01 5.736474e-01 4.889480e-01 5.433704e-01 9.917686e-01 6.408990e-01 3.838805e-01 4.937819e-01 8.409023e-01 1.059416e+00 1.105572e-04
<GCONST> 1.072100e+02
<STATE> 9
<MEAN> 39
 4.401574e-07 3.667978e-07 3.667978e-08 1.100393e-07 3.049007e-07 2.200787e-07 -1.100393e-07 2.750984e-07 1.283792e-07 1.100393e-07 -1.925688e-07 5.501967e-08 7.032582e-01 4.176104e-01 -2.704669e-01 -2.670787e-01 9.200021e-02 -1.752701e-01 -1.164162e-01 -1.873068e-01 -1.150926e-01 -7.348626e-03 -2.345131e-01 -2.710288e-01 -2.679415e-01 2.857730e-03 3.362545e-04 -1.997458e-02 -4.096789e-03 -8.233186e-03 -5.242583e-02 -4.033263e-02 -4.116687e-02 6.669999e-02 -2.563807e-02 3.141509e-02 4.923420e-02 7.095053e-03 -1.531141e-03
<VARIANCE> 39
 5.447038e+01 6.856200e+01 7.571693e+01 1.025003e+02 1.162884e+02 2.968523e+01 8.642139e+01 3.280915e+01 4.407724e+01 3.168199e+01 8.201024e+01 3.599414e+01 2.952011e-02 1.263939e+00 1.469132e+00 2.904928e+00 4.643966e+00 4.870898e+00 3.167900e+00 6.453384e+00 3.821856e+00 2.603246e+00 2.440572e+00 5.706383e+00 5.263870e+00 1.258109e-03 2.132449e-01 2.039150e-01 4.348066e-01 5.736474e-01 4.889480e-01 5.433704e-01 9.917686e-01 6.408990e-01 3.838805e-01 4.937819e-01 8.409023e-01 1.059416e+00 1.105572e-04
<GCONST> 1.072100e+02
<TRANSP> 10
 0.000000e+00 1.000000e+00 0.000000e+00 0.000000e+00 0.000000e+00 0.000000e+00 0.000000e+00 0.000000e+00 0.000000e+00 0.000000e+00
 0.000000e+00 9.000000e-01 9.999999e-02 0.000000e+00 0.000000e+00 0.000000e+00 0.000000e+00 0.000000e+00 0.000000e+00 0.000000e+00
 0.000000e+00 0.000000e+00 9.000000e-01 9.999999e-02 0.000000e+00 0.000000e+00 0.000000e+00 0.000000e+00 0.000000e+00 0.000000e+00
 0.000000e+00 0.000000e+00 0.000000e+00 9.000000e-01 9.999999e-02 0.000000e+00 0.000000e+00 0.000000e+00 0.000000e+00 0.000000e+00
 0.000000e+00 0.000000e+00 0.000000e+00 0.000000e+00 9.000000e-01 9.999999e-02 0.000000e+00 0.000000e+00 0.000000e+00 0.000000e+00
 0.000000e+00 0.000000e+00 0.000000e+00 0.000000e+00 0.000000e+00 9.000000e-01 9.999999e-02 0.000000e+00 0.000000e+00 0.000000e+00
 0.000000e+00 0.000000e+00 0.000000e+00 0.000000e+00 0.000000e+00 0.000000e+00 9.000000e-01 9.999999e-02 0.000000e+00 0.000000e+00
 0.000000e+00 0.000000e+00 0.000000e+00 0.000000e+00 0.000000e+00 0.000000e+00 0.000000e+00 9.000000e-01 9.999999e-02 0.000000e+00
 0.000000e+00 0.000000e+00 0.000000e+00 0.000000e+00 0.000000e+00 0.000000e+00 0.000000e+00 0.000000e+00 9.000000e-01 9.999999e-02
 0.000000e+00 0.000000e+00 0.000000e+00 0.000000e+00 0.000000e+00 0.000000e+00 0.000000e+00 0.000000e+00 0.000000e+00 0.000000e+00
<ENDHMM>
