~o
<STREAMINFO> 1 39
<VECSIZE> 39<NULLD><MFCC_E_D_A_Z><DIAGC>
~h "s016"
<BEGINHMM>
<NUMSTATES> 10
<STATE> 2
<MEAN> 39
 1.390775e-07 -1.291434e-07 -1.986821e-07 -7.549922e-07 -7.698933e-08 5.960464e-08 0.000000e+00 1.192093e-07 -7.450581e-08 -3.377596e-07 2.185504e-07 -1.341105e-07 7.279980e-01 5.361300e-01 -2.311283e-01 -1.046872e-01 1.173356e-02 -3.585516e-01 -1.043420e-02 -3.339286e-01 -1.739912e-01 -1.266412e-01 -3.093892e-01 -2.772215e-01 -6.773892e-03 3.912095e-03 1.317468e-02 1.853566e-02 9.088737e-03 2.752622e-02 5.009491e-02 3.538607e-02 7.823016e-02 -2.995145e-03 1.466300e-02 -1.316602e-02 -5.560507e-02 2.722442e-03 -4.592887e-04
<VARIANCE> 39
 4.643998e+01 7.037301e+01 7.998480e+01 1.036446e+02 1.187081e+02 2.950545e+01 8.167302e+01 3.327222e+01 4.013933e+01 3.176155e+01 8.812835e+01 3.869058e+01 2.155354e-02 1.216229e+00 1.516725e+00 2.832026e+00 5.076195e+00 5.036366e+00 3.177943e+00 6.845490e+00 3.666698e+00 2.427567e+00 2.518337e+00 6.103393e+00 5.371073e+00 1.105693e-03 2.162441e-01 1.970117e-01 3.767124e-01 6.229624e-01 4.999058e-01 5.266861e-01 1.046984e+00 5.689711e-01 3.447344e-01 5.133418e-01 8.555426e-01 1.117354e+00 1.284142e-04
<GCONST> 1.068802e+02
<STATE> 3
<MEAN> 39
 1.390775e-07 -1.291434e-07 -1.986821e-07 -7.549922e-07 -7.698933e-08 5.960464e-08 0.000000e+00 1.192093e-07 -7.450581e-08 -3.377596e-07 2.185504e-07 -1.341105e-07 7.279980e-01 5.361300e-01 -2.311283e-01 -1.046872e-01 1.173356e-02 -3.585516e-01 -1.043420e-02 -3.339286e-01 -1.739912e-01 -1.266412e-01 -3.093892e-01 -2.772215e-01 -6.773892e-03 3.912095e-03 1.317468e-02 1.853566e-02 9.088737e-03 2.752622e-02 5.009491e-02 3.538607e-02 7.823016e-02 -2.995145e-03 1.466300e-02 -1.316602e-02 -5.560507e-02 2.722442e-03 -4.592887e-04
<VARIANCE> 39
 4.643998e+01 7.037301e+01 7.998480e+01 1.036446e+02 1.187081e+02 2.950545e+01 8.167302e+01 3.327222e+01 4.013933e+01 3.176155e+01 8.812835e+01 3.869058e+01 2.155354e-02 1.216229e+00 1.516725e+00 2.832026e+00 5.076195e+00 5.036366e+00 3.177943e+00 6.845490e+00 3.666698e+00 2.427567e+00 2.518337e+00 6.103393e+00 5.371073e+00 1.105693e-03 2.162441e-01 1.970117e-01 3.767124e-01 6.229624e-01 4.999058e-01 5.266861e-01 1.046984e+00 5.689711e-01 3.447344e-01 5.133418e-01 8.555426e-01 1.117354e+00 1.284142e-04
<GCONST> 1.068802e+02
<STATE> 4
<MEAN> 39
 1.390775e-07 -1.291434e-07 -1.986821e-07 -7.549922e-07 -7.698933e-08 5.960464e-08 0.000000e+00 1.192093e-07 -7.450581e-08 -3.377596e-07 2.185504e-07 -1.341105e-07 7.279980e-01 5.361300e-01 -2.311283e-01 -1.046872e-01 1.173356e-02 -3.585516e-01 -1.043420e-02 -3.339286e-01 -1.739912e-01 -1.266412e-01 -3.093892e-01 -2.772215e-01 -6.773892e-03 3.912095e-03 1.317468e-02 1.853566e-02 9.088737e-03 2.752622e-02 5.009491e-02 3.538607e-02 7.823016e-02 -2.995145e-03 1.466300e-02 -1.316602e-02 -5.560507e-02 2.722442e-03 -4.592887e-04
<VARIANCE> 39
 4.643998e+01 7.037301e+01 7.998480e+01 1.036446e+02 1.187081e+02 2.950545e+01 8.167302e+01 3.327222e+01 4.013933e+01 3.176155e+01 8.812835e+01 3.869058e+01 2.155354e-02 1.216229e+00 1.516725e+00 2.832026e+00 5.076195e+00 5.036366e+00 3.177943e+00 6.845490e+00 3.666698e+00 2.427567e+00 2.518337e+00 6.103393e+00 5.371073e+00 1.105693e-03 2.162441e-01 1.970117e-01 3.767124e-01 6.229624e-01 4.999058e-01 5.266861e-01 1.046984e+00 5.689711e-01 3.447344e-01 5.133418e-01 8.555426e-01 1.117354e+00 1.284142e-04
<GCONST> 1.068802e+02
<STATE> 5
<MEAN> 39
 1.390775e-07 -1.291434e-07 -1.986821e-07 -7.549922e-07 -7.698933e-08 5.960464e-08 0.000000e+00 1.192093e-07 -7.450581e-08 -3.377596e-07 2.185504e-07 -1.341105e-07 7.279980e-01 5.361300e-01 -2.311283e-01 -1.046872e-01 1.173356e-02 -3.585516e-01 -1.043420e-02 -3.339286e-01 -1.739912e-01 -1.266412e-01 -3.093892e-01 -2.772215e-01 -6.773892e-03 3.912095e-03 1.317468e-02 1.853566e-02 9.088737e-03 2.752622e-02 5.009491e-02 3.538607e-02 7.823016e-02 -2.995145e-03 1.466300e-02 -1.316602e-02 -5.560507e-02 2.722442e-03 -4.592887e-04
<VARIANCE> 39
 4.643998e+01 7.037301e+01 7.998480e+01 1.036446e+02 1.187081e+02 2.950545e+01 8.167302e+01 3.327222e+01 4.013933e+01 3.176155e+01 8.812835e+01 3.869058e+01 2.155354e-02 1.216229e+00 1.516725e+00 2.832026e+00 5.076195e+00 5.036366e+00 3.177943e+00 6.845490e+00 3.666698e+00 2.427567e+00 2.518337e+00 6.103393e+00 5.371073e+00 1.105693e-03 2.162441e-01 1.970117e-01 3.767124e-01 6.229624e-01 4.999058e-01 5.266861e-01 1.046984e+00 5.689711e-01 3.447344e-01 5.133418e-01 8.555426e-01 1.117354e+00 1.284142e-04
<GCONST> 1.068802e+02
<STATE> 6
<MEAN> 39
 1.390775e-07 -1.291434e-07 -1.986821e-07 -7.549922e-07 -7.698933e-08 5.960464e-08 0.000000e+00 1.192093e-07 -7.450581e-08 -3.377596e-07 2.185504e-07 -1.341105e-07 7.279980e-01 5.361300e-01 -2.311283e-01 -1.046872e-01 1.173356e-02 -3.585516e-01 -1.043420e-02 -3.339286e-01 -1.739912e-01 -1.266412e-01 -3.093892e-01 -2.772215e-01 -6.773892e-03 3.912095e-03 1.317468e-02 1.853566e-02 9.088737e-03 2.752622e-02 5.009491e-02 3.538607e-02 7.823016e-02 -2.995145e-03 1.466300e-02 -1.316602e-02 -5.560507e-02 2.722442e-03 -4.592887e-04
<VARIANCE> 39
 4.643998e+01 7.037301e+01 7.998480e+01 1.036446e+02 1.187081e+02 2.950545e+01 8.167302e+01 3.327222e+01 4.013933e+01 3.176155e+01 8.812835e+01 3.869058e+01 2.155354e-02 1.216229e+00 1.516725e+00 2.832026e+00 5.076195e+00 5.036366e+00 3.177943e+00 6.845490e+00 3.666698e+00 2.427567e+00 2.518337e+00 6.103393e+00 5.371073e+00 1.105693e-03 2.162441e-01 1.970117e-01 3.767124e-01 6.229624e-01 4.999058e-01 5.266861e-01 1.046984e+00 5.689711e-01 3.447344e-01 5.133418e-01 8.555426e-01 1.117354e+00 1.284142e-04
<GCONST> 1.068802e+02
<STATE> 7
<MEAN> 39
 1.390775e-07 -1.291434e-07 -1.986821e-07 -7.549922e-07 -7.698933e-08 5.960464e-08 0.000000e+00 1.192093e-07 -7.450581e-08 -3.377596e-07 2.185504e-07 -1.341105e-07 7.279980e-01 5.361300e-01 -2.311283e-01 -1.046872e-01 1.173356e-02 -3.585516e-01 -1.043420e-02 -3.339286e-01 -1.739912e-01 -1.266412e-01 -3.093892e-01 -2.772215e-01 -6.773892e-03 3.912095e-03 1.317468e-02 1.853566e-02 9.088737e-03 2.752622e-02 5.009491e-02 3.538607e-02 7.823016e-02 -2.995145e-03 1.466300e-02 -1.316602e-02 -5.560507e-02 2.722442e-03 -4.592887e-04
<VARIANCE> 39
 4.643998e+01 7.037301e+01 7.998480e+01 1.036446e+02 1.187081e+02 2.950545e+01 8.167302e+01 3.327222e+01 4.013933e+01 3.176155e+01 8.812835e+01 3.869058e+01 2.155354e-02 1.216229e+00 1.516725e+00 2.832026e+00 5.076195e+00 5.036366e+00 3.177943e+00 6.845490e+00 3.666698e+00 2.427567e+00 2.518337e+00 6.103393e+00 5.371073e+00 1.105693e-03 2.162441e-01 1.970117e-01 3.767124e-01 6.229624e-01 4.999058e-01 5.266861e-01 1.046984e+00 5.689711e-01 3.447344e-01 5.133418e-01 8.555426e-01 1.117354e+00 1.284142e-04
<GCONST> 1.068802e+02
<STATE> 8
<MEAN> 39
 1.390775e-07 -1.291434e-07 -1.986821e-07 -7.549922e-07 -7.698933e-08 5.960464e-08 0.000000e+00 1.192093e-07 -7.450581e-08 -3.377596e-07 2.185504e-07 -1.341105e-07 7.279980e-01 5.361300e-01 -2.311283e-01 -1.046872e-01 1.173356e-02 -3.585516e-01 -1.043420e-02 -3.339286e-01 -1.739912e-01 -1.266412e-01 -3.093892e-01 -2.772215e-01 -6.773892e-03 3.912095e-03 1.317468e-02 1.853566e-02 9.088737e-03 2.752622e-02 5.009491e-02 3.538607e-02 7.823016e-02 -2.995145e-03 1.466300e-02 -1.316602e-02 -5.560507e-02 2.722442e-03 -4.592887e-04
<VARIANCE> 39
 4.643998e+01 7.037301e+01 7.998480e+01 1.036446e+02 1.187081e+02 2.950545e+01 8.167302e+01 3.327222e+01 4.013933e+01 3.176155e+01 8.812835e+01 3.869058e+01 2.155354e-02 1.216229e+00 1.516725e+00 2.832026e+00 5.076195e+00 5.036366e+00 3.177943e+00 6.845490e+00 3.666698e+00 2.427567e+00 2.518337e+00 6.103393e+00 5.371073e+00 1.105693e-03 2.162441e-01 1.970117e-01 3.767124e-01 6.229624e-01 4.999058e-01 5.266861e-01 1.046984e+00 5.689711e-01 3.447344e-01 5.133418e-01 8.555426e-01 1.117354e+00 1.284142e-04
<GCONST> 1.068802e+02
<STATE> 9
<MEAN> 39
 1.390775e-07 -1.291434e-07 -1.986821e-07 -7.549922e-07 -7.698933e-08 5.960464e-08 0.000000e+00 1.192093e-07 -7.450581e-08 -3.377596e-07 2.185504e-07 -1.341105e-07 7.279980e-01 5.361300e-01 -2.311283e-01 -1.046872e-01 1.173356e-02 -3.585516e-01 -1.043420e-02 -3.339286e-01 -1.739912e-01 -1.266412e-01 -3.093892e-01 -2.772215e-01 -6.773892e-03 3.912095e-03 1.317468e-02 1.853566e-02 9.088737e-03 2.752622e-02 5.009491e-02 3.538607e-02 7.823016e-02 -2.995145e-03 1.466300e-02 -1.316602e-02 -5.560507e-02 2.722442e-03 -4.592887e-04
<VARIANCE> 39
 4.643998e+01 7.037301e+01 7.998480e+01 1.036446e+02 1.187081e+02 2.950545e+01 8.167302e+01 3.327222e+01 4.013933e+01 3.176155e+01 8.812835e+01 3.869058e+01 2.155354e-02 1.216229e+00 1.516725e+00 2.832026e+00 5.076195e+00 5.036366e+00 3.177943e+00 6.845490e+00 3.666698e+00 2.427567e+00 2.518337e+00 6.103393e+00 5.371073e+00 1.105693e-03 2.162441e-01 1.970117e-01 3.767124e-01 6.229624e-01 4.999058e-01 5.266861e-01 1.046984e+00 5.689711e-01 3.447344e-01 5.133418e-01 8.555426e-01 1.117354e+00 1.284142e-04
<GCONST> 1.068802e+02
<TRANSP> 10
 0.000000e+00 1.000000e+00 0.000000e+00 0.000000e+00 0.000000e+00 0.000000e+00 0.000000e+00 0.000000e+00 0.000000e+00 0.000000e+00
 0.000000e+00 9.000000e-01 9.999999e-02 0.000000e+00 0.000000e+00 0.000000e+00 0.000000e+00 0.000000e+00 0.000000e+00 0.000000e+00
 0.000000e+00 0.000000e+00 9.000000e-01 9.999999e-02 0.000000e+00 0.000000e+00 0.000000e+00 0.000000e+00 0.000000e+00 0.000000e+00
 0.000000e+00 0.000000e+00 0.000000e+00 9.000000e-01 9.999999e-02 0.000000e+00 0.000000e+00 0.000000e+00 0.000000e+00 0.000000e+00
 0.000000e+00 0.000000e+00 0.000000e+00 0.000000e+00 9.000000e-01 9.999999e-02 0.000000e+00 0.000000e+00 0.000000e+00 0.000000e+00
 0.000000e+00 0.000000e+00 0.000000e+00 0.000000e+00 0.000000e+00 9.000000e-01 9.999999e-02 0.000000e+00 0.000000e+00 0.000000e+00
 0.000000e+00 0.000000e+00 0.000000e+00 0.000000e+00 0.000000e+00 0.000000e+00 9.000000e-01 9.999999e-02 0.000000e+00 0.000000e+00
 0.000000e+00 0.000000e+00 0.000000e+00 0.000000e+00 0.000000e+00 0.000000e+00 0.000000e+00 9.000000e-01 9.999999e-02 0.000000e+00
 0.000000e+00 0.000000e+00 0.000000e+00 0.000000e+00 0.000000e+00 0.000000e+00 0.000000e+00 0.000000e+00 9.000000e-01 9.999999e-02
 0.000000e+00 0.000000e+00 0.000000e+00 0.000000e+00 0.000000e+00 0.000000e+00 0.000000e+00 0.000000e+00 0.000000e+00 0.000000e+00
<ENDHMM>
