~o
<STREAMINFO> 1 39
<VECSIZE> 39<NULLD><MFCC_E_D_A_Z><DIAGC>
~h "s017"
<BEGINHMM>
<NUMSTATES> 10
<STATE> 2
<MEAN> 39
 1.430512e-07 3.981590e-07 1.335144e-07 -1.716614e-07 -3.814697e-08 2.193451e-07 -7.629394e-08 -4.959106e-07 1.811981e-07 -9.536743e-09 -5.722046e-08 4.291535e-08 6.802506e-01 -6.284224e-02 -2.660466e-02 -5.215152e-02 -2.904517e-01 2.405670e-01 3.965979e-02 1.663245e-01 1.962566e-01 4.496784e-02 6.908225e-02 -6.230700e-02 -1.718403e-02 -2.131082e-03 1.262864e-03 -5.270345e-02 -3.574590e-02 1.077763e-01 4.777374e-02 1.890188e-02 1.990595e-02 -2.906635e-02 1.434656e-02 -2.321981e-02 7.796104e-02 -1.384843e-02 -1.458760e-03
<VARIANCE> 39
 1.433683e+01 8.035131e+01 4.791507e+01 6.769439e+01 1.042697e+02 1.256246e+02 7.905145e+01 9.477205e+01 4.906660e+01 3.992443e+01 2.511207e+01 4.146048e+01 5.904400e-02 9.854753e-01 2.453503e+00 4.317643e+00 6.946910e+00 4.306510e+00 5.148655e+00 4.497357e+00 5.145998e+00 4.686097e+00 5.869866e+00 3.824910e+00 3.162364e+00 1.155883e-03 1.021979e-01 1.915828e-01 6.713758e-01 7.214565e-01 7.343134e-01 7.604197e-01 7.132967e-01 7.238478e-01 8.541739e-01 1.166061e+00 9.667625e-01 5.137851e-01 4.328990e-05
<GCONST> 1.098271e+02
<STATE> 3
<MEAN> 39
 1.430512e-07 3.981590e-07 1.335144e-07 -1.716614e-07 -3.814697e-08 2.193451e-07 -7.629394e-08 -4.959106e-07 1.811981e-07 -9.536743e-09 -5.722046e-08 4.291535e-08 6.802506e-01 -6.284224e-02 -2.660466e-02 -5.215152e-02 -2.904517e-01 2.405670e-01 3.965979e-02 1.663245e-01 1.962566e-01 4.496784e-02 6.908225e-02 -6.230700e-02 -1.718403e-02 -2.131082e-03 1.262864e-03 -5.270345e-02 -3.574590e-02 1.077763e-01 4.777374e-02 1.890188e-02 1.990595e-02 -2.906635e-02 1.434656e-02 -2.321981e-02 7.796104e-02 -1.384843e-02 -1.458760e-03
<VARIANCE> 39
 1.433683e+01 8.035131e+01 4.791507e+01 6.769439e+01 1.042697e+02 1.256246e+02 7.905145e+01 9.477205e+01 4.906660e+01 3.992443e+01 2.511207e+01 4.146048e+01 5.904400e-02 9.854753e-01 2.453503e+00 4.317643e+00 6.946910e+00 4.306510e+00 5.148655e+00 4.497357e+00 5.145998e+00 4.686097e+00 5.869866e+00 3.824910e+00 3.162364e+00 1.155883e-03 1.021979e-01 1.915828e-01 6.713758e-01 7.214565e-01 7.343134e-01 7.604197e-01 7.132967e-01 7.238478e-01 8.541739e-01 1.166061e+00 9.667625e-01 5.137851e-01 4.328990e-05
<GCONST> 1.098271e+02
<STATE> 4
<MEAN> 39
 1.430512e-07 3.981590e-07 1.335144e-07 -1.716614e-07 -3.814697e-08 2.193451e-07 -7.629394e-08 -4.959106e-07 1.811981e-07 -9.536743e-09 -5.722046e-08 4.291535e-08 6.802506e-01 -6.284224e-02 -2.660466e-02 -5.215152e-02 -2.904517e-01 2.405670e-01 3.965979e-02 1.663245e-01 1.962566e-01 4.496784e-02 6.908225e-02 -6.230700e-02 -1.718403e-02 -2.131082e-03 1.262864e-03 -5.270345e-02 -3.574590e-02 1.077763e-01 4.777374e-02 1.890188e-02 1.990595e-02 -2.906635e-02 1.434656e-02 -2.321981e-02 7.796104e-02 -1.384843e-02 -1.458760e-03
<VARIANCE> 39
 1.433683e+01 8.035131e+01 4.791507e+01 6.769439e+01 1.042697e+02 1.256246e+02 7.905145e+01 9.477205e+01 4.906660e+01 3.992443e+01 2.511207e+01 4.146048e+01 5.904400e-02 9.854753e-01 2.453503e+00 4.317643e+00 6.946910e+00 4.306510e+00 5.148655e+00 4.497357e+00 5.145998e+00 4.686097e+00 5.869866e+00 3.824910e+00 3.162364e+00 1.155883e-03 1.021979e-01 1.915828e-01 6.713758e-01 7.214565e-01 7.343134e-01 7.604197e-01 7.132967e-01 7.238478e-01 8.541739e-01 1.166061e+00 9.667625e-01 5.137851e-01 4.328990e-05
<GCONST> 1.098271e+02
<STATE> 5
<MEAN> 39
 1.430512e-07 3.981590e-07 1.335144e-07 -1.716614e-07 -3.814697e-08 2.193451e-07 -7.629394e-08 -4.959106e-07 1.811981e-07 -9.536743e-09 -5.722046e-08 4.291535e-08 6.802506e-01 -6.284224e-02 -2.660466e-02 -5.215152e-02 -2.904517e-01 2.405670e-01 3.965979e-02 1.663245e-01 1.962566e-01 4.496784e-02 6.908225e-02 -6.230700e-02 -1.718403e-02 -2.131082e-03 1.262864e-03 -5.270345e-02 -3.574590e-02 1.077763e-01 4.777374e-02 1.890188e-02 1.990595e-02 -2.906635e-02 1.434656e-02 -2.321981e-02 7.796104e-02 -1.384843e-02 -1.458760e-03
<VARIANCE> 39
 1.433683e+01 8.035131e+01 4.791507e+01 6.769439e+01 1.042697e+02 1.256246e+02 7.905145e+01 9.477205e+01 4.906660e+01 3.992443e+01 2.511207e+01 4.146048e+01 5.904400e-02 9.854753e-01 2.453503e+00 4.317643e+00 6.946910e+00 4.306510e+00 5.148655e+00 4.497357e+00 5.145998e+00 4.686097e+00 5.869866e+00 3.824910e+00 3.162364e+00 1.155883e-03 1.021979e-01 1.915828e-01 6.713758e-01 7.214565e-01 7.343134e-01 7.604197e-01 7.132967e-01 7.238478e-01 8.541739e-01 1.166061e+00 9.667625e-01 5.137851e-01 4.328990e-05
<GCONST> 1.098271e+02
<STATE> 6
<MEAN> 39
 1.430512e-07 3.981590e-07 1.335144e-07 -1.716614e-07 -3.814697e-08 2.193451e-07 -7.629394e-08 -4.959106e-07 1.811981e-07 -9.536743e-09 -5.722046e-08 4.291535e-08 6.802506e-01 -6.284224e-02 -2.660466e-02 -5.215152e-02 -2.904517e-01 2.405670e-01 3.965979e-02 1.663245e-01 1.962566e-01 4.496784e-02 6.908225e-02 -6.230700e-02 -1.718403e-02 -2.131082e-03 1.262864e-03 -5.270345e-02 -3.574590e-02 1.077763e-01 4.777374e-02 1.890188e-02 1.990595e-02 -2.906635e-02 1.434656e-02 -2.321981e-02 7.796104e-02 -1.384843e-02 -1.458760e-03
<VARIANCE> 39
 1.433683e+01 8.035131e+01 4.791507e+01 6.769439e+01 1.042697e+02 1.256246e+02 7.905145e+01 9.477205e+01 4.906660e+01 3.992443e+01 2.511207e+01 4.146048e+01 5.904400e-02 9.854753e-01 2.453503e+00 4.317643e+00 6.946910e+00 4.306510e+00 5.148655e+00 4.497357e+00 5.145998e+00 4.686097e+00 5.869866e+00 3.824910e+00 3.162364e+00 1.155883e-03 1.021979e-01 1.915828e-01 6.713758e-01 7.214565e-01 7.343134e-01 7.604197e-01 7.132967e-01 7.238478e-01 8.541739e-01 1.166061e+00 9.667625e-01 5.137851e-01 4.328990e-05
<GCONST> 1.098271e+02
<STATE> 7
<MEAN> 39
 1.430512e-07 3.981590e-07 1.335144e-07 -1.716614e-07 -3.814697e-08 2.193451e-07 -7.629394e-08 -4.959106e-07 1.811981e-07 -9.536743e-09 -5.722046e-08 4.291535e-08 6.802506e-01 -6.284224e-02 -2.660466e-02 -5.215152e-02 -2.904517e-01 2.405670e-01 3.965979e-02 1.663245e-01 1.962566e-01 4.496784e-02 6.908225e-02 -6.230700e-02 -1.718403e-02 -2.131082e-03 1.262864e-03 -5.270345e-02 -3.574590e-02 1.077763e-01 4.777374e-02 1.890188e-02 1.990595e-02 -2.906635e-02 1.434656e-02 -2.321981e-02 7.796104e-02 -1.384843e-02 -1.458760e-03
<VARIANCE> 39
 1.433683e+01 8.035131e+01 4.791507e+01 6.769439e+01 1.042697e+02 1.256246e+02 7.905145e+01 9.477205e+01 4.906660e+01 3.992443e+01 2.511207e+01 4.146048e+01 5.904400e-02 9.854753e-01 2.453503e+00 4.317643e+00 6.946910e+00 4.306510e+00 5.148655e+00 4.497357e+00 5.145998e+00 4.686097e+00 5.869866e+00 3.824910e+00 3.162364e+00 1.155883e-03 1.021979e-01 1.915828e-01 6.713758e-01 7.214565e-01 7.343134e-01 7.604197e-01 7.132967e-01 7.238478e-01 8.541739e-01 1.166061e+00 9.667625e-01 5.137851e-01 4.328990e-05
<GCONST> 1.098271e+02
<STATE> 8
<MEAN> 39
 1.430512e-07 3.981590e-07 1.335144e-07 -1.716614e-07 -3.814697e-08 2.193451e-07 -7.629394e-08 -4.959106e-07 1.811981e-07 -9.536743e-09 -5.722046e-08 4.291535e-08 6.802506e-01 -6.284224e-02 -2.660466e-02 -5.215152e-02 -2.904517e-01 2.405670e-01 3.965979e-02 1.663245e-01 1.962566e-01 4.496784e-02 6.908225e-02 -6.230700e-02 -1.718403e-02 -2.131082e-03 1.262864e-03 -5.270345e-02 -3.574590e-02 1.077763e-01 4.777374e-02 1.890188e-02 1.990595e-02 -2.906635e-02 1.434656e-02 -2.321981e-02 7.796104e-02 -1.384843e-02 -1.458760e-03
<VARIANCE> 39
 1.433683e+01 8.035131e+01 4.791507e+01 6.769439e+01 1.042697e+02 1.256246e+02 7.905145e+01 9.477205e+01 4.906660e+01 3.992443e+01 2.511207e+01 4.146048e+01 5.904400e-02 9.854753e-01 2.453503e+00 4.317643e+00 6.946910e+00 4.306510e+00 5.148655e+00 4.497357e+00 5.145998e+00 4.686097e+00 5.869866e+00 3.824910e+00 3.162364e+00 1.155883e-03 1.021979e-01 1.915828e-01 6.713758e-01 7.214565e-01 7.343134e-01 7.604197e-01 7.132967e-01 7.238478e-01 8.541739e-01 1.166061e+00 9.667625e-01 5.137851e-01 4.328990e-05
<GCONST> 1.098271e+02
<STATE> 9
<MEAN> 39
 1.430512e-07 3.981590e-07 1.335144e-07 -1.716614e-07 -3.814697e-08 2.193451e-07 -7.629394e-08 -4.959106e-07 1.811981e-07 -9.536743e-09 -5.722046e-08 4.291535e-08 6.802506e-01 -6.284224e-02 -2.660466e-02 -5.215152e-02 -2.904517e-01 2.405670e-01 3.965979e-02 1.663245e-01 1.962566e-01 4.496784e-02 6.908225e-02 -6.230700e-02 -1.718403e-02 -2.131082e-03 1.262864e-03 -5.270345e-02 -3.574590e-02 1.077763e-01 4.777374e-02 1.890188e-02 1.990595e-02 -2.906635e-02 1.434656e-02 -2.321981e-02 7.796104e-02 -1.384843e-02 -1.458760e-03
<VARIANCE> 39
 1.433683e+01 8.035131e+01 4.791507e+01 6.769439e+01 1.042697e+02 1.256246e+02 7.905145e+01 9.477205e+01 4.906660e+01 3.992443e+01 2.511207e+01 4.146048e+01 5.904400e-02 9.854753e-01 2.453503e+00 4.317643e+00 6.946910e+00 4.306510e+00 5.148655e+00 4.497357e+00 5.145998e+00 4.686097e+00 5.869866e+00 3.824910e+00 3.162364e+00 1.155883e-03 1.021979e-01 1.915828e-01 6.713758e-01 7.214565e-01 7.343134e-01 7.604197e-01 7.132967e-01 7.238478e-01 8.541739e-01 1.166061e+00 9.667625e-01 5.137851e-01 4.328990e-05
<GCONST> 1.098271e+02
<TRANSP> 10
 0.000000e+00 1.000000e+00 0.000000e+00 0.000000e+00 0.000000e+00 0.000000e+00 0.000000e+00 0.000000e+00 0.000000e+00 0.000000e+00
 0.000000e+00 9.000000e-01 9.999999e-02 0.000000e+00 0.000000e+00 0.000000e+00 0.000000e+00 0.000000e+00 0.000000e+00 0.000000e+00
 0.000000e+00 0.000000e+00 9.000000e-01 9.999999e-02 0.000000e+00 0.000000e+00 0.000000e+00 0.000000e+00 0.000000e+00 0.000000e+00
 0.000000e+00 0.000000e+00 0.000000e+00 9.000000e-01 9.999999e-02 0.000000e+00 0.000000e+00 0.000000e+00 0.000000e+00 0.000000e+00
 0.000000e+00 0.000000e+00 0.000000e+00 0.000000e+00 9.000000e-01 9.999999e-02 0.000000e+00 0.000000e+00 0.000000e+00 0.000000e+00
 0.000000e+00 0.000000e+00 0.000000e+00 0.000000e+00 0.000000e+00 9.000000e-01 9.999999e-02 0.000000e+00 0.000000e+00 0.000000e+00
 0.000000e+00 0.000000e+00 0.000000e+00 0.000000e+00 0.000000e+00 0.000000e+00 9.000000e-01 9.999999e-02 0.000000e+00 0.000000e+00
 0.000000e+00 0.000000e+00 0.000000e+00 0.000000e+00 0.000000e+00 0.000000e+00 0.000000e+00 9.000000e-01 9.999999e-02 0.000000e+00
 0.000000e+00 0.000000e+00 0.000000e+00 0.000000e+00 0.000000e+00 0.000000e+00 0.000000e+00 0.000000e+00 9.000000e-01 9.999999e-02
 0.000000e+00 0.000000e+00 0.000000e+00 0.000000e+00 0.000000e+00 0.000000e+00 0.000000e+00 0.000000e+00 0.000000e+00 0.000000e+00
<ENDHMM>
