~o
<STREAMINFO> 1 39
<VECSIZE> 39<NULLD><MFCC_E_D_A_Z><DIAGC>
~h "s018"
<BEGINHMM>
<NUMSTATES> 10
<STATE> 2
<MEAN> 39
 9.411260e-08 -4.109583e-07 -3.764504e-08 -1.882252e-07 -3.576279e-07 1.003868e-07 5.678127e-07 -1.003868e-07 -1.129351e-07 -4.391921e-08 -1.756768e-07 -4.893855e-07 7.161057e-01 2.057700e-01 -1.284384e-02 1.203064e-01 1.300663e-03 -1.686437e-01 -1.376974e-01 -5.066169e-02 -6.030763e-02 -6.864671e-02 -9.533501e-02 6.022976e-03 2.099594e-02 4.464248e-04 -7.897875e-03 -1.128733e-02 3.569263e-03 -2.441780e-02 -1.013863e-02 1.776347e-02 -3.902104e-03 8.837385e-04 3.512201e-02 1.704595e-02 2.352231e-02 -3.836223e-03 -5.345214e-04
<VARIANCE> 39
 4.877599e+01 1.135801e+02 2.860507e+01 6.169130e+01 6.254776e+01 3.343155e+01 4.766888e+01 4.075046e+01 4.427325e+01 4.428340e+01 3.792202e+01 4.216348e+01 3.567929e-02 4.121501e+00 3.167457e+00 2.520568e+00 5.116644e+00 3.754997e+00 3.627797e+00 3.846002e+00 4.489825e+00 3.843996e+00 3.846915e+00 2.868412e+00 3.761178e+00 2.107610e-03 6.890416e-01 3.833406e-01 4.346973e-01 9.264056e-01 7.961721e-01 6.322434e-01 8.124820e-01 9.522087e-01 6.429992e-01 6.106148e-01 5.085063e-01 8.232000e-01 2.179356e-04
<GCONST> 1.106906e+02
<STATE> 3
<MEAN> 39
 9.411260e-08 -4.109583e-07 -3.764504e-08 -1.882252e-07 -3.576279e-07 1.003868e-07 5.678127e-07 -1.003868e-07 -1.129351e-07 -4.391921e-08 -1.756768e-07 -4.893855e-07 7.161057e-01 2.057700e-01 -1.284384e-02 1.203064e-01 1.300663e-03 -1.686437e-01 -1.376974e-01 -5.066169e-02 -6.030763e-02 -6.864671e-02 -9.533501e-02 6.022976e-03 2.099594e-02 4.464248e-04 -7.897875e-03 -1.128733e-02 3.569263e-03 -2.441780e-02 -1.013863e-02 1.776347e-02 -3.902104e-03 8.837385e-04 3.512201e-02 1.704595e-02 2.352231e-02 -3.836223e-03 -5.345214e-04
<VARIANCE> 39
 4.877599e+01 1.135801e+02 2.860507e+01 6.169130e+01 6.254776e+01 3.343155e+01 4.766888e+01 4.075046e+01 4.427325e+01 4.428340e+01 3.792202e+01 4.216348e+01 3.567929e-02 4.121501e+00 3.167457e+00 2.520568e+00 5.116644e+00 3.754997e+00 3.627797e+00 3.846002e+00 4.489825e+00 3.843996e+00 3.846915e+00 2.868412e+00 3.761178e+00 2.107610e-03 6.890416e-01 3.833406e-01 4.346973e-01 9.264056e-01 7.961721e-01 6.322434e-01 8.124820e-01 9.522087e-01 6.429992e-01 6.106148e-01 5.085063e-01 8.232000e-01 2.179356e-04
<GCONST> 1.106906e+02
<STATE> 4
<MEAN> 39
 9.411260e-08 -4.109583e-07 -3.764504e-08 -1.882252e-07 -3.576279e-07 1.003868e-07 5.678127e-07 -1.003868e-07 -1.129351e-07 -4.391921e-08 -1.756768e-07 -4.893855e-07 7.161057e-01 2.057700e-01 -1.284384e-02 1.203064e-01 1.300663e-03 -1.686437e-01 -1.376974e-01 -5.066169e-02 -6.030763e-02 -6.864671e-02 -9.533501e-02 6.022976e-03 2.099594e-02 4.464248e-04 -7.897875e-03 -1.128733e-02 3.569263e-03 -2.441780e-02 -1.013863e-02 1.776347e-02 -3.902104e-03 8.837385e-04 3.512201e-02 1.704595e-02 2.352231e-02 -3.836223e-03 -5.345214e-04
<VARIANCE> 39
 4.877599e+01 1.135801e+02 2.860507e+01 6.169130e+01 6.254776e+01 3.343155e+01 4.766888e+01 4.075046e+01 4.427325e+01 4.428340e+01 3.792202e+01 4.216348e+01 3.567929e-02 4.121501e+00 3.167457e+00 2.520568e+00 5.116644e+00 3.754997e+00 3.627797e+00 3.846002e+00 4.489825e+00 3.843996e+00 3.846915e+00 2.868412e+00 3.761178e+00 2.107610e-03 6.890416e-01 3.833406e-01 4.346973e-01 9.264056e-01 7.961721e-01 6.322434e-01 8.124820e-01 9.522087e-01 6.429992e-01 6.106148e-01 5.085063e-01 8.232000e-01 2.179356e-04
<GCONST> 1.106906e+02
<STATE> 5
<MEAN> 39
 9.411260e-08 -4.109583e-07 -3.764504e-08 -1.882252e-07 -3.576279e-07 1.003868e-07 5.678127e-07 -1.003868e-07 -1.129351e-07 -4.391921e-08 -1.756768e-07 -4.893855e-07 7.161057e-01 2.057700e-01 -1.284384e-02 1.203064e-01 1.300663e-03 -1.686437e-01 -1.376974e-01 -5.066169e-02 -6.030763e-02 -6.864671e-02 -9.533501e-02 6.022976e-03 2.099594e-02 4.464248e-04 -7.897875e-03 -1.128733e-02 3.569263e-03 -2.441780e-02 -1.013863e-02 1.776347e-02 -3.902104e-03 8.837385e-04 3.512201e-02 1.704595e-02 2.352231e-02 -3.836223e-03 -5.345214e-04
<VARIANCE> 39
 4.877599e+01 1.135801e+02 2.860507e+01 6.169130e+01 6.254776e+01 3.343155e+01 4.766888e+01 4.075046e+01 4.427325e+01 4.428340e+01 3.792202e+01 4.216348e+01 3.567929e-02 4.121501e+00 3.167457e+00 2.520568e+00 5.116644e+00 3.754997e+00 3.627797e+00 3.846002e+00 4.489825e+00 3.843996e+00 3.846915e+00 2.868412e+00 3.761178e+00 2.107610e-03 6.890416e-01 3.833406e-01 4.346973e-01 9.264056e-01 7.961721e-01 6.322434e-01 8.124820e-01 9.522087e-01 6.429992e-01 6.106148e-01 5.085063e-01 8.232000e-01 2.179356e-04
<GCONST> 1.106906e+02
<STATE> 6
<MEAN> 39
 9.411260e-08 -4.109583e-07 -3.764504e-08 -1.882252e-07 -3.576279e-07 1.003868e-07 5.678127e-07 -1.003868e-07 -1.129351e-07 -4.391921e-08 -1.756768e-07 -4.893855e-07 7.161057e-01 2.057700e-01 -1.284384e-02 1.203064e-01 1.300663e-03 -1.686437e-01 -1.376974e-01 -5.066169e-02 -6.030763e-02 -6.864671e-02 -9.533501e-02 6.022976e-03 2.099594e-02 4.464248e-04 -7.897875e-03 -1.128733e-02 3.569263e-03 -2.441780e-02 -1.013863e-02 1.776347e-02 -3.902104e-03 8.837385e-04 3.512201e-02 1.704595e-02 2.352231e-02 -3.836223e-03 -5.345214e-04
<VARIANCE> 39
 4.877599e+01 1.135801e+02 2.860507e+01 6.169130e+01 6.254776e+01 3.343155e+01 4.766888e+01 4.075046e+01 4.427325e+01 4.428340e+01 3.792202e+01 4.216348e+01 3.567929e-02 4.121501e+00 3.167457e+00 2.520568e+00 5.116644e+00 3.754997e+00 3.627797e+00 3.846002e+00 4.489825e+00 3.843996e+00 3.846915e+00 2.868412e+00 3.761178e+00 2.107610e-03 6.890416e-01 3.833406e-01 4.346973e-01 9.264056e-01 7.961721e-01 6.322434e-01 8.124820e-01 9.522087e-01 6.429992e-01 6.106148e-01 5.085063e-01 8.232000e-01 2.179356e-04
<GCONST> 1.106906e+02
<STATE> 7
<MEAN> 39
 9.411260e-08 -4.109583e-07 -3.764504e-08 -1.882252e-07 -3.576279e-07 1.003868e-07 5.678127e-07 -1.003868e-07 -1.129351e-07 -4.391921e-08 -1.756768e-07 -4.893855e-07 7.161057e-01 2.057700e-01 -1.284384e-02 1.203064e-01 1.300663e-03 -1.686437e-01 -1.376974e-01 -5.066169e-02 -6.030763e-02 -6.864671e-02 -9.533501e-02 6.022976e-03 2.099594e-02 4.464248e-04 -7.897875e-03 -1.128733e-02 3.569263e-03 -2.441780e-02 -1.013863e-02 1.776347e-02 -3.902104e-03 8.837385e-04 3.512201e-02 1.704595e-02 2.352231e-02 -3.836223e-03 -5.345214e-04
<VARIANCE> 39
 4.877599e+01 1.135801e+02 2.860507e+01 6.169130e+01 6.254776e+01 3.343155e+01 4.766888e+01 4.075046e+01 4.427325e+01 4.428340e+01 3.792202e+01 4.216348e+01 3.567929e-02 4.121501e+00 3.167457e+00 2.520568e+00 5.116644e+00 3.754997e+00 3.627797e+00 3.846002e+00 4.489825e+00 3.843996e+00 3.846915e+00 2.868412e+00 3.761178e+00 2.107610e-03 6.890416e-01 3.833406e-01 4.346973e-01 9.264056e-01 7.961721e-01 6.322434e-01 8.124820e-01 9.522087e-01 6.429992e-01 6.106148e-01 5.085063e-01 8.232000e-01 2.179356e-04
<GCONST> 1.106906e+02
<STATE> 8
<MEAN> 39
 9.411260e-08 -4.109583e-07 -3.764504e-08 -1.882252e-07 -3.576279e-07 1.003868e-07 5.678127e-07 -1.003868e-07 -1.129351e-07 -4.391921e-08 -1.756768e-07 -4.893855e-07 7.161057e-01 2.057700e-01 -1.284384e-02 1.203064e-01 1.300663e-03 -1.686437e-01 -1.376974e-01 -5.066169e-02 -6.030763e-02 -6.864671e-02 -9.533501e-02 6.022976e-03 2.099594e-02 4.464248e-04 -7.897875e-03 -1.128733e-02 3.569263e-03 -2.441780e-02 -1.013863e-02 1.776347e-02 -3.902104e-03 8.837385e-04 3.512201e-02 1.704595e-02 2.352231e-02 -3.836223e-03 -5.345214e-04
<VARIANCE> 39
 4.877599e+01 1.135801e+02 2.860507e+01 6.169130e+01 6.254776e+01 3.343155e+01 4.766888e+01 4.075046e+01 4.427325e+01 4.428340e+01 3.792202e+01 4.216348e+01 3.567929e-02 4.121501e+00 3.167457e+00 2.520568e+00 5.116644e+00 3.754997e+00 3.627797e+00 3.846002e+00 4.489825e+00 3.843996e+00 3.846915e+00 2.868412e+00 3.761178e+00 2.107610e-03 6.890416e-01 3.833406e-01 4.346973e-01 9.264056e-01 7.961721e-01 6.322434e-01 8.124820e-01 9.522087e-01 6.429992e-01 6.106148e-01 5.085063e-01 8.232000e-01 2.179356e-04
<GCONST> 1.106906e+02
<STATE> 9
<MEAN> 39
 9.411260e-08 -4.109583e-07 -3.764504e-08 -1.882252e-07 -3.576279e-07 1.003868e-07 5.678127e-07 -1.003868e-07 -1.129351e-07 -4.391921e-08 -1.756768e-07 -4.893855e-07 7.161057e-01 2.057700e-01 -1.284384e-02 1.203064e-01 1.300663e-03 -1.686437e-01 -1.376974e-01 -5.066169e-02 -6.030763e-02 -6.864671e-02 -9.533501e-02 6.022976e-03 2.099594e-02 4.464248e-04 -7.897875e-03 -1.128733e-02 3.569263e-03 -2.441780e-02 -1.013863e-02 1.776347e-02 -3.902104e-03 8.837385e-04 3.512201e-02 1.704595e-02 2.352231e-02 -3.836223e-03 -5.345214e-04
<VARIANCE> 39
 4.877599e+01 1.135801e+02 2.860507e+01 6.169130e+01 6.254776e+01 3.343155e+01 4.766888e+01 4.075046e+01 4.427325e+01 4.428340e+01 3.792202e+01 4.216348e+01 3.567929e-02 4.121501e+00 3.167457e+00 2.520568e+00 5.116644e+00 3.754997e+00 3.627797e+00 3.846002e+00 4.489825e+00 3.843996e+00 3.846915e+00 2.868412e+00 3.761178e+00 2.107610e-03 6.890416e-01 3.833406e-01 4.346973e-01 9.264056e-01 7.961721e-01 6.322434e-01 8.124820e-01 9.522087e-01 6.429992e-01 6.106148e-01 5.085063e-01 8.232000e-01 2.179356e-04
<GCONST> 1.106906e+02
<TRANSP> 10
 0.000000e+00 1.000000e+00 0.000000e+00 0.000000e+00 0.000000e+00 0.000000e+00 0.000000e+00 0.000000e+00 0.000000e+00 0.000000e+00
 0.000000e+00 9.000000e-01 9.999999e-02 0.000000e+00 0.000000e+00 0.000000e+00 0.000000e+00 0.000000e+00 0.000000e+00 0.000000e+00
 0.000000e+00 0.000000e+00 9.000000e-01 9.999999e-02 0.000000e+00 0.000000e+00 0.000000e+00 0.000000e+00 0.000000e+00 0.000000e+00
 0.000000e+00 0.000000e+00 0.000000e+00 9.000000e-01 9.999999e-02 0.000000e+00 0.000000e+00 0.000000e+00 0.000000e+00 0.000000e+00
 0.000000e+00 0.000000e+00 0.000000e+00 0.000000e+00 9.000000e-01 9.999999e-02 0.000000e+00 0.000000e+00 0.000000e+00 0.000000e+00
 0.000000e+00 0.000000e+00 0.000000e+00 0.000000e+00 0.000000e+00 9.000000e-01 9.999999e-02 0.000000e+00 0.000000e+00 0.000000e+00
 0.000000e+00 0.000000e+00 0.000000e+00 0.000000e+00 0.000000e+00 0.000000e+00 9.000000e-01 9.999999e-02 0.000000e+00 0.000000e+00
 0.000000e+00 0.000000e+00 0.000000e+00 0.000000e+00 0.000000e+00 0.000000e+00 0.000000e+00 9.000000e-01 9.999999e-02 0.000000e+00
 0.000000e+00 0.000000e+00 0.000000e+00 0.000000e+00 0.000000e+00 0.000000e+00 0.000000e+00 0.000000e+00 9.000000e-01 9.999999e-02
 0.000000e+00 0.000000e+00 0.000000e+00 0.000000e+00 0.000000e+00 0.000000e+00 0.000000e+00 0.000000e+00 0.000000e+00 0.000000e+00
<ENDHMM>
