~o
<STREAMINFO> 1 39
<VECSIZE> 39<NULLD><MFCC_E_D_A_Z><DIAGC>
~h "s019"
<BEGINHMM>
<NUMSTATES> 10
<STATE> 2
<MEAN> 39
 3.814697e-07 1.907349e-07 -9.169946e-09 7.042518e-07 -7.702754e-08 4.401574e-07 1.467191e-08 -2.200787e-07 0.000000e+00 -1.173753e-07 2.200787e-08 -2.274146e-07 7.860717e-01 1.579268e-01 -2.488212e-01 -1.478260e-01 3.840640e-01 1.558494e-01 3.520694e-01 2.795926e-01 -3.544027e-01 3.753255e-01 2.877788e-01 1.497903e-02 6.165064e-03 -4.430243e-03 -6.557941e-04 -3.937257e-02 1.340201e-02 -2.958224e-02 2.642142e-02 1.354961e-03 -1.067751e-02 -7.503098e-03 3.115468e-02 1.936563e-02 3.727043e-02 -4.383675e-03 -5.292732e-04
<VARIANCE> 39
 4.318252e+01 9.554701e+01 4.748835e+01 5.804120e+01 4.799851e+01 1.112823e+02 3.978215e+01 5.043343e+01 6.819508e+01 3.769164e+01 2.868847e+01 5.320824e+01 2.871701e-02 2.529701e+00 2.980045e+00 4.108914e+00 3.447963e+00 3.833490e+00 6.799995e+00 3.699824e+00 4.667164e+00 4.025306e+00 4.662616e+00 3.624286e+00 4.819199e+00 1.747902e-03 3.228618e-01 3.437264e-01 5.473276e-01 6.021928e-01 6.632224e-01 7.345890e-01 7.685006e-01 7.767757e-01 5.558065e-01 9.650771e-01 6.498287e-01 9.478287e-01 2.728570e-04
<GCONST> 1.121097e+02
<STATE> 3
<MEAN> 39
 3.814697e-07 1.907349e-07 -9.169946e-09 7.042518e-07 -7.702754e-08 4.401574e-07 1.467191e-08 -2.200787e-07 0.000000e+00 -1.173753e-07 2.200787e-08 -2.274146e-07 7.860717e-01 1.579268e-01 -2.488212e-01 -1.478260e-01 3.840640e-01 1.558494e-01 3.520694e-01 2.795926e-01 -3.544027e-01 3.753255e-01 2.877788e-01 1.497903e-02 6.165064e-03 -4.430243e-03 -6.557941e-04 -3.937257e-02 1.340201e-02 -2.958224e-02 2.642142e-02 1.354961e-03 -1.067751e-02 -7.503098e-03 3.115468e-02 1.936563e-02 3.727043e-02 -4.383675e-03 -5.292732e-04
<VARIANCE> 39
 4.318252e+01 9.554701e+01 4.748835e+01 5.804120e+01 4.799851e+01 1.112823e+02 3.978215e+01 5.043343e+01 6.819508e+01 3.769164e+01 2.868847e+01 5.320824e+01 2.871701e-02 2.529701e+00 2.980045e+00 4.108914e+00 3.447963e+00 3.833490e+00 6.799995e+00 3.699824e+00 4.667164e+00 4.025306e+00 4.662616e+00 3.624286e+00 4.819199e+00 1.747902e-03 3.228618e-01 3.437264e-01 5.473276e-01 6.021928e-01 6.632224e-01 7.345890e-01 7.685006e-01 7.767757e-01 5.558065e-01 9.650771e-01 6.498287e-01 9.478287e-01 2.728570e-04
<GCONST> 1.121097e+02
<STATE> 4
<MEAN> 39
 3.814697e-07 1.907349e-07 -9.169946e-09 7.042518e-07 -7.702754e-08 4.401574e-07 1.467191e-08 -2.200787e-07 0.000000e+00 -1.173753e-07 2.200787e-08 -2.274146e-07 7.860717e-01 1.579268e-01 -2.488212e-01 -1.478260e-01 3.840640e-01 1.558494e-01 3.520694e-01 2.795926e-01 -3.544027e-01 3.753255e-01 2.877788e-01 1.497903e-02 6.165064e-03 -4.430243e-03 -6.557941e-04 -3.937257e-02 1.340201e-02 -2.958224e-02 2.642142e-02 1.354961e-03 -1.067751e-02 -7.503098e-03 3.115468e-02 1.936563e-02 3.727043e-02 -4.383675e-03 -5.292732e-04
<VARIANCE> 39
 4.318252e+01 9.554701e+01 4.748835e+01 5.804120e+01 4.799851e+01 1.112823e+02 3.978215e+01 5.043343e+01 6.819508e+01 3.769164e+01 2.868847e+01 5.320824e+01 2.871701e-02 2.529701e+00 2.980045e+00 4.108914e+00 3.447963e+00 3.833490e+00 6.799995e+00 3.699824e+00 4.667164e+00 4.025306e+00 4.662616e+00 3.624286e+00 4.819199e+00 1.747902e-03 3.228618e-01 3.437264e-01 5.473276e-01 6.021928e-01 6.632224e-01 7.345890e-01 7.685006e-01 7.767757e-01 5.558065e-01 9.650771e-01 6.498287e-01 9.478287e-01 2.728570e-04
<GCONST> 1.121097e+02
<STATE> 5
<MEAN> 39
 3.814697e-07 1.907349e-07 -9.169946e-09 7.042518e-07 -7.702754e-08 4.401574e-07 1.467191e-08 -2.200787e-07 0.000000e+00 -1.173753e-07 2.200787e-08 -2.274146e-07 7.860717e-01 1.579268e-01 -2.488212e-01 -1.478260e-01 3.840640e-01 1.558494e-01 3.520694e-01 2.795926e-01 -3.544027e-01 3.753255e-01 2.877788e-01 1.497903e-02 6.165064e-03 -4.430243e-03 -6.557941e-04 -3.937257e-02 1.340201e-02 -2.958224e-02 2.642142e-02 1.354961e-03 -1.067751e-02 -7.503098e-03 3.115468e-02 1.936563e-02 3.727043e-02 -4.383675e-03 -5.292732e-04
<VARIANCE> 39
 4.318252e+01 9.554701e+01 4.748835e+01 5.804120e+01 4.799851e+01 1.112823e+02 3.978215e+01 5.043343e+01 6.819508e+01 3.769164e+01 2.868847e+01 5.320824e+01 2.871701e-02 2.529701e+00 2.980045e+00 4.108914e+00 3.447963e+00 3.833490e+00 6.799995e+00 3.699824e+00 4.667164e+00 4.025306e+00 4.662616e+00 3.624286e+00 4.819199e+00 1.747902e-03 3.228618e-01 3.437264e-01 5.473276e-01 6.021928e-01 6.632224e-01 7.345890e-01 7.685006e-01 7.767757e-01 5.558065e-01 9.650771e-01 6.498287e-01 9.478287e-01 2.728570e-04
<GCONST> 1.121097e+02
<STATE> 6
<MEAN> 39
 3.814697e-07 1.907349e-07 -9.169946e-09 7.042518e-07 -7.702754e-08 4.401574e-07 1.467191e-08 -2.200787e-07 0.000000e+00 -1.173753e-07 2.200787e-08 -2.274146e-07 7.860717e-01 1.579268e-01 -2.488212e-01 -1.478260e-01 3.840640e-01 1.558494e-01 3.520694e-01 2.795926e-01 -3.544027e-01 3.753255e-01 2.877788e-01 1.497903e-02 6.165064e-03 -4.430243e-03 -6.557941e-04 -3.937257e-02 1.340201e-02 -2.958224e-02 2.642142e-02 1.354961e-03 -1.067751e-02 -7.503098e-03 3.115468e-02 1.936563e-02 3.727043e-02 -4.383675e-03 -5.292732e-04
<VARIANCE> 39
 4.318252e+01 9.554701e+01 4.748835e+01 5.804120e+01 4.799851e+01 1.112823e+02 3.978215e+01 5.043343e+01 6.819508e+01 3.769164e+01 2.868847e+01 5.320824e+01 2.871701e-02 2.529701e+00 2.980045e+00 4.108914e+00 3.447963e+00 3.833490e+00 6.799995e+00 3.699824e+00 4.667164e+00 4.025306e+00 4.662616e+00 3.624286e+00 4.819199e+00 1.747902e-03 3.228618e-01 3.437264e-01 5.473276e-01 6.021928e-01 6.632224e-01 7.345890e-01 7.685006e-01 7.767757e-01 5.558065e-01 9.650771e-01 6.498287e-01 9.478287e-01 2.728570e-04
<GCONST> 1.121097e+02
<STATE> 7
<MEAN> 39
 3.814697e-07 1.907349e-07 -9.169946e-09 7.042518e-07 -7.702754e-08 4.401574e-07 1.467191e-08 -2.200787e-07 0.000000e+00 -1.173753e-07 2.200787e-08 -2.274146e-07 7.860717e-01 1.579268e-01 -2.488212e-01 -1.478260e-01 3.840640e-01 1.558494e-01 3.520694e-01 2.795926e-01 -3.544027e-01 3.753255e-01 2.877788e-01 1.497903e-02 6.165064e-03 -4.430243e-03 -6.557941e-04 -3.937257e-02 1.340201e-02 -2.958224e-02 2.642142e-02 1.354961e-03 -1.067751e-02 -7.503098e-03 3.115468e-02 1.936563e-02 3.727043e-02 -4.383675e-03 -5.292732e-04
<VARIANCE> 39
 4.318252e+01 9.554701e+01 4.748835e+01 5.804120e+01 4.799851e+01 1.112823e+02 3.978215e+01 5.043343e+01 6.819508e+01 3.769164e+01 2.868847e+01 5.320824e+01 2.871701e-02 2.529701e+00 2.980045e+00 4.108914e+00 3.447963e+00 3.833490e+00 6.799995e+00 3.699824e+00 4.667164e+00 4.025306e+00 4.662616e+00 3.624286e+00 4.819199e+00 1.747902e-03 3.228618e-01 3.437264e-01 5.473276e-01 6.021928e-01 6.632224e-01 7.345890e-01 7.685006e-01 7.767757e-01 5.558065e-01 9.650771e-01 6.498287e-01 9.478287e-01 2.728570e-04
<GCONST> 1.121097e+02
<STATE> 8
<MEAN> 39
 3.814697e-07 1.907349e-07 -9.169946e-09 7.042518e-07 -7.702754e-08 4.401574e-07 1.467191e-08 -2.200787e-07 0.000000e+00 -1.173753e-07 2.200787e-08 -2.274146e-07 7.860717e-01 1.579268e-01 -2.488212e-01 -1.478260e-01 3.840640e-01 1.558494e-01 3.520694e-01 2.795926e-01 -3.544027e-01 3.753255e-01 2.877788e-01 1.497903e-02 6.165064e-03 -4.430243e-03 -6.557941e-04 -3.937257e-02 1.340201e-02 -2.958224e-02 2.642142e-02 1.354961e-03 -1.067751e-02 -7.503098e-03 3.115468e-02 1.936563e-02 3.727043e-02 -4.383675e-03 -5.292732e-04
<VARIANCE> 39
 4.318252e+01 9.554701e+01 4.748835e+01 5.804120e+01 4.799851e+01 1.112823e+02 3.978215e+01 5.043343e+01 6.819508e+01 3.769164e+01 2.868847e+01 5.320824e+01 2.871701e-02 2.529701e+00 2.980045e+00 4.108914e+00 3.447963e+00 3.833490e+00 6.799995e+00 3.699824e+00 4.667164e+00 4.025306e+00 4.662616e+00 3.624286e+00 4.819199e+00 1.747902e-03 3.228618e-01 3.437264e-01 5.473276e-01 6.021928e-01 6.632224e-01 7.345890e-01 7.685006e-01 7.767757e-01 5.558065e-01 9.650771e-01 6.498287e-01 9.478287e-01 2.728570e-04
<GCONST> 1.121097e+02
<STATE> 9
<MEAN> 39
 3.814697e-07 1.907349e-07 -9.169946e-09 7.042518e-07 -7.702754e-08 4.401574e-07 1.467191e-08 -2.200787e-07 0.000000e+00 -1.173753e-07 2.200787e-08 -2.274146e-07 7.860717e-01 1.579268e-01 -2.488212e-01 -1.478260e-01 3.840640e-01 1.558494e-01 3.520694e-01 2.795926e-01 -3.544027e-01 3.753255e-01 2.877788e-01 1.497903e-02 6.165064e-03 -4.430243e-03 -6.557941e-04 -3.937257e-02 1.340201e-02 -2.958224e-02 2.642142e-02 1.354961e-03 -1.067751e-02 -7.503098e-03 3.115468e-02 1.936563e-02 3.727043e-02 -4.383675e-03 -5.292732e-04
<VARIANCE> 39
 4.318252e+01 9.554701e+01 4.748835e+01 5.804120e+01 4.799851e+01 1.112823e+02 3.978215e+01 5.043343e+01 6.819508e+01 3.769164e+01 2.868847e+01 5.320824e+01 2.871701e-02 2.529701e+00 2.980045e+00 4.108914e+00 3.447963e+00 3.833490e+00 6.799995e+00 3.699824e+00 4.667164e+00 4.025306e+00 4.662616e+00 3.624286e+00 4.819199e+00 1.747902e-03 3.228618e-01 3.437264e-01 5.473276e-01 6.021928e-01 6.632224e-01 7.345890e-01 7.685006e-01 7.767757e-01 5.558065e-01 9.650771e-01 6.498287e-01 9.478287e-01 2.728570e-04
<GCONST> 1.121097e+02
<TRANSP> 10
 0.000000e+00 1.000000e+00 0.000000e+00 0.000000e+00 0.000000e+00 0.000000e+00 0.000000e+00 0.000000e+00 0.000000e+00 0.000000e+00
 0.000000e+00 9.000000e-01 9.999999e-02 0.000000e+00 0.000000e+00 0.000000e+00 0.000000e+00 0.000000e+00 0.000000e+00 0.000000e+00
 0.000000e+00 0.000000e+00 9.000000e-01 9.999999e-02 0.000000e+00 0.000000e+00 0.000000e+00 0.000000e+00 0.000000e+00 0.000000e+00
 0.000000e+00 0.000000e+00 0.000000e+00 9.000000e-01 9.999999e-02 0.000000e+00 0.000000e+00 0.000000e+00 0.000000e+00 0.000000e+00
 0.000000e+00 0.000000e+00 0.000000e+00 0.000000e+00 9.000000e-01 9.999999e-02 0.000000e+00 0.000000e+00 0.000000e+00 0.000000e+00
 0.000000e+00 0.000000e+00 0.000000e+00 0.000000e+00 0.000000e+00 9.000000e-01 9.999999e-02 0.000000e+00 0.000000e+00 0.000000e+00
 0.000000e+00 0.000000e+00 0.000000e+00 0.000000e+00 0.000000e+00 0.000000e+00 9.000000e-01 9.999999e-02 0.000000e+00 0.000000e+00
 0.000000e+00 0.000000e+00 0.000000e+00 0.000000e+00 0.000000e+00 0.000000e+00 0.000000e+00 9.000000e-01 9.999999e-02 0.000000e+00
 0.000000e+00 0.000000e+00 0.000000e+00 0.000000e+00 0.000000e+00 0.000000e+00 0.000000e+00 0.000000e+00 9.000000e-01 9.999999e-02
 0.000000e+00 0.000000e+00 0.000000e+00 0.000000e+00 0.000000e+00 0.000000e+00 0.000000e+00 0.000000e+00 0.000000e+00 0.000000e+00
<ENDHMM>
