~o
<STREAMINFO> 1 39
<VECSIZE> 39<NULLD><MFCC_E_D_A_Z><DIAGC>
~h "s020"
<BEGINHMM>
<NUMSTATES> 10
<STATE> 2
<MEAN> 39
 -1.560558e-07 7.369302e-08 1.105395e-07 -3.294511e-07 -1.473860e-07 6.935813e-08 -2.861023e-07 -5.028464e-07 -2.600930e-07 1.994046e-07 2.080744e-07 7.802790e-08 7.369966e-01 -1.044067e-01 -8.385260e-03 3.168650e-02 8.168784e-02 1.168301e-01 4.315208e-01 2.853680e-01 -1.394515e-01 3.169628e-02 1.670617e-01 1.710056e-01 6.909735e-02 -6.500048e-03 -1.814187e-02 7.595986e-04 8.184972e-04 5.521966e-03 -5.186419e-02 3.755475e-02 -4.865045e-02 -2.461271e-03 3.437584e-02 2.305946e-02 2.946143e-02 6.431509e-02 -1.645066e-03
<VARIANCE> 39
 5.277057e+01 2.665810e+01 1.697988e+01 4.744409e+01 2.912406e+01 6.084314e+01 3.998343e+01 1.253470e+02 3.328958e+01 3.290085e+01 3.070194e+01 4.644514e+01 3.049779e-02 2.843526e+00 1.756449e+00 1.648461e+00 2.249238e+00 2.694747e+00 4.221402e+00 3.890594e+00 4.641600e+00 2.800882e+00 4.853580e+00 2.831284e+00 3.966800e+00 1.158623e-03 3.658053e-01 1.904553e-01 2.911433e-01 2.706891e-01 5.377717e-01 8.246732e-01 6.030509e-01 7.085218e-01 5.243351e-01 9.053381e-01 5.648610e-01 7.774029e-01 9.035509e-05
<GCONST> 1.011522e+02
<STATE> 3
<MEAN> 39
 -1.560558e-07 7.369302e-08 1.105395e-07 -3.294511e-07 -1.473860e-07 6.935813e-08 -2.861023e-07 -5.028464e-07 -2.600930e-07 1.994046e-07 2.080744e-07 7.802790e-08 7.369966e-01 -1.044067e-01 -8.385260e-03 3.168650e-02 8.168784e-02 1.168301e-01 4.315208e-01 2.853680e-01 -1.394515e-01 3.169628e-02 1.670617e-01 1.710056e-01 6.909735e-02 -6.500048e-03 -1.814187e-02 7.595986e-04 8.184972e-04 5.521966e-03 -5.186419e-02 3.755475e-02 -4.865045e-02 -2.461271e-03 3.437584e-02 2.305946e-02 2.946143e-02 6.431509e-02 -1.645066e-03
<VARIANCE> 39
 5.277057e+01 2.665810e+01 1.697988e+01 4.744409e+01 2.912406e+01 6.084314e+01 3.998343e+01 1.253470e+02 3.328958e+01 3.290085e+01 3.070194e+01 4.644514e+01 3.049779e-02 2.843526e+00 1.756449e+00 1.648461e+00 2.249238e+00 2.694747e+00 4.221402e+00 3.890594e+00 4.641600e+00 2.800882e+00 4.853580e+00 2.831284e+00 3.966800e+00 1.158623e-03 3.658053e-01 1.904553e-01 2.911433e-01 2.706891e-01 5.377717e-01 8.246732e-01 6.030509e-01 7.085218e-01 5.243351e-01 9.053381e-01 5.648610e-01 7.774029e-01 9.035509e-05
<GCONST> 1.011522e+02
<STATE> 4
<MEAN> 39
 -1.560558e-07 7.369302e-08 1.105395e-07 -3.294511e-07 -1.473860e-07 6.935813e-08 -2.861023e-07 -5.028464e-07 -2.600930e-07 1.994046e-07 2.080744e-07 7.802790e-08 7.369966e-01 -1.044067e-01 -8.385260e-03 3.168650e-02 8.168784e-02 1.168301e-01 4.315208e-01 2.853680e-01 -1.394515e-01 3.169628e-02 1.670617e-01 1.710056e-01 6.909735e-02 -6.500048e-03 -1.814187e-02 7.595986e-04 8.184972e-04 5.521966e-03 -5.186419e-02 3.755475e-02 -4.865045e-02 -2.461271e-03 3.437584e-02 2.305946e-02 2.946143e-02 6.431509e-02 -1.645066e-03
<VARIANCE> 39
 5.277057e+01 2.665810e+01 1.697988e+01 4.744409e+01 2.912406e+01 6.084314e+01 3.998343e+01 1.253470e+02 3.328958e+01 3.290085e+01 3.070194e+01 4.644514e+01 3.049779e-02 2.843526e+00 1.756449e+00 1.648461e+00 2.249238e+00 2.694747e+00 4.221402e+00 3.890594e+00 4.641600e+00 2.800882e+00 4.853580e+00 2.831284e+00 3.966800e+00 1.158623e-03 3.658053e-01 1.904553e-01 2.911433e-01 2.706891e-01 5.377717e-01 8.246732e-01 6.030509e-01 7.085218e-01 5.243351e-01 9.053381e-01 5.648610e-01 7.774029e-01 9.035509e-05
<GCONST> 1.011522e+02
<STATE> 5
<MEAN> 39
 -1.560558e-07 7.369302e-08 1.105395e-07 -3.294511e-07 -1.473860e-07 6.935813e-08 -2.861023e-07 -5.028464e-07 -2.600930e-07 1.994046e-07 2.080744e-07 7.802790e-08 7.369966e-01 -1.044067e-01 -8.385260e-03 3.168650e-02 8.168784e-02 1.168301e-01 4.315208e-01 2.853680e-01 -1.394515e-01 3.169628e-02 1.670617e-01 1.710056e-01 6.909735e-02 -6.500048e-03 -1.814187e-02 7.595986e-04 8.184972e-04 5.521966e-03 -5.186419e-02 3.755475e-02 -4.865045e-02 -2.461271e-03 3.437584e-02 2.305946e-02 2.946143e-02 6.431509e-02 -1.645066e-03
<VARIANCE> 39
 5.277057e+01 2.665810e+01 1.697988e+01 4.744409e+01 2.912406e+01 6.084314e+01 3.998343e+01 1.253470e+02 3.328958e+01 3.290085e+01 3.070194e+01 4.644514e+01 3.049779e-02 2.843526e+00 1.756449e+00 1.648461e+00 2.249238e+00 2.694747e+00 4.221402e+00 3.890594e+00 4.641600e+00 2.800882e+00 4.853580e+00 2.831284e+00 3.966800e+00 1.158623e-03 3.658053e-01 1.904553e-01 2.911433e-01 2.706891e-01 5.377717e-01 8.246732e-01 6.030509e-01 7.085218e-01 5.243351e-01 9.053381e-01 5.648610e-01 7.774029e-01 9.035509e-05
<GCONST> 1.011522e+02
<STATE> 6
<MEAN> 39
 -1.560558e-07 7.369302e-08 1.105395e-07 -3.294511e-07 -1.473860e-07 6.935813e-08 -2.861023e-07 -5.028464e-07 -2.600930e-07 1.994046e-07 2.080744e-07 7.802790e-08 7.369966e-01 -1.044067e-01 -8.385260e-03 3.168650e-02 8.168784e-02 1.168301e-01 4.315208e-01 2.853680e-01 -1.394515e-01 3.169628e-02 1.670617e-01 1.710056e-01 6.909735e-02 -6.500048e-03 -1.814187e-02 7.595986e-04 8.184972e-04 5.521966e-03 -5.186419e-02 3.755475e-02 -4.865045e-02 -2.461271e-03 3.437584e-02 2.305946e-02 2.946143e-02 6.431509e-02 -1.645066e-03
<VARIANCE> 39
 5.277057e+01 2.665810e+01 1.697988e+01 4.744409e+01 2.912406e+01 6.084314e+01 3.998343e+01 1.253470e+02 3.328958e+01 3.290085e+01 3.070194e+01 4.644514e+01 3.049779e-02 2.843526e+00 1.756449e+00 1.648461e+00 2.249238e+00 2.694747e+00 4.221402e+00 3.890594e+00 4.641600e+00 2.800882e+00 4.853580e+00 2.831284e+00 3.966800e+00 1.158623e-03 3.658053e-01 1.904553e-01 2.911433e-01 2.706891e-01 5.377717e-01 8.246732e-01 6.030509e-01 7.085218e-01 5.243351e-01 9.053381e-01 5.648610e-01 7.774029e-01 9.035509e-05
<GCONST> 1.011522e+02
<STATE> 7
<MEAN> 39
 -1.560558e-07 7.369302e-08 1.105395e-07 -3.294511e-07 -1.473860e-07 6.935813e-08 -2.861023e-07 -5.028464e-07 -2.600930e-07 1.994046e-07 2.080744e-07 7.802790e-08 7.369966e-01 -1.044067e-01 -8.385260e-03 3.168650e-02 8.168784e-02 1.168301e-01 4.315208e-01 2.853680e-01 -1.394515e-01 3.169628e-02 1.670617e-01 1.710056e-01 6.909735e-02 -6.500048e-03 -1.814187e-02 7.595986e-04 8.184972e-04 5.521966e-03 -5.186419e-02 3.755475e-02 -4.865045e-02 -2.461271e-03 3.437584e-02 2.305946e-02 2.946143e-02 6.431509e-02 -1.645066e-03
<VARIANCE> 39
 5.277057e+01 2.665810e+01 1.697988e+01 4.744409e+01 2.912406e+01 6.084314e+01 3.998343e+01 1.253470e+02 3.328958e+01 3.290085e+01 3.070194e+01 4.644514e+01 3.049779e-02 2.843526e+00 1.756449e+00 1.648461e+00 2.249238e+00 2.694747e+00 4.221402e+00 3.890594e+00 4.641600e+00 2.800882e+00 4.853580e+00 2.831284e+00 3.966800e+00 1.158623e-03 3.658053e-01 1.904553e-01 2.911433e-01 2.706891e-01 5.377717e-01 8.246732e-01 6.030509e-01 7.085218e-01 5.243351e-01 9.053381e-01 5.648610e-01 7.774029e-01 9.035509e-05
<GCONST> 1.011522e+02
<STATE> 8
<MEAN> 39
 -1.560558e-07 7.369302e-08 1.105395e-07 -3.294511e-07 -1.473860e-07 6.935813e-08 -2.861023e-07 -5.028464e-07 -2.600930e-07 1.994046e-07 2.080744e-07 7.802790e-08 7.369966e-01 -1.044067e-01 -8.385260e-03 3.168650e-02 8.168784e-02 1.168301e-01 4.315208e-01 2.853680e-01 -1.394515e-01 3.169628e-02 1.670617e-01 1.710056e-01 6.909735e-02 -6.500048e-03 -1.814187e-02 7.595986e-04 8.184972e-04 5.521966e-03 -5.186419e-02 3.755475e-02 -4.865045e-02 -2.461271e-03 3.437584e-02 2.305946e-02 2.946143e-02 6.431509e-02 -1.645066e-03
<VARIANCE> 39
 5.277057e+01 2.665810e+01 1.697988e+01 4.744409e+01 2.912406e+01 6.084314e+01 3.998343e+01 1.253470e+02 3.328958e+01 3.290085e+01 3.070194e+01 4.644514e+01 3.049779e-02 2.843526e+00 1.756449e+00 1.648461e+00 2.249238e+00 2.694747e+00 4.221402e+00 3.890594e+00 4.641600e+00 2.800882e+00 4.853580e+00 2.831284e+00 3.966800e+00 1.158623e-03 3.658053e-01 1.904553e-01 2.911433e-01 2.706891e-01 5.377717e-01 8.246732e-01 6.030509e-01 7.085218e-01 5.243351e-01 9.053381e-01 5.648610e-01 7.774029e-01 9.035509e-05
<GCONST> 1.011522e+02
<STATE> 9
<MEAN> 39
 -1.560558e-07 7.369302e-08 1.105395e-07 -3.294511e-07 -1.473860e-07 6.935813e-08 -2.861023e-07 -5.028464e-07 -2.600930e-07 1.994046e-07 2.080744e-07 7.802790e-08 7.369966e-01 -1.044067e-01 -8.385260e-03 3.168650e-02 8.168784e-02 1.168301e-01 4.315208e-01 2.853680e-01 -1.394515e-01 3.169628e-02 1.670617e-01 1.710056e-01 6.909735e-02 -6.500048e-03 -1.814187e-02 7.595986e-04 8.184972e-04 5.521966e-03 -5.186419e-02 3.755475e-02 -4.865045e-02 -2.461271e-03 3.437584e-02 2.305946e-02 2.946143e-02 6.431509e-02 -1.645066e-03
<VARIANCE> 39
 5.277057e+01 2.665810e+01 1.697988e+01 4.744409e+01 2.912406e+01 6.084314e+01 3.998343e+01 1.253470e+02 3.328958e+01 3.290085e+01 3.070194e+01 4.644514e+01 3.049779e-02 2.843526e+00 1.756449e+00 1.648461e+00 2.249238e+00 2.694747e+00 4.221402e+00 3.890594e+00 4.641600e+00 2.800882e+00 4.853580e+00 2.831284e+00 3.966800e+00 1.158623e-03 3.658053e-01 1.904553e-01 2.911433e-01 2.706891e-01 5.377717e-01 8.246732e-01 6.030509e-01 7.085218e-01 5.243351e-01 9.053381e-01 5.648610e-01 7.774029e-01 9.035509e-05
<GCONST> 1.011522e+02
<TRANSP> 10
 0.000000e+00 1.000000e+00 0.000000e+00 0.000000e+00 0.000000e+00 0.000000e+00 0.000000e+00 0.000000e+00 0.000000e+00 0.000000e+00
 0.000000e+00 9.000000e-01 9.999999e-02 0.000000e+00 0.000000e+00 0.000000e+00 0.000000e+00 0.000000e+00 0.000000e+00 0.000000e+00
 0.000000e+00 0.000000e+00 9.000000e-01 9.999999e-02 0.000000e+00 0.000000e+00 0.000000e+00 0.000000e+00 0.000000e+00 0.000000e+00
 0.000000e+00 0.000000e+00 0.000000e+00 9.000000e-01 9.999999e-02 0.000000e+00 0.000000e+00 0.000000e+00 0.000000e+00 0.000000e+00
 0.000000e+00 0.000000e+00 0.000000e+00 0.000000e+00 9.000000e-01 9.999999e-02 0.000000e+00 0.000000e+00 0.000000e+00 0.000000e+00
 0.000000e+00 0.000000e+00 0.000000e+00 0.000000e+00 0.000000e+00 9.000000e-01 9.999999e-02 0.000000e+00 0.000000e+00 0.000000e+00
 0.000000e+00 0.000000e+00 0.000000e+00 0.000000e+00 0.000000e+00 0.000000e+00 9.000000e-01 9.999999e-02 0.000000e+00 0.000000e+00
 0.000000e+00 0.000000e+00 0.000000e+00 0.000000e+00 0.000000e+00 0.000000e+00 0.000000e+00 9.000000e-01 9.999999e-02 0.000000e+00
 0.000000e+00 0.000000e+00 0.000000e+00 0.000000e+00 0.000000e+00 0.000000e+00 0.000000e+00 0.000000e+00 9.000000e-01 9.999999e-02
 0.000000e+00 0.000000e+00 0.000000e+00 0.000000e+00 0.000000e+00 0.000000e+00 0.000000e+00 0.000000e+00 0.000000e+00 0.000000e+00
<ENDHMM>
