~o
<STREAMINFO> 1 39
<VECSIZE> 39<NULLD><MFCC_E_D_A_Z><DIAGC>
~h "s021"
<BEGINHMM>
<NUMSTATES> 10
<STATE> 2
<MEAN> 39
 5.006790e-07 -4.768372e-08 -1.986821e-07 -5.245209e-07 -8.543332e-08 4.768372e-07 7.152558e-08 3.814697e-07 2.861023e-07 -1.668930e-07 -7.549922e-08 2.622604e-07 7.382891e-01 2.029316e-01 -9.095062e-02 -7.524749e-04 1.327782e-01 -2.402951e-01 1.239734e-01 -6.147089e-02 -3.443976e-01 3.190038e-02 4.018344e-03 -4.519280e-03 1.209527e-02 -1.418498e-03 2.626120e-02 -4.689137e-03 -7.285474e-03 1.822402e-02 7.784835e-03 6.128887e-02 -1.619642e-02 1.920349e-02 -4.279995e-02 1.580756e-03 2.241863e-02 9.953014e-04 -8.812590e-04
<VARIANCE> 39
 4.042551e+01 8.488621e+01 2.718580e+01 4.289237e+01 7.075891e+01 4.554002e+01 6.939534e+01 8.073302e+01 3.737821e+01 3.742609e+01 2.416021e+01 5.859620e+01 4.932700e-02 1.689961e+00 3.605031e+00 1.217488e+00 1.638870e+00 4.309148e+00 2.594216e+00 1.922507e+00 3.653935e+00 3.734892e+00 3.099623e+00 2.676625e+00 4.220298e+00 1.095926e-03 2.352046e-01 3.829057e-01 1.739529e-01 1.908249e-01 7.115138e-01 4.485144e-01 2.717308e-01 4.588646e-01 7.038590e-01 5.413366e-01 5.623835e-01 7.302601e-01 9.809799e-05
<GCONST> 9.987525e+01
<STATE> 3
<MEAN> 39
 5.006790e-07 -4.768372e-08 -1.986821e-07 -5.245209e-07 -8.543332e-08 4.768372e-07 7.152558e-08 3.814697e-07 2.861023e-07 -1.668930e-07 -7.549922e-08 2.622604e-07 7.382891e-01 2.029316e-01 -9.095062e-02 -7.524749e-04 1.327782e-01 -2.402951e-01 1.239734e-01 -6.147089e-02 -3.443976e-01 3.190038e-02 4.018344e-03 -4.519280e-03 1.209527e-02 -1.418498e-03 2.626120e-02 -4.689137e-03 -7.285474e-03 1.822402e-02 7.784835e-03 6.128887e-02 -1.619642e-02 1.920349e-02 -4.279995e-02 1.580756e-03 2.241863e-02 9.953014e-04 -8.812590e-04
<VARIANCE> 39
 4.042551e+01 8.488621e+01 2.718580e+01 4.289237e+01 7.075891e+01 4.554002e+01 6.939534e+01 8.073302e+01 3.737821e+01 3.742609e+01 2.416021e+01 5.859620e+01 4.932700e-02 1.689961e+00 3.605031e+00 1.217488e+00 1.638870e+00 4.309148e+00 2.594216e+00 1.922507e+00 3.653935e+00 3.734892e+00 3.099623e+00 2.676625e+00 4.220298e+00 1.095926e-03 2.352046e-01 3.829057e-01 1.739529e-01 1.908249e-01 7.115138e-01 4.485144e-01 2.717308e-01 4.588646e-01 7.038590e-01 5.413366e-01 5.623835e-01 7.302601e-01 9.809799e-05
<GCONST> 9.987525e+01
<STATE> 4
<MEAN> 39
 5.006790e-07 -4.768372e-08 -1.986821e-07 -5.245209e-07 -8.543332e-08 4.768372e-07 7.152558e-08 3.814697e-07 2.861023e-07 -1.668930e-07 -7.549922e-08 2.622604e-07 7.382891e-01 2.029316e-01 -9.095062e-02 -7.524749e-04 1.327782e-01 -2.402951e-01 1.239734e-01 -6.147089e-02 -3.443976e-01 3.190038e-02 4.018344e-03 -4.519280e-03 1.209527e-02 -1.418498e-03 2.626120e-02 -4.689137e-03 -7.285474e-03 1.822402e-02 7.784835e-03 6.128887e-02 -1.619642e-02 1.920349e-02 -4.279995e-02 1.580756e-03 2.241863e-02 9.953014e-04 -8.812590e-04
<VARIANCE> 39
 4.042551e+01 8.488621e+01 2.718580e+01 4.289237e+01 7.075891e+01 4.554002e+01 6.939534e+01 8.073302e+01 3.737821e+01 3.742609e+01 2.416021e+01 5.859620e+01 4.932700e-02 1.689961e+00 3.605031e+00 1.217488e+00 1.638870e+00 4.309148e+00 2.594216e+00 1.922507e+00 3.653935e+00 3.734892e+00 3.099623e+00 2.676625e+00 4.220298e+00 1.095926e-03 2.352046e-01 3.829057e-01 1.739529e-01 1.908249e-01 7.115138e-01 4.485144e-01 2.717308e-01 4.588646e-01 7.038590e-01 5.413366e-01 5.623835e-01 7.302601e-01 9.809799e-05
<GCONST> 9.987525e+01
<STATE> 5
<MEAN> 39
 5.006790e-07 -4.768372e-08 -1.986821e-07 -5.245209e-07 -8.543332e-08 4.768372e-07 7.152558e-08 3.814697e-07 2.861023e-07 -1.668930e-07 -7.549922e-08 2.622604e-07 7.382891e-01 2.029316e-01 -9.095062e-02 -7.524749e-04 1.327782e-01 -2.402951e-01 1.239734e-01 -6.147089e-02 -3.443976e-01 3.190038e-02 4.018344e-03 -4.519280e-03 1.209527e-02 -1.418498e-03 2.626120e-02 -4.689137e-03 -7.285474e-03 1.822402e-02 7.784835e-03 6.128887e-02 -1.619642e-02 1.920349e-02 -4.279995e-02 1.580756e-03 2.241863e-02 9.953014e-04 -8.812590e-04
<VARIANCE> 39
 4.042551e+01 8.488621e+01 2.718580e+01 4.289237e+01 7.075891e+01 4.554002e+01 6.939534e+01 8.073302e+01 3.737821e+01 3.742609e+01 2.416021e+01 5.859620e+01 4.932700e-02 1.689961e+00 3.605031e+00 1.217488e+00 1.638870e+00 4.309148e+00 2.594216e+00 1.922507e+00 3.653935e+00 3.734892e+00 3.099623e+00 2.676625e+00 4.220298e+00 1.095926e-03 2.352046e-01 3.829057e-01 1.739529e-01 1.908249e-01 7.115138e-01 4.485144e-01 2.717308e-01 4.588646e-01 7.038590e-01 5.413366e-01 5.623835e-01 7.302601e-01 9.809799e-05
<GCONST> 9.987525e+01
<STATE> 6
<MEAN> 39
 5.006790e-07 -4.768372e-08 -1.986821e-07 -5.245209e-07 -8.543332e-08 4.768372e-07 7.152558e-08 3.814697e-07 2.861023e-07 -1.668930e-07 -7.549922e-08 2.622604e-07 7.382891e-01 2.029316e-01 -9.095062e-02 -7.524749e-04 1.327782e-01 -2.402951e-01 1.239734e-01 -6.147089e-02 -3.443976e-01 3.190038e-02 4.018344e-03 -4.519280e-03 1.209527e-02 -1.418498e-03 2.626120e-02 -4.689137e-03 -7.285474e-03 1.822402e-02 7.784835e-03 6.128887e-02 -1.619642e-02 1.920349e-02 -4.279995e-02 1.580756e-03 2.241863e-02 9.953014e-04 -8.812590e-04
<VARIANCE> 39
 4.042551e+01 8.488621e+01 2.718580e+01 4.289237e+01 7.075891e+01 4.554002e+01 6.939534e+01 8.073302e+01 3.737821e+01 3.742609e+01 2.416021e+01 5.859620e+01 4.932700e-02 1.689961e+00 3.605031e+00 1.217488e+00 1.638870e+00 4.309148e+00 2.594216e+00 1.922507e+00 3.653935e+00 3.734892e+00 3.099623e+00 2.676625e+00 4.220298e+00 1.095926e-03 2.352046e-01 3.829057e-01 1.739529e-01 1.908249e-01 7.115138e-01 4.485144e-01 2.717308e-01 4.588646e-01 7.038590e-01 5.413366e-01 5.623835e-01 7.302601e-01 9.809799e-05
<GCONST> 9.987525e+01
<STATE> 7
<MEAN> 39
 5.006790e-07 -4.768372e-08 -1.986821e-07 -5.245209e-07 -8.543332e-08 4.768372e-07 7.152558e-08 3.814697e-07 2.861023e-07 -1.668930e-07 -7.549922e-08 2.622604e-07 7.382891e-01 2.029316e-01 -9.095062e-02 -7.524749e-04 1.327782e-01 -2.402951e-01 1.239734e-01 -6.147089e-02 -3.443976e-01 3.190038e-02 4.018344e-03 -4.519280e-03 1.209527e-02 -1.418498e-03 2.626120e-02 -4.689137e-03 -7.285474e-03 1.822402e-02 7.784835e-03 6.128887e-02 -1.619642e-02 1.920349e-02 -4.279995e-02 1.580756e-03 2.241863e-02 9.953014e-04 -8.812590e-04
<VARIANCE> 39
 4.042551e+01 8.488621e+01 2.718580e+01 4.289237e+01 7.075891e+01 4.554002e+01 6.939534e+01 8.073302e+01 3.737821e+01 3.742609e+01 2.416021e+01 5.859620e+01 4.932700e-02 1.689961e+00 3.605031e+00 1.217488e+00 1.638870e+00 4.309148e+00 2.594216e+00 1.922507e+00 3.653935e+00 3.734892e+00 3.099623e+00 2.676625e+00 4.220298e+00 1.095926e-03 2.352046e-01 3.829057e-01 1.739529e-01 1.908249e-01 7.115138e-01 4.485144e-01 2.717308e-01 4.588646e-01 7.038590e-01 5.413366e-01 5.623835e-01 7.302601e-01 9.809799e-05
<GCONST> 9.987525e+01
<STATE> 8
<MEAN> 39
 5.006790e-07 -4.768372e-08 -1.986821e-07 -5.245209e-07 -8.543332e-08 4.768372e-07 7.152558e-08 3.814697e-07 2.861023e-07 -1.668930e-07 -7.549922e-08 2.622604e-07 7.382891e-01 2.029316e-01 -9.095062e-02 -7.524749e-04 1.327782e-01 -2.402951e-01 1.239734e-01 -6.147089e-02 -3.443976e-01 3.190038e-02 4.018344e-03 -4.519280e-03 1.209527e-02 -1.418498e-03 2.626120e-02 -4.689137e-03 -7.285474e-03 1.822402e-02 7.784835e-03 6.128887e-02 -1.619642e-02 1.920349e-02 -4.279995e-02 1.580756e-03 2.241863e-02 9.953014e-04 -8.812590e-04
<VARIANCE> 39
 4.042551e+01 8.488621e+01 2.718580e+01 4.289237e+01 7.075891e+01 4.554002e+01 6.939534e+01 8.073302e+01 3.737821e+01 3.742609e+01 2.416021e+01 5.859620e+01 4.932700e-02 1.689961e+00 3.605031e+00 1.217488e+00 1.638870e+00 4.309148e+00 2.594216e+00 1.922507e+00 3.653935e+00 3.734892e+00 3.099623e+00 2.676625e+00 4.220298e+00 1.095926e-03 2.352046e-01 3.829057e-01 1.739529e-01 1.908249e-01 7.115138e-01 4.485144e-01 2.717308e-01 4.588646e-01 7.038590e-01 5.413366e-01 5.623835e-01 7.302601e-01 9.809799e-05
<GCONST> 9.987525e+01
<STATE> 9
<MEAN> 39
 5.006790e-07 -4.768372e-08 -1.986821e-07 -5.245209e-07 -8.543332e-08 4.768372e-07 7.152558e-08 3.814697e-07 2.861023e-07 -1.668930e-07 -7.549922e-08 2.622604e-07 7.382891e-01 2.029316e-01 -9.095062e-02 -7.524749e-04 1.327782e-01 -2.402951e-01 1.239734e-01 -6.147089e-02 -3.443976e-01 3.190038e-02 4.018344e-03 -4.519280e-03 1.209527e-02 -1.418498e-03 2.626120e-02 -4.689137e-03 -7.285474e-03 1.822402e-02 7.784835e-03 6.128887e-02 -1.619642e-02 1.920349e-02 -4.279995e-02 1.580756e-03 2.241863e-02 9.953014e-04 -8.812590e-04
<VARIANCE> 39
 4.042551e+01 8.488621e+01 2.718580e+01 4.289237e+01 7.075891e+01 4.554002e+01 6.939534e+01 8.073302e+01 3.737821e+01 3.742609e+01 2.416021e+01 5.859620e+01 4.932700e-02 1.689961e+00 3.605031e+00 1.217488e+00 1.638870e+00 4.309148e+00 2.594216e+00 1.922507e+00 3.653935e+00 3.734892e+00 3.099623e+00 2.676625e+00 4.220298e+00 1.095926e-03 2.352046e-01 3.829057e-01 1.739529e-01 1.908249e-01 7.115138e-01 4.485144e-01 2.717308e-01 4.588646e-01 7.038590e-01 5.413366e-01 5.623835e-01 7.302601e-01 9.809799e-05
<GCONST> 9.987525e+01
<TRANSP> 10
 0.000000e+00 1.000000e+00 0.000000e+00 0.000000e+00 0.000000e+00 0.000000e+00 0.000000e+00 0.000000e+00 0.000000e+00 0.000000e+00
 0.000000e+00 9.000000e-01 9.999999e-02 0.000000e+00 0.000000e+00 0.000000e+00 0.000000e+00 0.000000e+00 0.000000e+00 0.000000e+00
 0.000000e+00 0.000000e+00 9.000000e-01 9.999999e-02 0.000000e+00 0.000000e+00 0.000000e+00 0.000000e+00 0.000000e+00 0.000000e+00
 0.000000e+00 0.000000e+00 0.000000e+00 9.000000e-01 9.999999e-02 0.000000e+00 0.000000e+00 0.000000e+00 0.000000e+00 0.000000e+00
 0.000000e+00 0.000000e+00 0.000000e+00 0.000000e+00 9.000000e-01 9.999999e-02 0.000000e+00 0.000000e+00 0.000000e+00 0.000000e+00
 0.000000e+00 0.000000e+00 0.000000e+00 0.000000e+00 0.000000e+00 9.000000e-01 9.999999e-02 0.000000e+00 0.000000e+00 0.000000e+00
 0.000000e+00 0.000000e+00 0.000000e+00 0.000000e+00 0.000000e+00 0.000000e+00 9.000000e-01 9.999999e-02 0.000000e+00 0.000000e+00
 0.000000e+00 0.000000e+00 0.000000e+00 0.000000e+00 0.000000e+00 0.000000e+00 0.000000e+00 9.000000e-01 9.999999e-02 0.000000e+00
 0.000000e+00 0.000000e+00 0.000000e+00 0.000000e+00 0.000000e+00 0.000000e+00 0.000000e+00 0.000000e+00 9.000000e-01 9.999999e-02
 0.000000e+00 0.000000e+00 0.000000e+00 0.000000e+00 0.000000e+00 0.000000e+00 0.000000e+00 0.000000e+00 0.000000e+00 0.000000e+00
<ENDHMM>
