~o
<STREAMINFO> 1 39
<VECSIZE> 39<NULLD><MFCC_E_D_A_Z><DIAGC>
~h "s023"
<BEGINHMM>
<NUMSTATES> 10
<STATE> 2
<MEAN> 39
 -2.195961e-07 -1.079158e-06 1.003868e-07 3.388053e-07 3.889987e-07 -2.509669e-07 -3.513537e-07 4.768372e-07 -5.646756e-08 0.000000e+00 -1.254835e-07 5.646756e-08 7.920922e-01 1.355213e-02 2.923311e-01 1.567518e-01 -1.170514e-01 -1.042439e-01 -3.725881e-02 8.900224e-02 -9.312324e-02 -5.779573e-02 1.958223e-01 1.576790e-01 -6.191215e-02 -1.891295e-04 1.904386e-02 -8.560764e-03 7.431907e-03 -1.482220e-03 4.249100e-02 1.480682e-02 -1.839552e-02 -6.825920e-03 1.331226e-04 3.249481e-02 1.466737e-04 -2.329693e-02 1.059576e-04
<VARIANCE> 39
 1.659998e+01 1.062106e+02 2.265552e+01 5.095509e+01 2.876595e+01 6.644529e+01 4.015483e+01 8.235133e+01 7.890870e+01 3.182566e+01 3.555305e+01 3.851009e+01 2.614049e-02 1.300996e+00 2.058739e+00 2.579198e+00 3.180147e+00 3.107348e+00 3.556909e+00 4.111268e+00 4.601317e+00 7.364597e+00 3.261196e+00 2.850791e+00 4.110574e+00 1.845497e-03 1.825413e-01 2.732634e-01 4.708006e-01 5.218583e-01 5.413402e-01 5.710122e-01 8.089095e-01 6.801357e-01 1.312400e+00 6.395114e-01 5.981380e-01 9.290080e-01 2.791547e-04
<GCONST> 1.059264e+02
<STATE> 3
<MEAN> 39
 -2.195961e-07 -1.079158e-06 1.003868e-07 3.388053e-07 3.889987e-07 -2.509669e-07 -3.513537e-07 4.768372e-07 -5.646756e-08 0.000000e+00 -1.254835e-07 5.646756e-08 7.920922e-01 1.355213e-02 2.923311e-01 1.567518e-01 -1.170514e-01 -1.042439e-01 -3.725881e-02 8.900224e-02 -9.312324e-02 -5.779573e-02 1.958223e-01 1.576790e-01 -6.191215e-02 -1.891295e-04 1.904386e-02 -8.560764e-03 7.431907e-03 -1.482220e-03 4.249100e-02 1.480682e-02 -1.839552e-02 -6.825920e-03 1.331226e-04 3.249481e-02 1.466737e-04 -2.329693e-02 1.059576e-04
<VARIANCE> 39
 1.659998e+01 1.062106e+02 2.265552e+01 5.095509e+01 2.876595e+01 6.644529e+01 4.015483e+01 8.235133e+01 7.890870e+01 3.182566e+01 3.555305e+01 3.851009e+01 2.614049e-02 1.300996e+00 2.058739e+00 2.579198e+00 3.180147e+00 3.107348e+00 3.556909e+00 4.111268e+00 4.601317e+00 7.364597e+00 3.261196e+00 2.850791e+00 4.110574e+00 1.845497e-03 1.825413e-01 2.732634e-01 4.708006e-01 5.218583e-01 5.413402e-01 5.710122e-01 8.089095e-01 6.801357e-01 1.312400e+00 6.395114e-01 5.981380e-01 9.290080e-01 2.791547e-04
<GCONST> 1.059264e+02
<STATE> 4
<MEAN> 39
 -2.195961e-07 -1.079158e-06 1.003868e-07 3.388053e-07 3.889987e-07 -2.509669e-07 -3.513537e-07 4.768372e-07 -5.646756e-08 0.000000e+00 -1.254835e-07 5.646756e-08 7.920922e-01 1.355213e-02 2.923311e-01 1.567518e-01 -1.170514e-01 -1.042439e-01 -3.725881e-02 8.900224e-02 -9.312324e-02 -5.779573e-02 1.958223e-01 1.576790e-01 -6.191215e-02 -1.891295e-04 1.904386e-02 -8.560764e-03 7.431907e-03 -1.482220e-03 4.249100e-02 1.480682e-02 -1.839552e-02 -6.825920e-03 1.331226e-04 3.249481e-02 1.466737e-04 -2.329693e-02 1.059576e-04
<VARIANCE> 39
 1.659998e+01 1.062106e+02 2.265552e+01 5.095509e+01 2.876595e+01 6.644529e+01 4.015483e+01 8.235133e+01 7.890870e+01 3.182566e+01 3.555305e+01 3.851009e+01 2.614049e-02 1.300996e+00 2.058739e+00 2.579198e+00 3.180147e+00 3.107348e+00 3.556909e+00 4.111268e+00 4.601317e+00 7.364597e+00 3.261196e+00 2.850791e+00 4.110574e+00 1.845497e-03 1.825413e-01 2.732634e-01 4.708006e-01 5.218583e-01 5.413402e-01 5.710122e-01 8.089095e-01 6.801357e-01 1.312400e+00 6.395114e-01 5.981380e-01 9.290080e-01 2.791547e-04
<GCONST> 1.059264e+02
<STATE> 5
<MEAN> 39
 -2.195961e-07 -1.079158e-06 1.003868e-07 3.388053e-07 3.889987e-07 -2.509669e-07 -3.513537e-07 4.768372e-07 -5.646756e-08 0.000000e+00 -1.254835e-07 5.646756e-08 7.920922e-01 1.355213e-02 2.923311e-01 1.567518e-01 -1.170514e-01 -1.042439e-01 -3.725881e-02 8.900224e-02 -9.312324e-02 -5.779573e-02 1.958223e-01 1.576790e-01 -6.191215e-02 -1.891295e-04 1.904386e-02 -8.560764e-03 7.431907e-03 -1.482220e-03 4.249100e-02 1.480682e-02 -1.839552e-02 -6.825920e-03 1.331226e-04 3.249481e-02 1.466737e-04 -2.329693e-02 1.059576e-04
<VARIANCE> 39
 1.659998e+01 1.062106e+02 2.265552e+01 5.095509e+01 2.876595e+01 6.644529e+01 4.015483e+01 8.235133e+01 7.890870e+01 3.182566e+01 3.555305e+01 3.851009e+01 2.614049e-02 1.300996e+00 2.058739e+00 2.579198e+00 3.180147e+00 3.107348e+00 3.556909e+00 4.111268e+00 4.601317e+00 7.364597e+00 3.261196e+00 2.850791e+00 4.110574e+00 1.845497e-03 1.825413e-01 2.732634e-01 4.708006e-01 5.218583e-01 5.413402e-01 5.710122e-01 8.089095e-01 6.801357e-01 1.312400e+00 6.395114e-01 5.981380e-01 9.290080e-01 2.791547e-04
<GCONST> 1.059264e+02
<STATE> 6
<MEAN> 39
 -2.195961e-07 -1.079158e-06 1.003868e-07 3.388053e-07 3.889987e-07 -2.509669e-07 -3.513537e-07 4.768372e-07 -5.646756e-08 0.000000e+00 -1.254835e-07 5.646756e-08 7.920922e-01 1.355213e-02 2.923311e-01 1.567518e-01 -1.170514e-01 -1.042439e-01 -3.725881e-02 8.900224e-02 -9.312324e-02 -5.779573e-02 1.958223e-01 1.576790e-01 -6.191215e-02 -1.891295e-04 1.904386e-02 -8.560764e-03 7.431907e-03 -1.482220e-03 4.249100e-02 1.480682e-02 -1.839552e-02 -6.825920e-03 1.331226e-04 3.249481e-02 1.466737e-04 -2.329693e-02 1.059576e-04
<VARIANCE> 39
 1.659998e+01 1.062106e+02 2.265552e+01 5.095509e+01 2.876595e+01 6.644529e+01 4.015483e+01 8.235133e+01 7.890870e+01 3.182566e+01 3.555305e+01 3.851009e+01 2.614049e-02 1.300996e+00 2.058739e+00 2.579198e+00 3.180147e+00 3.107348e+00 3.556909e+00 4.111268e+00 4.601317e+00 7.364597e+00 3.261196e+00 2.850791e+00 4.110574e+00 1.845497e-03 1.825413e-01 2.732634e-01 4.708006e-01 5.218583e-01 5.413402e-01 5.710122e-01 8.089095e-01 6.801357e-01 1.312400e+00 6.395114e-01 5.981380e-01 9.290080e-01 2.791547e-04
<GCONST> 1.059264e+02
<STATE> 7
<MEAN> 39
 -2.195961e-07 -1.079158e-06 1.003868e-07 3.388053e-07 3.889987e-07 -2.509669e-07 -3.513537e-07 4.768372e-07 -5.646756e-08 0.000000e+00 -1.254835e-07 5.646756e-08 7.920922e-01 1.355213e-02 2.923311e-01 1.567518e-01 -1.170514e-01 -1.042439e-01 -3.725881e-02 8.900224e-02 -9.312324e-02 -5.779573e-02 1.958223e-01 1.576790e-01 -6.191215e-02 -1.891295e-04 1.904386e-02 -8.560764e-03 7.431907e-03 -1.482220e-03 4.249100e-02 1.480682e-02 -1.839552e-02 -6.825920e-03 1.331226e-04 3.249481e-02 1.466737e-04 -2.329693e-02 1.059576e-04
<VARIANCE> 39
 1.659998e+01 1.062106e+02 2.265552e+01 5.095509e+01 2.876595e+01 6.644529e+01 4.015483e+01 8.235133e+01 7.890870e+01 3.182566e+01 3.555305e+01 3.851009e+01 2.614049e-02 1.300996e+00 2.058739e+00 2.579198e+00 3.180147e+00 3.107348e+00 3.556909e+00 4.111268e+00 4.601317e+00 7.364597e+00 3.261196e+00 2.850791e+00 4.110574e+00 1.845497e-03 1.825413e-01 2.732634e-01 4.708006e-01 5.218583e-01 5.413402e-01 5.710122e-01 8.089095e-01 6.801357e-01 1.312400e+00 6.395114e-01 5.981380e-01 9.290080e-01 2.791547e-04
<GCONST> 1.059264e+02
<STATE> 8
<MEAN> 39
 -2.195961e-07 -1.079158e-06 1.003868e-07 3.388053e-07 3.889987e-07 -2.509669e-07 -3.513537e-07 4.768372e-07 -5.646756e-08 0.000000e+00 -1.254835e-07 5.646756e-08 7.920922e-01 1.355213e-02 2.923311e-01 1.567518e-01 -1.170514e-01 -1.042439e-01 -3.725881e-02 8.900224e-02 -9.312324e-02 -5.779573e-02 1.958223e-01 1.576790e-01 -6.191215e-02 -1.891295e-04 1.904386e-02 -8.560764e-03 7.431907e-03 -1.482220e-03 4.249100e-02 1.480682e-02 -1.839552e-02 -6.825920e-03 1.331226e-04 3.249481e-02 1.466737e-04 -2.329693e-02 1.059576e-04
<VARIANCE> 39
 1.659998e+01 1.062106e+02 2.265552e+01 5.095509e+01 2.876595e+01 6.644529e+01 4.015483e+01 8.235133e+01 7.890870e+01 3.182566e+01 3.555305e+01 3.851009e+01 2.614049e-02 1.300996e+00 2.058739e+00 2.579198e+00 3.180147e+00 3.107348e+00 3.556909e+00 4.111268e+00 4.601317e+00 7.364597e+00 3.261196e+00 2.850791e+00 4.110574e+00 1.845497e-03 1.825413e-01 2.732634e-01 4.708006e-01 5.218583e-01 5.413402e-01 5.710122e-01 8.089095e-01 6.801357e-01 1.312400e+00 6.395114e-01 5.981380e-01 9.290080e-01 2.791547e-04
<GCONST> 1.059264e+02
<STATE> 9
<MEAN> 39
 -2.195961e-07 -1.079158e-06 1.003868e-07 3.388053e-07 3.889987e-07 -2.509669e-07 -3.513537e-07 4.768372e-07 -5.646756e-08 0.000000e+00 -1.254835e-07 5.646756e-08 7.920922e-01 1.355213e-02 2.923311e-01 1.567518e-01 -1.170514e-01 -1.042439e-01 -3.725881e-02 8.900224e-02 -9.312324e-02 -5.779573e-02 1.958223e-01 1.576790e-01 -6.191215e-02 -1.891295e-04 1.904386e-02 -8.560764e-03 7.431907e-03 -1.482220e-03 4.249100e-02 1.480682e-02 -1.839552e-02 -6.825920e-03 1.331226e-04 3.249481e-02 1.466737e-04 -2.329693e-02 1.059576e-04
<VARIANCE> 39
 1.659998e+01 1.062106e+02 2.265552e+01 5.095509e+01 2.876595e+01 6.644529e+01 4.015483e+01 8.235133e+01 7.890870e+01 3.182566e+01 3.555305e+01 3.851009e+01 2.614049e-02 1.300996e+00 2.058739e+00 2.579198e+00 3.180147e+00 3.107348e+00 3.556909e+00 4.111268e+00 4.601317e+00 7.364597e+00 3.261196e+00 2.850791e+00 4.110574e+00 1.845497e-03 1.825413e-01 2.732634e-01 4.708006e-01 5.218583e-01 5.413402e-01 5.710122e-01 8.089095e-01 6.801357e-01 1.312400e+00 6.395114e-01 5.981380e-01 9.290080e-01 2.791547e-04
<GCONST> 1.059264e+02
<TRANSP> 10
 0.000000e+00 1.000000e+00 0.000000e+00 0.000000e+00 0.000000e+00 0.000000e+00 0.000000e+00 0.000000e+00 0.000000e+00 0.000000e+00
 0.000000e+00 9.000000e-01 9.999999e-02 0.000000e+00 0.000000e+00 0.000000e+00 0.000000e+00 0.000000e+00 0.000000e+00 0.000000e+00
 0.000000e+00 0.000000e+00 9.000000e-01 9.999999e-02 0.000000e+00 0.000000e+00 0.000000e+00 0.000000e+00 0.000000e+00 0.000000e+00
 0.000000e+00 0.000000e+00 0.000000e+00 9.000000e-01 9.999999e-02 0.000000e+00 0.000000e+00 0.000000e+00 0.000000e+00 0.000000e+00
 0.000000e+00 0.000000e+00 0.000000e+00 0.000000e+00 9.000000e-01 9.999999e-02 0.000000e+00 0.000000e+00 0.000000e+00 0.000000e+00
 0.000000e+00 0.000000e+00 0.000000e+00 0.000000e+00 0.000000e+00 9.000000e-01 9.999999e-02 0.000000e+00 0.000000e+00 0.000000e+00
 0.000000e+00 0.000000e+00 0.000000e+00 0.000000e+00 0.000000e+00 0.000000e+00 9.000000e-01 9.999999e-02 0.000000e+00 0.000000e+00
 0.000000e+00 0.000000e+00 0.000000e+00 0.000000e+00 0.000000e+00 0.000000e+00 0.000000e+00 9.000000e-01 9.999999e-02 0.000000e+00
 0.000000e+00 0.000000e+00 0.000000e+00 0.000000e+00 0.000000e+00 0.000000e+00 0.000000e+00 0.000000e+00 9.000000e-01 9.999999e-02
 0.000000e+00 0.000000e+00 0.000000e+00 0.000000e+00 0.000000e+00 0.000000e+00 0.000000e+00 0.000000e+00 0.000000e+00 0.000000e+00
<ENDHMM>
