~o
<STREAMINFO> 1 39
<VECSIZE> 39<NULLD><MFCC_E_D_A_Z><DIAGC>
~h "s025"
<BEGINHMM>
<NUMSTATES> 10
<STATE> 2
<MEAN> 39
 -2.206261e-07 2.846789e-07 2.846789e-08 -2.846789e-08 -3.843165e-07 1.138716e-07 -3.985505e-07 2.633280e-07 -3.131468e-07 7.116972e-08 -1.138716e-07 2.775619e-07 7.999778e-01 7.102787e-02 -1.788353e-01 -8.899622e-02 2.532582e-01 1.235204e-01 -6.688756e-02 1.719155e-01 -3.064831e-02 -2.767547e-01 -1.063085e-01 -5.764760e-02 -1.300409e-01 -2.601053e-03 2.071133e-02 1.338131e-02 2.483173e-02 7.831975e-02 -3.720266e-02 -2.345945e-03 -1.893461e-03 -1.189805e-02 3.404474e-02 1.708007e-02 -2.185266e-02 -1.617365e-02 -5.275976e-04
<VARIANCE> 39
 2.497840e+01 3.474630e+01 2.520028e+01 6.070232e+01 2.608179e+01 2.455331e+01 4.748516e+01 7.852084e+01 2.505862e+01 4.105697e+01 3.368856e+01 5.648225e+01 1.338327e-02 1.081725e+00 8.838894e-01 2.047583e+00 4.570208e+00 3.094139e+00 1.993284e+00 3.043533e+00 5.577497e+00 1.708354e+00 2.898983e+00 2.671904e+00 4.386966e+00 9.418830e-04 1.316071e-01 8.945987e-02 2.675374e-01 6.406124e-01 7.028076e-01 3.331312e-01 4.775591e-01 8.338549e-01 2.461965e-01 5.135248e-01 4.870209e-01 8.750077e-01 9.847235e-05
<GCONST> 9.384644e+01
<STATE> 3
<MEAN> 39
 -2.206261e-07 2.846789e-07 2.846789e-08 -2.846789e-08 -3.843165e-07 1.138716e-07 -3.985505e-07 2.633280e-07 -3.131468e-07 7.116972e-08 -1.138716e-07 2.775619e-07 7.999778e-01 7.102787e-02 -1.788353e-01 -8.899622e-02 2.532582e-01 1.235204e-01 -6.688756e-02 1.719155e-01 -3.064831e-02 -2.767547e-01 -1.063085e-01 -5.764760e-02 -1.300409e-01 -2.601053e-03 2.071133e-02 1.338131e-02 2.483173e-02 7.831975e-02 -3.720266e-02 -2.345945e-03 -1.893461e-03 -1.189805e-02 3.404474e-02 1.708007e-02 -2.185266e-02 -1.617365e-02 -5.275976e-04
<VARIANCE> 39
 2.497840e+01 3.474630e+01 2.520028e+01 6.070232e+01 2.608179e+01 2.455331e+01 4.748516e+01 7.852084e+01 2.505862e+01 4.105697e+01 3.368856e+01 5.648225e+01 1.338327e-02 1.081725e+00 8.838894e-01 2.047583e+00 4.570208e+00 3.094139e+00 1.993284e+00 3.043533e+00 5.577497e+00 1.708354e+00 2.898983e+00 2.671904e+00 4.386966e+00 9.418830e-04 1.316071e-01 8.945987e-02 2.675374e-01 6.406124e-01 7.028076e-01 3.331312e-01 4.775591e-01 8.338549e-01 2.461965e-01 5.135248e-01 4.870209e-01 8.750077e-01 9.847235e-05
<GCONST> 9.384644e+01
<STATE> 4
<MEAN> 39
 -2.206261e-07 2.846789e-07 2.846789e-08 -2.846789e-08 -3.843165e-07 1.138716e-07 -3.985505e-07 2.633280e-07 -3.131468e-07 7.116972e-08 -1.138716e-07 2.775619e-07 7.999778e-01 7.102787e-02 -1.788353e-01 -8.899622e-02 2.532582e-01 1.235204e-01 -6.688756e-02 1.719155e-01 -3.064831e-02 -2.767547e-01 -1.063085e-01 -5.764760e-02 -1.300409e-01 -2.601053e-03 2.071133e-02 1.338131e-02 2.483173e-02 7.831975e-02 -3.720266e-02 -2.345945e-03 -1.893461e-03 -1.189805e-02 3.404474e-02 1.708007e-02 -2.185266e-02 -1.617365e-02 -5.275976e-04
<VARIANCE> 39
 2.497840e+01 3.474630e+01 2.520028e+01 6.070232e+01 2.608179e+01 2.455331e+01 4.748516e+01 7.852084e+01 2.505862e+01 4.105697e+01 3.368856e+01 5.648225e+01 1.338327e-02 1.081725e+00 8.838894e-01 2.047583e+00 4.570208e+00 3.094139e+00 1.993284e+00 3.043533e+00 5.577497e+00 1.708354e+00 2.898983e+00 2.671904e+00 4.386966e+00 9.418830e-04 1.316071e-01 8.945987e-02 2.675374e-01 6.406124e-01 7.028076e-01 3.331312e-01 4.775591e-01 8.338549e-01 2.461965e-01 5.135248e-01 4.870209e-01 8.750077e-01 9.847235e-05
<GCONST> 9.384644e+01
<STATE> 5
<MEAN> 39
 -2.206261e-07 2.846789e-07 2.846789e-08 -2.846789e-08 -3.843165e-07 1.138716e-07 -3.985505e-07 2.633280e-07 -3.131468e-07 7.116972e-08 -1.138716e-07 2.775619e-07 7.999778e-01 7.102787e-02 -1.788353e-01 -8.899622e-02 2.532582e-01 1.235204e-01 -6.688756e-02 1.719155e-01 -3.064831e-02 -2.767547e-01 -1.063085e-01 -5.764760e-02 -1.300409e-01 -2.601053e-03 2.071133e-02 1.338131e-02 2.483173e-02 7.831975e-02 -3.720266e-02 -2.345945e-03 -1.893461e-03 -1.189805e-02 3.404474e-02 1.708007e-02 -2.185266e-02 -1.617365e-02 -5.275976e-04
<VARIANCE> 39
 2.497840e+01 3.474630e+01 2.520028e+01 6.070232e+01 2.608179e+01 2.455331e+01 4.748516e+01 7.852084e+01 2.505862e+01 4.105697e+01 3.368856e+01 5.648225e+01 1.338327e-02 1.081725e+00 8.838894e-01 2.047583e+00 4.570208e+00 3.094139e+00 1.993284e+00 3.043533e+00 5.577497e+00 1.708354e+00 2.898983e+00 2.671904e+00 4.386966e+00 9.418830e-04 1.316071e-01 8.945987e-02 2.675374e-01 6.406124e-01 7.028076e-01 3.331312e-01 4.775591e-01 8.338549e-01 2.461965e-01 5.135248e-01 4.870209e-01 8.750077e-01 9.847235e-05
<GCONST> 9.384644e+01
<STATE> 6
<MEAN> 39
 -2.206261e-07 2.846789e-07 2.846789e-08 -2.846789e-08 -3.843165e-07 1.138716e-07 -3.985505e-07 2.633280e-07 -3.131468e-07 7.116972e-08 -1.138716e-07 2.775619e-07 7.999778e-01 7.102787e-02 -1.788353e-01 -8.899622e-02 2.532582e-01 1.235204e-01 -6.688756e-02 1.719155e-01 -3.064831e-02 -2.767547e-01 -1.063085e-01 -5.764760e-02 -1.300409e-01 -2.601053e-03 2.071133e-02 1.338131e-02 2.483173e-02 7.831975e-02 -3.720266e-02 -2.345945e-03 -1.893461e-03 -1.189805e-02 3.404474e-02 1.708007e-02 -2.185266e-02 -1.617365e-02 -5.275976e-04
<VARIANCE> 39
 2.497840e+01 3.474630e+01 2.520028e+01 6.070232e+01 2.608179e+01 2.455331e+01 4.748516e+01 7.852084e+01 2.505862e+01 4.105697e+01 3.368856e+01 5.648225e+01 1.338327e-02 1.081725e+00 8.838894e-01 2.047583e+00 4.570208e+00 3.094139e+00 1.993284e+00 3.043533e+00 5.577497e+00 1.708354e+00 2.898983e+00 2.671904e+00 4.386966e+00 9.418830e-04 1.316071e-01 8.945987e-02 2.675374e-01 6.406124e-01 7.028076e-01 3.331312e-01 4.775591e-01 8.338549e-01 2.461965e-01 5.135248e-01 4.870209e-01 8.750077e-01 9.847235e-05
<GCONST> 9.384644e+01
<STATE> 7
<MEAN> 39
 -2.206261e-07 2.846789e-07 2.846789e-08 -2.846789e-08 -3.843165e-07 1.138716e-07 -3.985505e-07 2.633280e-07 -3.131468e-07 7.116972e-08 -1.138716e-07 2.775619e-07 7.999778e-01 7.102787e-02 -1.788353e-01 -8.899622e-02 2.532582e-01 1.235204e-01 -6.688756e-02 1.719155e-01 -3.064831e-02 -2.767547e-01 -1.063085e-01 -5.764760e-02 -1.300409e-01 -2.601053e-03 2.071133e-02 1.338131e-02 2.483173e-02 7.831975e-02 -3.720266e-02 -2.345945e-03 -1.893461e-03 -1.189805e-02 3.404474e-02 1.708007e-02 -2.185266e-02 -1.617365e-02 -5.275976e-04
<VARIANCE> 39
 2.497840e+01 3.474630e+01 2.520028e+01 6.070232e+01 2.608179e+01 2.455331e+01 4.748516e+01 7.852084e+01 2.505862e+01 4.105697e+01 3.368856e+01 5.648225e+01 1.338327e-02 1.081725e+00 8.838894e-01 2.047583e+00 4.570208e+00 3.094139e+00 1.993284e+00 3.043533e+00 5.577497e+00 1.708354e+00 2.898983e+00 2.671904e+00 4.386966e+00 9.418830e-04 1.316071e-01 8.945987e-02 2.675374e-01 6.406124e-01 7.028076e-01 3.331312e-01 4.775591e-01 8.338549e-01 2.461965e-01 5.135248e-01 4.870209e-01 8.750077e-01 9.847235e-05
<GCONST> 9.384644e+01
<STATE> 8
<MEAN> 39
 -2.206261e-07 2.846789e-07 2.846789e-08 -2.846789e-08 -3.843165e-07 1.138716e-07 -3.985505e-07 2.633280e-07 -3.131468e-07 7.116972e-08 -1.138716e-07 2.775619e-07 7.999778e-01 7.102787e-02 -1.788353e-01 -8.899622e-02 2.532582e-01 1.235204e-01 -6.688756e-02 1.719155e-01 -3.064831e-02 -2.767547e-01 -1.063085e-01 -5.764760e-02 -1.300409e-01 -2.601053e-03 2.071133e-02 1.338131e-02 2.483173e-02 7.831975e-02 -3.720266e-02 -2.345945e-03 -1.893461e-03 -1.189805e-02 3.404474e-02 1.708007e-02 -2.185266e-02 -1.617365e-02 -5.275976e-04
<VARIANCE> 39
 2.497840e+01 3.474630e+01 2.520028e+01 6.070232e+01 2.608179e+01 2.455331e+01 4.748516e+01 7.852084e+01 2.505862e+01 4.105697e+01 3.368856e+01 5.648225e+01 1.338327e-02 1.081725e+00 8.838894e-01 2.047583e+00 4.570208e+00 3.094139e+00 1.993284e+00 3.043533e+00 5.577497e+00 1.708354e+00 2.898983e+00 2.671904e+00 4.386966e+00 9.418830e-04 1.316071e-01 8.945987e-02 2.675374e-01 6.406124e-01 7.028076e-01 3.331312e-01 4.775591e-01 8.338549e-01 2.461965e-01 5.135248e-01 4.870209e-01 8.750077e-01 9.847235e-05
<GCONST> 9.384644e+01
<STATE> 9
<MEAN> 39
 -2.206261e-07 2.846789e-07 2.846789e-08 -2.846789e-08 -3.843165e-07 1.138716e-07 -3.985505e-07 2.633280e-07 -3.131468e-07 7.116972e-08 -1.138716e-07 2.775619e-07 7.999778e-01 7.102787e-02 -1.788353e-01 -8.899622e-02 2.532582e-01 1.235204e-01 -6.688756e-02 1.719155e-01 -3.064831e-02 -2.767547e-01 -1.063085e-01 -5.764760e-02 -1.300409e-01 -2.601053e-03 2.071133e-02 1.338131e-02 2.483173e-02 7.831975e-02 -3.720266e-02 -2.345945e-03 -1.893461e-03 -1.189805e-02 3.404474e-02 1.708007e-02 -2.185266e-02 -1.617365e-02 -5.275976e-04
<VARIANCE> 39
 2.497840e+01 3.474630e+01 2.520028e+01 6.070232e+01 2.608179e+01 2.455331e+01 4.748516e+01 7.852084e+01 2.505862e+01 4.105697e+01 3.368856e+01 5.648225e+01 1.338327e-02 1.081725e+00 8.838894e-01 2.047583e+00 4.570208e+00 3.094139e+00 1.993284e+00 3.043533e+00 5.577497e+00 1.708354e+00 2.898983e+00 2.671904e+00 4.386966e+00 9.418830e-04 1.316071e-01 8.945987e-02 2.675374e-01 6.406124e-01 7.028076e-01 3.331312e-01 4.775591e-01 8.338549e-01 2.461965e-01 5.135248e-01 4.870209e-01 8.750077e-01 9.847235e-05
<GCONST> 9.384644e+01
<TRANSP> 10
 0.000000e+00 1.000000e+00 0.000000e+00 0.000000e+00 0.000000e+00 0.000000e+00 0.000000e+00 0.000000e+00 0.000000e+00 0.000000e+00
 0.000000e+00 9.000000e-01 9.999999e-02 0.000000e+00 0.000000e+00 0.000000e+00 0.000000e+00 0.000000e+00 0.000000e+00 0.000000e+00
 0.000000e+00 0.000000e+00 9.000000e-01 9.999999e-02 0.000000e+00 0.000000e+00 0.000000e+00 0.000000e+00 0.000000e+00 0.000000e+00
 0.000000e+00 0.000000e+00 0.000000e+00 9.000000e-01 9.999999e-02 0.000000e+00 0.000000e+00 0.000000e+00 0.000000e+00 0.000000e+00
 0.000000e+00 0.000000e+00 0.000000e+00 0.000000e+00 9.000000e-01 9.999999e-02 0.000000e+00 0.000000e+00 0.000000e+00 0.000000e+00
 0.000000e+00 0.000000e+00 0.000000e+00 0.000000e+00 0.000000e+00 9.000000e-01 9.999999e-02 0.000000e+00 0.000000e+00 0.000000e+00
 0.000000e+00 0.000000e+00 0.000000e+00 0.000000e+00 0.000000e+00 0.000000e+00 9.000000e-01 9.999999e-02 0.000000e+00 0.000000e+00
 0.000000e+00 0.000000e+00 0.000000e+00 0.000000e+00 0.000000e+00 0.000000e+00 0.000000e+00 9.000000e-01 9.999999e-02 0.000000e+00
 0.000000e+00 0.000000e+00 0.000000e+00 0.000000e+00 0.000000e+00 0.000000e+00 0.000000e+00 0.000000e+00 9.000000e-01 9.999999e-02
 0.000000e+00 0.000000e+00 0.000000e+00 0.000000e+00 0.000000e+00 0.000000e+00 0.000000e+00 0.000000e+00 0.000000e+00 0.000000e+00
<ENDHMM>
