~o
<STREAMINFO> 1 39
<VECSIZE> 39<NULLD><MFCC_E_D_A_Z><DIAGC>
~h "s031"
<BEGINHMM>
<NUMSTATES> 10
<STATE> 2
<MEAN> 39
 4.494776e-08 3.439481e-07 -2.110591e-07 1.954251e-07 4.064841e-07 -1.125648e-06 -7.035302e-08 7.035302e-08 7.817003e-08 1.719741e-07 7.426152e-08 1.074838e-07 7.659120e-01 2.801402e-03 -1.090149e-01 -3.495299e-02 3.284280e-01 4.552931e-01 -1.272905e-01 -7.740228e-02 1.535900e-01 -3.447575e-02 1.378082e-01 -1.711964e-02 2.385634e-01 -4.463894e-03 -4.635508e-03 4.083161e-03 3.179999e-02 -4.867969e-02 -4.279095e-02 1.476571e-02 -3.618461e-03 -3.489939e-02 2.082860e-02 3.213045e-02 5.833528e-03 -2.084675e-02 -9.825747e-04
<VARIANCE> 39
 1.326695e+01 7.715746e+01 2.191382e+01 4.941769e+01 8.564523e+01 6.089285e+01 1.924799e+01 3.663913e+01 2.495236e+01 5.421094e+01 3.994280e+01 5.537498e+01 2.304211e-02 1.782322e+00 1.925042e+00 1.592307e+00 2.239970e+00 2.348057e+00 5.480919e+00 1.931328e+00 4.788976e+00 2.765548e+00 5.712003e+00 5.387234e+00 4.034266e+00 2.020032e-03 3.545933e-01 2.133123e-01 1.840366e-01 3.655619e-01 4.053005e-01 7.832522e-01 4.102362e-01 9.616914e-01 6.248637e-01 1.135661e+00 1.142573e+00 6.377228e-01 2.552720e-04
<GCONST> 1.024815e+02
<STATE> 3
<MEAN> 39
 4.494776e-08 3.439481e-07 -2.110591e-07 1.954251e-07 4.064841e-07 -1.125648e-06 -7.035302e-08 7.035302e-08 7.817003e-08 1.719741e-07 7.426152e-08 1.074838e-07 7.659120e-01 2.801402e-03 -1.090149e-01 -3.495299e-02 3.284280e-01 4.552931e-01 -1.272905e-01 -7.740228e-02 1.535900e-01 -3.447575e-02 1.378082e-01 -1.711964e-02 2.385634e-01 -4.463894e-03 -4.635508e-03 4.083161e-03 3.179999e-02 -4.867969e-02 -4.279095e-02 1.476571e-02 -3.618461e-03 -3.489939e-02 2.082860e-02 3.213045e-02 5.833528e-03 -2.084675e-02 -9.825747e-04
<VARIANCE> 39
 1.326695e+01 7.715746e+01 2.191382e+01 4.941769e+01 8.564523e+01 6.089285e+01 1.924799e+01 3.663913e+01 2.495236e+01 5.421094e+01 3.994280e+01 5.537498e+01 2.304211e-02 1.782322e+00 1.925042e+00 1.592307e+00 2.239970e+00 2.348057e+00 5.480919e+00 1.931328e+00 4.788976e+00 2.765548e+00 5.712003e+00 5.387234e+00 4.034266e+00 2.020032e-03 3.545933e-01 2.133123e-01 1.840366e-01 3.655619e-01 4.053005e-01 7.832522e-01 4.102362e-01 9.616914e-01 6.248637e-01 1.135661e+00 1.142573e+00 6.377228e-01 2.552720e-04
<GCONST> 1.024815e+02
<STATE> 4
<MEAN> 39
 4.494776e-08 3.439481e-07 -2.110591e-07 1.954251e-07 4.064841e-07 -1.125648e-06 -7.035302e-08 7.035302e-08 7.817003e-08 1.719741e-07 7.426152e-08 1.074838e-07 7.659120e-01 2.801402e-03 -1.090149e-01 -3.495299e-02 3.284280e-01 4.552931e-01 -1.272905e-01 -7.740228e-02 1.535900e-01 -3.447575e-02 1.378082e-01 -1.711964e-02 2.385634e-01 -4.463894e-03 -4.635508e-03 4.083161e-03 3.179999e-02 -4.867969e-02 -4.279095e-02 1.476571e-02 -3.618461e-03 -3.489939e-02 2.082860e-02 3.213045e-02 5.833528e-03 -2.084675e-02 -9.825747e-04
<VARIANCE> 39
 1.326695e+01 7.715746e+01 2.191382e+01 4.941769e+01 8.564523e+01 6.089285e+01 1.924799e+01 3.663913e+01 2.495236e+01 5.421094e+01 3.994280e+01 5.537498e+01 2.304211e-02 1.782322e+00 1.925042e+00 1.592307e+00 2.239970e+00 2.348057e+00 5.480919e+00 1.931328e+00 4.788976e+00 2.765548e+00 5.712003e+00 5.387234e+00 4.034266e+00 2.020032e-03 3.545933e-01 2.133123e-01 1.840366e-01 3.655619e-01 4.053005e-01 7.832522e-01 4.102362e-01 9.616914e-01 6.248637e-01 1.135661e+00 1.142573e+00 6.377228e-01 2.552720e-04
<GCONST> 1.024815e+02
<STATE> 5
<MEAN> 39
 4.494776e-08 3.439481e-07 -2.110591e-07 1.954251e-07 4.064841e-07 -1.125648e-06 -7.035302e-08 7.035302e-08 7.817003e-08 1.719741e-07 7.426152e-08 1.074838e-07 7.659120e-01 2.801402e-03 -1.090149e-01 -3.495299e-02 3.284280e-01 4.552931e-01 -1.272905e-01 -7.740228e-02 1.535900e-01 -3.447575e-02 1.378082e-01 -1.711964e-02 2.385634e-01 -4.463894e-03 -4.635508e-03 4.083161e-03 3.179999e-02 -4.867969e-02 -4.279095e-02 1.476571e-02 -3.618461e-03 -3.489939e-02 2.082860e-02 3.213045e-02 5.833528e-03 -2.084675e-02 -9.825747e-04
<VARIANCE> 39
 1.326695e+01 7.715746e+01 2.191382e+01 4.941769e+01 8.564523e+01 6.089285e+01 1.924799e+01 3.663913e+01 2.495236e+01 5.421094e+01 3.994280e+01 5.537498e+01 2.304211e-02 1.782322e+00 1.925042e+00 1.592307e+00 2.239970e+00 2.348057e+00 5.480919e+00 1.931328e+00 4.788976e+00 2.765548e+00 5.712003e+00 5.387234e+00 4.034266e+00 2.020032e-03 3.545933e-01 2.133123e-01 1.840366e-01 3.655619e-01 4.053005e-01 7.832522e-01 4.102362e-01 9.616914e-01 6.248637e-01 1.135661e+00 1.142573e+00 6.377228e-01 2.552720e-04
<GCONST> 1.024815e+02
<STATE> 6
<MEAN> 39
 4.494776e-08 3.439481e-07 -2.110591e-07 1.954251e-07 4.064841e-07 -1.125648e-06 -7.035302e-08 7.035302e-08 7.817003e-08 1.719741e-07 7.426152e-08 1.074838e-07 7.659120e-01 2.801402e-03 -1.090149e-01 -3.495299e-02 3.284280e-01 4.552931e-01 -1.272905e-01 -7.740228e-02 1.535900e-01 -3.447575e-02 1.378082e-01 -1.711964e-02 2.385634e-01 -4.463894e-03 -4.635508e-03 4.083161e-03 3.179999e-02 -4.867969e-02 -4.279095e-02 1.476571e-02 -3.618461e-03 -3.489939e-02 2.082860e-02 3.213045e-02 5.833528e-03 -2.084675e-02 -9.825747e-04
<VARIANCE> 39
 1.326695e+01 7.715746e+01 2.191382e+01 4.941769e+01 8.564523e+01 6.089285e+01 1.924799e+01 3.663913e+01 2.495236e+01 5.421094e+01 3.994280e+01 5.537498e+01 2.304211e-02 1.782322e+00 1.925042e+00 1.592307e+00 2.239970e+00 2.348057e+00 5.480919e+00 1.931328e+00 4.788976e+00 2.765548e+00 5.712003e+00 5.387234e+00 4.034266e+00 2.020032e-03 3.545933e-01 2.133123e-01 1.840366e-01 3.655619e-01 4.053005e-01 7.832522e-01 4.102362e-01 9.616914e-01 6.248637e-01 1.135661e+00 1.142573e+00 6.377228e-01 2.552720e-04
<GCONST> 1.024815e+02
<STATE> 7
<MEAN> 39
 4.494776e-08 3.439481e-07 -2.110591e-07 1.954251e-07 4.064841e-07 -1.125648e-06 -7.035302e-08 7.035302e-08 7.817003e-08 1.719741e-07 7.426152e-08 1.074838e-07 7.659120e-01 2.801402e-03 -1.090149e-01 -3.495299e-02 3.284280e-01 4.552931e-01 -1.272905e-01 -7.740228e-02 1.535900e-01 -3.447575e-02 1.378082e-01 -1.711964e-02 2.385634e-01 -4.463894e-03 -4.635508e-03 4.083161e-03 3.179999e-02 -4.867969e-02 -4.279095e-02 1.476571e-02 -3.618461e-03 -3.489939e-02 2.082860e-02 3.213045e-02 5.833528e-03 -2.084675e-02 -9.825747e-04
<VARIANCE> 39
 1.326695e+01 7.715746e+01 2.191382e+01 4.941769e+01 8.564523e+01 6.089285e+01 1.924799e+01 3.663913e+01 2.495236e+01 5.421094e+01 3.994280e+01 5.537498e+01 2.304211e-02 1.782322e+00 1.925042e+00 1.592307e+00 2.239970e+00 2.348057e+00 5.480919e+00 1.931328e+00 4.788976e+00 2.765548e+00 5.712003e+00 5.387234e+00 4.034266e+00 2.020032e-03 3.545933e-01 2.133123e-01 1.840366e-01 3.655619e-01 4.053005e-01 7.832522e-01 4.102362e-01 9.616914e-01 6.248637e-01 1.135661e+00 1.142573e+00 6.377228e-01 2.552720e-04
<GCONST> 1.024815e+02
<STATE> 8
<MEAN> 39
 4.494776e-08 3.439481e-07 -2.110591e-07 1.954251e-07 4.064841e-07 -1.125648e-06 -7.035302e-08 7.035302e-08 7.817003e-08 1.719741e-07 7.426152e-08 1.074838e-07 7.659120e-01 2.801402e-03 -1.090149e-01 -3.495299e-02 3.284280e-01 4.552931e-01 -1.272905e-01 -7.740228e-02 1.535900e-01 -3.447575e-02 1.378082e-01 -1.711964e-02 2.385634e-01 -4.463894e-03 -4.635508e-03 4.083161e-03 3.179999e-02 -4.867969e-02 -4.279095e-02 1.476571e-02 -3.618461e-03 -3.489939e-02 2.082860e-02 3.213045e-02 5.833528e-03 -2.084675e-02 -9.825747e-04
<VARIANCE> 39
 1.326695e+01 7.715746e+01 2.191382e+01 4.941769e+01 8.564523e+01 6.089285e+01 1.924799e+01 3.663913e+01 2.495236e+01 5.421094e+01 3.994280e+01 5.537498e+01 2.304211e-02 1.782322e+00 1.925042e+00 1.592307e+00 2.239970e+00 2.348057e+00 5.480919e+00 1.931328e+00 4.788976e+00 2.765548e+00 5.712003e+00 5.387234e+00 4.034266e+00 2.020032e-03 3.545933e-01 2.133123e-01 1.840366e-01 3.655619e-01 4.053005e-01 7.832522e-01 4.102362e-01 9.616914e-01 6.248637e-01 1.135661e+00 1.142573e+00 6.377228e-01 2.552720e-04
<GCONST> 1.024815e+02
<STATE> 9
<MEAN> 39
 4.494776e-08 3.439481e-07 -2.110591e-07 1.954251e-07 4.064841e-07 -1.125648e-06 -7.035302e-08 7.035302e-08 7.817003e-08 1.719741e-07 7.426152e-08 1.074838e-07 7.659120e-01 2.801402e-03 -1.090149e-01 -3.495299e-02 3.284280e-01 4.552931e-01 -1.272905e-01 -7.740228e-02 1.535900e-01 -3.447575e-02 1.378082e-01 -1.711964e-02 2.385634e-01 -4.463894e-03 -4.635508e-03 4.083161e-03 3.179999e-02 -4.867969e-02 -4.279095e-02 1.476571e-02 -3.618461e-03 -3.489939e-02 2.082860e-02 3.213045e-02 5.833528e-03 -2.084675e-02 -9.825747e-04
<VARIANCE> 39
 1.326695e+01 7.715746e+01 2.191382e+01 4.941769e+01 8.564523e+01 6.089285e+01 1.924799e+01 3.663913e+01 2.495236e+01 5.421094e+01 3.994280e+01 5.537498e+01 2.304211e-02 1.782322e+00 1.925042e+00 1.592307e+00 2.239970e+00 2.348057e+00 5.480919e+00 1.931328e+00 4.788976e+00 2.765548e+00 5.712003e+00 5.387234e+00 4.034266e+00 2.020032e-03 3.545933e-01 2.133123e-01 1.840366e-01 3.655619e-01 4.053005e-01 7.832522e-01 4.102362e-01 9.616914e-01 6.248637e-01 1.135661e+00 1.142573e+00 6.377228e-01 2.552720e-04
<GCONST> 1.024815e+02
<TRANSP> 10
 0.000000e+00 1.000000e+00 0.000000e+00 0.000000e+00 0.000000e+00 0.000000e+00 0.000000e+00 0.000000e+00 0.000000e+00 0.000000e+00
 0.000000e+00 9.000000e-01 9.999999e-02 0.000000e+00 0.000000e+00 0.000000e+00 0.000000e+00 0.000000e+00 0.000000e+00 0.000000e+00
 0.000000e+00 0.000000e+00 9.000000e-01 9.999999e-02 0.000000e+00 0.000000e+00 0.000000e+00 0.000000e+00 0.000000e+00 0.000000e+00
 0.000000e+00 0.000000e+00 0.000000e+00 9.000000e-01 9.999999e-02 0.000000e+00 0.000000e+00 0.000000e+00 0.000000e+00 0.000000e+00
 0.000000e+00 0.000000e+00 0.000000e+00 0.000000e+00 9.000000e-01 9.999999e-02 0.000000e+00 0.000000e+00 0.000000e+00 0.000000e+00
 0.000000e+00 0.000000e+00 0.000000e+00 0.000000e+00 0.000000e+00 9.000000e-01 9.999999e-02 0.000000e+00 0.000000e+00 0.000000e+00
 0.000000e+00 0.000000e+00 0.000000e+00 0.000000e+00 0.000000e+00 0.000000e+00 9.000000e-01 9.999999e-02 0.000000e+00 0.000000e+00
 0.000000e+00 0.000000e+00 0.000000e+00 0.000000e+00 0.000000e+00 0.000000e+00 0.000000e+00 9.000000e-01 9.999999e-02 0.000000e+00
 0.000000e+00 0.000000e+00 0.000000e+00 0.000000e+00 0.000000e+00 0.000000e+00 0.000000e+00 0.000000e+00 9.000000e-01 9.999999e-02
 0.000000e+00 0.000000e+00 0.000000e+00 0.000000e+00 0.000000e+00 0.000000e+00 0.000000e+00 0.000000e+00 0.000000e+00 0.000000e+00
<ENDHMM>
