~o
<STREAMINFO> 1 39
<VECSIZE> 39<NULLD><MFCC_E_D_A_Z><DIAGC>
~h "s032"
<BEGINHMM>
<NUMSTATES> 10
<STATE> 2
<MEAN> 39
 -1.753078e-08 3.856771e-07 -1.262216e-07 8.414774e-08 6.591573e-07 -5.048864e-07 -8.414774e-08 4.347633e-07 1.472585e-07 1.121970e-07 -4.487879e-07 -2.243940e-07 7.628756e-01 6.320777e-02 -5.243475e-02 5.421899e-02 3.800106e-01 3.787213e-01 1.791092e-01 -5.416493e-02 2.544929e-02 -6.136568e-02 2.395087e-02 1.477591e-01 1.604112e-01 -5.202543e-03 3.399549e-04 1.428237e-02 2.066203e-02 2.158703e-03 -4.566828e-02 1.644320e-02 2.178680e-02 -3.107189e-02 2.370730e-03 7.622876e-02 1.761835e-02 -2.570045e-02 -1.320851e-04
<VARIANCE> 39
 1.476332e+01 7.431428e+01 5.917618e+01 1.037180e+02 7.782708e+01 4.905063e+01 9.165483e+01 6.728403e+01 6.962045e+01 4.604841e+01 4.881604e+01 3.437613e+01 3.429568e-02 1.227103e+00 2.052843e+00 2.061409e+00 2.185141e+00 2.779681e+00 2.982273e+00 3.171124e+00 3.595812e+00 2.555845e+00 2.308434e+00 2.717297e+00 1.959744e+00 6.062656e-04 1.992230e-01 1.946330e-01 1.943528e-01 3.889434e-01 5.575149e-01 3.381920e-01 5.049519e-01 4.964226e-01 3.173332e-01 3.644154e-01 4.295894e-01 3.302825e-01 7.960557e-05
<GCONST> 9.708382e+01
<STATE> 3
<MEAN> 39
 -1.753078e-08 3.856771e-07 -1.262216e-07 8.414774e-08 6.591573e-07 -5.048864e-07 -8.414774e-08 4.347633e-07 1.472585e-07 1.121970e-07 -4.487879e-07 -2.243940e-07 7.628756e-01 6.320777e-02 -5.243475e-02 5.421899e-02 3.800106e-01 3.787213e-01 1.791092e-01 -5.416493e-02 2.544929e-02 -6.136568e-02 2.395087e-02 1.477591e-01 1.604112e-01 -5.202543e-03 3.399549e-04 1.428237e-02 2.066203e-02 2.158703e-03 -4.566828e-02 1.644320e-02 2.178680e-02 -3.107189e-02 2.370730e-03 7.622876e-02 1.761835e-02 -2.570045e-02 -1.320851e-04
<VARIANCE> 39
 1.476332e+01 7.431428e+01 5.917618e+01 1.037180e+02 7.782708e+01 4.905063e+01 9.165483e+01 6.728403e+01 6.962045e+01 4.604841e+01 4.881604e+01 3.437613e+01 3.429568e-02 1.227103e+00 2.052843e+00 2.061409e+00 2.185141e+00 2.779681e+00 2.982273e+00 3.171124e+00 3.595812e+00 2.555845e+00 2.308434e+00 2.717297e+00 1.959744e+00 6.062656e-04 1.992230e-01 1.946330e-01 1.943528e-01 3.889434e-01 5.575149e-01 3.381920e-01 5.049519e-01 4.964226e-01 3.173332e-01 3.644154e-01 4.295894e-01 3.302825e-01 7.960557e-05
<GCONST> 9.708382e+01
<STATE> 4
<MEAN> 39
 -1.753078e-08 3.856771e-07 -1.262216e-07 8.414774e-08 6.591573e-07 -5.048864e-07 -8.414774e-08 4.347633e-07 1.472585e-07 1.121970e-07 -4.487879e-07 -2.243940e-07 7.628756e-01 6.320777e-02 -5.243475e-02 5.421899e-02 3.800106e-01 3.787213e-01 1.791092e-01 -5.416493e-02 2.544929e-02 -6.136568e-02 2.395087e-02 1.477591e-01 1.604112e-01 -5.202543e-03 3.399549e-04 1.428237e-02 2.066203e-02 2.158703e-03 -4.566828e-02 1.644320e-02 2.178680e-02 -3.107189e-02 2.370730e-03 7.622876e-02 1.761835e-02 -2.570045e-02 -1.320851e-04
<VARIANCE> 39
 1.476332e+01 7.431428e+01 5.917618e+01 1.037180e+02 7.782708e+01 4.905063e+01 9.165483e+01 6.728403e+01 6.962045e+01 4.604841e+01 4.881604e+01 3.437613e+01 3.429568e-02 1.227103e+00 2.052843e+00 2.061409e+00 2.185141e+00 2.779681e+00 2.982273e+00 3.171124e+00 3.595812e+00 2.555845e+00 2.308434e+00 2.717297e+00 1.959744e+00 6.062656e-04 1.992230e-01 1.946330e-01 1.943528e-01 3.889434e-01 5.575149e-01 3.381920e-01 5.049519e-01 4.964226e-01 3.173332e-01 3.644154e-01 4.295894e-01 3.302825e-01 7.960557e-05
<GCONST> 9.708382e+01
<STATE> 5
<MEAN> 39
 -1.753078e-08 3.856771e-07 -1.262216e-07 8.414774e-08 6.591573e-07 -5.048864e-07 -8.414774e-08 4.347633e-07 1.472585e-07 1.121970e-07 -4.487879e-07 -2.243940e-07 7.628756e-01 6.320777e-02 -5.243475e-02 5.421899e-02 3.800106e-01 3.787213e-01 1.791092e-01 -5.416493e-02 2.544929e-02 -6.136568e-02 2.395087e-02 1.477591e-01 1.604112e-01 -5.202543e-03 3.399549e-04 1.428237e-02 2.066203e-02 2.158703e-03 -4.566828e-02 1.644320e-02 2.178680e-02 -3.107189e-02 2.370730e-03 7.622876e-02 1.761835e-02 -2.570045e-02 -1.320851e-04
<VARIANCE> 39
 1.476332e+01 7.431428e+01 5.917618e+01 1.037180e+02 7.782708e+01 4.905063e+01 9.165483e+01 6.728403e+01 6.962045e+01 4.604841e+01 4.881604e+01 3.437613e+01 3.429568e-02 1.227103e+00 2.052843e+00 2.061409e+00 2.185141e+00 2.779681e+00 2.982273e+00 3.171124e+00 3.595812e+00 2.555845e+00 2.308434e+00 2.717297e+00 1.959744e+00 6.062656e-04 1.992230e-01 1.946330e-01 1.943528e-01 3.889434e-01 5.575149e-01 3.381920e-01 5.049519e-01 4.964226e-01 3.173332e-01 3.644154e-01 4.295894e-01 3.302825e-01 7.960557e-05
<GCONST> 9.708382e+01
<STATE> 6
<MEAN> 39
 -1.753078e-08 3.856771e-07 -1.262216e-07 8.414774e-08 6.591573e-07 -5.048864e-07 -8.414774e-08 4.347633e-07 1.472585e-07 1.121970e-07 -4.487879e-07 -2.243940e-07 7.628756e-01 6.320777e-02 -5.243475e-02 5.421899e-02 3.800106e-01 3.787213e-01 1.791092e-01 -5.416493e-02 2.544929e-02 -6.136568e-02 2.395087e-02 1.477591e-01 1.604112e-01 -5.202543e-03 3.399549e-04 1.428237e-02 2.066203e-02 2.158703e-03 -4.566828e-02 1.644320e-02 2.178680e-02 -3.107189e-02 2.370730e-03 7.622876e-02 1.761835e-02 -2.570045e-02 -1.320851e-04
<VARIANCE> 39
 1.476332e+01 7.431428e+01 5.917618e+01 1.037180e+02 7.782708e+01 4.905063e+01 9.165483e+01 6.728403e+01 6.962045e+01 4.604841e+01 4.881604e+01 3.437613e+01 3.429568e-02 1.227103e+00 2.052843e+00 2.061409e+00 2.185141e+00 2.779681e+00 2.982273e+00 3.171124e+00 3.595812e+00 2.555845e+00 2.308434e+00 2.717297e+00 1.959744e+00 6.062656e-04 1.992230e-01 1.946330e-01 1.943528e-01 3.889434e-01 5.575149e-01 3.381920e-01 5.049519e-01 4.964226e-01 3.173332e-01 3.644154e-01 4.295894e-01 3.302825e-01 7.960557e-05
<GCONST> 9.708382e+01
<STATE> 7
<MEAN> 39
 -1.753078e-08 3.856771e-07 -1.262216e-07 8.414774e-08 6.591573e-07 -5.048864e-07 -8.414774e-08 4.347633e-07 1.472585e-07 1.121970e-07 -4.487879e-07 -2.243940e-07 7.628756e-01 6.320777e-02 -5.243475e-02 5.421899e-02 3.800106e-01 3.787213e-01 1.791092e-01 -5.416493e-02 2.544929e-02 -6.136568e-02 2.395087e-02 1.477591e-01 1.604112e-01 -5.202543e-03 3.399549e-04 1.428237e-02 2.066203e-02 2.158703e-03 -4.566828e-02 1.644320e-02 2.178680e-02 -3.107189e-02 2.370730e-03 7.622876e-02 1.761835e-02 -2.570045e-02 -1.320851e-04
<VARIANCE> 39
 1.476332e+01 7.431428e+01 5.917618e+01 1.037180e+02 7.782708e+01 4.905063e+01 9.165483e+01 6.728403e+01 6.962045e+01 4.604841e+01 4.881604e+01 3.437613e+01 3.429568e-02 1.227103e+00 2.052843e+00 2.061409e+00 2.185141e+00 2.779681e+00 2.982273e+00 3.171124e+00 3.595812e+00 2.555845e+00 2.308434e+00 2.717297e+00 1.959744e+00 6.062656e-04 1.992230e-01 1.946330e-01 1.943528e-01 3.889434e-01 5.575149e-01 3.381920e-01 5.049519e-01 4.964226e-01 3.173332e-01 3.644154e-01 4.295894e-01 3.302825e-01 7.960557e-05
<GCONST> 9.708382e+01
<STATE> 8
<MEAN> 39
 -1.753078e-08 3.856771e-07 -1.262216e-07 8.414774e-08 6.591573e-07 -5.048864e-07 -8.414774e-08 4.347633e-07 1.472585e-07 1.121970e-07 -4.487879e-07 -2.243940e-07 7.628756e-01 6.320777e-02 -5.243475e-02 5.421899e-02 3.800106e-01 3.787213e-01 1.791092e-01 -5.416493e-02 2.544929e-02 -6.136568e-02 2.395087e-02 1.477591e-01 1.604112e-01 -5.202543e-03 3.399549e-04 1.428237e-02 2.066203e-02 2.158703e-03 -4.566828e-02 1.644320e-02 2.178680e-02 -3.107189e-02 2.370730e-03 7.622876e-02 1.761835e-02 -2.570045e-02 -1.320851e-04
<VARIANCE> 39
 1.476332e+01 7.431428e+01 5.917618e+01 1.037180e+02 7.782708e+01 4.905063e+01 9.165483e+01 6.728403e+01 6.962045e+01 4.604841e+01 4.881604e+01 3.437613e+01 3.429568e-02 1.227103e+00 2.052843e+00 2.061409e+00 2.185141e+00 2.779681e+00 2.982273e+00 3.171124e+00 3.595812e+00 2.555845e+00 2.308434e+00 2.717297e+00 1.959744e+00 6.062656e-04 1.992230e-01 1.946330e-01 1.943528e-01 3.889434e-01 5.575149e-01 3.381920e-01 5.049519e-01 4.964226e-01 3.173332e-01 3.644154e-01 4.295894e-01 3.302825e-01 7.960557e-05
<GCONST> 9.708382e+01
<STATE> 9
<MEAN> 39
 -1.753078e-08 3.856771e-07 -1.262216e-07 8.414774e-08 6.591573e-07 -5.048864e-07 -8.414774e-08 4.347633e-07 1.472585e-07 1.121970e-07 -4.487879e-07 -2.243940e-07 7.628756e-01 6.320777e-02 -5.243475e-02 5.421899e-02 3.800106e-01 3.787213e-01 1.791092e-01 -5.416493e-02 2.544929e-02 -6.136568e-02 2.395087e-02 1.477591e-01 1.604112e-01 -5.202543e-03 3.399549e-04 1.428237e-02 2.066203e-02 2.158703e-03 -4.566828e-02 1.644320e-02 2.178680e-02 -3.107189e-02 2.370730e-03 7.622876e-02 1.761835e-02 -2.570045e-02 -1.320851e-04
<VARIANCE> 39
 1.476332e+01 7.431428e+01 5.917618e+01 1.037180e+02 7.782708e+01 4.905063e+01 9.165483e+01 6.728403e+01 6.962045e+01 4.604841e+01 4.881604e+01 3.437613e+01 3.429568e-02 1.227103e+00 2.052843e+00 2.061409e+00 2.185141e+00 2.779681e+00 2.982273e+00 3.171124e+00 3.595812e+00 2.555845e+00 2.308434e+00 2.717297e+00 1.959744e+00 6.062656e-04 1.992230e-01 1.946330e-01 1.943528e-01 3.889434e-01 5.575149e-01 3.381920e-01 5.049519e-01 4.964226e-01 3.173332e-01 3.644154e-01 4.295894e-01 3.302825e-01 7.960557e-05
<GCONST> 9.708382e+01
<TRANSP> 10
 0.000000e+00 1.000000e+00 0.000000e+00 0.000000e+00 0.000000e+00 0.000000e+00 0.000000e+00 0.000000e+00 0.000000e+00 0.000000e+00
 0.000000e+00 9.000000e-01 9.999999e-02 0.000000e+00 0.000000e+00 0.000000e+00 0.000000e+00 0.000000e+00 0.000000e+00 0.000000e+00
 0.000000e+00 0.000000e+00 9.000000e-01 9.999999e-02 0.000000e+00 0.000000e+00 0.000000e+00 0.000000e+00 0.000000e+00 0.000000e+00
 0.000000e+00 0.000000e+00 0.000000e+00 9.000000e-01 9.999999e-02 0.000000e+00 0.000000e+00 0.000000e+00 0.000000e+00 0.000000e+00
 0.000000e+00 0.000000e+00 0.000000e+00 0.000000e+00 9.000000e-01 9.999999e-02 0.000000e+00 0.000000e+00 0.000000e+00 0.000000e+00
 0.000000e+00 0.000000e+00 0.000000e+00 0.000000e+00 0.000000e+00 9.000000e-01 9.999999e-02 0.000000e+00 0.000000e+00 0.000000e+00
 0.000000e+00 0.000000e+00 0.000000e+00 0.000000e+00 0.000000e+00 0.000000e+00 9.000000e-01 9.999999e-02 0.000000e+00 0.000000e+00
 0.000000e+00 0.000000e+00 0.000000e+00 0.000000e+00 0.000000e+00 0.000000e+00 0.000000e+00 9.000000e-01 9.999999e-02 0.000000e+00
 0.000000e+00 0.000000e+00 0.000000e+00 0.000000e+00 0.000000e+00 0.000000e+00 0.000000e+00 0.000000e+00 9.000000e-01 9.999999e-02
 0.000000e+00 0.000000e+00 0.000000e+00 0.000000e+00 0.000000e+00 0.000000e+00 0.000000e+00 0.000000e+00 0.000000e+00 0.000000e+00
<ENDHMM>
