~o
<STREAMINFO> 1 39
<VECSIZE> 39<NULLD><MFCC_E_D_A_Z><DIAGC>
~h "s036"
<BEGINHMM>
<NUMSTATES> 10
<STATE> 2
<MEAN> 39
 -2.243940e-07 9.349748e-08 3.926894e-07 -5.422854e-07 2.150442e-07 1.495960e-07 -1.121970e-07 1.121970e-07 2.337437e-07 2.056945e-07 -1.542709e-07 1.355714e-07 7.386354e-01 2.393519e-02 -2.166694e-01 -4.400710e-01 3.922505e-01 3.127790e-01 9.750106e-02 2.830525e-02 -9.097029e-02 -1.423796e-03 -4.658864e-01 1.810670e-01 1.996483e-01 -3.089646e-03 4.834153e-02 2.511969e-02 2.702629e-02 2.708833e-02 -1.094773e-02 -6.309519e-02 -2.182668e-02 -3.074173e-02 2.283012e-02 9.609850e-02 5.406233e-02 -2.816028e-02 -1.467282e-03
<VARIANCE> 39
 2.175955e+01 2.758092e+01 7.114595e+01 6.630391e+01 7.355347e+01 7.968085e+01 6.201531e+01 6.748533e+01 6.066265e+01 3.571754e+01 3.043537e+01 3.609987e+01 2.162290e-02 2.827448e+00 1.657534e+00 3.692592e+00 3.183262e+00 3.053630e+00 7.359086e+00 3.368977e+00 6.199100e+00 4.175109e+00 4.206815e+00 1.983124e+00 2.356608e+00 9.598059e-04 4.866575e-01 3.497479e-01 5.287756e-01 4.443080e-01 5.046512e-01 8.399994e-01 6.391175e-01 1.201975e+00 7.593238e-01 7.941777e-01 3.477747e-01 4.979924e-01 8.703391e-05
<GCONST> 1.060673e+02
<STATE> 3
<MEAN> 39
 -2.243940e-07 9.349748e-08 3.926894e-07 -5.422854e-07 2.150442e-07 1.495960e-07 -1.121970e-07 1.121970e-07 2.337437e-07 2.056945e-07 -1.542709e-07 1.355714e-07 7.386354e-01 2.393519e-02 -2.166694e-01 -4.400710e-01 3.922505e-01 3.127790e-01 9.750106e-02 2.830525e-02 -9.097029e-02 -1.423796e-03 -4.658864e-01 1.810670e-01 1.996483e-01 -3.089646e-03 4.834153e-02 2.511969e-02 2.702629e-02 2.708833e-02 -1.094773e-02 -6.309519e-02 -2.182668e-02 -3.074173e-02 2.283012e-02 9.609850e-02 5.406233e-02 -2.816028e-02 -1.467282e-03
<VARIANCE> 39
 2.175955e+01 2.758092e+01 7.114595e+01 6.630391e+01 7.355347e+01 7.968085e+01 6.201531e+01 6.748533e+01 6.066265e+01 3.571754e+01 3.043537e+01 3.609987e+01 2.162290e-02 2.827448e+00 1.657534e+00 3.692592e+00 3.183262e+00 3.053630e+00 7.359086e+00 3.368977e+00 6.199100e+00 4.175109e+00 4.206815e+00 1.983124e+00 2.356608e+00 9.598059e-04 4.866575e-01 3.497479e-01 5.287756e-01 4.443080e-01 5.046512e-01 8.399994e-01 6.391175e-01 1.201975e+00 7.593238e-01 7.941777e-01 3.477747e-01 4.979924e-01 8.703391e-05
<GCONST> 1.060673e+02
<STATE> 4
<MEAN> 39
 -2.243940e-07 9.349748e-08 3.926894e-07 -5.422854e-07 2.150442e-07 1.495960e-07 -1.121970e-07 1.121970e-07 2.337437e-07 2.056945e-07 -1.542709e-07 1.355714e-07 7.386354e-01 2.393519e-02 -2.166694e-01 -4.400710e-01 3.922505e-01 3.127790e-01 9.750106e-02 2.830525e-02 -9.097029e-02 -1.423796e-03 -4.658864e-01 1.810670e-01 1.996483e-01 -3.089646e-03 4.834153e-02 2.511969e-02 2.702629e-02 2.708833e-02 -1.094773e-02 -6.309519e-02 -2.182668e-02 -3.074173e-02 2.283012e-02 9.609850e-02 5.406233e-02 -2.816028e-02 -1.467282e-03
<VARIANCE> 39
 2.175955e+01 2.758092e+01 7.114595e+01 6.630391e+01 7.355347e+01 7.968085e+01 6.201531e+01 6.748533e+01 6.066265e+01 3.571754e+01 3.043537e+01 3.609987e+01 2.162290e-02 2.827448e+00 1.657534e+00 3.692592e+00 3.183262e+00 3.053630e+00 7.359086e+00 3.368977e+00 6.199100e+00 4.175109e+00 4.206815e+00 1.983124e+00 2.356608e+00 9.598059e-04 4.866575e-01 3.497479e-01 5.287756e-01 4.443080e-01 5.046512e-01 8.399994e-01 6.391175e-01 1.201975e+00 7.593238e-01 7.941777e-01 3.477747e-01 4.979924e-01 8.703391e-05
<GCONST> 1.060673e+02
<STATE> 5
<MEAN> 39
 -2.243940e-07 9.349748e-08 3.926894e-07 -5.422854e-07 2.150442e-07 1.495960e-07 -1.121970e-07 1.121970e-07 2.337437e-07 2.056945e-07 -1.542709e-07 1.355714e-07 7.386354e-01 2.393519e-02 -2.166694e-01 -4.400710e-01 3.922505e-01 3.127790e-01 9.750106e-02 2.830525e-02 -9.097029e-02 -1.423796e-03 -4.658864e-01 1.810670e-01 1.996483e-01 -3.089646e-03 4.834153e-02 2.511969e-02 2.702629e-02 2.708833e-02 -1.094773e-02 -6.309519e-02 -2.182668e-02 -3.074173e-02 2.283012e-02 9.609850e-02 5.406233e-02 -2.816028e-02 -1.467282e-03
<VARIANCE> 39
 2.175955e+01 2.758092e+01 7.114595e+01 6.630391e+01 7.355347e+01 7.968085e+01 6.201531e+01 6.748533e+01 6.066265e+01 3.571754e+01 3.043537e+01 3.609987e+01 2.162290e-02 2.827448e+00 1.657534e+00 3.692592e+00 3.183262e+00 3.053630e+00 7.359086e+00 3.368977e+00 6.199100e+00 4.175109e+00 4.206815e+00 1.983124e+00 2.356608e+00 9.598059e-04 4.866575e-01 3.497479e-01 5.287756e-01 4.443080e-01 5.046512e-01 8.399994e-01 6.391175e-01 1.201975e+00 7.593238e-01 7.941777e-01 3.477747e-01 4.979924e-01 8.703391e-05
<GCONST> 1.060673e+02
<STATE> 6
<MEAN> 39
 -2.243940e-07 9.349748e-08 3.926894e-07 -5.422854e-07 2.150442e-07 1.495960e-07 -1.121970e-07 1.121970e-07 2.337437e-07 2.056945e-07 -1.542709e-07 1.355714e-07 7.386354e-01 2.393519e-02 -2.166694e-01 -4.400710e-01 3.922505e-01 3.127790e-01 9.750106e-02 2.830525e-02 -9.097029e-02 -1.423796e-03 -4.658864e-01 1.810670e-01 1.996483e-01 -3.089646e-03 4.834153e-02 2.511969e-02 2.702629e-02 2.708833e-02 -1.094773e-02 -6.309519e-02 -2.182668e-02 -3.074173e-02 2.283012e-02 9.609850e-02 5.406233e-02 -2.816028e-02 -1.467282e-03
<VARIANCE> 39
 2.175955e+01 2.758092e+01 7.114595e+01 6.630391e+01 7.355347e+01 7.968085e+01 6.201531e+01 6.748533e+01 6.066265e+01 3.571754e+01 3.043537e+01 3.609987e+01 2.162290e-02 2.827448e+00 1.657534e+00 3.692592e+00 3.183262e+00 3.053630e+00 7.359086e+00 3.368977e+00 6.199100e+00 4.175109e+00 4.206815e+00 1.983124e+00 2.356608e+00 9.598059e-04 4.866575e-01 3.497479e-01 5.287756e-01 4.443080e-01 5.046512e-01 8.399994e-01 6.391175e-01 1.201975e+00 7.593238e-01 7.941777e-01 3.477747e-01 4.979924e-01 8.703391e-05
<GCONST> 1.060673e+02
<STATE> 7
<MEAN> 39
 -2.243940e-07 9.349748e-08 3.926894e-07 -5.422854e-07 2.150442e-07 1.495960e-07 -1.121970e-07 1.121970e-07 2.337437e-07 2.056945e-07 -1.542709e-07 1.355714e-07 7.386354e-01 2.393519e-02 -2.166694e-01 -4.400710e-01 3.922505e-01 3.127790e-01 9.750106e-02 2.830525e-02 -9.097029e-02 -1.423796e-03 -4.658864e-01 1.810670e-01 1.996483e-01 -3.089646e-03 4.834153e-02 2.511969e-02 2.702629e-02 2.708833e-02 -1.094773e-02 -6.309519e-02 -2.182668e-02 -3.074173e-02 2.283012e-02 9.609850e-02 5.406233e-02 -2.816028e-02 -1.467282e-03
<VARIANCE> 39
 2.175955e+01 2.758092e+01 7.114595e+01 6.630391e+01 7.355347e+01 7.968085e+01 6.201531e+01 6.748533e+01 6.066265e+01 3.571754e+01 3.043537e+01 3.609987e+01 2.162290e-02 2.827448e+00 1.657534e+00 3.692592e+00 3.183262e+00 3.053630e+00 7.359086e+00 3.368977e+00 6.199100e+00 4.175109e+00 4.206815e+00 1.983124e+00 2.356608e+00 9.598059e-04 4.866575e-01 3.497479e-01 5.287756e-01 4.443080e-01 5.046512e-01 8.399994e-01 6.391175e-01 1.201975e+00 7.593238e-01 7.941777e-01 3.477747e-01 4.979924e-01 8.703391e-05
<GCONST> 1.060673e+02
<STATE> 8
<MEAN> 39
 -2.243940e-07 9.349748e-08 3.926894e-07 -5.422854e-07 2.150442e-07 1.495960e-07 -1.121970e-07 1.121970e-07 2.337437e-07 2.056945e-07 -1.542709e-07 1.355714e-07 7.386354e-01 2.393519e-02 -2.166694e-01 -4.400710e-01 3.922505e-01 3.127790e-01 9.750106e-02 2.830525e-02 -9.097029e-02 -1.423796e-03 -4.658864e-01 1.810670e-01 1.996483e-01 -3.089646e-03 4.834153e-02 2.511969e-02 2.702629e-02 2.708833e-02 -1.094773e-02 -6.309519e-02 -2.182668e-02 -3.074173e-02 2.283012e-02 9.609850e-02 5.406233e-02 -2.816028e-02 -1.467282e-03
<VARIANCE> 39
 2.175955e+01 2.758092e+01 7.114595e+01 6.630391e+01 7.355347e+01 7.968085e+01 6.201531e+01 6.748533e+01 6.066265e+01 3.571754e+01 3.043537e+01 3.609987e+01 2.162290e-02 2.827448e+00 1.657534e+00 3.692592e+00 3.183262e+00 3.053630e+00 7.359086e+00 3.368977e+00 6.199100e+00 4.175109e+00 4.206815e+00 1.983124e+00 2.356608e+00 9.598059e-04 4.866575e-01 3.497479e-01 5.287756e-01 4.443080e-01 5.046512e-01 8.399994e-01 6.391175e-01 1.201975e+00 7.593238e-01 7.941777e-01 3.477747e-01 4.979924e-01 8.703391e-05
<GCONST> 1.060673e+02
<STATE> 9
<MEAN> 39
 -2.243940e-07 9.349748e-08 3.926894e-07 -5.422854e-07 2.150442e-07 1.495960e-07 -1.121970e-07 1.121970e-07 2.337437e-07 2.056945e-07 -1.542709e-07 1.355714e-07 7.386354e-01 2.393519e-02 -2.166694e-01 -4.400710e-01 3.922505e-01 3.127790e-01 9.750106e-02 2.830525e-02 -9.097029e-02 -1.423796e-03 -4.658864e-01 1.810670e-01 1.996483e-01 -3.089646e-03 4.834153e-02 2.511969e-02 2.702629e-02 2.708833e-02 -1.094773e-02 -6.309519e-02 -2.182668e-02 -3.074173e-02 2.283012e-02 9.609850e-02 5.406233e-02 -2.816028e-02 -1.467282e-03
<VARIANCE> 39
 2.175955e+01 2.758092e+01 7.114595e+01 6.630391e+01 7.355347e+01 7.968085e+01 6.201531e+01 6.748533e+01 6.066265e+01 3.571754e+01 3.043537e+01 3.609987e+01 2.162290e-02 2.827448e+00 1.657534e+00 3.692592e+00 3.183262e+00 3.053630e+00 7.359086e+00 3.368977e+00 6.199100e+00 4.175109e+00 4.206815e+00 1.983124e+00 2.356608e+00 9.598059e-04 4.866575e-01 3.497479e-01 5.287756e-01 4.443080e-01 5.046512e-01 8.399994e-01 6.391175e-01 1.201975e+00 7.593238e-01 7.941777e-01 3.477747e-01 4.979924e-01 8.703391e-05
<GCONST> 1.060673e+02
<TRANSP> 10
 0.000000e+00 1.000000e+00 0.000000e+00 0.000000e+00 0.000000e+00 0.000000e+00 0.000000e+00 0.000000e+00 0.000000e+00 0.000000e+00
 0.000000e+00 9.000000e-01 9.999999e-02 0.000000e+00 0.000000e+00 0.000000e+00 0.000000e+00 0.000000e+00 0.000000e+00 0.000000e+00
 0.000000e+00 0.000000e+00 9.000000e-01 9.999999e-02 0.000000e+00 0.000000e+00 0.000000e+00 0.000000e+00 0.000000e+00 0.000000e+00
 0.000000e+00 0.000000e+00 0.000000e+00 9.000000e-01 9.999999e-02 0.000000e+00 0.000000e+00 0.000000e+00 0.000000e+00 0.000000e+00
 0.000000e+00 0.000000e+00 0.000000e+00 0.000000e+00 9.000000e-01 9.999999e-02 0.000000e+00 0.000000e+00 0.000000e+00 0.000000e+00
 0.000000e+00 0.000000e+00 0.000000e+00 0.000000e+00 0.000000e+00 9.000000e-01 9.999999e-02 0.000000e+00 0.000000e+00 0.000000e+00
 0.000000e+00 0.000000e+00 0.000000e+00 0.000000e+00 0.000000e+00 0.000000e+00 9.000000e-01 9.999999e-02 0.000000e+00 0.000000e+00
 0.000000e+00 0.000000e+00 0.000000e+00 0.000000e+00 0.000000e+00 0.000000e+00 0.000000e+00 9.000000e-01 9.999999e-02 0.000000e+00
 0.000000e+00 0.000000e+00 0.000000e+00 0.000000e+00 0.000000e+00 0.000000e+00 0.000000e+00 0.000000e+00 9.000000e-01 9.999999e-02
 0.000000e+00 0.000000e+00 0.000000e+00 0.000000e+00 0.000000e+00 0.000000e+00 0.000000e+00 0.000000e+00 0.000000e+00 0.000000e+00
<ENDHMM>
