~o
<STREAMINFO> 1 39
<VECSIZE> 39<NULLD><MFCC_E_D_A_Z><DIAGC>
~h "s040"
<BEGINHMM>
<NUMSTATES> 10
<STATE> 2
<MEAN> 39
 4.464007e-07 2.942187e-07 2.333458e-07 4.666917e-07 4.971281e-07 8.116377e-08 -4.261098e-07 8.116377e-08 2.739277e-07 -3.449460e-07 6.087283e-08 -5.072736e-08 8.829302e-01 4.391338e-01 -3.214813e-01 -2.119310e-01 1.054351e-01 -9.008993e-02 -3.304667e-01 5.429789e-02 -1.614674e-01 -5.634189e-02 1.970418e-01 -2.417870e-02 -5.351936e-02 3.647905e-03 -6.162605e-02 9.354985e-04 2.609600e-02 1.683474e-01 1.351956e-01 6.353737e-02 1.048174e-01 -9.639877e-02 -1.063388e-01 4.130163e-02 1.689349e-02 -1.191545e-02 -3.155268e-03
<VARIANCE> 39
 2.593465e+01 5.477582e+01 3.238704e+01 6.107286e+01 2.198390e+01 3.480479e+01 2.503816e+01 1.453400e+01 7.975607e+01 3.229637e+01 2.858162e+01 3.456911e+01 1.739066e-02 1.686032e+00 3.475150e+00 2.302425e+00 5.613646e+00 3.696462e+00 3.246600e+00 3.335991e+00 2.134104e+00 1.035636e+01 4.652195e+00 3.096163e+00 3.592679e+00 2.420456e-03 3.220645e-01 4.070762e-01 3.392937e-01 8.477020e-01 5.146739e-01 6.721815e-01 6.196428e-01 3.640110e-01 1.922033e+00 8.146269e-01 5.565400e-01 6.671350e-01 3.036927e-04
<GCONST> 1.043254e+02
<STATE> 3
<MEAN> 39
 4.464007e-07 2.942187e-07 2.333458e-07 4.666917e-07 4.971281e-07 8.116377e-08 -4.261098e-07 8.116377e-08 2.739277e-07 -3.449460e-07 6.087283e-08 -5.072736e-08 8.829302e-01 4.391338e-01 -3.214813e-01 -2.119310e-01 1.054351e-01 -9.008993e-02 -3.304667e-01 5.429789e-02 -1.614674e-01 -5.634189e-02 1.970418e-01 -2.417870e-02 -5.351936e-02 3.647905e-03 -6.162605e-02 9.354985e-04 2.609600e-02 1.683474e-01 1.351956e-01 6.353737e-02 1.048174e-01 -9.639877e-02 -1.063388e-01 4.130163e-02 1.689349e-02 -1.191545e-02 -3.155268e-03
<VARIANCE> 39
 2.593465e+01 5.477582e+01 3.238704e+01 6.107286e+01 2.198390e+01 3.480479e+01 2.503816e+01 1.453400e+01 7.975607e+01 3.229637e+01 2.858162e+01 3.456911e+01 1.739066e-02 1.686032e+00 3.475150e+00 2.302425e+00 5.613646e+00 3.696462e+00 3.246600e+00 3.335991e+00 2.134104e+00 1.035636e+01 4.652195e+00 3.096163e+00 3.592679e+00 2.420456e-03 3.220645e-01 4.070762e-01 3.392937e-01 8.477020e-01 5.146739e-01 6.721815e-01 6.196428e-01 3.640110e-01 1.922033e+00 8.146269e-01 5.565400e-01 6.671350e-01 3.036927e-04
<GCONST> 1.043254e+02
<STATE> 4
<MEAN> 39
 4.464007e-07 2.942187e-07 2.333458e-07 4.666917e-07 4.971281e-07 8.116377e-08 -4.261098e-07 8.116377e-08 2.739277e-07 -3.449460e-07 6.087283e-08 -5.072736e-08 8.829302e-01 4.391338e-01 -3.214813e-01 -2.119310e-01 1.054351e-01 -9.008993e-02 -3.304667e-01 5.429789e-02 -1.614674e-01 -5.634189e-02 1.970418e-01 -2.417870e-02 -5.351936e-02 3.647905e-03 -6.162605e-02 9.354985e-04 2.609600e-02 1.683474e-01 1.351956e-01 6.353737e-02 1.048174e-01 -9.639877e-02 -1.063388e-01 4.130163e-02 1.689349e-02 -1.191545e-02 -3.155268e-03
<VARIANCE> 39
 2.593465e+01 5.477582e+01 3.238704e+01 6.107286e+01 2.198390e+01 3.480479e+01 2.503816e+01 1.453400e+01 7.975607e+01 3.229637e+01 2.858162e+01 3.456911e+01 1.739066e-02 1.686032e+00 3.475150e+00 2.302425e+00 5.613646e+00 3.696462e+00 3.246600e+00 3.335991e+00 2.134104e+00 1.035636e+01 4.652195e+00 3.096163e+00 3.592679e+00 2.420456e-03 3.220645e-01 4.070762e-01 3.392937e-01 8.477020e-01 5.146739e-01 6.721815e-01 6.196428e-01 3.640110e-01 1.922033e+00 8.146269e-01 5.565400e-01 6.671350e-01 3.036927e-04
<GCONST> 1.043254e+02
<STATE> 5
<MEAN> 39
 4.464007e-07 2.942187e-07 2.333458e-07 4.666917e-07 4.971281e-07 8.116377e-08 -4.261098e-07 8.116377e-08 2.739277e-07 -3.449460e-07 6.087283e-08 -5.072736e-08 8.829302e-01 4.391338e-01 -3.214813e-01 -2.119310e-01 1.054351e-01 -9.008993e-02 -3.304667e-01 5.429789e-02 -1.614674e-01 -5.634189e-02 1.970418e-01 -2.417870e-02 -5.351936e-02 3.647905e-03 -6.162605e-02 9.354985e-04 2.609600e-02 1.683474e-01 1.351956e-01 6.353737e-02 1.048174e-01 -9.639877e-02 -1.063388e-01 4.130163e-02 1.689349e-02 -1.191545e-02 -3.155268e-03
<VARIANCE> 39
 2.593465e+01 5.477582e+01 3.238704e+01 6.107286e+01 2.198390e+01 3.480479e+01 2.503816e+01 1.453400e+01 7.975607e+01 3.229637e+01 2.858162e+01 3.456911e+01 1.739066e-02 1.686032e+00 3.475150e+00 2.302425e+00 5.613646e+00 3.696462e+00 3.246600e+00 3.335991e+00 2.134104e+00 1.035636e+01 4.652195e+00 3.096163e+00 3.592679e+00 2.420456e-03 3.220645e-01 4.070762e-01 3.392937e-01 8.477020e-01 5.146739e-01 6.721815e-01 6.196428e-01 3.640110e-01 1.922033e+00 8.146269e-01 5.565400e-01 6.671350e-01 3.036927e-04
<GCONST> 1.043254e+02
<STATE> 6
<MEAN> 39
 4.464007e-07 2.942187e-07 2.333458e-07 4.666917e-07 4.971281e-07 8.116377e-08 -4.261098e-07 8.116377e-08 2.739277e-07 -3.449460e-07 6.087283e-08 -5.072736e-08 8.829302e-01 4.391338e-01 -3.214813e-01 -2.119310e-01 1.054351e-01 -9.008993e-02 -3.304667e-01 5.429789e-02 -1.614674e-01 -5.634189e-02 1.970418e-01 -2.417870e-02 -5.351936e-02 3.647905e-03 -6.162605e-02 9.354985e-04 2.609600e-02 1.683474e-01 1.351956e-01 6.353737e-02 1.048174e-01 -9.639877e-02 -1.063388e-01 4.130163e-02 1.689349e-02 -1.191545e-02 -3.155268e-03
<VARIANCE> 39
 2.593465e+01 5.477582e+01 3.238704e+01 6.107286e+01 2.198390e+01 3.480479e+01 2.503816e+01 1.453400e+01 7.975607e+01 3.229637e+01 2.858162e+01 3.456911e+01 1.739066e-02 1.686032e+00 3.475150e+00 2.302425e+00 5.613646e+00 3.696462e+00 3.246600e+00 3.335991e+00 2.134104e+00 1.035636e+01 4.652195e+00 3.096163e+00 3.592679e+00 2.420456e-03 3.220645e-01 4.070762e-01 3.392937e-01 8.477020e-01 5.146739e-01 6.721815e-01 6.196428e-01 3.640110e-01 1.922033e+00 8.146269e-01 5.565400e-01 6.671350e-01 3.036927e-04
<GCONST> 1.043254e+02
<STATE> 7
<MEAN> 39
 4.464007e-07 2.942187e-07 2.333458e-07 4.666917e-07 4.971281e-07 8.116377e-08 -4.261098e-07 8.116377e-08 2.739277e-07 -3.449460e-07 6.087283e-08 -5.072736e-08 8.829302e-01 4.391338e-01 -3.214813e-01 -2.119310e-01 1.054351e-01 -9.008993e-02 -3.304667e-01 5.429789e-02 -1.614674e-01 -5.634189e-02 1.970418e-01 -2.417870e-02 -5.351936e-02 3.647905e-03 -6.162605e-02 9.354985e-04 2.609600e-02 1.683474e-01 1.351956e-01 6.353737e-02 1.048174e-01 -9.639877e-02 -1.063388e-01 4.130163e-02 1.689349e-02 -1.191545e-02 -3.155268e-03
<VARIANCE> 39
 2.593465e+01 5.477582e+01 3.238704e+01 6.107286e+01 2.198390e+01 3.480479e+01 2.503816e+01 1.453400e+01 7.975607e+01 3.229637e+01 2.858162e+01 3.456911e+01 1.739066e-02 1.686032e+00 3.475150e+00 2.302425e+00 5.613646e+00 3.696462e+00 3.246600e+00 3.335991e+00 2.134104e+00 1.035636e+01 4.652195e+00 3.096163e+00 3.592679e+00 2.420456e-03 3.220645e-01 4.070762e-01 3.392937e-01 8.477020e-01 5.146739e-01 6.721815e-01 6.196428e-01 3.640110e-01 1.922033e+00 8.146269e-01 5.565400e-01 6.671350e-01 3.036927e-04
<GCONST> 1.043254e+02
<STATE> 8
<MEAN> 39
 4.464007e-07 2.942187e-07 2.333458e-07 4.666917e-07 4.971281e-07 8.116377e-08 -4.261098e-07 8.116377e-08 2.739277e-07 -3.449460e-07 6.087283e-08 -5.072736e-08 8.829302e-01 4.391338e-01 -3.214813e-01 -2.119310e-01 1.054351e-01 -9.008993e-02 -3.304667e-01 5.429789e-02 -1.614674e-01 -5.634189e-02 1.970418e-01 -2.417870e-02 -5.351936e-02 3.647905e-03 -6.162605e-02 9.354985e-04 2.609600e-02 1.683474e-01 1.351956e-01 6.353737e-02 1.048174e-01 -9.639877e-02 -1.063388e-01 4.130163e-02 1.689349e-02 -1.191545e-02 -3.155268e-03
<VARIANCE> 39
 2.593465e+01 5.477582e+01 3.238704e+01 6.107286e+01 2.198390e+01 3.480479e+01 2.503816e+01 1.453400e+01 7.975607e+01 3.229637e+01 2.858162e+01 3.456911e+01 1.739066e-02 1.686032e+00 3.475150e+00 2.302425e+00 5.613646e+00 3.696462e+00 3.246600e+00 3.335991e+00 2.134104e+00 1.035636e+01 4.652195e+00 3.096163e+00 3.592679e+00 2.420456e-03 3.220645e-01 4.070762e-01 3.392937e-01 8.477020e-01 5.146739e-01 6.721815e-01 6.196428e-01 3.640110e-01 1.922033e+00 8.146269e-01 5.565400e-01 6.671350e-01 3.036927e-04
<GCONST> 1.043254e+02
<STATE> 9
<MEAN> 39
 4.464007e-07 2.942187e-07 2.333458e-07 4.666917e-07 4.971281e-07 8.116377e-08 -4.261098e-07 8.116377e-08 2.739277e-07 -3.449460e-07 6.087283e-08 -5.072736e-08 8.829302e-01 4.391338e-01 -3.214813e-01 -2.119310e-01 1.054351e-01 -9.008993e-02 -3.304667e-01 5.429789e-02 -1.614674e-01 -5.634189e-02 1.970418e-01 -2.417870e-02 -5.351936e-02 3.647905e-03 -6.162605e-02 9.354985e-04 2.609600e-02 1.683474e-01 1.351956e-01 6.353737e-02 1.048174e-01 -9.639877e-02 -1.063388e-01 4.130163e-02 1.689349e-02 -1.191545e-02 -3.155268e-03
<VARIANCE> 39
 2.593465e+01 5.477582e+01 3.238704e+01 6.107286e+01 2.198390e+01 3.480479e+01 2.503816e+01 1.453400e+01 7.975607e+01 3.229637e+01 2.858162e+01 3.456911e+01 1.739066e-02 1.686032e+00 3.475150e+00 2.302425e+00 5.613646e+00 3.696462e+00 3.246600e+00 3.335991e+00 2.134104e+00 1.035636e+01 4.652195e+00 3.096163e+00 3.592679e+00 2.420456e-03 3.220645e-01 4.070762e-01 3.392937e-01 8.477020e-01 5.146739e-01 6.721815e-01 6.196428e-01 3.640110e-01 1.922033e+00 8.146269e-01 5.565400e-01 6.671350e-01 3.036927e-04
<GCONST> 1.043254e+02
<TRANSP> 10
 0.000000e+00 1.000000e+00 0.000000e+00 0.000000e+00 0.000000e+00 0.000000e+00 0.000000e+00 0.000000e+00 0.000000e+00 0.000000e+00
 0.000000e+00 9.000000e-01 9.999999e-02 0.000000e+00 0.000000e+00 0.000000e+00 0.000000e+00 0.000000e+00 0.000000e+00 0.000000e+00
 0.000000e+00 0.000000e+00 9.000000e-01 9.999999e-02 0.000000e+00 0.000000e+00 0.000000e+00 0.000000e+00 0.000000e+00 0.000000e+00
 0.000000e+00 0.000000e+00 0.000000e+00 9.000000e-01 9.999999e-02 0.000000e+00 0.000000e+00 0.000000e+00 0.000000e+00 0.000000e+00
 0.000000e+00 0.000000e+00 0.000000e+00 0.000000e+00 9.000000e-01 9.999999e-02 0.000000e+00 0.000000e+00 0.000000e+00 0.000000e+00
 0.000000e+00 0.000000e+00 0.000000e+00 0.000000e+00 0.000000e+00 9.000000e-01 9.999999e-02 0.000000e+00 0.000000e+00 0.000000e+00
 0.000000e+00 0.000000e+00 0.000000e+00 0.000000e+00 0.000000e+00 0.000000e+00 9.000000e-01 9.999999e-02 0.000000e+00 0.000000e+00
 0.000000e+00 0.000000e+00 0.000000e+00 0.000000e+00 0.000000e+00 0.000000e+00 0.000000e+00 9.000000e-01 9.999999e-02 0.000000e+00
 0.000000e+00 0.000000e+00 0.000000e+00 0.000000e+00 0.000000e+00 0.000000e+00 0.000000e+00 0.000000e+00 9.000000e-01 9.999999e-02
 0.000000e+00 0.000000e+00 0.000000e+00 0.000000e+00 0.000000e+00 0.000000e+00 0.000000e+00 0.000000e+00 0.000000e+00 0.000000e+00
<ENDHMM>
