~o
<STREAMINFO> 1 39
<VECSIZE> 39<NULLD><MFCC_E_D_A_Z><DIAGC>
~h "s042"
<BEGINHMM>
<NUMSTATES> 10
<STATE> 2
<MEAN> 39
 -6.185387e-08 4.498464e-08 0.000000e+00 2.879017e-07 3.598771e-07 1.079631e-07 -4.318525e-07 3.238894e-07 -4.498464e-09 5.398157e-08 0.000000e+00 -9.896620e-08 7.382240e-01 1.351162e-01 4.175281e-03 -2.098494e-01 1.323465e-01 1.649909e-01 1.982852e-01 -1.520377e-01 -2.120426e-01 -2.069994e-01 -9.905191e-02 -2.203813e-01 1.814437e-01 -2.627615e-03 4.077065e-02 1.446697e-03 -6.125981e-02 -1.076276e-03 -2.794386e-02 -6.438490e-02 3.510395e-03 3.240852e-02 7.256327e-02 7.445975e-02 8.147296e-02 4.712852e-02 -2.860217e-04
<VARIANCE> 39
 3.043468e+01 2.161084e+01 9.507635e+01 4.171066e+01 8.565253e+01 1.027881e+02 2.280825e+01 4.061189e+01 5.230030e+01 3.065375e+01 3.573853e+01 3.796327e+01 3.515895e-02 2.953856e+00 1.845267e+00 4.929412e+00 3.519737e+00 2.642004e+00 6.215396e+00 2.146879e+00 4.311012e+00 5.459649e+00 6.202313e+00 3.898198e+00 3.504543e+00 1.855866e-03 5.452405e-01 2.960297e-01 6.322430e-01 6.863951e-01 2.440436e-01 1.099516e+00 3.861544e-01 7.862118e-01 5.525501e-01 1.536086e+00 5.692300e-01 5.214571e-01 1.698116e-04
<GCONST> 1.078053e+02
<STATE> 3
<MEAN> 39
 -6.185387e-08 4.498464e-08 0.000000e+00 2.879017e-07 3.598771e-07 1.079631e-07 -4.318525e-07 3.238894e-07 -4.498464e-09 5.398157e-08 0.000000e+00 -9.896620e-08 7.382240e-01 1.351162e-01 4.175281e-03 -2.098494e-01 1.323465e-01 1.649909e-01 1.982852e-01 -1.520377e-01 -2.120426e-01 -2.069994e-01 -9.905191e-02 -2.203813e-01 1.814437e-01 -2.627615e-03 4.077065e-02 1.446697e-03 -6.125981e-02 -1.076276e-03 -2.794386e-02 -6.438490e-02 3.510395e-03 3.240852e-02 7.256327e-02 7.445975e-02 8.147296e-02 4.712852e-02 -2.860217e-04
<VARIANCE> 39
 3.043468e+01 2.161084e+01 9.507635e+01 4.171066e+01 8.565253e+01 1.027881e+02 2.280825e+01 4.061189e+01 5.230030e+01 3.065375e+01 3.573853e+01 3.796327e+01 3.515895e-02 2.953856e+00 1.845267e+00 4.929412e+00 3.519737e+00 2.642004e+00 6.215396e+00 2.146879e+00 4.311012e+00 5.459649e+00 6.202313e+00 3.898198e+00 3.504543e+00 1.855866e-03 5.452405e-01 2.960297e-01 6.322430e-01 6.863951e-01 2.440436e-01 1.099516e+00 3.861544e-01 7.862118e-01 5.525501e-01 1.536086e+00 5.692300e-01 5.214571e-01 1.698116e-04
<GCONST> 1.078053e+02
<STATE> 4
<MEAN> 39
 -6.185387e-08 4.498464e-08 0.000000e+00 2.879017e-07 3.598771e-07 1.079631e-07 -4.318525e-07 3.238894e-07 -4.498464e-09 5.398157e-08 0.000000e+00 -9.896620e-08 7.382240e-01 1.351162e-01 4.175281e-03 -2.098494e-01 1.323465e-01 1.649909e-01 1.982852e-01 -1.520377e-01 -2.120426e-01 -2.069994e-01 -9.905191e-02 -2.203813e-01 1.814437e-01 -2.627615e-03 4.077065e-02 1.446697e-03 -6.125981e-02 -1.076276e-03 -2.794386e-02 -6.438490e-02 3.510395e-03 3.240852e-02 7.256327e-02 7.445975e-02 8.147296e-02 4.712852e-02 -2.860217e-04
<VARIANCE> 39
 3.043468e+01 2.161084e+01 9.507635e+01 4.171066e+01 8.565253e+01 1.027881e+02 2.280825e+01 4.061189e+01 5.230030e+01 3.065375e+01 3.573853e+01 3.796327e+01 3.515895e-02 2.953856e+00 1.845267e+00 4.929412e+00 3.519737e+00 2.642004e+00 6.215396e+00 2.146879e+00 4.311012e+00 5.459649e+00 6.202313e+00 3.898198e+00 3.504543e+00 1.855866e-03 5.452405e-01 2.960297e-01 6.322430e-01 6.863951e-01 2.440436e-01 1.099516e+00 3.861544e-01 7.862118e-01 5.525501e-01 1.536086e+00 5.692300e-01 5.214571e-01 1.698116e-04
<GCONST> 1.078053e+02
<STATE> 5
<MEAN> 39
 -6.185387e-08 4.498464e-08 0.000000e+00 2.879017e-07 3.598771e-07 1.079631e-07 -4.318525e-07 3.238894e-07 -4.498464e-09 5.398157e-08 0.000000e+00 -9.896620e-08 7.382240e-01 1.351162e-01 4.175281e-03 -2.098494e-01 1.323465e-01 1.649909e-01 1.982852e-01 -1.520377e-01 -2.120426e-01 -2.069994e-01 -9.905191e-02 -2.203813e-01 1.814437e-01 -2.627615e-03 4.077065e-02 1.446697e-03 -6.125981e-02 -1.076276e-03 -2.794386e-02 -6.438490e-02 3.510395e-03 3.240852e-02 7.256327e-02 7.445975e-02 8.147296e-02 4.712852e-02 -2.860217e-04
<VARIANCE> 39
 3.043468e+01 2.161084e+01 9.507635e+01 4.171066e+01 8.565253e+01 1.027881e+02 2.280825e+01 4.061189e+01 5.230030e+01 3.065375e+01 3.573853e+01 3.796327e+01 3.515895e-02 2.953856e+00 1.845267e+00 4.929412e+00 3.519737e+00 2.642004e+00 6.215396e+00 2.146879e+00 4.311012e+00 5.459649e+00 6.202313e+00 3.898198e+00 3.504543e+00 1.855866e-03 5.452405e-01 2.960297e-01 6.322430e-01 6.863951e-01 2.440436e-01 1.099516e+00 3.861544e-01 7.862118e-01 5.525501e-01 1.536086e+00 5.692300e-01 5.214571e-01 1.698116e-04
<GCONST> 1.078053e+02
<STATE> 6
<MEAN> 39
 -6.185387e-08 4.498464e-08 0.000000e+00 2.879017e-07 3.598771e-07 1.079631e-07 -4.318525e-07 3.238894e-07 -4.498464e-09 5.398157e-08 0.000000e+00 -9.896620e-08 7.382240e-01 1.351162e-01 4.175281e-03 -2.098494e-01 1.323465e-01 1.649909e-01 1.982852e-01 -1.520377e-01 -2.120426e-01 -2.069994e-01 -9.905191e-02 -2.203813e-01 1.814437e-01 -2.627615e-03 4.077065e-02 1.446697e-03 -6.125981e-02 -1.076276e-03 -2.794386e-02 -6.438490e-02 3.510395e-03 3.240852e-02 7.256327e-02 7.445975e-02 8.147296e-02 4.712852e-02 -2.860217e-04
<VARIANCE> 39
 3.043468e+01 2.161084e+01 9.507635e+01 4.171066e+01 8.565253e+01 1.027881e+02 2.280825e+01 4.061189e+01 5.230030e+01 3.065375e+01 3.573853e+01 3.796327e+01 3.515895e-02 2.953856e+00 1.845267e+00 4.929412e+00 3.519737e+00 2.642004e+00 6.215396e+00 2.146879e+00 4.311012e+00 5.459649e+00 6.202313e+00 3.898198e+00 3.504543e+00 1.855866e-03 5.452405e-01 2.960297e-01 6.322430e-01 6.863951e-01 2.440436e-01 1.099516e+00 3.861544e-01 7.862118e-01 5.525501e-01 1.536086e+00 5.692300e-01 5.214571e-01 1.698116e-04
<GCONST> 1.078053e+02
<STATE> 7
<MEAN> 39
 -6.185387e-08 4.498464e-08 0.000000e+00 2.879017e-07 3.598771e-07 1.079631e-07 -4.318525e-07 3.238894e-07 -4.498464e-09 5.398157e-08 0.000000e+00 -9.896620e-08 7.382240e-01 1.351162e-01 4.175281e-03 -2.098494e-01 1.323465e-01 1.649909e-01 1.982852e-01 -1.520377e-01 -2.120426e-01 -2.069994e-01 -9.905191e-02 -2.203813e-01 1.814437e-01 -2.627615e-03 4.077065e-02 1.446697e-03 -6.125981e-02 -1.076276e-03 -2.794386e-02 -6.438490e-02 3.510395e-03 3.240852e-02 7.256327e-02 7.445975e-02 8.147296e-02 4.712852e-02 -2.860217e-04
<VARIANCE> 39
 3.043468e+01 2.161084e+01 9.507635e+01 4.171066e+01 8.565253e+01 1.027881e+02 2.280825e+01 4.061189e+01 5.230030e+01 3.065375e+01 3.573853e+01 3.796327e+01 3.515895e-02 2.953856e+00 1.845267e+00 4.929412e+00 3.519737e+00 2.642004e+00 6.215396e+00 2.146879e+00 4.311012e+00 5.459649e+00 6.202313e+00 3.898198e+00 3.504543e+00 1.855866e-03 5.452405e-01 2.960297e-01 6.322430e-01 6.863951e-01 2.440436e-01 1.099516e+00 3.861544e-01 7.862118e-01 5.525501e-01 1.536086e+00 5.692300e-01 5.214571e-01 1.698116e-04
<GCONST> 1.078053e+02
<STATE> 8
<MEAN> 39
 -6.185387e-08 4.498464e-08 0.000000e+00 2.879017e-07 3.598771e-07 1.079631e-07 -4.318525e-07 3.238894e-07 -4.498464e-09 5.398157e-08 0.000000e+00 -9.896620e-08 7.382240e-01 1.351162e-01 4.175281e-03 -2.098494e-01 1.323465e-01 1.649909e-01 1.982852e-01 -1.520377e-01 -2.120426e-01 -2.069994e-01 -9.905191e-02 -2.203813e-01 1.814437e-01 -2.627615e-03 4.077065e-02 1.446697e-03 -6.125981e-02 -1.076276e-03 -2.794386e-02 -6.438490e-02 3.510395e-03 3.240852e-02 7.256327e-02 7.445975e-02 8.147296e-02 4.712852e-02 -2.860217e-04
<VARIANCE> 39
 3.043468e+01 2.161084e+01 9.507635e+01 4.171066e+01 8.565253e+01 1.027881e+02 2.280825e+01 4.061189e+01 5.230030e+01 3.065375e+01 3.573853e+01 3.796327e+01 3.515895e-02 2.953856e+00 1.845267e+00 4.929412e+00 3.519737e+00 2.642004e+00 6.215396e+00 2.146879e+00 4.311012e+00 5.459649e+00 6.202313e+00 3.898198e+00 3.504543e+00 1.855866e-03 5.452405e-01 2.960297e-01 6.322430e-01 6.863951e-01 2.440436e-01 1.099516e+00 3.861544e-01 7.862118e-01 5.525501e-01 1.536086e+00 5.692300e-01 5.214571e-01 1.698116e-04
<GCONST> 1.078053e+02
<STATE> 9
<MEAN> 39
 -6.185387e-08 4.498464e-08 0.000000e+00 2.879017e-07 3.598771e-07 1.079631e-07 -4.318525e-07 3.238894e-07 -4.498464e-09 5.398157e-08 0.000000e+00 -9.896620e-08 7.382240e-01 1.351162e-01 4.175281e-03 -2.098494e-01 1.323465e-01 1.649909e-01 1.982852e-01 -1.520377e-01 -2.120426e-01 -2.069994e-01 -9.905191e-02 -2.203813e-01 1.814437e-01 -2.627615e-03 4.077065e-02 1.446697e-03 -6.125981e-02 -1.076276e-03 -2.794386e-02 -6.438490e-02 3.510395e-03 3.240852e-02 7.256327e-02 7.445975e-02 8.147296e-02 4.712852e-02 -2.860217e-04
<VARIANCE> 39
 3.043468e+01 2.161084e+01 9.507635e+01 4.171066e+01 8.565253e+01 1.027881e+02 2.280825e+01 4.061189e+01 5.230030e+01 3.065375e+01 3.573853e+01 3.796327e+01 3.515895e-02 2.953856e+00 1.845267e+00 4.929412e+00 3.519737e+00 2.642004e+00 6.215396e+00 2.146879e+00 4.311012e+00 5.459649e+00 6.202313e+00 3.898198e+00 3.504543e+00 1.855866e-03 5.452405e-01 2.960297e-01 6.322430e-01 6.863951e-01 2.440436e-01 1.099516e+00 3.861544e-01 7.862118e-01 5.525501e-01 1.536086e+00 5.692300e-01 5.214571e-01 1.698116e-04
<GCONST> 1.078053e+02
<TRANSP> 10
 0.000000e+00 1.000000e+00 0.000000e+00 0.000000e+00 0.000000e+00 0.000000e+00 0.000000e+00 0.000000e+00 0.000000e+00 0.000000e+00
 0.000000e+00 9.000000e-01 9.999999e-02 0.000000e+00 0.000000e+00 0.000000e+00 0.000000e+00 0.000000e+00 0.000000e+00 0.000000e+00
 0.000000e+00 0.000000e+00 9.000000e-01 9.999999e-02 0.000000e+00 0.000000e+00 0.000000e+00 0.000000e+00 0.000000e+00 0.000000e+00
 0.000000e+00 0.000000e+00 0.000000e+00 9.000000e-01 9.999999e-02 0.000000e+00 0.000000e+00 0.000000e+00 0.000000e+00 0.000000e+00
 0.000000e+00 0.000000e+00 0.000000e+00 0.000000e+00 9.000000e-01 9.999999e-02 0.000000e+00 0.000000e+00 0.000000e+00 0.000000e+00
 0.000000e+00 0.000000e+00 0.000000e+00 0.000000e+00 0.000000e+00 9.000000e-01 9.999999e-02 0.000000e+00 0.000000e+00 0.000000e+00
 0.000000e+00 0.000000e+00 0.000000e+00 0.000000e+00 0.000000e+00 0.000000e+00 9.000000e-01 9.999999e-02 0.000000e+00 0.000000e+00
 0.000000e+00 0.000000e+00 0.000000e+00 0.000000e+00 0.000000e+00 0.000000e+00 0.000000e+00 9.000000e-01 9.999999e-02 0.000000e+00
 0.000000e+00 0.000000e+00 0.000000e+00 0.000000e+00 0.000000e+00 0.000000e+00 0.000000e+00 0.000000e+00 9.000000e-01 9.999999e-02
 0.000000e+00 0.000000e+00 0.000000e+00 0.000000e+00 0.000000e+00 0.000000e+00 0.000000e+00 0.000000e+00 0.000000e+00 0.000000e+00
<ENDHMM>
