~o
<STREAMINFO> 1 39
<VECSIZE> 39<NULLD><MFCC_E_D_A_Z><DIAGC>
~h "s044"
<BEGINHMM>
<NUMSTATES> 10
<STATE> 2
<MEAN> 39
 -3.150531e-07 3.405980e-07 1.362392e-07 -8.514949e-08 2.299036e-07 -6.811960e-07 5.108969e-07 4.768372e-07 1.362392e-07 6.811960e-08 3.746578e-07 -2.384186e-07 8.096504e-01 1.124227e-02 -1.848166e-01 1.026360e-02 1.134530e-01 2.637718e-01 1.907794e-01 5.338786e-02 -1.111354e-01 1.303857e-01 1.992743e-01 1.164237e-01 2.719106e-01 -3.743580e-03 -3.703181e-04 -4.407886e-02 1.199481e-02 3.625301e-02 2.322544e-02 2.618267e-03 -2.944122e-02 -5.470920e-02 6.209061e-02 4.804326e-02 2.277572e-02 -1.978179e-03 -1.231528e-03
<VARIANCE> 39
 3.808683e+01 5.518504e+01 1.100296e+01 3.228256e+01 5.463801e+01 3.727471e+01 3.129799e+01 5.371341e+01 6.572219e+01 2.815794e+01 5.399739e+01 4.526562e+01 2.224028e-02 1.244928e+00 1.621662e+00 1.295749e+00 2.022062e+00 3.454327e+00 3.245035e+00 1.629374e+00 2.352679e+00 4.178379e+00 1.657954e+00 4.888202e+00 2.254586e+00 1.212130e-03 1.293498e-01 1.690124e-01 2.267053e-01 2.879656e-01 5.508046e-01 5.910766e-01 2.479442e-01 3.341045e-01 6.570841e-01 2.624591e-01 9.041247e-01 3.384925e-01 8.742516e-05
<GCONST> 9.236033e+01
<STATE> 3
<MEAN> 39
 -3.150531e-07 3.405980e-07 1.362392e-07 -8.514949e-08 2.299036e-07 -6.811960e-07 5.108969e-07 4.768372e-07 1.362392e-07 6.811960e-08 3.746578e-07 -2.384186e-07 8.096504e-01 1.124227e-02 -1.848166e-01 1.026360e-02 1.134530e-01 2.637718e-01 1.907794e-01 5.338786e-02 -1.111354e-01 1.303857e-01 1.992743e-01 1.164237e-01 2.719106e-01 -3.743580e-03 -3.703181e-04 -4.407886e-02 1.199481e-02 3.625301e-02 2.322544e-02 2.618267e-03 -2.944122e-02 -5.470920e-02 6.209061e-02 4.804326e-02 2.277572e-02 -1.978179e-03 -1.231528e-03
<VARIANCE> 39
 3.808683e+01 5.518504e+01 1.100296e+01 3.228256e+01 5.463801e+01 3.727471e+01 3.129799e+01 5.371341e+01 6.572219e+01 2.815794e+01 5.399739e+01 4.526562e+01 2.224028e-02 1.244928e+00 1.621662e+00 1.295749e+00 2.022062e+00 3.454327e+00 3.245035e+00 1.629374e+00 2.352679e+00 4.178379e+00 1.657954e+00 4.888202e+00 2.254586e+00 1.212130e-03 1.293498e-01 1.690124e-01 2.267053e-01 2.879656e-01 5.508046e-01 5.910766e-01 2.479442e-01 3.341045e-01 6.570841e-01 2.624591e-01 9.041247e-01 3.384925e-01 8.742516e-05
<GCONST> 9.236033e+01
<STATE> 4
<MEAN> 39
 -3.150531e-07 3.405980e-07 1.362392e-07 -8.514949e-08 2.299036e-07 -6.811960e-07 5.108969e-07 4.768372e-07 1.362392e-07 6.811960e-08 3.746578e-07 -2.384186e-07 8.096504e-01 1.124227e-02 -1.848166e-01 1.026360e-02 1.134530e-01 2.637718e-01 1.907794e-01 5.338786e-02 -1.111354e-01 1.303857e-01 1.992743e-01 1.164237e-01 2.719106e-01 -3.743580e-03 -3.703181e-04 -4.407886e-02 1.199481e-02 3.625301e-02 2.322544e-02 2.618267e-03 -2.944122e-02 -5.470920e-02 6.209061e-02 4.804326e-02 2.277572e-02 -1.978179e-03 -1.231528e-03
<VARIANCE> 39
 3.808683e+01 5.518504e+01 1.100296e+01 3.228256e+01 5.463801e+01 3.727471e+01 3.129799e+01 5.371341e+01 6.572219e+01 2.815794e+01 5.399739e+01 4.526562e+01 2.224028e-02 1.244928e+00 1.621662e+00 1.295749e+00 2.022062e+00 3.454327e+00 3.245035e+00 1.629374e+00 2.352679e+00 4.178379e+00 1.657954e+00 4.888202e+00 2.254586e+00 1.212130e-03 1.293498e-01 1.690124e-01 2.267053e-01 2.879656e-01 5.508046e-01 5.910766e-01 2.479442e-01 3.341045e-01 6.570841e-01 2.624591e-01 9.041247e-01 3.384925e-01 8.742516e-05
<GCONST> 9.236033e+01
<STATE> 5
<MEAN> 39
 -3.150531e-07 3.405980e-07 1.362392e-07 -8.514949e-08 2.299036e-07 -6.811960e-07 5.108969e-07 4.768372e-07 1.362392e-07 6.811960e-08 3.746578e-07 -2.384186e-07 8.096504e-01 1.124227e-02 -1.848166e-01 1.026360e-02 1.134530e-01 2.637718e-01 1.907794e-01 5.338786e-02 -1.111354e-01 1.303857e-01 1.992743e-01 1.164237e-01 2.719106e-01 -3.743580e-03 -3.703181e-04 -4.407886e-02 1.199481e-02 3.625301e-02 2.322544e-02 2.618267e-03 -2.944122e-02 -5.470920e-02 6.209061e-02 4.804326e-02 2.277572e-02 -1.978179e-03 -1.231528e-03
<VARIANCE> 39
 3.808683e+01 5.518504e+01 1.100296e+01 3.228256e+01 5.463801e+01 3.727471e+01 3.129799e+01 5.371341e+01 6.572219e+01 2.815794e+01 5.399739e+01 4.526562e+01 2.224028e-02 1.244928e+00 1.621662e+00 1.295749e+00 2.022062e+00 3.454327e+00 3.245035e+00 1.629374e+00 2.352679e+00 4.178379e+00 1.657954e+00 4.888202e+00 2.254586e+00 1.212130e-03 1.293498e-01 1.690124e-01 2.267053e-01 2.879656e-01 5.508046e-01 5.910766e-01 2.479442e-01 3.341045e-01 6.570841e-01 2.624591e-01 9.041247e-01 3.384925e-01 8.742516e-05
<GCONST> 9.236033e+01
<STATE> 6
<MEAN> 39
 -3.150531e-07 3.405980e-07 1.362392e-07 -8.514949e-08 2.299036e-07 -6.811960e-07 5.108969e-07 4.768372e-07 1.362392e-07 6.811960e-08 3.746578e-07 -2.384186e-07 8.096504e-01 1.124227e-02 -1.848166e-01 1.026360e-02 1.134530e-01 2.637718e-01 1.907794e-01 5.338786e-02 -1.111354e-01 1.303857e-01 1.992743e-01 1.164237e-01 2.719106e-01 -3.743580e-03 -3.703181e-04 -4.407886e-02 1.199481e-02 3.625301e-02 2.322544e-02 2.618267e-03 -2.944122e-02 -5.470920e-02 6.209061e-02 4.804326e-02 2.277572e-02 -1.978179e-03 -1.231528e-03
<VARIANCE> 39
 3.808683e+01 5.518504e+01 1.100296e+01 3.228256e+01 5.463801e+01 3.727471e+01 3.129799e+01 5.371341e+01 6.572219e+01 2.815794e+01 5.399739e+01 4.526562e+01 2.224028e-02 1.244928e+00 1.621662e+00 1.295749e+00 2.022062e+00 3.454327e+00 3.245035e+00 1.629374e+00 2.352679e+00 4.178379e+00 1.657954e+00 4.888202e+00 2.254586e+00 1.212130e-03 1.293498e-01 1.690124e-01 2.267053e-01 2.879656e-01 5.508046e-01 5.910766e-01 2.479442e-01 3.341045e-01 6.570841e-01 2.624591e-01 9.041247e-01 3.384925e-01 8.742516e-05
<GCONST> 9.236033e+01
<STATE> 7
<MEAN> 39
 -3.150531e-07 3.405980e-07 1.362392e-07 -8.514949e-08 2.299036e-07 -6.811960e-07 5.108969e-07 4.768372e-07 1.362392e-07 6.811960e-08 3.746578e-07 -2.384186e-07 8.096504e-01 1.124227e-02 -1.848166e-01 1.026360e-02 1.134530e-01 2.637718e-01 1.907794e-01 5.338786e-02 -1.111354e-01 1.303857e-01 1.992743e-01 1.164237e-01 2.719106e-01 -3.743580e-03 -3.703181e-04 -4.407886e-02 1.199481e-02 3.625301e-02 2.322544e-02 2.618267e-03 -2.944122e-02 -5.470920e-02 6.209061e-02 4.804326e-02 2.277572e-02 -1.978179e-03 -1.231528e-03
<VARIANCE> 39
 3.808683e+01 5.518504e+01 1.100296e+01 3.228256e+01 5.463801e+01 3.727471e+01 3.129799e+01 5.371341e+01 6.572219e+01 2.815794e+01 5.399739e+01 4.526562e+01 2.224028e-02 1.244928e+00 1.621662e+00 1.295749e+00 2.022062e+00 3.454327e+00 3.245035e+00 1.629374e+00 2.352679e+00 4.178379e+00 1.657954e+00 4.888202e+00 2.254586e+00 1.212130e-03 1.293498e-01 1.690124e-01 2.267053e-01 2.879656e-01 5.508046e-01 5.910766e-01 2.479442e-01 3.341045e-01 6.570841e-01 2.624591e-01 9.041247e-01 3.384925e-01 8.742516e-05
<GCONST> 9.236033e+01
<STATE> 8
<MEAN> 39
 -3.150531e-07 3.405980e-07 1.362392e-07 -8.514949e-08 2.299036e-07 -6.811960e-07 5.108969e-07 4.768372e-07 1.362392e-07 6.811960e-08 3.746578e-07 -2.384186e-07 8.096504e-01 1.124227e-02 -1.848166e-01 1.026360e-02 1.134530e-01 2.637718e-01 1.907794e-01 5.338786e-02 -1.111354e-01 1.303857e-01 1.992743e-01 1.164237e-01 2.719106e-01 -3.743580e-03 -3.703181e-04 -4.407886e-02 1.199481e-02 3.625301e-02 2.322544e-02 2.618267e-03 -2.944122e-02 -5.470920e-02 6.209061e-02 4.804326e-02 2.277572e-02 -1.978179e-03 -1.231528e-03
<VARIANCE> 39
 3.808683e+01 5.518504e+01 1.100296e+01 3.228256e+01 5.463801e+01 3.727471e+01 3.129799e+01 5.371341e+01 6.572219e+01 2.815794e+01 5.399739e+01 4.526562e+01 2.224028e-02 1.244928e+00 1.621662e+00 1.295749e+00 2.022062e+00 3.454327e+00 3.245035e+00 1.629374e+00 2.352679e+00 4.178379e+00 1.657954e+00 4.888202e+00 2.254586e+00 1.212130e-03 1.293498e-01 1.690124e-01 2.267053e-01 2.879656e-01 5.508046e-01 5.910766e-01 2.479442e-01 3.341045e-01 6.570841e-01 2.624591e-01 9.041247e-01 3.384925e-01 8.742516e-05
<GCONST> 9.236033e+01
<STATE> 9
<MEAN> 39
 -3.150531e-07 3.405980e-07 1.362392e-07 -8.514949e-08 2.299036e-07 -6.811960e-07 5.108969e-07 4.768372e-07 1.362392e-07 6.811960e-08 3.746578e-07 -2.384186e-07 8.096504e-01 1.124227e-02 -1.848166e-01 1.026360e-02 1.134530e-01 2.637718e-01 1.907794e-01 5.338786e-02 -1.111354e-01 1.303857e-01 1.992743e-01 1.164237e-01 2.719106e-01 -3.743580e-03 -3.703181e-04 -4.407886e-02 1.199481e-02 3.625301e-02 2.322544e-02 2.618267e-03 -2.944122e-02 -5.470920e-02 6.209061e-02 4.804326e-02 2.277572e-02 -1.978179e-03 -1.231528e-03
<VARIANCE> 39
 3.808683e+01 5.518504e+01 1.100296e+01 3.228256e+01 5.463801e+01 3.727471e+01 3.129799e+01 5.371341e+01 6.572219e+01 2.815794e+01 5.399739e+01 4.526562e+01 2.224028e-02 1.244928e+00 1.621662e+00 1.295749e+00 2.022062e+00 3.454327e+00 3.245035e+00 1.629374e+00 2.352679e+00 4.178379e+00 1.657954e+00 4.888202e+00 2.254586e+00 1.212130e-03 1.293498e-01 1.690124e-01 2.267053e-01 2.879656e-01 5.508046e-01 5.910766e-01 2.479442e-01 3.341045e-01 6.570841e-01 2.624591e-01 9.041247e-01 3.384925e-01 8.742516e-05
<GCONST> 9.236033e+01
<TRANSP> 10
 0.000000e+00 1.000000e+00 0.000000e+00 0.000000e+00 0.000000e+00 0.000000e+00 0.000000e+00 0.000000e+00 0.000000e+00 0.000000e+00
 0.000000e+00 9.000000e-01 9.999999e-02 0.000000e+00 0.000000e+00 0.000000e+00 0.000000e+00 0.000000e+00 0.000000e+00 0.000000e+00
 0.000000e+00 0.000000e+00 9.000000e-01 9.999999e-02 0.000000e+00 0.000000e+00 0.000000e+00 0.000000e+00 0.000000e+00 0.000000e+00
 0.000000e+00 0.000000e+00 0.000000e+00 9.000000e-01 9.999999e-02 0.000000e+00 0.000000e+00 0.000000e+00 0.000000e+00 0.000000e+00
 0.000000e+00 0.000000e+00 0.000000e+00 0.000000e+00 9.000000e-01 9.999999e-02 0.000000e+00 0.000000e+00 0.000000e+00 0.000000e+00
 0.000000e+00 0.000000e+00 0.000000e+00 0.000000e+00 0.000000e+00 9.000000e-01 9.999999e-02 0.000000e+00 0.000000e+00 0.000000e+00
 0.000000e+00 0.000000e+00 0.000000e+00 0.000000e+00 0.000000e+00 0.000000e+00 9.000000e-01 9.999999e-02 0.000000e+00 0.000000e+00
 0.000000e+00 0.000000e+00 0.000000e+00 0.000000e+00 0.000000e+00 0.000000e+00 0.000000e+00 9.000000e-01 9.999999e-02 0.000000e+00
 0.000000e+00 0.000000e+00 0.000000e+00 0.000000e+00 0.000000e+00 0.000000e+00 0.000000e+00 0.000000e+00 9.000000e-01 9.999999e-02
 0.000000e+00 0.000000e+00 0.000000e+00 0.000000e+00 0.000000e+00 0.000000e+00 0.000000e+00 0.000000e+00 0.000000e+00 0.000000e+00
<ENDHMM>
