~o
<STREAMINFO> 1 39
<VECSIZE> 39<NULLD><MFCC_E_D_A_Z><DIAGC>
~h "s045"
<BEGINHMM>
<NUMSTATES> 10
<STATE> 2
<MEAN> 39
 1.497047e-07 -1.108924e-07 1.663385e-07 -1.241994e-06 -3.548556e-07 2.550524e-07 -3.104986e-07 -5.101049e-07 -2.217847e-08 -2.439632e-07 -1.996062e-07 1.663385e-07 7.818028e-01 -4.380830e-02 -4.128459e-02 6.049002e-02 -3.450802e-01 1.140295e-01 1.668468e-01 -4.273760e-01 4.002450e-01 1.499986e-01 2.767969e-01 3.264158e-02 -1.439195e-01 -3.244710e-04 -6.025468e-03 1.879522e-02 -1.084858e-02 -2.703598e-02 2.349345e-03 9.471455e-03 -5.926679e-02 -1.500325e-02 2.636370e-02 -1.223917e-02 -2.482168e-02 1.046468e-02 -3.150325e-04
<VARIANCE> 39
 2.742902e+01 5.626907e+01 3.865924e+01 1.156058e+02 3.077872e+01 3.294822e+01 1.572305e+02 9.509230e+01 2.427744e+01 3.109163e+01 2.349548e+01 1.720787e+01 1.318503e-02 7.656621e-01 2.085599e+00 1.281097e+00 3.807936e+00 2.786725e+00 3.211384e+00 3.674202e+00 3.332484e+00 3.340524e+00 5.322606e+00 2.171108e+00 2.850539e+00 4.377697e-04 4.547964e-02 1.496034e-01 1.552799e-01 4.717184e-01 4.562065e-01 5.915058e-01 5.774866e-01 4.774682e-01 6.797286e-01 1.410226e+00 4.076995e-01 5.718800e-01 3.388299e-05
<GCONST> 9.398138e+01
<STATE> 3
<MEAN> 39
 1.497047e-07 -1.108924e-07 1.663385e-07 -1.241994e-06 -3.548556e-07 2.550524e-07 -3.104986e-07 -5.101049e-07 -2.217847e-08 -2.439632e-07 -1.996062e-07 1.663385e-07 7.818028e-01 -4.380830e-02 -4.128459e-02 6.049002e-02 -3.450802e-01 1.140295e-01 1.668468e-01 -4.273760e-01 4.002450e-01 1.499986e-01 2.767969e-01 3.264158e-02 -1.439195e-01 -3.244710e-04 -6.025468e-03 1.879522e-02 -1.084858e-02 -2.703598e-02 2.349345e-03 9.471455e-03 -5.926679e-02 -1.500325e-02 2.636370e-02 -1.223917e-02 -2.482168e-02 1.046468e-02 -3.150325e-04
<VARIANCE> 39
 2.742902e+01 5.626907e+01 3.865924e+01 1.156058e+02 3.077872e+01 3.294822e+01 1.572305e+02 9.509230e+01 2.427744e+01 3.109163e+01 2.349548e+01 1.720787e+01 1.318503e-02 7.656621e-01 2.085599e+00 1.281097e+00 3.807936e+00 2.786725e+00 3.211384e+00 3.674202e+00 3.332484e+00 3.340524e+00 5.322606e+00 2.171108e+00 2.850539e+00 4.377697e-04 4.547964e-02 1.496034e-01 1.552799e-01 4.717184e-01 4.562065e-01 5.915058e-01 5.774866e-01 4.774682e-01 6.797286e-01 1.410226e+00 4.076995e-01 5.718800e-01 3.388299e-05
<GCONST> 9.398138e+01
<STATE> 4
<MEAN> 39
 1.497047e-07 -1.108924e-07 1.663385e-07 -1.241994e-06 -3.548556e-07 2.550524e-07 -3.104986e-07 -5.101049e-07 -2.217847e-08 -2.439632e-07 -1.996062e-07 1.663385e-07 7.818028e-01 -4.380830e-02 -4.128459e-02 6.049002e-02 -3.450802e-01 1.140295e-01 1.668468e-01 -4.273760e-01 4.002450e-01 1.499986e-01 2.767969e-01 3.264158e-02 -1.439195e-01 -3.244710e-04 -6.025468e-03 1.879522e-02 -1.084858e-02 -2.703598e-02 2.349345e-03 9.471455e-03 -5.926679e-02 -1.500325e-02 2.636370e-02 -1.223917e-02 -2.482168e-02 1.046468e-02 -3.150325e-04
<VARIANCE> 39
 2.742902e+01 5.626907e+01 3.865924e+01 1.156058e+02 3.077872e+01 3.294822e+01 1.572305e+02 9.509230e+01 2.427744e+01 3.109163e+01 2.349548e+01 1.720787e+01 1.318503e-02 7.656621e-01 2.085599e+00 1.281097e+00 3.807936e+00 2.786725e+00 3.211384e+00 3.674202e+00 3.332484e+00 3.340524e+00 5.322606e+00 2.171108e+00 2.850539e+00 4.377697e-04 4.547964e-02 1.496034e-01 1.552799e-01 4.717184e-01 4.562065e-01 5.915058e-01 5.774866e-01 4.774682e-01 6.797286e-01 1.410226e+00 4.076995e-01 5.718800e-01 3.388299e-05
<GCONST> 9.398138e+01
<STATE> 5
<MEAN> 39
 1.497047e-07 -1.108924e-07 1.663385e-07 -1.241994e-06 -3.548556e-07 2.550524e-07 -3.104986e-07 -5.101049e-07 -2.217847e-08 -2.439632e-07 -1.996062e-07 1.663385e-07 7.818028e-01 -4.380830e-02 -4.128459e-02 6.049002e-02 -3.450802e-01 1.140295e-01 1.668468e-01 -4.273760e-01 4.002450e-01 1.499986e-01 2.767969e-01 3.264158e-02 -1.439195e-01 -3.244710e-04 -6.025468e-03 1.879522e-02 -1.084858e-02 -2.703598e-02 2.349345e-03 9.471455e-03 -5.926679e-02 -1.500325e-02 2.636370e-02 -1.223917e-02 -2.482168e-02 1.046468e-02 -3.150325e-04
<VARIANCE> 39
 2.742902e+01 5.626907e+01 3.865924e+01 1.156058e+02 3.077872e+01 3.294822e+01 1.572305e+02 9.509230e+01 2.427744e+01 3.109163e+01 2.349548e+01 1.720787e+01 1.318503e-02 7.656621e-01 2.085599e+00 1.281097e+00 3.807936e+00 2.786725e+00 3.211384e+00 3.674202e+00 3.332484e+00 3.340524e+00 5.322606e+00 2.171108e+00 2.850539e+00 4.377697e-04 4.547964e-02 1.496034e-01 1.552799e-01 4.717184e-01 4.562065e-01 5.915058e-01 5.774866e-01 4.774682e-01 6.797286e-01 1.410226e+00 4.076995e-01 5.718800e-01 3.388299e-05
<GCONST> 9.398138e+01
<STATE> 6
<MEAN> 39
 1.497047e-07 -1.108924e-07 1.663385e-07 -1.241994e-06 -3.548556e-07 2.550524e-07 -3.104986e-07 -5.101049e-07 -2.217847e-08 -2.439632e-07 -1.996062e-07 1.663385e-07 7.818028e-01 -4.380830e-02 -4.128459e-02 6.049002e-02 -3.450802e-01 1.140295e-01 1.668468e-01 -4.273760e-01 4.002450e-01 1.499986e-01 2.767969e-01 3.264158e-02 -1.439195e-01 -3.244710e-04 -6.025468e-03 1.879522e-02 -1.084858e-02 -2.703598e-02 2.349345e-03 9.471455e-03 -5.926679e-02 -1.500325e-02 2.636370e-02 -1.223917e-02 -2.482168e-02 1.046468e-02 -3.150325e-04
<VARIANCE> 39
 2.742902e+01 5.626907e+01 3.865924e+01 1.156058e+02 3.077872e+01 3.294822e+01 1.572305e+02 9.509230e+01 2.427744e+01 3.109163e+01 2.349548e+01 1.720787e+01 1.318503e-02 7.656621e-01 2.085599e+00 1.281097e+00 3.807936e+00 2.786725e+00 3.211384e+00 3.674202e+00 3.332484e+00 3.340524e+00 5.322606e+00 2.171108e+00 2.850539e+00 4.377697e-04 4.547964e-02 1.496034e-01 1.552799e-01 4.717184e-01 4.562065e-01 5.915058e-01 5.774866e-01 4.774682e-01 6.797286e-01 1.410226e+00 4.076995e-01 5.718800e-01 3.388299e-05
<GCONST> 9.398138e+01
<STATE> 7
<MEAN> 39
 1.497047e-07 -1.108924e-07 1.663385e-07 -1.241994e-06 -3.548556e-07 2.550524e-07 -3.104986e-07 -5.101049e-07 -2.217847e-08 -2.439632e-07 -1.996062e-07 1.663385e-07 7.818028e-01 -4.380830e-02 -4.128459e-02 6.049002e-02 -3.450802e-01 1.140295e-01 1.668468e-01 -4.273760e-01 4.002450e-01 1.499986e-01 2.767969e-01 3.264158e-02 -1.439195e-01 -3.244710e-04 -6.025468e-03 1.879522e-02 -1.084858e-02 -2.703598e-02 2.349345e-03 9.471455e-03 -5.926679e-02 -1.500325e-02 2.636370e-02 -1.223917e-02 -2.482168e-02 1.046468e-02 -3.150325e-04
<VARIANCE> 39
 2.742902e+01 5.626907e+01 3.865924e+01 1.156058e+02 3.077872e+01 3.294822e+01 1.572305e+02 9.509230e+01 2.427744e+01 3.109163e+01 2.349548e+01 1.720787e+01 1.318503e-02 7.656621e-01 2.085599e+00 1.281097e+00 3.807936e+00 2.786725e+00 3.211384e+00 3.674202e+00 3.332484e+00 3.340524e+00 5.322606e+00 2.171108e+00 2.850539e+00 4.377697e-04 4.547964e-02 1.496034e-01 1.552799e-01 4.717184e-01 4.562065e-01 5.915058e-01 5.774866e-01 4.774682e-01 6.797286e-01 1.410226e+00 4.076995e-01 5.718800e-01 3.388299e-05
<GCONST> 9.398138e+01
<STATE> 8
<MEAN> 39
 1.497047e-07 -1.108924e-07 1.663385e-07 -1.241994e-06 -3.548556e-07 2.550524e-07 -3.104986e-07 -5.101049e-07 -2.217847e-08 -2.439632e-07 -1.996062e-07 1.663385e-07 7.818028e-01 -4.380830e-02 -4.128459e-02 6.049002e-02 -3.450802e-01 1.140295e-01 1.668468e-01 -4.273760e-01 4.002450e-01 1.499986e-01 2.767969e-01 3.264158e-02 -1.439195e-01 -3.244710e-04 -6.025468e-03 1.879522e-02 -1.084858e-02 -2.703598e-02 2.349345e-03 9.471455e-03 -5.926679e-02 -1.500325e-02 2.636370e-02 -1.223917e-02 -2.482168e-02 1.046468e-02 -3.150325e-04
<VARIANCE> 39
 2.742902e+01 5.626907e+01 3.865924e+01 1.156058e+02 3.077872e+01 3.294822e+01 1.572305e+02 9.509230e+01 2.427744e+01 3.109163e+01 2.349548e+01 1.720787e+01 1.318503e-02 7.656621e-01 2.085599e+00 1.281097e+00 3.807936e+00 2.786725e+00 3.211384e+00 3.674202e+00 3.332484e+00 3.340524e+00 5.322606e+00 2.171108e+00 2.850539e+00 4.377697e-04 4.547964e-02 1.496034e-01 1.552799e-01 4.717184e-01 4.562065e-01 5.915058e-01 5.774866e-01 4.774682e-01 6.797286e-01 1.410226e+00 4.076995e-01 5.718800e-01 3.388299e-05
<GCONST> 9.398138e+01
<STATE> 9
<MEAN> 39
 1.497047e-07 -1.108924e-07 1.663385e-07 -1.241994e-06 -3.548556e-07 2.550524e-07 -3.104986e-07 -5.101049e-07 -2.217847e-08 -2.439632e-07 -1.996062e-07 1.663385e-07 7.818028e-01 -4.380830e-02 -4.128459e-02 6.049002e-02 -3.450802e-01 1.140295e-01 1.668468e-01 -4.273760e-01 4.002450e-01 1.499986e-01 2.767969e-01 3.264158e-02 -1.439195e-01 -3.244710e-04 -6.025468e-03 1.879522e-02 -1.084858e-02 -2.703598e-02 2.349345e-03 9.471455e-03 -5.926679e-02 -1.500325e-02 2.636370e-02 -1.223917e-02 -2.482168e-02 1.046468e-02 -3.150325e-04
<VARIANCE> 39
 2.742902e+01 5.626907e+01 3.865924e+01 1.156058e+02 3.077872e+01 3.294822e+01 1.572305e+02 9.509230e+01 2.427744e+01 3.109163e+01 2.349548e+01 1.720787e+01 1.318503e-02 7.656621e-01 2.085599e+00 1.281097e+00 3.807936e+00 2.786725e+00 3.211384e+00 3.674202e+00 3.332484e+00 3.340524e+00 5.322606e+00 2.171108e+00 2.850539e+00 4.377697e-04 4.547964e-02 1.496034e-01 1.552799e-01 4.717184e-01 4.562065e-01 5.915058e-01 5.774866e-01 4.774682e-01 6.797286e-01 1.410226e+00 4.076995e-01 5.718800e-01 3.388299e-05
<GCONST> 9.398138e+01
<TRANSP> 10
 0.000000e+00 1.000000e+00 0.000000e+00 0.000000e+00 0.000000e+00 0.000000e+00 0.000000e+00 0.000000e+00 0.000000e+00 0.000000e+00
 0.000000e+00 9.000000e-01 9.999999e-02 0.000000e+00 0.000000e+00 0.000000e+00 0.000000e+00 0.000000e+00 0.000000e+00 0.000000e+00
 0.000000e+00 0.000000e+00 9.000000e-01 9.999999e-02 0.000000e+00 0.000000e+00 0.000000e+00 0.000000e+00 0.000000e+00 0.000000e+00
 0.000000e+00 0.000000e+00 0.000000e+00 9.000000e-01 9.999999e-02 0.000000e+00 0.000000e+00 0.000000e+00 0.000000e+00 0.000000e+00
 0.000000e+00 0.000000e+00 0.000000e+00 0.000000e+00 9.000000e-01 9.999999e-02 0.000000e+00 0.000000e+00 0.000000e+00 0.000000e+00
 0.000000e+00 0.000000e+00 0.000000e+00 0.000000e+00 0.000000e+00 9.000000e-01 9.999999e-02 0.000000e+00 0.000000e+00 0.000000e+00
 0.000000e+00 0.000000e+00 0.000000e+00 0.000000e+00 0.000000e+00 0.000000e+00 9.000000e-01 9.999999e-02 0.000000e+00 0.000000e+00
 0.000000e+00 0.000000e+00 0.000000e+00 0.000000e+00 0.000000e+00 0.000000e+00 0.000000e+00 9.000000e-01 9.999999e-02 0.000000e+00
 0.000000e+00 0.000000e+00 0.000000e+00 0.000000e+00 0.000000e+00 0.000000e+00 0.000000e+00 0.000000e+00 9.000000e-01 9.999999e-02
 0.000000e+00 0.000000e+00 0.000000e+00 0.000000e+00 0.000000e+00 0.000000e+00 0.000000e+00 0.000000e+00 0.000000e+00 0.000000e+00
<ENDHMM>
