~o
<STREAMINFO> 1 39
<VECSIZE> 39<NULLD><MFCC_E_D_A_Z><DIAGC>
~h "s048"
<BEGINHMM>
<NUMSTATES> 10
<STATE> 2
<MEAN> 39
 2.095776e-07 -2.307277e-08 -6.614193e-07 4.460735e-07 -6.921830e-08 -4.614553e-07 6.152737e-08 -4.306916e-07 -1.076729e-07 9.229106e-08 8.460014e-08 3.460915e-08 7.003961e-01 5.339023e-02 -1.654363e-01 -2.611171e-02 -3.819291e-02 -5.776936e-03 3.388702e-02 1.228999e-01 -9.345492e-02 -1.743623e-01 5.877968e-02 -1.838129e-01 -2.605602e-02 -1.457816e-03 -5.551740e-04 -2.919759e-02 -1.281134e-02 5.177588e-02 3.855737e-02 2.960033e-02 8.768204e-03 -1.990096e-02 -2.533001e-02 -2.111868e-02 5.952659e-03 -1.099835e-02 -9.561601e-04
<VARIANCE> 39
 2.118923e+01 4.382142e+01 3.243798e+01 4.543301e+01 8.793126e+01 8.913309e+01 6.475878e+01 6.023566e+01 5.522878e+01 2.047652e+01 6.359670e+01 5.644511e+01 3.462365e-02 1.164026e+00 3.148973e+00 1.743563e+00 4.816113e+00 4.313565e+00 8.889408e+00 5.234536e+00 7.044277e+00 5.559921e+00 3.278530e+00 4.383180e+00 3.908794e+00 2.087692e-03 1.812116e-01 4.517353e-01 3.349343e-01 6.730580e-01 6.739979e-01 1.650795e+00 6.758589e-01 1.328726e+00 1.182252e+00 7.037040e-01 9.148608e-01 5.955666e-01 2.241451e-04
<GCONST> 1.119609e+02
<STATE> 3
<MEAN> 39
 2.095776e-07 -2.307277e-08 -6.614193e-07 4.460735e-07 -6.921830e-08 -4.614553e-07 6.152737e-08 -4.306916e-07 -1.076729e-07 9.229106e-08 8.460014e-08 3.460915e-08 7.003961e-01 5.339023e-02 -1.654363e-01 -2.611171e-02 -3.819291e-02 -5.776936e-03 3.388702e-02 1.228999e-01 -9.345492e-02 -1.743623e-01 5.877968e-02 -1.838129e-01 -2.605602e-02 -1.457816e-03 -5.551740e-04 -2.919759e-02 -1.281134e-02 5.177588e-02 3.855737e-02 2.960033e-02 8.768204e-03 -1.990096e-02 -2.533001e-02 -2.111868e-02 5.952659e-03 -1.099835e-02 -9.561601e-04
<VARIANCE> 39
 2.118923e+01 4.382142e+01 3.243798e+01 4.543301e+01 8.793126e+01 8.913309e+01 6.475878e+01 6.023566e+01 5.522878e+01 2.047652e+01 6.359670e+01 5.644511e+01 3.462365e-02 1.164026e+00 3.148973e+00 1.743563e+00 4.816113e+00 4.313565e+00 8.889408e+00 5.234536e+00 7.044277e+00 5.559921e+00 3.278530e+00 4.383180e+00 3.908794e+00 2.087692e-03 1.812116e-01 4.517353e-01 3.349343e-01 6.730580e-01 6.739979e-01 1.650795e+00 6.758589e-01 1.328726e+00 1.182252e+00 7.037040e-01 9.148608e-01 5.955666e-01 2.241451e-04
<GCONST> 1.119609e+02
<STATE> 4
<MEAN> 39
 2.095776e-07 -2.307277e-08 -6.614193e-07 4.460735e-07 -6.921830e-08 -4.614553e-07 6.152737e-08 -4.306916e-07 -1.076729e-07 9.229106e-08 8.460014e-08 3.460915e-08 7.003961e-01 5.339023e-02 -1.654363e-01 -2.611171e-02 -3.819291e-02 -5.776936e-03 3.388702e-02 1.228999e-01 -9.345492e-02 -1.743623e-01 5.877968e-02 -1.838129e-01 -2.605602e-02 -1.457816e-03 -5.551740e-04 -2.919759e-02 -1.281134e-02 5.177588e-02 3.855737e-02 2.960033e-02 8.768204e-03 -1.990096e-02 -2.533001e-02 -2.111868e-02 5.952659e-03 -1.099835e-02 -9.561601e-04
<VARIANCE> 39
 2.118923e+01 4.382142e+01 3.243798e+01 4.543301e+01 8.793126e+01 8.913309e+01 6.475878e+01 6.023566e+01 5.522878e+01 2.047652e+01 6.359670e+01 5.644511e+01 3.462365e-02 1.164026e+00 3.148973e+00 1.743563e+00 4.816113e+00 4.313565e+00 8.889408e+00 5.234536e+00 7.044277e+00 5.559921e+00 3.278530e+00 4.383180e+00 3.908794e+00 2.087692e-03 1.812116e-01 4.517353e-01 3.349343e-01 6.730580e-01 6.739979e-01 1.650795e+00 6.758589e-01 1.328726e+00 1.182252e+00 7.037040e-01 9.148608e-01 5.955666e-01 2.241451e-04
<GCONST> 1.119609e+02
<STATE> 5
<MEAN> 39
 2.095776e-07 -2.307277e-08 -6.614193e-07 4.460735e-07 -6.921830e-08 -4.614553e-07 6.152737e-08 -4.306916e-07 -1.076729e-07 9.229106e-08 8.460014e-08 3.460915e-08 7.003961e-01 5.339023e-02 -1.654363e-01 -2.611171e-02 -3.819291e-02 -5.776936e-03 3.388702e-02 1.228999e-01 -9.345492e-02 -1.743623e-01 5.877968e-02 -1.838129e-01 -2.605602e-02 -1.457816e-03 -5.551740e-04 -2.919759e-02 -1.281134e-02 5.177588e-02 3.855737e-02 2.960033e-02 8.768204e-03 -1.990096e-02 -2.533001e-02 -2.111868e-02 5.952659e-03 -1.099835e-02 -9.561601e-04
<VARIANCE> 39
 2.118923e+01 4.382142e+01 3.243798e+01 4.543301e+01 8.793126e+01 8.913309e+01 6.475878e+01 6.023566e+01 5.522878e+01 2.047652e+01 6.359670e+01 5.644511e+01 3.462365e-02 1.164026e+00 3.148973e+00 1.743563e+00 4.816113e+00 4.313565e+00 8.889408e+00 5.234536e+00 7.044277e+00 5.559921e+00 3.278530e+00 4.383180e+00 3.908794e+00 2.087692e-03 1.812116e-01 4.517353e-01 3.349343e-01 6.730580e-01 6.739979e-01 1.650795e+00 6.758589e-01 1.328726e+00 1.182252e+00 7.037040e-01 9.148608e-01 5.955666e-01 2.241451e-04
<GCONST> 1.119609e+02
<STATE> 6
<MEAN> 39
 2.095776e-07 -2.307277e-08 -6.614193e-07 4.460735e-07 -6.921830e-08 -4.614553e-07 6.152737e-08 -4.306916e-07 -1.076729e-07 9.229106e-08 8.460014e-08 3.460915e-08 7.003961e-01 5.339023e-02 -1.654363e-01 -2.611171e-02 -3.819291e-02 -5.776936e-03 3.388702e-02 1.228999e-01 -9.345492e-02 -1.743623e-01 5.877968e-02 -1.838129e-01 -2.605602e-02 -1.457816e-03 -5.551740e-04 -2.919759e-02 -1.281134e-02 5.177588e-02 3.855737e-02 2.960033e-02 8.768204e-03 -1.990096e-02 -2.533001e-02 -2.111868e-02 5.952659e-03 -1.099835e-02 -9.561601e-04
<VARIANCE> 39
 2.118923e+01 4.382142e+01 3.243798e+01 4.543301e+01 8.793126e+01 8.913309e+01 6.475878e+01 6.023566e+01 5.522878e+01 2.047652e+01 6.359670e+01 5.644511e+01 3.462365e-02 1.164026e+00 3.148973e+00 1.743563e+00 4.816113e+00 4.313565e+00 8.889408e+00 5.234536e+00 7.044277e+00 5.559921e+00 3.278530e+00 4.383180e+00 3.908794e+00 2.087692e-03 1.812116e-01 4.517353e-01 3.349343e-01 6.730580e-01 6.739979e-01 1.650795e+00 6.758589e-01 1.328726e+00 1.182252e+00 7.037040e-01 9.148608e-01 5.955666e-01 2.241451e-04
<GCONST> 1.119609e+02
<STATE> 7
<MEAN> 39
 2.095776e-07 -2.307277e-08 -6.614193e-07 4.460735e-07 -6.921830e-08 -4.614553e-07 6.152737e-08 -4.306916e-07 -1.076729e-07 9.229106e-08 8.460014e-08 3.460915e-08 7.003961e-01 5.339023e-02 -1.654363e-01 -2.611171e-02 -3.819291e-02 -5.776936e-03 3.388702e-02 1.228999e-01 -9.345492e-02 -1.743623e-01 5.877968e-02 -1.838129e-01 -2.605602e-02 -1.457816e-03 -5.551740e-04 -2.919759e-02 -1.281134e-02 5.177588e-02 3.855737e-02 2.960033e-02 8.768204e-03 -1.990096e-02 -2.533001e-02 -2.111868e-02 5.952659e-03 -1.099835e-02 -9.561601e-04
<VARIANCE> 39
 2.118923e+01 4.382142e+01 3.243798e+01 4.543301e+01 8.793126e+01 8.913309e+01 6.475878e+01 6.023566e+01 5.522878e+01 2.047652e+01 6.359670e+01 5.644511e+01 3.462365e-02 1.164026e+00 3.148973e+00 1.743563e+00 4.816113e+00 4.313565e+00 8.889408e+00 5.234536e+00 7.044277e+00 5.559921e+00 3.278530e+00 4.383180e+00 3.908794e+00 2.087692e-03 1.812116e-01 4.517353e-01 3.349343e-01 6.730580e-01 6.739979e-01 1.650795e+00 6.758589e-01 1.328726e+00 1.182252e+00 7.037040e-01 9.148608e-01 5.955666e-01 2.241451e-04
<GCONST> 1.119609e+02
<STATE> 8
<MEAN> 39
 2.095776e-07 -2.307277e-08 -6.614193e-07 4.460735e-07 -6.921830e-08 -4.614553e-07 6.152737e-08 -4.306916e-07 -1.076729e-07 9.229106e-08 8.460014e-08 3.460915e-08 7.003961e-01 5.339023e-02 -1.654363e-01 -2.611171e-02 -3.819291e-02 -5.776936e-03 3.388702e-02 1.228999e-01 -9.345492e-02 -1.743623e-01 5.877968e-02 -1.838129e-01 -2.605602e-02 -1.457816e-03 -5.551740e-04 -2.919759e-02 -1.281134e-02 5.177588e-02 3.855737e-02 2.960033e-02 8.768204e-03 -1.990096e-02 -2.533001e-02 -2.111868e-02 5.952659e-03 -1.099835e-02 -9.561601e-04
<VARIANCE> 39
 2.118923e+01 4.382142e+01 3.243798e+01 4.543301e+01 8.793126e+01 8.913309e+01 6.475878e+01 6.023566e+01 5.522878e+01 2.047652e+01 6.359670e+01 5.644511e+01 3.462365e-02 1.164026e+00 3.148973e+00 1.743563e+00 4.816113e+00 4.313565e+00 8.889408e+00 5.234536e+00 7.044277e+00 5.559921e+00 3.278530e+00 4.383180e+00 3.908794e+00 2.087692e-03 1.812116e-01 4.517353e-01 3.349343e-01 6.730580e-01 6.739979e-01 1.650795e+00 6.758589e-01 1.328726e+00 1.182252e+00 7.037040e-01 9.148608e-01 5.955666e-01 2.241451e-04
<GCONST> 1.119609e+02
<STATE> 9
<MEAN> 39
 2.095776e-07 -2.307277e-08 -6.614193e-07 4.460735e-07 -6.921830e-08 -4.614553e-07 6.152737e-08 -4.306916e-07 -1.076729e-07 9.229106e-08 8.460014e-08 3.460915e-08 7.003961e-01 5.339023e-02 -1.654363e-01 -2.611171e-02 -3.819291e-02 -5.776936e-03 3.388702e-02 1.228999e-01 -9.345492e-02 -1.743623e-01 5.877968e-02 -1.838129e-01 -2.605602e-02 -1.457816e-03 -5.551740e-04 -2.919759e-02 -1.281134e-02 5.177588e-02 3.855737e-02 2.960033e-02 8.768204e-03 -1.990096e-02 -2.533001e-02 -2.111868e-02 5.952659e-03 -1.099835e-02 -9.561601e-04
<VARIANCE> 39
 2.118923e+01 4.382142e+01 3.243798e+01 4.543301e+01 8.793126e+01 8.913309e+01 6.475878e+01 6.023566e+01 5.522878e+01 2.047652e+01 6.359670e+01 5.644511e+01 3.462365e-02 1.164026e+00 3.148973e+00 1.743563e+00 4.816113e+00 4.313565e+00 8.889408e+00 5.234536e+00 7.044277e+00 5.559921e+00 3.278530e+00 4.383180e+00 3.908794e+00 2.087692e-03 1.812116e-01 4.517353e-01 3.349343e-01 6.730580e-01 6.739979e-01 1.650795e+00 6.758589e-01 1.328726e+00 1.182252e+00 7.037040e-01 9.148608e-01 5.955666e-01 2.241451e-04
<GCONST> 1.119609e+02
<TRANSP> 10
 0.000000e+00 1.000000e+00 0.000000e+00 0.000000e+00 0.000000e+00 0.000000e+00 0.000000e+00 0.000000e+00 0.000000e+00 0.000000e+00
 0.000000e+00 9.000000e-01 9.999999e-02 0.000000e+00 0.000000e+00 0.000000e+00 0.000000e+00 0.000000e+00 0.000000e+00 0.000000e+00
 0.000000e+00 0.000000e+00 9.000000e-01 9.999999e-02 0.000000e+00 0.000000e+00 0.000000e+00 0.000000e+00 0.000000e+00 0.000000e+00
 0.000000e+00 0.000000e+00 0.000000e+00 9.000000e-01 9.999999e-02 0.000000e+00 0.000000e+00 0.000000e+00 0.000000e+00 0.000000e+00
 0.000000e+00 0.000000e+00 0.000000e+00 0.000000e+00 9.000000e-01 9.999999e-02 0.000000e+00 0.000000e+00 0.000000e+00 0.000000e+00
 0.000000e+00 0.000000e+00 0.000000e+00 0.000000e+00 0.000000e+00 9.000000e-01 9.999999e-02 0.000000e+00 0.000000e+00 0.000000e+00
 0.000000e+00 0.000000e+00 0.000000e+00 0.000000e+00 0.000000e+00 0.000000e+00 9.000000e-01 9.999999e-02 0.000000e+00 0.000000e+00
 0.000000e+00 0.000000e+00 0.000000e+00 0.000000e+00 0.000000e+00 0.000000e+00 0.000000e+00 9.000000e-01 9.999999e-02 0.000000e+00
 0.000000e+00 0.000000e+00 0.000000e+00 0.000000e+00 0.000000e+00 0.000000e+00 0.000000e+00 0.000000e+00 9.000000e-01 9.999999e-02
 0.000000e+00 0.000000e+00 0.000000e+00 0.000000e+00 0.000000e+00 0.000000e+00 0.000000e+00 0.000000e+00 0.000000e+00 0.000000e+00
<ENDHMM>
