~o
<STREAMINFO> 1 39
<VECSIZE> 39<NULLD><MFCC_E_D_A_Z><DIAGC>
~h "s049"
<BEGINHMM>
<NUMSTATES> 10
<STATE> 2
<MEAN> 39
 -2.482166e-07 -5.225613e-08 -8.491621e-08 -2.678127e-07 2.874087e-07 -5.748174e-07 1.420713e-07 -1.698324e-07 -1.714654e-07 -4.572411e-08 -1.306403e-08 -2.024925e-07 7.309650e-01 1.942762e-01 4.058414e-02 -1.931396e-02 -2.207004e-02 8.953062e-02 2.704154e-01 1.408655e-02 -1.592254e-01 -1.603706e-01 -2.169432e-02 -7.304969e-02 8.568934e-03 5.901245e-04 4.356437e-03 -2.928593e-02 2.820104e-02 -7.342022e-03 -1.210608e-02 -2.343095e-02 -2.979200e-02 2.675763e-03 -1.576716e-02 1.846775e-02 1.415261e-02 -6.711697e-03 -7.164266e-04
<VARIANCE> 39
 3.438390e+01 2.321576e+01 6.220259e+01 4.825515e+01 9.146577e+01 1.187809e+02 5.715976e+01 3.863596e+01 4.314171e+01 3.901550e+01 3.872731e+01 3.134398e+01 3.578129e-02 1.783384e+00 1.664741e+00 2.693173e+00 2.683736e+00 4.258118e+00 7.415961e+00 3.037944e+00 3.728517e+00 4.428482e+00 3.343392e+00 4.203098e+00 1.883819e+00 1.304711e-03 2.397229e-01 2.982360e-01 2.937632e-01 4.548697e-01 7.723140e-01 1.206743e+00 5.150360e-01 7.339572e-01 9.263791e-01 5.954579e-01 8.791506e-01 3.438615e-01 1.298327e-04
<GCONST> 1.051931e+02
<STATE> 3
<MEAN> 39
 -2.482166e-07 -5.225613e-08 -8.491621e-08 -2.678127e-07 2.874087e-07 -5.748174e-07 1.420713e-07 -1.698324e-07 -1.714654e-07 -4.572411e-08 -1.306403e-08 -2.024925e-07 7.309650e-01 1.942762e-01 4.058414e-02 -1.931396e-02 -2.207004e-02 8.953062e-02 2.704154e-01 1.408655e-02 -1.592254e-01 -1.603706e-01 -2.169432e-02 -7.304969e-02 8.568934e-03 5.901245e-04 4.356437e-03 -2.928593e-02 2.820104e-02 -7.342022e-03 -1.210608e-02 -2.343095e-02 -2.979200e-02 2.675763e-03 -1.576716e-02 1.846775e-02 1.415261e-02 -6.711697e-03 -7.164266e-04
<VARIANCE> 39
 3.438390e+01 2.321576e+01 6.220259e+01 4.825515e+01 9.146577e+01 1.187809e+02 5.715976e+01 3.863596e+01 4.314171e+01 3.901550e+01 3.872731e+01 3.134398e+01 3.578129e-02 1.783384e+00 1.664741e+00 2.693173e+00 2.683736e+00 4.258118e+00 7.415961e+00 3.037944e+00 3.728517e+00 4.428482e+00 3.343392e+00 4.203098e+00 1.883819e+00 1.304711e-03 2.397229e-01 2.982360e-01 2.937632e-01 4.548697e-01 7.723140e-01 1.206743e+00 5.150360e-01 7.339572e-01 9.263791e-01 5.954579e-01 8.791506e-01 3.438615e-01 1.298327e-04
<GCONST> 1.051931e+02
<STATE> 4
<MEAN> 39
 -2.482166e-07 -5.225613e-08 -8.491621e-08 -2.678127e-07 2.874087e-07 -5.748174e-07 1.420713e-07 -1.698324e-07 -1.714654e-07 -4.572411e-08 -1.306403e-08 -2.024925e-07 7.309650e-01 1.942762e-01 4.058414e-02 -1.931396e-02 -2.207004e-02 8.953062e-02 2.704154e-01 1.408655e-02 -1.592254e-01 -1.603706e-01 -2.169432e-02 -7.304969e-02 8.568934e-03 5.901245e-04 4.356437e-03 -2.928593e-02 2.820104e-02 -7.342022e-03 -1.210608e-02 -2.343095e-02 -2.979200e-02 2.675763e-03 -1.576716e-02 1.846775e-02 1.415261e-02 -6.711697e-03 -7.164266e-04
<VARIANCE> 39
 3.438390e+01 2.321576e+01 6.220259e+01 4.825515e+01 9.146577e+01 1.187809e+02 5.715976e+01 3.863596e+01 4.314171e+01 3.901550e+01 3.872731e+01 3.134398e+01 3.578129e-02 1.783384e+00 1.664741e+00 2.693173e+00 2.683736e+00 4.258118e+00 7.415961e+00 3.037944e+00 3.728517e+00 4.428482e+00 3.343392e+00 4.203098e+00 1.883819e+00 1.304711e-03 2.397229e-01 2.982360e-01 2.937632e-01 4.548697e-01 7.723140e-01 1.206743e+00 5.150360e-01 7.339572e-01 9.263791e-01 5.954579e-01 8.791506e-01 3.438615e-01 1.298327e-04
<GCONST> 1.051931e+02
<STATE> 5
<MEAN> 39
 -2.482166e-07 -5.225613e-08 -8.491621e-08 -2.678127e-07 2.874087e-07 -5.748174e-07 1.420713e-07 -1.698324e-07 -1.714654e-07 -4.572411e-08 -1.306403e-08 -2.024925e-07 7.309650e-01 1.942762e-01 4.058414e-02 -1.931396e-02 -2.207004e-02 8.953062e-02 2.704154e-01 1.408655e-02 -1.592254e-01 -1.603706e-01 -2.169432e-02 -7.304969e-02 8.568934e-03 5.901245e-04 4.356437e-03 -2.928593e-02 2.820104e-02 -7.342022e-03 -1.210608e-02 -2.343095e-02 -2.979200e-02 2.675763e-03 -1.576716e-02 1.846775e-02 1.415261e-02 -6.711697e-03 -7.164266e-04
<VARIANCE> 39
 3.438390e+01 2.321576e+01 6.220259e+01 4.825515e+01 9.146577e+01 1.187809e+02 5.715976e+01 3.863596e+01 4.314171e+01 3.901550e+01 3.872731e+01 3.134398e+01 3.578129e-02 1.783384e+00 1.664741e+00 2.693173e+00 2.683736e+00 4.258118e+00 7.415961e+00 3.037944e+00 3.728517e+00 4.428482e+00 3.343392e+00 4.203098e+00 1.883819e+00 1.304711e-03 2.397229e-01 2.982360e-01 2.937632e-01 4.548697e-01 7.723140e-01 1.206743e+00 5.150360e-01 7.339572e-01 9.263791e-01 5.954579e-01 8.791506e-01 3.438615e-01 1.298327e-04
<GCONST> 1.051931e+02
<STATE> 6
<MEAN> 39
 -2.482166e-07 -5.225613e-08 -8.491621e-08 -2.678127e-07 2.874087e-07 -5.748174e-07 1.420713e-07 -1.698324e-07 -1.714654e-07 -4.572411e-08 -1.306403e-08 -2.024925e-07 7.309650e-01 1.942762e-01 4.058414e-02 -1.931396e-02 -2.207004e-02 8.953062e-02 2.704154e-01 1.408655e-02 -1.592254e-01 -1.603706e-01 -2.169432e-02 -7.304969e-02 8.568934e-03 5.901245e-04 4.356437e-03 -2.928593e-02 2.820104e-02 -7.342022e-03 -1.210608e-02 -2.343095e-02 -2.979200e-02 2.675763e-03 -1.576716e-02 1.846775e-02 1.415261e-02 -6.711697e-03 -7.164266e-04
<VARIANCE> 39
 3.438390e+01 2.321576e+01 6.220259e+01 4.825515e+01 9.146577e+01 1.187809e+02 5.715976e+01 3.863596e+01 4.314171e+01 3.901550e+01 3.872731e+01 3.134398e+01 3.578129e-02 1.783384e+00 1.664741e+00 2.693173e+00 2.683736e+00 4.258118e+00 7.415961e+00 3.037944e+00 3.728517e+00 4.428482e+00 3.343392e+00 4.203098e+00 1.883819e+00 1.304711e-03 2.397229e-01 2.982360e-01 2.937632e-01 4.548697e-01 7.723140e-01 1.206743e+00 5.150360e-01 7.339572e-01 9.263791e-01 5.954579e-01 8.791506e-01 3.438615e-01 1.298327e-04
<GCONST> 1.051931e+02
<STATE> 7
<MEAN> 39
 -2.482166e-07 -5.225613e-08 -8.491621e-08 -2.678127e-07 2.874087e-07 -5.748174e-07 1.420713e-07 -1.698324e-07 -1.714654e-07 -4.572411e-08 -1.306403e-08 -2.024925e-07 7.309650e-01 1.942762e-01 4.058414e-02 -1.931396e-02 -2.207004e-02 8.953062e-02 2.704154e-01 1.408655e-02 -1.592254e-01 -1.603706e-01 -2.169432e-02 -7.304969e-02 8.568934e-03 5.901245e-04 4.356437e-03 -2.928593e-02 2.820104e-02 -7.342022e-03 -1.210608e-02 -2.343095e-02 -2.979200e-02 2.675763e-03 -1.576716e-02 1.846775e-02 1.415261e-02 -6.711697e-03 -7.164266e-04
<VARIANCE> 39
 3.438390e+01 2.321576e+01 6.220259e+01 4.825515e+01 9.146577e+01 1.187809e+02 5.715976e+01 3.863596e+01 4.314171e+01 3.901550e+01 3.872731e+01 3.134398e+01 3.578129e-02 1.783384e+00 1.664741e+00 2.693173e+00 2.683736e+00 4.258118e+00 7.415961e+00 3.037944e+00 3.728517e+00 4.428482e+00 3.343392e+00 4.203098e+00 1.883819e+00 1.304711e-03 2.397229e-01 2.982360e-01 2.937632e-01 4.548697e-01 7.723140e-01 1.206743e+00 5.150360e-01 7.339572e-01 9.263791e-01 5.954579e-01 8.791506e-01 3.438615e-01 1.298327e-04
<GCONST> 1.051931e+02
<STATE> 8
<MEAN> 39
 -2.482166e-07 -5.225613e-08 -8.491621e-08 -2.678127e-07 2.874087e-07 -5.748174e-07 1.420713e-07 -1.698324e-07 -1.714654e-07 -4.572411e-08 -1.306403e-08 -2.024925e-07 7.309650e-01 1.942762e-01 4.058414e-02 -1.931396e-02 -2.207004e-02 8.953062e-02 2.704154e-01 1.408655e-02 -1.592254e-01 -1.603706e-01 -2.169432e-02 -7.304969e-02 8.568934e-03 5.901245e-04 4.356437e-03 -2.928593e-02 2.820104e-02 -7.342022e-03 -1.210608e-02 -2.343095e-02 -2.979200e-02 2.675763e-03 -1.576716e-02 1.846775e-02 1.415261e-02 -6.711697e-03 -7.164266e-04
<VARIANCE> 39
 3.438390e+01 2.321576e+01 6.220259e+01 4.825515e+01 9.146577e+01 1.187809e+02 5.715976e+01 3.863596e+01 4.314171e+01 3.901550e+01 3.872731e+01 3.134398e+01 3.578129e-02 1.783384e+00 1.664741e+00 2.693173e+00 2.683736e+00 4.258118e+00 7.415961e+00 3.037944e+00 3.728517e+00 4.428482e+00 3.343392e+00 4.203098e+00 1.883819e+00 1.304711e-03 2.397229e-01 2.982360e-01 2.937632e-01 4.548697e-01 7.723140e-01 1.206743e+00 5.150360e-01 7.339572e-01 9.263791e-01 5.954579e-01 8.791506e-01 3.438615e-01 1.298327e-04
<GCONST> 1.051931e+02
<STATE> 9
<MEAN> 39
 -2.482166e-07 -5.225613e-08 -8.491621e-08 -2.678127e-07 2.874087e-07 -5.748174e-07 1.420713e-07 -1.698324e-07 -1.714654e-07 -4.572411e-08 -1.306403e-08 -2.024925e-07 7.309650e-01 1.942762e-01 4.058414e-02 -1.931396e-02 -2.207004e-02 8.953062e-02 2.704154e-01 1.408655e-02 -1.592254e-01 -1.603706e-01 -2.169432e-02 -7.304969e-02 8.568934e-03 5.901245e-04 4.356437e-03 -2.928593e-02 2.820104e-02 -7.342022e-03 -1.210608e-02 -2.343095e-02 -2.979200e-02 2.675763e-03 -1.576716e-02 1.846775e-02 1.415261e-02 -6.711697e-03 -7.164266e-04
<VARIANCE> 39
 3.438390e+01 2.321576e+01 6.220259e+01 4.825515e+01 9.146577e+01 1.187809e+02 5.715976e+01 3.863596e+01 4.314171e+01 3.901550e+01 3.872731e+01 3.134398e+01 3.578129e-02 1.783384e+00 1.664741e+00 2.693173e+00 2.683736e+00 4.258118e+00 7.415961e+00 3.037944e+00 3.728517e+00 4.428482e+00 3.343392e+00 4.203098e+00 1.883819e+00 1.304711e-03 2.397229e-01 2.982360e-01 2.937632e-01 4.548697e-01 7.723140e-01 1.206743e+00 5.150360e-01 7.339572e-01 9.263791e-01 5.954579e-01 8.791506e-01 3.438615e-01 1.298327e-04
<GCONST> 1.051931e+02
<TRANSP> 10
 0.000000e+00 1.000000e+00 0.000000e+00 0.000000e+00 0.000000e+00 0.000000e+00 0.000000e+00 0.000000e+00 0.000000e+00 0.000000e+00
 0.000000e+00 9.000000e-01 9.999999e-02 0.000000e+00 0.000000e+00 0.000000e+00 0.000000e+00 0.000000e+00 0.000000e+00 0.000000e+00
 0.000000e+00 0.000000e+00 9.000000e-01 9.999999e-02 0.000000e+00 0.000000e+00 0.000000e+00 0.000000e+00 0.000000e+00 0.000000e+00
 0.000000e+00 0.000000e+00 0.000000e+00 9.000000e-01 9.999999e-02 0.000000e+00 0.000000e+00 0.000000e+00 0.000000e+00 0.000000e+00
 0.000000e+00 0.000000e+00 0.000000e+00 0.000000e+00 9.000000e-01 9.999999e-02 0.000000e+00 0.000000e+00 0.000000e+00 0.000000e+00
 0.000000e+00 0.000000e+00 0.000000e+00 0.000000e+00 0.000000e+00 9.000000e-01 9.999999e-02 0.000000e+00 0.000000e+00 0.000000e+00
 0.000000e+00 0.000000e+00 0.000000e+00 0.000000e+00 0.000000e+00 0.000000e+00 9.000000e-01 9.999999e-02 0.000000e+00 0.000000e+00
 0.000000e+00 0.000000e+00 0.000000e+00 0.000000e+00 0.000000e+00 0.000000e+00 0.000000e+00 9.000000e-01 9.999999e-02 0.000000e+00
 0.000000e+00 0.000000e+00 0.000000e+00 0.000000e+00 0.000000e+00 0.000000e+00 0.000000e+00 0.000000e+00 9.000000e-01 9.999999e-02
 0.000000e+00 0.000000e+00 0.000000e+00 0.000000e+00 0.000000e+00 0.000000e+00 0.000000e+00 0.000000e+00 0.000000e+00 0.000000e+00
<ENDHMM>
