~o
<STREAMINFO> 1 39
<VECSIZE> 39<NULLD><MFCC_E_D_A_Z><DIAGC>
~h "s050"
<BEGINHMM>
<NUMSTATES> 10
<STATE> 2
<MEAN> 39
 2.889922e-08 -1.228217e-07 -1.372713e-07 8.525270e-07 -7.947286e-08 -5.779845e-08 3.395658e-07 5.057364e-08 -7.405426e-08 4.190387e-07 -8.669767e-08 1.228217e-07 8.145324e-01 8.537602e-02 -7.501987e-02 -1.818333e-01 1.618012e-01 -6.984250e-02 -6.248246e-02 6.830849e-02 -5.466203e-02 9.717800e-02 6.566425e-02 4.456678e-02 -4.078151e-02 -2.300511e-03 2.032831e-02 -1.360156e-02 4.074741e-02 4.317615e-02 6.142139e-03 1.359146e-02 -2.515554e-02 1.178048e-02 -2.949283e-02 6.209863e-02 -2.658969e-02 3.059418e-02 -6.381709e-04
<VARIANCE> 39
 3.121591e+01 7.633236e+01 6.176381e+01 8.042953e+01 4.412817e+01 3.001260e+01 6.536731e+01 4.563325e+01 4.116179e+01 3.617493e+01 6.561501e+01 2.665170e+01 1.971191e-02 1.456256e+00 1.935362e+00 3.207722e+00 4.214918e+00 3.843922e+00 3.228832e+00 3.601805e+00 2.456403e+00 5.632816e+00 5.973245e+00 6.053975e+00 2.231884e+00 1.154795e-03 2.115306e-01 1.693019e-01 2.692948e-01 5.118727e-01 5.800385e-01 5.508283e-01 6.236926e-01 3.594316e-01 1.106458e+00 1.312148e+00 1.046190e+00 3.617276e-01 1.464672e-04
<GCONST> 1.043191e+02
<STATE> 3
<MEAN> 39
 2.889922e-08 -1.228217e-07 -1.372713e-07 8.525270e-07 -7.947286e-08 -5.779845e-08 3.395658e-07 5.057364e-08 -7.405426e-08 4.190387e-07 -8.669767e-08 1.228217e-07 8.145324e-01 8.537602e-02 -7.501987e-02 -1.818333e-01 1.618012e-01 -6.984250e-02 -6.248246e-02 6.830849e-02 -5.466203e-02 9.717800e-02 6.566425e-02 4.456678e-02 -4.078151e-02 -2.300511e-03 2.032831e-02 -1.360156e-02 4.074741e-02 4.317615e-02 6.142139e-03 1.359146e-02 -2.515554e-02 1.178048e-02 -2.949283e-02 6.209863e-02 -2.658969e-02 3.059418e-02 -6.381709e-04
<VARIANCE> 39
 3.121591e+01 7.633236e+01 6.176381e+01 8.042953e+01 4.412817e+01 3.001260e+01 6.536731e+01 4.563325e+01 4.116179e+01 3.617493e+01 6.561501e+01 2.665170e+01 1.971191e-02 1.456256e+00 1.935362e+00 3.207722e+00 4.214918e+00 3.843922e+00 3.228832e+00 3.601805e+00 2.456403e+00 5.632816e+00 5.973245e+00 6.053975e+00 2.231884e+00 1.154795e-03 2.115306e-01 1.693019e-01 2.692948e-01 5.118727e-01 5.800385e-01 5.508283e-01 6.236926e-01 3.594316e-01 1.106458e+00 1.312148e+00 1.046190e+00 3.617276e-01 1.464672e-04
<GCONST> 1.043191e+02
<STATE> 4
<MEAN> 39
 2.889922e-08 -1.228217e-07 -1.372713e-07 8.525270e-07 -7.947286e-08 -5.779845e-08 3.395658e-07 5.057364e-08 -7.405426e-08 4.190387e-07 -8.669767e-08 1.228217e-07 8.145324e-01 8.537602e-02 -7.501987e-02 -1.818333e-01 1.618012e-01 -6.984250e-02 -6.248246e-02 6.830849e-02 -5.466203e-02 9.717800e-02 6.566425e-02 4.456678e-02 -4.078151e-02 -2.300511e-03 2.032831e-02 -1.360156e-02 4.074741e-02 4.317615e-02 6.142139e-03 1.359146e-02 -2.515554e-02 1.178048e-02 -2.949283e-02 6.209863e-02 -2.658969e-02 3.059418e-02 -6.381709e-04
<VARIANCE> 39
 3.121591e+01 7.633236e+01 6.176381e+01 8.042953e+01 4.412817e+01 3.001260e+01 6.536731e+01 4.563325e+01 4.116179e+01 3.617493e+01 6.561501e+01 2.665170e+01 1.971191e-02 1.456256e+00 1.935362e+00 3.207722e+00 4.214918e+00 3.843922e+00 3.228832e+00 3.601805e+00 2.456403e+00 5.632816e+00 5.973245e+00 6.053975e+00 2.231884e+00 1.154795e-03 2.115306e-01 1.693019e-01 2.692948e-01 5.118727e-01 5.800385e-01 5.508283e-01 6.236926e-01 3.594316e-01 1.106458e+00 1.312148e+00 1.046190e+00 3.617276e-01 1.464672e-04
<GCONST> 1.043191e+02
<STATE> 5
<MEAN> 39
 2.889922e-08 -1.228217e-07 -1.372713e-07 8.525270e-07 -7.947286e-08 -5.779845e-08 3.395658e-07 5.057364e-08 -7.405426e-08 4.190387e-07 -8.669767e-08 1.228217e-07 8.145324e-01 8.537602e-02 -7.501987e-02 -1.818333e-01 1.618012e-01 -6.984250e-02 -6.248246e-02 6.830849e-02 -5.466203e-02 9.717800e-02 6.566425e-02 4.456678e-02 -4.078151e-02 -2.300511e-03 2.032831e-02 -1.360156e-02 4.074741e-02 4.317615e-02 6.142139e-03 1.359146e-02 -2.515554e-02 1.178048e-02 -2.949283e-02 6.209863e-02 -2.658969e-02 3.059418e-02 -6.381709e-04
<VARIANCE> 39
 3.121591e+01 7.633236e+01 6.176381e+01 8.042953e+01 4.412817e+01 3.001260e+01 6.536731e+01 4.563325e+01 4.116179e+01 3.617493e+01 6.561501e+01 2.665170e+01 1.971191e-02 1.456256e+00 1.935362e+00 3.207722e+00 4.214918e+00 3.843922e+00 3.228832e+00 3.601805e+00 2.456403e+00 5.632816e+00 5.973245e+00 6.053975e+00 2.231884e+00 1.154795e-03 2.115306e-01 1.693019e-01 2.692948e-01 5.118727e-01 5.800385e-01 5.508283e-01 6.236926e-01 3.594316e-01 1.106458e+00 1.312148e+00 1.046190e+00 3.617276e-01 1.464672e-04
<GCONST> 1.043191e+02
<STATE> 6
<MEAN> 39
 2.889922e-08 -1.228217e-07 -1.372713e-07 8.525270e-07 -7.947286e-08 -5.779845e-08 3.395658e-07 5.057364e-08 -7.405426e-08 4.190387e-07 -8.669767e-08 1.228217e-07 8.145324e-01 8.537602e-02 -7.501987e-02 -1.818333e-01 1.618012e-01 -6.984250e-02 -6.248246e-02 6.830849e-02 -5.466203e-02 9.717800e-02 6.566425e-02 4.456678e-02 -4.078151e-02 -2.300511e-03 2.032831e-02 -1.360156e-02 4.074741e-02 4.317615e-02 6.142139e-03 1.359146e-02 -2.515554e-02 1.178048e-02 -2.949283e-02 6.209863e-02 -2.658969e-02 3.059418e-02 -6.381709e-04
<VARIANCE> 39
 3.121591e+01 7.633236e+01 6.176381e+01 8.042953e+01 4.412817e+01 3.001260e+01 6.536731e+01 4.563325e+01 4.116179e+01 3.617493e+01 6.561501e+01 2.665170e+01 1.971191e-02 1.456256e+00 1.935362e+00 3.207722e+00 4.214918e+00 3.843922e+00 3.228832e+00 3.601805e+00 2.456403e+00 5.632816e+00 5.973245e+00 6.053975e+00 2.231884e+00 1.154795e-03 2.115306e-01 1.693019e-01 2.692948e-01 5.118727e-01 5.800385e-01 5.508283e-01 6.236926e-01 3.594316e-01 1.106458e+00 1.312148e+00 1.046190e+00 3.617276e-01 1.464672e-04
<GCONST> 1.043191e+02
<STATE> 7
<MEAN> 39
 2.889922e-08 -1.228217e-07 -1.372713e-07 8.525270e-07 -7.947286e-08 -5.779845e-08 3.395658e-07 5.057364e-08 -7.405426e-08 4.190387e-07 -8.669767e-08 1.228217e-07 8.145324e-01 8.537602e-02 -7.501987e-02 -1.818333e-01 1.618012e-01 -6.984250e-02 -6.248246e-02 6.830849e-02 -5.466203e-02 9.717800e-02 6.566425e-02 4.456678e-02 -4.078151e-02 -2.300511e-03 2.032831e-02 -1.360156e-02 4.074741e-02 4.317615e-02 6.142139e-03 1.359146e-02 -2.515554e-02 1.178048e-02 -2.949283e-02 6.209863e-02 -2.658969e-02 3.059418e-02 -6.381709e-04
<VARIANCE> 39
 3.121591e+01 7.633236e+01 6.176381e+01 8.042953e+01 4.412817e+01 3.001260e+01 6.536731e+01 4.563325e+01 4.116179e+01 3.617493e+01 6.561501e+01 2.665170e+01 1.971191e-02 1.456256e+00 1.935362e+00 3.207722e+00 4.214918e+00 3.843922e+00 3.228832e+00 3.601805e+00 2.456403e+00 5.632816e+00 5.973245e+00 6.053975e+00 2.231884e+00 1.154795e-03 2.115306e-01 1.693019e-01 2.692948e-01 5.118727e-01 5.800385e-01 5.508283e-01 6.236926e-01 3.594316e-01 1.106458e+00 1.312148e+00 1.046190e+00 3.617276e-01 1.464672e-04
<GCONST> 1.043191e+02
<STATE> 8
<MEAN> 39
 2.889922e-08 -1.228217e-07 -1.372713e-07 8.525270e-07 -7.947286e-08 -5.779845e-08 3.395658e-07 5.057364e-08 -7.405426e-08 4.190387e-07 -8.669767e-08 1.228217e-07 8.145324e-01 8.537602e-02 -7.501987e-02 -1.818333e-01 1.618012e-01 -6.984250e-02 -6.248246e-02 6.830849e-02 -5.466203e-02 9.717800e-02 6.566425e-02 4.456678e-02 -4.078151e-02 -2.300511e-03 2.032831e-02 -1.360156e-02 4.074741e-02 4.317615e-02 6.142139e-03 1.359146e-02 -2.515554e-02 1.178048e-02 -2.949283e-02 6.209863e-02 -2.658969e-02 3.059418e-02 -6.381709e-04
<VARIANCE> 39
 3.121591e+01 7.633236e+01 6.176381e+01 8.042953e+01 4.412817e+01 3.001260e+01 6.536731e+01 4.563325e+01 4.116179e+01 3.617493e+01 6.561501e+01 2.665170e+01 1.971191e-02 1.456256e+00 1.935362e+00 3.207722e+00 4.214918e+00 3.843922e+00 3.228832e+00 3.601805e+00 2.456403e+00 5.632816e+00 5.973245e+00 6.053975e+00 2.231884e+00 1.154795e-03 2.115306e-01 1.693019e-01 2.692948e-01 5.118727e-01 5.800385e-01 5.508283e-01 6.236926e-01 3.594316e-01 1.106458e+00 1.312148e+00 1.046190e+00 3.617276e-01 1.464672e-04
<GCONST> 1.043191e+02
<STATE> 9
<MEAN> 39
 2.889922e-08 -1.228217e-07 -1.372713e-07 8.525270e-07 -7.947286e-08 -5.779845e-08 3.395658e-07 5.057364e-08 -7.405426e-08 4.190387e-07 -8.669767e-08 1.228217e-07 8.145324e-01 8.537602e-02 -7.501987e-02 -1.818333e-01 1.618012e-01 -6.984250e-02 -6.248246e-02 6.830849e-02 -5.466203e-02 9.717800e-02 6.566425e-02 4.456678e-02 -4.078151e-02 -2.300511e-03 2.032831e-02 -1.360156e-02 4.074741e-02 4.317615e-02 6.142139e-03 1.359146e-02 -2.515554e-02 1.178048e-02 -2.949283e-02 6.209863e-02 -2.658969e-02 3.059418e-02 -6.381709e-04
<VARIANCE> 39
 3.121591e+01 7.633236e+01 6.176381e+01 8.042953e+01 4.412817e+01 3.001260e+01 6.536731e+01 4.563325e+01 4.116179e+01 3.617493e+01 6.561501e+01 2.665170e+01 1.971191e-02 1.456256e+00 1.935362e+00 3.207722e+00 4.214918e+00 3.843922e+00 3.228832e+00 3.601805e+00 2.456403e+00 5.632816e+00 5.973245e+00 6.053975e+00 2.231884e+00 1.154795e-03 2.115306e-01 1.693019e-01 2.692948e-01 5.118727e-01 5.800385e-01 5.508283e-01 6.236926e-01 3.594316e-01 1.106458e+00 1.312148e+00 1.046190e+00 3.617276e-01 1.464672e-04
<GCONST> 1.043191e+02
<TRANSP> 10
 0.000000e+00 1.000000e+00 0.000000e+00 0.000000e+00 0.000000e+00 0.000000e+00 0.000000e+00 0.000000e+00 0.000000e+00 0.000000e+00
 0.000000e+00 9.000000e-01 9.999999e-02 0.000000e+00 0.000000e+00 0.000000e+00 0.000000e+00 0.000000e+00 0.000000e+00 0.000000e+00
 0.000000e+00 0.000000e+00 9.000000e-01 9.999999e-02 0.000000e+00 0.000000e+00 0.000000e+00 0.000000e+00 0.000000e+00 0.000000e+00
 0.000000e+00 0.000000e+00 0.000000e+00 9.000000e-01 9.999999e-02 0.000000e+00 0.000000e+00 0.000000e+00 0.000000e+00 0.000000e+00
 0.000000e+00 0.000000e+00 0.000000e+00 0.000000e+00 9.000000e-01 9.999999e-02 0.000000e+00 0.000000e+00 0.000000e+00 0.000000e+00
 0.000000e+00 0.000000e+00 0.000000e+00 0.000000e+00 0.000000e+00 9.000000e-01 9.999999e-02 0.000000e+00 0.000000e+00 0.000000e+00
 0.000000e+00 0.000000e+00 0.000000e+00 0.000000e+00 0.000000e+00 0.000000e+00 9.000000e-01 9.999999e-02 0.000000e+00 0.000000e+00
 0.000000e+00 0.000000e+00 0.000000e+00 0.000000e+00 0.000000e+00 0.000000e+00 0.000000e+00 9.000000e-01 9.999999e-02 0.000000e+00
 0.000000e+00 0.000000e+00 0.000000e+00 0.000000e+00 0.000000e+00 0.000000e+00 0.000000e+00 0.000000e+00 9.000000e-01 9.999999e-02
 0.000000e+00 0.000000e+00 0.000000e+00 0.000000e+00 0.000000e+00 0.000000e+00 0.000000e+00 0.000000e+00 0.000000e+00 0.000000e+00
<ENDHMM>
