~o
<STREAMINFO> 1 39
<VECSIZE> 39<NULLD><MFCC_E_D_A_Z><DIAGC>
~h "s052"
<BEGINHMM>
<NUMSTATES> 10
<STATE> 2
<MEAN> 39
 1.589457e-07 7.947286e-08 1.390775e-07 -3.178914e-07 2.200787e-07 1.222659e-07 2.567585e-07 1.222659e-07 -3.056649e-07 -7.335956e-07 2.689851e-07 -1.222659e-08 7.455360e-01 1.915850e-01 -3.435175e-02 -7.255573e-02 -2.312780e-02 1.242003e-01 1.346070e-01 4.436431e-02 -1.402103e-01 -1.867545e-01 1.228959e-02 1.292904e-02 -1.490138e-01 -1.415738e-03 -7.152548e-03 -1.033320e-02 -1.418643e-02 1.262591e-02 -1.312581e-03 -1.731209e-02 1.953265e-02 -6.521213e-03 -9.926998e-03 6.686752e-02 -2.467433e-02 -1.750349e-02 -7.961607e-04
<VARIANCE> 39
 3.103225e+01 1.336153e+01 3.741609e+01 9.806178e+01 7.624917e+01 5.928688e+01 9.781355e+01 9.481831e+01 3.456136e+01 5.520718e+01 4.567863e+01 3.823561e+01 3.834692e-02 2.047903e+00 1.213043e+00 2.311925e+00 4.035378e+00 1.897323e+00 4.863596e+00 6.986197e+00 6.138436e+00 2.413409e+00 4.193552e+00 3.337386e+00 3.224683e+00 1.221346e-03 2.668986e-01 2.318661e-01 3.251343e-01 4.289466e-01 3.355324e-01 6.820112e-01 9.224874e-01 9.344754e-01 4.137599e-01 7.130246e-01 5.761696e-01 5.589305e-01 1.223784e-04
<GCONST> 1.045908e+02
<STATE> 3
<MEAN> 39
 1.589457e-07 7.947286e-08 1.390775e-07 -3.178914e-07 2.200787e-07 1.222659e-07 2.567585e-07 1.222659e-07 -3.056649e-07 -7.335956e-07 2.689851e-07 -1.222659e-08 7.455360e-01 1.915850e-01 -3.435175e-02 -7.255573e-02 -2.312780e-02 1.242003e-01 1.346070e-01 4.436431e-02 -1.402103e-01 -1.867545e-01 1.228959e-02 1.292904e-02 -1.490138e-01 -1.415738e-03 -7.152548e-03 -1.033320e-02 -1.418643e-02 1.262591e-02 -1.312581e-03 -1.731209e-02 1.953265e-02 -6.521213e-03 -9.926998e-03 6.686752e-02 -2.467433e-02 -1.750349e-02 -7.961607e-04
<VARIANCE> 39
 3.103225e+01 1.336153e+01 3.741609e+01 9.806178e+01 7.624917e+01 5.928688e+01 9.781355e+01 9.481831e+01 3.456136e+01 5.520718e+01 4.567863e+01 3.823561e+01 3.834692e-02 2.047903e+00 1.213043e+00 2.311925e+00 4.035378e+00 1.897323e+00 4.863596e+00 6.986197e+00 6.138436e+00 2.413409e+00 4.193552e+00 3.337386e+00 3.224683e+00 1.221346e-03 2.668986e-01 2.318661e-01 3.251343e-01 4.289466e-01 3.355324e-01 6.820112e-01 9.224874e-01 9.344754e-01 4.137599e-01 7.130246e-01 5.761696e-01 5.589305e-01 1.223784e-04
<GCONST> 1.045908e+02
<STATE> 4
<MEAN> 39
 1.589457e-07 7.947286e-08 1.390775e-07 -3.178914e-07 2.200787e-07 1.222659e-07 2.567585e-07 1.222659e-07 -3.056649e-07 -7.335956e-07 2.689851e-07 -1.222659e-08 7.455360e-01 1.915850e-01 -3.435175e-02 -7.255573e-02 -2.312780e-02 1.242003e-01 1.346070e-01 4.436431e-02 -1.402103e-01 -1.867545e-01 1.228959e-02 1.292904e-02 -1.490138e-01 -1.415738e-03 -7.152548e-03 -1.033320e-02 -1.418643e-02 1.262591e-02 -1.312581e-03 -1.731209e-02 1.953265e-02 -6.521213e-03 -9.926998e-03 6.686752e-02 -2.467433e-02 -1.750349e-02 -7.961607e-04
<VARIANCE> 39
 3.103225e+01 1.336153e+01 3.741609e+01 9.806178e+01 7.624917e+01 5.928688e+01 9.781355e+01 9.481831e+01 3.456136e+01 5.520718e+01 4.567863e+01 3.823561e+01 3.834692e-02 2.047903e+00 1.213043e+00 2.311925e+00 4.035378e+00 1.897323e+00 4.863596e+00 6.986197e+00 6.138436e+00 2.413409e+00 4.193552e+00 3.337386e+00 3.224683e+00 1.221346e-03 2.668986e-01 2.318661e-01 3.251343e-01 4.289466e-01 3.355324e-01 6.820112e-01 9.224874e-01 9.344754e-01 4.137599e-01 7.130246e-01 5.761696e-01 5.589305e-01 1.223784e-04
<GCONST> 1.045908e+02
<STATE> 5
<MEAN> 39
 1.589457e-07 7.947286e-08 1.390775e-07 -3.178914e-07 2.200787e-07 1.222659e-07 2.567585e-07 1.222659e-07 -3.056649e-07 -7.335956e-07 2.689851e-07 -1.222659e-08 7.455360e-01 1.915850e-01 -3.435175e-02 -7.255573e-02 -2.312780e-02 1.242003e-01 1.346070e-01 4.436431e-02 -1.402103e-01 -1.867545e-01 1.228959e-02 1.292904e-02 -1.490138e-01 -1.415738e-03 -7.152548e-03 -1.033320e-02 -1.418643e-02 1.262591e-02 -1.312581e-03 -1.731209e-02 1.953265e-02 -6.521213e-03 -9.926998e-03 6.686752e-02 -2.467433e-02 -1.750349e-02 -7.961607e-04
<VARIANCE> 39
 3.103225e+01 1.336153e+01 3.741609e+01 9.806178e+01 7.624917e+01 5.928688e+01 9.781355e+01 9.481831e+01 3.456136e+01 5.520718e+01 4.567863e+01 3.823561e+01 3.834692e-02 2.047903e+00 1.213043e+00 2.311925e+00 4.035378e+00 1.897323e+00 4.863596e+00 6.986197e+00 6.138436e+00 2.413409e+00 4.193552e+00 3.337386e+00 3.224683e+00 1.221346e-03 2.668986e-01 2.318661e-01 3.251343e-01 4.289466e-01 3.355324e-01 6.820112e-01 9.224874e-01 9.344754e-01 4.137599e-01 7.130246e-01 5.761696e-01 5.589305e-01 1.223784e-04
<GCONST> 1.045908e+02
<STATE> 6
<MEAN> 39
 1.589457e-07 7.947286e-08 1.390775e-07 -3.178914e-07 2.200787e-07 1.222659e-07 2.567585e-07 1.222659e-07 -3.056649e-07 -7.335956e-07 2.689851e-07 -1.222659e-08 7.455360e-01 1.915850e-01 -3.435175e-02 -7.255573e-02 -2.312780e-02 1.242003e-01 1.346070e-01 4.436431e-02 -1.402103e-01 -1.867545e-01 1.228959e-02 1.292904e-02 -1.490138e-01 -1.415738e-03 -7.152548e-03 -1.033320e-02 -1.418643e-02 1.262591e-02 -1.312581e-03 -1.731209e-02 1.953265e-02 -6.521213e-03 -9.926998e-03 6.686752e-02 -2.467433e-02 -1.750349e-02 -7.961607e-04
<VARIANCE> 39
 3.103225e+01 1.336153e+01 3.741609e+01 9.806178e+01 7.624917e+01 5.928688e+01 9.781355e+01 9.481831e+01 3.456136e+01 5.520718e+01 4.567863e+01 3.823561e+01 3.834692e-02 2.047903e+00 1.213043e+00 2.311925e+00 4.035378e+00 1.897323e+00 4.863596e+00 6.986197e+00 6.138436e+00 2.413409e+00 4.193552e+00 3.337386e+00 3.224683e+00 1.221346e-03 2.668986e-01 2.318661e-01 3.251343e-01 4.289466e-01 3.355324e-01 6.820112e-01 9.224874e-01 9.344754e-01 4.137599e-01 7.130246e-01 5.761696e-01 5.589305e-01 1.223784e-04
<GCONST> 1.045908e+02
<STATE> 7
<MEAN> 39
 1.589457e-07 7.947286e-08 1.390775e-07 -3.178914e-07 2.200787e-07 1.222659e-07 2.567585e-07 1.222659e-07 -3.056649e-07 -7.335956e-07 2.689851e-07 -1.222659e-08 7.455360e-01 1.915850e-01 -3.435175e-02 -7.255573e-02 -2.312780e-02 1.242003e-01 1.346070e-01 4.436431e-02 -1.402103e-01 -1.867545e-01 1.228959e-02 1.292904e-02 -1.490138e-01 -1.415738e-03 -7.152548e-03 -1.033320e-02 -1.418643e-02 1.262591e-02 -1.312581e-03 -1.731209e-02 1.953265e-02 -6.521213e-03 -9.926998e-03 6.686752e-02 -2.467433e-02 -1.750349e-02 -7.961607e-04
<VARIANCE> 39
 3.103225e+01 1.336153e+01 3.741609e+01 9.806178e+01 7.624917e+01 5.928688e+01 9.781355e+01 9.481831e+01 3.456136e+01 5.520718e+01 4.567863e+01 3.823561e+01 3.834692e-02 2.047903e+00 1.213043e+00 2.311925e+00 4.035378e+00 1.897323e+00 4.863596e+00 6.986197e+00 6.138436e+00 2.413409e+00 4.193552e+00 3.337386e+00 3.224683e+00 1.221346e-03 2.668986e-01 2.318661e-01 3.251343e-01 4.289466e-01 3.355324e-01 6.820112e-01 9.224874e-01 9.344754e-01 4.137599e-01 7.130246e-01 5.761696e-01 5.589305e-01 1.223784e-04
<GCONST> 1.045908e+02
<STATE> 8
<MEAN> 39
 1.589457e-07 7.947286e-08 1.390775e-07 -3.178914e-07 2.200787e-07 1.222659e-07 2.567585e-07 1.222659e-07 -3.056649e-07 -7.335956e-07 2.689851e-07 -1.222659e-08 7.455360e-01 1.915850e-01 -3.435175e-02 -7.255573e-02 -2.312780e-02 1.242003e-01 1.346070e-01 4.436431e-02 -1.402103e-01 -1.867545e-01 1.228959e-02 1.292904e-02 -1.490138e-01 -1.415738e-03 -7.152548e-03 -1.033320e-02 -1.418643e-02 1.262591e-02 -1.312581e-03 -1.731209e-02 1.953265e-02 -6.521213e-03 -9.926998e-03 6.686752e-02 -2.467433e-02 -1.750349e-02 -7.961607e-04
<VARIANCE> 39
 3.103225e+01 1.336153e+01 3.741609e+01 9.806178e+01 7.624917e+01 5.928688e+01 9.781355e+01 9.481831e+01 3.456136e+01 5.520718e+01 4.567863e+01 3.823561e+01 3.834692e-02 2.047903e+00 1.213043e+00 2.311925e+00 4.035378e+00 1.897323e+00 4.863596e+00 6.986197e+00 6.138436e+00 2.413409e+00 4.193552e+00 3.337386e+00 3.224683e+00 1.221346e-03 2.668986e-01 2.318661e-01 3.251343e-01 4.289466e-01 3.355324e-01 6.820112e-01 9.224874e-01 9.344754e-01 4.137599e-01 7.130246e-01 5.761696e-01 5.589305e-01 1.223784e-04
<GCONST> 1.045908e+02
<STATE> 9
<MEAN> 39
 1.589457e-07 7.947286e-08 1.390775e-07 -3.178914e-07 2.200787e-07 1.222659e-07 2.567585e-07 1.222659e-07 -3.056649e-07 -7.335956e-07 2.689851e-07 -1.222659e-08 7.455360e-01 1.915850e-01 -3.435175e-02 -7.255573e-02 -2.312780e-02 1.242003e-01 1.346070e-01 4.436431e-02 -1.402103e-01 -1.867545e-01 1.228959e-02 1.292904e-02 -1.490138e-01 -1.415738e-03 -7.152548e-03 -1.033320e-02 -1.418643e-02 1.262591e-02 -1.312581e-03 -1.731209e-02 1.953265e-02 -6.521213e-03 -9.926998e-03 6.686752e-02 -2.467433e-02 -1.750349e-02 -7.961607e-04
<VARIANCE> 39
 3.103225e+01 1.336153e+01 3.741609e+01 9.806178e+01 7.624917e+01 5.928688e+01 9.781355e+01 9.481831e+01 3.456136e+01 5.520718e+01 4.567863e+01 3.823561e+01 3.834692e-02 2.047903e+00 1.213043e+00 2.311925e+00 4.035378e+00 1.897323e+00 4.863596e+00 6.986197e+00 6.138436e+00 2.413409e+00 4.193552e+00 3.337386e+00 3.224683e+00 1.221346e-03 2.668986e-01 2.318661e-01 3.251343e-01 4.289466e-01 3.355324e-01 6.820112e-01 9.224874e-01 9.344754e-01 4.137599e-01 7.130246e-01 5.761696e-01 5.589305e-01 1.223784e-04
<GCONST> 1.045908e+02
<TRANSP> 10
 0.000000e+00 1.000000e+00 0.000000e+00 0.000000e+00 0.000000e+00 0.000000e+00 0.000000e+00 0.000000e+00 0.000000e+00 0.000000e+00
 0.000000e+00 9.000000e-01 9.999999e-02 0.000000e+00 0.000000e+00 0.000000e+00 0.000000e+00 0.000000e+00 0.000000e+00 0.000000e+00
 0.000000e+00 0.000000e+00 9.000000e-01 9.999999e-02 0.000000e+00 0.000000e+00 0.000000e+00 0.000000e+00 0.000000e+00 0.000000e+00
 0.000000e+00 0.000000e+00 0.000000e+00 9.000000e-01 9.999999e-02 0.000000e+00 0.000000e+00 0.000000e+00 0.000000e+00 0.000000e+00
 0.000000e+00 0.000000e+00 0.000000e+00 0.000000e+00 9.000000e-01 9.999999e-02 0.000000e+00 0.000000e+00 0.000000e+00 0.000000e+00
 0.000000e+00 0.000000e+00 0.000000e+00 0.000000e+00 0.000000e+00 9.000000e-01 9.999999e-02 0.000000e+00 0.000000e+00 0.000000e+00
 0.000000e+00 0.000000e+00 0.000000e+00 0.000000e+00 0.000000e+00 0.000000e+00 9.000000e-01 9.999999e-02 0.000000e+00 0.000000e+00
 0.000000e+00 0.000000e+00 0.000000e+00 0.000000e+00 0.000000e+00 0.000000e+00 0.000000e+00 9.000000e-01 9.999999e-02 0.000000e+00
 0.000000e+00 0.000000e+00 0.000000e+00 0.000000e+00 0.000000e+00 0.000000e+00 0.000000e+00 0.000000e+00 9.000000e-01 9.999999e-02
 0.000000e+00 0.000000e+00 0.000000e+00 0.000000e+00 0.000000e+00 0.000000e+00 0.000000e+00 0.000000e+00 0.000000e+00 0.000000e+00
<ENDHMM>
