~o
<STREAMINFO> 1 39
<VECSIZE> 39<NULLD><MFCC_E_D_A_Z><DIAGC>
~h "s053"
<BEGINHMM>
<NUMSTATES> 10
<STATE> 2
<MEAN> 39
 -1.100393e-07 7.335957e-08 4.401574e-08 1.173753e-07 1.907349e-07 -5.868765e-08 -5.208529e-07 -3.007742e-07 -7.335956e-09 2.934383e-08 -1.980708e-07 -3.667978e-08 7.964436e-01 6.736030e-02 -1.743023e-05 -1.065409e-01 7.740919e-03 -2.349281e-01 -1.872229e-01 -7.489255e-03 4.812676e-03 -7.279609e-03 -3.774132e-01 2.401181e-01 -5.010971e-02 -1.754468e-03 -3.968045e-02 -3.225541e-02 1.572595e-03 -2.585211e-03 2.067785e-02 7.467292e-02 -9.594361e-03 -7.032528e-03 -5.437560e-02 6.036073e-02 -2.412787e-02 -4.043159e-02 -1.432282e-03
<VARIANCE> 39
 1.016528e+01 7.034417e+01 7.237183e+01 1.490051e+02 5.483845e+01 4.470856e+01 8.160160e+01 7.664634e+01 5.653661e+01 5.343963e+01 3.200521e+01 4.119009e+01 2.666761e-02 1.003826e+00 1.885606e+00 2.762138e+00 4.456945e+00 3.349396e+00 3.585988e+00 4.455760e+00 3.582146e+00 4.249096e+00 3.543341e+00 2.836979e+00 2.408947e+00 9.759030e-04 1.263610e-01 1.797349e-01 2.973630e-01 5.259528e-01 5.657415e-01 4.722214e-01 7.365725e-01 6.795020e-01 6.256398e-01 5.090371e-01 5.258738e-01 3.117008e-01 7.637544e-05
<GCONST> 1.016755e+02
<STATE> 3
<MEAN> 39
 -1.100393e-07 7.335957e-08 4.401574e-08 1.173753e-07 1.907349e-07 -5.868765e-08 -5.208529e-07 -3.007742e-07 -7.335956e-09 2.934383e-08 -1.980708e-07 -3.667978e-08 7.964436e-01 6.736030e-02 -1.743023e-05 -1.065409e-01 7.740919e-03 -2.349281e-01 -1.872229e-01 -7.489255e-03 4.812676e-03 -7.279609e-03 -3.774132e-01 2.401181e-01 -5.010971e-02 -1.754468e-03 -3.968045e-02 -3.225541e-02 1.572595e-03 -2.585211e-03 2.067785e-02 7.467292e-02 -9.594361e-03 -7.032528e-03 -5.437560e-02 6.036073e-02 -2.412787e-02 -4.043159e-02 -1.432282e-03
<VARIANCE> 39
 1.016528e+01 7.034417e+01 7.237183e+01 1.490051e+02 5.483845e+01 4.470856e+01 8.160160e+01 7.664634e+01 5.653661e+01 5.343963e+01 3.200521e+01 4.119009e+01 2.666761e-02 1.003826e+00 1.885606e+00 2.762138e+00 4.456945e+00 3.349396e+00 3.585988e+00 4.455760e+00 3.582146e+00 4.249096e+00 3.543341e+00 2.836979e+00 2.408947e+00 9.759030e-04 1.263610e-01 1.797349e-01 2.973630e-01 5.259528e-01 5.657415e-01 4.722214e-01 7.365725e-01 6.795020e-01 6.256398e-01 5.090371e-01 5.258738e-01 3.117008e-01 7.637544e-05
<GCONST> 1.016755e+02
<STATE> 4
<MEAN> 39
 -1.100393e-07 7.335957e-08 4.401574e-08 1.173753e-07 1.907349e-07 -5.868765e-08 -5.208529e-07 -3.007742e-07 -7.335956e-09 2.934383e-08 -1.980708e-07 -3.667978e-08 7.964436e-01 6.736030e-02 -1.743023e-05 -1.065409e-01 7.740919e-03 -2.349281e-01 -1.872229e-01 -7.489255e-03 4.812676e-03 -7.279609e-03 -3.774132e-01 2.401181e-01 -5.010971e-02 -1.754468e-03 -3.968045e-02 -3.225541e-02 1.572595e-03 -2.585211e-03 2.067785e-02 7.467292e-02 -9.594361e-03 -7.032528e-03 -5.437560e-02 6.036073e-02 -2.412787e-02 -4.043159e-02 -1.432282e-03
<VARIANCE> 39
 1.016528e+01 7.034417e+01 7.237183e+01 1.490051e+02 5.483845e+01 4.470856e+01 8.160160e+01 7.664634e+01 5.653661e+01 5.343963e+01 3.200521e+01 4.119009e+01 2.666761e-02 1.003826e+00 1.885606e+00 2.762138e+00 4.456945e+00 3.349396e+00 3.585988e+00 4.455760e+00 3.582146e+00 4.249096e+00 3.543341e+00 2.836979e+00 2.408947e+00 9.759030e-04 1.263610e-01 1.797349e-01 2.973630e-01 5.259528e-01 5.657415e-01 4.722214e-01 7.365725e-01 6.795020e-01 6.256398e-01 5.090371e-01 5.258738e-01 3.117008e-01 7.637544e-05
<GCONST> 1.016755e+02
<STATE> 5
<MEAN> 39
 -1.100393e-07 7.335957e-08 4.401574e-08 1.173753e-07 1.907349e-07 -5.868765e-08 -5.208529e-07 -3.007742e-07 -7.335956e-09 2.934383e-08 -1.980708e-07 -3.667978e-08 7.964436e-01 6.736030e-02 -1.743023e-05 -1.065409e-01 7.740919e-03 -2.349281e-01 -1.872229e-01 -7.489255e-03 4.812676e-03 -7.279609e-03 -3.774132e-01 2.401181e-01 -5.010971e-02 -1.754468e-03 -3.968045e-02 -3.225541e-02 1.572595e-03 -2.585211e-03 2.067785e-02 7.467292e-02 -9.594361e-03 -7.032528e-03 -5.437560e-02 6.036073e-02 -2.412787e-02 -4.043159e-02 -1.432282e-03
<VARIANCE> 39
 1.016528e+01 7.034417e+01 7.237183e+01 1.490051e+02 5.483845e+01 4.470856e+01 8.160160e+01 7.664634e+01 5.653661e+01 5.343963e+01 3.200521e+01 4.119009e+01 2.666761e-02 1.003826e+00 1.885606e+00 2.762138e+00 4.456945e+00 3.349396e+00 3.585988e+00 4.455760e+00 3.582146e+00 4.249096e+00 3.543341e+00 2.836979e+00 2.408947e+00 9.759030e-04 1.263610e-01 1.797349e-01 2.973630e-01 5.259528e-01 5.657415e-01 4.722214e-01 7.365725e-01 6.795020e-01 6.256398e-01 5.090371e-01 5.258738e-01 3.117008e-01 7.637544e-05
<GCONST> 1.016755e+02
<STATE> 6
<MEAN> 39
 -1.100393e-07 7.335957e-08 4.401574e-08 1.173753e-07 1.907349e-07 -5.868765e-08 -5.208529e-07 -3.007742e-07 -7.335956e-09 2.934383e-08 -1.980708e-07 -3.667978e-08 7.964436e-01 6.736030e-02 -1.743023e-05 -1.065409e-01 7.740919e-03 -2.349281e-01 -1.872229e-01 -7.489255e-03 4.812676e-03 -7.279609e-03 -3.774132e-01 2.401181e-01 -5.010971e-02 -1.754468e-03 -3.968045e-02 -3.225541e-02 1.572595e-03 -2.585211e-03 2.067785e-02 7.467292e-02 -9.594361e-03 -7.032528e-03 -5.437560e-02 6.036073e-02 -2.412787e-02 -4.043159e-02 -1.432282e-03
<VARIANCE> 39
 1.016528e+01 7.034417e+01 7.237183e+01 1.490051e+02 5.483845e+01 4.470856e+01 8.160160e+01 7.664634e+01 5.653661e+01 5.343963e+01 3.200521e+01 4.119009e+01 2.666761e-02 1.003826e+00 1.885606e+00 2.762138e+00 4.456945e+00 3.349396e+00 3.585988e+00 4.455760e+00 3.582146e+00 4.249096e+00 3.543341e+00 2.836979e+00 2.408947e+00 9.759030e-04 1.263610e-01 1.797349e-01 2.973630e-01 5.259528e-01 5.657415e-01 4.722214e-01 7.365725e-01 6.795020e-01 6.256398e-01 5.090371e-01 5.258738e-01 3.117008e-01 7.637544e-05
<GCONST> 1.016755e+02
<STATE> 7
<MEAN> 39
 -1.100393e-07 7.335957e-08 4.401574e-08 1.173753e-07 1.907349e-07 -5.868765e-08 -5.208529e-07 -3.007742e-07 -7.335956e-09 2.934383e-08 -1.980708e-07 -3.667978e-08 7.964436e-01 6.736030e-02 -1.743023e-05 -1.065409e-01 7.740919e-03 -2.349281e-01 -1.872229e-01 -7.489255e-03 4.812676e-03 -7.279609e-03 -3.774132e-01 2.401181e-01 -5.010971e-02 -1.754468e-03 -3.968045e-02 -3.225541e-02 1.572595e-03 -2.585211e-03 2.067785e-02 7.467292e-02 -9.594361e-03 -7.032528e-03 -5.437560e-02 6.036073e-02 -2.412787e-02 -4.043159e-02 -1.432282e-03
<VARIANCE> 39
 1.016528e+01 7.034417e+01 7.237183e+01 1.490051e+02 5.483845e+01 4.470856e+01 8.160160e+01 7.664634e+01 5.653661e+01 5.343963e+01 3.200521e+01 4.119009e+01 2.666761e-02 1.003826e+00 1.885606e+00 2.762138e+00 4.456945e+00 3.349396e+00 3.585988e+00 4.455760e+00 3.582146e+00 4.249096e+00 3.543341e+00 2.836979e+00 2.408947e+00 9.759030e-04 1.263610e-01 1.797349e-01 2.973630e-01 5.259528e-01 5.657415e-01 4.722214e-01 7.365725e-01 6.795020e-01 6.256398e-01 5.090371e-01 5.258738e-01 3.117008e-01 7.637544e-05
<GCONST> 1.016755e+02
<STATE> 8
<MEAN> 39
 -1.100393e-07 7.335957e-08 4.401574e-08 1.173753e-07 1.907349e-07 -5.868765e-08 -5.208529e-07 -3.007742e-07 -7.335956e-09 2.934383e-08 -1.980708e-07 -3.667978e-08 7.964436e-01 6.736030e-02 -1.743023e-05 -1.065409e-01 7.740919e-03 -2.349281e-01 -1.872229e-01 -7.489255e-03 4.812676e-03 -7.279609e-03 -3.774132e-01 2.401181e-01 -5.010971e-02 -1.754468e-03 -3.968045e-02 -3.225541e-02 1.572595e-03 -2.585211e-03 2.067785e-02 7.467292e-02 -9.594361e-03 -7.032528e-03 -5.437560e-02 6.036073e-02 -2.412787e-02 -4.043159e-02 -1.432282e-03
<VARIANCE> 39
 1.016528e+01 7.034417e+01 7.237183e+01 1.490051e+02 5.483845e+01 4.470856e+01 8.160160e+01 7.664634e+01 5.653661e+01 5.343963e+01 3.200521e+01 4.119009e+01 2.666761e-02 1.003826e+00 1.885606e+00 2.762138e+00 4.456945e+00 3.349396e+00 3.585988e+00 4.455760e+00 3.582146e+00 4.249096e+00 3.543341e+00 2.836979e+00 2.408947e+00 9.759030e-04 1.263610e-01 1.797349e-01 2.973630e-01 5.259528e-01 5.657415e-01 4.722214e-01 7.365725e-01 6.795020e-01 6.256398e-01 5.090371e-01 5.258738e-01 3.117008e-01 7.637544e-05
<GCONST> 1.016755e+02
<STATE> 9
<MEAN> 39
 -1.100393e-07 7.335957e-08 4.401574e-08 1.173753e-07 1.907349e-07 -5.868765e-08 -5.208529e-07 -3.007742e-07 -7.335956e-09 2.934383e-08 -1.980708e-07 -3.667978e-08 7.964436e-01 6.736030e-02 -1.743023e-05 -1.065409e-01 7.740919e-03 -2.349281e-01 -1.872229e-01 -7.489255e-03 4.812676e-03 -7.279609e-03 -3.774132e-01 2.401181e-01 -5.010971e-02 -1.754468e-03 -3.968045e-02 -3.225541e-02 1.572595e-03 -2.585211e-03 2.067785e-02 7.467292e-02 -9.594361e-03 -7.032528e-03 -5.437560e-02 6.036073e-02 -2.412787e-02 -4.043159e-02 -1.432282e-03
<VARIANCE> 39
 1.016528e+01 7.034417e+01 7.237183e+01 1.490051e+02 5.483845e+01 4.470856e+01 8.160160e+01 7.664634e+01 5.653661e+01 5.343963e+01 3.200521e+01 4.119009e+01 2.666761e-02 1.003826e+00 1.885606e+00 2.762138e+00 4.456945e+00 3.349396e+00 3.585988e+00 4.455760e+00 3.582146e+00 4.249096e+00 3.543341e+00 2.836979e+00 2.408947e+00 9.759030e-04 1.263610e-01 1.797349e-01 2.973630e-01 5.259528e-01 5.657415e-01 4.722214e-01 7.365725e-01 6.795020e-01 6.256398e-01 5.090371e-01 5.258738e-01 3.117008e-01 7.637544e-05
<GCONST> 1.016755e+02
<TRANSP> 10
 0.000000e+00 1.000000e+00 0.000000e+00 0.000000e+00 0.000000e+00 0.000000e+00 0.000000e+00 0.000000e+00 0.000000e+00 0.000000e+00
 0.000000e+00 9.000000e-01 9.999999e-02 0.000000e+00 0.000000e+00 0.000000e+00 0.000000e+00 0.000000e+00 0.000000e+00 0.000000e+00
 0.000000e+00 0.000000e+00 9.000000e-01 9.999999e-02 0.000000e+00 0.000000e+00 0.000000e+00 0.000000e+00 0.000000e+00 0.000000e+00
 0.000000e+00 0.000000e+00 0.000000e+00 9.000000e-01 9.999999e-02 0.000000e+00 0.000000e+00 0.000000e+00 0.000000e+00 0.000000e+00
 0.000000e+00 0.000000e+00 0.000000e+00 0.000000e+00 9.000000e-01 9.999999e-02 0.000000e+00 0.000000e+00 0.000000e+00 0.000000e+00
 0.000000e+00 0.000000e+00 0.000000e+00 0.000000e+00 0.000000e+00 9.000000e-01 9.999999e-02 0.000000e+00 0.000000e+00 0.000000e+00
 0.000000e+00 0.000000e+00 0.000000e+00 0.000000e+00 0.000000e+00 0.000000e+00 9.000000e-01 9.999999e-02 0.000000e+00 0.000000e+00
 0.000000e+00 0.000000e+00 0.000000e+00 0.000000e+00 0.000000e+00 0.000000e+00 0.000000e+00 9.000000e-01 9.999999e-02 0.000000e+00
 0.000000e+00 0.000000e+00 0.000000e+00 0.000000e+00 0.000000e+00 0.000000e+00 0.000000e+00 0.000000e+00 9.000000e-01 9.999999e-02
 0.000000e+00 0.000000e+00 0.000000e+00 0.000000e+00 0.000000e+00 0.000000e+00 0.000000e+00 0.000000e+00 0.000000e+00 0.000000e+00
<ENDHMM>
