~o
<STREAMINFO> 1 39
<VECSIZE> 39<NULLD><MFCC_E_D_A_Z><DIAGC>
~h "s058"
<BEGINHMM>
<NUMSTATES> 10
<STATE> 2
<MEAN> 39
 -7.947286e-08 2.962170e-07 -3.612403e-07 -7.224806e-08 -7.224806e-09 2.022946e-07 -1.444961e-08 -1.228217e-07 -9.392247e-08 3.612403e-07 -2.709302e-08 5.237984e-07 8.749825e-01 -8.807054e-03 -2.157964e-01 -9.815806e-02 3.016373e-01 1.545104e-01 3.753573e-01 -1.044824e-01 -1.257478e-01 -4.680177e-02 -1.654457e-01 1.368262e-01 -3.447504e-02 -5.628913e-03 1.982080e-02 4.380718e-02 5.436290e-02 2.333988e-02 -8.401093e-03 4.792265e-03 -1.783994e-02 -1.626571e-02 1.961097e-02 5.176929e-02 3.219072e-03 -6.643931e-03 -4.313323e-04
<VARIANCE> 39
 1.171302e+01 5.071405e+01 4.992242e+01 2.345779e+01 6.153508e+01 1.170136e+02 4.885776e+01 5.004008e+01 4.221022e+01 3.394390e+01 6.659534e+01 3.380141e+01 2.104509e-02 1.201117e+00 2.345315e+00 1.914201e+00 1.916343e+00 3.882422e+00 2.156210e+00 1.698364e+00 3.853726e+00 2.959815e+00 2.970523e+00 4.350745e+00 3.419546e+00 6.421051e-04 1.896859e-01 2.778497e-01 1.453313e-01 3.187293e-01 3.395720e-01 3.983665e-01 2.720787e-01 6.238108e-01 4.567649e-01 4.319082e-01 5.699473e-01 6.956005e-01 6.625838e-05
<GCONST> 9.484120e+01
<STATE> 3
<MEAN> 39
 -7.947286e-08 2.962170e-07 -3.612403e-07 -7.224806e-08 -7.224806e-09 2.022946e-07 -1.444961e-08 -1.228217e-07 -9.392247e-08 3.612403e-07 -2.709302e-08 5.237984e-07 8.749825e-01 -8.807054e-03 -2.157964e-01 -9.815806e-02 3.016373e-01 1.545104e-01 3.753573e-01 -1.044824e-01 -1.257478e-01 -4.680177e-02 -1.654457e-01 1.368262e-01 -3.447504e-02 -5.628913e-03 1.982080e-02 4.380718e-02 5.436290e-02 2.333988e-02 -8.401093e-03 4.792265e-03 -1.783994e-02 -1.626571e-02 1.961097e-02 5.176929e-02 3.219072e-03 -6.643931e-03 -4.313323e-04
<VARIANCE> 39
 1.171302e+01 5.071405e+01 4.992242e+01 2.345779e+01 6.153508e+01 1.170136e+02 4.885776e+01 5.004008e+01 4.221022e+01 3.394390e+01 6.659534e+01 3.380141e+01 2.104509e-02 1.201117e+00 2.345315e+00 1.914201e+00 1.916343e+00 3.882422e+00 2.156210e+00 1.698364e+00 3.853726e+00 2.959815e+00 2.970523e+00 4.350745e+00 3.419546e+00 6.421051e-04 1.896859e-01 2.778497e-01 1.453313e-01 3.187293e-01 3.395720e-01 3.983665e-01 2.720787e-01 6.238108e-01 4.567649e-01 4.319082e-01 5.699473e-01 6.956005e-01 6.625838e-05
<GCONST> 9.484120e+01
<STATE> 4
<MEAN> 39
 -7.947286e-08 2.962170e-07 -3.612403e-07 -7.224806e-08 -7.224806e-09 2.022946e-07 -1.444961e-08 -1.228217e-07 -9.392247e-08 3.612403e-07 -2.709302e-08 5.237984e-07 8.749825e-01 -8.807054e-03 -2.157964e-01 -9.815806e-02 3.016373e-01 1.545104e-01 3.753573e-01 -1.044824e-01 -1.257478e-01 -4.680177e-02 -1.654457e-01 1.368262e-01 -3.447504e-02 -5.628913e-03 1.982080e-02 4.380718e-02 5.436290e-02 2.333988e-02 -8.401093e-03 4.792265e-03 -1.783994e-02 -1.626571e-02 1.961097e-02 5.176929e-02 3.219072e-03 -6.643931e-03 -4.313323e-04
<VARIANCE> 39
 1.171302e+01 5.071405e+01 4.992242e+01 2.345779e+01 6.153508e+01 1.170136e+02 4.885776e+01 5.004008e+01 4.221022e+01 3.394390e+01 6.659534e+01 3.380141e+01 2.104509e-02 1.201117e+00 2.345315e+00 1.914201e+00 1.916343e+00 3.882422e+00 2.156210e+00 1.698364e+00 3.853726e+00 2.959815e+00 2.970523e+00 4.350745e+00 3.419546e+00 6.421051e-04 1.896859e-01 2.778497e-01 1.453313e-01 3.187293e-01 3.395720e-01 3.983665e-01 2.720787e-01 6.238108e-01 4.567649e-01 4.319082e-01 5.699473e-01 6.956005e-01 6.625838e-05
<GCONST> 9.484120e+01
<STATE> 5
<MEAN> 39
 -7.947286e-08 2.962170e-07 -3.612403e-07 -7.224806e-08 -7.224806e-09 2.022946e-07 -1.444961e-08 -1.228217e-07 -9.392247e-08 3.612403e-07 -2.709302e-08 5.237984e-07 8.749825e-01 -8.807054e-03 -2.157964e-01 -9.815806e-02 3.016373e-01 1.545104e-01 3.753573e-01 -1.044824e-01 -1.257478e-01 -4.680177e-02 -1.654457e-01 1.368262e-01 -3.447504e-02 -5.628913e-03 1.982080e-02 4.380718e-02 5.436290e-02 2.333988e-02 -8.401093e-03 4.792265e-03 -1.783994e-02 -1.626571e-02 1.961097e-02 5.176929e-02 3.219072e-03 -6.643931e-03 -4.313323e-04
<VARIANCE> 39
 1.171302e+01 5.071405e+01 4.992242e+01 2.345779e+01 6.153508e+01 1.170136e+02 4.885776e+01 5.004008e+01 4.221022e+01 3.394390e+01 6.659534e+01 3.380141e+01 2.104509e-02 1.201117e+00 2.345315e+00 1.914201e+00 1.916343e+00 3.882422e+00 2.156210e+00 1.698364e+00 3.853726e+00 2.959815e+00 2.970523e+00 4.350745e+00 3.419546e+00 6.421051e-04 1.896859e-01 2.778497e-01 1.453313e-01 3.187293e-01 3.395720e-01 3.983665e-01 2.720787e-01 6.238108e-01 4.567649e-01 4.319082e-01 5.699473e-01 6.956005e-01 6.625838e-05
<GCONST> 9.484120e+01
<STATE> 6
<MEAN> 39
 -7.947286e-08 2.962170e-07 -3.612403e-07 -7.224806e-08 -7.224806e-09 2.022946e-07 -1.444961e-08 -1.228217e-07 -9.392247e-08 3.612403e-07 -2.709302e-08 5.237984e-07 8.749825e-01 -8.807054e-03 -2.157964e-01 -9.815806e-02 3.016373e-01 1.545104e-01 3.753573e-01 -1.044824e-01 -1.257478e-01 -4.680177e-02 -1.654457e-01 1.368262e-01 -3.447504e-02 -5.628913e-03 1.982080e-02 4.380718e-02 5.436290e-02 2.333988e-02 -8.401093e-03 4.792265e-03 -1.783994e-02 -1.626571e-02 1.961097e-02 5.176929e-02 3.219072e-03 -6.643931e-03 -4.313323e-04
<VARIANCE> 39
 1.171302e+01 5.071405e+01 4.992242e+01 2.345779e+01 6.153508e+01 1.170136e+02 4.885776e+01 5.004008e+01 4.221022e+01 3.394390e+01 6.659534e+01 3.380141e+01 2.104509e-02 1.201117e+00 2.345315e+00 1.914201e+00 1.916343e+00 3.882422e+00 2.156210e+00 1.698364e+00 3.853726e+00 2.959815e+00 2.970523e+00 4.350745e+00 3.419546e+00 6.421051e-04 1.896859e-01 2.778497e-01 1.453313e-01 3.187293e-01 3.395720e-01 3.983665e-01 2.720787e-01 6.238108e-01 4.567649e-01 4.319082e-01 5.699473e-01 6.956005e-01 6.625838e-05
<GCONST> 9.484120e+01
<STATE> 7
<MEAN> 39
 -7.947286e-08 2.962170e-07 -3.612403e-07 -7.224806e-08 -7.224806e-09 2.022946e-07 -1.444961e-08 -1.228217e-07 -9.392247e-08 3.612403e-07 -2.709302e-08 5.237984e-07 8.749825e-01 -8.807054e-03 -2.157964e-01 -9.815806e-02 3.016373e-01 1.545104e-01 3.753573e-01 -1.044824e-01 -1.257478e-01 -4.680177e-02 -1.654457e-01 1.368262e-01 -3.447504e-02 -5.628913e-03 1.982080e-02 4.380718e-02 5.436290e-02 2.333988e-02 -8.401093e-03 4.792265e-03 -1.783994e-02 -1.626571e-02 1.961097e-02 5.176929e-02 3.219072e-03 -6.643931e-03 -4.313323e-04
<VARIANCE> 39
 1.171302e+01 5.071405e+01 4.992242e+01 2.345779e+01 6.153508e+01 1.170136e+02 4.885776e+01 5.004008e+01 4.221022e+01 3.394390e+01 6.659534e+01 3.380141e+01 2.104509e-02 1.201117e+00 2.345315e+00 1.914201e+00 1.916343e+00 3.882422e+00 2.156210e+00 1.698364e+00 3.853726e+00 2.959815e+00 2.970523e+00 4.350745e+00 3.419546e+00 6.421051e-04 1.896859e-01 2.778497e-01 1.453313e-01 3.187293e-01 3.395720e-01 3.983665e-01 2.720787e-01 6.238108e-01 4.567649e-01 4.319082e-01 5.699473e-01 6.956005e-01 6.625838e-05
<GCONST> 9.484120e+01
<STATE> 8
<MEAN> 39
 -7.947286e-08 2.962170e-07 -3.612403e-07 -7.224806e-08 -7.224806e-09 2.022946e-07 -1.444961e-08 -1.228217e-07 -9.392247e-08 3.612403e-07 -2.709302e-08 5.237984e-07 8.749825e-01 -8.807054e-03 -2.157964e-01 -9.815806e-02 3.016373e-01 1.545104e-01 3.753573e-01 -1.044824e-01 -1.257478e-01 -4.680177e-02 -1.654457e-01 1.368262e-01 -3.447504e-02 -5.628913e-03 1.982080e-02 4.380718e-02 5.436290e-02 2.333988e-02 -8.401093e-03 4.792265e-03 -1.783994e-02 -1.626571e-02 1.961097e-02 5.176929e-02 3.219072e-03 -6.643931e-03 -4.313323e-04
<VARIANCE> 39
 1.171302e+01 5.071405e+01 4.992242e+01 2.345779e+01 6.153508e+01 1.170136e+02 4.885776e+01 5.004008e+01 4.221022e+01 3.394390e+01 6.659534e+01 3.380141e+01 2.104509e-02 1.201117e+00 2.345315e+00 1.914201e+00 1.916343e+00 3.882422e+00 2.156210e+00 1.698364e+00 3.853726e+00 2.959815e+00 2.970523e+00 4.350745e+00 3.419546e+00 6.421051e-04 1.896859e-01 2.778497e-01 1.453313e-01 3.187293e-01 3.395720e-01 3.983665e-01 2.720787e-01 6.238108e-01 4.567649e-01 4.319082e-01 5.699473e-01 6.956005e-01 6.625838e-05
<GCONST> 9.484120e+01
<STATE> 9
<MEAN> 39
 -7.947286e-08 2.962170e-07 -3.612403e-07 -7.224806e-08 -7.224806e-09 2.022946e-07 -1.444961e-08 -1.228217e-07 -9.392247e-08 3.612403e-07 -2.709302e-08 5.237984e-07 8.749825e-01 -8.807054e-03 -2.157964e-01 -9.815806e-02 3.016373e-01 1.545104e-01 3.753573e-01 -1.044824e-01 -1.257478e-01 -4.680177e-02 -1.654457e-01 1.368262e-01 -3.447504e-02 -5.628913e-03 1.982080e-02 4.380718e-02 5.436290e-02 2.333988e-02 -8.401093e-03 4.792265e-03 -1.783994e-02 -1.626571e-02 1.961097e-02 5.176929e-02 3.219072e-03 -6.643931e-03 -4.313323e-04
<VARIANCE> 39
 1.171302e+01 5.071405e+01 4.992242e+01 2.345779e+01 6.153508e+01 1.170136e+02 4.885776e+01 5.004008e+01 4.221022e+01 3.394390e+01 6.659534e+01 3.380141e+01 2.104509e-02 1.201117e+00 2.345315e+00 1.914201e+00 1.916343e+00 3.882422e+00 2.156210e+00 1.698364e+00 3.853726e+00 2.959815e+00 2.970523e+00 4.350745e+00 3.419546e+00 6.421051e-04 1.896859e-01 2.778497e-01 1.453313e-01 3.187293e-01 3.395720e-01 3.983665e-01 2.720787e-01 6.238108e-01 4.567649e-01 4.319082e-01 5.699473e-01 6.956005e-01 6.625838e-05
<GCONST> 9.484120e+01
<TRANSP> 10
 0.000000e+00 1.000000e+00 0.000000e+00 0.000000e+00 0.000000e+00 0.000000e+00 0.000000e+00 0.000000e+00 0.000000e+00 0.000000e+00
 0.000000e+00 9.000000e-01 9.999999e-02 0.000000e+00 0.000000e+00 0.000000e+00 0.000000e+00 0.000000e+00 0.000000e+00 0.000000e+00
 0.000000e+00 0.000000e+00 9.000000e-01 9.999999e-02 0.000000e+00 0.000000e+00 0.000000e+00 0.000000e+00 0.000000e+00 0.000000e+00
 0.000000e+00 0.000000e+00 0.000000e+00 9.000000e-01 9.999999e-02 0.000000e+00 0.000000e+00 0.000000e+00 0.000000e+00 0.000000e+00
 0.000000e+00 0.000000e+00 0.000000e+00 0.000000e+00 9.000000e-01 9.999999e-02 0.000000e+00 0.000000e+00 0.000000e+00 0.000000e+00
 0.000000e+00 0.000000e+00 0.000000e+00 0.000000e+00 0.000000e+00 9.000000e-01 9.999999e-02 0.000000e+00 0.000000e+00 0.000000e+00
 0.000000e+00 0.000000e+00 0.000000e+00 0.000000e+00 0.000000e+00 0.000000e+00 9.000000e-01 9.999999e-02 0.000000e+00 0.000000e+00
 0.000000e+00 0.000000e+00 0.000000e+00 0.000000e+00 0.000000e+00 0.000000e+00 0.000000e+00 9.000000e-01 9.999999e-02 0.000000e+00
 0.000000e+00 0.000000e+00 0.000000e+00 0.000000e+00 0.000000e+00 0.000000e+00 0.000000e+00 0.000000e+00 9.000000e-01 9.999999e-02
 0.000000e+00 0.000000e+00 0.000000e+00 0.000000e+00 0.000000e+00 0.000000e+00 0.000000e+00 0.000000e+00 0.000000e+00 0.000000e+00
<ENDHMM>
