~o
<STREAMINFO> 1 39
<VECSIZE> 39<NULLD><MFCC_E_D_A_Z><DIAGC>
~h "s061"
<BEGINHMM>
<NUMSTATES> 10
<STATE> 2
<MEAN> 39
 -1.517209e-07 -4.768372e-08 1.907349e-07 3.814697e-07 2.167442e-07 3.814697e-07 -2.340837e-07 -1.040372e-07 1.018698e-07 1.040372e-07 6.068836e-08 -1.127070e-07 7.544945e-01 1.703237e-01 -6.956117e-03 -1.054922e-02 -1.232322e-02 1.336892e-01 1.153410e-01 1.847715e-01 -2.254457e-01 4.164990e-03 -6.267249e-03 5.012210e-02 2.502904e-02 -5.016427e-03 -2.745002e-02 5.909491e-02 6.053241e-02 -1.246047e-02 -2.231782e-02 4.972098e-02 -3.506956e-02 1.209941e-03 1.630815e-02 7.761249e-02 1.127679e-01 -2.654984e-03 -1.209509e-03
<VARIANCE> 39
 2.742897e+01 2.436880e+01 6.396647e+01 7.221140e+01 2.689948e+01 2.884958e+01 4.839215e+01 8.376057e+01 3.253373e+01 5.792233e+01 4.550533e+01 3.479443e+01 1.547045e-02 1.438306e+00 1.794972e+00 3.207335e+00 5.748542e+00 1.773607e+00 3.966212e+00 3.325120e+00 5.122197e+00 3.932409e+00 5.182220e+00 4.327507e+00 3.046793e+00 9.632864e-04 1.330599e-01 2.267923e-01 3.302856e-01 8.504807e-01 2.813944e-01 9.427940e-01 4.896220e-01 9.848575e-01 7.792758e-01 9.440126e-01 6.665733e-01 5.223593e-01 7.813027e-05
<GCONST> 1.019727e+02
<STATE> 3
<MEAN> 39
 -1.517209e-07 -4.768372e-08 1.907349e-07 3.814697e-07 2.167442e-07 3.814697e-07 -2.340837e-07 -1.040372e-07 1.018698e-07 1.040372e-07 6.068836e-08 -1.127070e-07 7.544945e-01 1.703237e-01 -6.956117e-03 -1.054922e-02 -1.232322e-02 1.336892e-01 1.153410e-01 1.847715e-01 -2.254457e-01 4.164990e-03 -6.267249e-03 5.012210e-02 2.502904e-02 -5.016427e-03 -2.745002e-02 5.909491e-02 6.053241e-02 -1.246047e-02 -2.231782e-02 4.972098e-02 -3.506956e-02 1.209941e-03 1.630815e-02 7.761249e-02 1.127679e-01 -2.654984e-03 -1.209509e-03
<VARIANCE> 39
 2.742897e+01 2.436880e+01 6.396647e+01 7.221140e+01 2.689948e+01 2.884958e+01 4.839215e+01 8.376057e+01 3.253373e+01 5.792233e+01 4.550533e+01 3.479443e+01 1.547045e-02 1.438306e+00 1.794972e+00 3.207335e+00 5.748542e+00 1.773607e+00 3.966212e+00 3.325120e+00 5.122197e+00 3.932409e+00 5.182220e+00 4.327507e+00 3.046793e+00 9.632864e-04 1.330599e-01 2.267923e-01 3.302856e-01 8.504807e-01 2.813944e-01 9.427940e-01 4.896220e-01 9.848575e-01 7.792758e-01 9.440126e-01 6.665733e-01 5.223593e-01 7.813027e-05
<GCONST> 1.019727e+02
<STATE> 4
<MEAN> 39
 -1.517209e-07 -4.768372e-08 1.907349e-07 3.814697e-07 2.167442e-07 3.814697e-07 -2.340837e-07 -1.040372e-07 1.018698e-07 1.040372e-07 6.068836e-08 -1.127070e-07 7.544945e-01 1.703237e-01 -6.956117e-03 -1.054922e-02 -1.232322e-02 1.336892e-01 1.153410e-01 1.847715e-01 -2.254457e-01 4.164990e-03 -6.267249e-03 5.012210e-02 2.502904e-02 -5.016427e-03 -2.745002e-02 5.909491e-02 6.053241e-02 -1.246047e-02 -2.231782e-02 4.972098e-02 -3.506956e-02 1.209941e-03 1.630815e-02 7.761249e-02 1.127679e-01 -2.654984e-03 -1.209509e-03
<VARIANCE> 39
 2.742897e+01 2.436880e+01 6.396647e+01 7.221140e+01 2.689948e+01 2.884958e+01 4.839215e+01 8.376057e+01 3.253373e+01 5.792233e+01 4.550533e+01 3.479443e+01 1.547045e-02 1.438306e+00 1.794972e+00 3.207335e+00 5.748542e+00 1.773607e+00 3.966212e+00 3.325120e+00 5.122197e+00 3.932409e+00 5.182220e+00 4.327507e+00 3.046793e+00 9.632864e-04 1.330599e-01 2.267923e-01 3.302856e-01 8.504807e-01 2.813944e-01 9.427940e-01 4.896220e-01 9.848575e-01 7.792758e-01 9.440126e-01 6.665733e-01 5.223593e-01 7.813027e-05
<GCONST> 1.019727e+02
<STATE> 5
<MEAN> 39
 -1.517209e-07 -4.768372e-08 1.907349e-07 3.814697e-07 2.167442e-07 3.814697e-07 -2.340837e-07 -1.040372e-07 1.018698e-07 1.040372e-07 6.068836e-08 -1.127070e-07 7.544945e-01 1.703237e-01 -6.956117e-03 -1.054922e-02 -1.232322e-02 1.336892e-01 1.153410e-01 1.847715e-01 -2.254457e-01 4.164990e-03 -6.267249e-03 5.012210e-02 2.502904e-02 -5.016427e-03 -2.745002e-02 5.909491e-02 6.053241e-02 -1.246047e-02 -2.231782e-02 4.972098e-02 -3.506956e-02 1.209941e-03 1.630815e-02 7.761249e-02 1.127679e-01 -2.654984e-03 -1.209509e-03
<VARIANCE> 39
 2.742897e+01 2.436880e+01 6.396647e+01 7.221140e+01 2.689948e+01 2.884958e+01 4.839215e+01 8.376057e+01 3.253373e+01 5.792233e+01 4.550533e+01 3.479443e+01 1.547045e-02 1.438306e+00 1.794972e+00 3.207335e+00 5.748542e+00 1.773607e+00 3.966212e+00 3.325120e+00 5.122197e+00 3.932409e+00 5.182220e+00 4.327507e+00 3.046793e+00 9.632864e-04 1.330599e-01 2.267923e-01 3.302856e-01 8.504807e-01 2.813944e-01 9.427940e-01 4.896220e-01 9.848575e-01 7.792758e-01 9.440126e-01 6.665733e-01 5.223593e-01 7.813027e-05
<GCONST> 1.019727e+02
<STATE> 6
<MEAN> 39
 -1.517209e-07 -4.768372e-08 1.907349e-07 3.814697e-07 2.167442e-07 3.814697e-07 -2.340837e-07 -1.040372e-07 1.018698e-07 1.040372e-07 6.068836e-08 -1.127070e-07 7.544945e-01 1.703237e-01 -6.956117e-03 -1.054922e-02 -1.232322e-02 1.336892e-01 1.153410e-01 1.847715e-01 -2.254457e-01 4.164990e-03 -6.267249e-03 5.012210e-02 2.502904e-02 -5.016427e-03 -2.745002e-02 5.909491e-02 6.053241e-02 -1.246047e-02 -2.231782e-02 4.972098e-02 -3.506956e-02 1.209941e-03 1.630815e-02 7.761249e-02 1.127679e-01 -2.654984e-03 -1.209509e-03
<VARIANCE> 39
 2.742897e+01 2.436880e+01 6.396647e+01 7.221140e+01 2.689948e+01 2.884958e+01 4.839215e+01 8.376057e+01 3.253373e+01 5.792233e+01 4.550533e+01 3.479443e+01 1.547045e-02 1.438306e+00 1.794972e+00 3.207335e+00 5.748542e+00 1.773607e+00 3.966212e+00 3.325120e+00 5.122197e+00 3.932409e+00 5.182220e+00 4.327507e+00 3.046793e+00 9.632864e-04 1.330599e-01 2.267923e-01 3.302856e-01 8.504807e-01 2.813944e-01 9.427940e-01 4.896220e-01 9.848575e-01 7.792758e-01 9.440126e-01 6.665733e-01 5.223593e-01 7.813027e-05
<GCONST> 1.019727e+02
<STATE> 7
<MEAN> 39
 -1.517209e-07 -4.768372e-08 1.907349e-07 3.814697e-07 2.167442e-07 3.814697e-07 -2.340837e-07 -1.040372e-07 1.018698e-07 1.040372e-07 6.068836e-08 -1.127070e-07 7.544945e-01 1.703237e-01 -6.956117e-03 -1.054922e-02 -1.232322e-02 1.336892e-01 1.153410e-01 1.847715e-01 -2.254457e-01 4.164990e-03 -6.267249e-03 5.012210e-02 2.502904e-02 -5.016427e-03 -2.745002e-02 5.909491e-02 6.053241e-02 -1.246047e-02 -2.231782e-02 4.972098e-02 -3.506956e-02 1.209941e-03 1.630815e-02 7.761249e-02 1.127679e-01 -2.654984e-03 -1.209509e-03
<VARIANCE> 39
 2.742897e+01 2.436880e+01 6.396647e+01 7.221140e+01 2.689948e+01 2.884958e+01 4.839215e+01 8.376057e+01 3.253373e+01 5.792233e+01 4.550533e+01 3.479443e+01 1.547045e-02 1.438306e+00 1.794972e+00 3.207335e+00 5.748542e+00 1.773607e+00 3.966212e+00 3.325120e+00 5.122197e+00 3.932409e+00 5.182220e+00 4.327507e+00 3.046793e+00 9.632864e-04 1.330599e-01 2.267923e-01 3.302856e-01 8.504807e-01 2.813944e-01 9.427940e-01 4.896220e-01 9.848575e-01 7.792758e-01 9.440126e-01 6.665733e-01 5.223593e-01 7.813027e-05
<GCONST> 1.019727e+02
<STATE> 8
<MEAN> 39
 -1.517209e-07 -4.768372e-08 1.907349e-07 3.814697e-07 2.167442e-07 3.814697e-07 -2.340837e-07 -1.040372e-07 1.018698e-07 1.040372e-07 6.068836e-08 -1.127070e-07 7.544945e-01 1.703237e-01 -6.956117e-03 -1.054922e-02 -1.232322e-02 1.336892e-01 1.153410e-01 1.847715e-01 -2.254457e-01 4.164990e-03 -6.267249e-03 5.012210e-02 2.502904e-02 -5.016427e-03 -2.745002e-02 5.909491e-02 6.053241e-02 -1.246047e-02 -2.231782e-02 4.972098e-02 -3.506956e-02 1.209941e-03 1.630815e-02 7.761249e-02 1.127679e-01 -2.654984e-03 -1.209509e-03
<VARIANCE> 39
 2.742897e+01 2.436880e+01 6.396647e+01 7.221140e+01 2.689948e+01 2.884958e+01 4.839215e+01 8.376057e+01 3.253373e+01 5.792233e+01 4.550533e+01 3.479443e+01 1.547045e-02 1.438306e+00 1.794972e+00 3.207335e+00 5.748542e+00 1.773607e+00 3.966212e+00 3.325120e+00 5.122197e+00 3.932409e+00 5.182220e+00 4.327507e+00 3.046793e+00 9.632864e-04 1.330599e-01 2.267923e-01 3.302856e-01 8.504807e-01 2.813944e-01 9.427940e-01 4.896220e-01 9.848575e-01 7.792758e-01 9.440126e-01 6.665733e-01 5.223593e-01 7.813027e-05
<GCONST> 1.019727e+02
<STATE> 9
<MEAN> 39
 -1.517209e-07 -4.768372e-08 1.907349e-07 3.814697e-07 2.167442e-07 3.814697e-07 -2.340837e-07 -1.040372e-07 1.018698e-07 1.040372e-07 6.068836e-08 -1.127070e-07 7.544945e-01 1.703237e-01 -6.956117e-03 -1.054922e-02 -1.232322e-02 1.336892e-01 1.153410e-01 1.847715e-01 -2.254457e-01 4.164990e-03 -6.267249e-03 5.012210e-02 2.502904e-02 -5.016427e-03 -2.745002e-02 5.909491e-02 6.053241e-02 -1.246047e-02 -2.231782e-02 4.972098e-02 -3.506956e-02 1.209941e-03 1.630815e-02 7.761249e-02 1.127679e-01 -2.654984e-03 -1.209509e-03
<VARIANCE> 39
 2.742897e+01 2.436880e+01 6.396647e+01 7.221140e+01 2.689948e+01 2.884958e+01 4.839215e+01 8.376057e+01 3.253373e+01 5.792233e+01 4.550533e+01 3.479443e+01 1.547045e-02 1.438306e+00 1.794972e+00 3.207335e+00 5.748542e+00 1.773607e+00 3.966212e+00 3.325120e+00 5.122197e+00 3.932409e+00 5.182220e+00 4.327507e+00 3.046793e+00 9.632864e-04 1.330599e-01 2.267923e-01 3.302856e-01 8.504807e-01 2.813944e-01 9.427940e-01 4.896220e-01 9.848575e-01 7.792758e-01 9.440126e-01 6.665733e-01 5.223593e-01 7.813027e-05
<GCONST> 1.019727e+02
<TRANSP> 10
 0.000000e+00 1.000000e+00 0.000000e+00 0.000000e+00 0.000000e+00 0.000000e+00 0.000000e+00 0.000000e+00 0.000000e+00 0.000000e+00
 0.000000e+00 9.000000e-01 9.999999e-02 0.000000e+00 0.000000e+00 0.000000e+00 0.000000e+00 0.000000e+00 0.000000e+00 0.000000e+00
 0.000000e+00 0.000000e+00 9.000000e-01 9.999999e-02 0.000000e+00 0.000000e+00 0.000000e+00 0.000000e+00 0.000000e+00 0.000000e+00
 0.000000e+00 0.000000e+00 0.000000e+00 9.000000e-01 9.999999e-02 0.000000e+00 0.000000e+00 0.000000e+00 0.000000e+00 0.000000e+00
 0.000000e+00 0.000000e+00 0.000000e+00 0.000000e+00 9.000000e-01 9.999999e-02 0.000000e+00 0.000000e+00 0.000000e+00 0.000000e+00
 0.000000e+00 0.000000e+00 0.000000e+00 0.000000e+00 0.000000e+00 9.000000e-01 9.999999e-02 0.000000e+00 0.000000e+00 0.000000e+00
 0.000000e+00 0.000000e+00 0.000000e+00 0.000000e+00 0.000000e+00 0.000000e+00 9.000000e-01 9.999999e-02 0.000000e+00 0.000000e+00
 0.000000e+00 0.000000e+00 0.000000e+00 0.000000e+00 0.000000e+00 0.000000e+00 0.000000e+00 9.000000e-01 9.999999e-02 0.000000e+00
 0.000000e+00 0.000000e+00 0.000000e+00 0.000000e+00 0.000000e+00 0.000000e+00 0.000000e+00 0.000000e+00 9.000000e-01 9.999999e-02
 0.000000e+00 0.000000e+00 0.000000e+00 0.000000e+00 0.000000e+00 0.000000e+00 0.000000e+00 0.000000e+00 0.000000e+00 0.000000e+00
<ENDHMM>
