~o
<STREAMINFO> 1 39
<VECSIZE> 39<NULLD><MFCC_E_D_A_Z><DIAGC>
~h "s068"
<BEGINHMM>
<NUMSTATES> 10
<STATE> 2
<MEAN> 39
 2.497719e-07 1.135327e-07 -6.811960e-08 -3.178914e-07 -1.589457e-07 1.135327e-07 -5.449568e-07 -3.178914e-07 -7.947286e-08 2.270653e-08 2.270653e-08 -1.362392e-07 8.995547e-01 -1.735637e-01 2.370440e-01 5.687053e-02 -1.198917e-01 -1.232550e-03 1.922438e-01 -4.504625e-02 4.988258e-01 2.227868e-01 2.030829e-01 1.308656e-01 -4.828407e-01 -1.541321e-03 -3.024404e-02 2.785362e-02 2.797083e-02 -4.216645e-02 4.208392e-02 8.831169e-02 6.080279e-02 -5.338102e-02 -5.756328e-02 4.216680e-02 4.743005e-02 1.248548e-01 -1.061658e-03
<VARIANCE> 39
 4.310323e+01 1.067980e+02 1.455686e+01 2.312505e+01 3.844558e+01 4.042503e+01 5.833689e+01 4.923703e+01 4.608636e+01 1.303695e+01 3.478061e+01 8.885592e+01 5.901203e-03 1.118268e+00 2.014013e+00 1.304567e+00 1.559191e+00 2.243229e+00 4.677369e+00 2.928923e+00 2.790916e+00 4.103281e+00 1.383625e+00 3.759686e+00 3.801640e+00 3.391184e-04 1.387590e-01 1.530776e-01 2.030427e-01 3.138487e-01 3.250453e-01 7.604999e-01 3.637848e-01 6.003060e-01 5.902796e-01 2.782542e-01 5.745973e-01 6.099117e-01 2.553605e-05
<GCONST> 8.997036e+01
<STATE> 3
<MEAN> 39
 2.497719e-07 1.135327e-07 -6.811960e-08 -3.178914e-07 -1.589457e-07 1.135327e-07 -5.449568e-07 -3.178914e-07 -7.947286e-08 2.270653e-08 2.270653e-08 -1.362392e-07 8.995547e-01 -1.735637e-01 2.370440e-01 5.687053e-02 -1.198917e-01 -1.232550e-03 1.922438e-01 -4.504625e-02 4.988258e-01 2.227868e-01 2.030829e-01 1.308656e-01 -4.828407e-01 -1.541321e-03 -3.024404e-02 2.785362e-02 2.797083e-02 -4.216645e-02 4.208392e-02 8.831169e-02 6.080279e-02 -5.338102e-02 -5.756328e-02 4.216680e-02 4.743005e-02 1.248548e-01 -1.061658e-03
<VARIANCE> 39
 4.310323e+01 1.067980e+02 1.455686e+01 2.312505e+01 3.844558e+01 4.042503e+01 5.833689e+01 4.923703e+01 4.608636e+01 1.303695e+01 3.478061e+01 8.885592e+01 5.901203e-03 1.118268e+00 2.014013e+00 1.304567e+00 1.559191e+00 2.243229e+00 4.677369e+00 2.928923e+00 2.790916e+00 4.103281e+00 1.383625e+00 3.759686e+00 3.801640e+00 3.391184e-04 1.387590e-01 1.530776e-01 2.030427e-01 3.138487e-01 3.250453e-01 7.604999e-01 3.637848e-01 6.003060e-01 5.902796e-01 2.782542e-01 5.745973e-01 6.099117e-01 2.553605e-05
<GCONST> 8.997036e+01
<STATE> 4
<MEAN> 39
 2.497719e-07 1.135327e-07 -6.811960e-08 -3.178914e-07 -1.589457e-07 1.135327e-07 -5.449568e-07 -3.178914e-07 -7.947286e-08 2.270653e-08 2.270653e-08 -1.362392e-07 8.995547e-01 -1.735637e-01 2.370440e-01 5.687053e-02 -1.198917e-01 -1.232550e-03 1.922438e-01 -4.504625e-02 4.988258e-01 2.227868e-01 2.030829e-01 1.308656e-01 -4.828407e-01 -1.541321e-03 -3.024404e-02 2.785362e-02 2.797083e-02 -4.216645e-02 4.208392e-02 8.831169e-02 6.080279e-02 -5.338102e-02 -5.756328e-02 4.216680e-02 4.743005e-02 1.248548e-01 -1.061658e-03
<VARIANCE> 39
 4.310323e+01 1.067980e+02 1.455686e+01 2.312505e+01 3.844558e+01 4.042503e+01 5.833689e+01 4.923703e+01 4.608636e+01 1.303695e+01 3.478061e+01 8.885592e+01 5.901203e-03 1.118268e+00 2.014013e+00 1.304567e+00 1.559191e+00 2.243229e+00 4.677369e+00 2.928923e+00 2.790916e+00 4.103281e+00 1.383625e+00 3.759686e+00 3.801640e+00 3.391184e-04 1.387590e-01 1.530776e-01 2.030427e-01 3.138487e-01 3.250453e-01 7.604999e-01 3.637848e-01 6.003060e-01 5.902796e-01 2.782542e-01 5.745973e-01 6.099117e-01 2.553605e-05
<GCONST> 8.997036e+01
<STATE> 5
<MEAN> 39
 2.497719e-07 1.135327e-07 -6.811960e-08 -3.178914e-07 -1.589457e-07 1.135327e-07 -5.449568e-07 -3.178914e-07 -7.947286e-08 2.270653e-08 2.270653e-08 -1.362392e-07 8.995547e-01 -1.735637e-01 2.370440e-01 5.687053e-02 -1.198917e-01 -1.232550e-03 1.922438e-01 -4.504625e-02 4.988258e-01 2.227868e-01 2.030829e-01 1.308656e-01 -4.828407e-01 -1.541321e-03 -3.024404e-02 2.785362e-02 2.797083e-02 -4.216645e-02 4.208392e-02 8.831169e-02 6.080279e-02 -5.338102e-02 -5.756328e-02 4.216680e-02 4.743005e-02 1.248548e-01 -1.061658e-03
<VARIANCE> 39
 4.310323e+01 1.067980e+02 1.455686e+01 2.312505e+01 3.844558e+01 4.042503e+01 5.833689e+01 4.923703e+01 4.608636e+01 1.303695e+01 3.478061e+01 8.885592e+01 5.901203e-03 1.118268e+00 2.014013e+00 1.304567e+00 1.559191e+00 2.243229e+00 4.677369e+00 2.928923e+00 2.790916e+00 4.103281e+00 1.383625e+00 3.759686e+00 3.801640e+00 3.391184e-04 1.387590e-01 1.530776e-01 2.030427e-01 3.138487e-01 3.250453e-01 7.604999e-01 3.637848e-01 6.003060e-01 5.902796e-01 2.782542e-01 5.745973e-01 6.099117e-01 2.553605e-05
<GCONST> 8.997036e+01
<STATE> 6
<MEAN> 39
 2.497719e-07 1.135327e-07 -6.811960e-08 -3.178914e-07 -1.589457e-07 1.135327e-07 -5.449568e-07 -3.178914e-07 -7.947286e-08 2.270653e-08 2.270653e-08 -1.362392e-07 8.995547e-01 -1.735637e-01 2.370440e-01 5.687053e-02 -1.198917e-01 -1.232550e-03 1.922438e-01 -4.504625e-02 4.988258e-01 2.227868e-01 2.030829e-01 1.308656e-01 -4.828407e-01 -1.541321e-03 -3.024404e-02 2.785362e-02 2.797083e-02 -4.216645e-02 4.208392e-02 8.831169e-02 6.080279e-02 -5.338102e-02 -5.756328e-02 4.216680e-02 4.743005e-02 1.248548e-01 -1.061658e-03
<VARIANCE> 39
 4.310323e+01 1.067980e+02 1.455686e+01 2.312505e+01 3.844558e+01 4.042503e+01 5.833689e+01 4.923703e+01 4.608636e+01 1.303695e+01 3.478061e+01 8.885592e+01 5.901203e-03 1.118268e+00 2.014013e+00 1.304567e+00 1.559191e+00 2.243229e+00 4.677369e+00 2.928923e+00 2.790916e+00 4.103281e+00 1.383625e+00 3.759686e+00 3.801640e+00 3.391184e-04 1.387590e-01 1.530776e-01 2.030427e-01 3.138487e-01 3.250453e-01 7.604999e-01 3.637848e-01 6.003060e-01 5.902796e-01 2.782542e-01 5.745973e-01 6.099117e-01 2.553605e-05
<GCONST> 8.997036e+01
<STATE> 7
<MEAN> 39
 2.497719e-07 1.135327e-07 -6.811960e-08 -3.178914e-07 -1.589457e-07 1.135327e-07 -5.449568e-07 -3.178914e-07 -7.947286e-08 2.270653e-08 2.270653e-08 -1.362392e-07 8.995547e-01 -1.735637e-01 2.370440e-01 5.687053e-02 -1.198917e-01 -1.232550e-03 1.922438e-01 -4.504625e-02 4.988258e-01 2.227868e-01 2.030829e-01 1.308656e-01 -4.828407e-01 -1.541321e-03 -3.024404e-02 2.785362e-02 2.797083e-02 -4.216645e-02 4.208392e-02 8.831169e-02 6.080279e-02 -5.338102e-02 -5.756328e-02 4.216680e-02 4.743005e-02 1.248548e-01 -1.061658e-03
<VARIANCE> 39
 4.310323e+01 1.067980e+02 1.455686e+01 2.312505e+01 3.844558e+01 4.042503e+01 5.833689e+01 4.923703e+01 4.608636e+01 1.303695e+01 3.478061e+01 8.885592e+01 5.901203e-03 1.118268e+00 2.014013e+00 1.304567e+00 1.559191e+00 2.243229e+00 4.677369e+00 2.928923e+00 2.790916e+00 4.103281e+00 1.383625e+00 3.759686e+00 3.801640e+00 3.391184e-04 1.387590e-01 1.530776e-01 2.030427e-01 3.138487e-01 3.250453e-01 7.604999e-01 3.637848e-01 6.003060e-01 5.902796e-01 2.782542e-01 5.745973e-01 6.099117e-01 2.553605e-05
<GCONST> 8.997036e+01
<STATE> 8
<MEAN> 39
 2.497719e-07 1.135327e-07 -6.811960e-08 -3.178914e-07 -1.589457e-07 1.135327e-07 -5.449568e-07 -3.178914e-07 -7.947286e-08 2.270653e-08 2.270653e-08 -1.362392e-07 8.995547e-01 -1.735637e-01 2.370440e-01 5.687053e-02 -1.198917e-01 -1.232550e-03 1.922438e-01 -4.504625e-02 4.988258e-01 2.227868e-01 2.030829e-01 1.308656e-01 -4.828407e-01 -1.541321e-03 -3.024404e-02 2.785362e-02 2.797083e-02 -4.216645e-02 4.208392e-02 8.831169e-02 6.080279e-02 -5.338102e-02 -5.756328e-02 4.216680e-02 4.743005e-02 1.248548e-01 -1.061658e-03
<VARIANCE> 39
 4.310323e+01 1.067980e+02 1.455686e+01 2.312505e+01 3.844558e+01 4.042503e+01 5.833689e+01 4.923703e+01 4.608636e+01 1.303695e+01 3.478061e+01 8.885592e+01 5.901203e-03 1.118268e+00 2.014013e+00 1.304567e+00 1.559191e+00 2.243229e+00 4.677369e+00 2.928923e+00 2.790916e+00 4.103281e+00 1.383625e+00 3.759686e+00 3.801640e+00 3.391184e-04 1.387590e-01 1.530776e-01 2.030427e-01 3.138487e-01 3.250453e-01 7.604999e-01 3.637848e-01 6.003060e-01 5.902796e-01 2.782542e-01 5.745973e-01 6.099117e-01 2.553605e-05
<GCONST> 8.997036e+01
<STATE> 9
<MEAN> 39
 2.497719e-07 1.135327e-07 -6.811960e-08 -3.178914e-07 -1.589457e-07 1.135327e-07 -5.449568e-07 -3.178914e-07 -7.947286e-08 2.270653e-08 2.270653e-08 -1.362392e-07 8.995547e-01 -1.735637e-01 2.370440e-01 5.687053e-02 -1.198917e-01 -1.232550e-03 1.922438e-01 -4.504625e-02 4.988258e-01 2.227868e-01 2.030829e-01 1.308656e-01 -4.828407e-01 -1.541321e-03 -3.024404e-02 2.785362e-02 2.797083e-02 -4.216645e-02 4.208392e-02 8.831169e-02 6.080279e-02 -5.338102e-02 -5.756328e-02 4.216680e-02 4.743005e-02 1.248548e-01 -1.061658e-03
<VARIANCE> 39
 4.310323e+01 1.067980e+02 1.455686e+01 2.312505e+01 3.844558e+01 4.042503e+01 5.833689e+01 4.923703e+01 4.608636e+01 1.303695e+01 3.478061e+01 8.885592e+01 5.901203e-03 1.118268e+00 2.014013e+00 1.304567e+00 1.559191e+00 2.243229e+00 4.677369e+00 2.928923e+00 2.790916e+00 4.103281e+00 1.383625e+00 3.759686e+00 3.801640e+00 3.391184e-04 1.387590e-01 1.530776e-01 2.030427e-01 3.138487e-01 3.250453e-01 7.604999e-01 3.637848e-01 6.003060e-01 5.902796e-01 2.782542e-01 5.745973e-01 6.099117e-01 2.553605e-05
<GCONST> 8.997036e+01
<TRANSP> 10
 0.000000e+00 1.000000e+00 0.000000e+00 0.000000e+00 0.000000e+00 0.000000e+00 0.000000e+00 0.000000e+00 0.000000e+00 0.000000e+00
 0.000000e+00 9.000000e-01 9.999999e-02 0.000000e+00 0.000000e+00 0.000000e+00 0.000000e+00 0.000000e+00 0.000000e+00 0.000000e+00
 0.000000e+00 0.000000e+00 9.000000e-01 9.999999e-02 0.000000e+00 0.000000e+00 0.000000e+00 0.000000e+00 0.000000e+00 0.000000e+00
 0.000000e+00 0.000000e+00 0.000000e+00 9.000000e-01 9.999999e-02 0.000000e+00 0.000000e+00 0.000000e+00 0.000000e+00 0.000000e+00
 0.000000e+00 0.000000e+00 0.000000e+00 0.000000e+00 9.000000e-01 9.999999e-02 0.000000e+00 0.000000e+00 0.000000e+00 0.000000e+00
 0.000000e+00 0.000000e+00 0.000000e+00 0.000000e+00 0.000000e+00 9.000000e-01 9.999999e-02 0.000000e+00 0.000000e+00 0.000000e+00
 0.000000e+00 0.000000e+00 0.000000e+00 0.000000e+00 0.000000e+00 0.000000e+00 9.000000e-01 9.999999e-02 0.000000e+00 0.000000e+00
 0.000000e+00 0.000000e+00 0.000000e+00 0.000000e+00 0.000000e+00 0.000000e+00 0.000000e+00 9.000000e-01 9.999999e-02 0.000000e+00
 0.000000e+00 0.000000e+00 0.000000e+00 0.000000e+00 0.000000e+00 0.000000e+00 0.000000e+00 0.000000e+00 9.000000e-01 9.999999e-02
 0.000000e+00 0.000000e+00 0.000000e+00 0.000000e+00 0.000000e+00 0.000000e+00 0.000000e+00 0.000000e+00 0.000000e+00 0.000000e+00
<ENDHMM>
