~o
<STREAMINFO> 1 39
<VECSIZE> 39<NULLD><MFCC_E_D_A_Z><DIAGC>
~h "s069"
<BEGINHMM>
<NUMSTATES> 10
<STATE> 2
<MEAN> 39
 -1.277242e-07 -1.617840e-07 -6.811960e-08 4.768372e-07 2.809933e-07 3.491129e-07 8.514949e-08 -2.384186e-07 -4.257475e-08 8.514950e-09 2.554485e-08 -2.980232e-07 8.045532e-01 4.548525e-02 1.076279e-01 -1.762457e-01 4.123832e-02 2.009031e-01 2.531064e-01 1.051226e-01 -2.489879e-01 -1.896064e-01 4.734412e-03 -1.445184e-01 5.800075e-02 -3.754214e-03 -1.063727e-02 2.412055e-02 5.171559e-02 5.679151e-02 -4.738157e-02 2.417817e-02 2.996548e-02 -4.964871e-02 -3.711095e-02 1.856628e-02 2.045129e-02 1.405846e-02 -7.911083e-04
<VARIANCE> 39
 1.724838e+01 6.046355e+01 2.884611e+01 4.287183e+01 5.252579e+01 6.938952e+01 4.039946e+01 6.097960e+01 3.258966e+01 2.570166e+01 1.730407e+01 3.904984e+01 1.132065e-02 8.960672e-01 2.202082e+00 2.600605e+00 4.045874e+00 3.836663e+00 6.761672e+00 4.169473e+00 5.342608e+00 4.905202e+00 3.114456e+00 2.802552e+00 2.878503e+00 6.551488e-04 1.243208e-01 2.391533e-01 3.241035e-01 5.980466e-01 5.073940e-01 1.286237e+00 6.738653e-01 1.002627e+00 1.002198e+00 7.067183e-01 6.351342e-01 5.108527e-01 7.946906e-05
<GCONST> 1.005129e+02
<STATE> 3
<MEAN> 39
 -1.277242e-07 -1.617840e-07 -6.811960e-08 4.768372e-07 2.809933e-07 3.491129e-07 8.514949e-08 -2.384186e-07 -4.257475e-08 8.514950e-09 2.554485e-08 -2.980232e-07 8.045532e-01 4.548525e-02 1.076279e-01 -1.762457e-01 4.123832e-02 2.009031e-01 2.531064e-01 1.051226e-01 -2.489879e-01 -1.896064e-01 4.734412e-03 -1.445184e-01 5.800075e-02 -3.754214e-03 -1.063727e-02 2.412055e-02 5.171559e-02 5.679151e-02 -4.738157e-02 2.417817e-02 2.996548e-02 -4.964871e-02 -3.711095e-02 1.856628e-02 2.045129e-02 1.405846e-02 -7.911083e-04
<VARIANCE> 39
 1.724838e+01 6.046355e+01 2.884611e+01 4.287183e+01 5.252579e+01 6.938952e+01 4.039946e+01 6.097960e+01 3.258966e+01 2.570166e+01 1.730407e+01 3.904984e+01 1.132065e-02 8.960672e-01 2.202082e+00 2.600605e+00 4.045874e+00 3.836663e+00 6.761672e+00 4.169473e+00 5.342608e+00 4.905202e+00 3.114456e+00 2.802552e+00 2.878503e+00 6.551488e-04 1.243208e-01 2.391533e-01 3.241035e-01 5.980466e-01 5.073940e-01 1.286237e+00 6.738653e-01 1.002627e+00 1.002198e+00 7.067183e-01 6.351342e-01 5.108527e-01 7.946906e-05
<GCONST> 1.005129e+02
<STATE> 4
<MEAN> 39
 -1.277242e-07 -1.617840e-07 -6.811960e-08 4.768372e-07 2.809933e-07 3.491129e-07 8.514949e-08 -2.384186e-07 -4.257475e-08 8.514950e-09 2.554485e-08 -2.980232e-07 8.045532e-01 4.548525e-02 1.076279e-01 -1.762457e-01 4.123832e-02 2.009031e-01 2.531064e-01 1.051226e-01 -2.489879e-01 -1.896064e-01 4.734412e-03 -1.445184e-01 5.800075e-02 -3.754214e-03 -1.063727e-02 2.412055e-02 5.171559e-02 5.679151e-02 -4.738157e-02 2.417817e-02 2.996548e-02 -4.964871e-02 -3.711095e-02 1.856628e-02 2.045129e-02 1.405846e-02 -7.911083e-04
<VARIANCE> 39
 1.724838e+01 6.046355e+01 2.884611e+01 4.287183e+01 5.252579e+01 6.938952e+01 4.039946e+01 6.097960e+01 3.258966e+01 2.570166e+01 1.730407e+01 3.904984e+01 1.132065e-02 8.960672e-01 2.202082e+00 2.600605e+00 4.045874e+00 3.836663e+00 6.761672e+00 4.169473e+00 5.342608e+00 4.905202e+00 3.114456e+00 2.802552e+00 2.878503e+00 6.551488e-04 1.243208e-01 2.391533e-01 3.241035e-01 5.980466e-01 5.073940e-01 1.286237e+00 6.738653e-01 1.002627e+00 1.002198e+00 7.067183e-01 6.351342e-01 5.108527e-01 7.946906e-05
<GCONST> 1.005129e+02
<STATE> 5
<MEAN> 39
 -1.277242e-07 -1.617840e-07 -6.811960e-08 4.768372e-07 2.809933e-07 3.491129e-07 8.514949e-08 -2.384186e-07 -4.257475e-08 8.514950e-09 2.554485e-08 -2.980232e-07 8.045532e-01 4.548525e-02 1.076279e-01 -1.762457e-01 4.123832e-02 2.009031e-01 2.531064e-01 1.051226e-01 -2.489879e-01 -1.896064e-01 4.734412e-03 -1.445184e-01 5.800075e-02 -3.754214e-03 -1.063727e-02 2.412055e-02 5.171559e-02 5.679151e-02 -4.738157e-02 2.417817e-02 2.996548e-02 -4.964871e-02 -3.711095e-02 1.856628e-02 2.045129e-02 1.405846e-02 -7.911083e-04
<VARIANCE> 39
 1.724838e+01 6.046355e+01 2.884611e+01 4.287183e+01 5.252579e+01 6.938952e+01 4.039946e+01 6.097960e+01 3.258966e+01 2.570166e+01 1.730407e+01 3.904984e+01 1.132065e-02 8.960672e-01 2.202082e+00 2.600605e+00 4.045874e+00 3.836663e+00 6.761672e+00 4.169473e+00 5.342608e+00 4.905202e+00 3.114456e+00 2.802552e+00 2.878503e+00 6.551488e-04 1.243208e-01 2.391533e-01 3.241035e-01 5.980466e-01 5.073940e-01 1.286237e+00 6.738653e-01 1.002627e+00 1.002198e+00 7.067183e-01 6.351342e-01 5.108527e-01 7.946906e-05
<GCONST> 1.005129e+02
<STATE> 6
<MEAN> 39
 -1.277242e-07 -1.617840e-07 -6.811960e-08 4.768372e-07 2.809933e-07 3.491129e-07 8.514949e-08 -2.384186e-07 -4.257475e-08 8.514950e-09 2.554485e-08 -2.980232e-07 8.045532e-01 4.548525e-02 1.076279e-01 -1.762457e-01 4.123832e-02 2.009031e-01 2.531064e-01 1.051226e-01 -2.489879e-01 -1.896064e-01 4.734412e-03 -1.445184e-01 5.800075e-02 -3.754214e-03 -1.063727e-02 2.412055e-02 5.171559e-02 5.679151e-02 -4.738157e-02 2.417817e-02 2.996548e-02 -4.964871e-02 -3.711095e-02 1.856628e-02 2.045129e-02 1.405846e-02 -7.911083e-04
<VARIANCE> 39
 1.724838e+01 6.046355e+01 2.884611e+01 4.287183e+01 5.252579e+01 6.938952e+01 4.039946e+01 6.097960e+01 3.258966e+01 2.570166e+01 1.730407e+01 3.904984e+01 1.132065e-02 8.960672e-01 2.202082e+00 2.600605e+00 4.045874e+00 3.836663e+00 6.761672e+00 4.169473e+00 5.342608e+00 4.905202e+00 3.114456e+00 2.802552e+00 2.878503e+00 6.551488e-04 1.243208e-01 2.391533e-01 3.241035e-01 5.980466e-01 5.073940e-01 1.286237e+00 6.738653e-01 1.002627e+00 1.002198e+00 7.067183e-01 6.351342e-01 5.108527e-01 7.946906e-05
<GCONST> 1.005129e+02
<STATE> 7
<MEAN> 39
 -1.277242e-07 -1.617840e-07 -6.811960e-08 4.768372e-07 2.809933e-07 3.491129e-07 8.514949e-08 -2.384186e-07 -4.257475e-08 8.514950e-09 2.554485e-08 -2.980232e-07 8.045532e-01 4.548525e-02 1.076279e-01 -1.762457e-01 4.123832e-02 2.009031e-01 2.531064e-01 1.051226e-01 -2.489879e-01 -1.896064e-01 4.734412e-03 -1.445184e-01 5.800075e-02 -3.754214e-03 -1.063727e-02 2.412055e-02 5.171559e-02 5.679151e-02 -4.738157e-02 2.417817e-02 2.996548e-02 -4.964871e-02 -3.711095e-02 1.856628e-02 2.045129e-02 1.405846e-02 -7.911083e-04
<VARIANCE> 39
 1.724838e+01 6.046355e+01 2.884611e+01 4.287183e+01 5.252579e+01 6.938952e+01 4.039946e+01 6.097960e+01 3.258966e+01 2.570166e+01 1.730407e+01 3.904984e+01 1.132065e-02 8.960672e-01 2.202082e+00 2.600605e+00 4.045874e+00 3.836663e+00 6.761672e+00 4.169473e+00 5.342608e+00 4.905202e+00 3.114456e+00 2.802552e+00 2.878503e+00 6.551488e-04 1.243208e-01 2.391533e-01 3.241035e-01 5.980466e-01 5.073940e-01 1.286237e+00 6.738653e-01 1.002627e+00 1.002198e+00 7.067183e-01 6.351342e-01 5.108527e-01 7.946906e-05
<GCONST> 1.005129e+02
<STATE> 8
<MEAN> 39
 -1.277242e-07 -1.617840e-07 -6.811960e-08 4.768372e-07 2.809933e-07 3.491129e-07 8.514949e-08 -2.384186e-07 -4.257475e-08 8.514950e-09 2.554485e-08 -2.980232e-07 8.045532e-01 4.548525e-02 1.076279e-01 -1.762457e-01 4.123832e-02 2.009031e-01 2.531064e-01 1.051226e-01 -2.489879e-01 -1.896064e-01 4.734412e-03 -1.445184e-01 5.800075e-02 -3.754214e-03 -1.063727e-02 2.412055e-02 5.171559e-02 5.679151e-02 -4.738157e-02 2.417817e-02 2.996548e-02 -4.964871e-02 -3.711095e-02 1.856628e-02 2.045129e-02 1.405846e-02 -7.911083e-04
<VARIANCE> 39
 1.724838e+01 6.046355e+01 2.884611e+01 4.287183e+01 5.252579e+01 6.938952e+01 4.039946e+01 6.097960e+01 3.258966e+01 2.570166e+01 1.730407e+01 3.904984e+01 1.132065e-02 8.960672e-01 2.202082e+00 2.600605e+00 4.045874e+00 3.836663e+00 6.761672e+00 4.169473e+00 5.342608e+00 4.905202e+00 3.114456e+00 2.802552e+00 2.878503e+00 6.551488e-04 1.243208e-01 2.391533e-01 3.241035e-01 5.980466e-01 5.073940e-01 1.286237e+00 6.738653e-01 1.002627e+00 1.002198e+00 7.067183e-01 6.351342e-01 5.108527e-01 7.946906e-05
<GCONST> 1.005129e+02
<STATE> 9
<MEAN> 39
 -1.277242e-07 -1.617840e-07 -6.811960e-08 4.768372e-07 2.809933e-07 3.491129e-07 8.514949e-08 -2.384186e-07 -4.257475e-08 8.514950e-09 2.554485e-08 -2.980232e-07 8.045532e-01 4.548525e-02 1.076279e-01 -1.762457e-01 4.123832e-02 2.009031e-01 2.531064e-01 1.051226e-01 -2.489879e-01 -1.896064e-01 4.734412e-03 -1.445184e-01 5.800075e-02 -3.754214e-03 -1.063727e-02 2.412055e-02 5.171559e-02 5.679151e-02 -4.738157e-02 2.417817e-02 2.996548e-02 -4.964871e-02 -3.711095e-02 1.856628e-02 2.045129e-02 1.405846e-02 -7.911083e-04
<VARIANCE> 39
 1.724838e+01 6.046355e+01 2.884611e+01 4.287183e+01 5.252579e+01 6.938952e+01 4.039946e+01 6.097960e+01 3.258966e+01 2.570166e+01 1.730407e+01 3.904984e+01 1.132065e-02 8.960672e-01 2.202082e+00 2.600605e+00 4.045874e+00 3.836663e+00 6.761672e+00 4.169473e+00 5.342608e+00 4.905202e+00 3.114456e+00 2.802552e+00 2.878503e+00 6.551488e-04 1.243208e-01 2.391533e-01 3.241035e-01 5.980466e-01 5.073940e-01 1.286237e+00 6.738653e-01 1.002627e+00 1.002198e+00 7.067183e-01 6.351342e-01 5.108527e-01 7.946906e-05
<GCONST> 1.005129e+02
<TRANSP> 10
 0.000000e+00 1.000000e+00 0.000000e+00 0.000000e+00 0.000000e+00 0.000000e+00 0.000000e+00 0.000000e+00 0.000000e+00 0.000000e+00
 0.000000e+00 9.000000e-01 9.999999e-02 0.000000e+00 0.000000e+00 0.000000e+00 0.000000e+00 0.000000e+00 0.000000e+00 0.000000e+00
 0.000000e+00 0.000000e+00 9.000000e-01 9.999999e-02 0.000000e+00 0.000000e+00 0.000000e+00 0.000000e+00 0.000000e+00 0.000000e+00
 0.000000e+00 0.000000e+00 0.000000e+00 9.000000e-01 9.999999e-02 0.000000e+00 0.000000e+00 0.000000e+00 0.000000e+00 0.000000e+00
 0.000000e+00 0.000000e+00 0.000000e+00 0.000000e+00 9.000000e-01 9.999999e-02 0.000000e+00 0.000000e+00 0.000000e+00 0.000000e+00
 0.000000e+00 0.000000e+00 0.000000e+00 0.000000e+00 0.000000e+00 9.000000e-01 9.999999e-02 0.000000e+00 0.000000e+00 0.000000e+00
 0.000000e+00 0.000000e+00 0.000000e+00 0.000000e+00 0.000000e+00 0.000000e+00 9.000000e-01 9.999999e-02 0.000000e+00 0.000000e+00
 0.000000e+00 0.000000e+00 0.000000e+00 0.000000e+00 0.000000e+00 0.000000e+00 0.000000e+00 9.000000e-01 9.999999e-02 0.000000e+00
 0.000000e+00 0.000000e+00 0.000000e+00 0.000000e+00 0.000000e+00 0.000000e+00 0.000000e+00 0.000000e+00 9.000000e-01 9.999999e-02
 0.000000e+00 0.000000e+00 0.000000e+00 0.000000e+00 0.000000e+00 0.000000e+00 0.000000e+00 0.000000e+00 0.000000e+00 0.000000e+00
<ENDHMM>
