~o
<STREAMINFO> 1 39
<VECSIZE> 39<NULLD><MFCC_E_D_A_Z><DIAGC>
~h "s073"
<BEGINHMM>
<NUMSTATES> 10
<STATE> 2
<MEAN> 39
 -1.924080e-07 1.338490e-07 -1.882252e-07 -4.852027e-07 2.844292e-07 2.007735e-07 7.529007e-08 5.521272e-07 -3.346226e-08 1.673113e-07 -7.529007e-08 -1.673113e-07 7.827608e-01 -1.365477e-02 -7.868599e-02 1.035010e-01 1.283630e-01 2.477461e-01 4.200609e-01 -1.797780e-01 -2.263314e-01 -1.743311e-01 -7.464235e-02 -8.747923e-02 1.507323e-01 -5.506687e-03 -4.407243e-04 3.816682e-02 3.036054e-02 -5.626804e-04 -4.264351e-02 1.396728e-02 -3.735311e-03 -1.197331e-03 1.671714e-02 2.261052e-02 -4.843137e-02 7.455243e-03 -5.538401e-04
<VARIANCE> 39
 2.704894e+01 1.212635e+01 5.083657e+01 3.404121e+01 4.946402e+01 7.691674e+01 3.366369e+01 7.110180e+01 4.838765e+01 4.948747e+01 3.035810e+01 3.991178e+01 2.094402e-02 1.935894e+00 1.219612e+00 2.287071e+00 2.478839e+00 3.543779e+00 5.642552e+00 3.472615e+00 2.311800e+00 5.082043e+00 3.316397e+00 3.703598e+00 3.605191e+00 1.034699e-03 3.348255e-01 1.729994e-01 2.317979e-01 4.192223e-01 6.492267e-01 1.129616e+00 7.103482e-01 4.213911e-01 1.044615e+00 5.433285e-01 7.165526e-01 6.477509e-01 1.479448e-04
<GCONST> 1.013322e+02
<STATE> 3
<MEAN> 39
 -1.924080e-07 1.338490e-07 -1.882252e-07 -4.852027e-07 2.844292e-07 2.007735e-07 7.529007e-08 5.521272e-07 -3.346226e-08 1.673113e-07 -7.529007e-08 -1.673113e-07 7.827608e-01 -1.365477e-02 -7.868599e-02 1.035010e-01 1.283630e-01 2.477461e-01 4.200609e-01 -1.797780e-01 -2.263314e-01 -1.743311e-01 -7.464235e-02 -8.747923e-02 1.507323e-01 -5.506687e-03 -4.407243e-04 3.816682e-02 3.036054e-02 -5.626804e-04 -4.264351e-02 1.396728e-02 -3.735311e-03 -1.197331e-03 1.671714e-02 2.261052e-02 -4.843137e-02 7.455243e-03 -5.538401e-04
<VARIANCE> 39
 2.704894e+01 1.212635e+01 5.083657e+01 3.404121e+01 4.946402e+01 7.691674e+01 3.366369e+01 7.110180e+01 4.838765e+01 4.948747e+01 3.035810e+01 3.991178e+01 2.094402e-02 1.935894e+00 1.219612e+00 2.287071e+00 2.478839e+00 3.543779e+00 5.642552e+00 3.472615e+00 2.311800e+00 5.082043e+00 3.316397e+00 3.703598e+00 3.605191e+00 1.034699e-03 3.348255e-01 1.729994e-01 2.317979e-01 4.192223e-01 6.492267e-01 1.129616e+00 7.103482e-01 4.213911e-01 1.044615e+00 5.433285e-01 7.165526e-01 6.477509e-01 1.479448e-04
<GCONST> 1.013322e+02
<STATE> 4
<MEAN> 39
 -1.924080e-07 1.338490e-07 -1.882252e-07 -4.852027e-07 2.844292e-07 2.007735e-07 7.529007e-08 5.521272e-07 -3.346226e-08 1.673113e-07 -7.529007e-08 -1.673113e-07 7.827608e-01 -1.365477e-02 -7.868599e-02 1.035010e-01 1.283630e-01 2.477461e-01 4.200609e-01 -1.797780e-01 -2.263314e-01 -1.743311e-01 -7.464235e-02 -8.747923e-02 1.507323e-01 -5.506687e-03 -4.407243e-04 3.816682e-02 3.036054e-02 -5.626804e-04 -4.264351e-02 1.396728e-02 -3.735311e-03 -1.197331e-03 1.671714e-02 2.261052e-02 -4.843137e-02 7.455243e-03 -5.538401e-04
<VARIANCE> 39
 2.704894e+01 1.212635e+01 5.083657e+01 3.404121e+01 4.946402e+01 7.691674e+01 3.366369e+01 7.110180e+01 4.838765e+01 4.948747e+01 3.035810e+01 3.991178e+01 2.094402e-02 1.935894e+00 1.219612e+00 2.287071e+00 2.478839e+00 3.543779e+00 5.642552e+00 3.472615e+00 2.311800e+00 5.082043e+00 3.316397e+00 3.703598e+00 3.605191e+00 1.034699e-03 3.348255e-01 1.729994e-01 2.317979e-01 4.192223e-01 6.492267e-01 1.129616e+00 7.103482e-01 4.213911e-01 1.044615e+00 5.433285e-01 7.165526e-01 6.477509e-01 1.479448e-04
<GCONST> 1.013322e+02
<STATE> 5
<MEAN> 39
 -1.924080e-07 1.338490e-07 -1.882252e-07 -4.852027e-07 2.844292e-07 2.007735e-07 7.529007e-08 5.521272e-07 -3.346226e-08 1.673113e-07 -7.529007e-08 -1.673113e-07 7.827608e-01 -1.365477e-02 -7.868599e-02 1.035010e-01 1.283630e-01 2.477461e-01 4.200609e-01 -1.797780e-01 -2.263314e-01 -1.743311e-01 -7.464235e-02 -8.747923e-02 1.507323e-01 -5.506687e-03 -4.407243e-04 3.816682e-02 3.036054e-02 -5.626804e-04 -4.264351e-02 1.396728e-02 -3.735311e-03 -1.197331e-03 1.671714e-02 2.261052e-02 -4.843137e-02 7.455243e-03 -5.538401e-04
<VARIANCE> 39
 2.704894e+01 1.212635e+01 5.083657e+01 3.404121e+01 4.946402e+01 7.691674e+01 3.366369e+01 7.110180e+01 4.838765e+01 4.948747e+01 3.035810e+01 3.991178e+01 2.094402e-02 1.935894e+00 1.219612e+00 2.287071e+00 2.478839e+00 3.543779e+00 5.642552e+00 3.472615e+00 2.311800e+00 5.082043e+00 3.316397e+00 3.703598e+00 3.605191e+00 1.034699e-03 3.348255e-01 1.729994e-01 2.317979e-01 4.192223e-01 6.492267e-01 1.129616e+00 7.103482e-01 4.213911e-01 1.044615e+00 5.433285e-01 7.165526e-01 6.477509e-01 1.479448e-04
<GCONST> 1.013322e+02
<STATE> 6
<MEAN> 39
 -1.924080e-07 1.338490e-07 -1.882252e-07 -4.852027e-07 2.844292e-07 2.007735e-07 7.529007e-08 5.521272e-07 -3.346226e-08 1.673113e-07 -7.529007e-08 -1.673113e-07 7.827608e-01 -1.365477e-02 -7.868599e-02 1.035010e-01 1.283630e-01 2.477461e-01 4.200609e-01 -1.797780e-01 -2.263314e-01 -1.743311e-01 -7.464235e-02 -8.747923e-02 1.507323e-01 -5.506687e-03 -4.407243e-04 3.816682e-02 3.036054e-02 -5.626804e-04 -4.264351e-02 1.396728e-02 -3.735311e-03 -1.197331e-03 1.671714e-02 2.261052e-02 -4.843137e-02 7.455243e-03 -5.538401e-04
<VARIANCE> 39
 2.704894e+01 1.212635e+01 5.083657e+01 3.404121e+01 4.946402e+01 7.691674e+01 3.366369e+01 7.110180e+01 4.838765e+01 4.948747e+01 3.035810e+01 3.991178e+01 2.094402e-02 1.935894e+00 1.219612e+00 2.287071e+00 2.478839e+00 3.543779e+00 5.642552e+00 3.472615e+00 2.311800e+00 5.082043e+00 3.316397e+00 3.703598e+00 3.605191e+00 1.034699e-03 3.348255e-01 1.729994e-01 2.317979e-01 4.192223e-01 6.492267e-01 1.129616e+00 7.103482e-01 4.213911e-01 1.044615e+00 5.433285e-01 7.165526e-01 6.477509e-01 1.479448e-04
<GCONST> 1.013322e+02
<STATE> 7
<MEAN> 39
 -1.924080e-07 1.338490e-07 -1.882252e-07 -4.852027e-07 2.844292e-07 2.007735e-07 7.529007e-08 5.521272e-07 -3.346226e-08 1.673113e-07 -7.529007e-08 -1.673113e-07 7.827608e-01 -1.365477e-02 -7.868599e-02 1.035010e-01 1.283630e-01 2.477461e-01 4.200609e-01 -1.797780e-01 -2.263314e-01 -1.743311e-01 -7.464235e-02 -8.747923e-02 1.507323e-01 -5.506687e-03 -4.407243e-04 3.816682e-02 3.036054e-02 -5.626804e-04 -4.264351e-02 1.396728e-02 -3.735311e-03 -1.197331e-03 1.671714e-02 2.261052e-02 -4.843137e-02 7.455243e-03 -5.538401e-04
<VARIANCE> 39
 2.704894e+01 1.212635e+01 5.083657e+01 3.404121e+01 4.946402e+01 7.691674e+01 3.366369e+01 7.110180e+01 4.838765e+01 4.948747e+01 3.035810e+01 3.991178e+01 2.094402e-02 1.935894e+00 1.219612e+00 2.287071e+00 2.478839e+00 3.543779e+00 5.642552e+00 3.472615e+00 2.311800e+00 5.082043e+00 3.316397e+00 3.703598e+00 3.605191e+00 1.034699e-03 3.348255e-01 1.729994e-01 2.317979e-01 4.192223e-01 6.492267e-01 1.129616e+00 7.103482e-01 4.213911e-01 1.044615e+00 5.433285e-01 7.165526e-01 6.477509e-01 1.479448e-04
<GCONST> 1.013322e+02
<STATE> 8
<MEAN> 39
 -1.924080e-07 1.338490e-07 -1.882252e-07 -4.852027e-07 2.844292e-07 2.007735e-07 7.529007e-08 5.521272e-07 -3.346226e-08 1.673113e-07 -7.529007e-08 -1.673113e-07 7.827608e-01 -1.365477e-02 -7.868599e-02 1.035010e-01 1.283630e-01 2.477461e-01 4.200609e-01 -1.797780e-01 -2.263314e-01 -1.743311e-01 -7.464235e-02 -8.747923e-02 1.507323e-01 -5.506687e-03 -4.407243e-04 3.816682e-02 3.036054e-02 -5.626804e-04 -4.264351e-02 1.396728e-02 -3.735311e-03 -1.197331e-03 1.671714e-02 2.261052e-02 -4.843137e-02 7.455243e-03 -5.538401e-04
<VARIANCE> 39
 2.704894e+01 1.212635e+01 5.083657e+01 3.404121e+01 4.946402e+01 7.691674e+01 3.366369e+01 7.110180e+01 4.838765e+01 4.948747e+01 3.035810e+01 3.991178e+01 2.094402e-02 1.935894e+00 1.219612e+00 2.287071e+00 2.478839e+00 3.543779e+00 5.642552e+00 3.472615e+00 2.311800e+00 5.082043e+00 3.316397e+00 3.703598e+00 3.605191e+00 1.034699e-03 3.348255e-01 1.729994e-01 2.317979e-01 4.192223e-01 6.492267e-01 1.129616e+00 7.103482e-01 4.213911e-01 1.044615e+00 5.433285e-01 7.165526e-01 6.477509e-01 1.479448e-04
<GCONST> 1.013322e+02
<STATE> 9
<MEAN> 39
 -1.924080e-07 1.338490e-07 -1.882252e-07 -4.852027e-07 2.844292e-07 2.007735e-07 7.529007e-08 5.521272e-07 -3.346226e-08 1.673113e-07 -7.529007e-08 -1.673113e-07 7.827608e-01 -1.365477e-02 -7.868599e-02 1.035010e-01 1.283630e-01 2.477461e-01 4.200609e-01 -1.797780e-01 -2.263314e-01 -1.743311e-01 -7.464235e-02 -8.747923e-02 1.507323e-01 -5.506687e-03 -4.407243e-04 3.816682e-02 3.036054e-02 -5.626804e-04 -4.264351e-02 1.396728e-02 -3.735311e-03 -1.197331e-03 1.671714e-02 2.261052e-02 -4.843137e-02 7.455243e-03 -5.538401e-04
<VARIANCE> 39
 2.704894e+01 1.212635e+01 5.083657e+01 3.404121e+01 4.946402e+01 7.691674e+01 3.366369e+01 7.110180e+01 4.838765e+01 4.948747e+01 3.035810e+01 3.991178e+01 2.094402e-02 1.935894e+00 1.219612e+00 2.287071e+00 2.478839e+00 3.543779e+00 5.642552e+00 3.472615e+00 2.311800e+00 5.082043e+00 3.316397e+00 3.703598e+00 3.605191e+00 1.034699e-03 3.348255e-01 1.729994e-01 2.317979e-01 4.192223e-01 6.492267e-01 1.129616e+00 7.103482e-01 4.213911e-01 1.044615e+00 5.433285e-01 7.165526e-01 6.477509e-01 1.479448e-04
<GCONST> 1.013322e+02
<TRANSP> 10
 0.000000e+00 1.000000e+00 0.000000e+00 0.000000e+00 0.000000e+00 0.000000e+00 0.000000e+00 0.000000e+00 0.000000e+00 0.000000e+00
 0.000000e+00 9.000000e-01 9.999999e-02 0.000000e+00 0.000000e+00 0.000000e+00 0.000000e+00 0.000000e+00 0.000000e+00 0.000000e+00
 0.000000e+00 0.000000e+00 9.000000e-01 9.999999e-02 0.000000e+00 0.000000e+00 0.000000e+00 0.000000e+00 0.000000e+00 0.000000e+00
 0.000000e+00 0.000000e+00 0.000000e+00 9.000000e-01 9.999999e-02 0.000000e+00 0.000000e+00 0.000000e+00 0.000000e+00 0.000000e+00
 0.000000e+00 0.000000e+00 0.000000e+00 0.000000e+00 9.000000e-01 9.999999e-02 0.000000e+00 0.000000e+00 0.000000e+00 0.000000e+00
 0.000000e+00 0.000000e+00 0.000000e+00 0.000000e+00 0.000000e+00 9.000000e-01 9.999999e-02 0.000000e+00 0.000000e+00 0.000000e+00
 0.000000e+00 0.000000e+00 0.000000e+00 0.000000e+00 0.000000e+00 0.000000e+00 9.000000e-01 9.999999e-02 0.000000e+00 0.000000e+00
 0.000000e+00 0.000000e+00 0.000000e+00 0.000000e+00 0.000000e+00 0.000000e+00 0.000000e+00 9.000000e-01 9.999999e-02 0.000000e+00
 0.000000e+00 0.000000e+00 0.000000e+00 0.000000e+00 0.000000e+00 0.000000e+00 0.000000e+00 0.000000e+00 9.000000e-01 9.999999e-02
 0.000000e+00 0.000000e+00 0.000000e+00 0.000000e+00 0.000000e+00 0.000000e+00 0.000000e+00 0.000000e+00 0.000000e+00 0.000000e+00
<ENDHMM>
