~o
<STREAMINFO> 1 39
<VECSIZE> 39<NULLD><MFCC_E_D_A_Z><DIAGC>
~h "s078"
<BEGINHMM>
<NUMSTATES> 10
<STATE> 2
<MEAN> 39
 4.683222e-08 -7.620880e-07 9.366444e-08 -1.158033e-06 2.554485e-08 -4.257475e-07 -6.811960e-08 -2.724784e-07 1.766852e-07 -3.193106e-07 6.811960e-08 1.064369e-06 8.213292e-01 8.155208e-02 -1.910002e-01 -2.851161e-02 2.656254e-01 1.942195e-01 2.309208e-01 2.775608e-01 8.494597e-02 7.228955e-02 1.988895e-01 -2.553358e-02 8.840089e-02 -5.834110e-03 -6.059684e-04 -5.397863e-02 4.081638e-05 3.325675e-02 8.792989e-02 -5.311703e-03 4.634368e-02 -3.317105e-05 -5.644742e-02 -5.444677e-03 5.632299e-02 5.566327e-02 -1.470780e-03
<VARIANCE> 39
 2.082547e+01 1.211799e+02 2.388669e+01 9.979815e+01 5.440029e+01 4.048499e+01 5.240274e+01 6.373203e+01 5.707293e+01 8.306605e+01 2.801159e+01 7.189759e+01 3.197549e-02 1.047320e+00 3.003146e+00 2.129045e+00 2.513453e+00 5.713348e+00 1.737300e+00 1.701949e+00 4.906786e+00 4.846692e+00 3.494527e+00 3.247390e+00 2.978905e+00 9.484825e-04 1.122296e-01 3.215435e-01 3.931817e-01 3.758262e-01 9.224136e-01 2.411375e-01 3.297730e-01 6.069153e-01 7.421156e-01 3.938275e-01 5.695482e-01 4.934803e-01 7.990552e-05
<GCONST> 1.008264e+02
<STATE> 3
<MEAN> 39
 4.683222e-08 -7.620880e-07 9.366444e-08 -1.158033e-06 2.554485e-08 -4.257475e-07 -6.811960e-08 -2.724784e-07 1.766852e-07 -3.193106e-07 6.811960e-08 1.064369e-06 8.213292e-01 8.155208e-02 -1.910002e-01 -2.851161e-02 2.656254e-01 1.942195e-01 2.309208e-01 2.775608e-01 8.494597e-02 7.228955e-02 1.988895e-01 -2.553358e-02 8.840089e-02 -5.834110e-03 -6.059684e-04 -5.397863e-02 4.081638e-05 3.325675e-02 8.792989e-02 -5.311703e-03 4.634368e-02 -3.317105e-05 -5.644742e-02 -5.444677e-03 5.632299e-02 5.566327e-02 -1.470780e-03
<VARIANCE> 39
 2.082547e+01 1.211799e+02 2.388669e+01 9.979815e+01 5.440029e+01 4.048499e+01 5.240274e+01 6.373203e+01 5.707293e+01 8.306605e+01 2.801159e+01 7.189759e+01 3.197549e-02 1.047320e+00 3.003146e+00 2.129045e+00 2.513453e+00 5.713348e+00 1.737300e+00 1.701949e+00 4.906786e+00 4.846692e+00 3.494527e+00 3.247390e+00 2.978905e+00 9.484825e-04 1.122296e-01 3.215435e-01 3.931817e-01 3.758262e-01 9.224136e-01 2.411375e-01 3.297730e-01 6.069153e-01 7.421156e-01 3.938275e-01 5.695482e-01 4.934803e-01 7.990552e-05
<GCONST> 1.008264e+02
<STATE> 4
<MEAN> 39
 4.683222e-08 -7.620880e-07 9.366444e-08 -1.158033e-06 2.554485e-08 -4.257475e-07 -6.811960e-08 -2.724784e-07 1.766852e-07 -3.193106e-07 6.811960e-08 1.064369e-06 8.213292e-01 8.155208e-02 -1.910002e-01 -2.851161e-02 2.656254e-01 1.942195e-01 2.309208e-01 2.775608e-01 8.494597e-02 7.228955e-02 1.988895e-01 -2.553358e-02 8.840089e-02 -5.834110e-03 -6.059684e-04 -5.397863e-02 4.081638e-05 3.325675e-02 8.792989e-02 -5.311703e-03 4.634368e-02 -3.317105e-05 -5.644742e-02 -5.444677e-03 5.632299e-02 5.566327e-02 -1.470780e-03
<VARIANCE> 39
 2.082547e+01 1.211799e+02 2.388669e+01 9.979815e+01 5.440029e+01 4.048499e+01 5.240274e+01 6.373203e+01 5.707293e+01 8.306605e+01 2.801159e+01 7.189759e+01 3.197549e-02 1.047320e+00 3.003146e+00 2.129045e+00 2.513453e+00 5.713348e+00 1.737300e+00 1.701949e+00 4.906786e+00 4.846692e+00 3.494527e+00 3.247390e+00 2.978905e+00 9.484825e-04 1.122296e-01 3.215435e-01 3.931817e-01 3.758262e-01 9.224136e-01 2.411375e-01 3.297730e-01 6.069153e-01 7.421156e-01 3.938275e-01 5.695482e-01 4.934803e-01 7.990552e-05
<GCONST> 1.008264e+02
<STATE> 5
<MEAN> 39
 4.683222e-08 -7.620880e-07 9.366444e-08 -1.158033e-06 2.554485e-08 -4.257475e-07 -6.811960e-08 -2.724784e-07 1.766852e-07 -3.193106e-07 6.811960e-08 1.064369e-06 8.213292e-01 8.155208e-02 -1.910002e-01 -2.851161e-02 2.656254e-01 1.942195e-01 2.309208e-01 2.775608e-01 8.494597e-02 7.228955e-02 1.988895e-01 -2.553358e-02 8.840089e-02 -5.834110e-03 -6.059684e-04 -5.397863e-02 4.081638e-05 3.325675e-02 8.792989e-02 -5.311703e-03 4.634368e-02 -3.317105e-05 -5.644742e-02 -5.444677e-03 5.632299e-02 5.566327e-02 -1.470780e-03
<VARIANCE> 39
 2.082547e+01 1.211799e+02 2.388669e+01 9.979815e+01 5.440029e+01 4.048499e+01 5.240274e+01 6.373203e+01 5.707293e+01 8.306605e+01 2.801159e+01 7.189759e+01 3.197549e-02 1.047320e+00 3.003146e+00 2.129045e+00 2.513453e+00 5.713348e+00 1.737300e+00 1.701949e+00 4.906786e+00 4.846692e+00 3.494527e+00 3.247390e+00 2.978905e+00 9.484825e-04 1.122296e-01 3.215435e-01 3.931817e-01 3.758262e-01 9.224136e-01 2.411375e-01 3.297730e-01 6.069153e-01 7.421156e-01 3.938275e-01 5.695482e-01 4.934803e-01 7.990552e-05
<GCONST> 1.008264e+02
<STATE> 6
<MEAN> 39
 4.683222e-08 -7.620880e-07 9.366444e-08 -1.158033e-06 2.554485e-08 -4.257475e-07 -6.811960e-08 -2.724784e-07 1.766852e-07 -3.193106e-07 6.811960e-08 1.064369e-06 8.213292e-01 8.155208e-02 -1.910002e-01 -2.851161e-02 2.656254e-01 1.942195e-01 2.309208e-01 2.775608e-01 8.494597e-02 7.228955e-02 1.988895e-01 -2.553358e-02 8.840089e-02 -5.834110e-03 -6.059684e-04 -5.397863e-02 4.081638e-05 3.325675e-02 8.792989e-02 -5.311703e-03 4.634368e-02 -3.317105e-05 -5.644742e-02 -5.444677e-03 5.632299e-02 5.566327e-02 -1.470780e-03
<VARIANCE> 39
 2.082547e+01 1.211799e+02 2.388669e+01 9.979815e+01 5.440029e+01 4.048499e+01 5.240274e+01 6.373203e+01 5.707293e+01 8.306605e+01 2.801159e+01 7.189759e+01 3.197549e-02 1.047320e+00 3.003146e+00 2.129045e+00 2.513453e+00 5.713348e+00 1.737300e+00 1.701949e+00 4.906786e+00 4.846692e+00 3.494527e+00 3.247390e+00 2.978905e+00 9.484825e-04 1.122296e-01 3.215435e-01 3.931817e-01 3.758262e-01 9.224136e-01 2.411375e-01 3.297730e-01 6.069153e-01 7.421156e-01 3.938275e-01 5.695482e-01 4.934803e-01 7.990552e-05
<GCONST> 1.008264e+02
<STATE> 7
<MEAN> 39
 4.683222e-08 -7.620880e-07 9.366444e-08 -1.158033e-06 2.554485e-08 -4.257475e-07 -6.811960e-08 -2.724784e-07 1.766852e-07 -3.193106e-07 6.811960e-08 1.064369e-06 8.213292e-01 8.155208e-02 -1.910002e-01 -2.851161e-02 2.656254e-01 1.942195e-01 2.309208e-01 2.775608e-01 8.494597e-02 7.228955e-02 1.988895e-01 -2.553358e-02 8.840089e-02 -5.834110e-03 -6.059684e-04 -5.397863e-02 4.081638e-05 3.325675e-02 8.792989e-02 -5.311703e-03 4.634368e-02 -3.317105e-05 -5.644742e-02 -5.444677e-03 5.632299e-02 5.566327e-02 -1.470780e-03
<VARIANCE> 39
 2.082547e+01 1.211799e+02 2.388669e+01 9.979815e+01 5.440029e+01 4.048499e+01 5.240274e+01 6.373203e+01 5.707293e+01 8.306605e+01 2.801159e+01 7.189759e+01 3.197549e-02 1.047320e+00 3.003146e+00 2.129045e+00 2.513453e+00 5.713348e+00 1.737300e+00 1.701949e+00 4.906786e+00 4.846692e+00 3.494527e+00 3.247390e+00 2.978905e+00 9.484825e-04 1.122296e-01 3.215435e-01 3.931817e-01 3.758262e-01 9.224136e-01 2.411375e-01 3.297730e-01 6.069153e-01 7.421156e-01 3.938275e-01 5.695482e-01 4.934803e-01 7.990552e-05
<GCONST> 1.008264e+02
<STATE> 8
<MEAN> 39
 4.683222e-08 -7.620880e-07 9.366444e-08 -1.158033e-06 2.554485e-08 -4.257475e-07 -6.811960e-08 -2.724784e-07 1.766852e-07 -3.193106e-07 6.811960e-08 1.064369e-06 8.213292e-01 8.155208e-02 -1.910002e-01 -2.851161e-02 2.656254e-01 1.942195e-01 2.309208e-01 2.775608e-01 8.494597e-02 7.228955e-02 1.988895e-01 -2.553358e-02 8.840089e-02 -5.834110e-03 -6.059684e-04 -5.397863e-02 4.081638e-05 3.325675e-02 8.792989e-02 -5.311703e-03 4.634368e-02 -3.317105e-05 -5.644742e-02 -5.444677e-03 5.632299e-02 5.566327e-02 -1.470780e-03
<VARIANCE> 39
 2.082547e+01 1.211799e+02 2.388669e+01 9.979815e+01 5.440029e+01 4.048499e+01 5.240274e+01 6.373203e+01 5.707293e+01 8.306605e+01 2.801159e+01 7.189759e+01 3.197549e-02 1.047320e+00 3.003146e+00 2.129045e+00 2.513453e+00 5.713348e+00 1.737300e+00 1.701949e+00 4.906786e+00 4.846692e+00 3.494527e+00 3.247390e+00 2.978905e+00 9.484825e-04 1.122296e-01 3.215435e-01 3.931817e-01 3.758262e-01 9.224136e-01 2.411375e-01 3.297730e-01 6.069153e-01 7.421156e-01 3.938275e-01 5.695482e-01 4.934803e-01 7.990552e-05
<GCONST> 1.008264e+02
<STATE> 9
<MEAN> 39
 4.683222e-08 -7.620880e-07 9.366444e-08 -1.158033e-06 2.554485e-08 -4.257475e-07 -6.811960e-08 -2.724784e-07 1.766852e-07 -3.193106e-07 6.811960e-08 1.064369e-06 8.213292e-01 8.155208e-02 -1.910002e-01 -2.851161e-02 2.656254e-01 1.942195e-01 2.309208e-01 2.775608e-01 8.494597e-02 7.228955e-02 1.988895e-01 -2.553358e-02 8.840089e-02 -5.834110e-03 -6.059684e-04 -5.397863e-02 4.081638e-05 3.325675e-02 8.792989e-02 -5.311703e-03 4.634368e-02 -3.317105e-05 -5.644742e-02 -5.444677e-03 5.632299e-02 5.566327e-02 -1.470780e-03
<VARIANCE> 39
 2.082547e+01 1.211799e+02 2.388669e+01 9.979815e+01 5.440029e+01 4.048499e+01 5.240274e+01 6.373203e+01 5.707293e+01 8.306605e+01 2.801159e+01 7.189759e+01 3.197549e-02 1.047320e+00 3.003146e+00 2.129045e+00 2.513453e+00 5.713348e+00 1.737300e+00 1.701949e+00 4.906786e+00 4.846692e+00 3.494527e+00 3.247390e+00 2.978905e+00 9.484825e-04 1.122296e-01 3.215435e-01 3.931817e-01 3.758262e-01 9.224136e-01 2.411375e-01 3.297730e-01 6.069153e-01 7.421156e-01 3.938275e-01 5.695482e-01 4.934803e-01 7.990552e-05
<GCONST> 1.008264e+02
<TRANSP> 10
 0.000000e+00 1.000000e+00 0.000000e+00 0.000000e+00 0.000000e+00 0.000000e+00 0.000000e+00 0.000000e+00 0.000000e+00 0.000000e+00
 0.000000e+00 9.000000e-01 9.999999e-02 0.000000e+00 0.000000e+00 0.000000e+00 0.000000e+00 0.000000e+00 0.000000e+00 0.000000e+00
 0.000000e+00 0.000000e+00 9.000000e-01 9.999999e-02 0.000000e+00 0.000000e+00 0.000000e+00 0.000000e+00 0.000000e+00 0.000000e+00
 0.000000e+00 0.000000e+00 0.000000e+00 9.000000e-01 9.999999e-02 0.000000e+00 0.000000e+00 0.000000e+00 0.000000e+00 0.000000e+00
 0.000000e+00 0.000000e+00 0.000000e+00 0.000000e+00 9.000000e-01 9.999999e-02 0.000000e+00 0.000000e+00 0.000000e+00 0.000000e+00
 0.000000e+00 0.000000e+00 0.000000e+00 0.000000e+00 0.000000e+00 9.000000e-01 9.999999e-02 0.000000e+00 0.000000e+00 0.000000e+00
 0.000000e+00 0.000000e+00 0.000000e+00 0.000000e+00 0.000000e+00 0.000000e+00 9.000000e-01 9.999999e-02 0.000000e+00 0.000000e+00
 0.000000e+00 0.000000e+00 0.000000e+00 0.000000e+00 0.000000e+00 0.000000e+00 0.000000e+00 9.000000e-01 9.999999e-02 0.000000e+00
 0.000000e+00 0.000000e+00 0.000000e+00 0.000000e+00 0.000000e+00 0.000000e+00 0.000000e+00 0.000000e+00 9.000000e-01 9.999999e-02
 0.000000e+00 0.000000e+00 0.000000e+00 0.000000e+00 0.000000e+00 0.000000e+00 0.000000e+00 0.000000e+00 0.000000e+00 0.000000e+00
<ENDHMM>
