~o
<STREAMINFO> 1 39
<VECSIZE> 39<NULLD><MFCC_E_D_A_Z><DIAGC>
~h "s082"
<BEGINHMM>
<NUMSTATES> 10
<STATE> 2
<MEAN> 39
 -5.609849e-08 1.121970e-07 -3.739899e-07 -1.495960e-07 -4.674874e-07 -2.617930e-07 -2.804925e-07 -1.869950e-07 1.916698e-07 4.020392e-07 -8.882261e-08 -1.308965e-07 8.419153e-01 1.817369e-01 -6.957731e-02 -3.153804e-02 -2.765800e-01 -5.327751e-02 1.759484e-01 -4.322765e-02 2.459279e-01 -7.302104e-02 -1.498476e-02 -8.791512e-02 -1.428971e-02 1.469100e-03 -6.071964e-02 7.002889e-02 8.044921e-03 8.318740e-02 1.185372e-01 2.327067e-02 -3.587044e-03 -2.640755e-03 -2.760369e-03 -2.981777e-02 8.079716e-02 3.503974e-02 -1.874183e-03
<VARIANCE> 39
 4.415600e+01 2.715032e+01 9.458576e+01 7.717300e+01 7.100906e+01 6.555906e+01 2.522570e+01 4.803486e+01 3.416522e+01 5.003276e+01 3.463143e+01 1.969444e+01 1.078677e-02 2.089785e+00 1.977880e+00 3.709550e+00 3.193874e+00 4.852411e+00 4.590663e+00 3.185098e+00 2.561110e+00 5.253773e+00 2.981591e+00 3.786969e+00 2.143307e+00 1.178242e-03 3.087448e-01 1.359390e-01 3.934589e-01 4.515188e-01 7.429695e-01 8.208142e-01 6.033671e-01 4.494444e-01 1.143717e+00 4.932810e-01 7.766346e-01 4.180632e-01 1.298609e-04
<GCONST> 1.024977e+02
<STATE> 3
<MEAN> 39
 -5.609849e-08 1.121970e-07 -3.739899e-07 -1.495960e-07 -4.674874e-07 -2.617930e-07 -2.804925e-07 -1.869950e-07 1.916698e-07 4.020392e-07 -8.882261e-08 -1.308965e-07 8.419153e-01 1.817369e-01 -6.957731e-02 -3.153804e-02 -2.765800e-01 -5.327751e-02 1.759484e-01 -4.322765e-02 2.459279e-01 -7.302104e-02 -1.498476e-02 -8.791512e-02 -1.428971e-02 1.469100e-03 -6.071964e-02 7.002889e-02 8.044921e-03 8.318740e-02 1.185372e-01 2.327067e-02 -3.587044e-03 -2.640755e-03 -2.760369e-03 -2.981777e-02 8.079716e-02 3.503974e-02 -1.874183e-03
<VARIANCE> 39
 4.415600e+01 2.715032e+01 9.458576e+01 7.717300e+01 7.100906e+01 6.555906e+01 2.522570e+01 4.803486e+01 3.416522e+01 5.003276e+01 3.463143e+01 1.969444e+01 1.078677e-02 2.089785e+00 1.977880e+00 3.709550e+00 3.193874e+00 4.852411e+00 4.590663e+00 3.185098e+00 2.561110e+00 5.253773e+00 2.981591e+00 3.786969e+00 2.143307e+00 1.178242e-03 3.087448e-01 1.359390e-01 3.934589e-01 4.515188e-01 7.429695e-01 8.208142e-01 6.033671e-01 4.494444e-01 1.143717e+00 4.932810e-01 7.766346e-01 4.180632e-01 1.298609e-04
<GCONST> 1.024977e+02
<STATE> 4
<MEAN> 39
 -5.609849e-08 1.121970e-07 -3.739899e-07 -1.495960e-07 -4.674874e-07 -2.617930e-07 -2.804925e-07 -1.869950e-07 1.916698e-07 4.020392e-07 -8.882261e-08 -1.308965e-07 8.419153e-01 1.817369e-01 -6.957731e-02 -3.153804e-02 -2.765800e-01 -5.327751e-02 1.759484e-01 -4.322765e-02 2.459279e-01 -7.302104e-02 -1.498476e-02 -8.791512e-02 -1.428971e-02 1.469100e-03 -6.071964e-02 7.002889e-02 8.044921e-03 8.318740e-02 1.185372e-01 2.327067e-02 -3.587044e-03 -2.640755e-03 -2.760369e-03 -2.981777e-02 8.079716e-02 3.503974e-02 -1.874183e-03
<VARIANCE> 39
 4.415600e+01 2.715032e+01 9.458576e+01 7.717300e+01 7.100906e+01 6.555906e+01 2.522570e+01 4.803486e+01 3.416522e+01 5.003276e+01 3.463143e+01 1.969444e+01 1.078677e-02 2.089785e+00 1.977880e+00 3.709550e+00 3.193874e+00 4.852411e+00 4.590663e+00 3.185098e+00 2.561110e+00 5.253773e+00 2.981591e+00 3.786969e+00 2.143307e+00 1.178242e-03 3.087448e-01 1.359390e-01 3.934589e-01 4.515188e-01 7.429695e-01 8.208142e-01 6.033671e-01 4.494444e-01 1.143717e+00 4.932810e-01 7.766346e-01 4.180632e-01 1.298609e-04
<GCONST> 1.024977e+02
<STATE> 5
<MEAN> 39
 -5.609849e-08 1.121970e-07 -3.739899e-07 -1.495960e-07 -4.674874e-07 -2.617930e-07 -2.804925e-07 -1.869950e-07 1.916698e-07 4.020392e-07 -8.882261e-08 -1.308965e-07 8.419153e-01 1.817369e-01 -6.957731e-02 -3.153804e-02 -2.765800e-01 -5.327751e-02 1.759484e-01 -4.322765e-02 2.459279e-01 -7.302104e-02 -1.498476e-02 -8.791512e-02 -1.428971e-02 1.469100e-03 -6.071964e-02 7.002889e-02 8.044921e-03 8.318740e-02 1.185372e-01 2.327067e-02 -3.587044e-03 -2.640755e-03 -2.760369e-03 -2.981777e-02 8.079716e-02 3.503974e-02 -1.874183e-03
<VARIANCE> 39
 4.415600e+01 2.715032e+01 9.458576e+01 7.717300e+01 7.100906e+01 6.555906e+01 2.522570e+01 4.803486e+01 3.416522e+01 5.003276e+01 3.463143e+01 1.969444e+01 1.078677e-02 2.089785e+00 1.977880e+00 3.709550e+00 3.193874e+00 4.852411e+00 4.590663e+00 3.185098e+00 2.561110e+00 5.253773e+00 2.981591e+00 3.786969e+00 2.143307e+00 1.178242e-03 3.087448e-01 1.359390e-01 3.934589e-01 4.515188e-01 7.429695e-01 8.208142e-01 6.033671e-01 4.494444e-01 1.143717e+00 4.932810e-01 7.766346e-01 4.180632e-01 1.298609e-04
<GCONST> 1.024977e+02
<STATE> 6
<MEAN> 39
 -5.609849e-08 1.121970e-07 -3.739899e-07 -1.495960e-07 -4.674874e-07 -2.617930e-07 -2.804925e-07 -1.869950e-07 1.916698e-07 4.020392e-07 -8.882261e-08 -1.308965e-07 8.419153e-01 1.817369e-01 -6.957731e-02 -3.153804e-02 -2.765800e-01 -5.327751e-02 1.759484e-01 -4.322765e-02 2.459279e-01 -7.302104e-02 -1.498476e-02 -8.791512e-02 -1.428971e-02 1.469100e-03 -6.071964e-02 7.002889e-02 8.044921e-03 8.318740e-02 1.185372e-01 2.327067e-02 -3.587044e-03 -2.640755e-03 -2.760369e-03 -2.981777e-02 8.079716e-02 3.503974e-02 -1.874183e-03
<VARIANCE> 39
 4.415600e+01 2.715032e+01 9.458576e+01 7.717300e+01 7.100906e+01 6.555906e+01 2.522570e+01 4.803486e+01 3.416522e+01 5.003276e+01 3.463143e+01 1.969444e+01 1.078677e-02 2.089785e+00 1.977880e+00 3.709550e+00 3.193874e+00 4.852411e+00 4.590663e+00 3.185098e+00 2.561110e+00 5.253773e+00 2.981591e+00 3.786969e+00 2.143307e+00 1.178242e-03 3.087448e-01 1.359390e-01 3.934589e-01 4.515188e-01 7.429695e-01 8.208142e-01 6.033671e-01 4.494444e-01 1.143717e+00 4.932810e-01 7.766346e-01 4.180632e-01 1.298609e-04
<GCONST> 1.024977e+02
<STATE> 7
<MEAN> 39
 -5.609849e-08 1.121970e-07 -3.739899e-07 -1.495960e-07 -4.674874e-07 -2.617930e-07 -2.804925e-07 -1.869950e-07 1.916698e-07 4.020392e-07 -8.882261e-08 -1.308965e-07 8.419153e-01 1.817369e-01 -6.957731e-02 -3.153804e-02 -2.765800e-01 -5.327751e-02 1.759484e-01 -4.322765e-02 2.459279e-01 -7.302104e-02 -1.498476e-02 -8.791512e-02 -1.428971e-02 1.469100e-03 -6.071964e-02 7.002889e-02 8.044921e-03 8.318740e-02 1.185372e-01 2.327067e-02 -3.587044e-03 -2.640755e-03 -2.760369e-03 -2.981777e-02 8.079716e-02 3.503974e-02 -1.874183e-03
<VARIANCE> 39
 4.415600e+01 2.715032e+01 9.458576e+01 7.717300e+01 7.100906e+01 6.555906e+01 2.522570e+01 4.803486e+01 3.416522e+01 5.003276e+01 3.463143e+01 1.969444e+01 1.078677e-02 2.089785e+00 1.977880e+00 3.709550e+00 3.193874e+00 4.852411e+00 4.590663e+00 3.185098e+00 2.561110e+00 5.253773e+00 2.981591e+00 3.786969e+00 2.143307e+00 1.178242e-03 3.087448e-01 1.359390e-01 3.934589e-01 4.515188e-01 7.429695e-01 8.208142e-01 6.033671e-01 4.494444e-01 1.143717e+00 4.932810e-01 7.766346e-01 4.180632e-01 1.298609e-04
<GCONST> 1.024977e+02
<STATE> 8
<MEAN> 39
 -5.609849e-08 1.121970e-07 -3.739899e-07 -1.495960e-07 -4.674874e-07 -2.617930e-07 -2.804925e-07 -1.869950e-07 1.916698e-07 4.020392e-07 -8.882261e-08 -1.308965e-07 8.419153e-01 1.817369e-01 -6.957731e-02 -3.153804e-02 -2.765800e-01 -5.327751e-02 1.759484e-01 -4.322765e-02 2.459279e-01 -7.302104e-02 -1.498476e-02 -8.791512e-02 -1.428971e-02 1.469100e-03 -6.071964e-02 7.002889e-02 8.044921e-03 8.318740e-02 1.185372e-01 2.327067e-02 -3.587044e-03 -2.640755e-03 -2.760369e-03 -2.981777e-02 8.079716e-02 3.503974e-02 -1.874183e-03
<VARIANCE> 39
 4.415600e+01 2.715032e+01 9.458576e+01 7.717300e+01 7.100906e+01 6.555906e+01 2.522570e+01 4.803486e+01 3.416522e+01 5.003276e+01 3.463143e+01 1.969444e+01 1.078677e-02 2.089785e+00 1.977880e+00 3.709550e+00 3.193874e+00 4.852411e+00 4.590663e+00 3.185098e+00 2.561110e+00 5.253773e+00 2.981591e+00 3.786969e+00 2.143307e+00 1.178242e-03 3.087448e-01 1.359390e-01 3.934589e-01 4.515188e-01 7.429695e-01 8.208142e-01 6.033671e-01 4.494444e-01 1.143717e+00 4.932810e-01 7.766346e-01 4.180632e-01 1.298609e-04
<GCONST> 1.024977e+02
<STATE> 9
<MEAN> 39
 -5.609849e-08 1.121970e-07 -3.739899e-07 -1.495960e-07 -4.674874e-07 -2.617930e-07 -2.804925e-07 -1.869950e-07 1.916698e-07 4.020392e-07 -8.882261e-08 -1.308965e-07 8.419153e-01 1.817369e-01 -6.957731e-02 -3.153804e-02 -2.765800e-01 -5.327751e-02 1.759484e-01 -4.322765e-02 2.459279e-01 -7.302104e-02 -1.498476e-02 -8.791512e-02 -1.428971e-02 1.469100e-03 -6.071964e-02 7.002889e-02 8.044921e-03 8.318740e-02 1.185372e-01 2.327067e-02 -3.587044e-03 -2.640755e-03 -2.760369e-03 -2.981777e-02 8.079716e-02 3.503974e-02 -1.874183e-03
<VARIANCE> 39
 4.415600e+01 2.715032e+01 9.458576e+01 7.717300e+01 7.100906e+01 6.555906e+01 2.522570e+01 4.803486e+01 3.416522e+01 5.003276e+01 3.463143e+01 1.969444e+01 1.078677e-02 2.089785e+00 1.977880e+00 3.709550e+00 3.193874e+00 4.852411e+00 4.590663e+00 3.185098e+00 2.561110e+00 5.253773e+00 2.981591e+00 3.786969e+00 2.143307e+00 1.178242e-03 3.087448e-01 1.359390e-01 3.934589e-01 4.515188e-01 7.429695e-01 8.208142e-01 6.033671e-01 4.494444e-01 1.143717e+00 4.932810e-01 7.766346e-01 4.180632e-01 1.298609e-04
<GCONST> 1.024977e+02
<TRANSP> 10
 0.000000e+00 1.000000e+00 0.000000e+00 0.000000e+00 0.000000e+00 0.000000e+00 0.000000e+00 0.000000e+00 0.000000e+00 0.000000e+00
 0.000000e+00 9.000000e-01 9.999999e-02 0.000000e+00 0.000000e+00 0.000000e+00 0.000000e+00 0.000000e+00 0.000000e+00 0.000000e+00
 0.000000e+00 0.000000e+00 9.000000e-01 9.999999e-02 0.000000e+00 0.000000e+00 0.000000e+00 0.000000e+00 0.000000e+00 0.000000e+00
 0.000000e+00 0.000000e+00 0.000000e+00 9.000000e-01 9.999999e-02 0.000000e+00 0.000000e+00 0.000000e+00 0.000000e+00 0.000000e+00
 0.000000e+00 0.000000e+00 0.000000e+00 0.000000e+00 9.000000e-01 9.999999e-02 0.000000e+00 0.000000e+00 0.000000e+00 0.000000e+00
 0.000000e+00 0.000000e+00 0.000000e+00 0.000000e+00 0.000000e+00 9.000000e-01 9.999999e-02 0.000000e+00 0.000000e+00 0.000000e+00
 0.000000e+00 0.000000e+00 0.000000e+00 0.000000e+00 0.000000e+00 0.000000e+00 9.000000e-01 9.999999e-02 0.000000e+00 0.000000e+00
 0.000000e+00 0.000000e+00 0.000000e+00 0.000000e+00 0.000000e+00 0.000000e+00 0.000000e+00 9.000000e-01 9.999999e-02 0.000000e+00
 0.000000e+00 0.000000e+00 0.000000e+00 0.000000e+00 0.000000e+00 0.000000e+00 0.000000e+00 0.000000e+00 9.000000e-01 9.999999e-02
 0.000000e+00 0.000000e+00 0.000000e+00 0.000000e+00 0.000000e+00 0.000000e+00 0.000000e+00 0.000000e+00 0.000000e+00 0.000000e+00
<ENDHMM>
