~o
<STREAMINFO> 1 39
<VECSIZE> 39<NULLD><MFCC_E_D_A_Z><DIAGC>
~h "s084"
<BEGINHMM>
<NUMSTATES> 10
<STATE> 2
<MEAN> 39
 -1.617840e-07 -4.512923e-07 3.916877e-07 1.702990e-08 1.532691e-07 1.873289e-07 -3.405980e-08 -1.702990e-08 1.617840e-07 1.617840e-07 -1.532691e-07 0.000000e+00 8.063515e-01 3.840557e-01 1.418609e-01 -1.677526e-01 -2.497125e-01 -8.907957e-02 2.544292e-02 -1.207211e-01 -3.248263e-01 -9.955861e-02 8.447687e-02 8.090593e-02 4.942549e-03 2.046366e-03 -1.638730e-02 -5.384262e-03 6.752757e-03 -1.102259e-02 -1.618442e-02 8.410249e-02 1.321467e-02 -1.202642e-02 -1.616970e-02 4.563310e-02 6.291051e-03 -4.259762e-03 -5.801955e-04
<VARIANCE> 39
 4.499593e+01 3.608625e+01 6.399790e+01 8.717780e+01 2.139667e+01 3.338102e+01 2.122984e+01 3.551871e+01 3.626907e+01 2.517022e+01 2.276749e+01 2.196770e+01 2.622878e-02 1.031713e+00 7.229835e-01 1.737011e+00 1.959870e+00 2.000539e+00 2.385664e+00 2.102357e+00 1.960034e+00 2.506328e+00 2.913205e+00 2.098355e+00 2.215114e+00 1.319974e-03 1.607801e-01 1.160633e-01 1.962712e-01 2.323176e-01 3.919933e-01 3.264865e-01 3.941641e-01 3.824438e-01 4.295924e-01 5.623876e-01 3.444932e-01 4.727651e-01 1.142233e-04
<GCONST> 8.775906e+01
<STATE> 3
<MEAN> 39
 -1.617840e-07 -4.512923e-07 3.916877e-07 1.702990e-08 1.532691e-07 1.873289e-07 -3.405980e-08 -1.702990e-08 1.617840e-07 1.617840e-07 -1.532691e-07 0.000000e+00 8.063515e-01 3.840557e-01 1.418609e-01 -1.677526e-01 -2.497125e-01 -8.907957e-02 2.544292e-02 -1.207211e-01 -3.248263e-01 -9.955861e-02 8.447687e-02 8.090593e-02 4.942549e-03 2.046366e-03 -1.638730e-02 -5.384262e-03 6.752757e-03 -1.102259e-02 -1.618442e-02 8.410249e-02 1.321467e-02 -1.202642e-02 -1.616970e-02 4.563310e-02 6.291051e-03 -4.259762e-03 -5.801955e-04
<VARIANCE> 39
 4.499593e+01 3.608625e+01 6.399790e+01 8.717780e+01 2.139667e+01 3.338102e+01 2.122984e+01 3.551871e+01 3.626907e+01 2.517022e+01 2.276749e+01 2.196770e+01 2.622878e-02 1.031713e+00 7.229835e-01 1.737011e+00 1.959870e+00 2.000539e+00 2.385664e+00 2.102357e+00 1.960034e+00 2.506328e+00 2.913205e+00 2.098355e+00 2.215114e+00 1.319974e-03 1.607801e-01 1.160633e-01 1.962712e-01 2.323176e-01 3.919933e-01 3.264865e-01 3.941641e-01 3.824438e-01 4.295924e-01 5.623876e-01 3.444932e-01 4.727651e-01 1.142233e-04
<GCONST> 8.775906e+01
<STATE> 4
<MEAN> 39
 -1.617840e-07 -4.512923e-07 3.916877e-07 1.702990e-08 1.532691e-07 1.873289e-07 -3.405980e-08 -1.702990e-08 1.617840e-07 1.617840e-07 -1.532691e-07 0.000000e+00 8.063515e-01 3.840557e-01 1.418609e-01 -1.677526e-01 -2.497125e-01 -8.907957e-02 2.544292e-02 -1.207211e-01 -3.248263e-01 -9.955861e-02 8.447687e-02 8.090593e-02 4.942549e-03 2.046366e-03 -1.638730e-02 -5.384262e-03 6.752757e-03 -1.102259e-02 -1.618442e-02 8.410249e-02 1.321467e-02 -1.202642e-02 -1.616970e-02 4.563310e-02 6.291051e-03 -4.259762e-03 -5.801955e-04
<VARIANCE> 39
 4.499593e+01 3.608625e+01 6.399790e+01 8.717780e+01 2.139667e+01 3.338102e+01 2.122984e+01 3.551871e+01 3.626907e+01 2.517022e+01 2.276749e+01 2.196770e+01 2.622878e-02 1.031713e+00 7.229835e-01 1.737011e+00 1.959870e+00 2.000539e+00 2.385664e+00 2.102357e+00 1.960034e+00 2.506328e+00 2.913205e+00 2.098355e+00 2.215114e+00 1.319974e-03 1.607801e-01 1.160633e-01 1.962712e-01 2.323176e-01 3.919933e-01 3.264865e-01 3.941641e-01 3.824438e-01 4.295924e-01 5.623876e-01 3.444932e-01 4.727651e-01 1.142233e-04
<GCONST> 8.775906e+01
<STATE> 5
<MEAN> 39
 -1.617840e-07 -4.512923e-07 3.916877e-07 1.702990e-08 1.532691e-07 1.873289e-07 -3.405980e-08 -1.702990e-08 1.617840e-07 1.617840e-07 -1.532691e-07 0.000000e+00 8.063515e-01 3.840557e-01 1.418609e-01 -1.677526e-01 -2.497125e-01 -8.907957e-02 2.544292e-02 -1.207211e-01 -3.248263e-01 -9.955861e-02 8.447687e-02 8.090593e-02 4.942549e-03 2.046366e-03 -1.638730e-02 -5.384262e-03 6.752757e-03 -1.102259e-02 -1.618442e-02 8.410249e-02 1.321467e-02 -1.202642e-02 -1.616970e-02 4.563310e-02 6.291051e-03 -4.259762e-03 -5.801955e-04
<VARIANCE> 39
 4.499593e+01 3.608625e+01 6.399790e+01 8.717780e+01 2.139667e+01 3.338102e+01 2.122984e+01 3.551871e+01 3.626907e+01 2.517022e+01 2.276749e+01 2.196770e+01 2.622878e-02 1.031713e+00 7.229835e-01 1.737011e+00 1.959870e+00 2.000539e+00 2.385664e+00 2.102357e+00 1.960034e+00 2.506328e+00 2.913205e+00 2.098355e+00 2.215114e+00 1.319974e-03 1.607801e-01 1.160633e-01 1.962712e-01 2.323176e-01 3.919933e-01 3.264865e-01 3.941641e-01 3.824438e-01 4.295924e-01 5.623876e-01 3.444932e-01 4.727651e-01 1.142233e-04
<GCONST> 8.775906e+01
<STATE> 6
<MEAN> 39
 -1.617840e-07 -4.512923e-07 3.916877e-07 1.702990e-08 1.532691e-07 1.873289e-07 -3.405980e-08 -1.702990e-08 1.617840e-07 1.617840e-07 -1.532691e-07 0.000000e+00 8.063515e-01 3.840557e-01 1.418609e-01 -1.677526e-01 -2.497125e-01 -8.907957e-02 2.544292e-02 -1.207211e-01 -3.248263e-01 -9.955861e-02 8.447687e-02 8.090593e-02 4.942549e-03 2.046366e-03 -1.638730e-02 -5.384262e-03 6.752757e-03 -1.102259e-02 -1.618442e-02 8.410249e-02 1.321467e-02 -1.202642e-02 -1.616970e-02 4.563310e-02 6.291051e-03 -4.259762e-03 -5.801955e-04
<VARIANCE> 39
 4.499593e+01 3.608625e+01 6.399790e+01 8.717780e+01 2.139667e+01 3.338102e+01 2.122984e+01 3.551871e+01 3.626907e+01 2.517022e+01 2.276749e+01 2.196770e+01 2.622878e-02 1.031713e+00 7.229835e-01 1.737011e+00 1.959870e+00 2.000539e+00 2.385664e+00 2.102357e+00 1.960034e+00 2.506328e+00 2.913205e+00 2.098355e+00 2.215114e+00 1.319974e-03 1.607801e-01 1.160633e-01 1.962712e-01 2.323176e-01 3.919933e-01 3.264865e-01 3.941641e-01 3.824438e-01 4.295924e-01 5.623876e-01 3.444932e-01 4.727651e-01 1.142233e-04
<GCONST> 8.775906e+01
<STATE> 7
<MEAN> 39
 -1.617840e-07 -4.512923e-07 3.916877e-07 1.702990e-08 1.532691e-07 1.873289e-07 -3.405980e-08 -1.702990e-08 1.617840e-07 1.617840e-07 -1.532691e-07 0.000000e+00 8.063515e-01 3.840557e-01 1.418609e-01 -1.677526e-01 -2.497125e-01 -8.907957e-02 2.544292e-02 -1.207211e-01 -3.248263e-01 -9.955861e-02 8.447687e-02 8.090593e-02 4.942549e-03 2.046366e-03 -1.638730e-02 -5.384262e-03 6.752757e-03 -1.102259e-02 -1.618442e-02 8.410249e-02 1.321467e-02 -1.202642e-02 -1.616970e-02 4.563310e-02 6.291051e-03 -4.259762e-03 -5.801955e-04
<VARIANCE> 39
 4.499593e+01 3.608625e+01 6.399790e+01 8.717780e+01 2.139667e+01 3.338102e+01 2.122984e+01 3.551871e+01 3.626907e+01 2.517022e+01 2.276749e+01 2.196770e+01 2.622878e-02 1.031713e+00 7.229835e-01 1.737011e+00 1.959870e+00 2.000539e+00 2.385664e+00 2.102357e+00 1.960034e+00 2.506328e+00 2.913205e+00 2.098355e+00 2.215114e+00 1.319974e-03 1.607801e-01 1.160633e-01 1.962712e-01 2.323176e-01 3.919933e-01 3.264865e-01 3.941641e-01 3.824438e-01 4.295924e-01 5.623876e-01 3.444932e-01 4.727651e-01 1.142233e-04
<GCONST> 8.775906e+01
<STATE> 8
<MEAN> 39
 -1.617840e-07 -4.512923e-07 3.916877e-07 1.702990e-08 1.532691e-07 1.873289e-07 -3.405980e-08 -1.702990e-08 1.617840e-07 1.617840e-07 -1.532691e-07 0.000000e+00 8.063515e-01 3.840557e-01 1.418609e-01 -1.677526e-01 -2.497125e-01 -8.907957e-02 2.544292e-02 -1.207211e-01 -3.248263e-01 -9.955861e-02 8.447687e-02 8.090593e-02 4.942549e-03 2.046366e-03 -1.638730e-02 -5.384262e-03 6.752757e-03 -1.102259e-02 -1.618442e-02 8.410249e-02 1.321467e-02 -1.202642e-02 -1.616970e-02 4.563310e-02 6.291051e-03 -4.259762e-03 -5.801955e-04
<VARIANCE> 39
 4.499593e+01 3.608625e+01 6.399790e+01 8.717780e+01 2.139667e+01 3.338102e+01 2.122984e+01 3.551871e+01 3.626907e+01 2.517022e+01 2.276749e+01 2.196770e+01 2.622878e-02 1.031713e+00 7.229835e-01 1.737011e+00 1.959870e+00 2.000539e+00 2.385664e+00 2.102357e+00 1.960034e+00 2.506328e+00 2.913205e+00 2.098355e+00 2.215114e+00 1.319974e-03 1.607801e-01 1.160633e-01 1.962712e-01 2.323176e-01 3.919933e-01 3.264865e-01 3.941641e-01 3.824438e-01 4.295924e-01 5.623876e-01 3.444932e-01 4.727651e-01 1.142233e-04
<GCONST> 8.775906e+01
<STATE> 9
<MEAN> 39
 -1.617840e-07 -4.512923e-07 3.916877e-07 1.702990e-08 1.532691e-07 1.873289e-07 -3.405980e-08 -1.702990e-08 1.617840e-07 1.617840e-07 -1.532691e-07 0.000000e+00 8.063515e-01 3.840557e-01 1.418609e-01 -1.677526e-01 -2.497125e-01 -8.907957e-02 2.544292e-02 -1.207211e-01 -3.248263e-01 -9.955861e-02 8.447687e-02 8.090593e-02 4.942549e-03 2.046366e-03 -1.638730e-02 -5.384262e-03 6.752757e-03 -1.102259e-02 -1.618442e-02 8.410249e-02 1.321467e-02 -1.202642e-02 -1.616970e-02 4.563310e-02 6.291051e-03 -4.259762e-03 -5.801955e-04
<VARIANCE> 39
 4.499593e+01 3.608625e+01 6.399790e+01 8.717780e+01 2.139667e+01 3.338102e+01 2.122984e+01 3.551871e+01 3.626907e+01 2.517022e+01 2.276749e+01 2.196770e+01 2.622878e-02 1.031713e+00 7.229835e-01 1.737011e+00 1.959870e+00 2.000539e+00 2.385664e+00 2.102357e+00 1.960034e+00 2.506328e+00 2.913205e+00 2.098355e+00 2.215114e+00 1.319974e-03 1.607801e-01 1.160633e-01 1.962712e-01 2.323176e-01 3.919933e-01 3.264865e-01 3.941641e-01 3.824438e-01 4.295924e-01 5.623876e-01 3.444932e-01 4.727651e-01 1.142233e-04
<GCONST> 8.775906e+01
<TRANSP> 10
 0.000000e+00 1.000000e+00 0.000000e+00 0.000000e+00 0.000000e+00 0.000000e+00 0.000000e+00 0.000000e+00 0.000000e+00 0.000000e+00
 0.000000e+00 9.000000e-01 9.999999e-02 0.000000e+00 0.000000e+00 0.000000e+00 0.000000e+00 0.000000e+00 0.000000e+00 0.000000e+00
 0.000000e+00 0.000000e+00 9.000000e-01 9.999999e-02 0.000000e+00 0.000000e+00 0.000000e+00 0.000000e+00 0.000000e+00 0.000000e+00
 0.000000e+00 0.000000e+00 0.000000e+00 9.000000e-01 9.999999e-02 0.000000e+00 0.000000e+00 0.000000e+00 0.000000e+00 0.000000e+00
 0.000000e+00 0.000000e+00 0.000000e+00 0.000000e+00 9.000000e-01 9.999999e-02 0.000000e+00 0.000000e+00 0.000000e+00 0.000000e+00
 0.000000e+00 0.000000e+00 0.000000e+00 0.000000e+00 0.000000e+00 9.000000e-01 9.999999e-02 0.000000e+00 0.000000e+00 0.000000e+00
 0.000000e+00 0.000000e+00 0.000000e+00 0.000000e+00 0.000000e+00 0.000000e+00 9.000000e-01 9.999999e-02 0.000000e+00 0.000000e+00
 0.000000e+00 0.000000e+00 0.000000e+00 0.000000e+00 0.000000e+00 0.000000e+00 0.000000e+00 9.000000e-01 9.999999e-02 0.000000e+00
 0.000000e+00 0.000000e+00 0.000000e+00 0.000000e+00 0.000000e+00 0.000000e+00 0.000000e+00 0.000000e+00 9.000000e-01 9.999999e-02
 0.000000e+00 0.000000e+00 0.000000e+00 0.000000e+00 0.000000e+00 0.000000e+00 0.000000e+00 0.000000e+00 0.000000e+00 0.000000e+00
<ENDHMM>
