~o
<STREAMINFO> 1 39
<VECSIZE> 39<NULLD><MFCC_E_D_A_Z><DIAGC>
~h "s087"
<BEGINHMM>
<NUMSTATES> 10
<STATE> 2
<MEAN> 39
 -1.685373e-07 1.644266e-08 1.150986e-07 -2.630826e-07 1.685373e-07 0.000000e+00 -3.864025e-07 2.795252e-07 -1.068773e-07 -6.577064e-08 -3.740705e-07 9.865597e-08 8.051301e-01 7.715451e-02 -5.994077e-02 6.930294e-02 1.606249e-01 -1.042009e-01 1.035209e-01 3.241551e-02 -1.197415e-01 -6.633247e-02 9.433663e-03 -2.591211e-02 -1.228654e-02 -5.913821e-03 -1.893197e-02 -7.823257e-02 -1.182752e-02 1.252513e-01 1.450366e-01 4.076546e-02 4.412096e-02 -6.760192e-02 -7.318044e-02 5.453165e-02 -2.086933e-02 5.575266e-02 -2.137708e-03
<VARIANCE> 39
 2.590462e+01 2.306921e+01 1.972227e+01 8.499242e+01 4.932909e+01 2.815352e+01 1.779883e+01 6.881164e+01 7.567780e+01 5.512216e+01 3.351611e+01 1.128825e+01 3.555921e-02 1.284474e+00 1.847099e+00 1.686864e+00 4.295495e+00 6.020149e+00 1.669214e+00 2.570277e+00 3.987585e+00 8.905254e+00 3.135386e+00 2.022072e+00 1.404444e+00 1.884894e-03 1.233233e-01 2.329126e-01 2.833483e-01 5.233836e-01 9.735475e-01 2.800974e-01 5.670821e-01 4.882121e-01 1.501470e+00 4.259169e-01 3.057931e-01 2.291462e-01 2.368421e-04
<GCONST> 9.685907e+01
<STATE> 3
<MEAN> 39
 -1.685373e-07 1.644266e-08 1.150986e-07 -2.630826e-07 1.685373e-07 0.000000e+00 -3.864025e-07 2.795252e-07 -1.068773e-07 -6.577064e-08 -3.740705e-07 9.865597e-08 8.051301e-01 7.715451e-02 -5.994077e-02 6.930294e-02 1.606249e-01 -1.042009e-01 1.035209e-01 3.241551e-02 -1.197415e-01 -6.633247e-02 9.433663e-03 -2.591211e-02 -1.228654e-02 -5.913821e-03 -1.893197e-02 -7.823257e-02 -1.182752e-02 1.252513e-01 1.450366e-01 4.076546e-02 4.412096e-02 -6.760192e-02 -7.318044e-02 5.453165e-02 -2.086933e-02 5.575266e-02 -2.137708e-03
<VARIANCE> 39
 2.590462e+01 2.306921e+01 1.972227e+01 8.499242e+01 4.932909e+01 2.815352e+01 1.779883e+01 6.881164e+01 7.567780e+01 5.512216e+01 3.351611e+01 1.128825e+01 3.555921e-02 1.284474e+00 1.847099e+00 1.686864e+00 4.295495e+00 6.020149e+00 1.669214e+00 2.570277e+00 3.987585e+00 8.905254e+00 3.135386e+00 2.022072e+00 1.404444e+00 1.884894e-03 1.233233e-01 2.329126e-01 2.833483e-01 5.233836e-01 9.735475e-01 2.800974e-01 5.670821e-01 4.882121e-01 1.501470e+00 4.259169e-01 3.057931e-01 2.291462e-01 2.368421e-04
<GCONST> 9.685907e+01
<STATE> 4
<MEAN> 39
 -1.685373e-07 1.644266e-08 1.150986e-07 -2.630826e-07 1.685373e-07 0.000000e+00 -3.864025e-07 2.795252e-07 -1.068773e-07 -6.577064e-08 -3.740705e-07 9.865597e-08 8.051301e-01 7.715451e-02 -5.994077e-02 6.930294e-02 1.606249e-01 -1.042009e-01 1.035209e-01 3.241551e-02 -1.197415e-01 -6.633247e-02 9.433663e-03 -2.591211e-02 -1.228654e-02 -5.913821e-03 -1.893197e-02 -7.823257e-02 -1.182752e-02 1.252513e-01 1.450366e-01 4.076546e-02 4.412096e-02 -6.760192e-02 -7.318044e-02 5.453165e-02 -2.086933e-02 5.575266e-02 -2.137708e-03
<VARIANCE> 39
 2.590462e+01 2.306921e+01 1.972227e+01 8.499242e+01 4.932909e+01 2.815352e+01 1.779883e+01 6.881164e+01 7.567780e+01 5.512216e+01 3.351611e+01 1.128825e+01 3.555921e-02 1.284474e+00 1.847099e+00 1.686864e+00 4.295495e+00 6.020149e+00 1.669214e+00 2.570277e+00 3.987585e+00 8.905254e+00 3.135386e+00 2.022072e+00 1.404444e+00 1.884894e-03 1.233233e-01 2.329126e-01 2.833483e-01 5.233836e-01 9.735475e-01 2.800974e-01 5.670821e-01 4.882121e-01 1.501470e+00 4.259169e-01 3.057931e-01 2.291462e-01 2.368421e-04
<GCONST> 9.685907e+01
<STATE> 5
<MEAN> 39
 -1.685373e-07 1.644266e-08 1.150986e-07 -2.630826e-07 1.685373e-07 0.000000e+00 -3.864025e-07 2.795252e-07 -1.068773e-07 -6.577064e-08 -3.740705e-07 9.865597e-08 8.051301e-01 7.715451e-02 -5.994077e-02 6.930294e-02 1.606249e-01 -1.042009e-01 1.035209e-01 3.241551e-02 -1.197415e-01 -6.633247e-02 9.433663e-03 -2.591211e-02 -1.228654e-02 -5.913821e-03 -1.893197e-02 -7.823257e-02 -1.182752e-02 1.252513e-01 1.450366e-01 4.076546e-02 4.412096e-02 -6.760192e-02 -7.318044e-02 5.453165e-02 -2.086933e-02 5.575266e-02 -2.137708e-03
<VARIANCE> 39
 2.590462e+01 2.306921e+01 1.972227e+01 8.499242e+01 4.932909e+01 2.815352e+01 1.779883e+01 6.881164e+01 7.567780e+01 5.512216e+01 3.351611e+01 1.128825e+01 3.555921e-02 1.284474e+00 1.847099e+00 1.686864e+00 4.295495e+00 6.020149e+00 1.669214e+00 2.570277e+00 3.987585e+00 8.905254e+00 3.135386e+00 2.022072e+00 1.404444e+00 1.884894e-03 1.233233e-01 2.329126e-01 2.833483e-01 5.233836e-01 9.735475e-01 2.800974e-01 5.670821e-01 4.882121e-01 1.501470e+00 4.259169e-01 3.057931e-01 2.291462e-01 2.368421e-04
<GCONST> 9.685907e+01
<STATE> 6
<MEAN> 39
 -1.685373e-07 1.644266e-08 1.150986e-07 -2.630826e-07 1.685373e-07 0.000000e+00 -3.864025e-07 2.795252e-07 -1.068773e-07 -6.577064e-08 -3.740705e-07 9.865597e-08 8.051301e-01 7.715451e-02 -5.994077e-02 6.930294e-02 1.606249e-01 -1.042009e-01 1.035209e-01 3.241551e-02 -1.197415e-01 -6.633247e-02 9.433663e-03 -2.591211e-02 -1.228654e-02 -5.913821e-03 -1.893197e-02 -7.823257e-02 -1.182752e-02 1.252513e-01 1.450366e-01 4.076546e-02 4.412096e-02 -6.760192e-02 -7.318044e-02 5.453165e-02 -2.086933e-02 5.575266e-02 -2.137708e-03
<VARIANCE> 39
 2.590462e+01 2.306921e+01 1.972227e+01 8.499242e+01 4.932909e+01 2.815352e+01 1.779883e+01 6.881164e+01 7.567780e+01 5.512216e+01 3.351611e+01 1.128825e+01 3.555921e-02 1.284474e+00 1.847099e+00 1.686864e+00 4.295495e+00 6.020149e+00 1.669214e+00 2.570277e+00 3.987585e+00 8.905254e+00 3.135386e+00 2.022072e+00 1.404444e+00 1.884894e-03 1.233233e-01 2.329126e-01 2.833483e-01 5.233836e-01 9.735475e-01 2.800974e-01 5.670821e-01 4.882121e-01 1.501470e+00 4.259169e-01 3.057931e-01 2.291462e-01 2.368421e-04
<GCONST> 9.685907e+01
<STATE> 7
<MEAN> 39
 -1.685373e-07 1.644266e-08 1.150986e-07 -2.630826e-07 1.685373e-07 0.000000e+00 -3.864025e-07 2.795252e-07 -1.068773e-07 -6.577064e-08 -3.740705e-07 9.865597e-08 8.051301e-01 7.715451e-02 -5.994077e-02 6.930294e-02 1.606249e-01 -1.042009e-01 1.035209e-01 3.241551e-02 -1.197415e-01 -6.633247e-02 9.433663e-03 -2.591211e-02 -1.228654e-02 -5.913821e-03 -1.893197e-02 -7.823257e-02 -1.182752e-02 1.252513e-01 1.450366e-01 4.076546e-02 4.412096e-02 -6.760192e-02 -7.318044e-02 5.453165e-02 -2.086933e-02 5.575266e-02 -2.137708e-03
<VARIANCE> 39
 2.590462e+01 2.306921e+01 1.972227e+01 8.499242e+01 4.932909e+01 2.815352e+01 1.779883e+01 6.881164e+01 7.567780e+01 5.512216e+01 3.351611e+01 1.128825e+01 3.555921e-02 1.284474e+00 1.847099e+00 1.686864e+00 4.295495e+00 6.020149e+00 1.669214e+00 2.570277e+00 3.987585e+00 8.905254e+00 3.135386e+00 2.022072e+00 1.404444e+00 1.884894e-03 1.233233e-01 2.329126e-01 2.833483e-01 5.233836e-01 9.735475e-01 2.800974e-01 5.670821e-01 4.882121e-01 1.501470e+00 4.259169e-01 3.057931e-01 2.291462e-01 2.368421e-04
<GCONST> 9.685907e+01
<STATE> 8
<MEAN> 39
 -1.685373e-07 1.644266e-08 1.150986e-07 -2.630826e-07 1.685373e-07 0.000000e+00 -3.864025e-07 2.795252e-07 -1.068773e-07 -6.577064e-08 -3.740705e-07 9.865597e-08 8.051301e-01 7.715451e-02 -5.994077e-02 6.930294e-02 1.606249e-01 -1.042009e-01 1.035209e-01 3.241551e-02 -1.197415e-01 -6.633247e-02 9.433663e-03 -2.591211e-02 -1.228654e-02 -5.913821e-03 -1.893197e-02 -7.823257e-02 -1.182752e-02 1.252513e-01 1.450366e-01 4.076546e-02 4.412096e-02 -6.760192e-02 -7.318044e-02 5.453165e-02 -2.086933e-02 5.575266e-02 -2.137708e-03
<VARIANCE> 39
 2.590462e+01 2.306921e+01 1.972227e+01 8.499242e+01 4.932909e+01 2.815352e+01 1.779883e+01 6.881164e+01 7.567780e+01 5.512216e+01 3.351611e+01 1.128825e+01 3.555921e-02 1.284474e+00 1.847099e+00 1.686864e+00 4.295495e+00 6.020149e+00 1.669214e+00 2.570277e+00 3.987585e+00 8.905254e+00 3.135386e+00 2.022072e+00 1.404444e+00 1.884894e-03 1.233233e-01 2.329126e-01 2.833483e-01 5.233836e-01 9.735475e-01 2.800974e-01 5.670821e-01 4.882121e-01 1.501470e+00 4.259169e-01 3.057931e-01 2.291462e-01 2.368421e-04
<GCONST> 9.685907e+01
<STATE> 9
<MEAN> 39
 -1.685373e-07 1.644266e-08 1.150986e-07 -2.630826e-07 1.685373e-07 0.000000e+00 -3.864025e-07 2.795252e-07 -1.068773e-07 -6.577064e-08 -3.740705e-07 9.865597e-08 8.051301e-01 7.715451e-02 -5.994077e-02 6.930294e-02 1.606249e-01 -1.042009e-01 1.035209e-01 3.241551e-02 -1.197415e-01 -6.633247e-02 9.433663e-03 -2.591211e-02 -1.228654e-02 -5.913821e-03 -1.893197e-02 -7.823257e-02 -1.182752e-02 1.252513e-01 1.450366e-01 4.076546e-02 4.412096e-02 -6.760192e-02 -7.318044e-02 5.453165e-02 -2.086933e-02 5.575266e-02 -2.137708e-03
<VARIANCE> 39
 2.590462e+01 2.306921e+01 1.972227e+01 8.499242e+01 4.932909e+01 2.815352e+01 1.779883e+01 6.881164e+01 7.567780e+01 5.512216e+01 3.351611e+01 1.128825e+01 3.555921e-02 1.284474e+00 1.847099e+00 1.686864e+00 4.295495e+00 6.020149e+00 1.669214e+00 2.570277e+00 3.987585e+00 8.905254e+00 3.135386e+00 2.022072e+00 1.404444e+00 1.884894e-03 1.233233e-01 2.329126e-01 2.833483e-01 5.233836e-01 9.735475e-01 2.800974e-01 5.670821e-01 4.882121e-01 1.501470e+00 4.259169e-01 3.057931e-01 2.291462e-01 2.368421e-04
<GCONST> 9.685907e+01
<TRANSP> 10
 0.000000e+00 1.000000e+00 0.000000e+00 0.000000e+00 0.000000e+00 0.000000e+00 0.000000e+00 0.000000e+00 0.000000e+00 0.000000e+00
 0.000000e+00 9.000000e-01 9.999999e-02 0.000000e+00 0.000000e+00 0.000000e+00 0.000000e+00 0.000000e+00 0.000000e+00 0.000000e+00
 0.000000e+00 0.000000e+00 9.000000e-01 9.999999e-02 0.000000e+00 0.000000e+00 0.000000e+00 0.000000e+00 0.000000e+00 0.000000e+00
 0.000000e+00 0.000000e+00 0.000000e+00 9.000000e-01 9.999999e-02 0.000000e+00 0.000000e+00 0.000000e+00 0.000000e+00 0.000000e+00
 0.000000e+00 0.000000e+00 0.000000e+00 0.000000e+00 9.000000e-01 9.999999e-02 0.000000e+00 0.000000e+00 0.000000e+00 0.000000e+00
 0.000000e+00 0.000000e+00 0.000000e+00 0.000000e+00 0.000000e+00 9.000000e-01 9.999999e-02 0.000000e+00 0.000000e+00 0.000000e+00
 0.000000e+00 0.000000e+00 0.000000e+00 0.000000e+00 0.000000e+00 0.000000e+00 9.000000e-01 9.999999e-02 0.000000e+00 0.000000e+00
 0.000000e+00 0.000000e+00 0.000000e+00 0.000000e+00 0.000000e+00 0.000000e+00 0.000000e+00 9.000000e-01 9.999999e-02 0.000000e+00
 0.000000e+00 0.000000e+00 0.000000e+00 0.000000e+00 0.000000e+00 0.000000e+00 0.000000e+00 0.000000e+00 9.000000e-01 9.999999e-02
 0.000000e+00 0.000000e+00 0.000000e+00 0.000000e+00 0.000000e+00 0.000000e+00 0.000000e+00 0.000000e+00 0.000000e+00 0.000000e+00
<ENDHMM>
