~o
<STREAMINFO> 1 39
<VECSIZE> 39<NULLD><MFCC_E_D_A_Z><DIAGC>
~h "s090"
<BEGINHMM>
<NUMSTATES> 10
<STATE> 2
<MEAN> 39
 -9.753487e-08 -7.586046e-08 -5.418604e-07 -2.384186e-07 -1.083721e-08 -1.733953e-07 -3.576279e-07 2.926046e-07 -1.530756e-07 -9.618022e-08 -1.300465e-07 1.083721e-08 7.443977e-01 2.771816e-02 1.618657e-01 6.535878e-02 3.668877e-01 -2.237157e-02 9.460545e-02 8.789328e-03 1.145419e-01 8.350254e-02 -1.757168e-01 -1.286916e-01 1.672808e-01 -5.984877e-03 2.670332e-02 6.603339e-02 2.232013e-02 -9.388176e-03 -5.627096e-02 6.258733e-02 -6.837782e-02 -3.189613e-02 -9.452061e-02 4.928274e-02 -3.664317e-02 3.467869e-02 -2.238977e-03
<VARIANCE> 39
 2.915478e+01 3.261742e+01 2.771638e+01 4.571627e+01 5.632954e+01 5.752698e+01 2.048899e+01 6.488456e+01 2.091523e+01 3.559013e+01 2.213054e+01 2.412847e+01 3.224236e-02 9.818101e-01 1.299387e+00 1.652285e+00 2.463634e+00 2.667598e+00 4.322671e+00 2.993144e+00 3.949097e+00 3.158424e+00 4.154322e+00 1.363459e+00 2.104720e+00 1.558553e-03 1.121979e-01 1.968089e-01 2.518793e-01 3.141011e-01 2.478818e-01 6.079793e-01 6.515035e-01 7.695327e-01 6.323999e-01 8.302785e-01 2.099761e-01 4.218393e-01 1.610578e-04
<GCONST> 9.340559e+01
<STATE> 3
<MEAN> 39
 -9.753487e-08 -7.586046e-08 -5.418604e-07 -2.384186e-07 -1.083721e-08 -1.733953e-07 -3.576279e-07 2.926046e-07 -1.530756e-07 -9.618022e-08 -1.300465e-07 1.083721e-08 7.443977e-01 2.771816e-02 1.618657e-01 6.535878e-02 3.668877e-01 -2.237157e-02 9.460545e-02 8.789328e-03 1.145419e-01 8.350254e-02 -1.757168e-01 -1.286916e-01 1.672808e-01 -5.984877e-03 2.670332e-02 6.603339e-02 2.232013e-02 -9.388176e-03 -5.627096e-02 6.258733e-02 -6.837782e-02 -3.189613e-02 -9.452061e-02 4.928274e-02 -3.664317e-02 3.467869e-02 -2.238977e-03
<VARIANCE> 39
 2.915478e+01 3.261742e+01 2.771638e+01 4.571627e+01 5.632954e+01 5.752698e+01 2.048899e+01 6.488456e+01 2.091523e+01 3.559013e+01 2.213054e+01 2.412847e+01 3.224236e-02 9.818101e-01 1.299387e+00 1.652285e+00 2.463634e+00 2.667598e+00 4.322671e+00 2.993144e+00 3.949097e+00 3.158424e+00 4.154322e+00 1.363459e+00 2.104720e+00 1.558553e-03 1.121979e-01 1.968089e-01 2.518793e-01 3.141011e-01 2.478818e-01 6.079793e-01 6.515035e-01 7.695327e-01 6.323999e-01 8.302785e-01 2.099761e-01 4.218393e-01 1.610578e-04
<GCONST> 9.340559e+01
<STATE> 4
<MEAN> 39
 -9.753487e-08 -7.586046e-08 -5.418604e-07 -2.384186e-07 -1.083721e-08 -1.733953e-07 -3.576279e-07 2.926046e-07 -1.530756e-07 -9.618022e-08 -1.300465e-07 1.083721e-08 7.443977e-01 2.771816e-02 1.618657e-01 6.535878e-02 3.668877e-01 -2.237157e-02 9.460545e-02 8.789328e-03 1.145419e-01 8.350254e-02 -1.757168e-01 -1.286916e-01 1.672808e-01 -5.984877e-03 2.670332e-02 6.603339e-02 2.232013e-02 -9.388176e-03 -5.627096e-02 6.258733e-02 -6.837782e-02 -3.189613e-02 -9.452061e-02 4.928274e-02 -3.664317e-02 3.467869e-02 -2.238977e-03
<VARIANCE> 39
 2.915478e+01 3.261742e+01 2.771638e+01 4.571627e+01 5.632954e+01 5.752698e+01 2.048899e+01 6.488456e+01 2.091523e+01 3.559013e+01 2.213054e+01 2.412847e+01 3.224236e-02 9.818101e-01 1.299387e+00 1.652285e+00 2.463634e+00 2.667598e+00 4.322671e+00 2.993144e+00 3.949097e+00 3.158424e+00 4.154322e+00 1.363459e+00 2.104720e+00 1.558553e-03 1.121979e-01 1.968089e-01 2.518793e-01 3.141011e-01 2.478818e-01 6.079793e-01 6.515035e-01 7.695327e-01 6.323999e-01 8.302785e-01 2.099761e-01 4.218393e-01 1.610578e-04
<GCONST> 9.340559e+01
<STATE> 5
<MEAN> 39
 -9.753487e-08 -7.586046e-08 -5.418604e-07 -2.384186e-07 -1.083721e-08 -1.733953e-07 -3.576279e-07 2.926046e-07 -1.530756e-07 -9.618022e-08 -1.300465e-07 1.083721e-08 7.443977e-01 2.771816e-02 1.618657e-01 6.535878e-02 3.668877e-01 -2.237157e-02 9.460545e-02 8.789328e-03 1.145419e-01 8.350254e-02 -1.757168e-01 -1.286916e-01 1.672808e-01 -5.984877e-03 2.670332e-02 6.603339e-02 2.232013e-02 -9.388176e-03 -5.627096e-02 6.258733e-02 -6.837782e-02 -3.189613e-02 -9.452061e-02 4.928274e-02 -3.664317e-02 3.467869e-02 -2.238977e-03
<VARIANCE> 39
 2.915478e+01 3.261742e+01 2.771638e+01 4.571627e+01 5.632954e+01 5.752698e+01 2.048899e+01 6.488456e+01 2.091523e+01 3.559013e+01 2.213054e+01 2.412847e+01 3.224236e-02 9.818101e-01 1.299387e+00 1.652285e+00 2.463634e+00 2.667598e+00 4.322671e+00 2.993144e+00 3.949097e+00 3.158424e+00 4.154322e+00 1.363459e+00 2.104720e+00 1.558553e-03 1.121979e-01 1.968089e-01 2.518793e-01 3.141011e-01 2.478818e-01 6.079793e-01 6.515035e-01 7.695327e-01 6.323999e-01 8.302785e-01 2.099761e-01 4.218393e-01 1.610578e-04
<GCONST> 9.340559e+01
<STATE> 6
<MEAN> 39
 -9.753487e-08 -7.586046e-08 -5.418604e-07 -2.384186e-07 -1.083721e-08 -1.733953e-07 -3.576279e-07 2.926046e-07 -1.530756e-07 -9.618022e-08 -1.300465e-07 1.083721e-08 7.443977e-01 2.771816e-02 1.618657e-01 6.535878e-02 3.668877e-01 -2.237157e-02 9.460545e-02 8.789328e-03 1.145419e-01 8.350254e-02 -1.757168e-01 -1.286916e-01 1.672808e-01 -5.984877e-03 2.670332e-02 6.603339e-02 2.232013e-02 -9.388176e-03 -5.627096e-02 6.258733e-02 -6.837782e-02 -3.189613e-02 -9.452061e-02 4.928274e-02 -3.664317e-02 3.467869e-02 -2.238977e-03
<VARIANCE> 39
 2.915478e+01 3.261742e+01 2.771638e+01 4.571627e+01 5.632954e+01 5.752698e+01 2.048899e+01 6.488456e+01 2.091523e+01 3.559013e+01 2.213054e+01 2.412847e+01 3.224236e-02 9.818101e-01 1.299387e+00 1.652285e+00 2.463634e+00 2.667598e+00 4.322671e+00 2.993144e+00 3.949097e+00 3.158424e+00 4.154322e+00 1.363459e+00 2.104720e+00 1.558553e-03 1.121979e-01 1.968089e-01 2.518793e-01 3.141011e-01 2.478818e-01 6.079793e-01 6.515035e-01 7.695327e-01 6.323999e-01 8.302785e-01 2.099761e-01 4.218393e-01 1.610578e-04
<GCONST> 9.340559e+01
<STATE> 7
<MEAN> 39
 -9.753487e-08 -7.586046e-08 -5.418604e-07 -2.384186e-07 -1.083721e-08 -1.733953e-07 -3.576279e-07 2.926046e-07 -1.530756e-07 -9.618022e-08 -1.300465e-07 1.083721e-08 7.443977e-01 2.771816e-02 1.618657e-01 6.535878e-02 3.668877e-01 -2.237157e-02 9.460545e-02 8.789328e-03 1.145419e-01 8.350254e-02 -1.757168e-01 -1.286916e-01 1.672808e-01 -5.984877e-03 2.670332e-02 6.603339e-02 2.232013e-02 -9.388176e-03 -5.627096e-02 6.258733e-02 -6.837782e-02 -3.189613e-02 -9.452061e-02 4.928274e-02 -3.664317e-02 3.467869e-02 -2.238977e-03
<VARIANCE> 39
 2.915478e+01 3.261742e+01 2.771638e+01 4.571627e+01 5.632954e+01 5.752698e+01 2.048899e+01 6.488456e+01 2.091523e+01 3.559013e+01 2.213054e+01 2.412847e+01 3.224236e-02 9.818101e-01 1.299387e+00 1.652285e+00 2.463634e+00 2.667598e+00 4.322671e+00 2.993144e+00 3.949097e+00 3.158424e+00 4.154322e+00 1.363459e+00 2.104720e+00 1.558553e-03 1.121979e-01 1.968089e-01 2.518793e-01 3.141011e-01 2.478818e-01 6.079793e-01 6.515035e-01 7.695327e-01 6.323999e-01 8.302785e-01 2.099761e-01 4.218393e-01 1.610578e-04
<GCONST> 9.340559e+01
<STATE> 8
<MEAN> 39
 -9.753487e-08 -7.586046e-08 -5.418604e-07 -2.384186e-07 -1.083721e-08 -1.733953e-07 -3.576279e-07 2.926046e-07 -1.530756e-07 -9.618022e-08 -1.300465e-07 1.083721e-08 7.443977e-01 2.771816e-02 1.618657e-01 6.535878e-02 3.668877e-01 -2.237157e-02 9.460545e-02 8.789328e-03 1.145419e-01 8.350254e-02 -1.757168e-01 -1.286916e-01 1.672808e-01 -5.984877e-03 2.670332e-02 6.603339e-02 2.232013e-02 -9.388176e-03 -5.627096e-02 6.258733e-02 -6.837782e-02 -3.189613e-02 -9.452061e-02 4.928274e-02 -3.664317e-02 3.467869e-02 -2.238977e-03
<VARIANCE> 39
 2.915478e+01 3.261742e+01 2.771638e+01 4.571627e+01 5.632954e+01 5.752698e+01 2.048899e+01 6.488456e+01 2.091523e+01 3.559013e+01 2.213054e+01 2.412847e+01 3.224236e-02 9.818101e-01 1.299387e+00 1.652285e+00 2.463634e+00 2.667598e+00 4.322671e+00 2.993144e+00 3.949097e+00 3.158424e+00 4.154322e+00 1.363459e+00 2.104720e+00 1.558553e-03 1.121979e-01 1.968089e-01 2.518793e-01 3.141011e-01 2.478818e-01 6.079793e-01 6.515035e-01 7.695327e-01 6.323999e-01 8.302785e-01 2.099761e-01 4.218393e-01 1.610578e-04
<GCONST> 9.340559e+01
<STATE> 9
<MEAN> 39
 -9.753487e-08 -7.586046e-08 -5.418604e-07 -2.384186e-07 -1.083721e-08 -1.733953e-07 -3.576279e-07 2.926046e-07 -1.530756e-07 -9.618022e-08 -1.300465e-07 1.083721e-08 7.443977e-01 2.771816e-02 1.618657e-01 6.535878e-02 3.668877e-01 -2.237157e-02 9.460545e-02 8.789328e-03 1.145419e-01 8.350254e-02 -1.757168e-01 -1.286916e-01 1.672808e-01 -5.984877e-03 2.670332e-02 6.603339e-02 2.232013e-02 -9.388176e-03 -5.627096e-02 6.258733e-02 -6.837782e-02 -3.189613e-02 -9.452061e-02 4.928274e-02 -3.664317e-02 3.467869e-02 -2.238977e-03
<VARIANCE> 39
 2.915478e+01 3.261742e+01 2.771638e+01 4.571627e+01 5.632954e+01 5.752698e+01 2.048899e+01 6.488456e+01 2.091523e+01 3.559013e+01 2.213054e+01 2.412847e+01 3.224236e-02 9.818101e-01 1.299387e+00 1.652285e+00 2.463634e+00 2.667598e+00 4.322671e+00 2.993144e+00 3.949097e+00 3.158424e+00 4.154322e+00 1.363459e+00 2.104720e+00 1.558553e-03 1.121979e-01 1.968089e-01 2.518793e-01 3.141011e-01 2.478818e-01 6.079793e-01 6.515035e-01 7.695327e-01 6.323999e-01 8.302785e-01 2.099761e-01 4.218393e-01 1.610578e-04
<GCONST> 9.340559e+01
<TRANSP> 10
 0.000000e+00 1.000000e+00 0.000000e+00 0.000000e+00 0.000000e+00 0.000000e+00 0.000000e+00 0.000000e+00 0.000000e+00 0.000000e+00
 0.000000e+00 9.000000e-01 9.999999e-02 0.000000e+00 0.000000e+00 0.000000e+00 0.000000e+00 0.000000e+00 0.000000e+00 0.000000e+00
 0.000000e+00 0.000000e+00 9.000000e-01 9.999999e-02 0.000000e+00 0.000000e+00 0.000000e+00 0.000000e+00 0.000000e+00 0.000000e+00
 0.000000e+00 0.000000e+00 0.000000e+00 9.000000e-01 9.999999e-02 0.000000e+00 0.000000e+00 0.000000e+00 0.000000e+00 0.000000e+00
 0.000000e+00 0.000000e+00 0.000000e+00 0.000000e+00 9.000000e-01 9.999999e-02 0.000000e+00 0.000000e+00 0.000000e+00 0.000000e+00
 0.000000e+00 0.000000e+00 0.000000e+00 0.000000e+00 0.000000e+00 9.000000e-01 9.999999e-02 0.000000e+00 0.000000e+00 0.000000e+00
 0.000000e+00 0.000000e+00 0.000000e+00 0.000000e+00 0.000000e+00 0.000000e+00 9.000000e-01 9.999999e-02 0.000000e+00 0.000000e+00
 0.000000e+00 0.000000e+00 0.000000e+00 0.000000e+00 0.000000e+00 0.000000e+00 0.000000e+00 9.000000e-01 9.999999e-02 0.000000e+00
 0.000000e+00 0.000000e+00 0.000000e+00 0.000000e+00 0.000000e+00 0.000000e+00 0.000000e+00 0.000000e+00 9.000000e-01 9.999999e-02
 0.000000e+00 0.000000e+00 0.000000e+00 0.000000e+00 0.000000e+00 0.000000e+00 0.000000e+00 0.000000e+00 0.000000e+00 0.000000e+00
<ENDHMM>
