~o
<STREAMINFO> 1 39
<VECSIZE> 39<NULLD><MFCC_E_D_A_Z><DIAGC>
~h "s096"
<BEGINHMM>
<NUMSTATES> 10
<STATE> 2
<MEAN> 39
 5.019339e-08 -1.019553e-07 -1.254835e-08 -7.278041e-07 -3.513537e-07 2.258702e-07 1.631285e-07 1.254835e-08 -1.631285e-07 -7.529007e-08 5.019339e-08 6.274173e-08 7.405792e-01 2.222365e-01 2.249225e-01 1.311932e-01 -3.974857e-01 -3.279476e-01 2.764615e-01 -2.222596e-01 1.230652e-01 2.552692e-02 4.062000e-01 2.723038e-01 -5.510132e-01 2.910296e-03 2.166714e-03 2.478713e-02 2.789695e-02 3.961594e-03 -8.518466e-02 -3.844203e-02 -3.100425e-03 -1.394630e-02 -5.959306e-02 7.767162e-02 -1.151891e-02 1.663043e-02 6.557582e-05
<VARIANCE> 39
 1.389075e+01 2.419545e+01 3.896344e+01 1.116203e+02 6.219083e+01 7.900748e+01 5.146016e+01 6.558792e+01 4.712794e+01 3.459821e+01 3.669960e+01 4.568094e+01 3.990370e-02 1.273392e+00 1.675984e+00 3.208138e+00 5.056161e+00 4.299425e+00 6.929151e+00 7.800289e+00 4.602355e+00 4.667464e+00 4.596935e+00 3.962760e+00 3.647302e+00 2.323590e-03 2.274614e-01 2.764232e-01 5.412765e-01 7.483697e-01 6.929485e-01 1.161605e+00 1.665852e+00 6.656914e-01 8.363827e-01 9.108660e-01 7.210075e-01 8.005038e-01 2.922853e-04
<GCONST> 1.115444e+02
<STATE> 3
<MEAN> 39
 5.019339e-08 -1.019553e-07 -1.254835e-08 -7.278041e-07 -3.513537e-07 2.258702e-07 1.631285e-07 1.254835e-08 -1.631285e-07 -7.529007e-08 5.019339e-08 6.274173e-08 7.405792e-01 2.222365e-01 2.249225e-01 1.311932e-01 -3.974857e-01 -3.279476e-01 2.764615e-01 -2.222596e-01 1.230652e-01 2.552692e-02 4.062000e-01 2.723038e-01 -5.510132e-01 2.910296e-03 2.166714e-03 2.478713e-02 2.789695e-02 3.961594e-03 -8.518466e-02 -3.844203e-02 -3.100425e-03 -1.394630e-02 -5.959306e-02 7.767162e-02 -1.151891e-02 1.663043e-02 6.557582e-05
<VARIANCE> 39
 1.389075e+01 2.419545e+01 3.896344e+01 1.116203e+02 6.219083e+01 7.900748e+01 5.146016e+01 6.558792e+01 4.712794e+01 3.459821e+01 3.669960e+01 4.568094e+01 3.990370e-02 1.273392e+00 1.675984e+00 3.208138e+00 5.056161e+00 4.299425e+00 6.929151e+00 7.800289e+00 4.602355e+00 4.667464e+00 4.596935e+00 3.962760e+00 3.647302e+00 2.323590e-03 2.274614e-01 2.764232e-01 5.412765e-01 7.483697e-01 6.929485e-01 1.161605e+00 1.665852e+00 6.656914e-01 8.363827e-01 9.108660e-01 7.210075e-01 8.005038e-01 2.922853e-04
<GCONST> 1.115444e+02
<STATE> 4
<MEAN> 39
 5.019339e-08 -1.019553e-07 -1.254835e-08 -7.278041e-07 -3.513537e-07 2.258702e-07 1.631285e-07 1.254835e-08 -1.631285e-07 -7.529007e-08 5.019339e-08 6.274173e-08 7.405792e-01 2.222365e-01 2.249225e-01 1.311932e-01 -3.974857e-01 -3.279476e-01 2.764615e-01 -2.222596e-01 1.230652e-01 2.552692e-02 4.062000e-01 2.723038e-01 -5.510132e-01 2.910296e-03 2.166714e-03 2.478713e-02 2.789695e-02 3.961594e-03 -8.518466e-02 -3.844203e-02 -3.100425e-03 -1.394630e-02 -5.959306e-02 7.767162e-02 -1.151891e-02 1.663043e-02 6.557582e-05
<VARIANCE> 39
 1.389075e+01 2.419545e+01 3.896344e+01 1.116203e+02 6.219083e+01 7.900748e+01 5.146016e+01 6.558792e+01 4.712794e+01 3.459821e+01 3.669960e+01 4.568094e+01 3.990370e-02 1.273392e+00 1.675984e+00 3.208138e+00 5.056161e+00 4.299425e+00 6.929151e+00 7.800289e+00 4.602355e+00 4.667464e+00 4.596935e+00 3.962760e+00 3.647302e+00 2.323590e-03 2.274614e-01 2.764232e-01 5.412765e-01 7.483697e-01 6.929485e-01 1.161605e+00 1.665852e+00 6.656914e-01 8.363827e-01 9.108660e-01 7.210075e-01 8.005038e-01 2.922853e-04
<GCONST> 1.115444e+02
<STATE> 5
<MEAN> 39
 5.019339e-08 -1.019553e-07 -1.254835e-08 -7.278041e-07 -3.513537e-07 2.258702e-07 1.631285e-07 1.254835e-08 -1.631285e-07 -7.529007e-08 5.019339e-08 6.274173e-08 7.405792e-01 2.222365e-01 2.249225e-01 1.311932e-01 -3.974857e-01 -3.279476e-01 2.764615e-01 -2.222596e-01 1.230652e-01 2.552692e-02 4.062000e-01 2.723038e-01 -5.510132e-01 2.910296e-03 2.166714e-03 2.478713e-02 2.789695e-02 3.961594e-03 -8.518466e-02 -3.844203e-02 -3.100425e-03 -1.394630e-02 -5.959306e-02 7.767162e-02 -1.151891e-02 1.663043e-02 6.557582e-05
<VARIANCE> 39
 1.389075e+01 2.419545e+01 3.896344e+01 1.116203e+02 6.219083e+01 7.900748e+01 5.146016e+01 6.558792e+01 4.712794e+01 3.459821e+01 3.669960e+01 4.568094e+01 3.990370e-02 1.273392e+00 1.675984e+00 3.208138e+00 5.056161e+00 4.299425e+00 6.929151e+00 7.800289e+00 4.602355e+00 4.667464e+00 4.596935e+00 3.962760e+00 3.647302e+00 2.323590e-03 2.274614e-01 2.764232e-01 5.412765e-01 7.483697e-01 6.929485e-01 1.161605e+00 1.665852e+00 6.656914e-01 8.363827e-01 9.108660e-01 7.210075e-01 8.005038e-01 2.922853e-04
<GCONST> 1.115444e+02
<STATE> 6
<MEAN> 39
 5.019339e-08 -1.019553e-07 -1.254835e-08 -7.278041e-07 -3.513537e-07 2.258702e-07 1.631285e-07 1.254835e-08 -1.631285e-07 -7.529007e-08 5.019339e-08 6.274173e-08 7.405792e-01 2.222365e-01 2.249225e-01 1.311932e-01 -3.974857e-01 -3.279476e-01 2.764615e-01 -2.222596e-01 1.230652e-01 2.552692e-02 4.062000e-01 2.723038e-01 -5.510132e-01 2.910296e-03 2.166714e-03 2.478713e-02 2.789695e-02 3.961594e-03 -8.518466e-02 -3.844203e-02 -3.100425e-03 -1.394630e-02 -5.959306e-02 7.767162e-02 -1.151891e-02 1.663043e-02 6.557582e-05
<VARIANCE> 39
 1.389075e+01 2.419545e+01 3.896344e+01 1.116203e+02 6.219083e+01 7.900748e+01 5.146016e+01 6.558792e+01 4.712794e+01 3.459821e+01 3.669960e+01 4.568094e+01 3.990370e-02 1.273392e+00 1.675984e+00 3.208138e+00 5.056161e+00 4.299425e+00 6.929151e+00 7.800289e+00 4.602355e+00 4.667464e+00 4.596935e+00 3.962760e+00 3.647302e+00 2.323590e-03 2.274614e-01 2.764232e-01 5.412765e-01 7.483697e-01 6.929485e-01 1.161605e+00 1.665852e+00 6.656914e-01 8.363827e-01 9.108660e-01 7.210075e-01 8.005038e-01 2.922853e-04
<GCONST> 1.115444e+02
<STATE> 7
<MEAN> 39
 5.019339e-08 -1.019553e-07 -1.254835e-08 -7.278041e-07 -3.513537e-07 2.258702e-07 1.631285e-07 1.254835e-08 -1.631285e-07 -7.529007e-08 5.019339e-08 6.274173e-08 7.405792e-01 2.222365e-01 2.249225e-01 1.311932e-01 -3.974857e-01 -3.279476e-01 2.764615e-01 -2.222596e-01 1.230652e-01 2.552692e-02 4.062000e-01 2.723038e-01 -5.510132e-01 2.910296e-03 2.166714e-03 2.478713e-02 2.789695e-02 3.961594e-03 -8.518466e-02 -3.844203e-02 -3.100425e-03 -1.394630e-02 -5.959306e-02 7.767162e-02 -1.151891e-02 1.663043e-02 6.557582e-05
<VARIANCE> 39
 1.389075e+01 2.419545e+01 3.896344e+01 1.116203e+02 6.219083e+01 7.900748e+01 5.146016e+01 6.558792e+01 4.712794e+01 3.459821e+01 3.669960e+01 4.568094e+01 3.990370e-02 1.273392e+00 1.675984e+00 3.208138e+00 5.056161e+00 4.299425e+00 6.929151e+00 7.800289e+00 4.602355e+00 4.667464e+00 4.596935e+00 3.962760e+00 3.647302e+00 2.323590e-03 2.274614e-01 2.764232e-01 5.412765e-01 7.483697e-01 6.929485e-01 1.161605e+00 1.665852e+00 6.656914e-01 8.363827e-01 9.108660e-01 7.210075e-01 8.005038e-01 2.922853e-04
<GCONST> 1.115444e+02
<STATE> 8
<MEAN> 39
 5.019339e-08 -1.019553e-07 -1.254835e-08 -7.278041e-07 -3.513537e-07 2.258702e-07 1.631285e-07 1.254835e-08 -1.631285e-07 -7.529007e-08 5.019339e-08 6.274173e-08 7.405792e-01 2.222365e-01 2.249225e-01 1.311932e-01 -3.974857e-01 -3.279476e-01 2.764615e-01 -2.222596e-01 1.230652e-01 2.552692e-02 4.062000e-01 2.723038e-01 -5.510132e-01 2.910296e-03 2.166714e-03 2.478713e-02 2.789695e-02 3.961594e-03 -8.518466e-02 -3.844203e-02 -3.100425e-03 -1.394630e-02 -5.959306e-02 7.767162e-02 -1.151891e-02 1.663043e-02 6.557582e-05
<VARIANCE> 39
 1.389075e+01 2.419545e+01 3.896344e+01 1.116203e+02 6.219083e+01 7.900748e+01 5.146016e+01 6.558792e+01 4.712794e+01 3.459821e+01 3.669960e+01 4.568094e+01 3.990370e-02 1.273392e+00 1.675984e+00 3.208138e+00 5.056161e+00 4.299425e+00 6.929151e+00 7.800289e+00 4.602355e+00 4.667464e+00 4.596935e+00 3.962760e+00 3.647302e+00 2.323590e-03 2.274614e-01 2.764232e-01 5.412765e-01 7.483697e-01 6.929485e-01 1.161605e+00 1.665852e+00 6.656914e-01 8.363827e-01 9.108660e-01 7.210075e-01 8.005038e-01 2.922853e-04
<GCONST> 1.115444e+02
<STATE> 9
<MEAN> 39
 5.019339e-08 -1.019553e-07 -1.254835e-08 -7.278041e-07 -3.513537e-07 2.258702e-07 1.631285e-07 1.254835e-08 -1.631285e-07 -7.529007e-08 5.019339e-08 6.274173e-08 7.405792e-01 2.222365e-01 2.249225e-01 1.311932e-01 -3.974857e-01 -3.279476e-01 2.764615e-01 -2.222596e-01 1.230652e-01 2.552692e-02 4.062000e-01 2.723038e-01 -5.510132e-01 2.910296e-03 2.166714e-03 2.478713e-02 2.789695e-02 3.961594e-03 -8.518466e-02 -3.844203e-02 -3.100425e-03 -1.394630e-02 -5.959306e-02 7.767162e-02 -1.151891e-02 1.663043e-02 6.557582e-05
<VARIANCE> 39
 1.389075e+01 2.419545e+01 3.896344e+01 1.116203e+02 6.219083e+01 7.900748e+01 5.146016e+01 6.558792e+01 4.712794e+01 3.459821e+01 3.669960e+01 4.568094e+01 3.990370e-02 1.273392e+00 1.675984e+00 3.208138e+00 5.056161e+00 4.299425e+00 6.929151e+00 7.800289e+00 4.602355e+00 4.667464e+00 4.596935e+00 3.962760e+00 3.647302e+00 2.323590e-03 2.274614e-01 2.764232e-01 5.412765e-01 7.483697e-01 6.929485e-01 1.161605e+00 1.665852e+00 6.656914e-01 8.363827e-01 9.108660e-01 7.210075e-01 8.005038e-01 2.922853e-04
<GCONST> 1.115444e+02
<TRANSP> 10
 0.000000e+00 1.000000e+00 0.000000e+00 0.000000e+00 0.000000e+00 0.000000e+00 0.000000e+00 0.000000e+00 0.000000e+00 0.000000e+00
 0.000000e+00 9.000000e-01 9.999999e-02 0.000000e+00 0.000000e+00 0.000000e+00 0.000000e+00 0.000000e+00 0.000000e+00 0.000000e+00
 0.000000e+00 0.000000e+00 9.000000e-01 9.999999e-02 0.000000e+00 0.000000e+00 0.000000e+00 0.000000e+00 0.000000e+00 0.000000e+00
 0.000000e+00 0.000000e+00 0.000000e+00 9.000000e-01 9.999999e-02 0.000000e+00 0.000000e+00 0.000000e+00 0.000000e+00 0.000000e+00
 0.000000e+00 0.000000e+00 0.000000e+00 0.000000e+00 9.000000e-01 9.999999e-02 0.000000e+00 0.000000e+00 0.000000e+00 0.000000e+00
 0.000000e+00 0.000000e+00 0.000000e+00 0.000000e+00 0.000000e+00 9.000000e-01 9.999999e-02 0.000000e+00 0.000000e+00 0.000000e+00
 0.000000e+00 0.000000e+00 0.000000e+00 0.000000e+00 0.000000e+00 0.000000e+00 9.000000e-01 9.999999e-02 0.000000e+00 0.000000e+00
 0.000000e+00 0.000000e+00 0.000000e+00 0.000000e+00 0.000000e+00 0.000000e+00 0.000000e+00 9.000000e-01 9.999999e-02 0.000000e+00
 0.000000e+00 0.000000e+00 0.000000e+00 0.000000e+00 0.000000e+00 0.000000e+00 0.000000e+00 0.000000e+00 9.000000e-01 9.999999e-02
 0.000000e+00 0.000000e+00 0.000000e+00 0.000000e+00 0.000000e+00 0.000000e+00 0.000000e+00 0.000000e+00 0.000000e+00 0.000000e+00
<ENDHMM>
