~o
<STREAMINFO> 1 39
<VECSIZE> 39<NULLD><MFCC_E_D_A_Z><DIAGC>
~h "s098"
<BEGINHMM>
<NUMSTATES> 10
<STATE> 2
<MEAN> 39
 1.303852e-07 -1.378357e-07 5.569309e-07 3.725290e-07 -2.384186e-07 -4.321337e-07 -1.415610e-07 -3.390014e-07 1.322478e-07 4.172325e-07 0.000000e+00 7.450581e-09 7.853974e-01 2.849901e-01 -1.195048e-01 -2.991329e-02 1.679477e-01 -3.344175e-02 3.716411e-02 3.987338e-02 5.140483e-02 -6.504407e-02 1.824576e-01 7.547384e-02 -4.717223e-02 -5.695278e-04 -7.442513e-02 2.552703e-02 -6.852330e-03 -2.641879e-02 5.271082e-02 4.786629e-02 -1.028147e-02 1.952570e-02 2.396859e-02 8.698037e-02 4.573949e-02 5.063892e-02 -1.834922e-03
<VARIANCE> 39
 1.256132e+01 7.105783e+01 6.427376e+01 1.820853e+02 5.833628e+01 4.597607e+01 5.312350e+01 4.824269e+01 3.198502e+01 5.173771e+01 3.510098e+01 2.472709e+01 1.998851e-02 1.474622e+00 2.535648e+00 1.912460e+00 5.940492e+00 4.520075e+00 3.708020e+00 2.917621e+00 3.932062e+00 3.609557e+00 3.530627e+00 3.503788e+00 2.729875e+00 1.423355e-03 1.880010e-01 2.302049e-01 2.397550e-01 6.308314e-01 7.660090e-01 6.204632e-01 4.036148e-01 6.156641e-01 5.719759e-01 4.507823e-01 6.864172e-01 5.436502e-01 8.400588e-05
<GCONST> 1.022127e+02
<STATE> 3
<MEAN> 39
 1.303852e-07 -1.378357e-07 5.569309e-07 3.725290e-07 -2.384186e-07 -4.321337e-07 -1.415610e-07 -3.390014e-07 1.322478e-07 4.172325e-07 0.000000e+00 7.450581e-09 7.853974e-01 2.849901e-01 -1.195048e-01 -2.991329e-02 1.679477e-01 -3.344175e-02 3.716411e-02 3.987338e-02 5.140483e-02 -6.504407e-02 1.824576e-01 7.547384e-02 -4.717223e-02 -5.695278e-04 -7.442513e-02 2.552703e-02 -6.852330e-03 -2.641879e-02 5.271082e-02 4.786629e-02 -1.028147e-02 1.952570e-02 2.396859e-02 8.698037e-02 4.573949e-02 5.063892e-02 -1.834922e-03
<VARIANCE> 39
 1.256132e+01 7.105783e+01 6.427376e+01 1.820853e+02 5.833628e+01 4.597607e+01 5.312350e+01 4.824269e+01 3.198502e+01 5.173771e+01 3.510098e+01 2.472709e+01 1.998851e-02 1.474622e+00 2.535648e+00 1.912460e+00 5.940492e+00 4.520075e+00 3.708020e+00 2.917621e+00 3.932062e+00 3.609557e+00 3.530627e+00 3.503788e+00 2.729875e+00 1.423355e-03 1.880010e-01 2.302049e-01 2.397550e-01 6.308314e-01 7.660090e-01 6.204632e-01 4.036148e-01 6.156641e-01 5.719759e-01 4.507823e-01 6.864172e-01 5.436502e-01 8.400588e-05
<GCONST> 1.022127e+02
<STATE> 4
<MEAN> 39
 1.303852e-07 -1.378357e-07 5.569309e-07 3.725290e-07 -2.384186e-07 -4.321337e-07 -1.415610e-07 -3.390014e-07 1.322478e-07 4.172325e-07 0.000000e+00 7.450581e-09 7.853974e-01 2.849901e-01 -1.195048e-01 -2.991329e-02 1.679477e-01 -3.344175e-02 3.716411e-02 3.987338e-02 5.140483e-02 -6.504407e-02 1.824576e-01 7.547384e-02 -4.717223e-02 -5.695278e-04 -7.442513e-02 2.552703e-02 -6.852330e-03 -2.641879e-02 5.271082e-02 4.786629e-02 -1.028147e-02 1.952570e-02 2.396859e-02 8.698037e-02 4.573949e-02 5.063892e-02 -1.834922e-03
<VARIANCE> 39
 1.256132e+01 7.105783e+01 6.427376e+01 1.820853e+02 5.833628e+01 4.597607e+01 5.312350e+01 4.824269e+01 3.198502e+01 5.173771e+01 3.510098e+01 2.472709e+01 1.998851e-02 1.474622e+00 2.535648e+00 1.912460e+00 5.940492e+00 4.520075e+00 3.708020e+00 2.917621e+00 3.932062e+00 3.609557e+00 3.530627e+00 3.503788e+00 2.729875e+00 1.423355e-03 1.880010e-01 2.302049e-01 2.397550e-01 6.308314e-01 7.660090e-01 6.204632e-01 4.036148e-01 6.156641e-01 5.719759e-01 4.507823e-01 6.864172e-01 5.436502e-01 8.400588e-05
<GCONST> 1.022127e+02
<STATE> 5
<MEAN> 39
 1.303852e-07 -1.378357e-07 5.569309e-07 3.725290e-07 -2.384186e-07 -4.321337e-07 -1.415610e-07 -3.390014e-07 1.322478e-07 4.172325e-07 0.000000e+00 7.450581e-09 7.853974e-01 2.849901e-01 -1.195048e-01 -2.991329e-02 1.679477e-01 -3.344175e-02 3.716411e-02 3.987338e-02 5.140483e-02 -6.504407e-02 1.824576e-01 7.547384e-02 -4.717223e-02 -5.695278e-04 -7.442513e-02 2.552703e-02 -6.852330e-03 -2.641879e-02 5.271082e-02 4.786629e-02 -1.028147e-02 1.952570e-02 2.396859e-02 8.698037e-02 4.573949e-02 5.063892e-02 -1.834922e-03
<VARIANCE> 39
 1.256132e+01 7.105783e+01 6.427376e+01 1.820853e+02 5.833628e+01 4.597607e+01 5.312350e+01 4.824269e+01 3.198502e+01 5.173771e+01 3.510098e+01 2.472709e+01 1.998851e-02 1.474622e+00 2.535648e+00 1.912460e+00 5.940492e+00 4.520075e+00 3.708020e+00 2.917621e+00 3.932062e+00 3.609557e+00 3.530627e+00 3.503788e+00 2.729875e+00 1.423355e-03 1.880010e-01 2.302049e-01 2.397550e-01 6.308314e-01 7.660090e-01 6.204632e-01 4.036148e-01 6.156641e-01 5.719759e-01 4.507823e-01 6.864172e-01 5.436502e-01 8.400588e-05
<GCONST> 1.022127e+02
<STATE> 6
<MEAN> 39
 1.303852e-07 -1.378357e-07 5.569309e-07 3.725290e-07 -2.384186e-07 -4.321337e-07 -1.415610e-07 -3.390014e-07 1.322478e-07 4.172325e-07 0.000000e+00 7.450581e-09 7.853974e-01 2.849901e-01 -1.195048e-01 -2.991329e-02 1.679477e-01 -3.344175e-02 3.716411e-02 3.987338e-02 5.140483e-02 -6.504407e-02 1.824576e-01 7.547384e-02 -4.717223e-02 -5.695278e-04 -7.442513e-02 2.552703e-02 -6.852330e-03 -2.641879e-02 5.271082e-02 4.786629e-02 -1.028147e-02 1.952570e-02 2.396859e-02 8.698037e-02 4.573949e-02 5.063892e-02 -1.834922e-03
<VARIANCE> 39
 1.256132e+01 7.105783e+01 6.427376e+01 1.820853e+02 5.833628e+01 4.597607e+01 5.312350e+01 4.824269e+01 3.198502e+01 5.173771e+01 3.510098e+01 2.472709e+01 1.998851e-02 1.474622e+00 2.535648e+00 1.912460e+00 5.940492e+00 4.520075e+00 3.708020e+00 2.917621e+00 3.932062e+00 3.609557e+00 3.530627e+00 3.503788e+00 2.729875e+00 1.423355e-03 1.880010e-01 2.302049e-01 2.397550e-01 6.308314e-01 7.660090e-01 6.204632e-01 4.036148e-01 6.156641e-01 5.719759e-01 4.507823e-01 6.864172e-01 5.436502e-01 8.400588e-05
<GCONST> 1.022127e+02
<STATE> 7
<MEAN> 39
 1.303852e-07 -1.378357e-07 5.569309e-07 3.725290e-07 -2.384186e-07 -4.321337e-07 -1.415610e-07 -3.390014e-07 1.322478e-07 4.172325e-07 0.000000e+00 7.450581e-09 7.853974e-01 2.849901e-01 -1.195048e-01 -2.991329e-02 1.679477e-01 -3.344175e-02 3.716411e-02 3.987338e-02 5.140483e-02 -6.504407e-02 1.824576e-01 7.547384e-02 -4.717223e-02 -5.695278e-04 -7.442513e-02 2.552703e-02 -6.852330e-03 -2.641879e-02 5.271082e-02 4.786629e-02 -1.028147e-02 1.952570e-02 2.396859e-02 8.698037e-02 4.573949e-02 5.063892e-02 -1.834922e-03
<VARIANCE> 39
 1.256132e+01 7.105783e+01 6.427376e+01 1.820853e+02 5.833628e+01 4.597607e+01 5.312350e+01 4.824269e+01 3.198502e+01 5.173771e+01 3.510098e+01 2.472709e+01 1.998851e-02 1.474622e+00 2.535648e+00 1.912460e+00 5.940492e+00 4.520075e+00 3.708020e+00 2.917621e+00 3.932062e+00 3.609557e+00 3.530627e+00 3.503788e+00 2.729875e+00 1.423355e-03 1.880010e-01 2.302049e-01 2.397550e-01 6.308314e-01 7.660090e-01 6.204632e-01 4.036148e-01 6.156641e-01 5.719759e-01 4.507823e-01 6.864172e-01 5.436502e-01 8.400588e-05
<GCONST> 1.022127e+02
<STATE> 8
<MEAN> 39
 1.303852e-07 -1.378357e-07 5.569309e-07 3.725290e-07 -2.384186e-07 -4.321337e-07 -1.415610e-07 -3.390014e-07 1.322478e-07 4.172325e-07 0.000000e+00 7.450581e-09 7.853974e-01 2.849901e-01 -1.195048e-01 -2.991329e-02 1.679477e-01 -3.344175e-02 3.716411e-02 3.987338e-02 5.140483e-02 -6.504407e-02 1.824576e-01 7.547384e-02 -4.717223e-02 -5.695278e-04 -7.442513e-02 2.552703e-02 -6.852330e-03 -2.641879e-02 5.271082e-02 4.786629e-02 -1.028147e-02 1.952570e-02 2.396859e-02 8.698037e-02 4.573949e-02 5.063892e-02 -1.834922e-03
<VARIANCE> 39
 1.256132e+01 7.105783e+01 6.427376e+01 1.820853e+02 5.833628e+01 4.597607e+01 5.312350e+01 4.824269e+01 3.198502e+01 5.173771e+01 3.510098e+01 2.472709e+01 1.998851e-02 1.474622e+00 2.535648e+00 1.912460e+00 5.940492e+00 4.520075e+00 3.708020e+00 2.917621e+00 3.932062e+00 3.609557e+00 3.530627e+00 3.503788e+00 2.729875e+00 1.423355e-03 1.880010e-01 2.302049e-01 2.397550e-01 6.308314e-01 7.660090e-01 6.204632e-01 4.036148e-01 6.156641e-01 5.719759e-01 4.507823e-01 6.864172e-01 5.436502e-01 8.400588e-05
<GCONST> 1.022127e+02
<STATE> 9
<MEAN> 39
 1.303852e-07 -1.378357e-07 5.569309e-07 3.725290e-07 -2.384186e-07 -4.321337e-07 -1.415610e-07 -3.390014e-07 1.322478e-07 4.172325e-07 0.000000e+00 7.450581e-09 7.853974e-01 2.849901e-01 -1.195048e-01 -2.991329e-02 1.679477e-01 -3.344175e-02 3.716411e-02 3.987338e-02 5.140483e-02 -6.504407e-02 1.824576e-01 7.547384e-02 -4.717223e-02 -5.695278e-04 -7.442513e-02 2.552703e-02 -6.852330e-03 -2.641879e-02 5.271082e-02 4.786629e-02 -1.028147e-02 1.952570e-02 2.396859e-02 8.698037e-02 4.573949e-02 5.063892e-02 -1.834922e-03
<VARIANCE> 39
 1.256132e+01 7.105783e+01 6.427376e+01 1.820853e+02 5.833628e+01 4.597607e+01 5.312350e+01 4.824269e+01 3.198502e+01 5.173771e+01 3.510098e+01 2.472709e+01 1.998851e-02 1.474622e+00 2.535648e+00 1.912460e+00 5.940492e+00 4.520075e+00 3.708020e+00 2.917621e+00 3.932062e+00 3.609557e+00 3.530627e+00 3.503788e+00 2.729875e+00 1.423355e-03 1.880010e-01 2.302049e-01 2.397550e-01 6.308314e-01 7.660090e-01 6.204632e-01 4.036148e-01 6.156641e-01 5.719759e-01 4.507823e-01 6.864172e-01 5.436502e-01 8.400588e-05
<GCONST> 1.022127e+02
<TRANSP> 10
 0.000000e+00 1.000000e+00 0.000000e+00 0.000000e+00 0.000000e+00 0.000000e+00 0.000000e+00 0.000000e+00 0.000000e+00 0.000000e+00
 0.000000e+00 9.000000e-01 9.999999e-02 0.000000e+00 0.000000e+00 0.000000e+00 0.000000e+00 0.000000e+00 0.000000e+00 0.000000e+00
 0.000000e+00 0.000000e+00 9.000000e-01 9.999999e-02 0.000000e+00 0.000000e+00 0.000000e+00 0.000000e+00 0.000000e+00 0.000000e+00
 0.000000e+00 0.000000e+00 0.000000e+00 9.000000e-01 9.999999e-02 0.000000e+00 0.000000e+00 0.000000e+00 0.000000e+00 0.000000e+00
 0.000000e+00 0.000000e+00 0.000000e+00 0.000000e+00 9.000000e-01 9.999999e-02 0.000000e+00 0.000000e+00 0.000000e+00 0.000000e+00
 0.000000e+00 0.000000e+00 0.000000e+00 0.000000e+00 0.000000e+00 9.000000e-01 9.999999e-02 0.000000e+00 0.000000e+00 0.000000e+00
 0.000000e+00 0.000000e+00 0.000000e+00 0.000000e+00 0.000000e+00 0.000000e+00 9.000000e-01 9.999999e-02 0.000000e+00 0.000000e+00
 0.000000e+00 0.000000e+00 0.000000e+00 0.000000e+00 0.000000e+00 0.000000e+00 0.000000e+00 9.000000e-01 9.999999e-02 0.000000e+00
 0.000000e+00 0.000000e+00 0.000000e+00 0.000000e+00 0.000000e+00 0.000000e+00 0.000000e+00 0.000000e+00 9.000000e-01 9.999999e-02
 0.000000e+00 0.000000e+00 0.000000e+00 0.000000e+00 0.000000e+00 0.000000e+00 0.000000e+00 0.000000e+00 0.000000e+00 0.000000e+00
<ENDHMM>
