~o
<STREAMINFO> 1 39
<VECSIZE> 39<NULLD><MFCC_E_D_A_Z><DIAGC>
~h "s000"
<BEGINHMM>
<NUMSTATES> 10
<STATE> 2
<MEAN> 39
 6.437302e-08 -5.054474e-07 -2.050400e-07 -3.623962e-07 -3.433228e-07 9.536743e-08 -4.482269e-07 -6.103515e-07 2.384186e-08 -2.098083e-07 -1.740456e-07 -5.722046e-08 6.857430e-01 3.452503e-03 -1.117251e-01 -5.274880e-02 1.029621e-01 1.810444e-01 1.667813e-01 5.734964e-02 -7.388426e-02 5.481514e-02 -9.244326e-02 1.391683e-01 -3.918529e-02 -3.810196e-03 1.471086e-02 4.915485e-03 1.157169e-02 -1.600888e-02 9.987771e-04 -2.337346e-02 -2.201159e-02 -1.817002e-02 2.462216e-02 -5.880403e-04 -1.190404e-02 -6.733073e-03 2.582557e-08
<VARIANCE> 39
 1.522958e+01 9.486111e+01 2.878994e+01 3.750681e+01 4.844610e+01 5.049037e+01 7.815341e+01 5.585336e+01 3.308139e+01 4.682828e+01 3.545895e+01 2.854547e+01 2.594172e-02 1.442995e+00 2.181549e+00 2.185403e+00 2.695656e+00 2.591370e+00 3.966085e+00 4.100516e+00 3.808543e+00 3.578261e+00 3.112274e+00 3.982179e+00 2.816458e+00 1.710278e-03 2.423819e-01 2.714259e-01 2.965199e-01 4.718071e-01 3.978496e-01 7.467060e-01 6.929072e-01 7.123359e-01 6.402528e-01 5.513352e-01 8.188885e-01 5.945250e-01 2.766328e-04
<GCONST> 1.026275e+02
<STATE> 3
<MEAN> 39
 6.437302e-08 -5.054474e-07 -2.050400e-07 -3.623962e-07 -3.433228e-07 9.536743e-08 -4.482269e-07 -6.103515e-07 2.384186e-08 -2.098083e-07 -1.740456e-07 -5.722046e-08 6.857430e-01 3.452503e-03 -1.117251e-01 -5.274880e-02 1.029621e-01 1.810444e-01 1.667813e-01 5.734964e-02 -7.388426e-02 5.481514e-02 -9.244326e-02 1.391683e-01 -3.918529e-02 -3.810196e-03 1.471086e-02 4.915485e-03 1.157169e-02 -1.600888e-02 9.987771e-04 -2.337346e-02 -2.201159e-02 -1.817002e-02 2.462216e-02 -5.880403e-04 -1.190404e-02 -6.733073e-03 2.582557e-08
<VARIANCE> 39
 1.522958e+01 9.486111e+01 2.878994e+01 3.750681e+01 4.844610e+01 5.049037e+01 7.815341e+01 5.585336e+01 3.308139e+01 4.682828e+01 3.545895e+01 2.854547e+01 2.594172e-02 1.442995e+00 2.181549e+00 2.185403e+00 2.695656e+00 2.591370e+00 3.966085e+00 4.100516e+00 3.808543e+00 3.578261e+00 3.112274e+00 3.982179e+00 2.816458e+00 1.710278e-03 2.423819e-01 2.714259e-01 2.965199e-01 4.718071e-01 3.978496e-01 7.467060e-01 6.929072e-01 7.123359e-01 6.402528e-01 5.513352e-01 8.188885e-01 5.945250e-01 2.766328e-04
<GCONST> 1.026275e+02
<STATE> 4
<MEAN> 39
 6.437302e-08 -5.054474e-07 -2.050400e-07 -3.623962e-07 -3.433228e-07 9.536743e-08 -4.482269e-07 -6.103515e-07 2.384186e-08 -2.098083e-07 -1.740456e-07 -5.722046e-08 6.857430e-01 3.452503e-03 -1.117251e-01 -5.274880e-02 1.029621e-01 1.810444e-01 1.667813e-01 5.734964e-02 -7.388426e-02 5.481514e-02 -9.244326e-02 1.391683e-01 -3.918529e-02 -3.810196e-03 1.471086e-02 4.915485e-03 1.157169e-02 -1.600888e-02 9.987771e-04 -2.337346e-02 -2.201159e-02 -1.817002e-02 2.462216e-02 -5.880403e-04 -1.190404e-02 -6.733073e-03 2.582557e-08
<VARIANCE> 39
 1.522958e+01 9.486111e+01 2.878994e+01 3.750681e+01 4.844610e+01 5.049037e+01 7.815341e+01 5.585336e+01 3.308139e+01 4.682828e+01 3.545895e+01 2.854547e+01 2.594172e-02 1.442995e+00 2.181549e+00 2.185403e+00 2.695656e+00 2.591370e+00 3.966085e+00 4.100516e+00 3.808543e+00 3.578261e+00 3.112274e+00 3.982179e+00 2.816458e+00 1.710278e-03 2.423819e-01 2.714259e-01 2.965199e-01 4.718071e-01 3.978496e-01 7.467060e-01 6.929072e-01 7.123359e-01 6.402528e-01 5.513352e-01 8.188885e-01 5.945250e-01 2.766328e-04
<GCONST> 1.026275e+02
<STATE> 5
<MEAN> 39
 6.437302e-08 -5.054474e-07 -2.050400e-07 -3.623962e-07 -3.433228e-07 9.536743e-08 -4.482269e-07 -6.103515e-07 2.384186e-08 -2.098083e-07 -1.740456e-07 -5.722046e-08 6.857430e-01 3.452503e-03 -1.117251e-01 -5.274880e-02 1.029621e-01 1.810444e-01 1.667813e-01 5.734964e-02 -7.388426e-02 5.481514e-02 -9.244326e-02 1.391683e-01 -3.918529e-02 -3.810196e-03 1.471086e-02 4.915485e-03 1.157169e-02 -1.600888e-02 9.987771e-04 -2.337346e-02 -2.201159e-02 -1.817002e-02 2.462216e-02 -5.880403e-04 -1.190404e-02 -6.733073e-03 2.582557e-08
<VARIANCE> 39
 1.522958e+01 9.486111e+01 2.878994e+01 3.750681e+01 4.844610e+01 5.049037e+01 7.815341e+01 5.585336e+01 3.308139e+01 4.682828e+01 3.545895e+01 2.854547e+01 2.594172e-02 1.442995e+00 2.181549e+00 2.185403e+00 2.695656e+00 2.591370e+00 3.966085e+00 4.100516e+00 3.808543e+00 3.578261e+00 3.112274e+00 3.982179e+00 2.816458e+00 1.710278e-03 2.423819e-01 2.714259e-01 2.965199e-01 4.718071e-01 3.978496e-01 7.467060e-01 6.929072e-01 7.123359e-01 6.402528e-01 5.513352e-01 8.188885e-01 5.945250e-01 2.766328e-04
<GCONST> 1.026275e+02
<STATE> 6
<MEAN> 39
 6.437302e-08 -5.054474e-07 -2.050400e-07 -3.623962e-07 -3.433228e-07 9.536743e-08 -4.482269e-07 -6.103515e-07 2.384186e-08 -2.098083e-07 -1.740456e-07 -5.722046e-08 6.857430e-01 3.452503e-03 -1.117251e-01 -5.274880e-02 1.029621e-01 1.810444e-01 1.667813e-01 5.734964e-02 -7.388426e-02 5.481514e-02 -9.244326e-02 1.391683e-01 -3.918529e-02 -3.810196e-03 1.471086e-02 4.915485e-03 1.157169e-02 -1.600888e-02 9.987771e-04 -2.337346e-02 -2.201159e-02 -1.817002e-02 2.462216e-02 -5.880403e-04 -1.190404e-02 -6.733073e-03 2.582557e-08
<VARIANCE> 39
 1.522958e+01 9.486111e+01 2.878994e+01 3.750681e+01 4.844610e+01 5.049037e+01 7.815341e+01 5.585336e+01 3.308139e+01 4.682828e+01 3.545895e+01 2.854547e+01 2.594172e-02 1.442995e+00 2.181549e+00 2.185403e+00 2.695656e+00 2.591370e+00 3.966085e+00 4.100516e+00 3.808543e+00 3.578261e+00 3.112274e+00 3.982179e+00 2.816458e+00 1.710278e-03 2.423819e-01 2.714259e-01 2.965199e-01 4.718071e-01 3.978496e-01 7.467060e-01 6.929072e-01 7.123359e-01 6.402528e-01 5.513352e-01 8.188885e-01 5.945250e-01 2.766328e-04
<GCONST> 1.026275e+02
<STATE> 7
<MEAN> 39
 6.437302e-08 -5.054474e-07 -2.050400e-07 -3.623962e-07 -3.433228e-07 9.536743e-08 -4.482269e-07 -6.103515e-07 2.384186e-08 -2.098083e-07 -1.740456e-07 -5.722046e-08 6.857430e-01 3.452503e-03 -1.117251e-01 -5.274880e-02 1.029621e-01 1.810444e-01 1.667813e-01 5.734964e-02 -7.388426e-02 5.481514e-02 -9.244326e-02 1.391683e-01 -3.918529e-02 -3.810196e-03 1.471086e-02 4.915485e-03 1.157169e-02 -1.600888e-02 9.987771e-04 -2.337346e-02 -2.201159e-02 -1.817002e-02 2.462216e-02 -5.880403e-04 -1.190404e-02 -6.733073e-03 2.582557e-08
<VARIANCE> 39
 1.522958e+01 9.486111e+01 2.878994e+01 3.750681e+01 4.844610e+01 5.049037e+01 7.815341e+01 5.585336e+01 3.308139e+01 4.682828e+01 3.545895e+01 2.854547e+01 2.594172e-02 1.442995e+00 2.181549e+00 2.185403e+00 2.695656e+00 2.591370e+00 3.966085e+00 4.100516e+00 3.808543e+00 3.578261e+00 3.112274e+00 3.982179e+00 2.816458e+00 1.710278e-03 2.423819e-01 2.714259e-01 2.965199e-01 4.718071e-01 3.978496e-01 7.467060e-01 6.929072e-01 7.123359e-01 6.402528e-01 5.513352e-01 8.188885e-01 5.945250e-01 2.766328e-04
<GCONST> 1.026275e+02
<STATE> 8
<MEAN> 39
 6.437302e-08 -5.054474e-07 -2.050400e-07 -3.623962e-07 -3.433228e-07 9.536743e-08 -4.482269e-07 -6.103515e-07 2.384186e-08 -2.098083e-07 -1.740456e-07 -5.722046e-08 6.857430e-01 3.452503e-03 -1.117251e-01 -5.274880e-02 1.029621e-01 1.810444e-01 1.667813e-01 5.734964e-02 -7.388426e-02 5.481514e-02 -9.244326e-02 1.391683e-01 -3.918529e-02 -3.810196e-03 1.471086e-02 4.915485e-03 1.157169e-02 -1.600888e-02 9.987771e-04 -2.337346e-02 -2.201159e-02 -1.817002e-02 2.462216e-02 -5.880403e-04 -1.190404e-02 -6.733073e-03 2.582557e-08
<VARIANCE> 39
 1.522958e+01 9.486111e+01 2.878994e+01 3.750681e+01 4.844610e+01 5.049037e+01 7.815341e+01 5.585336e+01 3.308139e+01 4.682828e+01 3.545895e+01 2.854547e+01 2.594172e-02 1.442995e+00 2.181549e+00 2.185403e+00 2.695656e+00 2.591370e+00 3.966085e+00 4.100516e+00 3.808543e+00 3.578261e+00 3.112274e+00 3.982179e+00 2.816458e+00 1.710278e-03 2.423819e-01 2.714259e-01 2.965199e-01 4.718071e-01 3.978496e-01 7.467060e-01 6.929072e-01 7.123359e-01 6.402528e-01 5.513352e-01 8.188885e-01 5.945250e-01 2.766328e-04
<GCONST> 1.026275e+02
<STATE> 9
<MEAN> 39
 6.437302e-08 -5.054474e-07 -2.050400e-07 -3.623962e-07 -3.433228e-07 9.536743e-08 -4.482269e-07 -6.103515e-07 2.384186e-08 -2.098083e-07 -1.740456e-07 -5.722046e-08 6.857430e-01 3.452503e-03 -1.117251e-01 -5.274880e-02 1.029621e-01 1.810444e-01 1.667813e-01 5.734964e-02 -7.388426e-02 5.481514e-02 -9.244326e-02 1.391683e-01 -3.918529e-02 -3.810196e-03 1.471086e-02 4.915485e-03 1.157169e-02 -1.600888e-02 9.987771e-04 -2.337346e-02 -2.201159e-02 -1.817002e-02 2.462216e-02 -5.880403e-04 -1.190404e-02 -6.733073e-03 2.582557e-08
<VARIANCE> 39
 1.522958e+01 9.486111e+01 2.878994e+01 3.750681e+01 4.844610e+01 5.049037e+01 7.815341e+01 5.585336e+01 3.308139e+01 4.682828e+01 3.545895e+01 2.854547e+01 2.594172e-02 1.442995e+00 2.181549e+00 2.185403e+00 2.695656e+00 2.591370e+00 3.966085e+00 4.100516e+00 3.808543e+00 3.578261e+00 3.112274e+00 3.982179e+00 2.816458e+00 1.710278e-03 2.423819e-01 2.714259e-01 2.965199e-01 4.718071e-01 3.978496e-01 7.467060e-01 6.929072e-01 7.123359e-01 6.402528e-01 5.513352e-01 8.188885e-01 5.945250e-01 2.766328e-04
<GCONST> 1.026275e+02
<TRANSP> 10
 0.000000e+00 1.000000e+00 0.000000e+00 0.000000e+00 0.000000e+00 0.000000e+00 0.000000e+00 0.000000e+00 0.000000e+00 0.000000e+00
 0.000000e+00 9.000000e-01 9.999999e-02 0.000000e+00 0.000000e+00 0.000000e+00 0.000000e+00 0.000000e+00 0.000000e+00 0.000000e+00
 0.000000e+00 0.000000e+00 9.000000e-01 9.999999e-02 0.000000e+00 0.000000e+00 0.000000e+00 0.000000e+00 0.000000e+00 0.000000e+00
 0.000000e+00 0.000000e+00 0.000000e+00 9.000000e-01 9.999999e-02 0.000000e+00 0.000000e+00 0.000000e+00 0.000000e+00 0.000000e+00
 0.000000e+00 0.000000e+00 0.000000e+00 0.000000e+00 9.000000e-01 9.999999e-02 0.000000e+00 0.000000e+00 0.000000e+00 0.000000e+00
 0.000000e+00 0.000000e+00 0.000000e+00 0.000000e+00 0.000000e+00 9.000000e-01 9.999999e-02 0.000000e+00 0.000000e+00 0.000000e+00
 0.000000e+00 0.000000e+00 0.000000e+00 0.000000e+00 0.000000e+00 0.000000e+00 9.000000e-01 9.999999e-02 0.000000e+00 0.000000e+00
 0.000000e+00 0.000000e+00 0.000000e+00 0.000000e+00 0.000000e+00 0.000000e+00 0.000000e+00 9.000000e-01 9.999999e-02 0.000000e+00
 0.000000e+00 0.000000e+00 0.000000e+00 0.000000e+00 0.000000e+00 0.000000e+00 0.000000e+00 0.000000e+00 9.000000e-01 9.999999e-02
 0.000000e+00 0.000000e+00 0.000000e+00 0.000000e+00 0.000000e+00 0.000000e+00 0.000000e+00 0.000000e+00 0.000000e+00 0.000000e+00
<ENDHMM>
