~o
<STREAMINFO> 1 39
<VECSIZE> 39<NULLD><MFCC_E_D_A_Z><DIAGC>
~h "s000"
<BEGINHMM>
<NUMSTATES> 10
<STATE> 2
<MEAN> 39
 -6.429265e-08 4.179022e-07 -7.902639e-08 -1.687682e-07 -1.928779e-07 2.223454e-07 1.821625e-07 -1.071544e-07 9.911783e-08 1.339430e-08 -6.697151e-08 -1.071544e-07 4.654867e-01 5.130153e-03 2.849579e-02 1.838474e-02 -2.051857e-03 9.598132e-03 4.649654e-03 -1.025923e-02 6.830651e-02 1.697802e-02 2.220539e-02 6.651221e-03 3.861449e-02 -4.009437e-05 -1.690774e-03 -1.398013e-02 -8.474294e-03 3.508497e-03 -7.912987e-03 -8.763691e-03 2.414737e-02 1.922253e-02 5.891198e-03 5.748027e-03 -2.175499e-04 7.639926e-03 -2.455292e-06
<VARIANCE> 39
 1.235374e+01 5.777230e+01 1.903288e+01 3.007404e+01 4.992350e+01 6.286457e+01 6.635841e+01 4.217555e+01 3.082586e+01 3.551475e+01 2.688505e+01 2.567367e+01 7.871717e-02 9.580085e-01 1.556765e+00 1.577002e+00 2.347986e+00 2.818999e+00 3.261538e+00 3.386705e+00 3.354980e+00 3.329621e+00 3.189084e+00 3.454948e+00 2.261279e+00 1.442088e-03 1.648246e-01 1.957653e-01 2.442604e-01 4.283141e-01 5.105533e-01 6.232396e-01 5.668330e-01 6.318364e-01 6.203899e-01 6.147032e-01 7.396137e-01 4.721417e-01 1.992058e-04
<GCONST> 9.741338e+01
<STATE> 3
<MEAN> 39
 -6.429265e-08 4.179022e-07 -7.902639e-08 -1.687682e-07 -1.928779e-07 2.223454e-07 1.821625e-07 -1.071544e-07 9.911783e-08 1.339430e-08 -6.697151e-08 -1.071544e-07 4.654867e-01 5.130153e-03 2.849579e-02 1.838474e-02 -2.051857e-03 9.598132e-03 4.649654e-03 -1.025923e-02 6.830651e-02 1.697802e-02 2.220539e-02 6.651221e-03 3.861449e-02 -4.009437e-05 -1.690774e-03 -1.398013e-02 -8.474294e-03 3.508497e-03 -7.912987e-03 -8.763691e-03 2.414737e-02 1.922253e-02 5.891198e-03 5.748027e-03 -2.175499e-04 7.639926e-03 -2.455292e-06
<VARIANCE> 39
 1.235374e+01 5.777230e+01 1.903288e+01 3.007404e+01 4.992350e+01 6.286457e+01 6.635841e+01 4.217555e+01 3.082586e+01 3.551475e+01 2.688505e+01 2.567367e+01 7.871717e-02 9.580085e-01 1.556765e+00 1.577002e+00 2.347986e+00 2.818999e+00 3.261538e+00 3.386705e+00 3.354980e+00 3.329621e+00 3.189084e+00 3.454948e+00 2.261279e+00 1.442088e-03 1.648246e-01 1.957653e-01 2.442604e-01 4.283141e-01 5.105533e-01 6.232396e-01 5.668330e-01 6.318364e-01 6.203899e-01 6.147032e-01 7.396137e-01 4.721417e-01 1.992058e-04
<GCONST> 9.741338e+01
<STATE> 4
<MEAN> 39
 -6.429265e-08 4.179022e-07 -7.902639e-08 -1.687682e-07 -1.928779e-07 2.223454e-07 1.821625e-07 -1.071544e-07 9.911783e-08 1.339430e-08 -6.697151e-08 -1.071544e-07 4.654867e-01 5.130153e-03 2.849579e-02 1.838474e-02 -2.051857e-03 9.598132e-03 4.649654e-03 -1.025923e-02 6.830651e-02 1.697802e-02 2.220539e-02 6.651221e-03 3.861449e-02 -4.009437e-05 -1.690774e-03 -1.398013e-02 -8.474294e-03 3.508497e-03 -7.912987e-03 -8.763691e-03 2.414737e-02 1.922253e-02 5.891198e-03 5.748027e-03 -2.175499e-04 7.639926e-03 -2.455292e-06
<VARIANCE> 39
 1.235374e+01 5.777230e+01 1.903288e+01 3.007404e+01 4.992350e+01 6.286457e+01 6.635841e+01 4.217555e+01 3.082586e+01 3.551475e+01 2.688505e+01 2.567367e+01 7.871717e-02 9.580085e-01 1.556765e+00 1.577002e+00 2.347986e+00 2.818999e+00 3.261538e+00 3.386705e+00 3.354980e+00 3.329621e+00 3.189084e+00 3.454948e+00 2.261279e+00 1.442088e-03 1.648246e-01 1.957653e-01 2.442604e-01 4.283141e-01 5.105533e-01 6.232396e-01 5.668330e-01 6.318364e-01 6.203899e-01 6.147032e-01 7.396137e-01 4.721417e-01 1.992058e-04
<GCONST> 9.741338e+01
<STATE> 5
<MEAN> 39
 -6.429265e-08 4.179022e-07 -7.902639e-08 -1.687682e-07 -1.928779e-07 2.223454e-07 1.821625e-07 -1.071544e-07 9.911783e-08 1.339430e-08 -6.697151e-08 -1.071544e-07 4.654867e-01 5.130153e-03 2.849579e-02 1.838474e-02 -2.051857e-03 9.598132e-03 4.649654e-03 -1.025923e-02 6.830651e-02 1.697802e-02 2.220539e-02 6.651221e-03 3.861449e-02 -4.009437e-05 -1.690774e-03 -1.398013e-02 -8.474294e-03 3.508497e-03 -7.912987e-03 -8.763691e-03 2.414737e-02 1.922253e-02 5.891198e-03 5.748027e-03 -2.175499e-04 7.639926e-03 -2.455292e-06
<VARIANCE> 39
 1.235374e+01 5.777230e+01 1.903288e+01 3.007404e+01 4.992350e+01 6.286457e+01 6.635841e+01 4.217555e+01 3.082586e+01 3.551475e+01 2.688505e+01 2.567367e+01 7.871717e-02 9.580085e-01 1.556765e+00 1.577002e+00 2.347986e+00 2.818999e+00 3.261538e+00 3.386705e+00 3.354980e+00 3.329621e+00 3.189084e+00 3.454948e+00 2.261279e+00 1.442088e-03 1.648246e-01 1.957653e-01 2.442604e-01 4.283141e-01 5.105533e-01 6.232396e-01 5.668330e-01 6.318364e-01 6.203899e-01 6.147032e-01 7.396137e-01 4.721417e-01 1.992058e-04
<GCONST> 9.741338e+01
<STATE> 6
<MEAN> 39
 -6.429265e-08 4.179022e-07 -7.902639e-08 -1.687682e-07 -1.928779e-07 2.223454e-07 1.821625e-07 -1.071544e-07 9.911783e-08 1.339430e-08 -6.697151e-08 -1.071544e-07 4.654867e-01 5.130153e-03 2.849579e-02 1.838474e-02 -2.051857e-03 9.598132e-03 4.649654e-03 -1.025923e-02 6.830651e-02 1.697802e-02 2.220539e-02 6.651221e-03 3.861449e-02 -4.009437e-05 -1.690774e-03 -1.398013e-02 -8.474294e-03 3.508497e-03 -7.912987e-03 -8.763691e-03 2.414737e-02 1.922253e-02 5.891198e-03 5.748027e-03 -2.175499e-04 7.639926e-03 -2.455292e-06
<VARIANCE> 39
 1.235374e+01 5.777230e+01 1.903288e+01 3.007404e+01 4.992350e+01 6.286457e+01 6.635841e+01 4.217555e+01 3.082586e+01 3.551475e+01 2.688505e+01 2.567367e+01 7.871717e-02 9.580085e-01 1.556765e+00 1.577002e+00 2.347986e+00 2.818999e+00 3.261538e+00 3.386705e+00 3.354980e+00 3.329621e+00 3.189084e+00 3.454948e+00 2.261279e+00 1.442088e-03 1.648246e-01 1.957653e-01 2.442604e-01 4.283141e-01 5.105533e-01 6.232396e-01 5.668330e-01 6.318364e-01 6.203899e-01 6.147032e-01 7.396137e-01 4.721417e-01 1.992058e-04
<GCONST> 9.741338e+01
<STATE> 7
<MEAN> 39
 -6.429265e-08 4.179022e-07 -7.902639e-08 -1.687682e-07 -1.928779e-07 2.223454e-07 1.821625e-07 -1.071544e-07 9.911783e-08 1.339430e-08 -6.697151e-08 -1.071544e-07 4.654867e-01 5.130153e-03 2.849579e-02 1.838474e-02 -2.051857e-03 9.598132e-03 4.649654e-03 -1.025923e-02 6.830651e-02 1.697802e-02 2.220539e-02 6.651221e-03 3.861449e-02 -4.009437e-05 -1.690774e-03 -1.398013e-02 -8.474294e-03 3.508497e-03 -7.912987e-03 -8.763691e-03 2.414737e-02 1.922253e-02 5.891198e-03 5.748027e-03 -2.175499e-04 7.639926e-03 -2.455292e-06
<VARIANCE> 39
 1.235374e+01 5.777230e+01 1.903288e+01 3.007404e+01 4.992350e+01 6.286457e+01 6.635841e+01 4.217555e+01 3.082586e+01 3.551475e+01 2.688505e+01 2.567367e+01 7.871717e-02 9.580085e-01 1.556765e+00 1.577002e+00 2.347986e+00 2.818999e+00 3.261538e+00 3.386705e+00 3.354980e+00 3.329621e+00 3.189084e+00 3.454948e+00 2.261279e+00 1.442088e-03 1.648246e-01 1.957653e-01 2.442604e-01 4.283141e-01 5.105533e-01 6.232396e-01 5.668330e-01 6.318364e-01 6.203899e-01 6.147032e-01 7.396137e-01 4.721417e-01 1.992058e-04
<GCONST> 9.741338e+01
<STATE> 8
<MEAN> 39
 -6.429265e-08 4.179022e-07 -7.902639e-08 -1.687682e-07 -1.928779e-07 2.223454e-07 1.821625e-07 -1.071544e-07 9.911783e-08 1.339430e-08 -6.697151e-08 -1.071544e-07 4.654867e-01 5.130153e-03 2.849579e-02 1.838474e-02 -2.051857e-03 9.598132e-03 4.649654e-03 -1.025923e-02 6.830651e-02 1.697802e-02 2.220539e-02 6.651221e-03 3.861449e-02 -4.009437e-05 -1.690774e-03 -1.398013e-02 -8.474294e-03 3.508497e-03 -7.912987e-03 -8.763691e-03 2.414737e-02 1.922253e-02 5.891198e-03 5.748027e-03 -2.175499e-04 7.639926e-03 -2.455292e-06
<VARIANCE> 39
 1.235374e+01 5.777230e+01 1.903288e+01 3.007404e+01 4.992350e+01 6.286457e+01 6.635841e+01 4.217555e+01 3.082586e+01 3.551475e+01 2.688505e+01 2.567367e+01 7.871717e-02 9.580085e-01 1.556765e+00 1.577002e+00 2.347986e+00 2.818999e+00 3.261538e+00 3.386705e+00 3.354980e+00 3.329621e+00 3.189084e+00 3.454948e+00 2.261279e+00 1.442088e-03 1.648246e-01 1.957653e-01 2.442604e-01 4.283141e-01 5.105533e-01 6.232396e-01 5.668330e-01 6.318364e-01 6.203899e-01 6.147032e-01 7.396137e-01 4.721417e-01 1.992058e-04
<GCONST> 9.741338e+01
<STATE> 9
<MEAN> 39
 -6.429265e-08 4.179022e-07 -7.902639e-08 -1.687682e-07 -1.928779e-07 2.223454e-07 1.821625e-07 -1.071544e-07 9.911783e-08 1.339430e-08 -6.697151e-08 -1.071544e-07 4.654867e-01 5.130153e-03 2.849579e-02 1.838474e-02 -2.051857e-03 9.598132e-03 4.649654e-03 -1.025923e-02 6.830651e-02 1.697802e-02 2.220539e-02 6.651221e-03 3.861449e-02 -4.009437e-05 -1.690774e-03 -1.398013e-02 -8.474294e-03 3.508497e-03 -7.912987e-03 -8.763691e-03 2.414737e-02 1.922253e-02 5.891198e-03 5.748027e-03 -2.175499e-04 7.639926e-03 -2.455292e-06
<VARIANCE> 39
 1.235374e+01 5.777230e+01 1.903288e+01 3.007404e+01 4.992350e+01 6.286457e+01 6.635841e+01 4.217555e+01 3.082586e+01 3.551475e+01 2.688505e+01 2.567367e+01 7.871717e-02 9.580085e-01 1.556765e+00 1.577002e+00 2.347986e+00 2.818999e+00 3.261538e+00 3.386705e+00 3.354980e+00 3.329621e+00 3.189084e+00 3.454948e+00 2.261279e+00 1.442088e-03 1.648246e-01 1.957653e-01 2.442604e-01 4.283141e-01 5.105533e-01 6.232396e-01 5.668330e-01 6.318364e-01 6.203899e-01 6.147032e-01 7.396137e-01 4.721417e-01 1.992058e-04
<GCONST> 9.741338e+01
<TRANSP> 10
 0.000000e+00 1.000000e+00 0.000000e+00 0.000000e+00 0.000000e+00 0.000000e+00 0.000000e+00 0.000000e+00 0.000000e+00 0.000000e+00
 0.000000e+00 9.000000e-01 9.999999e-02 0.000000e+00 0.000000e+00 0.000000e+00 0.000000e+00 0.000000e+00 0.000000e+00 0.000000e+00
 0.000000e+00 0.000000e+00 9.000000e-01 9.999999e-02 0.000000e+00 0.000000e+00 0.000000e+00 0.000000e+00 0.000000e+00 0.000000e+00
 0.000000e+00 0.000000e+00 0.000000e+00 9.000000e-01 9.999999e-02 0.000000e+00 0.000000e+00 0.000000e+00 0.000000e+00 0.000000e+00
 0.000000e+00 0.000000e+00 0.000000e+00 0.000000e+00 9.000000e-01 9.999999e-02 0.000000e+00 0.000000e+00 0.000000e+00 0.000000e+00
 0.000000e+00 0.000000e+00 0.000000e+00 0.000000e+00 0.000000e+00 9.000000e-01 9.999999e-02 0.000000e+00 0.000000e+00 0.000000e+00
 0.000000e+00 0.000000e+00 0.000000e+00 0.000000e+00 0.000000e+00 0.000000e+00 9.000000e-01 9.999999e-02 0.000000e+00 0.000000e+00
 0.000000e+00 0.000000e+00 0.000000e+00 0.000000e+00 0.000000e+00 0.000000e+00 0.000000e+00 9.000000e-01 9.999999e-02 0.000000e+00
 0.000000e+00 0.000000e+00 0.000000e+00 0.000000e+00 0.000000e+00 0.000000e+00 0.000000e+00 0.000000e+00 9.000000e-01 9.999999e-02
 0.000000e+00 0.000000e+00 0.000000e+00 0.000000e+00 0.000000e+00 0.000000e+00 0.000000e+00 0.000000e+00 0.000000e+00 0.000000e+00
<ENDHMM>
