~o
<STREAMINFO> 1 39
<VECSIZE> 39<NULLD><MFCC_E_D_A_Z><DIAGC>
~h "s002"
<BEGINHMM>
<NUMSTATES> 10
<STATE> 2
<MEAN> 39
 1.742290e-07 -5.868765e-07 1.008694e-07 4.584973e-09 1.375492e-08 -1.169168e-07 1.788139e-07 9.169946e-09 1.444266e-07 -3.438729e-08 8.252951e-08 -1.100393e-07 3.886962e-01 7.835988e-03 5.748581e-03 1.147232e-02 2.905804e-03 6.291806e-02 -2.680506e-02 -4.811301e-02 3.080854e-03 -3.879956e-03 -2.251014e-02 -5.437532e-02 5.703311e-02 -2.434647e-11 4.482828e-03 -4.188139e-03 -1.266133e-02 5.950462e-03 2.940350e-03 3.480568e-03 5.872101e-03 -2.309370e-02 1.048169e-02 1.716431e-03 -1.816913e-02 3.015029e-02 3.749917e-11
<VARIANCE> 39
 4.428618e+01 5.914566e+01 4.739211e+01 5.455161e+01 6.322921e+01 2.866252e+01 3.362311e+01 6.417947e+01 3.489225e+01 3.137356e+01 3.785436e+01 1.917748e+01 2.158728e-01 2.927855e+00 2.634853e+00 2.583005e+00 2.021360e+00 3.090713e+00 1.779219e+00 2.014153e+00 2.472000e+00 2.493176e+00 3.523819e+00 2.359437e+00 2.729331e+00 3.297584e-03 4.456539e-01 3.717186e-01 3.976157e-01 2.892195e-01 4.400675e-01 2.634275e-01 3.342539e-01 3.592312e-01 4.269652e-01 7.280065e-01 4.025539e-01 5.402574e-01 2.608151e-04
<GCONST> 1.007831e+02
<STATE> 3
<MEAN> 39
 1.742290e-07 -5.868765e-07 1.008694e-07 4.584973e-09 1.375492e-08 -1.169168e-07 1.788139e-07 9.169946e-09 1.444266e-07 -3.438729e-08 8.252951e-08 -1.100393e-07 3.886962e-01 7.835988e-03 5.748581e-03 1.147232e-02 2.905804e-03 6.291806e-02 -2.680506e-02 -4.811301e-02 3.080854e-03 -3.879956e-03 -2.251014e-02 -5.437532e-02 5.703311e-02 -2.434647e-11 4.482828e-03 -4.188139e-03 -1.266133e-02 5.950462e-03 2.940350e-03 3.480568e-03 5.872101e-03 -2.309370e-02 1.048169e-02 1.716431e-03 -1.816913e-02 3.015029e-02 3.749917e-11
<VARIANCE> 39
 4.428618e+01 5.914566e+01 4.739211e+01 5.455161e+01 6.322921e+01 2.866252e+01 3.362311e+01 6.417947e+01 3.489225e+01 3.137356e+01 3.785436e+01 1.917748e+01 2.158728e-01 2.927855e+00 2.634853e+00 2.583005e+00 2.021360e+00 3.090713e+00 1.779219e+00 2.014153e+00 2.472000e+00 2.493176e+00 3.523819e+00 2.359437e+00 2.729331e+00 3.297584e-03 4.456539e-01 3.717186e-01 3.976157e-01 2.892195e-01 4.400675e-01 2.634275e-01 3.342539e-01 3.592312e-01 4.269652e-01 7.280065e-01 4.025539e-01 5.402574e-01 2.608151e-04
<GCONST> 1.007831e+02
<STATE> 4
<MEAN> 39
 1.742290e-07 -5.868765e-07 1.008694e-07 4.584973e-09 1.375492e-08 -1.169168e-07 1.788139e-07 9.169946e-09 1.444266e-07 -3.438729e-08 8.252951e-08 -1.100393e-07 3.886962e-01 7.835988e-03 5.748581e-03 1.147232e-02 2.905804e-03 6.291806e-02 -2.680506e-02 -4.811301e-02 3.080854e-03 -3.879956e-03 -2.251014e-02 -5.437532e-02 5.703311e-02 -2.434647e-11 4.482828e-03 -4.188139e-03 -1.266133e-02 5.950462e-03 2.940350e-03 3.480568e-03 5.872101e-03 -2.309370e-02 1.048169e-02 1.716431e-03 -1.816913e-02 3.015029e-02 3.749917e-11
<VARIANCE> 39
 4.428618e+01 5.914566e+01 4.739211e+01 5.455161e+01 6.322921e+01 2.866252e+01 3.362311e+01 6.417947e+01 3.489225e+01 3.137356e+01 3.785436e+01 1.917748e+01 2.158728e-01 2.927855e+00 2.634853e+00 2.583005e+00 2.021360e+00 3.090713e+00 1.779219e+00 2.014153e+00 2.472000e+00 2.493176e+00 3.523819e+00 2.359437e+00 2.729331e+00 3.297584e-03 4.456539e-01 3.717186e-01 3.976157e-01 2.892195e-01 4.400675e-01 2.634275e-01 3.342539e-01 3.592312e-01 4.269652e-01 7.280065e-01 4.025539e-01 5.402574e-01 2.608151e-04
<GCONST> 1.007831e+02
<STATE> 5
<MEAN> 39
 1.742290e-07 -5.868765e-07 1.008694e-07 4.584973e-09 1.375492e-08 -1.169168e-07 1.788139e-07 9.169946e-09 1.444266e-07 -3.438729e-08 8.252951e-08 -1.100393e-07 3.886962e-01 7.835988e-03 5.748581e-03 1.147232e-02 2.905804e-03 6.291806e-02 -2.680506e-02 -4.811301e-02 3.080854e-03 -3.879956e-03 -2.251014e-02 -5.437532e-02 5.703311e-02 -2.434647e-11 4.482828e-03 -4.188139e-03 -1.266133e-02 5.950462e-03 2.940350e-03 3.480568e-03 5.872101e-03 -2.309370e-02 1.048169e-02 1.716431e-03 -1.816913e-02 3.015029e-02 3.749917e-11
<VARIANCE> 39
 4.428618e+01 5.914566e+01 4.739211e+01 5.455161e+01 6.322921e+01 2.866252e+01 3.362311e+01 6.417947e+01 3.489225e+01 3.137356e+01 3.785436e+01 1.917748e+01 2.158728e-01 2.927855e+00 2.634853e+00 2.583005e+00 2.021360e+00 3.090713e+00 1.779219e+00 2.014153e+00 2.472000e+00 2.493176e+00 3.523819e+00 2.359437e+00 2.729331e+00 3.297584e-03 4.456539e-01 3.717186e-01 3.976157e-01 2.892195e-01 4.400675e-01 2.634275e-01 3.342539e-01 3.592312e-01 4.269652e-01 7.280065e-01 4.025539e-01 5.402574e-01 2.608151e-04
<GCONST> 1.007831e+02
<STATE> 6
<MEAN> 39
 1.742290e-07 -5.868765e-07 1.008694e-07 4.584973e-09 1.375492e-08 -1.169168e-07 1.788139e-07 9.169946e-09 1.444266e-07 -3.438729e-08 8.252951e-08 -1.100393e-07 3.886962e-01 7.835988e-03 5.748581e-03 1.147232e-02 2.905804e-03 6.291806e-02 -2.680506e-02 -4.811301e-02 3.080854e-03 -3.879956e-03 -2.251014e-02 -5.437532e-02 5.703311e-02 -2.434647e-11 4.482828e-03 -4.188139e-03 -1.266133e-02 5.950462e-03 2.940350e-03 3.480568e-03 5.872101e-03 -2.309370e-02 1.048169e-02 1.716431e-03 -1.816913e-02 3.015029e-02 3.749917e-11
<VARIANCE> 39
 4.428618e+01 5.914566e+01 4.739211e+01 5.455161e+01 6.322921e+01 2.866252e+01 3.362311e+01 6.417947e+01 3.489225e+01 3.137356e+01 3.785436e+01 1.917748e+01 2.158728e-01 2.927855e+00 2.634853e+00 2.583005e+00 2.021360e+00 3.090713e+00 1.779219e+00 2.014153e+00 2.472000e+00 2.493176e+00 3.523819e+00 2.359437e+00 2.729331e+00 3.297584e-03 4.456539e-01 3.717186e-01 3.976157e-01 2.892195e-01 4.400675e-01 2.634275e-01 3.342539e-01 3.592312e-01 4.269652e-01 7.280065e-01 4.025539e-01 5.402574e-01 2.608151e-04
<GCONST> 1.007831e+02
<STATE> 7
<MEAN> 39
 1.742290e-07 -5.868765e-07 1.008694e-07 4.584973e-09 1.375492e-08 -1.169168e-07 1.788139e-07 9.169946e-09 1.444266e-07 -3.438729e-08 8.252951e-08 -1.100393e-07 3.886962e-01 7.835988e-03 5.748581e-03 1.147232e-02 2.905804e-03 6.291806e-02 -2.680506e-02 -4.811301e-02 3.080854e-03 -3.879956e-03 -2.251014e-02 -5.437532e-02 5.703311e-02 -2.434647e-11 4.482828e-03 -4.188139e-03 -1.266133e-02 5.950462e-03 2.940350e-03 3.480568e-03 5.872101e-03 -2.309370e-02 1.048169e-02 1.716431e-03 -1.816913e-02 3.015029e-02 3.749917e-11
<VARIANCE> 39
 4.428618e+01 5.914566e+01 4.739211e+01 5.455161e+01 6.322921e+01 2.866252e+01 3.362311e+01 6.417947e+01 3.489225e+01 3.137356e+01 3.785436e+01 1.917748e+01 2.158728e-01 2.927855e+00 2.634853e+00 2.583005e+00 2.021360e+00 3.090713e+00 1.779219e+00 2.014153e+00 2.472000e+00 2.493176e+00 3.523819e+00 2.359437e+00 2.729331e+00 3.297584e-03 4.456539e-01 3.717186e-01 3.976157e-01 2.892195e-01 4.400675e-01 2.634275e-01 3.342539e-01 3.592312e-01 4.269652e-01 7.280065e-01 4.025539e-01 5.402574e-01 2.608151e-04
<GCONST> 1.007831e+02
<STATE> 8
<MEAN> 39
 1.742290e-07 -5.868765e-07 1.008694e-07 4.584973e-09 1.375492e-08 -1.169168e-07 1.788139e-07 9.169946e-09 1.444266e-07 -3.438729e-08 8.252951e-08 -1.100393e-07 3.886962e-01 7.835988e-03 5.748581e-03 1.147232e-02 2.905804e-03 6.291806e-02 -2.680506e-02 -4.811301e-02 3.080854e-03 -3.879956e-03 -2.251014e-02 -5.437532e-02 5.703311e-02 -2.434647e-11 4.482828e-03 -4.188139e-03 -1.266133e-02 5.950462e-03 2.940350e-03 3.480568e-03 5.872101e-03 -2.309370e-02 1.048169e-02 1.716431e-03 -1.816913e-02 3.015029e-02 3.749917e-11
<VARIANCE> 39
 4.428618e+01 5.914566e+01 4.739211e+01 5.455161e+01 6.322921e+01 2.866252e+01 3.362311e+01 6.417947e+01 3.489225e+01 3.137356e+01 3.785436e+01 1.917748e+01 2.158728e-01 2.927855e+00 2.634853e+00 2.583005e+00 2.021360e+00 3.090713e+00 1.779219e+00 2.014153e+00 2.472000e+00 2.493176e+00 3.523819e+00 2.359437e+00 2.729331e+00 3.297584e-03 4.456539e-01 3.717186e-01 3.976157e-01 2.892195e-01 4.400675e-01 2.634275e-01 3.342539e-01 3.592312e-01 4.269652e-01 7.280065e-01 4.025539e-01 5.402574e-01 2.608151e-04
<GCONST> 1.007831e+02
<STATE> 9
<MEAN> 39
 1.742290e-07 -5.868765e-07 1.008694e-07 4.584973e-09 1.375492e-08 -1.169168e-07 1.788139e-07 9.169946e-09 1.444266e-07 -3.438729e-08 8.252951e-08 -1.100393e-07 3.886962e-01 7.835988e-03 5.748581e-03 1.147232e-02 2.905804e-03 6.291806e-02 -2.680506e-02 -4.811301e-02 3.080854e-03 -3.879956e-03 -2.251014e-02 -5.437532e-02 5.703311e-02 -2.434647e-11 4.482828e-03 -4.188139e-03 -1.266133e-02 5.950462e-03 2.940350e-03 3.480568e-03 5.872101e-03 -2.309370e-02 1.048169e-02 1.716431e-03 -1.816913e-02 3.015029e-02 3.749917e-11
<VARIANCE> 39
 4.428618e+01 5.914566e+01 4.739211e+01 5.455161e+01 6.322921e+01 2.866252e+01 3.362311e+01 6.417947e+01 3.489225e+01 3.137356e+01 3.785436e+01 1.917748e+01 2.158728e-01 2.927855e+00 2.634853e+00 2.583005e+00 2.021360e+00 3.090713e+00 1.779219e+00 2.014153e+00 2.472000e+00 2.493176e+00 3.523819e+00 2.359437e+00 2.729331e+00 3.297584e-03 4.456539e-01 3.717186e-01 3.976157e-01 2.892195e-01 4.400675e-01 2.634275e-01 3.342539e-01 3.592312e-01 4.269652e-01 7.280065e-01 4.025539e-01 5.402574e-01 2.608151e-04
<GCONST> 1.007831e+02
<TRANSP> 10
 0.000000e+00 1.000000e+00 0.000000e+00 0.000000e+00 0.000000e+00 0.000000e+00 0.000000e+00 0.000000e+00 0.000000e+00 0.000000e+00
 0.000000e+00 9.000000e-01 9.999999e-02 0.000000e+00 0.000000e+00 0.000000e+00 0.000000e+00 0.000000e+00 0.000000e+00 0.000000e+00
 0.000000e+00 0.000000e+00 9.000000e-01 9.999999e-02 0.000000e+00 0.000000e+00 0.000000e+00 0.000000e+00 0.000000e+00 0.000000e+00
 0.000000e+00 0.000000e+00 0.000000e+00 9.000000e-01 9.999999e-02 0.000000e+00 0.000000e+00 0.000000e+00 0.000000e+00 0.000000e+00
 0.000000e+00 0.000000e+00 0.000000e+00 0.000000e+00 9.000000e-01 9.999999e-02 0.000000e+00 0.000000e+00 0.000000e+00 0.000000e+00
 0.000000e+00 0.000000e+00 0.000000e+00 0.000000e+00 0.000000e+00 9.000000e-01 9.999999e-02 0.000000e+00 0.000000e+00 0.000000e+00
 0.000000e+00 0.000000e+00 0.000000e+00 0.000000e+00 0.000000e+00 0.000000e+00 9.000000e-01 9.999999e-02 0.000000e+00 0.000000e+00
 0.000000e+00 0.000000e+00 0.000000e+00 0.000000e+00 0.000000e+00 0.000000e+00 0.000000e+00 9.000000e-01 9.999999e-02 0.000000e+00
 0.000000e+00 0.000000e+00 0.000000e+00 0.000000e+00 0.000000e+00 0.000000e+00 0.000000e+00 0.000000e+00 9.000000e-01 9.999999e-02
 0.000000e+00 0.000000e+00 0.000000e+00 0.000000e+00 0.000000e+00 0.000000e+00 0.000000e+00 0.000000e+00 0.000000e+00 0.000000e+00
<ENDHMM>
