~o
<STREAMINFO> 1 39
<VECSIZE> 39<NULLD><MFCC_E_D_A_Z><DIAGC>
~h "s004"
<BEGINHMM>
<NUMSTATES> 10
<STATE> 2
<MEAN> 39
 -3.281762e-07 3.786648e-08 -2.440284e-07 1.753078e-08 -1.563745e-07 -1.542709e-07 -5.778144e-07 -6.844016e-07 1.093921e-07 2.159792e-07 -2.804925e-09 -2.538457e-07 4.095714e-01 -7.046851e-04 2.588836e-03 2.456953e-03 1.391932e-02 2.647787e-02 -1.610853e-02 1.074937e-02 8.691826e-02 8.222667e-02 3.862226e-02 2.583555e-02 -6.250045e-02 2.754304e-04 1.885242e-03 -1.852675e-04 -3.886281e-03 -5.622498e-03 -3.328310e-03 3.845775e-03 -2.000666e-02 1.149802e-02 -1.877186e-02 -4.117127e-03 1.379375e-02 1.011721e-02 -5.428659e-05
<VARIANCE> 39
 1.307988e+01 3.359704e+01 5.491822e+01 2.337299e+01 2.850655e+01 1.071226e+02 3.165605e+01 5.140227e+01 3.233191e+01 4.000675e+01 1.779598e+01 1.865792e+01 4.911586e-02 3.758721e-01 1.015816e+00 1.685308e+00 1.795308e+00 1.926112e+00 3.043187e+00 2.630754e+00 2.144853e+00 2.751501e+00 2.677484e+00 2.030871e+00 1.937216e+00 7.173575e-04 4.438084e-02 1.419004e-01 2.900287e-01 3.113636e-01 3.294200e-01 4.942080e-01 5.065434e-01 4.064658e-01 5.427612e-01 4.528529e-01 4.339108e-01 3.780431e-01 9.072945e-05
<GCONST> 8.667918e+01
<STATE> 3
<MEAN> 39
 -3.281762e-07 3.786648e-08 -2.440284e-07 1.753078e-08 -1.563745e-07 -1.542709e-07 -5.778144e-07 -6.844016e-07 1.093921e-07 2.159792e-07 -2.804925e-09 -2.538457e-07 4.095714e-01 -7.046851e-04 2.588836e-03 2.456953e-03 1.391932e-02 2.647787e-02 -1.610853e-02 1.074937e-02 8.691826e-02 8.222667e-02 3.862226e-02 2.583555e-02 -6.250045e-02 2.754304e-04 1.885242e-03 -1.852675e-04 -3.886281e-03 -5.622498e-03 -3.328310e-03 3.845775e-03 -2.000666e-02 1.149802e-02 -1.877186e-02 -4.117127e-03 1.379375e-02 1.011721e-02 -5.428659e-05
<VARIANCE> 39
 1.307988e+01 3.359704e+01 5.491822e+01 2.337299e+01 2.850655e+01 1.071226e+02 3.165605e+01 5.140227e+01 3.233191e+01 4.000675e+01 1.779598e+01 1.865792e+01 4.911586e-02 3.758721e-01 1.015816e+00 1.685308e+00 1.795308e+00 1.926112e+00 3.043187e+00 2.630754e+00 2.144853e+00 2.751501e+00 2.677484e+00 2.030871e+00 1.937216e+00 7.173575e-04 4.438084e-02 1.419004e-01 2.900287e-01 3.113636e-01 3.294200e-01 4.942080e-01 5.065434e-01 4.064658e-01 5.427612e-01 4.528529e-01 4.339108e-01 3.780431e-01 9.072945e-05
<GCONST> 8.667918e+01
<STATE> 4
<MEAN> 39
 -3.281762e-07 3.786648e-08 -2.440284e-07 1.753078e-08 -1.563745e-07 -1.542709e-07 -5.778144e-07 -6.844016e-07 1.093921e-07 2.159792e-07 -2.804925e-09 -2.538457e-07 4.095714e-01 -7.046851e-04 2.588836e-03 2.456953e-03 1.391932e-02 2.647787e-02 -1.610853e-02 1.074937e-02 8.691826e-02 8.222667e-02 3.862226e-02 2.583555e-02 -6.250045e-02 2.754304e-04 1.885242e-03 -1.852675e-04 -3.886281e-03 -5.622498e-03 -3.328310e-03 3.845775e-03 -2.000666e-02 1.149802e-02 -1.877186e-02 -4.117127e-03 1.379375e-02 1.011721e-02 -5.428659e-05
<VARIANCE> 39
 1.307988e+01 3.359704e+01 5.491822e+01 2.337299e+01 2.850655e+01 1.071226e+02 3.165605e+01 5.140227e+01 3.233191e+01 4.000675e+01 1.779598e+01 1.865792e+01 4.911586e-02 3.758721e-01 1.015816e+00 1.685308e+00 1.795308e+00 1.926112e+00 3.043187e+00 2.630754e+00 2.144853e+00 2.751501e+00 2.677484e+00 2.030871e+00 1.937216e+00 7.173575e-04 4.438084e-02 1.419004e-01 2.900287e-01 3.113636e-01 3.294200e-01 4.942080e-01 5.065434e-01 4.064658e-01 5.427612e-01 4.528529e-01 4.339108e-01 3.780431e-01 9.072945e-05
<GCONST> 8.667918e+01
<STATE> 5
<MEAN> 39
 -3.281762e-07 3.786648e-08 -2.440284e-07 1.753078e-08 -1.563745e-07 -1.542709e-07 -5.778144e-07 -6.844016e-07 1.093921e-07 2.159792e-07 -2.804925e-09 -2.538457e-07 4.095714e-01 -7.046851e-04 2.588836e-03 2.456953e-03 1.391932e-02 2.647787e-02 -1.610853e-02 1.074937e-02 8.691826e-02 8.222667e-02 3.862226e-02 2.583555e-02 -6.250045e-02 2.754304e-04 1.885242e-03 -1.852675e-04 -3.886281e-03 -5.622498e-03 -3.328310e-03 3.845775e-03 -2.000666e-02 1.149802e-02 -1.877186e-02 -4.117127e-03 1.379375e-02 1.011721e-02 -5.428659e-05
<VARIANCE> 39
 1.307988e+01 3.359704e+01 5.491822e+01 2.337299e+01 2.850655e+01 1.071226e+02 3.165605e+01 5.140227e+01 3.233191e+01 4.000675e+01 1.779598e+01 1.865792e+01 4.911586e-02 3.758721e-01 1.015816e+00 1.685308e+00 1.795308e+00 1.926112e+00 3.043187e+00 2.630754e+00 2.144853e+00 2.751501e+00 2.677484e+00 2.030871e+00 1.937216e+00 7.173575e-04 4.438084e-02 1.419004e-01 2.900287e-01 3.113636e-01 3.294200e-01 4.942080e-01 5.065434e-01 4.064658e-01 5.427612e-01 4.528529e-01 4.339108e-01 3.780431e-01 9.072945e-05
<GCONST> 8.667918e+01
<STATE> 6
<MEAN> 39
 -3.281762e-07 3.786648e-08 -2.440284e-07 1.753078e-08 -1.563745e-07 -1.542709e-07 -5.778144e-07 -6.844016e-07 1.093921e-07 2.159792e-07 -2.804925e-09 -2.538457e-07 4.095714e-01 -7.046851e-04 2.588836e-03 2.456953e-03 1.391932e-02 2.647787e-02 -1.610853e-02 1.074937e-02 8.691826e-02 8.222667e-02 3.862226e-02 2.583555e-02 -6.250045e-02 2.754304e-04 1.885242e-03 -1.852675e-04 -3.886281e-03 -5.622498e-03 -3.328310e-03 3.845775e-03 -2.000666e-02 1.149802e-02 -1.877186e-02 -4.117127e-03 1.379375e-02 1.011721e-02 -5.428659e-05
<VARIANCE> 39
 1.307988e+01 3.359704e+01 5.491822e+01 2.337299e+01 2.850655e+01 1.071226e+02 3.165605e+01 5.140227e+01 3.233191e+01 4.000675e+01 1.779598e+01 1.865792e+01 4.911586e-02 3.758721e-01 1.015816e+00 1.685308e+00 1.795308e+00 1.926112e+00 3.043187e+00 2.630754e+00 2.144853e+00 2.751501e+00 2.677484e+00 2.030871e+00 1.937216e+00 7.173575e-04 4.438084e-02 1.419004e-01 2.900287e-01 3.113636e-01 3.294200e-01 4.942080e-01 5.065434e-01 4.064658e-01 5.427612e-01 4.528529e-01 4.339108e-01 3.780431e-01 9.072945e-05
<GCONST> 8.667918e+01
<STATE> 7
<MEAN> 39
 -3.281762e-07 3.786648e-08 -2.440284e-07 1.753078e-08 -1.563745e-07 -1.542709e-07 -5.778144e-07 -6.844016e-07 1.093921e-07 2.159792e-07 -2.804925e-09 -2.538457e-07 4.095714e-01 -7.046851e-04 2.588836e-03 2.456953e-03 1.391932e-02 2.647787e-02 -1.610853e-02 1.074937e-02 8.691826e-02 8.222667e-02 3.862226e-02 2.583555e-02 -6.250045e-02 2.754304e-04 1.885242e-03 -1.852675e-04 -3.886281e-03 -5.622498e-03 -3.328310e-03 3.845775e-03 -2.000666e-02 1.149802e-02 -1.877186e-02 -4.117127e-03 1.379375e-02 1.011721e-02 -5.428659e-05
<VARIANCE> 39
 1.307988e+01 3.359704e+01 5.491822e+01 2.337299e+01 2.850655e+01 1.071226e+02 3.165605e+01 5.140227e+01 3.233191e+01 4.000675e+01 1.779598e+01 1.865792e+01 4.911586e-02 3.758721e-01 1.015816e+00 1.685308e+00 1.795308e+00 1.926112e+00 3.043187e+00 2.630754e+00 2.144853e+00 2.751501e+00 2.677484e+00 2.030871e+00 1.937216e+00 7.173575e-04 4.438084e-02 1.419004e-01 2.900287e-01 3.113636e-01 3.294200e-01 4.942080e-01 5.065434e-01 4.064658e-01 5.427612e-01 4.528529e-01 4.339108e-01 3.780431e-01 9.072945e-05
<GCONST> 8.667918e+01
<STATE> 8
<MEAN> 39
 -3.281762e-07 3.786648e-08 -2.440284e-07 1.753078e-08 -1.563745e-07 -1.542709e-07 -5.778144e-07 -6.844016e-07 1.093921e-07 2.159792e-07 -2.804925e-09 -2.538457e-07 4.095714e-01 -7.046851e-04 2.588836e-03 2.456953e-03 1.391932e-02 2.647787e-02 -1.610853e-02 1.074937e-02 8.691826e-02 8.222667e-02 3.862226e-02 2.583555e-02 -6.250045e-02 2.754304e-04 1.885242e-03 -1.852675e-04 -3.886281e-03 -5.622498e-03 -3.328310e-03 3.845775e-03 -2.000666e-02 1.149802e-02 -1.877186e-02 -4.117127e-03 1.379375e-02 1.011721e-02 -5.428659e-05
<VARIANCE> 39
 1.307988e+01 3.359704e+01 5.491822e+01 2.337299e+01 2.850655e+01 1.071226e+02 3.165605e+01 5.140227e+01 3.233191e+01 4.000675e+01 1.779598e+01 1.865792e+01 4.911586e-02 3.758721e-01 1.015816e+00 1.685308e+00 1.795308e+00 1.926112e+00 3.043187e+00 2.630754e+00 2.144853e+00 2.751501e+00 2.677484e+00 2.030871e+00 1.937216e+00 7.173575e-04 4.438084e-02 1.419004e-01 2.900287e-01 3.113636e-01 3.294200e-01 4.942080e-01 5.065434e-01 4.064658e-01 5.427612e-01 4.528529e-01 4.339108e-01 3.780431e-01 9.072945e-05
<GCONST> 8.667918e+01
<STATE> 9
<MEAN> 39
 -3.281762e-07 3.786648e-08 -2.440284e-07 1.753078e-08 -1.563745e-07 -1.542709e-07 -5.778144e-07 -6.844016e-07 1.093921e-07 2.159792e-07 -2.804925e-09 -2.538457e-07 4.095714e-01 -7.046851e-04 2.588836e-03 2.456953e-03 1.391932e-02 2.647787e-02 -1.610853e-02 1.074937e-02 8.691826e-02 8.222667e-02 3.862226e-02 2.583555e-02 -6.250045e-02 2.754304e-04 1.885242e-03 -1.852675e-04 -3.886281e-03 -5.622498e-03 -3.328310e-03 3.845775e-03 -2.000666e-02 1.149802e-02 -1.877186e-02 -4.117127e-03 1.379375e-02 1.011721e-02 -5.428659e-05
<VARIANCE> 39
 1.307988e+01 3.359704e+01 5.491822e+01 2.337299e+01 2.850655e+01 1.071226e+02 3.165605e+01 5.140227e+01 3.233191e+01 4.000675e+01 1.779598e+01 1.865792e+01 4.911586e-02 3.758721e-01 1.015816e+00 1.685308e+00 1.795308e+00 1.926112e+00 3.043187e+00 2.630754e+00 2.144853e+00 2.751501e+00 2.677484e+00 2.030871e+00 1.937216e+00 7.173575e-04 4.438084e-02 1.419004e-01 2.900287e-01 3.113636e-01 3.294200e-01 4.942080e-01 5.065434e-01 4.064658e-01 5.427612e-01 4.528529e-01 4.339108e-01 3.780431e-01 9.072945e-05
<GCONST> 8.667918e+01
<TRANSP> 10
 0.000000e+00 1.000000e+00 0.000000e+00 0.000000e+00 0.000000e+00 0.000000e+00 0.000000e+00 0.000000e+00 0.000000e+00 0.000000e+00
 0.000000e+00 9.000000e-01 9.999999e-02 0.000000e+00 0.000000e+00 0.000000e+00 0.000000e+00 0.000000e+00 0.000000e+00 0.000000e+00
 0.000000e+00 0.000000e+00 9.000000e-01 9.999999e-02 0.000000e+00 0.000000e+00 0.000000e+00 0.000000e+00 0.000000e+00 0.000000e+00
 0.000000e+00 0.000000e+00 0.000000e+00 9.000000e-01 9.999999e-02 0.000000e+00 0.000000e+00 0.000000e+00 0.000000e+00 0.000000e+00
 0.000000e+00 0.000000e+00 0.000000e+00 0.000000e+00 9.000000e-01 9.999999e-02 0.000000e+00 0.000000e+00 0.000000e+00 0.000000e+00
 0.000000e+00 0.000000e+00 0.000000e+00 0.000000e+00 0.000000e+00 9.000000e-01 9.999999e-02 0.000000e+00 0.000000e+00 0.000000e+00
 0.000000e+00 0.000000e+00 0.000000e+00 0.000000e+00 0.000000e+00 0.000000e+00 9.000000e-01 9.999999e-02 0.000000e+00 0.000000e+00
 0.000000e+00 0.000000e+00 0.000000e+00 0.000000e+00 0.000000e+00 0.000000e+00 0.000000e+00 9.000000e-01 9.999999e-02 0.000000e+00
 0.000000e+00 0.000000e+00 0.000000e+00 0.000000e+00 0.000000e+00 0.000000e+00 0.000000e+00 0.000000e+00 9.000000e-01 9.999999e-02
 0.000000e+00 0.000000e+00 0.000000e+00 0.000000e+00 0.000000e+00 0.000000e+00 0.000000e+00 0.000000e+00 0.000000e+00 0.000000e+00
<ENDHMM>
