~o
<STREAMINFO> 1 39
<VECSIZE> 39<NULLD><MFCC_E_D_A_Z><DIAGC>
~h "s005"
<BEGINHMM>
<NUMSTATES> 10
<STATE> 2
<MEAN> 39
 -1.818447e-08 1.697217e-07 5.495750e-07 2.101316e-07 -1.616397e-07 5.334111e-07 1.939677e-07 -2.424596e-07 -1.373938e-07 -3.232794e-08 -7.435427e-07 -3.475254e-07 8.791975e-01 1.415459e-02 -1.899755e-01 -7.615093e-02 2.489015e-01 5.845235e-02 1.489333e-01 -6.001419e-02 -2.286554e-01 -9.303480e-02 -2.911134e-01 -9.728917e-02 5.940644e-02 -2.692014e-03 1.837147e-02 3.728906e-02 3.788378e-02 -1.554124e-02 -2.929532e-02 4.182431e-02 1.448132e-02 -5.562174e-06 3.270114e-02 3.143002e-02 3.083459e-03 4.501069e-02 -8.392332e-04
<VARIANCE> 39
 1.311385e+01 5.841424e+01 7.021696e+01 4.913552e+01 3.929379e+01 3.587750e+01 6.707982e+01 4.812850e+01 5.225810e+01 2.535732e+01 4.543541e+01 1.777603e+01 6.864257e-03 6.017857e-01 3.292878e+00 3.026493e+00 2.109354e+00 3.044554e+00 2.675575e+00 4.827216e+00 4.189831e+00 2.060319e+00 2.924106e+00 4.332772e+00 1.004045e+00 3.080190e-04 6.435710e-02 3.003174e-01 2.951538e-01 2.802781e-01 4.415543e-01 3.995762e-01 7.094104e-01 5.769610e-01 3.342211e-01 4.715059e-01 7.160615e-01 1.451013e-01 2.801511e-05
<GCONST> 8.985899e+01
<STATE> 3
<MEAN> 39
 -1.818447e-08 1.697217e-07 5.495750e-07 2.101316e-07 -1.616397e-07 5.334111e-07 1.939677e-07 -2.424596e-07 -1.373938e-07 -3.232794e-08 -7.435427e-07 -3.475254e-07 8.791975e-01 1.415459e-02 -1.899755e-01 -7.615093e-02 2.489015e-01 5.845235e-02 1.489333e-01 -6.001419e-02 -2.286554e-01 -9.303480e-02 -2.911134e-01 -9.728917e-02 5.940644e-02 -2.692014e-03 1.837147e-02 3.728906e-02 3.788378e-02 -1.554124e-02 -2.929532e-02 4.182431e-02 1.448132e-02 -5.562174e-06 3.270114e-02 3.143002e-02 3.083459e-03 4.501069e-02 -8.392332e-04
<VARIANCE> 39
 1.311385e+01 5.841424e+01 7.021696e+01 4.913552e+01 3.929379e+01 3.587750e+01 6.707982e+01 4.812850e+01 5.225810e+01 2.535732e+01 4.543541e+01 1.777603e+01 6.864257e-03 6.017857e-01 3.292878e+00 3.026493e+00 2.109354e+00 3.044554e+00 2.675575e+00 4.827216e+00 4.189831e+00 2.060319e+00 2.924106e+00 4.332772e+00 1.004045e+00 3.080190e-04 6.435710e-02 3.003174e-01 2.951538e-01 2.802781e-01 4.415543e-01 3.995762e-01 7.094104e-01 5.769610e-01 3.342211e-01 4.715059e-01 7.160615e-01 1.451013e-01 2.801511e-05
<GCONST> 8.985899e+01
<STATE> 4
<MEAN> 39
 -1.818447e-08 1.697217e-07 5.495750e-07 2.101316e-07 -1.616397e-07 5.334111e-07 1.939677e-07 -2.424596e-07 -1.373938e-07 -3.232794e-08 -7.435427e-07 -3.475254e-07 8.791975e-01 1.415459e-02 -1.899755e-01 -7.615093e-02 2.489015e-01 5.845235e-02 1.489333e-01 -6.001419e-02 -2.286554e-01 -9.303480e-02 -2.911134e-01 -9.728917e-02 5.940644e-02 -2.692014e-03 1.837147e-02 3.728906e-02 3.788378e-02 -1.554124e-02 -2.929532e-02 4.182431e-02 1.448132e-02 -5.562174e-06 3.270114e-02 3.143002e-02 3.083459e-03 4.501069e-02 -8.392332e-04
<VARIANCE> 39
 1.311385e+01 5.841424e+01 7.021696e+01 4.913552e+01 3.929379e+01 3.587750e+01 6.707982e+01 4.812850e+01 5.225810e+01 2.535732e+01 4.543541e+01 1.777603e+01 6.864257e-03 6.017857e-01 3.292878e+00 3.026493e+00 2.109354e+00 3.044554e+00 2.675575e+00 4.827216e+00 4.189831e+00 2.060319e+00 2.924106e+00 4.332772e+00 1.004045e+00 3.080190e-04 6.435710e-02 3.003174e-01 2.951538e-01 2.802781e-01 4.415543e-01 3.995762e-01 7.094104e-01 5.769610e-01 3.342211e-01 4.715059e-01 7.160615e-01 1.451013e-01 2.801511e-05
<GCONST> 8.985899e+01
<STATE> 5
<MEAN> 39
 -1.818447e-08 1.697217e-07 5.495750e-07 2.101316e-07 -1.616397e-07 5.334111e-07 1.939677e-07 -2.424596e-07 -1.373938e-07 -3.232794e-08 -7.435427e-07 -3.475254e-07 8.791975e-01 1.415459e-02 -1.899755e-01 -7.615093e-02 2.489015e-01 5.845235e-02 1.489333e-01 -6.001419e-02 -2.286554e-01 -9.303480e-02 -2.911134e-01 -9.728917e-02 5.940644e-02 -2.692014e-03 1.837147e-02 3.728906e-02 3.788378e-02 -1.554124e-02 -2.929532e-02 4.182431e-02 1.448132e-02 -5.562174e-06 3.270114e-02 3.143002e-02 3.083459e-03 4.501069e-02 -8.392332e-04
<VARIANCE> 39
 1.311385e+01 5.841424e+01 7.021696e+01 4.913552e+01 3.929379e+01 3.587750e+01 6.707982e+01 4.812850e+01 5.225810e+01 2.535732e+01 4.543541e+01 1.777603e+01 6.864257e-03 6.017857e-01 3.292878e+00 3.026493e+00 2.109354e+00 3.044554e+00 2.675575e+00 4.827216e+00 4.189831e+00 2.060319e+00 2.924106e+00 4.332772e+00 1.004045e+00 3.080190e-04 6.435710e-02 3.003174e-01 2.951538e-01 2.802781e-01 4.415543e-01 3.995762e-01 7.094104e-01 5.769610e-01 3.342211e-01 4.715059e-01 7.160615e-01 1.451013e-01 2.801511e-05
<GCONST> 8.985899e+01
<STATE> 6
<MEAN> 39
 -1.818447e-08 1.697217e-07 5.495750e-07 2.101316e-07 -1.616397e-07 5.334111e-07 1.939677e-07 -2.424596e-07 -1.373938e-07 -3.232794e-08 -7.435427e-07 -3.475254e-07 8.791975e-01 1.415459e-02 -1.899755e-01 -7.615093e-02 2.489015e-01 5.845235e-02 1.489333e-01 -6.001419e-02 -2.286554e-01 -9.303480e-02 -2.911134e-01 -9.728917e-02 5.940644e-02 -2.692014e-03 1.837147e-02 3.728906e-02 3.788378e-02 -1.554124e-02 -2.929532e-02 4.182431e-02 1.448132e-02 -5.562174e-06 3.270114e-02 3.143002e-02 3.083459e-03 4.501069e-02 -8.392332e-04
<VARIANCE> 39
 1.311385e+01 5.841424e+01 7.021696e+01 4.913552e+01 3.929379e+01 3.587750e+01 6.707982e+01 4.812850e+01 5.225810e+01 2.535732e+01 4.543541e+01 1.777603e+01 6.864257e-03 6.017857e-01 3.292878e+00 3.026493e+00 2.109354e+00 3.044554e+00 2.675575e+00 4.827216e+00 4.189831e+00 2.060319e+00 2.924106e+00 4.332772e+00 1.004045e+00 3.080190e-04 6.435710e-02 3.003174e-01 2.951538e-01 2.802781e-01 4.415543e-01 3.995762e-01 7.094104e-01 5.769610e-01 3.342211e-01 4.715059e-01 7.160615e-01 1.451013e-01 2.801511e-05
<GCONST> 8.985899e+01
<STATE> 7
<MEAN> 39
 -1.818447e-08 1.697217e-07 5.495750e-07 2.101316e-07 -1.616397e-07 5.334111e-07 1.939677e-07 -2.424596e-07 -1.373938e-07 -3.232794e-08 -7.435427e-07 -3.475254e-07 8.791975e-01 1.415459e-02 -1.899755e-01 -7.615093e-02 2.489015e-01 5.845235e-02 1.489333e-01 -6.001419e-02 -2.286554e-01 -9.303480e-02 -2.911134e-01 -9.728917e-02 5.940644e-02 -2.692014e-03 1.837147e-02 3.728906e-02 3.788378e-02 -1.554124e-02 -2.929532e-02 4.182431e-02 1.448132e-02 -5.562174e-06 3.270114e-02 3.143002e-02 3.083459e-03 4.501069e-02 -8.392332e-04
<VARIANCE> 39
 1.311385e+01 5.841424e+01 7.021696e+01 4.913552e+01 3.929379e+01 3.587750e+01 6.707982e+01 4.812850e+01 5.225810e+01 2.535732e+01 4.543541e+01 1.777603e+01 6.864257e-03 6.017857e-01 3.292878e+00 3.026493e+00 2.109354e+00 3.044554e+00 2.675575e+00 4.827216e+00 4.189831e+00 2.060319e+00 2.924106e+00 4.332772e+00 1.004045e+00 3.080190e-04 6.435710e-02 3.003174e-01 2.951538e-01 2.802781e-01 4.415543e-01 3.995762e-01 7.094104e-01 5.769610e-01 3.342211e-01 4.715059e-01 7.160615e-01 1.451013e-01 2.801511e-05
<GCONST> 8.985899e+01
<STATE> 8
<MEAN> 39
 -1.818447e-08 1.697217e-07 5.495750e-07 2.101316e-07 -1.616397e-07 5.334111e-07 1.939677e-07 -2.424596e-07 -1.373938e-07 -3.232794e-08 -7.435427e-07 -3.475254e-07 8.791975e-01 1.415459e-02 -1.899755e-01 -7.615093e-02 2.489015e-01 5.845235e-02 1.489333e-01 -6.001419e-02 -2.286554e-01 -9.303480e-02 -2.911134e-01 -9.728917e-02 5.940644e-02 -2.692014e-03 1.837147e-02 3.728906e-02 3.788378e-02 -1.554124e-02 -2.929532e-02 4.182431e-02 1.448132e-02 -5.562174e-06 3.270114e-02 3.143002e-02 3.083459e-03 4.501069e-02 -8.392332e-04
<VARIANCE> 39
 1.311385e+01 5.841424e+01 7.021696e+01 4.913552e+01 3.929379e+01 3.587750e+01 6.707982e+01 4.812850e+01 5.225810e+01 2.535732e+01 4.543541e+01 1.777603e+01 6.864257e-03 6.017857e-01 3.292878e+00 3.026493e+00 2.109354e+00 3.044554e+00 2.675575e+00 4.827216e+00 4.189831e+00 2.060319e+00 2.924106e+00 4.332772e+00 1.004045e+00 3.080190e-04 6.435710e-02 3.003174e-01 2.951538e-01 2.802781e-01 4.415543e-01 3.995762e-01 7.094104e-01 5.769610e-01 3.342211e-01 4.715059e-01 7.160615e-01 1.451013e-01 2.801511e-05
<GCONST> 8.985899e+01
<STATE> 9
<MEAN> 39
 -1.818447e-08 1.697217e-07 5.495750e-07 2.101316e-07 -1.616397e-07 5.334111e-07 1.939677e-07 -2.424596e-07 -1.373938e-07 -3.232794e-08 -7.435427e-07 -3.475254e-07 8.791975e-01 1.415459e-02 -1.899755e-01 -7.615093e-02 2.489015e-01 5.845235e-02 1.489333e-01 -6.001419e-02 -2.286554e-01 -9.303480e-02 -2.911134e-01 -9.728917e-02 5.940644e-02 -2.692014e-03 1.837147e-02 3.728906e-02 3.788378e-02 -1.554124e-02 -2.929532e-02 4.182431e-02 1.448132e-02 -5.562174e-06 3.270114e-02 3.143002e-02 3.083459e-03 4.501069e-02 -8.392332e-04
<VARIANCE> 39
 1.311385e+01 5.841424e+01 7.021696e+01 4.913552e+01 3.929379e+01 3.587750e+01 6.707982e+01 4.812850e+01 5.225810e+01 2.535732e+01 4.543541e+01 1.777603e+01 6.864257e-03 6.017857e-01 3.292878e+00 3.026493e+00 2.109354e+00 3.044554e+00 2.675575e+00 4.827216e+00 4.189831e+00 2.060319e+00 2.924106e+00 4.332772e+00 1.004045e+00 3.080190e-04 6.435710e-02 3.003174e-01 2.951538e-01 2.802781e-01 4.415543e-01 3.995762e-01 7.094104e-01 5.769610e-01 3.342211e-01 4.715059e-01 7.160615e-01 1.451013e-01 2.801511e-05
<GCONST> 8.985899e+01
<TRANSP> 10
 0.000000e+00 1.000000e+00 0.000000e+00 0.000000e+00 0.000000e+00 0.000000e+00 0.000000e+00 0.000000e+00 0.000000e+00 0.000000e+00
 0.000000e+00 9.000000e-01 9.999999e-02 0.000000e+00 0.000000e+00 0.000000e+00 0.000000e+00 0.000000e+00 0.000000e+00 0.000000e+00
 0.000000e+00 0.000000e+00 9.000000e-01 9.999999e-02 0.000000e+00 0.000000e+00 0.000000e+00 0.000000e+00 0.000000e+00 0.000000e+00
 0.000000e+00 0.000000e+00 0.000000e+00 9.000000e-01 9.999999e-02 0.000000e+00 0.000000e+00 0.000000e+00 0.000000e+00 0.000000e+00
 0.000000e+00 0.000000e+00 0.000000e+00 0.000000e+00 9.000000e-01 9.999999e-02 0.000000e+00 0.000000e+00 0.000000e+00 0.000000e+00
 0.000000e+00 0.000000e+00 0.000000e+00 0.000000e+00 0.000000e+00 9.000000e-01 9.999999e-02 0.000000e+00 0.000000e+00 0.000000e+00
 0.000000e+00 0.000000e+00 0.000000e+00 0.000000e+00 0.000000e+00 0.000000e+00 9.000000e-01 9.999999e-02 0.000000e+00 0.000000e+00
 0.000000e+00 0.000000e+00 0.000000e+00 0.000000e+00 0.000000e+00 0.000000e+00 0.000000e+00 9.000000e-01 9.999999e-02 0.000000e+00
 0.000000e+00 0.000000e+00 0.000000e+00 0.000000e+00 0.000000e+00 0.000000e+00 0.000000e+00 0.000000e+00 9.000000e-01 9.999999e-02
 0.000000e+00 0.000000e+00 0.000000e+00 0.000000e+00 0.000000e+00 0.000000e+00 0.000000e+00 0.000000e+00 0.000000e+00 0.000000e+00
<ENDHMM>
