~o
<STREAMINFO> 1 39
<VECSIZE> 39<NULLD><MFCC_E_D_A_Z><DIAGC>
~h "s006"
<BEGINHMM>
<NUMSTATES> 10
<STATE> 2
<MEAN> 39
 -3.978610e-07 -2.175570e-07 1.303852e-07 -3.427267e-07 -1.043081e-07 -4.038215e-07 -1.102686e-07 -4.172325e-08 -8.940697e-08 1.549721e-07 -5.364418e-08 4.529953e-07 3.576869e-01 5.707526e-03 7.499842e-04 2.566342e-03 -4.082828e-03 -2.238068e-02 -4.259786e-02 1.097242e-02 7.535827e-02 2.220016e-02 -3.022324e-02 -1.698468e-02 3.324453e-02 1.936916e-04 1.111347e-03 2.039494e-03 2.001717e-03 -9.232019e-03 -1.410645e-03 -3.431333e-03 1.043354e-02 7.785288e-03 2.651033e-02 -4.179162e-03 -2.010113e-02 -1.497508e-02 6.756425e-05
<VARIANCE> 39
 1.871756e+01 4.346602e+01 1.793943e+01 1.075319e+02 4.088154e+01 1.643532e+02 4.943077e+01 2.567300e+01 2.518879e+01 2.594525e+01 2.702655e+01 5.865392e+01 1.088369e-01 8.630426e-01 9.831180e-01 9.652355e-01 2.464390e+00 1.973280e+00 5.323974e+00 2.273672e+00 2.787360e+00 2.953193e+00 3.214802e+00 3.338150e+00 3.168501e+00 1.313172e-03 1.283589e-01 1.507752e-01 1.773893e-01 3.310586e-01 4.078960e-01 9.259557e-01 4.448275e-01 5.681605e-01 6.185959e-01 7.591163e-01 7.219816e-01 5.767254e-01 1.299968e-04
<GCONST> 9.670088e+01
<STATE> 3
<MEAN> 39
 -3.978610e-07 -2.175570e-07 1.303852e-07 -3.427267e-07 -1.043081e-07 -4.038215e-07 -1.102686e-07 -4.172325e-08 -8.940697e-08 1.549721e-07 -5.364418e-08 4.529953e-07 3.576869e-01 5.707526e-03 7.499842e-04 2.566342e-03 -4.082828e-03 -2.238068e-02 -4.259786e-02 1.097242e-02 7.535827e-02 2.220016e-02 -3.022324e-02 -1.698468e-02 3.324453e-02 1.936916e-04 1.111347e-03 2.039494e-03 2.001717e-03 -9.232019e-03 -1.410645e-03 -3.431333e-03 1.043354e-02 7.785288e-03 2.651033e-02 -4.179162e-03 -2.010113e-02 -1.497508e-02 6.756425e-05
<VARIANCE> 39
 1.871756e+01 4.346602e+01 1.793943e+01 1.075319e+02 4.088154e+01 1.643532e+02 4.943077e+01 2.567300e+01 2.518879e+01 2.594525e+01 2.702655e+01 5.865392e+01 1.088369e-01 8.630426e-01 9.831180e-01 9.652355e-01 2.464390e+00 1.973280e+00 5.323974e+00 2.273672e+00 2.787360e+00 2.953193e+00 3.214802e+00 3.338150e+00 3.168501e+00 1.313172e-03 1.283589e-01 1.507752e-01 1.773893e-01 3.310586e-01 4.078960e-01 9.259557e-01 4.448275e-01 5.681605e-01 6.185959e-01 7.591163e-01 7.219816e-01 5.767254e-01 1.299968e-04
<GCONST> 9.670088e+01
<STATE> 4
<MEAN> 39
 -3.978610e-07 -2.175570e-07 1.303852e-07 -3.427267e-07 -1.043081e-07 -4.038215e-07 -1.102686e-07 -4.172325e-08 -8.940697e-08 1.549721e-07 -5.364418e-08 4.529953e-07 3.576869e-01 5.707526e-03 7.499842e-04 2.566342e-03 -4.082828e-03 -2.238068e-02 -4.259786e-02 1.097242e-02 7.535827e-02 2.220016e-02 -3.022324e-02 -1.698468e-02 3.324453e-02 1.936916e-04 1.111347e-03 2.039494e-03 2.001717e-03 -9.232019e-03 -1.410645e-03 -3.431333e-03 1.043354e-02 7.785288e-03 2.651033e-02 -4.179162e-03 -2.010113e-02 -1.497508e-02 6.756425e-05
<VARIANCE> 39
 1.871756e+01 4.346602e+01 1.793943e+01 1.075319e+02 4.088154e+01 1.643532e+02 4.943077e+01 2.567300e+01 2.518879e+01 2.594525e+01 2.702655e+01 5.865392e+01 1.088369e-01 8.630426e-01 9.831180e-01 9.652355e-01 2.464390e+00 1.973280e+00 5.323974e+00 2.273672e+00 2.787360e+00 2.953193e+00 3.214802e+00 3.338150e+00 3.168501e+00 1.313172e-03 1.283589e-01 1.507752e-01 1.773893e-01 3.310586e-01 4.078960e-01 9.259557e-01 4.448275e-01 5.681605e-01 6.185959e-01 7.591163e-01 7.219816e-01 5.767254e-01 1.299968e-04
<GCONST> 9.670088e+01
<STATE> 5
<MEAN> 39
 -3.978610e-07 -2.175570e-07 1.303852e-07 -3.427267e-07 -1.043081e-07 -4.038215e-07 -1.102686e-07 -4.172325e-08 -8.940697e-08 1.549721e-07 -5.364418e-08 4.529953e-07 3.576869e-01 5.707526e-03 7.499842e-04 2.566342e-03 -4.082828e-03 -2.238068e-02 -4.259786e-02 1.097242e-02 7.535827e-02 2.220016e-02 -3.022324e-02 -1.698468e-02 3.324453e-02 1.936916e-04 1.111347e-03 2.039494e-03 2.001717e-03 -9.232019e-03 -1.410645e-03 -3.431333e-03 1.043354e-02 7.785288e-03 2.651033e-02 -4.179162e-03 -2.010113e-02 -1.497508e-02 6.756425e-05
<VARIANCE> 39
 1.871756e+01 4.346602e+01 1.793943e+01 1.075319e+02 4.088154e+01 1.643532e+02 4.943077e+01 2.567300e+01 2.518879e+01 2.594525e+01 2.702655e+01 5.865392e+01 1.088369e-01 8.630426e-01 9.831180e-01 9.652355e-01 2.464390e+00 1.973280e+00 5.323974e+00 2.273672e+00 2.787360e+00 2.953193e+00 3.214802e+00 3.338150e+00 3.168501e+00 1.313172e-03 1.283589e-01 1.507752e-01 1.773893e-01 3.310586e-01 4.078960e-01 9.259557e-01 4.448275e-01 5.681605e-01 6.185959e-01 7.591163e-01 7.219816e-01 5.767254e-01 1.299968e-04
<GCONST> 9.670088e+01
<STATE> 6
<MEAN> 39
 -3.978610e-07 -2.175570e-07 1.303852e-07 -3.427267e-07 -1.043081e-07 -4.038215e-07 -1.102686e-07 -4.172325e-08 -8.940697e-08 1.549721e-07 -5.364418e-08 4.529953e-07 3.576869e-01 5.707526e-03 7.499842e-04 2.566342e-03 -4.082828e-03 -2.238068e-02 -4.259786e-02 1.097242e-02 7.535827e-02 2.220016e-02 -3.022324e-02 -1.698468e-02 3.324453e-02 1.936916e-04 1.111347e-03 2.039494e-03 2.001717e-03 -9.232019e-03 -1.410645e-03 -3.431333e-03 1.043354e-02 7.785288e-03 2.651033e-02 -4.179162e-03 -2.010113e-02 -1.497508e-02 6.756425e-05
<VARIANCE> 39
 1.871756e+01 4.346602e+01 1.793943e+01 1.075319e+02 4.088154e+01 1.643532e+02 4.943077e+01 2.567300e+01 2.518879e+01 2.594525e+01 2.702655e+01 5.865392e+01 1.088369e-01 8.630426e-01 9.831180e-01 9.652355e-01 2.464390e+00 1.973280e+00 5.323974e+00 2.273672e+00 2.787360e+00 2.953193e+00 3.214802e+00 3.338150e+00 3.168501e+00 1.313172e-03 1.283589e-01 1.507752e-01 1.773893e-01 3.310586e-01 4.078960e-01 9.259557e-01 4.448275e-01 5.681605e-01 6.185959e-01 7.591163e-01 7.219816e-01 5.767254e-01 1.299968e-04
<GCONST> 9.670088e+01
<STATE> 7
<MEAN> 39
 -3.978610e-07 -2.175570e-07 1.303852e-07 -3.427267e-07 -1.043081e-07 -4.038215e-07 -1.102686e-07 -4.172325e-08 -8.940697e-08 1.549721e-07 -5.364418e-08 4.529953e-07 3.576869e-01 5.707526e-03 7.499842e-04 2.566342e-03 -4.082828e-03 -2.238068e-02 -4.259786e-02 1.097242e-02 7.535827e-02 2.220016e-02 -3.022324e-02 -1.698468e-02 3.324453e-02 1.936916e-04 1.111347e-03 2.039494e-03 2.001717e-03 -9.232019e-03 -1.410645e-03 -3.431333e-03 1.043354e-02 7.785288e-03 2.651033e-02 -4.179162e-03 -2.010113e-02 -1.497508e-02 6.756425e-05
<VARIANCE> 39
 1.871756e+01 4.346602e+01 1.793943e+01 1.075319e+02 4.088154e+01 1.643532e+02 4.943077e+01 2.567300e+01 2.518879e+01 2.594525e+01 2.702655e+01 5.865392e+01 1.088369e-01 8.630426e-01 9.831180e-01 9.652355e-01 2.464390e+00 1.973280e+00 5.323974e+00 2.273672e+00 2.787360e+00 2.953193e+00 3.214802e+00 3.338150e+00 3.168501e+00 1.313172e-03 1.283589e-01 1.507752e-01 1.773893e-01 3.310586e-01 4.078960e-01 9.259557e-01 4.448275e-01 5.681605e-01 6.185959e-01 7.591163e-01 7.219816e-01 5.767254e-01 1.299968e-04
<GCONST> 9.670088e+01
<STATE> 8
<MEAN> 39
 -3.978610e-07 -2.175570e-07 1.303852e-07 -3.427267e-07 -1.043081e-07 -4.038215e-07 -1.102686e-07 -4.172325e-08 -8.940697e-08 1.549721e-07 -5.364418e-08 4.529953e-07 3.576869e-01 5.707526e-03 7.499842e-04 2.566342e-03 -4.082828e-03 -2.238068e-02 -4.259786e-02 1.097242e-02 7.535827e-02 2.220016e-02 -3.022324e-02 -1.698468e-02 3.324453e-02 1.936916e-04 1.111347e-03 2.039494e-03 2.001717e-03 -9.232019e-03 -1.410645e-03 -3.431333e-03 1.043354e-02 7.785288e-03 2.651033e-02 -4.179162e-03 -2.010113e-02 -1.497508e-02 6.756425e-05
<VARIANCE> 39
 1.871756e+01 4.346602e+01 1.793943e+01 1.075319e+02 4.088154e+01 1.643532e+02 4.943077e+01 2.567300e+01 2.518879e+01 2.594525e+01 2.702655e+01 5.865392e+01 1.088369e-01 8.630426e-01 9.831180e-01 9.652355e-01 2.464390e+00 1.973280e+00 5.323974e+00 2.273672e+00 2.787360e+00 2.953193e+00 3.214802e+00 3.338150e+00 3.168501e+00 1.313172e-03 1.283589e-01 1.507752e-01 1.773893e-01 3.310586e-01 4.078960e-01 9.259557e-01 4.448275e-01 5.681605e-01 6.185959e-01 7.591163e-01 7.219816e-01 5.767254e-01 1.299968e-04
<GCONST> 9.670088e+01
<STATE> 9
<MEAN> 39
 -3.978610e-07 -2.175570e-07 1.303852e-07 -3.427267e-07 -1.043081e-07 -4.038215e-07 -1.102686e-07 -4.172325e-08 -8.940697e-08 1.549721e-07 -5.364418e-08 4.529953e-07 3.576869e-01 5.707526e-03 7.499842e-04 2.566342e-03 -4.082828e-03 -2.238068e-02 -4.259786e-02 1.097242e-02 7.535827e-02 2.220016e-02 -3.022324e-02 -1.698468e-02 3.324453e-02 1.936916e-04 1.111347e-03 2.039494e-03 2.001717e-03 -9.232019e-03 -1.410645e-03 -3.431333e-03 1.043354e-02 7.785288e-03 2.651033e-02 -4.179162e-03 -2.010113e-02 -1.497508e-02 6.756425e-05
<VARIANCE> 39
 1.871756e+01 4.346602e+01 1.793943e+01 1.075319e+02 4.088154e+01 1.643532e+02 4.943077e+01 2.567300e+01 2.518879e+01 2.594525e+01 2.702655e+01 5.865392e+01 1.088369e-01 8.630426e-01 9.831180e-01 9.652355e-01 2.464390e+00 1.973280e+00 5.323974e+00 2.273672e+00 2.787360e+00 2.953193e+00 3.214802e+00 3.338150e+00 3.168501e+00 1.313172e-03 1.283589e-01 1.507752e-01 1.773893e-01 3.310586e-01 4.078960e-01 9.259557e-01 4.448275e-01 5.681605e-01 6.185959e-01 7.591163e-01 7.219816e-01 5.767254e-01 1.299968e-04
<GCONST> 9.670088e+01
<TRANSP> 10
 0.000000e+00 1.000000e+00 0.000000e+00 0.000000e+00 0.000000e+00 0.000000e+00 0.000000e+00 0.000000e+00 0.000000e+00 0.000000e+00
 0.000000e+00 9.000000e-01 9.999999e-02 0.000000e+00 0.000000e+00 0.000000e+00 0.000000e+00 0.000000e+00 0.000000e+00 0.000000e+00
 0.000000e+00 0.000000e+00 9.000000e-01 9.999999e-02 0.000000e+00 0.000000e+00 0.000000e+00 0.000000e+00 0.000000e+00 0.000000e+00
 0.000000e+00 0.000000e+00 0.000000e+00 9.000000e-01 9.999999e-02 0.000000e+00 0.000000e+00 0.000000e+00 0.000000e+00 0.000000e+00
 0.000000e+00 0.000000e+00 0.000000e+00 0.000000e+00 9.000000e-01 9.999999e-02 0.000000e+00 0.000000e+00 0.000000e+00 0.000000e+00
 0.000000e+00 0.000000e+00 0.000000e+00 0.000000e+00 0.000000e+00 9.000000e-01 9.999999e-02 0.000000e+00 0.000000e+00 0.000000e+00
 0.000000e+00 0.000000e+00 0.000000e+00 0.000000e+00 0.000000e+00 0.000000e+00 9.000000e-01 9.999999e-02 0.000000e+00 0.000000e+00
 0.000000e+00 0.000000e+00 0.000000e+00 0.000000e+00 0.000000e+00 0.000000e+00 0.000000e+00 9.000000e-01 9.999999e-02 0.000000e+00
 0.000000e+00 0.000000e+00 0.000000e+00 0.000000e+00 0.000000e+00 0.000000e+00 0.000000e+00 0.000000e+00 9.000000e-01 9.999999e-02
 0.000000e+00 0.000000e+00 0.000000e+00 0.000000e+00 0.000000e+00 0.000000e+00 0.000000e+00 0.000000e+00 0.000000e+00 0.000000e+00
<ENDHMM>
