~o
<STREAMINFO> 1 39
<VECSIZE> 39<NULLD><MFCC_E_D_A_Z><DIAGC>
~h "s013"
<BEGINHMM>
<NUMSTATES> 10
<STATE> 2
<MEAN> 39
 6.692451e-08 6.608796e-07 1.924080e-07 8.365564e-08 2.509669e-07 -3.513537e-07 1.673113e-08 -2.676981e-07 1.003868e-07 1.087523e-07 -1.673113e-07 -1.463974e-07 8.263245e-01 2.947742e-01 -2.169798e-01 -3.035580e-02 1.517643e-01 -1.889044e-01 2.564792e-01 1.789441e-01 -4.171119e-01 -2.636211e-02 -2.077427e-01 -2.632390e-01 -1.488265e-01 -1.720550e-03 -4.989219e-02 -1.602866e-03 -2.200538e-02 4.857896e-02 3.239817e-02 2.168057e-03 6.064188e-03 2.752602e-02 1.089877e-01 5.186436e-02 5.173803e-02 2.857448e-02 -1.465763e-03
<VARIANCE> 39
 2.720239e+01 1.511887e+02 2.271286e+01 6.812143e+01 2.937341e+01 7.154601e+01 2.389271e+01 8.969534e+01 6.443891e+01 4.339602e+01 5.207804e+01 2.816645e+01 1.567582e-02 1.558344e+00 5.052129e+00 1.474264e+00 3.979213e+00 4.459962e+00 5.434779e+00 3.358669e+00 5.126257e+00 5.117991e+00 4.441947e+00 5.060085e+00 2.820031e+00 1.091925e-03 1.737541e-01 4.350885e-01 2.389313e-01 5.399377e-01 8.056271e-01 1.173168e+00 6.599274e-01 6.940476e-01 7.095162e-01 9.057149e-01 1.055348e+00 4.091060e-01 9.102777e-05
<GCONST> 1.065098e+02
<STATE> 3
<MEAN> 39
 6.692451e-08 6.608796e-07 1.924080e-07 8.365564e-08 2.509669e-07 -3.513537e-07 1.673113e-08 -2.676981e-07 1.003868e-07 1.087523e-07 -1.673113e-07 -1.463974e-07 8.263245e-01 2.947742e-01 -2.169798e-01 -3.035580e-02 1.517643e-01 -1.889044e-01 2.564792e-01 1.789441e-01 -4.171119e-01 -2.636211e-02 -2.077427e-01 -2.632390e-01 -1.488265e-01 -1.720550e-03 -4.989219e-02 -1.602866e-03 -2.200538e-02 4.857896e-02 3.239817e-02 2.168057e-03 6.064188e-03 2.752602e-02 1.089877e-01 5.186436e-02 5.173803e-02 2.857448e-02 -1.465763e-03
<VARIANCE> 39
 2.720239e+01 1.511887e+02 2.271286e+01 6.812143e+01 2.937341e+01 7.154601e+01 2.389271e+01 8.969534e+01 6.443891e+01 4.339602e+01 5.207804e+01 2.816645e+01 1.567582e-02 1.558344e+00 5.052129e+00 1.474264e+00 3.979213e+00 4.459962e+00 5.434779e+00 3.358669e+00 5.126257e+00 5.117991e+00 4.441947e+00 5.060085e+00 2.820031e+00 1.091925e-03 1.737541e-01 4.350885e-01 2.389313e-01 5.399377e-01 8.056271e-01 1.173168e+00 6.599274e-01 6.940476e-01 7.095162e-01 9.057149e-01 1.055348e+00 4.091060e-01 9.102777e-05
<GCONST> 1.065098e+02
<STATE> 4
<MEAN> 39
 6.692451e-08 6.608796e-07 1.924080e-07 8.365564e-08 2.509669e-07 -3.513537e-07 1.673113e-08 -2.676981e-07 1.003868e-07 1.087523e-07 -1.673113e-07 -1.463974e-07 8.263245e-01 2.947742e-01 -2.169798e-01 -3.035580e-02 1.517643e-01 -1.889044e-01 2.564792e-01 1.789441e-01 -4.171119e-01 -2.636211e-02 -2.077427e-01 -2.632390e-01 -1.488265e-01 -1.720550e-03 -4.989219e-02 -1.602866e-03 -2.200538e-02 4.857896e-02 3.239817e-02 2.168057e-03 6.064188e-03 2.752602e-02 1.089877e-01 5.186436e-02 5.173803e-02 2.857448e-02 -1.465763e-03
<VARIANCE> 39
 2.720239e+01 1.511887e+02 2.271286e+01 6.812143e+01 2.937341e+01 7.154601e+01 2.389271e+01 8.969534e+01 6.443891e+01 4.339602e+01 5.207804e+01 2.816645e+01 1.567582e-02 1.558344e+00 5.052129e+00 1.474264e+00 3.979213e+00 4.459962e+00 5.434779e+00 3.358669e+00 5.126257e+00 5.117991e+00 4.441947e+00 5.060085e+00 2.820031e+00 1.091925e-03 1.737541e-01 4.350885e-01 2.389313e-01 5.399377e-01 8.056271e-01 1.173168e+00 6.599274e-01 6.940476e-01 7.095162e-01 9.057149e-01 1.055348e+00 4.091060e-01 9.102777e-05
<GCONST> 1.065098e+02
<STATE> 5
<MEAN> 39
 6.692451e-08 6.608796e-07 1.924080e-07 8.365564e-08 2.509669e-07 -3.513537e-07 1.673113e-08 -2.676981e-07 1.003868e-07 1.087523e-07 -1.673113e-07 -1.463974e-07 8.263245e-01 2.947742e-01 -2.169798e-01 -3.035580e-02 1.517643e-01 -1.889044e-01 2.564792e-01 1.789441e-01 -4.171119e-01 -2.636211e-02 -2.077427e-01 -2.632390e-01 -1.488265e-01 -1.720550e-03 -4.989219e-02 -1.602866e-03 -2.200538e-02 4.857896e-02 3.239817e-02 2.168057e-03 6.064188e-03 2.752602e-02 1.089877e-01 5.186436e-02 5.173803e-02 2.857448e-02 -1.465763e-03
<VARIANCE> 39
 2.720239e+01 1.511887e+02 2.271286e+01 6.812143e+01 2.937341e+01 7.154601e+01 2.389271e+01 8.969534e+01 6.443891e+01 4.339602e+01 5.207804e+01 2.816645e+01 1.567582e-02 1.558344e+00 5.052129e+00 1.474264e+00 3.979213e+00 4.459962e+00 5.434779e+00 3.358669e+00 5.126257e+00 5.117991e+00 4.441947e+00 5.060085e+00 2.820031e+00 1.091925e-03 1.737541e-01 4.350885e-01 2.389313e-01 5.399377e-01 8.056271e-01 1.173168e+00 6.599274e-01 6.940476e-01 7.095162e-01 9.057149e-01 1.055348e+00 4.091060e-01 9.102777e-05
<GCONST> 1.065098e+02
<STATE> 6
<MEAN> 39
 6.692451e-08 6.608796e-07 1.924080e-07 8.365564e-08 2.509669e-07 -3.513537e-07 1.673113e-08 -2.676981e-07 1.003868e-07 1.087523e-07 -1.673113e-07 -1.463974e-07 8.263245e-01 2.947742e-01 -2.169798e-01 -3.035580e-02 1.517643e-01 -1.889044e-01 2.564792e-01 1.789441e-01 -4.171119e-01 -2.636211e-02 -2.077427e-01 -2.632390e-01 -1.488265e-01 -1.720550e-03 -4.989219e-02 -1.602866e-03 -2.200538e-02 4.857896e-02 3.239817e-02 2.168057e-03 6.064188e-03 2.752602e-02 1.089877e-01 5.186436e-02 5.173803e-02 2.857448e-02 -1.465763e-03
<VARIANCE> 39
 2.720239e+01 1.511887e+02 2.271286e+01 6.812143e+01 2.937341e+01 7.154601e+01 2.389271e+01 8.969534e+01 6.443891e+01 4.339602e+01 5.207804e+01 2.816645e+01 1.567582e-02 1.558344e+00 5.052129e+00 1.474264e+00 3.979213e+00 4.459962e+00 5.434779e+00 3.358669e+00 5.126257e+00 5.117991e+00 4.441947e+00 5.060085e+00 2.820031e+00 1.091925e-03 1.737541e-01 4.350885e-01 2.389313e-01 5.399377e-01 8.056271e-01 1.173168e+00 6.599274e-01 6.940476e-01 7.095162e-01 9.057149e-01 1.055348e+00 4.091060e-01 9.102777e-05
<GCONST> 1.065098e+02
<STATE> 7
<MEAN> 39
 6.692451e-08 6.608796e-07 1.924080e-07 8.365564e-08 2.509669e-07 -3.513537e-07 1.673113e-08 -2.676981e-07 1.003868e-07 1.087523e-07 -1.673113e-07 -1.463974e-07 8.263245e-01 2.947742e-01 -2.169798e-01 -3.035580e-02 1.517643e-01 -1.889044e-01 2.564792e-01 1.789441e-01 -4.171119e-01 -2.636211e-02 -2.077427e-01 -2.632390e-01 -1.488265e-01 -1.720550e-03 -4.989219e-02 -1.602866e-03 -2.200538e-02 4.857896e-02 3.239817e-02 2.168057e-03 6.064188e-03 2.752602e-02 1.089877e-01 5.186436e-02 5.173803e-02 2.857448e-02 -1.465763e-03
<VARIANCE> 39
 2.720239e+01 1.511887e+02 2.271286e+01 6.812143e+01 2.937341e+01 7.154601e+01 2.389271e+01 8.969534e+01 6.443891e+01 4.339602e+01 5.207804e+01 2.816645e+01 1.567582e-02 1.558344e+00 5.052129e+00 1.474264e+00 3.979213e+00 4.459962e+00 5.434779e+00 3.358669e+00 5.126257e+00 5.117991e+00 4.441947e+00 5.060085e+00 2.820031e+00 1.091925e-03 1.737541e-01 4.350885e-01 2.389313e-01 5.399377e-01 8.056271e-01 1.173168e+00 6.599274e-01 6.940476e-01 7.095162e-01 9.057149e-01 1.055348e+00 4.091060e-01 9.102777e-05
<GCONST> 1.065098e+02
<STATE> 8
<MEAN> 39
 6.692451e-08 6.608796e-07 1.924080e-07 8.365564e-08 2.509669e-07 -3.513537e-07 1.673113e-08 -2.676981e-07 1.003868e-07 1.087523e-07 -1.673113e-07 -1.463974e-07 8.263245e-01 2.947742e-01 -2.169798e-01 -3.035580e-02 1.517643e-01 -1.889044e-01 2.564792e-01 1.789441e-01 -4.171119e-01 -2.636211e-02 -2.077427e-01 -2.632390e-01 -1.488265e-01 -1.720550e-03 -4.989219e-02 -1.602866e-03 -2.200538e-02 4.857896e-02 3.239817e-02 2.168057e-03 6.064188e-03 2.752602e-02 1.089877e-01 5.186436e-02 5.173803e-02 2.857448e-02 -1.465763e-03
<VARIANCE> 39
 2.720239e+01 1.511887e+02 2.271286e+01 6.812143e+01 2.937341e+01 7.154601e+01 2.389271e+01 8.969534e+01 6.443891e+01 4.339602e+01 5.207804e+01 2.816645e+01 1.567582e-02 1.558344e+00 5.052129e+00 1.474264e+00 3.979213e+00 4.459962e+00 5.434779e+00 3.358669e+00 5.126257e+00 5.117991e+00 4.441947e+00 5.060085e+00 2.820031e+00 1.091925e-03 1.737541e-01 4.350885e-01 2.389313e-01 5.399377e-01 8.056271e-01 1.173168e+00 6.599274e-01 6.940476e-01 7.095162e-01 9.057149e-01 1.055348e+00 4.091060e-01 9.102777e-05
<GCONST> 1.065098e+02
<STATE> 9
<MEAN> 39
 6.692451e-08 6.608796e-07 1.924080e-07 8.365564e-08 2.509669e-07 -3.513537e-07 1.673113e-08 -2.676981e-07 1.003868e-07 1.087523e-07 -1.673113e-07 -1.463974e-07 8.263245e-01 2.947742e-01 -2.169798e-01 -3.035580e-02 1.517643e-01 -1.889044e-01 2.564792e-01 1.789441e-01 -4.171119e-01 -2.636211e-02 -2.077427e-01 -2.632390e-01 -1.488265e-01 -1.720550e-03 -4.989219e-02 -1.602866e-03 -2.200538e-02 4.857896e-02 3.239817e-02 2.168057e-03 6.064188e-03 2.752602e-02 1.089877e-01 5.186436e-02 5.173803e-02 2.857448e-02 -1.465763e-03
<VARIANCE> 39
 2.720239e+01 1.511887e+02 2.271286e+01 6.812143e+01 2.937341e+01 7.154601e+01 2.389271e+01 8.969534e+01 6.443891e+01 4.339602e+01 5.207804e+01 2.816645e+01 1.567582e-02 1.558344e+00 5.052129e+00 1.474264e+00 3.979213e+00 4.459962e+00 5.434779e+00 3.358669e+00 5.126257e+00 5.117991e+00 4.441947e+00 5.060085e+00 2.820031e+00 1.091925e-03 1.737541e-01 4.350885e-01 2.389313e-01 5.399377e-01 8.056271e-01 1.173168e+00 6.599274e-01 6.940476e-01 7.095162e-01 9.057149e-01 1.055348e+00 4.091060e-01 9.102777e-05
<GCONST> 1.065098e+02
<TRANSP> 10
 0.000000e+00 1.000000e+00 0.000000e+00 0.000000e+00 0.000000e+00 0.000000e+00 0.000000e+00 0.000000e+00 0.000000e+00 0.000000e+00
 0.000000e+00 9.000000e-01 9.999999e-02 0.000000e+00 0.000000e+00 0.000000e+00 0.000000e+00 0.000000e+00 0.000000e+00 0.000000e+00
 0.000000e+00 0.000000e+00 9.000000e-01 9.999999e-02 0.000000e+00 0.000000e+00 0.000000e+00 0.000000e+00 0.000000e+00 0.000000e+00
 0.000000e+00 0.000000e+00 0.000000e+00 9.000000e-01 9.999999e-02 0.000000e+00 0.000000e+00 0.000000e+00 0.000000e+00 0.000000e+00
 0.000000e+00 0.000000e+00 0.000000e+00 0.000000e+00 9.000000e-01 9.999999e-02 0.000000e+00 0.000000e+00 0.000000e+00 0.000000e+00
 0.000000e+00 0.000000e+00 0.000000e+00 0.000000e+00 0.000000e+00 9.000000e-01 9.999999e-02 0.000000e+00 0.000000e+00 0.000000e+00
 0.000000e+00 0.000000e+00 0.000000e+00 0.000000e+00 0.000000e+00 0.000000e+00 9.000000e-01 9.999999e-02 0.000000e+00 0.000000e+00
 0.000000e+00 0.000000e+00 0.000000e+00 0.000000e+00 0.000000e+00 0.000000e+00 0.000000e+00 9.000000e-01 9.999999e-02 0.000000e+00
 0.000000e+00 0.000000e+00 0.000000e+00 0.000000e+00 0.000000e+00 0.000000e+00 0.000000e+00 0.000000e+00 9.000000e-01 9.999999e-02
 0.000000e+00 0.000000e+00 0.000000e+00 0.000000e+00 0.000000e+00 0.000000e+00 0.000000e+00 0.000000e+00 0.000000e+00 0.000000e+00
<ENDHMM>
