~o
<STREAMINFO> 1 39
<VECSIZE> 39<NULLD><MFCC_E_D_A_Z><DIAGC>
~h "s015"
<BEGINHMM>
<NUMSTATES> 10
<STATE> 2
<MEAN> 39
 9.605353e-08 9.262305e-08 -3.018825e-07 6.174870e-07 3.430483e-08 -1.303584e-07 3.293264e-07 -4.150885e-07 -1.886766e-07 1.063450e-07 3.464788e-07 3.687769e-08 4.882037e-01 2.500629e-02 2.419088e-02 4.096115e-03 1.840596e-03 -5.858855e-02 6.709855e-02 -1.711615e-02 -9.558655e-02 1.342231e-03 4.687415e-02 3.661582e-02 -6.436507e-02 -1.022916e-03 1.164485e-03 -1.420912e-03 -2.456446e-03 1.227167e-02 -3.229270e-03 -8.102826e-03 4.267934e-03 -1.164361e-02 -6.706165e-03 6.117595e-03 -2.081938e-03 4.677155e-03 3.563864e-05
<VARIANCE> 39
 3.413161e+01 3.604211e+01 5.624133e+01 6.795429e+01 4.379826e+01 9.514805e+01 4.613007e+01 8.402039e+01 5.406927e+01 3.544847e+01 4.547132e+01 4.999857e+01 1.169074e-01 8.242460e-01 1.424122e+00 1.983485e+00 2.585362e+00 2.456579e+00 2.837056e+00 2.710021e+00 3.847915e+00 3.243803e+00 3.523286e+00 2.668335e+00 1.915022e+00 1.553832e-03 1.449859e-01 2.280731e-01 2.311293e-01 3.519656e-01 4.173180e-01 3.723593e-01 4.897487e-01 6.494490e-01 5.898158e-01 7.617145e-01 4.960344e-01 3.520957e-01 1.947110e-04
<GCONST> 1.004459e+02
<STATE> 3
<MEAN> 39
 9.605353e-08 9.262305e-08 -3.018825e-07 6.174870e-07 3.430483e-08 -1.303584e-07 3.293264e-07 -4.150885e-07 -1.886766e-07 1.063450e-07 3.464788e-07 3.687769e-08 4.882037e-01 2.500629e-02 2.419088e-02 4.096115e-03 1.840596e-03 -5.858855e-02 6.709855e-02 -1.711615e-02 -9.558655e-02 1.342231e-03 4.687415e-02 3.661582e-02 -6.436507e-02 -1.022916e-03 1.164485e-03 -1.420912e-03 -2.456446e-03 1.227167e-02 -3.229270e-03 -8.102826e-03 4.267934e-03 -1.164361e-02 -6.706165e-03 6.117595e-03 -2.081938e-03 4.677155e-03 3.563864e-05
<VARIANCE> 39
 3.413161e+01 3.604211e+01 5.624133e+01 6.795429e+01 4.379826e+01 9.514805e+01 4.613007e+01 8.402039e+01 5.406927e+01 3.544847e+01 4.547132e+01 4.999857e+01 1.169074e-01 8.242460e-01 1.424122e+00 1.983485e+00 2.585362e+00 2.456579e+00 2.837056e+00 2.710021e+00 3.847915e+00 3.243803e+00 3.523286e+00 2.668335e+00 1.915022e+00 1.553832e-03 1.449859e-01 2.280731e-01 2.311293e-01 3.519656e-01 4.173180e-01 3.723593e-01 4.897487e-01 6.494490e-01 5.898158e-01 7.617145e-01 4.960344e-01 3.520957e-01 1.947110e-04
<GCONST> 1.004459e+02
<STATE> 4
<MEAN> 39
 9.605353e-08 9.262305e-08 -3.018825e-07 6.174870e-07 3.430483e-08 -1.303584e-07 3.293264e-07 -4.150885e-07 -1.886766e-07 1.063450e-07 3.464788e-07 3.687769e-08 4.882037e-01 2.500629e-02 2.419088e-02 4.096115e-03 1.840596e-03 -5.858855e-02 6.709855e-02 -1.711615e-02 -9.558655e-02 1.342231e-03 4.687415e-02 3.661582e-02 -6.436507e-02 -1.022916e-03 1.164485e-03 -1.420912e-03 -2.456446e-03 1.227167e-02 -3.229270e-03 -8.102826e-03 4.267934e-03 -1.164361e-02 -6.706165e-03 6.117595e-03 -2.081938e-03 4.677155e-03 3.563864e-05
<VARIANCE> 39
 3.413161e+01 3.604211e+01 5.624133e+01 6.795429e+01 4.379826e+01 9.514805e+01 4.613007e+01 8.402039e+01 5.406927e+01 3.544847e+01 4.547132e+01 4.999857e+01 1.169074e-01 8.242460e-01 1.424122e+00 1.983485e+00 2.585362e+00 2.456579e+00 2.837056e+00 2.710021e+00 3.847915e+00 3.243803e+00 3.523286e+00 2.668335e+00 1.915022e+00 1.553832e-03 1.449859e-01 2.280731e-01 2.311293e-01 3.519656e-01 4.173180e-01 3.723593e-01 4.897487e-01 6.494490e-01 5.898158e-01 7.617145e-01 4.960344e-01 3.520957e-01 1.947110e-04
<GCONST> 1.004459e+02
<STATE> 5
<MEAN> 39
 9.605353e-08 9.262305e-08 -3.018825e-07 6.174870e-07 3.430483e-08 -1.303584e-07 3.293264e-07 -4.150885e-07 -1.886766e-07 1.063450e-07 3.464788e-07 3.687769e-08 4.882037e-01 2.500629e-02 2.419088e-02 4.096115e-03 1.840596e-03 -5.858855e-02 6.709855e-02 -1.711615e-02 -9.558655e-02 1.342231e-03 4.687415e-02 3.661582e-02 -6.436507e-02 -1.022916e-03 1.164485e-03 -1.420912e-03 -2.456446e-03 1.227167e-02 -3.229270e-03 -8.102826e-03 4.267934e-03 -1.164361e-02 -6.706165e-03 6.117595e-03 -2.081938e-03 4.677155e-03 3.563864e-05
<VARIANCE> 39
 3.413161e+01 3.604211e+01 5.624133e+01 6.795429e+01 4.379826e+01 9.514805e+01 4.613007e+01 8.402039e+01 5.406927e+01 3.544847e+01 4.547132e+01 4.999857e+01 1.169074e-01 8.242460e-01 1.424122e+00 1.983485e+00 2.585362e+00 2.456579e+00 2.837056e+00 2.710021e+00 3.847915e+00 3.243803e+00 3.523286e+00 2.668335e+00 1.915022e+00 1.553832e-03 1.449859e-01 2.280731e-01 2.311293e-01 3.519656e-01 4.173180e-01 3.723593e-01 4.897487e-01 6.494490e-01 5.898158e-01 7.617145e-01 4.960344e-01 3.520957e-01 1.947110e-04
<GCONST> 1.004459e+02
<STATE> 6
<MEAN> 39
 9.605353e-08 9.262305e-08 -3.018825e-07 6.174870e-07 3.430483e-08 -1.303584e-07 3.293264e-07 -4.150885e-07 -1.886766e-07 1.063450e-07 3.464788e-07 3.687769e-08 4.882037e-01 2.500629e-02 2.419088e-02 4.096115e-03 1.840596e-03 -5.858855e-02 6.709855e-02 -1.711615e-02 -9.558655e-02 1.342231e-03 4.687415e-02 3.661582e-02 -6.436507e-02 -1.022916e-03 1.164485e-03 -1.420912e-03 -2.456446e-03 1.227167e-02 -3.229270e-03 -8.102826e-03 4.267934e-03 -1.164361e-02 -6.706165e-03 6.117595e-03 -2.081938e-03 4.677155e-03 3.563864e-05
<VARIANCE> 39
 3.413161e+01 3.604211e+01 5.624133e+01 6.795429e+01 4.379826e+01 9.514805e+01 4.613007e+01 8.402039e+01 5.406927e+01 3.544847e+01 4.547132e+01 4.999857e+01 1.169074e-01 8.242460e-01 1.424122e+00 1.983485e+00 2.585362e+00 2.456579e+00 2.837056e+00 2.710021e+00 3.847915e+00 3.243803e+00 3.523286e+00 2.668335e+00 1.915022e+00 1.553832e-03 1.449859e-01 2.280731e-01 2.311293e-01 3.519656e-01 4.173180e-01 3.723593e-01 4.897487e-01 6.494490e-01 5.898158e-01 7.617145e-01 4.960344e-01 3.520957e-01 1.947110e-04
<GCONST> 1.004459e+02
<STATE> 7
<MEAN> 39
 9.605353e-08 9.262305e-08 -3.018825e-07 6.174870e-07 3.430483e-08 -1.303584e-07 3.293264e-07 -4.150885e-07 -1.886766e-07 1.063450e-07 3.464788e-07 3.687769e-08 4.882037e-01 2.500629e-02 2.419088e-02 4.096115e-03 1.840596e-03 -5.858855e-02 6.709855e-02 -1.711615e-02 -9.558655e-02 1.342231e-03 4.687415e-02 3.661582e-02 -6.436507e-02 -1.022916e-03 1.164485e-03 -1.420912e-03 -2.456446e-03 1.227167e-02 -3.229270e-03 -8.102826e-03 4.267934e-03 -1.164361e-02 -6.706165e-03 6.117595e-03 -2.081938e-03 4.677155e-03 3.563864e-05
<VARIANCE> 39
 3.413161e+01 3.604211e+01 5.624133e+01 6.795429e+01 4.379826e+01 9.514805e+01 4.613007e+01 8.402039e+01 5.406927e+01 3.544847e+01 4.547132e+01 4.999857e+01 1.169074e-01 8.242460e-01 1.424122e+00 1.983485e+00 2.585362e+00 2.456579e+00 2.837056e+00 2.710021e+00 3.847915e+00 3.243803e+00 3.523286e+00 2.668335e+00 1.915022e+00 1.553832e-03 1.449859e-01 2.280731e-01 2.311293e-01 3.519656e-01 4.173180e-01 3.723593e-01 4.897487e-01 6.494490e-01 5.898158e-01 7.617145e-01 4.960344e-01 3.520957e-01 1.947110e-04
<GCONST> 1.004459e+02
<STATE> 8
<MEAN> 39
 9.605353e-08 9.262305e-08 -3.018825e-07 6.174870e-07 3.430483e-08 -1.303584e-07 3.293264e-07 -4.150885e-07 -1.886766e-07 1.063450e-07 3.464788e-07 3.687769e-08 4.882037e-01 2.500629e-02 2.419088e-02 4.096115e-03 1.840596e-03 -5.858855e-02 6.709855e-02 -1.711615e-02 -9.558655e-02 1.342231e-03 4.687415e-02 3.661582e-02 -6.436507e-02 -1.022916e-03 1.164485e-03 -1.420912e-03 -2.456446e-03 1.227167e-02 -3.229270e-03 -8.102826e-03 4.267934e-03 -1.164361e-02 -6.706165e-03 6.117595e-03 -2.081938e-03 4.677155e-03 3.563864e-05
<VARIANCE> 39
 3.413161e+01 3.604211e+01 5.624133e+01 6.795429e+01 4.379826e+01 9.514805e+01 4.613007e+01 8.402039e+01 5.406927e+01 3.544847e+01 4.547132e+01 4.999857e+01 1.169074e-01 8.242460e-01 1.424122e+00 1.983485e+00 2.585362e+00 2.456579e+00 2.837056e+00 2.710021e+00 3.847915e+00 3.243803e+00 3.523286e+00 2.668335e+00 1.915022e+00 1.553832e-03 1.449859e-01 2.280731e-01 2.311293e-01 3.519656e-01 4.173180e-01 3.723593e-01 4.897487e-01 6.494490e-01 5.898158e-01 7.617145e-01 4.960344e-01 3.520957e-01 1.947110e-04
<GCONST> 1.004459e+02
<STATE> 9
<MEAN> 39
 9.605353e-08 9.262305e-08 -3.018825e-07 6.174870e-07 3.430483e-08 -1.303584e-07 3.293264e-07 -4.150885e-07 -1.886766e-07 1.063450e-07 3.464788e-07 3.687769e-08 4.882037e-01 2.500629e-02 2.419088e-02 4.096115e-03 1.840596e-03 -5.858855e-02 6.709855e-02 -1.711615e-02 -9.558655e-02 1.342231e-03 4.687415e-02 3.661582e-02 -6.436507e-02 -1.022916e-03 1.164485e-03 -1.420912e-03 -2.456446e-03 1.227167e-02 -3.229270e-03 -8.102826e-03 4.267934e-03 -1.164361e-02 -6.706165e-03 6.117595e-03 -2.081938e-03 4.677155e-03 3.563864e-05
<VARIANCE> 39
 3.413161e+01 3.604211e+01 5.624133e+01 6.795429e+01 4.379826e+01 9.514805e+01 4.613007e+01 8.402039e+01 5.406927e+01 3.544847e+01 4.547132e+01 4.999857e+01 1.169074e-01 8.242460e-01 1.424122e+00 1.983485e+00 2.585362e+00 2.456579e+00 2.837056e+00 2.710021e+00 3.847915e+00 3.243803e+00 3.523286e+00 2.668335e+00 1.915022e+00 1.553832e-03 1.449859e-01 2.280731e-01 2.311293e-01 3.519656e-01 4.173180e-01 3.723593e-01 4.897487e-01 6.494490e-01 5.898158e-01 7.617145e-01 4.960344e-01 3.520957e-01 1.947110e-04
<GCONST> 1.004459e+02
<TRANSP> 10
 0.000000e+00 1.000000e+00 0.000000e+00 0.000000e+00 0.000000e+00 0.000000e+00 0.000000e+00 0.000000e+00 0.000000e+00 0.000000e+00
 0.000000e+00 9.000000e-01 9.999999e-02 0.000000e+00 0.000000e+00 0.000000e+00 0.000000e+00 0.000000e+00 0.000000e+00 0.000000e+00
 0.000000e+00 0.000000e+00 9.000000e-01 9.999999e-02 0.000000e+00 0.000000e+00 0.000000e+00 0.000000e+00 0.000000e+00 0.000000e+00
 0.000000e+00 0.000000e+00 0.000000e+00 9.000000e-01 9.999999e-02 0.000000e+00 0.000000e+00 0.000000e+00 0.000000e+00 0.000000e+00
 0.000000e+00 0.000000e+00 0.000000e+00 0.000000e+00 9.000000e-01 9.999999e-02 0.000000e+00 0.000000e+00 0.000000e+00 0.000000e+00
 0.000000e+00 0.000000e+00 0.000000e+00 0.000000e+00 0.000000e+00 9.000000e-01 9.999999e-02 0.000000e+00 0.000000e+00 0.000000e+00
 0.000000e+00 0.000000e+00 0.000000e+00 0.000000e+00 0.000000e+00 0.000000e+00 9.000000e-01 9.999999e-02 0.000000e+00 0.000000e+00
 0.000000e+00 0.000000e+00 0.000000e+00 0.000000e+00 0.000000e+00 0.000000e+00 0.000000e+00 9.000000e-01 9.999999e-02 0.000000e+00
 0.000000e+00 0.000000e+00 0.000000e+00 0.000000e+00 0.000000e+00 0.000000e+00 0.000000e+00 0.000000e+00 9.000000e-01 9.999999e-02
 0.000000e+00 0.000000e+00 0.000000e+00 0.000000e+00 0.000000e+00 0.000000e+00 0.000000e+00 0.000000e+00 0.000000e+00 0.000000e+00
<ENDHMM>
