~o
<STREAMINFO> 1 39
<VECSIZE> 39<NULLD><MFCC_E_D_A_Z><DIAGC>
~h "s020"
<BEGINHMM>
<NUMSTATES> 10
<STATE> 2
<MEAN> 39
 -6.453435e-08 -3.764504e-08 -6.274173e-08 -3.226718e-08 2.384186e-07 2.868194e-08 2.258702e-07 -7.887532e-08 -9.321629e-08 1.075573e-07 -4.015471e-07 -7.170484e-09 4.200659e-01 2.257759e-02 1.960020e-02 -1.826796e-02 5.127269e-02 1.421279e-03 3.250416e-02 1.286049e-02 -7.662760e-02 -3.310430e-02 -2.837015e-02 -4.059437e-02 -5.705116e-02 -4.731347e-04 1.759283e-03 -1.958112e-03 6.110138e-03 1.743932e-03 4.619313e-03 -6.167641e-03 -1.391291e-02 -1.071903e-02 7.709254e-03 -1.704430e-02 -8.209693e-03 -2.378529e-02 4.185400e-05
<VARIANCE> 39
 2.936290e+01 2.197780e+01 1.271769e+01 5.550946e+01 2.704605e+01 1.008003e+02 3.347136e+01 6.404018e+01 2.293553e+01 2.539442e+01 3.441216e+01 3.374544e+01 8.766586e-02 1.656551e+00 1.022648e+00 1.206821e+00 1.873159e+00 2.180390e+00 4.649843e+00 3.077577e+00 3.316151e+00 2.137214e+00 3.327455e+00 2.367693e+00 2.877972e+00 1.557856e-03 2.479021e-01 1.503861e-01 2.309154e-01 2.608650e-01 4.472522e-01 8.026267e-01 6.398546e-01 6.407759e-01 4.263042e-01 6.976458e-01 4.465407e-01 5.702656e-01 1.692466e-04
<GCONST> 9.539646e+01
<STATE> 3
<MEAN> 39
 -6.453435e-08 -3.764504e-08 -6.274173e-08 -3.226718e-08 2.384186e-07 2.868194e-08 2.258702e-07 -7.887532e-08 -9.321629e-08 1.075573e-07 -4.015471e-07 -7.170484e-09 4.200659e-01 2.257759e-02 1.960020e-02 -1.826796e-02 5.127269e-02 1.421279e-03 3.250416e-02 1.286049e-02 -7.662760e-02 -3.310430e-02 -2.837015e-02 -4.059437e-02 -5.705116e-02 -4.731347e-04 1.759283e-03 -1.958112e-03 6.110138e-03 1.743932e-03 4.619313e-03 -6.167641e-03 -1.391291e-02 -1.071903e-02 7.709254e-03 -1.704430e-02 -8.209693e-03 -2.378529e-02 4.185400e-05
<VARIANCE> 39
 2.936290e+01 2.197780e+01 1.271769e+01 5.550946e+01 2.704605e+01 1.008003e+02 3.347136e+01 6.404018e+01 2.293553e+01 2.539442e+01 3.441216e+01 3.374544e+01 8.766586e-02 1.656551e+00 1.022648e+00 1.206821e+00 1.873159e+00 2.180390e+00 4.649843e+00 3.077577e+00 3.316151e+00 2.137214e+00 3.327455e+00 2.367693e+00 2.877972e+00 1.557856e-03 2.479021e-01 1.503861e-01 2.309154e-01 2.608650e-01 4.472522e-01 8.026267e-01 6.398546e-01 6.407759e-01 4.263042e-01 6.976458e-01 4.465407e-01 5.702656e-01 1.692466e-04
<GCONST> 9.539646e+01
<STATE> 4
<MEAN> 39
 -6.453435e-08 -3.764504e-08 -6.274173e-08 -3.226718e-08 2.384186e-07 2.868194e-08 2.258702e-07 -7.887532e-08 -9.321629e-08 1.075573e-07 -4.015471e-07 -7.170484e-09 4.200659e-01 2.257759e-02 1.960020e-02 -1.826796e-02 5.127269e-02 1.421279e-03 3.250416e-02 1.286049e-02 -7.662760e-02 -3.310430e-02 -2.837015e-02 -4.059437e-02 -5.705116e-02 -4.731347e-04 1.759283e-03 -1.958112e-03 6.110138e-03 1.743932e-03 4.619313e-03 -6.167641e-03 -1.391291e-02 -1.071903e-02 7.709254e-03 -1.704430e-02 -8.209693e-03 -2.378529e-02 4.185400e-05
<VARIANCE> 39
 2.936290e+01 2.197780e+01 1.271769e+01 5.550946e+01 2.704605e+01 1.008003e+02 3.347136e+01 6.404018e+01 2.293553e+01 2.539442e+01 3.441216e+01 3.374544e+01 8.766586e-02 1.656551e+00 1.022648e+00 1.206821e+00 1.873159e+00 2.180390e+00 4.649843e+00 3.077577e+00 3.316151e+00 2.137214e+00 3.327455e+00 2.367693e+00 2.877972e+00 1.557856e-03 2.479021e-01 1.503861e-01 2.309154e-01 2.608650e-01 4.472522e-01 8.026267e-01 6.398546e-01 6.407759e-01 4.263042e-01 6.976458e-01 4.465407e-01 5.702656e-01 1.692466e-04
<GCONST> 9.539646e+01
<STATE> 5
<MEAN> 39
 -6.453435e-08 -3.764504e-08 -6.274173e-08 -3.226718e-08 2.384186e-07 2.868194e-08 2.258702e-07 -7.887532e-08 -9.321629e-08 1.075573e-07 -4.015471e-07 -7.170484e-09 4.200659e-01 2.257759e-02 1.960020e-02 -1.826796e-02 5.127269e-02 1.421279e-03 3.250416e-02 1.286049e-02 -7.662760e-02 -3.310430e-02 -2.837015e-02 -4.059437e-02 -5.705116e-02 -4.731347e-04 1.759283e-03 -1.958112e-03 6.110138e-03 1.743932e-03 4.619313e-03 -6.167641e-03 -1.391291e-02 -1.071903e-02 7.709254e-03 -1.704430e-02 -8.209693e-03 -2.378529e-02 4.185400e-05
<VARIANCE> 39
 2.936290e+01 2.197780e+01 1.271769e+01 5.550946e+01 2.704605e+01 1.008003e+02 3.347136e+01 6.404018e+01 2.293553e+01 2.539442e+01 3.441216e+01 3.374544e+01 8.766586e-02 1.656551e+00 1.022648e+00 1.206821e+00 1.873159e+00 2.180390e+00 4.649843e+00 3.077577e+00 3.316151e+00 2.137214e+00 3.327455e+00 2.367693e+00 2.877972e+00 1.557856e-03 2.479021e-01 1.503861e-01 2.309154e-01 2.608650e-01 4.472522e-01 8.026267e-01 6.398546e-01 6.407759e-01 4.263042e-01 6.976458e-01 4.465407e-01 5.702656e-01 1.692466e-04
<GCONST> 9.539646e+01
<STATE> 6
<MEAN> 39
 -6.453435e-08 -3.764504e-08 -6.274173e-08 -3.226718e-08 2.384186e-07 2.868194e-08 2.258702e-07 -7.887532e-08 -9.321629e-08 1.075573e-07 -4.015471e-07 -7.170484e-09 4.200659e-01 2.257759e-02 1.960020e-02 -1.826796e-02 5.127269e-02 1.421279e-03 3.250416e-02 1.286049e-02 -7.662760e-02 -3.310430e-02 -2.837015e-02 -4.059437e-02 -5.705116e-02 -4.731347e-04 1.759283e-03 -1.958112e-03 6.110138e-03 1.743932e-03 4.619313e-03 -6.167641e-03 -1.391291e-02 -1.071903e-02 7.709254e-03 -1.704430e-02 -8.209693e-03 -2.378529e-02 4.185400e-05
<VARIANCE> 39
 2.936290e+01 2.197780e+01 1.271769e+01 5.550946e+01 2.704605e+01 1.008003e+02 3.347136e+01 6.404018e+01 2.293553e+01 2.539442e+01 3.441216e+01 3.374544e+01 8.766586e-02 1.656551e+00 1.022648e+00 1.206821e+00 1.873159e+00 2.180390e+00 4.649843e+00 3.077577e+00 3.316151e+00 2.137214e+00 3.327455e+00 2.367693e+00 2.877972e+00 1.557856e-03 2.479021e-01 1.503861e-01 2.309154e-01 2.608650e-01 4.472522e-01 8.026267e-01 6.398546e-01 6.407759e-01 4.263042e-01 6.976458e-01 4.465407e-01 5.702656e-01 1.692466e-04
<GCONST> 9.539646e+01
<STATE> 7
<MEAN> 39
 -6.453435e-08 -3.764504e-08 -6.274173e-08 -3.226718e-08 2.384186e-07 2.868194e-08 2.258702e-07 -7.887532e-08 -9.321629e-08 1.075573e-07 -4.015471e-07 -7.170484e-09 4.200659e-01 2.257759e-02 1.960020e-02 -1.826796e-02 5.127269e-02 1.421279e-03 3.250416e-02 1.286049e-02 -7.662760e-02 -3.310430e-02 -2.837015e-02 -4.059437e-02 -5.705116e-02 -4.731347e-04 1.759283e-03 -1.958112e-03 6.110138e-03 1.743932e-03 4.619313e-03 -6.167641e-03 -1.391291e-02 -1.071903e-02 7.709254e-03 -1.704430e-02 -8.209693e-03 -2.378529e-02 4.185400e-05
<VARIANCE> 39
 2.936290e+01 2.197780e+01 1.271769e+01 5.550946e+01 2.704605e+01 1.008003e+02 3.347136e+01 6.404018e+01 2.293553e+01 2.539442e+01 3.441216e+01 3.374544e+01 8.766586e-02 1.656551e+00 1.022648e+00 1.206821e+00 1.873159e+00 2.180390e+00 4.649843e+00 3.077577e+00 3.316151e+00 2.137214e+00 3.327455e+00 2.367693e+00 2.877972e+00 1.557856e-03 2.479021e-01 1.503861e-01 2.309154e-01 2.608650e-01 4.472522e-01 8.026267e-01 6.398546e-01 6.407759e-01 4.263042e-01 6.976458e-01 4.465407e-01 5.702656e-01 1.692466e-04
<GCONST> 9.539646e+01
<STATE> 8
<MEAN> 39
 -6.453435e-08 -3.764504e-08 -6.274173e-08 -3.226718e-08 2.384186e-07 2.868194e-08 2.258702e-07 -7.887532e-08 -9.321629e-08 1.075573e-07 -4.015471e-07 -7.170484e-09 4.200659e-01 2.257759e-02 1.960020e-02 -1.826796e-02 5.127269e-02 1.421279e-03 3.250416e-02 1.286049e-02 -7.662760e-02 -3.310430e-02 -2.837015e-02 -4.059437e-02 -5.705116e-02 -4.731347e-04 1.759283e-03 -1.958112e-03 6.110138e-03 1.743932e-03 4.619313e-03 -6.167641e-03 -1.391291e-02 -1.071903e-02 7.709254e-03 -1.704430e-02 -8.209693e-03 -2.378529e-02 4.185400e-05
<VARIANCE> 39
 2.936290e+01 2.197780e+01 1.271769e+01 5.550946e+01 2.704605e+01 1.008003e+02 3.347136e+01 6.404018e+01 2.293553e+01 2.539442e+01 3.441216e+01 3.374544e+01 8.766586e-02 1.656551e+00 1.022648e+00 1.206821e+00 1.873159e+00 2.180390e+00 4.649843e+00 3.077577e+00 3.316151e+00 2.137214e+00 3.327455e+00 2.367693e+00 2.877972e+00 1.557856e-03 2.479021e-01 1.503861e-01 2.309154e-01 2.608650e-01 4.472522e-01 8.026267e-01 6.398546e-01 6.407759e-01 4.263042e-01 6.976458e-01 4.465407e-01 5.702656e-01 1.692466e-04
<GCONST> 9.539646e+01
<STATE> 9
<MEAN> 39
 -6.453435e-08 -3.764504e-08 -6.274173e-08 -3.226718e-08 2.384186e-07 2.868194e-08 2.258702e-07 -7.887532e-08 -9.321629e-08 1.075573e-07 -4.015471e-07 -7.170484e-09 4.200659e-01 2.257759e-02 1.960020e-02 -1.826796e-02 5.127269e-02 1.421279e-03 3.250416e-02 1.286049e-02 -7.662760e-02 -3.310430e-02 -2.837015e-02 -4.059437e-02 -5.705116e-02 -4.731347e-04 1.759283e-03 -1.958112e-03 6.110138e-03 1.743932e-03 4.619313e-03 -6.167641e-03 -1.391291e-02 -1.071903e-02 7.709254e-03 -1.704430e-02 -8.209693e-03 -2.378529e-02 4.185400e-05
<VARIANCE> 39
 2.936290e+01 2.197780e+01 1.271769e+01 5.550946e+01 2.704605e+01 1.008003e+02 3.347136e+01 6.404018e+01 2.293553e+01 2.539442e+01 3.441216e+01 3.374544e+01 8.766586e-02 1.656551e+00 1.022648e+00 1.206821e+00 1.873159e+00 2.180390e+00 4.649843e+00 3.077577e+00 3.316151e+00 2.137214e+00 3.327455e+00 2.367693e+00 2.877972e+00 1.557856e-03 2.479021e-01 1.503861e-01 2.309154e-01 2.608650e-01 4.472522e-01 8.026267e-01 6.398546e-01 6.407759e-01 4.263042e-01 6.976458e-01 4.465407e-01 5.702656e-01 1.692466e-04
<GCONST> 9.539646e+01
<TRANSP> 10
 0.000000e+00 1.000000e+00 0.000000e+00 0.000000e+00 0.000000e+00 0.000000e+00 0.000000e+00 0.000000e+00 0.000000e+00 0.000000e+00
 0.000000e+00 9.000000e-01 9.999999e-02 0.000000e+00 0.000000e+00 0.000000e+00 0.000000e+00 0.000000e+00 0.000000e+00 0.000000e+00
 0.000000e+00 0.000000e+00 9.000000e-01 9.999999e-02 0.000000e+00 0.000000e+00 0.000000e+00 0.000000e+00 0.000000e+00 0.000000e+00
 0.000000e+00 0.000000e+00 0.000000e+00 9.000000e-01 9.999999e-02 0.000000e+00 0.000000e+00 0.000000e+00 0.000000e+00 0.000000e+00
 0.000000e+00 0.000000e+00 0.000000e+00 0.000000e+00 9.000000e-01 9.999999e-02 0.000000e+00 0.000000e+00 0.000000e+00 0.000000e+00
 0.000000e+00 0.000000e+00 0.000000e+00 0.000000e+00 0.000000e+00 9.000000e-01 9.999999e-02 0.000000e+00 0.000000e+00 0.000000e+00
 0.000000e+00 0.000000e+00 0.000000e+00 0.000000e+00 0.000000e+00 0.000000e+00 9.000000e-01 9.999999e-02 0.000000e+00 0.000000e+00
 0.000000e+00 0.000000e+00 0.000000e+00 0.000000e+00 0.000000e+00 0.000000e+00 0.000000e+00 9.000000e-01 9.999999e-02 0.000000e+00
 0.000000e+00 0.000000e+00 0.000000e+00 0.000000e+00 0.000000e+00 0.000000e+00 0.000000e+00 0.000000e+00 9.000000e-01 9.999999e-02
 0.000000e+00 0.000000e+00 0.000000e+00 0.000000e+00 0.000000e+00 0.000000e+00 0.000000e+00 0.000000e+00 0.000000e+00 0.000000e+00
<ENDHMM>
