~o
<STREAMINFO> 1 39
<VECSIZE> 39<NULLD><MFCC_E_D_A_Z><DIAGC>
~h "s021"
<BEGINHMM>
<NUMSTATES> 10
<STATE> 2
<MEAN> 39
 -3.831727e-07 -3.916877e-07 2.980232e-08 -8.855547e-07 -4.172325e-07 -2.895083e-07 -4.427773e-07 -1.362392e-07 -7.237707e-08 5.534717e-08 1.192093e-07 2.001013e-07 7.609395e-01 2.901410e-01 -2.084700e-01 -6.090822e-02 1.626732e-01 -8.435829e-02 2.428183e-01 1.319095e-03 -3.189414e-01 -3.313994e-02 -2.229139e-01 -4.003911e-03 -5.807710e-02 -2.373683e-03 1.427047e-02 1.132522e-02 2.208838e-03 2.528239e-02 -6.156116e-03 -7.687144e-03 1.475224e-02 -1.988903e-02 -3.619785e-02 -2.024390e-02 -4.320719e-02 2.117788e-03 -6.806029e-04
<VARIANCE> 39
 4.176336e+01 8.854079e+01 2.632528e+01 3.919551e+01 6.577696e+01 3.759313e+01 6.626081e+01 8.120811e+01 3.627620e+01 3.506682e+01 2.683065e+01 6.000697e+01 4.223084e-02 1.669353e+00 3.589900e+00 1.121231e+00 1.928972e+00 4.123470e+00 2.605385e+00 1.842333e+00 4.088630e+00 3.650647e+00 2.814836e+00 3.022895e+00 4.933809e+00 1.092499e-03 2.585781e-01 3.635451e-01 1.545210e-01 2.080357e-01 6.916631e-01 3.981814e-01 2.101787e-01 4.869292e-01 6.992126e-01 5.830330e-01 5.741081e-01 8.734341e-01 1.038825e-04
<GCONST> 9.964101e+01
<STATE> 3
<MEAN> 39
 -3.831727e-07 -3.916877e-07 2.980232e-08 -8.855547e-07 -4.172325e-07 -2.895083e-07 -4.427773e-07 -1.362392e-07 -7.237707e-08 5.534717e-08 1.192093e-07 2.001013e-07 7.609395e-01 2.901410e-01 -2.084700e-01 -6.090822e-02 1.626732e-01 -8.435829e-02 2.428183e-01 1.319095e-03 -3.189414e-01 -3.313994e-02 -2.229139e-01 -4.003911e-03 -5.807710e-02 -2.373683e-03 1.427047e-02 1.132522e-02 2.208838e-03 2.528239e-02 -6.156116e-03 -7.687144e-03 1.475224e-02 -1.988903e-02 -3.619785e-02 -2.024390e-02 -4.320719e-02 2.117788e-03 -6.806029e-04
<VARIANCE> 39
 4.176336e+01 8.854079e+01 2.632528e+01 3.919551e+01 6.577696e+01 3.759313e+01 6.626081e+01 8.120811e+01 3.627620e+01 3.506682e+01 2.683065e+01 6.000697e+01 4.223084e-02 1.669353e+00 3.589900e+00 1.121231e+00 1.928972e+00 4.123470e+00 2.605385e+00 1.842333e+00 4.088630e+00 3.650647e+00 2.814836e+00 3.022895e+00 4.933809e+00 1.092499e-03 2.585781e-01 3.635451e-01 1.545210e-01 2.080357e-01 6.916631e-01 3.981814e-01 2.101787e-01 4.869292e-01 6.992126e-01 5.830330e-01 5.741081e-01 8.734341e-01 1.038825e-04
<GCONST> 9.964101e+01
<STATE> 4
<MEAN> 39
 -3.831727e-07 -3.916877e-07 2.980232e-08 -8.855547e-07 -4.172325e-07 -2.895083e-07 -4.427773e-07 -1.362392e-07 -7.237707e-08 5.534717e-08 1.192093e-07 2.001013e-07 7.609395e-01 2.901410e-01 -2.084700e-01 -6.090822e-02 1.626732e-01 -8.435829e-02 2.428183e-01 1.319095e-03 -3.189414e-01 -3.313994e-02 -2.229139e-01 -4.003911e-03 -5.807710e-02 -2.373683e-03 1.427047e-02 1.132522e-02 2.208838e-03 2.528239e-02 -6.156116e-03 -7.687144e-03 1.475224e-02 -1.988903e-02 -3.619785e-02 -2.024390e-02 -4.320719e-02 2.117788e-03 -6.806029e-04
<VARIANCE> 39
 4.176336e+01 8.854079e+01 2.632528e+01 3.919551e+01 6.577696e+01 3.759313e+01 6.626081e+01 8.120811e+01 3.627620e+01 3.506682e+01 2.683065e+01 6.000697e+01 4.223084e-02 1.669353e+00 3.589900e+00 1.121231e+00 1.928972e+00 4.123470e+00 2.605385e+00 1.842333e+00 4.088630e+00 3.650647e+00 2.814836e+00 3.022895e+00 4.933809e+00 1.092499e-03 2.585781e-01 3.635451e-01 1.545210e-01 2.080357e-01 6.916631e-01 3.981814e-01 2.101787e-01 4.869292e-01 6.992126e-01 5.830330e-01 5.741081e-01 8.734341e-01 1.038825e-04
<GCONST> 9.964101e+01
<STATE> 5
<MEAN> 39
 -3.831727e-07 -3.916877e-07 2.980232e-08 -8.855547e-07 -4.172325e-07 -2.895083e-07 -4.427773e-07 -1.362392e-07 -7.237707e-08 5.534717e-08 1.192093e-07 2.001013e-07 7.609395e-01 2.901410e-01 -2.084700e-01 -6.090822e-02 1.626732e-01 -8.435829e-02 2.428183e-01 1.319095e-03 -3.189414e-01 -3.313994e-02 -2.229139e-01 -4.003911e-03 -5.807710e-02 -2.373683e-03 1.427047e-02 1.132522e-02 2.208838e-03 2.528239e-02 -6.156116e-03 -7.687144e-03 1.475224e-02 -1.988903e-02 -3.619785e-02 -2.024390e-02 -4.320719e-02 2.117788e-03 -6.806029e-04
<VARIANCE> 39
 4.176336e+01 8.854079e+01 2.632528e+01 3.919551e+01 6.577696e+01 3.759313e+01 6.626081e+01 8.120811e+01 3.627620e+01 3.506682e+01 2.683065e+01 6.000697e+01 4.223084e-02 1.669353e+00 3.589900e+00 1.121231e+00 1.928972e+00 4.123470e+00 2.605385e+00 1.842333e+00 4.088630e+00 3.650647e+00 2.814836e+00 3.022895e+00 4.933809e+00 1.092499e-03 2.585781e-01 3.635451e-01 1.545210e-01 2.080357e-01 6.916631e-01 3.981814e-01 2.101787e-01 4.869292e-01 6.992126e-01 5.830330e-01 5.741081e-01 8.734341e-01 1.038825e-04
<GCONST> 9.964101e+01
<STATE> 6
<MEAN> 39
 -3.831727e-07 -3.916877e-07 2.980232e-08 -8.855547e-07 -4.172325e-07 -2.895083e-07 -4.427773e-07 -1.362392e-07 -7.237707e-08 5.534717e-08 1.192093e-07 2.001013e-07 7.609395e-01 2.901410e-01 -2.084700e-01 -6.090822e-02 1.626732e-01 -8.435829e-02 2.428183e-01 1.319095e-03 -3.189414e-01 -3.313994e-02 -2.229139e-01 -4.003911e-03 -5.807710e-02 -2.373683e-03 1.427047e-02 1.132522e-02 2.208838e-03 2.528239e-02 -6.156116e-03 -7.687144e-03 1.475224e-02 -1.988903e-02 -3.619785e-02 -2.024390e-02 -4.320719e-02 2.117788e-03 -6.806029e-04
<VARIANCE> 39
 4.176336e+01 8.854079e+01 2.632528e+01 3.919551e+01 6.577696e+01 3.759313e+01 6.626081e+01 8.120811e+01 3.627620e+01 3.506682e+01 2.683065e+01 6.000697e+01 4.223084e-02 1.669353e+00 3.589900e+00 1.121231e+00 1.928972e+00 4.123470e+00 2.605385e+00 1.842333e+00 4.088630e+00 3.650647e+00 2.814836e+00 3.022895e+00 4.933809e+00 1.092499e-03 2.585781e-01 3.635451e-01 1.545210e-01 2.080357e-01 6.916631e-01 3.981814e-01 2.101787e-01 4.869292e-01 6.992126e-01 5.830330e-01 5.741081e-01 8.734341e-01 1.038825e-04
<GCONST> 9.964101e+01
<STATE> 7
<MEAN> 39
 -3.831727e-07 -3.916877e-07 2.980232e-08 -8.855547e-07 -4.172325e-07 -2.895083e-07 -4.427773e-07 -1.362392e-07 -7.237707e-08 5.534717e-08 1.192093e-07 2.001013e-07 7.609395e-01 2.901410e-01 -2.084700e-01 -6.090822e-02 1.626732e-01 -8.435829e-02 2.428183e-01 1.319095e-03 -3.189414e-01 -3.313994e-02 -2.229139e-01 -4.003911e-03 -5.807710e-02 -2.373683e-03 1.427047e-02 1.132522e-02 2.208838e-03 2.528239e-02 -6.156116e-03 -7.687144e-03 1.475224e-02 -1.988903e-02 -3.619785e-02 -2.024390e-02 -4.320719e-02 2.117788e-03 -6.806029e-04
<VARIANCE> 39
 4.176336e+01 8.854079e+01 2.632528e+01 3.919551e+01 6.577696e+01 3.759313e+01 6.626081e+01 8.120811e+01 3.627620e+01 3.506682e+01 2.683065e+01 6.000697e+01 4.223084e-02 1.669353e+00 3.589900e+00 1.121231e+00 1.928972e+00 4.123470e+00 2.605385e+00 1.842333e+00 4.088630e+00 3.650647e+00 2.814836e+00 3.022895e+00 4.933809e+00 1.092499e-03 2.585781e-01 3.635451e-01 1.545210e-01 2.080357e-01 6.916631e-01 3.981814e-01 2.101787e-01 4.869292e-01 6.992126e-01 5.830330e-01 5.741081e-01 8.734341e-01 1.038825e-04
<GCONST> 9.964101e+01
<STATE> 8
<MEAN> 39
 -3.831727e-07 -3.916877e-07 2.980232e-08 -8.855547e-07 -4.172325e-07 -2.895083e-07 -4.427773e-07 -1.362392e-07 -7.237707e-08 5.534717e-08 1.192093e-07 2.001013e-07 7.609395e-01 2.901410e-01 -2.084700e-01 -6.090822e-02 1.626732e-01 -8.435829e-02 2.428183e-01 1.319095e-03 -3.189414e-01 -3.313994e-02 -2.229139e-01 -4.003911e-03 -5.807710e-02 -2.373683e-03 1.427047e-02 1.132522e-02 2.208838e-03 2.528239e-02 -6.156116e-03 -7.687144e-03 1.475224e-02 -1.988903e-02 -3.619785e-02 -2.024390e-02 -4.320719e-02 2.117788e-03 -6.806029e-04
<VARIANCE> 39
 4.176336e+01 8.854079e+01 2.632528e+01 3.919551e+01 6.577696e+01 3.759313e+01 6.626081e+01 8.120811e+01 3.627620e+01 3.506682e+01 2.683065e+01 6.000697e+01 4.223084e-02 1.669353e+00 3.589900e+00 1.121231e+00 1.928972e+00 4.123470e+00 2.605385e+00 1.842333e+00 4.088630e+00 3.650647e+00 2.814836e+00 3.022895e+00 4.933809e+00 1.092499e-03 2.585781e-01 3.635451e-01 1.545210e-01 2.080357e-01 6.916631e-01 3.981814e-01 2.101787e-01 4.869292e-01 6.992126e-01 5.830330e-01 5.741081e-01 8.734341e-01 1.038825e-04
<GCONST> 9.964101e+01
<STATE> 9
<MEAN> 39
 -3.831727e-07 -3.916877e-07 2.980232e-08 -8.855547e-07 -4.172325e-07 -2.895083e-07 -4.427773e-07 -1.362392e-07 -7.237707e-08 5.534717e-08 1.192093e-07 2.001013e-07 7.609395e-01 2.901410e-01 -2.084700e-01 -6.090822e-02 1.626732e-01 -8.435829e-02 2.428183e-01 1.319095e-03 -3.189414e-01 -3.313994e-02 -2.229139e-01 -4.003911e-03 -5.807710e-02 -2.373683e-03 1.427047e-02 1.132522e-02 2.208838e-03 2.528239e-02 -6.156116e-03 -7.687144e-03 1.475224e-02 -1.988903e-02 -3.619785e-02 -2.024390e-02 -4.320719e-02 2.117788e-03 -6.806029e-04
<VARIANCE> 39
 4.176336e+01 8.854079e+01 2.632528e+01 3.919551e+01 6.577696e+01 3.759313e+01 6.626081e+01 8.120811e+01 3.627620e+01 3.506682e+01 2.683065e+01 6.000697e+01 4.223084e-02 1.669353e+00 3.589900e+00 1.121231e+00 1.928972e+00 4.123470e+00 2.605385e+00 1.842333e+00 4.088630e+00 3.650647e+00 2.814836e+00 3.022895e+00 4.933809e+00 1.092499e-03 2.585781e-01 3.635451e-01 1.545210e-01 2.080357e-01 6.916631e-01 3.981814e-01 2.101787e-01 4.869292e-01 6.992126e-01 5.830330e-01 5.741081e-01 8.734341e-01 1.038825e-04
<GCONST> 9.964101e+01
<TRANSP> 10
 0.000000e+00 1.000000e+00 0.000000e+00 0.000000e+00 0.000000e+00 0.000000e+00 0.000000e+00 0.000000e+00 0.000000e+00 0.000000e+00
 0.000000e+00 9.000000e-01 9.999999e-02 0.000000e+00 0.000000e+00 0.000000e+00 0.000000e+00 0.000000e+00 0.000000e+00 0.000000e+00
 0.000000e+00 0.000000e+00 9.000000e-01 9.999999e-02 0.000000e+00 0.000000e+00 0.000000e+00 0.000000e+00 0.000000e+00 0.000000e+00
 0.000000e+00 0.000000e+00 0.000000e+00 9.000000e-01 9.999999e-02 0.000000e+00 0.000000e+00 0.000000e+00 0.000000e+00 0.000000e+00
 0.000000e+00 0.000000e+00 0.000000e+00 0.000000e+00 9.000000e-01 9.999999e-02 0.000000e+00 0.000000e+00 0.000000e+00 0.000000e+00
 0.000000e+00 0.000000e+00 0.000000e+00 0.000000e+00 0.000000e+00 9.000000e-01 9.999999e-02 0.000000e+00 0.000000e+00 0.000000e+00
 0.000000e+00 0.000000e+00 0.000000e+00 0.000000e+00 0.000000e+00 0.000000e+00 9.000000e-01 9.999999e-02 0.000000e+00 0.000000e+00
 0.000000e+00 0.000000e+00 0.000000e+00 0.000000e+00 0.000000e+00 0.000000e+00 0.000000e+00 9.000000e-01 9.999999e-02 0.000000e+00
 0.000000e+00 0.000000e+00 0.000000e+00 0.000000e+00 0.000000e+00 0.000000e+00 0.000000e+00 0.000000e+00 9.000000e-01 9.999999e-02
 0.000000e+00 0.000000e+00 0.000000e+00 0.000000e+00 0.000000e+00 0.000000e+00 0.000000e+00 0.000000e+00 0.000000e+00 0.000000e+00
<ENDHMM>
