~o
<STREAMINFO> 1 39
<VECSIZE> 39<NULLD><MFCC_E_D_A_Z><DIAGC>
~h "s021"
<BEGINHMM>
<NUMSTATES> 10
<STATE> 2
<MEAN> 39
 2.249232e-07 -3.868679e-07 -3.598771e-08 9.896620e-07 1.619447e-07 5.128248e-07 3.688740e-07 -1.079631e-07 1.079631e-07 1.619447e-07 -3.148925e-08 2.159263e-07 7.809118e-01 3.154480e-01 -1.815231e-01 -4.877061e-02 2.899800e-02 -8.161596e-02 1.727669e-01 -1.794055e-01 -3.434641e-01 -2.330072e-02 -1.892984e-01 -6.396810e-02 -5.652499e-04 -1.960270e-04 1.595657e-02 3.856227e-03 -8.497888e-03 2.807214e-02 -6.838605e-03 -7.955619e-02 1.619336e-02 -4.873486e-02 -1.024100e-03 -2.150364e-03 -2.305377e-02 -1.275353e-02 -5.712087e-04
<VARIANCE> 39
 3.986580e+01 9.186765e+01 2.697601e+01 3.359873e+01 6.801538e+01 3.739878e+01 6.624198e+01 7.310636e+01 3.472759e+01 3.692910e+01 2.779875e+01 6.573906e+01 3.676420e-02 1.645700e+00 4.053448e+00 1.218957e+00 1.781933e+00 4.641138e+00 3.062153e+00 1.961829e+00 4.115118e+00 3.342790e+00 3.293664e+00 3.210374e+00 4.834974e+00 1.002430e-03 2.573355e-01 4.372089e-01 1.607141e-01 2.609741e-01 7.797078e-01 4.729137e-01 2.737878e-01 4.549186e-01 6.039940e-01 6.633914e-01 6.898059e-01 8.186427e-01 9.984227e-05
<GCONST> 1.009000e+02
<STATE> 3
<MEAN> 39
 2.249232e-07 -3.868679e-07 -3.598771e-08 9.896620e-07 1.619447e-07 5.128248e-07 3.688740e-07 -1.079631e-07 1.079631e-07 1.619447e-07 -3.148925e-08 2.159263e-07 7.809118e-01 3.154480e-01 -1.815231e-01 -4.877061e-02 2.899800e-02 -8.161596e-02 1.727669e-01 -1.794055e-01 -3.434641e-01 -2.330072e-02 -1.892984e-01 -6.396810e-02 -5.652499e-04 -1.960270e-04 1.595657e-02 3.856227e-03 -8.497888e-03 2.807214e-02 -6.838605e-03 -7.955619e-02 1.619336e-02 -4.873486e-02 -1.024100e-03 -2.150364e-03 -2.305377e-02 -1.275353e-02 -5.712087e-04
<VARIANCE> 39
 3.986580e+01 9.186765e+01 2.697601e+01 3.359873e+01 6.801538e+01 3.739878e+01 6.624198e+01 7.310636e+01 3.472759e+01 3.692910e+01 2.779875e+01 6.573906e+01 3.676420e-02 1.645700e+00 4.053448e+00 1.218957e+00 1.781933e+00 4.641138e+00 3.062153e+00 1.961829e+00 4.115118e+00 3.342790e+00 3.293664e+00 3.210374e+00 4.834974e+00 1.002430e-03 2.573355e-01 4.372089e-01 1.607141e-01 2.609741e-01 7.797078e-01 4.729137e-01 2.737878e-01 4.549186e-01 6.039940e-01 6.633914e-01 6.898059e-01 8.186427e-01 9.984227e-05
<GCONST> 1.009000e+02
<STATE> 4
<MEAN> 39
 2.249232e-07 -3.868679e-07 -3.598771e-08 9.896620e-07 1.619447e-07 5.128248e-07 3.688740e-07 -1.079631e-07 1.079631e-07 1.619447e-07 -3.148925e-08 2.159263e-07 7.809118e-01 3.154480e-01 -1.815231e-01 -4.877061e-02 2.899800e-02 -8.161596e-02 1.727669e-01 -1.794055e-01 -3.434641e-01 -2.330072e-02 -1.892984e-01 -6.396810e-02 -5.652499e-04 -1.960270e-04 1.595657e-02 3.856227e-03 -8.497888e-03 2.807214e-02 -6.838605e-03 -7.955619e-02 1.619336e-02 -4.873486e-02 -1.024100e-03 -2.150364e-03 -2.305377e-02 -1.275353e-02 -5.712087e-04
<VARIANCE> 39
 3.986580e+01 9.186765e+01 2.697601e+01 3.359873e+01 6.801538e+01 3.739878e+01 6.624198e+01 7.310636e+01 3.472759e+01 3.692910e+01 2.779875e+01 6.573906e+01 3.676420e-02 1.645700e+00 4.053448e+00 1.218957e+00 1.781933e+00 4.641138e+00 3.062153e+00 1.961829e+00 4.115118e+00 3.342790e+00 3.293664e+00 3.210374e+00 4.834974e+00 1.002430e-03 2.573355e-01 4.372089e-01 1.607141e-01 2.609741e-01 7.797078e-01 4.729137e-01 2.737878e-01 4.549186e-01 6.039940e-01 6.633914e-01 6.898059e-01 8.186427e-01 9.984227e-05
<GCONST> 1.009000e+02
<STATE> 5
<MEAN> 39
 2.249232e-07 -3.868679e-07 -3.598771e-08 9.896620e-07 1.619447e-07 5.128248e-07 3.688740e-07 -1.079631e-07 1.079631e-07 1.619447e-07 -3.148925e-08 2.159263e-07 7.809118e-01 3.154480e-01 -1.815231e-01 -4.877061e-02 2.899800e-02 -8.161596e-02 1.727669e-01 -1.794055e-01 -3.434641e-01 -2.330072e-02 -1.892984e-01 -6.396810e-02 -5.652499e-04 -1.960270e-04 1.595657e-02 3.856227e-03 -8.497888e-03 2.807214e-02 -6.838605e-03 -7.955619e-02 1.619336e-02 -4.873486e-02 -1.024100e-03 -2.150364e-03 -2.305377e-02 -1.275353e-02 -5.712087e-04
<VARIANCE> 39
 3.986580e+01 9.186765e+01 2.697601e+01 3.359873e+01 6.801538e+01 3.739878e+01 6.624198e+01 7.310636e+01 3.472759e+01 3.692910e+01 2.779875e+01 6.573906e+01 3.676420e-02 1.645700e+00 4.053448e+00 1.218957e+00 1.781933e+00 4.641138e+00 3.062153e+00 1.961829e+00 4.115118e+00 3.342790e+00 3.293664e+00 3.210374e+00 4.834974e+00 1.002430e-03 2.573355e-01 4.372089e-01 1.607141e-01 2.609741e-01 7.797078e-01 4.729137e-01 2.737878e-01 4.549186e-01 6.039940e-01 6.633914e-01 6.898059e-01 8.186427e-01 9.984227e-05
<GCONST> 1.009000e+02
<STATE> 6
<MEAN> 39
 2.249232e-07 -3.868679e-07 -3.598771e-08 9.896620e-07 1.619447e-07 5.128248e-07 3.688740e-07 -1.079631e-07 1.079631e-07 1.619447e-07 -3.148925e-08 2.159263e-07 7.809118e-01 3.154480e-01 -1.815231e-01 -4.877061e-02 2.899800e-02 -8.161596e-02 1.727669e-01 -1.794055e-01 -3.434641e-01 -2.330072e-02 -1.892984e-01 -6.396810e-02 -5.652499e-04 -1.960270e-04 1.595657e-02 3.856227e-03 -8.497888e-03 2.807214e-02 -6.838605e-03 -7.955619e-02 1.619336e-02 -4.873486e-02 -1.024100e-03 -2.150364e-03 -2.305377e-02 -1.275353e-02 -5.712087e-04
<VARIANCE> 39
 3.986580e+01 9.186765e+01 2.697601e+01 3.359873e+01 6.801538e+01 3.739878e+01 6.624198e+01 7.310636e+01 3.472759e+01 3.692910e+01 2.779875e+01 6.573906e+01 3.676420e-02 1.645700e+00 4.053448e+00 1.218957e+00 1.781933e+00 4.641138e+00 3.062153e+00 1.961829e+00 4.115118e+00 3.342790e+00 3.293664e+00 3.210374e+00 4.834974e+00 1.002430e-03 2.573355e-01 4.372089e-01 1.607141e-01 2.609741e-01 7.797078e-01 4.729137e-01 2.737878e-01 4.549186e-01 6.039940e-01 6.633914e-01 6.898059e-01 8.186427e-01 9.984227e-05
<GCONST> 1.009000e+02
<STATE> 7
<MEAN> 39
 2.249232e-07 -3.868679e-07 -3.598771e-08 9.896620e-07 1.619447e-07 5.128248e-07 3.688740e-07 -1.079631e-07 1.079631e-07 1.619447e-07 -3.148925e-08 2.159263e-07 7.809118e-01 3.154480e-01 -1.815231e-01 -4.877061e-02 2.899800e-02 -8.161596e-02 1.727669e-01 -1.794055e-01 -3.434641e-01 -2.330072e-02 -1.892984e-01 -6.396810e-02 -5.652499e-04 -1.960270e-04 1.595657e-02 3.856227e-03 -8.497888e-03 2.807214e-02 -6.838605e-03 -7.955619e-02 1.619336e-02 -4.873486e-02 -1.024100e-03 -2.150364e-03 -2.305377e-02 -1.275353e-02 -5.712087e-04
<VARIANCE> 39
 3.986580e+01 9.186765e+01 2.697601e+01 3.359873e+01 6.801538e+01 3.739878e+01 6.624198e+01 7.310636e+01 3.472759e+01 3.692910e+01 2.779875e+01 6.573906e+01 3.676420e-02 1.645700e+00 4.053448e+00 1.218957e+00 1.781933e+00 4.641138e+00 3.062153e+00 1.961829e+00 4.115118e+00 3.342790e+00 3.293664e+00 3.210374e+00 4.834974e+00 1.002430e-03 2.573355e-01 4.372089e-01 1.607141e-01 2.609741e-01 7.797078e-01 4.729137e-01 2.737878e-01 4.549186e-01 6.039940e-01 6.633914e-01 6.898059e-01 8.186427e-01 9.984227e-05
<GCONST> 1.009000e+02
<STATE> 8
<MEAN> 39
 2.249232e-07 -3.868679e-07 -3.598771e-08 9.896620e-07 1.619447e-07 5.128248e-07 3.688740e-07 -1.079631e-07 1.079631e-07 1.619447e-07 -3.148925e-08 2.159263e-07 7.809118e-01 3.154480e-01 -1.815231e-01 -4.877061e-02 2.899800e-02 -8.161596e-02 1.727669e-01 -1.794055e-01 -3.434641e-01 -2.330072e-02 -1.892984e-01 -6.396810e-02 -5.652499e-04 -1.960270e-04 1.595657e-02 3.856227e-03 -8.497888e-03 2.807214e-02 -6.838605e-03 -7.955619e-02 1.619336e-02 -4.873486e-02 -1.024100e-03 -2.150364e-03 -2.305377e-02 -1.275353e-02 -5.712087e-04
<VARIANCE> 39
 3.986580e+01 9.186765e+01 2.697601e+01 3.359873e+01 6.801538e+01 3.739878e+01 6.624198e+01 7.310636e+01 3.472759e+01 3.692910e+01 2.779875e+01 6.573906e+01 3.676420e-02 1.645700e+00 4.053448e+00 1.218957e+00 1.781933e+00 4.641138e+00 3.062153e+00 1.961829e+00 4.115118e+00 3.342790e+00 3.293664e+00 3.210374e+00 4.834974e+00 1.002430e-03 2.573355e-01 4.372089e-01 1.607141e-01 2.609741e-01 7.797078e-01 4.729137e-01 2.737878e-01 4.549186e-01 6.039940e-01 6.633914e-01 6.898059e-01 8.186427e-01 9.984227e-05
<GCONST> 1.009000e+02
<STATE> 9
<MEAN> 39
 2.249232e-07 -3.868679e-07 -3.598771e-08 9.896620e-07 1.619447e-07 5.128248e-07 3.688740e-07 -1.079631e-07 1.079631e-07 1.619447e-07 -3.148925e-08 2.159263e-07 7.809118e-01 3.154480e-01 -1.815231e-01 -4.877061e-02 2.899800e-02 -8.161596e-02 1.727669e-01 -1.794055e-01 -3.434641e-01 -2.330072e-02 -1.892984e-01 -6.396810e-02 -5.652499e-04 -1.960270e-04 1.595657e-02 3.856227e-03 -8.497888e-03 2.807214e-02 -6.838605e-03 -7.955619e-02 1.619336e-02 -4.873486e-02 -1.024100e-03 -2.150364e-03 -2.305377e-02 -1.275353e-02 -5.712087e-04
<VARIANCE> 39
 3.986580e+01 9.186765e+01 2.697601e+01 3.359873e+01 6.801538e+01 3.739878e+01 6.624198e+01 7.310636e+01 3.472759e+01 3.692910e+01 2.779875e+01 6.573906e+01 3.676420e-02 1.645700e+00 4.053448e+00 1.218957e+00 1.781933e+00 4.641138e+00 3.062153e+00 1.961829e+00 4.115118e+00 3.342790e+00 3.293664e+00 3.210374e+00 4.834974e+00 1.002430e-03 2.573355e-01 4.372089e-01 1.607141e-01 2.609741e-01 7.797078e-01 4.729137e-01 2.737878e-01 4.549186e-01 6.039940e-01 6.633914e-01 6.898059e-01 8.186427e-01 9.984227e-05
<GCONST> 1.009000e+02
<TRANSP> 10
 0.000000e+00 1.000000e+00 0.000000e+00 0.000000e+00 0.000000e+00 0.000000e+00 0.000000e+00 0.000000e+00 0.000000e+00 0.000000e+00
 0.000000e+00 9.000000e-01 9.999999e-02 0.000000e+00 0.000000e+00 0.000000e+00 0.000000e+00 0.000000e+00 0.000000e+00 0.000000e+00
 0.000000e+00 0.000000e+00 9.000000e-01 9.999999e-02 0.000000e+00 0.000000e+00 0.000000e+00 0.000000e+00 0.000000e+00 0.000000e+00
 0.000000e+00 0.000000e+00 0.000000e+00 9.000000e-01 9.999999e-02 0.000000e+00 0.000000e+00 0.000000e+00 0.000000e+00 0.000000e+00
 0.000000e+00 0.000000e+00 0.000000e+00 0.000000e+00 9.000000e-01 9.999999e-02 0.000000e+00 0.000000e+00 0.000000e+00 0.000000e+00
 0.000000e+00 0.000000e+00 0.000000e+00 0.000000e+00 0.000000e+00 9.000000e-01 9.999999e-02 0.000000e+00 0.000000e+00 0.000000e+00
 0.000000e+00 0.000000e+00 0.000000e+00 0.000000e+00 0.000000e+00 0.000000e+00 9.000000e-01 9.999999e-02 0.000000e+00 0.000000e+00
 0.000000e+00 0.000000e+00 0.000000e+00 0.000000e+00 0.000000e+00 0.000000e+00 0.000000e+00 9.000000e-01 9.999999e-02 0.000000e+00
 0.000000e+00 0.000000e+00 0.000000e+00 0.000000e+00 0.000000e+00 0.000000e+00 0.000000e+00 0.000000e+00 9.000000e-01 9.999999e-02
 0.000000e+00 0.000000e+00 0.000000e+00 0.000000e+00 0.000000e+00 0.000000e+00 0.000000e+00 0.000000e+00 0.000000e+00 0.000000e+00
<ENDHMM>
