~o
<STREAMINFO> 1 39
<VECSIZE> 39<NULLD><MFCC_E_D_A_Z><DIAGC>
~h "s024"
<BEGINHMM>
<NUMSTATES> 10
<STATE> 2
<MEAN> 39
 -6.577064e-08 -8.221330e-07 3.124105e-07 8.221330e-07 1.233199e-07 -1.644266e-07 -1.808693e-07 8.221330e-08 2.384186e-07 3.946239e-07 2.301972e-07 -4.932798e-07 8.241941e-01 1.451838e-01 -2.194515e-01 -3.131732e-01 1.384109e-01 8.362928e-02 -5.046715e-03 1.310916e-01 -1.453637e-01 8.448848e-02 -3.364995e-01 -5.123380e-02 -1.286503e-03 1.663829e-03 1.093786e-02 -1.098366e-03 -2.691364e-02 4.267508e-02 3.467480e-02 2.230411e-02 -1.311170e-02 -6.366664e-02 -2.318919e-02 6.046014e-02 -3.219582e-02 4.378285e-02 -8.694766e-04
<VARIANCE> 39
 1.630461e+01 1.157086e+02 1.003407e+02 8.814736e+01 3.605739e+01 5.100790e+01 1.143642e+02 6.503017e+01 4.340536e+01 6.523129e+01 3.061267e+01 5.182113e+01 1.749430e-02 5.424083e-01 1.410645e+00 2.109736e+00 3.351634e+00 3.444617e+00 3.832981e+00 3.132739e+00 3.038088e+00 4.399436e+00 3.315306e+00 3.727730e+00 2.970546e+00 1.448960e-03 8.273422e-02 1.759246e-01 2.728668e-01 5.803359e-01 6.035536e-01 5.140043e-01 2.994140e-01 5.230567e-01 7.798316e-01 5.388992e-01 7.630329e-01 4.715085e-01 1.851906e-04
<GCONST> 1.014996e+02
<STATE> 3
<MEAN> 39
 -6.577064e-08 -8.221330e-07 3.124105e-07 8.221330e-07 1.233199e-07 -1.644266e-07 -1.808693e-07 8.221330e-08 2.384186e-07 3.946239e-07 2.301972e-07 -4.932798e-07 8.241941e-01 1.451838e-01 -2.194515e-01 -3.131732e-01 1.384109e-01 8.362928e-02 -5.046715e-03 1.310916e-01 -1.453637e-01 8.448848e-02 -3.364995e-01 -5.123380e-02 -1.286503e-03 1.663829e-03 1.093786e-02 -1.098366e-03 -2.691364e-02 4.267508e-02 3.467480e-02 2.230411e-02 -1.311170e-02 -6.366664e-02 -2.318919e-02 6.046014e-02 -3.219582e-02 4.378285e-02 -8.694766e-04
<VARIANCE> 39
 1.630461e+01 1.157086e+02 1.003407e+02 8.814736e+01 3.605739e+01 5.100790e+01 1.143642e+02 6.503017e+01 4.340536e+01 6.523129e+01 3.061267e+01 5.182113e+01 1.749430e-02 5.424083e-01 1.410645e+00 2.109736e+00 3.351634e+00 3.444617e+00 3.832981e+00 3.132739e+00 3.038088e+00 4.399436e+00 3.315306e+00 3.727730e+00 2.970546e+00 1.448960e-03 8.273422e-02 1.759246e-01 2.728668e-01 5.803359e-01 6.035536e-01 5.140043e-01 2.994140e-01 5.230567e-01 7.798316e-01 5.388992e-01 7.630329e-01 4.715085e-01 1.851906e-04
<GCONST> 1.014996e+02
<STATE> 4
<MEAN> 39
 -6.577064e-08 -8.221330e-07 3.124105e-07 8.221330e-07 1.233199e-07 -1.644266e-07 -1.808693e-07 8.221330e-08 2.384186e-07 3.946239e-07 2.301972e-07 -4.932798e-07 8.241941e-01 1.451838e-01 -2.194515e-01 -3.131732e-01 1.384109e-01 8.362928e-02 -5.046715e-03 1.310916e-01 -1.453637e-01 8.448848e-02 -3.364995e-01 -5.123380e-02 -1.286503e-03 1.663829e-03 1.093786e-02 -1.098366e-03 -2.691364e-02 4.267508e-02 3.467480e-02 2.230411e-02 -1.311170e-02 -6.366664e-02 -2.318919e-02 6.046014e-02 -3.219582e-02 4.378285e-02 -8.694766e-04
<VARIANCE> 39
 1.630461e+01 1.157086e+02 1.003407e+02 8.814736e+01 3.605739e+01 5.100790e+01 1.143642e+02 6.503017e+01 4.340536e+01 6.523129e+01 3.061267e+01 5.182113e+01 1.749430e-02 5.424083e-01 1.410645e+00 2.109736e+00 3.351634e+00 3.444617e+00 3.832981e+00 3.132739e+00 3.038088e+00 4.399436e+00 3.315306e+00 3.727730e+00 2.970546e+00 1.448960e-03 8.273422e-02 1.759246e-01 2.728668e-01 5.803359e-01 6.035536e-01 5.140043e-01 2.994140e-01 5.230567e-01 7.798316e-01 5.388992e-01 7.630329e-01 4.715085e-01 1.851906e-04
<GCONST> 1.014996e+02
<STATE> 5
<MEAN> 39
 -6.577064e-08 -8.221330e-07 3.124105e-07 8.221330e-07 1.233199e-07 -1.644266e-07 -1.808693e-07 8.221330e-08 2.384186e-07 3.946239e-07 2.301972e-07 -4.932798e-07 8.241941e-01 1.451838e-01 -2.194515e-01 -3.131732e-01 1.384109e-01 8.362928e-02 -5.046715e-03 1.310916e-01 -1.453637e-01 8.448848e-02 -3.364995e-01 -5.123380e-02 -1.286503e-03 1.663829e-03 1.093786e-02 -1.098366e-03 -2.691364e-02 4.267508e-02 3.467480e-02 2.230411e-02 -1.311170e-02 -6.366664e-02 -2.318919e-02 6.046014e-02 -3.219582e-02 4.378285e-02 -8.694766e-04
<VARIANCE> 39
 1.630461e+01 1.157086e+02 1.003407e+02 8.814736e+01 3.605739e+01 5.100790e+01 1.143642e+02 6.503017e+01 4.340536e+01 6.523129e+01 3.061267e+01 5.182113e+01 1.749430e-02 5.424083e-01 1.410645e+00 2.109736e+00 3.351634e+00 3.444617e+00 3.832981e+00 3.132739e+00 3.038088e+00 4.399436e+00 3.315306e+00 3.727730e+00 2.970546e+00 1.448960e-03 8.273422e-02 1.759246e-01 2.728668e-01 5.803359e-01 6.035536e-01 5.140043e-01 2.994140e-01 5.230567e-01 7.798316e-01 5.388992e-01 7.630329e-01 4.715085e-01 1.851906e-04
<GCONST> 1.014996e+02
<STATE> 6
<MEAN> 39
 -6.577064e-08 -8.221330e-07 3.124105e-07 8.221330e-07 1.233199e-07 -1.644266e-07 -1.808693e-07 8.221330e-08 2.384186e-07 3.946239e-07 2.301972e-07 -4.932798e-07 8.241941e-01 1.451838e-01 -2.194515e-01 -3.131732e-01 1.384109e-01 8.362928e-02 -5.046715e-03 1.310916e-01 -1.453637e-01 8.448848e-02 -3.364995e-01 -5.123380e-02 -1.286503e-03 1.663829e-03 1.093786e-02 -1.098366e-03 -2.691364e-02 4.267508e-02 3.467480e-02 2.230411e-02 -1.311170e-02 -6.366664e-02 -2.318919e-02 6.046014e-02 -3.219582e-02 4.378285e-02 -8.694766e-04
<VARIANCE> 39
 1.630461e+01 1.157086e+02 1.003407e+02 8.814736e+01 3.605739e+01 5.100790e+01 1.143642e+02 6.503017e+01 4.340536e+01 6.523129e+01 3.061267e+01 5.182113e+01 1.749430e-02 5.424083e-01 1.410645e+00 2.109736e+00 3.351634e+00 3.444617e+00 3.832981e+00 3.132739e+00 3.038088e+00 4.399436e+00 3.315306e+00 3.727730e+00 2.970546e+00 1.448960e-03 8.273422e-02 1.759246e-01 2.728668e-01 5.803359e-01 6.035536e-01 5.140043e-01 2.994140e-01 5.230567e-01 7.798316e-01 5.388992e-01 7.630329e-01 4.715085e-01 1.851906e-04
<GCONST> 1.014996e+02
<STATE> 7
<MEAN> 39
 -6.577064e-08 -8.221330e-07 3.124105e-07 8.221330e-07 1.233199e-07 -1.644266e-07 -1.808693e-07 8.221330e-08 2.384186e-07 3.946239e-07 2.301972e-07 -4.932798e-07 8.241941e-01 1.451838e-01 -2.194515e-01 -3.131732e-01 1.384109e-01 8.362928e-02 -5.046715e-03 1.310916e-01 -1.453637e-01 8.448848e-02 -3.364995e-01 -5.123380e-02 -1.286503e-03 1.663829e-03 1.093786e-02 -1.098366e-03 -2.691364e-02 4.267508e-02 3.467480e-02 2.230411e-02 -1.311170e-02 -6.366664e-02 -2.318919e-02 6.046014e-02 -3.219582e-02 4.378285e-02 -8.694766e-04
<VARIANCE> 39
 1.630461e+01 1.157086e+02 1.003407e+02 8.814736e+01 3.605739e+01 5.100790e+01 1.143642e+02 6.503017e+01 4.340536e+01 6.523129e+01 3.061267e+01 5.182113e+01 1.749430e-02 5.424083e-01 1.410645e+00 2.109736e+00 3.351634e+00 3.444617e+00 3.832981e+00 3.132739e+00 3.038088e+00 4.399436e+00 3.315306e+00 3.727730e+00 2.970546e+00 1.448960e-03 8.273422e-02 1.759246e-01 2.728668e-01 5.803359e-01 6.035536e-01 5.140043e-01 2.994140e-01 5.230567e-01 7.798316e-01 5.388992e-01 7.630329e-01 4.715085e-01 1.851906e-04
<GCONST> 1.014996e+02
<STATE> 8
<MEAN> 39
 -6.577064e-08 -8.221330e-07 3.124105e-07 8.221330e-07 1.233199e-07 -1.644266e-07 -1.808693e-07 8.221330e-08 2.384186e-07 3.946239e-07 2.301972e-07 -4.932798e-07 8.241941e-01 1.451838e-01 -2.194515e-01 -3.131732e-01 1.384109e-01 8.362928e-02 -5.046715e-03 1.310916e-01 -1.453637e-01 8.448848e-02 -3.364995e-01 -5.123380e-02 -1.286503e-03 1.663829e-03 1.093786e-02 -1.098366e-03 -2.691364e-02 4.267508e-02 3.467480e-02 2.230411e-02 -1.311170e-02 -6.366664e-02 -2.318919e-02 6.046014e-02 -3.219582e-02 4.378285e-02 -8.694766e-04
<VARIANCE> 39
 1.630461e+01 1.157086e+02 1.003407e+02 8.814736e+01 3.605739e+01 5.100790e+01 1.143642e+02 6.503017e+01 4.340536e+01 6.523129e+01 3.061267e+01 5.182113e+01 1.749430e-02 5.424083e-01 1.410645e+00 2.109736e+00 3.351634e+00 3.444617e+00 3.832981e+00 3.132739e+00 3.038088e+00 4.399436e+00 3.315306e+00 3.727730e+00 2.970546e+00 1.448960e-03 8.273422e-02 1.759246e-01 2.728668e-01 5.803359e-01 6.035536e-01 5.140043e-01 2.994140e-01 5.230567e-01 7.798316e-01 5.388992e-01 7.630329e-01 4.715085e-01 1.851906e-04
<GCONST> 1.014996e+02
<STATE> 9
<MEAN> 39
 -6.577064e-08 -8.221330e-07 3.124105e-07 8.221330e-07 1.233199e-07 -1.644266e-07 -1.808693e-07 8.221330e-08 2.384186e-07 3.946239e-07 2.301972e-07 -4.932798e-07 8.241941e-01 1.451838e-01 -2.194515e-01 -3.131732e-01 1.384109e-01 8.362928e-02 -5.046715e-03 1.310916e-01 -1.453637e-01 8.448848e-02 -3.364995e-01 -5.123380e-02 -1.286503e-03 1.663829e-03 1.093786e-02 -1.098366e-03 -2.691364e-02 4.267508e-02 3.467480e-02 2.230411e-02 -1.311170e-02 -6.366664e-02 -2.318919e-02 6.046014e-02 -3.219582e-02 4.378285e-02 -8.694766e-04
<VARIANCE> 39
 1.630461e+01 1.157086e+02 1.003407e+02 8.814736e+01 3.605739e+01 5.100790e+01 1.143642e+02 6.503017e+01 4.340536e+01 6.523129e+01 3.061267e+01 5.182113e+01 1.749430e-02 5.424083e-01 1.410645e+00 2.109736e+00 3.351634e+00 3.444617e+00 3.832981e+00 3.132739e+00 3.038088e+00 4.399436e+00 3.315306e+00 3.727730e+00 2.970546e+00 1.448960e-03 8.273422e-02 1.759246e-01 2.728668e-01 5.803359e-01 6.035536e-01 5.140043e-01 2.994140e-01 5.230567e-01 7.798316e-01 5.388992e-01 7.630329e-01 4.715085e-01 1.851906e-04
<GCONST> 1.014996e+02
<TRANSP> 10
 0.000000e+00 1.000000e+00 0.000000e+00 0.000000e+00 0.000000e+00 0.000000e+00 0.000000e+00 0.000000e+00 0.000000e+00 0.000000e+00
 0.000000e+00 9.000000e-01 9.999999e-02 0.000000e+00 0.000000e+00 0.000000e+00 0.000000e+00 0.000000e+00 0.000000e+00 0.000000e+00
 0.000000e+00 0.000000e+00 9.000000e-01 9.999999e-02 0.000000e+00 0.000000e+00 0.000000e+00 0.000000e+00 0.000000e+00 0.000000e+00
 0.000000e+00 0.000000e+00 0.000000e+00 9.000000e-01 9.999999e-02 0.000000e+00 0.000000e+00 0.000000e+00 0.000000e+00 0.000000e+00
 0.000000e+00 0.000000e+00 0.000000e+00 0.000000e+00 9.000000e-01 9.999999e-02 0.000000e+00 0.000000e+00 0.000000e+00 0.000000e+00
 0.000000e+00 0.000000e+00 0.000000e+00 0.000000e+00 0.000000e+00 9.000000e-01 9.999999e-02 0.000000e+00 0.000000e+00 0.000000e+00
 0.000000e+00 0.000000e+00 0.000000e+00 0.000000e+00 0.000000e+00 0.000000e+00 9.000000e-01 9.999999e-02 0.000000e+00 0.000000e+00
 0.000000e+00 0.000000e+00 0.000000e+00 0.000000e+00 0.000000e+00 0.000000e+00 0.000000e+00 9.000000e-01 9.999999e-02 0.000000e+00
 0.000000e+00 0.000000e+00 0.000000e+00 0.000000e+00 0.000000e+00 0.000000e+00 0.000000e+00 0.000000e+00 9.000000e-01 9.999999e-02
 0.000000e+00 0.000000e+00 0.000000e+00 0.000000e+00 0.000000e+00 0.000000e+00 0.000000e+00 0.000000e+00 0.000000e+00 0.000000e+00
<ENDHMM>
