~o
<STREAMINFO> 1 39
<VECSIZE> 39<NULLD><MFCC_E_D_A_Z><DIAGC>
~h "s027"
<BEGINHMM>
<NUMSTATES> 10
<STATE> 2
<MEAN> 39
 -1.430512e-07 7.152558e-08 -2.861023e-07 2.384186e-08 -2.622604e-07 -2.026558e-07 1.549721e-07 2.026558e-07 -9.536743e-08 -7.152558e-08 4.768372e-08 2.026558e-07 7.993582e-01 1.884594e-01 -2.826428e-01 -5.252146e-01 3.600240e-01 5.151712e-01 3.903309e-01 -1.890409e-01 4.413980e-02 4.494370e-02 -3.986682e-01 -3.251344e-01 2.266336e-01 -3.750482e-04 4.802085e-02 2.061545e-02 1.108897e-01 -1.493989e-02 1.520035e-02 -5.875631e-02 -4.166899e-02 -5.682974e-02 9.202080e-02 3.543395e-02 -7.414608e-02 -6.260160e-02 -4.872638e-04
<VARIANCE> 39
 1.499822e+01 1.607827e+01 4.839892e+01 3.690043e+01 1.968075e+01 2.069156e+01 4.748972e+01 7.447993e+01 2.974668e+01 5.505492e+01 4.187817e+01 4.274965e+01 8.403976e-03 8.617713e-01 9.319876e-01 3.561441e+00 2.371252e+00 1.298165e+00 1.979749e+00 1.905120e+00 3.244120e+00 4.093796e+00 7.079067e+00 2.389715e+00 5.437506e+00 4.248871e-04 8.652275e-02 1.256107e-01 3.264061e-01 3.247982e-01 1.980556e-01 3.622838e-01 3.335606e-01 3.858057e-01 7.671927e-01 1.240900e+00 3.145210e-01 7.812810e-01 5.243749e-05
<GCONST> 8.903038e+01
<STATE> 3
<MEAN> 39
 -1.430512e-07 7.152558e-08 -2.861023e-07 2.384186e-08 -2.622604e-07 -2.026558e-07 1.549721e-07 2.026558e-07 -9.536743e-08 -7.152558e-08 4.768372e-08 2.026558e-07 7.993582e-01 1.884594e-01 -2.826428e-01 -5.252146e-01 3.600240e-01 5.151712e-01 3.903309e-01 -1.890409e-01 4.413980e-02 4.494370e-02 -3.986682e-01 -3.251344e-01 2.266336e-01 -3.750482e-04 4.802085e-02 2.061545e-02 1.108897e-01 -1.493989e-02 1.520035e-02 -5.875631e-02 -4.166899e-02 -5.682974e-02 9.202080e-02 3.543395e-02 -7.414608e-02 -6.260160e-02 -4.872638e-04
<VARIANCE> 39
 1.499822e+01 1.607827e+01 4.839892e+01 3.690043e+01 1.968075e+01 2.069156e+01 4.748972e+01 7.447993e+01 2.974668e+01 5.505492e+01 4.187817e+01 4.274965e+01 8.403976e-03 8.617713e-01 9.319876e-01 3.561441e+00 2.371252e+00 1.298165e+00 1.979749e+00 1.905120e+00 3.244120e+00 4.093796e+00 7.079067e+00 2.389715e+00 5.437506e+00 4.248871e-04 8.652275e-02 1.256107e-01 3.264061e-01 3.247982e-01 1.980556e-01 3.622838e-01 3.335606e-01 3.858057e-01 7.671927e-01 1.240900e+00 3.145210e-01 7.812810e-01 5.243749e-05
<GCONST> 8.903038e+01
<STATE> 4
<MEAN> 39
 -1.430512e-07 7.152558e-08 -2.861023e-07 2.384186e-08 -2.622604e-07 -2.026558e-07 1.549721e-07 2.026558e-07 -9.536743e-08 -7.152558e-08 4.768372e-08 2.026558e-07 7.993582e-01 1.884594e-01 -2.826428e-01 -5.252146e-01 3.600240e-01 5.151712e-01 3.903309e-01 -1.890409e-01 4.413980e-02 4.494370e-02 -3.986682e-01 -3.251344e-01 2.266336e-01 -3.750482e-04 4.802085e-02 2.061545e-02 1.108897e-01 -1.493989e-02 1.520035e-02 -5.875631e-02 -4.166899e-02 -5.682974e-02 9.202080e-02 3.543395e-02 -7.414608e-02 -6.260160e-02 -4.872638e-04
<VARIANCE> 39
 1.499822e+01 1.607827e+01 4.839892e+01 3.690043e+01 1.968075e+01 2.069156e+01 4.748972e+01 7.447993e+01 2.974668e+01 5.505492e+01 4.187817e+01 4.274965e+01 8.403976e-03 8.617713e-01 9.319876e-01 3.561441e+00 2.371252e+00 1.298165e+00 1.979749e+00 1.905120e+00 3.244120e+00 4.093796e+00 7.079067e+00 2.389715e+00 5.437506e+00 4.248871e-04 8.652275e-02 1.256107e-01 3.264061e-01 3.247982e-01 1.980556e-01 3.622838e-01 3.335606e-01 3.858057e-01 7.671927e-01 1.240900e+00 3.145210e-01 7.812810e-01 5.243749e-05
<GCONST> 8.903038e+01
<STATE> 5
<MEAN> 39
 -1.430512e-07 7.152558e-08 -2.861023e-07 2.384186e-08 -2.622604e-07 -2.026558e-07 1.549721e-07 2.026558e-07 -9.536743e-08 -7.152558e-08 4.768372e-08 2.026558e-07 7.993582e-01 1.884594e-01 -2.826428e-01 -5.252146e-01 3.600240e-01 5.151712e-01 3.903309e-01 -1.890409e-01 4.413980e-02 4.494370e-02 -3.986682e-01 -3.251344e-01 2.266336e-01 -3.750482e-04 4.802085e-02 2.061545e-02 1.108897e-01 -1.493989e-02 1.520035e-02 -5.875631e-02 -4.166899e-02 -5.682974e-02 9.202080e-02 3.543395e-02 -7.414608e-02 -6.260160e-02 -4.872638e-04
<VARIANCE> 39
 1.499822e+01 1.607827e+01 4.839892e+01 3.690043e+01 1.968075e+01 2.069156e+01 4.748972e+01 7.447993e+01 2.974668e+01 5.505492e+01 4.187817e+01 4.274965e+01 8.403976e-03 8.617713e-01 9.319876e-01 3.561441e+00 2.371252e+00 1.298165e+00 1.979749e+00 1.905120e+00 3.244120e+00 4.093796e+00 7.079067e+00 2.389715e+00 5.437506e+00 4.248871e-04 8.652275e-02 1.256107e-01 3.264061e-01 3.247982e-01 1.980556e-01 3.622838e-01 3.335606e-01 3.858057e-01 7.671927e-01 1.240900e+00 3.145210e-01 7.812810e-01 5.243749e-05
<GCONST> 8.903038e+01
<STATE> 6
<MEAN> 39
 -1.430512e-07 7.152558e-08 -2.861023e-07 2.384186e-08 -2.622604e-07 -2.026558e-07 1.549721e-07 2.026558e-07 -9.536743e-08 -7.152558e-08 4.768372e-08 2.026558e-07 7.993582e-01 1.884594e-01 -2.826428e-01 -5.252146e-01 3.600240e-01 5.151712e-01 3.903309e-01 -1.890409e-01 4.413980e-02 4.494370e-02 -3.986682e-01 -3.251344e-01 2.266336e-01 -3.750482e-04 4.802085e-02 2.061545e-02 1.108897e-01 -1.493989e-02 1.520035e-02 -5.875631e-02 -4.166899e-02 -5.682974e-02 9.202080e-02 3.543395e-02 -7.414608e-02 -6.260160e-02 -4.872638e-04
<VARIANCE> 39
 1.499822e+01 1.607827e+01 4.839892e+01 3.690043e+01 1.968075e+01 2.069156e+01 4.748972e+01 7.447993e+01 2.974668e+01 5.505492e+01 4.187817e+01 4.274965e+01 8.403976e-03 8.617713e-01 9.319876e-01 3.561441e+00 2.371252e+00 1.298165e+00 1.979749e+00 1.905120e+00 3.244120e+00 4.093796e+00 7.079067e+00 2.389715e+00 5.437506e+00 4.248871e-04 8.652275e-02 1.256107e-01 3.264061e-01 3.247982e-01 1.980556e-01 3.622838e-01 3.335606e-01 3.858057e-01 7.671927e-01 1.240900e+00 3.145210e-01 7.812810e-01 5.243749e-05
<GCONST> 8.903038e+01
<STATE> 7
<MEAN> 39
 -1.430512e-07 7.152558e-08 -2.861023e-07 2.384186e-08 -2.622604e-07 -2.026558e-07 1.549721e-07 2.026558e-07 -9.536743e-08 -7.152558e-08 4.768372e-08 2.026558e-07 7.993582e-01 1.884594e-01 -2.826428e-01 -5.252146e-01 3.600240e-01 5.151712e-01 3.903309e-01 -1.890409e-01 4.413980e-02 4.494370e-02 -3.986682e-01 -3.251344e-01 2.266336e-01 -3.750482e-04 4.802085e-02 2.061545e-02 1.108897e-01 -1.493989e-02 1.520035e-02 -5.875631e-02 -4.166899e-02 -5.682974e-02 9.202080e-02 3.543395e-02 -7.414608e-02 -6.260160e-02 -4.872638e-04
<VARIANCE> 39
 1.499822e+01 1.607827e+01 4.839892e+01 3.690043e+01 1.968075e+01 2.069156e+01 4.748972e+01 7.447993e+01 2.974668e+01 5.505492e+01 4.187817e+01 4.274965e+01 8.403976e-03 8.617713e-01 9.319876e-01 3.561441e+00 2.371252e+00 1.298165e+00 1.979749e+00 1.905120e+00 3.244120e+00 4.093796e+00 7.079067e+00 2.389715e+00 5.437506e+00 4.248871e-04 8.652275e-02 1.256107e-01 3.264061e-01 3.247982e-01 1.980556e-01 3.622838e-01 3.335606e-01 3.858057e-01 7.671927e-01 1.240900e+00 3.145210e-01 7.812810e-01 5.243749e-05
<GCONST> 8.903038e+01
<STATE> 8
<MEAN> 39
 -1.430512e-07 7.152558e-08 -2.861023e-07 2.384186e-08 -2.622604e-07 -2.026558e-07 1.549721e-07 2.026558e-07 -9.536743e-08 -7.152558e-08 4.768372e-08 2.026558e-07 7.993582e-01 1.884594e-01 -2.826428e-01 -5.252146e-01 3.600240e-01 5.151712e-01 3.903309e-01 -1.890409e-01 4.413980e-02 4.494370e-02 -3.986682e-01 -3.251344e-01 2.266336e-01 -3.750482e-04 4.802085e-02 2.061545e-02 1.108897e-01 -1.493989e-02 1.520035e-02 -5.875631e-02 -4.166899e-02 -5.682974e-02 9.202080e-02 3.543395e-02 -7.414608e-02 -6.260160e-02 -4.872638e-04
<VARIANCE> 39
 1.499822e+01 1.607827e+01 4.839892e+01 3.690043e+01 1.968075e+01 2.069156e+01 4.748972e+01 7.447993e+01 2.974668e+01 5.505492e+01 4.187817e+01 4.274965e+01 8.403976e-03 8.617713e-01 9.319876e-01 3.561441e+00 2.371252e+00 1.298165e+00 1.979749e+00 1.905120e+00 3.244120e+00 4.093796e+00 7.079067e+00 2.389715e+00 5.437506e+00 4.248871e-04 8.652275e-02 1.256107e-01 3.264061e-01 3.247982e-01 1.980556e-01 3.622838e-01 3.335606e-01 3.858057e-01 7.671927e-01 1.240900e+00 3.145210e-01 7.812810e-01 5.243749e-05
<GCONST> 8.903038e+01
<STATE> 9
<MEAN> 39
 -1.430512e-07 7.152558e-08 -2.861023e-07 2.384186e-08 -2.622604e-07 -2.026558e-07 1.549721e-07 2.026558e-07 -9.536743e-08 -7.152558e-08 4.768372e-08 2.026558e-07 7.993582e-01 1.884594e-01 -2.826428e-01 -5.252146e-01 3.600240e-01 5.151712e-01 3.903309e-01 -1.890409e-01 4.413980e-02 4.494370e-02 -3.986682e-01 -3.251344e-01 2.266336e-01 -3.750482e-04 4.802085e-02 2.061545e-02 1.108897e-01 -1.493989e-02 1.520035e-02 -5.875631e-02 -4.166899e-02 -5.682974e-02 9.202080e-02 3.543395e-02 -7.414608e-02 -6.260160e-02 -4.872638e-04
<VARIANCE> 39
 1.499822e+01 1.607827e+01 4.839892e+01 3.690043e+01 1.968075e+01 2.069156e+01 4.748972e+01 7.447993e+01 2.974668e+01 5.505492e+01 4.187817e+01 4.274965e+01 8.403976e-03 8.617713e-01 9.319876e-01 3.561441e+00 2.371252e+00 1.298165e+00 1.979749e+00 1.905120e+00 3.244120e+00 4.093796e+00 7.079067e+00 2.389715e+00 5.437506e+00 4.248871e-04 8.652275e-02 1.256107e-01 3.264061e-01 3.247982e-01 1.980556e-01 3.622838e-01 3.335606e-01 3.858057e-01 7.671927e-01 1.240900e+00 3.145210e-01 7.812810e-01 5.243749e-05
<GCONST> 8.903038e+01
<TRANSP> 10
 0.000000e+00 1.000000e+00 0.000000e+00 0.000000e+00 0.000000e+00 0.000000e+00 0.000000e+00 0.000000e+00 0.000000e+00 0.000000e+00
 0.000000e+00 9.000000e-01 9.999999e-02 0.000000e+00 0.000000e+00 0.000000e+00 0.000000e+00 0.000000e+00 0.000000e+00 0.000000e+00
 0.000000e+00 0.000000e+00 9.000000e-01 9.999999e-02 0.000000e+00 0.000000e+00 0.000000e+00 0.000000e+00 0.000000e+00 0.000000e+00
 0.000000e+00 0.000000e+00 0.000000e+00 9.000000e-01 9.999999e-02 0.000000e+00 0.000000e+00 0.000000e+00 0.000000e+00 0.000000e+00
 0.000000e+00 0.000000e+00 0.000000e+00 0.000000e+00 9.000000e-01 9.999999e-02 0.000000e+00 0.000000e+00 0.000000e+00 0.000000e+00
 0.000000e+00 0.000000e+00 0.000000e+00 0.000000e+00 0.000000e+00 9.000000e-01 9.999999e-02 0.000000e+00 0.000000e+00 0.000000e+00
 0.000000e+00 0.000000e+00 0.000000e+00 0.000000e+00 0.000000e+00 0.000000e+00 9.000000e-01 9.999999e-02 0.000000e+00 0.000000e+00
 0.000000e+00 0.000000e+00 0.000000e+00 0.000000e+00 0.000000e+00 0.000000e+00 0.000000e+00 9.000000e-01 9.999999e-02 0.000000e+00
 0.000000e+00 0.000000e+00 0.000000e+00 0.000000e+00 0.000000e+00 0.000000e+00 0.000000e+00 0.000000e+00 9.000000e-01 9.999999e-02
 0.000000e+00 0.000000e+00 0.000000e+00 0.000000e+00 0.000000e+00 0.000000e+00 0.000000e+00 0.000000e+00 0.000000e+00 0.000000e+00
<ENDHMM>
