~o
<STREAMINFO> 1 39
<VECSIZE> 39<NULLD><MFCC_E_D_A_Z><DIAGC>
~h "s029"
<BEGINHMM>
<NUMSTATES> 10
<STATE> 2
<MEAN> 39
 -8.460014e-08 5.383645e-08 1.538184e-08 8.229287e-07 3.691642e-07 -2.307277e-07 2.538004e-07 4.922190e-07 4.614553e-08 1.538184e-08 8.460014e-08 2.999460e-07 8.581418e-01 1.429828e-01 1.186023e-01 2.785380e-02 2.467476e-02 1.547624e-01 -1.040706e-01 -1.297059e-02 -9.791458e-02 1.079967e-01 6.707578e-02 4.571858e-02 2.079168e-02 -3.559565e-03 -1.199710e-03 8.456060e-03 2.145766e-02 6.947394e-03 -1.569258e-02 1.047328e-02 9.786152e-03 2.413914e-02 2.954761e-02 -4.753844e-02 -2.565901e-03 3.672234e-02 -5.154121e-04
<VARIANCE> 39
 3.594515e+01 1.122209e+01 8.365025e+01 2.704844e+01 3.382716e+01 4.987449e+01 3.467804e+01 1.035126e+02 3.070984e+01 6.881281e+01 3.568998e+01 3.930894e+01 1.136677e-02 3.297553e+00 1.400734e+00 4.246512e+00 2.598302e+00 2.523550e+00 4.012233e+00 2.815878e+00 3.559545e+00 2.501864e+00 7.435692e+00 3.630889e+00 1.918644e+00 1.192074e-03 5.856252e-01 2.929146e-01 4.006389e-01 4.127522e-01 4.715179e-01 5.403038e-01 5.770271e-01 3.957856e-01 4.765780e-01 1.413582e+00 6.998511e-01 3.569129e-01 1.876480e-04
<GCONST> 1.013568e+02
<STATE> 3
<MEAN> 39
 -8.460014e-08 5.383645e-08 1.538184e-08 8.229287e-07 3.691642e-07 -2.307277e-07 2.538004e-07 4.922190e-07 4.614553e-08 1.538184e-08 8.460014e-08 2.999460e-07 8.581418e-01 1.429828e-01 1.186023e-01 2.785380e-02 2.467476e-02 1.547624e-01 -1.040706e-01 -1.297059e-02 -9.791458e-02 1.079967e-01 6.707578e-02 4.571858e-02 2.079168e-02 -3.559565e-03 -1.199710e-03 8.456060e-03 2.145766e-02 6.947394e-03 -1.569258e-02 1.047328e-02 9.786152e-03 2.413914e-02 2.954761e-02 -4.753844e-02 -2.565901e-03 3.672234e-02 -5.154121e-04
<VARIANCE> 39
 3.594515e+01 1.122209e+01 8.365025e+01 2.704844e+01 3.382716e+01 4.987449e+01 3.467804e+01 1.035126e+02 3.070984e+01 6.881281e+01 3.568998e+01 3.930894e+01 1.136677e-02 3.297553e+00 1.400734e+00 4.246512e+00 2.598302e+00 2.523550e+00 4.012233e+00 2.815878e+00 3.559545e+00 2.501864e+00 7.435692e+00 3.630889e+00 1.918644e+00 1.192074e-03 5.856252e-01 2.929146e-01 4.006389e-01 4.127522e-01 4.715179e-01 5.403038e-01 5.770271e-01 3.957856e-01 4.765780e-01 1.413582e+00 6.998511e-01 3.569129e-01 1.876480e-04
<GCONST> 1.013568e+02
<STATE> 4
<MEAN> 39
 -8.460014e-08 5.383645e-08 1.538184e-08 8.229287e-07 3.691642e-07 -2.307277e-07 2.538004e-07 4.922190e-07 4.614553e-08 1.538184e-08 8.460014e-08 2.999460e-07 8.581418e-01 1.429828e-01 1.186023e-01 2.785380e-02 2.467476e-02 1.547624e-01 -1.040706e-01 -1.297059e-02 -9.791458e-02 1.079967e-01 6.707578e-02 4.571858e-02 2.079168e-02 -3.559565e-03 -1.199710e-03 8.456060e-03 2.145766e-02 6.947394e-03 -1.569258e-02 1.047328e-02 9.786152e-03 2.413914e-02 2.954761e-02 -4.753844e-02 -2.565901e-03 3.672234e-02 -5.154121e-04
<VARIANCE> 39
 3.594515e+01 1.122209e+01 8.365025e+01 2.704844e+01 3.382716e+01 4.987449e+01 3.467804e+01 1.035126e+02 3.070984e+01 6.881281e+01 3.568998e+01 3.930894e+01 1.136677e-02 3.297553e+00 1.400734e+00 4.246512e+00 2.598302e+00 2.523550e+00 4.012233e+00 2.815878e+00 3.559545e+00 2.501864e+00 7.435692e+00 3.630889e+00 1.918644e+00 1.192074e-03 5.856252e-01 2.929146e-01 4.006389e-01 4.127522e-01 4.715179e-01 5.403038e-01 5.770271e-01 3.957856e-01 4.765780e-01 1.413582e+00 6.998511e-01 3.569129e-01 1.876480e-04
<GCONST> 1.013568e+02
<STATE> 5
<MEAN> 39
 -8.460014e-08 5.383645e-08 1.538184e-08 8.229287e-07 3.691642e-07 -2.307277e-07 2.538004e-07 4.922190e-07 4.614553e-08 1.538184e-08 8.460014e-08 2.999460e-07 8.581418e-01 1.429828e-01 1.186023e-01 2.785380e-02 2.467476e-02 1.547624e-01 -1.040706e-01 -1.297059e-02 -9.791458e-02 1.079967e-01 6.707578e-02 4.571858e-02 2.079168e-02 -3.559565e-03 -1.199710e-03 8.456060e-03 2.145766e-02 6.947394e-03 -1.569258e-02 1.047328e-02 9.786152e-03 2.413914e-02 2.954761e-02 -4.753844e-02 -2.565901e-03 3.672234e-02 -5.154121e-04
<VARIANCE> 39
 3.594515e+01 1.122209e+01 8.365025e+01 2.704844e+01 3.382716e+01 4.987449e+01 3.467804e+01 1.035126e+02 3.070984e+01 6.881281e+01 3.568998e+01 3.930894e+01 1.136677e-02 3.297553e+00 1.400734e+00 4.246512e+00 2.598302e+00 2.523550e+00 4.012233e+00 2.815878e+00 3.559545e+00 2.501864e+00 7.435692e+00 3.630889e+00 1.918644e+00 1.192074e-03 5.856252e-01 2.929146e-01 4.006389e-01 4.127522e-01 4.715179e-01 5.403038e-01 5.770271e-01 3.957856e-01 4.765780e-01 1.413582e+00 6.998511e-01 3.569129e-01 1.876480e-04
<GCONST> 1.013568e+02
<STATE> 6
<MEAN> 39
 -8.460014e-08 5.383645e-08 1.538184e-08 8.229287e-07 3.691642e-07 -2.307277e-07 2.538004e-07 4.922190e-07 4.614553e-08 1.538184e-08 8.460014e-08 2.999460e-07 8.581418e-01 1.429828e-01 1.186023e-01 2.785380e-02 2.467476e-02 1.547624e-01 -1.040706e-01 -1.297059e-02 -9.791458e-02 1.079967e-01 6.707578e-02 4.571858e-02 2.079168e-02 -3.559565e-03 -1.199710e-03 8.456060e-03 2.145766e-02 6.947394e-03 -1.569258e-02 1.047328e-02 9.786152e-03 2.413914e-02 2.954761e-02 -4.753844e-02 -2.565901e-03 3.672234e-02 -5.154121e-04
<VARIANCE> 39
 3.594515e+01 1.122209e+01 8.365025e+01 2.704844e+01 3.382716e+01 4.987449e+01 3.467804e+01 1.035126e+02 3.070984e+01 6.881281e+01 3.568998e+01 3.930894e+01 1.136677e-02 3.297553e+00 1.400734e+00 4.246512e+00 2.598302e+00 2.523550e+00 4.012233e+00 2.815878e+00 3.559545e+00 2.501864e+00 7.435692e+00 3.630889e+00 1.918644e+00 1.192074e-03 5.856252e-01 2.929146e-01 4.006389e-01 4.127522e-01 4.715179e-01 5.403038e-01 5.770271e-01 3.957856e-01 4.765780e-01 1.413582e+00 6.998511e-01 3.569129e-01 1.876480e-04
<GCONST> 1.013568e+02
<STATE> 7
<MEAN> 39
 -8.460014e-08 5.383645e-08 1.538184e-08 8.229287e-07 3.691642e-07 -2.307277e-07 2.538004e-07 4.922190e-07 4.614553e-08 1.538184e-08 8.460014e-08 2.999460e-07 8.581418e-01 1.429828e-01 1.186023e-01 2.785380e-02 2.467476e-02 1.547624e-01 -1.040706e-01 -1.297059e-02 -9.791458e-02 1.079967e-01 6.707578e-02 4.571858e-02 2.079168e-02 -3.559565e-03 -1.199710e-03 8.456060e-03 2.145766e-02 6.947394e-03 -1.569258e-02 1.047328e-02 9.786152e-03 2.413914e-02 2.954761e-02 -4.753844e-02 -2.565901e-03 3.672234e-02 -5.154121e-04
<VARIANCE> 39
 3.594515e+01 1.122209e+01 8.365025e+01 2.704844e+01 3.382716e+01 4.987449e+01 3.467804e+01 1.035126e+02 3.070984e+01 6.881281e+01 3.568998e+01 3.930894e+01 1.136677e-02 3.297553e+00 1.400734e+00 4.246512e+00 2.598302e+00 2.523550e+00 4.012233e+00 2.815878e+00 3.559545e+00 2.501864e+00 7.435692e+00 3.630889e+00 1.918644e+00 1.192074e-03 5.856252e-01 2.929146e-01 4.006389e-01 4.127522e-01 4.715179e-01 5.403038e-01 5.770271e-01 3.957856e-01 4.765780e-01 1.413582e+00 6.998511e-01 3.569129e-01 1.876480e-04
<GCONST> 1.013568e+02
<STATE> 8
<MEAN> 39
 -8.460014e-08 5.383645e-08 1.538184e-08 8.229287e-07 3.691642e-07 -2.307277e-07 2.538004e-07 4.922190e-07 4.614553e-08 1.538184e-08 8.460014e-08 2.999460e-07 8.581418e-01 1.429828e-01 1.186023e-01 2.785380e-02 2.467476e-02 1.547624e-01 -1.040706e-01 -1.297059e-02 -9.791458e-02 1.079967e-01 6.707578e-02 4.571858e-02 2.079168e-02 -3.559565e-03 -1.199710e-03 8.456060e-03 2.145766e-02 6.947394e-03 -1.569258e-02 1.047328e-02 9.786152e-03 2.413914e-02 2.954761e-02 -4.753844e-02 -2.565901e-03 3.672234e-02 -5.154121e-04
<VARIANCE> 39
 3.594515e+01 1.122209e+01 8.365025e+01 2.704844e+01 3.382716e+01 4.987449e+01 3.467804e+01 1.035126e+02 3.070984e+01 6.881281e+01 3.568998e+01 3.930894e+01 1.136677e-02 3.297553e+00 1.400734e+00 4.246512e+00 2.598302e+00 2.523550e+00 4.012233e+00 2.815878e+00 3.559545e+00 2.501864e+00 7.435692e+00 3.630889e+00 1.918644e+00 1.192074e-03 5.856252e-01 2.929146e-01 4.006389e-01 4.127522e-01 4.715179e-01 5.403038e-01 5.770271e-01 3.957856e-01 4.765780e-01 1.413582e+00 6.998511e-01 3.569129e-01 1.876480e-04
<GCONST> 1.013568e+02
<STATE> 9
<MEAN> 39
 -8.460014e-08 5.383645e-08 1.538184e-08 8.229287e-07 3.691642e-07 -2.307277e-07 2.538004e-07 4.922190e-07 4.614553e-08 1.538184e-08 8.460014e-08 2.999460e-07 8.581418e-01 1.429828e-01 1.186023e-01 2.785380e-02 2.467476e-02 1.547624e-01 -1.040706e-01 -1.297059e-02 -9.791458e-02 1.079967e-01 6.707578e-02 4.571858e-02 2.079168e-02 -3.559565e-03 -1.199710e-03 8.456060e-03 2.145766e-02 6.947394e-03 -1.569258e-02 1.047328e-02 9.786152e-03 2.413914e-02 2.954761e-02 -4.753844e-02 -2.565901e-03 3.672234e-02 -5.154121e-04
<VARIANCE> 39
 3.594515e+01 1.122209e+01 8.365025e+01 2.704844e+01 3.382716e+01 4.987449e+01 3.467804e+01 1.035126e+02 3.070984e+01 6.881281e+01 3.568998e+01 3.930894e+01 1.136677e-02 3.297553e+00 1.400734e+00 4.246512e+00 2.598302e+00 2.523550e+00 4.012233e+00 2.815878e+00 3.559545e+00 2.501864e+00 7.435692e+00 3.630889e+00 1.918644e+00 1.192074e-03 5.856252e-01 2.929146e-01 4.006389e-01 4.127522e-01 4.715179e-01 5.403038e-01 5.770271e-01 3.957856e-01 4.765780e-01 1.413582e+00 6.998511e-01 3.569129e-01 1.876480e-04
<GCONST> 1.013568e+02
<TRANSP> 10
 0.000000e+00 1.000000e+00 0.000000e+00 0.000000e+00 0.000000e+00 0.000000e+00 0.000000e+00 0.000000e+00 0.000000e+00 0.000000e+00
 0.000000e+00 9.000000e-01 9.999999e-02 0.000000e+00 0.000000e+00 0.000000e+00 0.000000e+00 0.000000e+00 0.000000e+00 0.000000e+00
 0.000000e+00 0.000000e+00 9.000000e-01 9.999999e-02 0.000000e+00 0.000000e+00 0.000000e+00 0.000000e+00 0.000000e+00 0.000000e+00
 0.000000e+00 0.000000e+00 0.000000e+00 9.000000e-01 9.999999e-02 0.000000e+00 0.000000e+00 0.000000e+00 0.000000e+00 0.000000e+00
 0.000000e+00 0.000000e+00 0.000000e+00 0.000000e+00 9.000000e-01 9.999999e-02 0.000000e+00 0.000000e+00 0.000000e+00 0.000000e+00
 0.000000e+00 0.000000e+00 0.000000e+00 0.000000e+00 0.000000e+00 9.000000e-01 9.999999e-02 0.000000e+00 0.000000e+00 0.000000e+00
 0.000000e+00 0.000000e+00 0.000000e+00 0.000000e+00 0.000000e+00 0.000000e+00 9.000000e-01 9.999999e-02 0.000000e+00 0.000000e+00
 0.000000e+00 0.000000e+00 0.000000e+00 0.000000e+00 0.000000e+00 0.000000e+00 0.000000e+00 9.000000e-01 9.999999e-02 0.000000e+00
 0.000000e+00 0.000000e+00 0.000000e+00 0.000000e+00 0.000000e+00 0.000000e+00 0.000000e+00 0.000000e+00 9.000000e-01 9.999999e-02
 0.000000e+00 0.000000e+00 0.000000e+00 0.000000e+00 0.000000e+00 0.000000e+00 0.000000e+00 0.000000e+00 0.000000e+00 0.000000e+00
<ENDHMM>
