~o
<STREAMINFO> 1 39
<VECSIZE> 39<NULLD><MFCC_E_D_A_Z><DIAGC>
~h "s031"
<BEGINHMM>
<NUMSTATES> 10
<STATE> 2
<MEAN> 39
 -9.536743e-08 -3.337860e-07 2.452306e-07 3.133501e-07 -3.542219e-07 -7.220677e-07 -1.566751e-07 2.384186e-08 -3.916877e-08 0.000000e+00 -9.536743e-08 4.768372e-08 7.247799e-01 1.426208e-01 -4.769612e-02 -3.657583e-02 1.893585e-01 6.178778e-02 -4.263083e-02 3.604506e-02 -2.062614e-02 -1.449002e-01 4.855165e-02 4.068032e-02 -7.721835e-03 -1.190305e-03 -3.869893e-02 -6.024086e-03 1.601077e-02 1.864871e-02 7.310147e-02 1.767512e-03 -3.694529e-02 3.534890e-02 2.241457e-02 2.255558e-02 8.677223e-02 2.852611e-02 -1.086077e-03
<VARIANCE> 39
 1.867687e+01 7.246782e+01 3.002531e+01 5.567840e+01 1.005904e+02 5.685761e+01 1.751471e+01 3.602175e+01 2.760491e+01 6.083120e+01 3.983882e+01 5.052087e+01 3.285237e-02 2.155047e+00 2.230273e+00 1.564967e+00 2.128351e+00 4.125608e+00 4.977723e+00 1.782377e+00 4.610969e+00 2.968934e+00 5.856018e+00 5.462550e+00 4.613747e+00 2.529815e-03 3.672685e-01 2.983205e-01 1.782369e-01 3.551207e-01 6.334158e-01 7.071137e-01 3.624342e-01 9.786241e-01 6.188055e-01 1.109309e+00 1.126651e+00 7.580494e-01 2.748424e-04
<GCONST> 1.054862e+02
<STATE> 3
<MEAN> 39
 -9.536743e-08 -3.337860e-07 2.452306e-07 3.133501e-07 -3.542219e-07 -7.220677e-07 -1.566751e-07 2.384186e-08 -3.916877e-08 0.000000e+00 -9.536743e-08 4.768372e-08 7.247799e-01 1.426208e-01 -4.769612e-02 -3.657583e-02 1.893585e-01 6.178778e-02 -4.263083e-02 3.604506e-02 -2.062614e-02 -1.449002e-01 4.855165e-02 4.068032e-02 -7.721835e-03 -1.190305e-03 -3.869893e-02 -6.024086e-03 1.601077e-02 1.864871e-02 7.310147e-02 1.767512e-03 -3.694529e-02 3.534890e-02 2.241457e-02 2.255558e-02 8.677223e-02 2.852611e-02 -1.086077e-03
<VARIANCE> 39
 1.867687e+01 7.246782e+01 3.002531e+01 5.567840e+01 1.005904e+02 5.685761e+01 1.751471e+01 3.602175e+01 2.760491e+01 6.083120e+01 3.983882e+01 5.052087e+01 3.285237e-02 2.155047e+00 2.230273e+00 1.564967e+00 2.128351e+00 4.125608e+00 4.977723e+00 1.782377e+00 4.610969e+00 2.968934e+00 5.856018e+00 5.462550e+00 4.613747e+00 2.529815e-03 3.672685e-01 2.983205e-01 1.782369e-01 3.551207e-01 6.334158e-01 7.071137e-01 3.624342e-01 9.786241e-01 6.188055e-01 1.109309e+00 1.126651e+00 7.580494e-01 2.748424e-04
<GCONST> 1.054862e+02
<STATE> 4
<MEAN> 39
 -9.536743e-08 -3.337860e-07 2.452306e-07 3.133501e-07 -3.542219e-07 -7.220677e-07 -1.566751e-07 2.384186e-08 -3.916877e-08 0.000000e+00 -9.536743e-08 4.768372e-08 7.247799e-01 1.426208e-01 -4.769612e-02 -3.657583e-02 1.893585e-01 6.178778e-02 -4.263083e-02 3.604506e-02 -2.062614e-02 -1.449002e-01 4.855165e-02 4.068032e-02 -7.721835e-03 -1.190305e-03 -3.869893e-02 -6.024086e-03 1.601077e-02 1.864871e-02 7.310147e-02 1.767512e-03 -3.694529e-02 3.534890e-02 2.241457e-02 2.255558e-02 8.677223e-02 2.852611e-02 -1.086077e-03
<VARIANCE> 39
 1.867687e+01 7.246782e+01 3.002531e+01 5.567840e+01 1.005904e+02 5.685761e+01 1.751471e+01 3.602175e+01 2.760491e+01 6.083120e+01 3.983882e+01 5.052087e+01 3.285237e-02 2.155047e+00 2.230273e+00 1.564967e+00 2.128351e+00 4.125608e+00 4.977723e+00 1.782377e+00 4.610969e+00 2.968934e+00 5.856018e+00 5.462550e+00 4.613747e+00 2.529815e-03 3.672685e-01 2.983205e-01 1.782369e-01 3.551207e-01 6.334158e-01 7.071137e-01 3.624342e-01 9.786241e-01 6.188055e-01 1.109309e+00 1.126651e+00 7.580494e-01 2.748424e-04
<GCONST> 1.054862e+02
<STATE> 5
<MEAN> 39
 -9.536743e-08 -3.337860e-07 2.452306e-07 3.133501e-07 -3.542219e-07 -7.220677e-07 -1.566751e-07 2.384186e-08 -3.916877e-08 0.000000e+00 -9.536743e-08 4.768372e-08 7.247799e-01 1.426208e-01 -4.769612e-02 -3.657583e-02 1.893585e-01 6.178778e-02 -4.263083e-02 3.604506e-02 -2.062614e-02 -1.449002e-01 4.855165e-02 4.068032e-02 -7.721835e-03 -1.190305e-03 -3.869893e-02 -6.024086e-03 1.601077e-02 1.864871e-02 7.310147e-02 1.767512e-03 -3.694529e-02 3.534890e-02 2.241457e-02 2.255558e-02 8.677223e-02 2.852611e-02 -1.086077e-03
<VARIANCE> 39
 1.867687e+01 7.246782e+01 3.002531e+01 5.567840e+01 1.005904e+02 5.685761e+01 1.751471e+01 3.602175e+01 2.760491e+01 6.083120e+01 3.983882e+01 5.052087e+01 3.285237e-02 2.155047e+00 2.230273e+00 1.564967e+00 2.128351e+00 4.125608e+00 4.977723e+00 1.782377e+00 4.610969e+00 2.968934e+00 5.856018e+00 5.462550e+00 4.613747e+00 2.529815e-03 3.672685e-01 2.983205e-01 1.782369e-01 3.551207e-01 6.334158e-01 7.071137e-01 3.624342e-01 9.786241e-01 6.188055e-01 1.109309e+00 1.126651e+00 7.580494e-01 2.748424e-04
<GCONST> 1.054862e+02
<STATE> 6
<MEAN> 39
 -9.536743e-08 -3.337860e-07 2.452306e-07 3.133501e-07 -3.542219e-07 -7.220677e-07 -1.566751e-07 2.384186e-08 -3.916877e-08 0.000000e+00 -9.536743e-08 4.768372e-08 7.247799e-01 1.426208e-01 -4.769612e-02 -3.657583e-02 1.893585e-01 6.178778e-02 -4.263083e-02 3.604506e-02 -2.062614e-02 -1.449002e-01 4.855165e-02 4.068032e-02 -7.721835e-03 -1.190305e-03 -3.869893e-02 -6.024086e-03 1.601077e-02 1.864871e-02 7.310147e-02 1.767512e-03 -3.694529e-02 3.534890e-02 2.241457e-02 2.255558e-02 8.677223e-02 2.852611e-02 -1.086077e-03
<VARIANCE> 39
 1.867687e+01 7.246782e+01 3.002531e+01 5.567840e+01 1.005904e+02 5.685761e+01 1.751471e+01 3.602175e+01 2.760491e+01 6.083120e+01 3.983882e+01 5.052087e+01 3.285237e-02 2.155047e+00 2.230273e+00 1.564967e+00 2.128351e+00 4.125608e+00 4.977723e+00 1.782377e+00 4.610969e+00 2.968934e+00 5.856018e+00 5.462550e+00 4.613747e+00 2.529815e-03 3.672685e-01 2.983205e-01 1.782369e-01 3.551207e-01 6.334158e-01 7.071137e-01 3.624342e-01 9.786241e-01 6.188055e-01 1.109309e+00 1.126651e+00 7.580494e-01 2.748424e-04
<GCONST> 1.054862e+02
<STATE> 7
<MEAN> 39
 -9.536743e-08 -3.337860e-07 2.452306e-07 3.133501e-07 -3.542219e-07 -7.220677e-07 -1.566751e-07 2.384186e-08 -3.916877e-08 0.000000e+00 -9.536743e-08 4.768372e-08 7.247799e-01 1.426208e-01 -4.769612e-02 -3.657583e-02 1.893585e-01 6.178778e-02 -4.263083e-02 3.604506e-02 -2.062614e-02 -1.449002e-01 4.855165e-02 4.068032e-02 -7.721835e-03 -1.190305e-03 -3.869893e-02 -6.024086e-03 1.601077e-02 1.864871e-02 7.310147e-02 1.767512e-03 -3.694529e-02 3.534890e-02 2.241457e-02 2.255558e-02 8.677223e-02 2.852611e-02 -1.086077e-03
<VARIANCE> 39
 1.867687e+01 7.246782e+01 3.002531e+01 5.567840e+01 1.005904e+02 5.685761e+01 1.751471e+01 3.602175e+01 2.760491e+01 6.083120e+01 3.983882e+01 5.052087e+01 3.285237e-02 2.155047e+00 2.230273e+00 1.564967e+00 2.128351e+00 4.125608e+00 4.977723e+00 1.782377e+00 4.610969e+00 2.968934e+00 5.856018e+00 5.462550e+00 4.613747e+00 2.529815e-03 3.672685e-01 2.983205e-01 1.782369e-01 3.551207e-01 6.334158e-01 7.071137e-01 3.624342e-01 9.786241e-01 6.188055e-01 1.109309e+00 1.126651e+00 7.580494e-01 2.748424e-04
<GCONST> 1.054862e+02
<STATE> 8
<MEAN> 39
 -9.536743e-08 -3.337860e-07 2.452306e-07 3.133501e-07 -3.542219e-07 -7.220677e-07 -1.566751e-07 2.384186e-08 -3.916877e-08 0.000000e+00 -9.536743e-08 4.768372e-08 7.247799e-01 1.426208e-01 -4.769612e-02 -3.657583e-02 1.893585e-01 6.178778e-02 -4.263083e-02 3.604506e-02 -2.062614e-02 -1.449002e-01 4.855165e-02 4.068032e-02 -7.721835e-03 -1.190305e-03 -3.869893e-02 -6.024086e-03 1.601077e-02 1.864871e-02 7.310147e-02 1.767512e-03 -3.694529e-02 3.534890e-02 2.241457e-02 2.255558e-02 8.677223e-02 2.852611e-02 -1.086077e-03
<VARIANCE> 39
 1.867687e+01 7.246782e+01 3.002531e+01 5.567840e+01 1.005904e+02 5.685761e+01 1.751471e+01 3.602175e+01 2.760491e+01 6.083120e+01 3.983882e+01 5.052087e+01 3.285237e-02 2.155047e+00 2.230273e+00 1.564967e+00 2.128351e+00 4.125608e+00 4.977723e+00 1.782377e+00 4.610969e+00 2.968934e+00 5.856018e+00 5.462550e+00 4.613747e+00 2.529815e-03 3.672685e-01 2.983205e-01 1.782369e-01 3.551207e-01 6.334158e-01 7.071137e-01 3.624342e-01 9.786241e-01 6.188055e-01 1.109309e+00 1.126651e+00 7.580494e-01 2.748424e-04
<GCONST> 1.054862e+02
<STATE> 9
<MEAN> 39
 -9.536743e-08 -3.337860e-07 2.452306e-07 3.133501e-07 -3.542219e-07 -7.220677e-07 -1.566751e-07 2.384186e-08 -3.916877e-08 0.000000e+00 -9.536743e-08 4.768372e-08 7.247799e-01 1.426208e-01 -4.769612e-02 -3.657583e-02 1.893585e-01 6.178778e-02 -4.263083e-02 3.604506e-02 -2.062614e-02 -1.449002e-01 4.855165e-02 4.068032e-02 -7.721835e-03 -1.190305e-03 -3.869893e-02 -6.024086e-03 1.601077e-02 1.864871e-02 7.310147e-02 1.767512e-03 -3.694529e-02 3.534890e-02 2.241457e-02 2.255558e-02 8.677223e-02 2.852611e-02 -1.086077e-03
<VARIANCE> 39
 1.867687e+01 7.246782e+01 3.002531e+01 5.567840e+01 1.005904e+02 5.685761e+01 1.751471e+01 3.602175e+01 2.760491e+01 6.083120e+01 3.983882e+01 5.052087e+01 3.285237e-02 2.155047e+00 2.230273e+00 1.564967e+00 2.128351e+00 4.125608e+00 4.977723e+00 1.782377e+00 4.610969e+00 2.968934e+00 5.856018e+00 5.462550e+00 4.613747e+00 2.529815e-03 3.672685e-01 2.983205e-01 1.782369e-01 3.551207e-01 6.334158e-01 7.071137e-01 3.624342e-01 9.786241e-01 6.188055e-01 1.109309e+00 1.126651e+00 7.580494e-01 2.748424e-04
<GCONST> 1.054862e+02
<TRANSP> 10
 0.000000e+00 1.000000e+00 0.000000e+00 0.000000e+00 0.000000e+00 0.000000e+00 0.000000e+00 0.000000e+00 0.000000e+00 0.000000e+00
 0.000000e+00 9.000000e-01 9.999999e-02 0.000000e+00 0.000000e+00 0.000000e+00 0.000000e+00 0.000000e+00 0.000000e+00 0.000000e+00
 0.000000e+00 0.000000e+00 9.000000e-01 9.999999e-02 0.000000e+00 0.000000e+00 0.000000e+00 0.000000e+00 0.000000e+00 0.000000e+00
 0.000000e+00 0.000000e+00 0.000000e+00 9.000000e-01 9.999999e-02 0.000000e+00 0.000000e+00 0.000000e+00 0.000000e+00 0.000000e+00
 0.000000e+00 0.000000e+00 0.000000e+00 0.000000e+00 9.000000e-01 9.999999e-02 0.000000e+00 0.000000e+00 0.000000e+00 0.000000e+00
 0.000000e+00 0.000000e+00 0.000000e+00 0.000000e+00 0.000000e+00 9.000000e-01 9.999999e-02 0.000000e+00 0.000000e+00 0.000000e+00
 0.000000e+00 0.000000e+00 0.000000e+00 0.000000e+00 0.000000e+00 0.000000e+00 9.000000e-01 9.999999e-02 0.000000e+00 0.000000e+00
 0.000000e+00 0.000000e+00 0.000000e+00 0.000000e+00 0.000000e+00 0.000000e+00 0.000000e+00 9.000000e-01 9.999999e-02 0.000000e+00
 0.000000e+00 0.000000e+00 0.000000e+00 0.000000e+00 0.000000e+00 0.000000e+00 0.000000e+00 0.000000e+00 9.000000e-01 9.999999e-02
 0.000000e+00 0.000000e+00 0.000000e+00 0.000000e+00 0.000000e+00 0.000000e+00 0.000000e+00 0.000000e+00 0.000000e+00 0.000000e+00
<ENDHMM>
