~o
<STREAMINFO> 1 39
<VECSIZE> 39<NULLD><MFCC_E_D_A_Z><DIAGC>
~h "s033"
<BEGINHMM>
<NUMSTATES> 10
<STATE> 2
<MEAN> 39
 -1.316640e-07 -3.042506e-07 -8.113349e-07 -2.704450e-07 -8.940697e-08 3.558486e-07 2.775619e-07 -7.116972e-08 -2.313016e-07 -5.337730e-08 -7.686330e-07 1.939375e-07 4.801621e-01 -5.634549e-03 1.092551e-02 -2.710233e-02 -3.769840e-02 6.501571e-03 9.808207e-03 6.079571e-02 7.149291e-02 4.513230e-02 9.368768e-03 2.157391e-02 1.522501e-02 7.801032e-04 -4.435104e-03 2.002229e-03 -1.118533e-02 1.459426e-02 1.139881e-02 2.073911e-02 6.736852e-03 7.208628e-03 2.975362e-05 4.053525e-02 8.427170e-03 -1.102434e-02 7.946248e-06
<VARIANCE> 39
 2.724396e+01 2.648991e+01 6.602194e+01 3.754314e+01 1.775099e+01 9.550914e+01 6.050906e+01 3.875903e+01 5.850575e+01 2.503574e+01 3.794865e+01 2.815730e+01 7.801302e-02 1.299117e+00 1.398548e+00 2.096649e+00 1.907510e+00 2.388801e+00 3.196788e+00 3.749241e+00 2.385591e+00 4.081913e+00 2.322622e+00 2.675673e+00 2.886310e+00 1.243457e-03 1.725263e-01 1.996459e-01 3.112569e-01 3.102525e-01 4.597510e-01 4.243272e-01 7.617076e-01 4.016678e-01 7.536547e-01 4.459622e-01 5.388803e-01 5.611429e-01 1.198022e-04
<GCONST> 9.695284e+01
<STATE> 3
<MEAN> 39
 -1.316640e-07 -3.042506e-07 -8.113349e-07 -2.704450e-07 -8.940697e-08 3.558486e-07 2.775619e-07 -7.116972e-08 -2.313016e-07 -5.337730e-08 -7.686330e-07 1.939375e-07 4.801621e-01 -5.634549e-03 1.092551e-02 -2.710233e-02 -3.769840e-02 6.501571e-03 9.808207e-03 6.079571e-02 7.149291e-02 4.513230e-02 9.368768e-03 2.157391e-02 1.522501e-02 7.801032e-04 -4.435104e-03 2.002229e-03 -1.118533e-02 1.459426e-02 1.139881e-02 2.073911e-02 6.736852e-03 7.208628e-03 2.975362e-05 4.053525e-02 8.427170e-03 -1.102434e-02 7.946248e-06
<VARIANCE> 39
 2.724396e+01 2.648991e+01 6.602194e+01 3.754314e+01 1.775099e+01 9.550914e+01 6.050906e+01 3.875903e+01 5.850575e+01 2.503574e+01 3.794865e+01 2.815730e+01 7.801302e-02 1.299117e+00 1.398548e+00 2.096649e+00 1.907510e+00 2.388801e+00 3.196788e+00 3.749241e+00 2.385591e+00 4.081913e+00 2.322622e+00 2.675673e+00 2.886310e+00 1.243457e-03 1.725263e-01 1.996459e-01 3.112569e-01 3.102525e-01 4.597510e-01 4.243272e-01 7.617076e-01 4.016678e-01 7.536547e-01 4.459622e-01 5.388803e-01 5.611429e-01 1.198022e-04
<GCONST> 9.695284e+01
<STATE> 4
<MEAN> 39
 -1.316640e-07 -3.042506e-07 -8.113349e-07 -2.704450e-07 -8.940697e-08 3.558486e-07 2.775619e-07 -7.116972e-08 -2.313016e-07 -5.337730e-08 -7.686330e-07 1.939375e-07 4.801621e-01 -5.634549e-03 1.092551e-02 -2.710233e-02 -3.769840e-02 6.501571e-03 9.808207e-03 6.079571e-02 7.149291e-02 4.513230e-02 9.368768e-03 2.157391e-02 1.522501e-02 7.801032e-04 -4.435104e-03 2.002229e-03 -1.118533e-02 1.459426e-02 1.139881e-02 2.073911e-02 6.736852e-03 7.208628e-03 2.975362e-05 4.053525e-02 8.427170e-03 -1.102434e-02 7.946248e-06
<VARIANCE> 39
 2.724396e+01 2.648991e+01 6.602194e+01 3.754314e+01 1.775099e+01 9.550914e+01 6.050906e+01 3.875903e+01 5.850575e+01 2.503574e+01 3.794865e+01 2.815730e+01 7.801302e-02 1.299117e+00 1.398548e+00 2.096649e+00 1.907510e+00 2.388801e+00 3.196788e+00 3.749241e+00 2.385591e+00 4.081913e+00 2.322622e+00 2.675673e+00 2.886310e+00 1.243457e-03 1.725263e-01 1.996459e-01 3.112569e-01 3.102525e-01 4.597510e-01 4.243272e-01 7.617076e-01 4.016678e-01 7.536547e-01 4.459622e-01 5.388803e-01 5.611429e-01 1.198022e-04
<GCONST> 9.695284e+01
<STATE> 5
<MEAN> 39
 -1.316640e-07 -3.042506e-07 -8.113349e-07 -2.704450e-07 -8.940697e-08 3.558486e-07 2.775619e-07 -7.116972e-08 -2.313016e-07 -5.337730e-08 -7.686330e-07 1.939375e-07 4.801621e-01 -5.634549e-03 1.092551e-02 -2.710233e-02 -3.769840e-02 6.501571e-03 9.808207e-03 6.079571e-02 7.149291e-02 4.513230e-02 9.368768e-03 2.157391e-02 1.522501e-02 7.801032e-04 -4.435104e-03 2.002229e-03 -1.118533e-02 1.459426e-02 1.139881e-02 2.073911e-02 6.736852e-03 7.208628e-03 2.975362e-05 4.053525e-02 8.427170e-03 -1.102434e-02 7.946248e-06
<VARIANCE> 39
 2.724396e+01 2.648991e+01 6.602194e+01 3.754314e+01 1.775099e+01 9.550914e+01 6.050906e+01 3.875903e+01 5.850575e+01 2.503574e+01 3.794865e+01 2.815730e+01 7.801302e-02 1.299117e+00 1.398548e+00 2.096649e+00 1.907510e+00 2.388801e+00 3.196788e+00 3.749241e+00 2.385591e+00 4.081913e+00 2.322622e+00 2.675673e+00 2.886310e+00 1.243457e-03 1.725263e-01 1.996459e-01 3.112569e-01 3.102525e-01 4.597510e-01 4.243272e-01 7.617076e-01 4.016678e-01 7.536547e-01 4.459622e-01 5.388803e-01 5.611429e-01 1.198022e-04
<GCONST> 9.695284e+01
<STATE> 6
<MEAN> 39
 -1.316640e-07 -3.042506e-07 -8.113349e-07 -2.704450e-07 -8.940697e-08 3.558486e-07 2.775619e-07 -7.116972e-08 -2.313016e-07 -5.337730e-08 -7.686330e-07 1.939375e-07 4.801621e-01 -5.634549e-03 1.092551e-02 -2.710233e-02 -3.769840e-02 6.501571e-03 9.808207e-03 6.079571e-02 7.149291e-02 4.513230e-02 9.368768e-03 2.157391e-02 1.522501e-02 7.801032e-04 -4.435104e-03 2.002229e-03 -1.118533e-02 1.459426e-02 1.139881e-02 2.073911e-02 6.736852e-03 7.208628e-03 2.975362e-05 4.053525e-02 8.427170e-03 -1.102434e-02 7.946248e-06
<VARIANCE> 39
 2.724396e+01 2.648991e+01 6.602194e+01 3.754314e+01 1.775099e+01 9.550914e+01 6.050906e+01 3.875903e+01 5.850575e+01 2.503574e+01 3.794865e+01 2.815730e+01 7.801302e-02 1.299117e+00 1.398548e+00 2.096649e+00 1.907510e+00 2.388801e+00 3.196788e+00 3.749241e+00 2.385591e+00 4.081913e+00 2.322622e+00 2.675673e+00 2.886310e+00 1.243457e-03 1.725263e-01 1.996459e-01 3.112569e-01 3.102525e-01 4.597510e-01 4.243272e-01 7.617076e-01 4.016678e-01 7.536547e-01 4.459622e-01 5.388803e-01 5.611429e-01 1.198022e-04
<GCONST> 9.695284e+01
<STATE> 7
<MEAN> 39
 -1.316640e-07 -3.042506e-07 -8.113349e-07 -2.704450e-07 -8.940697e-08 3.558486e-07 2.775619e-07 -7.116972e-08 -2.313016e-07 -5.337730e-08 -7.686330e-07 1.939375e-07 4.801621e-01 -5.634549e-03 1.092551e-02 -2.710233e-02 -3.769840e-02 6.501571e-03 9.808207e-03 6.079571e-02 7.149291e-02 4.513230e-02 9.368768e-03 2.157391e-02 1.522501e-02 7.801032e-04 -4.435104e-03 2.002229e-03 -1.118533e-02 1.459426e-02 1.139881e-02 2.073911e-02 6.736852e-03 7.208628e-03 2.975362e-05 4.053525e-02 8.427170e-03 -1.102434e-02 7.946248e-06
<VARIANCE> 39
 2.724396e+01 2.648991e+01 6.602194e+01 3.754314e+01 1.775099e+01 9.550914e+01 6.050906e+01 3.875903e+01 5.850575e+01 2.503574e+01 3.794865e+01 2.815730e+01 7.801302e-02 1.299117e+00 1.398548e+00 2.096649e+00 1.907510e+00 2.388801e+00 3.196788e+00 3.749241e+00 2.385591e+00 4.081913e+00 2.322622e+00 2.675673e+00 2.886310e+00 1.243457e-03 1.725263e-01 1.996459e-01 3.112569e-01 3.102525e-01 4.597510e-01 4.243272e-01 7.617076e-01 4.016678e-01 7.536547e-01 4.459622e-01 5.388803e-01 5.611429e-01 1.198022e-04
<GCONST> 9.695284e+01
<STATE> 8
<MEAN> 39
 -1.316640e-07 -3.042506e-07 -8.113349e-07 -2.704450e-07 -8.940697e-08 3.558486e-07 2.775619e-07 -7.116972e-08 -2.313016e-07 -5.337730e-08 -7.686330e-07 1.939375e-07 4.801621e-01 -5.634549e-03 1.092551e-02 -2.710233e-02 -3.769840e-02 6.501571e-03 9.808207e-03 6.079571e-02 7.149291e-02 4.513230e-02 9.368768e-03 2.157391e-02 1.522501e-02 7.801032e-04 -4.435104e-03 2.002229e-03 -1.118533e-02 1.459426e-02 1.139881e-02 2.073911e-02 6.736852e-03 7.208628e-03 2.975362e-05 4.053525e-02 8.427170e-03 -1.102434e-02 7.946248e-06
<VARIANCE> 39
 2.724396e+01 2.648991e+01 6.602194e+01 3.754314e+01 1.775099e+01 9.550914e+01 6.050906e+01 3.875903e+01 5.850575e+01 2.503574e+01 3.794865e+01 2.815730e+01 7.801302e-02 1.299117e+00 1.398548e+00 2.096649e+00 1.907510e+00 2.388801e+00 3.196788e+00 3.749241e+00 2.385591e+00 4.081913e+00 2.322622e+00 2.675673e+00 2.886310e+00 1.243457e-03 1.725263e-01 1.996459e-01 3.112569e-01 3.102525e-01 4.597510e-01 4.243272e-01 7.617076e-01 4.016678e-01 7.536547e-01 4.459622e-01 5.388803e-01 5.611429e-01 1.198022e-04
<GCONST> 9.695284e+01
<STATE> 9
<MEAN> 39
 -1.316640e-07 -3.042506e-07 -8.113349e-07 -2.704450e-07 -8.940697e-08 3.558486e-07 2.775619e-07 -7.116972e-08 -2.313016e-07 -5.337730e-08 -7.686330e-07 1.939375e-07 4.801621e-01 -5.634549e-03 1.092551e-02 -2.710233e-02 -3.769840e-02 6.501571e-03 9.808207e-03 6.079571e-02 7.149291e-02 4.513230e-02 9.368768e-03 2.157391e-02 1.522501e-02 7.801032e-04 -4.435104e-03 2.002229e-03 -1.118533e-02 1.459426e-02 1.139881e-02 2.073911e-02 6.736852e-03 7.208628e-03 2.975362e-05 4.053525e-02 8.427170e-03 -1.102434e-02 7.946248e-06
<VARIANCE> 39
 2.724396e+01 2.648991e+01 6.602194e+01 3.754314e+01 1.775099e+01 9.550914e+01 6.050906e+01 3.875903e+01 5.850575e+01 2.503574e+01 3.794865e+01 2.815730e+01 7.801302e-02 1.299117e+00 1.398548e+00 2.096649e+00 1.907510e+00 2.388801e+00 3.196788e+00 3.749241e+00 2.385591e+00 4.081913e+00 2.322622e+00 2.675673e+00 2.886310e+00 1.243457e-03 1.725263e-01 1.996459e-01 3.112569e-01 3.102525e-01 4.597510e-01 4.243272e-01 7.617076e-01 4.016678e-01 7.536547e-01 4.459622e-01 5.388803e-01 5.611429e-01 1.198022e-04
<GCONST> 9.695284e+01
<TRANSP> 10
 0.000000e+00 1.000000e+00 0.000000e+00 0.000000e+00 0.000000e+00 0.000000e+00 0.000000e+00 0.000000e+00 0.000000e+00 0.000000e+00
 0.000000e+00 9.000000e-01 9.999999e-02 0.000000e+00 0.000000e+00 0.000000e+00 0.000000e+00 0.000000e+00 0.000000e+00 0.000000e+00
 0.000000e+00 0.000000e+00 9.000000e-01 9.999999e-02 0.000000e+00 0.000000e+00 0.000000e+00 0.000000e+00 0.000000e+00 0.000000e+00
 0.000000e+00 0.000000e+00 0.000000e+00 9.000000e-01 9.999999e-02 0.000000e+00 0.000000e+00 0.000000e+00 0.000000e+00 0.000000e+00
 0.000000e+00 0.000000e+00 0.000000e+00 0.000000e+00 9.000000e-01 9.999999e-02 0.000000e+00 0.000000e+00 0.000000e+00 0.000000e+00
 0.000000e+00 0.000000e+00 0.000000e+00 0.000000e+00 0.000000e+00 9.000000e-01 9.999999e-02 0.000000e+00 0.000000e+00 0.000000e+00
 0.000000e+00 0.000000e+00 0.000000e+00 0.000000e+00 0.000000e+00 0.000000e+00 9.000000e-01 9.999999e-02 0.000000e+00 0.000000e+00
 0.000000e+00 0.000000e+00 0.000000e+00 0.000000e+00 0.000000e+00 0.000000e+00 0.000000e+00 9.000000e-01 9.999999e-02 0.000000e+00
 0.000000e+00 0.000000e+00 0.000000e+00 0.000000e+00 0.000000e+00 0.000000e+00 0.000000e+00 0.000000e+00 9.000000e-01 9.999999e-02
 0.000000e+00 0.000000e+00 0.000000e+00 0.000000e+00 0.000000e+00 0.000000e+00 0.000000e+00 0.000000e+00 0.000000e+00 0.000000e+00
<ENDHMM>
