~o
<STREAMINFO> 1 39
<VECSIZE> 39<NULLD><MFCC_E_D_A_Z><DIAGC>
~h "s037"
<BEGINHMM>
<NUMSTATES> 10
<STATE> 2
<MEAN> 39
 -8.754432e-08 -1.564622e-07 -2.831221e-07 1.490116e-07 0.000000e+00 -1.937151e-07 5.364418e-07 -3.725290e-07 1.415610e-07 8.940697e-08 -1.490116e-07 8.940697e-08 8.844730e-01 -6.835451e-02 6.322427e-02 6.129273e-01 -3.943062e-02 -4.759966e-01 3.034892e-01 6.789119e-01 -1.894741e-01 -4.511400e-02 2.442332e-02 2.419735e-01 2.418865e-01 -6.805078e-03 4.978135e-02 4.885551e-02 2.650975e-02 9.797306e-03 1.007775e-02 7.054628e-02 2.041547e-02 -6.971428e-02 1.050114e-02 -3.335955e-02 1.491354e-02 -1.934433e-02 -1.124482e-03
<VARIANCE> 39
 9.907699e+00 2.295444e+01 4.953437e+01 2.541875e+01 5.186961e+01 2.032785e+01 4.308493e+01 4.693689e+01 4.545790e+01 5.719966e+01 2.593817e+01 3.752370e+01 8.432101e-03 9.707168e-01 1.611155e+00 2.336941e+00 2.715116e+00 3.458794e+00 1.946492e+00 3.537480e+00 3.898223e+00 5.095744e+00 6.940279e+00 2.179148e+00 3.298822e+00 3.260521e-04 9.044307e-02 2.110491e-01 4.242633e-01 4.433086e-01 5.951273e-01 3.703469e-01 6.748179e-01 6.247002e-01 7.672221e-01 9.873999e-01 3.693642e-01 5.625063e-01 4.295989e-05
<GCONST> 9.320886e+01
<STATE> 3
<MEAN> 39
 -8.754432e-08 -1.564622e-07 -2.831221e-07 1.490116e-07 0.000000e+00 -1.937151e-07 5.364418e-07 -3.725290e-07 1.415610e-07 8.940697e-08 -1.490116e-07 8.940697e-08 8.844730e-01 -6.835451e-02 6.322427e-02 6.129273e-01 -3.943062e-02 -4.759966e-01 3.034892e-01 6.789119e-01 -1.894741e-01 -4.511400e-02 2.442332e-02 2.419735e-01 2.418865e-01 -6.805078e-03 4.978135e-02 4.885551e-02 2.650975e-02 9.797306e-03 1.007775e-02 7.054628e-02 2.041547e-02 -6.971428e-02 1.050114e-02 -3.335955e-02 1.491354e-02 -1.934433e-02 -1.124482e-03
<VARIANCE> 39
 9.907699e+00 2.295444e+01 4.953437e+01 2.541875e+01 5.186961e+01 2.032785e+01 4.308493e+01 4.693689e+01 4.545790e+01 5.719966e+01 2.593817e+01 3.752370e+01 8.432101e-03 9.707168e-01 1.611155e+00 2.336941e+00 2.715116e+00 3.458794e+00 1.946492e+00 3.537480e+00 3.898223e+00 5.095744e+00 6.940279e+00 2.179148e+00 3.298822e+00 3.260521e-04 9.044307e-02 2.110491e-01 4.242633e-01 4.433086e-01 5.951273e-01 3.703469e-01 6.748179e-01 6.247002e-01 7.672221e-01 9.873999e-01 3.693642e-01 5.625063e-01 4.295989e-05
<GCONST> 9.320886e+01
<STATE> 4
<MEAN> 39
 -8.754432e-08 -1.564622e-07 -2.831221e-07 1.490116e-07 0.000000e+00 -1.937151e-07 5.364418e-07 -3.725290e-07 1.415610e-07 8.940697e-08 -1.490116e-07 8.940697e-08 8.844730e-01 -6.835451e-02 6.322427e-02 6.129273e-01 -3.943062e-02 -4.759966e-01 3.034892e-01 6.789119e-01 -1.894741e-01 -4.511400e-02 2.442332e-02 2.419735e-01 2.418865e-01 -6.805078e-03 4.978135e-02 4.885551e-02 2.650975e-02 9.797306e-03 1.007775e-02 7.054628e-02 2.041547e-02 -6.971428e-02 1.050114e-02 -3.335955e-02 1.491354e-02 -1.934433e-02 -1.124482e-03
<VARIANCE> 39
 9.907699e+00 2.295444e+01 4.953437e+01 2.541875e+01 5.186961e+01 2.032785e+01 4.308493e+01 4.693689e+01 4.545790e+01 5.719966e+01 2.593817e+01 3.752370e+01 8.432101e-03 9.707168e-01 1.611155e+00 2.336941e+00 2.715116e+00 3.458794e+00 1.946492e+00 3.537480e+00 3.898223e+00 5.095744e+00 6.940279e+00 2.179148e+00 3.298822e+00 3.260521e-04 9.044307e-02 2.110491e-01 4.242633e-01 4.433086e-01 5.951273e-01 3.703469e-01 6.748179e-01 6.247002e-01 7.672221e-01 9.873999e-01 3.693642e-01 5.625063e-01 4.295989e-05
<GCONST> 9.320886e+01
<STATE> 5
<MEAN> 39
 -8.754432e-08 -1.564622e-07 -2.831221e-07 1.490116e-07 0.000000e+00 -1.937151e-07 5.364418e-07 -3.725290e-07 1.415610e-07 8.940697e-08 -1.490116e-07 8.940697e-08 8.844730e-01 -6.835451e-02 6.322427e-02 6.129273e-01 -3.943062e-02 -4.759966e-01 3.034892e-01 6.789119e-01 -1.894741e-01 -4.511400e-02 2.442332e-02 2.419735e-01 2.418865e-01 -6.805078e-03 4.978135e-02 4.885551e-02 2.650975e-02 9.797306e-03 1.007775e-02 7.054628e-02 2.041547e-02 -6.971428e-02 1.050114e-02 -3.335955e-02 1.491354e-02 -1.934433e-02 -1.124482e-03
<VARIANCE> 39
 9.907699e+00 2.295444e+01 4.953437e+01 2.541875e+01 5.186961e+01 2.032785e+01 4.308493e+01 4.693689e+01 4.545790e+01 5.719966e+01 2.593817e+01 3.752370e+01 8.432101e-03 9.707168e-01 1.611155e+00 2.336941e+00 2.715116e+00 3.458794e+00 1.946492e+00 3.537480e+00 3.898223e+00 5.095744e+00 6.940279e+00 2.179148e+00 3.298822e+00 3.260521e-04 9.044307e-02 2.110491e-01 4.242633e-01 4.433086e-01 5.951273e-01 3.703469e-01 6.748179e-01 6.247002e-01 7.672221e-01 9.873999e-01 3.693642e-01 5.625063e-01 4.295989e-05
<GCONST> 9.320886e+01
<STATE> 6
<MEAN> 39
 -8.754432e-08 -1.564622e-07 -2.831221e-07 1.490116e-07 0.000000e+00 -1.937151e-07 5.364418e-07 -3.725290e-07 1.415610e-07 8.940697e-08 -1.490116e-07 8.940697e-08 8.844730e-01 -6.835451e-02 6.322427e-02 6.129273e-01 -3.943062e-02 -4.759966e-01 3.034892e-01 6.789119e-01 -1.894741e-01 -4.511400e-02 2.442332e-02 2.419735e-01 2.418865e-01 -6.805078e-03 4.978135e-02 4.885551e-02 2.650975e-02 9.797306e-03 1.007775e-02 7.054628e-02 2.041547e-02 -6.971428e-02 1.050114e-02 -3.335955e-02 1.491354e-02 -1.934433e-02 -1.124482e-03
<VARIANCE> 39
 9.907699e+00 2.295444e+01 4.953437e+01 2.541875e+01 5.186961e+01 2.032785e+01 4.308493e+01 4.693689e+01 4.545790e+01 5.719966e+01 2.593817e+01 3.752370e+01 8.432101e-03 9.707168e-01 1.611155e+00 2.336941e+00 2.715116e+00 3.458794e+00 1.946492e+00 3.537480e+00 3.898223e+00 5.095744e+00 6.940279e+00 2.179148e+00 3.298822e+00 3.260521e-04 9.044307e-02 2.110491e-01 4.242633e-01 4.433086e-01 5.951273e-01 3.703469e-01 6.748179e-01 6.247002e-01 7.672221e-01 9.873999e-01 3.693642e-01 5.625063e-01 4.295989e-05
<GCONST> 9.320886e+01
<STATE> 7
<MEAN> 39
 -8.754432e-08 -1.564622e-07 -2.831221e-07 1.490116e-07 0.000000e+00 -1.937151e-07 5.364418e-07 -3.725290e-07 1.415610e-07 8.940697e-08 -1.490116e-07 8.940697e-08 8.844730e-01 -6.835451e-02 6.322427e-02 6.129273e-01 -3.943062e-02 -4.759966e-01 3.034892e-01 6.789119e-01 -1.894741e-01 -4.511400e-02 2.442332e-02 2.419735e-01 2.418865e-01 -6.805078e-03 4.978135e-02 4.885551e-02 2.650975e-02 9.797306e-03 1.007775e-02 7.054628e-02 2.041547e-02 -6.971428e-02 1.050114e-02 -3.335955e-02 1.491354e-02 -1.934433e-02 -1.124482e-03
<VARIANCE> 39
 9.907699e+00 2.295444e+01 4.953437e+01 2.541875e+01 5.186961e+01 2.032785e+01 4.308493e+01 4.693689e+01 4.545790e+01 5.719966e+01 2.593817e+01 3.752370e+01 8.432101e-03 9.707168e-01 1.611155e+00 2.336941e+00 2.715116e+00 3.458794e+00 1.946492e+00 3.537480e+00 3.898223e+00 5.095744e+00 6.940279e+00 2.179148e+00 3.298822e+00 3.260521e-04 9.044307e-02 2.110491e-01 4.242633e-01 4.433086e-01 5.951273e-01 3.703469e-01 6.748179e-01 6.247002e-01 7.672221e-01 9.873999e-01 3.693642e-01 5.625063e-01 4.295989e-05
<GCONST> 9.320886e+01
<STATE> 8
<MEAN> 39
 -8.754432e-08 -1.564622e-07 -2.831221e-07 1.490116e-07 0.000000e+00 -1.937151e-07 5.364418e-07 -3.725290e-07 1.415610e-07 8.940697e-08 -1.490116e-07 8.940697e-08 8.844730e-01 -6.835451e-02 6.322427e-02 6.129273e-01 -3.943062e-02 -4.759966e-01 3.034892e-01 6.789119e-01 -1.894741e-01 -4.511400e-02 2.442332e-02 2.419735e-01 2.418865e-01 -6.805078e-03 4.978135e-02 4.885551e-02 2.650975e-02 9.797306e-03 1.007775e-02 7.054628e-02 2.041547e-02 -6.971428e-02 1.050114e-02 -3.335955e-02 1.491354e-02 -1.934433e-02 -1.124482e-03
<VARIANCE> 39
 9.907699e+00 2.295444e+01 4.953437e+01 2.541875e+01 5.186961e+01 2.032785e+01 4.308493e+01 4.693689e+01 4.545790e+01 5.719966e+01 2.593817e+01 3.752370e+01 8.432101e-03 9.707168e-01 1.611155e+00 2.336941e+00 2.715116e+00 3.458794e+00 1.946492e+00 3.537480e+00 3.898223e+00 5.095744e+00 6.940279e+00 2.179148e+00 3.298822e+00 3.260521e-04 9.044307e-02 2.110491e-01 4.242633e-01 4.433086e-01 5.951273e-01 3.703469e-01 6.748179e-01 6.247002e-01 7.672221e-01 9.873999e-01 3.693642e-01 5.625063e-01 4.295989e-05
<GCONST> 9.320886e+01
<STATE> 9
<MEAN> 39
 -8.754432e-08 -1.564622e-07 -2.831221e-07 1.490116e-07 0.000000e+00 -1.937151e-07 5.364418e-07 -3.725290e-07 1.415610e-07 8.940697e-08 -1.490116e-07 8.940697e-08 8.844730e-01 -6.835451e-02 6.322427e-02 6.129273e-01 -3.943062e-02 -4.759966e-01 3.034892e-01 6.789119e-01 -1.894741e-01 -4.511400e-02 2.442332e-02 2.419735e-01 2.418865e-01 -6.805078e-03 4.978135e-02 4.885551e-02 2.650975e-02 9.797306e-03 1.007775e-02 7.054628e-02 2.041547e-02 -6.971428e-02 1.050114e-02 -3.335955e-02 1.491354e-02 -1.934433e-02 -1.124482e-03
<VARIANCE> 39
 9.907699e+00 2.295444e+01 4.953437e+01 2.541875e+01 5.186961e+01 2.032785e+01 4.308493e+01 4.693689e+01 4.545790e+01 5.719966e+01 2.593817e+01 3.752370e+01 8.432101e-03 9.707168e-01 1.611155e+00 2.336941e+00 2.715116e+00 3.458794e+00 1.946492e+00 3.537480e+00 3.898223e+00 5.095744e+00 6.940279e+00 2.179148e+00 3.298822e+00 3.260521e-04 9.044307e-02 2.110491e-01 4.242633e-01 4.433086e-01 5.951273e-01 3.703469e-01 6.748179e-01 6.247002e-01 7.672221e-01 9.873999e-01 3.693642e-01 5.625063e-01 4.295989e-05
<GCONST> 9.320886e+01
<TRANSP> 10
 0.000000e+00 1.000000e+00 0.000000e+00 0.000000e+00 0.000000e+00 0.000000e+00 0.000000e+00 0.000000e+00 0.000000e+00 0.000000e+00
 0.000000e+00 9.000000e-01 9.999999e-02 0.000000e+00 0.000000e+00 0.000000e+00 0.000000e+00 0.000000e+00 0.000000e+00 0.000000e+00
 0.000000e+00 0.000000e+00 9.000000e-01 9.999999e-02 0.000000e+00 0.000000e+00 0.000000e+00 0.000000e+00 0.000000e+00 0.000000e+00
 0.000000e+00 0.000000e+00 0.000000e+00 9.000000e-01 9.999999e-02 0.000000e+00 0.000000e+00 0.000000e+00 0.000000e+00 0.000000e+00
 0.000000e+00 0.000000e+00 0.000000e+00 0.000000e+00 9.000000e-01 9.999999e-02 0.000000e+00 0.000000e+00 0.000000e+00 0.000000e+00
 0.000000e+00 0.000000e+00 0.000000e+00 0.000000e+00 0.000000e+00 9.000000e-01 9.999999e-02 0.000000e+00 0.000000e+00 0.000000e+00
 0.000000e+00 0.000000e+00 0.000000e+00 0.000000e+00 0.000000e+00 0.000000e+00 9.000000e-01 9.999999e-02 0.000000e+00 0.000000e+00
 0.000000e+00 0.000000e+00 0.000000e+00 0.000000e+00 0.000000e+00 0.000000e+00 0.000000e+00 9.000000e-01 9.999999e-02 0.000000e+00
 0.000000e+00 0.000000e+00 0.000000e+00 0.000000e+00 0.000000e+00 0.000000e+00 0.000000e+00 0.000000e+00 9.000000e-01 9.999999e-02
 0.000000e+00 0.000000e+00 0.000000e+00 0.000000e+00 0.000000e+00 0.000000e+00 0.000000e+00 0.000000e+00 0.000000e+00 0.000000e+00
<ENDHMM>
