~o
<STREAMINFO> 1 39
<VECSIZE> 39<NULLD><MFCC_E_D_A_Z><DIAGC>
~h "s041"
<BEGINHMM>
<NUMSTATES> 10
<STATE> 2
<MEAN> 39
 2.637823e-07 -1.826185e-07 -1.375980e-07 1.623275e-07 1.166729e-07 2.536368e-07 -2.739277e-07 4.058189e-07 4.058188e-08 -1.521821e-08 9.130925e-08 -1.585230e-08 3.682462e-01 8.177846e-03 -2.827956e-02 5.981640e-03 1.297833e-02 3.052665e-02 2.294659e-02 2.034695e-02 1.500308e-02 5.069916e-02 3.701757e-02 -7.667914e-02 -1.233430e-02 6.295912e-04 8.348632e-03 -1.116799e-02 -3.563395e-02 2.795765e-02 -4.909007e-02 1.629563e-02 7.692043e-02 1.648574e-03 -1.121011e-05 -1.107087e-04 4.134634e-03 -1.804186e-03 -2.064049e-05
<VARIANCE> 39
 1.751784e+01 2.544721e+01 1.441440e+01 4.307955e+01 1.570338e+01 1.336382e+02 2.693281e+01 8.480069e+01 2.656657e+01 1.813690e+01 2.192504e+01 2.201838e+01 1.061708e-01 9.213650e-01 1.028720e+00 1.117510e+00 2.083919e+00 1.957084e+00 4.574473e+00 3.544242e+00 3.565660e+00 2.512501e+00 2.253311e+00 2.096165e+00 1.990111e+00 1.482866e-03 1.609346e-01 1.558746e-01 2.111121e-01 3.549429e-01 3.615244e-01 7.345294e-01 7.355400e-01 5.955240e-01 4.952484e-01 4.467944e-01 3.960053e-01 3.938970e-01 1.263000e-04
<GCONST> 9.110271e+01
<STATE> 3
<MEAN> 39
 2.637823e-07 -1.826185e-07 -1.375980e-07 1.623275e-07 1.166729e-07 2.536368e-07 -2.739277e-07 4.058189e-07 4.058188e-08 -1.521821e-08 9.130925e-08 -1.585230e-08 3.682462e-01 8.177846e-03 -2.827956e-02 5.981640e-03 1.297833e-02 3.052665e-02 2.294659e-02 2.034695e-02 1.500308e-02 5.069916e-02 3.701757e-02 -7.667914e-02 -1.233430e-02 6.295912e-04 8.348632e-03 -1.116799e-02 -3.563395e-02 2.795765e-02 -4.909007e-02 1.629563e-02 7.692043e-02 1.648574e-03 -1.121011e-05 -1.107087e-04 4.134634e-03 -1.804186e-03 -2.064049e-05
<VARIANCE> 39
 1.751784e+01 2.544721e+01 1.441440e+01 4.307955e+01 1.570338e+01 1.336382e+02 2.693281e+01 8.480069e+01 2.656657e+01 1.813690e+01 2.192504e+01 2.201838e+01 1.061708e-01 9.213650e-01 1.028720e+00 1.117510e+00 2.083919e+00 1.957084e+00 4.574473e+00 3.544242e+00 3.565660e+00 2.512501e+00 2.253311e+00 2.096165e+00 1.990111e+00 1.482866e-03 1.609346e-01 1.558746e-01 2.111121e-01 3.549429e-01 3.615244e-01 7.345294e-01 7.355400e-01 5.955240e-01 4.952484e-01 4.467944e-01 3.960053e-01 3.938970e-01 1.263000e-04
<GCONST> 9.110271e+01
<STATE> 4
<MEAN> 39
 2.637823e-07 -1.826185e-07 -1.375980e-07 1.623275e-07 1.166729e-07 2.536368e-07 -2.739277e-07 4.058189e-07 4.058188e-08 -1.521821e-08 9.130925e-08 -1.585230e-08 3.682462e-01 8.177846e-03 -2.827956e-02 5.981640e-03 1.297833e-02 3.052665e-02 2.294659e-02 2.034695e-02 1.500308e-02 5.069916e-02 3.701757e-02 -7.667914e-02 -1.233430e-02 6.295912e-04 8.348632e-03 -1.116799e-02 -3.563395e-02 2.795765e-02 -4.909007e-02 1.629563e-02 7.692043e-02 1.648574e-03 -1.121011e-05 -1.107087e-04 4.134634e-03 -1.804186e-03 -2.064049e-05
<VARIANCE> 39
 1.751784e+01 2.544721e+01 1.441440e+01 4.307955e+01 1.570338e+01 1.336382e+02 2.693281e+01 8.480069e+01 2.656657e+01 1.813690e+01 2.192504e+01 2.201838e+01 1.061708e-01 9.213650e-01 1.028720e+00 1.117510e+00 2.083919e+00 1.957084e+00 4.574473e+00 3.544242e+00 3.565660e+00 2.512501e+00 2.253311e+00 2.096165e+00 1.990111e+00 1.482866e-03 1.609346e-01 1.558746e-01 2.111121e-01 3.549429e-01 3.615244e-01 7.345294e-01 7.355400e-01 5.955240e-01 4.952484e-01 4.467944e-01 3.960053e-01 3.938970e-01 1.263000e-04
<GCONST> 9.110271e+01
<STATE> 5
<MEAN> 39
 2.637823e-07 -1.826185e-07 -1.375980e-07 1.623275e-07 1.166729e-07 2.536368e-07 -2.739277e-07 4.058189e-07 4.058188e-08 -1.521821e-08 9.130925e-08 -1.585230e-08 3.682462e-01 8.177846e-03 -2.827956e-02 5.981640e-03 1.297833e-02 3.052665e-02 2.294659e-02 2.034695e-02 1.500308e-02 5.069916e-02 3.701757e-02 -7.667914e-02 -1.233430e-02 6.295912e-04 8.348632e-03 -1.116799e-02 -3.563395e-02 2.795765e-02 -4.909007e-02 1.629563e-02 7.692043e-02 1.648574e-03 -1.121011e-05 -1.107087e-04 4.134634e-03 -1.804186e-03 -2.064049e-05
<VARIANCE> 39
 1.751784e+01 2.544721e+01 1.441440e+01 4.307955e+01 1.570338e+01 1.336382e+02 2.693281e+01 8.480069e+01 2.656657e+01 1.813690e+01 2.192504e+01 2.201838e+01 1.061708e-01 9.213650e-01 1.028720e+00 1.117510e+00 2.083919e+00 1.957084e+00 4.574473e+00 3.544242e+00 3.565660e+00 2.512501e+00 2.253311e+00 2.096165e+00 1.990111e+00 1.482866e-03 1.609346e-01 1.558746e-01 2.111121e-01 3.549429e-01 3.615244e-01 7.345294e-01 7.355400e-01 5.955240e-01 4.952484e-01 4.467944e-01 3.960053e-01 3.938970e-01 1.263000e-04
<GCONST> 9.110271e+01
<STATE> 6
<MEAN> 39
 2.637823e-07 -1.826185e-07 -1.375980e-07 1.623275e-07 1.166729e-07 2.536368e-07 -2.739277e-07 4.058189e-07 4.058188e-08 -1.521821e-08 9.130925e-08 -1.585230e-08 3.682462e-01 8.177846e-03 -2.827956e-02 5.981640e-03 1.297833e-02 3.052665e-02 2.294659e-02 2.034695e-02 1.500308e-02 5.069916e-02 3.701757e-02 -7.667914e-02 -1.233430e-02 6.295912e-04 8.348632e-03 -1.116799e-02 -3.563395e-02 2.795765e-02 -4.909007e-02 1.629563e-02 7.692043e-02 1.648574e-03 -1.121011e-05 -1.107087e-04 4.134634e-03 -1.804186e-03 -2.064049e-05
<VARIANCE> 39
 1.751784e+01 2.544721e+01 1.441440e+01 4.307955e+01 1.570338e+01 1.336382e+02 2.693281e+01 8.480069e+01 2.656657e+01 1.813690e+01 2.192504e+01 2.201838e+01 1.061708e-01 9.213650e-01 1.028720e+00 1.117510e+00 2.083919e+00 1.957084e+00 4.574473e+00 3.544242e+00 3.565660e+00 2.512501e+00 2.253311e+00 2.096165e+00 1.990111e+00 1.482866e-03 1.609346e-01 1.558746e-01 2.111121e-01 3.549429e-01 3.615244e-01 7.345294e-01 7.355400e-01 5.955240e-01 4.952484e-01 4.467944e-01 3.960053e-01 3.938970e-01 1.263000e-04
<GCONST> 9.110271e+01
<STATE> 7
<MEAN> 39
 2.637823e-07 -1.826185e-07 -1.375980e-07 1.623275e-07 1.166729e-07 2.536368e-07 -2.739277e-07 4.058189e-07 4.058188e-08 -1.521821e-08 9.130925e-08 -1.585230e-08 3.682462e-01 8.177846e-03 -2.827956e-02 5.981640e-03 1.297833e-02 3.052665e-02 2.294659e-02 2.034695e-02 1.500308e-02 5.069916e-02 3.701757e-02 -7.667914e-02 -1.233430e-02 6.295912e-04 8.348632e-03 -1.116799e-02 -3.563395e-02 2.795765e-02 -4.909007e-02 1.629563e-02 7.692043e-02 1.648574e-03 -1.121011e-05 -1.107087e-04 4.134634e-03 -1.804186e-03 -2.064049e-05
<VARIANCE> 39
 1.751784e+01 2.544721e+01 1.441440e+01 4.307955e+01 1.570338e+01 1.336382e+02 2.693281e+01 8.480069e+01 2.656657e+01 1.813690e+01 2.192504e+01 2.201838e+01 1.061708e-01 9.213650e-01 1.028720e+00 1.117510e+00 2.083919e+00 1.957084e+00 4.574473e+00 3.544242e+00 3.565660e+00 2.512501e+00 2.253311e+00 2.096165e+00 1.990111e+00 1.482866e-03 1.609346e-01 1.558746e-01 2.111121e-01 3.549429e-01 3.615244e-01 7.345294e-01 7.355400e-01 5.955240e-01 4.952484e-01 4.467944e-01 3.960053e-01 3.938970e-01 1.263000e-04
<GCONST> 9.110271e+01
<STATE> 8
<MEAN> 39
 2.637823e-07 -1.826185e-07 -1.375980e-07 1.623275e-07 1.166729e-07 2.536368e-07 -2.739277e-07 4.058189e-07 4.058188e-08 -1.521821e-08 9.130925e-08 -1.585230e-08 3.682462e-01 8.177846e-03 -2.827956e-02 5.981640e-03 1.297833e-02 3.052665e-02 2.294659e-02 2.034695e-02 1.500308e-02 5.069916e-02 3.701757e-02 -7.667914e-02 -1.233430e-02 6.295912e-04 8.348632e-03 -1.116799e-02 -3.563395e-02 2.795765e-02 -4.909007e-02 1.629563e-02 7.692043e-02 1.648574e-03 -1.121011e-05 -1.107087e-04 4.134634e-03 -1.804186e-03 -2.064049e-05
<VARIANCE> 39
 1.751784e+01 2.544721e+01 1.441440e+01 4.307955e+01 1.570338e+01 1.336382e+02 2.693281e+01 8.480069e+01 2.656657e+01 1.813690e+01 2.192504e+01 2.201838e+01 1.061708e-01 9.213650e-01 1.028720e+00 1.117510e+00 2.083919e+00 1.957084e+00 4.574473e+00 3.544242e+00 3.565660e+00 2.512501e+00 2.253311e+00 2.096165e+00 1.990111e+00 1.482866e-03 1.609346e-01 1.558746e-01 2.111121e-01 3.549429e-01 3.615244e-01 7.345294e-01 7.355400e-01 5.955240e-01 4.952484e-01 4.467944e-01 3.960053e-01 3.938970e-01 1.263000e-04
<GCONST> 9.110271e+01
<STATE> 9
<MEAN> 39
 2.637823e-07 -1.826185e-07 -1.375980e-07 1.623275e-07 1.166729e-07 2.536368e-07 -2.739277e-07 4.058189e-07 4.058188e-08 -1.521821e-08 9.130925e-08 -1.585230e-08 3.682462e-01 8.177846e-03 -2.827956e-02 5.981640e-03 1.297833e-02 3.052665e-02 2.294659e-02 2.034695e-02 1.500308e-02 5.069916e-02 3.701757e-02 -7.667914e-02 -1.233430e-02 6.295912e-04 8.348632e-03 -1.116799e-02 -3.563395e-02 2.795765e-02 -4.909007e-02 1.629563e-02 7.692043e-02 1.648574e-03 -1.121011e-05 -1.107087e-04 4.134634e-03 -1.804186e-03 -2.064049e-05
<VARIANCE> 39
 1.751784e+01 2.544721e+01 1.441440e+01 4.307955e+01 1.570338e+01 1.336382e+02 2.693281e+01 8.480069e+01 2.656657e+01 1.813690e+01 2.192504e+01 2.201838e+01 1.061708e-01 9.213650e-01 1.028720e+00 1.117510e+00 2.083919e+00 1.957084e+00 4.574473e+00 3.544242e+00 3.565660e+00 2.512501e+00 2.253311e+00 2.096165e+00 1.990111e+00 1.482866e-03 1.609346e-01 1.558746e-01 2.111121e-01 3.549429e-01 3.615244e-01 7.345294e-01 7.355400e-01 5.955240e-01 4.952484e-01 4.467944e-01 3.960053e-01 3.938970e-01 1.263000e-04
<GCONST> 9.110271e+01
<TRANSP> 10
 0.000000e+00 1.000000e+00 0.000000e+00 0.000000e+00 0.000000e+00 0.000000e+00 0.000000e+00 0.000000e+00 0.000000e+00 0.000000e+00
 0.000000e+00 9.000000e-01 9.999999e-02 0.000000e+00 0.000000e+00 0.000000e+00 0.000000e+00 0.000000e+00 0.000000e+00 0.000000e+00
 0.000000e+00 0.000000e+00 9.000000e-01 9.999999e-02 0.000000e+00 0.000000e+00 0.000000e+00 0.000000e+00 0.000000e+00 0.000000e+00
 0.000000e+00 0.000000e+00 0.000000e+00 9.000000e-01 9.999999e-02 0.000000e+00 0.000000e+00 0.000000e+00 0.000000e+00 0.000000e+00
 0.000000e+00 0.000000e+00 0.000000e+00 0.000000e+00 9.000000e-01 9.999999e-02 0.000000e+00 0.000000e+00 0.000000e+00 0.000000e+00
 0.000000e+00 0.000000e+00 0.000000e+00 0.000000e+00 0.000000e+00 9.000000e-01 9.999999e-02 0.000000e+00 0.000000e+00 0.000000e+00
 0.000000e+00 0.000000e+00 0.000000e+00 0.000000e+00 0.000000e+00 0.000000e+00 9.000000e-01 9.999999e-02 0.000000e+00 0.000000e+00
 0.000000e+00 0.000000e+00 0.000000e+00 0.000000e+00 0.000000e+00 0.000000e+00 0.000000e+00 9.000000e-01 9.999999e-02 0.000000e+00
 0.000000e+00 0.000000e+00 0.000000e+00 0.000000e+00 0.000000e+00 0.000000e+00 0.000000e+00 0.000000e+00 9.000000e-01 9.999999e-02
 0.000000e+00 0.000000e+00 0.000000e+00 0.000000e+00 0.000000e+00 0.000000e+00 0.000000e+00 0.000000e+00 0.000000e+00 0.000000e+00
<ENDHMM>
