~o
<STREAMINFO> 1 39
<VECSIZE> 39<NULLD><MFCC_E_D_A_Z><DIAGC>
~h "s042"
<BEGINHMM>
<NUMSTATES> 10
<STATE> 2
<MEAN> 39
 -1.451243e-07 -1.347583e-07 -1.865885e-07 -1.554904e-07 -6.219615e-08 -2.280526e-07 4.457391e-07 5.597653e-07 -8.163245e-08 -1.762224e-07 -3.213468e-07 -5.183012e-08 7.933424e-01 3.230360e-01 9.310640e-03 -5.323837e-01 7.138018e-02 2.213201e-01 -1.562727e-01 -2.465039e-01 -2.592541e-01 -2.629800e-01 2.538388e-02 -1.129579e-01 1.373818e-01 5.556015e-03 -5.769888e-03 -2.063887e-02 -3.997083e-02 -2.400750e-02 -3.375199e-02 -3.011611e-02 5.169018e-02 4.111967e-02 8.836346e-02 -2.753621e-03 5.054868e-02 3.922287e-02 -5.565969e-04
<VARIANCE> 39
 3.259851e+01 2.485221e+01 1.033456e+02 4.618333e+01 8.998641e+01 7.131374e+01 2.048975e+01 4.146372e+01 5.011106e+01 2.688032e+01 3.833638e+01 3.791981e+01 2.248663e-02 2.972945e+00 2.051406e+00 4.277136e+00 3.797803e+00 2.802476e+00 5.297821e+00 2.044839e+00 4.382354e+00 5.718652e+00 5.625734e+00 4.029164e+00 3.873527e+00 1.554152e-03 5.085578e-01 3.227169e-01 5.407007e-01 7.011949e-01 2.502989e-01 7.262211e-01 3.665614e-01 8.249928e-01 5.340386e-01 1.417048e+00 6.392067e-01 6.026627e-01 1.463593e-04
<GCONST> 1.065477e+02
<STATE> 3
<MEAN> 39
 -1.451243e-07 -1.347583e-07 -1.865885e-07 -1.554904e-07 -6.219615e-08 -2.280526e-07 4.457391e-07 5.597653e-07 -8.163245e-08 -1.762224e-07 -3.213468e-07 -5.183012e-08 7.933424e-01 3.230360e-01 9.310640e-03 -5.323837e-01 7.138018e-02 2.213201e-01 -1.562727e-01 -2.465039e-01 -2.592541e-01 -2.629800e-01 2.538388e-02 -1.129579e-01 1.373818e-01 5.556015e-03 -5.769888e-03 -2.063887e-02 -3.997083e-02 -2.400750e-02 -3.375199e-02 -3.011611e-02 5.169018e-02 4.111967e-02 8.836346e-02 -2.753621e-03 5.054868e-02 3.922287e-02 -5.565969e-04
<VARIANCE> 39
 3.259851e+01 2.485221e+01 1.033456e+02 4.618333e+01 8.998641e+01 7.131374e+01 2.048975e+01 4.146372e+01 5.011106e+01 2.688032e+01 3.833638e+01 3.791981e+01 2.248663e-02 2.972945e+00 2.051406e+00 4.277136e+00 3.797803e+00 2.802476e+00 5.297821e+00 2.044839e+00 4.382354e+00 5.718652e+00 5.625734e+00 4.029164e+00 3.873527e+00 1.554152e-03 5.085578e-01 3.227169e-01 5.407007e-01 7.011949e-01 2.502989e-01 7.262211e-01 3.665614e-01 8.249928e-01 5.340386e-01 1.417048e+00 6.392067e-01 6.026627e-01 1.463593e-04
<GCONST> 1.065477e+02
<STATE> 4
<MEAN> 39
 -1.451243e-07 -1.347583e-07 -1.865885e-07 -1.554904e-07 -6.219615e-08 -2.280526e-07 4.457391e-07 5.597653e-07 -8.163245e-08 -1.762224e-07 -3.213468e-07 -5.183012e-08 7.933424e-01 3.230360e-01 9.310640e-03 -5.323837e-01 7.138018e-02 2.213201e-01 -1.562727e-01 -2.465039e-01 -2.592541e-01 -2.629800e-01 2.538388e-02 -1.129579e-01 1.373818e-01 5.556015e-03 -5.769888e-03 -2.063887e-02 -3.997083e-02 -2.400750e-02 -3.375199e-02 -3.011611e-02 5.169018e-02 4.111967e-02 8.836346e-02 -2.753621e-03 5.054868e-02 3.922287e-02 -5.565969e-04
<VARIANCE> 39
 3.259851e+01 2.485221e+01 1.033456e+02 4.618333e+01 8.998641e+01 7.131374e+01 2.048975e+01 4.146372e+01 5.011106e+01 2.688032e+01 3.833638e+01 3.791981e+01 2.248663e-02 2.972945e+00 2.051406e+00 4.277136e+00 3.797803e+00 2.802476e+00 5.297821e+00 2.044839e+00 4.382354e+00 5.718652e+00 5.625734e+00 4.029164e+00 3.873527e+00 1.554152e-03 5.085578e-01 3.227169e-01 5.407007e-01 7.011949e-01 2.502989e-01 7.262211e-01 3.665614e-01 8.249928e-01 5.340386e-01 1.417048e+00 6.392067e-01 6.026627e-01 1.463593e-04
<GCONST> 1.065477e+02
<STATE> 5
<MEAN> 39
 -1.451243e-07 -1.347583e-07 -1.865885e-07 -1.554904e-07 -6.219615e-08 -2.280526e-07 4.457391e-07 5.597653e-07 -8.163245e-08 -1.762224e-07 -3.213468e-07 -5.183012e-08 7.933424e-01 3.230360e-01 9.310640e-03 -5.323837e-01 7.138018e-02 2.213201e-01 -1.562727e-01 -2.465039e-01 -2.592541e-01 -2.629800e-01 2.538388e-02 -1.129579e-01 1.373818e-01 5.556015e-03 -5.769888e-03 -2.063887e-02 -3.997083e-02 -2.400750e-02 -3.375199e-02 -3.011611e-02 5.169018e-02 4.111967e-02 8.836346e-02 -2.753621e-03 5.054868e-02 3.922287e-02 -5.565969e-04
<VARIANCE> 39
 3.259851e+01 2.485221e+01 1.033456e+02 4.618333e+01 8.998641e+01 7.131374e+01 2.048975e+01 4.146372e+01 5.011106e+01 2.688032e+01 3.833638e+01 3.791981e+01 2.248663e-02 2.972945e+00 2.051406e+00 4.277136e+00 3.797803e+00 2.802476e+00 5.297821e+00 2.044839e+00 4.382354e+00 5.718652e+00 5.625734e+00 4.029164e+00 3.873527e+00 1.554152e-03 5.085578e-01 3.227169e-01 5.407007e-01 7.011949e-01 2.502989e-01 7.262211e-01 3.665614e-01 8.249928e-01 5.340386e-01 1.417048e+00 6.392067e-01 6.026627e-01 1.463593e-04
<GCONST> 1.065477e+02
<STATE> 6
<MEAN> 39
 -1.451243e-07 -1.347583e-07 -1.865885e-07 -1.554904e-07 -6.219615e-08 -2.280526e-07 4.457391e-07 5.597653e-07 -8.163245e-08 -1.762224e-07 -3.213468e-07 -5.183012e-08 7.933424e-01 3.230360e-01 9.310640e-03 -5.323837e-01 7.138018e-02 2.213201e-01 -1.562727e-01 -2.465039e-01 -2.592541e-01 -2.629800e-01 2.538388e-02 -1.129579e-01 1.373818e-01 5.556015e-03 -5.769888e-03 -2.063887e-02 -3.997083e-02 -2.400750e-02 -3.375199e-02 -3.011611e-02 5.169018e-02 4.111967e-02 8.836346e-02 -2.753621e-03 5.054868e-02 3.922287e-02 -5.565969e-04
<VARIANCE> 39
 3.259851e+01 2.485221e+01 1.033456e+02 4.618333e+01 8.998641e+01 7.131374e+01 2.048975e+01 4.146372e+01 5.011106e+01 2.688032e+01 3.833638e+01 3.791981e+01 2.248663e-02 2.972945e+00 2.051406e+00 4.277136e+00 3.797803e+00 2.802476e+00 5.297821e+00 2.044839e+00 4.382354e+00 5.718652e+00 5.625734e+00 4.029164e+00 3.873527e+00 1.554152e-03 5.085578e-01 3.227169e-01 5.407007e-01 7.011949e-01 2.502989e-01 7.262211e-01 3.665614e-01 8.249928e-01 5.340386e-01 1.417048e+00 6.392067e-01 6.026627e-01 1.463593e-04
<GCONST> 1.065477e+02
<STATE> 7
<MEAN> 39
 -1.451243e-07 -1.347583e-07 -1.865885e-07 -1.554904e-07 -6.219615e-08 -2.280526e-07 4.457391e-07 5.597653e-07 -8.163245e-08 -1.762224e-07 -3.213468e-07 -5.183012e-08 7.933424e-01 3.230360e-01 9.310640e-03 -5.323837e-01 7.138018e-02 2.213201e-01 -1.562727e-01 -2.465039e-01 -2.592541e-01 -2.629800e-01 2.538388e-02 -1.129579e-01 1.373818e-01 5.556015e-03 -5.769888e-03 -2.063887e-02 -3.997083e-02 -2.400750e-02 -3.375199e-02 -3.011611e-02 5.169018e-02 4.111967e-02 8.836346e-02 -2.753621e-03 5.054868e-02 3.922287e-02 -5.565969e-04
<VARIANCE> 39
 3.259851e+01 2.485221e+01 1.033456e+02 4.618333e+01 8.998641e+01 7.131374e+01 2.048975e+01 4.146372e+01 5.011106e+01 2.688032e+01 3.833638e+01 3.791981e+01 2.248663e-02 2.972945e+00 2.051406e+00 4.277136e+00 3.797803e+00 2.802476e+00 5.297821e+00 2.044839e+00 4.382354e+00 5.718652e+00 5.625734e+00 4.029164e+00 3.873527e+00 1.554152e-03 5.085578e-01 3.227169e-01 5.407007e-01 7.011949e-01 2.502989e-01 7.262211e-01 3.665614e-01 8.249928e-01 5.340386e-01 1.417048e+00 6.392067e-01 6.026627e-01 1.463593e-04
<GCONST> 1.065477e+02
<STATE> 8
<MEAN> 39
 -1.451243e-07 -1.347583e-07 -1.865885e-07 -1.554904e-07 -6.219615e-08 -2.280526e-07 4.457391e-07 5.597653e-07 -8.163245e-08 -1.762224e-07 -3.213468e-07 -5.183012e-08 7.933424e-01 3.230360e-01 9.310640e-03 -5.323837e-01 7.138018e-02 2.213201e-01 -1.562727e-01 -2.465039e-01 -2.592541e-01 -2.629800e-01 2.538388e-02 -1.129579e-01 1.373818e-01 5.556015e-03 -5.769888e-03 -2.063887e-02 -3.997083e-02 -2.400750e-02 -3.375199e-02 -3.011611e-02 5.169018e-02 4.111967e-02 8.836346e-02 -2.753621e-03 5.054868e-02 3.922287e-02 -5.565969e-04
<VARIANCE> 39
 3.259851e+01 2.485221e+01 1.033456e+02 4.618333e+01 8.998641e+01 7.131374e+01 2.048975e+01 4.146372e+01 5.011106e+01 2.688032e+01 3.833638e+01 3.791981e+01 2.248663e-02 2.972945e+00 2.051406e+00 4.277136e+00 3.797803e+00 2.802476e+00 5.297821e+00 2.044839e+00 4.382354e+00 5.718652e+00 5.625734e+00 4.029164e+00 3.873527e+00 1.554152e-03 5.085578e-01 3.227169e-01 5.407007e-01 7.011949e-01 2.502989e-01 7.262211e-01 3.665614e-01 8.249928e-01 5.340386e-01 1.417048e+00 6.392067e-01 6.026627e-01 1.463593e-04
<GCONST> 1.065477e+02
<STATE> 9
<MEAN> 39
 -1.451243e-07 -1.347583e-07 -1.865885e-07 -1.554904e-07 -6.219615e-08 -2.280526e-07 4.457391e-07 5.597653e-07 -8.163245e-08 -1.762224e-07 -3.213468e-07 -5.183012e-08 7.933424e-01 3.230360e-01 9.310640e-03 -5.323837e-01 7.138018e-02 2.213201e-01 -1.562727e-01 -2.465039e-01 -2.592541e-01 -2.629800e-01 2.538388e-02 -1.129579e-01 1.373818e-01 5.556015e-03 -5.769888e-03 -2.063887e-02 -3.997083e-02 -2.400750e-02 -3.375199e-02 -3.011611e-02 5.169018e-02 4.111967e-02 8.836346e-02 -2.753621e-03 5.054868e-02 3.922287e-02 -5.565969e-04
<VARIANCE> 39
 3.259851e+01 2.485221e+01 1.033456e+02 4.618333e+01 8.998641e+01 7.131374e+01 2.048975e+01 4.146372e+01 5.011106e+01 2.688032e+01 3.833638e+01 3.791981e+01 2.248663e-02 2.972945e+00 2.051406e+00 4.277136e+00 3.797803e+00 2.802476e+00 5.297821e+00 2.044839e+00 4.382354e+00 5.718652e+00 5.625734e+00 4.029164e+00 3.873527e+00 1.554152e-03 5.085578e-01 3.227169e-01 5.407007e-01 7.011949e-01 2.502989e-01 7.262211e-01 3.665614e-01 8.249928e-01 5.340386e-01 1.417048e+00 6.392067e-01 6.026627e-01 1.463593e-04
<GCONST> 1.065477e+02
<TRANSP> 10
 0.000000e+00 1.000000e+00 0.000000e+00 0.000000e+00 0.000000e+00 0.000000e+00 0.000000e+00 0.000000e+00 0.000000e+00 0.000000e+00
 0.000000e+00 9.000000e-01 9.999999e-02 0.000000e+00 0.000000e+00 0.000000e+00 0.000000e+00 0.000000e+00 0.000000e+00 0.000000e+00
 0.000000e+00 0.000000e+00 9.000000e-01 9.999999e-02 0.000000e+00 0.000000e+00 0.000000e+00 0.000000e+00 0.000000e+00 0.000000e+00
 0.000000e+00 0.000000e+00 0.000000e+00 9.000000e-01 9.999999e-02 0.000000e+00 0.000000e+00 0.000000e+00 0.000000e+00 0.000000e+00
 0.000000e+00 0.000000e+00 0.000000e+00 0.000000e+00 9.000000e-01 9.999999e-02 0.000000e+00 0.000000e+00 0.000000e+00 0.000000e+00
 0.000000e+00 0.000000e+00 0.000000e+00 0.000000e+00 0.000000e+00 9.000000e-01 9.999999e-02 0.000000e+00 0.000000e+00 0.000000e+00
 0.000000e+00 0.000000e+00 0.000000e+00 0.000000e+00 0.000000e+00 0.000000e+00 9.000000e-01 9.999999e-02 0.000000e+00 0.000000e+00
 0.000000e+00 0.000000e+00 0.000000e+00 0.000000e+00 0.000000e+00 0.000000e+00 0.000000e+00 9.000000e-01 9.999999e-02 0.000000e+00
 0.000000e+00 0.000000e+00 0.000000e+00 0.000000e+00 0.000000e+00 0.000000e+00 0.000000e+00 0.000000e+00 9.000000e-01 9.999999e-02
 0.000000e+00 0.000000e+00 0.000000e+00 0.000000e+00 0.000000e+00 0.000000e+00 0.000000e+00 0.000000e+00 0.000000e+00 0.000000e+00
<ENDHMM>
