~o
<STREAMINFO> 1 39
<VECSIZE> 39<NULLD><MFCC_E_D_A_Z><DIAGC>
~h "s043"
<BEGINHMM>
<NUMSTATES> 10
<STATE> 2
<MEAN> 39
 -7.629394e-08 -8.106232e-08 -8.344650e-09 3.433228e-07 1.525879e-07 -4.005432e-07 -5.340576e-07 3.719330e-07 -2.145767e-07 -9.536743e-09 -1.144409e-07 1.335144e-07 7.416800e-01 4.110866e-01 -5.956383e-02 5.368422e-02 7.070476e-03 -4.672645e-01 1.014419e-01 -2.100684e-01 -3.567569e-02 -1.864518e-02 4.307457e-02 1.305557e-01 1.842686e-01 2.795135e-03 1.240106e-02 -6.002092e-04 6.721015e-03 -8.139575e-03 5.649767e-03 4.085450e-02 1.942880e-02 2.457816e-02 2.036108e-02 -4.057168e-02 6.298303e-04 4.143107e-02 -7.688063e-04
<VARIANCE> 39
 3.691763e+01 8.887547e+00 1.899540e+01 6.676023e+01 3.190907e+01 4.978778e+01 5.669151e+01 5.775962e+01 2.291232e+01 3.273892e+01 2.696156e+01 5.699819e+01 3.623460e-02 1.317487e+00 9.796897e-01 1.656690e+00 4.141126e+00 3.756567e+00 5.731646e+00 6.476123e+00 4.234900e+00 3.289843e+00 3.442003e+00 3.015666e+00 5.102602e+00 2.986534e-03 2.490805e-01 1.845098e-01 2.590559e-01 5.842983e-01 6.857075e-01 9.946182e-01 1.230989e+00 7.296737e-01 7.615116e-01 7.723787e-01 5.989350e-01 7.826187e-01 3.086179e-04
<GCONST> 1.037992e+02
<STATE> 3
<MEAN> 39
 -7.629394e-08 -8.106232e-08 -8.344650e-09 3.433228e-07 1.525879e-07 -4.005432e-07 -5.340576e-07 3.719330e-07 -2.145767e-07 -9.536743e-09 -1.144409e-07 1.335144e-07 7.416800e-01 4.110866e-01 -5.956383e-02 5.368422e-02 7.070476e-03 -4.672645e-01 1.014419e-01 -2.100684e-01 -3.567569e-02 -1.864518e-02 4.307457e-02 1.305557e-01 1.842686e-01 2.795135e-03 1.240106e-02 -6.002092e-04 6.721015e-03 -8.139575e-03 5.649767e-03 4.085450e-02 1.942880e-02 2.457816e-02 2.036108e-02 -4.057168e-02 6.298303e-04 4.143107e-02 -7.688063e-04
<VARIANCE> 39
 3.691763e+01 8.887547e+00 1.899540e+01 6.676023e+01 3.190907e+01 4.978778e+01 5.669151e+01 5.775962e+01 2.291232e+01 3.273892e+01 2.696156e+01 5.699819e+01 3.623460e-02 1.317487e+00 9.796897e-01 1.656690e+00 4.141126e+00 3.756567e+00 5.731646e+00 6.476123e+00 4.234900e+00 3.289843e+00 3.442003e+00 3.015666e+00 5.102602e+00 2.986534e-03 2.490805e-01 1.845098e-01 2.590559e-01 5.842983e-01 6.857075e-01 9.946182e-01 1.230989e+00 7.296737e-01 7.615116e-01 7.723787e-01 5.989350e-01 7.826187e-01 3.086179e-04
<GCONST> 1.037992e+02
<STATE> 4
<MEAN> 39
 -7.629394e-08 -8.106232e-08 -8.344650e-09 3.433228e-07 1.525879e-07 -4.005432e-07 -5.340576e-07 3.719330e-07 -2.145767e-07 -9.536743e-09 -1.144409e-07 1.335144e-07 7.416800e-01 4.110866e-01 -5.956383e-02 5.368422e-02 7.070476e-03 -4.672645e-01 1.014419e-01 -2.100684e-01 -3.567569e-02 -1.864518e-02 4.307457e-02 1.305557e-01 1.842686e-01 2.795135e-03 1.240106e-02 -6.002092e-04 6.721015e-03 -8.139575e-03 5.649767e-03 4.085450e-02 1.942880e-02 2.457816e-02 2.036108e-02 -4.057168e-02 6.298303e-04 4.143107e-02 -7.688063e-04
<VARIANCE> 39
 3.691763e+01 8.887547e+00 1.899540e+01 6.676023e+01 3.190907e+01 4.978778e+01 5.669151e+01 5.775962e+01 2.291232e+01 3.273892e+01 2.696156e+01 5.699819e+01 3.623460e-02 1.317487e+00 9.796897e-01 1.656690e+00 4.141126e+00 3.756567e+00 5.731646e+00 6.476123e+00 4.234900e+00 3.289843e+00 3.442003e+00 3.015666e+00 5.102602e+00 2.986534e-03 2.490805e-01 1.845098e-01 2.590559e-01 5.842983e-01 6.857075e-01 9.946182e-01 1.230989e+00 7.296737e-01 7.615116e-01 7.723787e-01 5.989350e-01 7.826187e-01 3.086179e-04
<GCONST> 1.037992e+02
<STATE> 5
<MEAN> 39
 -7.629394e-08 -8.106232e-08 -8.344650e-09 3.433228e-07 1.525879e-07 -4.005432e-07 -5.340576e-07 3.719330e-07 -2.145767e-07 -9.536743e-09 -1.144409e-07 1.335144e-07 7.416800e-01 4.110866e-01 -5.956383e-02 5.368422e-02 7.070476e-03 -4.672645e-01 1.014419e-01 -2.100684e-01 -3.567569e-02 -1.864518e-02 4.307457e-02 1.305557e-01 1.842686e-01 2.795135e-03 1.240106e-02 -6.002092e-04 6.721015e-03 -8.139575e-03 5.649767e-03 4.085450e-02 1.942880e-02 2.457816e-02 2.036108e-02 -4.057168e-02 6.298303e-04 4.143107e-02 -7.688063e-04
<VARIANCE> 39
 3.691763e+01 8.887547e+00 1.899540e+01 6.676023e+01 3.190907e+01 4.978778e+01 5.669151e+01 5.775962e+01 2.291232e+01 3.273892e+01 2.696156e+01 5.699819e+01 3.623460e-02 1.317487e+00 9.796897e-01 1.656690e+00 4.141126e+00 3.756567e+00 5.731646e+00 6.476123e+00 4.234900e+00 3.289843e+00 3.442003e+00 3.015666e+00 5.102602e+00 2.986534e-03 2.490805e-01 1.845098e-01 2.590559e-01 5.842983e-01 6.857075e-01 9.946182e-01 1.230989e+00 7.296737e-01 7.615116e-01 7.723787e-01 5.989350e-01 7.826187e-01 3.086179e-04
<GCONST> 1.037992e+02
<STATE> 6
<MEAN> 39
 -7.629394e-08 -8.106232e-08 -8.344650e-09 3.433228e-07 1.525879e-07 -4.005432e-07 -5.340576e-07 3.719330e-07 -2.145767e-07 -9.536743e-09 -1.144409e-07 1.335144e-07 7.416800e-01 4.110866e-01 -5.956383e-02 5.368422e-02 7.070476e-03 -4.672645e-01 1.014419e-01 -2.100684e-01 -3.567569e-02 -1.864518e-02 4.307457e-02 1.305557e-01 1.842686e-01 2.795135e-03 1.240106e-02 -6.002092e-04 6.721015e-03 -8.139575e-03 5.649767e-03 4.085450e-02 1.942880e-02 2.457816e-02 2.036108e-02 -4.057168e-02 6.298303e-04 4.143107e-02 -7.688063e-04
<VARIANCE> 39
 3.691763e+01 8.887547e+00 1.899540e+01 6.676023e+01 3.190907e+01 4.978778e+01 5.669151e+01 5.775962e+01 2.291232e+01 3.273892e+01 2.696156e+01 5.699819e+01 3.623460e-02 1.317487e+00 9.796897e-01 1.656690e+00 4.141126e+00 3.756567e+00 5.731646e+00 6.476123e+00 4.234900e+00 3.289843e+00 3.442003e+00 3.015666e+00 5.102602e+00 2.986534e-03 2.490805e-01 1.845098e-01 2.590559e-01 5.842983e-01 6.857075e-01 9.946182e-01 1.230989e+00 7.296737e-01 7.615116e-01 7.723787e-01 5.989350e-01 7.826187e-01 3.086179e-04
<GCONST> 1.037992e+02
<STATE> 7
<MEAN> 39
 -7.629394e-08 -8.106232e-08 -8.344650e-09 3.433228e-07 1.525879e-07 -4.005432e-07 -5.340576e-07 3.719330e-07 -2.145767e-07 -9.536743e-09 -1.144409e-07 1.335144e-07 7.416800e-01 4.110866e-01 -5.956383e-02 5.368422e-02 7.070476e-03 -4.672645e-01 1.014419e-01 -2.100684e-01 -3.567569e-02 -1.864518e-02 4.307457e-02 1.305557e-01 1.842686e-01 2.795135e-03 1.240106e-02 -6.002092e-04 6.721015e-03 -8.139575e-03 5.649767e-03 4.085450e-02 1.942880e-02 2.457816e-02 2.036108e-02 -4.057168e-02 6.298303e-04 4.143107e-02 -7.688063e-04
<VARIANCE> 39
 3.691763e+01 8.887547e+00 1.899540e+01 6.676023e+01 3.190907e+01 4.978778e+01 5.669151e+01 5.775962e+01 2.291232e+01 3.273892e+01 2.696156e+01 5.699819e+01 3.623460e-02 1.317487e+00 9.796897e-01 1.656690e+00 4.141126e+00 3.756567e+00 5.731646e+00 6.476123e+00 4.234900e+00 3.289843e+00 3.442003e+00 3.015666e+00 5.102602e+00 2.986534e-03 2.490805e-01 1.845098e-01 2.590559e-01 5.842983e-01 6.857075e-01 9.946182e-01 1.230989e+00 7.296737e-01 7.615116e-01 7.723787e-01 5.989350e-01 7.826187e-01 3.086179e-04
<GCONST> 1.037992e+02
<STATE> 8
<MEAN> 39
 -7.629394e-08 -8.106232e-08 -8.344650e-09 3.433228e-07 1.525879e-07 -4.005432e-07 -5.340576e-07 3.719330e-07 -2.145767e-07 -9.536743e-09 -1.144409e-07 1.335144e-07 7.416800e-01 4.110866e-01 -5.956383e-02 5.368422e-02 7.070476e-03 -4.672645e-01 1.014419e-01 -2.100684e-01 -3.567569e-02 -1.864518e-02 4.307457e-02 1.305557e-01 1.842686e-01 2.795135e-03 1.240106e-02 -6.002092e-04 6.721015e-03 -8.139575e-03 5.649767e-03 4.085450e-02 1.942880e-02 2.457816e-02 2.036108e-02 -4.057168e-02 6.298303e-04 4.143107e-02 -7.688063e-04
<VARIANCE> 39
 3.691763e+01 8.887547e+00 1.899540e+01 6.676023e+01 3.190907e+01 4.978778e+01 5.669151e+01 5.775962e+01 2.291232e+01 3.273892e+01 2.696156e+01 5.699819e+01 3.623460e-02 1.317487e+00 9.796897e-01 1.656690e+00 4.141126e+00 3.756567e+00 5.731646e+00 6.476123e+00 4.234900e+00 3.289843e+00 3.442003e+00 3.015666e+00 5.102602e+00 2.986534e-03 2.490805e-01 1.845098e-01 2.590559e-01 5.842983e-01 6.857075e-01 9.946182e-01 1.230989e+00 7.296737e-01 7.615116e-01 7.723787e-01 5.989350e-01 7.826187e-01 3.086179e-04
<GCONST> 1.037992e+02
<STATE> 9
<MEAN> 39
 -7.629394e-08 -8.106232e-08 -8.344650e-09 3.433228e-07 1.525879e-07 -4.005432e-07 -5.340576e-07 3.719330e-07 -2.145767e-07 -9.536743e-09 -1.144409e-07 1.335144e-07 7.416800e-01 4.110866e-01 -5.956383e-02 5.368422e-02 7.070476e-03 -4.672645e-01 1.014419e-01 -2.100684e-01 -3.567569e-02 -1.864518e-02 4.307457e-02 1.305557e-01 1.842686e-01 2.795135e-03 1.240106e-02 -6.002092e-04 6.721015e-03 -8.139575e-03 5.649767e-03 4.085450e-02 1.942880e-02 2.457816e-02 2.036108e-02 -4.057168e-02 6.298303e-04 4.143107e-02 -7.688063e-04
<VARIANCE> 39
 3.691763e+01 8.887547e+00 1.899540e+01 6.676023e+01 3.190907e+01 4.978778e+01 5.669151e+01 5.775962e+01 2.291232e+01 3.273892e+01 2.696156e+01 5.699819e+01 3.623460e-02 1.317487e+00 9.796897e-01 1.656690e+00 4.141126e+00 3.756567e+00 5.731646e+00 6.476123e+00 4.234900e+00 3.289843e+00 3.442003e+00 3.015666e+00 5.102602e+00 2.986534e-03 2.490805e-01 1.845098e-01 2.590559e-01 5.842983e-01 6.857075e-01 9.946182e-01 1.230989e+00 7.296737e-01 7.615116e-01 7.723787e-01 5.989350e-01 7.826187e-01 3.086179e-04
<GCONST> 1.037992e+02
<TRANSP> 10
 0.000000e+00 1.000000e+00 0.000000e+00 0.000000e+00 0.000000e+00 0.000000e+00 0.000000e+00 0.000000e+00 0.000000e+00 0.000000e+00
 0.000000e+00 9.000000e-01 9.999999e-02 0.000000e+00 0.000000e+00 0.000000e+00 0.000000e+00 0.000000e+00 0.000000e+00 0.000000e+00
 0.000000e+00 0.000000e+00 9.000000e-01 9.999999e-02 0.000000e+00 0.000000e+00 0.000000e+00 0.000000e+00 0.000000e+00 0.000000e+00
 0.000000e+00 0.000000e+00 0.000000e+00 9.000000e-01 9.999999e-02 0.000000e+00 0.000000e+00 0.000000e+00 0.000000e+00 0.000000e+00
 0.000000e+00 0.000000e+00 0.000000e+00 0.000000e+00 9.000000e-01 9.999999e-02 0.000000e+00 0.000000e+00 0.000000e+00 0.000000e+00
 0.000000e+00 0.000000e+00 0.000000e+00 0.000000e+00 0.000000e+00 9.000000e-01 9.999999e-02 0.000000e+00 0.000000e+00 0.000000e+00
 0.000000e+00 0.000000e+00 0.000000e+00 0.000000e+00 0.000000e+00 0.000000e+00 9.000000e-01 9.999999e-02 0.000000e+00 0.000000e+00
 0.000000e+00 0.000000e+00 0.000000e+00 0.000000e+00 0.000000e+00 0.000000e+00 0.000000e+00 9.000000e-01 9.999999e-02 0.000000e+00
 0.000000e+00 0.000000e+00 0.000000e+00 0.000000e+00 0.000000e+00 0.000000e+00 0.000000e+00 0.000000e+00 9.000000e-01 9.999999e-02
 0.000000e+00 0.000000e+00 0.000000e+00 0.000000e+00 0.000000e+00 0.000000e+00 0.000000e+00 0.000000e+00 0.000000e+00 0.000000e+00
<ENDHMM>
