~o
<STREAMINFO> 1 39
<VECSIZE> 39<NULLD><MFCC_E_D_A_Z><DIAGC>
~h "s045"
<BEGINHMM>
<NUMSTATES> 10
<STATE> 2
<MEAN> 39
 -1.589457e-07 -2.793968e-07 0.000000e+00 0.000000e+00 -1.788139e-07 7.947286e-08 -1.053015e-06 -4.371007e-07 -3.973643e-08 1.589457e-07 1.986821e-07 -1.490116e-07 7.466166e-01 -6.659404e-02 -1.346965e-01 3.568538e-02 -7.978863e-02 2.559654e-01 4.682400e-01 1.338356e-02 5.150152e-01 5.440677e-03 2.342391e-01 -1.137797e-01 -1.617680e-01 -4.522041e-03 1.933565e-03 -6.437266e-03 -1.576779e-02 1.037753e-02 6.256475e-02 1.029876e-01 5.893877e-02 -2.319277e-02 -1.928218e-02 1.172239e-02 5.989250e-03 6.455855e-03 -4.230896e-04
<VARIANCE> 39
 2.586534e+01 5.179170e+01 3.896123e+01 1.066239e+02 2.960117e+01 4.216465e+01 1.495525e+02 1.004564e+02 2.172173e+01 3.217112e+01 2.523672e+01 1.920364e+01 2.290868e-02 6.907042e-01 1.916348e+00 1.237881e+00 3.773393e+00 2.827813e+00 4.319340e+00 5.327929e+00 3.052447e+00 3.005292e+00 5.042959e+00 2.419878e+00 3.092794e+00 5.331133e-04 4.250217e-02 1.374528e-01 1.655750e-01 4.421985e-01 4.463098e-01 6.710815e-01 6.468475e-01 4.220794e-01 6.799126e-01 1.337535e+00 4.308233e-01 5.908264e-01 3.557165e-05
<GCONST> 9.525217e+01
<STATE> 3
<MEAN> 39
 -1.589457e-07 -2.793968e-07 0.000000e+00 0.000000e+00 -1.788139e-07 7.947286e-08 -1.053015e-06 -4.371007e-07 -3.973643e-08 1.589457e-07 1.986821e-07 -1.490116e-07 7.466166e-01 -6.659404e-02 -1.346965e-01 3.568538e-02 -7.978863e-02 2.559654e-01 4.682400e-01 1.338356e-02 5.150152e-01 5.440677e-03 2.342391e-01 -1.137797e-01 -1.617680e-01 -4.522041e-03 1.933565e-03 -6.437266e-03 -1.576779e-02 1.037753e-02 6.256475e-02 1.029876e-01 5.893877e-02 -2.319277e-02 -1.928218e-02 1.172239e-02 5.989250e-03 6.455855e-03 -4.230896e-04
<VARIANCE> 39
 2.586534e+01 5.179170e+01 3.896123e+01 1.066239e+02 2.960117e+01 4.216465e+01 1.495525e+02 1.004564e+02 2.172173e+01 3.217112e+01 2.523672e+01 1.920364e+01 2.290868e-02 6.907042e-01 1.916348e+00 1.237881e+00 3.773393e+00 2.827813e+00 4.319340e+00 5.327929e+00 3.052447e+00 3.005292e+00 5.042959e+00 2.419878e+00 3.092794e+00 5.331133e-04 4.250217e-02 1.374528e-01 1.655750e-01 4.421985e-01 4.463098e-01 6.710815e-01 6.468475e-01 4.220794e-01 6.799126e-01 1.337535e+00 4.308233e-01 5.908264e-01 3.557165e-05
<GCONST> 9.525217e+01
<STATE> 4
<MEAN> 39
 -1.589457e-07 -2.793968e-07 0.000000e+00 0.000000e+00 -1.788139e-07 7.947286e-08 -1.053015e-06 -4.371007e-07 -3.973643e-08 1.589457e-07 1.986821e-07 -1.490116e-07 7.466166e-01 -6.659404e-02 -1.346965e-01 3.568538e-02 -7.978863e-02 2.559654e-01 4.682400e-01 1.338356e-02 5.150152e-01 5.440677e-03 2.342391e-01 -1.137797e-01 -1.617680e-01 -4.522041e-03 1.933565e-03 -6.437266e-03 -1.576779e-02 1.037753e-02 6.256475e-02 1.029876e-01 5.893877e-02 -2.319277e-02 -1.928218e-02 1.172239e-02 5.989250e-03 6.455855e-03 -4.230896e-04
<VARIANCE> 39
 2.586534e+01 5.179170e+01 3.896123e+01 1.066239e+02 2.960117e+01 4.216465e+01 1.495525e+02 1.004564e+02 2.172173e+01 3.217112e+01 2.523672e+01 1.920364e+01 2.290868e-02 6.907042e-01 1.916348e+00 1.237881e+00 3.773393e+00 2.827813e+00 4.319340e+00 5.327929e+00 3.052447e+00 3.005292e+00 5.042959e+00 2.419878e+00 3.092794e+00 5.331133e-04 4.250217e-02 1.374528e-01 1.655750e-01 4.421985e-01 4.463098e-01 6.710815e-01 6.468475e-01 4.220794e-01 6.799126e-01 1.337535e+00 4.308233e-01 5.908264e-01 3.557165e-05
<GCONST> 9.525217e+01
<STATE> 5
<MEAN> 39
 -1.589457e-07 -2.793968e-07 0.000000e+00 0.000000e+00 -1.788139e-07 7.947286e-08 -1.053015e-06 -4.371007e-07 -3.973643e-08 1.589457e-07 1.986821e-07 -1.490116e-07 7.466166e-01 -6.659404e-02 -1.346965e-01 3.568538e-02 -7.978863e-02 2.559654e-01 4.682400e-01 1.338356e-02 5.150152e-01 5.440677e-03 2.342391e-01 -1.137797e-01 -1.617680e-01 -4.522041e-03 1.933565e-03 -6.437266e-03 -1.576779e-02 1.037753e-02 6.256475e-02 1.029876e-01 5.893877e-02 -2.319277e-02 -1.928218e-02 1.172239e-02 5.989250e-03 6.455855e-03 -4.230896e-04
<VARIANCE> 39
 2.586534e+01 5.179170e+01 3.896123e+01 1.066239e+02 2.960117e+01 4.216465e+01 1.495525e+02 1.004564e+02 2.172173e+01 3.217112e+01 2.523672e+01 1.920364e+01 2.290868e-02 6.907042e-01 1.916348e+00 1.237881e+00 3.773393e+00 2.827813e+00 4.319340e+00 5.327929e+00 3.052447e+00 3.005292e+00 5.042959e+00 2.419878e+00 3.092794e+00 5.331133e-04 4.250217e-02 1.374528e-01 1.655750e-01 4.421985e-01 4.463098e-01 6.710815e-01 6.468475e-01 4.220794e-01 6.799126e-01 1.337535e+00 4.308233e-01 5.908264e-01 3.557165e-05
<GCONST> 9.525217e+01
<STATE> 6
<MEAN> 39
 -1.589457e-07 -2.793968e-07 0.000000e+00 0.000000e+00 -1.788139e-07 7.947286e-08 -1.053015e-06 -4.371007e-07 -3.973643e-08 1.589457e-07 1.986821e-07 -1.490116e-07 7.466166e-01 -6.659404e-02 -1.346965e-01 3.568538e-02 -7.978863e-02 2.559654e-01 4.682400e-01 1.338356e-02 5.150152e-01 5.440677e-03 2.342391e-01 -1.137797e-01 -1.617680e-01 -4.522041e-03 1.933565e-03 -6.437266e-03 -1.576779e-02 1.037753e-02 6.256475e-02 1.029876e-01 5.893877e-02 -2.319277e-02 -1.928218e-02 1.172239e-02 5.989250e-03 6.455855e-03 -4.230896e-04
<VARIANCE> 39
 2.586534e+01 5.179170e+01 3.896123e+01 1.066239e+02 2.960117e+01 4.216465e+01 1.495525e+02 1.004564e+02 2.172173e+01 3.217112e+01 2.523672e+01 1.920364e+01 2.290868e-02 6.907042e-01 1.916348e+00 1.237881e+00 3.773393e+00 2.827813e+00 4.319340e+00 5.327929e+00 3.052447e+00 3.005292e+00 5.042959e+00 2.419878e+00 3.092794e+00 5.331133e-04 4.250217e-02 1.374528e-01 1.655750e-01 4.421985e-01 4.463098e-01 6.710815e-01 6.468475e-01 4.220794e-01 6.799126e-01 1.337535e+00 4.308233e-01 5.908264e-01 3.557165e-05
<GCONST> 9.525217e+01
<STATE> 7
<MEAN> 39
 -1.589457e-07 -2.793968e-07 0.000000e+00 0.000000e+00 -1.788139e-07 7.947286e-08 -1.053015e-06 -4.371007e-07 -3.973643e-08 1.589457e-07 1.986821e-07 -1.490116e-07 7.466166e-01 -6.659404e-02 -1.346965e-01 3.568538e-02 -7.978863e-02 2.559654e-01 4.682400e-01 1.338356e-02 5.150152e-01 5.440677e-03 2.342391e-01 -1.137797e-01 -1.617680e-01 -4.522041e-03 1.933565e-03 -6.437266e-03 -1.576779e-02 1.037753e-02 6.256475e-02 1.029876e-01 5.893877e-02 -2.319277e-02 -1.928218e-02 1.172239e-02 5.989250e-03 6.455855e-03 -4.230896e-04
<VARIANCE> 39
 2.586534e+01 5.179170e+01 3.896123e+01 1.066239e+02 2.960117e+01 4.216465e+01 1.495525e+02 1.004564e+02 2.172173e+01 3.217112e+01 2.523672e+01 1.920364e+01 2.290868e-02 6.907042e-01 1.916348e+00 1.237881e+00 3.773393e+00 2.827813e+00 4.319340e+00 5.327929e+00 3.052447e+00 3.005292e+00 5.042959e+00 2.419878e+00 3.092794e+00 5.331133e-04 4.250217e-02 1.374528e-01 1.655750e-01 4.421985e-01 4.463098e-01 6.710815e-01 6.468475e-01 4.220794e-01 6.799126e-01 1.337535e+00 4.308233e-01 5.908264e-01 3.557165e-05
<GCONST> 9.525217e+01
<STATE> 8
<MEAN> 39
 -1.589457e-07 -2.793968e-07 0.000000e+00 0.000000e+00 -1.788139e-07 7.947286e-08 -1.053015e-06 -4.371007e-07 -3.973643e-08 1.589457e-07 1.986821e-07 -1.490116e-07 7.466166e-01 -6.659404e-02 -1.346965e-01 3.568538e-02 -7.978863e-02 2.559654e-01 4.682400e-01 1.338356e-02 5.150152e-01 5.440677e-03 2.342391e-01 -1.137797e-01 -1.617680e-01 -4.522041e-03 1.933565e-03 -6.437266e-03 -1.576779e-02 1.037753e-02 6.256475e-02 1.029876e-01 5.893877e-02 -2.319277e-02 -1.928218e-02 1.172239e-02 5.989250e-03 6.455855e-03 -4.230896e-04
<VARIANCE> 39
 2.586534e+01 5.179170e+01 3.896123e+01 1.066239e+02 2.960117e+01 4.216465e+01 1.495525e+02 1.004564e+02 2.172173e+01 3.217112e+01 2.523672e+01 1.920364e+01 2.290868e-02 6.907042e-01 1.916348e+00 1.237881e+00 3.773393e+00 2.827813e+00 4.319340e+00 5.327929e+00 3.052447e+00 3.005292e+00 5.042959e+00 2.419878e+00 3.092794e+00 5.331133e-04 4.250217e-02 1.374528e-01 1.655750e-01 4.421985e-01 4.463098e-01 6.710815e-01 6.468475e-01 4.220794e-01 6.799126e-01 1.337535e+00 4.308233e-01 5.908264e-01 3.557165e-05
<GCONST> 9.525217e+01
<STATE> 9
<MEAN> 39
 -1.589457e-07 -2.793968e-07 0.000000e+00 0.000000e+00 -1.788139e-07 7.947286e-08 -1.053015e-06 -4.371007e-07 -3.973643e-08 1.589457e-07 1.986821e-07 -1.490116e-07 7.466166e-01 -6.659404e-02 -1.346965e-01 3.568538e-02 -7.978863e-02 2.559654e-01 4.682400e-01 1.338356e-02 5.150152e-01 5.440677e-03 2.342391e-01 -1.137797e-01 -1.617680e-01 -4.522041e-03 1.933565e-03 -6.437266e-03 -1.576779e-02 1.037753e-02 6.256475e-02 1.029876e-01 5.893877e-02 -2.319277e-02 -1.928218e-02 1.172239e-02 5.989250e-03 6.455855e-03 -4.230896e-04
<VARIANCE> 39
 2.586534e+01 5.179170e+01 3.896123e+01 1.066239e+02 2.960117e+01 4.216465e+01 1.495525e+02 1.004564e+02 2.172173e+01 3.217112e+01 2.523672e+01 1.920364e+01 2.290868e-02 6.907042e-01 1.916348e+00 1.237881e+00 3.773393e+00 2.827813e+00 4.319340e+00 5.327929e+00 3.052447e+00 3.005292e+00 5.042959e+00 2.419878e+00 3.092794e+00 5.331133e-04 4.250217e-02 1.374528e-01 1.655750e-01 4.421985e-01 4.463098e-01 6.710815e-01 6.468475e-01 4.220794e-01 6.799126e-01 1.337535e+00 4.308233e-01 5.908264e-01 3.557165e-05
<GCONST> 9.525217e+01
<TRANSP> 10
 0.000000e+00 1.000000e+00 0.000000e+00 0.000000e+00 0.000000e+00 0.000000e+00 0.000000e+00 0.000000e+00 0.000000e+00 0.000000e+00
 0.000000e+00 9.000000e-01 9.999999e-02 0.000000e+00 0.000000e+00 0.000000e+00 0.000000e+00 0.000000e+00 0.000000e+00 0.000000e+00
 0.000000e+00 0.000000e+00 9.000000e-01 9.999999e-02 0.000000e+00 0.000000e+00 0.000000e+00 0.000000e+00 0.000000e+00 0.000000e+00
 0.000000e+00 0.000000e+00 0.000000e+00 9.000000e-01 9.999999e-02 0.000000e+00 0.000000e+00 0.000000e+00 0.000000e+00 0.000000e+00
 0.000000e+00 0.000000e+00 0.000000e+00 0.000000e+00 9.000000e-01 9.999999e-02 0.000000e+00 0.000000e+00 0.000000e+00 0.000000e+00
 0.000000e+00 0.000000e+00 0.000000e+00 0.000000e+00 0.000000e+00 9.000000e-01 9.999999e-02 0.000000e+00 0.000000e+00 0.000000e+00
 0.000000e+00 0.000000e+00 0.000000e+00 0.000000e+00 0.000000e+00 0.000000e+00 9.000000e-01 9.999999e-02 0.000000e+00 0.000000e+00
 0.000000e+00 0.000000e+00 0.000000e+00 0.000000e+00 0.000000e+00 0.000000e+00 0.000000e+00 9.000000e-01 9.999999e-02 0.000000e+00
 0.000000e+00 0.000000e+00 0.000000e+00 0.000000e+00 0.000000e+00 0.000000e+00 0.000000e+00 0.000000e+00 9.000000e-01 9.999999e-02
 0.000000e+00 0.000000e+00 0.000000e+00 0.000000e+00 0.000000e+00 0.000000e+00 0.000000e+00 0.000000e+00 0.000000e+00 0.000000e+00
<ENDHMM>
