~o
<STREAMINFO> 1 39
<VECSIZE> 39<NULLD><MFCC_E_D_A_Z><DIAGC>
~h "s045"
<BEGINHMM>
<NUMSTATES> 10
<STATE> 2
<MEAN> 39
 4.058188e-08 -1.014547e-08 -2.054458e-07 -1.318911e-07 6.848193e-08 -4.058189e-07 -5.478554e-07 -2.739277e-07 -1.116002e-07 -6.087283e-08 4.945917e-08 6.340920e-08 4.556537e-01 5.563082e-02 -4.691034e-02 -2.819923e-02 -2.336771e-02 -1.140247e-01 2.905815e-02 -4.413268e-02 6.864679e-02 1.453089e-02 5.896363e-02 -9.475680e-02 1.834569e-02 -3.491764e-04 -9.594976e-04 -5.841306e-03 -1.611132e-02 -3.666256e-04 1.176345e-02 2.552713e-02 2.521290e-02 3.546064e-03 4.005415e-02 3.893407e-02 5.646069e-03 -1.247628e-02 9.767569e-05
<VARIANCE> 39
 1.808087e+01 3.294782e+01 2.547385e+01 8.752731e+01 3.165096e+01 8.923145e+01 9.474330e+01 7.495872e+01 2.110914e+01 2.777924e+01 2.372677e+01 2.741898e+01 1.042547e-01 6.150525e-01 1.626858e+00 1.143499e+00 2.415967e+00 2.304220e+00 4.473408e+00 3.181748e+00 3.631146e+00 2.606095e+00 4.027292e+00 1.959099e+00 2.517551e+00 1.131804e-03 6.883234e-02 1.926535e-01 1.935411e-01 3.154208e-01 3.824694e-01 7.991538e-01 5.206277e-01 6.226816e-01 5.822062e-01 9.457204e-01 3.269256e-01 5.023744e-01 1.151530e-04
<GCONST> 9.523785e+01
<STATE> 3
<MEAN> 39
 4.058188e-08 -1.014547e-08 -2.054458e-07 -1.318911e-07 6.848193e-08 -4.058189e-07 -5.478554e-07 -2.739277e-07 -1.116002e-07 -6.087283e-08 4.945917e-08 6.340920e-08 4.556537e-01 5.563082e-02 -4.691034e-02 -2.819923e-02 -2.336771e-02 -1.140247e-01 2.905815e-02 -4.413268e-02 6.864679e-02 1.453089e-02 5.896363e-02 -9.475680e-02 1.834569e-02 -3.491764e-04 -9.594976e-04 -5.841306e-03 -1.611132e-02 -3.666256e-04 1.176345e-02 2.552713e-02 2.521290e-02 3.546064e-03 4.005415e-02 3.893407e-02 5.646069e-03 -1.247628e-02 9.767569e-05
<VARIANCE> 39
 1.808087e+01 3.294782e+01 2.547385e+01 8.752731e+01 3.165096e+01 8.923145e+01 9.474330e+01 7.495872e+01 2.110914e+01 2.777924e+01 2.372677e+01 2.741898e+01 1.042547e-01 6.150525e-01 1.626858e+00 1.143499e+00 2.415967e+00 2.304220e+00 4.473408e+00 3.181748e+00 3.631146e+00 2.606095e+00 4.027292e+00 1.959099e+00 2.517551e+00 1.131804e-03 6.883234e-02 1.926535e-01 1.935411e-01 3.154208e-01 3.824694e-01 7.991538e-01 5.206277e-01 6.226816e-01 5.822062e-01 9.457204e-01 3.269256e-01 5.023744e-01 1.151530e-04
<GCONST> 9.523785e+01
<STATE> 4
<MEAN> 39
 4.058188e-08 -1.014547e-08 -2.054458e-07 -1.318911e-07 6.848193e-08 -4.058189e-07 -5.478554e-07 -2.739277e-07 -1.116002e-07 -6.087283e-08 4.945917e-08 6.340920e-08 4.556537e-01 5.563082e-02 -4.691034e-02 -2.819923e-02 -2.336771e-02 -1.140247e-01 2.905815e-02 -4.413268e-02 6.864679e-02 1.453089e-02 5.896363e-02 -9.475680e-02 1.834569e-02 -3.491764e-04 -9.594976e-04 -5.841306e-03 -1.611132e-02 -3.666256e-04 1.176345e-02 2.552713e-02 2.521290e-02 3.546064e-03 4.005415e-02 3.893407e-02 5.646069e-03 -1.247628e-02 9.767569e-05
<VARIANCE> 39
 1.808087e+01 3.294782e+01 2.547385e+01 8.752731e+01 3.165096e+01 8.923145e+01 9.474330e+01 7.495872e+01 2.110914e+01 2.777924e+01 2.372677e+01 2.741898e+01 1.042547e-01 6.150525e-01 1.626858e+00 1.143499e+00 2.415967e+00 2.304220e+00 4.473408e+00 3.181748e+00 3.631146e+00 2.606095e+00 4.027292e+00 1.959099e+00 2.517551e+00 1.131804e-03 6.883234e-02 1.926535e-01 1.935411e-01 3.154208e-01 3.824694e-01 7.991538e-01 5.206277e-01 6.226816e-01 5.822062e-01 9.457204e-01 3.269256e-01 5.023744e-01 1.151530e-04
<GCONST> 9.523785e+01
<STATE> 5
<MEAN> 39
 4.058188e-08 -1.014547e-08 -2.054458e-07 -1.318911e-07 6.848193e-08 -4.058189e-07 -5.478554e-07 -2.739277e-07 -1.116002e-07 -6.087283e-08 4.945917e-08 6.340920e-08 4.556537e-01 5.563082e-02 -4.691034e-02 -2.819923e-02 -2.336771e-02 -1.140247e-01 2.905815e-02 -4.413268e-02 6.864679e-02 1.453089e-02 5.896363e-02 -9.475680e-02 1.834569e-02 -3.491764e-04 -9.594976e-04 -5.841306e-03 -1.611132e-02 -3.666256e-04 1.176345e-02 2.552713e-02 2.521290e-02 3.546064e-03 4.005415e-02 3.893407e-02 5.646069e-03 -1.247628e-02 9.767569e-05
<VARIANCE> 39
 1.808087e+01 3.294782e+01 2.547385e+01 8.752731e+01 3.165096e+01 8.923145e+01 9.474330e+01 7.495872e+01 2.110914e+01 2.777924e+01 2.372677e+01 2.741898e+01 1.042547e-01 6.150525e-01 1.626858e+00 1.143499e+00 2.415967e+00 2.304220e+00 4.473408e+00 3.181748e+00 3.631146e+00 2.606095e+00 4.027292e+00 1.959099e+00 2.517551e+00 1.131804e-03 6.883234e-02 1.926535e-01 1.935411e-01 3.154208e-01 3.824694e-01 7.991538e-01 5.206277e-01 6.226816e-01 5.822062e-01 9.457204e-01 3.269256e-01 5.023744e-01 1.151530e-04
<GCONST> 9.523785e+01
<STATE> 6
<MEAN> 39
 4.058188e-08 -1.014547e-08 -2.054458e-07 -1.318911e-07 6.848193e-08 -4.058189e-07 -5.478554e-07 -2.739277e-07 -1.116002e-07 -6.087283e-08 4.945917e-08 6.340920e-08 4.556537e-01 5.563082e-02 -4.691034e-02 -2.819923e-02 -2.336771e-02 -1.140247e-01 2.905815e-02 -4.413268e-02 6.864679e-02 1.453089e-02 5.896363e-02 -9.475680e-02 1.834569e-02 -3.491764e-04 -9.594976e-04 -5.841306e-03 -1.611132e-02 -3.666256e-04 1.176345e-02 2.552713e-02 2.521290e-02 3.546064e-03 4.005415e-02 3.893407e-02 5.646069e-03 -1.247628e-02 9.767569e-05
<VARIANCE> 39
 1.808087e+01 3.294782e+01 2.547385e+01 8.752731e+01 3.165096e+01 8.923145e+01 9.474330e+01 7.495872e+01 2.110914e+01 2.777924e+01 2.372677e+01 2.741898e+01 1.042547e-01 6.150525e-01 1.626858e+00 1.143499e+00 2.415967e+00 2.304220e+00 4.473408e+00 3.181748e+00 3.631146e+00 2.606095e+00 4.027292e+00 1.959099e+00 2.517551e+00 1.131804e-03 6.883234e-02 1.926535e-01 1.935411e-01 3.154208e-01 3.824694e-01 7.991538e-01 5.206277e-01 6.226816e-01 5.822062e-01 9.457204e-01 3.269256e-01 5.023744e-01 1.151530e-04
<GCONST> 9.523785e+01
<STATE> 7
<MEAN> 39
 4.058188e-08 -1.014547e-08 -2.054458e-07 -1.318911e-07 6.848193e-08 -4.058189e-07 -5.478554e-07 -2.739277e-07 -1.116002e-07 -6.087283e-08 4.945917e-08 6.340920e-08 4.556537e-01 5.563082e-02 -4.691034e-02 -2.819923e-02 -2.336771e-02 -1.140247e-01 2.905815e-02 -4.413268e-02 6.864679e-02 1.453089e-02 5.896363e-02 -9.475680e-02 1.834569e-02 -3.491764e-04 -9.594976e-04 -5.841306e-03 -1.611132e-02 -3.666256e-04 1.176345e-02 2.552713e-02 2.521290e-02 3.546064e-03 4.005415e-02 3.893407e-02 5.646069e-03 -1.247628e-02 9.767569e-05
<VARIANCE> 39
 1.808087e+01 3.294782e+01 2.547385e+01 8.752731e+01 3.165096e+01 8.923145e+01 9.474330e+01 7.495872e+01 2.110914e+01 2.777924e+01 2.372677e+01 2.741898e+01 1.042547e-01 6.150525e-01 1.626858e+00 1.143499e+00 2.415967e+00 2.304220e+00 4.473408e+00 3.181748e+00 3.631146e+00 2.606095e+00 4.027292e+00 1.959099e+00 2.517551e+00 1.131804e-03 6.883234e-02 1.926535e-01 1.935411e-01 3.154208e-01 3.824694e-01 7.991538e-01 5.206277e-01 6.226816e-01 5.822062e-01 9.457204e-01 3.269256e-01 5.023744e-01 1.151530e-04
<GCONST> 9.523785e+01
<STATE> 8
<MEAN> 39
 4.058188e-08 -1.014547e-08 -2.054458e-07 -1.318911e-07 6.848193e-08 -4.058189e-07 -5.478554e-07 -2.739277e-07 -1.116002e-07 -6.087283e-08 4.945917e-08 6.340920e-08 4.556537e-01 5.563082e-02 -4.691034e-02 -2.819923e-02 -2.336771e-02 -1.140247e-01 2.905815e-02 -4.413268e-02 6.864679e-02 1.453089e-02 5.896363e-02 -9.475680e-02 1.834569e-02 -3.491764e-04 -9.594976e-04 -5.841306e-03 -1.611132e-02 -3.666256e-04 1.176345e-02 2.552713e-02 2.521290e-02 3.546064e-03 4.005415e-02 3.893407e-02 5.646069e-03 -1.247628e-02 9.767569e-05
<VARIANCE> 39
 1.808087e+01 3.294782e+01 2.547385e+01 8.752731e+01 3.165096e+01 8.923145e+01 9.474330e+01 7.495872e+01 2.110914e+01 2.777924e+01 2.372677e+01 2.741898e+01 1.042547e-01 6.150525e-01 1.626858e+00 1.143499e+00 2.415967e+00 2.304220e+00 4.473408e+00 3.181748e+00 3.631146e+00 2.606095e+00 4.027292e+00 1.959099e+00 2.517551e+00 1.131804e-03 6.883234e-02 1.926535e-01 1.935411e-01 3.154208e-01 3.824694e-01 7.991538e-01 5.206277e-01 6.226816e-01 5.822062e-01 9.457204e-01 3.269256e-01 5.023744e-01 1.151530e-04
<GCONST> 9.523785e+01
<STATE> 9
<MEAN> 39
 4.058188e-08 -1.014547e-08 -2.054458e-07 -1.318911e-07 6.848193e-08 -4.058189e-07 -5.478554e-07 -2.739277e-07 -1.116002e-07 -6.087283e-08 4.945917e-08 6.340920e-08 4.556537e-01 5.563082e-02 -4.691034e-02 -2.819923e-02 -2.336771e-02 -1.140247e-01 2.905815e-02 -4.413268e-02 6.864679e-02 1.453089e-02 5.896363e-02 -9.475680e-02 1.834569e-02 -3.491764e-04 -9.594976e-04 -5.841306e-03 -1.611132e-02 -3.666256e-04 1.176345e-02 2.552713e-02 2.521290e-02 3.546064e-03 4.005415e-02 3.893407e-02 5.646069e-03 -1.247628e-02 9.767569e-05
<VARIANCE> 39
 1.808087e+01 3.294782e+01 2.547385e+01 8.752731e+01 3.165096e+01 8.923145e+01 9.474330e+01 7.495872e+01 2.110914e+01 2.777924e+01 2.372677e+01 2.741898e+01 1.042547e-01 6.150525e-01 1.626858e+00 1.143499e+00 2.415967e+00 2.304220e+00 4.473408e+00 3.181748e+00 3.631146e+00 2.606095e+00 4.027292e+00 1.959099e+00 2.517551e+00 1.131804e-03 6.883234e-02 1.926535e-01 1.935411e-01 3.154208e-01 3.824694e-01 7.991538e-01 5.206277e-01 6.226816e-01 5.822062e-01 9.457204e-01 3.269256e-01 5.023744e-01 1.151530e-04
<GCONST> 9.523785e+01
<TRANSP> 10
 0.000000e+00 1.000000e+00 0.000000e+00 0.000000e+00 0.000000e+00 0.000000e+00 0.000000e+00 0.000000e+00 0.000000e+00 0.000000e+00
 0.000000e+00 9.000000e-01 9.999999e-02 0.000000e+00 0.000000e+00 0.000000e+00 0.000000e+00 0.000000e+00 0.000000e+00 0.000000e+00
 0.000000e+00 0.000000e+00 9.000000e-01 9.999999e-02 0.000000e+00 0.000000e+00 0.000000e+00 0.000000e+00 0.000000e+00 0.000000e+00
 0.000000e+00 0.000000e+00 0.000000e+00 9.000000e-01 9.999999e-02 0.000000e+00 0.000000e+00 0.000000e+00 0.000000e+00 0.000000e+00
 0.000000e+00 0.000000e+00 0.000000e+00 0.000000e+00 9.000000e-01 9.999999e-02 0.000000e+00 0.000000e+00 0.000000e+00 0.000000e+00
 0.000000e+00 0.000000e+00 0.000000e+00 0.000000e+00 0.000000e+00 9.000000e-01 9.999999e-02 0.000000e+00 0.000000e+00 0.000000e+00
 0.000000e+00 0.000000e+00 0.000000e+00 0.000000e+00 0.000000e+00 0.000000e+00 9.000000e-01 9.999999e-02 0.000000e+00 0.000000e+00
 0.000000e+00 0.000000e+00 0.000000e+00 0.000000e+00 0.000000e+00 0.000000e+00 0.000000e+00 9.000000e-01 9.999999e-02 0.000000e+00
 0.000000e+00 0.000000e+00 0.000000e+00 0.000000e+00 0.000000e+00 0.000000e+00 0.000000e+00 0.000000e+00 9.000000e-01 9.999999e-02
 0.000000e+00 0.000000e+00 0.000000e+00 0.000000e+00 0.000000e+00 0.000000e+00 0.000000e+00 0.000000e+00 0.000000e+00 0.000000e+00
<ENDHMM>
