~o
<STREAMINFO> 1 39
<VECSIZE> 39<NULLD><MFCC_E_D_A_Z><DIAGC>
~h "s046"
<BEGINHMM>
<NUMSTATES> 10
<STATE> 2
<MEAN> 39
 1.451243e-07 1.243923e-07 -3.731769e-07 -7.670859e-07 -1.243923e-07 -6.219615e-07 8.292820e-08 -4.146410e-07 7.256217e-08 -4.561051e-07 -3.731769e-07 4.664711e-08 7.973056e-01 7.800796e-02 -1.516858e-01 -1.806492e-01 3.924344e-03 2.747042e-01 1.500583e-01 3.215650e-01 1.164194e-01 -1.491932e-01 3.561878e-01 -3.593929e-01 2.381056e-01 -3.500707e-03 6.103557e-03 2.922289e-02 6.242400e-03 9.223993e-02 3.989514e-02 2.427231e-02 -6.794998e-02 -1.900336e-02 5.056382e-02 -1.338217e-02 1.478159e-02 -5.197742e-02 -1.503741e-03
<VARIANCE> 39
 2.011024e+01 7.778913e+01 4.738013e+01 8.700900e+01 4.418243e+01 6.867168e+01 3.868447e+01 3.879187e+01 4.156326e+01 6.045321e+01 5.283858e+01 4.151968e+01 1.587797e-02 1.422149e+00 3.203981e+00 3.390427e+00 5.421993e+00 3.468318e+00 7.448271e+00 2.647974e+00 3.630727e+00 4.574234e+00 3.348505e+00 4.207082e+00 5.197498e+00 6.346623e-04 1.927777e-01 3.024753e-01 4.375695e-01 8.081067e-01 4.259621e-01 1.758640e+00 2.269309e-01 7.391566e-01 8.177087e-01 7.080832e-01 6.564835e-01 1.045150e+00 3.482252e-05
<GCONST> 1.053178e+02
<STATE> 3
<MEAN> 39
 1.451243e-07 1.243923e-07 -3.731769e-07 -7.670859e-07 -1.243923e-07 -6.219615e-07 8.292820e-08 -4.146410e-07 7.256217e-08 -4.561051e-07 -3.731769e-07 4.664711e-08 7.973056e-01 7.800796e-02 -1.516858e-01 -1.806492e-01 3.924344e-03 2.747042e-01 1.500583e-01 3.215650e-01 1.164194e-01 -1.491932e-01 3.561878e-01 -3.593929e-01 2.381056e-01 -3.500707e-03 6.103557e-03 2.922289e-02 6.242400e-03 9.223993e-02 3.989514e-02 2.427231e-02 -6.794998e-02 -1.900336e-02 5.056382e-02 -1.338217e-02 1.478159e-02 -5.197742e-02 -1.503741e-03
<VARIANCE> 39
 2.011024e+01 7.778913e+01 4.738013e+01 8.700900e+01 4.418243e+01 6.867168e+01 3.868447e+01 3.879187e+01 4.156326e+01 6.045321e+01 5.283858e+01 4.151968e+01 1.587797e-02 1.422149e+00 3.203981e+00 3.390427e+00 5.421993e+00 3.468318e+00 7.448271e+00 2.647974e+00 3.630727e+00 4.574234e+00 3.348505e+00 4.207082e+00 5.197498e+00 6.346623e-04 1.927777e-01 3.024753e-01 4.375695e-01 8.081067e-01 4.259621e-01 1.758640e+00 2.269309e-01 7.391566e-01 8.177087e-01 7.080832e-01 6.564835e-01 1.045150e+00 3.482252e-05
<GCONST> 1.053178e+02
<STATE> 4
<MEAN> 39
 1.451243e-07 1.243923e-07 -3.731769e-07 -7.670859e-07 -1.243923e-07 -6.219615e-07 8.292820e-08 -4.146410e-07 7.256217e-08 -4.561051e-07 -3.731769e-07 4.664711e-08 7.973056e-01 7.800796e-02 -1.516858e-01 -1.806492e-01 3.924344e-03 2.747042e-01 1.500583e-01 3.215650e-01 1.164194e-01 -1.491932e-01 3.561878e-01 -3.593929e-01 2.381056e-01 -3.500707e-03 6.103557e-03 2.922289e-02 6.242400e-03 9.223993e-02 3.989514e-02 2.427231e-02 -6.794998e-02 -1.900336e-02 5.056382e-02 -1.338217e-02 1.478159e-02 -5.197742e-02 -1.503741e-03
<VARIANCE> 39
 2.011024e+01 7.778913e+01 4.738013e+01 8.700900e+01 4.418243e+01 6.867168e+01 3.868447e+01 3.879187e+01 4.156326e+01 6.045321e+01 5.283858e+01 4.151968e+01 1.587797e-02 1.422149e+00 3.203981e+00 3.390427e+00 5.421993e+00 3.468318e+00 7.448271e+00 2.647974e+00 3.630727e+00 4.574234e+00 3.348505e+00 4.207082e+00 5.197498e+00 6.346623e-04 1.927777e-01 3.024753e-01 4.375695e-01 8.081067e-01 4.259621e-01 1.758640e+00 2.269309e-01 7.391566e-01 8.177087e-01 7.080832e-01 6.564835e-01 1.045150e+00 3.482252e-05
<GCONST> 1.053178e+02
<STATE> 5
<MEAN> 39
 1.451243e-07 1.243923e-07 -3.731769e-07 -7.670859e-07 -1.243923e-07 -6.219615e-07 8.292820e-08 -4.146410e-07 7.256217e-08 -4.561051e-07 -3.731769e-07 4.664711e-08 7.973056e-01 7.800796e-02 -1.516858e-01 -1.806492e-01 3.924344e-03 2.747042e-01 1.500583e-01 3.215650e-01 1.164194e-01 -1.491932e-01 3.561878e-01 -3.593929e-01 2.381056e-01 -3.500707e-03 6.103557e-03 2.922289e-02 6.242400e-03 9.223993e-02 3.989514e-02 2.427231e-02 -6.794998e-02 -1.900336e-02 5.056382e-02 -1.338217e-02 1.478159e-02 -5.197742e-02 -1.503741e-03
<VARIANCE> 39
 2.011024e+01 7.778913e+01 4.738013e+01 8.700900e+01 4.418243e+01 6.867168e+01 3.868447e+01 3.879187e+01 4.156326e+01 6.045321e+01 5.283858e+01 4.151968e+01 1.587797e-02 1.422149e+00 3.203981e+00 3.390427e+00 5.421993e+00 3.468318e+00 7.448271e+00 2.647974e+00 3.630727e+00 4.574234e+00 3.348505e+00 4.207082e+00 5.197498e+00 6.346623e-04 1.927777e-01 3.024753e-01 4.375695e-01 8.081067e-01 4.259621e-01 1.758640e+00 2.269309e-01 7.391566e-01 8.177087e-01 7.080832e-01 6.564835e-01 1.045150e+00 3.482252e-05
<GCONST> 1.053178e+02
<STATE> 6
<MEAN> 39
 1.451243e-07 1.243923e-07 -3.731769e-07 -7.670859e-07 -1.243923e-07 -6.219615e-07 8.292820e-08 -4.146410e-07 7.256217e-08 -4.561051e-07 -3.731769e-07 4.664711e-08 7.973056e-01 7.800796e-02 -1.516858e-01 -1.806492e-01 3.924344e-03 2.747042e-01 1.500583e-01 3.215650e-01 1.164194e-01 -1.491932e-01 3.561878e-01 -3.593929e-01 2.381056e-01 -3.500707e-03 6.103557e-03 2.922289e-02 6.242400e-03 9.223993e-02 3.989514e-02 2.427231e-02 -6.794998e-02 -1.900336e-02 5.056382e-02 -1.338217e-02 1.478159e-02 -5.197742e-02 -1.503741e-03
<VARIANCE> 39
 2.011024e+01 7.778913e+01 4.738013e+01 8.700900e+01 4.418243e+01 6.867168e+01 3.868447e+01 3.879187e+01 4.156326e+01 6.045321e+01 5.283858e+01 4.151968e+01 1.587797e-02 1.422149e+00 3.203981e+00 3.390427e+00 5.421993e+00 3.468318e+00 7.448271e+00 2.647974e+00 3.630727e+00 4.574234e+00 3.348505e+00 4.207082e+00 5.197498e+00 6.346623e-04 1.927777e-01 3.024753e-01 4.375695e-01 8.081067e-01 4.259621e-01 1.758640e+00 2.269309e-01 7.391566e-01 8.177087e-01 7.080832e-01 6.564835e-01 1.045150e+00 3.482252e-05
<GCONST> 1.053178e+02
<STATE> 7
<MEAN> 39
 1.451243e-07 1.243923e-07 -3.731769e-07 -7.670859e-07 -1.243923e-07 -6.219615e-07 8.292820e-08 -4.146410e-07 7.256217e-08 -4.561051e-07 -3.731769e-07 4.664711e-08 7.973056e-01 7.800796e-02 -1.516858e-01 -1.806492e-01 3.924344e-03 2.747042e-01 1.500583e-01 3.215650e-01 1.164194e-01 -1.491932e-01 3.561878e-01 -3.593929e-01 2.381056e-01 -3.500707e-03 6.103557e-03 2.922289e-02 6.242400e-03 9.223993e-02 3.989514e-02 2.427231e-02 -6.794998e-02 -1.900336e-02 5.056382e-02 -1.338217e-02 1.478159e-02 -5.197742e-02 -1.503741e-03
<VARIANCE> 39
 2.011024e+01 7.778913e+01 4.738013e+01 8.700900e+01 4.418243e+01 6.867168e+01 3.868447e+01 3.879187e+01 4.156326e+01 6.045321e+01 5.283858e+01 4.151968e+01 1.587797e-02 1.422149e+00 3.203981e+00 3.390427e+00 5.421993e+00 3.468318e+00 7.448271e+00 2.647974e+00 3.630727e+00 4.574234e+00 3.348505e+00 4.207082e+00 5.197498e+00 6.346623e-04 1.927777e-01 3.024753e-01 4.375695e-01 8.081067e-01 4.259621e-01 1.758640e+00 2.269309e-01 7.391566e-01 8.177087e-01 7.080832e-01 6.564835e-01 1.045150e+00 3.482252e-05
<GCONST> 1.053178e+02
<STATE> 8
<MEAN> 39
 1.451243e-07 1.243923e-07 -3.731769e-07 -7.670859e-07 -1.243923e-07 -6.219615e-07 8.292820e-08 -4.146410e-07 7.256217e-08 -4.561051e-07 -3.731769e-07 4.664711e-08 7.973056e-01 7.800796e-02 -1.516858e-01 -1.806492e-01 3.924344e-03 2.747042e-01 1.500583e-01 3.215650e-01 1.164194e-01 -1.491932e-01 3.561878e-01 -3.593929e-01 2.381056e-01 -3.500707e-03 6.103557e-03 2.922289e-02 6.242400e-03 9.223993e-02 3.989514e-02 2.427231e-02 -6.794998e-02 -1.900336e-02 5.056382e-02 -1.338217e-02 1.478159e-02 -5.197742e-02 -1.503741e-03
<VARIANCE> 39
 2.011024e+01 7.778913e+01 4.738013e+01 8.700900e+01 4.418243e+01 6.867168e+01 3.868447e+01 3.879187e+01 4.156326e+01 6.045321e+01 5.283858e+01 4.151968e+01 1.587797e-02 1.422149e+00 3.203981e+00 3.390427e+00 5.421993e+00 3.468318e+00 7.448271e+00 2.647974e+00 3.630727e+00 4.574234e+00 3.348505e+00 4.207082e+00 5.197498e+00 6.346623e-04 1.927777e-01 3.024753e-01 4.375695e-01 8.081067e-01 4.259621e-01 1.758640e+00 2.269309e-01 7.391566e-01 8.177087e-01 7.080832e-01 6.564835e-01 1.045150e+00 3.482252e-05
<GCONST> 1.053178e+02
<STATE> 9
<MEAN> 39
 1.451243e-07 1.243923e-07 -3.731769e-07 -7.670859e-07 -1.243923e-07 -6.219615e-07 8.292820e-08 -4.146410e-07 7.256217e-08 -4.561051e-07 -3.731769e-07 4.664711e-08 7.973056e-01 7.800796e-02 -1.516858e-01 -1.806492e-01 3.924344e-03 2.747042e-01 1.500583e-01 3.215650e-01 1.164194e-01 -1.491932e-01 3.561878e-01 -3.593929e-01 2.381056e-01 -3.500707e-03 6.103557e-03 2.922289e-02 6.242400e-03 9.223993e-02 3.989514e-02 2.427231e-02 -6.794998e-02 -1.900336e-02 5.056382e-02 -1.338217e-02 1.478159e-02 -5.197742e-02 -1.503741e-03
<VARIANCE> 39
 2.011024e+01 7.778913e+01 4.738013e+01 8.700900e+01 4.418243e+01 6.867168e+01 3.868447e+01 3.879187e+01 4.156326e+01 6.045321e+01 5.283858e+01 4.151968e+01 1.587797e-02 1.422149e+00 3.203981e+00 3.390427e+00 5.421993e+00 3.468318e+00 7.448271e+00 2.647974e+00 3.630727e+00 4.574234e+00 3.348505e+00 4.207082e+00 5.197498e+00 6.346623e-04 1.927777e-01 3.024753e-01 4.375695e-01 8.081067e-01 4.259621e-01 1.758640e+00 2.269309e-01 7.391566e-01 8.177087e-01 7.080832e-01 6.564835e-01 1.045150e+00 3.482252e-05
<GCONST> 1.053178e+02
<TRANSP> 10
 0.000000e+00 1.000000e+00 0.000000e+00 0.000000e+00 0.000000e+00 0.000000e+00 0.000000e+00 0.000000e+00 0.000000e+00 0.000000e+00
 0.000000e+00 9.000000e-01 9.999999e-02 0.000000e+00 0.000000e+00 0.000000e+00 0.000000e+00 0.000000e+00 0.000000e+00 0.000000e+00
 0.000000e+00 0.000000e+00 9.000000e-01 9.999999e-02 0.000000e+00 0.000000e+00 0.000000e+00 0.000000e+00 0.000000e+00 0.000000e+00
 0.000000e+00 0.000000e+00 0.000000e+00 9.000000e-01 9.999999e-02 0.000000e+00 0.000000e+00 0.000000e+00 0.000000e+00 0.000000e+00
 0.000000e+00 0.000000e+00 0.000000e+00 0.000000e+00 9.000000e-01 9.999999e-02 0.000000e+00 0.000000e+00 0.000000e+00 0.000000e+00
 0.000000e+00 0.000000e+00 0.000000e+00 0.000000e+00 0.000000e+00 9.000000e-01 9.999999e-02 0.000000e+00 0.000000e+00 0.000000e+00
 0.000000e+00 0.000000e+00 0.000000e+00 0.000000e+00 0.000000e+00 0.000000e+00 9.000000e-01 9.999999e-02 0.000000e+00 0.000000e+00
 0.000000e+00 0.000000e+00 0.000000e+00 0.000000e+00 0.000000e+00 0.000000e+00 0.000000e+00 9.000000e-01 9.999999e-02 0.000000e+00
 0.000000e+00 0.000000e+00 0.000000e+00 0.000000e+00 0.000000e+00 0.000000e+00 0.000000e+00 0.000000e+00 9.000000e-01 9.999999e-02
 0.000000e+00 0.000000e+00 0.000000e+00 0.000000e+00 0.000000e+00 0.000000e+00 0.000000e+00 0.000000e+00 0.000000e+00 0.000000e+00
<ENDHMM>
