~o
<STREAMINFO> 1 39
<VECSIZE> 39<NULLD><MFCC_E_D_A_Z><DIAGC>
~h "s046"
<BEGINHMM>
<NUMSTATES> 10
<STATE> 2
<MEAN> 39
 3.814697e-07 -2.002716e-07 -1.525879e-07 4.577637e-07 -3.719330e-07 8.964539e-07 1.382828e-07 0.000000e+00 1.478195e-07 5.722046e-08 -1.001358e-07 3.814697e-08 7.695723e-01 2.154857e-02 -2.141899e-01 2.071111e-03 -9.146724e-02 1.708172e-01 2.045049e-01 3.282976e-01 8.686918e-02 -1.178229e-01 2.081576e-01 -2.568105e-01 2.190604e-01 -4.382518e-03 2.365840e-02 -3.758714e-02 1.280990e-02 8.222380e-02 4.586666e-02 4.798503e-02 -9.196374e-02 -2.617768e-02 -2.829396e-02 4.306912e-02 1.967969e-02 2.083258e-02 -8.121231e-04
<VARIANCE> 39
 1.843069e+01 7.464581e+01 5.081532e+01 8.477470e+01 4.018082e+01 7.246062e+01 3.700832e+01 4.574628e+01 4.501768e+01 5.410450e+01 4.803489e+01 3.081165e+01 2.467255e-02 1.278015e+00 3.253834e+00 3.388953e+00 5.609448e+00 2.931266e+00 6.324848e+00 2.622458e+00 4.403967e+00 5.105929e+00 3.140122e+00 3.241505e+00 3.636347e+00 6.802850e-04 1.533675e-01 3.667497e-01 4.118441e-01 8.131612e-01 4.309058e-01 1.418927e+00 1.974951e-01 8.647011e-01 1.031728e+00 6.617168e-01 4.967582e-01 7.106329e-01 4.469611e-05
<GCONST> 1.040941e+02
<STATE> 3
<MEAN> 39
 3.814697e-07 -2.002716e-07 -1.525879e-07 4.577637e-07 -3.719330e-07 8.964539e-07 1.382828e-07 0.000000e+00 1.478195e-07 5.722046e-08 -1.001358e-07 3.814697e-08 7.695723e-01 2.154857e-02 -2.141899e-01 2.071111e-03 -9.146724e-02 1.708172e-01 2.045049e-01 3.282976e-01 8.686918e-02 -1.178229e-01 2.081576e-01 -2.568105e-01 2.190604e-01 -4.382518e-03 2.365840e-02 -3.758714e-02 1.280990e-02 8.222380e-02 4.586666e-02 4.798503e-02 -9.196374e-02 -2.617768e-02 -2.829396e-02 4.306912e-02 1.967969e-02 2.083258e-02 -8.121231e-04
<VARIANCE> 39
 1.843069e+01 7.464581e+01 5.081532e+01 8.477470e+01 4.018082e+01 7.246062e+01 3.700832e+01 4.574628e+01 4.501768e+01 5.410450e+01 4.803489e+01 3.081165e+01 2.467255e-02 1.278015e+00 3.253834e+00 3.388953e+00 5.609448e+00 2.931266e+00 6.324848e+00 2.622458e+00 4.403967e+00 5.105929e+00 3.140122e+00 3.241505e+00 3.636347e+00 6.802850e-04 1.533675e-01 3.667497e-01 4.118441e-01 8.131612e-01 4.309058e-01 1.418927e+00 1.974951e-01 8.647011e-01 1.031728e+00 6.617168e-01 4.967582e-01 7.106329e-01 4.469611e-05
<GCONST> 1.040941e+02
<STATE> 4
<MEAN> 39
 3.814697e-07 -2.002716e-07 -1.525879e-07 4.577637e-07 -3.719330e-07 8.964539e-07 1.382828e-07 0.000000e+00 1.478195e-07 5.722046e-08 -1.001358e-07 3.814697e-08 7.695723e-01 2.154857e-02 -2.141899e-01 2.071111e-03 -9.146724e-02 1.708172e-01 2.045049e-01 3.282976e-01 8.686918e-02 -1.178229e-01 2.081576e-01 -2.568105e-01 2.190604e-01 -4.382518e-03 2.365840e-02 -3.758714e-02 1.280990e-02 8.222380e-02 4.586666e-02 4.798503e-02 -9.196374e-02 -2.617768e-02 -2.829396e-02 4.306912e-02 1.967969e-02 2.083258e-02 -8.121231e-04
<VARIANCE> 39
 1.843069e+01 7.464581e+01 5.081532e+01 8.477470e+01 4.018082e+01 7.246062e+01 3.700832e+01 4.574628e+01 4.501768e+01 5.410450e+01 4.803489e+01 3.081165e+01 2.467255e-02 1.278015e+00 3.253834e+00 3.388953e+00 5.609448e+00 2.931266e+00 6.324848e+00 2.622458e+00 4.403967e+00 5.105929e+00 3.140122e+00 3.241505e+00 3.636347e+00 6.802850e-04 1.533675e-01 3.667497e-01 4.118441e-01 8.131612e-01 4.309058e-01 1.418927e+00 1.974951e-01 8.647011e-01 1.031728e+00 6.617168e-01 4.967582e-01 7.106329e-01 4.469611e-05
<GCONST> 1.040941e+02
<STATE> 5
<MEAN> 39
 3.814697e-07 -2.002716e-07 -1.525879e-07 4.577637e-07 -3.719330e-07 8.964539e-07 1.382828e-07 0.000000e+00 1.478195e-07 5.722046e-08 -1.001358e-07 3.814697e-08 7.695723e-01 2.154857e-02 -2.141899e-01 2.071111e-03 -9.146724e-02 1.708172e-01 2.045049e-01 3.282976e-01 8.686918e-02 -1.178229e-01 2.081576e-01 -2.568105e-01 2.190604e-01 -4.382518e-03 2.365840e-02 -3.758714e-02 1.280990e-02 8.222380e-02 4.586666e-02 4.798503e-02 -9.196374e-02 -2.617768e-02 -2.829396e-02 4.306912e-02 1.967969e-02 2.083258e-02 -8.121231e-04
<VARIANCE> 39
 1.843069e+01 7.464581e+01 5.081532e+01 8.477470e+01 4.018082e+01 7.246062e+01 3.700832e+01 4.574628e+01 4.501768e+01 5.410450e+01 4.803489e+01 3.081165e+01 2.467255e-02 1.278015e+00 3.253834e+00 3.388953e+00 5.609448e+00 2.931266e+00 6.324848e+00 2.622458e+00 4.403967e+00 5.105929e+00 3.140122e+00 3.241505e+00 3.636347e+00 6.802850e-04 1.533675e-01 3.667497e-01 4.118441e-01 8.131612e-01 4.309058e-01 1.418927e+00 1.974951e-01 8.647011e-01 1.031728e+00 6.617168e-01 4.967582e-01 7.106329e-01 4.469611e-05
<GCONST> 1.040941e+02
<STATE> 6
<MEAN> 39
 3.814697e-07 -2.002716e-07 -1.525879e-07 4.577637e-07 -3.719330e-07 8.964539e-07 1.382828e-07 0.000000e+00 1.478195e-07 5.722046e-08 -1.001358e-07 3.814697e-08 7.695723e-01 2.154857e-02 -2.141899e-01 2.071111e-03 -9.146724e-02 1.708172e-01 2.045049e-01 3.282976e-01 8.686918e-02 -1.178229e-01 2.081576e-01 -2.568105e-01 2.190604e-01 -4.382518e-03 2.365840e-02 -3.758714e-02 1.280990e-02 8.222380e-02 4.586666e-02 4.798503e-02 -9.196374e-02 -2.617768e-02 -2.829396e-02 4.306912e-02 1.967969e-02 2.083258e-02 -8.121231e-04
<VARIANCE> 39
 1.843069e+01 7.464581e+01 5.081532e+01 8.477470e+01 4.018082e+01 7.246062e+01 3.700832e+01 4.574628e+01 4.501768e+01 5.410450e+01 4.803489e+01 3.081165e+01 2.467255e-02 1.278015e+00 3.253834e+00 3.388953e+00 5.609448e+00 2.931266e+00 6.324848e+00 2.622458e+00 4.403967e+00 5.105929e+00 3.140122e+00 3.241505e+00 3.636347e+00 6.802850e-04 1.533675e-01 3.667497e-01 4.118441e-01 8.131612e-01 4.309058e-01 1.418927e+00 1.974951e-01 8.647011e-01 1.031728e+00 6.617168e-01 4.967582e-01 7.106329e-01 4.469611e-05
<GCONST> 1.040941e+02
<STATE> 7
<MEAN> 39
 3.814697e-07 -2.002716e-07 -1.525879e-07 4.577637e-07 -3.719330e-07 8.964539e-07 1.382828e-07 0.000000e+00 1.478195e-07 5.722046e-08 -1.001358e-07 3.814697e-08 7.695723e-01 2.154857e-02 -2.141899e-01 2.071111e-03 -9.146724e-02 1.708172e-01 2.045049e-01 3.282976e-01 8.686918e-02 -1.178229e-01 2.081576e-01 -2.568105e-01 2.190604e-01 -4.382518e-03 2.365840e-02 -3.758714e-02 1.280990e-02 8.222380e-02 4.586666e-02 4.798503e-02 -9.196374e-02 -2.617768e-02 -2.829396e-02 4.306912e-02 1.967969e-02 2.083258e-02 -8.121231e-04
<VARIANCE> 39
 1.843069e+01 7.464581e+01 5.081532e+01 8.477470e+01 4.018082e+01 7.246062e+01 3.700832e+01 4.574628e+01 4.501768e+01 5.410450e+01 4.803489e+01 3.081165e+01 2.467255e-02 1.278015e+00 3.253834e+00 3.388953e+00 5.609448e+00 2.931266e+00 6.324848e+00 2.622458e+00 4.403967e+00 5.105929e+00 3.140122e+00 3.241505e+00 3.636347e+00 6.802850e-04 1.533675e-01 3.667497e-01 4.118441e-01 8.131612e-01 4.309058e-01 1.418927e+00 1.974951e-01 8.647011e-01 1.031728e+00 6.617168e-01 4.967582e-01 7.106329e-01 4.469611e-05
<GCONST> 1.040941e+02
<STATE> 8
<MEAN> 39
 3.814697e-07 -2.002716e-07 -1.525879e-07 4.577637e-07 -3.719330e-07 8.964539e-07 1.382828e-07 0.000000e+00 1.478195e-07 5.722046e-08 -1.001358e-07 3.814697e-08 7.695723e-01 2.154857e-02 -2.141899e-01 2.071111e-03 -9.146724e-02 1.708172e-01 2.045049e-01 3.282976e-01 8.686918e-02 -1.178229e-01 2.081576e-01 -2.568105e-01 2.190604e-01 -4.382518e-03 2.365840e-02 -3.758714e-02 1.280990e-02 8.222380e-02 4.586666e-02 4.798503e-02 -9.196374e-02 -2.617768e-02 -2.829396e-02 4.306912e-02 1.967969e-02 2.083258e-02 -8.121231e-04
<VARIANCE> 39
 1.843069e+01 7.464581e+01 5.081532e+01 8.477470e+01 4.018082e+01 7.246062e+01 3.700832e+01 4.574628e+01 4.501768e+01 5.410450e+01 4.803489e+01 3.081165e+01 2.467255e-02 1.278015e+00 3.253834e+00 3.388953e+00 5.609448e+00 2.931266e+00 6.324848e+00 2.622458e+00 4.403967e+00 5.105929e+00 3.140122e+00 3.241505e+00 3.636347e+00 6.802850e-04 1.533675e-01 3.667497e-01 4.118441e-01 8.131612e-01 4.309058e-01 1.418927e+00 1.974951e-01 8.647011e-01 1.031728e+00 6.617168e-01 4.967582e-01 7.106329e-01 4.469611e-05
<GCONST> 1.040941e+02
<STATE> 9
<MEAN> 39
 3.814697e-07 -2.002716e-07 -1.525879e-07 4.577637e-07 -3.719330e-07 8.964539e-07 1.382828e-07 0.000000e+00 1.478195e-07 5.722046e-08 -1.001358e-07 3.814697e-08 7.695723e-01 2.154857e-02 -2.141899e-01 2.071111e-03 -9.146724e-02 1.708172e-01 2.045049e-01 3.282976e-01 8.686918e-02 -1.178229e-01 2.081576e-01 -2.568105e-01 2.190604e-01 -4.382518e-03 2.365840e-02 -3.758714e-02 1.280990e-02 8.222380e-02 4.586666e-02 4.798503e-02 -9.196374e-02 -2.617768e-02 -2.829396e-02 4.306912e-02 1.967969e-02 2.083258e-02 -8.121231e-04
<VARIANCE> 39
 1.843069e+01 7.464581e+01 5.081532e+01 8.477470e+01 4.018082e+01 7.246062e+01 3.700832e+01 4.574628e+01 4.501768e+01 5.410450e+01 4.803489e+01 3.081165e+01 2.467255e-02 1.278015e+00 3.253834e+00 3.388953e+00 5.609448e+00 2.931266e+00 6.324848e+00 2.622458e+00 4.403967e+00 5.105929e+00 3.140122e+00 3.241505e+00 3.636347e+00 6.802850e-04 1.533675e-01 3.667497e-01 4.118441e-01 8.131612e-01 4.309058e-01 1.418927e+00 1.974951e-01 8.647011e-01 1.031728e+00 6.617168e-01 4.967582e-01 7.106329e-01 4.469611e-05
<GCONST> 1.040941e+02
<TRANSP> 10
 0.000000e+00 1.000000e+00 0.000000e+00 0.000000e+00 0.000000e+00 0.000000e+00 0.000000e+00 0.000000e+00 0.000000e+00 0.000000e+00
 0.000000e+00 9.000000e-01 9.999999e-02 0.000000e+00 0.000000e+00 0.000000e+00 0.000000e+00 0.000000e+00 0.000000e+00 0.000000e+00
 0.000000e+00 0.000000e+00 9.000000e-01 9.999999e-02 0.000000e+00 0.000000e+00 0.000000e+00 0.000000e+00 0.000000e+00 0.000000e+00
 0.000000e+00 0.000000e+00 0.000000e+00 9.000000e-01 9.999999e-02 0.000000e+00 0.000000e+00 0.000000e+00 0.000000e+00 0.000000e+00
 0.000000e+00 0.000000e+00 0.000000e+00 0.000000e+00 9.000000e-01 9.999999e-02 0.000000e+00 0.000000e+00 0.000000e+00 0.000000e+00
 0.000000e+00 0.000000e+00 0.000000e+00 0.000000e+00 0.000000e+00 9.000000e-01 9.999999e-02 0.000000e+00 0.000000e+00 0.000000e+00
 0.000000e+00 0.000000e+00 0.000000e+00 0.000000e+00 0.000000e+00 0.000000e+00 9.000000e-01 9.999999e-02 0.000000e+00 0.000000e+00
 0.000000e+00 0.000000e+00 0.000000e+00 0.000000e+00 0.000000e+00 0.000000e+00 0.000000e+00 9.000000e-01 9.999999e-02 0.000000e+00
 0.000000e+00 0.000000e+00 0.000000e+00 0.000000e+00 0.000000e+00 0.000000e+00 0.000000e+00 0.000000e+00 9.000000e-01 9.999999e-02
 0.000000e+00 0.000000e+00 0.000000e+00 0.000000e+00 0.000000e+00 0.000000e+00 0.000000e+00 0.000000e+00 0.000000e+00 0.000000e+00
<ENDHMM>
