~o
<STREAMINFO> 1 39
<VECSIZE> 39<NULLD><MFCC_E_D_A_Z><DIAGC>
~h "s047"
<BEGINHMM>
<NUMSTATES> 10
<STATE> 2
<MEAN> 39
 -6.263539e-08 -2.283161e-07 -1.939677e-07 7.273787e-08 -7.273787e-08 4.849191e-08 -1.535577e-07 -3.071155e-07 -1.010248e-08 -3.232794e-08 -2.586235e-07 -9.395308e-08 8.652077e-01 -1.015082e-01 7.844300e-03 2.160946e-01 1.419555e-01 -1.889887e-03 2.732307e-02 1.164723e-01 5.334271e-02 -5.609533e-02 -2.064368e-01 -2.216281e-01 -5.018007e-02 -4.420507e-03 -4.232773e-04 -1.010135e-02 8.500478e-02 1.634522e-02 -4.799094e-03 2.572680e-02 -7.430465e-02 4.167523e-02 3.635717e-03 4.358327e-02 8.122848e-04 -6.233080e-04 -7.615435e-04
<VARIANCE> 39
 1.062476e+01 1.065743e+01 1.062028e+02 3.214628e+01 3.886831e+01 1.916257e+01 9.636329e+00 2.631761e+01 1.517242e+01 4.351281e+01 2.463690e+01 1.874774e+01 1.943938e-02 9.802840e-01 9.040156e-01 5.877575e+00 2.580996e+00 2.646091e+00 2.738514e+00 1.425213e+00 2.898644e+00 1.934048e+00 3.629495e+00 2.024552e+00 1.769616e+00 1.234118e-03 1.557848e-01 1.872798e-01 5.967444e-01 3.406813e-01 3.933225e-01 5.941399e-01 2.679138e-01 4.697068e-01 4.099419e-01 5.021453e-01 3.752687e-01 3.602276e-01 1.406420e-04
<GCONST> 8.679858e+01
<STATE> 3
<MEAN> 39
 -6.263539e-08 -2.283161e-07 -1.939677e-07 7.273787e-08 -7.273787e-08 4.849191e-08 -1.535577e-07 -3.071155e-07 -1.010248e-08 -3.232794e-08 -2.586235e-07 -9.395308e-08 8.652077e-01 -1.015082e-01 7.844300e-03 2.160946e-01 1.419555e-01 -1.889887e-03 2.732307e-02 1.164723e-01 5.334271e-02 -5.609533e-02 -2.064368e-01 -2.216281e-01 -5.018007e-02 -4.420507e-03 -4.232773e-04 -1.010135e-02 8.500478e-02 1.634522e-02 -4.799094e-03 2.572680e-02 -7.430465e-02 4.167523e-02 3.635717e-03 4.358327e-02 8.122848e-04 -6.233080e-04 -7.615435e-04
<VARIANCE> 39
 1.062476e+01 1.065743e+01 1.062028e+02 3.214628e+01 3.886831e+01 1.916257e+01 9.636329e+00 2.631761e+01 1.517242e+01 4.351281e+01 2.463690e+01 1.874774e+01 1.943938e-02 9.802840e-01 9.040156e-01 5.877575e+00 2.580996e+00 2.646091e+00 2.738514e+00 1.425213e+00 2.898644e+00 1.934048e+00 3.629495e+00 2.024552e+00 1.769616e+00 1.234118e-03 1.557848e-01 1.872798e-01 5.967444e-01 3.406813e-01 3.933225e-01 5.941399e-01 2.679138e-01 4.697068e-01 4.099419e-01 5.021453e-01 3.752687e-01 3.602276e-01 1.406420e-04
<GCONST> 8.679858e+01
<STATE> 4
<MEAN> 39
 -6.263539e-08 -2.283161e-07 -1.939677e-07 7.273787e-08 -7.273787e-08 4.849191e-08 -1.535577e-07 -3.071155e-07 -1.010248e-08 -3.232794e-08 -2.586235e-07 -9.395308e-08 8.652077e-01 -1.015082e-01 7.844300e-03 2.160946e-01 1.419555e-01 -1.889887e-03 2.732307e-02 1.164723e-01 5.334271e-02 -5.609533e-02 -2.064368e-01 -2.216281e-01 -5.018007e-02 -4.420507e-03 -4.232773e-04 -1.010135e-02 8.500478e-02 1.634522e-02 -4.799094e-03 2.572680e-02 -7.430465e-02 4.167523e-02 3.635717e-03 4.358327e-02 8.122848e-04 -6.233080e-04 -7.615435e-04
<VARIANCE> 39
 1.062476e+01 1.065743e+01 1.062028e+02 3.214628e+01 3.886831e+01 1.916257e+01 9.636329e+00 2.631761e+01 1.517242e+01 4.351281e+01 2.463690e+01 1.874774e+01 1.943938e-02 9.802840e-01 9.040156e-01 5.877575e+00 2.580996e+00 2.646091e+00 2.738514e+00 1.425213e+00 2.898644e+00 1.934048e+00 3.629495e+00 2.024552e+00 1.769616e+00 1.234118e-03 1.557848e-01 1.872798e-01 5.967444e-01 3.406813e-01 3.933225e-01 5.941399e-01 2.679138e-01 4.697068e-01 4.099419e-01 5.021453e-01 3.752687e-01 3.602276e-01 1.406420e-04
<GCONST> 8.679858e+01
<STATE> 5
<MEAN> 39
 -6.263539e-08 -2.283161e-07 -1.939677e-07 7.273787e-08 -7.273787e-08 4.849191e-08 -1.535577e-07 -3.071155e-07 -1.010248e-08 -3.232794e-08 -2.586235e-07 -9.395308e-08 8.652077e-01 -1.015082e-01 7.844300e-03 2.160946e-01 1.419555e-01 -1.889887e-03 2.732307e-02 1.164723e-01 5.334271e-02 -5.609533e-02 -2.064368e-01 -2.216281e-01 -5.018007e-02 -4.420507e-03 -4.232773e-04 -1.010135e-02 8.500478e-02 1.634522e-02 -4.799094e-03 2.572680e-02 -7.430465e-02 4.167523e-02 3.635717e-03 4.358327e-02 8.122848e-04 -6.233080e-04 -7.615435e-04
<VARIANCE> 39
 1.062476e+01 1.065743e+01 1.062028e+02 3.214628e+01 3.886831e+01 1.916257e+01 9.636329e+00 2.631761e+01 1.517242e+01 4.351281e+01 2.463690e+01 1.874774e+01 1.943938e-02 9.802840e-01 9.040156e-01 5.877575e+00 2.580996e+00 2.646091e+00 2.738514e+00 1.425213e+00 2.898644e+00 1.934048e+00 3.629495e+00 2.024552e+00 1.769616e+00 1.234118e-03 1.557848e-01 1.872798e-01 5.967444e-01 3.406813e-01 3.933225e-01 5.941399e-01 2.679138e-01 4.697068e-01 4.099419e-01 5.021453e-01 3.752687e-01 3.602276e-01 1.406420e-04
<GCONST> 8.679858e+01
<STATE> 6
<MEAN> 39
 -6.263539e-08 -2.283161e-07 -1.939677e-07 7.273787e-08 -7.273787e-08 4.849191e-08 -1.535577e-07 -3.071155e-07 -1.010248e-08 -3.232794e-08 -2.586235e-07 -9.395308e-08 8.652077e-01 -1.015082e-01 7.844300e-03 2.160946e-01 1.419555e-01 -1.889887e-03 2.732307e-02 1.164723e-01 5.334271e-02 -5.609533e-02 -2.064368e-01 -2.216281e-01 -5.018007e-02 -4.420507e-03 -4.232773e-04 -1.010135e-02 8.500478e-02 1.634522e-02 -4.799094e-03 2.572680e-02 -7.430465e-02 4.167523e-02 3.635717e-03 4.358327e-02 8.122848e-04 -6.233080e-04 -7.615435e-04
<VARIANCE> 39
 1.062476e+01 1.065743e+01 1.062028e+02 3.214628e+01 3.886831e+01 1.916257e+01 9.636329e+00 2.631761e+01 1.517242e+01 4.351281e+01 2.463690e+01 1.874774e+01 1.943938e-02 9.802840e-01 9.040156e-01 5.877575e+00 2.580996e+00 2.646091e+00 2.738514e+00 1.425213e+00 2.898644e+00 1.934048e+00 3.629495e+00 2.024552e+00 1.769616e+00 1.234118e-03 1.557848e-01 1.872798e-01 5.967444e-01 3.406813e-01 3.933225e-01 5.941399e-01 2.679138e-01 4.697068e-01 4.099419e-01 5.021453e-01 3.752687e-01 3.602276e-01 1.406420e-04
<GCONST> 8.679858e+01
<STATE> 7
<MEAN> 39
 -6.263539e-08 -2.283161e-07 -1.939677e-07 7.273787e-08 -7.273787e-08 4.849191e-08 -1.535577e-07 -3.071155e-07 -1.010248e-08 -3.232794e-08 -2.586235e-07 -9.395308e-08 8.652077e-01 -1.015082e-01 7.844300e-03 2.160946e-01 1.419555e-01 -1.889887e-03 2.732307e-02 1.164723e-01 5.334271e-02 -5.609533e-02 -2.064368e-01 -2.216281e-01 -5.018007e-02 -4.420507e-03 -4.232773e-04 -1.010135e-02 8.500478e-02 1.634522e-02 -4.799094e-03 2.572680e-02 -7.430465e-02 4.167523e-02 3.635717e-03 4.358327e-02 8.122848e-04 -6.233080e-04 -7.615435e-04
<VARIANCE> 39
 1.062476e+01 1.065743e+01 1.062028e+02 3.214628e+01 3.886831e+01 1.916257e+01 9.636329e+00 2.631761e+01 1.517242e+01 4.351281e+01 2.463690e+01 1.874774e+01 1.943938e-02 9.802840e-01 9.040156e-01 5.877575e+00 2.580996e+00 2.646091e+00 2.738514e+00 1.425213e+00 2.898644e+00 1.934048e+00 3.629495e+00 2.024552e+00 1.769616e+00 1.234118e-03 1.557848e-01 1.872798e-01 5.967444e-01 3.406813e-01 3.933225e-01 5.941399e-01 2.679138e-01 4.697068e-01 4.099419e-01 5.021453e-01 3.752687e-01 3.602276e-01 1.406420e-04
<GCONST> 8.679858e+01
<STATE> 8
<MEAN> 39
 -6.263539e-08 -2.283161e-07 -1.939677e-07 7.273787e-08 -7.273787e-08 4.849191e-08 -1.535577e-07 -3.071155e-07 -1.010248e-08 -3.232794e-08 -2.586235e-07 -9.395308e-08 8.652077e-01 -1.015082e-01 7.844300e-03 2.160946e-01 1.419555e-01 -1.889887e-03 2.732307e-02 1.164723e-01 5.334271e-02 -5.609533e-02 -2.064368e-01 -2.216281e-01 -5.018007e-02 -4.420507e-03 -4.232773e-04 -1.010135e-02 8.500478e-02 1.634522e-02 -4.799094e-03 2.572680e-02 -7.430465e-02 4.167523e-02 3.635717e-03 4.358327e-02 8.122848e-04 -6.233080e-04 -7.615435e-04
<VARIANCE> 39
 1.062476e+01 1.065743e+01 1.062028e+02 3.214628e+01 3.886831e+01 1.916257e+01 9.636329e+00 2.631761e+01 1.517242e+01 4.351281e+01 2.463690e+01 1.874774e+01 1.943938e-02 9.802840e-01 9.040156e-01 5.877575e+00 2.580996e+00 2.646091e+00 2.738514e+00 1.425213e+00 2.898644e+00 1.934048e+00 3.629495e+00 2.024552e+00 1.769616e+00 1.234118e-03 1.557848e-01 1.872798e-01 5.967444e-01 3.406813e-01 3.933225e-01 5.941399e-01 2.679138e-01 4.697068e-01 4.099419e-01 5.021453e-01 3.752687e-01 3.602276e-01 1.406420e-04
<GCONST> 8.679858e+01
<STATE> 9
<MEAN> 39
 -6.263539e-08 -2.283161e-07 -1.939677e-07 7.273787e-08 -7.273787e-08 4.849191e-08 -1.535577e-07 -3.071155e-07 -1.010248e-08 -3.232794e-08 -2.586235e-07 -9.395308e-08 8.652077e-01 -1.015082e-01 7.844300e-03 2.160946e-01 1.419555e-01 -1.889887e-03 2.732307e-02 1.164723e-01 5.334271e-02 -5.609533e-02 -2.064368e-01 -2.216281e-01 -5.018007e-02 -4.420507e-03 -4.232773e-04 -1.010135e-02 8.500478e-02 1.634522e-02 -4.799094e-03 2.572680e-02 -7.430465e-02 4.167523e-02 3.635717e-03 4.358327e-02 8.122848e-04 -6.233080e-04 -7.615435e-04
<VARIANCE> 39
 1.062476e+01 1.065743e+01 1.062028e+02 3.214628e+01 3.886831e+01 1.916257e+01 9.636329e+00 2.631761e+01 1.517242e+01 4.351281e+01 2.463690e+01 1.874774e+01 1.943938e-02 9.802840e-01 9.040156e-01 5.877575e+00 2.580996e+00 2.646091e+00 2.738514e+00 1.425213e+00 2.898644e+00 1.934048e+00 3.629495e+00 2.024552e+00 1.769616e+00 1.234118e-03 1.557848e-01 1.872798e-01 5.967444e-01 3.406813e-01 3.933225e-01 5.941399e-01 2.679138e-01 4.697068e-01 4.099419e-01 5.021453e-01 3.752687e-01 3.602276e-01 1.406420e-04
<GCONST> 8.679858e+01
<TRANSP> 10
 0.000000e+00 1.000000e+00 0.000000e+00 0.000000e+00 0.000000e+00 0.000000e+00 0.000000e+00 0.000000e+00 0.000000e+00 0.000000e+00
 0.000000e+00 9.000000e-01 9.999999e-02 0.000000e+00 0.000000e+00 0.000000e+00 0.000000e+00 0.000000e+00 0.000000e+00 0.000000e+00
 0.000000e+00 0.000000e+00 9.000000e-01 9.999999e-02 0.000000e+00 0.000000e+00 0.000000e+00 0.000000e+00 0.000000e+00 0.000000e+00
 0.000000e+00 0.000000e+00 0.000000e+00 9.000000e-01 9.999999e-02 0.000000e+00 0.000000e+00 0.000000e+00 0.000000e+00 0.000000e+00
 0.000000e+00 0.000000e+00 0.000000e+00 0.000000e+00 9.000000e-01 9.999999e-02 0.000000e+00 0.000000e+00 0.000000e+00 0.000000e+00
 0.000000e+00 0.000000e+00 0.000000e+00 0.000000e+00 0.000000e+00 9.000000e-01 9.999999e-02 0.000000e+00 0.000000e+00 0.000000e+00
 0.000000e+00 0.000000e+00 0.000000e+00 0.000000e+00 0.000000e+00 0.000000e+00 9.000000e-01 9.999999e-02 0.000000e+00 0.000000e+00
 0.000000e+00 0.000000e+00 0.000000e+00 0.000000e+00 0.000000e+00 0.000000e+00 0.000000e+00 9.000000e-01 9.999999e-02 0.000000e+00
 0.000000e+00 0.000000e+00 0.000000e+00 0.000000e+00 0.000000e+00 0.000000e+00 0.000000e+00 0.000000e+00 9.000000e-01 9.999999e-02
 0.000000e+00 0.000000e+00 0.000000e+00 0.000000e+00 0.000000e+00 0.000000e+00 0.000000e+00 0.000000e+00 0.000000e+00 0.000000e+00
<ENDHMM>
