~o
<STREAMINFO> 1 39
<VECSIZE> 39<NULLD><MFCC_E_D_A_Z><DIAGC>
~h "s047"
<BEGINHMM>
<NUMSTATES> 10
<STATE> 2
<MEAN> 39
 8.669767e-08 -6.502325e-09 6.068836e-08 5.765395e-07 -5.635348e-07 -4.248186e-07 -6.068836e-08 5.375255e-07 -5.960464e-08 -4.768372e-08 2.037395e-07 -1.300465e-08 5.643957e-01 4.614927e-02 -3.112562e-02 -3.767188e-02 1.691425e-02 -3.338991e-02 4.287655e-02 6.140680e-02 -8.767409e-02 1.429521e-02 2.413244e-02 -1.113882e-03 6.979045e-02 3.162773e-05 -3.730875e-04 1.715285e-03 1.655933e-02 2.230202e-03 -3.153801e-03 -1.698183e-02 -1.823852e-02 2.419581e-02 -4.238492e-03 1.116406e-02 -2.557438e-02 -9.344983e-03 -3.770015e-05
<VARIANCE> 39
 2.696517e+01 1.398058e+01 1.277820e+02 3.394182e+01 3.055112e+01 7.513503e+01 2.095507e+01 4.250486e+01 1.808589e+01 4.046146e+01 3.301748e+01 2.072689e+01 1.228641e-01 9.168813e-01 7.638894e-01 3.919141e+00 2.163732e+00 2.099485e+00 2.980196e+00 1.932039e+00 2.760623e+00 1.754788e+00 3.413897e+00 2.220096e+00 1.994189e+00 1.585262e-03 1.470403e-01 1.422473e-01 4.447845e-01 3.256848e-01 3.589330e-01 5.703125e-01 3.864447e-01 5.287001e-01 3.377622e-01 6.096336e-01 4.370733e-01 3.970305e-01 1.533973e-04
<GCONST> 9.257497e+01
<STATE> 3
<MEAN> 39
 8.669767e-08 -6.502325e-09 6.068836e-08 5.765395e-07 -5.635348e-07 -4.248186e-07 -6.068836e-08 5.375255e-07 -5.960464e-08 -4.768372e-08 2.037395e-07 -1.300465e-08 5.643957e-01 4.614927e-02 -3.112562e-02 -3.767188e-02 1.691425e-02 -3.338991e-02 4.287655e-02 6.140680e-02 -8.767409e-02 1.429521e-02 2.413244e-02 -1.113882e-03 6.979045e-02 3.162773e-05 -3.730875e-04 1.715285e-03 1.655933e-02 2.230202e-03 -3.153801e-03 -1.698183e-02 -1.823852e-02 2.419581e-02 -4.238492e-03 1.116406e-02 -2.557438e-02 -9.344983e-03 -3.770015e-05
<VARIANCE> 39
 2.696517e+01 1.398058e+01 1.277820e+02 3.394182e+01 3.055112e+01 7.513503e+01 2.095507e+01 4.250486e+01 1.808589e+01 4.046146e+01 3.301748e+01 2.072689e+01 1.228641e-01 9.168813e-01 7.638894e-01 3.919141e+00 2.163732e+00 2.099485e+00 2.980196e+00 1.932039e+00 2.760623e+00 1.754788e+00 3.413897e+00 2.220096e+00 1.994189e+00 1.585262e-03 1.470403e-01 1.422473e-01 4.447845e-01 3.256848e-01 3.589330e-01 5.703125e-01 3.864447e-01 5.287001e-01 3.377622e-01 6.096336e-01 4.370733e-01 3.970305e-01 1.533973e-04
<GCONST> 9.257497e+01
<STATE> 4
<MEAN> 39
 8.669767e-08 -6.502325e-09 6.068836e-08 5.765395e-07 -5.635348e-07 -4.248186e-07 -6.068836e-08 5.375255e-07 -5.960464e-08 -4.768372e-08 2.037395e-07 -1.300465e-08 5.643957e-01 4.614927e-02 -3.112562e-02 -3.767188e-02 1.691425e-02 -3.338991e-02 4.287655e-02 6.140680e-02 -8.767409e-02 1.429521e-02 2.413244e-02 -1.113882e-03 6.979045e-02 3.162773e-05 -3.730875e-04 1.715285e-03 1.655933e-02 2.230202e-03 -3.153801e-03 -1.698183e-02 -1.823852e-02 2.419581e-02 -4.238492e-03 1.116406e-02 -2.557438e-02 -9.344983e-03 -3.770015e-05
<VARIANCE> 39
 2.696517e+01 1.398058e+01 1.277820e+02 3.394182e+01 3.055112e+01 7.513503e+01 2.095507e+01 4.250486e+01 1.808589e+01 4.046146e+01 3.301748e+01 2.072689e+01 1.228641e-01 9.168813e-01 7.638894e-01 3.919141e+00 2.163732e+00 2.099485e+00 2.980196e+00 1.932039e+00 2.760623e+00 1.754788e+00 3.413897e+00 2.220096e+00 1.994189e+00 1.585262e-03 1.470403e-01 1.422473e-01 4.447845e-01 3.256848e-01 3.589330e-01 5.703125e-01 3.864447e-01 5.287001e-01 3.377622e-01 6.096336e-01 4.370733e-01 3.970305e-01 1.533973e-04
<GCONST> 9.257497e+01
<STATE> 5
<MEAN> 39
 8.669767e-08 -6.502325e-09 6.068836e-08 5.765395e-07 -5.635348e-07 -4.248186e-07 -6.068836e-08 5.375255e-07 -5.960464e-08 -4.768372e-08 2.037395e-07 -1.300465e-08 5.643957e-01 4.614927e-02 -3.112562e-02 -3.767188e-02 1.691425e-02 -3.338991e-02 4.287655e-02 6.140680e-02 -8.767409e-02 1.429521e-02 2.413244e-02 -1.113882e-03 6.979045e-02 3.162773e-05 -3.730875e-04 1.715285e-03 1.655933e-02 2.230202e-03 -3.153801e-03 -1.698183e-02 -1.823852e-02 2.419581e-02 -4.238492e-03 1.116406e-02 -2.557438e-02 -9.344983e-03 -3.770015e-05
<VARIANCE> 39
 2.696517e+01 1.398058e+01 1.277820e+02 3.394182e+01 3.055112e+01 7.513503e+01 2.095507e+01 4.250486e+01 1.808589e+01 4.046146e+01 3.301748e+01 2.072689e+01 1.228641e-01 9.168813e-01 7.638894e-01 3.919141e+00 2.163732e+00 2.099485e+00 2.980196e+00 1.932039e+00 2.760623e+00 1.754788e+00 3.413897e+00 2.220096e+00 1.994189e+00 1.585262e-03 1.470403e-01 1.422473e-01 4.447845e-01 3.256848e-01 3.589330e-01 5.703125e-01 3.864447e-01 5.287001e-01 3.377622e-01 6.096336e-01 4.370733e-01 3.970305e-01 1.533973e-04
<GCONST> 9.257497e+01
<STATE> 6
<MEAN> 39
 8.669767e-08 -6.502325e-09 6.068836e-08 5.765395e-07 -5.635348e-07 -4.248186e-07 -6.068836e-08 5.375255e-07 -5.960464e-08 -4.768372e-08 2.037395e-07 -1.300465e-08 5.643957e-01 4.614927e-02 -3.112562e-02 -3.767188e-02 1.691425e-02 -3.338991e-02 4.287655e-02 6.140680e-02 -8.767409e-02 1.429521e-02 2.413244e-02 -1.113882e-03 6.979045e-02 3.162773e-05 -3.730875e-04 1.715285e-03 1.655933e-02 2.230202e-03 -3.153801e-03 -1.698183e-02 -1.823852e-02 2.419581e-02 -4.238492e-03 1.116406e-02 -2.557438e-02 -9.344983e-03 -3.770015e-05
<VARIANCE> 39
 2.696517e+01 1.398058e+01 1.277820e+02 3.394182e+01 3.055112e+01 7.513503e+01 2.095507e+01 4.250486e+01 1.808589e+01 4.046146e+01 3.301748e+01 2.072689e+01 1.228641e-01 9.168813e-01 7.638894e-01 3.919141e+00 2.163732e+00 2.099485e+00 2.980196e+00 1.932039e+00 2.760623e+00 1.754788e+00 3.413897e+00 2.220096e+00 1.994189e+00 1.585262e-03 1.470403e-01 1.422473e-01 4.447845e-01 3.256848e-01 3.589330e-01 5.703125e-01 3.864447e-01 5.287001e-01 3.377622e-01 6.096336e-01 4.370733e-01 3.970305e-01 1.533973e-04
<GCONST> 9.257497e+01
<STATE> 7
<MEAN> 39
 8.669767e-08 -6.502325e-09 6.068836e-08 5.765395e-07 -5.635348e-07 -4.248186e-07 -6.068836e-08 5.375255e-07 -5.960464e-08 -4.768372e-08 2.037395e-07 -1.300465e-08 5.643957e-01 4.614927e-02 -3.112562e-02 -3.767188e-02 1.691425e-02 -3.338991e-02 4.287655e-02 6.140680e-02 -8.767409e-02 1.429521e-02 2.413244e-02 -1.113882e-03 6.979045e-02 3.162773e-05 -3.730875e-04 1.715285e-03 1.655933e-02 2.230202e-03 -3.153801e-03 -1.698183e-02 -1.823852e-02 2.419581e-02 -4.238492e-03 1.116406e-02 -2.557438e-02 -9.344983e-03 -3.770015e-05
<VARIANCE> 39
 2.696517e+01 1.398058e+01 1.277820e+02 3.394182e+01 3.055112e+01 7.513503e+01 2.095507e+01 4.250486e+01 1.808589e+01 4.046146e+01 3.301748e+01 2.072689e+01 1.228641e-01 9.168813e-01 7.638894e-01 3.919141e+00 2.163732e+00 2.099485e+00 2.980196e+00 1.932039e+00 2.760623e+00 1.754788e+00 3.413897e+00 2.220096e+00 1.994189e+00 1.585262e-03 1.470403e-01 1.422473e-01 4.447845e-01 3.256848e-01 3.589330e-01 5.703125e-01 3.864447e-01 5.287001e-01 3.377622e-01 6.096336e-01 4.370733e-01 3.970305e-01 1.533973e-04
<GCONST> 9.257497e+01
<STATE> 8
<MEAN> 39
 8.669767e-08 -6.502325e-09 6.068836e-08 5.765395e-07 -5.635348e-07 -4.248186e-07 -6.068836e-08 5.375255e-07 -5.960464e-08 -4.768372e-08 2.037395e-07 -1.300465e-08 5.643957e-01 4.614927e-02 -3.112562e-02 -3.767188e-02 1.691425e-02 -3.338991e-02 4.287655e-02 6.140680e-02 -8.767409e-02 1.429521e-02 2.413244e-02 -1.113882e-03 6.979045e-02 3.162773e-05 -3.730875e-04 1.715285e-03 1.655933e-02 2.230202e-03 -3.153801e-03 -1.698183e-02 -1.823852e-02 2.419581e-02 -4.238492e-03 1.116406e-02 -2.557438e-02 -9.344983e-03 -3.770015e-05
<VARIANCE> 39
 2.696517e+01 1.398058e+01 1.277820e+02 3.394182e+01 3.055112e+01 7.513503e+01 2.095507e+01 4.250486e+01 1.808589e+01 4.046146e+01 3.301748e+01 2.072689e+01 1.228641e-01 9.168813e-01 7.638894e-01 3.919141e+00 2.163732e+00 2.099485e+00 2.980196e+00 1.932039e+00 2.760623e+00 1.754788e+00 3.413897e+00 2.220096e+00 1.994189e+00 1.585262e-03 1.470403e-01 1.422473e-01 4.447845e-01 3.256848e-01 3.589330e-01 5.703125e-01 3.864447e-01 5.287001e-01 3.377622e-01 6.096336e-01 4.370733e-01 3.970305e-01 1.533973e-04
<GCONST> 9.257497e+01
<STATE> 9
<MEAN> 39
 8.669767e-08 -6.502325e-09 6.068836e-08 5.765395e-07 -5.635348e-07 -4.248186e-07 -6.068836e-08 5.375255e-07 -5.960464e-08 -4.768372e-08 2.037395e-07 -1.300465e-08 5.643957e-01 4.614927e-02 -3.112562e-02 -3.767188e-02 1.691425e-02 -3.338991e-02 4.287655e-02 6.140680e-02 -8.767409e-02 1.429521e-02 2.413244e-02 -1.113882e-03 6.979045e-02 3.162773e-05 -3.730875e-04 1.715285e-03 1.655933e-02 2.230202e-03 -3.153801e-03 -1.698183e-02 -1.823852e-02 2.419581e-02 -4.238492e-03 1.116406e-02 -2.557438e-02 -9.344983e-03 -3.770015e-05
<VARIANCE> 39
 2.696517e+01 1.398058e+01 1.277820e+02 3.394182e+01 3.055112e+01 7.513503e+01 2.095507e+01 4.250486e+01 1.808589e+01 4.046146e+01 3.301748e+01 2.072689e+01 1.228641e-01 9.168813e-01 7.638894e-01 3.919141e+00 2.163732e+00 2.099485e+00 2.980196e+00 1.932039e+00 2.760623e+00 1.754788e+00 3.413897e+00 2.220096e+00 1.994189e+00 1.585262e-03 1.470403e-01 1.422473e-01 4.447845e-01 3.256848e-01 3.589330e-01 5.703125e-01 3.864447e-01 5.287001e-01 3.377622e-01 6.096336e-01 4.370733e-01 3.970305e-01 1.533973e-04
<GCONST> 9.257497e+01
<TRANSP> 10
 0.000000e+00 1.000000e+00 0.000000e+00 0.000000e+00 0.000000e+00 0.000000e+00 0.000000e+00 0.000000e+00 0.000000e+00 0.000000e+00
 0.000000e+00 9.000000e-01 9.999999e-02 0.000000e+00 0.000000e+00 0.000000e+00 0.000000e+00 0.000000e+00 0.000000e+00 0.000000e+00
 0.000000e+00 0.000000e+00 9.000000e-01 9.999999e-02 0.000000e+00 0.000000e+00 0.000000e+00 0.000000e+00 0.000000e+00 0.000000e+00
 0.000000e+00 0.000000e+00 0.000000e+00 9.000000e-01 9.999999e-02 0.000000e+00 0.000000e+00 0.000000e+00 0.000000e+00 0.000000e+00
 0.000000e+00 0.000000e+00 0.000000e+00 0.000000e+00 9.000000e-01 9.999999e-02 0.000000e+00 0.000000e+00 0.000000e+00 0.000000e+00
 0.000000e+00 0.000000e+00 0.000000e+00 0.000000e+00 0.000000e+00 9.000000e-01 9.999999e-02 0.000000e+00 0.000000e+00 0.000000e+00
 0.000000e+00 0.000000e+00 0.000000e+00 0.000000e+00 0.000000e+00 0.000000e+00 9.000000e-01 9.999999e-02 0.000000e+00 0.000000e+00
 0.000000e+00 0.000000e+00 0.000000e+00 0.000000e+00 0.000000e+00 0.000000e+00 0.000000e+00 9.000000e-01 9.999999e-02 0.000000e+00
 0.000000e+00 0.000000e+00 0.000000e+00 0.000000e+00 0.000000e+00 0.000000e+00 0.000000e+00 0.000000e+00 9.000000e-01 9.999999e-02
 0.000000e+00 0.000000e+00 0.000000e+00 0.000000e+00 0.000000e+00 0.000000e+00 0.000000e+00 0.000000e+00 0.000000e+00 0.000000e+00
<ENDHMM>
