~o
<STREAMINFO> 1 39
<VECSIZE> 39<NULLD><MFCC_E_D_A_Z><DIAGC>
~h "s051"
<BEGINHMM>
<NUMSTATES> 10
<STATE> 2
<MEAN> 39
 -2.466399e-07 -2.301972e-07 -1.644266e-07 5.261651e-07 -2.630826e-07 4.932798e-07 -4.192879e-07 4.275092e-07 -2.466399e-08 3.124105e-07 1.315413e-07 -1.644266e-07 7.382050e-01 2.336320e-01 -2.592606e-01 -1.720543e-01 3.112897e-01 8.163755e-02 -1.127924e-01 7.486821e-02 1.516914e-01 1.019249e-01 -1.272766e-01 -2.208826e-01 1.382259e-01 -1.378199e-03 -6.784779e-02 5.825862e-02 6.244595e-02 -5.470152e-03 1.284710e-01 6.012383e-02 -4.658962e-02 2.136326e-02 -7.590744e-02 4.541942e-02 -6.106366e-02 1.147414e-01 -1.704022e-03
<VARIANCE> 39
 3.749608e+01 1.058824e+02 8.851580e+01 9.029298e+01 4.951854e+01 6.581420e+01 4.687101e+01 4.185184e+01 3.746534e+01 5.273492e+01 6.547118e+01 5.671082e+01 2.135062e-02 2.413114e+00 3.753990e+00 4.659666e+00 3.731524e+00 6.094806e+00 5.931593e+00 5.518846e+00 4.132588e+00 3.751054e+00 6.295595e+00 5.061329e+00 5.280004e+00 1.620876e-03 3.210590e-01 3.508477e-01 4.352895e-01 6.682642e-01 1.138770e+00 9.836563e-01 1.150881e+00 8.677854e-01 6.150664e-01 9.188712e-01 7.720047e-01 9.656470e-01 1.942383e-04
<GCONST> 1.156623e+02
<STATE> 3
<MEAN> 39
 -2.466399e-07 -2.301972e-07 -1.644266e-07 5.261651e-07 -2.630826e-07 4.932798e-07 -4.192879e-07 4.275092e-07 -2.466399e-08 3.124105e-07 1.315413e-07 -1.644266e-07 7.382050e-01 2.336320e-01 -2.592606e-01 -1.720543e-01 3.112897e-01 8.163755e-02 -1.127924e-01 7.486821e-02 1.516914e-01 1.019249e-01 -1.272766e-01 -2.208826e-01 1.382259e-01 -1.378199e-03 -6.784779e-02 5.825862e-02 6.244595e-02 -5.470152e-03 1.284710e-01 6.012383e-02 -4.658962e-02 2.136326e-02 -7.590744e-02 4.541942e-02 -6.106366e-02 1.147414e-01 -1.704022e-03
<VARIANCE> 39
 3.749608e+01 1.058824e+02 8.851580e+01 9.029298e+01 4.951854e+01 6.581420e+01 4.687101e+01 4.185184e+01 3.746534e+01 5.273492e+01 6.547118e+01 5.671082e+01 2.135062e-02 2.413114e+00 3.753990e+00 4.659666e+00 3.731524e+00 6.094806e+00 5.931593e+00 5.518846e+00 4.132588e+00 3.751054e+00 6.295595e+00 5.061329e+00 5.280004e+00 1.620876e-03 3.210590e-01 3.508477e-01 4.352895e-01 6.682642e-01 1.138770e+00 9.836563e-01 1.150881e+00 8.677854e-01 6.150664e-01 9.188712e-01 7.720047e-01 9.656470e-01 1.942383e-04
<GCONST> 1.156623e+02
<STATE> 4
<MEAN> 39
 -2.466399e-07 -2.301972e-07 -1.644266e-07 5.261651e-07 -2.630826e-07 4.932798e-07 -4.192879e-07 4.275092e-07 -2.466399e-08 3.124105e-07 1.315413e-07 -1.644266e-07 7.382050e-01 2.336320e-01 -2.592606e-01 -1.720543e-01 3.112897e-01 8.163755e-02 -1.127924e-01 7.486821e-02 1.516914e-01 1.019249e-01 -1.272766e-01 -2.208826e-01 1.382259e-01 -1.378199e-03 -6.784779e-02 5.825862e-02 6.244595e-02 -5.470152e-03 1.284710e-01 6.012383e-02 -4.658962e-02 2.136326e-02 -7.590744e-02 4.541942e-02 -6.106366e-02 1.147414e-01 -1.704022e-03
<VARIANCE> 39
 3.749608e+01 1.058824e+02 8.851580e+01 9.029298e+01 4.951854e+01 6.581420e+01 4.687101e+01 4.185184e+01 3.746534e+01 5.273492e+01 6.547118e+01 5.671082e+01 2.135062e-02 2.413114e+00 3.753990e+00 4.659666e+00 3.731524e+00 6.094806e+00 5.931593e+00 5.518846e+00 4.132588e+00 3.751054e+00 6.295595e+00 5.061329e+00 5.280004e+00 1.620876e-03 3.210590e-01 3.508477e-01 4.352895e-01 6.682642e-01 1.138770e+00 9.836563e-01 1.150881e+00 8.677854e-01 6.150664e-01 9.188712e-01 7.720047e-01 9.656470e-01 1.942383e-04
<GCONST> 1.156623e+02
<STATE> 5
<MEAN> 39
 -2.466399e-07 -2.301972e-07 -1.644266e-07 5.261651e-07 -2.630826e-07 4.932798e-07 -4.192879e-07 4.275092e-07 -2.466399e-08 3.124105e-07 1.315413e-07 -1.644266e-07 7.382050e-01 2.336320e-01 -2.592606e-01 -1.720543e-01 3.112897e-01 8.163755e-02 -1.127924e-01 7.486821e-02 1.516914e-01 1.019249e-01 -1.272766e-01 -2.208826e-01 1.382259e-01 -1.378199e-03 -6.784779e-02 5.825862e-02 6.244595e-02 -5.470152e-03 1.284710e-01 6.012383e-02 -4.658962e-02 2.136326e-02 -7.590744e-02 4.541942e-02 -6.106366e-02 1.147414e-01 -1.704022e-03
<VARIANCE> 39
 3.749608e+01 1.058824e+02 8.851580e+01 9.029298e+01 4.951854e+01 6.581420e+01 4.687101e+01 4.185184e+01 3.746534e+01 5.273492e+01 6.547118e+01 5.671082e+01 2.135062e-02 2.413114e+00 3.753990e+00 4.659666e+00 3.731524e+00 6.094806e+00 5.931593e+00 5.518846e+00 4.132588e+00 3.751054e+00 6.295595e+00 5.061329e+00 5.280004e+00 1.620876e-03 3.210590e-01 3.508477e-01 4.352895e-01 6.682642e-01 1.138770e+00 9.836563e-01 1.150881e+00 8.677854e-01 6.150664e-01 9.188712e-01 7.720047e-01 9.656470e-01 1.942383e-04
<GCONST> 1.156623e+02
<STATE> 6
<MEAN> 39
 -2.466399e-07 -2.301972e-07 -1.644266e-07 5.261651e-07 -2.630826e-07 4.932798e-07 -4.192879e-07 4.275092e-07 -2.466399e-08 3.124105e-07 1.315413e-07 -1.644266e-07 7.382050e-01 2.336320e-01 -2.592606e-01 -1.720543e-01 3.112897e-01 8.163755e-02 -1.127924e-01 7.486821e-02 1.516914e-01 1.019249e-01 -1.272766e-01 -2.208826e-01 1.382259e-01 -1.378199e-03 -6.784779e-02 5.825862e-02 6.244595e-02 -5.470152e-03 1.284710e-01 6.012383e-02 -4.658962e-02 2.136326e-02 -7.590744e-02 4.541942e-02 -6.106366e-02 1.147414e-01 -1.704022e-03
<VARIANCE> 39
 3.749608e+01 1.058824e+02 8.851580e+01 9.029298e+01 4.951854e+01 6.581420e+01 4.687101e+01 4.185184e+01 3.746534e+01 5.273492e+01 6.547118e+01 5.671082e+01 2.135062e-02 2.413114e+00 3.753990e+00 4.659666e+00 3.731524e+00 6.094806e+00 5.931593e+00 5.518846e+00 4.132588e+00 3.751054e+00 6.295595e+00 5.061329e+00 5.280004e+00 1.620876e-03 3.210590e-01 3.508477e-01 4.352895e-01 6.682642e-01 1.138770e+00 9.836563e-01 1.150881e+00 8.677854e-01 6.150664e-01 9.188712e-01 7.720047e-01 9.656470e-01 1.942383e-04
<GCONST> 1.156623e+02
<STATE> 7
<MEAN> 39
 -2.466399e-07 -2.301972e-07 -1.644266e-07 5.261651e-07 -2.630826e-07 4.932798e-07 -4.192879e-07 4.275092e-07 -2.466399e-08 3.124105e-07 1.315413e-07 -1.644266e-07 7.382050e-01 2.336320e-01 -2.592606e-01 -1.720543e-01 3.112897e-01 8.163755e-02 -1.127924e-01 7.486821e-02 1.516914e-01 1.019249e-01 -1.272766e-01 -2.208826e-01 1.382259e-01 -1.378199e-03 -6.784779e-02 5.825862e-02 6.244595e-02 -5.470152e-03 1.284710e-01 6.012383e-02 -4.658962e-02 2.136326e-02 -7.590744e-02 4.541942e-02 -6.106366e-02 1.147414e-01 -1.704022e-03
<VARIANCE> 39
 3.749608e+01 1.058824e+02 8.851580e+01 9.029298e+01 4.951854e+01 6.581420e+01 4.687101e+01 4.185184e+01 3.746534e+01 5.273492e+01 6.547118e+01 5.671082e+01 2.135062e-02 2.413114e+00 3.753990e+00 4.659666e+00 3.731524e+00 6.094806e+00 5.931593e+00 5.518846e+00 4.132588e+00 3.751054e+00 6.295595e+00 5.061329e+00 5.280004e+00 1.620876e-03 3.210590e-01 3.508477e-01 4.352895e-01 6.682642e-01 1.138770e+00 9.836563e-01 1.150881e+00 8.677854e-01 6.150664e-01 9.188712e-01 7.720047e-01 9.656470e-01 1.942383e-04
<GCONST> 1.156623e+02
<STATE> 8
<MEAN> 39
 -2.466399e-07 -2.301972e-07 -1.644266e-07 5.261651e-07 -2.630826e-07 4.932798e-07 -4.192879e-07 4.275092e-07 -2.466399e-08 3.124105e-07 1.315413e-07 -1.644266e-07 7.382050e-01 2.336320e-01 -2.592606e-01 -1.720543e-01 3.112897e-01 8.163755e-02 -1.127924e-01 7.486821e-02 1.516914e-01 1.019249e-01 -1.272766e-01 -2.208826e-01 1.382259e-01 -1.378199e-03 -6.784779e-02 5.825862e-02 6.244595e-02 -5.470152e-03 1.284710e-01 6.012383e-02 -4.658962e-02 2.136326e-02 -7.590744e-02 4.541942e-02 -6.106366e-02 1.147414e-01 -1.704022e-03
<VARIANCE> 39
 3.749608e+01 1.058824e+02 8.851580e+01 9.029298e+01 4.951854e+01 6.581420e+01 4.687101e+01 4.185184e+01 3.746534e+01 5.273492e+01 6.547118e+01 5.671082e+01 2.135062e-02 2.413114e+00 3.753990e+00 4.659666e+00 3.731524e+00 6.094806e+00 5.931593e+00 5.518846e+00 4.132588e+00 3.751054e+00 6.295595e+00 5.061329e+00 5.280004e+00 1.620876e-03 3.210590e-01 3.508477e-01 4.352895e-01 6.682642e-01 1.138770e+00 9.836563e-01 1.150881e+00 8.677854e-01 6.150664e-01 9.188712e-01 7.720047e-01 9.656470e-01 1.942383e-04
<GCONST> 1.156623e+02
<STATE> 9
<MEAN> 39
 -2.466399e-07 -2.301972e-07 -1.644266e-07 5.261651e-07 -2.630826e-07 4.932798e-07 -4.192879e-07 4.275092e-07 -2.466399e-08 3.124105e-07 1.315413e-07 -1.644266e-07 7.382050e-01 2.336320e-01 -2.592606e-01 -1.720543e-01 3.112897e-01 8.163755e-02 -1.127924e-01 7.486821e-02 1.516914e-01 1.019249e-01 -1.272766e-01 -2.208826e-01 1.382259e-01 -1.378199e-03 -6.784779e-02 5.825862e-02 6.244595e-02 -5.470152e-03 1.284710e-01 6.012383e-02 -4.658962e-02 2.136326e-02 -7.590744e-02 4.541942e-02 -6.106366e-02 1.147414e-01 -1.704022e-03
<VARIANCE> 39
 3.749608e+01 1.058824e+02 8.851580e+01 9.029298e+01 4.951854e+01 6.581420e+01 4.687101e+01 4.185184e+01 3.746534e+01 5.273492e+01 6.547118e+01 5.671082e+01 2.135062e-02 2.413114e+00 3.753990e+00 4.659666e+00 3.731524e+00 6.094806e+00 5.931593e+00 5.518846e+00 4.132588e+00 3.751054e+00 6.295595e+00 5.061329e+00 5.280004e+00 1.620876e-03 3.210590e-01 3.508477e-01 4.352895e-01 6.682642e-01 1.138770e+00 9.836563e-01 1.150881e+00 8.677854e-01 6.150664e-01 9.188712e-01 7.720047e-01 9.656470e-01 1.942383e-04
<GCONST> 1.156623e+02
<TRANSP> 10
 0.000000e+00 1.000000e+00 0.000000e+00 0.000000e+00 0.000000e+00 0.000000e+00 0.000000e+00 0.000000e+00 0.000000e+00 0.000000e+00
 0.000000e+00 9.000000e-01 9.999999e-02 0.000000e+00 0.000000e+00 0.000000e+00 0.000000e+00 0.000000e+00 0.000000e+00 0.000000e+00
 0.000000e+00 0.000000e+00 9.000000e-01 9.999999e-02 0.000000e+00 0.000000e+00 0.000000e+00 0.000000e+00 0.000000e+00 0.000000e+00
 0.000000e+00 0.000000e+00 0.000000e+00 9.000000e-01 9.999999e-02 0.000000e+00 0.000000e+00 0.000000e+00 0.000000e+00 0.000000e+00
 0.000000e+00 0.000000e+00 0.000000e+00 0.000000e+00 9.000000e-01 9.999999e-02 0.000000e+00 0.000000e+00 0.000000e+00 0.000000e+00
 0.000000e+00 0.000000e+00 0.000000e+00 0.000000e+00 0.000000e+00 9.000000e-01 9.999999e-02 0.000000e+00 0.000000e+00 0.000000e+00
 0.000000e+00 0.000000e+00 0.000000e+00 0.000000e+00 0.000000e+00 0.000000e+00 9.000000e-01 9.999999e-02 0.000000e+00 0.000000e+00
 0.000000e+00 0.000000e+00 0.000000e+00 0.000000e+00 0.000000e+00 0.000000e+00 0.000000e+00 9.000000e-01 9.999999e-02 0.000000e+00
 0.000000e+00 0.000000e+00 0.000000e+00 0.000000e+00 0.000000e+00 0.000000e+00 0.000000e+00 0.000000e+00 9.000000e-01 9.999999e-02
 0.000000e+00 0.000000e+00 0.000000e+00 0.000000e+00 0.000000e+00 0.000000e+00 0.000000e+00 0.000000e+00 0.000000e+00 0.000000e+00
<ENDHMM>
