~o
<STREAMINFO> 1 39
<VECSIZE> 39<NULLD><MFCC_E_D_A_Z><DIAGC>
~h "s056"
<BEGINHMM>
<NUMSTATES> 10
<STATE> 2
<MEAN> 39
 -6.520850e-08 1.793234e-07 -2.037766e-08 -2.730606e-07 -3.260425e-08 2.241542e-07 1.263415e-07 -4.483084e-08 -4.075531e-09 -1.222659e-08 1.304170e-07 -7.743510e-08 4.669746e-01 -2.457724e-05 -2.412915e-02 4.699638e-03 3.298462e-02 -7.003707e-02 -2.001007e-02 1.094622e-02 -1.217111e-01 -2.598175e-02 -2.563450e-02 -2.904847e-02 -4.744700e-02 -8.008629e-04 -3.195456e-03 -4.770576e-03 -1.456463e-02 -1.290164e-02 -1.727707e-02 -2.217824e-02 -8.575203e-03 -1.432616e-02 -1.822275e-02 1.189805e-04 3.801934e-02 1.463210e-02 -5.940323e-05
<VARIANCE> 39
 1.953889e+01 2.784483e+01 3.741369e+01 2.617742e+01 2.599357e+01 9.621503e+01 6.356958e+01 6.486160e+01 2.871937e+01 4.519364e+01 3.693057e+01 2.628184e+01 1.143959e-01 1.409806e+00 1.435517e+00 1.867243e+00 1.610113e+00 2.305966e+00 4.702759e+00 2.958085e+00 3.379905e+00 3.875041e+00 2.309410e+00 2.894109e+00 2.031866e+00 1.314518e-03 2.535356e-01 1.569221e-01 2.707095e-01 2.648518e-01 3.903180e-01 8.698781e-01 5.253484e-01 5.636045e-01 7.400531e-01 4.385949e-01 5.927616e-01 3.655976e-01 1.165704e-04
<GCONST> 9.684280e+01
<STATE> 3
<MEAN> 39
 -6.520850e-08 1.793234e-07 -2.037766e-08 -2.730606e-07 -3.260425e-08 2.241542e-07 1.263415e-07 -4.483084e-08 -4.075531e-09 -1.222659e-08 1.304170e-07 -7.743510e-08 4.669746e-01 -2.457724e-05 -2.412915e-02 4.699638e-03 3.298462e-02 -7.003707e-02 -2.001007e-02 1.094622e-02 -1.217111e-01 -2.598175e-02 -2.563450e-02 -2.904847e-02 -4.744700e-02 -8.008629e-04 -3.195456e-03 -4.770576e-03 -1.456463e-02 -1.290164e-02 -1.727707e-02 -2.217824e-02 -8.575203e-03 -1.432616e-02 -1.822275e-02 1.189805e-04 3.801934e-02 1.463210e-02 -5.940323e-05
<VARIANCE> 39
 1.953889e+01 2.784483e+01 3.741369e+01 2.617742e+01 2.599357e+01 9.621503e+01 6.356958e+01 6.486160e+01 2.871937e+01 4.519364e+01 3.693057e+01 2.628184e+01 1.143959e-01 1.409806e+00 1.435517e+00 1.867243e+00 1.610113e+00 2.305966e+00 4.702759e+00 2.958085e+00 3.379905e+00 3.875041e+00 2.309410e+00 2.894109e+00 2.031866e+00 1.314518e-03 2.535356e-01 1.569221e-01 2.707095e-01 2.648518e-01 3.903180e-01 8.698781e-01 5.253484e-01 5.636045e-01 7.400531e-01 4.385949e-01 5.927616e-01 3.655976e-01 1.165704e-04
<GCONST> 9.684280e+01
<STATE> 4
<MEAN> 39
 -6.520850e-08 1.793234e-07 -2.037766e-08 -2.730606e-07 -3.260425e-08 2.241542e-07 1.263415e-07 -4.483084e-08 -4.075531e-09 -1.222659e-08 1.304170e-07 -7.743510e-08 4.669746e-01 -2.457724e-05 -2.412915e-02 4.699638e-03 3.298462e-02 -7.003707e-02 -2.001007e-02 1.094622e-02 -1.217111e-01 -2.598175e-02 -2.563450e-02 -2.904847e-02 -4.744700e-02 -8.008629e-04 -3.195456e-03 -4.770576e-03 -1.456463e-02 -1.290164e-02 -1.727707e-02 -2.217824e-02 -8.575203e-03 -1.432616e-02 -1.822275e-02 1.189805e-04 3.801934e-02 1.463210e-02 -5.940323e-05
<VARIANCE> 39
 1.953889e+01 2.784483e+01 3.741369e+01 2.617742e+01 2.599357e+01 9.621503e+01 6.356958e+01 6.486160e+01 2.871937e+01 4.519364e+01 3.693057e+01 2.628184e+01 1.143959e-01 1.409806e+00 1.435517e+00 1.867243e+00 1.610113e+00 2.305966e+00 4.702759e+00 2.958085e+00 3.379905e+00 3.875041e+00 2.309410e+00 2.894109e+00 2.031866e+00 1.314518e-03 2.535356e-01 1.569221e-01 2.707095e-01 2.648518e-01 3.903180e-01 8.698781e-01 5.253484e-01 5.636045e-01 7.400531e-01 4.385949e-01 5.927616e-01 3.655976e-01 1.165704e-04
<GCONST> 9.684280e+01
<STATE> 5
<MEAN> 39
 -6.520850e-08 1.793234e-07 -2.037766e-08 -2.730606e-07 -3.260425e-08 2.241542e-07 1.263415e-07 -4.483084e-08 -4.075531e-09 -1.222659e-08 1.304170e-07 -7.743510e-08 4.669746e-01 -2.457724e-05 -2.412915e-02 4.699638e-03 3.298462e-02 -7.003707e-02 -2.001007e-02 1.094622e-02 -1.217111e-01 -2.598175e-02 -2.563450e-02 -2.904847e-02 -4.744700e-02 -8.008629e-04 -3.195456e-03 -4.770576e-03 -1.456463e-02 -1.290164e-02 -1.727707e-02 -2.217824e-02 -8.575203e-03 -1.432616e-02 -1.822275e-02 1.189805e-04 3.801934e-02 1.463210e-02 -5.940323e-05
<VARIANCE> 39
 1.953889e+01 2.784483e+01 3.741369e+01 2.617742e+01 2.599357e+01 9.621503e+01 6.356958e+01 6.486160e+01 2.871937e+01 4.519364e+01 3.693057e+01 2.628184e+01 1.143959e-01 1.409806e+00 1.435517e+00 1.867243e+00 1.610113e+00 2.305966e+00 4.702759e+00 2.958085e+00 3.379905e+00 3.875041e+00 2.309410e+00 2.894109e+00 2.031866e+00 1.314518e-03 2.535356e-01 1.569221e-01 2.707095e-01 2.648518e-01 3.903180e-01 8.698781e-01 5.253484e-01 5.636045e-01 7.400531e-01 4.385949e-01 5.927616e-01 3.655976e-01 1.165704e-04
<GCONST> 9.684280e+01
<STATE> 6
<MEAN> 39
 -6.520850e-08 1.793234e-07 -2.037766e-08 -2.730606e-07 -3.260425e-08 2.241542e-07 1.263415e-07 -4.483084e-08 -4.075531e-09 -1.222659e-08 1.304170e-07 -7.743510e-08 4.669746e-01 -2.457724e-05 -2.412915e-02 4.699638e-03 3.298462e-02 -7.003707e-02 -2.001007e-02 1.094622e-02 -1.217111e-01 -2.598175e-02 -2.563450e-02 -2.904847e-02 -4.744700e-02 -8.008629e-04 -3.195456e-03 -4.770576e-03 -1.456463e-02 -1.290164e-02 -1.727707e-02 -2.217824e-02 -8.575203e-03 -1.432616e-02 -1.822275e-02 1.189805e-04 3.801934e-02 1.463210e-02 -5.940323e-05
<VARIANCE> 39
 1.953889e+01 2.784483e+01 3.741369e+01 2.617742e+01 2.599357e+01 9.621503e+01 6.356958e+01 6.486160e+01 2.871937e+01 4.519364e+01 3.693057e+01 2.628184e+01 1.143959e-01 1.409806e+00 1.435517e+00 1.867243e+00 1.610113e+00 2.305966e+00 4.702759e+00 2.958085e+00 3.379905e+00 3.875041e+00 2.309410e+00 2.894109e+00 2.031866e+00 1.314518e-03 2.535356e-01 1.569221e-01 2.707095e-01 2.648518e-01 3.903180e-01 8.698781e-01 5.253484e-01 5.636045e-01 7.400531e-01 4.385949e-01 5.927616e-01 3.655976e-01 1.165704e-04
<GCONST> 9.684280e+01
<STATE> 7
<MEAN> 39
 -6.520850e-08 1.793234e-07 -2.037766e-08 -2.730606e-07 -3.260425e-08 2.241542e-07 1.263415e-07 -4.483084e-08 -4.075531e-09 -1.222659e-08 1.304170e-07 -7.743510e-08 4.669746e-01 -2.457724e-05 -2.412915e-02 4.699638e-03 3.298462e-02 -7.003707e-02 -2.001007e-02 1.094622e-02 -1.217111e-01 -2.598175e-02 -2.563450e-02 -2.904847e-02 -4.744700e-02 -8.008629e-04 -3.195456e-03 -4.770576e-03 -1.456463e-02 -1.290164e-02 -1.727707e-02 -2.217824e-02 -8.575203e-03 -1.432616e-02 -1.822275e-02 1.189805e-04 3.801934e-02 1.463210e-02 -5.940323e-05
<VARIANCE> 39
 1.953889e+01 2.784483e+01 3.741369e+01 2.617742e+01 2.599357e+01 9.621503e+01 6.356958e+01 6.486160e+01 2.871937e+01 4.519364e+01 3.693057e+01 2.628184e+01 1.143959e-01 1.409806e+00 1.435517e+00 1.867243e+00 1.610113e+00 2.305966e+00 4.702759e+00 2.958085e+00 3.379905e+00 3.875041e+00 2.309410e+00 2.894109e+00 2.031866e+00 1.314518e-03 2.535356e-01 1.569221e-01 2.707095e-01 2.648518e-01 3.903180e-01 8.698781e-01 5.253484e-01 5.636045e-01 7.400531e-01 4.385949e-01 5.927616e-01 3.655976e-01 1.165704e-04
<GCONST> 9.684280e+01
<STATE> 8
<MEAN> 39
 -6.520850e-08 1.793234e-07 -2.037766e-08 -2.730606e-07 -3.260425e-08 2.241542e-07 1.263415e-07 -4.483084e-08 -4.075531e-09 -1.222659e-08 1.304170e-07 -7.743510e-08 4.669746e-01 -2.457724e-05 -2.412915e-02 4.699638e-03 3.298462e-02 -7.003707e-02 -2.001007e-02 1.094622e-02 -1.217111e-01 -2.598175e-02 -2.563450e-02 -2.904847e-02 -4.744700e-02 -8.008629e-04 -3.195456e-03 -4.770576e-03 -1.456463e-02 -1.290164e-02 -1.727707e-02 -2.217824e-02 -8.575203e-03 -1.432616e-02 -1.822275e-02 1.189805e-04 3.801934e-02 1.463210e-02 -5.940323e-05
<VARIANCE> 39
 1.953889e+01 2.784483e+01 3.741369e+01 2.617742e+01 2.599357e+01 9.621503e+01 6.356958e+01 6.486160e+01 2.871937e+01 4.519364e+01 3.693057e+01 2.628184e+01 1.143959e-01 1.409806e+00 1.435517e+00 1.867243e+00 1.610113e+00 2.305966e+00 4.702759e+00 2.958085e+00 3.379905e+00 3.875041e+00 2.309410e+00 2.894109e+00 2.031866e+00 1.314518e-03 2.535356e-01 1.569221e-01 2.707095e-01 2.648518e-01 3.903180e-01 8.698781e-01 5.253484e-01 5.636045e-01 7.400531e-01 4.385949e-01 5.927616e-01 3.655976e-01 1.165704e-04
<GCONST> 9.684280e+01
<STATE> 9
<MEAN> 39
 -6.520850e-08 1.793234e-07 -2.037766e-08 -2.730606e-07 -3.260425e-08 2.241542e-07 1.263415e-07 -4.483084e-08 -4.075531e-09 -1.222659e-08 1.304170e-07 -7.743510e-08 4.669746e-01 -2.457724e-05 -2.412915e-02 4.699638e-03 3.298462e-02 -7.003707e-02 -2.001007e-02 1.094622e-02 -1.217111e-01 -2.598175e-02 -2.563450e-02 -2.904847e-02 -4.744700e-02 -8.008629e-04 -3.195456e-03 -4.770576e-03 -1.456463e-02 -1.290164e-02 -1.727707e-02 -2.217824e-02 -8.575203e-03 -1.432616e-02 -1.822275e-02 1.189805e-04 3.801934e-02 1.463210e-02 -5.940323e-05
<VARIANCE> 39
 1.953889e+01 2.784483e+01 3.741369e+01 2.617742e+01 2.599357e+01 9.621503e+01 6.356958e+01 6.486160e+01 2.871937e+01 4.519364e+01 3.693057e+01 2.628184e+01 1.143959e-01 1.409806e+00 1.435517e+00 1.867243e+00 1.610113e+00 2.305966e+00 4.702759e+00 2.958085e+00 3.379905e+00 3.875041e+00 2.309410e+00 2.894109e+00 2.031866e+00 1.314518e-03 2.535356e-01 1.569221e-01 2.707095e-01 2.648518e-01 3.903180e-01 8.698781e-01 5.253484e-01 5.636045e-01 7.400531e-01 4.385949e-01 5.927616e-01 3.655976e-01 1.165704e-04
<GCONST> 9.684280e+01
<TRANSP> 10
 0.000000e+00 1.000000e+00 0.000000e+00 0.000000e+00 0.000000e+00 0.000000e+00 0.000000e+00 0.000000e+00 0.000000e+00 0.000000e+00
 0.000000e+00 9.000000e-01 9.999999e-02 0.000000e+00 0.000000e+00 0.000000e+00 0.000000e+00 0.000000e+00 0.000000e+00 0.000000e+00
 0.000000e+00 0.000000e+00 9.000000e-01 9.999999e-02 0.000000e+00 0.000000e+00 0.000000e+00 0.000000e+00 0.000000e+00 0.000000e+00
 0.000000e+00 0.000000e+00 0.000000e+00 9.000000e-01 9.999999e-02 0.000000e+00 0.000000e+00 0.000000e+00 0.000000e+00 0.000000e+00
 0.000000e+00 0.000000e+00 0.000000e+00 0.000000e+00 9.000000e-01 9.999999e-02 0.000000e+00 0.000000e+00 0.000000e+00 0.000000e+00
 0.000000e+00 0.000000e+00 0.000000e+00 0.000000e+00 0.000000e+00 9.000000e-01 9.999999e-02 0.000000e+00 0.000000e+00 0.000000e+00
 0.000000e+00 0.000000e+00 0.000000e+00 0.000000e+00 0.000000e+00 0.000000e+00 9.000000e-01 9.999999e-02 0.000000e+00 0.000000e+00
 0.000000e+00 0.000000e+00 0.000000e+00 0.000000e+00 0.000000e+00 0.000000e+00 0.000000e+00 9.000000e-01 9.999999e-02 0.000000e+00
 0.000000e+00 0.000000e+00 0.000000e+00 0.000000e+00 0.000000e+00 0.000000e+00 0.000000e+00 0.000000e+00 9.000000e-01 9.999999e-02
 0.000000e+00 0.000000e+00 0.000000e+00 0.000000e+00 0.000000e+00 0.000000e+00 0.000000e+00 0.000000e+00 0.000000e+00 0.000000e+00
<ENDHMM>
