~o
<STREAMINFO> 1 39
<VECSIZE> 39<NULLD><MFCC_E_D_A_Z><DIAGC>
~h "s057"
<BEGINHMM>
<NUMSTATES> 10
<STATE> 2
<MEAN> 39
 -6.869688e-08 -6.061489e-08 -1.616397e-07 -8.243625e-07 -6.465589e-08 -3.475254e-07 -3.071155e-07 5.414930e-07 -4.849191e-08 8.081986e-08 2.788285e-07 2.828695e-07 7.792911e-01 3.688612e-02 -2.675298e-01 -2.174749e-01 -8.977473e-02 1.009271e-01 -1.030261e-02 3.133857e-01 -8.330243e-02 3.310359e-02 2.465289e-01 -1.358352e-01 1.234580e-01 -4.079021e-03 -1.426862e-02 -1.552298e-02 4.420483e-03 4.117822e-02 -3.754871e-02 2.368663e-02 -4.242631e-02 -1.598669e-02 3.317554e-02 3.864619e-02 5.390206e-02 3.526950e-02 -1.385464e-03
<VARIANCE> 39
 1.835452e+01 8.086066e+01 6.514442e+01 1.035043e+02 4.009857e+01 4.498100e+01 8.999333e+01 6.089820e+01 7.302442e+01 3.585401e+01 3.800222e+01 3.708725e+01 1.334190e-02 8.455477e-01 4.154177e+00 3.298117e+00 6.493365e+00 4.043603e+00 6.448464e+00 4.744793e+00 4.782162e+00 7.317706e+00 5.515790e+00 3.918597e+00 3.149594e+00 6.375557e-04 8.316334e-02 3.626916e-01 3.536380e-01 8.467290e-01 5.656879e-01 1.278261e+00 6.972244e-01 9.755295e-01 1.280612e+00 1.113413e+00 7.178146e-01 5.434166e-01 4.120434e-05
<GCONST> 1.081630e+02
<STATE> 3
<MEAN> 39
 -6.869688e-08 -6.061489e-08 -1.616397e-07 -8.243625e-07 -6.465589e-08 -3.475254e-07 -3.071155e-07 5.414930e-07 -4.849191e-08 8.081986e-08 2.788285e-07 2.828695e-07 7.792911e-01 3.688612e-02 -2.675298e-01 -2.174749e-01 -8.977473e-02 1.009271e-01 -1.030261e-02 3.133857e-01 -8.330243e-02 3.310359e-02 2.465289e-01 -1.358352e-01 1.234580e-01 -4.079021e-03 -1.426862e-02 -1.552298e-02 4.420483e-03 4.117822e-02 -3.754871e-02 2.368663e-02 -4.242631e-02 -1.598669e-02 3.317554e-02 3.864619e-02 5.390206e-02 3.526950e-02 -1.385464e-03
<VARIANCE> 39
 1.835452e+01 8.086066e+01 6.514442e+01 1.035043e+02 4.009857e+01 4.498100e+01 8.999333e+01 6.089820e+01 7.302442e+01 3.585401e+01 3.800222e+01 3.708725e+01 1.334190e-02 8.455477e-01 4.154177e+00 3.298117e+00 6.493365e+00 4.043603e+00 6.448464e+00 4.744793e+00 4.782162e+00 7.317706e+00 5.515790e+00 3.918597e+00 3.149594e+00 6.375557e-04 8.316334e-02 3.626916e-01 3.536380e-01 8.467290e-01 5.656879e-01 1.278261e+00 6.972244e-01 9.755295e-01 1.280612e+00 1.113413e+00 7.178146e-01 5.434166e-01 4.120434e-05
<GCONST> 1.081630e+02
<STATE> 4
<MEAN> 39
 -6.869688e-08 -6.061489e-08 -1.616397e-07 -8.243625e-07 -6.465589e-08 -3.475254e-07 -3.071155e-07 5.414930e-07 -4.849191e-08 8.081986e-08 2.788285e-07 2.828695e-07 7.792911e-01 3.688612e-02 -2.675298e-01 -2.174749e-01 -8.977473e-02 1.009271e-01 -1.030261e-02 3.133857e-01 -8.330243e-02 3.310359e-02 2.465289e-01 -1.358352e-01 1.234580e-01 -4.079021e-03 -1.426862e-02 -1.552298e-02 4.420483e-03 4.117822e-02 -3.754871e-02 2.368663e-02 -4.242631e-02 -1.598669e-02 3.317554e-02 3.864619e-02 5.390206e-02 3.526950e-02 -1.385464e-03
<VARIANCE> 39
 1.835452e+01 8.086066e+01 6.514442e+01 1.035043e+02 4.009857e+01 4.498100e+01 8.999333e+01 6.089820e+01 7.302442e+01 3.585401e+01 3.800222e+01 3.708725e+01 1.334190e-02 8.455477e-01 4.154177e+00 3.298117e+00 6.493365e+00 4.043603e+00 6.448464e+00 4.744793e+00 4.782162e+00 7.317706e+00 5.515790e+00 3.918597e+00 3.149594e+00 6.375557e-04 8.316334e-02 3.626916e-01 3.536380e-01 8.467290e-01 5.656879e-01 1.278261e+00 6.972244e-01 9.755295e-01 1.280612e+00 1.113413e+00 7.178146e-01 5.434166e-01 4.120434e-05
<GCONST> 1.081630e+02
<STATE> 5
<MEAN> 39
 -6.869688e-08 -6.061489e-08 -1.616397e-07 -8.243625e-07 -6.465589e-08 -3.475254e-07 -3.071155e-07 5.414930e-07 -4.849191e-08 8.081986e-08 2.788285e-07 2.828695e-07 7.792911e-01 3.688612e-02 -2.675298e-01 -2.174749e-01 -8.977473e-02 1.009271e-01 -1.030261e-02 3.133857e-01 -8.330243e-02 3.310359e-02 2.465289e-01 -1.358352e-01 1.234580e-01 -4.079021e-03 -1.426862e-02 -1.552298e-02 4.420483e-03 4.117822e-02 -3.754871e-02 2.368663e-02 -4.242631e-02 -1.598669e-02 3.317554e-02 3.864619e-02 5.390206e-02 3.526950e-02 -1.385464e-03
<VARIANCE> 39
 1.835452e+01 8.086066e+01 6.514442e+01 1.035043e+02 4.009857e+01 4.498100e+01 8.999333e+01 6.089820e+01 7.302442e+01 3.585401e+01 3.800222e+01 3.708725e+01 1.334190e-02 8.455477e-01 4.154177e+00 3.298117e+00 6.493365e+00 4.043603e+00 6.448464e+00 4.744793e+00 4.782162e+00 7.317706e+00 5.515790e+00 3.918597e+00 3.149594e+00 6.375557e-04 8.316334e-02 3.626916e-01 3.536380e-01 8.467290e-01 5.656879e-01 1.278261e+00 6.972244e-01 9.755295e-01 1.280612e+00 1.113413e+00 7.178146e-01 5.434166e-01 4.120434e-05
<GCONST> 1.081630e+02
<STATE> 6
<MEAN> 39
 -6.869688e-08 -6.061489e-08 -1.616397e-07 -8.243625e-07 -6.465589e-08 -3.475254e-07 -3.071155e-07 5.414930e-07 -4.849191e-08 8.081986e-08 2.788285e-07 2.828695e-07 7.792911e-01 3.688612e-02 -2.675298e-01 -2.174749e-01 -8.977473e-02 1.009271e-01 -1.030261e-02 3.133857e-01 -8.330243e-02 3.310359e-02 2.465289e-01 -1.358352e-01 1.234580e-01 -4.079021e-03 -1.426862e-02 -1.552298e-02 4.420483e-03 4.117822e-02 -3.754871e-02 2.368663e-02 -4.242631e-02 -1.598669e-02 3.317554e-02 3.864619e-02 5.390206e-02 3.526950e-02 -1.385464e-03
<VARIANCE> 39
 1.835452e+01 8.086066e+01 6.514442e+01 1.035043e+02 4.009857e+01 4.498100e+01 8.999333e+01 6.089820e+01 7.302442e+01 3.585401e+01 3.800222e+01 3.708725e+01 1.334190e-02 8.455477e-01 4.154177e+00 3.298117e+00 6.493365e+00 4.043603e+00 6.448464e+00 4.744793e+00 4.782162e+00 7.317706e+00 5.515790e+00 3.918597e+00 3.149594e+00 6.375557e-04 8.316334e-02 3.626916e-01 3.536380e-01 8.467290e-01 5.656879e-01 1.278261e+00 6.972244e-01 9.755295e-01 1.280612e+00 1.113413e+00 7.178146e-01 5.434166e-01 4.120434e-05
<GCONST> 1.081630e+02
<STATE> 7
<MEAN> 39
 -6.869688e-08 -6.061489e-08 -1.616397e-07 -8.243625e-07 -6.465589e-08 -3.475254e-07 -3.071155e-07 5.414930e-07 -4.849191e-08 8.081986e-08 2.788285e-07 2.828695e-07 7.792911e-01 3.688612e-02 -2.675298e-01 -2.174749e-01 -8.977473e-02 1.009271e-01 -1.030261e-02 3.133857e-01 -8.330243e-02 3.310359e-02 2.465289e-01 -1.358352e-01 1.234580e-01 -4.079021e-03 -1.426862e-02 -1.552298e-02 4.420483e-03 4.117822e-02 -3.754871e-02 2.368663e-02 -4.242631e-02 -1.598669e-02 3.317554e-02 3.864619e-02 5.390206e-02 3.526950e-02 -1.385464e-03
<VARIANCE> 39
 1.835452e+01 8.086066e+01 6.514442e+01 1.035043e+02 4.009857e+01 4.498100e+01 8.999333e+01 6.089820e+01 7.302442e+01 3.585401e+01 3.800222e+01 3.708725e+01 1.334190e-02 8.455477e-01 4.154177e+00 3.298117e+00 6.493365e+00 4.043603e+00 6.448464e+00 4.744793e+00 4.782162e+00 7.317706e+00 5.515790e+00 3.918597e+00 3.149594e+00 6.375557e-04 8.316334e-02 3.626916e-01 3.536380e-01 8.467290e-01 5.656879e-01 1.278261e+00 6.972244e-01 9.755295e-01 1.280612e+00 1.113413e+00 7.178146e-01 5.434166e-01 4.120434e-05
<GCONST> 1.081630e+02
<STATE> 8
<MEAN> 39
 -6.869688e-08 -6.061489e-08 -1.616397e-07 -8.243625e-07 -6.465589e-08 -3.475254e-07 -3.071155e-07 5.414930e-07 -4.849191e-08 8.081986e-08 2.788285e-07 2.828695e-07 7.792911e-01 3.688612e-02 -2.675298e-01 -2.174749e-01 -8.977473e-02 1.009271e-01 -1.030261e-02 3.133857e-01 -8.330243e-02 3.310359e-02 2.465289e-01 -1.358352e-01 1.234580e-01 -4.079021e-03 -1.426862e-02 -1.552298e-02 4.420483e-03 4.117822e-02 -3.754871e-02 2.368663e-02 -4.242631e-02 -1.598669e-02 3.317554e-02 3.864619e-02 5.390206e-02 3.526950e-02 -1.385464e-03
<VARIANCE> 39
 1.835452e+01 8.086066e+01 6.514442e+01 1.035043e+02 4.009857e+01 4.498100e+01 8.999333e+01 6.089820e+01 7.302442e+01 3.585401e+01 3.800222e+01 3.708725e+01 1.334190e-02 8.455477e-01 4.154177e+00 3.298117e+00 6.493365e+00 4.043603e+00 6.448464e+00 4.744793e+00 4.782162e+00 7.317706e+00 5.515790e+00 3.918597e+00 3.149594e+00 6.375557e-04 8.316334e-02 3.626916e-01 3.536380e-01 8.467290e-01 5.656879e-01 1.278261e+00 6.972244e-01 9.755295e-01 1.280612e+00 1.113413e+00 7.178146e-01 5.434166e-01 4.120434e-05
<GCONST> 1.081630e+02
<STATE> 9
<MEAN> 39
 -6.869688e-08 -6.061489e-08 -1.616397e-07 -8.243625e-07 -6.465589e-08 -3.475254e-07 -3.071155e-07 5.414930e-07 -4.849191e-08 8.081986e-08 2.788285e-07 2.828695e-07 7.792911e-01 3.688612e-02 -2.675298e-01 -2.174749e-01 -8.977473e-02 1.009271e-01 -1.030261e-02 3.133857e-01 -8.330243e-02 3.310359e-02 2.465289e-01 -1.358352e-01 1.234580e-01 -4.079021e-03 -1.426862e-02 -1.552298e-02 4.420483e-03 4.117822e-02 -3.754871e-02 2.368663e-02 -4.242631e-02 -1.598669e-02 3.317554e-02 3.864619e-02 5.390206e-02 3.526950e-02 -1.385464e-03
<VARIANCE> 39
 1.835452e+01 8.086066e+01 6.514442e+01 1.035043e+02 4.009857e+01 4.498100e+01 8.999333e+01 6.089820e+01 7.302442e+01 3.585401e+01 3.800222e+01 3.708725e+01 1.334190e-02 8.455477e-01 4.154177e+00 3.298117e+00 6.493365e+00 4.043603e+00 6.448464e+00 4.744793e+00 4.782162e+00 7.317706e+00 5.515790e+00 3.918597e+00 3.149594e+00 6.375557e-04 8.316334e-02 3.626916e-01 3.536380e-01 8.467290e-01 5.656879e-01 1.278261e+00 6.972244e-01 9.755295e-01 1.280612e+00 1.113413e+00 7.178146e-01 5.434166e-01 4.120434e-05
<GCONST> 1.081630e+02
<TRANSP> 10
 0.000000e+00 1.000000e+00 0.000000e+00 0.000000e+00 0.000000e+00 0.000000e+00 0.000000e+00 0.000000e+00 0.000000e+00 0.000000e+00
 0.000000e+00 9.000000e-01 9.999999e-02 0.000000e+00 0.000000e+00 0.000000e+00 0.000000e+00 0.000000e+00 0.000000e+00 0.000000e+00
 0.000000e+00 0.000000e+00 9.000000e-01 9.999999e-02 0.000000e+00 0.000000e+00 0.000000e+00 0.000000e+00 0.000000e+00 0.000000e+00
 0.000000e+00 0.000000e+00 0.000000e+00 9.000000e-01 9.999999e-02 0.000000e+00 0.000000e+00 0.000000e+00 0.000000e+00 0.000000e+00
 0.000000e+00 0.000000e+00 0.000000e+00 0.000000e+00 9.000000e-01 9.999999e-02 0.000000e+00 0.000000e+00 0.000000e+00 0.000000e+00
 0.000000e+00 0.000000e+00 0.000000e+00 0.000000e+00 0.000000e+00 9.000000e-01 9.999999e-02 0.000000e+00 0.000000e+00 0.000000e+00
 0.000000e+00 0.000000e+00 0.000000e+00 0.000000e+00 0.000000e+00 0.000000e+00 9.000000e-01 9.999999e-02 0.000000e+00 0.000000e+00
 0.000000e+00 0.000000e+00 0.000000e+00 0.000000e+00 0.000000e+00 0.000000e+00 0.000000e+00 9.000000e-01 9.999999e-02 0.000000e+00
 0.000000e+00 0.000000e+00 0.000000e+00 0.000000e+00 0.000000e+00 0.000000e+00 0.000000e+00 0.000000e+00 9.000000e-01 9.999999e-02
 0.000000e+00 0.000000e+00 0.000000e+00 0.000000e+00 0.000000e+00 0.000000e+00 0.000000e+00 0.000000e+00 0.000000e+00 0.000000e+00
<ENDHMM>
