~o
<STREAMINFO> 1 39
<VECSIZE> 39<NULLD><MFCC_E_D_A_Z><DIAGC>
~h "s059"
<BEGINHMM>
<NUMSTATES> 10
<STATE> 2
<MEAN> 39
 3.436664e-08 3.436664e-07 3.007081e-08 -1.159874e-06 -1.460582e-07 -1.804249e-07 -1.460582e-07 1.224312e-07 2.362707e-08 1.959973e-08 -2.061999e-07 -2.577498e-08 4.881677e-01 1.973798e-02 -4.361528e-02 -8.472969e-02 7.143512e-02 4.771619e-02 -1.377904e-02 3.482090e-02 1.236853e-02 1.233025e-02 -5.304659e-02 3.850108e-02 -1.936925e-03 -4.959945e-04 4.774625e-03 -2.841646e-02 3.842981e-04 8.092801e-03 3.084272e-02 7.069804e-03 -1.623074e-02 8.432486e-03 -2.513110e-02 1.839067e-02 6.653483e-03 1.078414e-02 4.158467e-04
<VARIANCE> 39
 2.007097e+01 4.101505e+01 3.310107e+01 1.133278e+02 2.808929e+01 1.063751e+02 1.127173e+02 6.482861e+01 2.322000e+01 2.426565e+01 2.911469e+01 5.928602e+01 1.226769e-01 1.088290e+00 1.147153e+00 1.278444e+00 3.298638e+00 1.984286e+00 3.578970e+00 3.356472e+00 2.830766e+00 1.972709e+00 2.253696e+00 3.339972e+00 4.131610e+00 1.958599e-03 1.909036e-01 1.690775e-01 2.047845e-01 5.473108e-01 3.966137e-01 6.481085e-01 5.051007e-01 4.796697e-01 3.725728e-01 4.401858e-01 7.273273e-01 7.410122e-01 2.016100e-04
<GCONST> 9.962943e+01
<STATE> 3
<MEAN> 39
 3.436664e-08 3.436664e-07 3.007081e-08 -1.159874e-06 -1.460582e-07 -1.804249e-07 -1.460582e-07 1.224312e-07 2.362707e-08 1.959973e-08 -2.061999e-07 -2.577498e-08 4.881677e-01 1.973798e-02 -4.361528e-02 -8.472969e-02 7.143512e-02 4.771619e-02 -1.377904e-02 3.482090e-02 1.236853e-02 1.233025e-02 -5.304659e-02 3.850108e-02 -1.936925e-03 -4.959945e-04 4.774625e-03 -2.841646e-02 3.842981e-04 8.092801e-03 3.084272e-02 7.069804e-03 -1.623074e-02 8.432486e-03 -2.513110e-02 1.839067e-02 6.653483e-03 1.078414e-02 4.158467e-04
<VARIANCE> 39
 2.007097e+01 4.101505e+01 3.310107e+01 1.133278e+02 2.808929e+01 1.063751e+02 1.127173e+02 6.482861e+01 2.322000e+01 2.426565e+01 2.911469e+01 5.928602e+01 1.226769e-01 1.088290e+00 1.147153e+00 1.278444e+00 3.298638e+00 1.984286e+00 3.578970e+00 3.356472e+00 2.830766e+00 1.972709e+00 2.253696e+00 3.339972e+00 4.131610e+00 1.958599e-03 1.909036e-01 1.690775e-01 2.047845e-01 5.473108e-01 3.966137e-01 6.481085e-01 5.051007e-01 4.796697e-01 3.725728e-01 4.401858e-01 7.273273e-01 7.410122e-01 2.016100e-04
<GCONST> 9.962943e+01
<STATE> 4
<MEAN> 39
 3.436664e-08 3.436664e-07 3.007081e-08 -1.159874e-06 -1.460582e-07 -1.804249e-07 -1.460582e-07 1.224312e-07 2.362707e-08 1.959973e-08 -2.061999e-07 -2.577498e-08 4.881677e-01 1.973798e-02 -4.361528e-02 -8.472969e-02 7.143512e-02 4.771619e-02 -1.377904e-02 3.482090e-02 1.236853e-02 1.233025e-02 -5.304659e-02 3.850108e-02 -1.936925e-03 -4.959945e-04 4.774625e-03 -2.841646e-02 3.842981e-04 8.092801e-03 3.084272e-02 7.069804e-03 -1.623074e-02 8.432486e-03 -2.513110e-02 1.839067e-02 6.653483e-03 1.078414e-02 4.158467e-04
<VARIANCE> 39
 2.007097e+01 4.101505e+01 3.310107e+01 1.133278e+02 2.808929e+01 1.063751e+02 1.127173e+02 6.482861e+01 2.322000e+01 2.426565e+01 2.911469e+01 5.928602e+01 1.226769e-01 1.088290e+00 1.147153e+00 1.278444e+00 3.298638e+00 1.984286e+00 3.578970e+00 3.356472e+00 2.830766e+00 1.972709e+00 2.253696e+00 3.339972e+00 4.131610e+00 1.958599e-03 1.909036e-01 1.690775e-01 2.047845e-01 5.473108e-01 3.966137e-01 6.481085e-01 5.051007e-01 4.796697e-01 3.725728e-01 4.401858e-01 7.273273e-01 7.410122e-01 2.016100e-04
<GCONST> 9.962943e+01
<STATE> 5
<MEAN> 39
 3.436664e-08 3.436664e-07 3.007081e-08 -1.159874e-06 -1.460582e-07 -1.804249e-07 -1.460582e-07 1.224312e-07 2.362707e-08 1.959973e-08 -2.061999e-07 -2.577498e-08 4.881677e-01 1.973798e-02 -4.361528e-02 -8.472969e-02 7.143512e-02 4.771619e-02 -1.377904e-02 3.482090e-02 1.236853e-02 1.233025e-02 -5.304659e-02 3.850108e-02 -1.936925e-03 -4.959945e-04 4.774625e-03 -2.841646e-02 3.842981e-04 8.092801e-03 3.084272e-02 7.069804e-03 -1.623074e-02 8.432486e-03 -2.513110e-02 1.839067e-02 6.653483e-03 1.078414e-02 4.158467e-04
<VARIANCE> 39
 2.007097e+01 4.101505e+01 3.310107e+01 1.133278e+02 2.808929e+01 1.063751e+02 1.127173e+02 6.482861e+01 2.322000e+01 2.426565e+01 2.911469e+01 5.928602e+01 1.226769e-01 1.088290e+00 1.147153e+00 1.278444e+00 3.298638e+00 1.984286e+00 3.578970e+00 3.356472e+00 2.830766e+00 1.972709e+00 2.253696e+00 3.339972e+00 4.131610e+00 1.958599e-03 1.909036e-01 1.690775e-01 2.047845e-01 5.473108e-01 3.966137e-01 6.481085e-01 5.051007e-01 4.796697e-01 3.725728e-01 4.401858e-01 7.273273e-01 7.410122e-01 2.016100e-04
<GCONST> 9.962943e+01
<STATE> 6
<MEAN> 39
 3.436664e-08 3.436664e-07 3.007081e-08 -1.159874e-06 -1.460582e-07 -1.804249e-07 -1.460582e-07 1.224312e-07 2.362707e-08 1.959973e-08 -2.061999e-07 -2.577498e-08 4.881677e-01 1.973798e-02 -4.361528e-02 -8.472969e-02 7.143512e-02 4.771619e-02 -1.377904e-02 3.482090e-02 1.236853e-02 1.233025e-02 -5.304659e-02 3.850108e-02 -1.936925e-03 -4.959945e-04 4.774625e-03 -2.841646e-02 3.842981e-04 8.092801e-03 3.084272e-02 7.069804e-03 -1.623074e-02 8.432486e-03 -2.513110e-02 1.839067e-02 6.653483e-03 1.078414e-02 4.158467e-04
<VARIANCE> 39
 2.007097e+01 4.101505e+01 3.310107e+01 1.133278e+02 2.808929e+01 1.063751e+02 1.127173e+02 6.482861e+01 2.322000e+01 2.426565e+01 2.911469e+01 5.928602e+01 1.226769e-01 1.088290e+00 1.147153e+00 1.278444e+00 3.298638e+00 1.984286e+00 3.578970e+00 3.356472e+00 2.830766e+00 1.972709e+00 2.253696e+00 3.339972e+00 4.131610e+00 1.958599e-03 1.909036e-01 1.690775e-01 2.047845e-01 5.473108e-01 3.966137e-01 6.481085e-01 5.051007e-01 4.796697e-01 3.725728e-01 4.401858e-01 7.273273e-01 7.410122e-01 2.016100e-04
<GCONST> 9.962943e+01
<STATE> 7
<MEAN> 39
 3.436664e-08 3.436664e-07 3.007081e-08 -1.159874e-06 -1.460582e-07 -1.804249e-07 -1.460582e-07 1.224312e-07 2.362707e-08 1.959973e-08 -2.061999e-07 -2.577498e-08 4.881677e-01 1.973798e-02 -4.361528e-02 -8.472969e-02 7.143512e-02 4.771619e-02 -1.377904e-02 3.482090e-02 1.236853e-02 1.233025e-02 -5.304659e-02 3.850108e-02 -1.936925e-03 -4.959945e-04 4.774625e-03 -2.841646e-02 3.842981e-04 8.092801e-03 3.084272e-02 7.069804e-03 -1.623074e-02 8.432486e-03 -2.513110e-02 1.839067e-02 6.653483e-03 1.078414e-02 4.158467e-04
<VARIANCE> 39
 2.007097e+01 4.101505e+01 3.310107e+01 1.133278e+02 2.808929e+01 1.063751e+02 1.127173e+02 6.482861e+01 2.322000e+01 2.426565e+01 2.911469e+01 5.928602e+01 1.226769e-01 1.088290e+00 1.147153e+00 1.278444e+00 3.298638e+00 1.984286e+00 3.578970e+00 3.356472e+00 2.830766e+00 1.972709e+00 2.253696e+00 3.339972e+00 4.131610e+00 1.958599e-03 1.909036e-01 1.690775e-01 2.047845e-01 5.473108e-01 3.966137e-01 6.481085e-01 5.051007e-01 4.796697e-01 3.725728e-01 4.401858e-01 7.273273e-01 7.410122e-01 2.016100e-04
<GCONST> 9.962943e+01
<STATE> 8
<MEAN> 39
 3.436664e-08 3.436664e-07 3.007081e-08 -1.159874e-06 -1.460582e-07 -1.804249e-07 -1.460582e-07 1.224312e-07 2.362707e-08 1.959973e-08 -2.061999e-07 -2.577498e-08 4.881677e-01 1.973798e-02 -4.361528e-02 -8.472969e-02 7.143512e-02 4.771619e-02 -1.377904e-02 3.482090e-02 1.236853e-02 1.233025e-02 -5.304659e-02 3.850108e-02 -1.936925e-03 -4.959945e-04 4.774625e-03 -2.841646e-02 3.842981e-04 8.092801e-03 3.084272e-02 7.069804e-03 -1.623074e-02 8.432486e-03 -2.513110e-02 1.839067e-02 6.653483e-03 1.078414e-02 4.158467e-04
<VARIANCE> 39
 2.007097e+01 4.101505e+01 3.310107e+01 1.133278e+02 2.808929e+01 1.063751e+02 1.127173e+02 6.482861e+01 2.322000e+01 2.426565e+01 2.911469e+01 5.928602e+01 1.226769e-01 1.088290e+00 1.147153e+00 1.278444e+00 3.298638e+00 1.984286e+00 3.578970e+00 3.356472e+00 2.830766e+00 1.972709e+00 2.253696e+00 3.339972e+00 4.131610e+00 1.958599e-03 1.909036e-01 1.690775e-01 2.047845e-01 5.473108e-01 3.966137e-01 6.481085e-01 5.051007e-01 4.796697e-01 3.725728e-01 4.401858e-01 7.273273e-01 7.410122e-01 2.016100e-04
<GCONST> 9.962943e+01
<STATE> 9
<MEAN> 39
 3.436664e-08 3.436664e-07 3.007081e-08 -1.159874e-06 -1.460582e-07 -1.804249e-07 -1.460582e-07 1.224312e-07 2.362707e-08 1.959973e-08 -2.061999e-07 -2.577498e-08 4.881677e-01 1.973798e-02 -4.361528e-02 -8.472969e-02 7.143512e-02 4.771619e-02 -1.377904e-02 3.482090e-02 1.236853e-02 1.233025e-02 -5.304659e-02 3.850108e-02 -1.936925e-03 -4.959945e-04 4.774625e-03 -2.841646e-02 3.842981e-04 8.092801e-03 3.084272e-02 7.069804e-03 -1.623074e-02 8.432486e-03 -2.513110e-02 1.839067e-02 6.653483e-03 1.078414e-02 4.158467e-04
<VARIANCE> 39
 2.007097e+01 4.101505e+01 3.310107e+01 1.133278e+02 2.808929e+01 1.063751e+02 1.127173e+02 6.482861e+01 2.322000e+01 2.426565e+01 2.911469e+01 5.928602e+01 1.226769e-01 1.088290e+00 1.147153e+00 1.278444e+00 3.298638e+00 1.984286e+00 3.578970e+00 3.356472e+00 2.830766e+00 1.972709e+00 2.253696e+00 3.339972e+00 4.131610e+00 1.958599e-03 1.909036e-01 1.690775e-01 2.047845e-01 5.473108e-01 3.966137e-01 6.481085e-01 5.051007e-01 4.796697e-01 3.725728e-01 4.401858e-01 7.273273e-01 7.410122e-01 2.016100e-04
<GCONST> 9.962943e+01
<TRANSP> 10
 0.000000e+00 1.000000e+00 0.000000e+00 0.000000e+00 0.000000e+00 0.000000e+00 0.000000e+00 0.000000e+00 0.000000e+00 0.000000e+00
 0.000000e+00 9.000000e-01 9.999999e-02 0.000000e+00 0.000000e+00 0.000000e+00 0.000000e+00 0.000000e+00 0.000000e+00 0.000000e+00
 0.000000e+00 0.000000e+00 9.000000e-01 9.999999e-02 0.000000e+00 0.000000e+00 0.000000e+00 0.000000e+00 0.000000e+00 0.000000e+00
 0.000000e+00 0.000000e+00 0.000000e+00 9.000000e-01 9.999999e-02 0.000000e+00 0.000000e+00 0.000000e+00 0.000000e+00 0.000000e+00
 0.000000e+00 0.000000e+00 0.000000e+00 0.000000e+00 9.000000e-01 9.999999e-02 0.000000e+00 0.000000e+00 0.000000e+00 0.000000e+00
 0.000000e+00 0.000000e+00 0.000000e+00 0.000000e+00 0.000000e+00 9.000000e-01 9.999999e-02 0.000000e+00 0.000000e+00 0.000000e+00
 0.000000e+00 0.000000e+00 0.000000e+00 0.000000e+00 0.000000e+00 0.000000e+00 9.000000e-01 9.999999e-02 0.000000e+00 0.000000e+00
 0.000000e+00 0.000000e+00 0.000000e+00 0.000000e+00 0.000000e+00 0.000000e+00 0.000000e+00 9.000000e-01 9.999999e-02 0.000000e+00
 0.000000e+00 0.000000e+00 0.000000e+00 0.000000e+00 0.000000e+00 0.000000e+00 0.000000e+00 0.000000e+00 9.000000e-01 9.999999e-02
 0.000000e+00 0.000000e+00 0.000000e+00 0.000000e+00 0.000000e+00 0.000000e+00 0.000000e+00 0.000000e+00 0.000000e+00 0.000000e+00
<ENDHMM>
