~o
<STREAMINFO> 1 39
<VECSIZE> 39<NULLD><MFCC_E_D_A_Z><DIAGC>
~h "s064"
<BEGINHMM>
<NUMSTATES> 10
<STATE> 2
<MEAN> 39
 5.501967e-08 2.640944e-07 1.173753e-07 3.374540e-07 3.337860e-07 -3.026082e-08 2.274146e-07 3.631298e-07 -4.768372e-08 5.868765e-08 7.702754e-08 1.247113e-07 3.197917e-01 -1.272640e-02 1.786003e-02 2.623989e-02 -2.613566e-02 3.365152e-02 -4.355853e-02 -3.143890e-02 2.096208e-02 6.316080e-02 -5.418970e-02 -5.857639e-02 5.656066e-02 2.678031e-04 -3.228163e-03 -2.205014e-03 3.663305e-03 4.492515e-03 1.183023e-02 7.610501e-03 5.085803e-03 -2.445196e-02 -4.048327e-03 1.432842e-02 5.534700e-03 -2.093892e-02 1.768008e-04
<VARIANCE> 39
 1.073952e+01 4.549733e+01 1.288851e+01 9.082783e+01 3.437209e+01 3.478848e+01 7.897510e+01 3.250726e+01 2.317163e+01 2.424679e+01 2.797348e+01 3.032198e+01 9.686320e-02 7.829729e-01 1.332245e+00 1.284672e+00 2.847296e+00 2.190218e+00 2.264335e+00 3.213655e+00 2.189642e+00 2.096380e+00 2.228957e+00 2.773003e+00 2.032616e+00 1.623127e-03 1.390745e-01 1.704981e-01 2.421438e-01 3.629221e-01 4.319217e-01 4.089091e-01 4.826250e-01 3.764344e-01 3.853010e-01 4.002469e-01 5.851614e-01 3.549854e-01 2.053775e-04
<GCONST> 9.080576e+01
<STATE> 3
<MEAN> 39
 5.501967e-08 2.640944e-07 1.173753e-07 3.374540e-07 3.337860e-07 -3.026082e-08 2.274146e-07 3.631298e-07 -4.768372e-08 5.868765e-08 7.702754e-08 1.247113e-07 3.197917e-01 -1.272640e-02 1.786003e-02 2.623989e-02 -2.613566e-02 3.365152e-02 -4.355853e-02 -3.143890e-02 2.096208e-02 6.316080e-02 -5.418970e-02 -5.857639e-02 5.656066e-02 2.678031e-04 -3.228163e-03 -2.205014e-03 3.663305e-03 4.492515e-03 1.183023e-02 7.610501e-03 5.085803e-03 -2.445196e-02 -4.048327e-03 1.432842e-02 5.534700e-03 -2.093892e-02 1.768008e-04
<VARIANCE> 39
 1.073952e+01 4.549733e+01 1.288851e+01 9.082783e+01 3.437209e+01 3.478848e+01 7.897510e+01 3.250726e+01 2.317163e+01 2.424679e+01 2.797348e+01 3.032198e+01 9.686320e-02 7.829729e-01 1.332245e+00 1.284672e+00 2.847296e+00 2.190218e+00 2.264335e+00 3.213655e+00 2.189642e+00 2.096380e+00 2.228957e+00 2.773003e+00 2.032616e+00 1.623127e-03 1.390745e-01 1.704981e-01 2.421438e-01 3.629221e-01 4.319217e-01 4.089091e-01 4.826250e-01 3.764344e-01 3.853010e-01 4.002469e-01 5.851614e-01 3.549854e-01 2.053775e-04
<GCONST> 9.080576e+01
<STATE> 4
<MEAN> 39
 5.501967e-08 2.640944e-07 1.173753e-07 3.374540e-07 3.337860e-07 -3.026082e-08 2.274146e-07 3.631298e-07 -4.768372e-08 5.868765e-08 7.702754e-08 1.247113e-07 3.197917e-01 -1.272640e-02 1.786003e-02 2.623989e-02 -2.613566e-02 3.365152e-02 -4.355853e-02 -3.143890e-02 2.096208e-02 6.316080e-02 -5.418970e-02 -5.857639e-02 5.656066e-02 2.678031e-04 -3.228163e-03 -2.205014e-03 3.663305e-03 4.492515e-03 1.183023e-02 7.610501e-03 5.085803e-03 -2.445196e-02 -4.048327e-03 1.432842e-02 5.534700e-03 -2.093892e-02 1.768008e-04
<VARIANCE> 39
 1.073952e+01 4.549733e+01 1.288851e+01 9.082783e+01 3.437209e+01 3.478848e+01 7.897510e+01 3.250726e+01 2.317163e+01 2.424679e+01 2.797348e+01 3.032198e+01 9.686320e-02 7.829729e-01 1.332245e+00 1.284672e+00 2.847296e+00 2.190218e+00 2.264335e+00 3.213655e+00 2.189642e+00 2.096380e+00 2.228957e+00 2.773003e+00 2.032616e+00 1.623127e-03 1.390745e-01 1.704981e-01 2.421438e-01 3.629221e-01 4.319217e-01 4.089091e-01 4.826250e-01 3.764344e-01 3.853010e-01 4.002469e-01 5.851614e-01 3.549854e-01 2.053775e-04
<GCONST> 9.080576e+01
<STATE> 5
<MEAN> 39
 5.501967e-08 2.640944e-07 1.173753e-07 3.374540e-07 3.337860e-07 -3.026082e-08 2.274146e-07 3.631298e-07 -4.768372e-08 5.868765e-08 7.702754e-08 1.247113e-07 3.197917e-01 -1.272640e-02 1.786003e-02 2.623989e-02 -2.613566e-02 3.365152e-02 -4.355853e-02 -3.143890e-02 2.096208e-02 6.316080e-02 -5.418970e-02 -5.857639e-02 5.656066e-02 2.678031e-04 -3.228163e-03 -2.205014e-03 3.663305e-03 4.492515e-03 1.183023e-02 7.610501e-03 5.085803e-03 -2.445196e-02 -4.048327e-03 1.432842e-02 5.534700e-03 -2.093892e-02 1.768008e-04
<VARIANCE> 39
 1.073952e+01 4.549733e+01 1.288851e+01 9.082783e+01 3.437209e+01 3.478848e+01 7.897510e+01 3.250726e+01 2.317163e+01 2.424679e+01 2.797348e+01 3.032198e+01 9.686320e-02 7.829729e-01 1.332245e+00 1.284672e+00 2.847296e+00 2.190218e+00 2.264335e+00 3.213655e+00 2.189642e+00 2.096380e+00 2.228957e+00 2.773003e+00 2.032616e+00 1.623127e-03 1.390745e-01 1.704981e-01 2.421438e-01 3.629221e-01 4.319217e-01 4.089091e-01 4.826250e-01 3.764344e-01 3.853010e-01 4.002469e-01 5.851614e-01 3.549854e-01 2.053775e-04
<GCONST> 9.080576e+01
<STATE> 6
<MEAN> 39
 5.501967e-08 2.640944e-07 1.173753e-07 3.374540e-07 3.337860e-07 -3.026082e-08 2.274146e-07 3.631298e-07 -4.768372e-08 5.868765e-08 7.702754e-08 1.247113e-07 3.197917e-01 -1.272640e-02 1.786003e-02 2.623989e-02 -2.613566e-02 3.365152e-02 -4.355853e-02 -3.143890e-02 2.096208e-02 6.316080e-02 -5.418970e-02 -5.857639e-02 5.656066e-02 2.678031e-04 -3.228163e-03 -2.205014e-03 3.663305e-03 4.492515e-03 1.183023e-02 7.610501e-03 5.085803e-03 -2.445196e-02 -4.048327e-03 1.432842e-02 5.534700e-03 -2.093892e-02 1.768008e-04
<VARIANCE> 39
 1.073952e+01 4.549733e+01 1.288851e+01 9.082783e+01 3.437209e+01 3.478848e+01 7.897510e+01 3.250726e+01 2.317163e+01 2.424679e+01 2.797348e+01 3.032198e+01 9.686320e-02 7.829729e-01 1.332245e+00 1.284672e+00 2.847296e+00 2.190218e+00 2.264335e+00 3.213655e+00 2.189642e+00 2.096380e+00 2.228957e+00 2.773003e+00 2.032616e+00 1.623127e-03 1.390745e-01 1.704981e-01 2.421438e-01 3.629221e-01 4.319217e-01 4.089091e-01 4.826250e-01 3.764344e-01 3.853010e-01 4.002469e-01 5.851614e-01 3.549854e-01 2.053775e-04
<GCONST> 9.080576e+01
<STATE> 7
<MEAN> 39
 5.501967e-08 2.640944e-07 1.173753e-07 3.374540e-07 3.337860e-07 -3.026082e-08 2.274146e-07 3.631298e-07 -4.768372e-08 5.868765e-08 7.702754e-08 1.247113e-07 3.197917e-01 -1.272640e-02 1.786003e-02 2.623989e-02 -2.613566e-02 3.365152e-02 -4.355853e-02 -3.143890e-02 2.096208e-02 6.316080e-02 -5.418970e-02 -5.857639e-02 5.656066e-02 2.678031e-04 -3.228163e-03 -2.205014e-03 3.663305e-03 4.492515e-03 1.183023e-02 7.610501e-03 5.085803e-03 -2.445196e-02 -4.048327e-03 1.432842e-02 5.534700e-03 -2.093892e-02 1.768008e-04
<VARIANCE> 39
 1.073952e+01 4.549733e+01 1.288851e+01 9.082783e+01 3.437209e+01 3.478848e+01 7.897510e+01 3.250726e+01 2.317163e+01 2.424679e+01 2.797348e+01 3.032198e+01 9.686320e-02 7.829729e-01 1.332245e+00 1.284672e+00 2.847296e+00 2.190218e+00 2.264335e+00 3.213655e+00 2.189642e+00 2.096380e+00 2.228957e+00 2.773003e+00 2.032616e+00 1.623127e-03 1.390745e-01 1.704981e-01 2.421438e-01 3.629221e-01 4.319217e-01 4.089091e-01 4.826250e-01 3.764344e-01 3.853010e-01 4.002469e-01 5.851614e-01 3.549854e-01 2.053775e-04
<GCONST> 9.080576e+01
<STATE> 8
<MEAN> 39
 5.501967e-08 2.640944e-07 1.173753e-07 3.374540e-07 3.337860e-07 -3.026082e-08 2.274146e-07 3.631298e-07 -4.768372e-08 5.868765e-08 7.702754e-08 1.247113e-07 3.197917e-01 -1.272640e-02 1.786003e-02 2.623989e-02 -2.613566e-02 3.365152e-02 -4.355853e-02 -3.143890e-02 2.096208e-02 6.316080e-02 -5.418970e-02 -5.857639e-02 5.656066e-02 2.678031e-04 -3.228163e-03 -2.205014e-03 3.663305e-03 4.492515e-03 1.183023e-02 7.610501e-03 5.085803e-03 -2.445196e-02 -4.048327e-03 1.432842e-02 5.534700e-03 -2.093892e-02 1.768008e-04
<VARIANCE> 39
 1.073952e+01 4.549733e+01 1.288851e+01 9.082783e+01 3.437209e+01 3.478848e+01 7.897510e+01 3.250726e+01 2.317163e+01 2.424679e+01 2.797348e+01 3.032198e+01 9.686320e-02 7.829729e-01 1.332245e+00 1.284672e+00 2.847296e+00 2.190218e+00 2.264335e+00 3.213655e+00 2.189642e+00 2.096380e+00 2.228957e+00 2.773003e+00 2.032616e+00 1.623127e-03 1.390745e-01 1.704981e-01 2.421438e-01 3.629221e-01 4.319217e-01 4.089091e-01 4.826250e-01 3.764344e-01 3.853010e-01 4.002469e-01 5.851614e-01 3.549854e-01 2.053775e-04
<GCONST> 9.080576e+01
<STATE> 9
<MEAN> 39
 5.501967e-08 2.640944e-07 1.173753e-07 3.374540e-07 3.337860e-07 -3.026082e-08 2.274146e-07 3.631298e-07 -4.768372e-08 5.868765e-08 7.702754e-08 1.247113e-07 3.197917e-01 -1.272640e-02 1.786003e-02 2.623989e-02 -2.613566e-02 3.365152e-02 -4.355853e-02 -3.143890e-02 2.096208e-02 6.316080e-02 -5.418970e-02 -5.857639e-02 5.656066e-02 2.678031e-04 -3.228163e-03 -2.205014e-03 3.663305e-03 4.492515e-03 1.183023e-02 7.610501e-03 5.085803e-03 -2.445196e-02 -4.048327e-03 1.432842e-02 5.534700e-03 -2.093892e-02 1.768008e-04
<VARIANCE> 39
 1.073952e+01 4.549733e+01 1.288851e+01 9.082783e+01 3.437209e+01 3.478848e+01 7.897510e+01 3.250726e+01 2.317163e+01 2.424679e+01 2.797348e+01 3.032198e+01 9.686320e-02 7.829729e-01 1.332245e+00 1.284672e+00 2.847296e+00 2.190218e+00 2.264335e+00 3.213655e+00 2.189642e+00 2.096380e+00 2.228957e+00 2.773003e+00 2.032616e+00 1.623127e-03 1.390745e-01 1.704981e-01 2.421438e-01 3.629221e-01 4.319217e-01 4.089091e-01 4.826250e-01 3.764344e-01 3.853010e-01 4.002469e-01 5.851614e-01 3.549854e-01 2.053775e-04
<GCONST> 9.080576e+01
<TRANSP> 10
 0.000000e+00 1.000000e+00 0.000000e+00 0.000000e+00 0.000000e+00 0.000000e+00 0.000000e+00 0.000000e+00 0.000000e+00 0.000000e+00
 0.000000e+00 9.000000e-01 9.999999e-02 0.000000e+00 0.000000e+00 0.000000e+00 0.000000e+00 0.000000e+00 0.000000e+00 0.000000e+00
 0.000000e+00 0.000000e+00 9.000000e-01 9.999999e-02 0.000000e+00 0.000000e+00 0.000000e+00 0.000000e+00 0.000000e+00 0.000000e+00
 0.000000e+00 0.000000e+00 0.000000e+00 9.000000e-01 9.999999e-02 0.000000e+00 0.000000e+00 0.000000e+00 0.000000e+00 0.000000e+00
 0.000000e+00 0.000000e+00 0.000000e+00 0.000000e+00 9.000000e-01 9.999999e-02 0.000000e+00 0.000000e+00 0.000000e+00 0.000000e+00
 0.000000e+00 0.000000e+00 0.000000e+00 0.000000e+00 0.000000e+00 9.000000e-01 9.999999e-02 0.000000e+00 0.000000e+00 0.000000e+00
 0.000000e+00 0.000000e+00 0.000000e+00 0.000000e+00 0.000000e+00 0.000000e+00 9.000000e-01 9.999999e-02 0.000000e+00 0.000000e+00
 0.000000e+00 0.000000e+00 0.000000e+00 0.000000e+00 0.000000e+00 0.000000e+00 0.000000e+00 9.000000e-01 9.999999e-02 0.000000e+00
 0.000000e+00 0.000000e+00 0.000000e+00 0.000000e+00 0.000000e+00 0.000000e+00 0.000000e+00 0.000000e+00 9.000000e-01 9.999999e-02
 0.000000e+00 0.000000e+00 0.000000e+00 0.000000e+00 0.000000e+00 0.000000e+00 0.000000e+00 0.000000e+00 0.000000e+00 0.000000e+00
<ENDHMM>
