~o
<STREAMINFO> 1 39
<VECSIZE> 39<NULLD><MFCC_E_D_A_Z><DIAGC>
~h "s064"
<BEGINHMM>
<NUMSTATES> 10
<STATE> 2
<MEAN> 39
 8.292820e-08 4.146410e-07 5.183012e-08 -1.865885e-07 2.176865e-07 1.658564e-07 -8.292820e-08 1.036602e-07 -2.073205e-08 -3.317128e-07 3.472618e-07 4.716541e-07 7.058798e-01 3.866148e-02 -2.248254e-01 -2.654128e-01 1.142140e-01 1.316006e-01 1.121215e-01 2.817084e-01 -8.903522e-02 1.865646e-01 -8.456337e-02 3.771054e-02 -1.112730e-01 -2.303432e-03 1.859861e-02 -1.860715e-02 -3.117024e-02 2.008119e-02 -3.412223e-02 -2.567250e-03 5.538696e-02 -2.527841e-03 -8.389461e-03 -1.403277e-02 2.152449e-02 5.433119e-03 -1.217391e-03
<VARIANCE> 39
 1.668527e+01 5.785955e+01 1.903198e+01 8.531385e+01 3.223944e+01 2.891775e+01 5.862713e+01 4.338273e+01 2.245710e+01 3.328546e+01 3.110054e+01 5.964520e+01 3.266397e-02 1.305877e+00 2.189912e+00 1.866648e+00 4.049067e+00 2.990902e+00 2.760991e+00 3.709482e+00 3.625163e+00 2.540735e+00 3.287153e+00 3.678042e+00 3.423594e+00 2.862960e-03 2.001780e-01 2.893413e-01 3.277156e-01 4.075664e-01 6.116220e-01 4.622587e-01 3.636848e-01 6.034145e-01 4.918036e-01 5.545375e-01 7.861508e-01 4.199929e-01 4.309166e-04
<GCONST> 1.001262e+02
<STATE> 3
<MEAN> 39
 8.292820e-08 4.146410e-07 5.183012e-08 -1.865885e-07 2.176865e-07 1.658564e-07 -8.292820e-08 1.036602e-07 -2.073205e-08 -3.317128e-07 3.472618e-07 4.716541e-07 7.058798e-01 3.866148e-02 -2.248254e-01 -2.654128e-01 1.142140e-01 1.316006e-01 1.121215e-01 2.817084e-01 -8.903522e-02 1.865646e-01 -8.456337e-02 3.771054e-02 -1.112730e-01 -2.303432e-03 1.859861e-02 -1.860715e-02 -3.117024e-02 2.008119e-02 -3.412223e-02 -2.567250e-03 5.538696e-02 -2.527841e-03 -8.389461e-03 -1.403277e-02 2.152449e-02 5.433119e-03 -1.217391e-03
<VARIANCE> 39
 1.668527e+01 5.785955e+01 1.903198e+01 8.531385e+01 3.223944e+01 2.891775e+01 5.862713e+01 4.338273e+01 2.245710e+01 3.328546e+01 3.110054e+01 5.964520e+01 3.266397e-02 1.305877e+00 2.189912e+00 1.866648e+00 4.049067e+00 2.990902e+00 2.760991e+00 3.709482e+00 3.625163e+00 2.540735e+00 3.287153e+00 3.678042e+00 3.423594e+00 2.862960e-03 2.001780e-01 2.893413e-01 3.277156e-01 4.075664e-01 6.116220e-01 4.622587e-01 3.636848e-01 6.034145e-01 4.918036e-01 5.545375e-01 7.861508e-01 4.199929e-01 4.309166e-04
<GCONST> 1.001262e+02
<STATE> 4
<MEAN> 39
 8.292820e-08 4.146410e-07 5.183012e-08 -1.865885e-07 2.176865e-07 1.658564e-07 -8.292820e-08 1.036602e-07 -2.073205e-08 -3.317128e-07 3.472618e-07 4.716541e-07 7.058798e-01 3.866148e-02 -2.248254e-01 -2.654128e-01 1.142140e-01 1.316006e-01 1.121215e-01 2.817084e-01 -8.903522e-02 1.865646e-01 -8.456337e-02 3.771054e-02 -1.112730e-01 -2.303432e-03 1.859861e-02 -1.860715e-02 -3.117024e-02 2.008119e-02 -3.412223e-02 -2.567250e-03 5.538696e-02 -2.527841e-03 -8.389461e-03 -1.403277e-02 2.152449e-02 5.433119e-03 -1.217391e-03
<VARIANCE> 39
 1.668527e+01 5.785955e+01 1.903198e+01 8.531385e+01 3.223944e+01 2.891775e+01 5.862713e+01 4.338273e+01 2.245710e+01 3.328546e+01 3.110054e+01 5.964520e+01 3.266397e-02 1.305877e+00 2.189912e+00 1.866648e+00 4.049067e+00 2.990902e+00 2.760991e+00 3.709482e+00 3.625163e+00 2.540735e+00 3.287153e+00 3.678042e+00 3.423594e+00 2.862960e-03 2.001780e-01 2.893413e-01 3.277156e-01 4.075664e-01 6.116220e-01 4.622587e-01 3.636848e-01 6.034145e-01 4.918036e-01 5.545375e-01 7.861508e-01 4.199929e-01 4.309166e-04
<GCONST> 1.001262e+02
<STATE> 5
<MEAN> 39
 8.292820e-08 4.146410e-07 5.183012e-08 -1.865885e-07 2.176865e-07 1.658564e-07 -8.292820e-08 1.036602e-07 -2.073205e-08 -3.317128e-07 3.472618e-07 4.716541e-07 7.058798e-01 3.866148e-02 -2.248254e-01 -2.654128e-01 1.142140e-01 1.316006e-01 1.121215e-01 2.817084e-01 -8.903522e-02 1.865646e-01 -8.456337e-02 3.771054e-02 -1.112730e-01 -2.303432e-03 1.859861e-02 -1.860715e-02 -3.117024e-02 2.008119e-02 -3.412223e-02 -2.567250e-03 5.538696e-02 -2.527841e-03 -8.389461e-03 -1.403277e-02 2.152449e-02 5.433119e-03 -1.217391e-03
<VARIANCE> 39
 1.668527e+01 5.785955e+01 1.903198e+01 8.531385e+01 3.223944e+01 2.891775e+01 5.862713e+01 4.338273e+01 2.245710e+01 3.328546e+01 3.110054e+01 5.964520e+01 3.266397e-02 1.305877e+00 2.189912e+00 1.866648e+00 4.049067e+00 2.990902e+00 2.760991e+00 3.709482e+00 3.625163e+00 2.540735e+00 3.287153e+00 3.678042e+00 3.423594e+00 2.862960e-03 2.001780e-01 2.893413e-01 3.277156e-01 4.075664e-01 6.116220e-01 4.622587e-01 3.636848e-01 6.034145e-01 4.918036e-01 5.545375e-01 7.861508e-01 4.199929e-01 4.309166e-04
<GCONST> 1.001262e+02
<STATE> 6
<MEAN> 39
 8.292820e-08 4.146410e-07 5.183012e-08 -1.865885e-07 2.176865e-07 1.658564e-07 -8.292820e-08 1.036602e-07 -2.073205e-08 -3.317128e-07 3.472618e-07 4.716541e-07 7.058798e-01 3.866148e-02 -2.248254e-01 -2.654128e-01 1.142140e-01 1.316006e-01 1.121215e-01 2.817084e-01 -8.903522e-02 1.865646e-01 -8.456337e-02 3.771054e-02 -1.112730e-01 -2.303432e-03 1.859861e-02 -1.860715e-02 -3.117024e-02 2.008119e-02 -3.412223e-02 -2.567250e-03 5.538696e-02 -2.527841e-03 -8.389461e-03 -1.403277e-02 2.152449e-02 5.433119e-03 -1.217391e-03
<VARIANCE> 39
 1.668527e+01 5.785955e+01 1.903198e+01 8.531385e+01 3.223944e+01 2.891775e+01 5.862713e+01 4.338273e+01 2.245710e+01 3.328546e+01 3.110054e+01 5.964520e+01 3.266397e-02 1.305877e+00 2.189912e+00 1.866648e+00 4.049067e+00 2.990902e+00 2.760991e+00 3.709482e+00 3.625163e+00 2.540735e+00 3.287153e+00 3.678042e+00 3.423594e+00 2.862960e-03 2.001780e-01 2.893413e-01 3.277156e-01 4.075664e-01 6.116220e-01 4.622587e-01 3.636848e-01 6.034145e-01 4.918036e-01 5.545375e-01 7.861508e-01 4.199929e-01 4.309166e-04
<GCONST> 1.001262e+02
<STATE> 7
<MEAN> 39
 8.292820e-08 4.146410e-07 5.183012e-08 -1.865885e-07 2.176865e-07 1.658564e-07 -8.292820e-08 1.036602e-07 -2.073205e-08 -3.317128e-07 3.472618e-07 4.716541e-07 7.058798e-01 3.866148e-02 -2.248254e-01 -2.654128e-01 1.142140e-01 1.316006e-01 1.121215e-01 2.817084e-01 -8.903522e-02 1.865646e-01 -8.456337e-02 3.771054e-02 -1.112730e-01 -2.303432e-03 1.859861e-02 -1.860715e-02 -3.117024e-02 2.008119e-02 -3.412223e-02 -2.567250e-03 5.538696e-02 -2.527841e-03 -8.389461e-03 -1.403277e-02 2.152449e-02 5.433119e-03 -1.217391e-03
<VARIANCE> 39
 1.668527e+01 5.785955e+01 1.903198e+01 8.531385e+01 3.223944e+01 2.891775e+01 5.862713e+01 4.338273e+01 2.245710e+01 3.328546e+01 3.110054e+01 5.964520e+01 3.266397e-02 1.305877e+00 2.189912e+00 1.866648e+00 4.049067e+00 2.990902e+00 2.760991e+00 3.709482e+00 3.625163e+00 2.540735e+00 3.287153e+00 3.678042e+00 3.423594e+00 2.862960e-03 2.001780e-01 2.893413e-01 3.277156e-01 4.075664e-01 6.116220e-01 4.622587e-01 3.636848e-01 6.034145e-01 4.918036e-01 5.545375e-01 7.861508e-01 4.199929e-01 4.309166e-04
<GCONST> 1.001262e+02
<STATE> 8
<MEAN> 39
 8.292820e-08 4.146410e-07 5.183012e-08 -1.865885e-07 2.176865e-07 1.658564e-07 -8.292820e-08 1.036602e-07 -2.073205e-08 -3.317128e-07 3.472618e-07 4.716541e-07 7.058798e-01 3.866148e-02 -2.248254e-01 -2.654128e-01 1.142140e-01 1.316006e-01 1.121215e-01 2.817084e-01 -8.903522e-02 1.865646e-01 -8.456337e-02 3.771054e-02 -1.112730e-01 -2.303432e-03 1.859861e-02 -1.860715e-02 -3.117024e-02 2.008119e-02 -3.412223e-02 -2.567250e-03 5.538696e-02 -2.527841e-03 -8.389461e-03 -1.403277e-02 2.152449e-02 5.433119e-03 -1.217391e-03
<VARIANCE> 39
 1.668527e+01 5.785955e+01 1.903198e+01 8.531385e+01 3.223944e+01 2.891775e+01 5.862713e+01 4.338273e+01 2.245710e+01 3.328546e+01 3.110054e+01 5.964520e+01 3.266397e-02 1.305877e+00 2.189912e+00 1.866648e+00 4.049067e+00 2.990902e+00 2.760991e+00 3.709482e+00 3.625163e+00 2.540735e+00 3.287153e+00 3.678042e+00 3.423594e+00 2.862960e-03 2.001780e-01 2.893413e-01 3.277156e-01 4.075664e-01 6.116220e-01 4.622587e-01 3.636848e-01 6.034145e-01 4.918036e-01 5.545375e-01 7.861508e-01 4.199929e-01 4.309166e-04
<GCONST> 1.001262e+02
<STATE> 9
<MEAN> 39
 8.292820e-08 4.146410e-07 5.183012e-08 -1.865885e-07 2.176865e-07 1.658564e-07 -8.292820e-08 1.036602e-07 -2.073205e-08 -3.317128e-07 3.472618e-07 4.716541e-07 7.058798e-01 3.866148e-02 -2.248254e-01 -2.654128e-01 1.142140e-01 1.316006e-01 1.121215e-01 2.817084e-01 -8.903522e-02 1.865646e-01 -8.456337e-02 3.771054e-02 -1.112730e-01 -2.303432e-03 1.859861e-02 -1.860715e-02 -3.117024e-02 2.008119e-02 -3.412223e-02 -2.567250e-03 5.538696e-02 -2.527841e-03 -8.389461e-03 -1.403277e-02 2.152449e-02 5.433119e-03 -1.217391e-03
<VARIANCE> 39
 1.668527e+01 5.785955e+01 1.903198e+01 8.531385e+01 3.223944e+01 2.891775e+01 5.862713e+01 4.338273e+01 2.245710e+01 3.328546e+01 3.110054e+01 5.964520e+01 3.266397e-02 1.305877e+00 2.189912e+00 1.866648e+00 4.049067e+00 2.990902e+00 2.760991e+00 3.709482e+00 3.625163e+00 2.540735e+00 3.287153e+00 3.678042e+00 3.423594e+00 2.862960e-03 2.001780e-01 2.893413e-01 3.277156e-01 4.075664e-01 6.116220e-01 4.622587e-01 3.636848e-01 6.034145e-01 4.918036e-01 5.545375e-01 7.861508e-01 4.199929e-01 4.309166e-04
<GCONST> 1.001262e+02
<TRANSP> 10
 0.000000e+00 1.000000e+00 0.000000e+00 0.000000e+00 0.000000e+00 0.000000e+00 0.000000e+00 0.000000e+00 0.000000e+00 0.000000e+00
 0.000000e+00 9.000000e-01 9.999999e-02 0.000000e+00 0.000000e+00 0.000000e+00 0.000000e+00 0.000000e+00 0.000000e+00 0.000000e+00
 0.000000e+00 0.000000e+00 9.000000e-01 9.999999e-02 0.000000e+00 0.000000e+00 0.000000e+00 0.000000e+00 0.000000e+00 0.000000e+00
 0.000000e+00 0.000000e+00 0.000000e+00 9.000000e-01 9.999999e-02 0.000000e+00 0.000000e+00 0.000000e+00 0.000000e+00 0.000000e+00
 0.000000e+00 0.000000e+00 0.000000e+00 0.000000e+00 9.000000e-01 9.999999e-02 0.000000e+00 0.000000e+00 0.000000e+00 0.000000e+00
 0.000000e+00 0.000000e+00 0.000000e+00 0.000000e+00 0.000000e+00 9.000000e-01 9.999999e-02 0.000000e+00 0.000000e+00 0.000000e+00
 0.000000e+00 0.000000e+00 0.000000e+00 0.000000e+00 0.000000e+00 0.000000e+00 9.000000e-01 9.999999e-02 0.000000e+00 0.000000e+00
 0.000000e+00 0.000000e+00 0.000000e+00 0.000000e+00 0.000000e+00 0.000000e+00 0.000000e+00 9.000000e-01 9.999999e-02 0.000000e+00
 0.000000e+00 0.000000e+00 0.000000e+00 0.000000e+00 0.000000e+00 0.000000e+00 0.000000e+00 0.000000e+00 9.000000e-01 9.999999e-02
 0.000000e+00 0.000000e+00 0.000000e+00 0.000000e+00 0.000000e+00 0.000000e+00 0.000000e+00 0.000000e+00 0.000000e+00 0.000000e+00
<ENDHMM>
