~o
<STREAMINFO> 1 39
<VECSIZE> 39<NULLD><MFCC_E_D_A_Z><DIAGC>
~h "s065"
<BEGINHMM>
<NUMSTATES> 10
<STATE> 2
<MEAN> 39
 -2.459874e-08 2.724784e-07 -1.684068e-07 -6.433518e-08 -2.346342e-07 -2.422030e-07 -1.400236e-07 3.935799e-07 8.325728e-08 -1.513769e-07 -9.839497e-08 9.650276e-08 4.583696e-01 1.434965e-02 -2.094423e-02 -2.384137e-02 5.483230e-02 7.472645e-03 -2.828486e-04 -1.047423e-02 -5.170700e-02 3.305307e-02 1.039253e-01 4.176018e-02 -6.578363e-03 3.949541e-04 -7.826750e-03 5.950789e-03 -1.513588e-02 1.195913e-02 1.000958e-02 -2.269647e-02 9.218630e-03 8.604825e-03 7.181442e-03 2.203714e-02 -2.261997e-02 9.832505e-03 -6.308621e-05
<VARIANCE> 39
 2.440039e+01 1.492618e+01 3.823972e+01 3.458416e+01 3.077772e+01 9.181976e+01 3.999486e+01 3.843270e+01 3.079163e+01 4.681807e+01 7.134508e+01 3.265259e+01 1.147408e-01 1.138113e+00 9.267242e-01 1.095237e+00 1.905887e+00 1.611706e+00 2.425829e+00 2.424037e+00 2.241376e+00 3.373151e+00 3.972442e+00 2.674712e+00 2.699688e+00 9.681042e-04 1.635060e-01 1.545060e-01 1.636828e-01 3.084893e-01 2.604124e-01 3.934531e-01 4.599017e-01 3.098611e-01 6.982130e-01 8.152924e-01 4.659427e-01 5.703403e-01 1.101478e-04
<GCONST> 9.249229e+01
<STATE> 3
<MEAN> 39
 -2.459874e-08 2.724784e-07 -1.684068e-07 -6.433518e-08 -2.346342e-07 -2.422030e-07 -1.400236e-07 3.935799e-07 8.325728e-08 -1.513769e-07 -9.839497e-08 9.650276e-08 4.583696e-01 1.434965e-02 -2.094423e-02 -2.384137e-02 5.483230e-02 7.472645e-03 -2.828486e-04 -1.047423e-02 -5.170700e-02 3.305307e-02 1.039253e-01 4.176018e-02 -6.578363e-03 3.949541e-04 -7.826750e-03 5.950789e-03 -1.513588e-02 1.195913e-02 1.000958e-02 -2.269647e-02 9.218630e-03 8.604825e-03 7.181442e-03 2.203714e-02 -2.261997e-02 9.832505e-03 -6.308621e-05
<VARIANCE> 39
 2.440039e+01 1.492618e+01 3.823972e+01 3.458416e+01 3.077772e+01 9.181976e+01 3.999486e+01 3.843270e+01 3.079163e+01 4.681807e+01 7.134508e+01 3.265259e+01 1.147408e-01 1.138113e+00 9.267242e-01 1.095237e+00 1.905887e+00 1.611706e+00 2.425829e+00 2.424037e+00 2.241376e+00 3.373151e+00 3.972442e+00 2.674712e+00 2.699688e+00 9.681042e-04 1.635060e-01 1.545060e-01 1.636828e-01 3.084893e-01 2.604124e-01 3.934531e-01 4.599017e-01 3.098611e-01 6.982130e-01 8.152924e-01 4.659427e-01 5.703403e-01 1.101478e-04
<GCONST> 9.249229e+01
<STATE> 4
<MEAN> 39
 -2.459874e-08 2.724784e-07 -1.684068e-07 -6.433518e-08 -2.346342e-07 -2.422030e-07 -1.400236e-07 3.935799e-07 8.325728e-08 -1.513769e-07 -9.839497e-08 9.650276e-08 4.583696e-01 1.434965e-02 -2.094423e-02 -2.384137e-02 5.483230e-02 7.472645e-03 -2.828486e-04 -1.047423e-02 -5.170700e-02 3.305307e-02 1.039253e-01 4.176018e-02 -6.578363e-03 3.949541e-04 -7.826750e-03 5.950789e-03 -1.513588e-02 1.195913e-02 1.000958e-02 -2.269647e-02 9.218630e-03 8.604825e-03 7.181442e-03 2.203714e-02 -2.261997e-02 9.832505e-03 -6.308621e-05
<VARIANCE> 39
 2.440039e+01 1.492618e+01 3.823972e+01 3.458416e+01 3.077772e+01 9.181976e+01 3.999486e+01 3.843270e+01 3.079163e+01 4.681807e+01 7.134508e+01 3.265259e+01 1.147408e-01 1.138113e+00 9.267242e-01 1.095237e+00 1.905887e+00 1.611706e+00 2.425829e+00 2.424037e+00 2.241376e+00 3.373151e+00 3.972442e+00 2.674712e+00 2.699688e+00 9.681042e-04 1.635060e-01 1.545060e-01 1.636828e-01 3.084893e-01 2.604124e-01 3.934531e-01 4.599017e-01 3.098611e-01 6.982130e-01 8.152924e-01 4.659427e-01 5.703403e-01 1.101478e-04
<GCONST> 9.249229e+01
<STATE> 5
<MEAN> 39
 -2.459874e-08 2.724784e-07 -1.684068e-07 -6.433518e-08 -2.346342e-07 -2.422030e-07 -1.400236e-07 3.935799e-07 8.325728e-08 -1.513769e-07 -9.839497e-08 9.650276e-08 4.583696e-01 1.434965e-02 -2.094423e-02 -2.384137e-02 5.483230e-02 7.472645e-03 -2.828486e-04 -1.047423e-02 -5.170700e-02 3.305307e-02 1.039253e-01 4.176018e-02 -6.578363e-03 3.949541e-04 -7.826750e-03 5.950789e-03 -1.513588e-02 1.195913e-02 1.000958e-02 -2.269647e-02 9.218630e-03 8.604825e-03 7.181442e-03 2.203714e-02 -2.261997e-02 9.832505e-03 -6.308621e-05
<VARIANCE> 39
 2.440039e+01 1.492618e+01 3.823972e+01 3.458416e+01 3.077772e+01 9.181976e+01 3.999486e+01 3.843270e+01 3.079163e+01 4.681807e+01 7.134508e+01 3.265259e+01 1.147408e-01 1.138113e+00 9.267242e-01 1.095237e+00 1.905887e+00 1.611706e+00 2.425829e+00 2.424037e+00 2.241376e+00 3.373151e+00 3.972442e+00 2.674712e+00 2.699688e+00 9.681042e-04 1.635060e-01 1.545060e-01 1.636828e-01 3.084893e-01 2.604124e-01 3.934531e-01 4.599017e-01 3.098611e-01 6.982130e-01 8.152924e-01 4.659427e-01 5.703403e-01 1.101478e-04
<GCONST> 9.249229e+01
<STATE> 6
<MEAN> 39
 -2.459874e-08 2.724784e-07 -1.684068e-07 -6.433518e-08 -2.346342e-07 -2.422030e-07 -1.400236e-07 3.935799e-07 8.325728e-08 -1.513769e-07 -9.839497e-08 9.650276e-08 4.583696e-01 1.434965e-02 -2.094423e-02 -2.384137e-02 5.483230e-02 7.472645e-03 -2.828486e-04 -1.047423e-02 -5.170700e-02 3.305307e-02 1.039253e-01 4.176018e-02 -6.578363e-03 3.949541e-04 -7.826750e-03 5.950789e-03 -1.513588e-02 1.195913e-02 1.000958e-02 -2.269647e-02 9.218630e-03 8.604825e-03 7.181442e-03 2.203714e-02 -2.261997e-02 9.832505e-03 -6.308621e-05
<VARIANCE> 39
 2.440039e+01 1.492618e+01 3.823972e+01 3.458416e+01 3.077772e+01 9.181976e+01 3.999486e+01 3.843270e+01 3.079163e+01 4.681807e+01 7.134508e+01 3.265259e+01 1.147408e-01 1.138113e+00 9.267242e-01 1.095237e+00 1.905887e+00 1.611706e+00 2.425829e+00 2.424037e+00 2.241376e+00 3.373151e+00 3.972442e+00 2.674712e+00 2.699688e+00 9.681042e-04 1.635060e-01 1.545060e-01 1.636828e-01 3.084893e-01 2.604124e-01 3.934531e-01 4.599017e-01 3.098611e-01 6.982130e-01 8.152924e-01 4.659427e-01 5.703403e-01 1.101478e-04
<GCONST> 9.249229e+01
<STATE> 7
<MEAN> 39
 -2.459874e-08 2.724784e-07 -1.684068e-07 -6.433518e-08 -2.346342e-07 -2.422030e-07 -1.400236e-07 3.935799e-07 8.325728e-08 -1.513769e-07 -9.839497e-08 9.650276e-08 4.583696e-01 1.434965e-02 -2.094423e-02 -2.384137e-02 5.483230e-02 7.472645e-03 -2.828486e-04 -1.047423e-02 -5.170700e-02 3.305307e-02 1.039253e-01 4.176018e-02 -6.578363e-03 3.949541e-04 -7.826750e-03 5.950789e-03 -1.513588e-02 1.195913e-02 1.000958e-02 -2.269647e-02 9.218630e-03 8.604825e-03 7.181442e-03 2.203714e-02 -2.261997e-02 9.832505e-03 -6.308621e-05
<VARIANCE> 39
 2.440039e+01 1.492618e+01 3.823972e+01 3.458416e+01 3.077772e+01 9.181976e+01 3.999486e+01 3.843270e+01 3.079163e+01 4.681807e+01 7.134508e+01 3.265259e+01 1.147408e-01 1.138113e+00 9.267242e-01 1.095237e+00 1.905887e+00 1.611706e+00 2.425829e+00 2.424037e+00 2.241376e+00 3.373151e+00 3.972442e+00 2.674712e+00 2.699688e+00 9.681042e-04 1.635060e-01 1.545060e-01 1.636828e-01 3.084893e-01 2.604124e-01 3.934531e-01 4.599017e-01 3.098611e-01 6.982130e-01 8.152924e-01 4.659427e-01 5.703403e-01 1.101478e-04
<GCONST> 9.249229e+01
<STATE> 8
<MEAN> 39
 -2.459874e-08 2.724784e-07 -1.684068e-07 -6.433518e-08 -2.346342e-07 -2.422030e-07 -1.400236e-07 3.935799e-07 8.325728e-08 -1.513769e-07 -9.839497e-08 9.650276e-08 4.583696e-01 1.434965e-02 -2.094423e-02 -2.384137e-02 5.483230e-02 7.472645e-03 -2.828486e-04 -1.047423e-02 -5.170700e-02 3.305307e-02 1.039253e-01 4.176018e-02 -6.578363e-03 3.949541e-04 -7.826750e-03 5.950789e-03 -1.513588e-02 1.195913e-02 1.000958e-02 -2.269647e-02 9.218630e-03 8.604825e-03 7.181442e-03 2.203714e-02 -2.261997e-02 9.832505e-03 -6.308621e-05
<VARIANCE> 39
 2.440039e+01 1.492618e+01 3.823972e+01 3.458416e+01 3.077772e+01 9.181976e+01 3.999486e+01 3.843270e+01 3.079163e+01 4.681807e+01 7.134508e+01 3.265259e+01 1.147408e-01 1.138113e+00 9.267242e-01 1.095237e+00 1.905887e+00 1.611706e+00 2.425829e+00 2.424037e+00 2.241376e+00 3.373151e+00 3.972442e+00 2.674712e+00 2.699688e+00 9.681042e-04 1.635060e-01 1.545060e-01 1.636828e-01 3.084893e-01 2.604124e-01 3.934531e-01 4.599017e-01 3.098611e-01 6.982130e-01 8.152924e-01 4.659427e-01 5.703403e-01 1.101478e-04
<GCONST> 9.249229e+01
<STATE> 9
<MEAN> 39
 -2.459874e-08 2.724784e-07 -1.684068e-07 -6.433518e-08 -2.346342e-07 -2.422030e-07 -1.400236e-07 3.935799e-07 8.325728e-08 -1.513769e-07 -9.839497e-08 9.650276e-08 4.583696e-01 1.434965e-02 -2.094423e-02 -2.384137e-02 5.483230e-02 7.472645e-03 -2.828486e-04 -1.047423e-02 -5.170700e-02 3.305307e-02 1.039253e-01 4.176018e-02 -6.578363e-03 3.949541e-04 -7.826750e-03 5.950789e-03 -1.513588e-02 1.195913e-02 1.000958e-02 -2.269647e-02 9.218630e-03 8.604825e-03 7.181442e-03 2.203714e-02 -2.261997e-02 9.832505e-03 -6.308621e-05
<VARIANCE> 39
 2.440039e+01 1.492618e+01 3.823972e+01 3.458416e+01 3.077772e+01 9.181976e+01 3.999486e+01 3.843270e+01 3.079163e+01 4.681807e+01 7.134508e+01 3.265259e+01 1.147408e-01 1.138113e+00 9.267242e-01 1.095237e+00 1.905887e+00 1.611706e+00 2.425829e+00 2.424037e+00 2.241376e+00 3.373151e+00 3.972442e+00 2.674712e+00 2.699688e+00 9.681042e-04 1.635060e-01 1.545060e-01 1.636828e-01 3.084893e-01 2.604124e-01 3.934531e-01 4.599017e-01 3.098611e-01 6.982130e-01 8.152924e-01 4.659427e-01 5.703403e-01 1.101478e-04
<GCONST> 9.249229e+01
<TRANSP> 10
 0.000000e+00 1.000000e+00 0.000000e+00 0.000000e+00 0.000000e+00 0.000000e+00 0.000000e+00 0.000000e+00 0.000000e+00 0.000000e+00
 0.000000e+00 9.000000e-01 9.999999e-02 0.000000e+00 0.000000e+00 0.000000e+00 0.000000e+00 0.000000e+00 0.000000e+00 0.000000e+00
 0.000000e+00 0.000000e+00 9.000000e-01 9.999999e-02 0.000000e+00 0.000000e+00 0.000000e+00 0.000000e+00 0.000000e+00 0.000000e+00
 0.000000e+00 0.000000e+00 0.000000e+00 9.000000e-01 9.999999e-02 0.000000e+00 0.000000e+00 0.000000e+00 0.000000e+00 0.000000e+00
 0.000000e+00 0.000000e+00 0.000000e+00 0.000000e+00 9.000000e-01 9.999999e-02 0.000000e+00 0.000000e+00 0.000000e+00 0.000000e+00
 0.000000e+00 0.000000e+00 0.000000e+00 0.000000e+00 0.000000e+00 9.000000e-01 9.999999e-02 0.000000e+00 0.000000e+00 0.000000e+00
 0.000000e+00 0.000000e+00 0.000000e+00 0.000000e+00 0.000000e+00 0.000000e+00 9.000000e-01 9.999999e-02 0.000000e+00 0.000000e+00
 0.000000e+00 0.000000e+00 0.000000e+00 0.000000e+00 0.000000e+00 0.000000e+00 0.000000e+00 9.000000e-01 9.999999e-02 0.000000e+00
 0.000000e+00 0.000000e+00 0.000000e+00 0.000000e+00 0.000000e+00 0.000000e+00 0.000000e+00 0.000000e+00 9.000000e-01 9.999999e-02
 0.000000e+00 0.000000e+00 0.000000e+00 0.000000e+00 0.000000e+00 0.000000e+00 0.000000e+00 0.000000e+00 0.000000e+00 0.000000e+00
<ENDHMM>
