~o
<STREAMINFO> 1 39
<VECSIZE> 39<NULLD><MFCC_E_D_A_Z><DIAGC>
~h "s066"
<BEGINHMM>
<NUMSTATES> 10
<STATE> 2
<MEAN> 39
 -4.367974e-08 -5.823965e-08 -7.279957e-09 -1.819989e-07 4.367974e-08 2.547985e-07 9.099946e-10 -2.329586e-07 -6.915959e-08 1.883689e-07 -1.856389e-07 2.138487e-07 6.207051e-01 2.828658e-02 5.160244e-03 2.370646e-02 3.182069e-04 2.906659e-02 -2.269485e-03 5.580076e-02 -1.032184e-01 2.709675e-02 -2.368147e-03 -3.065432e-02 1.577060e-02 1.156868e-04 1.021048e-02 6.871035e-03 -3.522890e-03 5.659887e-03 4.270510e-03 1.248740e-02 -1.183896e-02 -1.070566e-02 -1.012231e-02 -7.245635e-03 -9.640425e-03 -2.537633e-02 2.089091e-04
<VARIANCE> 39
 1.316151e+01 1.770550e+01 2.539607e+01 9.625187e+01 5.832408e+01 7.850909e+01 2.592583e+01 3.200988e+01 4.344908e+01 2.614876e+01 2.989713e+01 3.679325e+01 4.715811e-02 8.443389e-01 6.838123e-01 9.480894e-01 2.040328e+00 1.931847e+00 2.779311e+00 2.346698e+00 2.878029e+00 2.994515e+00 2.517443e+00 2.599735e+00 3.087205e+00 3.893792e-04 1.248556e-01 1.003543e-01 1.510293e-01 3.494613e-01 2.596252e-01 4.278843e-01 4.418928e-01 5.888959e-01 5.933309e-01 4.763725e-01 5.609195e-01 5.389970e-01 3.691588e-05
<GCONST> 8.748618e+01
<STATE> 3
<MEAN> 39
 -4.367974e-08 -5.823965e-08 -7.279957e-09 -1.819989e-07 4.367974e-08 2.547985e-07 9.099946e-10 -2.329586e-07 -6.915959e-08 1.883689e-07 -1.856389e-07 2.138487e-07 6.207051e-01 2.828658e-02 5.160244e-03 2.370646e-02 3.182069e-04 2.906659e-02 -2.269485e-03 5.580076e-02 -1.032184e-01 2.709675e-02 -2.368147e-03 -3.065432e-02 1.577060e-02 1.156868e-04 1.021048e-02 6.871035e-03 -3.522890e-03 5.659887e-03 4.270510e-03 1.248740e-02 -1.183896e-02 -1.070566e-02 -1.012231e-02 -7.245635e-03 -9.640425e-03 -2.537633e-02 2.089091e-04
<VARIANCE> 39
 1.316151e+01 1.770550e+01 2.539607e+01 9.625187e+01 5.832408e+01 7.850909e+01 2.592583e+01 3.200988e+01 4.344908e+01 2.614876e+01 2.989713e+01 3.679325e+01 4.715811e-02 8.443389e-01 6.838123e-01 9.480894e-01 2.040328e+00 1.931847e+00 2.779311e+00 2.346698e+00 2.878029e+00 2.994515e+00 2.517443e+00 2.599735e+00 3.087205e+00 3.893792e-04 1.248556e-01 1.003543e-01 1.510293e-01 3.494613e-01 2.596252e-01 4.278843e-01 4.418928e-01 5.888959e-01 5.933309e-01 4.763725e-01 5.609195e-01 5.389970e-01 3.691588e-05
<GCONST> 8.748618e+01
<STATE> 4
<MEAN> 39
 -4.367974e-08 -5.823965e-08 -7.279957e-09 -1.819989e-07 4.367974e-08 2.547985e-07 9.099946e-10 -2.329586e-07 -6.915959e-08 1.883689e-07 -1.856389e-07 2.138487e-07 6.207051e-01 2.828658e-02 5.160244e-03 2.370646e-02 3.182069e-04 2.906659e-02 -2.269485e-03 5.580076e-02 -1.032184e-01 2.709675e-02 -2.368147e-03 -3.065432e-02 1.577060e-02 1.156868e-04 1.021048e-02 6.871035e-03 -3.522890e-03 5.659887e-03 4.270510e-03 1.248740e-02 -1.183896e-02 -1.070566e-02 -1.012231e-02 -7.245635e-03 -9.640425e-03 -2.537633e-02 2.089091e-04
<VARIANCE> 39
 1.316151e+01 1.770550e+01 2.539607e+01 9.625187e+01 5.832408e+01 7.850909e+01 2.592583e+01 3.200988e+01 4.344908e+01 2.614876e+01 2.989713e+01 3.679325e+01 4.715811e-02 8.443389e-01 6.838123e-01 9.480894e-01 2.040328e+00 1.931847e+00 2.779311e+00 2.346698e+00 2.878029e+00 2.994515e+00 2.517443e+00 2.599735e+00 3.087205e+00 3.893792e-04 1.248556e-01 1.003543e-01 1.510293e-01 3.494613e-01 2.596252e-01 4.278843e-01 4.418928e-01 5.888959e-01 5.933309e-01 4.763725e-01 5.609195e-01 5.389970e-01 3.691588e-05
<GCONST> 8.748618e+01
<STATE> 5
<MEAN> 39
 -4.367974e-08 -5.823965e-08 -7.279957e-09 -1.819989e-07 4.367974e-08 2.547985e-07 9.099946e-10 -2.329586e-07 -6.915959e-08 1.883689e-07 -1.856389e-07 2.138487e-07 6.207051e-01 2.828658e-02 5.160244e-03 2.370646e-02 3.182069e-04 2.906659e-02 -2.269485e-03 5.580076e-02 -1.032184e-01 2.709675e-02 -2.368147e-03 -3.065432e-02 1.577060e-02 1.156868e-04 1.021048e-02 6.871035e-03 -3.522890e-03 5.659887e-03 4.270510e-03 1.248740e-02 -1.183896e-02 -1.070566e-02 -1.012231e-02 -7.245635e-03 -9.640425e-03 -2.537633e-02 2.089091e-04
<VARIANCE> 39
 1.316151e+01 1.770550e+01 2.539607e+01 9.625187e+01 5.832408e+01 7.850909e+01 2.592583e+01 3.200988e+01 4.344908e+01 2.614876e+01 2.989713e+01 3.679325e+01 4.715811e-02 8.443389e-01 6.838123e-01 9.480894e-01 2.040328e+00 1.931847e+00 2.779311e+00 2.346698e+00 2.878029e+00 2.994515e+00 2.517443e+00 2.599735e+00 3.087205e+00 3.893792e-04 1.248556e-01 1.003543e-01 1.510293e-01 3.494613e-01 2.596252e-01 4.278843e-01 4.418928e-01 5.888959e-01 5.933309e-01 4.763725e-01 5.609195e-01 5.389970e-01 3.691588e-05
<GCONST> 8.748618e+01
<STATE> 6
<MEAN> 39
 -4.367974e-08 -5.823965e-08 -7.279957e-09 -1.819989e-07 4.367974e-08 2.547985e-07 9.099946e-10 -2.329586e-07 -6.915959e-08 1.883689e-07 -1.856389e-07 2.138487e-07 6.207051e-01 2.828658e-02 5.160244e-03 2.370646e-02 3.182069e-04 2.906659e-02 -2.269485e-03 5.580076e-02 -1.032184e-01 2.709675e-02 -2.368147e-03 -3.065432e-02 1.577060e-02 1.156868e-04 1.021048e-02 6.871035e-03 -3.522890e-03 5.659887e-03 4.270510e-03 1.248740e-02 -1.183896e-02 -1.070566e-02 -1.012231e-02 -7.245635e-03 -9.640425e-03 -2.537633e-02 2.089091e-04
<VARIANCE> 39
 1.316151e+01 1.770550e+01 2.539607e+01 9.625187e+01 5.832408e+01 7.850909e+01 2.592583e+01 3.200988e+01 4.344908e+01 2.614876e+01 2.989713e+01 3.679325e+01 4.715811e-02 8.443389e-01 6.838123e-01 9.480894e-01 2.040328e+00 1.931847e+00 2.779311e+00 2.346698e+00 2.878029e+00 2.994515e+00 2.517443e+00 2.599735e+00 3.087205e+00 3.893792e-04 1.248556e-01 1.003543e-01 1.510293e-01 3.494613e-01 2.596252e-01 4.278843e-01 4.418928e-01 5.888959e-01 5.933309e-01 4.763725e-01 5.609195e-01 5.389970e-01 3.691588e-05
<GCONST> 8.748618e+01
<STATE> 7
<MEAN> 39
 -4.367974e-08 -5.823965e-08 -7.279957e-09 -1.819989e-07 4.367974e-08 2.547985e-07 9.099946e-10 -2.329586e-07 -6.915959e-08 1.883689e-07 -1.856389e-07 2.138487e-07 6.207051e-01 2.828658e-02 5.160244e-03 2.370646e-02 3.182069e-04 2.906659e-02 -2.269485e-03 5.580076e-02 -1.032184e-01 2.709675e-02 -2.368147e-03 -3.065432e-02 1.577060e-02 1.156868e-04 1.021048e-02 6.871035e-03 -3.522890e-03 5.659887e-03 4.270510e-03 1.248740e-02 -1.183896e-02 -1.070566e-02 -1.012231e-02 -7.245635e-03 -9.640425e-03 -2.537633e-02 2.089091e-04
<VARIANCE> 39
 1.316151e+01 1.770550e+01 2.539607e+01 9.625187e+01 5.832408e+01 7.850909e+01 2.592583e+01 3.200988e+01 4.344908e+01 2.614876e+01 2.989713e+01 3.679325e+01 4.715811e-02 8.443389e-01 6.838123e-01 9.480894e-01 2.040328e+00 1.931847e+00 2.779311e+00 2.346698e+00 2.878029e+00 2.994515e+00 2.517443e+00 2.599735e+00 3.087205e+00 3.893792e-04 1.248556e-01 1.003543e-01 1.510293e-01 3.494613e-01 2.596252e-01 4.278843e-01 4.418928e-01 5.888959e-01 5.933309e-01 4.763725e-01 5.609195e-01 5.389970e-01 3.691588e-05
<GCONST> 8.748618e+01
<STATE> 8
<MEAN> 39
 -4.367974e-08 -5.823965e-08 -7.279957e-09 -1.819989e-07 4.367974e-08 2.547985e-07 9.099946e-10 -2.329586e-07 -6.915959e-08 1.883689e-07 -1.856389e-07 2.138487e-07 6.207051e-01 2.828658e-02 5.160244e-03 2.370646e-02 3.182069e-04 2.906659e-02 -2.269485e-03 5.580076e-02 -1.032184e-01 2.709675e-02 -2.368147e-03 -3.065432e-02 1.577060e-02 1.156868e-04 1.021048e-02 6.871035e-03 -3.522890e-03 5.659887e-03 4.270510e-03 1.248740e-02 -1.183896e-02 -1.070566e-02 -1.012231e-02 -7.245635e-03 -9.640425e-03 -2.537633e-02 2.089091e-04
<VARIANCE> 39
 1.316151e+01 1.770550e+01 2.539607e+01 9.625187e+01 5.832408e+01 7.850909e+01 2.592583e+01 3.200988e+01 4.344908e+01 2.614876e+01 2.989713e+01 3.679325e+01 4.715811e-02 8.443389e-01 6.838123e-01 9.480894e-01 2.040328e+00 1.931847e+00 2.779311e+00 2.346698e+00 2.878029e+00 2.994515e+00 2.517443e+00 2.599735e+00 3.087205e+00 3.893792e-04 1.248556e-01 1.003543e-01 1.510293e-01 3.494613e-01 2.596252e-01 4.278843e-01 4.418928e-01 5.888959e-01 5.933309e-01 4.763725e-01 5.609195e-01 5.389970e-01 3.691588e-05
<GCONST> 8.748618e+01
<STATE> 9
<MEAN> 39
 -4.367974e-08 -5.823965e-08 -7.279957e-09 -1.819989e-07 4.367974e-08 2.547985e-07 9.099946e-10 -2.329586e-07 -6.915959e-08 1.883689e-07 -1.856389e-07 2.138487e-07 6.207051e-01 2.828658e-02 5.160244e-03 2.370646e-02 3.182069e-04 2.906659e-02 -2.269485e-03 5.580076e-02 -1.032184e-01 2.709675e-02 -2.368147e-03 -3.065432e-02 1.577060e-02 1.156868e-04 1.021048e-02 6.871035e-03 -3.522890e-03 5.659887e-03 4.270510e-03 1.248740e-02 -1.183896e-02 -1.070566e-02 -1.012231e-02 -7.245635e-03 -9.640425e-03 -2.537633e-02 2.089091e-04
<VARIANCE> 39
 1.316151e+01 1.770550e+01 2.539607e+01 9.625187e+01 5.832408e+01 7.850909e+01 2.592583e+01 3.200988e+01 4.344908e+01 2.614876e+01 2.989713e+01 3.679325e+01 4.715811e-02 8.443389e-01 6.838123e-01 9.480894e-01 2.040328e+00 1.931847e+00 2.779311e+00 2.346698e+00 2.878029e+00 2.994515e+00 2.517443e+00 2.599735e+00 3.087205e+00 3.893792e-04 1.248556e-01 1.003543e-01 1.510293e-01 3.494613e-01 2.596252e-01 4.278843e-01 4.418928e-01 5.888959e-01 5.933309e-01 4.763725e-01 5.609195e-01 5.389970e-01 3.691588e-05
<GCONST> 8.748618e+01
<TRANSP> 10
 0.000000e+00 1.000000e+00 0.000000e+00 0.000000e+00 0.000000e+00 0.000000e+00 0.000000e+00 0.000000e+00 0.000000e+00 0.000000e+00
 0.000000e+00 9.000000e-01 9.999999e-02 0.000000e+00 0.000000e+00 0.000000e+00 0.000000e+00 0.000000e+00 0.000000e+00 0.000000e+00
 0.000000e+00 0.000000e+00 9.000000e-01 9.999999e-02 0.000000e+00 0.000000e+00 0.000000e+00 0.000000e+00 0.000000e+00 0.000000e+00
 0.000000e+00 0.000000e+00 0.000000e+00 9.000000e-01 9.999999e-02 0.000000e+00 0.000000e+00 0.000000e+00 0.000000e+00 0.000000e+00
 0.000000e+00 0.000000e+00 0.000000e+00 0.000000e+00 9.000000e-01 9.999999e-02 0.000000e+00 0.000000e+00 0.000000e+00 0.000000e+00
 0.000000e+00 0.000000e+00 0.000000e+00 0.000000e+00 0.000000e+00 9.000000e-01 9.999999e-02 0.000000e+00 0.000000e+00 0.000000e+00
 0.000000e+00 0.000000e+00 0.000000e+00 0.000000e+00 0.000000e+00 0.000000e+00 9.000000e-01 9.999999e-02 0.000000e+00 0.000000e+00
 0.000000e+00 0.000000e+00 0.000000e+00 0.000000e+00 0.000000e+00 0.000000e+00 0.000000e+00 9.000000e-01 9.999999e-02 0.000000e+00
 0.000000e+00 0.000000e+00 0.000000e+00 0.000000e+00 0.000000e+00 0.000000e+00 0.000000e+00 0.000000e+00 9.000000e-01 9.999999e-02
 0.000000e+00 0.000000e+00 0.000000e+00 0.000000e+00 0.000000e+00 0.000000e+00 0.000000e+00 0.000000e+00 0.000000e+00 0.000000e+00
<ENDHMM>
