~o
<STREAMINFO> 1 39
<VECSIZE> 39<NULLD><MFCC_E_D_A_Z><DIAGC>
~h "s067"
<BEGINHMM>
<NUMSTATES> 10
<STATE> 2
<MEAN> 39
 -4.990156e-08 3.936679e-07 -2.245570e-07 8.316927e-07 7.208003e-08 -3.326771e-07 -2.883201e-07 -2.106955e-07 -7.208003e-08 2.772309e-07 -6.653542e-08 -7.208003e-08 6.351047e-01 1.724895e-01 -1.485736e-01 -5.383203e-02 7.618931e-02 -3.862639e-03 -8.247743e-02 1.760512e-01 -1.722710e-01 -9.648434e-02 1.013756e-02 -4.190628e-02 -1.006374e-01 -5.531631e-04 -1.454338e-02 3.518829e-02 -3.847010e-03 7.703649e-03 1.167449e-02 -1.399890e-02 1.091120e-02 -8.486175e-03 -4.215869e-02 1.092563e-02 -6.679114e-04 -2.256262e-02 -2.115105e-04
<VARIANCE> 39
 2.209598e+01 8.514490e+01 3.022776e+01 1.193349e+02 3.480193e+01 8.714272e+01 7.140895e+01 2.692920e+01 4.096266e+01 2.912041e+01 4.287404e+01 4.187205e+01 3.961111e-02 7.108979e-01 1.873725e+00 1.827549e+00 3.755275e+00 1.906795e+00 3.996546e+00 2.193587e+00 3.515501e+00 4.518799e+00 3.362318e+00 3.719840e+00 3.542122e+00 1.079479e-03 9.864853e-02 1.469756e-01 2.801300e-01 5.130774e-01 3.160414e-01 5.850493e-01 3.439967e-01 7.288765e-01 9.168508e-01 6.853489e-01 6.009814e-01 6.567871e-01 1.106309e-04
<GCONST> 9.934091e+01
<STATE> 3
<MEAN> 39
 -4.990156e-08 3.936679e-07 -2.245570e-07 8.316927e-07 7.208003e-08 -3.326771e-07 -2.883201e-07 -2.106955e-07 -7.208003e-08 2.772309e-07 -6.653542e-08 -7.208003e-08 6.351047e-01 1.724895e-01 -1.485736e-01 -5.383203e-02 7.618931e-02 -3.862639e-03 -8.247743e-02 1.760512e-01 -1.722710e-01 -9.648434e-02 1.013756e-02 -4.190628e-02 -1.006374e-01 -5.531631e-04 -1.454338e-02 3.518829e-02 -3.847010e-03 7.703649e-03 1.167449e-02 -1.399890e-02 1.091120e-02 -8.486175e-03 -4.215869e-02 1.092563e-02 -6.679114e-04 -2.256262e-02 -2.115105e-04
<VARIANCE> 39
 2.209598e+01 8.514490e+01 3.022776e+01 1.193349e+02 3.480193e+01 8.714272e+01 7.140895e+01 2.692920e+01 4.096266e+01 2.912041e+01 4.287404e+01 4.187205e+01 3.961111e-02 7.108979e-01 1.873725e+00 1.827549e+00 3.755275e+00 1.906795e+00 3.996546e+00 2.193587e+00 3.515501e+00 4.518799e+00 3.362318e+00 3.719840e+00 3.542122e+00 1.079479e-03 9.864853e-02 1.469756e-01 2.801300e-01 5.130774e-01 3.160414e-01 5.850493e-01 3.439967e-01 7.288765e-01 9.168508e-01 6.853489e-01 6.009814e-01 6.567871e-01 1.106309e-04
<GCONST> 9.934091e+01
<STATE> 4
<MEAN> 39
 -4.990156e-08 3.936679e-07 -2.245570e-07 8.316927e-07 7.208003e-08 -3.326771e-07 -2.883201e-07 -2.106955e-07 -7.208003e-08 2.772309e-07 -6.653542e-08 -7.208003e-08 6.351047e-01 1.724895e-01 -1.485736e-01 -5.383203e-02 7.618931e-02 -3.862639e-03 -8.247743e-02 1.760512e-01 -1.722710e-01 -9.648434e-02 1.013756e-02 -4.190628e-02 -1.006374e-01 -5.531631e-04 -1.454338e-02 3.518829e-02 -3.847010e-03 7.703649e-03 1.167449e-02 -1.399890e-02 1.091120e-02 -8.486175e-03 -4.215869e-02 1.092563e-02 -6.679114e-04 -2.256262e-02 -2.115105e-04
<VARIANCE> 39
 2.209598e+01 8.514490e+01 3.022776e+01 1.193349e+02 3.480193e+01 8.714272e+01 7.140895e+01 2.692920e+01 4.096266e+01 2.912041e+01 4.287404e+01 4.187205e+01 3.961111e-02 7.108979e-01 1.873725e+00 1.827549e+00 3.755275e+00 1.906795e+00 3.996546e+00 2.193587e+00 3.515501e+00 4.518799e+00 3.362318e+00 3.719840e+00 3.542122e+00 1.079479e-03 9.864853e-02 1.469756e-01 2.801300e-01 5.130774e-01 3.160414e-01 5.850493e-01 3.439967e-01 7.288765e-01 9.168508e-01 6.853489e-01 6.009814e-01 6.567871e-01 1.106309e-04
<GCONST> 9.934091e+01
<STATE> 5
<MEAN> 39
 -4.990156e-08 3.936679e-07 -2.245570e-07 8.316927e-07 7.208003e-08 -3.326771e-07 -2.883201e-07 -2.106955e-07 -7.208003e-08 2.772309e-07 -6.653542e-08 -7.208003e-08 6.351047e-01 1.724895e-01 -1.485736e-01 -5.383203e-02 7.618931e-02 -3.862639e-03 -8.247743e-02 1.760512e-01 -1.722710e-01 -9.648434e-02 1.013756e-02 -4.190628e-02 -1.006374e-01 -5.531631e-04 -1.454338e-02 3.518829e-02 -3.847010e-03 7.703649e-03 1.167449e-02 -1.399890e-02 1.091120e-02 -8.486175e-03 -4.215869e-02 1.092563e-02 -6.679114e-04 -2.256262e-02 -2.115105e-04
<VARIANCE> 39
 2.209598e+01 8.514490e+01 3.022776e+01 1.193349e+02 3.480193e+01 8.714272e+01 7.140895e+01 2.692920e+01 4.096266e+01 2.912041e+01 4.287404e+01 4.187205e+01 3.961111e-02 7.108979e-01 1.873725e+00 1.827549e+00 3.755275e+00 1.906795e+00 3.996546e+00 2.193587e+00 3.515501e+00 4.518799e+00 3.362318e+00 3.719840e+00 3.542122e+00 1.079479e-03 9.864853e-02 1.469756e-01 2.801300e-01 5.130774e-01 3.160414e-01 5.850493e-01 3.439967e-01 7.288765e-01 9.168508e-01 6.853489e-01 6.009814e-01 6.567871e-01 1.106309e-04
<GCONST> 9.934091e+01
<STATE> 6
<MEAN> 39
 -4.990156e-08 3.936679e-07 -2.245570e-07 8.316927e-07 7.208003e-08 -3.326771e-07 -2.883201e-07 -2.106955e-07 -7.208003e-08 2.772309e-07 -6.653542e-08 -7.208003e-08 6.351047e-01 1.724895e-01 -1.485736e-01 -5.383203e-02 7.618931e-02 -3.862639e-03 -8.247743e-02 1.760512e-01 -1.722710e-01 -9.648434e-02 1.013756e-02 -4.190628e-02 -1.006374e-01 -5.531631e-04 -1.454338e-02 3.518829e-02 -3.847010e-03 7.703649e-03 1.167449e-02 -1.399890e-02 1.091120e-02 -8.486175e-03 -4.215869e-02 1.092563e-02 -6.679114e-04 -2.256262e-02 -2.115105e-04
<VARIANCE> 39
 2.209598e+01 8.514490e+01 3.022776e+01 1.193349e+02 3.480193e+01 8.714272e+01 7.140895e+01 2.692920e+01 4.096266e+01 2.912041e+01 4.287404e+01 4.187205e+01 3.961111e-02 7.108979e-01 1.873725e+00 1.827549e+00 3.755275e+00 1.906795e+00 3.996546e+00 2.193587e+00 3.515501e+00 4.518799e+00 3.362318e+00 3.719840e+00 3.542122e+00 1.079479e-03 9.864853e-02 1.469756e-01 2.801300e-01 5.130774e-01 3.160414e-01 5.850493e-01 3.439967e-01 7.288765e-01 9.168508e-01 6.853489e-01 6.009814e-01 6.567871e-01 1.106309e-04
<GCONST> 9.934091e+01
<STATE> 7
<MEAN> 39
 -4.990156e-08 3.936679e-07 -2.245570e-07 8.316927e-07 7.208003e-08 -3.326771e-07 -2.883201e-07 -2.106955e-07 -7.208003e-08 2.772309e-07 -6.653542e-08 -7.208003e-08 6.351047e-01 1.724895e-01 -1.485736e-01 -5.383203e-02 7.618931e-02 -3.862639e-03 -8.247743e-02 1.760512e-01 -1.722710e-01 -9.648434e-02 1.013756e-02 -4.190628e-02 -1.006374e-01 -5.531631e-04 -1.454338e-02 3.518829e-02 -3.847010e-03 7.703649e-03 1.167449e-02 -1.399890e-02 1.091120e-02 -8.486175e-03 -4.215869e-02 1.092563e-02 -6.679114e-04 -2.256262e-02 -2.115105e-04
<VARIANCE> 39
 2.209598e+01 8.514490e+01 3.022776e+01 1.193349e+02 3.480193e+01 8.714272e+01 7.140895e+01 2.692920e+01 4.096266e+01 2.912041e+01 4.287404e+01 4.187205e+01 3.961111e-02 7.108979e-01 1.873725e+00 1.827549e+00 3.755275e+00 1.906795e+00 3.996546e+00 2.193587e+00 3.515501e+00 4.518799e+00 3.362318e+00 3.719840e+00 3.542122e+00 1.079479e-03 9.864853e-02 1.469756e-01 2.801300e-01 5.130774e-01 3.160414e-01 5.850493e-01 3.439967e-01 7.288765e-01 9.168508e-01 6.853489e-01 6.009814e-01 6.567871e-01 1.106309e-04
<GCONST> 9.934091e+01
<STATE> 8
<MEAN> 39
 -4.990156e-08 3.936679e-07 -2.245570e-07 8.316927e-07 7.208003e-08 -3.326771e-07 -2.883201e-07 -2.106955e-07 -7.208003e-08 2.772309e-07 -6.653542e-08 -7.208003e-08 6.351047e-01 1.724895e-01 -1.485736e-01 -5.383203e-02 7.618931e-02 -3.862639e-03 -8.247743e-02 1.760512e-01 -1.722710e-01 -9.648434e-02 1.013756e-02 -4.190628e-02 -1.006374e-01 -5.531631e-04 -1.454338e-02 3.518829e-02 -3.847010e-03 7.703649e-03 1.167449e-02 -1.399890e-02 1.091120e-02 -8.486175e-03 -4.215869e-02 1.092563e-02 -6.679114e-04 -2.256262e-02 -2.115105e-04
<VARIANCE> 39
 2.209598e+01 8.514490e+01 3.022776e+01 1.193349e+02 3.480193e+01 8.714272e+01 7.140895e+01 2.692920e+01 4.096266e+01 2.912041e+01 4.287404e+01 4.187205e+01 3.961111e-02 7.108979e-01 1.873725e+00 1.827549e+00 3.755275e+00 1.906795e+00 3.996546e+00 2.193587e+00 3.515501e+00 4.518799e+00 3.362318e+00 3.719840e+00 3.542122e+00 1.079479e-03 9.864853e-02 1.469756e-01 2.801300e-01 5.130774e-01 3.160414e-01 5.850493e-01 3.439967e-01 7.288765e-01 9.168508e-01 6.853489e-01 6.009814e-01 6.567871e-01 1.106309e-04
<GCONST> 9.934091e+01
<STATE> 9
<MEAN> 39
 -4.990156e-08 3.936679e-07 -2.245570e-07 8.316927e-07 7.208003e-08 -3.326771e-07 -2.883201e-07 -2.106955e-07 -7.208003e-08 2.772309e-07 -6.653542e-08 -7.208003e-08 6.351047e-01 1.724895e-01 -1.485736e-01 -5.383203e-02 7.618931e-02 -3.862639e-03 -8.247743e-02 1.760512e-01 -1.722710e-01 -9.648434e-02 1.013756e-02 -4.190628e-02 -1.006374e-01 -5.531631e-04 -1.454338e-02 3.518829e-02 -3.847010e-03 7.703649e-03 1.167449e-02 -1.399890e-02 1.091120e-02 -8.486175e-03 -4.215869e-02 1.092563e-02 -6.679114e-04 -2.256262e-02 -2.115105e-04
<VARIANCE> 39
 2.209598e+01 8.514490e+01 3.022776e+01 1.193349e+02 3.480193e+01 8.714272e+01 7.140895e+01 2.692920e+01 4.096266e+01 2.912041e+01 4.287404e+01 4.187205e+01 3.961111e-02 7.108979e-01 1.873725e+00 1.827549e+00 3.755275e+00 1.906795e+00 3.996546e+00 2.193587e+00 3.515501e+00 4.518799e+00 3.362318e+00 3.719840e+00 3.542122e+00 1.079479e-03 9.864853e-02 1.469756e-01 2.801300e-01 5.130774e-01 3.160414e-01 5.850493e-01 3.439967e-01 7.288765e-01 9.168508e-01 6.853489e-01 6.009814e-01 6.567871e-01 1.106309e-04
<GCONST> 9.934091e+01
<TRANSP> 10
 0.000000e+00 1.000000e+00 0.000000e+00 0.000000e+00 0.000000e+00 0.000000e+00 0.000000e+00 0.000000e+00 0.000000e+00 0.000000e+00
 0.000000e+00 9.000000e-01 9.999999e-02 0.000000e+00 0.000000e+00 0.000000e+00 0.000000e+00 0.000000e+00 0.000000e+00 0.000000e+00
 0.000000e+00 0.000000e+00 9.000000e-01 9.999999e-02 0.000000e+00 0.000000e+00 0.000000e+00 0.000000e+00 0.000000e+00 0.000000e+00
 0.000000e+00 0.000000e+00 0.000000e+00 9.000000e-01 9.999999e-02 0.000000e+00 0.000000e+00 0.000000e+00 0.000000e+00 0.000000e+00
 0.000000e+00 0.000000e+00 0.000000e+00 0.000000e+00 9.000000e-01 9.999999e-02 0.000000e+00 0.000000e+00 0.000000e+00 0.000000e+00
 0.000000e+00 0.000000e+00 0.000000e+00 0.000000e+00 0.000000e+00 9.000000e-01 9.999999e-02 0.000000e+00 0.000000e+00 0.000000e+00
 0.000000e+00 0.000000e+00 0.000000e+00 0.000000e+00 0.000000e+00 0.000000e+00 9.000000e-01 9.999999e-02 0.000000e+00 0.000000e+00
 0.000000e+00 0.000000e+00 0.000000e+00 0.000000e+00 0.000000e+00 0.000000e+00 0.000000e+00 9.000000e-01 9.999999e-02 0.000000e+00
 0.000000e+00 0.000000e+00 0.000000e+00 0.000000e+00 0.000000e+00 0.000000e+00 0.000000e+00 0.000000e+00 9.000000e-01 9.999999e-02
 0.000000e+00 0.000000e+00 0.000000e+00 0.000000e+00 0.000000e+00 0.000000e+00 0.000000e+00 0.000000e+00 0.000000e+00 0.000000e+00
<ENDHMM>
