~o
<STREAMINFO> 1 39
<VECSIZE> 39<NULLD><MFCC_E_D_A_Z><DIAGC>
~h "s069"
<BEGINHMM>
<NUMSTATES> 10
<STATE> 2
<MEAN> 39
 2.630826e-07 -1.808693e-07 -5.035565e-08 -6.577064e-08 4.028452e-07 -1.973119e-07 1.068773e-07 -6.577064e-08 9.865597e-08 8.221330e-09 -1.315413e-07 -1.150986e-07 7.939637e-01 3.769758e-01 3.355872e-02 -1.138979e-01 3.708177e-02 -1.068968e-01 -8.278204e-02 8.976998e-02 -1.483329e-01 -2.261885e-01 -2.607779e-01 -4.955962e-03 -2.925849e-02 3.812071e-03 -6.021822e-02 -1.414433e-02 1.695156e-03 4.173282e-03 2.229559e-02 6.196892e-02 1.579801e-03 5.978813e-02 3.368342e-02 2.262383e-02 -8.224883e-03 2.242682e-02 -1.522473e-03
<VARIANCE> 39
 2.246206e+01 6.037801e+01 3.165847e+01 4.108564e+01 5.440714e+01 7.438964e+01 3.843906e+01 6.092490e+01 3.240870e+01 3.101759e+01 1.806042e+01 3.933282e+01 1.512398e-02 2.221094e+00 2.408995e+00 2.747693e+00 3.847221e+00 4.887437e+00 8.923944e+00 4.116474e+00 6.247255e+00 5.137113e+00 4.529161e+00 3.064046e+00 2.678173e+00 1.238111e-03 2.195131e-01 2.980936e-01 4.249633e-01 6.283727e-01 8.318544e-01 1.431542e+00 6.880931e-01 1.257832e+00 1.048889e+00 9.407204e-01 7.179475e-01 4.286817e-01 1.136107e-04
<GCONST> 1.067364e+02
<STATE> 3
<MEAN> 39
 2.630826e-07 -1.808693e-07 -5.035565e-08 -6.577064e-08 4.028452e-07 -1.973119e-07 1.068773e-07 -6.577064e-08 9.865597e-08 8.221330e-09 -1.315413e-07 -1.150986e-07 7.939637e-01 3.769758e-01 3.355872e-02 -1.138979e-01 3.708177e-02 -1.068968e-01 -8.278204e-02 8.976998e-02 -1.483329e-01 -2.261885e-01 -2.607779e-01 -4.955962e-03 -2.925849e-02 3.812071e-03 -6.021822e-02 -1.414433e-02 1.695156e-03 4.173282e-03 2.229559e-02 6.196892e-02 1.579801e-03 5.978813e-02 3.368342e-02 2.262383e-02 -8.224883e-03 2.242682e-02 -1.522473e-03
<VARIANCE> 39
 2.246206e+01 6.037801e+01 3.165847e+01 4.108564e+01 5.440714e+01 7.438964e+01 3.843906e+01 6.092490e+01 3.240870e+01 3.101759e+01 1.806042e+01 3.933282e+01 1.512398e-02 2.221094e+00 2.408995e+00 2.747693e+00 3.847221e+00 4.887437e+00 8.923944e+00 4.116474e+00 6.247255e+00 5.137113e+00 4.529161e+00 3.064046e+00 2.678173e+00 1.238111e-03 2.195131e-01 2.980936e-01 4.249633e-01 6.283727e-01 8.318544e-01 1.431542e+00 6.880931e-01 1.257832e+00 1.048889e+00 9.407204e-01 7.179475e-01 4.286817e-01 1.136107e-04
<GCONST> 1.067364e+02
<STATE> 4
<MEAN> 39
 2.630826e-07 -1.808693e-07 -5.035565e-08 -6.577064e-08 4.028452e-07 -1.973119e-07 1.068773e-07 -6.577064e-08 9.865597e-08 8.221330e-09 -1.315413e-07 -1.150986e-07 7.939637e-01 3.769758e-01 3.355872e-02 -1.138979e-01 3.708177e-02 -1.068968e-01 -8.278204e-02 8.976998e-02 -1.483329e-01 -2.261885e-01 -2.607779e-01 -4.955962e-03 -2.925849e-02 3.812071e-03 -6.021822e-02 -1.414433e-02 1.695156e-03 4.173282e-03 2.229559e-02 6.196892e-02 1.579801e-03 5.978813e-02 3.368342e-02 2.262383e-02 -8.224883e-03 2.242682e-02 -1.522473e-03
<VARIANCE> 39
 2.246206e+01 6.037801e+01 3.165847e+01 4.108564e+01 5.440714e+01 7.438964e+01 3.843906e+01 6.092490e+01 3.240870e+01 3.101759e+01 1.806042e+01 3.933282e+01 1.512398e-02 2.221094e+00 2.408995e+00 2.747693e+00 3.847221e+00 4.887437e+00 8.923944e+00 4.116474e+00 6.247255e+00 5.137113e+00 4.529161e+00 3.064046e+00 2.678173e+00 1.238111e-03 2.195131e-01 2.980936e-01 4.249633e-01 6.283727e-01 8.318544e-01 1.431542e+00 6.880931e-01 1.257832e+00 1.048889e+00 9.407204e-01 7.179475e-01 4.286817e-01 1.136107e-04
<GCONST> 1.067364e+02
<STATE> 5
<MEAN> 39
 2.630826e-07 -1.808693e-07 -5.035565e-08 -6.577064e-08 4.028452e-07 -1.973119e-07 1.068773e-07 -6.577064e-08 9.865597e-08 8.221330e-09 -1.315413e-07 -1.150986e-07 7.939637e-01 3.769758e-01 3.355872e-02 -1.138979e-01 3.708177e-02 -1.068968e-01 -8.278204e-02 8.976998e-02 -1.483329e-01 -2.261885e-01 -2.607779e-01 -4.955962e-03 -2.925849e-02 3.812071e-03 -6.021822e-02 -1.414433e-02 1.695156e-03 4.173282e-03 2.229559e-02 6.196892e-02 1.579801e-03 5.978813e-02 3.368342e-02 2.262383e-02 -8.224883e-03 2.242682e-02 -1.522473e-03
<VARIANCE> 39
 2.246206e+01 6.037801e+01 3.165847e+01 4.108564e+01 5.440714e+01 7.438964e+01 3.843906e+01 6.092490e+01 3.240870e+01 3.101759e+01 1.806042e+01 3.933282e+01 1.512398e-02 2.221094e+00 2.408995e+00 2.747693e+00 3.847221e+00 4.887437e+00 8.923944e+00 4.116474e+00 6.247255e+00 5.137113e+00 4.529161e+00 3.064046e+00 2.678173e+00 1.238111e-03 2.195131e-01 2.980936e-01 4.249633e-01 6.283727e-01 8.318544e-01 1.431542e+00 6.880931e-01 1.257832e+00 1.048889e+00 9.407204e-01 7.179475e-01 4.286817e-01 1.136107e-04
<GCONST> 1.067364e+02
<STATE> 6
<MEAN> 39
 2.630826e-07 -1.808693e-07 -5.035565e-08 -6.577064e-08 4.028452e-07 -1.973119e-07 1.068773e-07 -6.577064e-08 9.865597e-08 8.221330e-09 -1.315413e-07 -1.150986e-07 7.939637e-01 3.769758e-01 3.355872e-02 -1.138979e-01 3.708177e-02 -1.068968e-01 -8.278204e-02 8.976998e-02 -1.483329e-01 -2.261885e-01 -2.607779e-01 -4.955962e-03 -2.925849e-02 3.812071e-03 -6.021822e-02 -1.414433e-02 1.695156e-03 4.173282e-03 2.229559e-02 6.196892e-02 1.579801e-03 5.978813e-02 3.368342e-02 2.262383e-02 -8.224883e-03 2.242682e-02 -1.522473e-03
<VARIANCE> 39
 2.246206e+01 6.037801e+01 3.165847e+01 4.108564e+01 5.440714e+01 7.438964e+01 3.843906e+01 6.092490e+01 3.240870e+01 3.101759e+01 1.806042e+01 3.933282e+01 1.512398e-02 2.221094e+00 2.408995e+00 2.747693e+00 3.847221e+00 4.887437e+00 8.923944e+00 4.116474e+00 6.247255e+00 5.137113e+00 4.529161e+00 3.064046e+00 2.678173e+00 1.238111e-03 2.195131e-01 2.980936e-01 4.249633e-01 6.283727e-01 8.318544e-01 1.431542e+00 6.880931e-01 1.257832e+00 1.048889e+00 9.407204e-01 7.179475e-01 4.286817e-01 1.136107e-04
<GCONST> 1.067364e+02
<STATE> 7
<MEAN> 39
 2.630826e-07 -1.808693e-07 -5.035565e-08 -6.577064e-08 4.028452e-07 -1.973119e-07 1.068773e-07 -6.577064e-08 9.865597e-08 8.221330e-09 -1.315413e-07 -1.150986e-07 7.939637e-01 3.769758e-01 3.355872e-02 -1.138979e-01 3.708177e-02 -1.068968e-01 -8.278204e-02 8.976998e-02 -1.483329e-01 -2.261885e-01 -2.607779e-01 -4.955962e-03 -2.925849e-02 3.812071e-03 -6.021822e-02 -1.414433e-02 1.695156e-03 4.173282e-03 2.229559e-02 6.196892e-02 1.579801e-03 5.978813e-02 3.368342e-02 2.262383e-02 -8.224883e-03 2.242682e-02 -1.522473e-03
<VARIANCE> 39
 2.246206e+01 6.037801e+01 3.165847e+01 4.108564e+01 5.440714e+01 7.438964e+01 3.843906e+01 6.092490e+01 3.240870e+01 3.101759e+01 1.806042e+01 3.933282e+01 1.512398e-02 2.221094e+00 2.408995e+00 2.747693e+00 3.847221e+00 4.887437e+00 8.923944e+00 4.116474e+00 6.247255e+00 5.137113e+00 4.529161e+00 3.064046e+00 2.678173e+00 1.238111e-03 2.195131e-01 2.980936e-01 4.249633e-01 6.283727e-01 8.318544e-01 1.431542e+00 6.880931e-01 1.257832e+00 1.048889e+00 9.407204e-01 7.179475e-01 4.286817e-01 1.136107e-04
<GCONST> 1.067364e+02
<STATE> 8
<MEAN> 39
 2.630826e-07 -1.808693e-07 -5.035565e-08 -6.577064e-08 4.028452e-07 -1.973119e-07 1.068773e-07 -6.577064e-08 9.865597e-08 8.221330e-09 -1.315413e-07 -1.150986e-07 7.939637e-01 3.769758e-01 3.355872e-02 -1.138979e-01 3.708177e-02 -1.068968e-01 -8.278204e-02 8.976998e-02 -1.483329e-01 -2.261885e-01 -2.607779e-01 -4.955962e-03 -2.925849e-02 3.812071e-03 -6.021822e-02 -1.414433e-02 1.695156e-03 4.173282e-03 2.229559e-02 6.196892e-02 1.579801e-03 5.978813e-02 3.368342e-02 2.262383e-02 -8.224883e-03 2.242682e-02 -1.522473e-03
<VARIANCE> 39
 2.246206e+01 6.037801e+01 3.165847e+01 4.108564e+01 5.440714e+01 7.438964e+01 3.843906e+01 6.092490e+01 3.240870e+01 3.101759e+01 1.806042e+01 3.933282e+01 1.512398e-02 2.221094e+00 2.408995e+00 2.747693e+00 3.847221e+00 4.887437e+00 8.923944e+00 4.116474e+00 6.247255e+00 5.137113e+00 4.529161e+00 3.064046e+00 2.678173e+00 1.238111e-03 2.195131e-01 2.980936e-01 4.249633e-01 6.283727e-01 8.318544e-01 1.431542e+00 6.880931e-01 1.257832e+00 1.048889e+00 9.407204e-01 7.179475e-01 4.286817e-01 1.136107e-04
<GCONST> 1.067364e+02
<STATE> 9
<MEAN> 39
 2.630826e-07 -1.808693e-07 -5.035565e-08 -6.577064e-08 4.028452e-07 -1.973119e-07 1.068773e-07 -6.577064e-08 9.865597e-08 8.221330e-09 -1.315413e-07 -1.150986e-07 7.939637e-01 3.769758e-01 3.355872e-02 -1.138979e-01 3.708177e-02 -1.068968e-01 -8.278204e-02 8.976998e-02 -1.483329e-01 -2.261885e-01 -2.607779e-01 -4.955962e-03 -2.925849e-02 3.812071e-03 -6.021822e-02 -1.414433e-02 1.695156e-03 4.173282e-03 2.229559e-02 6.196892e-02 1.579801e-03 5.978813e-02 3.368342e-02 2.262383e-02 -8.224883e-03 2.242682e-02 -1.522473e-03
<VARIANCE> 39
 2.246206e+01 6.037801e+01 3.165847e+01 4.108564e+01 5.440714e+01 7.438964e+01 3.843906e+01 6.092490e+01 3.240870e+01 3.101759e+01 1.806042e+01 3.933282e+01 1.512398e-02 2.221094e+00 2.408995e+00 2.747693e+00 3.847221e+00 4.887437e+00 8.923944e+00 4.116474e+00 6.247255e+00 5.137113e+00 4.529161e+00 3.064046e+00 2.678173e+00 1.238111e-03 2.195131e-01 2.980936e-01 4.249633e-01 6.283727e-01 8.318544e-01 1.431542e+00 6.880931e-01 1.257832e+00 1.048889e+00 9.407204e-01 7.179475e-01 4.286817e-01 1.136107e-04
<GCONST> 1.067364e+02
<TRANSP> 10
 0.000000e+00 1.000000e+00 0.000000e+00 0.000000e+00 0.000000e+00 0.000000e+00 0.000000e+00 0.000000e+00 0.000000e+00 0.000000e+00
 0.000000e+00 9.000000e-01 9.999999e-02 0.000000e+00 0.000000e+00 0.000000e+00 0.000000e+00 0.000000e+00 0.000000e+00 0.000000e+00
 0.000000e+00 0.000000e+00 9.000000e-01 9.999999e-02 0.000000e+00 0.000000e+00 0.000000e+00 0.000000e+00 0.000000e+00 0.000000e+00
 0.000000e+00 0.000000e+00 0.000000e+00 9.000000e-01 9.999999e-02 0.000000e+00 0.000000e+00 0.000000e+00 0.000000e+00 0.000000e+00
 0.000000e+00 0.000000e+00 0.000000e+00 0.000000e+00 9.000000e-01 9.999999e-02 0.000000e+00 0.000000e+00 0.000000e+00 0.000000e+00
 0.000000e+00 0.000000e+00 0.000000e+00 0.000000e+00 0.000000e+00 9.000000e-01 9.999999e-02 0.000000e+00 0.000000e+00 0.000000e+00
 0.000000e+00 0.000000e+00 0.000000e+00 0.000000e+00 0.000000e+00 0.000000e+00 9.000000e-01 9.999999e-02 0.000000e+00 0.000000e+00
 0.000000e+00 0.000000e+00 0.000000e+00 0.000000e+00 0.000000e+00 0.000000e+00 0.000000e+00 9.000000e-01 9.999999e-02 0.000000e+00
 0.000000e+00 0.000000e+00 0.000000e+00 0.000000e+00 0.000000e+00 0.000000e+00 0.000000e+00 0.000000e+00 9.000000e-01 9.999999e-02
 0.000000e+00 0.000000e+00 0.000000e+00 0.000000e+00 0.000000e+00 0.000000e+00 0.000000e+00 0.000000e+00 0.000000e+00 0.000000e+00
<ENDHMM>
