~o
<STREAMINFO> 1 39
<VECSIZE> 39<NULLD><MFCC_E_D_A_Z><DIAGC>
~h "s069"
<BEGINHMM>
<NUMSTATES> 10
<STATE> 2
<MEAN> 39
 1.315413e-07 -3.905132e-07 5.343865e-08 -2.630826e-07 -4.521732e-08 3.452959e-07 -1.973119e-07 0.000000e+00 4.932798e-08 4.932798e-08 -4.110665e-08 -3.617385e-07 7.939007e-01 3.732382e-01 2.873537e-02 -1.209623e-01 3.048359e-02 -1.119069e-01 -8.629563e-02 8.602405e-02 -1.456047e-01 -2.218937e-01 -2.589810e-01 -8.962955e-03 -3.464273e-02 3.819419e-03 -5.953956e-02 -1.259645e-02 3.343964e-03 5.353596e-03 2.286103e-02 6.183331e-02 1.026452e-03 5.719701e-02 3.273807e-02 2.148076e-02 -8.643883e-03 2.342523e-02 -1.543829e-03
<VARIANCE> 39
 2.225963e+01 6.050297e+01 3.168619e+01 4.165741e+01 5.468652e+01 7.430695e+01 3.820783e+01 6.119061e+01 3.209915e+01 3.061715e+01 1.804564e+01 3.896978e+01 1.509284e-02 2.194479e+00 2.430570e+00 2.752686e+00 3.893461e+00 4.929736e+00 8.895383e+00 4.136705e+00 6.317784e+00 5.103265e+00 4.450188e+00 3.114309e+00 2.634466e+00 1.244453e-03 2.181800e-01 2.979573e-01 4.246397e-01 6.358842e-01 8.407453e-01 1.418434e+00 6.962702e-01 1.275545e+00 1.045438e+00 9.198182e-01 7.320391e-01 4.174746e-01 1.138750e-04
<GCONST> 1.067259e+02
<STATE> 3
<MEAN> 39
 1.315413e-07 -3.905132e-07 5.343865e-08 -2.630826e-07 -4.521732e-08 3.452959e-07 -1.973119e-07 0.000000e+00 4.932798e-08 4.932798e-08 -4.110665e-08 -3.617385e-07 7.939007e-01 3.732382e-01 2.873537e-02 -1.209623e-01 3.048359e-02 -1.119069e-01 -8.629563e-02 8.602405e-02 -1.456047e-01 -2.218937e-01 -2.589810e-01 -8.962955e-03 -3.464273e-02 3.819419e-03 -5.953956e-02 -1.259645e-02 3.343964e-03 5.353596e-03 2.286103e-02 6.183331e-02 1.026452e-03 5.719701e-02 3.273807e-02 2.148076e-02 -8.643883e-03 2.342523e-02 -1.543829e-03
<VARIANCE> 39
 2.225963e+01 6.050297e+01 3.168619e+01 4.165741e+01 5.468652e+01 7.430695e+01 3.820783e+01 6.119061e+01 3.209915e+01 3.061715e+01 1.804564e+01 3.896978e+01 1.509284e-02 2.194479e+00 2.430570e+00 2.752686e+00 3.893461e+00 4.929736e+00 8.895383e+00 4.136705e+00 6.317784e+00 5.103265e+00 4.450188e+00 3.114309e+00 2.634466e+00 1.244453e-03 2.181800e-01 2.979573e-01 4.246397e-01 6.358842e-01 8.407453e-01 1.418434e+00 6.962702e-01 1.275545e+00 1.045438e+00 9.198182e-01 7.320391e-01 4.174746e-01 1.138750e-04
<GCONST> 1.067259e+02
<STATE> 4
<MEAN> 39
 1.315413e-07 -3.905132e-07 5.343865e-08 -2.630826e-07 -4.521732e-08 3.452959e-07 -1.973119e-07 0.000000e+00 4.932798e-08 4.932798e-08 -4.110665e-08 -3.617385e-07 7.939007e-01 3.732382e-01 2.873537e-02 -1.209623e-01 3.048359e-02 -1.119069e-01 -8.629563e-02 8.602405e-02 -1.456047e-01 -2.218937e-01 -2.589810e-01 -8.962955e-03 -3.464273e-02 3.819419e-03 -5.953956e-02 -1.259645e-02 3.343964e-03 5.353596e-03 2.286103e-02 6.183331e-02 1.026452e-03 5.719701e-02 3.273807e-02 2.148076e-02 -8.643883e-03 2.342523e-02 -1.543829e-03
<VARIANCE> 39
 2.225963e+01 6.050297e+01 3.168619e+01 4.165741e+01 5.468652e+01 7.430695e+01 3.820783e+01 6.119061e+01 3.209915e+01 3.061715e+01 1.804564e+01 3.896978e+01 1.509284e-02 2.194479e+00 2.430570e+00 2.752686e+00 3.893461e+00 4.929736e+00 8.895383e+00 4.136705e+00 6.317784e+00 5.103265e+00 4.450188e+00 3.114309e+00 2.634466e+00 1.244453e-03 2.181800e-01 2.979573e-01 4.246397e-01 6.358842e-01 8.407453e-01 1.418434e+00 6.962702e-01 1.275545e+00 1.045438e+00 9.198182e-01 7.320391e-01 4.174746e-01 1.138750e-04
<GCONST> 1.067259e+02
<STATE> 5
<MEAN> 39
 1.315413e-07 -3.905132e-07 5.343865e-08 -2.630826e-07 -4.521732e-08 3.452959e-07 -1.973119e-07 0.000000e+00 4.932798e-08 4.932798e-08 -4.110665e-08 -3.617385e-07 7.939007e-01 3.732382e-01 2.873537e-02 -1.209623e-01 3.048359e-02 -1.119069e-01 -8.629563e-02 8.602405e-02 -1.456047e-01 -2.218937e-01 -2.589810e-01 -8.962955e-03 -3.464273e-02 3.819419e-03 -5.953956e-02 -1.259645e-02 3.343964e-03 5.353596e-03 2.286103e-02 6.183331e-02 1.026452e-03 5.719701e-02 3.273807e-02 2.148076e-02 -8.643883e-03 2.342523e-02 -1.543829e-03
<VARIANCE> 39
 2.225963e+01 6.050297e+01 3.168619e+01 4.165741e+01 5.468652e+01 7.430695e+01 3.820783e+01 6.119061e+01 3.209915e+01 3.061715e+01 1.804564e+01 3.896978e+01 1.509284e-02 2.194479e+00 2.430570e+00 2.752686e+00 3.893461e+00 4.929736e+00 8.895383e+00 4.136705e+00 6.317784e+00 5.103265e+00 4.450188e+00 3.114309e+00 2.634466e+00 1.244453e-03 2.181800e-01 2.979573e-01 4.246397e-01 6.358842e-01 8.407453e-01 1.418434e+00 6.962702e-01 1.275545e+00 1.045438e+00 9.198182e-01 7.320391e-01 4.174746e-01 1.138750e-04
<GCONST> 1.067259e+02
<STATE> 6
<MEAN> 39
 1.315413e-07 -3.905132e-07 5.343865e-08 -2.630826e-07 -4.521732e-08 3.452959e-07 -1.973119e-07 0.000000e+00 4.932798e-08 4.932798e-08 -4.110665e-08 -3.617385e-07 7.939007e-01 3.732382e-01 2.873537e-02 -1.209623e-01 3.048359e-02 -1.119069e-01 -8.629563e-02 8.602405e-02 -1.456047e-01 -2.218937e-01 -2.589810e-01 -8.962955e-03 -3.464273e-02 3.819419e-03 -5.953956e-02 -1.259645e-02 3.343964e-03 5.353596e-03 2.286103e-02 6.183331e-02 1.026452e-03 5.719701e-02 3.273807e-02 2.148076e-02 -8.643883e-03 2.342523e-02 -1.543829e-03
<VARIANCE> 39
 2.225963e+01 6.050297e+01 3.168619e+01 4.165741e+01 5.468652e+01 7.430695e+01 3.820783e+01 6.119061e+01 3.209915e+01 3.061715e+01 1.804564e+01 3.896978e+01 1.509284e-02 2.194479e+00 2.430570e+00 2.752686e+00 3.893461e+00 4.929736e+00 8.895383e+00 4.136705e+00 6.317784e+00 5.103265e+00 4.450188e+00 3.114309e+00 2.634466e+00 1.244453e-03 2.181800e-01 2.979573e-01 4.246397e-01 6.358842e-01 8.407453e-01 1.418434e+00 6.962702e-01 1.275545e+00 1.045438e+00 9.198182e-01 7.320391e-01 4.174746e-01 1.138750e-04
<GCONST> 1.067259e+02
<STATE> 7
<MEAN> 39
 1.315413e-07 -3.905132e-07 5.343865e-08 -2.630826e-07 -4.521732e-08 3.452959e-07 -1.973119e-07 0.000000e+00 4.932798e-08 4.932798e-08 -4.110665e-08 -3.617385e-07 7.939007e-01 3.732382e-01 2.873537e-02 -1.209623e-01 3.048359e-02 -1.119069e-01 -8.629563e-02 8.602405e-02 -1.456047e-01 -2.218937e-01 -2.589810e-01 -8.962955e-03 -3.464273e-02 3.819419e-03 -5.953956e-02 -1.259645e-02 3.343964e-03 5.353596e-03 2.286103e-02 6.183331e-02 1.026452e-03 5.719701e-02 3.273807e-02 2.148076e-02 -8.643883e-03 2.342523e-02 -1.543829e-03
<VARIANCE> 39
 2.225963e+01 6.050297e+01 3.168619e+01 4.165741e+01 5.468652e+01 7.430695e+01 3.820783e+01 6.119061e+01 3.209915e+01 3.061715e+01 1.804564e+01 3.896978e+01 1.509284e-02 2.194479e+00 2.430570e+00 2.752686e+00 3.893461e+00 4.929736e+00 8.895383e+00 4.136705e+00 6.317784e+00 5.103265e+00 4.450188e+00 3.114309e+00 2.634466e+00 1.244453e-03 2.181800e-01 2.979573e-01 4.246397e-01 6.358842e-01 8.407453e-01 1.418434e+00 6.962702e-01 1.275545e+00 1.045438e+00 9.198182e-01 7.320391e-01 4.174746e-01 1.138750e-04
<GCONST> 1.067259e+02
<STATE> 8
<MEAN> 39
 1.315413e-07 -3.905132e-07 5.343865e-08 -2.630826e-07 -4.521732e-08 3.452959e-07 -1.973119e-07 0.000000e+00 4.932798e-08 4.932798e-08 -4.110665e-08 -3.617385e-07 7.939007e-01 3.732382e-01 2.873537e-02 -1.209623e-01 3.048359e-02 -1.119069e-01 -8.629563e-02 8.602405e-02 -1.456047e-01 -2.218937e-01 -2.589810e-01 -8.962955e-03 -3.464273e-02 3.819419e-03 -5.953956e-02 -1.259645e-02 3.343964e-03 5.353596e-03 2.286103e-02 6.183331e-02 1.026452e-03 5.719701e-02 3.273807e-02 2.148076e-02 -8.643883e-03 2.342523e-02 -1.543829e-03
<VARIANCE> 39
 2.225963e+01 6.050297e+01 3.168619e+01 4.165741e+01 5.468652e+01 7.430695e+01 3.820783e+01 6.119061e+01 3.209915e+01 3.061715e+01 1.804564e+01 3.896978e+01 1.509284e-02 2.194479e+00 2.430570e+00 2.752686e+00 3.893461e+00 4.929736e+00 8.895383e+00 4.136705e+00 6.317784e+00 5.103265e+00 4.450188e+00 3.114309e+00 2.634466e+00 1.244453e-03 2.181800e-01 2.979573e-01 4.246397e-01 6.358842e-01 8.407453e-01 1.418434e+00 6.962702e-01 1.275545e+00 1.045438e+00 9.198182e-01 7.320391e-01 4.174746e-01 1.138750e-04
<GCONST> 1.067259e+02
<STATE> 9
<MEAN> 39
 1.315413e-07 -3.905132e-07 5.343865e-08 -2.630826e-07 -4.521732e-08 3.452959e-07 -1.973119e-07 0.000000e+00 4.932798e-08 4.932798e-08 -4.110665e-08 -3.617385e-07 7.939007e-01 3.732382e-01 2.873537e-02 -1.209623e-01 3.048359e-02 -1.119069e-01 -8.629563e-02 8.602405e-02 -1.456047e-01 -2.218937e-01 -2.589810e-01 -8.962955e-03 -3.464273e-02 3.819419e-03 -5.953956e-02 -1.259645e-02 3.343964e-03 5.353596e-03 2.286103e-02 6.183331e-02 1.026452e-03 5.719701e-02 3.273807e-02 2.148076e-02 -8.643883e-03 2.342523e-02 -1.543829e-03
<VARIANCE> 39
 2.225963e+01 6.050297e+01 3.168619e+01 4.165741e+01 5.468652e+01 7.430695e+01 3.820783e+01 6.119061e+01 3.209915e+01 3.061715e+01 1.804564e+01 3.896978e+01 1.509284e-02 2.194479e+00 2.430570e+00 2.752686e+00 3.893461e+00 4.929736e+00 8.895383e+00 4.136705e+00 6.317784e+00 5.103265e+00 4.450188e+00 3.114309e+00 2.634466e+00 1.244453e-03 2.181800e-01 2.979573e-01 4.246397e-01 6.358842e-01 8.407453e-01 1.418434e+00 6.962702e-01 1.275545e+00 1.045438e+00 9.198182e-01 7.320391e-01 4.174746e-01 1.138750e-04
<GCONST> 1.067259e+02
<TRANSP> 10
 0.000000e+00 1.000000e+00 0.000000e+00 0.000000e+00 0.000000e+00 0.000000e+00 0.000000e+00 0.000000e+00 0.000000e+00 0.000000e+00
 0.000000e+00 9.000000e-01 9.999999e-02 0.000000e+00 0.000000e+00 0.000000e+00 0.000000e+00 0.000000e+00 0.000000e+00 0.000000e+00
 0.000000e+00 0.000000e+00 9.000000e-01 9.999999e-02 0.000000e+00 0.000000e+00 0.000000e+00 0.000000e+00 0.000000e+00 0.000000e+00
 0.000000e+00 0.000000e+00 0.000000e+00 9.000000e-01 9.999999e-02 0.000000e+00 0.000000e+00 0.000000e+00 0.000000e+00 0.000000e+00
 0.000000e+00 0.000000e+00 0.000000e+00 0.000000e+00 9.000000e-01 9.999999e-02 0.000000e+00 0.000000e+00 0.000000e+00 0.000000e+00
 0.000000e+00 0.000000e+00 0.000000e+00 0.000000e+00 0.000000e+00 9.000000e-01 9.999999e-02 0.000000e+00 0.000000e+00 0.000000e+00
 0.000000e+00 0.000000e+00 0.000000e+00 0.000000e+00 0.000000e+00 0.000000e+00 9.000000e-01 9.999999e-02 0.000000e+00 0.000000e+00
 0.000000e+00 0.000000e+00 0.000000e+00 0.000000e+00 0.000000e+00 0.000000e+00 0.000000e+00 9.000000e-01 9.999999e-02 0.000000e+00
 0.000000e+00 0.000000e+00 0.000000e+00 0.000000e+00 0.000000e+00 0.000000e+00 0.000000e+00 0.000000e+00 9.000000e-01 9.999999e-02
 0.000000e+00 0.000000e+00 0.000000e+00 0.000000e+00 0.000000e+00 0.000000e+00 0.000000e+00 0.000000e+00 0.000000e+00 0.000000e+00
<ENDHMM>
