~o
<STREAMINFO> 1 39
<VECSIZE> 39<NULLD><MFCC_E_D_A_Z><DIAGC>
~h "s069"
<BEGINHMM>
<NUMSTATES> 10
<STATE> 2
<MEAN> 39
 -2.157949e-07 9.745577e-08 -2.088338e-08 2.401589e-07 2.157949e-07 -8.214129e-07 -2.923673e-07 -1.183392e-07 -1.322614e-07 -1.165989e-07 6.395535e-08 4.211481e-07 4.863492e-01 -6.063690e-03 -2.096061e-02 -8.094959e-02 -4.466777e-02 3.945064e-02 -9.687671e-03 5.052255e-03 -5.364469e-02 -1.600987e-02 -2.226568e-02 -5.545999e-02 -4.841489e-03 -1.801438e-04 -1.130862e-02 -1.828790e-03 -1.210337e-02 7.112982e-03 4.323819e-02 -1.845145e-02 1.547235e-02 -2.221041e-02 -1.525706e-02 -5.138963e-03 2.139056e-02 2.012645e-02 -1.550108e-04
<VARIANCE> 39
 1.388105e+01 4.203934e+01 2.023142e+01 1.263854e+02 4.480953e+01 1.140834e+02 8.142789e+01 4.720467e+01 2.991008e+01 2.499277e+01 2.412438e+01 4.474976e+01 7.960953e-02 1.167677e+00 1.433907e+00 1.888883e+00 3.712813e+00 2.872916e+00 5.485121e+00 3.278259e+00 4.207184e+00 3.409458e+00 3.570502e+00 2.618911e+00 2.323382e+00 1.032812e-03 1.993763e-01 2.098858e-01 3.078803e-01 6.942954e-01 4.989920e-01 9.379476e-01 5.581496e-01 8.224698e-01 7.457075e-01 8.793766e-01 5.730187e-01 4.097902e-01 1.153307e-04
<GCONST> 1.018381e+02
<STATE> 3
<MEAN> 39
 -2.157949e-07 9.745577e-08 -2.088338e-08 2.401589e-07 2.157949e-07 -8.214129e-07 -2.923673e-07 -1.183392e-07 -1.322614e-07 -1.165989e-07 6.395535e-08 4.211481e-07 4.863492e-01 -6.063690e-03 -2.096061e-02 -8.094959e-02 -4.466777e-02 3.945064e-02 -9.687671e-03 5.052255e-03 -5.364469e-02 -1.600987e-02 -2.226568e-02 -5.545999e-02 -4.841489e-03 -1.801438e-04 -1.130862e-02 -1.828790e-03 -1.210337e-02 7.112982e-03 4.323819e-02 -1.845145e-02 1.547235e-02 -2.221041e-02 -1.525706e-02 -5.138963e-03 2.139056e-02 2.012645e-02 -1.550108e-04
<VARIANCE> 39
 1.388105e+01 4.203934e+01 2.023142e+01 1.263854e+02 4.480953e+01 1.140834e+02 8.142789e+01 4.720467e+01 2.991008e+01 2.499277e+01 2.412438e+01 4.474976e+01 7.960953e-02 1.167677e+00 1.433907e+00 1.888883e+00 3.712813e+00 2.872916e+00 5.485121e+00 3.278259e+00 4.207184e+00 3.409458e+00 3.570502e+00 2.618911e+00 2.323382e+00 1.032812e-03 1.993763e-01 2.098858e-01 3.078803e-01 6.942954e-01 4.989920e-01 9.379476e-01 5.581496e-01 8.224698e-01 7.457075e-01 8.793766e-01 5.730187e-01 4.097902e-01 1.153307e-04
<GCONST> 1.018381e+02
<STATE> 4
<MEAN> 39
 -2.157949e-07 9.745577e-08 -2.088338e-08 2.401589e-07 2.157949e-07 -8.214129e-07 -2.923673e-07 -1.183392e-07 -1.322614e-07 -1.165989e-07 6.395535e-08 4.211481e-07 4.863492e-01 -6.063690e-03 -2.096061e-02 -8.094959e-02 -4.466777e-02 3.945064e-02 -9.687671e-03 5.052255e-03 -5.364469e-02 -1.600987e-02 -2.226568e-02 -5.545999e-02 -4.841489e-03 -1.801438e-04 -1.130862e-02 -1.828790e-03 -1.210337e-02 7.112982e-03 4.323819e-02 -1.845145e-02 1.547235e-02 -2.221041e-02 -1.525706e-02 -5.138963e-03 2.139056e-02 2.012645e-02 -1.550108e-04
<VARIANCE> 39
 1.388105e+01 4.203934e+01 2.023142e+01 1.263854e+02 4.480953e+01 1.140834e+02 8.142789e+01 4.720467e+01 2.991008e+01 2.499277e+01 2.412438e+01 4.474976e+01 7.960953e-02 1.167677e+00 1.433907e+00 1.888883e+00 3.712813e+00 2.872916e+00 5.485121e+00 3.278259e+00 4.207184e+00 3.409458e+00 3.570502e+00 2.618911e+00 2.323382e+00 1.032812e-03 1.993763e-01 2.098858e-01 3.078803e-01 6.942954e-01 4.989920e-01 9.379476e-01 5.581496e-01 8.224698e-01 7.457075e-01 8.793766e-01 5.730187e-01 4.097902e-01 1.153307e-04
<GCONST> 1.018381e+02
<STATE> 5
<MEAN> 39
 -2.157949e-07 9.745577e-08 -2.088338e-08 2.401589e-07 2.157949e-07 -8.214129e-07 -2.923673e-07 -1.183392e-07 -1.322614e-07 -1.165989e-07 6.395535e-08 4.211481e-07 4.863492e-01 -6.063690e-03 -2.096061e-02 -8.094959e-02 -4.466777e-02 3.945064e-02 -9.687671e-03 5.052255e-03 -5.364469e-02 -1.600987e-02 -2.226568e-02 -5.545999e-02 -4.841489e-03 -1.801438e-04 -1.130862e-02 -1.828790e-03 -1.210337e-02 7.112982e-03 4.323819e-02 -1.845145e-02 1.547235e-02 -2.221041e-02 -1.525706e-02 -5.138963e-03 2.139056e-02 2.012645e-02 -1.550108e-04
<VARIANCE> 39
 1.388105e+01 4.203934e+01 2.023142e+01 1.263854e+02 4.480953e+01 1.140834e+02 8.142789e+01 4.720467e+01 2.991008e+01 2.499277e+01 2.412438e+01 4.474976e+01 7.960953e-02 1.167677e+00 1.433907e+00 1.888883e+00 3.712813e+00 2.872916e+00 5.485121e+00 3.278259e+00 4.207184e+00 3.409458e+00 3.570502e+00 2.618911e+00 2.323382e+00 1.032812e-03 1.993763e-01 2.098858e-01 3.078803e-01 6.942954e-01 4.989920e-01 9.379476e-01 5.581496e-01 8.224698e-01 7.457075e-01 8.793766e-01 5.730187e-01 4.097902e-01 1.153307e-04
<GCONST> 1.018381e+02
<STATE> 6
<MEAN> 39
 -2.157949e-07 9.745577e-08 -2.088338e-08 2.401589e-07 2.157949e-07 -8.214129e-07 -2.923673e-07 -1.183392e-07 -1.322614e-07 -1.165989e-07 6.395535e-08 4.211481e-07 4.863492e-01 -6.063690e-03 -2.096061e-02 -8.094959e-02 -4.466777e-02 3.945064e-02 -9.687671e-03 5.052255e-03 -5.364469e-02 -1.600987e-02 -2.226568e-02 -5.545999e-02 -4.841489e-03 -1.801438e-04 -1.130862e-02 -1.828790e-03 -1.210337e-02 7.112982e-03 4.323819e-02 -1.845145e-02 1.547235e-02 -2.221041e-02 -1.525706e-02 -5.138963e-03 2.139056e-02 2.012645e-02 -1.550108e-04
<VARIANCE> 39
 1.388105e+01 4.203934e+01 2.023142e+01 1.263854e+02 4.480953e+01 1.140834e+02 8.142789e+01 4.720467e+01 2.991008e+01 2.499277e+01 2.412438e+01 4.474976e+01 7.960953e-02 1.167677e+00 1.433907e+00 1.888883e+00 3.712813e+00 2.872916e+00 5.485121e+00 3.278259e+00 4.207184e+00 3.409458e+00 3.570502e+00 2.618911e+00 2.323382e+00 1.032812e-03 1.993763e-01 2.098858e-01 3.078803e-01 6.942954e-01 4.989920e-01 9.379476e-01 5.581496e-01 8.224698e-01 7.457075e-01 8.793766e-01 5.730187e-01 4.097902e-01 1.153307e-04
<GCONST> 1.018381e+02
<STATE> 7
<MEAN> 39
 -2.157949e-07 9.745577e-08 -2.088338e-08 2.401589e-07 2.157949e-07 -8.214129e-07 -2.923673e-07 -1.183392e-07 -1.322614e-07 -1.165989e-07 6.395535e-08 4.211481e-07 4.863492e-01 -6.063690e-03 -2.096061e-02 -8.094959e-02 -4.466777e-02 3.945064e-02 -9.687671e-03 5.052255e-03 -5.364469e-02 -1.600987e-02 -2.226568e-02 -5.545999e-02 -4.841489e-03 -1.801438e-04 -1.130862e-02 -1.828790e-03 -1.210337e-02 7.112982e-03 4.323819e-02 -1.845145e-02 1.547235e-02 -2.221041e-02 -1.525706e-02 -5.138963e-03 2.139056e-02 2.012645e-02 -1.550108e-04
<VARIANCE> 39
 1.388105e+01 4.203934e+01 2.023142e+01 1.263854e+02 4.480953e+01 1.140834e+02 8.142789e+01 4.720467e+01 2.991008e+01 2.499277e+01 2.412438e+01 4.474976e+01 7.960953e-02 1.167677e+00 1.433907e+00 1.888883e+00 3.712813e+00 2.872916e+00 5.485121e+00 3.278259e+00 4.207184e+00 3.409458e+00 3.570502e+00 2.618911e+00 2.323382e+00 1.032812e-03 1.993763e-01 2.098858e-01 3.078803e-01 6.942954e-01 4.989920e-01 9.379476e-01 5.581496e-01 8.224698e-01 7.457075e-01 8.793766e-01 5.730187e-01 4.097902e-01 1.153307e-04
<GCONST> 1.018381e+02
<STATE> 8
<MEAN> 39
 -2.157949e-07 9.745577e-08 -2.088338e-08 2.401589e-07 2.157949e-07 -8.214129e-07 -2.923673e-07 -1.183392e-07 -1.322614e-07 -1.165989e-07 6.395535e-08 4.211481e-07 4.863492e-01 -6.063690e-03 -2.096061e-02 -8.094959e-02 -4.466777e-02 3.945064e-02 -9.687671e-03 5.052255e-03 -5.364469e-02 -1.600987e-02 -2.226568e-02 -5.545999e-02 -4.841489e-03 -1.801438e-04 -1.130862e-02 -1.828790e-03 -1.210337e-02 7.112982e-03 4.323819e-02 -1.845145e-02 1.547235e-02 -2.221041e-02 -1.525706e-02 -5.138963e-03 2.139056e-02 2.012645e-02 -1.550108e-04
<VARIANCE> 39
 1.388105e+01 4.203934e+01 2.023142e+01 1.263854e+02 4.480953e+01 1.140834e+02 8.142789e+01 4.720467e+01 2.991008e+01 2.499277e+01 2.412438e+01 4.474976e+01 7.960953e-02 1.167677e+00 1.433907e+00 1.888883e+00 3.712813e+00 2.872916e+00 5.485121e+00 3.278259e+00 4.207184e+00 3.409458e+00 3.570502e+00 2.618911e+00 2.323382e+00 1.032812e-03 1.993763e-01 2.098858e-01 3.078803e-01 6.942954e-01 4.989920e-01 9.379476e-01 5.581496e-01 8.224698e-01 7.457075e-01 8.793766e-01 5.730187e-01 4.097902e-01 1.153307e-04
<GCONST> 1.018381e+02
<STATE> 9
<MEAN> 39
 -2.157949e-07 9.745577e-08 -2.088338e-08 2.401589e-07 2.157949e-07 -8.214129e-07 -2.923673e-07 -1.183392e-07 -1.322614e-07 -1.165989e-07 6.395535e-08 4.211481e-07 4.863492e-01 -6.063690e-03 -2.096061e-02 -8.094959e-02 -4.466777e-02 3.945064e-02 -9.687671e-03 5.052255e-03 -5.364469e-02 -1.600987e-02 -2.226568e-02 -5.545999e-02 -4.841489e-03 -1.801438e-04 -1.130862e-02 -1.828790e-03 -1.210337e-02 7.112982e-03 4.323819e-02 -1.845145e-02 1.547235e-02 -2.221041e-02 -1.525706e-02 -5.138963e-03 2.139056e-02 2.012645e-02 -1.550108e-04
<VARIANCE> 39
 1.388105e+01 4.203934e+01 2.023142e+01 1.263854e+02 4.480953e+01 1.140834e+02 8.142789e+01 4.720467e+01 2.991008e+01 2.499277e+01 2.412438e+01 4.474976e+01 7.960953e-02 1.167677e+00 1.433907e+00 1.888883e+00 3.712813e+00 2.872916e+00 5.485121e+00 3.278259e+00 4.207184e+00 3.409458e+00 3.570502e+00 2.618911e+00 2.323382e+00 1.032812e-03 1.993763e-01 2.098858e-01 3.078803e-01 6.942954e-01 4.989920e-01 9.379476e-01 5.581496e-01 8.224698e-01 7.457075e-01 8.793766e-01 5.730187e-01 4.097902e-01 1.153307e-04
<GCONST> 1.018381e+02
<TRANSP> 10
 0.000000e+00 1.000000e+00 0.000000e+00 0.000000e+00 0.000000e+00 0.000000e+00 0.000000e+00 0.000000e+00 0.000000e+00 0.000000e+00
 0.000000e+00 9.000000e-01 9.999999e-02 0.000000e+00 0.000000e+00 0.000000e+00 0.000000e+00 0.000000e+00 0.000000e+00 0.000000e+00
 0.000000e+00 0.000000e+00 9.000000e-01 9.999999e-02 0.000000e+00 0.000000e+00 0.000000e+00 0.000000e+00 0.000000e+00 0.000000e+00
 0.000000e+00 0.000000e+00 0.000000e+00 9.000000e-01 9.999999e-02 0.000000e+00 0.000000e+00 0.000000e+00 0.000000e+00 0.000000e+00
 0.000000e+00 0.000000e+00 0.000000e+00 0.000000e+00 9.000000e-01 9.999999e-02 0.000000e+00 0.000000e+00 0.000000e+00 0.000000e+00
 0.000000e+00 0.000000e+00 0.000000e+00 0.000000e+00 0.000000e+00 9.000000e-01 9.999999e-02 0.000000e+00 0.000000e+00 0.000000e+00
 0.000000e+00 0.000000e+00 0.000000e+00 0.000000e+00 0.000000e+00 0.000000e+00 9.000000e-01 9.999999e-02 0.000000e+00 0.000000e+00
 0.000000e+00 0.000000e+00 0.000000e+00 0.000000e+00 0.000000e+00 0.000000e+00 0.000000e+00 9.000000e-01 9.999999e-02 0.000000e+00
 0.000000e+00 0.000000e+00 0.000000e+00 0.000000e+00 0.000000e+00 0.000000e+00 0.000000e+00 0.000000e+00 9.000000e-01 9.999999e-02
 0.000000e+00 0.000000e+00 0.000000e+00 0.000000e+00 0.000000e+00 0.000000e+00 0.000000e+00 0.000000e+00 0.000000e+00 0.000000e+00
<ENDHMM>
