~o
<STREAMINFO> 1 39
<VECSIZE> 39<NULLD><MFCC_E_D_A_Z><DIAGC>
~h "s071"
<BEGINHMM>
<NUMSTATES> 10
<STATE> 2
<MEAN> 39
 1.946274e-08 5.352254e-07 -2.335529e-07 -4.865685e-07 -5.838822e-07 -5.449568e-07 -1.167764e-07 -1.946274e-08 2.530156e-07 -1.946274e-08 -1.946274e-08 1.411049e-07 8.404472e-01 5.098528e-02 -7.958074e-02 7.733976e-02 3.548068e-01 4.112443e-01 2.079781e-01 -5.498876e-02 -2.101354e-01 2.203819e-01 1.154800e-01 1.445017e-01 8.814506e-02 -9.614401e-03 3.824519e-02 -1.465629e-03 1.633103e-02 1.813341e-02 3.499215e-02 -2.816726e-02 1.565933e-03 -1.675010e-03 -6.691606e-02 -2.524837e-02 4.257953e-02 3.224212e-02 -2.082279e-04
<VARIANCE> 39
 1.408324e+01 3.373827e+01 2.708350e+01 9.536728e+01 8.029423e+01 2.917388e+01 5.104028e+01 3.737471e+01 2.457663e+01 5.707766e+01 4.135589e+01 2.378528e+01 2.339949e-02 1.090544e+00 1.503371e+00 1.419712e+00 1.511744e+00 2.389862e+00 2.786605e+00 3.225147e+00 2.755023e+00 1.895186e+00 3.120030e+00 4.050702e+00 1.751472e+00 4.863423e-04 1.852143e-01 2.394018e-01 2.026110e-01 2.292058e-01 4.907383e-01 5.038545e-01 5.425303e-01 4.578691e-01 2.960579e-01 4.282486e-01 6.515672e-01 2.858336e-01 7.008370e-05
<GCONST> 9.055173e+01
<STATE> 3
<MEAN> 39
 1.946274e-08 5.352254e-07 -2.335529e-07 -4.865685e-07 -5.838822e-07 -5.449568e-07 -1.167764e-07 -1.946274e-08 2.530156e-07 -1.946274e-08 -1.946274e-08 1.411049e-07 8.404472e-01 5.098528e-02 -7.958074e-02 7.733976e-02 3.548068e-01 4.112443e-01 2.079781e-01 -5.498876e-02 -2.101354e-01 2.203819e-01 1.154800e-01 1.445017e-01 8.814506e-02 -9.614401e-03 3.824519e-02 -1.465629e-03 1.633103e-02 1.813341e-02 3.499215e-02 -2.816726e-02 1.565933e-03 -1.675010e-03 -6.691606e-02 -2.524837e-02 4.257953e-02 3.224212e-02 -2.082279e-04
<VARIANCE> 39
 1.408324e+01 3.373827e+01 2.708350e+01 9.536728e+01 8.029423e+01 2.917388e+01 5.104028e+01 3.737471e+01 2.457663e+01 5.707766e+01 4.135589e+01 2.378528e+01 2.339949e-02 1.090544e+00 1.503371e+00 1.419712e+00 1.511744e+00 2.389862e+00 2.786605e+00 3.225147e+00 2.755023e+00 1.895186e+00 3.120030e+00 4.050702e+00 1.751472e+00 4.863423e-04 1.852143e-01 2.394018e-01 2.026110e-01 2.292058e-01 4.907383e-01 5.038545e-01 5.425303e-01 4.578691e-01 2.960579e-01 4.282486e-01 6.515672e-01 2.858336e-01 7.008370e-05
<GCONST> 9.055173e+01
<STATE> 4
<MEAN> 39
 1.946274e-08 5.352254e-07 -2.335529e-07 -4.865685e-07 -5.838822e-07 -5.449568e-07 -1.167764e-07 -1.946274e-08 2.530156e-07 -1.946274e-08 -1.946274e-08 1.411049e-07 8.404472e-01 5.098528e-02 -7.958074e-02 7.733976e-02 3.548068e-01 4.112443e-01 2.079781e-01 -5.498876e-02 -2.101354e-01 2.203819e-01 1.154800e-01 1.445017e-01 8.814506e-02 -9.614401e-03 3.824519e-02 -1.465629e-03 1.633103e-02 1.813341e-02 3.499215e-02 -2.816726e-02 1.565933e-03 -1.675010e-03 -6.691606e-02 -2.524837e-02 4.257953e-02 3.224212e-02 -2.082279e-04
<VARIANCE> 39
 1.408324e+01 3.373827e+01 2.708350e+01 9.536728e+01 8.029423e+01 2.917388e+01 5.104028e+01 3.737471e+01 2.457663e+01 5.707766e+01 4.135589e+01 2.378528e+01 2.339949e-02 1.090544e+00 1.503371e+00 1.419712e+00 1.511744e+00 2.389862e+00 2.786605e+00 3.225147e+00 2.755023e+00 1.895186e+00 3.120030e+00 4.050702e+00 1.751472e+00 4.863423e-04 1.852143e-01 2.394018e-01 2.026110e-01 2.292058e-01 4.907383e-01 5.038545e-01 5.425303e-01 4.578691e-01 2.960579e-01 4.282486e-01 6.515672e-01 2.858336e-01 7.008370e-05
<GCONST> 9.055173e+01
<STATE> 5
<MEAN> 39
 1.946274e-08 5.352254e-07 -2.335529e-07 -4.865685e-07 -5.838822e-07 -5.449568e-07 -1.167764e-07 -1.946274e-08 2.530156e-07 -1.946274e-08 -1.946274e-08 1.411049e-07 8.404472e-01 5.098528e-02 -7.958074e-02 7.733976e-02 3.548068e-01 4.112443e-01 2.079781e-01 -5.498876e-02 -2.101354e-01 2.203819e-01 1.154800e-01 1.445017e-01 8.814506e-02 -9.614401e-03 3.824519e-02 -1.465629e-03 1.633103e-02 1.813341e-02 3.499215e-02 -2.816726e-02 1.565933e-03 -1.675010e-03 -6.691606e-02 -2.524837e-02 4.257953e-02 3.224212e-02 -2.082279e-04
<VARIANCE> 39
 1.408324e+01 3.373827e+01 2.708350e+01 9.536728e+01 8.029423e+01 2.917388e+01 5.104028e+01 3.737471e+01 2.457663e+01 5.707766e+01 4.135589e+01 2.378528e+01 2.339949e-02 1.090544e+00 1.503371e+00 1.419712e+00 1.511744e+00 2.389862e+00 2.786605e+00 3.225147e+00 2.755023e+00 1.895186e+00 3.120030e+00 4.050702e+00 1.751472e+00 4.863423e-04 1.852143e-01 2.394018e-01 2.026110e-01 2.292058e-01 4.907383e-01 5.038545e-01 5.425303e-01 4.578691e-01 2.960579e-01 4.282486e-01 6.515672e-01 2.858336e-01 7.008370e-05
<GCONST> 9.055173e+01
<STATE> 6
<MEAN> 39
 1.946274e-08 5.352254e-07 -2.335529e-07 -4.865685e-07 -5.838822e-07 -5.449568e-07 -1.167764e-07 -1.946274e-08 2.530156e-07 -1.946274e-08 -1.946274e-08 1.411049e-07 8.404472e-01 5.098528e-02 -7.958074e-02 7.733976e-02 3.548068e-01 4.112443e-01 2.079781e-01 -5.498876e-02 -2.101354e-01 2.203819e-01 1.154800e-01 1.445017e-01 8.814506e-02 -9.614401e-03 3.824519e-02 -1.465629e-03 1.633103e-02 1.813341e-02 3.499215e-02 -2.816726e-02 1.565933e-03 -1.675010e-03 -6.691606e-02 -2.524837e-02 4.257953e-02 3.224212e-02 -2.082279e-04
<VARIANCE> 39
 1.408324e+01 3.373827e+01 2.708350e+01 9.536728e+01 8.029423e+01 2.917388e+01 5.104028e+01 3.737471e+01 2.457663e+01 5.707766e+01 4.135589e+01 2.378528e+01 2.339949e-02 1.090544e+00 1.503371e+00 1.419712e+00 1.511744e+00 2.389862e+00 2.786605e+00 3.225147e+00 2.755023e+00 1.895186e+00 3.120030e+00 4.050702e+00 1.751472e+00 4.863423e-04 1.852143e-01 2.394018e-01 2.026110e-01 2.292058e-01 4.907383e-01 5.038545e-01 5.425303e-01 4.578691e-01 2.960579e-01 4.282486e-01 6.515672e-01 2.858336e-01 7.008370e-05
<GCONST> 9.055173e+01
<STATE> 7
<MEAN> 39
 1.946274e-08 5.352254e-07 -2.335529e-07 -4.865685e-07 -5.838822e-07 -5.449568e-07 -1.167764e-07 -1.946274e-08 2.530156e-07 -1.946274e-08 -1.946274e-08 1.411049e-07 8.404472e-01 5.098528e-02 -7.958074e-02 7.733976e-02 3.548068e-01 4.112443e-01 2.079781e-01 -5.498876e-02 -2.101354e-01 2.203819e-01 1.154800e-01 1.445017e-01 8.814506e-02 -9.614401e-03 3.824519e-02 -1.465629e-03 1.633103e-02 1.813341e-02 3.499215e-02 -2.816726e-02 1.565933e-03 -1.675010e-03 -6.691606e-02 -2.524837e-02 4.257953e-02 3.224212e-02 -2.082279e-04
<VARIANCE> 39
 1.408324e+01 3.373827e+01 2.708350e+01 9.536728e+01 8.029423e+01 2.917388e+01 5.104028e+01 3.737471e+01 2.457663e+01 5.707766e+01 4.135589e+01 2.378528e+01 2.339949e-02 1.090544e+00 1.503371e+00 1.419712e+00 1.511744e+00 2.389862e+00 2.786605e+00 3.225147e+00 2.755023e+00 1.895186e+00 3.120030e+00 4.050702e+00 1.751472e+00 4.863423e-04 1.852143e-01 2.394018e-01 2.026110e-01 2.292058e-01 4.907383e-01 5.038545e-01 5.425303e-01 4.578691e-01 2.960579e-01 4.282486e-01 6.515672e-01 2.858336e-01 7.008370e-05
<GCONST> 9.055173e+01
<STATE> 8
<MEAN> 39
 1.946274e-08 5.352254e-07 -2.335529e-07 -4.865685e-07 -5.838822e-07 -5.449568e-07 -1.167764e-07 -1.946274e-08 2.530156e-07 -1.946274e-08 -1.946274e-08 1.411049e-07 8.404472e-01 5.098528e-02 -7.958074e-02 7.733976e-02 3.548068e-01 4.112443e-01 2.079781e-01 -5.498876e-02 -2.101354e-01 2.203819e-01 1.154800e-01 1.445017e-01 8.814506e-02 -9.614401e-03 3.824519e-02 -1.465629e-03 1.633103e-02 1.813341e-02 3.499215e-02 -2.816726e-02 1.565933e-03 -1.675010e-03 -6.691606e-02 -2.524837e-02 4.257953e-02 3.224212e-02 -2.082279e-04
<VARIANCE> 39
 1.408324e+01 3.373827e+01 2.708350e+01 9.536728e+01 8.029423e+01 2.917388e+01 5.104028e+01 3.737471e+01 2.457663e+01 5.707766e+01 4.135589e+01 2.378528e+01 2.339949e-02 1.090544e+00 1.503371e+00 1.419712e+00 1.511744e+00 2.389862e+00 2.786605e+00 3.225147e+00 2.755023e+00 1.895186e+00 3.120030e+00 4.050702e+00 1.751472e+00 4.863423e-04 1.852143e-01 2.394018e-01 2.026110e-01 2.292058e-01 4.907383e-01 5.038545e-01 5.425303e-01 4.578691e-01 2.960579e-01 4.282486e-01 6.515672e-01 2.858336e-01 7.008370e-05
<GCONST> 9.055173e+01
<STATE> 9
<MEAN> 39
 1.946274e-08 5.352254e-07 -2.335529e-07 -4.865685e-07 -5.838822e-07 -5.449568e-07 -1.167764e-07 -1.946274e-08 2.530156e-07 -1.946274e-08 -1.946274e-08 1.411049e-07 8.404472e-01 5.098528e-02 -7.958074e-02 7.733976e-02 3.548068e-01 4.112443e-01 2.079781e-01 -5.498876e-02 -2.101354e-01 2.203819e-01 1.154800e-01 1.445017e-01 8.814506e-02 -9.614401e-03 3.824519e-02 -1.465629e-03 1.633103e-02 1.813341e-02 3.499215e-02 -2.816726e-02 1.565933e-03 -1.675010e-03 -6.691606e-02 -2.524837e-02 4.257953e-02 3.224212e-02 -2.082279e-04
<VARIANCE> 39
 1.408324e+01 3.373827e+01 2.708350e+01 9.536728e+01 8.029423e+01 2.917388e+01 5.104028e+01 3.737471e+01 2.457663e+01 5.707766e+01 4.135589e+01 2.378528e+01 2.339949e-02 1.090544e+00 1.503371e+00 1.419712e+00 1.511744e+00 2.389862e+00 2.786605e+00 3.225147e+00 2.755023e+00 1.895186e+00 3.120030e+00 4.050702e+00 1.751472e+00 4.863423e-04 1.852143e-01 2.394018e-01 2.026110e-01 2.292058e-01 4.907383e-01 5.038545e-01 5.425303e-01 4.578691e-01 2.960579e-01 4.282486e-01 6.515672e-01 2.858336e-01 7.008370e-05
<GCONST> 9.055173e+01
<TRANSP> 10
 0.000000e+00 1.000000e+00 0.000000e+00 0.000000e+00 0.000000e+00 0.000000e+00 0.000000e+00 0.000000e+00 0.000000e+00 0.000000e+00
 0.000000e+00 9.000000e-01 9.999999e-02 0.000000e+00 0.000000e+00 0.000000e+00 0.000000e+00 0.000000e+00 0.000000e+00 0.000000e+00
 0.000000e+00 0.000000e+00 9.000000e-01 9.999999e-02 0.000000e+00 0.000000e+00 0.000000e+00 0.000000e+00 0.000000e+00 0.000000e+00
 0.000000e+00 0.000000e+00 0.000000e+00 9.000000e-01 9.999999e-02 0.000000e+00 0.000000e+00 0.000000e+00 0.000000e+00 0.000000e+00
 0.000000e+00 0.000000e+00 0.000000e+00 0.000000e+00 9.000000e-01 9.999999e-02 0.000000e+00 0.000000e+00 0.000000e+00 0.000000e+00
 0.000000e+00 0.000000e+00 0.000000e+00 0.000000e+00 0.000000e+00 9.000000e-01 9.999999e-02 0.000000e+00 0.000000e+00 0.000000e+00
 0.000000e+00 0.000000e+00 0.000000e+00 0.000000e+00 0.000000e+00 0.000000e+00 9.000000e-01 9.999999e-02 0.000000e+00 0.000000e+00
 0.000000e+00 0.000000e+00 0.000000e+00 0.000000e+00 0.000000e+00 0.000000e+00 0.000000e+00 9.000000e-01 9.999999e-02 0.000000e+00
 0.000000e+00 0.000000e+00 0.000000e+00 0.000000e+00 0.000000e+00 0.000000e+00 0.000000e+00 0.000000e+00 9.000000e-01 9.999999e-02
 0.000000e+00 0.000000e+00 0.000000e+00 0.000000e+00 0.000000e+00 0.000000e+00 0.000000e+00 0.000000e+00 0.000000e+00 0.000000e+00
<ENDHMM>
