~o
<STREAMINFO> 1 39
<VECSIZE> 39<NULLD><MFCC_E_D_A_Z><DIAGC>
~h "s071"
<BEGINHMM>
<NUMSTATES> 10
<STATE> 2
<MEAN> 39
 1.589457e-08 2.331204e-07 3.867679e-07 -1.419915e-06 4.238553e-07 -7.629395e-07 2.013312e-07 2.119276e-08 4.238553e-08 8.477105e-08 3.602770e-07 -3.867679e-07 8.729879e-01 5.630369e-02 -1.801558e-01 -1.636023e-02 4.543377e-01 5.864863e-01 2.639294e-02 -7.709461e-02 -2.096494e-01 2.588884e-01 1.897182e-01 1.070227e-01 6.438799e-02 -6.791505e-03 2.041584e-02 -2.924849e-02 -2.635366e-02 4.882113e-02 4.981541e-02 -8.585496e-03 -2.003665e-02 -2.536370e-03 1.596806e-03 1.062989e-03 1.978214e-02 7.387097e-03 -8.239200e-04
<VARIANCE> 39
 1.495052e+01 3.230673e+01 2.676812e+01 9.547859e+01 7.197727e+01 1.994573e+01 4.951287e+01 3.348909e+01 2.108430e+01 5.128862e+01 4.426809e+01 2.422813e+01 1.257752e-02 1.162833e+00 1.514471e+00 1.510099e+00 1.565060e+00 2.143318e+00 2.465338e+00 3.190961e+00 2.950684e+00 1.866466e+00 3.177998e+00 4.431887e+00 1.648724e+00 3.661083e-04 1.981896e-01 2.575372e-01 2.159908e-01 2.391684e-01 4.425948e-01 4.963651e-01 5.308645e-01 4.923767e-01 2.595432e-01 4.267339e-01 6.958696e-01 2.700606e-01 5.427329e-05
<GCONST> 8.867455e+01
<STATE> 3
<MEAN> 39
 1.589457e-08 2.331204e-07 3.867679e-07 -1.419915e-06 4.238553e-07 -7.629395e-07 2.013312e-07 2.119276e-08 4.238553e-08 8.477105e-08 3.602770e-07 -3.867679e-07 8.729879e-01 5.630369e-02 -1.801558e-01 -1.636023e-02 4.543377e-01 5.864863e-01 2.639294e-02 -7.709461e-02 -2.096494e-01 2.588884e-01 1.897182e-01 1.070227e-01 6.438799e-02 -6.791505e-03 2.041584e-02 -2.924849e-02 -2.635366e-02 4.882113e-02 4.981541e-02 -8.585496e-03 -2.003665e-02 -2.536370e-03 1.596806e-03 1.062989e-03 1.978214e-02 7.387097e-03 -8.239200e-04
<VARIANCE> 39
 1.495052e+01 3.230673e+01 2.676812e+01 9.547859e+01 7.197727e+01 1.994573e+01 4.951287e+01 3.348909e+01 2.108430e+01 5.128862e+01 4.426809e+01 2.422813e+01 1.257752e-02 1.162833e+00 1.514471e+00 1.510099e+00 1.565060e+00 2.143318e+00 2.465338e+00 3.190961e+00 2.950684e+00 1.866466e+00 3.177998e+00 4.431887e+00 1.648724e+00 3.661083e-04 1.981896e-01 2.575372e-01 2.159908e-01 2.391684e-01 4.425948e-01 4.963651e-01 5.308645e-01 4.923767e-01 2.595432e-01 4.267339e-01 6.958696e-01 2.700606e-01 5.427329e-05
<GCONST> 8.867455e+01
<STATE> 4
<MEAN> 39
 1.589457e-08 2.331204e-07 3.867679e-07 -1.419915e-06 4.238553e-07 -7.629395e-07 2.013312e-07 2.119276e-08 4.238553e-08 8.477105e-08 3.602770e-07 -3.867679e-07 8.729879e-01 5.630369e-02 -1.801558e-01 -1.636023e-02 4.543377e-01 5.864863e-01 2.639294e-02 -7.709461e-02 -2.096494e-01 2.588884e-01 1.897182e-01 1.070227e-01 6.438799e-02 -6.791505e-03 2.041584e-02 -2.924849e-02 -2.635366e-02 4.882113e-02 4.981541e-02 -8.585496e-03 -2.003665e-02 -2.536370e-03 1.596806e-03 1.062989e-03 1.978214e-02 7.387097e-03 -8.239200e-04
<VARIANCE> 39
 1.495052e+01 3.230673e+01 2.676812e+01 9.547859e+01 7.197727e+01 1.994573e+01 4.951287e+01 3.348909e+01 2.108430e+01 5.128862e+01 4.426809e+01 2.422813e+01 1.257752e-02 1.162833e+00 1.514471e+00 1.510099e+00 1.565060e+00 2.143318e+00 2.465338e+00 3.190961e+00 2.950684e+00 1.866466e+00 3.177998e+00 4.431887e+00 1.648724e+00 3.661083e-04 1.981896e-01 2.575372e-01 2.159908e-01 2.391684e-01 4.425948e-01 4.963651e-01 5.308645e-01 4.923767e-01 2.595432e-01 4.267339e-01 6.958696e-01 2.700606e-01 5.427329e-05
<GCONST> 8.867455e+01
<STATE> 5
<MEAN> 39
 1.589457e-08 2.331204e-07 3.867679e-07 -1.419915e-06 4.238553e-07 -7.629395e-07 2.013312e-07 2.119276e-08 4.238553e-08 8.477105e-08 3.602770e-07 -3.867679e-07 8.729879e-01 5.630369e-02 -1.801558e-01 -1.636023e-02 4.543377e-01 5.864863e-01 2.639294e-02 -7.709461e-02 -2.096494e-01 2.588884e-01 1.897182e-01 1.070227e-01 6.438799e-02 -6.791505e-03 2.041584e-02 -2.924849e-02 -2.635366e-02 4.882113e-02 4.981541e-02 -8.585496e-03 -2.003665e-02 -2.536370e-03 1.596806e-03 1.062989e-03 1.978214e-02 7.387097e-03 -8.239200e-04
<VARIANCE> 39
 1.495052e+01 3.230673e+01 2.676812e+01 9.547859e+01 7.197727e+01 1.994573e+01 4.951287e+01 3.348909e+01 2.108430e+01 5.128862e+01 4.426809e+01 2.422813e+01 1.257752e-02 1.162833e+00 1.514471e+00 1.510099e+00 1.565060e+00 2.143318e+00 2.465338e+00 3.190961e+00 2.950684e+00 1.866466e+00 3.177998e+00 4.431887e+00 1.648724e+00 3.661083e-04 1.981896e-01 2.575372e-01 2.159908e-01 2.391684e-01 4.425948e-01 4.963651e-01 5.308645e-01 4.923767e-01 2.595432e-01 4.267339e-01 6.958696e-01 2.700606e-01 5.427329e-05
<GCONST> 8.867455e+01
<STATE> 6
<MEAN> 39
 1.589457e-08 2.331204e-07 3.867679e-07 -1.419915e-06 4.238553e-07 -7.629395e-07 2.013312e-07 2.119276e-08 4.238553e-08 8.477105e-08 3.602770e-07 -3.867679e-07 8.729879e-01 5.630369e-02 -1.801558e-01 -1.636023e-02 4.543377e-01 5.864863e-01 2.639294e-02 -7.709461e-02 -2.096494e-01 2.588884e-01 1.897182e-01 1.070227e-01 6.438799e-02 -6.791505e-03 2.041584e-02 -2.924849e-02 -2.635366e-02 4.882113e-02 4.981541e-02 -8.585496e-03 -2.003665e-02 -2.536370e-03 1.596806e-03 1.062989e-03 1.978214e-02 7.387097e-03 -8.239200e-04
<VARIANCE> 39
 1.495052e+01 3.230673e+01 2.676812e+01 9.547859e+01 7.197727e+01 1.994573e+01 4.951287e+01 3.348909e+01 2.108430e+01 5.128862e+01 4.426809e+01 2.422813e+01 1.257752e-02 1.162833e+00 1.514471e+00 1.510099e+00 1.565060e+00 2.143318e+00 2.465338e+00 3.190961e+00 2.950684e+00 1.866466e+00 3.177998e+00 4.431887e+00 1.648724e+00 3.661083e-04 1.981896e-01 2.575372e-01 2.159908e-01 2.391684e-01 4.425948e-01 4.963651e-01 5.308645e-01 4.923767e-01 2.595432e-01 4.267339e-01 6.958696e-01 2.700606e-01 5.427329e-05
<GCONST> 8.867455e+01
<STATE> 7
<MEAN> 39
 1.589457e-08 2.331204e-07 3.867679e-07 -1.419915e-06 4.238553e-07 -7.629395e-07 2.013312e-07 2.119276e-08 4.238553e-08 8.477105e-08 3.602770e-07 -3.867679e-07 8.729879e-01 5.630369e-02 -1.801558e-01 -1.636023e-02 4.543377e-01 5.864863e-01 2.639294e-02 -7.709461e-02 -2.096494e-01 2.588884e-01 1.897182e-01 1.070227e-01 6.438799e-02 -6.791505e-03 2.041584e-02 -2.924849e-02 -2.635366e-02 4.882113e-02 4.981541e-02 -8.585496e-03 -2.003665e-02 -2.536370e-03 1.596806e-03 1.062989e-03 1.978214e-02 7.387097e-03 -8.239200e-04
<VARIANCE> 39
 1.495052e+01 3.230673e+01 2.676812e+01 9.547859e+01 7.197727e+01 1.994573e+01 4.951287e+01 3.348909e+01 2.108430e+01 5.128862e+01 4.426809e+01 2.422813e+01 1.257752e-02 1.162833e+00 1.514471e+00 1.510099e+00 1.565060e+00 2.143318e+00 2.465338e+00 3.190961e+00 2.950684e+00 1.866466e+00 3.177998e+00 4.431887e+00 1.648724e+00 3.661083e-04 1.981896e-01 2.575372e-01 2.159908e-01 2.391684e-01 4.425948e-01 4.963651e-01 5.308645e-01 4.923767e-01 2.595432e-01 4.267339e-01 6.958696e-01 2.700606e-01 5.427329e-05
<GCONST> 8.867455e+01
<STATE> 8
<MEAN> 39
 1.589457e-08 2.331204e-07 3.867679e-07 -1.419915e-06 4.238553e-07 -7.629395e-07 2.013312e-07 2.119276e-08 4.238553e-08 8.477105e-08 3.602770e-07 -3.867679e-07 8.729879e-01 5.630369e-02 -1.801558e-01 -1.636023e-02 4.543377e-01 5.864863e-01 2.639294e-02 -7.709461e-02 -2.096494e-01 2.588884e-01 1.897182e-01 1.070227e-01 6.438799e-02 -6.791505e-03 2.041584e-02 -2.924849e-02 -2.635366e-02 4.882113e-02 4.981541e-02 -8.585496e-03 -2.003665e-02 -2.536370e-03 1.596806e-03 1.062989e-03 1.978214e-02 7.387097e-03 -8.239200e-04
<VARIANCE> 39
 1.495052e+01 3.230673e+01 2.676812e+01 9.547859e+01 7.197727e+01 1.994573e+01 4.951287e+01 3.348909e+01 2.108430e+01 5.128862e+01 4.426809e+01 2.422813e+01 1.257752e-02 1.162833e+00 1.514471e+00 1.510099e+00 1.565060e+00 2.143318e+00 2.465338e+00 3.190961e+00 2.950684e+00 1.866466e+00 3.177998e+00 4.431887e+00 1.648724e+00 3.661083e-04 1.981896e-01 2.575372e-01 2.159908e-01 2.391684e-01 4.425948e-01 4.963651e-01 5.308645e-01 4.923767e-01 2.595432e-01 4.267339e-01 6.958696e-01 2.700606e-01 5.427329e-05
<GCONST> 8.867455e+01
<STATE> 9
<MEAN> 39
 1.589457e-08 2.331204e-07 3.867679e-07 -1.419915e-06 4.238553e-07 -7.629395e-07 2.013312e-07 2.119276e-08 4.238553e-08 8.477105e-08 3.602770e-07 -3.867679e-07 8.729879e-01 5.630369e-02 -1.801558e-01 -1.636023e-02 4.543377e-01 5.864863e-01 2.639294e-02 -7.709461e-02 -2.096494e-01 2.588884e-01 1.897182e-01 1.070227e-01 6.438799e-02 -6.791505e-03 2.041584e-02 -2.924849e-02 -2.635366e-02 4.882113e-02 4.981541e-02 -8.585496e-03 -2.003665e-02 -2.536370e-03 1.596806e-03 1.062989e-03 1.978214e-02 7.387097e-03 -8.239200e-04
<VARIANCE> 39
 1.495052e+01 3.230673e+01 2.676812e+01 9.547859e+01 7.197727e+01 1.994573e+01 4.951287e+01 3.348909e+01 2.108430e+01 5.128862e+01 4.426809e+01 2.422813e+01 1.257752e-02 1.162833e+00 1.514471e+00 1.510099e+00 1.565060e+00 2.143318e+00 2.465338e+00 3.190961e+00 2.950684e+00 1.866466e+00 3.177998e+00 4.431887e+00 1.648724e+00 3.661083e-04 1.981896e-01 2.575372e-01 2.159908e-01 2.391684e-01 4.425948e-01 4.963651e-01 5.308645e-01 4.923767e-01 2.595432e-01 4.267339e-01 6.958696e-01 2.700606e-01 5.427329e-05
<GCONST> 8.867455e+01
<TRANSP> 10
 0.000000e+00 1.000000e+00 0.000000e+00 0.000000e+00 0.000000e+00 0.000000e+00 0.000000e+00 0.000000e+00 0.000000e+00 0.000000e+00
 0.000000e+00 9.000000e-01 9.999999e-02 0.000000e+00 0.000000e+00 0.000000e+00 0.000000e+00 0.000000e+00 0.000000e+00 0.000000e+00
 0.000000e+00 0.000000e+00 9.000000e-01 9.999999e-02 0.000000e+00 0.000000e+00 0.000000e+00 0.000000e+00 0.000000e+00 0.000000e+00
 0.000000e+00 0.000000e+00 0.000000e+00 9.000000e-01 9.999999e-02 0.000000e+00 0.000000e+00 0.000000e+00 0.000000e+00 0.000000e+00
 0.000000e+00 0.000000e+00 0.000000e+00 0.000000e+00 9.000000e-01 9.999999e-02 0.000000e+00 0.000000e+00 0.000000e+00 0.000000e+00
 0.000000e+00 0.000000e+00 0.000000e+00 0.000000e+00 0.000000e+00 9.000000e-01 9.999999e-02 0.000000e+00 0.000000e+00 0.000000e+00
 0.000000e+00 0.000000e+00 0.000000e+00 0.000000e+00 0.000000e+00 0.000000e+00 9.000000e-01 9.999999e-02 0.000000e+00 0.000000e+00
 0.000000e+00 0.000000e+00 0.000000e+00 0.000000e+00 0.000000e+00 0.000000e+00 0.000000e+00 9.000000e-01 9.999999e-02 0.000000e+00
 0.000000e+00 0.000000e+00 0.000000e+00 0.000000e+00 0.000000e+00 0.000000e+00 0.000000e+00 0.000000e+00 9.000000e-01 9.999999e-02
 0.000000e+00 0.000000e+00 0.000000e+00 0.000000e+00 0.000000e+00 0.000000e+00 0.000000e+00 0.000000e+00 0.000000e+00 0.000000e+00
<ENDHMM>
