~o
<STREAMINFO> 1 39
<VECSIZE> 39<NULLD><MFCC_E_D_A_Z><DIAGC>
~h "s073"
<BEGINHMM>
<NUMSTATES> 10
<STATE> 2
<MEAN> 39
 -2.750984e-08 1.421342e-07 -1.008694e-07 3.301180e-07 4.768372e-07 -1.100393e-07 2.017388e-07 9.169946e-08 -1.925688e-07 -3.943076e-07 1.008694e-07 -4.768372e-07 8.047979e-01 7.027970e-02 -3.274078e-02 1.786244e-01 8.990940e-03 1.713653e-02 4.763653e-01 -3.441373e-01 -2.253836e-01 -2.109376e-02 3.174224e-02 -4.819164e-02 1.068749e-01 -4.126608e-03 -3.730517e-03 3.130023e-02 4.569727e-02 1.935461e-03 -5.804310e-02 5.641795e-02 2.812028e-02 -1.737801e-02 3.715055e-02 -1.013187e-02 -3.270039e-02 -1.351183e-02 -4.426051e-04
<VARIANCE> 39
 2.872870e+01 1.242597e+01 5.314236e+01 2.890047e+01 4.550100e+01 6.706251e+01 3.437789e+01 7.378079e+01 3.971491e+01 3.910797e+01 3.191618e+01 4.039422e+01 1.560484e-02 1.964432e+00 1.219179e+00 2.104736e+00 2.573530e+00 3.180438e+00 5.682473e+00 3.866808e+00 2.282394e+00 5.812696e+00 2.799017e+00 3.886895e+00 3.665807e+00 1.088174e-03 3.509988e-01 1.740623e-01 2.094769e-01 4.253744e-01 6.041011e-01 1.103943e+00 7.884254e-01 3.765794e-01 1.286747e+00 4.634247e-01 7.486155e-01 6.371312e-01 1.651360e-04
<GCONST> 1.005622e+02
<STATE> 3
<MEAN> 39
 -2.750984e-08 1.421342e-07 -1.008694e-07 3.301180e-07 4.768372e-07 -1.100393e-07 2.017388e-07 9.169946e-08 -1.925688e-07 -3.943076e-07 1.008694e-07 -4.768372e-07 8.047979e-01 7.027970e-02 -3.274078e-02 1.786244e-01 8.990940e-03 1.713653e-02 4.763653e-01 -3.441373e-01 -2.253836e-01 -2.109376e-02 3.174224e-02 -4.819164e-02 1.068749e-01 -4.126608e-03 -3.730517e-03 3.130023e-02 4.569727e-02 1.935461e-03 -5.804310e-02 5.641795e-02 2.812028e-02 -1.737801e-02 3.715055e-02 -1.013187e-02 -3.270039e-02 -1.351183e-02 -4.426051e-04
<VARIANCE> 39
 2.872870e+01 1.242597e+01 5.314236e+01 2.890047e+01 4.550100e+01 6.706251e+01 3.437789e+01 7.378079e+01 3.971491e+01 3.910797e+01 3.191618e+01 4.039422e+01 1.560484e-02 1.964432e+00 1.219179e+00 2.104736e+00 2.573530e+00 3.180438e+00 5.682473e+00 3.866808e+00 2.282394e+00 5.812696e+00 2.799017e+00 3.886895e+00 3.665807e+00 1.088174e-03 3.509988e-01 1.740623e-01 2.094769e-01 4.253744e-01 6.041011e-01 1.103943e+00 7.884254e-01 3.765794e-01 1.286747e+00 4.634247e-01 7.486155e-01 6.371312e-01 1.651360e-04
<GCONST> 1.005622e+02
<STATE> 4
<MEAN> 39
 -2.750984e-08 1.421342e-07 -1.008694e-07 3.301180e-07 4.768372e-07 -1.100393e-07 2.017388e-07 9.169946e-08 -1.925688e-07 -3.943076e-07 1.008694e-07 -4.768372e-07 8.047979e-01 7.027970e-02 -3.274078e-02 1.786244e-01 8.990940e-03 1.713653e-02 4.763653e-01 -3.441373e-01 -2.253836e-01 -2.109376e-02 3.174224e-02 -4.819164e-02 1.068749e-01 -4.126608e-03 -3.730517e-03 3.130023e-02 4.569727e-02 1.935461e-03 -5.804310e-02 5.641795e-02 2.812028e-02 -1.737801e-02 3.715055e-02 -1.013187e-02 -3.270039e-02 -1.351183e-02 -4.426051e-04
<VARIANCE> 39
 2.872870e+01 1.242597e+01 5.314236e+01 2.890047e+01 4.550100e+01 6.706251e+01 3.437789e+01 7.378079e+01 3.971491e+01 3.910797e+01 3.191618e+01 4.039422e+01 1.560484e-02 1.964432e+00 1.219179e+00 2.104736e+00 2.573530e+00 3.180438e+00 5.682473e+00 3.866808e+00 2.282394e+00 5.812696e+00 2.799017e+00 3.886895e+00 3.665807e+00 1.088174e-03 3.509988e-01 1.740623e-01 2.094769e-01 4.253744e-01 6.041011e-01 1.103943e+00 7.884254e-01 3.765794e-01 1.286747e+00 4.634247e-01 7.486155e-01 6.371312e-01 1.651360e-04
<GCONST> 1.005622e+02
<STATE> 5
<MEAN> 39
 -2.750984e-08 1.421342e-07 -1.008694e-07 3.301180e-07 4.768372e-07 -1.100393e-07 2.017388e-07 9.169946e-08 -1.925688e-07 -3.943076e-07 1.008694e-07 -4.768372e-07 8.047979e-01 7.027970e-02 -3.274078e-02 1.786244e-01 8.990940e-03 1.713653e-02 4.763653e-01 -3.441373e-01 -2.253836e-01 -2.109376e-02 3.174224e-02 -4.819164e-02 1.068749e-01 -4.126608e-03 -3.730517e-03 3.130023e-02 4.569727e-02 1.935461e-03 -5.804310e-02 5.641795e-02 2.812028e-02 -1.737801e-02 3.715055e-02 -1.013187e-02 -3.270039e-02 -1.351183e-02 -4.426051e-04
<VARIANCE> 39
 2.872870e+01 1.242597e+01 5.314236e+01 2.890047e+01 4.550100e+01 6.706251e+01 3.437789e+01 7.378079e+01 3.971491e+01 3.910797e+01 3.191618e+01 4.039422e+01 1.560484e-02 1.964432e+00 1.219179e+00 2.104736e+00 2.573530e+00 3.180438e+00 5.682473e+00 3.866808e+00 2.282394e+00 5.812696e+00 2.799017e+00 3.886895e+00 3.665807e+00 1.088174e-03 3.509988e-01 1.740623e-01 2.094769e-01 4.253744e-01 6.041011e-01 1.103943e+00 7.884254e-01 3.765794e-01 1.286747e+00 4.634247e-01 7.486155e-01 6.371312e-01 1.651360e-04
<GCONST> 1.005622e+02
<STATE> 6
<MEAN> 39
 -2.750984e-08 1.421342e-07 -1.008694e-07 3.301180e-07 4.768372e-07 -1.100393e-07 2.017388e-07 9.169946e-08 -1.925688e-07 -3.943076e-07 1.008694e-07 -4.768372e-07 8.047979e-01 7.027970e-02 -3.274078e-02 1.786244e-01 8.990940e-03 1.713653e-02 4.763653e-01 -3.441373e-01 -2.253836e-01 -2.109376e-02 3.174224e-02 -4.819164e-02 1.068749e-01 -4.126608e-03 -3.730517e-03 3.130023e-02 4.569727e-02 1.935461e-03 -5.804310e-02 5.641795e-02 2.812028e-02 -1.737801e-02 3.715055e-02 -1.013187e-02 -3.270039e-02 -1.351183e-02 -4.426051e-04
<VARIANCE> 39
 2.872870e+01 1.242597e+01 5.314236e+01 2.890047e+01 4.550100e+01 6.706251e+01 3.437789e+01 7.378079e+01 3.971491e+01 3.910797e+01 3.191618e+01 4.039422e+01 1.560484e-02 1.964432e+00 1.219179e+00 2.104736e+00 2.573530e+00 3.180438e+00 5.682473e+00 3.866808e+00 2.282394e+00 5.812696e+00 2.799017e+00 3.886895e+00 3.665807e+00 1.088174e-03 3.509988e-01 1.740623e-01 2.094769e-01 4.253744e-01 6.041011e-01 1.103943e+00 7.884254e-01 3.765794e-01 1.286747e+00 4.634247e-01 7.486155e-01 6.371312e-01 1.651360e-04
<GCONST> 1.005622e+02
<STATE> 7
<MEAN> 39
 -2.750984e-08 1.421342e-07 -1.008694e-07 3.301180e-07 4.768372e-07 -1.100393e-07 2.017388e-07 9.169946e-08 -1.925688e-07 -3.943076e-07 1.008694e-07 -4.768372e-07 8.047979e-01 7.027970e-02 -3.274078e-02 1.786244e-01 8.990940e-03 1.713653e-02 4.763653e-01 -3.441373e-01 -2.253836e-01 -2.109376e-02 3.174224e-02 -4.819164e-02 1.068749e-01 -4.126608e-03 -3.730517e-03 3.130023e-02 4.569727e-02 1.935461e-03 -5.804310e-02 5.641795e-02 2.812028e-02 -1.737801e-02 3.715055e-02 -1.013187e-02 -3.270039e-02 -1.351183e-02 -4.426051e-04
<VARIANCE> 39
 2.872870e+01 1.242597e+01 5.314236e+01 2.890047e+01 4.550100e+01 6.706251e+01 3.437789e+01 7.378079e+01 3.971491e+01 3.910797e+01 3.191618e+01 4.039422e+01 1.560484e-02 1.964432e+00 1.219179e+00 2.104736e+00 2.573530e+00 3.180438e+00 5.682473e+00 3.866808e+00 2.282394e+00 5.812696e+00 2.799017e+00 3.886895e+00 3.665807e+00 1.088174e-03 3.509988e-01 1.740623e-01 2.094769e-01 4.253744e-01 6.041011e-01 1.103943e+00 7.884254e-01 3.765794e-01 1.286747e+00 4.634247e-01 7.486155e-01 6.371312e-01 1.651360e-04
<GCONST> 1.005622e+02
<STATE> 8
<MEAN> 39
 -2.750984e-08 1.421342e-07 -1.008694e-07 3.301180e-07 4.768372e-07 -1.100393e-07 2.017388e-07 9.169946e-08 -1.925688e-07 -3.943076e-07 1.008694e-07 -4.768372e-07 8.047979e-01 7.027970e-02 -3.274078e-02 1.786244e-01 8.990940e-03 1.713653e-02 4.763653e-01 -3.441373e-01 -2.253836e-01 -2.109376e-02 3.174224e-02 -4.819164e-02 1.068749e-01 -4.126608e-03 -3.730517e-03 3.130023e-02 4.569727e-02 1.935461e-03 -5.804310e-02 5.641795e-02 2.812028e-02 -1.737801e-02 3.715055e-02 -1.013187e-02 -3.270039e-02 -1.351183e-02 -4.426051e-04
<VARIANCE> 39
 2.872870e+01 1.242597e+01 5.314236e+01 2.890047e+01 4.550100e+01 6.706251e+01 3.437789e+01 7.378079e+01 3.971491e+01 3.910797e+01 3.191618e+01 4.039422e+01 1.560484e-02 1.964432e+00 1.219179e+00 2.104736e+00 2.573530e+00 3.180438e+00 5.682473e+00 3.866808e+00 2.282394e+00 5.812696e+00 2.799017e+00 3.886895e+00 3.665807e+00 1.088174e-03 3.509988e-01 1.740623e-01 2.094769e-01 4.253744e-01 6.041011e-01 1.103943e+00 7.884254e-01 3.765794e-01 1.286747e+00 4.634247e-01 7.486155e-01 6.371312e-01 1.651360e-04
<GCONST> 1.005622e+02
<STATE> 9
<MEAN> 39
 -2.750984e-08 1.421342e-07 -1.008694e-07 3.301180e-07 4.768372e-07 -1.100393e-07 2.017388e-07 9.169946e-08 -1.925688e-07 -3.943076e-07 1.008694e-07 -4.768372e-07 8.047979e-01 7.027970e-02 -3.274078e-02 1.786244e-01 8.990940e-03 1.713653e-02 4.763653e-01 -3.441373e-01 -2.253836e-01 -2.109376e-02 3.174224e-02 -4.819164e-02 1.068749e-01 -4.126608e-03 -3.730517e-03 3.130023e-02 4.569727e-02 1.935461e-03 -5.804310e-02 5.641795e-02 2.812028e-02 -1.737801e-02 3.715055e-02 -1.013187e-02 -3.270039e-02 -1.351183e-02 -4.426051e-04
<VARIANCE> 39
 2.872870e+01 1.242597e+01 5.314236e+01 2.890047e+01 4.550100e+01 6.706251e+01 3.437789e+01 7.378079e+01 3.971491e+01 3.910797e+01 3.191618e+01 4.039422e+01 1.560484e-02 1.964432e+00 1.219179e+00 2.104736e+00 2.573530e+00 3.180438e+00 5.682473e+00 3.866808e+00 2.282394e+00 5.812696e+00 2.799017e+00 3.886895e+00 3.665807e+00 1.088174e-03 3.509988e-01 1.740623e-01 2.094769e-01 4.253744e-01 6.041011e-01 1.103943e+00 7.884254e-01 3.765794e-01 1.286747e+00 4.634247e-01 7.486155e-01 6.371312e-01 1.651360e-04
<GCONST> 1.005622e+02
<TRANSP> 10
 0.000000e+00 1.000000e+00 0.000000e+00 0.000000e+00 0.000000e+00 0.000000e+00 0.000000e+00 0.000000e+00 0.000000e+00 0.000000e+00
 0.000000e+00 9.000000e-01 9.999999e-02 0.000000e+00 0.000000e+00 0.000000e+00 0.000000e+00 0.000000e+00 0.000000e+00 0.000000e+00
 0.000000e+00 0.000000e+00 9.000000e-01 9.999999e-02 0.000000e+00 0.000000e+00 0.000000e+00 0.000000e+00 0.000000e+00 0.000000e+00
 0.000000e+00 0.000000e+00 0.000000e+00 9.000000e-01 9.999999e-02 0.000000e+00 0.000000e+00 0.000000e+00 0.000000e+00 0.000000e+00
 0.000000e+00 0.000000e+00 0.000000e+00 0.000000e+00 9.000000e-01 9.999999e-02 0.000000e+00 0.000000e+00 0.000000e+00 0.000000e+00
 0.000000e+00 0.000000e+00 0.000000e+00 0.000000e+00 0.000000e+00 9.000000e-01 9.999999e-02 0.000000e+00 0.000000e+00 0.000000e+00
 0.000000e+00 0.000000e+00 0.000000e+00 0.000000e+00 0.000000e+00 0.000000e+00 9.000000e-01 9.999999e-02 0.000000e+00 0.000000e+00
 0.000000e+00 0.000000e+00 0.000000e+00 0.000000e+00 0.000000e+00 0.000000e+00 0.000000e+00 9.000000e-01 9.999999e-02 0.000000e+00
 0.000000e+00 0.000000e+00 0.000000e+00 0.000000e+00 0.000000e+00 0.000000e+00 0.000000e+00 0.000000e+00 9.000000e-01 9.999999e-02
 0.000000e+00 0.000000e+00 0.000000e+00 0.000000e+00 0.000000e+00 0.000000e+00 0.000000e+00 0.000000e+00 0.000000e+00 0.000000e+00
<ENDHMM>
