~o
<STREAMINFO> 1 39
<VECSIZE> 39<NULLD><MFCC_E_D_A_Z><DIAGC>
~h "s073"
<BEGINHMM>
<NUMSTATES> 10
<STATE> 2
<MEAN> 39
 2.825702e-07 9.271834e-08 3.090611e-07 3.355521e-07 3.267218e-07 5.474797e-07 -9.713349e-08 4.944978e-07 7.064254e-08 -2.119276e-07 -7.064254e-08 1.854367e-07 7.992736e-01 -7.544562e-03 -7.117859e-02 2.242948e-01 5.566844e-02 1.752611e-01 4.864799e-01 -3.335076e-01 -2.836758e-01 -2.144827e-01 -3.054438e-02 -1.143051e-01 8.484872e-02 -5.012656e-03 -1.823948e-02 2.319760e-02 3.914292e-02 3.167503e-02 3.577570e-03 3.889397e-02 2.126788e-02 -6.897324e-02 -4.090704e-02 2.958462e-03 -6.590497e-02 -6.419251e-03 -4.480067e-04
<VARIANCE> 39
 2.815108e+01 1.251211e+01 5.365454e+01 3.064987e+01 4.544786e+01 6.906660e+01 3.437006e+01 7.255973e+01 4.290190e+01 3.926641e+01 3.115894e+01 3.951733e+01 1.752326e-02 2.012287e+00 1.204535e+00 2.120511e+00 2.552952e+00 3.316099e+00 5.468439e+00 3.946518e+00 2.310194e+00 5.470029e+00 2.667568e+00 3.765862e+00 3.606152e+00 1.058756e-03 3.413384e-01 1.611355e-01 2.111312e-01 4.116495e-01 5.926377e-01 1.078772e+00 7.974567e-01 4.078775e-01 1.127280e+00 4.101631e-01 7.158665e-01 6.343185e-01 1.544587e-04
<GCONST> 1.001913e+02
<STATE> 3
<MEAN> 39
 2.825702e-07 9.271834e-08 3.090611e-07 3.355521e-07 3.267218e-07 5.474797e-07 -9.713349e-08 4.944978e-07 7.064254e-08 -2.119276e-07 -7.064254e-08 1.854367e-07 7.992736e-01 -7.544562e-03 -7.117859e-02 2.242948e-01 5.566844e-02 1.752611e-01 4.864799e-01 -3.335076e-01 -2.836758e-01 -2.144827e-01 -3.054438e-02 -1.143051e-01 8.484872e-02 -5.012656e-03 -1.823948e-02 2.319760e-02 3.914292e-02 3.167503e-02 3.577570e-03 3.889397e-02 2.126788e-02 -6.897324e-02 -4.090704e-02 2.958462e-03 -6.590497e-02 -6.419251e-03 -4.480067e-04
<VARIANCE> 39
 2.815108e+01 1.251211e+01 5.365454e+01 3.064987e+01 4.544786e+01 6.906660e+01 3.437006e+01 7.255973e+01 4.290190e+01 3.926641e+01 3.115894e+01 3.951733e+01 1.752326e-02 2.012287e+00 1.204535e+00 2.120511e+00 2.552952e+00 3.316099e+00 5.468439e+00 3.946518e+00 2.310194e+00 5.470029e+00 2.667568e+00 3.765862e+00 3.606152e+00 1.058756e-03 3.413384e-01 1.611355e-01 2.111312e-01 4.116495e-01 5.926377e-01 1.078772e+00 7.974567e-01 4.078775e-01 1.127280e+00 4.101631e-01 7.158665e-01 6.343185e-01 1.544587e-04
<GCONST> 1.001913e+02
<STATE> 4
<MEAN> 39
 2.825702e-07 9.271834e-08 3.090611e-07 3.355521e-07 3.267218e-07 5.474797e-07 -9.713349e-08 4.944978e-07 7.064254e-08 -2.119276e-07 -7.064254e-08 1.854367e-07 7.992736e-01 -7.544562e-03 -7.117859e-02 2.242948e-01 5.566844e-02 1.752611e-01 4.864799e-01 -3.335076e-01 -2.836758e-01 -2.144827e-01 -3.054438e-02 -1.143051e-01 8.484872e-02 -5.012656e-03 -1.823948e-02 2.319760e-02 3.914292e-02 3.167503e-02 3.577570e-03 3.889397e-02 2.126788e-02 -6.897324e-02 -4.090704e-02 2.958462e-03 -6.590497e-02 -6.419251e-03 -4.480067e-04
<VARIANCE> 39
 2.815108e+01 1.251211e+01 5.365454e+01 3.064987e+01 4.544786e+01 6.906660e+01 3.437006e+01 7.255973e+01 4.290190e+01 3.926641e+01 3.115894e+01 3.951733e+01 1.752326e-02 2.012287e+00 1.204535e+00 2.120511e+00 2.552952e+00 3.316099e+00 5.468439e+00 3.946518e+00 2.310194e+00 5.470029e+00 2.667568e+00 3.765862e+00 3.606152e+00 1.058756e-03 3.413384e-01 1.611355e-01 2.111312e-01 4.116495e-01 5.926377e-01 1.078772e+00 7.974567e-01 4.078775e-01 1.127280e+00 4.101631e-01 7.158665e-01 6.343185e-01 1.544587e-04
<GCONST> 1.001913e+02
<STATE> 5
<MEAN> 39
 2.825702e-07 9.271834e-08 3.090611e-07 3.355521e-07 3.267218e-07 5.474797e-07 -9.713349e-08 4.944978e-07 7.064254e-08 -2.119276e-07 -7.064254e-08 1.854367e-07 7.992736e-01 -7.544562e-03 -7.117859e-02 2.242948e-01 5.566844e-02 1.752611e-01 4.864799e-01 -3.335076e-01 -2.836758e-01 -2.144827e-01 -3.054438e-02 -1.143051e-01 8.484872e-02 -5.012656e-03 -1.823948e-02 2.319760e-02 3.914292e-02 3.167503e-02 3.577570e-03 3.889397e-02 2.126788e-02 -6.897324e-02 -4.090704e-02 2.958462e-03 -6.590497e-02 -6.419251e-03 -4.480067e-04
<VARIANCE> 39
 2.815108e+01 1.251211e+01 5.365454e+01 3.064987e+01 4.544786e+01 6.906660e+01 3.437006e+01 7.255973e+01 4.290190e+01 3.926641e+01 3.115894e+01 3.951733e+01 1.752326e-02 2.012287e+00 1.204535e+00 2.120511e+00 2.552952e+00 3.316099e+00 5.468439e+00 3.946518e+00 2.310194e+00 5.470029e+00 2.667568e+00 3.765862e+00 3.606152e+00 1.058756e-03 3.413384e-01 1.611355e-01 2.111312e-01 4.116495e-01 5.926377e-01 1.078772e+00 7.974567e-01 4.078775e-01 1.127280e+00 4.101631e-01 7.158665e-01 6.343185e-01 1.544587e-04
<GCONST> 1.001913e+02
<STATE> 6
<MEAN> 39
 2.825702e-07 9.271834e-08 3.090611e-07 3.355521e-07 3.267218e-07 5.474797e-07 -9.713349e-08 4.944978e-07 7.064254e-08 -2.119276e-07 -7.064254e-08 1.854367e-07 7.992736e-01 -7.544562e-03 -7.117859e-02 2.242948e-01 5.566844e-02 1.752611e-01 4.864799e-01 -3.335076e-01 -2.836758e-01 -2.144827e-01 -3.054438e-02 -1.143051e-01 8.484872e-02 -5.012656e-03 -1.823948e-02 2.319760e-02 3.914292e-02 3.167503e-02 3.577570e-03 3.889397e-02 2.126788e-02 -6.897324e-02 -4.090704e-02 2.958462e-03 -6.590497e-02 -6.419251e-03 -4.480067e-04
<VARIANCE> 39
 2.815108e+01 1.251211e+01 5.365454e+01 3.064987e+01 4.544786e+01 6.906660e+01 3.437006e+01 7.255973e+01 4.290190e+01 3.926641e+01 3.115894e+01 3.951733e+01 1.752326e-02 2.012287e+00 1.204535e+00 2.120511e+00 2.552952e+00 3.316099e+00 5.468439e+00 3.946518e+00 2.310194e+00 5.470029e+00 2.667568e+00 3.765862e+00 3.606152e+00 1.058756e-03 3.413384e-01 1.611355e-01 2.111312e-01 4.116495e-01 5.926377e-01 1.078772e+00 7.974567e-01 4.078775e-01 1.127280e+00 4.101631e-01 7.158665e-01 6.343185e-01 1.544587e-04
<GCONST> 1.001913e+02
<STATE> 7
<MEAN> 39
 2.825702e-07 9.271834e-08 3.090611e-07 3.355521e-07 3.267218e-07 5.474797e-07 -9.713349e-08 4.944978e-07 7.064254e-08 -2.119276e-07 -7.064254e-08 1.854367e-07 7.992736e-01 -7.544562e-03 -7.117859e-02 2.242948e-01 5.566844e-02 1.752611e-01 4.864799e-01 -3.335076e-01 -2.836758e-01 -2.144827e-01 -3.054438e-02 -1.143051e-01 8.484872e-02 -5.012656e-03 -1.823948e-02 2.319760e-02 3.914292e-02 3.167503e-02 3.577570e-03 3.889397e-02 2.126788e-02 -6.897324e-02 -4.090704e-02 2.958462e-03 -6.590497e-02 -6.419251e-03 -4.480067e-04
<VARIANCE> 39
 2.815108e+01 1.251211e+01 5.365454e+01 3.064987e+01 4.544786e+01 6.906660e+01 3.437006e+01 7.255973e+01 4.290190e+01 3.926641e+01 3.115894e+01 3.951733e+01 1.752326e-02 2.012287e+00 1.204535e+00 2.120511e+00 2.552952e+00 3.316099e+00 5.468439e+00 3.946518e+00 2.310194e+00 5.470029e+00 2.667568e+00 3.765862e+00 3.606152e+00 1.058756e-03 3.413384e-01 1.611355e-01 2.111312e-01 4.116495e-01 5.926377e-01 1.078772e+00 7.974567e-01 4.078775e-01 1.127280e+00 4.101631e-01 7.158665e-01 6.343185e-01 1.544587e-04
<GCONST> 1.001913e+02
<STATE> 8
<MEAN> 39
 2.825702e-07 9.271834e-08 3.090611e-07 3.355521e-07 3.267218e-07 5.474797e-07 -9.713349e-08 4.944978e-07 7.064254e-08 -2.119276e-07 -7.064254e-08 1.854367e-07 7.992736e-01 -7.544562e-03 -7.117859e-02 2.242948e-01 5.566844e-02 1.752611e-01 4.864799e-01 -3.335076e-01 -2.836758e-01 -2.144827e-01 -3.054438e-02 -1.143051e-01 8.484872e-02 -5.012656e-03 -1.823948e-02 2.319760e-02 3.914292e-02 3.167503e-02 3.577570e-03 3.889397e-02 2.126788e-02 -6.897324e-02 -4.090704e-02 2.958462e-03 -6.590497e-02 -6.419251e-03 -4.480067e-04
<VARIANCE> 39
 2.815108e+01 1.251211e+01 5.365454e+01 3.064987e+01 4.544786e+01 6.906660e+01 3.437006e+01 7.255973e+01 4.290190e+01 3.926641e+01 3.115894e+01 3.951733e+01 1.752326e-02 2.012287e+00 1.204535e+00 2.120511e+00 2.552952e+00 3.316099e+00 5.468439e+00 3.946518e+00 2.310194e+00 5.470029e+00 2.667568e+00 3.765862e+00 3.606152e+00 1.058756e-03 3.413384e-01 1.611355e-01 2.111312e-01 4.116495e-01 5.926377e-01 1.078772e+00 7.974567e-01 4.078775e-01 1.127280e+00 4.101631e-01 7.158665e-01 6.343185e-01 1.544587e-04
<GCONST> 1.001913e+02
<STATE> 9
<MEAN> 39
 2.825702e-07 9.271834e-08 3.090611e-07 3.355521e-07 3.267218e-07 5.474797e-07 -9.713349e-08 4.944978e-07 7.064254e-08 -2.119276e-07 -7.064254e-08 1.854367e-07 7.992736e-01 -7.544562e-03 -7.117859e-02 2.242948e-01 5.566844e-02 1.752611e-01 4.864799e-01 -3.335076e-01 -2.836758e-01 -2.144827e-01 -3.054438e-02 -1.143051e-01 8.484872e-02 -5.012656e-03 -1.823948e-02 2.319760e-02 3.914292e-02 3.167503e-02 3.577570e-03 3.889397e-02 2.126788e-02 -6.897324e-02 -4.090704e-02 2.958462e-03 -6.590497e-02 -6.419251e-03 -4.480067e-04
<VARIANCE> 39
 2.815108e+01 1.251211e+01 5.365454e+01 3.064987e+01 4.544786e+01 6.906660e+01 3.437006e+01 7.255973e+01 4.290190e+01 3.926641e+01 3.115894e+01 3.951733e+01 1.752326e-02 2.012287e+00 1.204535e+00 2.120511e+00 2.552952e+00 3.316099e+00 5.468439e+00 3.946518e+00 2.310194e+00 5.470029e+00 2.667568e+00 3.765862e+00 3.606152e+00 1.058756e-03 3.413384e-01 1.611355e-01 2.111312e-01 4.116495e-01 5.926377e-01 1.078772e+00 7.974567e-01 4.078775e-01 1.127280e+00 4.101631e-01 7.158665e-01 6.343185e-01 1.544587e-04
<GCONST> 1.001913e+02
<TRANSP> 10
 0.000000e+00 1.000000e+00 0.000000e+00 0.000000e+00 0.000000e+00 0.000000e+00 0.000000e+00 0.000000e+00 0.000000e+00 0.000000e+00
 0.000000e+00 9.000000e-01 9.999999e-02 0.000000e+00 0.000000e+00 0.000000e+00 0.000000e+00 0.000000e+00 0.000000e+00 0.000000e+00
 0.000000e+00 0.000000e+00 9.000000e-01 9.999999e-02 0.000000e+00 0.000000e+00 0.000000e+00 0.000000e+00 0.000000e+00 0.000000e+00
 0.000000e+00 0.000000e+00 0.000000e+00 9.000000e-01 9.999999e-02 0.000000e+00 0.000000e+00 0.000000e+00 0.000000e+00 0.000000e+00
 0.000000e+00 0.000000e+00 0.000000e+00 0.000000e+00 9.000000e-01 9.999999e-02 0.000000e+00 0.000000e+00 0.000000e+00 0.000000e+00
 0.000000e+00 0.000000e+00 0.000000e+00 0.000000e+00 0.000000e+00 9.000000e-01 9.999999e-02 0.000000e+00 0.000000e+00 0.000000e+00
 0.000000e+00 0.000000e+00 0.000000e+00 0.000000e+00 0.000000e+00 0.000000e+00 9.000000e-01 9.999999e-02 0.000000e+00 0.000000e+00
 0.000000e+00 0.000000e+00 0.000000e+00 0.000000e+00 0.000000e+00 0.000000e+00 0.000000e+00 9.000000e-01 9.999999e-02 0.000000e+00
 0.000000e+00 0.000000e+00 0.000000e+00 0.000000e+00 0.000000e+00 0.000000e+00 0.000000e+00 0.000000e+00 9.000000e-01 9.999999e-02
 0.000000e+00 0.000000e+00 0.000000e+00 0.000000e+00 0.000000e+00 0.000000e+00 0.000000e+00 0.000000e+00 0.000000e+00 0.000000e+00
<ENDHMM>
