~o
<STREAMINFO> 1 39
<VECSIZE> 39<NULLD><MFCC_E_D_A_Z><DIAGC>
~h "s074"
<BEGINHMM>
<NUMSTATES> 10
<STATE> 2
<MEAN> 39
 1.005828e-07 -3.837049e-07 -6.705523e-08 -2.011657e-07 2.235174e-07 4.172325e-07 -2.086163e-07 -1.788139e-07 -3.315508e-07 -1.043081e-07 -2.086163e-07 5.215406e-08 6.479496e-01 1.611233e-01 -1.941169e-01 9.211847e-02 6.243098e-02 -1.172778e-02 1.508442e-01 8.737466e-02 1.139650e-01 1.070152e-01 1.761288e-01 -1.628143e-01 -9.600696e-02 -4.857794e-03 -1.677989e-02 3.252771e-02 -4.852605e-04 7.785675e-02 1.905777e-02 3.598766e-02 2.317027e-02 2.311213e-02 -6.968547e-02 1.773058e-02 -1.696642e-02 4.721687e-02 -9.027562e-04
<VARIANCE> 39
 2.742798e+01 4.586333e+01 1.209422e+01 1.346962e+02 5.570045e+01 3.111933e+01 7.541860e+01 8.288190e+01 4.740229e+01 6.379353e+01 3.713730e+01 4.933691e+01 3.825900e-02 2.005258e+00 1.223868e+00 1.877157e+00 5.478826e+00 3.124568e+00 2.148514e+00 2.382833e+00 3.382138e+00 4.455663e+00 5.310701e+00 3.693920e+00 4.953067e+00 1.433877e-03 2.957346e-01 1.687999e-01 3.981729e-01 7.091556e-01 5.140532e-01 3.640889e-01 4.346483e-01 4.037453e-01 7.241948e-01 9.296483e-01 6.153019e-01 6.447929e-01 1.210519e-04
<GCONST> 1.033980e+02
<STATE> 3
<MEAN> 39
 1.005828e-07 -3.837049e-07 -6.705523e-08 -2.011657e-07 2.235174e-07 4.172325e-07 -2.086163e-07 -1.788139e-07 -3.315508e-07 -1.043081e-07 -2.086163e-07 5.215406e-08 6.479496e-01 1.611233e-01 -1.941169e-01 9.211847e-02 6.243098e-02 -1.172778e-02 1.508442e-01 8.737466e-02 1.139650e-01 1.070152e-01 1.761288e-01 -1.628143e-01 -9.600696e-02 -4.857794e-03 -1.677989e-02 3.252771e-02 -4.852605e-04 7.785675e-02 1.905777e-02 3.598766e-02 2.317027e-02 2.311213e-02 -6.968547e-02 1.773058e-02 -1.696642e-02 4.721687e-02 -9.027562e-04
<VARIANCE> 39
 2.742798e+01 4.586333e+01 1.209422e+01 1.346962e+02 5.570045e+01 3.111933e+01 7.541860e+01 8.288190e+01 4.740229e+01 6.379353e+01 3.713730e+01 4.933691e+01 3.825900e-02 2.005258e+00 1.223868e+00 1.877157e+00 5.478826e+00 3.124568e+00 2.148514e+00 2.382833e+00 3.382138e+00 4.455663e+00 5.310701e+00 3.693920e+00 4.953067e+00 1.433877e-03 2.957346e-01 1.687999e-01 3.981729e-01 7.091556e-01 5.140532e-01 3.640889e-01 4.346483e-01 4.037453e-01 7.241948e-01 9.296483e-01 6.153019e-01 6.447929e-01 1.210519e-04
<GCONST> 1.033980e+02
<STATE> 4
<MEAN> 39
 1.005828e-07 -3.837049e-07 -6.705523e-08 -2.011657e-07 2.235174e-07 4.172325e-07 -2.086163e-07 -1.788139e-07 -3.315508e-07 -1.043081e-07 -2.086163e-07 5.215406e-08 6.479496e-01 1.611233e-01 -1.941169e-01 9.211847e-02 6.243098e-02 -1.172778e-02 1.508442e-01 8.737466e-02 1.139650e-01 1.070152e-01 1.761288e-01 -1.628143e-01 -9.600696e-02 -4.857794e-03 -1.677989e-02 3.252771e-02 -4.852605e-04 7.785675e-02 1.905777e-02 3.598766e-02 2.317027e-02 2.311213e-02 -6.968547e-02 1.773058e-02 -1.696642e-02 4.721687e-02 -9.027562e-04
<VARIANCE> 39
 2.742798e+01 4.586333e+01 1.209422e+01 1.346962e+02 5.570045e+01 3.111933e+01 7.541860e+01 8.288190e+01 4.740229e+01 6.379353e+01 3.713730e+01 4.933691e+01 3.825900e-02 2.005258e+00 1.223868e+00 1.877157e+00 5.478826e+00 3.124568e+00 2.148514e+00 2.382833e+00 3.382138e+00 4.455663e+00 5.310701e+00 3.693920e+00 4.953067e+00 1.433877e-03 2.957346e-01 1.687999e-01 3.981729e-01 7.091556e-01 5.140532e-01 3.640889e-01 4.346483e-01 4.037453e-01 7.241948e-01 9.296483e-01 6.153019e-01 6.447929e-01 1.210519e-04
<GCONST> 1.033980e+02
<STATE> 5
<MEAN> 39
 1.005828e-07 -3.837049e-07 -6.705523e-08 -2.011657e-07 2.235174e-07 4.172325e-07 -2.086163e-07 -1.788139e-07 -3.315508e-07 -1.043081e-07 -2.086163e-07 5.215406e-08 6.479496e-01 1.611233e-01 -1.941169e-01 9.211847e-02 6.243098e-02 -1.172778e-02 1.508442e-01 8.737466e-02 1.139650e-01 1.070152e-01 1.761288e-01 -1.628143e-01 -9.600696e-02 -4.857794e-03 -1.677989e-02 3.252771e-02 -4.852605e-04 7.785675e-02 1.905777e-02 3.598766e-02 2.317027e-02 2.311213e-02 -6.968547e-02 1.773058e-02 -1.696642e-02 4.721687e-02 -9.027562e-04
<VARIANCE> 39
 2.742798e+01 4.586333e+01 1.209422e+01 1.346962e+02 5.570045e+01 3.111933e+01 7.541860e+01 8.288190e+01 4.740229e+01 6.379353e+01 3.713730e+01 4.933691e+01 3.825900e-02 2.005258e+00 1.223868e+00 1.877157e+00 5.478826e+00 3.124568e+00 2.148514e+00 2.382833e+00 3.382138e+00 4.455663e+00 5.310701e+00 3.693920e+00 4.953067e+00 1.433877e-03 2.957346e-01 1.687999e-01 3.981729e-01 7.091556e-01 5.140532e-01 3.640889e-01 4.346483e-01 4.037453e-01 7.241948e-01 9.296483e-01 6.153019e-01 6.447929e-01 1.210519e-04
<GCONST> 1.033980e+02
<STATE> 6
<MEAN> 39
 1.005828e-07 -3.837049e-07 -6.705523e-08 -2.011657e-07 2.235174e-07 4.172325e-07 -2.086163e-07 -1.788139e-07 -3.315508e-07 -1.043081e-07 -2.086163e-07 5.215406e-08 6.479496e-01 1.611233e-01 -1.941169e-01 9.211847e-02 6.243098e-02 -1.172778e-02 1.508442e-01 8.737466e-02 1.139650e-01 1.070152e-01 1.761288e-01 -1.628143e-01 -9.600696e-02 -4.857794e-03 -1.677989e-02 3.252771e-02 -4.852605e-04 7.785675e-02 1.905777e-02 3.598766e-02 2.317027e-02 2.311213e-02 -6.968547e-02 1.773058e-02 -1.696642e-02 4.721687e-02 -9.027562e-04
<VARIANCE> 39
 2.742798e+01 4.586333e+01 1.209422e+01 1.346962e+02 5.570045e+01 3.111933e+01 7.541860e+01 8.288190e+01 4.740229e+01 6.379353e+01 3.713730e+01 4.933691e+01 3.825900e-02 2.005258e+00 1.223868e+00 1.877157e+00 5.478826e+00 3.124568e+00 2.148514e+00 2.382833e+00 3.382138e+00 4.455663e+00 5.310701e+00 3.693920e+00 4.953067e+00 1.433877e-03 2.957346e-01 1.687999e-01 3.981729e-01 7.091556e-01 5.140532e-01 3.640889e-01 4.346483e-01 4.037453e-01 7.241948e-01 9.296483e-01 6.153019e-01 6.447929e-01 1.210519e-04
<GCONST> 1.033980e+02
<STATE> 7
<MEAN> 39
 1.005828e-07 -3.837049e-07 -6.705523e-08 -2.011657e-07 2.235174e-07 4.172325e-07 -2.086163e-07 -1.788139e-07 -3.315508e-07 -1.043081e-07 -2.086163e-07 5.215406e-08 6.479496e-01 1.611233e-01 -1.941169e-01 9.211847e-02 6.243098e-02 -1.172778e-02 1.508442e-01 8.737466e-02 1.139650e-01 1.070152e-01 1.761288e-01 -1.628143e-01 -9.600696e-02 -4.857794e-03 -1.677989e-02 3.252771e-02 -4.852605e-04 7.785675e-02 1.905777e-02 3.598766e-02 2.317027e-02 2.311213e-02 -6.968547e-02 1.773058e-02 -1.696642e-02 4.721687e-02 -9.027562e-04
<VARIANCE> 39
 2.742798e+01 4.586333e+01 1.209422e+01 1.346962e+02 5.570045e+01 3.111933e+01 7.541860e+01 8.288190e+01 4.740229e+01 6.379353e+01 3.713730e+01 4.933691e+01 3.825900e-02 2.005258e+00 1.223868e+00 1.877157e+00 5.478826e+00 3.124568e+00 2.148514e+00 2.382833e+00 3.382138e+00 4.455663e+00 5.310701e+00 3.693920e+00 4.953067e+00 1.433877e-03 2.957346e-01 1.687999e-01 3.981729e-01 7.091556e-01 5.140532e-01 3.640889e-01 4.346483e-01 4.037453e-01 7.241948e-01 9.296483e-01 6.153019e-01 6.447929e-01 1.210519e-04
<GCONST> 1.033980e+02
<STATE> 8
<MEAN> 39
 1.005828e-07 -3.837049e-07 -6.705523e-08 -2.011657e-07 2.235174e-07 4.172325e-07 -2.086163e-07 -1.788139e-07 -3.315508e-07 -1.043081e-07 -2.086163e-07 5.215406e-08 6.479496e-01 1.611233e-01 -1.941169e-01 9.211847e-02 6.243098e-02 -1.172778e-02 1.508442e-01 8.737466e-02 1.139650e-01 1.070152e-01 1.761288e-01 -1.628143e-01 -9.600696e-02 -4.857794e-03 -1.677989e-02 3.252771e-02 -4.852605e-04 7.785675e-02 1.905777e-02 3.598766e-02 2.317027e-02 2.311213e-02 -6.968547e-02 1.773058e-02 -1.696642e-02 4.721687e-02 -9.027562e-04
<VARIANCE> 39
 2.742798e+01 4.586333e+01 1.209422e+01 1.346962e+02 5.570045e+01 3.111933e+01 7.541860e+01 8.288190e+01 4.740229e+01 6.379353e+01 3.713730e+01 4.933691e+01 3.825900e-02 2.005258e+00 1.223868e+00 1.877157e+00 5.478826e+00 3.124568e+00 2.148514e+00 2.382833e+00 3.382138e+00 4.455663e+00 5.310701e+00 3.693920e+00 4.953067e+00 1.433877e-03 2.957346e-01 1.687999e-01 3.981729e-01 7.091556e-01 5.140532e-01 3.640889e-01 4.346483e-01 4.037453e-01 7.241948e-01 9.296483e-01 6.153019e-01 6.447929e-01 1.210519e-04
<GCONST> 1.033980e+02
<STATE> 9
<MEAN> 39
 1.005828e-07 -3.837049e-07 -6.705523e-08 -2.011657e-07 2.235174e-07 4.172325e-07 -2.086163e-07 -1.788139e-07 -3.315508e-07 -1.043081e-07 -2.086163e-07 5.215406e-08 6.479496e-01 1.611233e-01 -1.941169e-01 9.211847e-02 6.243098e-02 -1.172778e-02 1.508442e-01 8.737466e-02 1.139650e-01 1.070152e-01 1.761288e-01 -1.628143e-01 -9.600696e-02 -4.857794e-03 -1.677989e-02 3.252771e-02 -4.852605e-04 7.785675e-02 1.905777e-02 3.598766e-02 2.317027e-02 2.311213e-02 -6.968547e-02 1.773058e-02 -1.696642e-02 4.721687e-02 -9.027562e-04
<VARIANCE> 39
 2.742798e+01 4.586333e+01 1.209422e+01 1.346962e+02 5.570045e+01 3.111933e+01 7.541860e+01 8.288190e+01 4.740229e+01 6.379353e+01 3.713730e+01 4.933691e+01 3.825900e-02 2.005258e+00 1.223868e+00 1.877157e+00 5.478826e+00 3.124568e+00 2.148514e+00 2.382833e+00 3.382138e+00 4.455663e+00 5.310701e+00 3.693920e+00 4.953067e+00 1.433877e-03 2.957346e-01 1.687999e-01 3.981729e-01 7.091556e-01 5.140532e-01 3.640889e-01 4.346483e-01 4.037453e-01 7.241948e-01 9.296483e-01 6.153019e-01 6.447929e-01 1.210519e-04
<GCONST> 1.033980e+02
<TRANSP> 10
 0.000000e+00 1.000000e+00 0.000000e+00 0.000000e+00 0.000000e+00 0.000000e+00 0.000000e+00 0.000000e+00 0.000000e+00 0.000000e+00
 0.000000e+00 9.000000e-01 9.999999e-02 0.000000e+00 0.000000e+00 0.000000e+00 0.000000e+00 0.000000e+00 0.000000e+00 0.000000e+00
 0.000000e+00 0.000000e+00 9.000000e-01 9.999999e-02 0.000000e+00 0.000000e+00 0.000000e+00 0.000000e+00 0.000000e+00 0.000000e+00
 0.000000e+00 0.000000e+00 0.000000e+00 9.000000e-01 9.999999e-02 0.000000e+00 0.000000e+00 0.000000e+00 0.000000e+00 0.000000e+00
 0.000000e+00 0.000000e+00 0.000000e+00 0.000000e+00 9.000000e-01 9.999999e-02 0.000000e+00 0.000000e+00 0.000000e+00 0.000000e+00
 0.000000e+00 0.000000e+00 0.000000e+00 0.000000e+00 0.000000e+00 9.000000e-01 9.999999e-02 0.000000e+00 0.000000e+00 0.000000e+00
 0.000000e+00 0.000000e+00 0.000000e+00 0.000000e+00 0.000000e+00 0.000000e+00 9.000000e-01 9.999999e-02 0.000000e+00 0.000000e+00
 0.000000e+00 0.000000e+00 0.000000e+00 0.000000e+00 0.000000e+00 0.000000e+00 0.000000e+00 9.000000e-01 9.999999e-02 0.000000e+00
 0.000000e+00 0.000000e+00 0.000000e+00 0.000000e+00 0.000000e+00 0.000000e+00 0.000000e+00 0.000000e+00 9.000000e-01 9.999999e-02
 0.000000e+00 0.000000e+00 0.000000e+00 0.000000e+00 0.000000e+00 0.000000e+00 0.000000e+00 0.000000e+00 0.000000e+00 0.000000e+00
<ENDHMM>
