~o
<STREAMINFO> 1 39
<VECSIZE> 39<NULLD><MFCC_E_D_A_Z><DIAGC>
~h "s074"
<BEGINHMM>
<NUMSTATES> 10
<STATE> 2
<MEAN> 39
 -1.315413e-07 4.768372e-07 4.932798e-08 -4.932798e-07 -6.577064e-08 -2.795252e-07 -1.808693e-07 1.512725e-06 1.233200e-08 -2.137546e-07 1.890906e-07 -4.603945e-07 6.744907e-01 1.505629e-01 -3.326924e-01 -2.234151e-02 3.332512e-02 4.011627e-02 1.535068e-01 1.834118e-01 -8.191705e-02 8.992338e-02 2.181907e-01 5.016479e-02 8.298168e-02 -3.297746e-03 -7.345560e-03 -4.456094e-03 -1.690198e-02 3.021555e-02 -2.206221e-02 3.558183e-02 2.021156e-03 -9.361999e-04 -8.001492e-02 7.303651e-02 6.076154e-02 1.283796e-01 -1.408301e-03
<VARIANCE> 39
 2.915926e+01 4.840945e+01 1.333266e+01 1.461784e+02 5.694291e+01 2.281424e+01 7.947738e+01 9.185998e+01 5.281180e+01 6.830215e+01 3.887336e+01 5.344510e+01 3.203007e-02 2.242263e+00 1.018724e+00 2.004621e+00 5.164132e+00 3.112630e+00 1.892809e+00 2.340370e+00 3.257068e+00 4.701283e+00 6.231099e+00 3.861995e+00 4.800575e+00 1.282868e-03 3.304951e-01 1.566904e-01 4.372782e-01 7.313423e-01 5.215119e-01 3.472114e-01 4.450271e-01 4.108340e-01 7.733971e-01 1.102317e+00 6.301509e-01 5.879735e-01 1.062498e-04
<GCONST> 1.037541e+02
<STATE> 3
<MEAN> 39
 -1.315413e-07 4.768372e-07 4.932798e-08 -4.932798e-07 -6.577064e-08 -2.795252e-07 -1.808693e-07 1.512725e-06 1.233200e-08 -2.137546e-07 1.890906e-07 -4.603945e-07 6.744907e-01 1.505629e-01 -3.326924e-01 -2.234151e-02 3.332512e-02 4.011627e-02 1.535068e-01 1.834118e-01 -8.191705e-02 8.992338e-02 2.181907e-01 5.016479e-02 8.298168e-02 -3.297746e-03 -7.345560e-03 -4.456094e-03 -1.690198e-02 3.021555e-02 -2.206221e-02 3.558183e-02 2.021156e-03 -9.361999e-04 -8.001492e-02 7.303651e-02 6.076154e-02 1.283796e-01 -1.408301e-03
<VARIANCE> 39
 2.915926e+01 4.840945e+01 1.333266e+01 1.461784e+02 5.694291e+01 2.281424e+01 7.947738e+01 9.185998e+01 5.281180e+01 6.830215e+01 3.887336e+01 5.344510e+01 3.203007e-02 2.242263e+00 1.018724e+00 2.004621e+00 5.164132e+00 3.112630e+00 1.892809e+00 2.340370e+00 3.257068e+00 4.701283e+00 6.231099e+00 3.861995e+00 4.800575e+00 1.282868e-03 3.304951e-01 1.566904e-01 4.372782e-01 7.313423e-01 5.215119e-01 3.472114e-01 4.450271e-01 4.108340e-01 7.733971e-01 1.102317e+00 6.301509e-01 5.879735e-01 1.062498e-04
<GCONST> 1.037541e+02
<STATE> 4
<MEAN> 39
 -1.315413e-07 4.768372e-07 4.932798e-08 -4.932798e-07 -6.577064e-08 -2.795252e-07 -1.808693e-07 1.512725e-06 1.233200e-08 -2.137546e-07 1.890906e-07 -4.603945e-07 6.744907e-01 1.505629e-01 -3.326924e-01 -2.234151e-02 3.332512e-02 4.011627e-02 1.535068e-01 1.834118e-01 -8.191705e-02 8.992338e-02 2.181907e-01 5.016479e-02 8.298168e-02 -3.297746e-03 -7.345560e-03 -4.456094e-03 -1.690198e-02 3.021555e-02 -2.206221e-02 3.558183e-02 2.021156e-03 -9.361999e-04 -8.001492e-02 7.303651e-02 6.076154e-02 1.283796e-01 -1.408301e-03
<VARIANCE> 39
 2.915926e+01 4.840945e+01 1.333266e+01 1.461784e+02 5.694291e+01 2.281424e+01 7.947738e+01 9.185998e+01 5.281180e+01 6.830215e+01 3.887336e+01 5.344510e+01 3.203007e-02 2.242263e+00 1.018724e+00 2.004621e+00 5.164132e+00 3.112630e+00 1.892809e+00 2.340370e+00 3.257068e+00 4.701283e+00 6.231099e+00 3.861995e+00 4.800575e+00 1.282868e-03 3.304951e-01 1.566904e-01 4.372782e-01 7.313423e-01 5.215119e-01 3.472114e-01 4.450271e-01 4.108340e-01 7.733971e-01 1.102317e+00 6.301509e-01 5.879735e-01 1.062498e-04
<GCONST> 1.037541e+02
<STATE> 5
<MEAN> 39
 -1.315413e-07 4.768372e-07 4.932798e-08 -4.932798e-07 -6.577064e-08 -2.795252e-07 -1.808693e-07 1.512725e-06 1.233200e-08 -2.137546e-07 1.890906e-07 -4.603945e-07 6.744907e-01 1.505629e-01 -3.326924e-01 -2.234151e-02 3.332512e-02 4.011627e-02 1.535068e-01 1.834118e-01 -8.191705e-02 8.992338e-02 2.181907e-01 5.016479e-02 8.298168e-02 -3.297746e-03 -7.345560e-03 -4.456094e-03 -1.690198e-02 3.021555e-02 -2.206221e-02 3.558183e-02 2.021156e-03 -9.361999e-04 -8.001492e-02 7.303651e-02 6.076154e-02 1.283796e-01 -1.408301e-03
<VARIANCE> 39
 2.915926e+01 4.840945e+01 1.333266e+01 1.461784e+02 5.694291e+01 2.281424e+01 7.947738e+01 9.185998e+01 5.281180e+01 6.830215e+01 3.887336e+01 5.344510e+01 3.203007e-02 2.242263e+00 1.018724e+00 2.004621e+00 5.164132e+00 3.112630e+00 1.892809e+00 2.340370e+00 3.257068e+00 4.701283e+00 6.231099e+00 3.861995e+00 4.800575e+00 1.282868e-03 3.304951e-01 1.566904e-01 4.372782e-01 7.313423e-01 5.215119e-01 3.472114e-01 4.450271e-01 4.108340e-01 7.733971e-01 1.102317e+00 6.301509e-01 5.879735e-01 1.062498e-04
<GCONST> 1.037541e+02
<STATE> 6
<MEAN> 39
 -1.315413e-07 4.768372e-07 4.932798e-08 -4.932798e-07 -6.577064e-08 -2.795252e-07 -1.808693e-07 1.512725e-06 1.233200e-08 -2.137546e-07 1.890906e-07 -4.603945e-07 6.744907e-01 1.505629e-01 -3.326924e-01 -2.234151e-02 3.332512e-02 4.011627e-02 1.535068e-01 1.834118e-01 -8.191705e-02 8.992338e-02 2.181907e-01 5.016479e-02 8.298168e-02 -3.297746e-03 -7.345560e-03 -4.456094e-03 -1.690198e-02 3.021555e-02 -2.206221e-02 3.558183e-02 2.021156e-03 -9.361999e-04 -8.001492e-02 7.303651e-02 6.076154e-02 1.283796e-01 -1.408301e-03
<VARIANCE> 39
 2.915926e+01 4.840945e+01 1.333266e+01 1.461784e+02 5.694291e+01 2.281424e+01 7.947738e+01 9.185998e+01 5.281180e+01 6.830215e+01 3.887336e+01 5.344510e+01 3.203007e-02 2.242263e+00 1.018724e+00 2.004621e+00 5.164132e+00 3.112630e+00 1.892809e+00 2.340370e+00 3.257068e+00 4.701283e+00 6.231099e+00 3.861995e+00 4.800575e+00 1.282868e-03 3.304951e-01 1.566904e-01 4.372782e-01 7.313423e-01 5.215119e-01 3.472114e-01 4.450271e-01 4.108340e-01 7.733971e-01 1.102317e+00 6.301509e-01 5.879735e-01 1.062498e-04
<GCONST> 1.037541e+02
<STATE> 7
<MEAN> 39
 -1.315413e-07 4.768372e-07 4.932798e-08 -4.932798e-07 -6.577064e-08 -2.795252e-07 -1.808693e-07 1.512725e-06 1.233200e-08 -2.137546e-07 1.890906e-07 -4.603945e-07 6.744907e-01 1.505629e-01 -3.326924e-01 -2.234151e-02 3.332512e-02 4.011627e-02 1.535068e-01 1.834118e-01 -8.191705e-02 8.992338e-02 2.181907e-01 5.016479e-02 8.298168e-02 -3.297746e-03 -7.345560e-03 -4.456094e-03 -1.690198e-02 3.021555e-02 -2.206221e-02 3.558183e-02 2.021156e-03 -9.361999e-04 -8.001492e-02 7.303651e-02 6.076154e-02 1.283796e-01 -1.408301e-03
<VARIANCE> 39
 2.915926e+01 4.840945e+01 1.333266e+01 1.461784e+02 5.694291e+01 2.281424e+01 7.947738e+01 9.185998e+01 5.281180e+01 6.830215e+01 3.887336e+01 5.344510e+01 3.203007e-02 2.242263e+00 1.018724e+00 2.004621e+00 5.164132e+00 3.112630e+00 1.892809e+00 2.340370e+00 3.257068e+00 4.701283e+00 6.231099e+00 3.861995e+00 4.800575e+00 1.282868e-03 3.304951e-01 1.566904e-01 4.372782e-01 7.313423e-01 5.215119e-01 3.472114e-01 4.450271e-01 4.108340e-01 7.733971e-01 1.102317e+00 6.301509e-01 5.879735e-01 1.062498e-04
<GCONST> 1.037541e+02
<STATE> 8
<MEAN> 39
 -1.315413e-07 4.768372e-07 4.932798e-08 -4.932798e-07 -6.577064e-08 -2.795252e-07 -1.808693e-07 1.512725e-06 1.233200e-08 -2.137546e-07 1.890906e-07 -4.603945e-07 6.744907e-01 1.505629e-01 -3.326924e-01 -2.234151e-02 3.332512e-02 4.011627e-02 1.535068e-01 1.834118e-01 -8.191705e-02 8.992338e-02 2.181907e-01 5.016479e-02 8.298168e-02 -3.297746e-03 -7.345560e-03 -4.456094e-03 -1.690198e-02 3.021555e-02 -2.206221e-02 3.558183e-02 2.021156e-03 -9.361999e-04 -8.001492e-02 7.303651e-02 6.076154e-02 1.283796e-01 -1.408301e-03
<VARIANCE> 39
 2.915926e+01 4.840945e+01 1.333266e+01 1.461784e+02 5.694291e+01 2.281424e+01 7.947738e+01 9.185998e+01 5.281180e+01 6.830215e+01 3.887336e+01 5.344510e+01 3.203007e-02 2.242263e+00 1.018724e+00 2.004621e+00 5.164132e+00 3.112630e+00 1.892809e+00 2.340370e+00 3.257068e+00 4.701283e+00 6.231099e+00 3.861995e+00 4.800575e+00 1.282868e-03 3.304951e-01 1.566904e-01 4.372782e-01 7.313423e-01 5.215119e-01 3.472114e-01 4.450271e-01 4.108340e-01 7.733971e-01 1.102317e+00 6.301509e-01 5.879735e-01 1.062498e-04
<GCONST> 1.037541e+02
<STATE> 9
<MEAN> 39
 -1.315413e-07 4.768372e-07 4.932798e-08 -4.932798e-07 -6.577064e-08 -2.795252e-07 -1.808693e-07 1.512725e-06 1.233200e-08 -2.137546e-07 1.890906e-07 -4.603945e-07 6.744907e-01 1.505629e-01 -3.326924e-01 -2.234151e-02 3.332512e-02 4.011627e-02 1.535068e-01 1.834118e-01 -8.191705e-02 8.992338e-02 2.181907e-01 5.016479e-02 8.298168e-02 -3.297746e-03 -7.345560e-03 -4.456094e-03 -1.690198e-02 3.021555e-02 -2.206221e-02 3.558183e-02 2.021156e-03 -9.361999e-04 -8.001492e-02 7.303651e-02 6.076154e-02 1.283796e-01 -1.408301e-03
<VARIANCE> 39
 2.915926e+01 4.840945e+01 1.333266e+01 1.461784e+02 5.694291e+01 2.281424e+01 7.947738e+01 9.185998e+01 5.281180e+01 6.830215e+01 3.887336e+01 5.344510e+01 3.203007e-02 2.242263e+00 1.018724e+00 2.004621e+00 5.164132e+00 3.112630e+00 1.892809e+00 2.340370e+00 3.257068e+00 4.701283e+00 6.231099e+00 3.861995e+00 4.800575e+00 1.282868e-03 3.304951e-01 1.566904e-01 4.372782e-01 7.313423e-01 5.215119e-01 3.472114e-01 4.450271e-01 4.108340e-01 7.733971e-01 1.102317e+00 6.301509e-01 5.879735e-01 1.062498e-04
<GCONST> 1.037541e+02
<TRANSP> 10
 0.000000e+00 1.000000e+00 0.000000e+00 0.000000e+00 0.000000e+00 0.000000e+00 0.000000e+00 0.000000e+00 0.000000e+00 0.000000e+00
 0.000000e+00 9.000000e-01 9.999999e-02 0.000000e+00 0.000000e+00 0.000000e+00 0.000000e+00 0.000000e+00 0.000000e+00 0.000000e+00
 0.000000e+00 0.000000e+00 9.000000e-01 9.999999e-02 0.000000e+00 0.000000e+00 0.000000e+00 0.000000e+00 0.000000e+00 0.000000e+00
 0.000000e+00 0.000000e+00 0.000000e+00 9.000000e-01 9.999999e-02 0.000000e+00 0.000000e+00 0.000000e+00 0.000000e+00 0.000000e+00
 0.000000e+00 0.000000e+00 0.000000e+00 0.000000e+00 9.000000e-01 9.999999e-02 0.000000e+00 0.000000e+00 0.000000e+00 0.000000e+00
 0.000000e+00 0.000000e+00 0.000000e+00 0.000000e+00 0.000000e+00 9.000000e-01 9.999999e-02 0.000000e+00 0.000000e+00 0.000000e+00
 0.000000e+00 0.000000e+00 0.000000e+00 0.000000e+00 0.000000e+00 0.000000e+00 9.000000e-01 9.999999e-02 0.000000e+00 0.000000e+00
 0.000000e+00 0.000000e+00 0.000000e+00 0.000000e+00 0.000000e+00 0.000000e+00 0.000000e+00 9.000000e-01 9.999999e-02 0.000000e+00
 0.000000e+00 0.000000e+00 0.000000e+00 0.000000e+00 0.000000e+00 0.000000e+00 0.000000e+00 0.000000e+00 9.000000e-01 9.999999e-02
 0.000000e+00 0.000000e+00 0.000000e+00 0.000000e+00 0.000000e+00 0.000000e+00 0.000000e+00 0.000000e+00 0.000000e+00 0.000000e+00
<ENDHMM>
