~o
<STREAMINFO> 1 39
<VECSIZE> 39<NULLD><MFCC_E_D_A_Z><DIAGC>
~h "s075"
<BEGINHMM>
<NUMSTATES> 10
<STATE> 2
<MEAN> 39
 8.021560e-08 -4.790654e-07 9.135665e-08 -1.105193e-06 -1.738005e-07 -7.843303e-07 1.960826e-07 1.960826e-07 -2.228211e-08 -1.247798e-07 1.715723e-07 1.960826e-07 4.838621e-01 4.618567e-02 1.411979e-02 1.429111e-02 3.633726e-02 3.640882e-03 3.009438e-02 -3.854075e-02 -1.107199e-01 -4.687968e-02 1.034240e-01 -1.171933e-02 -1.223242e-02 -3.174764e-04 3.890709e-04 1.795141e-04 -3.045353e-03 -4.653473e-03 -3.183961e-02 8.513810e-03 5.334700e-03 2.639312e-03 -2.394230e-04 -3.083042e-04 5.914754e-03 3.764382e-02 -1.362234e-04
<VARIANCE> 39
 2.334321e+01 5.362421e+01 1.176951e+01 6.651142e+01 2.660056e+01 7.470090e+01 2.791320e+01 3.935812e+01 2.842211e+01 4.841851e+01 3.346712e+01 4.047126e+01 8.648808e-02 1.206450e+00 1.718657e+00 1.216030e+00 2.290381e+00 2.248607e+00 3.932610e+00 2.251211e+00 3.195680e+00 4.275655e+00 2.910545e+00 2.203794e+00 2.742521e+00 1.501663e-03 2.116688e-01 2.316456e-01 1.890832e-01 3.316944e-01 4.064012e-01 6.902504e-01 4.370165e-01 5.918289e-01 8.862827e-01 5.292965e-01 4.064679e-01 5.969302e-01 1.331173e-04
<GCONST> 9.627943e+01
<STATE> 3
<MEAN> 39
 8.021560e-08 -4.790654e-07 9.135665e-08 -1.105193e-06 -1.738005e-07 -7.843303e-07 1.960826e-07 1.960826e-07 -2.228211e-08 -1.247798e-07 1.715723e-07 1.960826e-07 4.838621e-01 4.618567e-02 1.411979e-02 1.429111e-02 3.633726e-02 3.640882e-03 3.009438e-02 -3.854075e-02 -1.107199e-01 -4.687968e-02 1.034240e-01 -1.171933e-02 -1.223242e-02 -3.174764e-04 3.890709e-04 1.795141e-04 -3.045353e-03 -4.653473e-03 -3.183961e-02 8.513810e-03 5.334700e-03 2.639312e-03 -2.394230e-04 -3.083042e-04 5.914754e-03 3.764382e-02 -1.362234e-04
<VARIANCE> 39
 2.334321e+01 5.362421e+01 1.176951e+01 6.651142e+01 2.660056e+01 7.470090e+01 2.791320e+01 3.935812e+01 2.842211e+01 4.841851e+01 3.346712e+01 4.047126e+01 8.648808e-02 1.206450e+00 1.718657e+00 1.216030e+00 2.290381e+00 2.248607e+00 3.932610e+00 2.251211e+00 3.195680e+00 4.275655e+00 2.910545e+00 2.203794e+00 2.742521e+00 1.501663e-03 2.116688e-01 2.316456e-01 1.890832e-01 3.316944e-01 4.064012e-01 6.902504e-01 4.370165e-01 5.918289e-01 8.862827e-01 5.292965e-01 4.064679e-01 5.969302e-01 1.331173e-04
<GCONST> 9.627943e+01
<STATE> 4
<MEAN> 39
 8.021560e-08 -4.790654e-07 9.135665e-08 -1.105193e-06 -1.738005e-07 -7.843303e-07 1.960826e-07 1.960826e-07 -2.228211e-08 -1.247798e-07 1.715723e-07 1.960826e-07 4.838621e-01 4.618567e-02 1.411979e-02 1.429111e-02 3.633726e-02 3.640882e-03 3.009438e-02 -3.854075e-02 -1.107199e-01 -4.687968e-02 1.034240e-01 -1.171933e-02 -1.223242e-02 -3.174764e-04 3.890709e-04 1.795141e-04 -3.045353e-03 -4.653473e-03 -3.183961e-02 8.513810e-03 5.334700e-03 2.639312e-03 -2.394230e-04 -3.083042e-04 5.914754e-03 3.764382e-02 -1.362234e-04
<VARIANCE> 39
 2.334321e+01 5.362421e+01 1.176951e+01 6.651142e+01 2.660056e+01 7.470090e+01 2.791320e+01 3.935812e+01 2.842211e+01 4.841851e+01 3.346712e+01 4.047126e+01 8.648808e-02 1.206450e+00 1.718657e+00 1.216030e+00 2.290381e+00 2.248607e+00 3.932610e+00 2.251211e+00 3.195680e+00 4.275655e+00 2.910545e+00 2.203794e+00 2.742521e+00 1.501663e-03 2.116688e-01 2.316456e-01 1.890832e-01 3.316944e-01 4.064012e-01 6.902504e-01 4.370165e-01 5.918289e-01 8.862827e-01 5.292965e-01 4.064679e-01 5.969302e-01 1.331173e-04
<GCONST> 9.627943e+01
<STATE> 5
<MEAN> 39
 8.021560e-08 -4.790654e-07 9.135665e-08 -1.105193e-06 -1.738005e-07 -7.843303e-07 1.960826e-07 1.960826e-07 -2.228211e-08 -1.247798e-07 1.715723e-07 1.960826e-07 4.838621e-01 4.618567e-02 1.411979e-02 1.429111e-02 3.633726e-02 3.640882e-03 3.009438e-02 -3.854075e-02 -1.107199e-01 -4.687968e-02 1.034240e-01 -1.171933e-02 -1.223242e-02 -3.174764e-04 3.890709e-04 1.795141e-04 -3.045353e-03 -4.653473e-03 -3.183961e-02 8.513810e-03 5.334700e-03 2.639312e-03 -2.394230e-04 -3.083042e-04 5.914754e-03 3.764382e-02 -1.362234e-04
<VARIANCE> 39
 2.334321e+01 5.362421e+01 1.176951e+01 6.651142e+01 2.660056e+01 7.470090e+01 2.791320e+01 3.935812e+01 2.842211e+01 4.841851e+01 3.346712e+01 4.047126e+01 8.648808e-02 1.206450e+00 1.718657e+00 1.216030e+00 2.290381e+00 2.248607e+00 3.932610e+00 2.251211e+00 3.195680e+00 4.275655e+00 2.910545e+00 2.203794e+00 2.742521e+00 1.501663e-03 2.116688e-01 2.316456e-01 1.890832e-01 3.316944e-01 4.064012e-01 6.902504e-01 4.370165e-01 5.918289e-01 8.862827e-01 5.292965e-01 4.064679e-01 5.969302e-01 1.331173e-04
<GCONST> 9.627943e+01
<STATE> 6
<MEAN> 39
 8.021560e-08 -4.790654e-07 9.135665e-08 -1.105193e-06 -1.738005e-07 -7.843303e-07 1.960826e-07 1.960826e-07 -2.228211e-08 -1.247798e-07 1.715723e-07 1.960826e-07 4.838621e-01 4.618567e-02 1.411979e-02 1.429111e-02 3.633726e-02 3.640882e-03 3.009438e-02 -3.854075e-02 -1.107199e-01 -4.687968e-02 1.034240e-01 -1.171933e-02 -1.223242e-02 -3.174764e-04 3.890709e-04 1.795141e-04 -3.045353e-03 -4.653473e-03 -3.183961e-02 8.513810e-03 5.334700e-03 2.639312e-03 -2.394230e-04 -3.083042e-04 5.914754e-03 3.764382e-02 -1.362234e-04
<VARIANCE> 39
 2.334321e+01 5.362421e+01 1.176951e+01 6.651142e+01 2.660056e+01 7.470090e+01 2.791320e+01 3.935812e+01 2.842211e+01 4.841851e+01 3.346712e+01 4.047126e+01 8.648808e-02 1.206450e+00 1.718657e+00 1.216030e+00 2.290381e+00 2.248607e+00 3.932610e+00 2.251211e+00 3.195680e+00 4.275655e+00 2.910545e+00 2.203794e+00 2.742521e+00 1.501663e-03 2.116688e-01 2.316456e-01 1.890832e-01 3.316944e-01 4.064012e-01 6.902504e-01 4.370165e-01 5.918289e-01 8.862827e-01 5.292965e-01 4.064679e-01 5.969302e-01 1.331173e-04
<GCONST> 9.627943e+01
<STATE> 7
<MEAN> 39
 8.021560e-08 -4.790654e-07 9.135665e-08 -1.105193e-06 -1.738005e-07 -7.843303e-07 1.960826e-07 1.960826e-07 -2.228211e-08 -1.247798e-07 1.715723e-07 1.960826e-07 4.838621e-01 4.618567e-02 1.411979e-02 1.429111e-02 3.633726e-02 3.640882e-03 3.009438e-02 -3.854075e-02 -1.107199e-01 -4.687968e-02 1.034240e-01 -1.171933e-02 -1.223242e-02 -3.174764e-04 3.890709e-04 1.795141e-04 -3.045353e-03 -4.653473e-03 -3.183961e-02 8.513810e-03 5.334700e-03 2.639312e-03 -2.394230e-04 -3.083042e-04 5.914754e-03 3.764382e-02 -1.362234e-04
<VARIANCE> 39
 2.334321e+01 5.362421e+01 1.176951e+01 6.651142e+01 2.660056e+01 7.470090e+01 2.791320e+01 3.935812e+01 2.842211e+01 4.841851e+01 3.346712e+01 4.047126e+01 8.648808e-02 1.206450e+00 1.718657e+00 1.216030e+00 2.290381e+00 2.248607e+00 3.932610e+00 2.251211e+00 3.195680e+00 4.275655e+00 2.910545e+00 2.203794e+00 2.742521e+00 1.501663e-03 2.116688e-01 2.316456e-01 1.890832e-01 3.316944e-01 4.064012e-01 6.902504e-01 4.370165e-01 5.918289e-01 8.862827e-01 5.292965e-01 4.064679e-01 5.969302e-01 1.331173e-04
<GCONST> 9.627943e+01
<STATE> 8
<MEAN> 39
 8.021560e-08 -4.790654e-07 9.135665e-08 -1.105193e-06 -1.738005e-07 -7.843303e-07 1.960826e-07 1.960826e-07 -2.228211e-08 -1.247798e-07 1.715723e-07 1.960826e-07 4.838621e-01 4.618567e-02 1.411979e-02 1.429111e-02 3.633726e-02 3.640882e-03 3.009438e-02 -3.854075e-02 -1.107199e-01 -4.687968e-02 1.034240e-01 -1.171933e-02 -1.223242e-02 -3.174764e-04 3.890709e-04 1.795141e-04 -3.045353e-03 -4.653473e-03 -3.183961e-02 8.513810e-03 5.334700e-03 2.639312e-03 -2.394230e-04 -3.083042e-04 5.914754e-03 3.764382e-02 -1.362234e-04
<VARIANCE> 39
 2.334321e+01 5.362421e+01 1.176951e+01 6.651142e+01 2.660056e+01 7.470090e+01 2.791320e+01 3.935812e+01 2.842211e+01 4.841851e+01 3.346712e+01 4.047126e+01 8.648808e-02 1.206450e+00 1.718657e+00 1.216030e+00 2.290381e+00 2.248607e+00 3.932610e+00 2.251211e+00 3.195680e+00 4.275655e+00 2.910545e+00 2.203794e+00 2.742521e+00 1.501663e-03 2.116688e-01 2.316456e-01 1.890832e-01 3.316944e-01 4.064012e-01 6.902504e-01 4.370165e-01 5.918289e-01 8.862827e-01 5.292965e-01 4.064679e-01 5.969302e-01 1.331173e-04
<GCONST> 9.627943e+01
<STATE> 9
<MEAN> 39
 8.021560e-08 -4.790654e-07 9.135665e-08 -1.105193e-06 -1.738005e-07 -7.843303e-07 1.960826e-07 1.960826e-07 -2.228211e-08 -1.247798e-07 1.715723e-07 1.960826e-07 4.838621e-01 4.618567e-02 1.411979e-02 1.429111e-02 3.633726e-02 3.640882e-03 3.009438e-02 -3.854075e-02 -1.107199e-01 -4.687968e-02 1.034240e-01 -1.171933e-02 -1.223242e-02 -3.174764e-04 3.890709e-04 1.795141e-04 -3.045353e-03 -4.653473e-03 -3.183961e-02 8.513810e-03 5.334700e-03 2.639312e-03 -2.394230e-04 -3.083042e-04 5.914754e-03 3.764382e-02 -1.362234e-04
<VARIANCE> 39
 2.334321e+01 5.362421e+01 1.176951e+01 6.651142e+01 2.660056e+01 7.470090e+01 2.791320e+01 3.935812e+01 2.842211e+01 4.841851e+01 3.346712e+01 4.047126e+01 8.648808e-02 1.206450e+00 1.718657e+00 1.216030e+00 2.290381e+00 2.248607e+00 3.932610e+00 2.251211e+00 3.195680e+00 4.275655e+00 2.910545e+00 2.203794e+00 2.742521e+00 1.501663e-03 2.116688e-01 2.316456e-01 1.890832e-01 3.316944e-01 4.064012e-01 6.902504e-01 4.370165e-01 5.918289e-01 8.862827e-01 5.292965e-01 4.064679e-01 5.969302e-01 1.331173e-04
<GCONST> 9.627943e+01
<TRANSP> 10
 0.000000e+00 1.000000e+00 0.000000e+00 0.000000e+00 0.000000e+00 0.000000e+00 0.000000e+00 0.000000e+00 0.000000e+00 0.000000e+00
 0.000000e+00 9.000000e-01 9.999999e-02 0.000000e+00 0.000000e+00 0.000000e+00 0.000000e+00 0.000000e+00 0.000000e+00 0.000000e+00
 0.000000e+00 0.000000e+00 9.000000e-01 9.999999e-02 0.000000e+00 0.000000e+00 0.000000e+00 0.000000e+00 0.000000e+00 0.000000e+00
 0.000000e+00 0.000000e+00 0.000000e+00 9.000000e-01 9.999999e-02 0.000000e+00 0.000000e+00 0.000000e+00 0.000000e+00 0.000000e+00
 0.000000e+00 0.000000e+00 0.000000e+00 0.000000e+00 9.000000e-01 9.999999e-02 0.000000e+00 0.000000e+00 0.000000e+00 0.000000e+00
 0.000000e+00 0.000000e+00 0.000000e+00 0.000000e+00 0.000000e+00 9.000000e-01 9.999999e-02 0.000000e+00 0.000000e+00 0.000000e+00
 0.000000e+00 0.000000e+00 0.000000e+00 0.000000e+00 0.000000e+00 0.000000e+00 9.000000e-01 9.999999e-02 0.000000e+00 0.000000e+00
 0.000000e+00 0.000000e+00 0.000000e+00 0.000000e+00 0.000000e+00 0.000000e+00 0.000000e+00 9.000000e-01 9.999999e-02 0.000000e+00
 0.000000e+00 0.000000e+00 0.000000e+00 0.000000e+00 0.000000e+00 0.000000e+00 0.000000e+00 0.000000e+00 9.000000e-01 9.999999e-02
 0.000000e+00 0.000000e+00 0.000000e+00 0.000000e+00 0.000000e+00 0.000000e+00 0.000000e+00 0.000000e+00 0.000000e+00 0.000000e+00
<ENDHMM>
