~o
<STREAMINFO> 1 39
<VECSIZE> 39<NULLD><MFCC_E_D_A_Z><DIAGC>
~h "s076"
<BEGINHMM>
<NUMSTATES> 10
<STATE> 2
<MEAN> 39
 1.907349e-07 1.118733e-07 -1.833989e-08 -6.602361e-08 -5.135169e-08 5.795405e-07 3.026082e-08 2.090748e-07 1.155413e-07 4.401574e-08 4.034776e-07 -8.894847e-08 4.116279e-01 3.261030e-02 3.404414e-02 4.938766e-03 -2.098384e-02 -1.294290e-01 -8.584469e-03 -2.547558e-02 -3.364216e-02 -8.893332e-02 -1.160349e-01 -2.560163e-02 -4.943961e-02 1.954581e-04 -1.155117e-04 1.628357e-03 -4.963778e-03 8.950886e-03 -1.431599e-02 4.671116e-03 1.627757e-02 2.332285e-02 2.361617e-02 9.482125e-04 1.543754e-02 1.436485e-02 6.889235e-05
<VARIANCE> 39
 9.654295e+00 6.764057e+00 8.915601e+01 3.922495e+01 2.976929e+01 9.691071e+01 2.499800e+01 3.340149e+01 3.621582e+01 3.375427e+01 2.637823e+01 2.520860e+01 8.393107e-02 5.924176e-01 7.276378e-01 1.554224e+00 1.325158e+00 2.381125e+00 3.019453e+00 2.730311e+00 2.706989e+00 2.413560e+00 2.645222e+00 2.693431e+00 2.384839e+00 8.016075e-04 1.039697e-01 1.446402e-01 1.875933e-01 2.164988e-01 4.053935e-01 5.296007e-01 5.498072e-01 4.897812e-01 4.287129e-01 5.528367e-01 5.668131e-01 4.668406e-01 7.212254e-05
<GCONST> 8.772235e+01
<STATE> 3
<MEAN> 39
 1.907349e-07 1.118733e-07 -1.833989e-08 -6.602361e-08 -5.135169e-08 5.795405e-07 3.026082e-08 2.090748e-07 1.155413e-07 4.401574e-08 4.034776e-07 -8.894847e-08 4.116279e-01 3.261030e-02 3.404414e-02 4.938766e-03 -2.098384e-02 -1.294290e-01 -8.584469e-03 -2.547558e-02 -3.364216e-02 -8.893332e-02 -1.160349e-01 -2.560163e-02 -4.943961e-02 1.954581e-04 -1.155117e-04 1.628357e-03 -4.963778e-03 8.950886e-03 -1.431599e-02 4.671116e-03 1.627757e-02 2.332285e-02 2.361617e-02 9.482125e-04 1.543754e-02 1.436485e-02 6.889235e-05
<VARIANCE> 39
 9.654295e+00 6.764057e+00 8.915601e+01 3.922495e+01 2.976929e+01 9.691071e+01 2.499800e+01 3.340149e+01 3.621582e+01 3.375427e+01 2.637823e+01 2.520860e+01 8.393107e-02 5.924176e-01 7.276378e-01 1.554224e+00 1.325158e+00 2.381125e+00 3.019453e+00 2.730311e+00 2.706989e+00 2.413560e+00 2.645222e+00 2.693431e+00 2.384839e+00 8.016075e-04 1.039697e-01 1.446402e-01 1.875933e-01 2.164988e-01 4.053935e-01 5.296007e-01 5.498072e-01 4.897812e-01 4.287129e-01 5.528367e-01 5.668131e-01 4.668406e-01 7.212254e-05
<GCONST> 8.772235e+01
<STATE> 4
<MEAN> 39
 1.907349e-07 1.118733e-07 -1.833989e-08 -6.602361e-08 -5.135169e-08 5.795405e-07 3.026082e-08 2.090748e-07 1.155413e-07 4.401574e-08 4.034776e-07 -8.894847e-08 4.116279e-01 3.261030e-02 3.404414e-02 4.938766e-03 -2.098384e-02 -1.294290e-01 -8.584469e-03 -2.547558e-02 -3.364216e-02 -8.893332e-02 -1.160349e-01 -2.560163e-02 -4.943961e-02 1.954581e-04 -1.155117e-04 1.628357e-03 -4.963778e-03 8.950886e-03 -1.431599e-02 4.671116e-03 1.627757e-02 2.332285e-02 2.361617e-02 9.482125e-04 1.543754e-02 1.436485e-02 6.889235e-05
<VARIANCE> 39
 9.654295e+00 6.764057e+00 8.915601e+01 3.922495e+01 2.976929e+01 9.691071e+01 2.499800e+01 3.340149e+01 3.621582e+01 3.375427e+01 2.637823e+01 2.520860e+01 8.393107e-02 5.924176e-01 7.276378e-01 1.554224e+00 1.325158e+00 2.381125e+00 3.019453e+00 2.730311e+00 2.706989e+00 2.413560e+00 2.645222e+00 2.693431e+00 2.384839e+00 8.016075e-04 1.039697e-01 1.446402e-01 1.875933e-01 2.164988e-01 4.053935e-01 5.296007e-01 5.498072e-01 4.897812e-01 4.287129e-01 5.528367e-01 5.668131e-01 4.668406e-01 7.212254e-05
<GCONST> 8.772235e+01
<STATE> 5
<MEAN> 39
 1.907349e-07 1.118733e-07 -1.833989e-08 -6.602361e-08 -5.135169e-08 5.795405e-07 3.026082e-08 2.090748e-07 1.155413e-07 4.401574e-08 4.034776e-07 -8.894847e-08 4.116279e-01 3.261030e-02 3.404414e-02 4.938766e-03 -2.098384e-02 -1.294290e-01 -8.584469e-03 -2.547558e-02 -3.364216e-02 -8.893332e-02 -1.160349e-01 -2.560163e-02 -4.943961e-02 1.954581e-04 -1.155117e-04 1.628357e-03 -4.963778e-03 8.950886e-03 -1.431599e-02 4.671116e-03 1.627757e-02 2.332285e-02 2.361617e-02 9.482125e-04 1.543754e-02 1.436485e-02 6.889235e-05
<VARIANCE> 39
 9.654295e+00 6.764057e+00 8.915601e+01 3.922495e+01 2.976929e+01 9.691071e+01 2.499800e+01 3.340149e+01 3.621582e+01 3.375427e+01 2.637823e+01 2.520860e+01 8.393107e-02 5.924176e-01 7.276378e-01 1.554224e+00 1.325158e+00 2.381125e+00 3.019453e+00 2.730311e+00 2.706989e+00 2.413560e+00 2.645222e+00 2.693431e+00 2.384839e+00 8.016075e-04 1.039697e-01 1.446402e-01 1.875933e-01 2.164988e-01 4.053935e-01 5.296007e-01 5.498072e-01 4.897812e-01 4.287129e-01 5.528367e-01 5.668131e-01 4.668406e-01 7.212254e-05
<GCONST> 8.772235e+01
<STATE> 6
<MEAN> 39
 1.907349e-07 1.118733e-07 -1.833989e-08 -6.602361e-08 -5.135169e-08 5.795405e-07 3.026082e-08 2.090748e-07 1.155413e-07 4.401574e-08 4.034776e-07 -8.894847e-08 4.116279e-01 3.261030e-02 3.404414e-02 4.938766e-03 -2.098384e-02 -1.294290e-01 -8.584469e-03 -2.547558e-02 -3.364216e-02 -8.893332e-02 -1.160349e-01 -2.560163e-02 -4.943961e-02 1.954581e-04 -1.155117e-04 1.628357e-03 -4.963778e-03 8.950886e-03 -1.431599e-02 4.671116e-03 1.627757e-02 2.332285e-02 2.361617e-02 9.482125e-04 1.543754e-02 1.436485e-02 6.889235e-05
<VARIANCE> 39
 9.654295e+00 6.764057e+00 8.915601e+01 3.922495e+01 2.976929e+01 9.691071e+01 2.499800e+01 3.340149e+01 3.621582e+01 3.375427e+01 2.637823e+01 2.520860e+01 8.393107e-02 5.924176e-01 7.276378e-01 1.554224e+00 1.325158e+00 2.381125e+00 3.019453e+00 2.730311e+00 2.706989e+00 2.413560e+00 2.645222e+00 2.693431e+00 2.384839e+00 8.016075e-04 1.039697e-01 1.446402e-01 1.875933e-01 2.164988e-01 4.053935e-01 5.296007e-01 5.498072e-01 4.897812e-01 4.287129e-01 5.528367e-01 5.668131e-01 4.668406e-01 7.212254e-05
<GCONST> 8.772235e+01
<STATE> 7
<MEAN> 39
 1.907349e-07 1.118733e-07 -1.833989e-08 -6.602361e-08 -5.135169e-08 5.795405e-07 3.026082e-08 2.090748e-07 1.155413e-07 4.401574e-08 4.034776e-07 -8.894847e-08 4.116279e-01 3.261030e-02 3.404414e-02 4.938766e-03 -2.098384e-02 -1.294290e-01 -8.584469e-03 -2.547558e-02 -3.364216e-02 -8.893332e-02 -1.160349e-01 -2.560163e-02 -4.943961e-02 1.954581e-04 -1.155117e-04 1.628357e-03 -4.963778e-03 8.950886e-03 -1.431599e-02 4.671116e-03 1.627757e-02 2.332285e-02 2.361617e-02 9.482125e-04 1.543754e-02 1.436485e-02 6.889235e-05
<VARIANCE> 39
 9.654295e+00 6.764057e+00 8.915601e+01 3.922495e+01 2.976929e+01 9.691071e+01 2.499800e+01 3.340149e+01 3.621582e+01 3.375427e+01 2.637823e+01 2.520860e+01 8.393107e-02 5.924176e-01 7.276378e-01 1.554224e+00 1.325158e+00 2.381125e+00 3.019453e+00 2.730311e+00 2.706989e+00 2.413560e+00 2.645222e+00 2.693431e+00 2.384839e+00 8.016075e-04 1.039697e-01 1.446402e-01 1.875933e-01 2.164988e-01 4.053935e-01 5.296007e-01 5.498072e-01 4.897812e-01 4.287129e-01 5.528367e-01 5.668131e-01 4.668406e-01 7.212254e-05
<GCONST> 8.772235e+01
<STATE> 8
<MEAN> 39
 1.907349e-07 1.118733e-07 -1.833989e-08 -6.602361e-08 -5.135169e-08 5.795405e-07 3.026082e-08 2.090748e-07 1.155413e-07 4.401574e-08 4.034776e-07 -8.894847e-08 4.116279e-01 3.261030e-02 3.404414e-02 4.938766e-03 -2.098384e-02 -1.294290e-01 -8.584469e-03 -2.547558e-02 -3.364216e-02 -8.893332e-02 -1.160349e-01 -2.560163e-02 -4.943961e-02 1.954581e-04 -1.155117e-04 1.628357e-03 -4.963778e-03 8.950886e-03 -1.431599e-02 4.671116e-03 1.627757e-02 2.332285e-02 2.361617e-02 9.482125e-04 1.543754e-02 1.436485e-02 6.889235e-05
<VARIANCE> 39
 9.654295e+00 6.764057e+00 8.915601e+01 3.922495e+01 2.976929e+01 9.691071e+01 2.499800e+01 3.340149e+01 3.621582e+01 3.375427e+01 2.637823e+01 2.520860e+01 8.393107e-02 5.924176e-01 7.276378e-01 1.554224e+00 1.325158e+00 2.381125e+00 3.019453e+00 2.730311e+00 2.706989e+00 2.413560e+00 2.645222e+00 2.693431e+00 2.384839e+00 8.016075e-04 1.039697e-01 1.446402e-01 1.875933e-01 2.164988e-01 4.053935e-01 5.296007e-01 5.498072e-01 4.897812e-01 4.287129e-01 5.528367e-01 5.668131e-01 4.668406e-01 7.212254e-05
<GCONST> 8.772235e+01
<STATE> 9
<MEAN> 39
 1.907349e-07 1.118733e-07 -1.833989e-08 -6.602361e-08 -5.135169e-08 5.795405e-07 3.026082e-08 2.090748e-07 1.155413e-07 4.401574e-08 4.034776e-07 -8.894847e-08 4.116279e-01 3.261030e-02 3.404414e-02 4.938766e-03 -2.098384e-02 -1.294290e-01 -8.584469e-03 -2.547558e-02 -3.364216e-02 -8.893332e-02 -1.160349e-01 -2.560163e-02 -4.943961e-02 1.954581e-04 -1.155117e-04 1.628357e-03 -4.963778e-03 8.950886e-03 -1.431599e-02 4.671116e-03 1.627757e-02 2.332285e-02 2.361617e-02 9.482125e-04 1.543754e-02 1.436485e-02 6.889235e-05
<VARIANCE> 39
 9.654295e+00 6.764057e+00 8.915601e+01 3.922495e+01 2.976929e+01 9.691071e+01 2.499800e+01 3.340149e+01 3.621582e+01 3.375427e+01 2.637823e+01 2.520860e+01 8.393107e-02 5.924176e-01 7.276378e-01 1.554224e+00 1.325158e+00 2.381125e+00 3.019453e+00 2.730311e+00 2.706989e+00 2.413560e+00 2.645222e+00 2.693431e+00 2.384839e+00 8.016075e-04 1.039697e-01 1.446402e-01 1.875933e-01 2.164988e-01 4.053935e-01 5.296007e-01 5.498072e-01 4.897812e-01 4.287129e-01 5.528367e-01 5.668131e-01 4.668406e-01 7.212254e-05
<GCONST> 8.772235e+01
<TRANSP> 10
 0.000000e+00 1.000000e+00 0.000000e+00 0.000000e+00 0.000000e+00 0.000000e+00 0.000000e+00 0.000000e+00 0.000000e+00 0.000000e+00
 0.000000e+00 9.000000e-01 9.999999e-02 0.000000e+00 0.000000e+00 0.000000e+00 0.000000e+00 0.000000e+00 0.000000e+00 0.000000e+00
 0.000000e+00 0.000000e+00 9.000000e-01 9.999999e-02 0.000000e+00 0.000000e+00 0.000000e+00 0.000000e+00 0.000000e+00 0.000000e+00
 0.000000e+00 0.000000e+00 0.000000e+00 9.000000e-01 9.999999e-02 0.000000e+00 0.000000e+00 0.000000e+00 0.000000e+00 0.000000e+00
 0.000000e+00 0.000000e+00 0.000000e+00 0.000000e+00 9.000000e-01 9.999999e-02 0.000000e+00 0.000000e+00 0.000000e+00 0.000000e+00
 0.000000e+00 0.000000e+00 0.000000e+00 0.000000e+00 0.000000e+00 9.000000e-01 9.999999e-02 0.000000e+00 0.000000e+00 0.000000e+00
 0.000000e+00 0.000000e+00 0.000000e+00 0.000000e+00 0.000000e+00 0.000000e+00 9.000000e-01 9.999999e-02 0.000000e+00 0.000000e+00
 0.000000e+00 0.000000e+00 0.000000e+00 0.000000e+00 0.000000e+00 0.000000e+00 0.000000e+00 9.000000e-01 9.999999e-02 0.000000e+00
 0.000000e+00 0.000000e+00 0.000000e+00 0.000000e+00 0.000000e+00 0.000000e+00 0.000000e+00 0.000000e+00 9.000000e-01 9.999999e-02
 0.000000e+00 0.000000e+00 0.000000e+00 0.000000e+00 0.000000e+00 0.000000e+00 0.000000e+00 0.000000e+00 0.000000e+00 0.000000e+00
<ENDHMM>
