~o
<STREAMINFO> 1 39
<VECSIZE> 39<NULLD><MFCC_E_D_A_Z><DIAGC>
~h "s077"
<BEGINHMM>
<NUMSTATES> 10
<STATE> 2
<MEAN> 39
 -3.051758e-07 -9.536743e-09 1.144409e-07 -1.716614e-07 9.536743e-08 -1.525879e-07 -1.907349e-08 0.000000e+00 1.144409e-07 -3.242493e-07 1.907349e-07 9.536743e-09 8.255537e-01 1.204793e-01 3.104325e-02 -3.364784e-02 -5.068420e-01 4.178165e-02 2.488825e-01 4.498412e-02 -4.761533e-01 -1.083358e-01 1.345807e-01 -8.143843e-02 -1.687085e-01 4.281193e-03 4.463512e-03 2.311450e-02 1.203674e-02 -4.938517e-03 -3.729278e-02 -8.265491e-03 4.028695e-02 -3.606985e-02 -3.691307e-02 1.823336e-02 7.344852e-02 -1.119155e-03 -6.574312e-04
<VARIANCE> 39
 1.397588e+01 6.352621e+01 3.548883e+01 1.342579e+02 2.898536e+01 7.299506e+01 3.581279e+01 8.873208e+01 4.371943e+01 1.726455e+01 5.940323e+01 3.328071e+01 1.834367e-02 1.258129e+00 2.756667e+00 2.066677e+00 3.481071e+00 1.960307e+00 2.779906e+00 4.020764e+00 3.118859e+00 4.314531e+00 1.850613e+00 4.385304e+00 2.787462e+00 1.205654e-03 2.066777e-01 2.453929e-01 2.109915e-01 5.072375e-01 3.573339e-01 4.197844e-01 7.783000e-01 2.230621e-01 6.690784e-01 3.886026e-01 6.278851e-01 3.853557e-01 1.387638e-04
<GCONST> 9.766191e+01
<STATE> 3
<MEAN> 39
 -3.051758e-07 -9.536743e-09 1.144409e-07 -1.716614e-07 9.536743e-08 -1.525879e-07 -1.907349e-08 0.000000e+00 1.144409e-07 -3.242493e-07 1.907349e-07 9.536743e-09 8.255537e-01 1.204793e-01 3.104325e-02 -3.364784e-02 -5.068420e-01 4.178165e-02 2.488825e-01 4.498412e-02 -4.761533e-01 -1.083358e-01 1.345807e-01 -8.143843e-02 -1.687085e-01 4.281193e-03 4.463512e-03 2.311450e-02 1.203674e-02 -4.938517e-03 -3.729278e-02 -8.265491e-03 4.028695e-02 -3.606985e-02 -3.691307e-02 1.823336e-02 7.344852e-02 -1.119155e-03 -6.574312e-04
<VARIANCE> 39
 1.397588e+01 6.352621e+01 3.548883e+01 1.342579e+02 2.898536e+01 7.299506e+01 3.581279e+01 8.873208e+01 4.371943e+01 1.726455e+01 5.940323e+01 3.328071e+01 1.834367e-02 1.258129e+00 2.756667e+00 2.066677e+00 3.481071e+00 1.960307e+00 2.779906e+00 4.020764e+00 3.118859e+00 4.314531e+00 1.850613e+00 4.385304e+00 2.787462e+00 1.205654e-03 2.066777e-01 2.453929e-01 2.109915e-01 5.072375e-01 3.573339e-01 4.197844e-01 7.783000e-01 2.230621e-01 6.690784e-01 3.886026e-01 6.278851e-01 3.853557e-01 1.387638e-04
<GCONST> 9.766191e+01
<STATE> 4
<MEAN> 39
 -3.051758e-07 -9.536743e-09 1.144409e-07 -1.716614e-07 9.536743e-08 -1.525879e-07 -1.907349e-08 0.000000e+00 1.144409e-07 -3.242493e-07 1.907349e-07 9.536743e-09 8.255537e-01 1.204793e-01 3.104325e-02 -3.364784e-02 -5.068420e-01 4.178165e-02 2.488825e-01 4.498412e-02 -4.761533e-01 -1.083358e-01 1.345807e-01 -8.143843e-02 -1.687085e-01 4.281193e-03 4.463512e-03 2.311450e-02 1.203674e-02 -4.938517e-03 -3.729278e-02 -8.265491e-03 4.028695e-02 -3.606985e-02 -3.691307e-02 1.823336e-02 7.344852e-02 -1.119155e-03 -6.574312e-04
<VARIANCE> 39
 1.397588e+01 6.352621e+01 3.548883e+01 1.342579e+02 2.898536e+01 7.299506e+01 3.581279e+01 8.873208e+01 4.371943e+01 1.726455e+01 5.940323e+01 3.328071e+01 1.834367e-02 1.258129e+00 2.756667e+00 2.066677e+00 3.481071e+00 1.960307e+00 2.779906e+00 4.020764e+00 3.118859e+00 4.314531e+00 1.850613e+00 4.385304e+00 2.787462e+00 1.205654e-03 2.066777e-01 2.453929e-01 2.109915e-01 5.072375e-01 3.573339e-01 4.197844e-01 7.783000e-01 2.230621e-01 6.690784e-01 3.886026e-01 6.278851e-01 3.853557e-01 1.387638e-04
<GCONST> 9.766191e+01
<STATE> 5
<MEAN> 39
 -3.051758e-07 -9.536743e-09 1.144409e-07 -1.716614e-07 9.536743e-08 -1.525879e-07 -1.907349e-08 0.000000e+00 1.144409e-07 -3.242493e-07 1.907349e-07 9.536743e-09 8.255537e-01 1.204793e-01 3.104325e-02 -3.364784e-02 -5.068420e-01 4.178165e-02 2.488825e-01 4.498412e-02 -4.761533e-01 -1.083358e-01 1.345807e-01 -8.143843e-02 -1.687085e-01 4.281193e-03 4.463512e-03 2.311450e-02 1.203674e-02 -4.938517e-03 -3.729278e-02 -8.265491e-03 4.028695e-02 -3.606985e-02 -3.691307e-02 1.823336e-02 7.344852e-02 -1.119155e-03 -6.574312e-04
<VARIANCE> 39
 1.397588e+01 6.352621e+01 3.548883e+01 1.342579e+02 2.898536e+01 7.299506e+01 3.581279e+01 8.873208e+01 4.371943e+01 1.726455e+01 5.940323e+01 3.328071e+01 1.834367e-02 1.258129e+00 2.756667e+00 2.066677e+00 3.481071e+00 1.960307e+00 2.779906e+00 4.020764e+00 3.118859e+00 4.314531e+00 1.850613e+00 4.385304e+00 2.787462e+00 1.205654e-03 2.066777e-01 2.453929e-01 2.109915e-01 5.072375e-01 3.573339e-01 4.197844e-01 7.783000e-01 2.230621e-01 6.690784e-01 3.886026e-01 6.278851e-01 3.853557e-01 1.387638e-04
<GCONST> 9.766191e+01
<STATE> 6
<MEAN> 39
 -3.051758e-07 -9.536743e-09 1.144409e-07 -1.716614e-07 9.536743e-08 -1.525879e-07 -1.907349e-08 0.000000e+00 1.144409e-07 -3.242493e-07 1.907349e-07 9.536743e-09 8.255537e-01 1.204793e-01 3.104325e-02 -3.364784e-02 -5.068420e-01 4.178165e-02 2.488825e-01 4.498412e-02 -4.761533e-01 -1.083358e-01 1.345807e-01 -8.143843e-02 -1.687085e-01 4.281193e-03 4.463512e-03 2.311450e-02 1.203674e-02 -4.938517e-03 -3.729278e-02 -8.265491e-03 4.028695e-02 -3.606985e-02 -3.691307e-02 1.823336e-02 7.344852e-02 -1.119155e-03 -6.574312e-04
<VARIANCE> 39
 1.397588e+01 6.352621e+01 3.548883e+01 1.342579e+02 2.898536e+01 7.299506e+01 3.581279e+01 8.873208e+01 4.371943e+01 1.726455e+01 5.940323e+01 3.328071e+01 1.834367e-02 1.258129e+00 2.756667e+00 2.066677e+00 3.481071e+00 1.960307e+00 2.779906e+00 4.020764e+00 3.118859e+00 4.314531e+00 1.850613e+00 4.385304e+00 2.787462e+00 1.205654e-03 2.066777e-01 2.453929e-01 2.109915e-01 5.072375e-01 3.573339e-01 4.197844e-01 7.783000e-01 2.230621e-01 6.690784e-01 3.886026e-01 6.278851e-01 3.853557e-01 1.387638e-04
<GCONST> 9.766191e+01
<STATE> 7
<MEAN> 39
 -3.051758e-07 -9.536743e-09 1.144409e-07 -1.716614e-07 9.536743e-08 -1.525879e-07 -1.907349e-08 0.000000e+00 1.144409e-07 -3.242493e-07 1.907349e-07 9.536743e-09 8.255537e-01 1.204793e-01 3.104325e-02 -3.364784e-02 -5.068420e-01 4.178165e-02 2.488825e-01 4.498412e-02 -4.761533e-01 -1.083358e-01 1.345807e-01 -8.143843e-02 -1.687085e-01 4.281193e-03 4.463512e-03 2.311450e-02 1.203674e-02 -4.938517e-03 -3.729278e-02 -8.265491e-03 4.028695e-02 -3.606985e-02 -3.691307e-02 1.823336e-02 7.344852e-02 -1.119155e-03 -6.574312e-04
<VARIANCE> 39
 1.397588e+01 6.352621e+01 3.548883e+01 1.342579e+02 2.898536e+01 7.299506e+01 3.581279e+01 8.873208e+01 4.371943e+01 1.726455e+01 5.940323e+01 3.328071e+01 1.834367e-02 1.258129e+00 2.756667e+00 2.066677e+00 3.481071e+00 1.960307e+00 2.779906e+00 4.020764e+00 3.118859e+00 4.314531e+00 1.850613e+00 4.385304e+00 2.787462e+00 1.205654e-03 2.066777e-01 2.453929e-01 2.109915e-01 5.072375e-01 3.573339e-01 4.197844e-01 7.783000e-01 2.230621e-01 6.690784e-01 3.886026e-01 6.278851e-01 3.853557e-01 1.387638e-04
<GCONST> 9.766191e+01
<STATE> 8
<MEAN> 39
 -3.051758e-07 -9.536743e-09 1.144409e-07 -1.716614e-07 9.536743e-08 -1.525879e-07 -1.907349e-08 0.000000e+00 1.144409e-07 -3.242493e-07 1.907349e-07 9.536743e-09 8.255537e-01 1.204793e-01 3.104325e-02 -3.364784e-02 -5.068420e-01 4.178165e-02 2.488825e-01 4.498412e-02 -4.761533e-01 -1.083358e-01 1.345807e-01 -8.143843e-02 -1.687085e-01 4.281193e-03 4.463512e-03 2.311450e-02 1.203674e-02 -4.938517e-03 -3.729278e-02 -8.265491e-03 4.028695e-02 -3.606985e-02 -3.691307e-02 1.823336e-02 7.344852e-02 -1.119155e-03 -6.574312e-04
<VARIANCE> 39
 1.397588e+01 6.352621e+01 3.548883e+01 1.342579e+02 2.898536e+01 7.299506e+01 3.581279e+01 8.873208e+01 4.371943e+01 1.726455e+01 5.940323e+01 3.328071e+01 1.834367e-02 1.258129e+00 2.756667e+00 2.066677e+00 3.481071e+00 1.960307e+00 2.779906e+00 4.020764e+00 3.118859e+00 4.314531e+00 1.850613e+00 4.385304e+00 2.787462e+00 1.205654e-03 2.066777e-01 2.453929e-01 2.109915e-01 5.072375e-01 3.573339e-01 4.197844e-01 7.783000e-01 2.230621e-01 6.690784e-01 3.886026e-01 6.278851e-01 3.853557e-01 1.387638e-04
<GCONST> 9.766191e+01
<STATE> 9
<MEAN> 39
 -3.051758e-07 -9.536743e-09 1.144409e-07 -1.716614e-07 9.536743e-08 -1.525879e-07 -1.907349e-08 0.000000e+00 1.144409e-07 -3.242493e-07 1.907349e-07 9.536743e-09 8.255537e-01 1.204793e-01 3.104325e-02 -3.364784e-02 -5.068420e-01 4.178165e-02 2.488825e-01 4.498412e-02 -4.761533e-01 -1.083358e-01 1.345807e-01 -8.143843e-02 -1.687085e-01 4.281193e-03 4.463512e-03 2.311450e-02 1.203674e-02 -4.938517e-03 -3.729278e-02 -8.265491e-03 4.028695e-02 -3.606985e-02 -3.691307e-02 1.823336e-02 7.344852e-02 -1.119155e-03 -6.574312e-04
<VARIANCE> 39
 1.397588e+01 6.352621e+01 3.548883e+01 1.342579e+02 2.898536e+01 7.299506e+01 3.581279e+01 8.873208e+01 4.371943e+01 1.726455e+01 5.940323e+01 3.328071e+01 1.834367e-02 1.258129e+00 2.756667e+00 2.066677e+00 3.481071e+00 1.960307e+00 2.779906e+00 4.020764e+00 3.118859e+00 4.314531e+00 1.850613e+00 4.385304e+00 2.787462e+00 1.205654e-03 2.066777e-01 2.453929e-01 2.109915e-01 5.072375e-01 3.573339e-01 4.197844e-01 7.783000e-01 2.230621e-01 6.690784e-01 3.886026e-01 6.278851e-01 3.853557e-01 1.387638e-04
<GCONST> 9.766191e+01
<TRANSP> 10
 0.000000e+00 1.000000e+00 0.000000e+00 0.000000e+00 0.000000e+00 0.000000e+00 0.000000e+00 0.000000e+00 0.000000e+00 0.000000e+00
 0.000000e+00 9.000000e-01 9.999999e-02 0.000000e+00 0.000000e+00 0.000000e+00 0.000000e+00 0.000000e+00 0.000000e+00 0.000000e+00
 0.000000e+00 0.000000e+00 9.000000e-01 9.999999e-02 0.000000e+00 0.000000e+00 0.000000e+00 0.000000e+00 0.000000e+00 0.000000e+00
 0.000000e+00 0.000000e+00 0.000000e+00 9.000000e-01 9.999999e-02 0.000000e+00 0.000000e+00 0.000000e+00 0.000000e+00 0.000000e+00
 0.000000e+00 0.000000e+00 0.000000e+00 0.000000e+00 9.000000e-01 9.999999e-02 0.000000e+00 0.000000e+00 0.000000e+00 0.000000e+00
 0.000000e+00 0.000000e+00 0.000000e+00 0.000000e+00 0.000000e+00 9.000000e-01 9.999999e-02 0.000000e+00 0.000000e+00 0.000000e+00
 0.000000e+00 0.000000e+00 0.000000e+00 0.000000e+00 0.000000e+00 0.000000e+00 9.000000e-01 9.999999e-02 0.000000e+00 0.000000e+00
 0.000000e+00 0.000000e+00 0.000000e+00 0.000000e+00 0.000000e+00 0.000000e+00 0.000000e+00 9.000000e-01 9.999999e-02 0.000000e+00
 0.000000e+00 0.000000e+00 0.000000e+00 0.000000e+00 0.000000e+00 0.000000e+00 0.000000e+00 0.000000e+00 9.000000e-01 9.999999e-02
 0.000000e+00 0.000000e+00 0.000000e+00 0.000000e+00 0.000000e+00 0.000000e+00 0.000000e+00 0.000000e+00 0.000000e+00 0.000000e+00
<ENDHMM>
