~o
<STREAMINFO> 1 39
<VECSIZE> 39<NULLD><MFCC_E_D_A_Z><DIAGC>
~h "s078"
<BEGINHMM>
<NUMSTATES> 10
<STATE> 2
<MEAN> 39
 2.543132e-07 -4.556444e-07 4.450480e-07 3.390842e-07 6.887648e-08 -2.755059e-07 1.695421e-07 4.238553e-07 2.066294e-07 1.271566e-07 2.119276e-08 3.284878e-07 8.982577e-01 3.128326e-01 -5.554791e-01 -1.471167e-01 4.738279e-01 4.310334e-01 -5.038814e-02 5.354973e-01 -4.281996e-01 -8.820474e-02 -1.344813e-01 -3.617350e-01 3.464488e-01 -3.180097e-03 -2.424231e-03 -1.501299e-02 3.096331e-02 3.888734e-02 5.576918e-04 -1.443465e-02 -3.566220e-02 -3.516539e-02 1.459061e-02 -1.938125e-02 2.676651e-02 -4.134318e-02 -8.363072e-04
<VARIANCE> 39
 2.334128e+01 1.454981e+02 2.199121e+01 8.977375e+01 5.474880e+01 2.066582e+01 4.899809e+01 7.190776e+01 6.945941e+01 9.019205e+01 2.595361e+01 7.715750e+01 6.446532e-03 1.109768e+00 2.650704e+00 2.032401e+00 2.196873e+00 5.379284e+00 1.781820e+00 1.834150e+00 3.826387e+00 5.719150e+00 3.046010e+00 2.250968e+00 2.297326e+00 5.093982e-04 1.333847e-01 3.049323e-01 3.707287e-01 3.478250e-01 7.984827e-01 2.804544e-01 3.051623e-01 4.952334e-01 7.609829e-01 3.901316e-01 3.436464e-01 3.709455e-01 5.376958e-05
<GCONST> 9.585534e+01
<STATE> 3
<MEAN> 39
 2.543132e-07 -4.556444e-07 4.450480e-07 3.390842e-07 6.887648e-08 -2.755059e-07 1.695421e-07 4.238553e-07 2.066294e-07 1.271566e-07 2.119276e-08 3.284878e-07 8.982577e-01 3.128326e-01 -5.554791e-01 -1.471167e-01 4.738279e-01 4.310334e-01 -5.038814e-02 5.354973e-01 -4.281996e-01 -8.820474e-02 -1.344813e-01 -3.617350e-01 3.464488e-01 -3.180097e-03 -2.424231e-03 -1.501299e-02 3.096331e-02 3.888734e-02 5.576918e-04 -1.443465e-02 -3.566220e-02 -3.516539e-02 1.459061e-02 -1.938125e-02 2.676651e-02 -4.134318e-02 -8.363072e-04
<VARIANCE> 39
 2.334128e+01 1.454981e+02 2.199121e+01 8.977375e+01 5.474880e+01 2.066582e+01 4.899809e+01 7.190776e+01 6.945941e+01 9.019205e+01 2.595361e+01 7.715750e+01 6.446532e-03 1.109768e+00 2.650704e+00 2.032401e+00 2.196873e+00 5.379284e+00 1.781820e+00 1.834150e+00 3.826387e+00 5.719150e+00 3.046010e+00 2.250968e+00 2.297326e+00 5.093982e-04 1.333847e-01 3.049323e-01 3.707287e-01 3.478250e-01 7.984827e-01 2.804544e-01 3.051623e-01 4.952334e-01 7.609829e-01 3.901316e-01 3.436464e-01 3.709455e-01 5.376958e-05
<GCONST> 9.585534e+01
<STATE> 4
<MEAN> 39
 2.543132e-07 -4.556444e-07 4.450480e-07 3.390842e-07 6.887648e-08 -2.755059e-07 1.695421e-07 4.238553e-07 2.066294e-07 1.271566e-07 2.119276e-08 3.284878e-07 8.982577e-01 3.128326e-01 -5.554791e-01 -1.471167e-01 4.738279e-01 4.310334e-01 -5.038814e-02 5.354973e-01 -4.281996e-01 -8.820474e-02 -1.344813e-01 -3.617350e-01 3.464488e-01 -3.180097e-03 -2.424231e-03 -1.501299e-02 3.096331e-02 3.888734e-02 5.576918e-04 -1.443465e-02 -3.566220e-02 -3.516539e-02 1.459061e-02 -1.938125e-02 2.676651e-02 -4.134318e-02 -8.363072e-04
<VARIANCE> 39
 2.334128e+01 1.454981e+02 2.199121e+01 8.977375e+01 5.474880e+01 2.066582e+01 4.899809e+01 7.190776e+01 6.945941e+01 9.019205e+01 2.595361e+01 7.715750e+01 6.446532e-03 1.109768e+00 2.650704e+00 2.032401e+00 2.196873e+00 5.379284e+00 1.781820e+00 1.834150e+00 3.826387e+00 5.719150e+00 3.046010e+00 2.250968e+00 2.297326e+00 5.093982e-04 1.333847e-01 3.049323e-01 3.707287e-01 3.478250e-01 7.984827e-01 2.804544e-01 3.051623e-01 4.952334e-01 7.609829e-01 3.901316e-01 3.436464e-01 3.709455e-01 5.376958e-05
<GCONST> 9.585534e+01
<STATE> 5
<MEAN> 39
 2.543132e-07 -4.556444e-07 4.450480e-07 3.390842e-07 6.887648e-08 -2.755059e-07 1.695421e-07 4.238553e-07 2.066294e-07 1.271566e-07 2.119276e-08 3.284878e-07 8.982577e-01 3.128326e-01 -5.554791e-01 -1.471167e-01 4.738279e-01 4.310334e-01 -5.038814e-02 5.354973e-01 -4.281996e-01 -8.820474e-02 -1.344813e-01 -3.617350e-01 3.464488e-01 -3.180097e-03 -2.424231e-03 -1.501299e-02 3.096331e-02 3.888734e-02 5.576918e-04 -1.443465e-02 -3.566220e-02 -3.516539e-02 1.459061e-02 -1.938125e-02 2.676651e-02 -4.134318e-02 -8.363072e-04
<VARIANCE> 39
 2.334128e+01 1.454981e+02 2.199121e+01 8.977375e+01 5.474880e+01 2.066582e+01 4.899809e+01 7.190776e+01 6.945941e+01 9.019205e+01 2.595361e+01 7.715750e+01 6.446532e-03 1.109768e+00 2.650704e+00 2.032401e+00 2.196873e+00 5.379284e+00 1.781820e+00 1.834150e+00 3.826387e+00 5.719150e+00 3.046010e+00 2.250968e+00 2.297326e+00 5.093982e-04 1.333847e-01 3.049323e-01 3.707287e-01 3.478250e-01 7.984827e-01 2.804544e-01 3.051623e-01 4.952334e-01 7.609829e-01 3.901316e-01 3.436464e-01 3.709455e-01 5.376958e-05
<GCONST> 9.585534e+01
<STATE> 6
<MEAN> 39
 2.543132e-07 -4.556444e-07 4.450480e-07 3.390842e-07 6.887648e-08 -2.755059e-07 1.695421e-07 4.238553e-07 2.066294e-07 1.271566e-07 2.119276e-08 3.284878e-07 8.982577e-01 3.128326e-01 -5.554791e-01 -1.471167e-01 4.738279e-01 4.310334e-01 -5.038814e-02 5.354973e-01 -4.281996e-01 -8.820474e-02 -1.344813e-01 -3.617350e-01 3.464488e-01 -3.180097e-03 -2.424231e-03 -1.501299e-02 3.096331e-02 3.888734e-02 5.576918e-04 -1.443465e-02 -3.566220e-02 -3.516539e-02 1.459061e-02 -1.938125e-02 2.676651e-02 -4.134318e-02 -8.363072e-04
<VARIANCE> 39
 2.334128e+01 1.454981e+02 2.199121e+01 8.977375e+01 5.474880e+01 2.066582e+01 4.899809e+01 7.190776e+01 6.945941e+01 9.019205e+01 2.595361e+01 7.715750e+01 6.446532e-03 1.109768e+00 2.650704e+00 2.032401e+00 2.196873e+00 5.379284e+00 1.781820e+00 1.834150e+00 3.826387e+00 5.719150e+00 3.046010e+00 2.250968e+00 2.297326e+00 5.093982e-04 1.333847e-01 3.049323e-01 3.707287e-01 3.478250e-01 7.984827e-01 2.804544e-01 3.051623e-01 4.952334e-01 7.609829e-01 3.901316e-01 3.436464e-01 3.709455e-01 5.376958e-05
<GCONST> 9.585534e+01
<STATE> 7
<MEAN> 39
 2.543132e-07 -4.556444e-07 4.450480e-07 3.390842e-07 6.887648e-08 -2.755059e-07 1.695421e-07 4.238553e-07 2.066294e-07 1.271566e-07 2.119276e-08 3.284878e-07 8.982577e-01 3.128326e-01 -5.554791e-01 -1.471167e-01 4.738279e-01 4.310334e-01 -5.038814e-02 5.354973e-01 -4.281996e-01 -8.820474e-02 -1.344813e-01 -3.617350e-01 3.464488e-01 -3.180097e-03 -2.424231e-03 -1.501299e-02 3.096331e-02 3.888734e-02 5.576918e-04 -1.443465e-02 -3.566220e-02 -3.516539e-02 1.459061e-02 -1.938125e-02 2.676651e-02 -4.134318e-02 -8.363072e-04
<VARIANCE> 39
 2.334128e+01 1.454981e+02 2.199121e+01 8.977375e+01 5.474880e+01 2.066582e+01 4.899809e+01 7.190776e+01 6.945941e+01 9.019205e+01 2.595361e+01 7.715750e+01 6.446532e-03 1.109768e+00 2.650704e+00 2.032401e+00 2.196873e+00 5.379284e+00 1.781820e+00 1.834150e+00 3.826387e+00 5.719150e+00 3.046010e+00 2.250968e+00 2.297326e+00 5.093982e-04 1.333847e-01 3.049323e-01 3.707287e-01 3.478250e-01 7.984827e-01 2.804544e-01 3.051623e-01 4.952334e-01 7.609829e-01 3.901316e-01 3.436464e-01 3.709455e-01 5.376958e-05
<GCONST> 9.585534e+01
<STATE> 8
<MEAN> 39
 2.543132e-07 -4.556444e-07 4.450480e-07 3.390842e-07 6.887648e-08 -2.755059e-07 1.695421e-07 4.238553e-07 2.066294e-07 1.271566e-07 2.119276e-08 3.284878e-07 8.982577e-01 3.128326e-01 -5.554791e-01 -1.471167e-01 4.738279e-01 4.310334e-01 -5.038814e-02 5.354973e-01 -4.281996e-01 -8.820474e-02 -1.344813e-01 -3.617350e-01 3.464488e-01 -3.180097e-03 -2.424231e-03 -1.501299e-02 3.096331e-02 3.888734e-02 5.576918e-04 -1.443465e-02 -3.566220e-02 -3.516539e-02 1.459061e-02 -1.938125e-02 2.676651e-02 -4.134318e-02 -8.363072e-04
<VARIANCE> 39
 2.334128e+01 1.454981e+02 2.199121e+01 8.977375e+01 5.474880e+01 2.066582e+01 4.899809e+01 7.190776e+01 6.945941e+01 9.019205e+01 2.595361e+01 7.715750e+01 6.446532e-03 1.109768e+00 2.650704e+00 2.032401e+00 2.196873e+00 5.379284e+00 1.781820e+00 1.834150e+00 3.826387e+00 5.719150e+00 3.046010e+00 2.250968e+00 2.297326e+00 5.093982e-04 1.333847e-01 3.049323e-01 3.707287e-01 3.478250e-01 7.984827e-01 2.804544e-01 3.051623e-01 4.952334e-01 7.609829e-01 3.901316e-01 3.436464e-01 3.709455e-01 5.376958e-05
<GCONST> 9.585534e+01
<STATE> 9
<MEAN> 39
 2.543132e-07 -4.556444e-07 4.450480e-07 3.390842e-07 6.887648e-08 -2.755059e-07 1.695421e-07 4.238553e-07 2.066294e-07 1.271566e-07 2.119276e-08 3.284878e-07 8.982577e-01 3.128326e-01 -5.554791e-01 -1.471167e-01 4.738279e-01 4.310334e-01 -5.038814e-02 5.354973e-01 -4.281996e-01 -8.820474e-02 -1.344813e-01 -3.617350e-01 3.464488e-01 -3.180097e-03 -2.424231e-03 -1.501299e-02 3.096331e-02 3.888734e-02 5.576918e-04 -1.443465e-02 -3.566220e-02 -3.516539e-02 1.459061e-02 -1.938125e-02 2.676651e-02 -4.134318e-02 -8.363072e-04
<VARIANCE> 39
 2.334128e+01 1.454981e+02 2.199121e+01 8.977375e+01 5.474880e+01 2.066582e+01 4.899809e+01 7.190776e+01 6.945941e+01 9.019205e+01 2.595361e+01 7.715750e+01 6.446532e-03 1.109768e+00 2.650704e+00 2.032401e+00 2.196873e+00 5.379284e+00 1.781820e+00 1.834150e+00 3.826387e+00 5.719150e+00 3.046010e+00 2.250968e+00 2.297326e+00 5.093982e-04 1.333847e-01 3.049323e-01 3.707287e-01 3.478250e-01 7.984827e-01 2.804544e-01 3.051623e-01 4.952334e-01 7.609829e-01 3.901316e-01 3.436464e-01 3.709455e-01 5.376958e-05
<GCONST> 9.585534e+01
<TRANSP> 10
 0.000000e+00 1.000000e+00 0.000000e+00 0.000000e+00 0.000000e+00 0.000000e+00 0.000000e+00 0.000000e+00 0.000000e+00 0.000000e+00
 0.000000e+00 9.000000e-01 9.999999e-02 0.000000e+00 0.000000e+00 0.000000e+00 0.000000e+00 0.000000e+00 0.000000e+00 0.000000e+00
 0.000000e+00 0.000000e+00 9.000000e-01 9.999999e-02 0.000000e+00 0.000000e+00 0.000000e+00 0.000000e+00 0.000000e+00 0.000000e+00
 0.000000e+00 0.000000e+00 0.000000e+00 9.000000e-01 9.999999e-02 0.000000e+00 0.000000e+00 0.000000e+00 0.000000e+00 0.000000e+00
 0.000000e+00 0.000000e+00 0.000000e+00 0.000000e+00 9.000000e-01 9.999999e-02 0.000000e+00 0.000000e+00 0.000000e+00 0.000000e+00
 0.000000e+00 0.000000e+00 0.000000e+00 0.000000e+00 0.000000e+00 9.000000e-01 9.999999e-02 0.000000e+00 0.000000e+00 0.000000e+00
 0.000000e+00 0.000000e+00 0.000000e+00 0.000000e+00 0.000000e+00 0.000000e+00 9.000000e-01 9.999999e-02 0.000000e+00 0.000000e+00
 0.000000e+00 0.000000e+00 0.000000e+00 0.000000e+00 0.000000e+00 0.000000e+00 0.000000e+00 9.000000e-01 9.999999e-02 0.000000e+00
 0.000000e+00 0.000000e+00 0.000000e+00 0.000000e+00 0.000000e+00 0.000000e+00 0.000000e+00 0.000000e+00 9.000000e-01 9.999999e-02
 0.000000e+00 0.000000e+00 0.000000e+00 0.000000e+00 0.000000e+00 0.000000e+00 0.000000e+00 0.000000e+00 0.000000e+00 0.000000e+00
<ENDHMM>
