~o
<STREAMINFO> 1 39
<VECSIZE> 39<NULLD><MFCC_E_D_A_Z><DIAGC>
~h "s079"
<BEGINHMM>
<NUMSTATES> 10
<STATE> 2
<MEAN> 39
 -1.842325e-07 0.000000e+00 -1.219186e-07 -4.768372e-07 4.985116e-07 8.669767e-08 1.300465e-07 7.044185e-08 6.502325e-08 7.586046e-08 1.300465e-07 -1.083721e-07 7.637074e-01 3.517272e-01 -4.248171e-02 1.721575e-01 -4.186264e-01 1.765523e-01 -6.582708e-02 -1.878317e-01 -8.556773e-02 -2.829208e-02 2.053242e-02 -1.573566e-01 1.759620e-01 4.156829e-03 3.963580e-02 4.307478e-02 2.587839e-02 -1.364915e-02 -9.728124e-02 1.412388e-02 1.713805e-02 7.049096e-02 4.752919e-02 -1.528558e-02 1.901616e-03 -6.039512e-02 2.755184e-04
<VARIANCE> 39
 1.916398e+01 4.325993e+01 1.925232e+01 7.773193e+01 4.297398e+01 4.926207e+01 4.776471e+01 7.270841e+01 4.388962e+01 2.744035e+01 2.553122e+01 9.604570e+01 3.246478e-02 2.229433e+00 1.703236e+00 1.734567e+00 4.094012e+00 3.175298e+00 3.803976e+00 3.442108e+00 7.948388e+00 5.629811e+00 3.918758e+00 2.095931e+00 6.213675e+00 2.540397e-03 4.050253e-01 1.639106e-01 2.823878e-01 4.401940e-01 5.627056e-01 7.161351e-01 4.418552e-01 1.292304e+00 1.255561e+00 8.251185e-01 3.181278e-01 1.047493e+00 3.274897e-04
<GCONST> 1.064158e+02
<STATE> 3
<MEAN> 39
 -1.842325e-07 0.000000e+00 -1.219186e-07 -4.768372e-07 4.985116e-07 8.669767e-08 1.300465e-07 7.044185e-08 6.502325e-08 7.586046e-08 1.300465e-07 -1.083721e-07 7.637074e-01 3.517272e-01 -4.248171e-02 1.721575e-01 -4.186264e-01 1.765523e-01 -6.582708e-02 -1.878317e-01 -8.556773e-02 -2.829208e-02 2.053242e-02 -1.573566e-01 1.759620e-01 4.156829e-03 3.963580e-02 4.307478e-02 2.587839e-02 -1.364915e-02 -9.728124e-02 1.412388e-02 1.713805e-02 7.049096e-02 4.752919e-02 -1.528558e-02 1.901616e-03 -6.039512e-02 2.755184e-04
<VARIANCE> 39
 1.916398e+01 4.325993e+01 1.925232e+01 7.773193e+01 4.297398e+01 4.926207e+01 4.776471e+01 7.270841e+01 4.388962e+01 2.744035e+01 2.553122e+01 9.604570e+01 3.246478e-02 2.229433e+00 1.703236e+00 1.734567e+00 4.094012e+00 3.175298e+00 3.803976e+00 3.442108e+00 7.948388e+00 5.629811e+00 3.918758e+00 2.095931e+00 6.213675e+00 2.540397e-03 4.050253e-01 1.639106e-01 2.823878e-01 4.401940e-01 5.627056e-01 7.161351e-01 4.418552e-01 1.292304e+00 1.255561e+00 8.251185e-01 3.181278e-01 1.047493e+00 3.274897e-04
<GCONST> 1.064158e+02
<STATE> 4
<MEAN> 39
 -1.842325e-07 0.000000e+00 -1.219186e-07 -4.768372e-07 4.985116e-07 8.669767e-08 1.300465e-07 7.044185e-08 6.502325e-08 7.586046e-08 1.300465e-07 -1.083721e-07 7.637074e-01 3.517272e-01 -4.248171e-02 1.721575e-01 -4.186264e-01 1.765523e-01 -6.582708e-02 -1.878317e-01 -8.556773e-02 -2.829208e-02 2.053242e-02 -1.573566e-01 1.759620e-01 4.156829e-03 3.963580e-02 4.307478e-02 2.587839e-02 -1.364915e-02 -9.728124e-02 1.412388e-02 1.713805e-02 7.049096e-02 4.752919e-02 -1.528558e-02 1.901616e-03 -6.039512e-02 2.755184e-04
<VARIANCE> 39
 1.916398e+01 4.325993e+01 1.925232e+01 7.773193e+01 4.297398e+01 4.926207e+01 4.776471e+01 7.270841e+01 4.388962e+01 2.744035e+01 2.553122e+01 9.604570e+01 3.246478e-02 2.229433e+00 1.703236e+00 1.734567e+00 4.094012e+00 3.175298e+00 3.803976e+00 3.442108e+00 7.948388e+00 5.629811e+00 3.918758e+00 2.095931e+00 6.213675e+00 2.540397e-03 4.050253e-01 1.639106e-01 2.823878e-01 4.401940e-01 5.627056e-01 7.161351e-01 4.418552e-01 1.292304e+00 1.255561e+00 8.251185e-01 3.181278e-01 1.047493e+00 3.274897e-04
<GCONST> 1.064158e+02
<STATE> 5
<MEAN> 39
 -1.842325e-07 0.000000e+00 -1.219186e-07 -4.768372e-07 4.985116e-07 8.669767e-08 1.300465e-07 7.044185e-08 6.502325e-08 7.586046e-08 1.300465e-07 -1.083721e-07 7.637074e-01 3.517272e-01 -4.248171e-02 1.721575e-01 -4.186264e-01 1.765523e-01 -6.582708e-02 -1.878317e-01 -8.556773e-02 -2.829208e-02 2.053242e-02 -1.573566e-01 1.759620e-01 4.156829e-03 3.963580e-02 4.307478e-02 2.587839e-02 -1.364915e-02 -9.728124e-02 1.412388e-02 1.713805e-02 7.049096e-02 4.752919e-02 -1.528558e-02 1.901616e-03 -6.039512e-02 2.755184e-04
<VARIANCE> 39
 1.916398e+01 4.325993e+01 1.925232e+01 7.773193e+01 4.297398e+01 4.926207e+01 4.776471e+01 7.270841e+01 4.388962e+01 2.744035e+01 2.553122e+01 9.604570e+01 3.246478e-02 2.229433e+00 1.703236e+00 1.734567e+00 4.094012e+00 3.175298e+00 3.803976e+00 3.442108e+00 7.948388e+00 5.629811e+00 3.918758e+00 2.095931e+00 6.213675e+00 2.540397e-03 4.050253e-01 1.639106e-01 2.823878e-01 4.401940e-01 5.627056e-01 7.161351e-01 4.418552e-01 1.292304e+00 1.255561e+00 8.251185e-01 3.181278e-01 1.047493e+00 3.274897e-04
<GCONST> 1.064158e+02
<STATE> 6
<MEAN> 39
 -1.842325e-07 0.000000e+00 -1.219186e-07 -4.768372e-07 4.985116e-07 8.669767e-08 1.300465e-07 7.044185e-08 6.502325e-08 7.586046e-08 1.300465e-07 -1.083721e-07 7.637074e-01 3.517272e-01 -4.248171e-02 1.721575e-01 -4.186264e-01 1.765523e-01 -6.582708e-02 -1.878317e-01 -8.556773e-02 -2.829208e-02 2.053242e-02 -1.573566e-01 1.759620e-01 4.156829e-03 3.963580e-02 4.307478e-02 2.587839e-02 -1.364915e-02 -9.728124e-02 1.412388e-02 1.713805e-02 7.049096e-02 4.752919e-02 -1.528558e-02 1.901616e-03 -6.039512e-02 2.755184e-04
<VARIANCE> 39
 1.916398e+01 4.325993e+01 1.925232e+01 7.773193e+01 4.297398e+01 4.926207e+01 4.776471e+01 7.270841e+01 4.388962e+01 2.744035e+01 2.553122e+01 9.604570e+01 3.246478e-02 2.229433e+00 1.703236e+00 1.734567e+00 4.094012e+00 3.175298e+00 3.803976e+00 3.442108e+00 7.948388e+00 5.629811e+00 3.918758e+00 2.095931e+00 6.213675e+00 2.540397e-03 4.050253e-01 1.639106e-01 2.823878e-01 4.401940e-01 5.627056e-01 7.161351e-01 4.418552e-01 1.292304e+00 1.255561e+00 8.251185e-01 3.181278e-01 1.047493e+00 3.274897e-04
<GCONST> 1.064158e+02
<STATE> 7
<MEAN> 39
 -1.842325e-07 0.000000e+00 -1.219186e-07 -4.768372e-07 4.985116e-07 8.669767e-08 1.300465e-07 7.044185e-08 6.502325e-08 7.586046e-08 1.300465e-07 -1.083721e-07 7.637074e-01 3.517272e-01 -4.248171e-02 1.721575e-01 -4.186264e-01 1.765523e-01 -6.582708e-02 -1.878317e-01 -8.556773e-02 -2.829208e-02 2.053242e-02 -1.573566e-01 1.759620e-01 4.156829e-03 3.963580e-02 4.307478e-02 2.587839e-02 -1.364915e-02 -9.728124e-02 1.412388e-02 1.713805e-02 7.049096e-02 4.752919e-02 -1.528558e-02 1.901616e-03 -6.039512e-02 2.755184e-04
<VARIANCE> 39
 1.916398e+01 4.325993e+01 1.925232e+01 7.773193e+01 4.297398e+01 4.926207e+01 4.776471e+01 7.270841e+01 4.388962e+01 2.744035e+01 2.553122e+01 9.604570e+01 3.246478e-02 2.229433e+00 1.703236e+00 1.734567e+00 4.094012e+00 3.175298e+00 3.803976e+00 3.442108e+00 7.948388e+00 5.629811e+00 3.918758e+00 2.095931e+00 6.213675e+00 2.540397e-03 4.050253e-01 1.639106e-01 2.823878e-01 4.401940e-01 5.627056e-01 7.161351e-01 4.418552e-01 1.292304e+00 1.255561e+00 8.251185e-01 3.181278e-01 1.047493e+00 3.274897e-04
<GCONST> 1.064158e+02
<STATE> 8
<MEAN> 39
 -1.842325e-07 0.000000e+00 -1.219186e-07 -4.768372e-07 4.985116e-07 8.669767e-08 1.300465e-07 7.044185e-08 6.502325e-08 7.586046e-08 1.300465e-07 -1.083721e-07 7.637074e-01 3.517272e-01 -4.248171e-02 1.721575e-01 -4.186264e-01 1.765523e-01 -6.582708e-02 -1.878317e-01 -8.556773e-02 -2.829208e-02 2.053242e-02 -1.573566e-01 1.759620e-01 4.156829e-03 3.963580e-02 4.307478e-02 2.587839e-02 -1.364915e-02 -9.728124e-02 1.412388e-02 1.713805e-02 7.049096e-02 4.752919e-02 -1.528558e-02 1.901616e-03 -6.039512e-02 2.755184e-04
<VARIANCE> 39
 1.916398e+01 4.325993e+01 1.925232e+01 7.773193e+01 4.297398e+01 4.926207e+01 4.776471e+01 7.270841e+01 4.388962e+01 2.744035e+01 2.553122e+01 9.604570e+01 3.246478e-02 2.229433e+00 1.703236e+00 1.734567e+00 4.094012e+00 3.175298e+00 3.803976e+00 3.442108e+00 7.948388e+00 5.629811e+00 3.918758e+00 2.095931e+00 6.213675e+00 2.540397e-03 4.050253e-01 1.639106e-01 2.823878e-01 4.401940e-01 5.627056e-01 7.161351e-01 4.418552e-01 1.292304e+00 1.255561e+00 8.251185e-01 3.181278e-01 1.047493e+00 3.274897e-04
<GCONST> 1.064158e+02
<STATE> 9
<MEAN> 39
 -1.842325e-07 0.000000e+00 -1.219186e-07 -4.768372e-07 4.985116e-07 8.669767e-08 1.300465e-07 7.044185e-08 6.502325e-08 7.586046e-08 1.300465e-07 -1.083721e-07 7.637074e-01 3.517272e-01 -4.248171e-02 1.721575e-01 -4.186264e-01 1.765523e-01 -6.582708e-02 -1.878317e-01 -8.556773e-02 -2.829208e-02 2.053242e-02 -1.573566e-01 1.759620e-01 4.156829e-03 3.963580e-02 4.307478e-02 2.587839e-02 -1.364915e-02 -9.728124e-02 1.412388e-02 1.713805e-02 7.049096e-02 4.752919e-02 -1.528558e-02 1.901616e-03 -6.039512e-02 2.755184e-04
<VARIANCE> 39
 1.916398e+01 4.325993e+01 1.925232e+01 7.773193e+01 4.297398e+01 4.926207e+01 4.776471e+01 7.270841e+01 4.388962e+01 2.744035e+01 2.553122e+01 9.604570e+01 3.246478e-02 2.229433e+00 1.703236e+00 1.734567e+00 4.094012e+00 3.175298e+00 3.803976e+00 3.442108e+00 7.948388e+00 5.629811e+00 3.918758e+00 2.095931e+00 6.213675e+00 2.540397e-03 4.050253e-01 1.639106e-01 2.823878e-01 4.401940e-01 5.627056e-01 7.161351e-01 4.418552e-01 1.292304e+00 1.255561e+00 8.251185e-01 3.181278e-01 1.047493e+00 3.274897e-04
<GCONST> 1.064158e+02
<TRANSP> 10
 0.000000e+00 1.000000e+00 0.000000e+00 0.000000e+00 0.000000e+00 0.000000e+00 0.000000e+00 0.000000e+00 0.000000e+00 0.000000e+00
 0.000000e+00 9.000000e-01 9.999999e-02 0.000000e+00 0.000000e+00 0.000000e+00 0.000000e+00 0.000000e+00 0.000000e+00 0.000000e+00
 0.000000e+00 0.000000e+00 9.000000e-01 9.999999e-02 0.000000e+00 0.000000e+00 0.000000e+00 0.000000e+00 0.000000e+00 0.000000e+00
 0.000000e+00 0.000000e+00 0.000000e+00 9.000000e-01 9.999999e-02 0.000000e+00 0.000000e+00 0.000000e+00 0.000000e+00 0.000000e+00
 0.000000e+00 0.000000e+00 0.000000e+00 0.000000e+00 9.000000e-01 9.999999e-02 0.000000e+00 0.000000e+00 0.000000e+00 0.000000e+00
 0.000000e+00 0.000000e+00 0.000000e+00 0.000000e+00 0.000000e+00 9.000000e-01 9.999999e-02 0.000000e+00 0.000000e+00 0.000000e+00
 0.000000e+00 0.000000e+00 0.000000e+00 0.000000e+00 0.000000e+00 0.000000e+00 9.000000e-01 9.999999e-02 0.000000e+00 0.000000e+00
 0.000000e+00 0.000000e+00 0.000000e+00 0.000000e+00 0.000000e+00 0.000000e+00 0.000000e+00 9.000000e-01 9.999999e-02 0.000000e+00
 0.000000e+00 0.000000e+00 0.000000e+00 0.000000e+00 0.000000e+00 0.000000e+00 0.000000e+00 0.000000e+00 9.000000e-01 9.999999e-02
 0.000000e+00 0.000000e+00 0.000000e+00 0.000000e+00 0.000000e+00 0.000000e+00 0.000000e+00 0.000000e+00 0.000000e+00 0.000000e+00
<ENDHMM>
