~o
<STREAMINFO> 1 39
<VECSIZE> 39<NULLD><MFCC_E_D_A_Z><DIAGC>
~h "s079"
<BEGINHMM>
<NUMSTATES> 10
<STATE> 2
<MEAN> 39
 4.386902e-07 -7.629394e-08 -8.583069e-08 5.340576e-07 3.814697e-08 3.814697e-08 5.531311e-07 -3.480911e-07 -3.433228e-07 -3.814697e-07 3.051758e-07 5.912781e-07 7.260248e-01 3.015008e-01 8.004758e-03 1.637188e-01 -2.420199e-01 1.877205e-01 -2.235188e-02 1.453695e-02 4.717346e-02 -1.527557e-01 8.391817e-02 7.685270e-02 1.258227e-01 -2.435209e-03 8.341995e-03 2.848938e-02 1.667620e-02 9.757707e-03 -4.694149e-02 -5.794247e-02 -3.133330e-02 7.849960e-02 1.659689e-02 -7.817872e-03 8.016371e-02 -2.485896e-02 2.086928e-04
<VARIANCE> 39
 2.160905e+01 4.259363e+01 1.671126e+01 7.226296e+01 5.435244e+01 6.119908e+01 7.713148e+01 6.826707e+01 4.308957e+01 2.370351e+01 2.954573e+01 9.905775e+01 4.121814e-02 1.899869e+00 1.495989e+00 1.459670e+00 3.971451e+00 3.021584e+00 3.651327e+00 4.224891e+00 7.245152e+00 5.257941e+00 3.816713e+00 2.568869e+00 5.168911e+00 2.550485e-03 3.580234e-01 1.303701e-01 2.407301e-01 4.050011e-01 5.337973e-01 6.732514e-01 5.562479e-01 1.126278e+00 1.215641e+00 8.258700e-01 3.482581e-01 8.719453e-01 2.904271e-04
<GCONST> 1.060210e+02
<STATE> 3
<MEAN> 39
 4.386902e-07 -7.629394e-08 -8.583069e-08 5.340576e-07 3.814697e-08 3.814697e-08 5.531311e-07 -3.480911e-07 -3.433228e-07 -3.814697e-07 3.051758e-07 5.912781e-07 7.260248e-01 3.015008e-01 8.004758e-03 1.637188e-01 -2.420199e-01 1.877205e-01 -2.235188e-02 1.453695e-02 4.717346e-02 -1.527557e-01 8.391817e-02 7.685270e-02 1.258227e-01 -2.435209e-03 8.341995e-03 2.848938e-02 1.667620e-02 9.757707e-03 -4.694149e-02 -5.794247e-02 -3.133330e-02 7.849960e-02 1.659689e-02 -7.817872e-03 8.016371e-02 -2.485896e-02 2.086928e-04
<VARIANCE> 39
 2.160905e+01 4.259363e+01 1.671126e+01 7.226296e+01 5.435244e+01 6.119908e+01 7.713148e+01 6.826707e+01 4.308957e+01 2.370351e+01 2.954573e+01 9.905775e+01 4.121814e-02 1.899869e+00 1.495989e+00 1.459670e+00 3.971451e+00 3.021584e+00 3.651327e+00 4.224891e+00 7.245152e+00 5.257941e+00 3.816713e+00 2.568869e+00 5.168911e+00 2.550485e-03 3.580234e-01 1.303701e-01 2.407301e-01 4.050011e-01 5.337973e-01 6.732514e-01 5.562479e-01 1.126278e+00 1.215641e+00 8.258700e-01 3.482581e-01 8.719453e-01 2.904271e-04
<GCONST> 1.060210e+02
<STATE> 4
<MEAN> 39
 4.386902e-07 -7.629394e-08 -8.583069e-08 5.340576e-07 3.814697e-08 3.814697e-08 5.531311e-07 -3.480911e-07 -3.433228e-07 -3.814697e-07 3.051758e-07 5.912781e-07 7.260248e-01 3.015008e-01 8.004758e-03 1.637188e-01 -2.420199e-01 1.877205e-01 -2.235188e-02 1.453695e-02 4.717346e-02 -1.527557e-01 8.391817e-02 7.685270e-02 1.258227e-01 -2.435209e-03 8.341995e-03 2.848938e-02 1.667620e-02 9.757707e-03 -4.694149e-02 -5.794247e-02 -3.133330e-02 7.849960e-02 1.659689e-02 -7.817872e-03 8.016371e-02 -2.485896e-02 2.086928e-04
<VARIANCE> 39
 2.160905e+01 4.259363e+01 1.671126e+01 7.226296e+01 5.435244e+01 6.119908e+01 7.713148e+01 6.826707e+01 4.308957e+01 2.370351e+01 2.954573e+01 9.905775e+01 4.121814e-02 1.899869e+00 1.495989e+00 1.459670e+00 3.971451e+00 3.021584e+00 3.651327e+00 4.224891e+00 7.245152e+00 5.257941e+00 3.816713e+00 2.568869e+00 5.168911e+00 2.550485e-03 3.580234e-01 1.303701e-01 2.407301e-01 4.050011e-01 5.337973e-01 6.732514e-01 5.562479e-01 1.126278e+00 1.215641e+00 8.258700e-01 3.482581e-01 8.719453e-01 2.904271e-04
<GCONST> 1.060210e+02
<STATE> 5
<MEAN> 39
 4.386902e-07 -7.629394e-08 -8.583069e-08 5.340576e-07 3.814697e-08 3.814697e-08 5.531311e-07 -3.480911e-07 -3.433228e-07 -3.814697e-07 3.051758e-07 5.912781e-07 7.260248e-01 3.015008e-01 8.004758e-03 1.637188e-01 -2.420199e-01 1.877205e-01 -2.235188e-02 1.453695e-02 4.717346e-02 -1.527557e-01 8.391817e-02 7.685270e-02 1.258227e-01 -2.435209e-03 8.341995e-03 2.848938e-02 1.667620e-02 9.757707e-03 -4.694149e-02 -5.794247e-02 -3.133330e-02 7.849960e-02 1.659689e-02 -7.817872e-03 8.016371e-02 -2.485896e-02 2.086928e-04
<VARIANCE> 39
 2.160905e+01 4.259363e+01 1.671126e+01 7.226296e+01 5.435244e+01 6.119908e+01 7.713148e+01 6.826707e+01 4.308957e+01 2.370351e+01 2.954573e+01 9.905775e+01 4.121814e-02 1.899869e+00 1.495989e+00 1.459670e+00 3.971451e+00 3.021584e+00 3.651327e+00 4.224891e+00 7.245152e+00 5.257941e+00 3.816713e+00 2.568869e+00 5.168911e+00 2.550485e-03 3.580234e-01 1.303701e-01 2.407301e-01 4.050011e-01 5.337973e-01 6.732514e-01 5.562479e-01 1.126278e+00 1.215641e+00 8.258700e-01 3.482581e-01 8.719453e-01 2.904271e-04
<GCONST> 1.060210e+02
<STATE> 6
<MEAN> 39
 4.386902e-07 -7.629394e-08 -8.583069e-08 5.340576e-07 3.814697e-08 3.814697e-08 5.531311e-07 -3.480911e-07 -3.433228e-07 -3.814697e-07 3.051758e-07 5.912781e-07 7.260248e-01 3.015008e-01 8.004758e-03 1.637188e-01 -2.420199e-01 1.877205e-01 -2.235188e-02 1.453695e-02 4.717346e-02 -1.527557e-01 8.391817e-02 7.685270e-02 1.258227e-01 -2.435209e-03 8.341995e-03 2.848938e-02 1.667620e-02 9.757707e-03 -4.694149e-02 -5.794247e-02 -3.133330e-02 7.849960e-02 1.659689e-02 -7.817872e-03 8.016371e-02 -2.485896e-02 2.086928e-04
<VARIANCE> 39
 2.160905e+01 4.259363e+01 1.671126e+01 7.226296e+01 5.435244e+01 6.119908e+01 7.713148e+01 6.826707e+01 4.308957e+01 2.370351e+01 2.954573e+01 9.905775e+01 4.121814e-02 1.899869e+00 1.495989e+00 1.459670e+00 3.971451e+00 3.021584e+00 3.651327e+00 4.224891e+00 7.245152e+00 5.257941e+00 3.816713e+00 2.568869e+00 5.168911e+00 2.550485e-03 3.580234e-01 1.303701e-01 2.407301e-01 4.050011e-01 5.337973e-01 6.732514e-01 5.562479e-01 1.126278e+00 1.215641e+00 8.258700e-01 3.482581e-01 8.719453e-01 2.904271e-04
<GCONST> 1.060210e+02
<STATE> 7
<MEAN> 39
 4.386902e-07 -7.629394e-08 -8.583069e-08 5.340576e-07 3.814697e-08 3.814697e-08 5.531311e-07 -3.480911e-07 -3.433228e-07 -3.814697e-07 3.051758e-07 5.912781e-07 7.260248e-01 3.015008e-01 8.004758e-03 1.637188e-01 -2.420199e-01 1.877205e-01 -2.235188e-02 1.453695e-02 4.717346e-02 -1.527557e-01 8.391817e-02 7.685270e-02 1.258227e-01 -2.435209e-03 8.341995e-03 2.848938e-02 1.667620e-02 9.757707e-03 -4.694149e-02 -5.794247e-02 -3.133330e-02 7.849960e-02 1.659689e-02 -7.817872e-03 8.016371e-02 -2.485896e-02 2.086928e-04
<VARIANCE> 39
 2.160905e+01 4.259363e+01 1.671126e+01 7.226296e+01 5.435244e+01 6.119908e+01 7.713148e+01 6.826707e+01 4.308957e+01 2.370351e+01 2.954573e+01 9.905775e+01 4.121814e-02 1.899869e+00 1.495989e+00 1.459670e+00 3.971451e+00 3.021584e+00 3.651327e+00 4.224891e+00 7.245152e+00 5.257941e+00 3.816713e+00 2.568869e+00 5.168911e+00 2.550485e-03 3.580234e-01 1.303701e-01 2.407301e-01 4.050011e-01 5.337973e-01 6.732514e-01 5.562479e-01 1.126278e+00 1.215641e+00 8.258700e-01 3.482581e-01 8.719453e-01 2.904271e-04
<GCONST> 1.060210e+02
<STATE> 8
<MEAN> 39
 4.386902e-07 -7.629394e-08 -8.583069e-08 5.340576e-07 3.814697e-08 3.814697e-08 5.531311e-07 -3.480911e-07 -3.433228e-07 -3.814697e-07 3.051758e-07 5.912781e-07 7.260248e-01 3.015008e-01 8.004758e-03 1.637188e-01 -2.420199e-01 1.877205e-01 -2.235188e-02 1.453695e-02 4.717346e-02 -1.527557e-01 8.391817e-02 7.685270e-02 1.258227e-01 -2.435209e-03 8.341995e-03 2.848938e-02 1.667620e-02 9.757707e-03 -4.694149e-02 -5.794247e-02 -3.133330e-02 7.849960e-02 1.659689e-02 -7.817872e-03 8.016371e-02 -2.485896e-02 2.086928e-04
<VARIANCE> 39
 2.160905e+01 4.259363e+01 1.671126e+01 7.226296e+01 5.435244e+01 6.119908e+01 7.713148e+01 6.826707e+01 4.308957e+01 2.370351e+01 2.954573e+01 9.905775e+01 4.121814e-02 1.899869e+00 1.495989e+00 1.459670e+00 3.971451e+00 3.021584e+00 3.651327e+00 4.224891e+00 7.245152e+00 5.257941e+00 3.816713e+00 2.568869e+00 5.168911e+00 2.550485e-03 3.580234e-01 1.303701e-01 2.407301e-01 4.050011e-01 5.337973e-01 6.732514e-01 5.562479e-01 1.126278e+00 1.215641e+00 8.258700e-01 3.482581e-01 8.719453e-01 2.904271e-04
<GCONST> 1.060210e+02
<STATE> 9
<MEAN> 39
 4.386902e-07 -7.629394e-08 -8.583069e-08 5.340576e-07 3.814697e-08 3.814697e-08 5.531311e-07 -3.480911e-07 -3.433228e-07 -3.814697e-07 3.051758e-07 5.912781e-07 7.260248e-01 3.015008e-01 8.004758e-03 1.637188e-01 -2.420199e-01 1.877205e-01 -2.235188e-02 1.453695e-02 4.717346e-02 -1.527557e-01 8.391817e-02 7.685270e-02 1.258227e-01 -2.435209e-03 8.341995e-03 2.848938e-02 1.667620e-02 9.757707e-03 -4.694149e-02 -5.794247e-02 -3.133330e-02 7.849960e-02 1.659689e-02 -7.817872e-03 8.016371e-02 -2.485896e-02 2.086928e-04
<VARIANCE> 39
 2.160905e+01 4.259363e+01 1.671126e+01 7.226296e+01 5.435244e+01 6.119908e+01 7.713148e+01 6.826707e+01 4.308957e+01 2.370351e+01 2.954573e+01 9.905775e+01 4.121814e-02 1.899869e+00 1.495989e+00 1.459670e+00 3.971451e+00 3.021584e+00 3.651327e+00 4.224891e+00 7.245152e+00 5.257941e+00 3.816713e+00 2.568869e+00 5.168911e+00 2.550485e-03 3.580234e-01 1.303701e-01 2.407301e-01 4.050011e-01 5.337973e-01 6.732514e-01 5.562479e-01 1.126278e+00 1.215641e+00 8.258700e-01 3.482581e-01 8.719453e-01 2.904271e-04
<GCONST> 1.060210e+02
<TRANSP> 10
 0.000000e+00 1.000000e+00 0.000000e+00 0.000000e+00 0.000000e+00 0.000000e+00 0.000000e+00 0.000000e+00 0.000000e+00 0.000000e+00
 0.000000e+00 9.000000e-01 9.999999e-02 0.000000e+00 0.000000e+00 0.000000e+00 0.000000e+00 0.000000e+00 0.000000e+00 0.000000e+00
 0.000000e+00 0.000000e+00 9.000000e-01 9.999999e-02 0.000000e+00 0.000000e+00 0.000000e+00 0.000000e+00 0.000000e+00 0.000000e+00
 0.000000e+00 0.000000e+00 0.000000e+00 9.000000e-01 9.999999e-02 0.000000e+00 0.000000e+00 0.000000e+00 0.000000e+00 0.000000e+00
 0.000000e+00 0.000000e+00 0.000000e+00 0.000000e+00 9.000000e-01 9.999999e-02 0.000000e+00 0.000000e+00 0.000000e+00 0.000000e+00
 0.000000e+00 0.000000e+00 0.000000e+00 0.000000e+00 0.000000e+00 9.000000e-01 9.999999e-02 0.000000e+00 0.000000e+00 0.000000e+00
 0.000000e+00 0.000000e+00 0.000000e+00 0.000000e+00 0.000000e+00 0.000000e+00 9.000000e-01 9.999999e-02 0.000000e+00 0.000000e+00
 0.000000e+00 0.000000e+00 0.000000e+00 0.000000e+00 0.000000e+00 0.000000e+00 0.000000e+00 9.000000e-01 9.999999e-02 0.000000e+00
 0.000000e+00 0.000000e+00 0.000000e+00 0.000000e+00 0.000000e+00 0.000000e+00 0.000000e+00 0.000000e+00 9.000000e-01 9.999999e-02
 0.000000e+00 0.000000e+00 0.000000e+00 0.000000e+00 0.000000e+00 0.000000e+00 0.000000e+00 0.000000e+00 0.000000e+00 0.000000e+00
<ENDHMM>
