~o
<STREAMINFO> 1 39
<VECSIZE> 39<NULLD><MFCC_E_D_A_Z><DIAGC>
~h "s082"
<BEGINHMM>
<NUMSTATES> 10
<STATE> 2
<MEAN> 39
 2.679746e-07 3.940803e-08 1.477801e-07 1.733953e-07 6.699365e-08 3.152642e-07 -4.886596e-07 2.443298e-07 2.916194e-07 1.625581e-07 -4.334883e-08 6.502325e-08 5.247397e-01 2.007741e-05 -1.236114e-02 -7.197053e-03 1.623353e-02 -1.151960e-02 4.159930e-05 3.479377e-02 -2.959404e-02 -9.066928e-02 -4.111004e-02 1.476435e-02 1.365344e-02 -4.950546e-04 6.073049e-03 1.289145e-03 -2.175122e-03 -3.302904e-03 -1.746587e-02 -5.825453e-03 3.730713e-02 4.948607e-03 -1.442525e-02 -1.763017e-02 7.723528e-04 -1.287921e-02 7.241374e-05
<VARIANCE> 39
 4.238256e+01 1.984115e+01 6.044285e+01 7.734625e+01 3.952671e+01 1.007379e+02 3.828546e+01 4.114108e+01 3.077515e+01 4.472343e+01 4.111735e+01 2.038752e+01 8.224460e-02 1.529122e+00 1.208846e+00 2.314777e+00 2.454190e+00 2.498326e+00 2.988474e+00 2.508366e+00 2.530168e+00 3.801940e+00 2.704536e+00 2.832581e+00 1.528749e+00 1.022762e-03 2.312783e-01 1.658830e-01 3.650900e-01 3.516563e-01 4.208268e-01 5.204229e-01 5.002089e-01 4.515881e-01 8.054062e-01 4.568729e-01 5.539917e-01 3.054422e-01 1.116510e-04
<GCONST> 9.689821e+01
<STATE> 3
<MEAN> 39
 2.679746e-07 3.940803e-08 1.477801e-07 1.733953e-07 6.699365e-08 3.152642e-07 -4.886596e-07 2.443298e-07 2.916194e-07 1.625581e-07 -4.334883e-08 6.502325e-08 5.247397e-01 2.007741e-05 -1.236114e-02 -7.197053e-03 1.623353e-02 -1.151960e-02 4.159930e-05 3.479377e-02 -2.959404e-02 -9.066928e-02 -4.111004e-02 1.476435e-02 1.365344e-02 -4.950546e-04 6.073049e-03 1.289145e-03 -2.175122e-03 -3.302904e-03 -1.746587e-02 -5.825453e-03 3.730713e-02 4.948607e-03 -1.442525e-02 -1.763017e-02 7.723528e-04 -1.287921e-02 7.241374e-05
<VARIANCE> 39
 4.238256e+01 1.984115e+01 6.044285e+01 7.734625e+01 3.952671e+01 1.007379e+02 3.828546e+01 4.114108e+01 3.077515e+01 4.472343e+01 4.111735e+01 2.038752e+01 8.224460e-02 1.529122e+00 1.208846e+00 2.314777e+00 2.454190e+00 2.498326e+00 2.988474e+00 2.508366e+00 2.530168e+00 3.801940e+00 2.704536e+00 2.832581e+00 1.528749e+00 1.022762e-03 2.312783e-01 1.658830e-01 3.650900e-01 3.516563e-01 4.208268e-01 5.204229e-01 5.002089e-01 4.515881e-01 8.054062e-01 4.568729e-01 5.539917e-01 3.054422e-01 1.116510e-04
<GCONST> 9.689821e+01
<STATE> 4
<MEAN> 39
 2.679746e-07 3.940803e-08 1.477801e-07 1.733953e-07 6.699365e-08 3.152642e-07 -4.886596e-07 2.443298e-07 2.916194e-07 1.625581e-07 -4.334883e-08 6.502325e-08 5.247397e-01 2.007741e-05 -1.236114e-02 -7.197053e-03 1.623353e-02 -1.151960e-02 4.159930e-05 3.479377e-02 -2.959404e-02 -9.066928e-02 -4.111004e-02 1.476435e-02 1.365344e-02 -4.950546e-04 6.073049e-03 1.289145e-03 -2.175122e-03 -3.302904e-03 -1.746587e-02 -5.825453e-03 3.730713e-02 4.948607e-03 -1.442525e-02 -1.763017e-02 7.723528e-04 -1.287921e-02 7.241374e-05
<VARIANCE> 39
 4.238256e+01 1.984115e+01 6.044285e+01 7.734625e+01 3.952671e+01 1.007379e+02 3.828546e+01 4.114108e+01 3.077515e+01 4.472343e+01 4.111735e+01 2.038752e+01 8.224460e-02 1.529122e+00 1.208846e+00 2.314777e+00 2.454190e+00 2.498326e+00 2.988474e+00 2.508366e+00 2.530168e+00 3.801940e+00 2.704536e+00 2.832581e+00 1.528749e+00 1.022762e-03 2.312783e-01 1.658830e-01 3.650900e-01 3.516563e-01 4.208268e-01 5.204229e-01 5.002089e-01 4.515881e-01 8.054062e-01 4.568729e-01 5.539917e-01 3.054422e-01 1.116510e-04
<GCONST> 9.689821e+01
<STATE> 5
<MEAN> 39
 2.679746e-07 3.940803e-08 1.477801e-07 1.733953e-07 6.699365e-08 3.152642e-07 -4.886596e-07 2.443298e-07 2.916194e-07 1.625581e-07 -4.334883e-08 6.502325e-08 5.247397e-01 2.007741e-05 -1.236114e-02 -7.197053e-03 1.623353e-02 -1.151960e-02 4.159930e-05 3.479377e-02 -2.959404e-02 -9.066928e-02 -4.111004e-02 1.476435e-02 1.365344e-02 -4.950546e-04 6.073049e-03 1.289145e-03 -2.175122e-03 -3.302904e-03 -1.746587e-02 -5.825453e-03 3.730713e-02 4.948607e-03 -1.442525e-02 -1.763017e-02 7.723528e-04 -1.287921e-02 7.241374e-05
<VARIANCE> 39
 4.238256e+01 1.984115e+01 6.044285e+01 7.734625e+01 3.952671e+01 1.007379e+02 3.828546e+01 4.114108e+01 3.077515e+01 4.472343e+01 4.111735e+01 2.038752e+01 8.224460e-02 1.529122e+00 1.208846e+00 2.314777e+00 2.454190e+00 2.498326e+00 2.988474e+00 2.508366e+00 2.530168e+00 3.801940e+00 2.704536e+00 2.832581e+00 1.528749e+00 1.022762e-03 2.312783e-01 1.658830e-01 3.650900e-01 3.516563e-01 4.208268e-01 5.204229e-01 5.002089e-01 4.515881e-01 8.054062e-01 4.568729e-01 5.539917e-01 3.054422e-01 1.116510e-04
<GCONST> 9.689821e+01
<STATE> 6
<MEAN> 39
 2.679746e-07 3.940803e-08 1.477801e-07 1.733953e-07 6.699365e-08 3.152642e-07 -4.886596e-07 2.443298e-07 2.916194e-07 1.625581e-07 -4.334883e-08 6.502325e-08 5.247397e-01 2.007741e-05 -1.236114e-02 -7.197053e-03 1.623353e-02 -1.151960e-02 4.159930e-05 3.479377e-02 -2.959404e-02 -9.066928e-02 -4.111004e-02 1.476435e-02 1.365344e-02 -4.950546e-04 6.073049e-03 1.289145e-03 -2.175122e-03 -3.302904e-03 -1.746587e-02 -5.825453e-03 3.730713e-02 4.948607e-03 -1.442525e-02 -1.763017e-02 7.723528e-04 -1.287921e-02 7.241374e-05
<VARIANCE> 39
 4.238256e+01 1.984115e+01 6.044285e+01 7.734625e+01 3.952671e+01 1.007379e+02 3.828546e+01 4.114108e+01 3.077515e+01 4.472343e+01 4.111735e+01 2.038752e+01 8.224460e-02 1.529122e+00 1.208846e+00 2.314777e+00 2.454190e+00 2.498326e+00 2.988474e+00 2.508366e+00 2.530168e+00 3.801940e+00 2.704536e+00 2.832581e+00 1.528749e+00 1.022762e-03 2.312783e-01 1.658830e-01 3.650900e-01 3.516563e-01 4.208268e-01 5.204229e-01 5.002089e-01 4.515881e-01 8.054062e-01 4.568729e-01 5.539917e-01 3.054422e-01 1.116510e-04
<GCONST> 9.689821e+01
<STATE> 7
<MEAN> 39
 2.679746e-07 3.940803e-08 1.477801e-07 1.733953e-07 6.699365e-08 3.152642e-07 -4.886596e-07 2.443298e-07 2.916194e-07 1.625581e-07 -4.334883e-08 6.502325e-08 5.247397e-01 2.007741e-05 -1.236114e-02 -7.197053e-03 1.623353e-02 -1.151960e-02 4.159930e-05 3.479377e-02 -2.959404e-02 -9.066928e-02 -4.111004e-02 1.476435e-02 1.365344e-02 -4.950546e-04 6.073049e-03 1.289145e-03 -2.175122e-03 -3.302904e-03 -1.746587e-02 -5.825453e-03 3.730713e-02 4.948607e-03 -1.442525e-02 -1.763017e-02 7.723528e-04 -1.287921e-02 7.241374e-05
<VARIANCE> 39
 4.238256e+01 1.984115e+01 6.044285e+01 7.734625e+01 3.952671e+01 1.007379e+02 3.828546e+01 4.114108e+01 3.077515e+01 4.472343e+01 4.111735e+01 2.038752e+01 8.224460e-02 1.529122e+00 1.208846e+00 2.314777e+00 2.454190e+00 2.498326e+00 2.988474e+00 2.508366e+00 2.530168e+00 3.801940e+00 2.704536e+00 2.832581e+00 1.528749e+00 1.022762e-03 2.312783e-01 1.658830e-01 3.650900e-01 3.516563e-01 4.208268e-01 5.204229e-01 5.002089e-01 4.515881e-01 8.054062e-01 4.568729e-01 5.539917e-01 3.054422e-01 1.116510e-04
<GCONST> 9.689821e+01
<STATE> 8
<MEAN> 39
 2.679746e-07 3.940803e-08 1.477801e-07 1.733953e-07 6.699365e-08 3.152642e-07 -4.886596e-07 2.443298e-07 2.916194e-07 1.625581e-07 -4.334883e-08 6.502325e-08 5.247397e-01 2.007741e-05 -1.236114e-02 -7.197053e-03 1.623353e-02 -1.151960e-02 4.159930e-05 3.479377e-02 -2.959404e-02 -9.066928e-02 -4.111004e-02 1.476435e-02 1.365344e-02 -4.950546e-04 6.073049e-03 1.289145e-03 -2.175122e-03 -3.302904e-03 -1.746587e-02 -5.825453e-03 3.730713e-02 4.948607e-03 -1.442525e-02 -1.763017e-02 7.723528e-04 -1.287921e-02 7.241374e-05
<VARIANCE> 39
 4.238256e+01 1.984115e+01 6.044285e+01 7.734625e+01 3.952671e+01 1.007379e+02 3.828546e+01 4.114108e+01 3.077515e+01 4.472343e+01 4.111735e+01 2.038752e+01 8.224460e-02 1.529122e+00 1.208846e+00 2.314777e+00 2.454190e+00 2.498326e+00 2.988474e+00 2.508366e+00 2.530168e+00 3.801940e+00 2.704536e+00 2.832581e+00 1.528749e+00 1.022762e-03 2.312783e-01 1.658830e-01 3.650900e-01 3.516563e-01 4.208268e-01 5.204229e-01 5.002089e-01 4.515881e-01 8.054062e-01 4.568729e-01 5.539917e-01 3.054422e-01 1.116510e-04
<GCONST> 9.689821e+01
<STATE> 9
<MEAN> 39
 2.679746e-07 3.940803e-08 1.477801e-07 1.733953e-07 6.699365e-08 3.152642e-07 -4.886596e-07 2.443298e-07 2.916194e-07 1.625581e-07 -4.334883e-08 6.502325e-08 5.247397e-01 2.007741e-05 -1.236114e-02 -7.197053e-03 1.623353e-02 -1.151960e-02 4.159930e-05 3.479377e-02 -2.959404e-02 -9.066928e-02 -4.111004e-02 1.476435e-02 1.365344e-02 -4.950546e-04 6.073049e-03 1.289145e-03 -2.175122e-03 -3.302904e-03 -1.746587e-02 -5.825453e-03 3.730713e-02 4.948607e-03 -1.442525e-02 -1.763017e-02 7.723528e-04 -1.287921e-02 7.241374e-05
<VARIANCE> 39
 4.238256e+01 1.984115e+01 6.044285e+01 7.734625e+01 3.952671e+01 1.007379e+02 3.828546e+01 4.114108e+01 3.077515e+01 4.472343e+01 4.111735e+01 2.038752e+01 8.224460e-02 1.529122e+00 1.208846e+00 2.314777e+00 2.454190e+00 2.498326e+00 2.988474e+00 2.508366e+00 2.530168e+00 3.801940e+00 2.704536e+00 2.832581e+00 1.528749e+00 1.022762e-03 2.312783e-01 1.658830e-01 3.650900e-01 3.516563e-01 4.208268e-01 5.204229e-01 5.002089e-01 4.515881e-01 8.054062e-01 4.568729e-01 5.539917e-01 3.054422e-01 1.116510e-04
<GCONST> 9.689821e+01
<TRANSP> 10
 0.000000e+00 1.000000e+00 0.000000e+00 0.000000e+00 0.000000e+00 0.000000e+00 0.000000e+00 0.000000e+00 0.000000e+00 0.000000e+00
 0.000000e+00 9.000000e-01 9.999999e-02 0.000000e+00 0.000000e+00 0.000000e+00 0.000000e+00 0.000000e+00 0.000000e+00 0.000000e+00
 0.000000e+00 0.000000e+00 9.000000e-01 9.999999e-02 0.000000e+00 0.000000e+00 0.000000e+00 0.000000e+00 0.000000e+00 0.000000e+00
 0.000000e+00 0.000000e+00 0.000000e+00 9.000000e-01 9.999999e-02 0.000000e+00 0.000000e+00 0.000000e+00 0.000000e+00 0.000000e+00
 0.000000e+00 0.000000e+00 0.000000e+00 0.000000e+00 9.000000e-01 9.999999e-02 0.000000e+00 0.000000e+00 0.000000e+00 0.000000e+00
 0.000000e+00 0.000000e+00 0.000000e+00 0.000000e+00 0.000000e+00 9.000000e-01 9.999999e-02 0.000000e+00 0.000000e+00 0.000000e+00
 0.000000e+00 0.000000e+00 0.000000e+00 0.000000e+00 0.000000e+00 0.000000e+00 9.000000e-01 9.999999e-02 0.000000e+00 0.000000e+00
 0.000000e+00 0.000000e+00 0.000000e+00 0.000000e+00 0.000000e+00 0.000000e+00 0.000000e+00 9.000000e-01 9.999999e-02 0.000000e+00
 0.000000e+00 0.000000e+00 0.000000e+00 0.000000e+00 0.000000e+00 0.000000e+00 0.000000e+00 0.000000e+00 9.000000e-01 9.999999e-02
 0.000000e+00 0.000000e+00 0.000000e+00 0.000000e+00 0.000000e+00 0.000000e+00 0.000000e+00 0.000000e+00 0.000000e+00 0.000000e+00
<ENDHMM>
