~o
<STREAMINFO> 1 39
<VECSIZE> 39<NULLD><MFCC_E_D_A_Z><DIAGC>
~h "s088"
<BEGINHMM>
<NUMSTATES> 10
<STATE> 2
<MEAN> 39
 5.088635e-07 1.281055e-07 1.298848e-07 8.184518e-07 -3.291600e-07 4.946296e-07 3.273807e-07 1.547942e-07 5.124220e-07 -4.287976e-07 2.277431e-07 2.001648e-08 3.865325e-01 -3.743374e-04 -1.923525e-02 -2.024860e-02 -1.990574e-02 -2.733790e-02 -3.603017e-02 1.009612e-02 1.318420e-02 5.012653e-02 5.725392e-03 7.892025e-03 1.694933e-02 -3.531392e-04 2.477624e-03 1.462487e-03 1.109656e-03 -8.970508e-03 -1.452497e-02 1.625678e-02 1.132615e-02 1.184115e-03 4.801824e-03 3.196861e-04 -2.106181e-03 -2.534979e-02 -7.861591e-05
<VARIANCE> 39
 2.679579e+01 2.362549e+01 5.255622e+01 1.149378e+02 3.758751e+01 8.785490e+01 5.221587e+01 4.371041e+01 4.813153e+01 5.399860e+01 4.781149e+01 3.443710e+01 8.302781e-02 1.126527e+00 1.306656e+00 1.502446e+00 2.982127e+00 1.813198e+00 2.004081e+00 2.322109e+00 3.340821e+00 4.286214e+00 3.269724e+00 2.820335e+00 1.658248e+00 1.738346e-03 1.742836e-01 2.356488e-01 2.248031e-01 4.182875e-01 3.013962e-01 3.144461e-01 4.348354e-01 6.384197e-01 8.869868e-01 6.342531e-01 5.647436e-01 2.734513e-01 2.176422e-04
<GCONST> 9.843299e+01
<STATE> 3
<MEAN> 39
 5.088635e-07 1.281055e-07 1.298848e-07 8.184518e-07 -3.291600e-07 4.946296e-07 3.273807e-07 1.547942e-07 5.124220e-07 -4.287976e-07 2.277431e-07 2.001648e-08 3.865325e-01 -3.743374e-04 -1.923525e-02 -2.024860e-02 -1.990574e-02 -2.733790e-02 -3.603017e-02 1.009612e-02 1.318420e-02 5.012653e-02 5.725392e-03 7.892025e-03 1.694933e-02 -3.531392e-04 2.477624e-03 1.462487e-03 1.109656e-03 -8.970508e-03 -1.452497e-02 1.625678e-02 1.132615e-02 1.184115e-03 4.801824e-03 3.196861e-04 -2.106181e-03 -2.534979e-02 -7.861591e-05
<VARIANCE> 39
 2.679579e+01 2.362549e+01 5.255622e+01 1.149378e+02 3.758751e+01 8.785490e+01 5.221587e+01 4.371041e+01 4.813153e+01 5.399860e+01 4.781149e+01 3.443710e+01 8.302781e-02 1.126527e+00 1.306656e+00 1.502446e+00 2.982127e+00 1.813198e+00 2.004081e+00 2.322109e+00 3.340821e+00 4.286214e+00 3.269724e+00 2.820335e+00 1.658248e+00 1.738346e-03 1.742836e-01 2.356488e-01 2.248031e-01 4.182875e-01 3.013962e-01 3.144461e-01 4.348354e-01 6.384197e-01 8.869868e-01 6.342531e-01 5.647436e-01 2.734513e-01 2.176422e-04
<GCONST> 9.843299e+01
<STATE> 4
<MEAN> 39
 5.088635e-07 1.281055e-07 1.298848e-07 8.184518e-07 -3.291600e-07 4.946296e-07 3.273807e-07 1.547942e-07 5.124220e-07 -4.287976e-07 2.277431e-07 2.001648e-08 3.865325e-01 -3.743374e-04 -1.923525e-02 -2.024860e-02 -1.990574e-02 -2.733790e-02 -3.603017e-02 1.009612e-02 1.318420e-02 5.012653e-02 5.725392e-03 7.892025e-03 1.694933e-02 -3.531392e-04 2.477624e-03 1.462487e-03 1.109656e-03 -8.970508e-03 -1.452497e-02 1.625678e-02 1.132615e-02 1.184115e-03 4.801824e-03 3.196861e-04 -2.106181e-03 -2.534979e-02 -7.861591e-05
<VARIANCE> 39
 2.679579e+01 2.362549e+01 5.255622e+01 1.149378e+02 3.758751e+01 8.785490e+01 5.221587e+01 4.371041e+01 4.813153e+01 5.399860e+01 4.781149e+01 3.443710e+01 8.302781e-02 1.126527e+00 1.306656e+00 1.502446e+00 2.982127e+00 1.813198e+00 2.004081e+00 2.322109e+00 3.340821e+00 4.286214e+00 3.269724e+00 2.820335e+00 1.658248e+00 1.738346e-03 1.742836e-01 2.356488e-01 2.248031e-01 4.182875e-01 3.013962e-01 3.144461e-01 4.348354e-01 6.384197e-01 8.869868e-01 6.342531e-01 5.647436e-01 2.734513e-01 2.176422e-04
<GCONST> 9.843299e+01
<STATE> 5
<MEAN> 39
 5.088635e-07 1.281055e-07 1.298848e-07 8.184518e-07 -3.291600e-07 4.946296e-07 3.273807e-07 1.547942e-07 5.124220e-07 -4.287976e-07 2.277431e-07 2.001648e-08 3.865325e-01 -3.743374e-04 -1.923525e-02 -2.024860e-02 -1.990574e-02 -2.733790e-02 -3.603017e-02 1.009612e-02 1.318420e-02 5.012653e-02 5.725392e-03 7.892025e-03 1.694933e-02 -3.531392e-04 2.477624e-03 1.462487e-03 1.109656e-03 -8.970508e-03 -1.452497e-02 1.625678e-02 1.132615e-02 1.184115e-03 4.801824e-03 3.196861e-04 -2.106181e-03 -2.534979e-02 -7.861591e-05
<VARIANCE> 39
 2.679579e+01 2.362549e+01 5.255622e+01 1.149378e+02 3.758751e+01 8.785490e+01 5.221587e+01 4.371041e+01 4.813153e+01 5.399860e+01 4.781149e+01 3.443710e+01 8.302781e-02 1.126527e+00 1.306656e+00 1.502446e+00 2.982127e+00 1.813198e+00 2.004081e+00 2.322109e+00 3.340821e+00 4.286214e+00 3.269724e+00 2.820335e+00 1.658248e+00 1.738346e-03 1.742836e-01 2.356488e-01 2.248031e-01 4.182875e-01 3.013962e-01 3.144461e-01 4.348354e-01 6.384197e-01 8.869868e-01 6.342531e-01 5.647436e-01 2.734513e-01 2.176422e-04
<GCONST> 9.843299e+01
<STATE> 6
<MEAN> 39
 5.088635e-07 1.281055e-07 1.298848e-07 8.184518e-07 -3.291600e-07 4.946296e-07 3.273807e-07 1.547942e-07 5.124220e-07 -4.287976e-07 2.277431e-07 2.001648e-08 3.865325e-01 -3.743374e-04 -1.923525e-02 -2.024860e-02 -1.990574e-02 -2.733790e-02 -3.603017e-02 1.009612e-02 1.318420e-02 5.012653e-02 5.725392e-03 7.892025e-03 1.694933e-02 -3.531392e-04 2.477624e-03 1.462487e-03 1.109656e-03 -8.970508e-03 -1.452497e-02 1.625678e-02 1.132615e-02 1.184115e-03 4.801824e-03 3.196861e-04 -2.106181e-03 -2.534979e-02 -7.861591e-05
<VARIANCE> 39
 2.679579e+01 2.362549e+01 5.255622e+01 1.149378e+02 3.758751e+01 8.785490e+01 5.221587e+01 4.371041e+01 4.813153e+01 5.399860e+01 4.781149e+01 3.443710e+01 8.302781e-02 1.126527e+00 1.306656e+00 1.502446e+00 2.982127e+00 1.813198e+00 2.004081e+00 2.322109e+00 3.340821e+00 4.286214e+00 3.269724e+00 2.820335e+00 1.658248e+00 1.738346e-03 1.742836e-01 2.356488e-01 2.248031e-01 4.182875e-01 3.013962e-01 3.144461e-01 4.348354e-01 6.384197e-01 8.869868e-01 6.342531e-01 5.647436e-01 2.734513e-01 2.176422e-04
<GCONST> 9.843299e+01
<STATE> 7
<MEAN> 39
 5.088635e-07 1.281055e-07 1.298848e-07 8.184518e-07 -3.291600e-07 4.946296e-07 3.273807e-07 1.547942e-07 5.124220e-07 -4.287976e-07 2.277431e-07 2.001648e-08 3.865325e-01 -3.743374e-04 -1.923525e-02 -2.024860e-02 -1.990574e-02 -2.733790e-02 -3.603017e-02 1.009612e-02 1.318420e-02 5.012653e-02 5.725392e-03 7.892025e-03 1.694933e-02 -3.531392e-04 2.477624e-03 1.462487e-03 1.109656e-03 -8.970508e-03 -1.452497e-02 1.625678e-02 1.132615e-02 1.184115e-03 4.801824e-03 3.196861e-04 -2.106181e-03 -2.534979e-02 -7.861591e-05
<VARIANCE> 39
 2.679579e+01 2.362549e+01 5.255622e+01 1.149378e+02 3.758751e+01 8.785490e+01 5.221587e+01 4.371041e+01 4.813153e+01 5.399860e+01 4.781149e+01 3.443710e+01 8.302781e-02 1.126527e+00 1.306656e+00 1.502446e+00 2.982127e+00 1.813198e+00 2.004081e+00 2.322109e+00 3.340821e+00 4.286214e+00 3.269724e+00 2.820335e+00 1.658248e+00 1.738346e-03 1.742836e-01 2.356488e-01 2.248031e-01 4.182875e-01 3.013962e-01 3.144461e-01 4.348354e-01 6.384197e-01 8.869868e-01 6.342531e-01 5.647436e-01 2.734513e-01 2.176422e-04
<GCONST> 9.843299e+01
<STATE> 8
<MEAN> 39
 5.088635e-07 1.281055e-07 1.298848e-07 8.184518e-07 -3.291600e-07 4.946296e-07 3.273807e-07 1.547942e-07 5.124220e-07 -4.287976e-07 2.277431e-07 2.001648e-08 3.865325e-01 -3.743374e-04 -1.923525e-02 -2.024860e-02 -1.990574e-02 -2.733790e-02 -3.603017e-02 1.009612e-02 1.318420e-02 5.012653e-02 5.725392e-03 7.892025e-03 1.694933e-02 -3.531392e-04 2.477624e-03 1.462487e-03 1.109656e-03 -8.970508e-03 -1.452497e-02 1.625678e-02 1.132615e-02 1.184115e-03 4.801824e-03 3.196861e-04 -2.106181e-03 -2.534979e-02 -7.861591e-05
<VARIANCE> 39
 2.679579e+01 2.362549e+01 5.255622e+01 1.149378e+02 3.758751e+01 8.785490e+01 5.221587e+01 4.371041e+01 4.813153e+01 5.399860e+01 4.781149e+01 3.443710e+01 8.302781e-02 1.126527e+00 1.306656e+00 1.502446e+00 2.982127e+00 1.813198e+00 2.004081e+00 2.322109e+00 3.340821e+00 4.286214e+00 3.269724e+00 2.820335e+00 1.658248e+00 1.738346e-03 1.742836e-01 2.356488e-01 2.248031e-01 4.182875e-01 3.013962e-01 3.144461e-01 4.348354e-01 6.384197e-01 8.869868e-01 6.342531e-01 5.647436e-01 2.734513e-01 2.176422e-04
<GCONST> 9.843299e+01
<STATE> 9
<MEAN> 39
 5.088635e-07 1.281055e-07 1.298848e-07 8.184518e-07 -3.291600e-07 4.946296e-07 3.273807e-07 1.547942e-07 5.124220e-07 -4.287976e-07 2.277431e-07 2.001648e-08 3.865325e-01 -3.743374e-04 -1.923525e-02 -2.024860e-02 -1.990574e-02 -2.733790e-02 -3.603017e-02 1.009612e-02 1.318420e-02 5.012653e-02 5.725392e-03 7.892025e-03 1.694933e-02 -3.531392e-04 2.477624e-03 1.462487e-03 1.109656e-03 -8.970508e-03 -1.452497e-02 1.625678e-02 1.132615e-02 1.184115e-03 4.801824e-03 3.196861e-04 -2.106181e-03 -2.534979e-02 -7.861591e-05
<VARIANCE> 39
 2.679579e+01 2.362549e+01 5.255622e+01 1.149378e+02 3.758751e+01 8.785490e+01 5.221587e+01 4.371041e+01 4.813153e+01 5.399860e+01 4.781149e+01 3.443710e+01 8.302781e-02 1.126527e+00 1.306656e+00 1.502446e+00 2.982127e+00 1.813198e+00 2.004081e+00 2.322109e+00 3.340821e+00 4.286214e+00 3.269724e+00 2.820335e+00 1.658248e+00 1.738346e-03 1.742836e-01 2.356488e-01 2.248031e-01 4.182875e-01 3.013962e-01 3.144461e-01 4.348354e-01 6.384197e-01 8.869868e-01 6.342531e-01 5.647436e-01 2.734513e-01 2.176422e-04
<GCONST> 9.843299e+01
<TRANSP> 10
 0.000000e+00 1.000000e+00 0.000000e+00 0.000000e+00 0.000000e+00 0.000000e+00 0.000000e+00 0.000000e+00 0.000000e+00 0.000000e+00
 0.000000e+00 9.000000e-01 9.999999e-02 0.000000e+00 0.000000e+00 0.000000e+00 0.000000e+00 0.000000e+00 0.000000e+00 0.000000e+00
 0.000000e+00 0.000000e+00 9.000000e-01 9.999999e-02 0.000000e+00 0.000000e+00 0.000000e+00 0.000000e+00 0.000000e+00 0.000000e+00
 0.000000e+00 0.000000e+00 0.000000e+00 9.000000e-01 9.999999e-02 0.000000e+00 0.000000e+00 0.000000e+00 0.000000e+00 0.000000e+00
 0.000000e+00 0.000000e+00 0.000000e+00 0.000000e+00 9.000000e-01 9.999999e-02 0.000000e+00 0.000000e+00 0.000000e+00 0.000000e+00
 0.000000e+00 0.000000e+00 0.000000e+00 0.000000e+00 0.000000e+00 9.000000e-01 9.999999e-02 0.000000e+00 0.000000e+00 0.000000e+00
 0.000000e+00 0.000000e+00 0.000000e+00 0.000000e+00 0.000000e+00 0.000000e+00 9.000000e-01 9.999999e-02 0.000000e+00 0.000000e+00
 0.000000e+00 0.000000e+00 0.000000e+00 0.000000e+00 0.000000e+00 0.000000e+00 0.000000e+00 9.000000e-01 9.999999e-02 0.000000e+00
 0.000000e+00 0.000000e+00 0.000000e+00 0.000000e+00 0.000000e+00 0.000000e+00 0.000000e+00 0.000000e+00 9.000000e-01 9.999999e-02
 0.000000e+00 0.000000e+00 0.000000e+00 0.000000e+00 0.000000e+00 0.000000e+00 0.000000e+00 0.000000e+00 0.000000e+00 0.000000e+00
<ENDHMM>
