~o
<STREAMINFO> 1 39
<VECSIZE> 39<NULLD><MFCC_E_D_A_Z><DIAGC>
~h "s088"
<BEGINHMM>
<NUMSTATES> 10
<STATE> 2
<MEAN> 39
 2.348601e-07 -1.423394e-07 -2.846789e-07 -1.138716e-06 -2.419771e-07 -2.419771e-07 -1.138716e-07 -9.963762e-08 -9.252064e-08 -3.416147e-07 7.116972e-09 1.814828e-07 6.344153e-01 3.183383e-01 -8.476010e-02 -9.469753e-02 1.751590e-01 1.435764e-01 -1.919397e-01 1.261033e-01 -3.195950e-01 -3.046145e-01 -2.929655e-01 -7.060345e-02 -4.632439e-02 1.494895e-03 1.337045e-02 7.795272e-03 -1.378123e-02 -3.716433e-03 -8.433272e-03 1.754119e-02 -9.831659e-03 1.924191e-02 4.992719e-02 3.503308e-02 1.811070e-02 -3.538199e-02 -4.750477e-04
<VARIANCE> 39
 3.398337e+01 3.246977e+01 7.386320e+01 1.591909e+02 4.399488e+01 4.784444e+01 4.071933e+01 5.297702e+01 4.567236e+01 8.020716e+01 5.502978e+01 4.910841e+01 3.914847e-02 1.461119e+00 1.699055e+00 1.641742e+00 4.591907e+00 2.368775e+00 2.120097e+00 2.726347e+00 4.771921e+00 4.020750e+00 4.023993e+00 3.125543e+00 2.025147e+00 2.777926e-03 2.700321e-01 3.152120e-01 1.989883e-01 5.283743e-01 3.972484e-01 3.033040e-01 4.737319e-01 8.510675e-01 6.248323e-01 7.346045e-01 5.649427e-01 2.592257e-01 3.658042e-04
<GCONST> 1.037498e+02
<STATE> 3
<MEAN> 39
 2.348601e-07 -1.423394e-07 -2.846789e-07 -1.138716e-06 -2.419771e-07 -2.419771e-07 -1.138716e-07 -9.963762e-08 -9.252064e-08 -3.416147e-07 7.116972e-09 1.814828e-07 6.344153e-01 3.183383e-01 -8.476010e-02 -9.469753e-02 1.751590e-01 1.435764e-01 -1.919397e-01 1.261033e-01 -3.195950e-01 -3.046145e-01 -2.929655e-01 -7.060345e-02 -4.632439e-02 1.494895e-03 1.337045e-02 7.795272e-03 -1.378123e-02 -3.716433e-03 -8.433272e-03 1.754119e-02 -9.831659e-03 1.924191e-02 4.992719e-02 3.503308e-02 1.811070e-02 -3.538199e-02 -4.750477e-04
<VARIANCE> 39
 3.398337e+01 3.246977e+01 7.386320e+01 1.591909e+02 4.399488e+01 4.784444e+01 4.071933e+01 5.297702e+01 4.567236e+01 8.020716e+01 5.502978e+01 4.910841e+01 3.914847e-02 1.461119e+00 1.699055e+00 1.641742e+00 4.591907e+00 2.368775e+00 2.120097e+00 2.726347e+00 4.771921e+00 4.020750e+00 4.023993e+00 3.125543e+00 2.025147e+00 2.777926e-03 2.700321e-01 3.152120e-01 1.989883e-01 5.283743e-01 3.972484e-01 3.033040e-01 4.737319e-01 8.510675e-01 6.248323e-01 7.346045e-01 5.649427e-01 2.592257e-01 3.658042e-04
<GCONST> 1.037498e+02
<STATE> 4
<MEAN> 39
 2.348601e-07 -1.423394e-07 -2.846789e-07 -1.138716e-06 -2.419771e-07 -2.419771e-07 -1.138716e-07 -9.963762e-08 -9.252064e-08 -3.416147e-07 7.116972e-09 1.814828e-07 6.344153e-01 3.183383e-01 -8.476010e-02 -9.469753e-02 1.751590e-01 1.435764e-01 -1.919397e-01 1.261033e-01 -3.195950e-01 -3.046145e-01 -2.929655e-01 -7.060345e-02 -4.632439e-02 1.494895e-03 1.337045e-02 7.795272e-03 -1.378123e-02 -3.716433e-03 -8.433272e-03 1.754119e-02 -9.831659e-03 1.924191e-02 4.992719e-02 3.503308e-02 1.811070e-02 -3.538199e-02 -4.750477e-04
<VARIANCE> 39
 3.398337e+01 3.246977e+01 7.386320e+01 1.591909e+02 4.399488e+01 4.784444e+01 4.071933e+01 5.297702e+01 4.567236e+01 8.020716e+01 5.502978e+01 4.910841e+01 3.914847e-02 1.461119e+00 1.699055e+00 1.641742e+00 4.591907e+00 2.368775e+00 2.120097e+00 2.726347e+00 4.771921e+00 4.020750e+00 4.023993e+00 3.125543e+00 2.025147e+00 2.777926e-03 2.700321e-01 3.152120e-01 1.989883e-01 5.283743e-01 3.972484e-01 3.033040e-01 4.737319e-01 8.510675e-01 6.248323e-01 7.346045e-01 5.649427e-01 2.592257e-01 3.658042e-04
<GCONST> 1.037498e+02
<STATE> 5
<MEAN> 39
 2.348601e-07 -1.423394e-07 -2.846789e-07 -1.138716e-06 -2.419771e-07 -2.419771e-07 -1.138716e-07 -9.963762e-08 -9.252064e-08 -3.416147e-07 7.116972e-09 1.814828e-07 6.344153e-01 3.183383e-01 -8.476010e-02 -9.469753e-02 1.751590e-01 1.435764e-01 -1.919397e-01 1.261033e-01 -3.195950e-01 -3.046145e-01 -2.929655e-01 -7.060345e-02 -4.632439e-02 1.494895e-03 1.337045e-02 7.795272e-03 -1.378123e-02 -3.716433e-03 -8.433272e-03 1.754119e-02 -9.831659e-03 1.924191e-02 4.992719e-02 3.503308e-02 1.811070e-02 -3.538199e-02 -4.750477e-04
<VARIANCE> 39
 3.398337e+01 3.246977e+01 7.386320e+01 1.591909e+02 4.399488e+01 4.784444e+01 4.071933e+01 5.297702e+01 4.567236e+01 8.020716e+01 5.502978e+01 4.910841e+01 3.914847e-02 1.461119e+00 1.699055e+00 1.641742e+00 4.591907e+00 2.368775e+00 2.120097e+00 2.726347e+00 4.771921e+00 4.020750e+00 4.023993e+00 3.125543e+00 2.025147e+00 2.777926e-03 2.700321e-01 3.152120e-01 1.989883e-01 5.283743e-01 3.972484e-01 3.033040e-01 4.737319e-01 8.510675e-01 6.248323e-01 7.346045e-01 5.649427e-01 2.592257e-01 3.658042e-04
<GCONST> 1.037498e+02
<STATE> 6
<MEAN> 39
 2.348601e-07 -1.423394e-07 -2.846789e-07 -1.138716e-06 -2.419771e-07 -2.419771e-07 -1.138716e-07 -9.963762e-08 -9.252064e-08 -3.416147e-07 7.116972e-09 1.814828e-07 6.344153e-01 3.183383e-01 -8.476010e-02 -9.469753e-02 1.751590e-01 1.435764e-01 -1.919397e-01 1.261033e-01 -3.195950e-01 -3.046145e-01 -2.929655e-01 -7.060345e-02 -4.632439e-02 1.494895e-03 1.337045e-02 7.795272e-03 -1.378123e-02 -3.716433e-03 -8.433272e-03 1.754119e-02 -9.831659e-03 1.924191e-02 4.992719e-02 3.503308e-02 1.811070e-02 -3.538199e-02 -4.750477e-04
<VARIANCE> 39
 3.398337e+01 3.246977e+01 7.386320e+01 1.591909e+02 4.399488e+01 4.784444e+01 4.071933e+01 5.297702e+01 4.567236e+01 8.020716e+01 5.502978e+01 4.910841e+01 3.914847e-02 1.461119e+00 1.699055e+00 1.641742e+00 4.591907e+00 2.368775e+00 2.120097e+00 2.726347e+00 4.771921e+00 4.020750e+00 4.023993e+00 3.125543e+00 2.025147e+00 2.777926e-03 2.700321e-01 3.152120e-01 1.989883e-01 5.283743e-01 3.972484e-01 3.033040e-01 4.737319e-01 8.510675e-01 6.248323e-01 7.346045e-01 5.649427e-01 2.592257e-01 3.658042e-04
<GCONST> 1.037498e+02
<STATE> 7
<MEAN> 39
 2.348601e-07 -1.423394e-07 -2.846789e-07 -1.138716e-06 -2.419771e-07 -2.419771e-07 -1.138716e-07 -9.963762e-08 -9.252064e-08 -3.416147e-07 7.116972e-09 1.814828e-07 6.344153e-01 3.183383e-01 -8.476010e-02 -9.469753e-02 1.751590e-01 1.435764e-01 -1.919397e-01 1.261033e-01 -3.195950e-01 -3.046145e-01 -2.929655e-01 -7.060345e-02 -4.632439e-02 1.494895e-03 1.337045e-02 7.795272e-03 -1.378123e-02 -3.716433e-03 -8.433272e-03 1.754119e-02 -9.831659e-03 1.924191e-02 4.992719e-02 3.503308e-02 1.811070e-02 -3.538199e-02 -4.750477e-04
<VARIANCE> 39
 3.398337e+01 3.246977e+01 7.386320e+01 1.591909e+02 4.399488e+01 4.784444e+01 4.071933e+01 5.297702e+01 4.567236e+01 8.020716e+01 5.502978e+01 4.910841e+01 3.914847e-02 1.461119e+00 1.699055e+00 1.641742e+00 4.591907e+00 2.368775e+00 2.120097e+00 2.726347e+00 4.771921e+00 4.020750e+00 4.023993e+00 3.125543e+00 2.025147e+00 2.777926e-03 2.700321e-01 3.152120e-01 1.989883e-01 5.283743e-01 3.972484e-01 3.033040e-01 4.737319e-01 8.510675e-01 6.248323e-01 7.346045e-01 5.649427e-01 2.592257e-01 3.658042e-04
<GCONST> 1.037498e+02
<STATE> 8
<MEAN> 39
 2.348601e-07 -1.423394e-07 -2.846789e-07 -1.138716e-06 -2.419771e-07 -2.419771e-07 -1.138716e-07 -9.963762e-08 -9.252064e-08 -3.416147e-07 7.116972e-09 1.814828e-07 6.344153e-01 3.183383e-01 -8.476010e-02 -9.469753e-02 1.751590e-01 1.435764e-01 -1.919397e-01 1.261033e-01 -3.195950e-01 -3.046145e-01 -2.929655e-01 -7.060345e-02 -4.632439e-02 1.494895e-03 1.337045e-02 7.795272e-03 -1.378123e-02 -3.716433e-03 -8.433272e-03 1.754119e-02 -9.831659e-03 1.924191e-02 4.992719e-02 3.503308e-02 1.811070e-02 -3.538199e-02 -4.750477e-04
<VARIANCE> 39
 3.398337e+01 3.246977e+01 7.386320e+01 1.591909e+02 4.399488e+01 4.784444e+01 4.071933e+01 5.297702e+01 4.567236e+01 8.020716e+01 5.502978e+01 4.910841e+01 3.914847e-02 1.461119e+00 1.699055e+00 1.641742e+00 4.591907e+00 2.368775e+00 2.120097e+00 2.726347e+00 4.771921e+00 4.020750e+00 4.023993e+00 3.125543e+00 2.025147e+00 2.777926e-03 2.700321e-01 3.152120e-01 1.989883e-01 5.283743e-01 3.972484e-01 3.033040e-01 4.737319e-01 8.510675e-01 6.248323e-01 7.346045e-01 5.649427e-01 2.592257e-01 3.658042e-04
<GCONST> 1.037498e+02
<STATE> 9
<MEAN> 39
 2.348601e-07 -1.423394e-07 -2.846789e-07 -1.138716e-06 -2.419771e-07 -2.419771e-07 -1.138716e-07 -9.963762e-08 -9.252064e-08 -3.416147e-07 7.116972e-09 1.814828e-07 6.344153e-01 3.183383e-01 -8.476010e-02 -9.469753e-02 1.751590e-01 1.435764e-01 -1.919397e-01 1.261033e-01 -3.195950e-01 -3.046145e-01 -2.929655e-01 -7.060345e-02 -4.632439e-02 1.494895e-03 1.337045e-02 7.795272e-03 -1.378123e-02 -3.716433e-03 -8.433272e-03 1.754119e-02 -9.831659e-03 1.924191e-02 4.992719e-02 3.503308e-02 1.811070e-02 -3.538199e-02 -4.750477e-04
<VARIANCE> 39
 3.398337e+01 3.246977e+01 7.386320e+01 1.591909e+02 4.399488e+01 4.784444e+01 4.071933e+01 5.297702e+01 4.567236e+01 8.020716e+01 5.502978e+01 4.910841e+01 3.914847e-02 1.461119e+00 1.699055e+00 1.641742e+00 4.591907e+00 2.368775e+00 2.120097e+00 2.726347e+00 4.771921e+00 4.020750e+00 4.023993e+00 3.125543e+00 2.025147e+00 2.777926e-03 2.700321e-01 3.152120e-01 1.989883e-01 5.283743e-01 3.972484e-01 3.033040e-01 4.737319e-01 8.510675e-01 6.248323e-01 7.346045e-01 5.649427e-01 2.592257e-01 3.658042e-04
<GCONST> 1.037498e+02
<TRANSP> 10
 0.000000e+00 1.000000e+00 0.000000e+00 0.000000e+00 0.000000e+00 0.000000e+00 0.000000e+00 0.000000e+00 0.000000e+00 0.000000e+00
 0.000000e+00 9.000000e-01 9.999999e-02 0.000000e+00 0.000000e+00 0.000000e+00 0.000000e+00 0.000000e+00 0.000000e+00 0.000000e+00
 0.000000e+00 0.000000e+00 9.000000e-01 9.999999e-02 0.000000e+00 0.000000e+00 0.000000e+00 0.000000e+00 0.000000e+00 0.000000e+00
 0.000000e+00 0.000000e+00 0.000000e+00 9.000000e-01 9.999999e-02 0.000000e+00 0.000000e+00 0.000000e+00 0.000000e+00 0.000000e+00
 0.000000e+00 0.000000e+00 0.000000e+00 0.000000e+00 9.000000e-01 9.999999e-02 0.000000e+00 0.000000e+00 0.000000e+00 0.000000e+00
 0.000000e+00 0.000000e+00 0.000000e+00 0.000000e+00 0.000000e+00 9.000000e-01 9.999999e-02 0.000000e+00 0.000000e+00 0.000000e+00
 0.000000e+00 0.000000e+00 0.000000e+00 0.000000e+00 0.000000e+00 0.000000e+00 9.000000e-01 9.999999e-02 0.000000e+00 0.000000e+00
 0.000000e+00 0.000000e+00 0.000000e+00 0.000000e+00 0.000000e+00 0.000000e+00 0.000000e+00 9.000000e-01 9.999999e-02 0.000000e+00
 0.000000e+00 0.000000e+00 0.000000e+00 0.000000e+00 0.000000e+00 0.000000e+00 0.000000e+00 0.000000e+00 9.000000e-01 9.999999e-02
 0.000000e+00 0.000000e+00 0.000000e+00 0.000000e+00 0.000000e+00 0.000000e+00 0.000000e+00 0.000000e+00 0.000000e+00 0.000000e+00
<ENDHMM>
