~o
<STREAMINFO> 1 39
<VECSIZE> 39<NULLD><MFCC_E_D_A_Z><DIAGC>
~h "s093"
<BEGINHMM>
<NUMSTATES> 10
<STATE> 2
<MEAN> 39
 -2.616789e-08 -1.430511e-06 8.577254e-08 1.116497e-06 2.791242e-07 -3.140147e-07 -2.209733e-07 -2.209733e-07 6.978104e-08 1.453772e-08 2.326035e-07 -5.815087e-08 7.914724e-01 6.810293e-02 -1.621606e-01 -2.133661e-01 3.388116e-01 2.150506e-01 4.223436e-02 8.260801e-02 -6.819501e-02 -2.247828e-01 -4.509420e-02 -1.224021e-01 5.537311e-02 -2.500910e-03 1.419657e-03 1.706528e-02 1.086152e-02 1.888062e-02 9.077738e-03 9.377284e-03 1.838486e-02 9.755933e-03 -1.087046e-02 -1.751776e-03 -2.046092e-02 -3.894929e-03 -5.413370e-04
<VARIANCE> 39
 2.609519e+01 8.604480e+01 3.059653e+01 2.033556e+02 1.113720e+02 5.279711e+01 3.174127e+01 3.361014e+01 4.019042e+01 2.291455e+01 5.504839e+01 3.348664e+01 1.146958e-02 1.352141e+00 1.963868e+00 1.635877e+00 3.425102e+00 2.982172e+00 3.319591e+00 2.208660e+00 3.170904e+00 3.549185e+00 3.585943e+00 3.875175e+00 3.396180e+00 5.721860e-04 1.804627e-01 2.297929e-01 2.737975e-01 4.308482e-01 4.440612e-01 4.414966e-01 4.260665e-01 6.374575e-01 7.526816e-01 8.139534e-01 4.688086e-01 6.956362e-01 7.790505e-05
<GCONST> 9.892846e+01
<STATE> 3
<MEAN> 39
 -2.616789e-08 -1.430511e-06 8.577254e-08 1.116497e-06 2.791242e-07 -3.140147e-07 -2.209733e-07 -2.209733e-07 6.978104e-08 1.453772e-08 2.326035e-07 -5.815087e-08 7.914724e-01 6.810293e-02 -1.621606e-01 -2.133661e-01 3.388116e-01 2.150506e-01 4.223436e-02 8.260801e-02 -6.819501e-02 -2.247828e-01 -4.509420e-02 -1.224021e-01 5.537311e-02 -2.500910e-03 1.419657e-03 1.706528e-02 1.086152e-02 1.888062e-02 9.077738e-03 9.377284e-03 1.838486e-02 9.755933e-03 -1.087046e-02 -1.751776e-03 -2.046092e-02 -3.894929e-03 -5.413370e-04
<VARIANCE> 39
 2.609519e+01 8.604480e+01 3.059653e+01 2.033556e+02 1.113720e+02 5.279711e+01 3.174127e+01 3.361014e+01 4.019042e+01 2.291455e+01 5.504839e+01 3.348664e+01 1.146958e-02 1.352141e+00 1.963868e+00 1.635877e+00 3.425102e+00 2.982172e+00 3.319591e+00 2.208660e+00 3.170904e+00 3.549185e+00 3.585943e+00 3.875175e+00 3.396180e+00 5.721860e-04 1.804627e-01 2.297929e-01 2.737975e-01 4.308482e-01 4.440612e-01 4.414966e-01 4.260665e-01 6.374575e-01 7.526816e-01 8.139534e-01 4.688086e-01 6.956362e-01 7.790505e-05
<GCONST> 9.892846e+01
<STATE> 4
<MEAN> 39
 -2.616789e-08 -1.430511e-06 8.577254e-08 1.116497e-06 2.791242e-07 -3.140147e-07 -2.209733e-07 -2.209733e-07 6.978104e-08 1.453772e-08 2.326035e-07 -5.815087e-08 7.914724e-01 6.810293e-02 -1.621606e-01 -2.133661e-01 3.388116e-01 2.150506e-01 4.223436e-02 8.260801e-02 -6.819501e-02 -2.247828e-01 -4.509420e-02 -1.224021e-01 5.537311e-02 -2.500910e-03 1.419657e-03 1.706528e-02 1.086152e-02 1.888062e-02 9.077738e-03 9.377284e-03 1.838486e-02 9.755933e-03 -1.087046e-02 -1.751776e-03 -2.046092e-02 -3.894929e-03 -5.413370e-04
<VARIANCE> 39
 2.609519e+01 8.604480e+01 3.059653e+01 2.033556e+02 1.113720e+02 5.279711e+01 3.174127e+01 3.361014e+01 4.019042e+01 2.291455e+01 5.504839e+01 3.348664e+01 1.146958e-02 1.352141e+00 1.963868e+00 1.635877e+00 3.425102e+00 2.982172e+00 3.319591e+00 2.208660e+00 3.170904e+00 3.549185e+00 3.585943e+00 3.875175e+00 3.396180e+00 5.721860e-04 1.804627e-01 2.297929e-01 2.737975e-01 4.308482e-01 4.440612e-01 4.414966e-01 4.260665e-01 6.374575e-01 7.526816e-01 8.139534e-01 4.688086e-01 6.956362e-01 7.790505e-05
<GCONST> 9.892846e+01
<STATE> 5
<MEAN> 39
 -2.616789e-08 -1.430511e-06 8.577254e-08 1.116497e-06 2.791242e-07 -3.140147e-07 -2.209733e-07 -2.209733e-07 6.978104e-08 1.453772e-08 2.326035e-07 -5.815087e-08 7.914724e-01 6.810293e-02 -1.621606e-01 -2.133661e-01 3.388116e-01 2.150506e-01 4.223436e-02 8.260801e-02 -6.819501e-02 -2.247828e-01 -4.509420e-02 -1.224021e-01 5.537311e-02 -2.500910e-03 1.419657e-03 1.706528e-02 1.086152e-02 1.888062e-02 9.077738e-03 9.377284e-03 1.838486e-02 9.755933e-03 -1.087046e-02 -1.751776e-03 -2.046092e-02 -3.894929e-03 -5.413370e-04
<VARIANCE> 39
 2.609519e+01 8.604480e+01 3.059653e+01 2.033556e+02 1.113720e+02 5.279711e+01 3.174127e+01 3.361014e+01 4.019042e+01 2.291455e+01 5.504839e+01 3.348664e+01 1.146958e-02 1.352141e+00 1.963868e+00 1.635877e+00 3.425102e+00 2.982172e+00 3.319591e+00 2.208660e+00 3.170904e+00 3.549185e+00 3.585943e+00 3.875175e+00 3.396180e+00 5.721860e-04 1.804627e-01 2.297929e-01 2.737975e-01 4.308482e-01 4.440612e-01 4.414966e-01 4.260665e-01 6.374575e-01 7.526816e-01 8.139534e-01 4.688086e-01 6.956362e-01 7.790505e-05
<GCONST> 9.892846e+01
<STATE> 6
<MEAN> 39
 -2.616789e-08 -1.430511e-06 8.577254e-08 1.116497e-06 2.791242e-07 -3.140147e-07 -2.209733e-07 -2.209733e-07 6.978104e-08 1.453772e-08 2.326035e-07 -5.815087e-08 7.914724e-01 6.810293e-02 -1.621606e-01 -2.133661e-01 3.388116e-01 2.150506e-01 4.223436e-02 8.260801e-02 -6.819501e-02 -2.247828e-01 -4.509420e-02 -1.224021e-01 5.537311e-02 -2.500910e-03 1.419657e-03 1.706528e-02 1.086152e-02 1.888062e-02 9.077738e-03 9.377284e-03 1.838486e-02 9.755933e-03 -1.087046e-02 -1.751776e-03 -2.046092e-02 -3.894929e-03 -5.413370e-04
<VARIANCE> 39
 2.609519e+01 8.604480e+01 3.059653e+01 2.033556e+02 1.113720e+02 5.279711e+01 3.174127e+01 3.361014e+01 4.019042e+01 2.291455e+01 5.504839e+01 3.348664e+01 1.146958e-02 1.352141e+00 1.963868e+00 1.635877e+00 3.425102e+00 2.982172e+00 3.319591e+00 2.208660e+00 3.170904e+00 3.549185e+00 3.585943e+00 3.875175e+00 3.396180e+00 5.721860e-04 1.804627e-01 2.297929e-01 2.737975e-01 4.308482e-01 4.440612e-01 4.414966e-01 4.260665e-01 6.374575e-01 7.526816e-01 8.139534e-01 4.688086e-01 6.956362e-01 7.790505e-05
<GCONST> 9.892846e+01
<STATE> 7
<MEAN> 39
 -2.616789e-08 -1.430511e-06 8.577254e-08 1.116497e-06 2.791242e-07 -3.140147e-07 -2.209733e-07 -2.209733e-07 6.978104e-08 1.453772e-08 2.326035e-07 -5.815087e-08 7.914724e-01 6.810293e-02 -1.621606e-01 -2.133661e-01 3.388116e-01 2.150506e-01 4.223436e-02 8.260801e-02 -6.819501e-02 -2.247828e-01 -4.509420e-02 -1.224021e-01 5.537311e-02 -2.500910e-03 1.419657e-03 1.706528e-02 1.086152e-02 1.888062e-02 9.077738e-03 9.377284e-03 1.838486e-02 9.755933e-03 -1.087046e-02 -1.751776e-03 -2.046092e-02 -3.894929e-03 -5.413370e-04
<VARIANCE> 39
 2.609519e+01 8.604480e+01 3.059653e+01 2.033556e+02 1.113720e+02 5.279711e+01 3.174127e+01 3.361014e+01 4.019042e+01 2.291455e+01 5.504839e+01 3.348664e+01 1.146958e-02 1.352141e+00 1.963868e+00 1.635877e+00 3.425102e+00 2.982172e+00 3.319591e+00 2.208660e+00 3.170904e+00 3.549185e+00 3.585943e+00 3.875175e+00 3.396180e+00 5.721860e-04 1.804627e-01 2.297929e-01 2.737975e-01 4.308482e-01 4.440612e-01 4.414966e-01 4.260665e-01 6.374575e-01 7.526816e-01 8.139534e-01 4.688086e-01 6.956362e-01 7.790505e-05
<GCONST> 9.892846e+01
<STATE> 8
<MEAN> 39
 -2.616789e-08 -1.430511e-06 8.577254e-08 1.116497e-06 2.791242e-07 -3.140147e-07 -2.209733e-07 -2.209733e-07 6.978104e-08 1.453772e-08 2.326035e-07 -5.815087e-08 7.914724e-01 6.810293e-02 -1.621606e-01 -2.133661e-01 3.388116e-01 2.150506e-01 4.223436e-02 8.260801e-02 -6.819501e-02 -2.247828e-01 -4.509420e-02 -1.224021e-01 5.537311e-02 -2.500910e-03 1.419657e-03 1.706528e-02 1.086152e-02 1.888062e-02 9.077738e-03 9.377284e-03 1.838486e-02 9.755933e-03 -1.087046e-02 -1.751776e-03 -2.046092e-02 -3.894929e-03 -5.413370e-04
<VARIANCE> 39
 2.609519e+01 8.604480e+01 3.059653e+01 2.033556e+02 1.113720e+02 5.279711e+01 3.174127e+01 3.361014e+01 4.019042e+01 2.291455e+01 5.504839e+01 3.348664e+01 1.146958e-02 1.352141e+00 1.963868e+00 1.635877e+00 3.425102e+00 2.982172e+00 3.319591e+00 2.208660e+00 3.170904e+00 3.549185e+00 3.585943e+00 3.875175e+00 3.396180e+00 5.721860e-04 1.804627e-01 2.297929e-01 2.737975e-01 4.308482e-01 4.440612e-01 4.414966e-01 4.260665e-01 6.374575e-01 7.526816e-01 8.139534e-01 4.688086e-01 6.956362e-01 7.790505e-05
<GCONST> 9.892846e+01
<STATE> 9
<MEAN> 39
 -2.616789e-08 -1.430511e-06 8.577254e-08 1.116497e-06 2.791242e-07 -3.140147e-07 -2.209733e-07 -2.209733e-07 6.978104e-08 1.453772e-08 2.326035e-07 -5.815087e-08 7.914724e-01 6.810293e-02 -1.621606e-01 -2.133661e-01 3.388116e-01 2.150506e-01 4.223436e-02 8.260801e-02 -6.819501e-02 -2.247828e-01 -4.509420e-02 -1.224021e-01 5.537311e-02 -2.500910e-03 1.419657e-03 1.706528e-02 1.086152e-02 1.888062e-02 9.077738e-03 9.377284e-03 1.838486e-02 9.755933e-03 -1.087046e-02 -1.751776e-03 -2.046092e-02 -3.894929e-03 -5.413370e-04
<VARIANCE> 39
 2.609519e+01 8.604480e+01 3.059653e+01 2.033556e+02 1.113720e+02 5.279711e+01 3.174127e+01 3.361014e+01 4.019042e+01 2.291455e+01 5.504839e+01 3.348664e+01 1.146958e-02 1.352141e+00 1.963868e+00 1.635877e+00 3.425102e+00 2.982172e+00 3.319591e+00 2.208660e+00 3.170904e+00 3.549185e+00 3.585943e+00 3.875175e+00 3.396180e+00 5.721860e-04 1.804627e-01 2.297929e-01 2.737975e-01 4.308482e-01 4.440612e-01 4.414966e-01 4.260665e-01 6.374575e-01 7.526816e-01 8.139534e-01 4.688086e-01 6.956362e-01 7.790505e-05
<GCONST> 9.892846e+01
<TRANSP> 10
 0.000000e+00 1.000000e+00 0.000000e+00 0.000000e+00 0.000000e+00 0.000000e+00 0.000000e+00 0.000000e+00 0.000000e+00 0.000000e+00
 0.000000e+00 9.000000e-01 9.999999e-02 0.000000e+00 0.000000e+00 0.000000e+00 0.000000e+00 0.000000e+00 0.000000e+00 0.000000e+00
 0.000000e+00 0.000000e+00 9.000000e-01 9.999999e-02 0.000000e+00 0.000000e+00 0.000000e+00 0.000000e+00 0.000000e+00 0.000000e+00
 0.000000e+00 0.000000e+00 0.000000e+00 9.000000e-01 9.999999e-02 0.000000e+00 0.000000e+00 0.000000e+00 0.000000e+00 0.000000e+00
 0.000000e+00 0.000000e+00 0.000000e+00 0.000000e+00 9.000000e-01 9.999999e-02 0.000000e+00 0.000000e+00 0.000000e+00 0.000000e+00
 0.000000e+00 0.000000e+00 0.000000e+00 0.000000e+00 0.000000e+00 9.000000e-01 9.999999e-02 0.000000e+00 0.000000e+00 0.000000e+00
 0.000000e+00 0.000000e+00 0.000000e+00 0.000000e+00 0.000000e+00 0.000000e+00 9.000000e-01 9.999999e-02 0.000000e+00 0.000000e+00
 0.000000e+00 0.000000e+00 0.000000e+00 0.000000e+00 0.000000e+00 0.000000e+00 0.000000e+00 9.000000e-01 9.999999e-02 0.000000e+00
 0.000000e+00 0.000000e+00 0.000000e+00 0.000000e+00 0.000000e+00 0.000000e+00 0.000000e+00 0.000000e+00 9.000000e-01 9.999999e-02
 0.000000e+00 0.000000e+00 0.000000e+00 0.000000e+00 0.000000e+00 0.000000e+00 0.000000e+00 0.000000e+00 0.000000e+00 0.000000e+00
<ENDHMM>
