~o
<STREAMINFO> 1 39
<VECSIZE> 39<NULLD><MFCC_E_D_A_Z><DIAGC>
~h "s094"
<BEGINHMM>
<NUMSTATES> 10
<STATE> 2
<MEAN> 39
 -1.710394e-07 -2.384186e-07 -1.710394e-07 1.658564e-07 -8.292820e-08 7.256217e-08 4.042750e-07 -1.243923e-07 -8.292820e-08 1.036602e-07 1.347583e-07 -9.847724e-08 7.555066e-01 2.408107e-01 -1.082143e-01 -2.384393e-01 3.321082e-01 1.039549e-01 1.886913e-01 -2.159826e-01 -2.153952e-01 8.153497e-02 3.042595e-01 2.522914e-01 -1.884145e-01 -2.640145e-03 2.717328e-02 4.442260e-02 3.267314e-02 6.828494e-02 -1.331154e-02 -1.138248e-01 1.295268e-01 -2.199412e-02 -2.015854e-02 4.095276e-02 -4.569766e-02 3.923453e-02 -4.564304e-04
<VARIANCE> 39
 3.139488e+01 3.594613e+01 3.291414e+01 5.727897e+01 4.800753e+01 4.690309e+01 1.931800e+01 3.420032e+01 3.327031e+01 3.333945e+01 2.719752e+01 2.589682e+01 3.047738e-02 2.202238e+00 2.848433e+00 2.280053e+00 2.197910e+00 2.806594e+00 6.656857e+00 3.054765e+00 2.921151e+00 2.567155e+00 2.525289e+00 2.603511e+00 3.499018e+00 1.499344e-03 4.392312e-01 3.771281e-01 3.434620e-01 2.372854e-01 3.141973e-01 1.099015e+00 5.923414e-01 6.436314e-01 3.998557e-01 5.250841e-01 4.063689e-01 8.127555e-01 1.789999e-04
<GCONST> 9.904884e+01
<STATE> 3
<MEAN> 39
 -1.710394e-07 -2.384186e-07 -1.710394e-07 1.658564e-07 -8.292820e-08 7.256217e-08 4.042750e-07 -1.243923e-07 -8.292820e-08 1.036602e-07 1.347583e-07 -9.847724e-08 7.555066e-01 2.408107e-01 -1.082143e-01 -2.384393e-01 3.321082e-01 1.039549e-01 1.886913e-01 -2.159826e-01 -2.153952e-01 8.153497e-02 3.042595e-01 2.522914e-01 -1.884145e-01 -2.640145e-03 2.717328e-02 4.442260e-02 3.267314e-02 6.828494e-02 -1.331154e-02 -1.138248e-01 1.295268e-01 -2.199412e-02 -2.015854e-02 4.095276e-02 -4.569766e-02 3.923453e-02 -4.564304e-04
<VARIANCE> 39
 3.139488e+01 3.594613e+01 3.291414e+01 5.727897e+01 4.800753e+01 4.690309e+01 1.931800e+01 3.420032e+01 3.327031e+01 3.333945e+01 2.719752e+01 2.589682e+01 3.047738e-02 2.202238e+00 2.848433e+00 2.280053e+00 2.197910e+00 2.806594e+00 6.656857e+00 3.054765e+00 2.921151e+00 2.567155e+00 2.525289e+00 2.603511e+00 3.499018e+00 1.499344e-03 4.392312e-01 3.771281e-01 3.434620e-01 2.372854e-01 3.141973e-01 1.099015e+00 5.923414e-01 6.436314e-01 3.998557e-01 5.250841e-01 4.063689e-01 8.127555e-01 1.789999e-04
<GCONST> 9.904884e+01
<STATE> 4
<MEAN> 39
 -1.710394e-07 -2.384186e-07 -1.710394e-07 1.658564e-07 -8.292820e-08 7.256217e-08 4.042750e-07 -1.243923e-07 -8.292820e-08 1.036602e-07 1.347583e-07 -9.847724e-08 7.555066e-01 2.408107e-01 -1.082143e-01 -2.384393e-01 3.321082e-01 1.039549e-01 1.886913e-01 -2.159826e-01 -2.153952e-01 8.153497e-02 3.042595e-01 2.522914e-01 -1.884145e-01 -2.640145e-03 2.717328e-02 4.442260e-02 3.267314e-02 6.828494e-02 -1.331154e-02 -1.138248e-01 1.295268e-01 -2.199412e-02 -2.015854e-02 4.095276e-02 -4.569766e-02 3.923453e-02 -4.564304e-04
<VARIANCE> 39
 3.139488e+01 3.594613e+01 3.291414e+01 5.727897e+01 4.800753e+01 4.690309e+01 1.931800e+01 3.420032e+01 3.327031e+01 3.333945e+01 2.719752e+01 2.589682e+01 3.047738e-02 2.202238e+00 2.848433e+00 2.280053e+00 2.197910e+00 2.806594e+00 6.656857e+00 3.054765e+00 2.921151e+00 2.567155e+00 2.525289e+00 2.603511e+00 3.499018e+00 1.499344e-03 4.392312e-01 3.771281e-01 3.434620e-01 2.372854e-01 3.141973e-01 1.099015e+00 5.923414e-01 6.436314e-01 3.998557e-01 5.250841e-01 4.063689e-01 8.127555e-01 1.789999e-04
<GCONST> 9.904884e+01
<STATE> 5
<MEAN> 39
 -1.710394e-07 -2.384186e-07 -1.710394e-07 1.658564e-07 -8.292820e-08 7.256217e-08 4.042750e-07 -1.243923e-07 -8.292820e-08 1.036602e-07 1.347583e-07 -9.847724e-08 7.555066e-01 2.408107e-01 -1.082143e-01 -2.384393e-01 3.321082e-01 1.039549e-01 1.886913e-01 -2.159826e-01 -2.153952e-01 8.153497e-02 3.042595e-01 2.522914e-01 -1.884145e-01 -2.640145e-03 2.717328e-02 4.442260e-02 3.267314e-02 6.828494e-02 -1.331154e-02 -1.138248e-01 1.295268e-01 -2.199412e-02 -2.015854e-02 4.095276e-02 -4.569766e-02 3.923453e-02 -4.564304e-04
<VARIANCE> 39
 3.139488e+01 3.594613e+01 3.291414e+01 5.727897e+01 4.800753e+01 4.690309e+01 1.931800e+01 3.420032e+01 3.327031e+01 3.333945e+01 2.719752e+01 2.589682e+01 3.047738e-02 2.202238e+00 2.848433e+00 2.280053e+00 2.197910e+00 2.806594e+00 6.656857e+00 3.054765e+00 2.921151e+00 2.567155e+00 2.525289e+00 2.603511e+00 3.499018e+00 1.499344e-03 4.392312e-01 3.771281e-01 3.434620e-01 2.372854e-01 3.141973e-01 1.099015e+00 5.923414e-01 6.436314e-01 3.998557e-01 5.250841e-01 4.063689e-01 8.127555e-01 1.789999e-04
<GCONST> 9.904884e+01
<STATE> 6
<MEAN> 39
 -1.710394e-07 -2.384186e-07 -1.710394e-07 1.658564e-07 -8.292820e-08 7.256217e-08 4.042750e-07 -1.243923e-07 -8.292820e-08 1.036602e-07 1.347583e-07 -9.847724e-08 7.555066e-01 2.408107e-01 -1.082143e-01 -2.384393e-01 3.321082e-01 1.039549e-01 1.886913e-01 -2.159826e-01 -2.153952e-01 8.153497e-02 3.042595e-01 2.522914e-01 -1.884145e-01 -2.640145e-03 2.717328e-02 4.442260e-02 3.267314e-02 6.828494e-02 -1.331154e-02 -1.138248e-01 1.295268e-01 -2.199412e-02 -2.015854e-02 4.095276e-02 -4.569766e-02 3.923453e-02 -4.564304e-04
<VARIANCE> 39
 3.139488e+01 3.594613e+01 3.291414e+01 5.727897e+01 4.800753e+01 4.690309e+01 1.931800e+01 3.420032e+01 3.327031e+01 3.333945e+01 2.719752e+01 2.589682e+01 3.047738e-02 2.202238e+00 2.848433e+00 2.280053e+00 2.197910e+00 2.806594e+00 6.656857e+00 3.054765e+00 2.921151e+00 2.567155e+00 2.525289e+00 2.603511e+00 3.499018e+00 1.499344e-03 4.392312e-01 3.771281e-01 3.434620e-01 2.372854e-01 3.141973e-01 1.099015e+00 5.923414e-01 6.436314e-01 3.998557e-01 5.250841e-01 4.063689e-01 8.127555e-01 1.789999e-04
<GCONST> 9.904884e+01
<STATE> 7
<MEAN> 39
 -1.710394e-07 -2.384186e-07 -1.710394e-07 1.658564e-07 -8.292820e-08 7.256217e-08 4.042750e-07 -1.243923e-07 -8.292820e-08 1.036602e-07 1.347583e-07 -9.847724e-08 7.555066e-01 2.408107e-01 -1.082143e-01 -2.384393e-01 3.321082e-01 1.039549e-01 1.886913e-01 -2.159826e-01 -2.153952e-01 8.153497e-02 3.042595e-01 2.522914e-01 -1.884145e-01 -2.640145e-03 2.717328e-02 4.442260e-02 3.267314e-02 6.828494e-02 -1.331154e-02 -1.138248e-01 1.295268e-01 -2.199412e-02 -2.015854e-02 4.095276e-02 -4.569766e-02 3.923453e-02 -4.564304e-04
<VARIANCE> 39
 3.139488e+01 3.594613e+01 3.291414e+01 5.727897e+01 4.800753e+01 4.690309e+01 1.931800e+01 3.420032e+01 3.327031e+01 3.333945e+01 2.719752e+01 2.589682e+01 3.047738e-02 2.202238e+00 2.848433e+00 2.280053e+00 2.197910e+00 2.806594e+00 6.656857e+00 3.054765e+00 2.921151e+00 2.567155e+00 2.525289e+00 2.603511e+00 3.499018e+00 1.499344e-03 4.392312e-01 3.771281e-01 3.434620e-01 2.372854e-01 3.141973e-01 1.099015e+00 5.923414e-01 6.436314e-01 3.998557e-01 5.250841e-01 4.063689e-01 8.127555e-01 1.789999e-04
<GCONST> 9.904884e+01
<STATE> 8
<MEAN> 39
 -1.710394e-07 -2.384186e-07 -1.710394e-07 1.658564e-07 -8.292820e-08 7.256217e-08 4.042750e-07 -1.243923e-07 -8.292820e-08 1.036602e-07 1.347583e-07 -9.847724e-08 7.555066e-01 2.408107e-01 -1.082143e-01 -2.384393e-01 3.321082e-01 1.039549e-01 1.886913e-01 -2.159826e-01 -2.153952e-01 8.153497e-02 3.042595e-01 2.522914e-01 -1.884145e-01 -2.640145e-03 2.717328e-02 4.442260e-02 3.267314e-02 6.828494e-02 -1.331154e-02 -1.138248e-01 1.295268e-01 -2.199412e-02 -2.015854e-02 4.095276e-02 -4.569766e-02 3.923453e-02 -4.564304e-04
<VARIANCE> 39
 3.139488e+01 3.594613e+01 3.291414e+01 5.727897e+01 4.800753e+01 4.690309e+01 1.931800e+01 3.420032e+01 3.327031e+01 3.333945e+01 2.719752e+01 2.589682e+01 3.047738e-02 2.202238e+00 2.848433e+00 2.280053e+00 2.197910e+00 2.806594e+00 6.656857e+00 3.054765e+00 2.921151e+00 2.567155e+00 2.525289e+00 2.603511e+00 3.499018e+00 1.499344e-03 4.392312e-01 3.771281e-01 3.434620e-01 2.372854e-01 3.141973e-01 1.099015e+00 5.923414e-01 6.436314e-01 3.998557e-01 5.250841e-01 4.063689e-01 8.127555e-01 1.789999e-04
<GCONST> 9.904884e+01
<STATE> 9
<MEAN> 39
 -1.710394e-07 -2.384186e-07 -1.710394e-07 1.658564e-07 -8.292820e-08 7.256217e-08 4.042750e-07 -1.243923e-07 -8.292820e-08 1.036602e-07 1.347583e-07 -9.847724e-08 7.555066e-01 2.408107e-01 -1.082143e-01 -2.384393e-01 3.321082e-01 1.039549e-01 1.886913e-01 -2.159826e-01 -2.153952e-01 8.153497e-02 3.042595e-01 2.522914e-01 -1.884145e-01 -2.640145e-03 2.717328e-02 4.442260e-02 3.267314e-02 6.828494e-02 -1.331154e-02 -1.138248e-01 1.295268e-01 -2.199412e-02 -2.015854e-02 4.095276e-02 -4.569766e-02 3.923453e-02 -4.564304e-04
<VARIANCE> 39
 3.139488e+01 3.594613e+01 3.291414e+01 5.727897e+01 4.800753e+01 4.690309e+01 1.931800e+01 3.420032e+01 3.327031e+01 3.333945e+01 2.719752e+01 2.589682e+01 3.047738e-02 2.202238e+00 2.848433e+00 2.280053e+00 2.197910e+00 2.806594e+00 6.656857e+00 3.054765e+00 2.921151e+00 2.567155e+00 2.525289e+00 2.603511e+00 3.499018e+00 1.499344e-03 4.392312e-01 3.771281e-01 3.434620e-01 2.372854e-01 3.141973e-01 1.099015e+00 5.923414e-01 6.436314e-01 3.998557e-01 5.250841e-01 4.063689e-01 8.127555e-01 1.789999e-04
<GCONST> 9.904884e+01
<TRANSP> 10
 0.000000e+00 1.000000e+00 0.000000e+00 0.000000e+00 0.000000e+00 0.000000e+00 0.000000e+00 0.000000e+00 0.000000e+00 0.000000e+00
 0.000000e+00 9.000000e-01 9.999999e-02 0.000000e+00 0.000000e+00 0.000000e+00 0.000000e+00 0.000000e+00 0.000000e+00 0.000000e+00
 0.000000e+00 0.000000e+00 9.000000e-01 9.999999e-02 0.000000e+00 0.000000e+00 0.000000e+00 0.000000e+00 0.000000e+00 0.000000e+00
 0.000000e+00 0.000000e+00 0.000000e+00 9.000000e-01 9.999999e-02 0.000000e+00 0.000000e+00 0.000000e+00 0.000000e+00 0.000000e+00
 0.000000e+00 0.000000e+00 0.000000e+00 0.000000e+00 9.000000e-01 9.999999e-02 0.000000e+00 0.000000e+00 0.000000e+00 0.000000e+00
 0.000000e+00 0.000000e+00 0.000000e+00 0.000000e+00 0.000000e+00 9.000000e-01 9.999999e-02 0.000000e+00 0.000000e+00 0.000000e+00
 0.000000e+00 0.000000e+00 0.000000e+00 0.000000e+00 0.000000e+00 0.000000e+00 9.000000e-01 9.999999e-02 0.000000e+00 0.000000e+00
 0.000000e+00 0.000000e+00 0.000000e+00 0.000000e+00 0.000000e+00 0.000000e+00 0.000000e+00 9.000000e-01 9.999999e-02 0.000000e+00
 0.000000e+00 0.000000e+00 0.000000e+00 0.000000e+00 0.000000e+00 0.000000e+00 0.000000e+00 0.000000e+00 9.000000e-01 9.999999e-02
 0.000000e+00 0.000000e+00 0.000000e+00 0.000000e+00 0.000000e+00 0.000000e+00 0.000000e+00 0.000000e+00 0.000000e+00 0.000000e+00
<ENDHMM>
