~o
<STREAMINFO> 1 39
<VECSIZE> 39<NULLD><MFCC_E_D_A_Z><DIAGC>
~h "s094"
<BEGINHMM>
<NUMSTATES> 10
<STATE> 2
<MEAN> 39
 1.676381e-07 -2.719462e-07 2.980232e-08 -4.433095e-07 -1.862645e-08 2.235174e-07 3.054738e-07 -1.825392e-07 6.929040e-07 4.284084e-08 -3.818423e-08 4.097819e-08 3.845992e-01 1.247610e-02 7.449203e-03 -1.951518e-02 1.843950e-02 1.608578e-02 1.434933e-02 8.611127e-02 1.730813e-02 5.558507e-03 1.457996e-02 -3.969647e-02 8.220252e-03 6.357479e-04 7.211107e-04 -1.259037e-02 -1.116572e-03 9.689447e-03 3.532416e-03 -1.345208e-02 -1.030376e-02 1.469714e-02 -1.070854e-03 -1.299419e-02 -1.452379e-02 -5.195207e-03 1.670437e-04
<VARIANCE> 39
 1.320831e+01 2.185301e+01 1.628968e+01 3.607184e+01 2.790293e+01 8.041819e+01 3.386258e+01 3.590660e+01 3.229516e+01 2.452990e+01 3.556915e+01 2.548520e+01 9.016944e-02 1.019773e+00 1.322715e+00 1.367985e+00 1.734965e+00 1.780258e+00 4.195092e+00 2.229161e+00 2.355364e+00 1.977122e+00 2.506969e+00 2.474991e+00 2.657425e+00 8.935282e-04 1.897660e-01 2.152506e-01 2.071798e-01 2.773103e-01 2.659318e-01 8.299065e-01 4.910995e-01 4.573782e-01 3.748147e-01 4.845947e-01 4.210473e-01 5.527852e-01 9.924984e-05
<GCONST> 8.947208e+01
<STATE> 3
<MEAN> 39
 1.676381e-07 -2.719462e-07 2.980232e-08 -4.433095e-07 -1.862645e-08 2.235174e-07 3.054738e-07 -1.825392e-07 6.929040e-07 4.284084e-08 -3.818423e-08 4.097819e-08 3.845992e-01 1.247610e-02 7.449203e-03 -1.951518e-02 1.843950e-02 1.608578e-02 1.434933e-02 8.611127e-02 1.730813e-02 5.558507e-03 1.457996e-02 -3.969647e-02 8.220252e-03 6.357479e-04 7.211107e-04 -1.259037e-02 -1.116572e-03 9.689447e-03 3.532416e-03 -1.345208e-02 -1.030376e-02 1.469714e-02 -1.070854e-03 -1.299419e-02 -1.452379e-02 -5.195207e-03 1.670437e-04
<VARIANCE> 39
 1.320831e+01 2.185301e+01 1.628968e+01 3.607184e+01 2.790293e+01 8.041819e+01 3.386258e+01 3.590660e+01 3.229516e+01 2.452990e+01 3.556915e+01 2.548520e+01 9.016944e-02 1.019773e+00 1.322715e+00 1.367985e+00 1.734965e+00 1.780258e+00 4.195092e+00 2.229161e+00 2.355364e+00 1.977122e+00 2.506969e+00 2.474991e+00 2.657425e+00 8.935282e-04 1.897660e-01 2.152506e-01 2.071798e-01 2.773103e-01 2.659318e-01 8.299065e-01 4.910995e-01 4.573782e-01 3.748147e-01 4.845947e-01 4.210473e-01 5.527852e-01 9.924984e-05
<GCONST> 8.947208e+01
<STATE> 4
<MEAN> 39
 1.676381e-07 -2.719462e-07 2.980232e-08 -4.433095e-07 -1.862645e-08 2.235174e-07 3.054738e-07 -1.825392e-07 6.929040e-07 4.284084e-08 -3.818423e-08 4.097819e-08 3.845992e-01 1.247610e-02 7.449203e-03 -1.951518e-02 1.843950e-02 1.608578e-02 1.434933e-02 8.611127e-02 1.730813e-02 5.558507e-03 1.457996e-02 -3.969647e-02 8.220252e-03 6.357479e-04 7.211107e-04 -1.259037e-02 -1.116572e-03 9.689447e-03 3.532416e-03 -1.345208e-02 -1.030376e-02 1.469714e-02 -1.070854e-03 -1.299419e-02 -1.452379e-02 -5.195207e-03 1.670437e-04
<VARIANCE> 39
 1.320831e+01 2.185301e+01 1.628968e+01 3.607184e+01 2.790293e+01 8.041819e+01 3.386258e+01 3.590660e+01 3.229516e+01 2.452990e+01 3.556915e+01 2.548520e+01 9.016944e-02 1.019773e+00 1.322715e+00 1.367985e+00 1.734965e+00 1.780258e+00 4.195092e+00 2.229161e+00 2.355364e+00 1.977122e+00 2.506969e+00 2.474991e+00 2.657425e+00 8.935282e-04 1.897660e-01 2.152506e-01 2.071798e-01 2.773103e-01 2.659318e-01 8.299065e-01 4.910995e-01 4.573782e-01 3.748147e-01 4.845947e-01 4.210473e-01 5.527852e-01 9.924984e-05
<GCONST> 8.947208e+01
<STATE> 5
<MEAN> 39
 1.676381e-07 -2.719462e-07 2.980232e-08 -4.433095e-07 -1.862645e-08 2.235174e-07 3.054738e-07 -1.825392e-07 6.929040e-07 4.284084e-08 -3.818423e-08 4.097819e-08 3.845992e-01 1.247610e-02 7.449203e-03 -1.951518e-02 1.843950e-02 1.608578e-02 1.434933e-02 8.611127e-02 1.730813e-02 5.558507e-03 1.457996e-02 -3.969647e-02 8.220252e-03 6.357479e-04 7.211107e-04 -1.259037e-02 -1.116572e-03 9.689447e-03 3.532416e-03 -1.345208e-02 -1.030376e-02 1.469714e-02 -1.070854e-03 -1.299419e-02 -1.452379e-02 -5.195207e-03 1.670437e-04
<VARIANCE> 39
 1.320831e+01 2.185301e+01 1.628968e+01 3.607184e+01 2.790293e+01 8.041819e+01 3.386258e+01 3.590660e+01 3.229516e+01 2.452990e+01 3.556915e+01 2.548520e+01 9.016944e-02 1.019773e+00 1.322715e+00 1.367985e+00 1.734965e+00 1.780258e+00 4.195092e+00 2.229161e+00 2.355364e+00 1.977122e+00 2.506969e+00 2.474991e+00 2.657425e+00 8.935282e-04 1.897660e-01 2.152506e-01 2.071798e-01 2.773103e-01 2.659318e-01 8.299065e-01 4.910995e-01 4.573782e-01 3.748147e-01 4.845947e-01 4.210473e-01 5.527852e-01 9.924984e-05
<GCONST> 8.947208e+01
<STATE> 6
<MEAN> 39
 1.676381e-07 -2.719462e-07 2.980232e-08 -4.433095e-07 -1.862645e-08 2.235174e-07 3.054738e-07 -1.825392e-07 6.929040e-07 4.284084e-08 -3.818423e-08 4.097819e-08 3.845992e-01 1.247610e-02 7.449203e-03 -1.951518e-02 1.843950e-02 1.608578e-02 1.434933e-02 8.611127e-02 1.730813e-02 5.558507e-03 1.457996e-02 -3.969647e-02 8.220252e-03 6.357479e-04 7.211107e-04 -1.259037e-02 -1.116572e-03 9.689447e-03 3.532416e-03 -1.345208e-02 -1.030376e-02 1.469714e-02 -1.070854e-03 -1.299419e-02 -1.452379e-02 -5.195207e-03 1.670437e-04
<VARIANCE> 39
 1.320831e+01 2.185301e+01 1.628968e+01 3.607184e+01 2.790293e+01 8.041819e+01 3.386258e+01 3.590660e+01 3.229516e+01 2.452990e+01 3.556915e+01 2.548520e+01 9.016944e-02 1.019773e+00 1.322715e+00 1.367985e+00 1.734965e+00 1.780258e+00 4.195092e+00 2.229161e+00 2.355364e+00 1.977122e+00 2.506969e+00 2.474991e+00 2.657425e+00 8.935282e-04 1.897660e-01 2.152506e-01 2.071798e-01 2.773103e-01 2.659318e-01 8.299065e-01 4.910995e-01 4.573782e-01 3.748147e-01 4.845947e-01 4.210473e-01 5.527852e-01 9.924984e-05
<GCONST> 8.947208e+01
<STATE> 7
<MEAN> 39
 1.676381e-07 -2.719462e-07 2.980232e-08 -4.433095e-07 -1.862645e-08 2.235174e-07 3.054738e-07 -1.825392e-07 6.929040e-07 4.284084e-08 -3.818423e-08 4.097819e-08 3.845992e-01 1.247610e-02 7.449203e-03 -1.951518e-02 1.843950e-02 1.608578e-02 1.434933e-02 8.611127e-02 1.730813e-02 5.558507e-03 1.457996e-02 -3.969647e-02 8.220252e-03 6.357479e-04 7.211107e-04 -1.259037e-02 -1.116572e-03 9.689447e-03 3.532416e-03 -1.345208e-02 -1.030376e-02 1.469714e-02 -1.070854e-03 -1.299419e-02 -1.452379e-02 -5.195207e-03 1.670437e-04
<VARIANCE> 39
 1.320831e+01 2.185301e+01 1.628968e+01 3.607184e+01 2.790293e+01 8.041819e+01 3.386258e+01 3.590660e+01 3.229516e+01 2.452990e+01 3.556915e+01 2.548520e+01 9.016944e-02 1.019773e+00 1.322715e+00 1.367985e+00 1.734965e+00 1.780258e+00 4.195092e+00 2.229161e+00 2.355364e+00 1.977122e+00 2.506969e+00 2.474991e+00 2.657425e+00 8.935282e-04 1.897660e-01 2.152506e-01 2.071798e-01 2.773103e-01 2.659318e-01 8.299065e-01 4.910995e-01 4.573782e-01 3.748147e-01 4.845947e-01 4.210473e-01 5.527852e-01 9.924984e-05
<GCONST> 8.947208e+01
<STATE> 8
<MEAN> 39
 1.676381e-07 -2.719462e-07 2.980232e-08 -4.433095e-07 -1.862645e-08 2.235174e-07 3.054738e-07 -1.825392e-07 6.929040e-07 4.284084e-08 -3.818423e-08 4.097819e-08 3.845992e-01 1.247610e-02 7.449203e-03 -1.951518e-02 1.843950e-02 1.608578e-02 1.434933e-02 8.611127e-02 1.730813e-02 5.558507e-03 1.457996e-02 -3.969647e-02 8.220252e-03 6.357479e-04 7.211107e-04 -1.259037e-02 -1.116572e-03 9.689447e-03 3.532416e-03 -1.345208e-02 -1.030376e-02 1.469714e-02 -1.070854e-03 -1.299419e-02 -1.452379e-02 -5.195207e-03 1.670437e-04
<VARIANCE> 39
 1.320831e+01 2.185301e+01 1.628968e+01 3.607184e+01 2.790293e+01 8.041819e+01 3.386258e+01 3.590660e+01 3.229516e+01 2.452990e+01 3.556915e+01 2.548520e+01 9.016944e-02 1.019773e+00 1.322715e+00 1.367985e+00 1.734965e+00 1.780258e+00 4.195092e+00 2.229161e+00 2.355364e+00 1.977122e+00 2.506969e+00 2.474991e+00 2.657425e+00 8.935282e-04 1.897660e-01 2.152506e-01 2.071798e-01 2.773103e-01 2.659318e-01 8.299065e-01 4.910995e-01 4.573782e-01 3.748147e-01 4.845947e-01 4.210473e-01 5.527852e-01 9.924984e-05
<GCONST> 8.947208e+01
<STATE> 9
<MEAN> 39
 1.676381e-07 -2.719462e-07 2.980232e-08 -4.433095e-07 -1.862645e-08 2.235174e-07 3.054738e-07 -1.825392e-07 6.929040e-07 4.284084e-08 -3.818423e-08 4.097819e-08 3.845992e-01 1.247610e-02 7.449203e-03 -1.951518e-02 1.843950e-02 1.608578e-02 1.434933e-02 8.611127e-02 1.730813e-02 5.558507e-03 1.457996e-02 -3.969647e-02 8.220252e-03 6.357479e-04 7.211107e-04 -1.259037e-02 -1.116572e-03 9.689447e-03 3.532416e-03 -1.345208e-02 -1.030376e-02 1.469714e-02 -1.070854e-03 -1.299419e-02 -1.452379e-02 -5.195207e-03 1.670437e-04
<VARIANCE> 39
 1.320831e+01 2.185301e+01 1.628968e+01 3.607184e+01 2.790293e+01 8.041819e+01 3.386258e+01 3.590660e+01 3.229516e+01 2.452990e+01 3.556915e+01 2.548520e+01 9.016944e-02 1.019773e+00 1.322715e+00 1.367985e+00 1.734965e+00 1.780258e+00 4.195092e+00 2.229161e+00 2.355364e+00 1.977122e+00 2.506969e+00 2.474991e+00 2.657425e+00 8.935282e-04 1.897660e-01 2.152506e-01 2.071798e-01 2.773103e-01 2.659318e-01 8.299065e-01 4.910995e-01 4.573782e-01 3.748147e-01 4.845947e-01 4.210473e-01 5.527852e-01 9.924984e-05
<GCONST> 8.947208e+01
<TRANSP> 10
 0.000000e+00 1.000000e+00 0.000000e+00 0.000000e+00 0.000000e+00 0.000000e+00 0.000000e+00 0.000000e+00 0.000000e+00 0.000000e+00
 0.000000e+00 9.000000e-01 9.999999e-02 0.000000e+00 0.000000e+00 0.000000e+00 0.000000e+00 0.000000e+00 0.000000e+00 0.000000e+00
 0.000000e+00 0.000000e+00 9.000000e-01 9.999999e-02 0.000000e+00 0.000000e+00 0.000000e+00 0.000000e+00 0.000000e+00 0.000000e+00
 0.000000e+00 0.000000e+00 0.000000e+00 9.000000e-01 9.999999e-02 0.000000e+00 0.000000e+00 0.000000e+00 0.000000e+00 0.000000e+00
 0.000000e+00 0.000000e+00 0.000000e+00 0.000000e+00 9.000000e-01 9.999999e-02 0.000000e+00 0.000000e+00 0.000000e+00 0.000000e+00
 0.000000e+00 0.000000e+00 0.000000e+00 0.000000e+00 0.000000e+00 9.000000e-01 9.999999e-02 0.000000e+00 0.000000e+00 0.000000e+00
 0.000000e+00 0.000000e+00 0.000000e+00 0.000000e+00 0.000000e+00 0.000000e+00 9.000000e-01 9.999999e-02 0.000000e+00 0.000000e+00
 0.000000e+00 0.000000e+00 0.000000e+00 0.000000e+00 0.000000e+00 0.000000e+00 0.000000e+00 9.000000e-01 9.999999e-02 0.000000e+00
 0.000000e+00 0.000000e+00 0.000000e+00 0.000000e+00 0.000000e+00 0.000000e+00 0.000000e+00 0.000000e+00 9.000000e-01 9.999999e-02
 0.000000e+00 0.000000e+00 0.000000e+00 0.000000e+00 0.000000e+00 0.000000e+00 0.000000e+00 0.000000e+00 0.000000e+00 0.000000e+00
<ENDHMM>
