~o
<STREAMINFO> 1 39
<VECSIZE> 39<NULLD><MFCC_E_D_A_Z><DIAGC>
~h "s095"
<BEGINHMM>
<NUMSTATES> 10
<STATE> 2
<MEAN> 39
 2.468731e-07 3.381824e-07 -1.082184e-07 -2.637823e-07 -4.396371e-08 -4.802190e-07 1.521821e-08 -3.178914e-07 1.674003e-07 5.410918e-08 -5.749100e-08 -8.116377e-08 3.871861e-01 7.225862e-03 -9.821076e-03 1.902645e-02 1.431858e-02 -3.140811e-02 4.815058e-02 -1.959778e-02 7.447991e-02 2.724268e-02 8.435836e-02 6.696133e-02 1.079199e-02 1.239002e-06 2.887491e-03 -9.885918e-03 9.707244e-03 1.716369e-02 -2.576050e-03 -4.207539e-03 7.694566e-03 -1.553841e-02 -8.256170e-03 6.965905e-03 -2.253754e-02 -1.902991e-02 -3.130078e-05
<VARIANCE> 39
 1.569926e+01 3.413452e+01 3.378340e+01 3.470704e+01 2.901796e+01 1.175791e+02 5.382952e+01 3.743125e+01 3.813989e+01 4.730440e+01 4.549226e+01 3.168940e+01 1.096118e-01 1.194460e+00 1.295234e+00 2.262375e+00 1.810787e+00 2.980448e+00 4.198128e+00 4.367943e+00 4.233550e+00 2.976728e+00 4.554267e+00 3.510919e+00 2.878337e+00 1.979440e-03 2.399175e-01 1.843685e-01 3.603034e-01 2.904818e-01 5.072377e-01 6.286964e-01 8.330421e-01 8.215941e-01 5.694948e-01 8.949453e-01 6.548896e-01 5.559688e-01 2.180616e-04
<GCONST> 1.023052e+02
<STATE> 3
<MEAN> 39
 2.468731e-07 3.381824e-07 -1.082184e-07 -2.637823e-07 -4.396371e-08 -4.802190e-07 1.521821e-08 -3.178914e-07 1.674003e-07 5.410918e-08 -5.749100e-08 -8.116377e-08 3.871861e-01 7.225862e-03 -9.821076e-03 1.902645e-02 1.431858e-02 -3.140811e-02 4.815058e-02 -1.959778e-02 7.447991e-02 2.724268e-02 8.435836e-02 6.696133e-02 1.079199e-02 1.239002e-06 2.887491e-03 -9.885918e-03 9.707244e-03 1.716369e-02 -2.576050e-03 -4.207539e-03 7.694566e-03 -1.553841e-02 -8.256170e-03 6.965905e-03 -2.253754e-02 -1.902991e-02 -3.130078e-05
<VARIANCE> 39
 1.569926e+01 3.413452e+01 3.378340e+01 3.470704e+01 2.901796e+01 1.175791e+02 5.382952e+01 3.743125e+01 3.813989e+01 4.730440e+01 4.549226e+01 3.168940e+01 1.096118e-01 1.194460e+00 1.295234e+00 2.262375e+00 1.810787e+00 2.980448e+00 4.198128e+00 4.367943e+00 4.233550e+00 2.976728e+00 4.554267e+00 3.510919e+00 2.878337e+00 1.979440e-03 2.399175e-01 1.843685e-01 3.603034e-01 2.904818e-01 5.072377e-01 6.286964e-01 8.330421e-01 8.215941e-01 5.694948e-01 8.949453e-01 6.548896e-01 5.559688e-01 2.180616e-04
<GCONST> 1.023052e+02
<STATE> 4
<MEAN> 39
 2.468731e-07 3.381824e-07 -1.082184e-07 -2.637823e-07 -4.396371e-08 -4.802190e-07 1.521821e-08 -3.178914e-07 1.674003e-07 5.410918e-08 -5.749100e-08 -8.116377e-08 3.871861e-01 7.225862e-03 -9.821076e-03 1.902645e-02 1.431858e-02 -3.140811e-02 4.815058e-02 -1.959778e-02 7.447991e-02 2.724268e-02 8.435836e-02 6.696133e-02 1.079199e-02 1.239002e-06 2.887491e-03 -9.885918e-03 9.707244e-03 1.716369e-02 -2.576050e-03 -4.207539e-03 7.694566e-03 -1.553841e-02 -8.256170e-03 6.965905e-03 -2.253754e-02 -1.902991e-02 -3.130078e-05
<VARIANCE> 39
 1.569926e+01 3.413452e+01 3.378340e+01 3.470704e+01 2.901796e+01 1.175791e+02 5.382952e+01 3.743125e+01 3.813989e+01 4.730440e+01 4.549226e+01 3.168940e+01 1.096118e-01 1.194460e+00 1.295234e+00 2.262375e+00 1.810787e+00 2.980448e+00 4.198128e+00 4.367943e+00 4.233550e+00 2.976728e+00 4.554267e+00 3.510919e+00 2.878337e+00 1.979440e-03 2.399175e-01 1.843685e-01 3.603034e-01 2.904818e-01 5.072377e-01 6.286964e-01 8.330421e-01 8.215941e-01 5.694948e-01 8.949453e-01 6.548896e-01 5.559688e-01 2.180616e-04
<GCONST> 1.023052e+02
<STATE> 5
<MEAN> 39
 2.468731e-07 3.381824e-07 -1.082184e-07 -2.637823e-07 -4.396371e-08 -4.802190e-07 1.521821e-08 -3.178914e-07 1.674003e-07 5.410918e-08 -5.749100e-08 -8.116377e-08 3.871861e-01 7.225862e-03 -9.821076e-03 1.902645e-02 1.431858e-02 -3.140811e-02 4.815058e-02 -1.959778e-02 7.447991e-02 2.724268e-02 8.435836e-02 6.696133e-02 1.079199e-02 1.239002e-06 2.887491e-03 -9.885918e-03 9.707244e-03 1.716369e-02 -2.576050e-03 -4.207539e-03 7.694566e-03 -1.553841e-02 -8.256170e-03 6.965905e-03 -2.253754e-02 -1.902991e-02 -3.130078e-05
<VARIANCE> 39
 1.569926e+01 3.413452e+01 3.378340e+01 3.470704e+01 2.901796e+01 1.175791e+02 5.382952e+01 3.743125e+01 3.813989e+01 4.730440e+01 4.549226e+01 3.168940e+01 1.096118e-01 1.194460e+00 1.295234e+00 2.262375e+00 1.810787e+00 2.980448e+00 4.198128e+00 4.367943e+00 4.233550e+00 2.976728e+00 4.554267e+00 3.510919e+00 2.878337e+00 1.979440e-03 2.399175e-01 1.843685e-01 3.603034e-01 2.904818e-01 5.072377e-01 6.286964e-01 8.330421e-01 8.215941e-01 5.694948e-01 8.949453e-01 6.548896e-01 5.559688e-01 2.180616e-04
<GCONST> 1.023052e+02
<STATE> 6
<MEAN> 39
 2.468731e-07 3.381824e-07 -1.082184e-07 -2.637823e-07 -4.396371e-08 -4.802190e-07 1.521821e-08 -3.178914e-07 1.674003e-07 5.410918e-08 -5.749100e-08 -8.116377e-08 3.871861e-01 7.225862e-03 -9.821076e-03 1.902645e-02 1.431858e-02 -3.140811e-02 4.815058e-02 -1.959778e-02 7.447991e-02 2.724268e-02 8.435836e-02 6.696133e-02 1.079199e-02 1.239002e-06 2.887491e-03 -9.885918e-03 9.707244e-03 1.716369e-02 -2.576050e-03 -4.207539e-03 7.694566e-03 -1.553841e-02 -8.256170e-03 6.965905e-03 -2.253754e-02 -1.902991e-02 -3.130078e-05
<VARIANCE> 39
 1.569926e+01 3.413452e+01 3.378340e+01 3.470704e+01 2.901796e+01 1.175791e+02 5.382952e+01 3.743125e+01 3.813989e+01 4.730440e+01 4.549226e+01 3.168940e+01 1.096118e-01 1.194460e+00 1.295234e+00 2.262375e+00 1.810787e+00 2.980448e+00 4.198128e+00 4.367943e+00 4.233550e+00 2.976728e+00 4.554267e+00 3.510919e+00 2.878337e+00 1.979440e-03 2.399175e-01 1.843685e-01 3.603034e-01 2.904818e-01 5.072377e-01 6.286964e-01 8.330421e-01 8.215941e-01 5.694948e-01 8.949453e-01 6.548896e-01 5.559688e-01 2.180616e-04
<GCONST> 1.023052e+02
<STATE> 7
<MEAN> 39
 2.468731e-07 3.381824e-07 -1.082184e-07 -2.637823e-07 -4.396371e-08 -4.802190e-07 1.521821e-08 -3.178914e-07 1.674003e-07 5.410918e-08 -5.749100e-08 -8.116377e-08 3.871861e-01 7.225862e-03 -9.821076e-03 1.902645e-02 1.431858e-02 -3.140811e-02 4.815058e-02 -1.959778e-02 7.447991e-02 2.724268e-02 8.435836e-02 6.696133e-02 1.079199e-02 1.239002e-06 2.887491e-03 -9.885918e-03 9.707244e-03 1.716369e-02 -2.576050e-03 -4.207539e-03 7.694566e-03 -1.553841e-02 -8.256170e-03 6.965905e-03 -2.253754e-02 -1.902991e-02 -3.130078e-05
<VARIANCE> 39
 1.569926e+01 3.413452e+01 3.378340e+01 3.470704e+01 2.901796e+01 1.175791e+02 5.382952e+01 3.743125e+01 3.813989e+01 4.730440e+01 4.549226e+01 3.168940e+01 1.096118e-01 1.194460e+00 1.295234e+00 2.262375e+00 1.810787e+00 2.980448e+00 4.198128e+00 4.367943e+00 4.233550e+00 2.976728e+00 4.554267e+00 3.510919e+00 2.878337e+00 1.979440e-03 2.399175e-01 1.843685e-01 3.603034e-01 2.904818e-01 5.072377e-01 6.286964e-01 8.330421e-01 8.215941e-01 5.694948e-01 8.949453e-01 6.548896e-01 5.559688e-01 2.180616e-04
<GCONST> 1.023052e+02
<STATE> 8
<MEAN> 39
 2.468731e-07 3.381824e-07 -1.082184e-07 -2.637823e-07 -4.396371e-08 -4.802190e-07 1.521821e-08 -3.178914e-07 1.674003e-07 5.410918e-08 -5.749100e-08 -8.116377e-08 3.871861e-01 7.225862e-03 -9.821076e-03 1.902645e-02 1.431858e-02 -3.140811e-02 4.815058e-02 -1.959778e-02 7.447991e-02 2.724268e-02 8.435836e-02 6.696133e-02 1.079199e-02 1.239002e-06 2.887491e-03 -9.885918e-03 9.707244e-03 1.716369e-02 -2.576050e-03 -4.207539e-03 7.694566e-03 -1.553841e-02 -8.256170e-03 6.965905e-03 -2.253754e-02 -1.902991e-02 -3.130078e-05
<VARIANCE> 39
 1.569926e+01 3.413452e+01 3.378340e+01 3.470704e+01 2.901796e+01 1.175791e+02 5.382952e+01 3.743125e+01 3.813989e+01 4.730440e+01 4.549226e+01 3.168940e+01 1.096118e-01 1.194460e+00 1.295234e+00 2.262375e+00 1.810787e+00 2.980448e+00 4.198128e+00 4.367943e+00 4.233550e+00 2.976728e+00 4.554267e+00 3.510919e+00 2.878337e+00 1.979440e-03 2.399175e-01 1.843685e-01 3.603034e-01 2.904818e-01 5.072377e-01 6.286964e-01 8.330421e-01 8.215941e-01 5.694948e-01 8.949453e-01 6.548896e-01 5.559688e-01 2.180616e-04
<GCONST> 1.023052e+02
<STATE> 9
<MEAN> 39
 2.468731e-07 3.381824e-07 -1.082184e-07 -2.637823e-07 -4.396371e-08 -4.802190e-07 1.521821e-08 -3.178914e-07 1.674003e-07 5.410918e-08 -5.749100e-08 -8.116377e-08 3.871861e-01 7.225862e-03 -9.821076e-03 1.902645e-02 1.431858e-02 -3.140811e-02 4.815058e-02 -1.959778e-02 7.447991e-02 2.724268e-02 8.435836e-02 6.696133e-02 1.079199e-02 1.239002e-06 2.887491e-03 -9.885918e-03 9.707244e-03 1.716369e-02 -2.576050e-03 -4.207539e-03 7.694566e-03 -1.553841e-02 -8.256170e-03 6.965905e-03 -2.253754e-02 -1.902991e-02 -3.130078e-05
<VARIANCE> 39
 1.569926e+01 3.413452e+01 3.378340e+01 3.470704e+01 2.901796e+01 1.175791e+02 5.382952e+01 3.743125e+01 3.813989e+01 4.730440e+01 4.549226e+01 3.168940e+01 1.096118e-01 1.194460e+00 1.295234e+00 2.262375e+00 1.810787e+00 2.980448e+00 4.198128e+00 4.367943e+00 4.233550e+00 2.976728e+00 4.554267e+00 3.510919e+00 2.878337e+00 1.979440e-03 2.399175e-01 1.843685e-01 3.603034e-01 2.904818e-01 5.072377e-01 6.286964e-01 8.330421e-01 8.215941e-01 5.694948e-01 8.949453e-01 6.548896e-01 5.559688e-01 2.180616e-04
<GCONST> 1.023052e+02
<TRANSP> 10
 0.000000e+00 1.000000e+00 0.000000e+00 0.000000e+00 0.000000e+00 0.000000e+00 0.000000e+00 0.000000e+00 0.000000e+00 0.000000e+00
 0.000000e+00 9.000000e-01 9.999999e-02 0.000000e+00 0.000000e+00 0.000000e+00 0.000000e+00 0.000000e+00 0.000000e+00 0.000000e+00
 0.000000e+00 0.000000e+00 9.000000e-01 9.999999e-02 0.000000e+00 0.000000e+00 0.000000e+00 0.000000e+00 0.000000e+00 0.000000e+00
 0.000000e+00 0.000000e+00 0.000000e+00 9.000000e-01 9.999999e-02 0.000000e+00 0.000000e+00 0.000000e+00 0.000000e+00 0.000000e+00
 0.000000e+00 0.000000e+00 0.000000e+00 0.000000e+00 9.000000e-01 9.999999e-02 0.000000e+00 0.000000e+00 0.000000e+00 0.000000e+00
 0.000000e+00 0.000000e+00 0.000000e+00 0.000000e+00 0.000000e+00 9.000000e-01 9.999999e-02 0.000000e+00 0.000000e+00 0.000000e+00
 0.000000e+00 0.000000e+00 0.000000e+00 0.000000e+00 0.000000e+00 0.000000e+00 9.000000e-01 9.999999e-02 0.000000e+00 0.000000e+00
 0.000000e+00 0.000000e+00 0.000000e+00 0.000000e+00 0.000000e+00 0.000000e+00 0.000000e+00 9.000000e-01 9.999999e-02 0.000000e+00
 0.000000e+00 0.000000e+00 0.000000e+00 0.000000e+00 0.000000e+00 0.000000e+00 0.000000e+00 0.000000e+00 9.000000e-01 9.999999e-02
 0.000000e+00 0.000000e+00 0.000000e+00 0.000000e+00 0.000000e+00 0.000000e+00 0.000000e+00 0.000000e+00 0.000000e+00 0.000000e+00
<ENDHMM>
