~o
<STREAMINFO> 1 39
<VECSIZE> 39<NULLD><MFCC_E_D_A_Z><DIAGC>
~h "s097"
<BEGINHMM>
<NUMSTATES> 10
<STATE> 2
<MEAN> 39
 -6.102182e-07 2.801002e-07 2.417531e-08 1.100393e-07 -2.250805e-07 -6.402289e-07 6.669051e-09 -6.335598e-08 1.000358e-08 2.700966e-07 -4.518282e-07 4.251520e-07 5.378323e-01 -1.154107e-02 -3.023687e-02 1.113549e-02 -2.806760e-03 1.904090e-02 6.364554e-03 -8.823230e-03 -2.213889e-03 3.312470e-02 -3.356646e-02 -8.714494e-03 -6.690061e-03 -2.045292e-04 2.002929e-03 -4.274605e-03 -1.287930e-02 2.793538e-03 -2.013826e-03 -3.334927e-03 6.114620e-03 -4.406652e-03 8.390827e-03 -1.537168e-02 -1.763528e-02 1.249104e-02 -2.140884e-05
<VARIANCE> 39
 2.248925e+01 4.536725e+01 5.638883e+01 8.419173e+01 4.810266e+01 1.355932e+02 4.111533e+01 3.742080e+01 2.593621e+01 5.324357e+01 3.451196e+01 4.238582e+01 1.051864e-01 1.507351e+00 2.711484e+00 1.808454e+00 2.892095e+00 3.693090e+00 3.300175e+00 3.405006e+00 3.488162e+00 3.347873e+00 3.572467e+00 3.311087e+00 2.532052e+00 1.248955e-03 2.726829e-01 3.715056e-01 2.253923e-01 3.619271e-01 7.098774e-01 5.715331e-01 6.851639e-01 6.884013e-01 7.239568e-01 6.878671e-01 6.587040e-01 4.485994e-01 1.236510e-04
<GCONST> 1.040546e+02
<STATE> 3
<MEAN> 39
 -6.102182e-07 2.801002e-07 2.417531e-08 1.100393e-07 -2.250805e-07 -6.402289e-07 6.669051e-09 -6.335598e-08 1.000358e-08 2.700966e-07 -4.518282e-07 4.251520e-07 5.378323e-01 -1.154107e-02 -3.023687e-02 1.113549e-02 -2.806760e-03 1.904090e-02 6.364554e-03 -8.823230e-03 -2.213889e-03 3.312470e-02 -3.356646e-02 -8.714494e-03 -6.690061e-03 -2.045292e-04 2.002929e-03 -4.274605e-03 -1.287930e-02 2.793538e-03 -2.013826e-03 -3.334927e-03 6.114620e-03 -4.406652e-03 8.390827e-03 -1.537168e-02 -1.763528e-02 1.249104e-02 -2.140884e-05
<VARIANCE> 39
 2.248925e+01 4.536725e+01 5.638883e+01 8.419173e+01 4.810266e+01 1.355932e+02 4.111533e+01 3.742080e+01 2.593621e+01 5.324357e+01 3.451196e+01 4.238582e+01 1.051864e-01 1.507351e+00 2.711484e+00 1.808454e+00 2.892095e+00 3.693090e+00 3.300175e+00 3.405006e+00 3.488162e+00 3.347873e+00 3.572467e+00 3.311087e+00 2.532052e+00 1.248955e-03 2.726829e-01 3.715056e-01 2.253923e-01 3.619271e-01 7.098774e-01 5.715331e-01 6.851639e-01 6.884013e-01 7.239568e-01 6.878671e-01 6.587040e-01 4.485994e-01 1.236510e-04
<GCONST> 1.040546e+02
<STATE> 4
<MEAN> 39
 -6.102182e-07 2.801002e-07 2.417531e-08 1.100393e-07 -2.250805e-07 -6.402289e-07 6.669051e-09 -6.335598e-08 1.000358e-08 2.700966e-07 -4.518282e-07 4.251520e-07 5.378323e-01 -1.154107e-02 -3.023687e-02 1.113549e-02 -2.806760e-03 1.904090e-02 6.364554e-03 -8.823230e-03 -2.213889e-03 3.312470e-02 -3.356646e-02 -8.714494e-03 -6.690061e-03 -2.045292e-04 2.002929e-03 -4.274605e-03 -1.287930e-02 2.793538e-03 -2.013826e-03 -3.334927e-03 6.114620e-03 -4.406652e-03 8.390827e-03 -1.537168e-02 -1.763528e-02 1.249104e-02 -2.140884e-05
<VARIANCE> 39
 2.248925e+01 4.536725e+01 5.638883e+01 8.419173e+01 4.810266e+01 1.355932e+02 4.111533e+01 3.742080e+01 2.593621e+01 5.324357e+01 3.451196e+01 4.238582e+01 1.051864e-01 1.507351e+00 2.711484e+00 1.808454e+00 2.892095e+00 3.693090e+00 3.300175e+00 3.405006e+00 3.488162e+00 3.347873e+00 3.572467e+00 3.311087e+00 2.532052e+00 1.248955e-03 2.726829e-01 3.715056e-01 2.253923e-01 3.619271e-01 7.098774e-01 5.715331e-01 6.851639e-01 6.884013e-01 7.239568e-01 6.878671e-01 6.587040e-01 4.485994e-01 1.236510e-04
<GCONST> 1.040546e+02
<STATE> 5
<MEAN> 39
 -6.102182e-07 2.801002e-07 2.417531e-08 1.100393e-07 -2.250805e-07 -6.402289e-07 6.669051e-09 -6.335598e-08 1.000358e-08 2.700966e-07 -4.518282e-07 4.251520e-07 5.378323e-01 -1.154107e-02 -3.023687e-02 1.113549e-02 -2.806760e-03 1.904090e-02 6.364554e-03 -8.823230e-03 -2.213889e-03 3.312470e-02 -3.356646e-02 -8.714494e-03 -6.690061e-03 -2.045292e-04 2.002929e-03 -4.274605e-03 -1.287930e-02 2.793538e-03 -2.013826e-03 -3.334927e-03 6.114620e-03 -4.406652e-03 8.390827e-03 -1.537168e-02 -1.763528e-02 1.249104e-02 -2.140884e-05
<VARIANCE> 39
 2.248925e+01 4.536725e+01 5.638883e+01 8.419173e+01 4.810266e+01 1.355932e+02 4.111533e+01 3.742080e+01 2.593621e+01 5.324357e+01 3.451196e+01 4.238582e+01 1.051864e-01 1.507351e+00 2.711484e+00 1.808454e+00 2.892095e+00 3.693090e+00 3.300175e+00 3.405006e+00 3.488162e+00 3.347873e+00 3.572467e+00 3.311087e+00 2.532052e+00 1.248955e-03 2.726829e-01 3.715056e-01 2.253923e-01 3.619271e-01 7.098774e-01 5.715331e-01 6.851639e-01 6.884013e-01 7.239568e-01 6.878671e-01 6.587040e-01 4.485994e-01 1.236510e-04
<GCONST> 1.040546e+02
<STATE> 6
<MEAN> 39
 -6.102182e-07 2.801002e-07 2.417531e-08 1.100393e-07 -2.250805e-07 -6.402289e-07 6.669051e-09 -6.335598e-08 1.000358e-08 2.700966e-07 -4.518282e-07 4.251520e-07 5.378323e-01 -1.154107e-02 -3.023687e-02 1.113549e-02 -2.806760e-03 1.904090e-02 6.364554e-03 -8.823230e-03 -2.213889e-03 3.312470e-02 -3.356646e-02 -8.714494e-03 -6.690061e-03 -2.045292e-04 2.002929e-03 -4.274605e-03 -1.287930e-02 2.793538e-03 -2.013826e-03 -3.334927e-03 6.114620e-03 -4.406652e-03 8.390827e-03 -1.537168e-02 -1.763528e-02 1.249104e-02 -2.140884e-05
<VARIANCE> 39
 2.248925e+01 4.536725e+01 5.638883e+01 8.419173e+01 4.810266e+01 1.355932e+02 4.111533e+01 3.742080e+01 2.593621e+01 5.324357e+01 3.451196e+01 4.238582e+01 1.051864e-01 1.507351e+00 2.711484e+00 1.808454e+00 2.892095e+00 3.693090e+00 3.300175e+00 3.405006e+00 3.488162e+00 3.347873e+00 3.572467e+00 3.311087e+00 2.532052e+00 1.248955e-03 2.726829e-01 3.715056e-01 2.253923e-01 3.619271e-01 7.098774e-01 5.715331e-01 6.851639e-01 6.884013e-01 7.239568e-01 6.878671e-01 6.587040e-01 4.485994e-01 1.236510e-04
<GCONST> 1.040546e+02
<STATE> 7
<MEAN> 39
 -6.102182e-07 2.801002e-07 2.417531e-08 1.100393e-07 -2.250805e-07 -6.402289e-07 6.669051e-09 -6.335598e-08 1.000358e-08 2.700966e-07 -4.518282e-07 4.251520e-07 5.378323e-01 -1.154107e-02 -3.023687e-02 1.113549e-02 -2.806760e-03 1.904090e-02 6.364554e-03 -8.823230e-03 -2.213889e-03 3.312470e-02 -3.356646e-02 -8.714494e-03 -6.690061e-03 -2.045292e-04 2.002929e-03 -4.274605e-03 -1.287930e-02 2.793538e-03 -2.013826e-03 -3.334927e-03 6.114620e-03 -4.406652e-03 8.390827e-03 -1.537168e-02 -1.763528e-02 1.249104e-02 -2.140884e-05
<VARIANCE> 39
 2.248925e+01 4.536725e+01 5.638883e+01 8.419173e+01 4.810266e+01 1.355932e+02 4.111533e+01 3.742080e+01 2.593621e+01 5.324357e+01 3.451196e+01 4.238582e+01 1.051864e-01 1.507351e+00 2.711484e+00 1.808454e+00 2.892095e+00 3.693090e+00 3.300175e+00 3.405006e+00 3.488162e+00 3.347873e+00 3.572467e+00 3.311087e+00 2.532052e+00 1.248955e-03 2.726829e-01 3.715056e-01 2.253923e-01 3.619271e-01 7.098774e-01 5.715331e-01 6.851639e-01 6.884013e-01 7.239568e-01 6.878671e-01 6.587040e-01 4.485994e-01 1.236510e-04
<GCONST> 1.040546e+02
<STATE> 8
<MEAN> 39
 -6.102182e-07 2.801002e-07 2.417531e-08 1.100393e-07 -2.250805e-07 -6.402289e-07 6.669051e-09 -6.335598e-08 1.000358e-08 2.700966e-07 -4.518282e-07 4.251520e-07 5.378323e-01 -1.154107e-02 -3.023687e-02 1.113549e-02 -2.806760e-03 1.904090e-02 6.364554e-03 -8.823230e-03 -2.213889e-03 3.312470e-02 -3.356646e-02 -8.714494e-03 -6.690061e-03 -2.045292e-04 2.002929e-03 -4.274605e-03 -1.287930e-02 2.793538e-03 -2.013826e-03 -3.334927e-03 6.114620e-03 -4.406652e-03 8.390827e-03 -1.537168e-02 -1.763528e-02 1.249104e-02 -2.140884e-05
<VARIANCE> 39
 2.248925e+01 4.536725e+01 5.638883e+01 8.419173e+01 4.810266e+01 1.355932e+02 4.111533e+01 3.742080e+01 2.593621e+01 5.324357e+01 3.451196e+01 4.238582e+01 1.051864e-01 1.507351e+00 2.711484e+00 1.808454e+00 2.892095e+00 3.693090e+00 3.300175e+00 3.405006e+00 3.488162e+00 3.347873e+00 3.572467e+00 3.311087e+00 2.532052e+00 1.248955e-03 2.726829e-01 3.715056e-01 2.253923e-01 3.619271e-01 7.098774e-01 5.715331e-01 6.851639e-01 6.884013e-01 7.239568e-01 6.878671e-01 6.587040e-01 4.485994e-01 1.236510e-04
<GCONST> 1.040546e+02
<STATE> 9
<MEAN> 39
 -6.102182e-07 2.801002e-07 2.417531e-08 1.100393e-07 -2.250805e-07 -6.402289e-07 6.669051e-09 -6.335598e-08 1.000358e-08 2.700966e-07 -4.518282e-07 4.251520e-07 5.378323e-01 -1.154107e-02 -3.023687e-02 1.113549e-02 -2.806760e-03 1.904090e-02 6.364554e-03 -8.823230e-03 -2.213889e-03 3.312470e-02 -3.356646e-02 -8.714494e-03 -6.690061e-03 -2.045292e-04 2.002929e-03 -4.274605e-03 -1.287930e-02 2.793538e-03 -2.013826e-03 -3.334927e-03 6.114620e-03 -4.406652e-03 8.390827e-03 -1.537168e-02 -1.763528e-02 1.249104e-02 -2.140884e-05
<VARIANCE> 39
 2.248925e+01 4.536725e+01 5.638883e+01 8.419173e+01 4.810266e+01 1.355932e+02 4.111533e+01 3.742080e+01 2.593621e+01 5.324357e+01 3.451196e+01 4.238582e+01 1.051864e-01 1.507351e+00 2.711484e+00 1.808454e+00 2.892095e+00 3.693090e+00 3.300175e+00 3.405006e+00 3.488162e+00 3.347873e+00 3.572467e+00 3.311087e+00 2.532052e+00 1.248955e-03 2.726829e-01 3.715056e-01 2.253923e-01 3.619271e-01 7.098774e-01 5.715331e-01 6.851639e-01 6.884013e-01 7.239568e-01 6.878671e-01 6.587040e-01 4.485994e-01 1.236510e-04
<GCONST> 1.040546e+02
<TRANSP> 10
 0.000000e+00 1.000000e+00 0.000000e+00 0.000000e+00 0.000000e+00 0.000000e+00 0.000000e+00 0.000000e+00 0.000000e+00 0.000000e+00
 0.000000e+00 9.000000e-01 9.999999e-02 0.000000e+00 0.000000e+00 0.000000e+00 0.000000e+00 0.000000e+00 0.000000e+00 0.000000e+00
 0.000000e+00 0.000000e+00 9.000000e-01 9.999999e-02 0.000000e+00 0.000000e+00 0.000000e+00 0.000000e+00 0.000000e+00 0.000000e+00
 0.000000e+00 0.000000e+00 0.000000e+00 9.000000e-01 9.999999e-02 0.000000e+00 0.000000e+00 0.000000e+00 0.000000e+00 0.000000e+00
 0.000000e+00 0.000000e+00 0.000000e+00 0.000000e+00 9.000000e-01 9.999999e-02 0.000000e+00 0.000000e+00 0.000000e+00 0.000000e+00
 0.000000e+00 0.000000e+00 0.000000e+00 0.000000e+00 0.000000e+00 9.000000e-01 9.999999e-02 0.000000e+00 0.000000e+00 0.000000e+00
 0.000000e+00 0.000000e+00 0.000000e+00 0.000000e+00 0.000000e+00 0.000000e+00 9.000000e-01 9.999999e-02 0.000000e+00 0.000000e+00
 0.000000e+00 0.000000e+00 0.000000e+00 0.000000e+00 0.000000e+00 0.000000e+00 0.000000e+00 9.000000e-01 9.999999e-02 0.000000e+00
 0.000000e+00 0.000000e+00 0.000000e+00 0.000000e+00 0.000000e+00 0.000000e+00 0.000000e+00 0.000000e+00 9.000000e-01 9.999999e-02
 0.000000e+00 0.000000e+00 0.000000e+00 0.000000e+00 0.000000e+00 0.000000e+00 0.000000e+00 0.000000e+00 0.000000e+00 0.000000e+00
<ENDHMM>
