~o
<STREAMINFO> 1 39
<VECSIZE> 39<NULLD><MFCC_E_D_A_Z><DIAGC>
~h "s097"
<BEGINHMM>
<NUMSTATES> 10
<STATE> 2
<MEAN> 39
 -1.039260e-07 1.711723e-07 4.401574e-07 1.772856e-07 7.335956e-07 1.467191e-07 -3.912510e-07 3.484579e-07 -2.659284e-07 2.445319e-08 4.279308e-08 1.222659e-07 8.083688e-01 7.051222e-02 -1.240248e-01 -2.559366e-01 1.962809e-01 3.387154e-01 5.904275e-02 3.548687e-02 4.722851e-02 6.918740e-02 -1.645322e-01 1.392064e-01 2.992430e-01 -1.822645e-03 -1.515648e-02 2.764291e-02 -1.394374e-03 -1.712467e-02 1.101317e-02 -4.878028e-03 2.098618e-02 2.308923e-02 -4.166408e-02 -2.242689e-02 1.976479e-02 -8.923684e-03 -5.070840e-04
<VARIANCE> 39
 1.786380e+01 7.255087e+01 8.257259e+01 1.186614e+02 7.623812e+01 2.889582e+01 3.496589e+01 4.677699e+01 2.801823e+01 6.197094e+01 4.068928e+01 5.363847e+01 1.850937e-02 1.534707e+00 4.070593e+00 2.245275e+00 3.590994e+00 3.083014e+00 2.437430e+00 2.448581e+00 3.686293e+00 3.231348e+00 4.589577e+00 4.529021e+00 2.309656e+00 1.055258e-03 2.839626e-01 4.839353e-01 2.728555e-01 3.670605e-01 6.353456e-01 4.375328e-01 4.064803e-01 7.619705e-01 5.863129e-01 8.786207e-01 9.332046e-01 3.766864e-01 1.413980e-04
<GCONST> 1.033058e+02
<STATE> 3
<MEAN> 39
 -1.039260e-07 1.711723e-07 4.401574e-07 1.772856e-07 7.335956e-07 1.467191e-07 -3.912510e-07 3.484579e-07 -2.659284e-07 2.445319e-08 4.279308e-08 1.222659e-07 8.083688e-01 7.051222e-02 -1.240248e-01 -2.559366e-01 1.962809e-01 3.387154e-01 5.904275e-02 3.548687e-02 4.722851e-02 6.918740e-02 -1.645322e-01 1.392064e-01 2.992430e-01 -1.822645e-03 -1.515648e-02 2.764291e-02 -1.394374e-03 -1.712467e-02 1.101317e-02 -4.878028e-03 2.098618e-02 2.308923e-02 -4.166408e-02 -2.242689e-02 1.976479e-02 -8.923684e-03 -5.070840e-04
<VARIANCE> 39
 1.786380e+01 7.255087e+01 8.257259e+01 1.186614e+02 7.623812e+01 2.889582e+01 3.496589e+01 4.677699e+01 2.801823e+01 6.197094e+01 4.068928e+01 5.363847e+01 1.850937e-02 1.534707e+00 4.070593e+00 2.245275e+00 3.590994e+00 3.083014e+00 2.437430e+00 2.448581e+00 3.686293e+00 3.231348e+00 4.589577e+00 4.529021e+00 2.309656e+00 1.055258e-03 2.839626e-01 4.839353e-01 2.728555e-01 3.670605e-01 6.353456e-01 4.375328e-01 4.064803e-01 7.619705e-01 5.863129e-01 8.786207e-01 9.332046e-01 3.766864e-01 1.413980e-04
<GCONST> 1.033058e+02
<STATE> 4
<MEAN> 39
 -1.039260e-07 1.711723e-07 4.401574e-07 1.772856e-07 7.335956e-07 1.467191e-07 -3.912510e-07 3.484579e-07 -2.659284e-07 2.445319e-08 4.279308e-08 1.222659e-07 8.083688e-01 7.051222e-02 -1.240248e-01 -2.559366e-01 1.962809e-01 3.387154e-01 5.904275e-02 3.548687e-02 4.722851e-02 6.918740e-02 -1.645322e-01 1.392064e-01 2.992430e-01 -1.822645e-03 -1.515648e-02 2.764291e-02 -1.394374e-03 -1.712467e-02 1.101317e-02 -4.878028e-03 2.098618e-02 2.308923e-02 -4.166408e-02 -2.242689e-02 1.976479e-02 -8.923684e-03 -5.070840e-04
<VARIANCE> 39
 1.786380e+01 7.255087e+01 8.257259e+01 1.186614e+02 7.623812e+01 2.889582e+01 3.496589e+01 4.677699e+01 2.801823e+01 6.197094e+01 4.068928e+01 5.363847e+01 1.850937e-02 1.534707e+00 4.070593e+00 2.245275e+00 3.590994e+00 3.083014e+00 2.437430e+00 2.448581e+00 3.686293e+00 3.231348e+00 4.589577e+00 4.529021e+00 2.309656e+00 1.055258e-03 2.839626e-01 4.839353e-01 2.728555e-01 3.670605e-01 6.353456e-01 4.375328e-01 4.064803e-01 7.619705e-01 5.863129e-01 8.786207e-01 9.332046e-01 3.766864e-01 1.413980e-04
<GCONST> 1.033058e+02
<STATE> 5
<MEAN> 39
 -1.039260e-07 1.711723e-07 4.401574e-07 1.772856e-07 7.335956e-07 1.467191e-07 -3.912510e-07 3.484579e-07 -2.659284e-07 2.445319e-08 4.279308e-08 1.222659e-07 8.083688e-01 7.051222e-02 -1.240248e-01 -2.559366e-01 1.962809e-01 3.387154e-01 5.904275e-02 3.548687e-02 4.722851e-02 6.918740e-02 -1.645322e-01 1.392064e-01 2.992430e-01 -1.822645e-03 -1.515648e-02 2.764291e-02 -1.394374e-03 -1.712467e-02 1.101317e-02 -4.878028e-03 2.098618e-02 2.308923e-02 -4.166408e-02 -2.242689e-02 1.976479e-02 -8.923684e-03 -5.070840e-04
<VARIANCE> 39
 1.786380e+01 7.255087e+01 8.257259e+01 1.186614e+02 7.623812e+01 2.889582e+01 3.496589e+01 4.677699e+01 2.801823e+01 6.197094e+01 4.068928e+01 5.363847e+01 1.850937e-02 1.534707e+00 4.070593e+00 2.245275e+00 3.590994e+00 3.083014e+00 2.437430e+00 2.448581e+00 3.686293e+00 3.231348e+00 4.589577e+00 4.529021e+00 2.309656e+00 1.055258e-03 2.839626e-01 4.839353e-01 2.728555e-01 3.670605e-01 6.353456e-01 4.375328e-01 4.064803e-01 7.619705e-01 5.863129e-01 8.786207e-01 9.332046e-01 3.766864e-01 1.413980e-04
<GCONST> 1.033058e+02
<STATE> 6
<MEAN> 39
 -1.039260e-07 1.711723e-07 4.401574e-07 1.772856e-07 7.335956e-07 1.467191e-07 -3.912510e-07 3.484579e-07 -2.659284e-07 2.445319e-08 4.279308e-08 1.222659e-07 8.083688e-01 7.051222e-02 -1.240248e-01 -2.559366e-01 1.962809e-01 3.387154e-01 5.904275e-02 3.548687e-02 4.722851e-02 6.918740e-02 -1.645322e-01 1.392064e-01 2.992430e-01 -1.822645e-03 -1.515648e-02 2.764291e-02 -1.394374e-03 -1.712467e-02 1.101317e-02 -4.878028e-03 2.098618e-02 2.308923e-02 -4.166408e-02 -2.242689e-02 1.976479e-02 -8.923684e-03 -5.070840e-04
<VARIANCE> 39
 1.786380e+01 7.255087e+01 8.257259e+01 1.186614e+02 7.623812e+01 2.889582e+01 3.496589e+01 4.677699e+01 2.801823e+01 6.197094e+01 4.068928e+01 5.363847e+01 1.850937e-02 1.534707e+00 4.070593e+00 2.245275e+00 3.590994e+00 3.083014e+00 2.437430e+00 2.448581e+00 3.686293e+00 3.231348e+00 4.589577e+00 4.529021e+00 2.309656e+00 1.055258e-03 2.839626e-01 4.839353e-01 2.728555e-01 3.670605e-01 6.353456e-01 4.375328e-01 4.064803e-01 7.619705e-01 5.863129e-01 8.786207e-01 9.332046e-01 3.766864e-01 1.413980e-04
<GCONST> 1.033058e+02
<STATE> 7
<MEAN> 39
 -1.039260e-07 1.711723e-07 4.401574e-07 1.772856e-07 7.335956e-07 1.467191e-07 -3.912510e-07 3.484579e-07 -2.659284e-07 2.445319e-08 4.279308e-08 1.222659e-07 8.083688e-01 7.051222e-02 -1.240248e-01 -2.559366e-01 1.962809e-01 3.387154e-01 5.904275e-02 3.548687e-02 4.722851e-02 6.918740e-02 -1.645322e-01 1.392064e-01 2.992430e-01 -1.822645e-03 -1.515648e-02 2.764291e-02 -1.394374e-03 -1.712467e-02 1.101317e-02 -4.878028e-03 2.098618e-02 2.308923e-02 -4.166408e-02 -2.242689e-02 1.976479e-02 -8.923684e-03 -5.070840e-04
<VARIANCE> 39
 1.786380e+01 7.255087e+01 8.257259e+01 1.186614e+02 7.623812e+01 2.889582e+01 3.496589e+01 4.677699e+01 2.801823e+01 6.197094e+01 4.068928e+01 5.363847e+01 1.850937e-02 1.534707e+00 4.070593e+00 2.245275e+00 3.590994e+00 3.083014e+00 2.437430e+00 2.448581e+00 3.686293e+00 3.231348e+00 4.589577e+00 4.529021e+00 2.309656e+00 1.055258e-03 2.839626e-01 4.839353e-01 2.728555e-01 3.670605e-01 6.353456e-01 4.375328e-01 4.064803e-01 7.619705e-01 5.863129e-01 8.786207e-01 9.332046e-01 3.766864e-01 1.413980e-04
<GCONST> 1.033058e+02
<STATE> 8
<MEAN> 39
 -1.039260e-07 1.711723e-07 4.401574e-07 1.772856e-07 7.335956e-07 1.467191e-07 -3.912510e-07 3.484579e-07 -2.659284e-07 2.445319e-08 4.279308e-08 1.222659e-07 8.083688e-01 7.051222e-02 -1.240248e-01 -2.559366e-01 1.962809e-01 3.387154e-01 5.904275e-02 3.548687e-02 4.722851e-02 6.918740e-02 -1.645322e-01 1.392064e-01 2.992430e-01 -1.822645e-03 -1.515648e-02 2.764291e-02 -1.394374e-03 -1.712467e-02 1.101317e-02 -4.878028e-03 2.098618e-02 2.308923e-02 -4.166408e-02 -2.242689e-02 1.976479e-02 -8.923684e-03 -5.070840e-04
<VARIANCE> 39
 1.786380e+01 7.255087e+01 8.257259e+01 1.186614e+02 7.623812e+01 2.889582e+01 3.496589e+01 4.677699e+01 2.801823e+01 6.197094e+01 4.068928e+01 5.363847e+01 1.850937e-02 1.534707e+00 4.070593e+00 2.245275e+00 3.590994e+00 3.083014e+00 2.437430e+00 2.448581e+00 3.686293e+00 3.231348e+00 4.589577e+00 4.529021e+00 2.309656e+00 1.055258e-03 2.839626e-01 4.839353e-01 2.728555e-01 3.670605e-01 6.353456e-01 4.375328e-01 4.064803e-01 7.619705e-01 5.863129e-01 8.786207e-01 9.332046e-01 3.766864e-01 1.413980e-04
<GCONST> 1.033058e+02
<STATE> 9
<MEAN> 39
 -1.039260e-07 1.711723e-07 4.401574e-07 1.772856e-07 7.335956e-07 1.467191e-07 -3.912510e-07 3.484579e-07 -2.659284e-07 2.445319e-08 4.279308e-08 1.222659e-07 8.083688e-01 7.051222e-02 -1.240248e-01 -2.559366e-01 1.962809e-01 3.387154e-01 5.904275e-02 3.548687e-02 4.722851e-02 6.918740e-02 -1.645322e-01 1.392064e-01 2.992430e-01 -1.822645e-03 -1.515648e-02 2.764291e-02 -1.394374e-03 -1.712467e-02 1.101317e-02 -4.878028e-03 2.098618e-02 2.308923e-02 -4.166408e-02 -2.242689e-02 1.976479e-02 -8.923684e-03 -5.070840e-04
<VARIANCE> 39
 1.786380e+01 7.255087e+01 8.257259e+01 1.186614e+02 7.623812e+01 2.889582e+01 3.496589e+01 4.677699e+01 2.801823e+01 6.197094e+01 4.068928e+01 5.363847e+01 1.850937e-02 1.534707e+00 4.070593e+00 2.245275e+00 3.590994e+00 3.083014e+00 2.437430e+00 2.448581e+00 3.686293e+00 3.231348e+00 4.589577e+00 4.529021e+00 2.309656e+00 1.055258e-03 2.839626e-01 4.839353e-01 2.728555e-01 3.670605e-01 6.353456e-01 4.375328e-01 4.064803e-01 7.619705e-01 5.863129e-01 8.786207e-01 9.332046e-01 3.766864e-01 1.413980e-04
<GCONST> 1.033058e+02
<TRANSP> 10
 0.000000e+00 1.000000e+00 0.000000e+00 0.000000e+00 0.000000e+00 0.000000e+00 0.000000e+00 0.000000e+00 0.000000e+00 0.000000e+00
 0.000000e+00 9.000000e-01 9.999999e-02 0.000000e+00 0.000000e+00 0.000000e+00 0.000000e+00 0.000000e+00 0.000000e+00 0.000000e+00
 0.000000e+00 0.000000e+00 9.000000e-01 9.999999e-02 0.000000e+00 0.000000e+00 0.000000e+00 0.000000e+00 0.000000e+00 0.000000e+00
 0.000000e+00 0.000000e+00 0.000000e+00 9.000000e-01 9.999999e-02 0.000000e+00 0.000000e+00 0.000000e+00 0.000000e+00 0.000000e+00
 0.000000e+00 0.000000e+00 0.000000e+00 0.000000e+00 9.000000e-01 9.999999e-02 0.000000e+00 0.000000e+00 0.000000e+00 0.000000e+00
 0.000000e+00 0.000000e+00 0.000000e+00 0.000000e+00 0.000000e+00 9.000000e-01 9.999999e-02 0.000000e+00 0.000000e+00 0.000000e+00
 0.000000e+00 0.000000e+00 0.000000e+00 0.000000e+00 0.000000e+00 0.000000e+00 9.000000e-01 9.999999e-02 0.000000e+00 0.000000e+00
 0.000000e+00 0.000000e+00 0.000000e+00 0.000000e+00 0.000000e+00 0.000000e+00 0.000000e+00 9.000000e-01 9.999999e-02 0.000000e+00
 0.000000e+00 0.000000e+00 0.000000e+00 0.000000e+00 0.000000e+00 0.000000e+00 0.000000e+00 0.000000e+00 9.000000e-01 9.999999e-02
 0.000000e+00 0.000000e+00 0.000000e+00 0.000000e+00 0.000000e+00 0.000000e+00 0.000000e+00 0.000000e+00 0.000000e+00 0.000000e+00
<ENDHMM>
