~o
<STREAMINFO> 1 12
<VECSIZE> 12<NULLD><MFCC_Z><DIAGC>
~h "s041"
<BEGINHMM>
<NUMSTATES> 5
<STATE> 2
<MEAN> 12
 1.521460e-01 -1.808899e+00 -2.276172e+00 3.803591e+00 1.818138e+00 -8.894395e+00 9.768173e-01 -4.563200e+00 -2.230471e+00 5.532675e-01 1.918135e+00 -2.121451e+00
<VARIANCE> 12
 5.454504e+00 4.615985e+00 4.398209e+00 2.559527e+01 1.382629e+01 4.401571e+01 1.775451e+01 2.594962e+01 1.611937e+01 1.652981e+01 1.372591e+01 1.589690e+01
<GCONST> 5.351861e+01
<STATE> 3
<MEAN> 12
 -3.991639e-01 1.815991e-01 -6.984369e-01 -1.000174e+00 -3.689133e-01 -6.316757e-01 5.670601e-01 -1.534571e+00 -3.067752e-01 -4.845567e-01 4.394986e-03 6.947907e-01
<VARIANCE> 12
 6.046382e+00 8.000002e+00 1.179184e+01 5.515526e+01 1.694297e+01 1.264960e+02 3.256590e+01 8.187494e+01 1.259711e+01 1.168316e+01 1.987008e+01 2.619834e+01
<GCONST> 5.921603e+01
<STATE> 4
<MEAN> 12
 2.470182e-01 1.627300e+00 2.974609e+00 -2.803417e+00 -1.449224e+00 9.526073e+00 -1.543877e+00 6.097771e+00 2.537246e+00 -6.871097e-02 -1.922530e+00 1.426662e+00
<VARIANCE> 12
 1.155214e+01 5.523009e+00 2.180873e+01 3.163705e+01 1.180908e+01 7.130199e+01 3.375925e+01 6.454390e+01 2.019500e+01 1.691107e+01 1.384817e+01 2.088531e+01
<GCONST> 5.866996e+01
<TRANSP> 5
 0.000000e+00 1.000000e+00 0.000000e+00 0.000000e+00 0.000000e+00
 0.000000e+00 9.117647e-01 8.823528e-02 0.000000e+00 0.000000e+00
 0.000000e+00 0.000000e+00 9.117647e-01 8.823530e-02 0.000000e+00
 0.000000e+00 0.000000e+00 0.000000e+00 9.117647e-01 8.823530e-02
 0.000000e+00 0.000000e+00 0.000000e+00 0.000000e+00 0.000000e+00
<ENDHMM>
