~o
<STREAMINFO> 1 12
<VECSIZE> 12<NULLD><MFCC_Z><DIAGC>
~h "s077"
<BEGINHMM>
<NUMSTATES> 7
<STATE> 2
<MEAN> 12
 3.502653e+00 -1.594780e+00 -1.038171e+01 1.371033e+01 4.168964e+00 -1.437635e+01 1.867130e+00 8.152512e+00 3.746267e+00 -4.080986e+00 -2.199126e+00 -1.055084e-01
<VARIANCE> 12
 6.996670e+00 9.641394e+00 1.144294e+01 1.709051e+01 4.778986e+00 1.163463e+01 1.695297e+01 1.422695e+01 3.615455e+01 1.324827e+01 8.549846e+00 8.311768e+00
<GCONST> 5.148098e+01
<STATE> 3
<MEAN> 12
 1.219647e+00 -2.563630e+00 1.059520e+00 -1.331936e+00 -5.510071e+00 -7.691764e-01 6.426974e+00 -3.760676e+00 -6.889589e+00 2.850522e+00 -2.445084e+00 -4.706512e-01
<VARIANCE> 12
 1.071004e+01 1.142292e+01 2.440763e+01 1.100605e+01 1.636347e+01 2.317175e+01 1.781150e+01 1.422695e+01 2.762594e+01 1.157918e+01 2.064673e+01 6.670469e+00
<GCONST> 5.462085e+01
<STATE> 4
<MEAN> 12
 -1.735995e+00 1.433930e+01 3.527342e+00 -1.442564e+00 -5.974034e+00 -5.277681e-01 -3.953561e+00 4.297534e+00 2.338778e+00 -2.348973e+00 1.427900e+01 -7.619895e+00
<VARIANCE> 12
 2.762321e+00 1.265928e+01 5.520127e+00 1.178228e+01 4.577779e+00 1.163463e+01 1.576156e+01 4.681158e+01 3.991925e+01 3.850789e+00 1.528317e+01 5.134006e+00
<GCONST> 4.976067e+01
<STATE> 5
<MEAN> 12
 -4.532041e+00 4.994460e+00 3.002427e+00 -1.117046e+01 1.182714e+00 4.726786e+00 -3.177738e+00 9.609050e+00 6.038283e+00 -1.019943e+00 2.042342e+00 -1.413177e+00
<VARIANCE> 12
 2.148046e+00 3.113567e+01 5.520127e+00 1.070408e+01 4.577779e+00 1.163463e+01 4.935386e+00 2.693554e+01 7.307794e+00 3.153561e+00 2.750939e+01 3.720012e+01
<GCONST> 4.926985e+01
<STATE> 6
<MEAN> 12
 8.398750e-02 -8.175699e+00 3.257550e+00 -1.401722e+00 4.729461e+00 9.529822e+00 -3.233868e+00 -1.205779e+01 -1.850825e+00 2.643867e+00 -5.761454e+00 6.055257e+00
<VARIANCE> 12
 1.284377e+01 9.641394e+00 5.520127e+00 1.491513e+01 1.187426e+01 1.163463e+01 2.240569e+01 3.912012e+01 2.414869e+01 1.341812e+01 1.237022e+01 2.038452e+01
<GCONST> 5.429944e+01
<TRANSP> 7
 0.000000e+00 1.000000e+00 0.000000e+00 0.000000e+00 0.000000e+00 0.000000e+00 0.000000e+00
 0.000000e+00 8.913546e-01 1.086454e-01 0.000000e+00 0.000000e+00 0.000000e+00 0.000000e+00
 0.000000e+00 0.000000e+00 9.090754e-01 9.092461e-02 0.000000e+00 0.000000e+00 0.000000e+00
 0.000000e+00 0.000000e+00 0.000000e+00 8.523891e-01 1.476109e-01 0.000000e+00 0.000000e+00
 0.000000e+00 0.000000e+00 0.000000e+00 0.000000e+00 8.699346e-01 1.300654e-01 0.000000e+00
 0.000000e+00 0.000000e+00 0.000000e+00 0.000000e+00 0.000000e+00 9.117747e-01 8.822531e-02
 0.000000e+00 0.000000e+00 0.000000e+00 0.000000e+00 0.000000e+00 0.000000e+00 0.000000e+00
<ENDHMM>
