~o
<STREAMINFO> 1 12
<VECSIZE> 12<NULLD><MFCC_Z><DIAGC>
~h "s092"
<BEGINHMM>
<NUMSTATES> 10
<STATE> 2
<MEAN> 12
 -2.267503e+00 -6.796081e+00 1.581198e+00 -9.044226e-01 1.126984e+00 1.532228e+00 2.247058e+00 -4.374879e+00 -1.284977e+00 -2.343279e+00 -1.234047e+00 -3.882855e-01
<VARIANCE> 12
 1.538864e+01 4.460657e+01 4.049268e+01 4.462132e+01 9.709145e+00 1.968262e+01 7.852227e+00 4.634906e+01 4.524920e+01 1.900562e+01 1.681254e+01 1.501192e+01
<GCONST> 5.952306e+01
<STATE> 3
<MEAN> 12
 -5.944274e-01 -1.080902e+01 -3.829432e+00 1.698108e+00 7.464331e-02 -6.591573e-02 1.929230e+00 -2.176418e+00 -6.302382e+00 -9.916962e-01 -1.736728e+00 6.071088e-01
<VARIANCE> 12
 3.053500e+01 3.092371e+01 2.405756e+01 4.145732e+01 1.734907e+01 2.693056e+01 2.216356e+01 5.814563e+01 4.201993e+01 2.293829e+01 3.505922e+01 2.683485e+01
<GCONST> 6.283592e+01
<STATE> 4
<MEAN> 12
 2.820126e+00 -8.395945e+00 -4.387146e+00 1.369756e+00 -8.577887e-01 -5.082861e-01 4.161844e-01 1.664463e+00 -6.109074e+00 2.403479e-01 -2.938795e+00 3.307336e+00
<VARIANCE> 12
 3.927305e+01 4.773995e+01 1.907792e+01 3.468665e+01 1.808643e+01 2.638485e+01 3.600928e+01 3.731598e+01 4.026745e+01 2.674568e+01 3.919217e+01 2.961998e+01
<GCONST> 6.349572e+01
<STATE> 5
<MEAN> 12
 3.351321e+00 -3.027964e+00 -2.210649e+00 7.562311e-01 -5.984005e-02 1.146073e+00 -6.059538e-01 2.694066e+00 -2.102553e+00 1.767217e+00 -1.727623e+00 4.486696e+00
<VARIANCE> 12
 5.559599e+01 6.498906e+01 2.200316e+01 3.315149e+01 1.916348e+01 2.624106e+01 3.612144e+01 2.318773e+01 5.620797e+01 2.564245e+01 3.941294e+01 2.738107e+01
<GCONST> 6.404723e+01
<STATE> 6
<MEAN> 12
 7.857025e-01 2.869755e+00 4.512678e-01 1.083129e+00 1.390968e+00 1.846195e+00 -2.358039e-01 1.455125e+00 2.776710e+00 1.998763e+00 1.032569e+00 2.891701e+00
<VARIANCE> 12
 6.966468e+01 6.230325e+01 1.958986e+01 3.129850e+01 1.871264e+01 2.368629e+01 2.881550e+01 2.442993e+01 5.413468e+01 2.247274e+01 3.522465e+01 3.680227e+01
<GCONST> 6.377071e+01
<STATE> 7
<MEAN> 12
 -1.847645e+00 7.891517e+00 2.401997e+00 4.157093e-01 1.649770e+00 1.004306e-01 -1.518319e-01 1.595322e-01 6.203962e+00 8.264939e-01 3.297273e+00 -8.397227e-01
<VARIANCE> 12
 4.849157e+01 4.167719e+01 1.462286e+01 2.949128e+01 1.671555e+01 2.611332e+01 2.078620e+01 2.052094e+01 3.409425e+01 2.044807e+01 2.626384e+01 4.460512e+01
<GCONST> 6.148013e+01
<STATE> 8
<MEAN> 12
 -2.226543e+00 1.027428e+01 3.117106e+00 -1.941175e+00 7.793947e-02 -2.399570e+00 -1.334095e+00 4.762096e-02 5.875200e+00 -5.115221e-01 3.254013e+00 -4.489397e+00
<VARIANCE> 12
 2.127609e+01 1.946287e+01 1.009246e+01 2.711782e+01 1.619348e+01 2.246496e+01 1.509903e+01 1.339578e+01 3.614627e+01 1.558682e+01 2.609743e+01 2.874606e+01
<GCONST> 5.785307e+01
<STATE> 9
<MEAN> 12
 -2.101775e-02 7.993474e+00 2.875748e+00 -2.477425e+00 -3.402678e+00 -1.651045e+00 -2.264832e+00 5.304783e-01 9.431185e-01 -9.863349e-01 5.329008e-02 -5.575377e+00
<VARIANCE> 12
 1.161281e+01 1.961418e+01 5.602373e+00 2.086523e+01 1.967452e+01 2.690557e+01 8.440639e+00 8.390249e+00 5.329222e+01 1.195157e+01 2.798448e+01 1.223196e+01
<GCONST> 5.506831e+01
<TRANSP> 10
 0.000000e+00 1.000000e+00 0.000000e+00 0.000000e+00 0.000000e+00 0.000000e+00 0.000000e+00 0.000000e+00 0.000000e+00 0.000000e+00
 0.000000e+00 8.730159e-01 1.269841e-01 0.000000e+00 0.000000e+00 0.000000e+00 0.000000e+00 0.000000e+00 0.000000e+00 0.000000e+00
 0.000000e+00 0.000000e+00 8.730159e-01 1.269841e-01 0.000000e+00 0.000000e+00 0.000000e+00 0.000000e+00 0.000000e+00 0.000000e+00
 0.000000e+00 0.000000e+00 0.000000e+00 8.730159e-01 1.269841e-01 0.000000e+00 0.000000e+00 0.000000e+00 0.000000e+00 0.000000e+00
 0.000000e+00 0.000000e+00 0.000000e+00 0.000000e+00 8.730159e-01 1.269841e-01 0.000000e+00 0.000000e+00 0.000000e+00 0.000000e+00
 0.000000e+00 0.000000e+00 0.000000e+00 0.000000e+00 0.000000e+00 8.730159e-01 1.269841e-01 0.000000e+00 0.000000e+00 0.000000e+00
 0.000000e+00 0.000000e+00 0.000000e+00 0.000000e+00 0.000000e+00 0.000000e+00 8.730159e-01 1.269841e-01 0.000000e+00 0.000000e+00
 0.000000e+00 0.000000e+00 0.000000e+00 0.000000e+00 0.000000e+00 0.000000e+00 0.000000e+00 8.730159e-01 1.269841e-01 0.000000e+00
 0.000000e+00 0.000000e+00 0.000000e+00 0.000000e+00 0.000000e+00 0.000000e+00 0.000000e+00 0.000000e+00 8.730159e-01 1.269841e-01
 0.000000e+00 0.000000e+00 0.000000e+00 0.000000e+00 0.000000e+00 0.000000e+00 0.000000e+00 0.000000e+00 0.000000e+00 0.000000e+00
<ENDHMM>
