~o
<STREAMINFO> 1 12
<VECSIZE> 12<NULLD><MFCC_Z><DIAGC>
~h "s066"
<BEGINHMM>
<NUMSTATES> 8
<STATE> 2
<MEAN> 12
 -7.083411e-01 -6.837473e+00 4.076497e+00 1.543894e+01 1.151875e+01 -9.336047e+00 -1.277017e+00 -6.253362e+00 5.349589e+00 1.953196e-01 5.296055e+00 -3.731835e+00
<VARIANCE> 12
 3.983195e+00 9.982435e+00 2.505585e+01 1.590369e+01 1.570207e+01 1.305142e+01 1.035886e+01 2.875353e+01 1.484865e+01 1.540714e+01 3.014536e+01 8.455976e+00
<GCONST> 5.371804e+01
<STATE> 3
<MEAN> 12
 3.088249e+00 -1.161842e+00 -5.430492e+00 9.876087e+00 -4.272279e+00 -9.609149e+00 3.824306e+00 -7.848076e-01 -2.038692e+00 2.432360e+00 4.797693e+00 -4.203067e+00
<VARIANCE> 12
 4.356560e+00 4.510859e+00 6.673346e+00 1.590369e+01 1.021508e+01 1.660171e+01 1.657903e+01 9.579063e+00 9.064812e+00 1.544550e+01 5.258786e+00 8.455976e+00
<GCONST> 4.863494e+01
<STATE> 4
<MEAN> 12
 1.540184e+00 1.298918e+00 -6.181644e+00 1.737140e+00 -4.565415e+00 -7.200307e+00 6.792160e+00 5.184077e+00 -4.456854e+00 -3.246629e+00 3.506181e+00 -1.986557e+00
<VARIANCE> 12
 4.246980e+00 2.376325e+00 9.081112e+00 1.590369e+01 1.021508e+01 1.423990e+01 9.136192e+00 1.584193e+01 8.420997e+00 1.386204e+01 2.115622e+01 9.644912e+00
<GCONST> 4.937210e+01
<STATE> 5
<MEAN> 12
 -1.006113e+00 2.917249e+00 2.010737e+00 -7.367114e+00 -6.064822e+00 3.569023e+00 1.165949e-01 3.160182e+00 1.266943e+00 1.177276e+00 -3.893338e+00 -1.834760e+00
<VARIANCE> 12
 4.623632e+00 3.003501e+00 4.904097e+00 1.863900e+01 1.021508e+01 1.483961e+01 1.726386e+01 8.624975e+00 4.266556e+01 2.603512e+01 9.761709e+00 4.134516e+01
<GCONST> 5.223851e+01
<STATE> 6
<MEAN> 12
 -9.821617e-01 7.202300e-02 -2.394129e-01 -8.201501e+00 -6.545155e+00 8.805929e+00 1.996450e+00 -2.902985e+00 -5.823136e+00 3.718397e+00 -5.804091e+00 3.122957e+00
<VARIANCE> 12
 5.943356e+00 2.376325e+00 3.058519e+00 1.590369e+01 1.405877e+01 1.948099e+01 1.686027e+01 8.106280e+00 9.463987e+00 4.570462e+01 5.551037e+00 1.059265e+02
<GCONST> 5.156355e+01
<STATE> 7
<MEAN> 12
 -9.348273e-01 1.987528e+00 7.785129e-01 -8.616963e+00 8.436302e+00 1.075869e+01 -6.108620e+00 6.581334e-01 -7.095565e-01 -5.068285e+00 -1.829437e+00 9.881390e+00
<VARIANCE> 12
 1.247128e+01 3.506388e+00 3.058519e+00 1.590369e+01 2.544042e+01 1.208111e+01 1.568030e+01 2.885687e+01 1.536975e+01 1.970567e+01 1.710270e+01 3.186591e+01
<GCONST> 5.357384e+01
<TRANSP> 8
 0.000000e+00 1.000000e+00 0.000000e+00 0.000000e+00 0.000000e+00 0.000000e+00 0.000000e+00 0.000000e+00
 0.000000e+00 8.849528e-01 1.150472e-01 0.000000e+00 0.000000e+00 0.000000e+00 0.000000e+00 0.000000e+00
 0.000000e+00 0.000000e+00 8.986728e-01 1.013273e-01 0.000000e+00 0.000000e+00 0.000000e+00 0.000000e+00
 0.000000e+00 0.000000e+00 0.000000e+00 7.012341e-01 2.987659e-01 0.000000e+00 0.000000e+00 0.000000e+00
 0.000000e+00 0.000000e+00 0.000000e+00 0.000000e+00 9.376627e-01 6.233736e-02 0.000000e+00 0.000000e+00
 0.000000e+00 0.000000e+00 0.000000e+00 0.000000e+00 0.000000e+00 7.656136e-01 2.343864e-01 0.000000e+00
 0.000000e+00 0.000000e+00 0.000000e+00 0.000000e+00 0.000000e+00 0.000000e+00 8.977881e-01 1.022119e-01
 0.000000e+00 0.000000e+00 0.000000e+00 0.000000e+00 0.000000e+00 0.000000e+00 0.000000e+00 0.000000e+00
<ENDHMM>
