~o
<STREAMINFO> 1 12
<VECSIZE> 12<NULLD><MFCC_Z><DIAGC>
~h "T1375865333"
<BEGINHMM>
<NUMSTATES> 13
<STATE> 2
<MEAN> 12
 2.648225e+00 5.676872e+00 -1.012010e+00 -8.041789e+00 5.455958e-01 -5.056145e+00 -9.878464e+00 -6.438826e+00 3.870354e+00 -7.576690e-01 6.248374e+00 -2.002933e-01
<VARIANCE> 12
 1.799017e+00 6.535099e+00 1.003524e+01 6.829354e+00 3.619783e+01 1.147967e+01 3.092353e+01 2.092520e+01 1.295752e+01 2.905020e+01 7.078539e+00 4.200938e+00
<GCONST> 5.057141e+01
<STATE> 3
<MEAN> 12
 4.120549e+00 7.577298e+00 5.494245e-01 -7.546655e+00 2.146321e-02 -1.644539e+00 -4.045430e+00 -6.791711e+00 6.538260e+00 3.791612e+00 -9.495695e-01 -7.214386e-01
<VARIANCE> 12
 1.671388e+00 6.535099e+00 6.967044e+00 2.876348e+01 9.260448e+00 1.215988e+01 1.503585e+01 2.299311e+01 1.727486e+01 1.711089e+01 1.215335e+01 1.843419e+01
<GCONST> 5.141597e+01
<STATE> 4
<MEAN> 12
 5.145162e+00 9.554399e+00 -2.236362e+00 -3.249666e+00 3.321999e+00 3.330847e+00 3.538862e+00 -1.668920e+00 8.012668e+00 -7.541055e-01 -7.723676e+00 -5.835035e+00
<VARIANCE> 12
 1.641822e+00 6.535099e+00 6.967044e+00 6.903986e+00 7.175174e+00 7.946378e+00 1.859237e+01 7.095842e+00 6.049439e+00 1.910784e+01 2.290333e+01 1.705363e+01
<GCONST> 4.794413e+01
<STATE> 5
<MEAN> 12
 3.323851e+00 7.230575e+00 -5.645794e+00 4.187344e+00 4.961932e+00 2.184834e+00 3.724524e+00 3.569441e+00 5.622557e+00 -5.531442e+00 -1.174073e+01 -5.495502e-01
<VARIANCE> 12
 1.641822e+00 6.535099e+00 6.967044e+00 1.543709e+01 7.175174e+00 7.657931e+00 6.082962e+00 1.304920e+01 2.932635e+01 4.689234e+00 1.465505e+01 2.884018e+01
<GCONST> 4.845638e+01
<STATE> 6
<MEAN> 12
 -6.732160e-01 1.761601e+00 -2.375623e+00 3.909372e+00 -3.871566e+00 6.519094e-01 4.308363e+00 1.212011e+00 -3.493354e+00 -3.202447e+00 1.422080e+00 5.716099e-01
<VARIANCE> 12
 6.203142e+00 6.535099e+00 2.494825e+01 1.261153e+01 3.706286e+01 2.017194e+01 2.918427e+01 5.836086e+01 1.330558e+01 9.304805e+00 3.498261e+01 1.677117e+01
<GCONST> 5.675859e+01
<STATE> 7
<MEAN> 12
 -3.418061e+00 -6.555666e-01 -2.766964e+00 6.675228e-01 -4.964334e+00 2.236503e+00 6.013177e+00 -3.151472e+00 -7.623162e+00 -4.401516e+00 6.127243e+00 8.299652e-01
<VARIANCE> 12
 4.782186e+00 6.535099e+00 1.119959e+01 7.304688e+00 2.728355e+01 1.729906e+01 2.446502e+01 5.805035e+01 2.985525e+01 1.153165e+01 3.568948e+01 1.927038e+01
<GCONST> 5.569137e+01
<STATE> 8
<MEAN> 12
 -7.575842e-01 -1.757756e+00 -6.072367e+00 -6.361468e-01 2.138366e+00 -4.810182e+00 1.597089e+00 6.867740e+00 -6.659292e-02 9.582908e-01 -4.491007e+00 5.289123e+00
<VARIANCE> 12
 5.294840e+00 6.535099e+00 2.084153e+01 6.829354e+00 7.175174e+00 2.708051e+01 8.582479e+00 1.219900e+01 2.932530e+01 2.062594e+01 1.383428e+01 7.883733e+00
<GCONST> 5.157410e+01
<STATE> 9
<MEAN> 12
 -2.576353e+00 -4.041452e+00 2.132043e+00 -2.380488e-01 -4.947637e+00 -5.740159e-01 2.626273e+00 1.550996e+00 1.034367e-01 -1.226414e+00 -3.993328e+00 6.403604e+00
<VARIANCE> 12
 3.379500e+00 6.535099e+00 3.938014e+01 6.829354e+00 5.626278e+01 1.538358e+01 1.170892e+01 2.668907e+01 2.091216e+01 1.873298e+01 1.001028e+01 1.137503e+01
<GCONST> 5.395752e+01
<STATE> 10
<MEAN> 12
 -3.553699e+00 -4.626336e+00 3.442432e+00 6.330134e-01 -1.390368e+01 1.404682e+01 2.346742e+00 -3.997205e+00 -1.064242e+00 -6.518835e+00 6.290657e+00 -1.547581e+00
<VARIANCE> 12
 1.641822e+00 6.535099e+00 6.967044e+00 6.829354e+00 2.291469e+01 4.499911e+01 3.037749e+01 1.958194e+01 7.222770e+00 1.414538e+01 2.859987e+01 2.035310e+01
<GCONST> 5.260994e+01
<STATE> 11
<MEAN> 12
 -3.708949e+00 -1.225128e+01 5.791081e+00 1.226284e+00 -2.182594e+00 8.279956e+00 -5.244533e+00 2.967249e+00 -7.475235e+00 1.629579e+00 7.920637e+00 -6.460783e+00
<VARIANCE> 12
 1.641822e+00 6.947990e+00 6.967044e+00 6.829354e+00 2.683603e+01 4.399201e+01 6.082962e+00 1.897747e+01 6.049439e+00 5.136848e+01 3.132478e+01 4.200938e+00
<GCONST> 5.079241e+01
<STATE> 12
<MEAN> 12
 -1.116642e+00 -7.465770e+00 1.309249e+01 1.269663e+01 9.580139e+00 -3.538559e-01 7.398906e-01 1.123331e+00 -2.694535e+00 6.043500e+00 -1.260280e+00 -4.908401e+00
<VARIANCE> 12
 1.641822e+00 2.421693e+01 9.737039e+00 1.610847e+01 1.068136e+01 7.028174e+00 2.230495e+01 1.157869e+01 1.532801e+01 9.830605e+00 1.830672e+01 8.109241e+00
<GCONST> 5.068052e+01
<TRANSP> 13
 0.000000e+00 1.000000e+00 0.000000e+00 0.000000e+00 0.000000e+00 0.000000e+00 0.000000e+00 0.000000e+00 0.000000e+00 0.000000e+00 0.000000e+00 0.000000e+00 0.000000e+00
 0.000000e+00 8.926072e-01 1.073929e-01 0.000000e+00 0.000000e+00 0.000000e+00 0.000000e+00 0.000000e+00 0.000000e+00 0.000000e+00 0.000000e+00 0.000000e+00 0.000000e+00
 0.000000e+00 0.000000e+00 8.949249e-01 1.050751e-01 0.000000e+00 0.000000e+00 0.000000e+00 0.000000e+00 0.000000e+00 0.000000e+00 0.000000e+00 0.000000e+00 0.000000e+00
 0.000000e+00 0.000000e+00 0.000000e+00 7.961904e-01 2.038096e-01 0.000000e+00 0.000000e+00 0.000000e+00 0.000000e+00 0.000000e+00 0.000000e+00 0.000000e+00 0.000000e+00
 0.000000e+00 0.000000e+00 0.000000e+00 0.000000e+00 6.380863e-01 3.619137e-01 0.000000e+00 0.000000e+00 0.000000e+00 0.000000e+00 0.000000e+00 0.000000e+00 0.000000e+00
 0.000000e+00 0.000000e+00 0.000000e+00 0.000000e+00 0.000000e+00 8.838391e-01 1.161609e-01 0.000000e+00 0.000000e+00 0.000000e+00 0.000000e+00 0.000000e+00 0.000000e+00
 0.000000e+00 0.000000e+00 0.000000e+00 0.000000e+00 0.000000e+00 0.000000e+00 8.513507e-01 1.486493e-01 0.000000e+00 0.000000e+00 0.000000e+00 0.000000e+00 0.000000e+00
 0.000000e+00 0.000000e+00 0.000000e+00 0.000000e+00 0.000000e+00 0.000000e+00 0.000000e+00 9.420112e-01 5.798877e-02 0.000000e+00 0.000000e+00 0.000000e+00 0.000000e+00
 0.000000e+00 0.000000e+00 0.000000e+00 0.000000e+00 0.000000e+00 0.000000e+00 0.000000e+00 0.000000e+00 7.406562e-01 2.593439e-01 0.000000e+00 0.000000e+00 0.000000e+00
 0.000000e+00 0.000000e+00 0.000000e+00 0.000000e+00 0.000000e+00 0.000000e+00 0.000000e+00 0.000000e+00 0.000000e+00 7.722018e-01 2.277982e-01 0.000000e+00 0.000000e+00
 0.000000e+00 0.000000e+00 0.000000e+00 0.000000e+00 0.000000e+00 0.000000e+00 0.000000e+00 0.000000e+00 0.000000e+00 0.000000e+00 8.215706e-01 1.784294e-01 0.000000e+00
 0.000000e+00 0.000000e+00 0.000000e+00 0.000000e+00 0.000000e+00 0.000000e+00 0.000000e+00 0.000000e+00 0.000000e+00 0.000000e+00 0.000000e+00 8.897569e-01 1.102431e-01
 0.000000e+00 0.000000e+00 0.000000e+00 0.000000e+00 0.000000e+00 0.000000e+00 0.000000e+00 0.000000e+00 0.000000e+00 0.000000e+00 0.000000e+00 0.000000e+00 0.000000e+00
<ENDHMM>
