~o
<STREAMINFO> 1 12
<VECSIZE> 12<NULLD><MFCC_Z><DIAGC>
~h "s002"
<BEGINHMM>
<NUMSTATES> 8
<STATE> 2
<MEAN> 12
 -2.150442e-07 1.495960e-07 2.617930e-07 2.991920e-07 -1.869950e-07 -9.349748e-08 -2.804924e-08 -1.682955e-07 -4.300884e-07 1.121970e-07 1.495960e-07 1.869950e-07
<VARIANCE> 12
 2.098345e+01 3.980618e+01 6.488239e+01 3.035281e+01 4.940095e+01 5.680334e+01 2.955461e+01 4.085969e+01 9.039709e+01 4.304421e+01 2.383824e+01 1.760707e+01
<GCONST> 6.570972e+01
<STATE> 3
<MEAN> 12
 -2.150442e-07 1.495960e-07 2.617930e-07 2.991920e-07 -1.869950e-07 -9.349748e-08 -2.804924e-08 -1.682955e-07 -4.300884e-07 1.121970e-07 1.495960e-07 1.869950e-07
<VARIANCE> 12
 2.098345e+01 3.980618e+01 6.488239e+01 3.035281e+01 4.940095e+01 5.680334e+01 2.955461e+01 4.085969e+01 9.039709e+01 4.304421e+01 2.383824e+01 1.760707e+01
<GCONST> 6.570972e+01
<STATE> 4
<MEAN> 12
 -2.150442e-07 1.495960e-07 2.617930e-07 2.991920e-07 -1.869950e-07 -9.349748e-08 -2.804924e-08 -1.682955e-07 -4.300884e-07 1.121970e-07 1.495960e-07 1.869950e-07
<VARIANCE> 12
 2.098345e+01 3.980618e+01 6.488239e+01 3.035281e+01 4.940095e+01 5.680334e+01 2.955461e+01 4.085969e+01 9.039709e+01 4.304421e+01 2.383824e+01 1.760707e+01
<GCONST> 6.570972e+01
<STATE> 5
<MEAN> 12
 -2.150442e-07 1.495960e-07 2.617930e-07 2.991920e-07 -1.869950e-07 -9.349748e-08 -2.804924e-08 -1.682955e-07 -4.300884e-07 1.121970e-07 1.495960e-07 1.869950e-07
<VARIANCE> 12
 2.098345e+01 3.980618e+01 6.488239e+01 3.035281e+01 4.940095e+01 5.680334e+01 2.955461e+01 4.085969e+01 9.039709e+01 4.304421e+01 2.383824e+01 1.760707e+01
<GCONST> 6.570972e+01
<STATE> 6
<MEAN> 12
 -2.150442e-07 1.495960e-07 2.617930e-07 2.991920e-07 -1.869950e-07 -9.349748e-08 -2.804924e-08 -1.682955e-07 -4.300884e-07 1.121970e-07 1.495960e-07 1.869950e-07
<VARIANCE> 12
 2.098345e+01 3.980618e+01 6.488239e+01 3.035281e+01 4.940095e+01 5.680334e+01 2.955461e+01 4.085969e+01 9.039709e+01 4.304421e+01 2.383824e+01 1.760707e+01
<GCONST> 6.570972e+01
<STATE> 7
<MEAN> 12
 -2.150442e-07 1.495960e-07 2.617930e-07 2.991920e-07 -1.869950e-07 -9.349748e-08 -2.804924e-08 -1.682955e-07 -4.300884e-07 1.121970e-07 1.495960e-07 1.869950e-07
<VARIANCE> 12
 2.098345e+01 3.980618e+01 6.488239e+01 3.035281e+01 4.940095e+01 5.680334e+01 2.955461e+01 4.085969e+01 9.039709e+01 4.304421e+01 2.383824e+01 1.760707e+01
<GCONST> 6.570972e+01
<TRANSP> 8
 0.000000e+00 1.000000e+00 0.000000e+00 0.000000e+00 0.000000e+00 0.000000e+00 0.000000e+00 0.000000e+00
 0.000000e+00 9.000000e-01 9.999999e-02 0.000000e+00 0.000000e+00 0.000000e+00 0.000000e+00 0.000000e+00
 0.000000e+00 0.000000e+00 9.000000e-01 9.999999e-02 0.000000e+00 0.000000e+00 0.000000e+00 0.000000e+00
 0.000000e+00 0.000000e+00 0.000000e+00 9.000000e-01 9.999999e-02 0.000000e+00 0.000000e+00 0.000000e+00
 0.000000e+00 0.000000e+00 0.000000e+00 0.000000e+00 9.000000e-01 9.999999e-02 0.000000e+00 0.000000e+00
 0.000000e+00 0.000000e+00 0.000000e+00 0.000000e+00 0.000000e+00 9.000000e-01 9.999999e-02 0.000000e+00
 0.000000e+00 0.000000e+00 0.000000e+00 0.000000e+00 0.000000e+00 0.000000e+00 9.000000e-01 9.999999e-02
 0.000000e+00 0.000000e+00 0.000000e+00 0.000000e+00 0.000000e+00 0.000000e+00 0.000000e+00 0.000000e+00
<ENDHMM>
