~o
<STREAMINFO> 1 12
<VECSIZE> 12<NULLD><MFCC_Z><DIAGC>
~h "s033"
<BEGINHMM>
<NUMSTATES> 8
<STATE> 2
<MEAN> 12
 -1.238027e+00 -1.083348e+01 9.438707e+00 3.006424e+00 2.743755e-01 -7.279475e+00 -1.455650e+00 -1.756145e+00 -5.875253e+00 5.244399e+00 2.339378e+00 -3.058795e-01
<VARIANCE> 12
 1.120100e+01 1.067712e+01 2.062115e+01 1.840168e+01 5.517504e+00 2.601533e+01 6.477867e+00 4.291655e+01 1.273012e+01 6.335060e+00 1.559976e+01 8.915111e+00
<GCONST> 5.269673e+01
<STATE> 3
<MEAN> 12
 -4.622873e-01 -3.088064e+00 4.431015e+00 2.193853e+00 -2.263560e+00 5.196525e+00 4.622304e+00 -5.799770e+00 1.827124e+00 2.561368e+00 5.381479e+00 -4.749959e+00
<VARIANCE> 12
 2.178423e+01 2.574010e+01 2.062115e+01 1.783744e+01 6.065692e+00 1.841855e+01 4.690897e+01 2.201154e+01 2.847886e+01 2.359275e+01 3.439603e+01 1.617567e+01
<GCONST> 5.877872e+01
<STATE> 4
<MEAN> 12
 -1.471259e+01 1.018193e+01 5.101129e+00 -6.162622e+00 6.912548e+00 2.282731e+00 3.509812e+00 2.987153e+00 7.505031e+00 3.318676e+00 3.256298e+00 8.039157e-01
<VARIANCE> 12
 1.120100e+01 1.067712e+01 2.062115e+01 4.462377e+01 1.609656e+01 9.951270e+00 3.415709e+01 3.365769e+01 3.531538e+01 3.253350e+01 7.825516e+00 1.608419e+01
<GCONST> 5.766855e+01
<STATE> 5
<MEAN> 12
 -1.467453e+00 5.461987e+00 1.113529e+01 -7.714748e+00 -1.132667e+01 -4.874159e+00 -6.012421e+00 8.736176e+00 -3.158757e+00 -2.871590e+00 -2.712505e+00 -4.208948e+00
<VARIANCE> 12
 1.120100e+01 1.907850e+01 3.039786e+01 5.900907e+01 1.258691e+01 9.601581e+00 1.053193e+01 1.334168e+01 1.504140e+02 1.255051e+01 2.089519e+01 5.324815e+01
<GCONST> 5.920868e+01
<STATE> 6
<MEAN> 12
 3.217180e+00 -7.196897e-01 -9.673418e+00 7.455175e-01 1.947539e+00 -6.252995e+00 1.056477e+00 7.995732e+00 -6.861537e+00 -5.311024e+00 -4.202313e+00 1.188629e+01
<VARIANCE> 12
 1.120100e+01 1.067712e+01 2.062115e+01 7.180243e+00 6.951693e+00 9.601581e+00 8.384700e+00 2.696351e+01 3.472592e+01 1.475761e+01 1.265581e+01 8.915111e+00
<GCONST> 5.242319e+01
<STATE> 7
<MEAN> 12
 7.679743e+00 2.984665e+00 -1.174744e+01 1.908968e+00 8.304853e-01 5.154612e+00 -2.026305e+00 -3.068065e+00 3.329148e+00 -3.731279e+00 -3.945605e+00 -8.821071e-01
<VARIANCE> 12
 1.120100e+01 1.067712e+01 2.896870e+01 7.512821e+00 5.517504e+00 2.507947e+01 6.608342e+00 1.486490e+01 2.937879e+01 1.113945e+01 1.560542e+01 3.334148e+01
<GCONST> 5.378395e+01
<TRANSP> 8
 0.000000e+00 1.000000e+00 0.000000e+00 0.000000e+00 0.000000e+00 0.000000e+00 0.000000e+00 0.000000e+00
 0.000000e+00 9.040487e-01 9.595123e-02 0.000000e+00 0.000000e+00 0.000000e+00 0.000000e+00 0.000000e+00
 0.000000e+00 0.000000e+00 8.917037e-01 1.082963e-01 0.000000e+00 0.000000e+00 0.000000e+00 0.000000e+00
 0.000000e+00 0.000000e+00 0.000000e+00 8.638304e-01 1.361696e-01 0.000000e+00 0.000000e+00 0.000000e+00
 0.000000e+00 0.000000e+00 0.000000e+00 0.000000e+00 8.019711e-01 1.980289e-01 0.000000e+00 0.000000e+00
 0.000000e+00 0.000000e+00 0.000000e+00 0.000000e+00 0.000000e+00 8.421311e-01 1.578688e-01 0.000000e+00
 0.000000e+00 0.000000e+00 0.000000e+00 0.000000e+00 0.000000e+00 0.000000e+00 9.315827e-01 6.841727e-02
 0.000000e+00 0.000000e+00 0.000000e+00 0.000000e+00 0.000000e+00 0.000000e+00 0.000000e+00 0.000000e+00
<ENDHMM>
