~o
<STREAMINFO> 1 12
<VECSIZE> 12<NULLD><MFCC_Z><DIAGC>
~h "T1375865333"
<BEGINHMM>
<NUMSTATES> 13
<STATE> 2
<MEAN> 12
 2.716295e+00 5.863074e+00 -1.077835e+00 -8.142197e+00 3.880889e-01 -4.989452e+00 -9.999259e+00 -6.602992e+00 3.999500e+00 -5.069791e-01 6.313859e+00 -2.180767e-01
<VARIANCE> 12
 1.731404e+00 6.535099e+00 9.422941e+00 6.829354e+00 3.516069e+01 1.136018e+01 2.905758e+01 2.016849e+01 1.314029e+01 2.833393e+01 7.078539e+00 4.200938e+00
<GCONST> 5.032058e+01
<STATE> 3
<MEAN> 12
 4.084179e+00 7.337749e+00 1.084495e+00 -7.571261e+00 -9.786317e-02 -1.363157e+00 -3.722958e+00 -6.378356e+00 6.485777e+00 4.608921e+00 -1.461599e+00 -7.461264e-01
<VARIANCE> 12
 1.641822e+00 6.535099e+00 6.967044e+00 3.010025e+01 7.175174e+00 1.220131e+01 8.683600e+00 2.536001e+01 1.760351e+01 1.701921e+01 7.078539e+00 2.146243e+01
<GCONST> 5.036584e+01
<STATE> 4
<MEAN> 12
 5.381474e+00 1.009031e+01 -2.749960e+00 -3.191305e+00 3.667670e+00 3.457029e+00 4.560900e+00 -2.256054e+00 8.245366e+00 -2.165616e+00 -8.158290e+00 -6.215240e+00
<VARIANCE> 12
 1.641822e+00 6.535099e+00 6.967044e+00 6.829354e+00 7.175174e+00 8.129374e+00 1.188001e+01 7.095842e+00 6.049439e+00 4.689234e+00 1.645265e+01 1.266147e+01
<GCONST> 4.547470e+01
<STATE> 5
<MEAN> 12
 2.954172e+00 6.579824e+00 -6.370366e+00 6.054156e+00 5.253654e+00 1.218123e+00 3.726378e+00 5.087107e+00 4.173704e+00 -6.010759e+00 -1.189080e+01 1.819145e+00
<VARIANCE> 12
 1.641822e+00 6.535099e+00 6.967044e+00 6.829354e+00 7.175174e+00 6.904915e+00 6.082962e+00 8.314088e+00 3.327300e+01 4.689234e+00 1.069432e+01 2.621116e+01
<GCONST> 4.680215e+01
<STATE> 6
<MEAN> 12
 4.578344e-02 1.376379e+00 -1.311668e+00 4.814439e+00 -2.405379e+00 -7.931267e-01 2.121006e+00 4.112879e+00 -3.365361e+00 -1.845567e+00 1.053768e+00 8.457590e-01
<VARIANCE> 12
 2.994300e+00 6.535099e+00 3.250383e+01 7.276675e+00 2.174391e+01 1.966247e+01 1.252405e+01 1.204494e+01 9.752267e+00 5.783796e+00 1.318504e+01 1.395821e+01
<GCONST> 5.081650e+01
<STATE> 7
<MEAN> 12
 -4.344648e+00 -6.846424e-01 -3.459655e+00 -3.500134e-01 -6.895129e+00 3.727954e+00 7.699497e+00 -5.885444e+00 -8.442956e+00 -4.958861e+00 7.645901e+00 1.286976e-01
<VARIANCE> 12
 1.641822e+00 6.535099e+00 6.967044e+00 6.829354e+00 2.613239e+01 7.106003e+00 2.748857e+01 5.484188e+01 3.063234e+01 1.019587e+01 2.232409e+01 1.815913e+01
<GCONST> 5.258117e+01
<STATE> 8
<MEAN> 12
 -6.254913e-01 -1.511271e+00 -6.584941e+00 -5.076489e-01 2.548197e+00 -5.131073e+00 1.383464e+00 7.611101e+00 6.476001e-01 1.129247e+00 -5.182555e+00 5.341650e+00
<VARIANCE> 12
 5.088282e+00 6.535099e+00 1.960297e+01 6.829354e+00 7.175174e+00 2.686690e+01 8.243713e+00 8.037144e+00 1.872702e+01 2.021744e+01 8.142855e+00 7.878632e+00
<GCONST> 5.000842e+01
<STATE> 9
<MEAN> 12
 -2.242228e+00 -4.905981e+00 3.716703e+00 -5.936791e-01 -4.890124e+00 -1.757076e+00 1.741522e+00 -7.936761e-02 5.196120e-02 -5.356834e-01 -4.179076e+00 6.986955e+00
<VARIANCE> 12
 3.079737e+00 6.535099e+00 1.337784e+01 6.985148e+00 4.168268e+01 6.635644e+00 6.082962e+00 1.205810e+01 2.808973e+01 1.682413e+01 7.078539e+00 8.649974e+00
<GCONST> 4.978455e+01
<STATE> 10
<MEAN> 12
 -3.572750e+00 -4.011301e+00 3.381662e+00 3.579234e-01 -1.529434e+01 1.539464e+01 4.070904e+00 -4.375858e+00 -6.656745e-01 -7.863875e+00 6.337502e+00 -1.594910e+00
<VARIANCE> 12
 1.641822e+00 6.535099e+00 6.967044e+00 6.829354e+00 1.378694e+01 2.704524e+01 2.923657e+01 2.159230e+01 6.049439e+00 6.941505e+00 1.061577e+01 9.698630e+00
<GCONST> 4.903074e+01
<STATE> 11
<MEAN> 12
 -3.736610e+00 -1.251797e+01 5.843395e+00 1.280332e+00 -1.605098e+00 8.074000e+00 -5.356547e+00 3.122982e+00 -7.731130e+00 2.186878e+00 7.974665e+00 -6.639280e+00
<VARIANCE> 12
 1.641822e+00 6.535099e+00 6.967044e+00 6.829354e+00 2.581279e+01 4.054987e+01 6.082962e+00 1.676592e+01 6.049439e+00 5.138225e+01 3.543877e+01 4.200938e+00
<GCONST> 5.061055e+01
<STATE> 12
<MEAN> 12
 -9.909283e-01 -7.105012e+00 1.335889e+01 1.314131e+01 9.758309e+00 -5.437652e-01 9.913152e-01 9.492785e-01 -2.467240e+00 5.798626e+00 -1.368762e+00 -4.893075e+00
<VARIANCE> 12
 1.641822e+00 2.233769e+01 8.552786e+00 1.237849e+01 1.006845e+01 6.635644e+00 2.173149e+01 1.141297e+01 1.482591e+01 8.810771e+00 1.886072e+01 8.405343e+00
<GCONST> 4.997250e+01
<TRANSP> 13
 0.000000e+00 1.000000e+00 0.000000e+00 0.000000e+00 0.000000e+00 0.000000e+00 0.000000e+00 0.000000e+00 0.000000e+00 0.000000e+00 0.000000e+00 0.000000e+00 0.000000e+00
 0.000000e+00 9.006312e-01 9.936876e-02 0.000000e+00 0.000000e+00 0.000000e+00 0.000000e+00 0.000000e+00 0.000000e+00 0.000000e+00 0.000000e+00 0.000000e+00 0.000000e+00
 0.000000e+00 0.000000e+00 8.875429e-01 1.124571e-01 0.000000e+00 0.000000e+00 0.000000e+00 0.000000e+00 0.000000e+00 0.000000e+00 0.000000e+00 0.000000e+00 0.000000e+00
 0.000000e+00 0.000000e+00 0.000000e+00 7.979844e-01 2.020156e-01 0.000000e+00 0.000000e+00 0.000000e+00 0.000000e+00 0.000000e+00 0.000000e+00 0.000000e+00 0.000000e+00
 0.000000e+00 0.000000e+00 0.000000e+00 0.000000e+00 7.021509e-01 2.978491e-01 0.000000e+00 0.000000e+00 0.000000e+00 0.000000e+00 0.000000e+00 0.000000e+00 0.000000e+00
 0.000000e+00 0.000000e+00 0.000000e+00 0.000000e+00 0.000000e+00 8.619545e-01 1.380455e-01 0.000000e+00 0.000000e+00 0.000000e+00 0.000000e+00 0.000000e+00 0.000000e+00
 0.000000e+00 0.000000e+00 0.000000e+00 0.000000e+00 0.000000e+00 0.000000e+00 8.742468e-01 1.257532e-01 0.000000e+00 0.000000e+00 0.000000e+00 0.000000e+00 0.000000e+00
 0.000000e+00 0.000000e+00 0.000000e+00 0.000000e+00 0.000000e+00 0.000000e+00 0.000000e+00 9.391181e-01 6.088192e-02 0.000000e+00 0.000000e+00 0.000000e+00 0.000000e+00
 0.000000e+00 0.000000e+00 0.000000e+00 0.000000e+00 0.000000e+00 0.000000e+00 0.000000e+00 0.000000e+00 7.572938e-01 2.427062e-01 0.000000e+00 0.000000e+00 0.000000e+00
 0.000000e+00 0.000000e+00 0.000000e+00 0.000000e+00 0.000000e+00 0.000000e+00 0.000000e+00 0.000000e+00 0.000000e+00 7.572035e-01 2.427966e-01 0.000000e+00 0.000000e+00
 0.000000e+00 0.000000e+00 0.000000e+00 0.000000e+00 0.000000e+00 0.000000e+00 0.000000e+00 0.000000e+00 0.000000e+00 0.000000e+00 8.387197e-01 1.612803e-01 0.000000e+00
 0.000000e+00 0.000000e+00 0.000000e+00 0.000000e+00 0.000000e+00 0.000000e+00 0.000000e+00 0.000000e+00 0.000000e+00 0.000000e+00 0.000000e+00 8.847409e-01 1.152591e-01
 0.000000e+00 0.000000e+00 0.000000e+00 0.000000e+00 0.000000e+00 0.000000e+00 0.000000e+00 0.000000e+00 0.000000e+00 0.000000e+00 0.000000e+00 0.000000e+00 0.000000e+00
<ENDHMM>
