~o
<STREAMINFO> 1 12
<VECSIZE> 12<NULLD><MFCC_Z><DIAGC>
~h "s028"
<BEGINHMM>
<NUMSTATES> 8
<STATE> 2
<MEAN> 12
 -2.193096e+00 1.578063e+01 -1.436383e+00 -9.513332e+00 -4.336957e+00 -2.982732e+00 -1.010400e+01 6.069243e+00 9.980988e+00 1.936899e+00 8.488886e+00 -7.122767e+00
<VARIANCE> 12
 3.057881e+00 2.786051e+01 6.688826e+00 1.923131e+01 6.380173e+01 1.008627e+01 6.881180e+00 2.414611e+01 2.162565e+01 5.496326e+00 9.517747e+00 2.063881e+01
<GCONST> 5.299459e+01
<STATE> 3
<MEAN> 12
 -2.649222e-01 9.135876e+00 1.473937e+00 -1.481670e+01 1.826781e+00 -8.070054e-02 -4.302951e+00 -4.385469e+00 1.432300e+01 3.346267e+00 4.822294e+00 -3.055001e+00
<VARIANCE> 12
 6.401140e+00 2.786051e+01 3.465502e+00 1.859234e+01 7.174047e+00 1.318085e+01 1.381328e+01 8.852736e+00 2.162565e+01 1.676596e+01 3.719310e+01 8.051776e+00
<GCONST> 5.235465e+01
<STATE> 4
<MEAN> 12
 -7.509674e+00 1.129356e+01 7.561841e-01 -5.000662e+00 8.970928e-01 5.881294e+00 5.852581e+00 3.268044e-03 7.866019e+00 6.492658e+00 -1.329198e+00 3.314585e+00
<VARIANCE> 12
 1.326509e+01 2.786051e+01 2.328560e+00 1.859234e+01 1.418052e+01 1.292615e+01 1.342856e+01 1.512677e+01 2.162565e+01 2.171590e+01 1.112119e+01 8.318985e+00
<GCONST> 5.293916e+01
<STATE> 5
<MEAN> 12
 1.941251e-01 -9.022846e+00 4.864655e-01 3.951818e+00 -1.007360e+01 8.049848e+00 2.492952e+00 -2.164597e+00 -4.204643e+00 -7.209073e+00 5.482519e-01 -4.241588e+00
<VARIANCE> 12
 3.092098e+00 3.328022e+01 6.092874e+00 1.859234e+01 2.974792e+01 4.339649e+00 9.789709e+00 1.022066e+01 2.162565e+01 2.799235e+01 2.424165e+01 1.857699e+01
<GCONST> 5.340031e+01
<STATE> 6
<MEAN> 12
 2.183922e+00 -1.719048e+01 -4.830632e-01 1.092743e+01 1.342120e+00 -1.629448e-01 2.151381e+00 3.234084e+00 -1.371859e+01 -3.175241e+00 1.535591e+00 2.907664e+00
<VARIANCE> 12
 3.057881e+00 2.786051e+01 8.074716e-01 1.859234e+01 1.844187e+01 2.115829e+01 6.881180e+00 6.106206e+00 2.162565e+01 8.053992e+00 1.650329e+01 1.382737e+01
<GCONST> 4.950337e+01
<STATE> 7
<MEAN> 12
 4.872377e+00 -1.229713e+01 -1.021819e-01 1.215206e+01 4.725535e+00 -3.649841e+00 5.242774e+00 -2.964982e+00 -1.235054e+01 -2.952670e+00 -9.671515e+00 5.603301e+00
<VARIANCE> 12
 3.057881e+00 2.786051e+01 5.790308e+00 1.859234e+01 6.518568e+00 1.277442e+01 6.912177e+00 1.715795e+01 2.162565e+01 1.185808e+01 2.233231e+01 1.484175e+01
<GCONST> 5.172660e+01
<TRANSP> 8
 0.000000e+00 1.000000e+00 0.000000e+00 0.000000e+00 0.000000e+00 0.000000e+00 0.000000e+00 0.000000e+00
 0.000000e+00 9.052873e-01 9.471268e-02 0.000000e+00 0.000000e+00 0.000000e+00 0.000000e+00 0.000000e+00
 0.000000e+00 0.000000e+00 8.746991e-01 1.253009e-01 0.000000e+00 0.000000e+00 0.000000e+00 0.000000e+00
 0.000000e+00 0.000000e+00 0.000000e+00 8.662511e-01 1.337489e-01 0.000000e+00 0.000000e+00 0.000000e+00
 0.000000e+00 0.000000e+00 0.000000e+00 0.000000e+00 7.918928e-01 2.081072e-01 0.000000e+00 0.000000e+00
 0.000000e+00 0.000000e+00 0.000000e+00 0.000000e+00 0.000000e+00 8.492696e-01 1.507304e-01 0.000000e+00
 0.000000e+00 0.000000e+00 0.000000e+00 0.000000e+00 0.000000e+00 0.000000e+00 9.261703e-01 7.382964e-02
 0.000000e+00 0.000000e+00 0.000000e+00 0.000000e+00 0.000000e+00 0.000000e+00 0.000000e+00 0.000000e+00
<ENDHMM>
