~o
<STREAMINFO> 1 12
<VECSIZE> 12<NULLD><MFCC_Z><DIAGC>
~h "s004"
<BEGINHMM>
<NUMSTATES> 7
<STATE> 2
<MEAN> 12
 1.222900e-01 1.902465e+00 3.564950e+00 3.778187e-01 -4.321634e-01 -1.820586e+00 7.117138e+00 -1.059040e+00 -2.685475e+00 -5.338969e+00 3.486013e+00 2.087872e+00
<VARIANCE> 12
 3.750437e+00 3.641751e+01 5.641526e+01 4.689811e+01 6.095914e+01 1.148272e+01 3.339514e+01 1.089242e+01 1.750838e+01 3.866388e+01 2.336931e+01 1.030531e+01
<GCONST> 5.930136e+01
<STATE> 3
<MEAN> 12
 5.067946e+00 6.040835e+00 -8.108481e+00 -6.018631e+00 4.841729e+00 6.950982e+00 9.617789e-01 -4.257438e+00 7.425768e+00 -5.362749e+00 -4.903813e-01 -3.527541e+00
<VARIANCE> 12
 3.750437e+00 1.010859e+01 6.905014e+00 1.354985e+01 9.322065e+00 1.220234e+01 9.309180e+00 1.328836e+01 1.397846e+01 1.505888e+01 3.620305e+00 1.641628e+01
<GCONST> 4.921463e+01
<STATE> 4
<MEAN> 12
 5.057127e+00 8.725728e+00 2.658739e+00 -5.830801e+00 -7.038203e+00 1.127375e+01 -9.621150e+00 2.186429e+00 2.050684e+00 5.490088e+00 -3.932997e+00 -2.780905e+00
<VARIANCE> 12
 4.194605e+00 9.621481e+00 1.694043e+01 7.855640e+00 5.495544e+00 2.211508e+01 3.210584e+01 2.343270e+01 2.359580e+01 6.758263e+00 7.147177e+00 2.092212e+01
<GCONST> 5.214598e+01
<STATE> 5
<MEAN> 12
 -4.361420e+00 -4.515129e+00 -9.719200e+00 -2.556495e-01 -2.597038e+00 -7.431638e+00 1.878092e+00 3.439924e+00 -8.624883e+00 -4.328892e+00 -4.113318e+00 8.020329e+00
<VARIANCE> 12
 5.871601e+00 1.374847e+01 6.905014e+00 3.547165e+01 1.459646e+01 1.148272e+01 7.030002e+00 7.526748e+00 7.638048e+00 6.758263e+00 3.739930e+01 1.635395e+01
<GCONST> 5.139687e+01
<STATE> 6
<MEAN> 12
 -5.276454e+00 -9.250366e+00 2.959324e+00 6.960493e+00 2.154101e+00 -8.198401e+00 1.182226e-03 1.247826e+00 -2.086292e+00 4.472379e+00 1.181612e+00 6.977319e-01
<VARIANCE> 12
 9.183739e+00 9.621481e+00 1.007444e+01 2.011311e+01 1.077252e+01 2.708072e+01 7.030002e+00 1.764644e+01 1.125301e+01 2.031525e+01 2.190580e+01 1.635096e+01
<GCONST> 5.365691e+01
<TRANSP> 7
 0.000000e+00 1.000000e+00 0.000000e+00 0.000000e+00 0.000000e+00 0.000000e+00 0.000000e+00
 0.000000e+00 9.005183e-01 9.948171e-02 0.000000e+00 0.000000e+00 0.000000e+00 0.000000e+00
 0.000000e+00 0.000000e+00 8.888352e-01 1.111649e-01 0.000000e+00 0.000000e+00 0.000000e+00
 0.000000e+00 0.000000e+00 0.000000e+00 8.882969e-01 1.117031e-01 0.000000e+00 0.000000e+00
 0.000000e+00 0.000000e+00 0.000000e+00 0.000000e+00 6.827487e-01 3.172514e-01 0.000000e+00
 0.000000e+00 0.000000e+00 0.000000e+00 0.000000e+00 0.000000e+00 9.326503e-01 6.734969e-02
 0.000000e+00 0.000000e+00 0.000000e+00 0.000000e+00 0.000000e+00 0.000000e+00 0.000000e+00
<ENDHMM>
