~o
<STREAMINFO> 1 12
<VECSIZE> 12<NULLD><MFCC_Z><DIAGC>
~h "T1375864576"
<BEGINHMM>
<NUMSTATES> 8
<STATE> 2
<MEAN> 12
 -4.200590e+00 -1.168315e+01 9.609500e+00 3.055659e+00 6.331761e+00 1.500382e-01 1.008347e+01 -8.775067e+00 -5.703446e+00 3.797323e+00 1.774158e+00 -4.271274e+00
<VARIANCE> 12
 4.476967e+00 1.015541e+01 1.788247e+01 4.366802e+00 3.667874e+01 9.164438e+00 1.993725e+01 2.312566e+01 1.960955e+01 3.825320e+01 2.134611e+01 7.051954e+00
<GCONST> 5.381481e+01
<STATE> 3
<MEAN> 12
 -5.571856e+00 -2.372954e+00 7.047991e+00 -5.314704e+00 5.680788e+00 8.029548e+00 2.044023e+00 -3.710173e+00 2.003608e+00 -4.214853e+00 -6.973568e-01 -5.678860e-02
<VARIANCE> 12
 4.476967e+00 7.550319e+01 1.590396e+01 9.123057e+00 1.232258e+01 2.300701e+01 7.779138e+00 5.143698e+01 6.558130e+00 6.507788e+01 1.065768e+01 5.224153e+00
<GCONST> 5.456992e+01
<STATE> 4
<MEAN> 12
 -2.189230e+00 3.554046e+00 7.979738e+00 3.036592e+00 3.111134e+00 1.425396e+00 -7.373054e-01 3.735660e+00 7.541881e-01 5.428917e-01 8.842981e-01 4.260039e-01
<VARIANCE> 12
 6.529013e+00 2.693722e+01 1.590396e+01 2.465989e+01 4.775312e+01 1.409745e+01 8.021010e+00 7.973919e+00 2.341026e+01 2.313537e+01 2.705743e+01 7.408532e+00
<GCONST> 5.546144e+01
<STATE> 5
<MEAN> 12
 -1.970034e+00 4.651339e+00 -4.485993e-01 4.210169e+00 -1.881979e+01 -1.064987e+01 1.351057e+00 5.359953e+00 -6.173839e+00 -1.800960e+00 -6.245221e-01 5.639821e+00
<VARIANCE> 12
 1.276953e+01 8.597681e+00 3.636205e+01 6.111452e+00 3.364153e+01 8.099287e+01 8.350547e+00 1.451958e+01 4.415858e+01 4.854909e+00 1.495706e+01 7.780805e+00
<GCONST> 5.498933e+01
<STATE> 6
<MEAN> 12
 5.407416e+00 5.687848e+00 -1.462384e+01 -2.425526e+00 -8.037436e+00 -8.815022e+00 -6.958407e+00 4.281009e+00 1.345345e+00 1.664333e+00 -2.417442e-01 4.934130e+00
<VARIANCE> 12
 4.476967e+00 8.597681e+00 1.590396e+01 1.414865e+01 1.256765e+01 2.504200e+01 1.398411e+01 1.440298e+01 9.534582e+00 4.854909e+00 1.324567e+01 2.385404e+01
<GCONST> 5.176873e+01
<STATE> 7
<MEAN> 12
 7.233547e+00 1.598335e+00 -9.544510e+00 -2.578056e-01 2.002122e+00 3.793526e+00 -4.306086e+00 1.134200e+00 3.952403e+00 -5.039102e-01 -1.261834e+00 -3.838402e+00
<VARIANCE> 12
 4.564854e+00 8.597681e+00 2.012199e+01 4.924284e+00 1.416449e+01 1.298894e+01 6.135571e+00 1.111679e+01 2.045217e+01 9.001694e+00 1.092703e+01 1.496308e+01
<GCONST> 5.007012e+01
<TRANSP> 8
 0.000000e+00 1.000000e+00 0.000000e+00 0.000000e+00 0.000000e+00 0.000000e+00 0.000000e+00 0.000000e+00
 0.000000e+00 8.784964e-01 1.215036e-01 0.000000e+00 0.000000e+00 0.000000e+00 0.000000e+00 0.000000e+00
 0.000000e+00 0.000000e+00 8.900002e-01 1.099998e-01 0.000000e+00 0.000000e+00 0.000000e+00 0.000000e+00
 0.000000e+00 0.000000e+00 0.000000e+00 8.931098e-01 1.068902e-01 0.000000e+00 0.000000e+00 0.000000e+00
 0.000000e+00 0.000000e+00 0.000000e+00 0.000000e+00 7.692800e-01 2.307201e-01 0.000000e+00 0.000000e+00
 0.000000e+00 0.000000e+00 0.000000e+00 0.000000e+00 0.000000e+00 8.850111e-01 1.149889e-01 0.000000e+00
 0.000000e+00 0.000000e+00 0.000000e+00 0.000000e+00 0.000000e+00 0.000000e+00 8.923889e-01 1.076111e-01
 0.000000e+00 0.000000e+00 0.000000e+00 0.000000e+00 0.000000e+00 0.000000e+00 0.000000e+00 0.000000e+00
<ENDHMM>
