~o
<STREAMINFO> 1 12
<VECSIZE> 12<NULLD><MFCC_Z><DIAGC>
~h "s095"
<BEGINHMM>
<NUMSTATES> 9
<STATE> 2
<MEAN> 12
 4.886536e+00 8.263202e+00 -3.743501e+00 -7.229554e+00 -5.907803e-01 -3.023594e+00 -7.367147e+00 -6.964341e-01 5.654324e+00 9.788890e+00 -3.723977e+00 -1.188182e+00
<VARIANCE> 12
 1.178782e+01 1.944443e+01 6.872923e+01 2.908274e+01 3.603008e+01 2.838377e+01 5.191885e+01 4.178937e+01 1.989067e+01 1.213532e+02 2.814449e+01 3.630520e+01
<GCONST> 6.442023e+01
<STATE> 3
<MEAN> 12
 1.225059e+00 3.846580e+00 -4.367492e+00 -2.762628e+00 -1.121370e+00 -8.891733e-01 -2.102211e+00 1.588032e+00 3.729057e+00 1.200485e+00 -1.699255e+00 2.171635e+00
<VARIANCE> 12
 1.900978e+01 4.340438e+01 6.097538e+01 3.993563e+01 5.406478e+01 4.587570e+01 3.545193e+01 6.314297e+01 2.997591e+01 1.368421e+02 6.253535e+01 3.208551e+01
<GCONST> 6.802084e+01
<STATE> 4
<MEAN> 12
 -1.594237e+00 -8.943751e-01 -3.420326e-01 1.393626e+00 -2.025296e+00 1.302127e+00 -1.033853e+00 1.146975e+00 1.551908e+00 -3.619629e+00 2.341497e+00 7.188887e-01
<VARIANCE> 12
 1.482870e+01 5.880884e+01 4.589114e+01 2.913165e+01 6.801456e+01 5.730588e+01 3.910850e+01 5.374797e+01 3.613377e+01 6.174706e+01 7.746603e+01 3.256948e+01
<GCONST> 6.748574e+01
<STATE> 5
<MEAN> 12
 -2.706060e+00 -4.373683e+00 1.904215e+00 3.500560e+00 -1.842470e-01 2.692625e+00 -1.214290e+00 -1.185652e+00 7.878724e-02 -3.440470e+00 4.834619e+00 -2.052194e+00
<VARIANCE> 12
 1.162475e+01 5.127330e+01 2.496269e+01 2.296050e+01 6.489597e+01 5.295939e+01 4.482744e+01 4.421417e+01 3.187403e+01 4.034681e+01 6.536031e+01 3.186727e+01
<GCONST> 6.533097e+01
<STATE> 6
<MEAN> 12
 -2.259739e+00 -4.312238e+00 2.952107e+00 2.998244e+00 7.514741e-01 2.320177e+00 -3.794534e-02 -2.643076e+00 -4.697934e-01 -1.846093e+00 2.617474e+00 -3.255384e+00
<VARIANCE> 12
 1.648898e+01 4.226012e+01 2.443080e+01 2.431899e+01 4.592576e+01 5.747356e+01 4.610287e+01 4.331083e+01 2.795788e+01 3.442962e+01 7.861539e+01 3.649997e+01
<GCONST> 6.529729e+01
<STATE> 7
<MEAN> 12
 -7.121158e-01 -1.674005e+00 2.966254e+00 8.256412e-01 1.769078e-01 -4.435780e-01 3.114531e+00 -1.150018e+00 -2.434402e+00 -1.102537e+00 -1.837361e+00 -1.332381e+00
<VARIANCE> 12
 1.961652e+01 3.117365e+01 2.778613e+01 2.384708e+01 3.495247e+01 6.582809e+01 4.659967e+01 5.364057e+01 3.665645e+01 2.726849e+01 7.320629e+01 5.937311e+01
<GCONST> 6.581606e+01
<STATE> 8
<MEAN> 12
 1.160481e+00 -8.555952e-01 6.305781e-01 1.274237e+00 2.993285e+00 -1.958475e+00 8.640910e+00 2.940138e+00 -8.109865e+00 -9.807410e-01 -2.532836e+00 4.937586e+00
<VARIANCE> 12
 1.013362e+01 1.214896e+01 2.138009e+01 2.014473e+01 4.082867e+01 4.454102e+01 3.986548e+01 3.887304e+01 4.280429e+01 1.616786e+01 3.876377e+01 6.649775e+01
<GCONST> 6.217895e+01
<TRANSP> 9
 0.000000e+00 1.000000e+00 0.000000e+00 0.000000e+00 0.000000e+00 0.000000e+00 0.000000e+00 0.000000e+00 0.000000e+00
 0.000000e+00 8.793104e-01 1.206897e-01 0.000000e+00 0.000000e+00 0.000000e+00 0.000000e+00 0.000000e+00 0.000000e+00
 0.000000e+00 0.000000e+00 8.793104e-01 1.206897e-01 0.000000e+00 0.000000e+00 0.000000e+00 0.000000e+00 0.000000e+00
 0.000000e+00 0.000000e+00 0.000000e+00 8.793103e-01 1.206897e-01 0.000000e+00 0.000000e+00 0.000000e+00 0.000000e+00
 0.000000e+00 0.000000e+00 0.000000e+00 0.000000e+00 8.793104e-01 1.206897e-01 0.000000e+00 0.000000e+00 0.000000e+00
 0.000000e+00 0.000000e+00 0.000000e+00 0.000000e+00 0.000000e+00 8.793103e-01 1.206896e-01 0.000000e+00 0.000000e+00
 0.000000e+00 0.000000e+00 0.000000e+00 0.000000e+00 0.000000e+00 0.000000e+00 8.793103e-01 1.206897e-01 0.000000e+00
 0.000000e+00 0.000000e+00 0.000000e+00 0.000000e+00 0.000000e+00 0.000000e+00 0.000000e+00 8.793104e-01 1.206897e-01
 0.000000e+00 0.000000e+00 0.000000e+00 0.000000e+00 0.000000e+00 0.000000e+00 0.000000e+00 0.000000e+00 0.000000e+00
<ENDHMM>
