~o
<STREAMINFO> 1 12
<VECSIZE> 12<NULLD><MFCC_Z><DIAGC>
~h "s063"
<BEGINHMM>
<NUMSTATES> 13
<STATE> 2
<MEAN> 12
 -5.319288e+00 -1.126590e+01 -1.689595e-03 1.314504e+01 1.321190e+01 1.184340e+01 7.214655e+00 -8.630886e-01 1.101727e-01 -4.699961e+00 8.090748e+00 5.181756e+00
<VARIANCE> 12
 2.783672e+00 1.075280e+01 7.869308e+00 2.227267e+01 9.913650e+00 1.810802e+01 1.145591e+01 2.597239e+01 2.099407e+01 2.082524e+01 2.403719e+01 2.069186e+01
<GCONST> 5.379535e+01
<STATE> 3
<MEAN> 12
 5.875731e+00 -3.036713e+00 2.416836e+00 4.414059e+00 2.713153e+00 -4.646590e+00 -3.617573e+00 5.040557e+00 6.148846e+00 -4.789904e+00 -4.487947e-01 -1.168932e+00
<VARIANCE> 12
 2.783672e+00 1.075280e+01 5.196895e+00 2.227267e+01 3.739369e+01 3.621106e+01 1.278146e+01 3.171366e+01 1.130721e+01 1.691035e+01 8.716954e+00 5.684297e+00
<GCONST> 5.257684e+01
<STATE> 4
<MEAN> 12
 -1.404353e+00 1.625143e+00 1.103823e+01 -8.294971e+00 -6.908009e+00 3.075644e+00 -6.242245e+00 7.096117e+00 2.609522e+00 -2.586557e+00 8.156697e+00 -8.793497e+00
<VARIANCE> 12
 1.089507e+01 1.168413e+01 9.691899e+00 3.367581e+01 9.660585e+00 2.897559e+01 3.293106e+01 1.076440e+01 6.806823e+00 1.452787e+01 8.639881e+00 7.811827e+00
<GCONST> 5.300032e+01
<STATE> 5
<MEAN> 12
 -4.619779e+00 1.335918e+01 3.918562e+00 -1.372009e+01 -4.906103e+00 3.796925e-01 -1.111091e+01 1.028652e+01 5.295149e+00 1.544902e+00 7.589155e+00 -5.040522e+00
<VARIANCE> 12
 2.783672e+00 1.075280e+01 6.664651e+00 2.227267e+01 1.660341e+01 1.018234e+01 8.200278e+00 1.076440e+01 6.326406e+00 2.921737e+01 1.968451e+01 4.987003e+01
<GCONST> 5.217307e+01
<STATE> 6
<MEAN> 12
 -4.747025e+00 6.228979e+00 2.696385e+00 -2.023121e+01 1.551673e+00 4.373693e+00 -6.737612e+00 2.925256e+00 8.739997e-01 1.166268e+01 3.594636e-01 -1.949680e+00
<VARIANCE> 12
 2.783672e+00 1.075280e+01 5.196895e+00 2.227267e+01 9.660585e+00 1.018234e+01 1.824686e+01 2.469277e+01 5.919756e+00 8.703270e+00 8.190986e+00 5.684297e+00
<GCONST> 4.868684e+01
<STATE> 7
<MEAN> 12
 3.255653e+00 1.926477e+00 1.785090e+00 -1.143682e+01 -2.719445e+00 -1.268305e+00 8.547936e-01 -3.764809e+00 7.806888e+00 3.180582e+00 -4.834959e+00 6.566160e-01
<VARIANCE> 12
 2.783672e+00 1.075280e+01 5.196895e+00 2.227267e+01 9.660585e+00 1.018234e+01 8.200278e+00 1.076440e+01 6.331885e+00 1.932540e+01 2.993106e+01 2.655034e+01
<GCONST> 5.075896e+01
<STATE> 8
<MEAN> 12
 6.066525e+00 6.168669e+00 -9.094112e-01 -6.769352e+00 -3.787757e+00 -9.064801e-01 6.977804e+00 -6.295964e+00 2.007385e+00 -3.839135e+00 -1.093151e+01 1.670280e+00
<VARIANCE> 12
 2.783672e+00 1.075280e+01 5.196895e+00 2.227267e+01 9.660585e+00 1.018234e+01 1.089578e+01 1.076440e+01 1.654360e+01 1.282816e+01 1.480698e+01 7.735535e+00
<GCONST> 4.965678e+01
<STATE> 9
<MEAN> 12
 1.516097e+00 7.088218e-03 2.728370e+00 1.593949e+00 -1.014435e+01 -1.099526e+01 4.744276e+00 3.029521e+00 -6.234850e+00 1.178495e+01 -1.582621e+00 -2.477678e+00
<VARIANCE> 12
 2.783672e+00 1.075280e+01 1.997979e+01 2.227267e+01 9.660585e+00 1.572892e+01 8.200278e+00 1.076440e+01 2.488095e+01 1.537519e+01 1.438281e+01 2.342086e+01
<GCONST> 5.282203e+01
<STATE> 10
<MEAN> 12
 -3.237803e-01 -6.773629e+00 -8.423447e+00 7.911084e+00 -4.612267e+00 -1.066707e+01 3.608502e+00 3.350447e+00 -1.352583e-01 4.550311e+00 -2.942079e+00 6.496077e+00
<VARIANCE> 12
 2.783672e+00 1.075280e+01 5.196895e+00 2.227267e+01 1.734442e+01 1.018234e+01 8.200278e+00 1.076440e+01 5.919756e+00 8.703270e+00 8.190986e+00 1.400247e+01
<GCONST> 4.854348e+01
<STATE> 11
<MEAN> 12
 2.685636e+00 -9.496501e+00 -9.302473e+00 1.329612e+01 8.704653e+00 -4.259735e+00 1.490176e+00 -9.974644e+00 -6.639220e+00 -7.218200e+00 -6.209263e+00 2.100786e+00
<VARIANCE> 12
 5.449519e+00 1.075280e+01 5.196895e+00 2.227267e+01 1.071167e+01 1.917025e+01 1.086404e+01 3.913206e+01 1.768626e+01 1.550284e+01 9.642994e+00 1.204705e+01
<GCONST> 5.262260e+01
<STATE> 12
<MEAN> 12
 3.050727e+00 -4.543643e+00 -2.952966e+00 1.525481e+01 5.726471e+00 1.022409e+01 3.985189e+00 -1.319977e+01 -7.737925e+00 -6.856462e+00 -3.624261e+00 3.176351e+00
<VARIANCE> 12
 2.783672e+00 1.075280e+01 6.184571e+00 2.227267e+01 9.660585e+00 3.078743e+01 2.605726e+01 1.512236e+01 2.942973e+01 1.866412e+01 8.632416e+00 6.318858e+00
<GCONST> 5.235818e+01
<TRANSP> 13
 0.000000e+00 1.000000e+00 0.000000e+00 0.000000e+00 0.000000e+00 0.000000e+00 0.000000e+00 0.000000e+00 0.000000e+00 0.000000e+00 0.000000e+00 0.000000e+00 0.000000e+00
 0.000000e+00 8.888890e-01 1.111110e-01 0.000000e+00 0.000000e+00 0.000000e+00 0.000000e+00 0.000000e+00 0.000000e+00 0.000000e+00 0.000000e+00 0.000000e+00 0.000000e+00
 0.000000e+00 0.000000e+00 7.496387e-01 2.503613e-01 0.000000e+00 0.000000e+00 0.000000e+00 0.000000e+00 0.000000e+00 0.000000e+00 0.000000e+00 0.000000e+00 0.000000e+00
 0.000000e+00 0.000000e+00 0.000000e+00 8.034489e-01 1.965511e-01 0.000000e+00 0.000000e+00 0.000000e+00 0.000000e+00 0.000000e+00 0.000000e+00 0.000000e+00 0.000000e+00
 0.000000e+00 0.000000e+00 0.000000e+00 0.000000e+00 9.237985e-01 7.620153e-02 0.000000e+00 0.000000e+00 0.000000e+00 0.000000e+00 0.000000e+00 0.000000e+00 0.000000e+00
 0.000000e+00 0.000000e+00 0.000000e+00 0.000000e+00 0.000000e+00 7.915589e-01 2.084412e-01 0.000000e+00 0.000000e+00 0.000000e+00 0.000000e+00 0.000000e+00 0.000000e+00
 0.000000e+00 0.000000e+00 0.000000e+00 0.000000e+00 0.000000e+00 0.000000e+00 7.719342e-01 2.280658e-01 0.000000e+00 0.000000e+00 0.000000e+00 0.000000e+00 0.000000e+00
 0.000000e+00 0.000000e+00 0.000000e+00 0.000000e+00 0.000000e+00 0.000000e+00 0.000000e+00 8.686413e-01 1.313587e-01 0.000000e+00 0.000000e+00 0.000000e+00 0.000000e+00
 0.000000e+00 0.000000e+00 0.000000e+00 0.000000e+00 0.000000e+00 0.000000e+00 0.000000e+00 0.000000e+00 8.746960e-01 1.253040e-01 0.000000e+00 0.000000e+00 0.000000e+00
 0.000000e+00 0.000000e+00 0.000000e+00 0.000000e+00 0.000000e+00 0.000000e+00 0.000000e+00 0.000000e+00 0.000000e+00 8.449389e-01 1.550612e-01 0.000000e+00 0.000000e+00
 0.000000e+00 0.000000e+00 0.000000e+00 0.000000e+00 0.000000e+00 0.000000e+00 0.000000e+00 0.000000e+00 0.000000e+00 0.000000e+00 8.791342e-01 1.208658e-01 0.000000e+00
 0.000000e+00 0.000000e+00 0.000000e+00 0.000000e+00 0.000000e+00 0.000000e+00 0.000000e+00 0.000000e+00 0.000000e+00 0.000000e+00 0.000000e+00 8.629513e-01 1.370487e-01
 0.000000e+00 0.000000e+00 0.000000e+00 0.000000e+00 0.000000e+00 0.000000e+00 0.000000e+00 0.000000e+00 0.000000e+00 0.000000e+00 0.000000e+00 0.000000e+00 0.000000e+00
<ENDHMM>
