~o
<STREAMINFO> 1 12
<VECSIZE> 12<NULLD><MFCC_Z><DIAGC>
~h "s001"
<BEGINHMM>
<NUMSTATES> 8
<STATE> 2
<MEAN> 12
 1.395931e+00 4.026476e-01 -2.042207e-01 1.561173e+00 -4.232915e+00 2.115775e+00 9.447692e+00 1.166407e+00 -1.865352e+00 3.868241e+00 -7.617468e-01 1.879321e+00
<VARIANCE> 12
 2.346667e+01 4.447229e+01 1.716848e+01 1.977597e+01 3.730464e+01 1.516455e+01 2.859982e+01 5.305538e+01 8.779242e+00 8.357993e+00 2.124963e+01 4.680470e+00
<GCONST> 5.739068e+01
<STATE> 3
<MEAN> 12
 -5.976727e+00 -1.727298e+00 -1.771980e+00 -2.728982e+00 -6.587222e-01 3.939186e+00 -3.604366e+00 -6.417298e+00 1.350352e+00 -1.921078e-01 -4.849015e-01 2.669309e+00
<VARIANCE> 12
 3.283890e+00 2.096917e+01 6.417160e+00 4.178581e+01 9.637916e+00 1.512060e+01 2.864890e+01 7.131987e+00 6.421690e+00 2.528294e+01 1.694175e+01 7.060540e+00
<GCONST> 5.205371e+01
<STATE> 4
<MEAN> 12
 -1.728799e+00 1.253001e+01 -6.518095e+00 -1.293659e+01 -3.715765e+00 2.205936e+00 -7.808336e+00 1.667776e+00 3.162443e+00 -7.626816e+00 2.273496e+00 -5.676059e+00
<VARIANCE> 12
 2.979120e+00 1.735937e+01 1.463795e+01 1.977597e+01 8.090106e+00 2.357212e+01 2.038624e+01 1.466618e+01 1.164219e+01 1.390032e+01 1.084673e+01 2.196747e+01
<GCONST> 5.317945e+01
<STATE> 5
<MEAN> 12
 -1.336366e+00 1.759894e+00 3.475370e+00 -4.928738e+00 -9.957811e-01 1.519325e+01 -3.717995e+00 1.219832e+00 2.251849e+00 -4.171744e+00 3.244627e+00 4.987491e+00
<VARIANCE> 12
 2.979120e+00 1.735937e+01 1.153069e+01 1.977597e+01 1.322509e+01 1.132426e+01 1.085490e+01 5.237282e+00 4.758988e+00 1.192389e+01 1.617363e+01 4.922549e+00
<GCONST> 4.889503e+01
<STATE> 6
<MEAN> 12
 2.433583e+00 -3.509574e+00 8.290836e+00 4.591153e+00 2.224514e+00 3.622190e+00 1.561239e-01 3.568516e+00 -2.501285e+00 6.305250e+00 -2.061973e+00 2.119942e+00
<VARIANCE> 12
 2.979120e+00 1.735937e+01 6.417160e+00 2.318999e+01 5.751759e+00 2.143027e+01 1.085490e+01 5.014190e+00 7.457227e+00 1.465517e+01 1.421180e+01 6.796215e+00
<GCONST> 4.907859e+01
<STATE> 7
<MEAN> 12
 2.583384e+00 -8.944370e+00 3.991822e+00 1.004953e+01 5.045382e+00 -6.523546e+00 2.987939e+00 -2.822374e-01 -1.785744e+00 3.288768e+00 -1.136573e+00 1.597778e+00
<VARIANCE> 12
 3.422484e+00 1.735937e+01 7.711078e+00 1.977597e+01 7.426754e+00 1.517577e+01 1.085490e+01 1.063370e+01 8.861475e+00 2.154936e+01 2.700985e+01 1.082848e+01
<GCONST> 5.157002e+01
<TRANSP> 8
 0.000000e+00 1.000000e+00 0.000000e+00 0.000000e+00 0.000000e+00 0.000000e+00 0.000000e+00 0.000000e+00
 0.000000e+00 8.892705e-01 1.107295e-01 0.000000e+00 0.000000e+00 0.000000e+00 0.000000e+00 0.000000e+00
 0.000000e+00 0.000000e+00 8.497155e-01 1.502846e-01 0.000000e+00 0.000000e+00 0.000000e+00 0.000000e+00
 0.000000e+00 0.000000e+00 0.000000e+00 9.274782e-01 7.252186e-02 0.000000e+00 0.000000e+00 0.000000e+00
 0.000000e+00 0.000000e+00 0.000000e+00 0.000000e+00 4.138962e-01 5.861038e-01 0.000000e+00 0.000000e+00
 0.000000e+00 0.000000e+00 0.000000e+00 0.000000e+00 0.000000e+00 7.029948e-01 2.970051e-01 0.000000e+00
 0.000000e+00 0.000000e+00 0.000000e+00 0.000000e+00 0.000000e+00 0.000000e+00 9.427028e-01 5.729719e-02
 0.000000e+00 0.000000e+00 0.000000e+00 0.000000e+00 0.000000e+00 0.000000e+00 0.000000e+00 0.000000e+00
<ENDHMM>
