~o
<STREAMINFO> 1 12
<VECSIZE> 12<NULLD><MFCC_Z><DIAGC>
~h "s024"
<BEGINHMM>
<NUMSTATES> 10
<STATE> 2
<MEAN> 12
 -9.182259e-01 9.338738e+00 4.530154e+00 -8.831597e-01 -2.015272e+00 2.188407e+00 -2.841089e-02 -1.824034e-01 1.964937e+00 3.508596e+00 2.899915e+00 -3.356305e+00
<VARIANCE> 12
 6.850589e+00 2.293040e+01 2.021577e+01 5.318108e+01 2.361653e+01 4.669144e+01 2.326844e+01 6.065396e+01 3.177854e+01 2.674132e+01 3.015807e+01 2.260669e+01
<GCONST> 6.161897e+01
<STATE> 3
<MEAN> 12
 -2.716439e+00 1.089698e+01 4.630830e+00 -5.704505e+00 -2.915648e+00 -2.067373e+00 -4.979295e+00 5.058429e+00 -5.793030e-01 4.215216e+00 3.930290e+00 -4.808583e+00
<VARIANCE> 12
 3.389267e+00 2.293040e+01 2.021577e+01 2.953076e+01 1.941638e+01 7.591795e+01 4.686513e+01 2.932032e+01 4.296997e+01 2.372961e+01 2.031976e+01 1.639847e+01
<GCONST> 6.005684e+01
<STATE> 4
<MEAN> 12
 -2.698060e+00 8.393479e+00 6.652284e+00 -7.507958e+00 -1.902044e+00 -2.862458e+00 -8.361978e+00 6.641335e+00 -2.403100e+00 5.054652e+00 2.430491e+00 -4.326175e+00
<VARIANCE> 12
 3.389267e+00 3.401956e+01 2.490366e+01 3.890289e+01 1.861471e+01 6.925079e+01 7.210112e+01 3.790512e+01 3.333023e+01 1.922396e+01 1.617863e+01 1.530873e+01
<GCONST> 6.072774e+01
<STATE> 5
<MEAN> 12
 -2.085296e+00 3.609696e+00 6.955462e+00 -6.144697e+00 -1.664130e+00 1.477279e-01 -7.122028e+00 5.529664e+00 -1.769439e+00 4.387708e+00 1.027545e+00 -2.843833e+00
<VARIANCE> 12
 4.374802e+00 6.558924e+01 4.510507e+01 7.094860e+01 2.683564e+01 6.284784e+01 1.220872e+02 5.468286e+01 3.600307e+01 2.524732e+01 1.987110e+01 2.461879e+01
<GCONST> 6.502657e+01
<STATE> 6
<MEAN> 12
 -1.206380e+00 -2.573773e+00 3.161093e+00 -9.582931e-01 -6.552889e-01 2.163491e+00 -1.304991e+00 1.536779e+00 -1.270792e+00 2.045007e+00 -2.465318e-01 -6.492334e-04
<VARIANCE> 12
 6.363560e+00 8.557044e+01 1.001023e+02 1.079523e+02 4.492147e+01 4.791528e+01 1.484986e+02 6.565051e+01 4.504999e+01 4.786686e+01 2.634892e+01 4.268989e+01
<GCONST> 6.920319e+01
<STATE> 7
<MEAN> 12
 1.762668e-01 -8.523820e+00 -3.832183e+00 4.963173e+00 1.859318e+00 1.297635e+00 4.670602e+00 -3.091404e+00 -9.565391e-01 -2.348791e+00 -1.688625e+00 3.967555e+00
<VARIANCE> 12
 1.035099e+01 6.517075e+01 1.224131e+02 8.420736e+01 5.056990e+01 3.803002e+01 8.938376e+01 4.758915e+01 5.116332e+01 6.844011e+01 2.731198e+01 4.939483e+01
<GCONST> 6.909473e+01
<STATE> 8
<MEAN> 12
 2.817020e+00 -1.138603e+01 -1.001728e+01 7.949094e+00 3.599488e+00 -3.972562e-01 7.749361e+00 -6.408068e+00 1.170324e+00 -7.323444e+00 -3.412669e+00 6.548913e+00
<VARIANCE> 12
 1.639392e+01 2.902220e+01 6.597940e+01 3.293265e+01 3.081053e+01 2.392649e+01 2.806222e+01 2.218310e+01 4.520545e+01 4.971073e+01 2.245017e+01 3.587830e+01
<GCONST> 6.334877e+01
<STATE> 9
<MEAN> 12
 6.631175e+00 -9.755240e+00 -1.208025e+01 8.286288e+00 3.693494e+00 -4.700428e-01 9.376734e+00 -9.084312e+00 3.843947e+00 -9.538944e+00 -4.940472e+00 4.818995e+00
<VARIANCE> 12
 1.357874e+01 2.293040e+01 2.021577e+01 1.775078e+01 1.249151e+01 1.617063e+01 2.139814e+01 1.448047e+01 1.921081e+01 1.884714e+01 1.511088e+01 2.942125e+01
<GCONST> 5.671170e+01
<TRANSP> 10
 0.000000e+00 1.000000e+00 0.000000e+00 0.000000e+00 0.000000e+00 0.000000e+00 0.000000e+00 0.000000e+00 0.000000e+00 0.000000e+00
 0.000000e+00 8.666667e-01 1.333333e-01 0.000000e+00 0.000000e+00 0.000000e+00 0.000000e+00 0.000000e+00 0.000000e+00 0.000000e+00
 0.000000e+00 0.000000e+00 8.666667e-01 1.333333e-01 0.000000e+00 0.000000e+00 0.000000e+00 0.000000e+00 0.000000e+00 0.000000e+00
 0.000000e+00 0.000000e+00 0.000000e+00 8.666667e-01 1.333333e-01 0.000000e+00 0.000000e+00 0.000000e+00 0.000000e+00 0.000000e+00
 0.000000e+00 0.000000e+00 0.000000e+00 0.000000e+00 8.666667e-01 1.333333e-01 0.000000e+00 0.000000e+00 0.000000e+00 0.000000e+00
 0.000000e+00 0.000000e+00 0.000000e+00 0.000000e+00 0.000000e+00 8.666666e-01 1.333334e-01 0.000000e+00 0.000000e+00 0.000000e+00
 0.000000e+00 0.000000e+00 0.000000e+00 0.000000e+00 0.000000e+00 0.000000e+00 8.666667e-01 1.333333e-01 0.000000e+00 0.000000e+00
 0.000000e+00 0.000000e+00 0.000000e+00 0.000000e+00 0.000000e+00 0.000000e+00 0.000000e+00 8.666667e-01 1.333333e-01 0.000000e+00
 0.000000e+00 0.000000e+00 0.000000e+00 0.000000e+00 0.000000e+00 0.000000e+00 0.000000e+00 0.000000e+00 8.666667e-01 1.333333e-01
 0.000000e+00 0.000000e+00 0.000000e+00 0.000000e+00 0.000000e+00 0.000000e+00 0.000000e+00 0.000000e+00 0.000000e+00 0.000000e+00
<ENDHMM>
