~o
<STREAMINFO> 1 12
<VECSIZE> 12<NULLD><MFCC_Z><DIAGC>
~h "s092"
<BEGINHMM>
<NUMSTATES> 10
<STATE> 2
<MEAN> 12
 -3.760364e+00 -4.920643e+00 4.184952e+00 -3.843234e+00 1.506365e+00 3.922359e+00 1.696283e+00 -7.073517e+00 2.445009e+00 -1.008893e+00 -1.374535e+00 -1.655249e+00
<VARIANCE> 12
 1.142866e+01 2.721196e+01 1.275241e+01 2.182851e+01 3.846506e+00 1.022757e+01 4.789687e+00 5.106236e+01 1.315331e+01 2.706089e+01 7.118448e+00 1.782841e+01
<GCONST> 5.331326e+01
<STATE> 3
<MEAN> 12
 -2.598095e+00 -1.567428e+01 -6.922525e+00 8.182456e+00 1.180530e+00 -2.768176e+00 4.073347e+00 -3.451311e+00 -1.175980e+01 -3.289652e+00 1.866363e+00 -6.080557e-01
<VARIANCE> 12
 8.137646e+00 2.034925e+01 7.683879e+00 7.567552e+00 2.133370e+01 1.927734e+01 4.789687e+00 1.932692e+01 1.315331e+01 4.508986e+00 2.221401e+01 7.828194e+00
<GCONST> 5.101545e+01
<STATE> 4
<MEAN> 12
 5.413455e+00 -9.955058e+00 -6.766454e+00 -1.028490e+00 -3.241825e+00 -3.597734e+00 -5.252189e-02 5.833675e+00 -8.378867e+00 -1.218987e+00 -8.524936e+00 5.963246e+00
<VARIANCE> 12
 8.137646e+00 2.034925e+01 5.519940e+00 7.002269e+00 1.022237e+01 5.355890e+00 4.849908e+01 6.701668e+00 1.315331e+01 2.554186e+01 1.926792e+01 3.453138e+01
<GCONST> 5.292265e+01
<STATE> 5
<MEAN> 12
 1.014292e+01 -2.870698e+00 -5.786237e-01 -4.382652e+00 -1.065628e+00 5.274262e+00 -6.467176e+00 3.930709e+00 -3.210342e+00 5.151750e+00 -1.981936e+00 6.283050e+00
<VARIANCE> 12
 8.137646e+00 2.034925e+01 1.391628e+01 1.763657e+01 8.014335e+00 1.608550e+01 1.181194e+01 6.701668e+00 1.315331e+01 1.197516e+01 1.330073e+01 1.116891e+01
<GCONST> 5.195818e+01
<STATE> 6
<MEAN> 12
 3.170926e+00 2.472396e+00 7.547139e-01 8.507979e+00 2.130970e+00 5.199434e+00 3.146113e+00 3.753696e+00 3.434057e+00 5.898145e+00 2.125594e+00 4.299599e+00
<VARIANCE> 12
 6.233723e+01 2.034925e+01 5.519940e+00 9.989512e+00 2.070113e+01 1.007029e+01 6.438589e+00 2.636709e+01 1.315331e+01 6.741529e+00 1.118570e+01 7.828194e+00
<GCONST> 5.264156e+01
<STATE> 7
<MEAN> 12
 -9.897402e+00 7.375809e+00 1.309351e+00 3.821867e-01 5.008188e+00 3.342019e+00 3.999125e+00 -2.772842e+00 1.019258e+01 -1.159424e+00 3.224595e+00 3.185904e+00
<VARIANCE> 12
 8.137646e+00 2.034925e+01 6.642485e+00 1.560015e+01 1.044874e+01 5.355890e+00 8.204893e+00 1.984958e+01 1.997329e+01 1.251758e+01 2.663925e+01 1.909043e+01
<GCONST> 5.267553e+01
<STATE> 8
<MEAN> 12
 -1.600272e+00 1.383742e+01 4.775066e+00 -8.072411e-01 8.664219e-02 -4.553924e+00 -1.956825e+00 -1.443043e-01 8.547878e+00 -6.797862e-01 6.581017e+00 -7.511011e+00
<VARIANCE> 12
 8.137646e+00 2.034925e+01 1.039166e+01 1.815733e+01 9.559499e+00 5.382994e+00 4.789687e+00 8.744082e+00 1.315331e+01 1.743649e+01 9.593533e+00 7.828194e+00
<GCONST> 4.983383e+01
<STATE> 9
<MEAN> 12
 5.057606e-01 6.986704e+00 2.574198e+00 -3.893195e+00 -3.827720e+00 -1.871905e+00 -3.119183e+00 6.509852e-01 -1.416912e+00 -6.319759e-01 -1.834044e+00 -5.284106e+00
<VARIANCE> 12
 8.137646e+00 2.034925e+01 5.519940e+00 1.911967e+01 1.546726e+01 2.583958e+01 7.745596e+00 7.226990e+00 3.464896e+01 9.033533e+00 1.371741e+01 7.828194e+00
<GCONST> 5.226134e+01
<TRANSP> 10
 0.000000e+00 1.000000e+00 0.000000e+00 0.000000e+00 0.000000e+00 0.000000e+00 0.000000e+00 0.000000e+00 0.000000e+00 0.000000e+00
 0.000000e+00 8.759275e-01 1.240725e-01 0.000000e+00 0.000000e+00 0.000000e+00 0.000000e+00 0.000000e+00 0.000000e+00 0.000000e+00
 0.000000e+00 0.000000e+00 8.701651e-01 1.298349e-01 0.000000e+00 0.000000e+00 0.000000e+00 0.000000e+00 0.000000e+00 0.000000e+00
 0.000000e+00 0.000000e+00 0.000000e+00 8.908371e-01 1.091629e-01 0.000000e+00 0.000000e+00 0.000000e+00 0.000000e+00 0.000000e+00
 0.000000e+00 0.000000e+00 0.000000e+00 0.000000e+00 8.489195e-01 1.510805e-01 0.000000e+00 0.000000e+00 0.000000e+00 0.000000e+00
 0.000000e+00 0.000000e+00 0.000000e+00 0.000000e+00 0.000000e+00 8.117516e-01 1.882484e-01 0.000000e+00 0.000000e+00 0.000000e+00
 0.000000e+00 0.000000e+00 0.000000e+00 0.000000e+00 0.000000e+00 0.000000e+00 8.600706e-01 1.399294e-01 0.000000e+00 0.000000e+00
 0.000000e+00 0.000000e+00 0.000000e+00 0.000000e+00 0.000000e+00 0.000000e+00 0.000000e+00 9.048359e-01 9.516409e-02 0.000000e+00
 0.000000e+00 0.000000e+00 0.000000e+00 0.000000e+00 0.000000e+00 0.000000e+00 0.000000e+00 0.000000e+00 8.822385e-01 1.177615e-01
 0.000000e+00 0.000000e+00 0.000000e+00 0.000000e+00 0.000000e+00 0.000000e+00 0.000000e+00 0.000000e+00 0.000000e+00 0.000000e+00
<ENDHMM>
