~o
<STREAMINFO> 1 12
<VECSIZE> 12<NULLD><MFCC_Z><DIAGC>
~h "s042"
<BEGINHMM>
<NUMSTATES> 8
<STATE> 2
<MEAN> 12
 -4.284274e+00 -2.739482e+00 6.911284e+00 -3.482956e+00 -2.249967e+00 -3.017280e+00 4.302454e+00 5.417763e+00 1.636629e-01 8.729245e-01 -2.313453e+00 -1.932929e+00
<VARIANCE> 12
 4.197716e+01 3.158599e+01 4.407845e+01 1.223660e+01 2.545224e+01 1.188035e+02 2.408672e+01 5.297038e+01 8.176227e+01 3.090808e+01 5.296399e+01 3.811610e+01
<GCONST> 6.614552e+01
<STATE> 3
<MEAN> 12
 -8.538359e-02 -1.581139e+00 3.484355e+00 -2.834373e+00 -5.712884e+00 -6.915407e+00 5.624443e-01 2.745170e-01 -1.650680e+00 7.786855e-01 -3.373929e+00 7.315696e-01
<VARIANCE> 12
 3.021660e+01 4.146465e+01 5.334512e+01 2.317464e+01 4.990199e+01 6.660861e+01 2.205660e+01 5.038580e+01 5.786227e+01 4.131137e+01 3.148611e+01 4.192614e+01
<GCONST> 6.639448e+01
<STATE> 4
<MEAN> 12
 -5.513240e-02 1.316807e+00 3.218203e+00 -1.843810e+00 -5.289106e+00 -3.005791e+00 -1.677733e+00 -7.793306e-01 -1.216133e+00 5.536117e-01 -8.599256e-01 -4.464830e-01
<VARIANCE> 12
 3.423443e+01 2.660359e+01 7.229413e+01 4.784931e+01 8.918298e+01 5.646151e+01 2.096780e+01 4.126501e+01 6.462303e+01 4.884582e+01 3.146923e+01 5.111165e+01
<GCONST> 6.774512e+01
<STATE> 5
<MEAN> 12
 -1.021294e-01 1.706016e+00 1.034517e+00 1.647888e+00 9.410296e-01 8.820888e-01 -2.034646e+00 -8.251938e-01 -1.068586e+00 -2.615531e-01 1.491975e+00 -5.049282e-01
<VARIANCE> 12
 3.212112e+01 1.303835e+01 1.038852e+02 6.111727e+01 1.229740e+02 3.536741e+01 1.665325e+01 3.201801e+01 5.722262e+01 3.787481e+01 2.720254e+01 5.250110e+01
<GCONST> 6.645007e+01
<STATE> 6
<MEAN> 12
 1.688625e+00 7.659250e-01 -5.483279e+00 4.049461e+00 6.460093e+00 3.471765e+00 -1.336092e+00 -2.074151e+00 1.131091e+00 -7.541798e-01 3.456057e+00 1.027592e+00
<VARIANCE> 12
 1.859681e+01 6.125154e+00 9.856824e+01 4.278020e+01 6.881193e+01 2.151225e+01 1.136019e+01 2.421413e+01 3.570075e+01 2.017456e+01 2.033981e+01 3.387365e+01
<GCONST> 6.116861e+01
<STATE> 7
<MEAN> 12
 2.838273e+00 5.319278e-01 -9.165010e+00 2.463784e+00 5.850798e+00 8.584706e+00 1.835776e-01 -2.013580e+00 2.640696e+00 -1.189464e+00 1.599295e+00 1.125156e+00
<VARIANCE> 12
 5.875032e+00 3.404026e+00 4.332333e+01 2.660193e+01 2.693356e+01 5.985038e+01 1.205125e+01 1.331858e+01 1.128767e+01 8.119687e+00 2.581644e+01 1.128895e+01
<GCONST> 5.475626e+01
<TRANSP> 8
 0.000000e+00 1.000000e+00 0.000000e+00 0.000000e+00 0.000000e+00 0.000000e+00 0.000000e+00 0.000000e+00
 0.000000e+00 8.799999e-01 1.200000e-01 0.000000e+00 0.000000e+00 0.000000e+00 0.000000e+00 0.000000e+00
 0.000000e+00 0.000000e+00 8.800000e-01 1.200000e-01 0.000000e+00 0.000000e+00 0.000000e+00 0.000000e+00
 0.000000e+00 0.000000e+00 0.000000e+00 8.800000e-01 1.200000e-01 0.000000e+00 0.000000e+00 0.000000e+00
 0.000000e+00 0.000000e+00 0.000000e+00 0.000000e+00 8.800001e-01 1.200000e-01 0.000000e+00 0.000000e+00
 0.000000e+00 0.000000e+00 0.000000e+00 0.000000e+00 0.000000e+00 8.800001e-01 1.200000e-01 0.000000e+00
 0.000000e+00 0.000000e+00 0.000000e+00 0.000000e+00 0.000000e+00 0.000000e+00 8.800000e-01 1.200000e-01
 0.000000e+00 0.000000e+00 0.000000e+00 0.000000e+00 0.000000e+00 0.000000e+00 0.000000e+00 0.000000e+00
<ENDHMM>
