~o
<STREAMINFO> 1 12
<VECSIZE> 12<NULLD><MFCC_Z><DIAGC>
~h "s016"
<BEGINHMM>
<NUMSTATES> 8
<STATE> 2
<MEAN> 12
 -9.769121e+00 7.552135e+00 2.226478e+00 -6.663110e-01 8.168496e+00 9.314181e-01 5.787151e+00 1.075295e+00 5.219858e+00 4.023379e+00 5.370239e+00 -1.668712e+00
<VARIANCE> 12
 5.079084e+01 1.694729e+01 4.649556e+01 7.274156e+01 1.308921e+02 1.155591e+01 1.416494e+02 8.345833e+00 1.963921e+01 2.302021e+01 4.098100e+01 3.134406e+01
<GCONST> 6.460733e+01
<STATE> 3
<MEAN> 12
 -2.973168e+00 7.131324e+00 6.534466e+00 -7.102746e+00 -2.829067e+00 5.659158e-01 -2.808598e+00 1.491196e+00 1.334601e+00 1.159441e+00 5.301732e+00 -1.807068e+00
<VARIANCE> 12
 4.241140e+01 3.788866e+01 3.624808e+01 6.173399e+01 1.611649e+02 2.049407e+01 1.283102e+02 1.712526e+01 2.048022e+01 2.587323e+01 7.442081e+01 3.943642e+01
<GCONST> 6.720447e+01
<STATE> 4
<MEAN> 12
 3.344031e-01 2.560249e+00 5.550045e+00 -6.266053e+00 -6.151590e+00 1.555316e+00 -2.347232e+00 1.431644e+00 -1.734866e+00 6.423551e-01 2.055254e+00 -4.312041e-01
<VARIANCE> 12
 1.255968e+01 6.040039e+01 3.453772e+01 8.260172e+01 1.182934e+02 3.445087e+01 8.283047e+01 3.381165e+01 3.438686e+01 1.743018e+01 9.446712e+01 3.350412e+01
<GCONST> 6.734820e+01
<STATE> 5
<MEAN> 12
 1.708242e+00 -3.343145e+00 8.736501e-01 -3.351441e-01 -1.917268e+00 9.365472e-01 7.788690e-01 5.289015e-01 -4.167672e+00 7.494193e-01 -1.230406e+00 1.438009e+00
<VARIANCE> 12
 7.546199e+00 5.106408e+01 5.926412e+01 1.197152e+02 1.036527e+02 4.743894e+01 4.169792e+01 4.434324e+01 4.454971e+01 1.642701e+01 7.461233e+01 2.898521e+01
<GCONST> 6.717329e+01
<STATE> 6
<MEAN> 12
 3.679386e+00 -6.870468e+00 -5.414776e+00 5.776669e+00 1.655815e+00 -1.417755e+00 3.865020e-01 -7.687594e-01 -2.632210e+00 -1.230113e+00 -4.152337e+00 2.618464e+00
<VARIANCE> 12
 9.251719e+00 2.254629e+01 6.522028e+01 7.611523e+01 5.093149e+01 4.002054e+01 2.722491e+01 4.226079e+01 5.643560e+01 2.869808e+01 5.529956e+01 3.055007e+01
<GCONST> 6.539484e+01
<STATE> 7
<MEAN> 12
 7.020265e+00 -7.030132e+00 -9.769843e+00 8.593552e+00 1.073551e+00 -2.571405e+00 -1.796679e+00 -3.758279e+00 1.980239e+00 -5.344521e+00 -7.344428e+00 -1.494766e-01
<VARIANCE> 12
 1.096909e+01 1.045906e+01 2.571527e+01 1.816832e+01 1.748943e+01 1.573850e+01 2.082099e+01 3.758802e+01 3.689014e+01 2.712376e+01 3.126628e+01 3.991819e+01
<GCONST> 5.926192e+01
<TRANSP> 8
 0.000000e+00 1.000000e+00 0.000000e+00 0.000000e+00 0.000000e+00 0.000000e+00 0.000000e+00 0.000000e+00
 0.000000e+00 8.799999e-01 1.200000e-01 0.000000e+00 0.000000e+00 0.000000e+00 0.000000e+00 0.000000e+00
 0.000000e+00 0.000000e+00 8.800000e-01 1.200000e-01 0.000000e+00 0.000000e+00 0.000000e+00 0.000000e+00
 0.000000e+00 0.000000e+00 0.000000e+00 8.800000e-01 1.200000e-01 0.000000e+00 0.000000e+00 0.000000e+00
 0.000000e+00 0.000000e+00 0.000000e+00 0.000000e+00 8.800001e-01 1.200000e-01 0.000000e+00 0.000000e+00
 0.000000e+00 0.000000e+00 0.000000e+00 0.000000e+00 0.000000e+00 8.800001e-01 1.200000e-01 0.000000e+00
 0.000000e+00 0.000000e+00 0.000000e+00 0.000000e+00 0.000000e+00 0.000000e+00 8.800000e-01 1.200000e-01
 0.000000e+00 0.000000e+00 0.000000e+00 0.000000e+00 0.000000e+00 0.000000e+00 0.000000e+00 0.000000e+00
<ENDHMM>
