~o
<STREAMINFO> 1 12
<VECSIZE> 12<NULLD><MFCC_Z><DIAGC>
~h "s015"
<BEGINHMM>
<NUMSTATES> 10
<STATE> 2
<MEAN> 12
 -6.953875e-08 -1.509984e-07 -7.152558e-08 -7.947286e-08 2.463659e-07 -3.973643e-07 6.357829e-08 -5.563100e-07 1.072884e-07 -2.106031e-07 9.536743e-08 1.112620e-07
<VARIANCE> 12
 1.568184e+01 4.114707e+01 7.840948e+01 5.741796e+01 3.928185e+01 4.859431e+01 4.578951e+01 1.086883e+02 5.456525e+01 3.871660e+01 5.596954e+01 2.415771e+01
<GCONST> 6.786837e+01
<STATE> 3
<MEAN> 12
 -6.953875e-08 -1.509984e-07 -7.152558e-08 -7.947286e-08 2.463659e-07 -3.973643e-07 6.357829e-08 -5.563100e-07 1.072884e-07 -2.106031e-07 9.536743e-08 1.112620e-07
<VARIANCE> 12
 1.568184e+01 4.114707e+01 7.840948e+01 5.741796e+01 3.928185e+01 4.859431e+01 4.578951e+01 1.086883e+02 5.456525e+01 3.871660e+01 5.596954e+01 2.415771e+01
<GCONST> 6.786837e+01
<STATE> 4
<MEAN> 12
 -6.953875e-08 -1.509984e-07 -7.152558e-08 -7.947286e-08 2.463659e-07 -3.973643e-07 6.357829e-08 -5.563100e-07 1.072884e-07 -2.106031e-07 9.536743e-08 1.112620e-07
<VARIANCE> 12
 1.568184e+01 4.114707e+01 7.840948e+01 5.741796e+01 3.928185e+01 4.859431e+01 4.578951e+01 1.086883e+02 5.456525e+01 3.871660e+01 5.596954e+01 2.415771e+01
<GCONST> 6.786837e+01
<STATE> 5
<MEAN> 12
 -6.953875e-08 -1.509984e-07 -7.152558e-08 -7.947286e-08 2.463659e-07 -3.973643e-07 6.357829e-08 -5.563100e-07 1.072884e-07 -2.106031e-07 9.536743e-08 1.112620e-07
<VARIANCE> 12
 1.568184e+01 4.114707e+01 7.840948e+01 5.741796e+01 3.928185e+01 4.859431e+01 4.578951e+01 1.086883e+02 5.456525e+01 3.871660e+01 5.596954e+01 2.415771e+01
<GCONST> 6.786837e+01
<STATE> 6
<MEAN> 12
 -6.953875e-08 -1.509984e-07 -7.152558e-08 -7.947286e-08 2.463659e-07 -3.973643e-07 6.357829e-08 -5.563100e-07 1.072884e-07 -2.106031e-07 9.536743e-08 1.112620e-07
<VARIANCE> 12
 1.568184e+01 4.114707e+01 7.840948e+01 5.741796e+01 3.928185e+01 4.859431e+01 4.578951e+01 1.086883e+02 5.456525e+01 3.871660e+01 5.596954e+01 2.415771e+01
<GCONST> 6.786837e+01
<STATE> 7
<MEAN> 12
 -6.953875e-08 -1.509984e-07 -7.152558e-08 -7.947286e-08 2.463659e-07 -3.973643e-07 6.357829e-08 -5.563100e-07 1.072884e-07 -2.106031e-07 9.536743e-08 1.112620e-07
<VARIANCE> 12
 1.568184e+01 4.114707e+01 7.840948e+01 5.741796e+01 3.928185e+01 4.859431e+01 4.578951e+01 1.086883e+02 5.456525e+01 3.871660e+01 5.596954e+01 2.415771e+01
<GCONST> 6.786837e+01
<STATE> 8
<MEAN> 12
 -6.953875e-08 -1.509984e-07 -7.152558e-08 -7.947286e-08 2.463659e-07 -3.973643e-07 6.357829e-08 -5.563100e-07 1.072884e-07 -2.106031e-07 9.536743e-08 1.112620e-07
<VARIANCE> 12
 1.568184e+01 4.114707e+01 7.840948e+01 5.741796e+01 3.928185e+01 4.859431e+01 4.578951e+01 1.086883e+02 5.456525e+01 3.871660e+01 5.596954e+01 2.415771e+01
<GCONST> 6.786837e+01
<STATE> 9
<MEAN> 12
 -6.953875e-08 -1.509984e-07 -7.152558e-08 -7.947286e-08 2.463659e-07 -3.973643e-07 6.357829e-08 -5.563100e-07 1.072884e-07 -2.106031e-07 9.536743e-08 1.112620e-07
<VARIANCE> 12
 1.568184e+01 4.114707e+01 7.840948e+01 5.741796e+01 3.928185e+01 4.859431e+01 4.578951e+01 1.086883e+02 5.456525e+01 3.871660e+01 5.596954e+01 2.415771e+01
<GCONST> 6.786837e+01
<TRANSP> 10
 0.000000e+00 1.000000e+00 0.000000e+00 0.000000e+00 0.000000e+00 0.000000e+00 0.000000e+00 0.000000e+00 0.000000e+00 0.000000e+00
 0.000000e+00 9.000000e-01 9.999999e-02 0.000000e+00 0.000000e+00 0.000000e+00 0.000000e+00 0.000000e+00 0.000000e+00 0.000000e+00
 0.000000e+00 0.000000e+00 9.000000e-01 9.999999e-02 0.000000e+00 0.000000e+00 0.000000e+00 0.000000e+00 0.000000e+00 0.000000e+00
 0.000000e+00 0.000000e+00 0.000000e+00 9.000000e-01 9.999999e-02 0.000000e+00 0.000000e+00 0.000000e+00 0.000000e+00 0.000000e+00
 0.000000e+00 0.000000e+00 0.000000e+00 0.000000e+00 9.000000e-01 9.999999e-02 0.000000e+00 0.000000e+00 0.000000e+00 0.000000e+00
 0.000000e+00 0.000000e+00 0.000000e+00 0.000000e+00 0.000000e+00 9.000000e-01 9.999999e-02 0.000000e+00 0.000000e+00 0.000000e+00
 0.000000e+00 0.000000e+00 0.000000e+00 0.000000e+00 0.000000e+00 0.000000e+00 9.000000e-01 9.999999e-02 0.000000e+00 0.000000e+00
 0.000000e+00 0.000000e+00 0.000000e+00 0.000000e+00 0.000000e+00 0.000000e+00 0.000000e+00 9.000000e-01 9.999999e-02 0.000000e+00
 0.000000e+00 0.000000e+00 0.000000e+00 0.000000e+00 0.000000e+00 0.000000e+00 0.000000e+00 0.000000e+00 9.000000e-01 9.999999e-02
 0.000000e+00 0.000000e+00 0.000000e+00 0.000000e+00 0.000000e+00 0.000000e+00 0.000000e+00 0.000000e+00 0.000000e+00 0.000000e+00
<ENDHMM>
