~o
<STREAMINFO> 1 12
<VECSIZE> 12<NULLD><MFCC_Z><DIAGC>
~h "s015"
<BEGINHMM>
<NUMSTATES> 10
<STATE> 2
<MEAN> 12
 -4.860998e+00 1.004501e+01 1.379583e+01 -9.840679e+00 -7.376782e+00 3.324179e+00 -4.722738e+00 1.565613e+01 6.087106e+00 2.786988e+00 8.587874e+00 -1.622040e+00
<VARIANCE> 12
 3.136368e+00 1.168481e+01 1.568190e+01 2.730930e+01 2.131375e+01 9.718862e+00 9.157903e+00 2.173766e+01 1.513130e+01 1.176159e+01 4.672406e+01 2.464348e+01
<GCONST> 5.457307e+01
<STATE> 3
<MEAN> 12
 -1.096464e+00 3.706984e+00 -2.099893e+00 -3.388824e+00 -7.114486e+00 -8.350579e+00 -5.273812e+00 1.615593e+01 5.901870e+00 5.956886e+00 7.984856e+00 -5.679938e+00
<VARIANCE> 12
 3.136368e+00 8.229414e+00 4.073559e+01 1.148359e+01 5.943184e+01 1.629996e+01 2.581686e+01 2.769655e+01 1.862335e+01 5.792797e+01 8.431104e+01 1.459057e+01
<GCONST> 5.900016e+01
<STATE> 4
<MEAN> 12
 4.498407e+00 5.258815e+00 -1.112088e+01 -3.331496e+00 4.680814e+00 -4.328584e-01 -1.896602e+00 -4.722562e+00 2.879035e+00 4.383914e+00 3.968189e+00 -1.602398e+00
<VARIANCE> 12
 8.147804e+00 8.229414e+00 2.085567e+01 1.451081e+01 7.856369e+00 6.017233e+01 9.897685e+00 3.830615e+01 1.882154e+01 4.214053e+01 1.990064e+01 2.006213e+01
<GCONST> 5.673455e+01
<STATE> 5
<MEAN> 12
 2.755798e+00 4.091378e-01 -6.001328e+00 2.802008e+00 3.896758e+00 5.957468e+00 -5.952868e+00 -3.420182e+00 2.218530e+00 -2.890716e+00 -2.524340e+00 -1.090741e+00
<VARIANCE> 12
 1.179990e+01 1.454592e+01 3.320023e+01 1.497285e+01 1.324913e+01 5.265477e+01 2.710582e+01 3.333329e+01 1.702323e+01 2.135423e+01 2.252401e+01 1.363986e+01
<GCONST> 5.838612e+01
<STATE> 6
<MEAN> 12
 -2.365590e+00 -8.250440e+00 -6.792223e+00 6.247988e+00 7.139162e+00 -8.697892e+00 5.993844e-01 6.430540e+00 -1.030937e+01 -7.044832e+00 -4.850242e+00 7.058779e+00
<VARIANCE> 12
 6.525308e+00 8.229414e+00 2.384068e+01 1.148359e+01 1.199670e+01 9.718862e+00 2.370477e+01 2.173766e+01 3.274665e+01 1.153506e+01 3.268404e+01 1.111955e+01
<GCONST> 5.448345e+01
<STATE> 7
<MEAN> 12
 -4.495820e+00 -8.379605e+00 4.710108e+00 -3.829474e-01 -4.527664e-01 -5.300264e+00 9.784534e+00 -2.478461e+00 -1.276166e+01 3.203832e-01 9.094836e-02 5.232842e+00
<VARIANCE> 12
 3.136368e+00 8.229414e+00 1.568190e+01 2.645528e+01 8.294456e+00 1.596978e+01 9.157903e+00 3.241713e+01 1.182780e+01 1.633660e+01 1.119391e+01 4.831541e+00
<GCONST> 5.116725e+01
<STATE> 8
<MEAN> 12
 1.334256e+00 -3.693363e+00 5.009078e+00 -1.269428e+00 -3.156741e+00 -1.817529e-01 7.185184e+00 -1.172265e+01 -1.928924e+00 -2.871997e+00 -4.245073e+00 5.736696e-01
<VARIANCE> 12
 4.537399e+00 8.229414e+00 1.568190e+01 5.531250e+01 1.099632e+01 9.718862e+00 1.300073e+01 2.173766e+01 2.264142e+01 3.188354e+01 1.119391e+01 8.625106e+00
<GCONST> 5.390770e+01
<STATE> 9
<MEAN> 12
 1.045080e-01 -3.432847e+00 1.976015e+00 1.107582e+01 1.625301e+00 4.588316e+00 5.140476e-01 -3.248828e+00 2.460001e+00 -9.254206e-01 -7.429799e+00 -5.638069e-01
<VARIANCE> 12
 3.136368e+00 8.229414e+00 1.568190e+01 1.148359e+01 1.561193e+01 1.689361e+01 2.123144e+01 2.173766e+01 1.552683e+01 9.732052e+00 1.119391e+01 1.267467e+01
<GCONST> 5.218120e+01
<TRANSP> 10
 0.000000e+00 1.000000e+00 0.000000e+00 0.000000e+00 0.000000e+00 0.000000e+00 0.000000e+00 0.000000e+00 0.000000e+00 0.000000e+00
 0.000000e+00 8.750023e-01 1.249978e-01 0.000000e+00 0.000000e+00 0.000000e+00 0.000000e+00 0.000000e+00 0.000000e+00 0.000000e+00
 0.000000e+00 0.000000e+00 7.910986e-01 2.089014e-01 0.000000e+00 0.000000e+00 0.000000e+00 0.000000e+00 0.000000e+00 0.000000e+00
 0.000000e+00 0.000000e+00 0.000000e+00 8.952351e-01 1.047649e-01 0.000000e+00 0.000000e+00 0.000000e+00 0.000000e+00 0.000000e+00
 0.000000e+00 0.000000e+00 0.000000e+00 0.000000e+00 8.933200e-01 1.066801e-01 0.000000e+00 0.000000e+00 0.000000e+00 0.000000e+00
 0.000000e+00 0.000000e+00 0.000000e+00 0.000000e+00 0.000000e+00 7.818296e-01 2.181704e-01 0.000000e+00 0.000000e+00 0.000000e+00
 0.000000e+00 0.000000e+00 0.000000e+00 0.000000e+00 0.000000e+00 0.000000e+00 8.372105e-01 1.627895e-01 0.000000e+00 0.000000e+00
 0.000000e+00 0.000000e+00 0.000000e+00 0.000000e+00 0.000000e+00 0.000000e+00 0.000000e+00 8.974438e-01 1.025562e-01 0.000000e+00
 0.000000e+00 0.000000e+00 0.000000e+00 0.000000e+00 0.000000e+00 0.000000e+00 0.000000e+00 0.000000e+00 8.720683e-01 1.279317e-01
 0.000000e+00 0.000000e+00 0.000000e+00 0.000000e+00 0.000000e+00 0.000000e+00 0.000000e+00 0.000000e+00 0.000000e+00 0.000000e+00
<ENDHMM>
