~o
<STREAMINFO> 1 12
<VECSIZE> 12<NULLD><MFCC_Z><DIAGC>
~h "s056"
<BEGINHMM>
<NUMSTATES> 9
<STATE> 2
<MEAN> 12
 -8.229612e+00 -2.318519e+00 7.084559e+00 1.251669e+00 8.292137e+00 5.455666e+00 3.716320e+00 1.022362e+01 -7.017321e-01 -9.501913e-01 4.335540e+00 -6.617422e-01
<VARIANCE> 12
 4.023026e+01 1.813554e+01 9.926328e+00 4.025490e+00 8.939591e+00 1.374411e+02 1.835104e+01 2.353348e+01 1.388099e+02 1.198759e+01 4.064919e+01 1.060601e+01
<GCONST> 5.900003e+01
<STATE> 3
<MEAN> 12
 1.500773e+00 -3.802728e+00 -9.181513e+00 1.351320e+00 3.807551e+00 -1.159681e+01 1.432819e-01 2.082137e+00 -2.503487e+00 -6.930877e+00 -6.939030e-01 6.832824e+00
<VARIANCE> 12
 4.211145e+00 1.782323e+01 3.647770e+01 1.446399e+01 1.717270e+01 2.599022e+01 7.085701e+00 1.202333e+01 8.197971e+01 1.091418e+01 3.464453e+00 8.226079e+00
<GCONST> 5.333350e+01
<STATE> 4
<MEAN> 12
 4.008692e+00 7.603155e+00 -1.040101e+01 -4.108181e+00 -3.705625e+00 -1.022027e+00 -3.273825e+00 -1.027262e+00 1.660020e+00 -6.592479e+00 1.340021e+00 3.808069e+00
<VARIANCE> 12
 7.582646e+00 7.037471e+00 2.602725e+01 2.487978e+01 1.987190e+01 3.138812e+01 7.085701e+00 6.476115e+01 6.420006e+00 1.358909e+01 1.629893e+01 1.241468e+01
<GCONST> 5.484803e+01
<STATE> 5
<MEAN> 12
 -5.928604e+00 5.987833e+00 3.444130e+00 -1.551268e-01 -9.872820e+00 4.025886e+00 -1.103773e+01 2.915156e+00 1.491248e+00 -5.938393e+00 1.661910e+00 -3.014063e+00
<VARIANCE> 12
 9.432381e+00 7.037471e+00 9.926328e+00 1.479777e+01 6.862926e+00 1.086452e+01 7.474447e+00 8.436273e+01 1.667679e+01 1.091418e+01 2.137524e+01 1.662167e+01
<GCONST> 5.307486e+01
<STATE> 6
<MEAN> 12
 -1.146303e-01 -1.025213e+01 3.808364e+00 -3.435787e+00 -9.033424e-02 -4.802491e+00 -2.312744e+00 -6.687659e+00 -3.967518e+00 -1.524076e+00 -3.541223e+00 -9.012469e+00
<VARIANCE> 12
 4.211145e+00 1.386303e+01 2.330552e+01 3.927487e+00 2.138911e+01 1.086452e+01 9.574735e+00 8.418553e+00 6.420006e+00 5.401927e+01 2.130990e+01 1.084937e+01
<GCONST> 5.176817e+01
<STATE> 7
<MEAN> 12
 -1.045239e+00 -7.321404e+00 5.320081e+00 -3.981041e+00 5.719040e-01 1.121668e+00 -1.300984e-03 -4.620361e+00 -2.442708e+00 8.462626e+00 -2.318422e+00 1.859818e+00
<VARIANCE> 12
 4.667675e+00 7.037471e+00 9.926328e+00 3.927487e+00 8.490592e+00 1.373887e+01 1.483348e+01 1.074253e+01 2.668114e+01 1.113928e+01 1.265161e+01 1.952688e+01
<GCONST> 5.024392e+01
<STATE> 8
<MEAN> 12
 4.332087e+00 3.274843e+00 5.433019e+00 6.056942e+00 1.665345e+00 6.510447e+00 9.103340e+00 -2.244600e+00 3.454169e+00 1.219733e+01 -9.926433e-01 -2.424444e+00
<VARIANCE> 12
 4.211145e+00 7.037471e+00 9.926328e+00 1.241893e+01 5.763704e+00 2.971990e+01 1.569084e+01 2.627248e+01 6.420006e+00 1.091418e+01 9.506669e+00 4.922233e+00
<GCONST> 4.951816e+01
<TRANSP> 9
 0.000000e+00 1.000000e+00 0.000000e+00 0.000000e+00 0.000000e+00 0.000000e+00 0.000000e+00 0.000000e+00 0.000000e+00
 0.000000e+00 8.413940e-01 1.586060e-01 0.000000e+00 0.000000e+00 0.000000e+00 0.000000e+00 0.000000e+00 0.000000e+00
 0.000000e+00 0.000000e+00 8.851401e-01 1.148599e-01 0.000000e+00 0.000000e+00 0.000000e+00 0.000000e+00 0.000000e+00
 0.000000e+00 0.000000e+00 0.000000e+00 8.992798e-01 1.007202e-01 0.000000e+00 0.000000e+00 0.000000e+00 0.000000e+00
 0.000000e+00 0.000000e+00 0.000000e+00 0.000000e+00 8.583696e-01 1.416305e-01 0.000000e+00 0.000000e+00 0.000000e+00
 0.000000e+00 0.000000e+00 0.000000e+00 0.000000e+00 0.000000e+00 8.389225e-01 1.610775e-01 0.000000e+00 0.000000e+00
 0.000000e+00 0.000000e+00 0.000000e+00 0.000000e+00 0.000000e+00 0.000000e+00 8.273730e-01 1.726270e-01 0.000000e+00
 0.000000e+00 0.000000e+00 0.000000e+00 0.000000e+00 0.000000e+00 0.000000e+00 0.000000e+00 9.090798e-01 9.092016e-02
 0.000000e+00 0.000000e+00 0.000000e+00 0.000000e+00 0.000000e+00 0.000000e+00 0.000000e+00 0.000000e+00 0.000000e+00
<ENDHMM>
