~o
<STREAMINFO> 1 12
<VECSIZE> 12<NULLD><MFCC_Z><DIAGC>
~h "T1375864576"
<BEGINHMM>
<NUMSTATES> 8
<STATE> 2
<MEAN> 12
 -4.211524e+00 -8.511150e+00 8.344563e+00 9.467682e-01 5.097228e+00 2.015019e+00 8.088729e+00 -6.970103e+00 -4.109204e+00 1.136867e+00 1.938560e+00 -3.091875e+00
<VARIANCE> 12
 4.476967e+00 4.390213e+01 1.647734e+01 1.707599e+01 3.569899e+01 2.342646e+01 3.605214e+01 4.217419e+01 3.031412e+01 5.095081e+01 2.034373e+01 1.032505e+01
<GCONST> 5.972068e+01
<STATE> 3
<MEAN> 12
 -4.320426e+00 -3.415083e+00 7.846715e+00 -9.129450e-01 4.891043e+00 3.361340e+00 2.786176e+00 -3.327353e+00 -1.023135e-01 -1.512009e-02 -2.564436e-01 -7.056099e-01
<VARIANCE> 12
 7.099390e+00 8.668237e+01 2.374591e+01 2.747236e+01 4.515033e+01 4.470010e+01 2.228383e+01 5.512210e+01 2.097648e+01 5.925866e+01 1.610423e+01 1.219715e+01
<GCONST> 6.208636e+01
<STATE> 4
<MEAN> 12
 -2.438761e+00 1.857360e+00 4.115169e+00 -3.837550e-02 6.868077e-03 5.341217e-01 7.494277e-02 1.409283e+00 1.471644e-01 -1.162742e+00 -2.102782e-01 1.249990e+00
<VARIANCE> 12
 1.512115e+01 5.225177e+01 6.185306e+01 3.093816e+01 9.762666e+01 7.263703e+01 1.863349e+01 3.612760e+01 2.614090e+01 4.093585e+01 1.918684e+01 1.456330e+01
<GCONST> 6.427032e+01
<STATE> 5
<MEAN> 12
 6.005905e-01 3.921822e+00 -2.282302e+00 7.261176e-01 -4.639390e+00 -3.562255e+00 -2.236997e+00 3.573257e+00 -1.310894e-01 -2.101786e-01 -2.099412e-01 2.625538e+00
<VARIANCE> 12
 2.464614e+01 1.911578e+01 1.083848e+02 2.685982e+01 1.057739e+02 7.589404e+01 2.267526e+01 1.768260e+01 3.072500e+01 2.100787e+01 1.851039e+01 2.124105e+01
<GCONST> 6.361472e+01
<STATE> 6
<MEAN> 12
 4.316997e+00 4.063296e+00 -8.898078e+00 -3.708681e-01 -4.548078e+00 -3.393195e+00 -4.133310e+00 3.580076e+00 1.612256e+00 4.062245e-01 -7.256024e-01 1.337285e+00
<VARIANCE> 12
 2.223842e+01 9.004914e+00 7.599441e+01 1.960116e+01 7.810770e+01 6.682788e+01 1.886361e+01 1.573160e+01 2.816336e+01 1.051537e+01 1.480333e+01 3.519825e+01
<GCONST> 6.086019e+01
<STATE> 7
<MEAN> 12
 6.053106e+00 2.083820e+00 -9.126060e+00 -3.506935e-01 -8.077357e-01 1.044966e+00 -4.579525e+00 1.734866e+00 2.583115e+00 -1.551030e-01 -5.362589e-01 -1.415267e+00
<VARIANCE> 12
 8.204098e+00 9.163588e+00 3.389509e+01 9.415994e+00 3.778020e+01 4.215298e+01 1.065850e+01 1.345556e+01 2.604944e+01 8.649803e+00 1.186423e+01 3.030500e+01
<GCONST> 5.578129e+01
<TRANSP> 8
 0.000000e+00 1.000000e+00 0.000000e+00 0.000000e+00 0.000000e+00 0.000000e+00 0.000000e+00 0.000000e+00
 0.000000e+00 8.775510e-01 1.224490e-01 0.000000e+00 0.000000e+00 0.000000e+00 0.000000e+00 0.000000e+00
 0.000000e+00 0.000000e+00 8.775511e-01 1.224490e-01 0.000000e+00 0.000000e+00 0.000000e+00 0.000000e+00
 0.000000e+00 0.000000e+00 0.000000e+00 8.775510e-01 1.224490e-01 0.000000e+00 0.000000e+00 0.000000e+00
 0.000000e+00 0.000000e+00 0.000000e+00 0.000000e+00 8.775510e-01 1.224490e-01 0.000000e+00 0.000000e+00
 0.000000e+00 0.000000e+00 0.000000e+00 0.000000e+00 0.000000e+00 8.775510e-01 1.224490e-01 0.000000e+00
 0.000000e+00 0.000000e+00 0.000000e+00 0.000000e+00 0.000000e+00 0.000000e+00 8.775510e-01 1.224490e-01
 0.000000e+00 0.000000e+00 0.000000e+00 0.000000e+00 0.000000e+00 0.000000e+00 0.000000e+00 0.000000e+00
<ENDHMM>
