~o
<STREAMINFO> 1 12
<VECSIZE> 12<NULLD><MFCC_Z><DIAGC>
~h "T13771896898"
<BEGINHMM>
<NUMSTATES> 9
<STATE> 2
<MEAN> 12
 -3.532127e-08 -1.280396e-07 -1.059638e-07 -6.357829e-07 -1.854367e-07 5.298191e-08 3.443824e-07 3.178914e-07 -5.298191e-08 3.002308e-07 -1.766064e-08 6.181222e-08
<VARIANCE> 12
 2.345103e+01 3.053759e+01 5.488367e+01 3.551703e+01 3.046191e+01 2.959742e+01 3.099103e+01 6.864821e+01 3.425850e+01 2.667130e+01 2.852543e+01 1.701949e+01
<GCONST> 6.367316e+01
<STATE> 3
<MEAN> 12
 -3.532127e-08 -1.280396e-07 -1.059638e-07 -6.357829e-07 -1.854367e-07 5.298191e-08 3.443824e-07 3.178914e-07 -5.298191e-08 3.002308e-07 -1.766064e-08 6.181222e-08
<VARIANCE> 12
 2.345103e+01 3.053759e+01 5.488367e+01 3.551703e+01 3.046191e+01 2.959742e+01 3.099103e+01 6.864821e+01 3.425850e+01 2.667130e+01 2.852543e+01 1.701949e+01
<GCONST> 6.367316e+01
<STATE> 4
<MEAN> 12
 -3.532127e-08 -1.280396e-07 -1.059638e-07 -6.357829e-07 -1.854367e-07 5.298191e-08 3.443824e-07 3.178914e-07 -5.298191e-08 3.002308e-07 -1.766064e-08 6.181222e-08
<VARIANCE> 12
 2.345103e+01 3.053759e+01 5.488367e+01 3.551703e+01 3.046191e+01 2.959742e+01 3.099103e+01 6.864821e+01 3.425850e+01 2.667130e+01 2.852543e+01 1.701949e+01
<GCONST> 6.367316e+01
<STATE> 5
<MEAN> 12
 -3.532127e-08 -1.280396e-07 -1.059638e-07 -6.357829e-07 -1.854367e-07 5.298191e-08 3.443824e-07 3.178914e-07 -5.298191e-08 3.002308e-07 -1.766064e-08 6.181222e-08
<VARIANCE> 12
 2.345103e+01 3.053759e+01 5.488367e+01 3.551703e+01 3.046191e+01 2.959742e+01 3.099103e+01 6.864821e+01 3.425850e+01 2.667130e+01 2.852543e+01 1.701949e+01
<GCONST> 6.367316e+01
<STATE> 6
<MEAN> 12
 -3.532127e-08 -1.280396e-07 -1.059638e-07 -6.357829e-07 -1.854367e-07 5.298191e-08 3.443824e-07 3.178914e-07 -5.298191e-08 3.002308e-07 -1.766064e-08 6.181222e-08
<VARIANCE> 12
 2.345103e+01 3.053759e+01 5.488367e+01 3.551703e+01 3.046191e+01 2.959742e+01 3.099103e+01 6.864821e+01 3.425850e+01 2.667130e+01 2.852543e+01 1.701949e+01
<GCONST> 6.367316e+01
<STATE> 7
<MEAN> 12
 -3.532127e-08 -1.280396e-07 -1.059638e-07 -6.357829e-07 -1.854367e-07 5.298191e-08 3.443824e-07 3.178914e-07 -5.298191e-08 3.002308e-07 -1.766064e-08 6.181222e-08
<VARIANCE> 12
 2.345103e+01 3.053759e+01 5.488367e+01 3.551703e+01 3.046191e+01 2.959742e+01 3.099103e+01 6.864821e+01 3.425850e+01 2.667130e+01 2.852543e+01 1.701949e+01
<GCONST> 6.367316e+01
<STATE> 8
<MEAN> 12
 -3.532127e-08 -1.280396e-07 -1.059638e-07 -6.357829e-07 -1.854367e-07 5.298191e-08 3.443824e-07 3.178914e-07 -5.298191e-08 3.002308e-07 -1.766064e-08 6.181222e-08
<VARIANCE> 12
 2.345103e+01 3.053759e+01 5.488367e+01 3.551703e+01 3.046191e+01 2.959742e+01 3.099103e+01 6.864821e+01 3.425850e+01 2.667130e+01 2.852543e+01 1.701949e+01
<GCONST> 6.367316e+01
<TRANSP> 9
 0.000000e+00 1.000000e+00 0.000000e+00 0.000000e+00 0.000000e+00 0.000000e+00 0.000000e+00 0.000000e+00 0.000000e+00
 0.000000e+00 9.000000e-01 9.999999e-02 0.000000e+00 0.000000e+00 0.000000e+00 0.000000e+00 0.000000e+00 0.000000e+00
 0.000000e+00 0.000000e+00 9.000000e-01 9.999999e-02 0.000000e+00 0.000000e+00 0.000000e+00 0.000000e+00 0.000000e+00
 0.000000e+00 0.000000e+00 0.000000e+00 9.000000e-01 9.999999e-02 0.000000e+00 0.000000e+00 0.000000e+00 0.000000e+00
 0.000000e+00 0.000000e+00 0.000000e+00 0.000000e+00 9.000000e-01 9.999999e-02 0.000000e+00 0.000000e+00 0.000000e+00
 0.000000e+00 0.000000e+00 0.000000e+00 0.000000e+00 0.000000e+00 9.000000e-01 9.999999e-02 0.000000e+00 0.000000e+00
 0.000000e+00 0.000000e+00 0.000000e+00 0.000000e+00 0.000000e+00 0.000000e+00 9.000000e-01 9.999999e-02 0.000000e+00
 0.000000e+00 0.000000e+00 0.000000e+00 0.000000e+00 0.000000e+00 0.000000e+00 0.000000e+00 9.000000e-01 9.999999e-02
 0.000000e+00 0.000000e+00 0.000000e+00 0.000000e+00 0.000000e+00 0.000000e+00 0.000000e+00 0.000000e+00 0.000000e+00
<ENDHMM>
