~o
<STREAMINFO> 1 12
<VECSIZE> 12<NULLD><MFCC_Z><DIAGC>
~h "s007"
<BEGINHMM>
<NUMSTATES> 13
<STATE> 2
<MEAN> 12
 -3.844356e+00 6.659250e+00 1.061365e+01 -1.457655e+01 -1.346112e+01 2.225125e+00 -1.963480e+00 -2.723294e+00 8.893044e+00 7.946381e+00 -2.431327e+00 -8.613951e+00
<VARIANCE> 12
 2.992172e+00 1.206229e+01 1.315637e+01 1.603119e+01 1.307421e+01 6.882598e+00 6.308319e+01 2.268453e+01 2.174520e+01 8.172891e+01 7.224612e+01 4.634171e+01
<GCONST> 5.835675e+01
<STATE> 3
<MEAN> 12
 -3.631806e+00 -1.399393e+00 5.193473e+00 -7.235309e+00 -1.306184e+01 -1.597817e+00 1.107014e+01 -1.273376e+01 3.543081e+00 9.125859e+00 -9.926929e+00 -1.177616e+01
<VARIANCE> 12
 2.992172e+00 1.125466e+01 1.315637e+01 1.603119e+01 1.977132e+01 1.466804e+01 6.764258e+00 1.015323e+01 7.653072e+01 2.252672e+01 3.147048e+01 1.185731e+01
<GCONST> 5.419649e+01
<STATE> 4
<MEAN> 12
 -4.943233e+00 -1.018692e+01 1.948444e+00 2.989940e+00 2.133938e-01 -2.158535e-01 9.866043e+00 -1.590046e+01 -8.132138e+00 2.732804e+00 3.711551e+00 -7.207309e+00
<VARIANCE> 12
 2.992172e+00 6.107776e+00 1.315637e+01 4.196991e+01 1.506516e+01 2.312852e+01 9.870506e+00 1.141143e+01 2.086389e+01 9.520230e+00 2.634028e+01 8.779299e+00
<GCONST> 5.258650e+01
<STATE> 5
<MEAN> 12
 -1.449676e+00 -8.404976e+00 -8.030901e+00 1.391119e+01 4.712617e+00 -4.662364e+00 1.039656e+00 -4.025748e+00 -1.843245e+00 -5.094346e+00 6.767889e+00 3.602105e+00
<VARIANCE> 12
 2.992172e+00 1.399177e+01 2.271898e+01 1.603119e+01 1.307421e+01 1.141437e+01 2.357666e+01 2.292084e+01 2.335473e+01 3.693272e+01 1.738450e+01 2.989216e+01
<GCONST> 5.599762e+01
<STATE> 6
<MEAN> 12
 2.061841e+00 1.252706e-01 -9.644769e+00 5.253611e+00 3.267289e+00 -3.689478e+00 -1.858807e+00 2.116195e+00 2.601086e+00 1.263163e+00 1.188347e+00 2.222643e+00
<VARIANCE> 12
 2.992172e+00 8.395894e+00 1.795227e+01 2.722202e+01 1.307421e+01 1.133301e+01 1.285464e+01 4.714600e+01 2.418422e+01 2.291449e+01 1.290934e+01 1.408476e+01
<GCONST> 5.439584e+01
<STATE> 7
<MEAN> 12
 -1.097204e+00 7.499215e-01 -3.189638e-02 -2.907813e+00 -3.196281e+00 -2.266047e+00 1.510230e-01 7.129044e+00 -4.893747e+00 -1.472169e-01 -3.021598e+00 -2.848408e+00
<VARIANCE> 12
 1.323011e+01 6.107776e+00 3.507991e+01 3.905910e+01 3.295208e+01 3.220555e+01 7.687129e+00 1.849186e+01 2.254012e+01 1.204777e+01 2.201531e+01 3.235982e+01
<GCONST> 5.776619e+01
<STATE> 8
<MEAN> 12
 -3.124038e+00 5.786530e+00 1.146340e+01 -9.869911e+00 -6.576064e+00 7.745747e+00 -4.943179e+00 5.333244e+00 -6.274994e+00 2.191258e-01 -1.086773e+00 3.502279e+00
<VARIANCE> 12
 1.606804e+01 6.107776e+00 1.315637e+01 1.803685e+01 1.307421e+01 1.028182e+01 1.990780e+01 1.015323e+01 8.722652e+00 1.341556e+01 1.463479e+01 2.277362e+01
<GCONST> 5.289151e+01
<STATE> 9
<MEAN> 12
 5.217358e+00 4.790191e+00 3.299268e+00 -5.257902e-01 1.645778e+00 2.615100e-01 -7.939749e+00 7.966103e+00 3.651149e+00 4.071477e+00 2.292448e+00 2.999795e+00
<VARIANCE> 12
 2.992172e+00 6.107776e+00 3.547085e+01 1.603119e+01 3.016595e+01 2.108405e+01 1.241256e+01 1.387273e+01 1.589754e+01 1.187733e+01 1.181551e+01 3.705345e+01
<GCONST> 5.422977e+01
<STATE> 10
<MEAN> 12
 7.018792e+00 5.109544e+00 -6.802373e+00 3.319381e+00 9.968621e+00 -2.932238e+00 -5.191929e+00 8.185485e+00 7.578380e+00 4.491604e+00 -1.930785e+00 -2.741751e+00
<VARIANCE> 12
 2.992172e+00 6.107776e+00 1.519378e+01 1.603119e+01 1.307421e+01 5.712321e+00 1.816100e+01 1.853656e+01 8.117633e+00 1.445690e+01 6.829197e+00 8.779299e+00
<GCONST> 4.944662e+01
<STATE> 11
<MEAN> 12
 4.730188e+00 -2.681821e+00 -1.253279e+01 4.141966e+00 1.185395e+01 -3.085023e+00 4.252340e+00 5.534982e+00 5.111474e+00 -9.941748e+00 8.368656e-01 7.881966e+00
<VARIANCE> 12
 2.992172e+00 7.629900e+00 1.315637e+01 1.603119e+01 1.307421e+01 5.636638e+00 6.764258e+00 1.015323e+01 2.326432e+01 1.615587e+01 1.882789e+01 2.519546e+01
<GCONST> 5.115462e+01
<STATE> 12
<MEAN> 12
 3.175838e+00 -6.479506e+00 -6.178412e+00 1.233447e+01 1.017403e+01 -9.157388e-01 2.826964e+00 -3.998873e+00 -4.994059e+00 -9.645307e+00 2.728671e+00 6.672928e+00
<VARIANCE> 12
 2.992172e+00 6.107776e+00 2.441451e+01 1.603119e+01 1.307421e+01 3.119075e+01 6.764258e+00 2.597562e+01 8.117633e+00 1.898074e+01 2.445733e+01 8.909065e+00
<GCONST> 5.253084e+01
<TRANSP> 13
 0.000000e+00 1.000000e+00 0.000000e+00 0.000000e+00 0.000000e+00 0.000000e+00 0.000000e+00 0.000000e+00 0.000000e+00 0.000000e+00 0.000000e+00 0.000000e+00 0.000000e+00
 0.000000e+00 9.010469e-01 9.895308e-02 0.000000e+00 0.000000e+00 0.000000e+00 0.000000e+00 0.000000e+00 0.000000e+00 0.000000e+00 0.000000e+00 0.000000e+00 0.000000e+00
 0.000000e+00 0.000000e+00 8.051008e-01 1.948992e-01 0.000000e+00 0.000000e+00 0.000000e+00 0.000000e+00 0.000000e+00 0.000000e+00 0.000000e+00 0.000000e+00 0.000000e+00
 0.000000e+00 0.000000e+00 0.000000e+00 7.902209e-01 2.097792e-01 0.000000e+00 0.000000e+00 0.000000e+00 0.000000e+00 0.000000e+00 0.000000e+00 0.000000e+00 0.000000e+00
 0.000000e+00 0.000000e+00 0.000000e+00 0.000000e+00 8.742066e-01 1.257935e-01 0.000000e+00 0.000000e+00 0.000000e+00 0.000000e+00 0.000000e+00 0.000000e+00 0.000000e+00
 0.000000e+00 0.000000e+00 0.000000e+00 0.000000e+00 0.000000e+00 8.568485e-01 1.431515e-01 0.000000e+00 0.000000e+00 0.000000e+00 0.000000e+00 0.000000e+00 0.000000e+00
 0.000000e+00 0.000000e+00 0.000000e+00 0.000000e+00 0.000000e+00 0.000000e+00 8.129160e-01 1.870839e-01 0.000000e+00 0.000000e+00 0.000000e+00 0.000000e+00 0.000000e+00
 0.000000e+00 0.000000e+00 0.000000e+00 0.000000e+00 0.000000e+00 0.000000e+00 0.000000e+00 9.287518e-01 7.124824e-02 0.000000e+00 0.000000e+00 0.000000e+00 0.000000e+00
 0.000000e+00 0.000000e+00 0.000000e+00 0.000000e+00 0.000000e+00 0.000000e+00 0.000000e+00 0.000000e+00 6.940840e-01 3.059160e-01 0.000000e+00 0.000000e+00 0.000000e+00
 0.000000e+00 0.000000e+00 0.000000e+00 0.000000e+00 0.000000e+00 0.000000e+00 0.000000e+00 0.000000e+00 0.000000e+00 8.631912e-01 1.368088e-01 0.000000e+00 0.000000e+00
 0.000000e+00 0.000000e+00 0.000000e+00 0.000000e+00 0.000000e+00 0.000000e+00 0.000000e+00 0.000000e+00 0.000000e+00 0.000000e+00 8.146290e-01 1.853711e-01 0.000000e+00
 0.000000e+00 0.000000e+00 0.000000e+00 0.000000e+00 0.000000e+00 0.000000e+00 0.000000e+00 0.000000e+00 0.000000e+00 0.000000e+00 0.000000e+00 9.066094e-01 9.339058e-02
 0.000000e+00 0.000000e+00 0.000000e+00 0.000000e+00 0.000000e+00 0.000000e+00 0.000000e+00 0.000000e+00 0.000000e+00 0.000000e+00 0.000000e+00 0.000000e+00 0.000000e+00
<ENDHMM>
