~o
<STREAMINFO> 1 12
<VECSIZE> 12<NULLD><MFCC_Z><DIAGC>
~h "s017"
<BEGINHMM>
<NUMSTATES> 8
<STATE> 2
<MEAN> 12
 -2.919411e-08 -1.386720e-07 1.946274e-08 9.147489e-07 -2.724784e-07 3.989862e-07 1.557019e-07 -1.398885e-07 -1.848960e-07 2.919411e-08 3.892548e-08 -1.508362e-07
<VARIANCE> 12
 1.443080e+01 8.198280e+01 4.836697e+01 5.837535e+01 1.060933e+02 1.276421e+02 8.038580e+01 9.431351e+01 5.002058e+01 4.072184e+01 2.561639e+01 4.230441e+01
<GCONST> 7.013044e+01
<STATE> 3
<MEAN> 12
 -2.919411e-08 -1.386720e-07 1.946274e-08 9.147489e-07 -2.724784e-07 3.989862e-07 1.557019e-07 -1.398885e-07 -1.848960e-07 2.919411e-08 3.892548e-08 -1.508362e-07
<VARIANCE> 12
 1.443080e+01 8.198280e+01 4.836697e+01 5.837535e+01 1.060933e+02 1.276421e+02 8.038580e+01 9.431351e+01 5.002058e+01 4.072184e+01 2.561639e+01 4.230441e+01
<GCONST> 7.013044e+01
<STATE> 4
<MEAN> 12
 -2.919411e-08 -1.386720e-07 1.946274e-08 9.147489e-07 -2.724784e-07 3.989862e-07 1.557019e-07 -1.398885e-07 -1.848960e-07 2.919411e-08 3.892548e-08 -1.508362e-07
<VARIANCE> 12
 1.443080e+01 8.198280e+01 4.836697e+01 5.837535e+01 1.060933e+02 1.276421e+02 8.038580e+01 9.431351e+01 5.002058e+01 4.072184e+01 2.561639e+01 4.230441e+01
<GCONST> 7.013044e+01
<STATE> 5
<MEAN> 12
 -2.919411e-08 -1.386720e-07 1.946274e-08 9.147489e-07 -2.724784e-07 3.989862e-07 1.557019e-07 -1.398885e-07 -1.848960e-07 2.919411e-08 3.892548e-08 -1.508362e-07
<VARIANCE> 12
 1.443080e+01 8.198280e+01 4.836697e+01 5.837535e+01 1.060933e+02 1.276421e+02 8.038580e+01 9.431351e+01 5.002058e+01 4.072184e+01 2.561639e+01 4.230441e+01
<GCONST> 7.013044e+01
<STATE> 6
<MEAN> 12
 -2.919411e-08 -1.386720e-07 1.946274e-08 9.147489e-07 -2.724784e-07 3.989862e-07 1.557019e-07 -1.398885e-07 -1.848960e-07 2.919411e-08 3.892548e-08 -1.508362e-07
<VARIANCE> 12
 1.443080e+01 8.198280e+01 4.836697e+01 5.837535e+01 1.060933e+02 1.276421e+02 8.038580e+01 9.431351e+01 5.002058e+01 4.072184e+01 2.561639e+01 4.230441e+01
<GCONST> 7.013044e+01
<STATE> 7
<MEAN> 12
 -2.919411e-08 -1.386720e-07 1.946274e-08 9.147489e-07 -2.724784e-07 3.989862e-07 1.557019e-07 -1.398885e-07 -1.848960e-07 2.919411e-08 3.892548e-08 -1.508362e-07
<VARIANCE> 12
 1.443080e+01 8.198280e+01 4.836697e+01 5.837535e+01 1.060933e+02 1.276421e+02 8.038580e+01 9.431351e+01 5.002058e+01 4.072184e+01 2.561639e+01 4.230441e+01
<GCONST> 7.013044e+01
<TRANSP> 8
 0.000000e+00 1.000000e+00 0.000000e+00 0.000000e+00 0.000000e+00 0.000000e+00 0.000000e+00 0.000000e+00
 0.000000e+00 9.000000e-01 9.999999e-02 0.000000e+00 0.000000e+00 0.000000e+00 0.000000e+00 0.000000e+00
 0.000000e+00 0.000000e+00 9.000000e-01 9.999999e-02 0.000000e+00 0.000000e+00 0.000000e+00 0.000000e+00
 0.000000e+00 0.000000e+00 0.000000e+00 9.000000e-01 9.999999e-02 0.000000e+00 0.000000e+00 0.000000e+00
 0.000000e+00 0.000000e+00 0.000000e+00 0.000000e+00 9.000000e-01 9.999999e-02 0.000000e+00 0.000000e+00
 0.000000e+00 0.000000e+00 0.000000e+00 0.000000e+00 0.000000e+00 9.000000e-01 9.999999e-02 0.000000e+00
 0.000000e+00 0.000000e+00 0.000000e+00 0.000000e+00 0.000000e+00 0.000000e+00 9.000000e-01 9.999999e-02
 0.000000e+00 0.000000e+00 0.000000e+00 0.000000e+00 0.000000e+00 0.000000e+00 0.000000e+00 0.000000e+00
<ENDHMM>
