~o
<STREAMINFO> 1 12
<VECSIZE> 12<NULLD><MFCC_Z><DIAGC>
~h "s001"
<BEGINHMM>
<NUMSTATES> 8
<STATE> 2
<MEAN> 12
 5.669291e-01 2.058009e+00 -4.468484e-01 -7.847236e-01 -4.271961e+00 2.086975e+00 5.889398e+00 8.135775e-01 -8.093125e-01 2.369298e+00 -7.097717e-01 1.117193e+00
<VARIANCE> 12
 2.861460e+01 4.938643e+01 2.032417e+01 3.419270e+01 3.259531e+01 1.617184e+01 7.365056e+01 5.155903e+01 1.130317e+01 2.477520e+01 1.983557e+01 1.030527e+01
<GCONST> 6.131650e+01
<STATE> 3
<MEAN> 12
 -2.901235e+00 2.771294e+00 -3.303016e+00 -4.462137e+00 -1.683611e+00 2.853838e+00 -2.145478e+00 -2.135371e+00 8.406002e-01 -1.849411e+00 6.711273e-01 -4.822082e-01
<VARIANCE> 12
 1.171713e+01 6.761262e+01 1.744803e+01 6.630982e+01 1.583505e+01 2.066268e+01 7.256519e+01 2.859115e+01 1.361516e+01 3.835588e+01 1.818693e+01 2.741610e+01
<GCONST> 6.168100e+01
<STATE> 4
<MEAN> 12
 -1.971774e+00 5.496374e+00 -2.801247e+00 -6.357000e+00 -1.529520e+00 2.634367e+00 -4.892852e+00 -1.730989e-01 1.652254e+00 -3.248464e+00 1.126450e+00 -1.904266e+00
<VARIANCE> 12
 9.241373e+00 7.643808e+01 3.580929e+01 8.412282e+01 1.527594e+01 3.262121e+01 3.634921e+01 2.264350e+01 1.342010e+01 4.414037e+01 1.619528e+01 3.322080e+01
<GCONST> 6.222150e+01
<STATE> 5
<MEAN> 12
 -8.290702e-02 2.317915e+00 1.929142e-01 -1.864762e+00 -4.140115e-02 1.088486e+00 -2.487792e+00 1.429294e+00 7.700470e-01 -7.193545e-01 1.075529e+00 -7.638255e-01
<VARIANCE> 12
 6.791191e+00 9.871560e+01 4.500576e+01 1.275494e+02 2.259215e+01 5.224273e+01 3.259300e+01 1.586494e+01 1.556907e+01 5.335018e+01 1.682102e+01 3.098052e+01
<GCONST> 6.351755e+01
<STATE> 6
<MEAN> 12
 1.328885e+00 -4.469901e+00 2.891493e+00 4.737817e+00 2.472317e+00 -3.050539e+00 9.638310e-01 8.926979e-01 -6.377738e-01 2.251622e+00 3.661130e-01 1.173001e+00
<VARIANCE> 12
 4.102085e+00 7.487624e+01 2.493818e+01 9.049275e+01 1.893268e+01 5.542589e+01 2.296722e+01 1.304524e+01 1.344375e+01 3.698949e+01 2.050392e+01 1.893101e+01
<GCONST> 6.033252e+01
<STATE> 7
<MEAN> 12
 3.060110e+00 -8.173610e+00 3.466724e+00 8.730767e+00 5.054135e+00 -5.613098e+00 2.672865e+00 -8.270525e-01 -1.815825e+00 1.196290e+00 -2.529462e+00 8.600850e-01
<VARIANCE> 12
 5.143822e+00 1.946584e+01 9.616859e+00 2.752368e+01 1.223989e+01 2.803074e+01 1.085490e+01 9.946465e+00 9.329748e+00 2.627854e+01 2.938536e+01 1.175455e+01
<GCONST> 5.410608e+01
<TRANSP> 8
 0.000000e+00 1.000000e+00 0.000000e+00 0.000000e+00 0.000000e+00 0.000000e+00 0.000000e+00 0.000000e+00
 0.000000e+00 8.846154e-01 1.153846e-01 0.000000e+00 0.000000e+00 0.000000e+00 0.000000e+00 0.000000e+00
 0.000000e+00 0.000000e+00 8.846154e-01 1.153846e-01 0.000000e+00 0.000000e+00 0.000000e+00 0.000000e+00
 0.000000e+00 0.000000e+00 0.000000e+00 8.846154e-01 1.153846e-01 0.000000e+00 0.000000e+00 0.000000e+00
 0.000000e+00 0.000000e+00 0.000000e+00 0.000000e+00 8.846154e-01 1.153846e-01 0.000000e+00 0.000000e+00
 0.000000e+00 0.000000e+00 0.000000e+00 0.000000e+00 0.000000e+00 8.846154e-01 1.153846e-01 0.000000e+00
 0.000000e+00 0.000000e+00 0.000000e+00 0.000000e+00 0.000000e+00 0.000000e+00 8.846154e-01 1.153846e-01
 0.000000e+00 0.000000e+00 0.000000e+00 0.000000e+00 0.000000e+00 0.000000e+00 0.000000e+00 0.000000e+00
<ENDHMM>
