~o
<STREAMINFO> 1 12
<VECSIZE> 12<NULLD><MFCC_Z><DIAGC>
~h "s083"
<BEGINHMM>
<NUMSTATES> 9
<STATE> 2
<MEAN> 12
 3.829587e+00 -6.591122e+00 -3.192927e+00 1.453788e+01 -2.059247e+00 -8.281594e+00 9.159714e+00 6.990591e-01 -5.476594e+00 -3.308658e+00 -3.442238e+00 1.178957e+01
<VARIANCE> 12
 2.084711e+01 4.369055e+01 1.981376e+01 2.155307e+01 5.243846e+01 1.011291e+01 2.720625e+01 2.248640e+01 2.004532e+01 1.140292e+01 9.309100e+00 9.022784e+00
<GCONST> 5.747819e+01
<STATE> 3
<MEAN> 12
 1.440610e+00 -1.313084e+01 -3.584642e+00 1.176047e+01 8.167562e+00 -1.406246e+00 1.377176e+01 -8.881368e+00 -1.159106e+00 6.174950e+00 -2.490479e+00 2.694397e+00
<VARIANCE> 12
 1.059230e+01 1.535697e+01 8.151029e+00 2.155307e+01 1.601010e+01 3.806621e+01 2.056557e+01 9.569686e+00 1.230614e+01 1.551267e+01 1.836329e+01 9.022784e+00
<GCONST> 5.437151e+01
<STATE> 4
<MEAN> 12
 -7.254473e+00 -3.866797e+00 -4.775202e+00 7.939647e+00 6.780941e+00 4.463543e+00 7.641833e+00 -3.694538e+00 2.404423e+00 -2.305679e+00 5.072518e+00 6.466396e-02
<VARIANCE> 12
 4.467411e+00 2.925597e+01 8.151029e+00 2.155307e+01 8.314069e+00 1.011291e+01 2.026993e+01 7.902895e+00 1.485325e+01 3.088814e+01 9.309100e+00 3.763321e+01
<GCONST> 5.359168e+01
<STATE> 5
<MEAN> 12
 -2.019451e+00 3.747881e+00 1.124027e+00 -5.330859e+00 -3.290371e+00 -4.296325e+00 -3.546471e+00 1.256853e+00 3.582348e+00 -5.360810e+00 -9.671936e+00 -7.727020e+00
<VARIANCE> 12
 1.666464e+01 1.535697e+01 8.151029e+00 3.261225e+01 8.314069e+00 1.305629e+01 2.026993e+01 1.060391e+01 7.217489e+00 1.140292e+01 9.309100e+00 9.022784e+00
<GCONST> 5.208092e+01
<STATE> 6
<MEAN> 12
 -5.826930e+00 4.683846e+00 -3.970308e+00 -8.684739e+00 -1.194499e+00 -4.613552e+00 -8.469520e+00 3.231030e+00 3.754373e+00 1.115414e+01 -2.728445e-01 -7.985880e+00
<VARIANCE> 12
 4.467411e+00 1.535697e+01 8.151029e+00 2.155307e+01 1.009305e+01 1.720509e+01 2.026993e+01 7.902895e+00 8.816960e+00 3.529652e+01 1.240421e+01 9.022784e+00
<GCONST> 5.214324e+01
<STATE> 7
<MEAN> 12
 2.021966e+00 7.067698e+00 -2.634025e+00 -1.282963e+01 -7.163232e-01 2.577768e+00 -9.845286e+00 8.550300e+00 -9.846584e+00 -6.790218e-01 7.546911e+00 3.668000e+00
<VARIANCE> 12
 4.467411e+00 1.535697e+01 1.309136e+01 2.155307e+01 8.314069e+00 1.261699e+01 2.026993e+01 1.045750e+01 8.818701e+00 2.896408e+01 9.309100e+00 9.022784e+00
<GCONST> 5.190850e+01
<STATE> 8
<MEAN> 12
 3.733153e+00 8.184484e+00 1.144678e+01 -4.491133e+00 -6.340830e+00 9.794165e+00 -7.400169e+00 1.468947e+00 4.492501e+00 -6.737022e+00 6.179348e+00 3.179915e-01
<VARIANCE> 12
 4.467411e+00 1.535697e+01 1.189110e+01 2.155307e+01 1.026913e+01 1.011291e+01 2.026993e+01 1.109846e+01 1.731152e+01 1.341632e+01 2.325604e+01 9.022784e+00
<GCONST> 5.268228e+01
<TRANSP> 9
 0.000000e+00 1.000000e+00 0.000000e+00 0.000000e+00 0.000000e+00 0.000000e+00 0.000000e+00 0.000000e+00 0.000000e+00
 0.000000e+00 8.335626e-01 1.664374e-01 0.000000e+00 0.000000e+00 0.000000e+00 0.000000e+00 0.000000e+00 0.000000e+00
 0.000000e+00 0.000000e+00 9.144855e-01 8.551452e-02 0.000000e+00 0.000000e+00 0.000000e+00 0.000000e+00 0.000000e+00
 0.000000e+00 0.000000e+00 0.000000e+00 7.673264e-01 2.326736e-01 0.000000e+00 0.000000e+00 0.000000e+00 0.000000e+00
 0.000000e+00 0.000000e+00 0.000000e+00 0.000000e+00 8.941231e-01 1.058769e-01 0.000000e+00 0.000000e+00 0.000000e+00
 0.000000e+00 0.000000e+00 0.000000e+00 0.000000e+00 0.000000e+00 8.676665e-01 1.323335e-01 0.000000e+00 0.000000e+00
 0.000000e+00 0.000000e+00 0.000000e+00 0.000000e+00 0.000000e+00 0.000000e+00 8.659118e-01 1.340882e-01 0.000000e+00
 0.000000e+00 0.000000e+00 0.000000e+00 0.000000e+00 0.000000e+00 0.000000e+00 0.000000e+00 9.051284e-01 9.487156e-02
 0.000000e+00 0.000000e+00 0.000000e+00 0.000000e+00 0.000000e+00 0.000000e+00 0.000000e+00 0.000000e+00 0.000000e+00
<ENDHMM>
