~o
<STREAMINFO> 1 12
<VECSIZE> 12<NULLD><MFCC_Z><DIAGC>
~h "s070"
<BEGINHMM>
<NUMSTATES> 7
<STATE> 2
<MEAN> 12
 -1.837915e+00 -5.018305e+00 3.190334e+00 1.714138e+00 3.235087e-01 -5.765389e+00 3.948494e+00 -2.130327e+00 -7.248322e+00 -1.781912e+00 2.677442e+00 6.262141e+00
<VARIANCE> 12
 3.065268e+00 2.970367e+00 2.756340e+01 1.596402e+01 1.601994e+01 7.836398e+00 1.038407e+01 6.391045e+00 2.280049e+01 1.091166e+01 7.039181e+00 3.086709e+01
<GCONST> 5.027576e+01
<STATE> 3
<MEAN> 12
 2.187697e+00 3.608348e+00 -1.055471e+01 -2.153469e+00 -2.101878e+00 6.314339e+00 -4.183019e+00 -5.244072e+00 7.751489e-01 4.035676e+00 2.318578e+00 -6.810470e+00
<VARIANCE> 12
 1.402452e+00 1.108143e+01 8.156707e+00 8.533149e+00 1.838231e+01 1.618607e+01 8.529846e+00 6.391045e+00 1.490783e+01 1.757827e+01 7.039181e+00 9.679667e+00
<GCONST> 4.852489e+01
<STATE> 4
<MEAN> 12
 -5.544886e-01 4.887946e-01 -1.609178e+00 -7.295164e+00 1.999679e+00 2.303269e+00 -6.964197e+00 7.137055e+00 1.888928e+00 -1.567686e+00 4.874875e-01 -6.622183e+00
<VARIANCE> 12
 3.760969e+00 3.559921e+00 1.999810e+01 6.380763e+01 2.575124e+01 2.534040e+01 2.355108e+01 1.896717e+01 1.166360e+01 3.954503e+01 1.393410e+01 2.255047e+01
<GCONST> 5.626723e+01
<STATE> 5
<MEAN> 12
 -1.554865e+00 -1.755857e+00 1.612607e+00 5.896119e+00 2.442794e+00 -4.916439e+00 2.049098e+00 3.536316e-01 2.861552e+00 -2.057026e+00 2.448303e+00 2.893050e+00
<VARIANCE> 12
 2.852543e+00 2.970367e+00 8.867117e+00 9.046588e+00 4.868513e+01 7.836398e+00 1.072138e+01 3.054121e+01 6.226390e+00 1.494387e+01 3.123301e+01 3.030203e+01
<GCONST> 5.169742e+01
<STATE> 6
<MEAN> 12
 3.214651e+00 4.580491e+00 5.994371e+00 -1.655520e+00 -4.746011e+00 6.100912e+00 4.080465e+00 -1.039351e+00 4.188200e-01 3.315681e+00 -1.015540e+01 2.230319e+00
<VARIANCE> 12
 2.075006e+00 2.970367e+00 8.156707e+00 1.709821e+01 6.567083e+00 1.147345e+01 4.361371e+01 1.428669e+01 8.469731e+00 3.501222e+01 7.039181e+00 1.277169e+01
<GCONST> 4.975871e+01
<TRANSP> 7
 0.000000e+00 1.000000e+00 0.000000e+00 0.000000e+00 0.000000e+00 0.000000e+00 0.000000e+00
 0.000000e+00 8.747681e-01 1.252320e-01 0.000000e+00 0.000000e+00 0.000000e+00 0.000000e+00
 0.000000e+00 0.000000e+00 8.574134e-01 1.425866e-01 0.000000e+00 0.000000e+00 0.000000e+00
 0.000000e+00 0.000000e+00 0.000000e+00 8.743407e-01 1.256594e-01 0.000000e+00 0.000000e+00
 0.000000e+00 0.000000e+00 0.000000e+00 0.000000e+00 9.170123e-01 8.298776e-02 0.000000e+00
 0.000000e+00 0.000000e+00 0.000000e+00 0.000000e+00 0.000000e+00 8.570110e-01 1.429891e-01
 0.000000e+00 0.000000e+00 0.000000e+00 0.000000e+00 0.000000e+00 0.000000e+00 0.000000e+00
<ENDHMM>
