~o
<STREAMINFO> 1 12
<VECSIZE> 12<NULLD><MFCC_Z><DIAGC>
~h "s086"
<BEGINHMM>
<NUMSTATES> 11
<STATE> 2
<MEAN> 12
 -5.943438e+00 6.177397e+00 6.770333e+00 -1.956288e+01 -7.851325e+00 5.735674e+00 -5.838076e+00 3.367924e+00 -4.009718e+00 -3.663628e+00 -7.647649e+00 -7.791688e+00
<VARIANCE> 12
 2.733486e+00 2.939206e+01 6.980314e+00 2.332068e+01 8.676689e+00 2.983981e+01 9.730563e+00 1.646775e+01 2.970385e+01 1.330206e+01 2.201658e+01 6.450718e+00
<GCONST> 5.310160e+01
<STATE> 3
<MEAN> 12
 -3.358251e+00 2.759932e-01 4.600791e+00 -9.212714e+00 -4.590279e+00 8.552892e+00 2.437381e+00 -2.711510e+00 -1.135135e+01 5.049977e+00 -1.125497e+00 1.159145e+00
<VARIANCE> 12
 3.529916e+00 3.862134e+00 1.759309e+01 2.204724e+01 8.515581e+00 2.494382e+01 1.740890e+01 1.248095e+01 1.153881e+01 1.393762e+01 9.393197e+00 1.975510e+01
<GCONST> 5.167113e+01
<STATE> 4
<MEAN> 12
 -3.011322e+00 -3.642326e+00 -3.030900e+00 4.108887e-02 -4.667602e+00 2.648490e+00 9.193521e+00 -5.038257e+00 -1.322492e+01 3.016597e-01 7.175010e+00 -9.642550e-02
<VARIANCE> 12
 2.265005e+00 2.817796e+00 1.012292e+01 1.469426e+01 5.990819e+00 1.255496e+01 6.343752e+00 6.581431e+00 1.924301e+01 1.378682e+01 6.101891e+00 9.181694e+00
<GCONST> 4.656905e+01
<STATE> 5
<MEAN> 12
 -9.104957e-01 -2.044577e+00 -9.191769e+00 3.660008e+00 -1.366072e+00 -1.073987e+00 4.158331e+00 -4.773686e+00 1.725690e-01 -6.805042e+00 2.406607e+00 3.390436e+00
<VARIANCE> 12
 2.265005e+00 2.817796e+00 6.980314e+00 1.469426e+01 5.990819e+00 7.711085e+00 1.789261e+01 6.581431e+00 5.596348e+01 4.601215e+00 1.311677e+01 1.201037e+01
<GCONST> 4.775082e+01
<STATE> 6
<MEAN> 12
 2.014825e+00 2.048670e+00 -1.180067e+00 1.798229e+00 -1.760959e+00 -1.200172e+00 -1.182472e+00 -2.862815e+00 5.704661e+00 -3.796496e+00 1.705954e+00 1.494440e+00
<VARIANCE> 12
 1.577971e+01 9.197094e+00 6.684776e+01 1.469426e+01 8.650829e+00 3.882229e+01 2.479836e+01 4.038784e+01 2.945800e+01 1.976458e+01 4.304469e+01 3.247974e+01
<GCONST> 6.025768e+01
<STATE> 7
<MEAN> 12
 3.837605e+00 -2.182918e-01 -1.628199e+00 2.589765e-01 7.723577e+00 -6.096235e+00 -3.879304e+00 9.849884e+00 7.937363e+00 -6.763572e-01 -7.669047e-01 -4.032663e+00
<VARIANCE> 12
 3.639320e+00 2.817796e+00 5.098161e+01 1.469426e+01 4.011353e+01 2.095241e+01 1.962566e+01 3.210425e+01 1.306958e+01 1.387421e+01 2.794259e+01 2.237483e+01
<GCONST> 5.581940e+01
<STATE> 8
<MEAN> 12
 1.604961e+00 1.796627e+00 -5.836359e+00 3.653377e+00 2.286036e+00 -5.095395e+00 -5.361482e+00 -2.032440e+00 6.735963e+00 -1.234068e+00 -4.004966e+00 3.391383e+00
<VARIANCE> 12
 2.265005e+00 1.291545e+01 1.937550e+01 1.469426e+01 3.826880e+01 1.134973e+01 2.986946e+01 2.477678e+01 1.153881e+01 3.317070e+01 1.255305e+01 6.773099e+00
<GCONST> 5.415287e+01
<STATE> 9
<MEAN> 12
 -1.653348e+00 -3.722721e+00 -4.799666e+00 9.141905e+00 3.709187e+00 -5.029488e+00 -2.029005e+00 -9.322945e-01 5.147559e+00 1.482465e+00 3.826744e+00 2.289747e+00
<VARIANCE> 12
 6.525017e+00 2.214498e+01 1.389749e+01 1.469426e+01 1.401898e+01 7.928331e+00 4.029116e+01 1.196213e+01 2.891649e+01 1.449208e+01 1.211597e+01 4.052783e+00
<GCONST> 5.316762e+01
<STATE> 10
<MEAN> 12
 2.345851e+00 -5.619028e+00 2.518694e+00 1.484889e+01 5.365246e+00 -3.132442e+00 6.729436e+00 2.473089e+00 5.014111e-01 2.529504e+00 4.742997e+00 -6.797971e-01
<VARIANCE> 12
 6.046753e+00 3.890554e+00 9.420359e+00 1.469426e+01 7.997924e+00 1.545236e+01 2.247466e+01 3.804983e+01 2.739077e+01 1.512416e+01 8.478159e+00 1.274232e+01
<GCONST> 5.242008e+01
<TRANSP> 11
 0.000000e+00 1.000000e+00 0.000000e+00 0.000000e+00 0.000000e+00 0.000000e+00 0.000000e+00 0.000000e+00 0.000000e+00 0.000000e+00 0.000000e+00
 0.000000e+00 8.215790e-01 1.784210e-01 0.000000e+00 0.000000e+00 0.000000e+00 0.000000e+00 0.000000e+00 0.000000e+00 0.000000e+00 0.000000e+00
 0.000000e+00 0.000000e+00 9.308917e-01 6.910831e-02 0.000000e+00 0.000000e+00 0.000000e+00 0.000000e+00 0.000000e+00 0.000000e+00 0.000000e+00
 0.000000e+00 0.000000e+00 0.000000e+00 6.535313e-01 3.464687e-01 0.000000e+00 0.000000e+00 0.000000e+00 0.000000e+00 0.000000e+00 0.000000e+00
 0.000000e+00 0.000000e+00 0.000000e+00 0.000000e+00 5.705432e-01 4.294568e-01 0.000000e+00 0.000000e+00 0.000000e+00 0.000000e+00 0.000000e+00
 0.000000e+00 0.000000e+00 0.000000e+00 0.000000e+00 0.000000e+00 9.221941e-01 7.780588e-02 0.000000e+00 0.000000e+00 0.000000e+00 0.000000e+00
 0.000000e+00 0.000000e+00 0.000000e+00 0.000000e+00 0.000000e+00 0.000000e+00 8.782073e-01 1.217927e-01 0.000000e+00 0.000000e+00 0.000000e+00
 0.000000e+00 0.000000e+00 0.000000e+00 0.000000e+00 0.000000e+00 0.000000e+00 0.000000e+00 9.004005e-01 9.959945e-02 0.000000e+00 0.000000e+00
 0.000000e+00 0.000000e+00 0.000000e+00 0.000000e+00 0.000000e+00 0.000000e+00 0.000000e+00 0.000000e+00 6.145881e-01 3.854119e-01 0.000000e+00
 0.000000e+00 0.000000e+00 0.000000e+00 0.000000e+00 0.000000e+00 0.000000e+00 0.000000e+00 0.000000e+00 0.000000e+00 9.001243e-01 9.987573e-02
 0.000000e+00 0.000000e+00 0.000000e+00 0.000000e+00 0.000000e+00 0.000000e+00 0.000000e+00 0.000000e+00 0.000000e+00 0.000000e+00 0.000000e+00
<ENDHMM>
