~o
<STREAMINFO> 1 12
<VECSIZE> 12<NULLD><MFCC_Z><DIAGC>
~h "s012"
<BEGINHMM>
<NUMSTATES> 15
<STATE> 2
<MEAN> 12
 1.323712e+00 -7.704934e+00 -1.555875e+01 -5.960715e-01 1.292543e+00 -2.610752e+00 -7.134973e+00 2.334150e-01 -4.568558e-01 7.330247e-01 -1.168007e+01 -2.165571e+00
<VARIANCE> 12
 5.058423e+00 1.251573e+01 1.301515e+01 5.229417e+00 1.617681e+01 8.301167e+00 6.249248e+00 3.619503e+01 1.248500e+01 5.821374e+00 4.952370e+01 1.231994e+01
<GCONST> 5.144407e+01
<STATE> 3
<MEAN> 12
 3.514277e+00 -2.320197e-01 -1.325011e+01 -3.641634e+00 -1.507170e+00 5.804564e-01 -7.050514e+00 -9.516804e+00 4.752185e+00 -4.979274e-01 3.166463e+00 6.944525e+00
<VARIANCE> 12
 5.058423e+00 1.251573e+01 1.301515e+01 9.187758e+00 6.591447e+00 8.116845e+00 1.559840e+01 7.417117e+00 7.088015e+00 1.376352e+01 8.494121e+00 5.688612e+00
<GCONST> 4.817550e+01
<STATE> 4
<MEAN> 12
 7.761674e+00 2.962289e+00 -6.196916e+00 4.321862e-01 5.204446e+00 6.348433e+00 6.673118e+00 -5.804331e+00 7.632366e+00 3.222245e+00 -5.462351e-02 4.592143e+00
<VARIANCE> 12
 5.058423e+00 1.251573e+01 1.713248e+01 4.691614e+01 1.071106e+01 2.211727e+01 2.165605e+01 7.417117e+00 8.169959e+00 1.827482e+01 1.373101e+01 2.292827e+01
<GCONST> 5.419664e+01
<STATE> 5
<MEAN> 12
 5.990543e+00 -1.424363e+00 -4.630842e+00 9.234960e+00 1.123304e+01 1.578808e+00 4.425792e+00 -9.355938e-01 7.734056e+00 -2.965921e-01 -1.850803e+00 -1.977519e-01
<VARIANCE> 12
 7.308506e+00 2.526114e+01 2.016484e+01 9.710697e+00 2.741284e+01 3.719503e+01 3.549947e+01 8.345427e+00 7.088015e+00 1.829784e+01 1.193002e+01 7.790815e+00
<GCONST> 5.456561e+01
<STATE> 6
<MEAN> 12
 1.051267e+00 -7.474253e+00 -9.779868e+00 3.370529e+00 4.407246e+00 -6.377886e+00 -4.235853e+00 3.137864e-01 6.623674e+00 -6.692430e+00 -5.804678e+00 3.068291e+00
<VARIANCE> 12
 5.058423e+00 1.251573e+01 1.933211e+01 5.696767e+00 2.402322e+01 1.519392e+01 1.102774e+01 7.417117e+00 2.572726e+01 1.571899e+01 1.299782e+01 9.166573e+00
<GCONST> 5.199112e+01
<STATE> 7
<MEAN> 12
 3.804250e+00 -8.447858e+00 -3.336335e+00 2.937869e+00 -4.863046e-01 -9.390879e+00 -3.452195e-01 -4.900574e-01 1.919092e+00 -8.586867e+00 -4.049302e+00 1.298675e+00
<VARIANCE> 12
 1.077243e+01 1.251573e+01 1.622757e+01 5.229417e+00 1.348114e+01 1.349329e+01 1.598686e+01 1.150604e+01 2.415129e+01 1.218846e+01 1.018410e+01 1.543958e+01
<GCONST> 5.256023e+01
<STATE> 8
<MEAN> 12
 -3.795067e+00 -8.827909e+00 7.693519e+00 1.282509e+00 -3.729722e+00 2.770153e+00 1.941856e+00 3.760706e+00 1.239414e+00 1.245213e+00 1.283601e+00 -4.999485e+00
<VARIANCE> 12
 4.447622e+01 1.251573e+01 4.022429e+01 5.229417e+00 1.060699e+01 3.959985e+01 1.556235e+01 1.645522e+01 1.797655e+01 3.521384e+01 1.111743e+01 9.415940e+00
<GCONST> 5.641250e+01
<STATE> 9
<MEAN> 12
 -2.012906e+00 -7.802843e+00 8.531882e+00 -2.563577e+00 -6.138474e+00 1.588798e+00 3.050965e+00 4.090840e+00 -4.708365e+00 2.435103e+00 -2.780952e+00 -1.130541e+00
<VARIANCE> 12
 2.649604e+01 1.355470e+01 1.301515e+01 2.266718e+01 1.355429e+01 2.729804e+01 1.143671e+01 9.488165e+01 4.092423e+01 3.195721e+01 5.739796e+01 1.708113e+01
<GCONST> 6.059237e+01
<STATE> 10
<MEAN> 12
 1.432080e+00 -3.854203e+00 6.426339e+00 -3.881553e+00 -5.327626e+00 1.433631e+00 5.148895e+00 -6.636227e+00 -3.602912e-01 3.091086e+00 -3.240510e+00 2.851725e+00
<VARIANCE> 12
 1.966866e+01 1.251573e+01 1.301515e+01 2.466221e+01 2.410283e+01 3.729072e+01 1.400554e+01 8.397923e+01 3.001257e+01 2.120918e+01 3.803204e+01 1.642602e+01
<GCONST> 6.009636e+01
<STATE> 11
<MEAN> 12
 -8.439766e+00 3.198208e+00 2.391724e+00 1.062855e+00 3.708520e-01 4.227668e+00 3.521932e+00 2.592088e+00 2.315738e-01 5.378848e+00 7.404817e+00 2.280507e+00
<VARIANCE> 12
 2.242107e+01 1.251573e+01 1.301515e+01 5.345253e+00 8.341001e+00 2.473209e+01 3.773180e+01 1.224361e+01 2.247911e+01 6.488161e+01 1.617981e+01 3.415261e+01
<GCONST> 5.699839e+01
<STATE> 12
<MEAN> 12
 -1.079061e+01 5.399491e+00 5.352131e+00 4.029772e+00 3.729401e+00 7.071663e+00 -5.260981e-01 4.388592e-01 -2.690923e+00 -3.124386e+00 9.992248e+00 2.448059e+00
<VARIANCE> 12
 1.806236e+01 1.251573e+01 1.301515e+01 5.938589e+00 6.855114e+00 2.389460e+01 1.735677e+01 8.196953e+00 2.662978e+01 2.521748e+01 8.494121e+00 2.671815e+01
<GCONST> 5.381360e+01
<STATE> 13
<MEAN> 12
 -1.917341e+00 1.750483e+01 8.687141e+00 -6.424148e-01 -3.417108e+00 -7.317576e-01 -3.703614e+00 3.342997e+00 -6.581505e+00 3.595473e-01 8.493981e+00 -5.322196e+00
<VARIANCE> 12
 5.058423e+00 1.251573e+01 1.301515e+01 9.481577e+00 8.880435e+00 6.297203e+00 1.074406e+01 7.417117e+00 8.599745e+00 4.732275e+00 8.494121e+00 7.822847e+00
<GCONST> 4.732270e+01
<STATE> 14
<MEAN> 12
 -3.302063e+00 1.238519e+01 7.588910e+00 -7.232298e+00 -2.766627e+00 -5.996921e+00 -1.823339e+00 5.059031e+00 -7.154271e+00 -9.836952e-01 4.080334e+00 -5.342932e+00
<VARIANCE> 12
 5.058423e+00 2.257673e+01 1.301515e+01 2.747668e+01 2.084525e+01 2.192167e+01 1.764269e+01 9.877781e+00 1.370790e+01 2.497072e+01 1.226157e+01 4.054326e+00
<GCONST> 5.369910e+01
<TRANSP> 15
 0.000000e+00 1.000000e+00 0.000000e+00 0.000000e+00 0.000000e+00 0.000000e+00 0.000000e+00 0.000000e+00 0.000000e+00 0.000000e+00 0.000000e+00 0.000000e+00 0.000000e+00 0.000000e+00 0.000000e+00
 0.000000e+00 8.655825e-01 1.344176e-01 0.000000e+00 0.000000e+00 0.000000e+00 0.000000e+00 0.000000e+00 0.000000e+00 0.000000e+00 0.000000e+00 0.000000e+00 0.000000e+00 0.000000e+00 0.000000e+00
 0.000000e+00 0.000000e+00 8.623800e-01 1.376201e-01 0.000000e+00 0.000000e+00 0.000000e+00 0.000000e+00 0.000000e+00 0.000000e+00 0.000000e+00 0.000000e+00 0.000000e+00 0.000000e+00 0.000000e+00
 0.000000e+00 0.000000e+00 0.000000e+00 8.259999e-01 1.740001e-01 0.000000e+00 0.000000e+00 0.000000e+00 0.000000e+00 0.000000e+00 0.000000e+00 0.000000e+00 0.000000e+00 0.000000e+00 0.000000e+00
 0.000000e+00 0.000000e+00 0.000000e+00 0.000000e+00 9.019395e-01 9.806043e-02 0.000000e+00 0.000000e+00 0.000000e+00 0.000000e+00 0.000000e+00 0.000000e+00 0.000000e+00 0.000000e+00 0.000000e+00
 0.000000e+00 0.000000e+00 0.000000e+00 0.000000e+00 0.000000e+00 8.104419e-01 1.895581e-01 0.000000e+00 0.000000e+00 0.000000e+00 0.000000e+00 0.000000e+00 0.000000e+00 0.000000e+00 0.000000e+00
 0.000000e+00 0.000000e+00 0.000000e+00 0.000000e+00 0.000000e+00 0.000000e+00 7.775855e-01 2.224145e-01 0.000000e+00 0.000000e+00 0.000000e+00 0.000000e+00 0.000000e+00 0.000000e+00 0.000000e+00
 0.000000e+00 0.000000e+00 0.000000e+00 0.000000e+00 0.000000e+00 0.000000e+00 0.000000e+00 6.278943e-01 3.721057e-01 0.000000e+00 0.000000e+00 0.000000e+00 0.000000e+00 0.000000e+00 0.000000e+00
 0.000000e+00 0.000000e+00 0.000000e+00 0.000000e+00 0.000000e+00 0.000000e+00 0.000000e+00 0.000000e+00 9.316204e-01 6.837963e-02 0.000000e+00 0.000000e+00 0.000000e+00 0.000000e+00 0.000000e+00
 0.000000e+00 0.000000e+00 0.000000e+00 0.000000e+00 0.000000e+00 0.000000e+00 0.000000e+00 0.000000e+00 0.000000e+00 8.399821e-01 1.600179e-01 0.000000e+00 0.000000e+00 0.000000e+00 0.000000e+00
 0.000000e+00 0.000000e+00 0.000000e+00 0.000000e+00 0.000000e+00 0.000000e+00 0.000000e+00 0.000000e+00 0.000000e+00 0.000000e+00 7.299184e-01 2.700817e-01 0.000000e+00 0.000000e+00 0.000000e+00
 0.000000e+00 0.000000e+00 0.000000e+00 0.000000e+00 0.000000e+00 0.000000e+00 0.000000e+00 0.000000e+00 0.000000e+00 0.000000e+00 0.000000e+00 8.144678e-01 1.855322e-01 0.000000e+00 0.000000e+00
 0.000000e+00 0.000000e+00 0.000000e+00 0.000000e+00 0.000000e+00 0.000000e+00 0.000000e+00 0.000000e+00 0.000000e+00 0.000000e+00 0.000000e+00 0.000000e+00 8.869514e-01 1.130486e-01 0.000000e+00
 0.000000e+00 0.000000e+00 0.000000e+00 0.000000e+00 0.000000e+00 0.000000e+00 0.000000e+00 0.000000e+00 0.000000e+00 0.000000e+00 0.000000e+00 0.000000e+00 0.000000e+00 8.762143e-01 1.237857e-01
 0.000000e+00 0.000000e+00 0.000000e+00 0.000000e+00 0.000000e+00 0.000000e+00 0.000000e+00 0.000000e+00 0.000000e+00 0.000000e+00 0.000000e+00 0.000000e+00 0.000000e+00 0.000000e+00 0.000000e+00
<ENDHMM>
