~o
<STREAMINFO> 1 12
<VECSIZE> 12<NULLD><MFCC_Z><DIAGC>
~h "s088"
<BEGINHMM>
<NUMSTATES> 10
<STATE> 2
<MEAN> 12
 -3.862447e+00 -5.977422e-01 2.717623e+00 -1.432496e+01 -3.881673e+00 5.319835e+00 -6.952040e+00 7.406152e+00 -6.039006e+00 1.420557e+00 -4.172426e+00 -8.849431e+00
<VARIANCE> 12
 6.739196e+00 1.519781e+01 1.228025e+01 4.135827e+01 7.085477e+00 9.009827e+00 6.088296e+00 7.573505e+01 9.722645e+00 1.372569e+01 1.558316e+01 7.569776e+00
<GCONST> 5.286793e+01
<STATE> 3
<MEAN> 12
 -1.993883e+00 4.626696e+00 6.697313e+00 -1.714798e+01 -1.439057e+00 9.146807e-01 -6.622630e+00 9.392178e-01 -1.105494e+00 -1.606344e+00 -1.006097e+01 -7.847272e+00
<VARIANCE> 12
 1.083089e+01 5.373094e+00 1.228025e+01 2.821423e+01 1.036674e+01 6.882639e+00 1.222117e+01 4.106976e+01 6.566317e+00 1.301743e+01 1.982877e+01 1.106275e+01
<GCONST> 5.229115e+01
<STATE> 4
<MEAN> 12
 -7.225218e-01 5.031049e+00 7.975420e+00 -4.582612e+00 -5.658159e+00 3.918691e+00 -3.519280e+00 -2.839518e+00 -4.213269e-01 7.850224e+00 -3.668379e+00 -1.575066e+00
<VARIANCE> 12
 3.562811e+00 4.656723e+00 1.228025e+01 2.496038e+01 4.117402e+01 7.746086e+00 8.324958e+00 2.884023e+01 1.612034e+01 1.181644e+02 1.400928e+01 1.722612e+01
<GCONST> 5.487300e+01
<STATE> 5
<MEAN> 12
 1.027599e+00 5.501514e+00 8.701978e+00 -2.794376e+00 -6.255971e+00 6.586662e+00 3.865379e-01 -1.433552e+00 1.274071e+00 1.247092e+01 2.062093e+00 -1.585249e+00
<VARIANCE> 12
 7.965295e+00 4.656723e+00 1.228025e+01 2.496038e+01 2.412983e+01 1.093738e+01 3.350909e+01 1.742292e+01 8.136030e+00 3.336656e+01 1.917616e+01 1.283500e+01
<GCONST> 5.444815e+01
<STATE> 6
<MEAN> 12
 2.007675e+00 8.613123e-01 5.326345e+00 5.192111e+00 -3.234044e+00 6.279219e+00 8.967536e+00 -1.044831e+00 3.401234e+00 8.506859e+00 6.607756e+00 4.531821e-01
<VARIANCE> 12
 1.650105e+00 9.272969e+00 1.228025e+01 2.496038e+01 3.257402e+01 4.571288e+01 6.905563e+00 1.257582e+01 7.344229e+00 1.301743e+01 7.671064e+00 7.569776e+00
<GCONST> 5.089957e+01
<STATE> 7
<MEAN> 12
 4.014380e+00 -1.474092e+00 -1.055597e+00 1.187855e+01 1.184288e+00 -6.176165e+00 1.582905e+00 5.537910e+00 6.271371e+00 -4.779749e-01 2.480035e+00 5.819929e+00
<VARIANCE> 12
 4.271487e+00 2.393209e+01 2.604940e+01 2.496038e+01 2.894906e+01 2.296948e+01 6.088296e+00 8.420322e+00 1.510588e+01 1.301743e+01 1.598303e+01 8.614405e+00
<GCONST> 5.380205e+01
<STATE> 8
<MEAN> 12
 8.851485e-01 -2.835968e+00 -1.364498e+01 9.812590e+00 8.522884e+00 -8.357748e+00 6.581022e+00 3.748673e+00 3.242815e+00 -8.178533e+00 5.352192e+00 8.741480e+00
<VARIANCE> 12
 2.984350e+00 6.460709e+00 1.228025e+01 2.496038e+01 7.085477e+00 6.246341e+00 1.090946e+01 1.754228e+01 2.757287e+01 1.301743e+01 1.464530e+01 7.569776e+00
<GCONST> 5.037462e+01
<STATE> 9
<MEAN> 12
 8.547161e-01 -8.018796e+00 -1.256500e+01 1.493996e+01 7.849126e+00 -5.001399e+00 5.804790e+00 -8.138282e+00 -1.780880e+00 -1.075638e+01 6.803576e+00 6.496743e+00
<VARIANCE> 12
 6.262541e+00 4.656723e+00 1.228025e+01 2.496038e+01 7.085477e+00 1.412420e+01 6.686443e+00 1.979383e+01 7.239641e+00 1.783019e+01 1.867320e+01 1.718862e+01
<GCONST> 5.127589e+01
<TRANSP> 10
 0.000000e+00 1.000000e+00 0.000000e+00 0.000000e+00 0.000000e+00 0.000000e+00 0.000000e+00 0.000000e+00 0.000000e+00 0.000000e+00
 0.000000e+00 8.782866e-01 1.217134e-01 0.000000e+00 0.000000e+00 0.000000e+00 0.000000e+00 0.000000e+00 0.000000e+00 0.000000e+00
 0.000000e+00 0.000000e+00 8.876409e-01 1.123591e-01 0.000000e+00 0.000000e+00 0.000000e+00 0.000000e+00 0.000000e+00 0.000000e+00
 0.000000e+00 0.000000e+00 0.000000e+00 9.002786e-01 9.972139e-02 0.000000e+00 0.000000e+00 0.000000e+00 0.000000e+00 0.000000e+00
 0.000000e+00 0.000000e+00 0.000000e+00 0.000000e+00 7.895319e-01 2.104680e-01 0.000000e+00 0.000000e+00 0.000000e+00 0.000000e+00
 0.000000e+00 0.000000e+00 0.000000e+00 0.000000e+00 0.000000e+00 7.520224e-01 2.479776e-01 0.000000e+00 0.000000e+00 0.000000e+00
 0.000000e+00 0.000000e+00 0.000000e+00 0.000000e+00 0.000000e+00 0.000000e+00 8.626282e-01 1.373718e-01 0.000000e+00 0.000000e+00
 0.000000e+00 0.000000e+00 0.000000e+00 0.000000e+00 0.000000e+00 0.000000e+00 0.000000e+00 8.216262e-01 1.783737e-01 0.000000e+00
 0.000000e+00 0.000000e+00 0.000000e+00 0.000000e+00 0.000000e+00 0.000000e+00 0.000000e+00 0.000000e+00 9.106053e-01 8.939472e-02
 0.000000e+00 0.000000e+00 0.000000e+00 0.000000e+00 0.000000e+00 0.000000e+00 0.000000e+00 0.000000e+00 0.000000e+00 0.000000e+00
<ENDHMM>
