~o
<STREAMINFO> 1 12
<VECSIZE> 12<NULLD><MFCC_Z><DIAGC>
~h "s059"
<BEGINHMM>
<NUMSTATES> 11
<STATE> 2
<MEAN> 12
 -2.167227e-01 4.431051e+00 3.279796e+00 -1.277089e-01 -3.189841e+00 4.138387e-01 -1.019424e+00 -5.552980e+00 5.031722e-01 3.908208e+00 -5.581548e+00 5.702572e+00
<VARIANCE> 12
 1.793337e+01 5.846690e+00 8.618057e+00 1.028143e+02 5.943276e+00 1.400721e+01 2.263154e+01 3.771498e+01 8.613940e+00 1.695130e+01 1.552814e+01 4.576760e+01
<GCONST> 5.621504e+01
<STATE> 3
<MEAN> 12
 -4.257301e+00 6.405890e+00 2.168083e+00 -1.291830e+01 5.928260e-02 -3.293464e+00 -1.425556e+01 1.188075e+01 1.907940e+00 -6.098350e+00 9.638426e-01 -1.054011e+01
<VARIANCE> 12
 4.011696e+00 7.044950e+00 3.062533e+01 1.929107e+01 5.890535e+00 3.052227e+01 3.241726e+01 3.974151e+01 8.039245e+00 9.409234e+00 2.766247e+01 4.593175e+01
<GCONST> 5.560367e+01
<STATE> 4
<MEAN> 12
 -1.812016e+00 4.009623e+00 9.183416e+00 -1.158692e+01 -1.840006e+00 -8.256918e-01 -1.106884e+01 3.763877e+00 7.222495e+00 -4.272085e+00 4.429208e+00 9.670531e-02
<VARIANCE> 12
 4.011696e+00 4.553514e+00 6.392471e+00 1.510301e+01 1.469619e+01 1.635948e+01 6.381189e+01 1.431333e+01 1.717943e+01 5.330541e+00 1.438240e+01 1.782973e+01
<GCONST> 5.189322e+01
<STATE> 5
<MEAN> 12
 -4.286679e+00 3.901258e+00 8.370803e+00 6.782258e-01 5.820732e+00 1.255754e+00 4.090366e+00 5.563636e+00 4.170867e+00 2.885088e+00 3.546432e-01 2.650522e+00
<VARIANCE> 12
 1.576713e+01 1.371661e+01 6.392471e+00 2.091870e+01 1.935991e+01 2.039683e+01 2.219333e+01 1.707066e+01 1.728263e+01 1.667594e+01 1.172092e+01 2.269854e+01
<GCONST> 5.548990e+01
<STATE> 6
<MEAN> 12
 -6.447264e+00 -4.424132e+00 6.410607e+00 7.315317e+00 -1.632470e-01 1.345619e+00 5.121811e+00 3.546119e+00 3.346623e-01 8.276768e-01 1.786243e+00 -5.531674e-01
<VARIANCE> 12
 2.802710e+01 1.060700e+01 1.120338e+01 1.510301e+01 1.306800e+01 4.369466e+01 2.412390e+01 1.431333e+01 1.426061e+01 2.008815e+01 1.217192e+01 1.940163e+01
<GCONST> 5.619423e+01
<STATE> 7
<MEAN> 12
 1.880517e+00 -6.594251e+00 -3.124171e+00 1.392504e+00 -1.415432e+00 -9.413029e+00 4.833145e+00 2.661088e+00 -5.217451e+00 -2.182614e+00 -3.425517e+00 3.405894e+00
<VARIANCE> 12
 5.303813e+00 5.776813e+00 6.924132e+00 1.858848e+01 2.797351e+00 1.557994e+01 1.447792e+01 1.465588e+01 6.907873e+00 5.892467e+00 1.630608e+01 2.401580e+01
<GCONST> 4.914307e+01
<STATE> 8
<MEAN> 12
 5.818029e+00 -1.370131e+00 -7.569973e+00 2.848085e-01 -3.036169e+00 -2.311429e+00 5.737923e+00 -1.026704e+01 -2.890538e+00 4.605539e+00 -3.341102e+00 3.170354e+00
<VARIANCE> 12
 6.045861e+00 4.553514e+00 6.392471e+00 1.510301e+01 1.466020e+01 9.251243e+00 1.411878e+01 1.941155e+01 1.354271e+01 7.337678e+00 1.701806e+01 3.233273e+01
<GCONST> 5.137231e+01
<STATE> 9
<MEAN> 12
 6.836199e+00 -2.222541e+00 -4.444685e+00 8.461058e+00 -2.526653e+00 2.785909e+00 3.969094e+00 -1.422385e+01 -2.620135e+00 5.599465e+00 3.699690e+00 5.178679e+00
<VARIANCE> 12
 4.011696e+00 4.553514e+00 8.824875e+00 1.510301e+01 6.486171e+00 7.742969e+00 1.411878e+01 1.431333e+01 3.783172e+00 1.110627e+01 6.673324e+00 9.083648e+00
<GCONST> 4.691992e+01
<STATE> 10
<MEAN> 12
 2.175803e+00 -6.369166e+00 -4.242908e+00 1.423424e+01 4.200238e+00 1.181244e+01 8.120167e+00 -5.013162e+00 -4.878770e-01 -5.243588e-01 3.215641e+00 2.857392e+00
<VARIANCE> 12
 4.011696e+00 4.553514e+00 6.392471e+00 1.510301e+01 2.708002e+00 1.317860e+01 1.411878e+01 1.431333e+01 7.467058e+00 1.835563e+01 1.987387e+01 1.298603e+01
<GCONST> 4.888688e+01
<TRANSP> 11
 0.000000e+00 1.000000e+00 0.000000e+00 0.000000e+00 0.000000e+00 0.000000e+00 0.000000e+00 0.000000e+00 0.000000e+00 0.000000e+00 0.000000e+00
 0.000000e+00 7.960704e-01 2.039296e-01 0.000000e+00 0.000000e+00 0.000000e+00 0.000000e+00 0.000000e+00 0.000000e+00 0.000000e+00 0.000000e+00
 0.000000e+00 0.000000e+00 9.343921e-01 6.560788e-02 0.000000e+00 0.000000e+00 0.000000e+00 0.000000e+00 0.000000e+00 0.000000e+00 0.000000e+00
 0.000000e+00 0.000000e+00 0.000000e+00 7.325336e-01 2.674665e-01 0.000000e+00 0.000000e+00 0.000000e+00 0.000000e+00 0.000000e+00 0.000000e+00
 0.000000e+00 0.000000e+00 0.000000e+00 0.000000e+00 8.597653e-01 1.402347e-01 0.000000e+00 0.000000e+00 0.000000e+00 0.000000e+00 0.000000e+00
 0.000000e+00 0.000000e+00 0.000000e+00 0.000000e+00 0.000000e+00 8.269399e-01 1.730600e-01 0.000000e+00 0.000000e+00 0.000000e+00 0.000000e+00
 0.000000e+00 0.000000e+00 0.000000e+00 0.000000e+00 0.000000e+00 0.000000e+00 8.569611e-01 1.430389e-01 0.000000e+00 0.000000e+00 0.000000e+00
 0.000000e+00 0.000000e+00 0.000000e+00 0.000000e+00 0.000000e+00 0.000000e+00 0.000000e+00 9.206326e-01 7.936735e-02 0.000000e+00 0.000000e+00
 0.000000e+00 0.000000e+00 0.000000e+00 0.000000e+00 0.000000e+00 0.000000e+00 0.000000e+00 0.000000e+00 7.909852e-01 2.090147e-01 0.000000e+00
 0.000000e+00 0.000000e+00 0.000000e+00 0.000000e+00 0.000000e+00 0.000000e+00 0.000000e+00 0.000000e+00 0.000000e+00 8.982825e-01 1.017175e-01
 0.000000e+00 0.000000e+00 0.000000e+00 0.000000e+00 0.000000e+00 0.000000e+00 0.000000e+00 0.000000e+00 0.000000e+00 0.000000e+00 0.000000e+00
<ENDHMM>
