~o
<STREAMINFO> 1 12
<VECSIZE> 12<NULLD><MFCC_Z><DIAGC>
~h "s020"
<BEGINHMM>
<NUMSTATES> 9
<STATE> 2
<MEAN> 12
 7.487567e+00 -6.391314e+00 -2.391245e+00 2.310324e+00 -6.210200e+00 -1.581184e+01 -3.825008e+00 1.367537e+01 -4.483871e+00 1.858310e+00 -6.423418e-01 -7.174845e+00
<VARIANCE> 12
 1.343377e+01 1.825595e+01 4.238779e+00 7.055621e+00 1.049051e+01 1.401188e+01 6.900263e+01 2.939370e+01 4.437537e+01 1.578804e+01 4.345157e+00 5.290171e+01
<GCONST> 5.554963e+01
<STATE> 3
<MEAN> 12
 -5.991579e+00 -2.345169e+00 8.435253e-01 -1.032035e+01 -2.490066e+00 -3.367775e+00 -4.886581e+00 7.108285e+00 -6.143286e+00 -4.394661e+00 -4.783867e+00 -5.586262e+00
<VARIANCE> 12
 8.013186e+00 3.311409e+01 1.394452e+01 1.868800e+01 4.411665e+01 1.161258e+01 1.815145e+01 1.914939e+01 1.504547e+01 3.811251e+01 1.040650e+01 2.727691e+01
<GCONST> 5.728858e+01
<STATE> 4
<MEAN> 12
 4.355720e-01 6.864459e+00 9.820739e-01 -6.146925e+00 -1.128610e+00 1.165643e+00 -7.441425e-01 9.569212e+00 -5.981666e-01 3.187302e+00 1.497046e+00 -4.144661e+00
<VARIANCE> 12
 8.013186e+00 5.273826e+00 3.765438e+00 2.349675e+01 4.364074e+00 4.925660e+01 1.793905e+01 1.914939e+01 5.050159e+00 2.582697e+01 1.173413e+01 1.043512e+01
<GCONST> 5.116932e+01
<STATE> 5
<MEAN> 12
 -9.907829e+00 3.738846e+00 -1.484050e-01 3.554284e+00 3.876835e+00 2.454413e+00 3.675144e+00 7.204957e+00 6.884338e+00 -4.374649e+00 1.174577e+00 4.213709e+00
<VARIANCE> 12
 1.037712e+01 4.063643e+00 7.816173e+00 1.022418e+01 4.719601e+00 1.449182e+01 1.440679e+01 1.914939e+01 1.102104e+01 4.895838e+00 5.224986e+01 3.739618e+01
<GCONST> 5.158823e+01
<STATE> 6
<MEAN> 12
 -2.298886e+00 -4.172892e+00 5.105211e+00 4.798750e+00 5.763052e+00 7.141043e+00 8.122923e+00 -6.551345e+00 8.169498e-01 1.446235e+00 -8.261704e-01 2.994269e+00
<VARIANCE> 12
 2.548717e+01 4.975509e+00 3.698860e+00 1.164559e+01 1.181349e+01 9.070540e+00 6.108432e+00 2.066536e+01 1.870050e+01 1.285691e+01 1.312538e+01 1.697434e+01
<GCONST> 5.106127e+01
<STATE> 7
<MEAN> 12
 4.340956e+00 8.263623e-01 1.933174e+00 2.989923e+00 -1.980150e+00 4.751618e+00 3.420672e+00 -1.074271e+01 7.160652e-01 7.059233e+00 -4.512753e+00 3.806478e+00
<VARIANCE> 12
 8.013186e+00 4.063643e+00 4.811571e+00 1.198092e+01 4.364074e+00 9.070540e+00 6.108432e+00 1.914939e+01 1.246943e+01 4.895838e+00 7.378094e+00 7.003439e+00
<GCONST> 4.608899e+01
<STATE> 8
<MEAN> 12
 8.437235e+00 2.290789e+00 -4.847336e+00 3.807204e+00 -5.572860e-01 1.600975e+00 -3.734335e+00 -1.494034e+01 2.456595e+00 4.821923e-01 5.343710e+00 4.355673e+00
<VARIANCE> 12
 8.013186e+00 4.063643e+00 6.764763e+00 1.155262e+01 1.362063e+01 3.089343e+01 1.132672e+01 2.919659e+01 1.248266e+01 2.890244e+01 1.496344e+01 1.846607e+01
<GCONST> 5.324949e+01
<TRANSP> 9
 0.000000e+00 1.000000e+00 0.000000e+00 0.000000e+00 0.000000e+00 0.000000e+00 0.000000e+00 0.000000e+00 0.000000e+00
 0.000000e+00 8.337196e-01 1.662804e-01 0.000000e+00 0.000000e+00 0.000000e+00 0.000000e+00 0.000000e+00 0.000000e+00
 0.000000e+00 0.000000e+00 8.988225e-01 1.011775e-01 0.000000e+00 0.000000e+00 0.000000e+00 0.000000e+00 0.000000e+00
 0.000000e+00 0.000000e+00 0.000000e+00 8.360141e-01 1.639859e-01 0.000000e+00 0.000000e+00 0.000000e+00 0.000000e+00
 0.000000e+00 0.000000e+00 0.000000e+00 0.000000e+00 8.725261e-01 1.274739e-01 0.000000e+00 0.000000e+00 0.000000e+00
 0.000000e+00 0.000000e+00 0.000000e+00 0.000000e+00 0.000000e+00 8.903999e-01 1.096000e-01 0.000000e+00 0.000000e+00
 0.000000e+00 0.000000e+00 0.000000e+00 0.000000e+00 0.000000e+00 0.000000e+00 7.536259e-01 2.463741e-01 0.000000e+00
 0.000000e+00 0.000000e+00 0.000000e+00 0.000000e+00 0.000000e+00 0.000000e+00 0.000000e+00 9.088976e-01 9.110243e-02
 0.000000e+00 0.000000e+00 0.000000e+00 0.000000e+00 0.000000e+00 0.000000e+00 0.000000e+00 0.000000e+00 0.000000e+00
<ENDHMM>
