~o
<STREAMINFO> 1 12
<VECSIZE> 12<NULLD><MFCC_Z><DIAGC>
~h "s089"
<BEGINHMM>
<NUMSTATES> 11
<STATE> 2
<MEAN> 12
 -9.721985e+00 -9.236678e-01 1.222681e+00 5.524111e-01 1.597571e+00 -2.547512e+00 1.127755e+01 -5.024049e+00 6.225223e+00 3.042726e+00 -7.215684e-01 -3.397523e+00
<VARIANCE> 12
 3.737058e+01 5.309563e+01 1.277159e+01 3.142519e+01 1.213438e+02 1.365054e+01 1.140425e+01 7.613261e+01 2.587220e+01 2.964762e+01 6.409046e+01 4.526782e+01
<GCONST> 6.443665e+01
<STATE> 3
<MEAN> 12
 -1.875965e+00 -1.538331e+01 -8.462198e+00 1.717332e+01 2.702327e-01 -7.315831e+00 5.185315e+00 6.375653e-01 -1.770325e+00 -2.977817e+00 1.267212e+00 1.026003e+00
<VARIANCE> 12
 5.197567e+00 1.497309e+01 5.665164e+00 2.110657e+01 1.030956e+01 4.972273e+01 1.070223e+01 2.057447e+01 5.724436e+01 1.170026e+01 4.234834e+01 3.560456e+01
<GCONST> 5.665228e+01
<STATE> 4
<MEAN> 12
 3.200945e+00 -7.035203e+00 -4.672471e+00 1.795170e-01 -1.086885e+00 -5.301952e+00 1.503888e+00 -1.060603e+00 -2.790738e+00 3.310754e-01 -2.929985e+00 8.308409e+00
<VARIANCE> 12
 5.197567e+00 1.497309e+01 1.103965e+01 4.794252e+01 8.370399e+00 4.910171e+01 1.194232e+01 2.552309e+01 3.153931e+01 1.419578e+01 7.895009e+00 6.868304e+00
<GCONST> 5.451606e+01
<STATE> 5
<MEAN> 12
 1.730286e+00 -8.914902e-01 8.174122e+00 -1.229719e+01 -3.966127e+00 5.191273e+00 -6.783373e+00 9.259595e+00 6.526210e-01 -2.372026e+00 -1.512775e-01 2.107024e+00
<VARIANCE> 12
 5.197567e+00 1.497309e+01 1.286628e+01 2.110657e+01 1.030298e+01 3.601454e+01 2.176064e+01 2.658079e+01 2.234627e+01 1.194973e+01 1.405782e+01 1.174501e+01
<GCONST> 5.498378e+01
<STATE> 6
<MEAN> 12
 3.702415e+00 5.042594e+00 1.490193e+00 -2.141876e+00 -1.332833e+00 4.303188e+00 -3.088820e+00 2.900054e+00 -1.478879e-01 -2.249758e+00 6.180796e+00 1.259282e+00
<VARIANCE> 12
 1.667586e+01 1.691816e+01 5.665164e+00 2.110657e+01 8.629162e+00 5.169454e+01 5.420868e+01 3.167260e+01 2.547136e+01 7.413107e+00 2.249750e+01 1.530229e+01
<GCONST> 5.711180e+01
<STATE> 7
<MEAN> 12
 -4.630882e+00 9.184734e+00 1.987994e+00 -7.517517e-01 -1.908162e+00 -2.078464e+00 -2.575991e+00 -2.838212e+00 3.551713e+00 -1.526197e+00 2.105243e+00 -6.418428e+00
<VARIANCE> 12
 5.197567e+00 4.020461e+01 5.665164e+00 3.382168e+01 7.991287e+00 2.262039e+01 3.066489e+01 1.073721e+01 6.557378e+00 4.672098e+00 7.895009e+00 5.050187e+01
<GCONST> 5.305661e+01
<STATE> 8
<MEAN> 12
 -3.874626e+00 9.270104e+00 3.868530e-01 -1.311543e+01 6.536592e+00 -5.768338e+00 -5.535682e+00 4.762901e+00 1.110191e+00 2.939144e+00 -4.922619e-01 -4.501507e-01
<VARIANCE> 12
 5.359320e+00 1.497309e+01 5.665164e+00 2.110657e+01 1.855846e+01 1.804527e+01 1.070223e+01 1.910277e+01 2.450135e+01 1.471189e+01 7.895009e+00 2.329718e+01
<GCONST> 5.345958e+01
<STATE> 9
<MEAN> 12
 4.051444e+00 1.887103e+00 -2.282798e+00 -2.608628e+00 3.978118e+00 5.261883e-01 -4.195108e+00 -9.581345e+00 -1.288850e+00 2.948319e+00 -8.123797e+00 -2.080846e+00
<VARIANCE> 12
 5.197567e+00 1.497309e+01 5.665164e+00 2.110657e+01 5.552394e+00 1.655418e+01 1.070223e+01 2.947507e+01 9.391116e+00 4.248516e+00 1.546522e+01 7.982049e+00
<GCONST> 4.996988e+01
<STATE> 10
<MEAN> 12
 2.639597e+00 6.219320e-01 3.643235e+00 8.378027e+00 -2.916770e+00 1.018808e+01 7.110633e+00 -4.779997e+00 -3.032342e+00 3.543639e+00 -3.780978e+00 -2.660468e+00
<VARIANCE> 12
 5.197567e+00 1.497309e+01 5.665164e+00 2.110657e+01 5.552394e+00 4.243601e+01 2.149827e+01 1.448303e+01 1.839536e+01 6.977705e+00 2.872517e+01 8.121703e+00
<GCONST> 5.270320e+01
<TRANSP> 11
 0.000000e+00 1.000000e+00 0.000000e+00 0.000000e+00 0.000000e+00 0.000000e+00 0.000000e+00 0.000000e+00 0.000000e+00 0.000000e+00 0.000000e+00
 0.000000e+00 8.160340e-01 1.839660e-01 0.000000e+00 0.000000e+00 0.000000e+00 0.000000e+00 0.000000e+00 0.000000e+00 0.000000e+00 0.000000e+00
 0.000000e+00 0.000000e+00 9.006844e-01 9.931564e-02 0.000000e+00 0.000000e+00 0.000000e+00 0.000000e+00 0.000000e+00 0.000000e+00 0.000000e+00
 0.000000e+00 0.000000e+00 0.000000e+00 8.367137e-01 1.632862e-01 0.000000e+00 0.000000e+00 0.000000e+00 0.000000e+00 0.000000e+00 0.000000e+00
 0.000000e+00 0.000000e+00 0.000000e+00 0.000000e+00 8.638583e-01 1.361417e-01 0.000000e+00 0.000000e+00 0.000000e+00 0.000000e+00 0.000000e+00
 0.000000e+00 0.000000e+00 0.000000e+00 0.000000e+00 0.000000e+00 9.256712e-01 7.432879e-02 0.000000e+00 0.000000e+00 0.000000e+00 0.000000e+00
 0.000000e+00 0.000000e+00 0.000000e+00 0.000000e+00 0.000000e+00 0.000000e+00 8.316736e-01 1.683264e-01 0.000000e+00 0.000000e+00 0.000000e+00
 0.000000e+00 0.000000e+00 0.000000e+00 0.000000e+00 0.000000e+00 0.000000e+00 0.000000e+00 8.677228e-01 1.322772e-01 0.000000e+00 0.000000e+00
 0.000000e+00 0.000000e+00 0.000000e+00 0.000000e+00 0.000000e+00 0.000000e+00 0.000000e+00 0.000000e+00 8.477223e-01 1.522777e-01 0.000000e+00
 0.000000e+00 0.000000e+00 0.000000e+00 0.000000e+00 0.000000e+00 0.000000e+00 0.000000e+00 0.000000e+00 0.000000e+00 8.667446e-01 1.332554e-01
 0.000000e+00 0.000000e+00 0.000000e+00 0.000000e+00 0.000000e+00 0.000000e+00 0.000000e+00 0.000000e+00 0.000000e+00 0.000000e+00 0.000000e+00
<ENDHMM>
