~o
<STREAMINFO> 1 12
<VECSIZE> 12<NULLD><MFCC_Z><DIAGC>
~h "s077"
<BEGINHMM>
<NUMSTATES> 7
<STATE> 2
<MEAN> 12
 3.338262e+00 -1.749440e+00 -1.034326e+01 1.336765e+01 4.006665e+00 -1.416485e+01 2.182668e+00 7.848460e+00 3.105725e+00 -3.908153e+00 -2.069585e+00 -1.887318e-01
<VARIANCE> 12
 7.492591e+00 1.285519e+01 1.110328e+01 1.954780e+01 6.103705e+00 1.551285e+01 1.915706e+01 1.896927e+01 4.603320e+01 1.324326e+01 1.139979e+01 8.129581e+00
<GCONST> 5.339030e+01
<STATE> 3
<MEAN> 12
 1.027959e+00 -2.613549e+00 1.175134e+00 -1.301268e+00 -5.833785e+00 -6.882386e-01 6.275207e+00 -3.707270e+00 -6.810201e+00 2.970946e+00 -2.642154e+00 -6.153596e-01
<VARIANCE> 12
 1.084120e+01 1.285519e+01 2.341328e+01 1.427210e+01 1.585405e+01 2.283040e+01 1.828402e+01 1.896927e+01 2.702833e+01 1.266418e+01 2.165919e+01 7.196343e+00
<GCONST> 5.542827e+01
<STATE> 4
<MEAN> 12
 -1.056108e+00 1.196259e+01 3.431555e+00 -1.987269e+00 -5.525172e+00 -2.305296e-01 -2.423297e+00 3.169206e+00 1.331658e+00 -1.596709e+00 1.167925e+01 -6.394429e+00
<VARIANCE> 12
 6.839209e+00 4.053154e+01 7.360169e+00 1.427210e+01 6.800272e+00 1.551285e+01 2.832878e+01 5.414508e+01 4.551390e+01 7.083139e+00 4.796216e+01 1.482095e+01
<GCONST> 5.667003e+01
<STATE> 5
<MEAN> 12
 -4.452564e+00 4.274857e+00 3.023953e+00 -1.069762e+01 1.093558e+00 4.952335e+00 -3.249156e+00 8.638510e+00 5.629234e+00 -9.079002e-01 1.741749e+00 -4.433732e-01
<VARIANCE> 12
 2.864062e+00 3.765288e+01 7.360169e+00 1.427210e+01 6.103705e+00 1.551285e+01 6.580514e+00 3.378664e+01 9.743725e+00 4.643967e+00 3.033759e+01 4.294605e+01
<GCONST> 5.232883e+01
<STATE> 6
<MEAN> 12
 2.691201e-01 -8.273911e+00 3.270293e+00 -1.169795e+00 4.884483e+00 9.561198e+00 -3.193577e+00 -1.248121e+01 -1.962868e+00 2.707577e+00 -5.863396e+00 5.802262e+00
<VARIANCE> 12
 1.266591e+01 1.285519e+01 7.360169e+00 1.427210e+01 1.182425e+01 1.551285e+01 2.321922e+01 3.714174e+01 2.454575e+01 1.310058e+01 1.249403e+01 1.999350e+01
<GCONST> 5.506697e+01
<TRANSP> 7
 0.000000e+00 1.000000e+00 0.000000e+00 0.000000e+00 0.000000e+00 0.000000e+00 0.000000e+00
 0.000000e+00 8.951672e-01 1.048327e-01 0.000000e+00 0.000000e+00 0.000000e+00 0.000000e+00
 0.000000e+00 0.000000e+00 8.946245e-01 1.053755e-01 0.000000e+00 0.000000e+00 0.000000e+00
 0.000000e+00 0.000000e+00 0.000000e+00 8.760053e-01 1.239947e-01 0.000000e+00 0.000000e+00
 0.000000e+00 0.000000e+00 0.000000e+00 0.000000e+00 8.762969e-01 1.237032e-01 0.000000e+00
 0.000000e+00 0.000000e+00 0.000000e+00 0.000000e+00 0.000000e+00 9.075990e-01 9.240096e-02
 0.000000e+00 0.000000e+00 0.000000e+00 0.000000e+00 0.000000e+00 0.000000e+00 0.000000e+00
<ENDHMM>
