~o
<STREAMINFO> 1 12
<VECSIZE> 12<NULLD><MFCC_Z><DIAGC>
~h "s048"
<BEGINHMM>
<NUMSTATES> 10
<STATE> 2
<MEAN> 12
 -5.218244e+00 1.314260e+01 8.622946e+00 -2.302126e+00 -2.589900e+00 7.672406e+00 -3.154185e+00 4.026018e+00 1.185191e+01 -5.427773e+00 9.737995e+00 -3.520823e+00
<VARIANCE> 12
 6.266459e+00 2.651159e+01 4.865697e+00 4.350348e+01 2.502913e+01 2.492097e+01 6.922807e+01 1.331110e+01 4.266722e+01 8.889315e+00 2.606224e+01 1.305521e+01
<GCONST> 5.755207e+01
<STATE> 3
<MEAN> 12
 -8.080307e+00 -9.192039e+00 1.008133e+00 6.739073e+00 1.610984e+01 -3.827223e+00 9.170882e+00 -5.367186e+00 -7.219065e-01 2.178745e+00 1.230985e+01 -2.002336e+00
<VARIANCE> 12
 3.178385e+00 8.422447e+00 1.494678e+01 1.312595e+01 1.354830e+01 7.908975e+01 9.713818e+00 9.035350e+00 1.276380e+01 2.079550e+01 1.170756e+01 2.129820e+01
<GCONST> 5.317263e+01
<STATE> 4
<MEAN> 12
 1.810353e+00 -1.884654e+00 -7.293322e+00 -3.141063e+00 8.308977e+00 -5.994492e+00 5.440205e-02 -1.120140e+00 -2.573411e-01 -1.210683e+00 -8.824463e-02 9.597188e+00
<VARIANCE> 12
 1.319917e+01 1.342803e+01 7.262366e+00 3.695329e+01 1.318969e+01 1.336996e+01 9.713818e+00 1.978024e+01 1.676237e+01 3.823222e+00 1.179317e+01 1.734768e+01
<GCONST> 5.273628e+01
<STATE> 5
<MEAN> 12
 1.460315e+00 -4.537371e+00 -2.504547e+00 6.025276e+00 1.910909e+00 3.676270e+00 -7.558830e+00 2.917844e+00 4.606185e+00 2.877522e+00 -1.030075e+00 2.491816e+00
<VARIANCE> 12
 7.698458e+00 1.213576e+01 1.332685e+01 2.863586e+01 1.935076e+01 1.336996e+01 2.941108e+01 1.011909e+01 1.305506e+01 1.153306e+01 3.042607e+01 2.234863e+01
<GCONST> 5.532413e+01
<STATE> 6
<MEAN> 12
 3.610620e+00 -2.766670e+00 -4.611574e+00 3.416807e+00 9.046701e-01 -1.536257e+01 -6.935010e+00 1.119456e+01 7.101361e+00 -3.453954e+00 -1.403578e+01 -1.117811e+01
<VARIANCE> 12
 9.105244e+00 6.573214e+00 1.285937e+01 6.814952e+00 1.318969e+01 4.460029e+01 4.484841e+01 1.055945e+02 8.284318e+00 7.115088e+00 9.539505e+00 8.746380e+00
<GCONST> 5.396030e+01
<STATE> 7
<MEAN> 12
 -1.639315e+00 -2.895919e-01 -8.205180e-01 -1.844131e+00 -1.238920e+01 -4.416785e-01 1.005624e+01 9.958382e+00 -9.314564e+00 8.124515e+00 -4.078455e+00 -1.102453e+01
<VARIANCE> 12
 3.178385e+00 6.573214e+00 4.865697e+00 1.604301e+01 1.318969e+01 5.305291e+01 2.898815e+01 8.292119e+01 8.284318e+00 3.071479e+00 1.684793e+01 1.770626e+01
<GCONST> 5.272155e+01
<STATE> 8
<MEAN> 12
 2.514961e+00 2.265183e+00 2.015056e+00 -6.682518e+00 -7.604901e+00 -3.332471e+00 5.514593e+00 -7.736531e+00 -4.862549e+00 4.617688e-02 -4.485678e+00 4.038461e-01
<VARIANCE> 12
 9.539088e+00 6.573214e+00 4.865697e+00 2.433419e+01 2.085423e+01 2.030829e+01 5.907832e+01 2.379029e+01 1.584790e+01 1.592625e+01 1.511447e+01 3.278488e+01
<GCONST> 5.600037e+01
<STATE> 9
<MEAN> 12
 2.470832e+00 2.816197e+00 4.867689e+00 8.783528e-01 -8.901844e+00 1.313389e+01 -3.886700e+00 -2.917176e+00 -7.264199e+00 -7.072394e-01 -1.184240e+00 6.435938e-01
<VARIANCE> 12
 3.178385e+00 6.573214e+00 5.572010e+00 1.291980e+01 1.318969e+01 2.176635e+01 9.713818e+00 9.035350e+00 8.284318e+00 5.928806e+00 9.539505e+00 1.004910e+01
<GCONST> 4.796202e+01
<TRANSP> 10
 0.000000e+00 1.000000e+00 0.000000e+00 0.000000e+00 0.000000e+00 0.000000e+00 0.000000e+00 0.000000e+00 0.000000e+00 0.000000e+00
 0.000000e+00 8.570849e-01 1.429151e-01 0.000000e+00 0.000000e+00 0.000000e+00 0.000000e+00 0.000000e+00 0.000000e+00 0.000000e+00
 0.000000e+00 0.000000e+00 8.531586e-01 1.468414e-01 0.000000e+00 0.000000e+00 0.000000e+00 0.000000e+00 0.000000e+00 0.000000e+00
 0.000000e+00 0.000000e+00 0.000000e+00 9.108378e-01 8.916225e-02 0.000000e+00 0.000000e+00 0.000000e+00 0.000000e+00 0.000000e+00
 0.000000e+00 0.000000e+00 0.000000e+00 0.000000e+00 8.889303e-01 1.110696e-01 0.000000e+00 0.000000e+00 0.000000e+00 0.000000e+00
 0.000000e+00 0.000000e+00 0.000000e+00 0.000000e+00 0.000000e+00 7.989297e-01 2.010704e-01 0.000000e+00 0.000000e+00 0.000000e+00
 0.000000e+00 0.000000e+00 0.000000e+00 0.000000e+00 0.000000e+00 0.000000e+00 7.601287e-01 2.398714e-01 0.000000e+00 0.000000e+00
 0.000000e+00 0.000000e+00 0.000000e+00 0.000000e+00 0.000000e+00 0.000000e+00 0.000000e+00 8.987157e-01 1.012843e-01 0.000000e+00
 0.000000e+00 0.000000e+00 0.000000e+00 0.000000e+00 0.000000e+00 0.000000e+00 0.000000e+00 0.000000e+00 8.883731e-01 1.116269e-01
 0.000000e+00 0.000000e+00 0.000000e+00 0.000000e+00 0.000000e+00 0.000000e+00 0.000000e+00 0.000000e+00 0.000000e+00 0.000000e+00
<ENDHMM>
