~o
<STREAMINFO> 1 12
<VECSIZE> 12<NULLD><MFCC_Z><DIAGC>
~h "T1375423470"
<BEGINHMM>
<NUMSTATES> 9
<STATE> 2
<MEAN> 12
 1.644266e-08 -1.233199e-07 7.563624e-07 1.644266e-07 -2.466399e-07 1.562053e-07 -2.137546e-07 -1.562053e-07 -6.577064e-08 -7.399197e-08 1.150986e-07 -2.055333e-07
<VARIANCE> 12
 3.232193e+01 1.639840e+01 3.598051e+01 3.918972e+01 3.229941e+01 1.850803e+01 1.967363e+01 1.356772e+01 1.520507e+01 1.771421e+01 1.954319e+01 8.923507e+00
<GCONST> 5.831638e+01
<STATE> 3
<MEAN> 12
 1.644266e-08 -1.233199e-07 7.563624e-07 1.644266e-07 -2.466399e-07 1.562053e-07 -2.137546e-07 -1.562053e-07 -6.577064e-08 -7.399197e-08 1.150986e-07 -2.055333e-07
<VARIANCE> 12
 3.232193e+01 1.639840e+01 3.598051e+01 3.918972e+01 3.229941e+01 1.850803e+01 1.967363e+01 1.356772e+01 1.520507e+01 1.771421e+01 1.954319e+01 8.923507e+00
<GCONST> 5.831638e+01
<STATE> 4
<MEAN> 12
 1.644266e-08 -1.233199e-07 7.563624e-07 1.644266e-07 -2.466399e-07 1.562053e-07 -2.137546e-07 -1.562053e-07 -6.577064e-08 -7.399197e-08 1.150986e-07 -2.055333e-07
<VARIANCE> 12
 3.232193e+01 1.639840e+01 3.598051e+01 3.918972e+01 3.229941e+01 1.850803e+01 1.967363e+01 1.356772e+01 1.520507e+01 1.771421e+01 1.954319e+01 8.923507e+00
<GCONST> 5.831638e+01
<STATE> 5
<MEAN> 12
 1.644266e-08 -1.233199e-07 7.563624e-07 1.644266e-07 -2.466399e-07 1.562053e-07 -2.137546e-07 -1.562053e-07 -6.577064e-08 -7.399197e-08 1.150986e-07 -2.055333e-07
<VARIANCE> 12
 3.232193e+01 1.639840e+01 3.598051e+01 3.918972e+01 3.229941e+01 1.850803e+01 1.967363e+01 1.356772e+01 1.520507e+01 1.771421e+01 1.954319e+01 8.923507e+00
<GCONST> 5.831638e+01
<STATE> 6
<MEAN> 12
 1.644266e-08 -1.233199e-07 7.563624e-07 1.644266e-07 -2.466399e-07 1.562053e-07 -2.137546e-07 -1.562053e-07 -6.577064e-08 -7.399197e-08 1.150986e-07 -2.055333e-07
<VARIANCE> 12
 3.232193e+01 1.639840e+01 3.598051e+01 3.918972e+01 3.229941e+01 1.850803e+01 1.967363e+01 1.356772e+01 1.520507e+01 1.771421e+01 1.954319e+01 8.923507e+00
<GCONST> 5.831638e+01
<STATE> 7
<MEAN> 12
 1.644266e-08 -1.233199e-07 7.563624e-07 1.644266e-07 -2.466399e-07 1.562053e-07 -2.137546e-07 -1.562053e-07 -6.577064e-08 -7.399197e-08 1.150986e-07 -2.055333e-07
<VARIANCE> 12
 3.232193e+01 1.639840e+01 3.598051e+01 3.918972e+01 3.229941e+01 1.850803e+01 1.967363e+01 1.356772e+01 1.520507e+01 1.771421e+01 1.954319e+01 8.923507e+00
<GCONST> 5.831638e+01
<STATE> 8
<MEAN> 12
 1.644266e-08 -1.233199e-07 7.563624e-07 1.644266e-07 -2.466399e-07 1.562053e-07 -2.137546e-07 -1.562053e-07 -6.577064e-08 -7.399197e-08 1.150986e-07 -2.055333e-07
<VARIANCE> 12
 3.232193e+01 1.639840e+01 3.598051e+01 3.918972e+01 3.229941e+01 1.850803e+01 1.967363e+01 1.356772e+01 1.520507e+01 1.771421e+01 1.954319e+01 8.923507e+00
<GCONST> 5.831638e+01
<TRANSP> 9
 0.000000e+00 1.000000e+00 0.000000e+00 0.000000e+00 0.000000e+00 0.000000e+00 0.000000e+00 0.000000e+00 0.000000e+00
 0.000000e+00 9.000000e-01 9.999999e-02 0.000000e+00 0.000000e+00 0.000000e+00 0.000000e+00 0.000000e+00 0.000000e+00
 0.000000e+00 0.000000e+00 9.000000e-01 9.999999e-02 0.000000e+00 0.000000e+00 0.000000e+00 0.000000e+00 0.000000e+00
 0.000000e+00 0.000000e+00 0.000000e+00 9.000000e-01 9.999999e-02 0.000000e+00 0.000000e+00 0.000000e+00 0.000000e+00
 0.000000e+00 0.000000e+00 0.000000e+00 0.000000e+00 9.000000e-01 9.999999e-02 0.000000e+00 0.000000e+00 0.000000e+00
 0.000000e+00 0.000000e+00 0.000000e+00 0.000000e+00 0.000000e+00 9.000000e-01 9.999999e-02 0.000000e+00 0.000000e+00
 0.000000e+00 0.000000e+00 0.000000e+00 0.000000e+00 0.000000e+00 0.000000e+00 9.000000e-01 9.999999e-02 0.000000e+00
 0.000000e+00 0.000000e+00 0.000000e+00 0.000000e+00 0.000000e+00 0.000000e+00 0.000000e+00 9.000000e-01 9.999999e-02
 0.000000e+00 0.000000e+00 0.000000e+00 0.000000e+00 0.000000e+00 0.000000e+00 0.000000e+00 0.000000e+00 0.000000e+00
<ENDHMM>
