~o
<STREAMINFO> 1 12
<VECSIZE> 12<NULLD><MFCC_Z><DIAGC>
~h "s040"
<BEGINHMM>
<NUMSTATES> 9
<STATE> 2
<MEAN> 12
 -1.002227e+01 1.043550e+01 4.844660e+00 -2.779224e+00 3.150859e+00 5.952214e+00 -1.352806e+00 5.292300e+00 8.751804e+00 2.467453e-01 5.247036e+00 -1.460468e+00
<VARIANCE> 12
 3.243996e+01 8.381531e+00 8.826480e+00 8.660767e+01 5.837445e+01 2.049772e+01 7.164709e+01 6.237519e+01 1.314630e+01 2.922975e+01 5.629276e+01 1.887770e+01
<GCONST> 6.271108e+01
<STATE> 3
<MEAN> 12
 -2.387121e+00 -2.749758e+00 1.714691e+00 -6.337040e+00 -5.169209e+00 4.718399e+00 1.944339e+00 1.819502e-01 -6.827466e+00 4.510703e+00 -2.788850e+00 5.108215e+00
<VARIANCE> 12
 5.435763e+00 2.592465e+01 1.919846e+01 2.546966e+01 4.698642e+00 2.767787e+01 4.784957e+01 1.818147e+01 5.601458e+01 2.434102e+01 6.280088e+00 1.400642e+01
<GCONST> 5.652608e+01
<STATE> 4
<MEAN> 12
 1.076686e+00 1.694475e+00 -3.552055e-01 -4.750195e+00 -2.184570e-01 -4.431634e-01 2.454964e+00 2.799238e-01 -4.465125e+00 1.061007e+00 1.372008e+00 -1.603586e+00
<VARIANCE> 12
 1.436001e+01 3.001945e+01 1.144314e+01 1.320264e+01 1.749241e+01 3.123492e+01 1.811469e+01 1.624721e+01 2.528903e+01 1.551278e+01 4.926012e+01 3.927185e+01
<GCONST> 5.866623e+01
<STATE> 5
<MEAN> 12
 -3.524536e+00 5.285307e+00 5.271772e+00 -5.891127e+00 -1.337314e+00 3.637264e+00 -2.964555e+00 -1.319626e+00 -5.304040e-01 2.758532e-01 1.044936e+00 -3.951897e+00
<VARIANCE> 12
 9.449492e+00 4.164518e+01 1.631961e+01 2.269591e+01 2.610862e+01 1.406798e+01 2.073523e+01 1.427848e+01 5.916042e+01 1.794369e+01 3.266013e+01 2.829649e+01
<GCONST> 5.933736e+01
<STATE> 6
<MEAN> 12
 -8.185820e-01 -8.810502e+00 -1.938563e+00 3.666865e+00 1.305895e+00 -2.730007e+00 2.463281e+00 3.166389e+00 -1.218017e+01 4.538085e+00 4.708820e-01 5.500655e+00
<VARIANCE> 12
 5.435763e+00 7.726781e+00 1.174191e+01 9.813160e+00 6.432337e+00 1.349166e+01 4.120704e+00 1.162625e+01 1.147547e+01 8.758640e+00 5.545061e+00 5.184634e+00
<GCONST> 4.684066e+01
<STATE> 7
<MEAN> 12
 2.852211e+00 -7.931915e+00 -6.709600e+00 8.634265e+00 -1.352707e+00 -4.972362e+00 -9.102292e-01 6.249478e-01 -2.182380e-01 -4.398562e+00 -3.036354e+00 4.790554e+00
<VARIANCE> 12
 5.435763e+00 7.726781e+00 4.191661e+00 9.612925e+00 3.975185e+00 5.277327e+00 3.953171e+00 3.786280e+00 7.406015e+01 1.841457e+01 1.239621e+01 1.934168e+01
<GCONST> 4.793549e+01
<STATE> 8
<MEAN> 12
 7.249243e+00 -2.836300e+00 -2.485971e+00 8.977667e+00 3.404973e+00 -4.504001e+00 -7.260745e-01 -3.774507e+00 8.461767e+00 -2.278768e+00 -1.861367e+00 -1.891411e+00
<VARIANCE> 12
 7.763064e+00 7.726781e+00 1.569019e+01 9.612925e+00 1.327098e+01 1.433112e+01 4.391384e+00 1.342939e+01 1.514919e+01 5.183103e+01 2.575170e+01 1.219367e+01
<GCONST> 5.290520e+01
<TRANSP> 9
 0.000000e+00 1.000000e+00 0.000000e+00 0.000000e+00 0.000000e+00 0.000000e+00 0.000000e+00 0.000000e+00 0.000000e+00
 0.000000e+00 8.321937e-01 1.678063e-01 0.000000e+00 0.000000e+00 0.000000e+00 0.000000e+00 0.000000e+00 0.000000e+00
 0.000000e+00 0.000000e+00 8.345426e-01 1.654574e-01 0.000000e+00 0.000000e+00 0.000000e+00 0.000000e+00 0.000000e+00
 0.000000e+00 0.000000e+00 0.000000e+00 9.196585e-01 8.034145e-02 0.000000e+00 0.000000e+00 0.000000e+00 0.000000e+00
 0.000000e+00 0.000000e+00 0.000000e+00 0.000000e+00 8.890162e-01 1.109838e-01 0.000000e+00 0.000000e+00 0.000000e+00
 0.000000e+00 0.000000e+00 0.000000e+00 0.000000e+00 0.000000e+00 6.378891e-01 3.621109e-01 0.000000e+00 0.000000e+00
 0.000000e+00 0.000000e+00 0.000000e+00 0.000000e+00 0.000000e+00 0.000000e+00 8.710884e-01 1.289116e-01 0.000000e+00
 0.000000e+00 0.000000e+00 0.000000e+00 0.000000e+00 0.000000e+00 0.000000e+00 0.000000e+00 9.002082e-01 9.979185e-02
 0.000000e+00 0.000000e+00 0.000000e+00 0.000000e+00 0.000000e+00 0.000000e+00 0.000000e+00 0.000000e+00 0.000000e+00
<ENDHMM>
