~o
<STREAMINFO> 1 12
<VECSIZE> 12<NULLD><MFCC_Z><DIAGC>
~h "s096"
<BEGINHMM>
<NUMSTATES> 5
<STATE> 2
<MEAN> 12
 -1.476293e-01 -3.999360e+00 -8.508002e+00 4.907744e+00 9.411534e+00 -1.202807e+01 2.218668e+00 4.603383e+00 -4.796624e+00 -5.108866e+00 -1.829994e+00 2.327791e+00
<VARIANCE> 12
 7.722579e+00 3.735669e+00 8.209959e+00 1.097409e+01 1.516529e+01 1.361037e+01 4.991394e+01 9.937918e+00 6.069954e+01 1.001063e+01 1.230561e+01 7.471899e+00
<GCONST> 5.238477e+01
<STATE> 3
<MEAN> 12
 -3.228703e+00 2.956682e+00 4.685657e+00 -7.068781e+00 -5.921653e+00 1.134391e+00 -1.467375e+00 -7.399112e+00 -6.727346e-01 -1.503116e-01 8.164198e-01 9.573018e-01
<VARIANCE> 12
 5.073302e+00 2.177532e+01 3.063132e+01 2.398602e+01 1.691054e+01 2.075844e+01 8.290261e+01 4.132953e+01 5.283962e+01 3.298464e+01 5.244436e+01 3.290735e+01
<GCONST> 6.227567e+01
<STATE> 4
<MEAN> 12
 4.218361e+00 -6.188736e-01 7.218287e-01 5.131137e+00 1.397433e-01 7.996165e+00 1.236785e-01 5.789680e+00 4.618374e+00 4.199556e+00 3.984880e-01 -3.042841e+00
<VARIANCE> 12
 2.477410e+00 3.168663e+00 1.154731e+01 7.817642e+00 2.501618e+01 6.236416e+01 7.705727e+00 2.294157e+01 7.882394e+00 5.196138e+01 2.139233e+01 2.269903e+01
<GCONST> 5.334580e+01
<TRANSP> 5
 0.000000e+00 1.000000e+00 0.000000e+00 0.000000e+00 0.000000e+00
 0.000000e+00 8.854733e-01 1.145267e-01 0.000000e+00 0.000000e+00
 0.000000e+00 0.000000e+00 9.292791e-01 7.072084e-02 0.000000e+00
 0.000000e+00 0.000000e+00 0.000000e+00 9.101391e-01 8.986093e-02
 0.000000e+00 0.000000e+00 0.000000e+00 0.000000e+00 0.000000e+00
<ENDHMM>
