~o
<STREAMINFO> 1 12
<VECSIZE> 12<NULLD><MFCC_Z><DIAGC>
~h "s027"
<BEGINHMM>
<NUMSTATES> 7
<STATE> 2
<MEAN> 12
 -5.143876e+00 1.641472e+00 1.037487e+01 6.332195e-02 -6.728164e+00 -6.269347e+00 7.932925e+00 6.531854e+00 -6.167997e+00 1.209529e-01 5.107287e+00 -3.202144e+00
<VARIANCE> 12
 5.962930e+00 1.537100e+01 7.925895e+01 1.485224e+01 2.238826e+01 2.537366e+01 9.434417e+00 1.401003e+01 2.870451e+01 7.619839e+01 1.644857e+01 2.531887e+01
<GCONST> 5.859202e+01
<STATE> 3
<MEAN> 12
 -2.626457e+00 -2.726238e+00 -3.526814e+00 5.726250e+00 2.109754e+00 -9.348221e-01 5.759472e+00 5.155559e+00 -1.259833e-01 -6.494816e+00 6.140665e+00 3.613743e+00
<VARIANCE> 12
 6.523282e+00 5.581312e+00 1.232097e+01 1.546583e+01 5.740429e+00 1.221703e+01 9.434417e+00 1.401003e+01 1.219378e+01 1.612456e+01 9.884902e+00 9.116294e+00
<GCONST> 4.981611e+01
<STATE> 4
<MEAN> 12
 3.570185e+00 3.063926e+00 1.876660e+00 -5.693975e+00 6.064869e-01 1.711696e+00 8.464565e-01 -7.365285e+00 3.221009e-01 1.111018e+00 2.081385e+00 2.762480e+00
<VARIANCE> 12
 2.886621e+00 3.329712e+00 2.091693e+01 8.176665e+00 7.363678e+00 8.885262e+00 2.253515e+01 4.883685e+01 1.752874e+01 2.721791e+01 1.412976e+01 3.688167e+01
<GCONST> 5.306757e+01
<STATE> 5
<MEAN> 12
 4.733331e-01 8.308482e-01 -6.023579e+00 -3.173876e+00 -5.769424e-01 4.302959e+00 -7.457649e+00 -5.873288e+00 3.196483e+00 1.251609e+01 -9.411284e-01 -1.079022e+01
<VARIANCE> 12
 2.886621e+00 3.329712e+00 1.232097e+01 1.250353e+01 4.596738e+00 4.706451e+00 1.014624e+01 1.401003e+01 6.877923e+00 1.464577e+01 1.042760e+01 1.769137e+01
<GCONST> 4.721597e+01
<STATE> 6
<MEAN> 12
 -6.042572e-01 -5.193862e+00 -6.591012e+00 7.649661e+00 3.505265e+00 6.551142e-01 -6.931043e+00 6.779565e+00 2.893453e+00 -4.390975e+00 -9.848161e+00 1.253538e+00
<VARIANCE> 12
 6.044414e+00 3.848757e+00 1.345825e+01 1.165510e+01 1.555308e+01 1.552374e+01 1.506567e+01 1.419272e+01 2.442525e+01 1.119346e+01 8.923321e+00 1.433479e+01
<GCONST> 5.157082e+01
<TRANSP> 7
 0.000000e+00 1.000000e+00 0.000000e+00 0.000000e+00 0.000000e+00 0.000000e+00 0.000000e+00
 0.000000e+00 8.681130e-01 1.318870e-01 0.000000e+00 0.000000e+00 0.000000e+00 0.000000e+00
 0.000000e+00 0.000000e+00 7.896307e-01 2.103693e-01 0.000000e+00 0.000000e+00 0.000000e+00
 0.000000e+00 0.000000e+00 0.000000e+00 9.354101e-01 6.458990e-02 0.000000e+00 0.000000e+00
 0.000000e+00 0.000000e+00 0.000000e+00 0.000000e+00 7.746557e-01 2.253443e-01 0.000000e+00
 0.000000e+00 0.000000e+00 0.000000e+00 0.000000e+00 0.000000e+00 8.973754e-01 1.026246e-01
 0.000000e+00 0.000000e+00 0.000000e+00 0.000000e+00 0.000000e+00 0.000000e+00 0.000000e+00
<ENDHMM>
