~o
<STREAMINFO> 1 12
<VECSIZE> 12<NULLD><MFCC_Z><DIAGC>
~h "s012"
<BEGINHMM>
<NUMSTATES> 15
<STATE> 2
<MEAN> 12
 1.217858e+00 -7.972492e+00 -1.549930e+01 -5.959031e-01 1.377662e+00 -3.252177e+00 -6.918098e+00 1.231932e+00 -6.450528e-01 4.998553e-01 -1.281764e+01 -2.732712e+00
<VARIANCE> 12
 5.058423e+00 1.251573e+01 1.301515e+01 5.229417e+00 1.741755e+01 5.970773e+00 6.053294e+00 2.471577e+01 1.255717e+01 5.515072e+00 3.192378e+01 9.074043e+00
<GCONST> 4.998193e+01
<STATE> 3
<MEAN> 12
 3.458208e+00 -2.358164e-01 -1.323406e+01 -3.727266e+00 -1.447894e+00 7.622061e-01 -7.121597e+00 -9.720022e+00 4.658931e+00 -3.174290e-01 3.274830e+00 6.973608e+00
<VARIANCE> 12
 5.058423e+00 1.251573e+01 1.301515e+01 1.047669e+01 6.591447e+00 8.242355e+00 1.441081e+01 7.417117e+00 7.088015e+00 1.230846e+01 8.494121e+00 4.054326e+00
<GCONST> 4.779252e+01
<STATE> 4
<MEAN> 12
 8.228649e+00 2.892495e+00 -6.059394e+00 8.161746e-01 5.309748e+00 7.339383e+00 7.544260e+00 -6.239997e+00 7.585066e+00 3.641855e+00 1.738653e-01 4.412261e+00
<VARIANCE> 12
 5.058423e+00 1.251573e+01 1.727732e+01 3.747058e+01 6.591447e+00 1.693921e+01 1.710989e+01 7.417117e+00 8.256303e+00 1.917147e+01 1.501037e+01 2.329010e+01
<GCONST> 5.315554e+01
<STATE> 5
<MEAN> 12
 6.400804e+00 -8.600938e-01 -3.771531e+00 1.009687e+01 1.229257e+01 1.641175e+00 5.000922e+00 -8.921066e-01 8.018182e+00 2.299376e-01 -1.470948e+00 -7.743574e-01
<VARIANCE> 12
 5.058423e+00 2.258757e+01 1.301515e+01 5.401873e+00 2.486659e+01 3.655713e+01 2.955049e+01 7.417117e+00 7.088015e+00 1.554680e+01 8.494121e+00 4.871676e+00
<GCONST> 5.167321e+01
<STATE> 6
<MEAN> 12
 2.488192e-01 -7.323579e+00 -1.112004e+01 3.030773e+00 4.379950e+00 -5.878010e+00 -5.185479e+00 1.071928e+00 7.703444e+00 -7.014135e+00 -6.684838e+00 3.289335e+00
<VARIANCE> 12
 5.058423e+00 1.251573e+01 1.301515e+01 5.229417e+00 8.863778e+00 1.319859e+01 5.657241e+00 7.417117e+00 2.153180e+01 1.477686e+01 1.070176e+01 8.416180e+00
<GCONST> 4.918495e+01
<STATE> 7
<MEAN> 12
 5.077604e+00 -8.670422e+00 -2.494960e+00 3.154504e+00 -1.306216e+00 -9.513618e+00 1.003449e+00 -1.258063e+00 -4.035649e-02 -8.397476e+00 -3.307734e+00 1.314566e+00
<VARIANCE> 12
 5.058423e+00 1.251573e+01 1.301515e+01 5.229417e+00 1.102419e+01 1.003329e+01 8.332171e+00 8.422409e+00 7.088015e+00 5.895769e+00 8.494121e+00 1.409934e+01
<GCONST> 4.789815e+01
<STATE> 8
<MEAN> 12
 -7.188017e+00 -7.016290e+00 1.149271e+01 1.653244e-01 -2.978791e+00 5.841296e+00 9.888822e-01 4.651640e+00 -3.940584e-01 4.118705e+00 2.546429e+00 -5.186009e+00
<VARIANCE> 12
 2.442300e+01 1.397154e+01 1.301515e+01 5.229417e+00 1.273296e+01 9.519590e+00 1.433676e+01 7.417117e+00 1.933638e+01 3.081847e+01 1.233182e+01 4.301931e+00
<GCONST> 5.193300e+01
<STATE> 9
<MEAN> 12
 -1.625570e+00 -1.058915e+01 7.417693e+00 -1.513287e+00 -6.561941e+00 1.541733e+00 4.584690e+00 1.028507e+01 -9.351803e+00 1.022258e+00 -5.166004e+00 -1.440786e+00
<VARIANCE> 12
 9.376311e+00 1.251573e+01 1.301515e+01 1.199101e+01 6.591447e+00 2.729781e+01 8.058757e+00 3.606342e+01 1.382758e+01 3.044576e+01 8.021162e+01 9.770724e+00
<GCONST> 5.544126e+01
<STATE> 10
<MEAN> 12
 2.924558e+00 -3.974204e+00 7.213590e+00 -5.870821e+00 -7.321121e+00 -7.308277e-01 3.932442e+00 -1.004556e+01 1.394078e+00 2.692816e+00 -3.931016e+00 3.593841e+00
<VARIANCE> 12
 9.903593e+00 1.251573e+01 1.301515e+01 2.814405e+01 2.154918e+01 2.782270e+01 1.088128e+01 4.182404e+01 2.359643e+01 1.713080e+01 1.769887e+01 1.409072e+01
<GCONST> 5.681556e+01
<STATE> 11
<MEAN> 12
 -7.952853e+00 3.315545e+00 1.655252e+00 5.845400e-01 -5.943269e-01 3.601810e+00 3.869326e+00 3.412850e+00 2.687599e-01 8.371544e+00 7.687953e+00 1.403248e+00
<VARIANCE> 12
 1.067900e+01 1.251573e+01 1.301515e+01 5.229417e+00 6.591447e+00 2.358268e+01 4.691606e+01 7.417117e+00 2.512581e+01 3.276165e+01 1.446942e+01 3.528176e+01
<GCONST> 5.501720e+01
<STATE> 12
<MEAN> 12
 -1.134517e+01 5.088561e+00 5.594767e+00 4.472666e+00 4.597174e+00 7.960982e+00 -9.656302e-02 3.521401e-01 -2.914820e+00 -4.612035e+00 9.881090e+00 3.005064e+00
<VARIANCE> 12
 1.732676e+01 1.251573e+01 1.301515e+01 5.229417e+00 6.591447e+00 1.986436e+01 1.502659e+01 8.869925e+00 2.188076e+01 1.358999e+01 8.494121e+00 2.525127e+01
<GCONST> 5.248456e+01
<STATE> 13
<MEAN> 12
 -1.828447e+00 1.770788e+01 8.500975e+00 -6.058950e-01 -3.247574e+00 -7.426049e-01 -3.970871e+00 3.557928e+00 -6.385126e+00 2.480093e-01 8.484135e+00 -5.314512e+00
<VARIANCE> 12
 5.058423e+00 1.251573e+01 1.301515e+01 5.381579e+00 7.263527e+00 5.970773e+00 1.033440e+01 7.417117e+00 9.009989e+00 4.732275e+00 8.494121e+00 5.164568e+00
<GCONST> 4.609461e+01
<STATE> 14
<MEAN> 12
 -3.593412e+00 1.132230e+01 7.674088e+00 -8.355932e+00 -2.955561e+00 -6.810323e+00 -1.143105e+00 5.092274e+00 -7.589764e+00 -9.694623e-01 3.397321e+00 -5.468565e+00
<VARIANCE> 12
 5.058423e+00 1.748871e+01 1.301515e+01 2.582689e+01 2.447233e+01 1.982920e+01 1.657704e+01 1.091146e+01 1.347551e+01 2.861371e+01 1.069374e+01 4.054326e+00
<GCONST> 5.346140e+01
<TRANSP> 15
 0.000000e+00 1.000000e+00 0.000000e+00 0.000000e+00 0.000000e+00 0.000000e+00 0.000000e+00 0.000000e+00 0.000000e+00 0.000000e+00 0.000000e+00 0.000000e+00 0.000000e+00 0.000000e+00 0.000000e+00
 0.000000e+00 8.571508e-01 1.428492e-01 0.000000e+00 0.000000e+00 0.000000e+00 0.000000e+00 0.000000e+00 0.000000e+00 0.000000e+00 0.000000e+00 0.000000e+00 0.000000e+00 0.000000e+00 0.000000e+00
 0.000000e+00 0.000000e+00 8.756821e-01 1.243179e-01 0.000000e+00 0.000000e+00 0.000000e+00 0.000000e+00 0.000000e+00 0.000000e+00 0.000000e+00 0.000000e+00 0.000000e+00 0.000000e+00 0.000000e+00
 0.000000e+00 0.000000e+00 0.000000e+00 8.182268e-01 1.817731e-01 0.000000e+00 0.000000e+00 0.000000e+00 0.000000e+00 0.000000e+00 0.000000e+00 0.000000e+00 0.000000e+00 0.000000e+00 0.000000e+00
 0.000000e+00 0.000000e+00 0.000000e+00 0.000000e+00 8.938087e-01 1.061913e-01 0.000000e+00 0.000000e+00 0.000000e+00 0.000000e+00 0.000000e+00 0.000000e+00 0.000000e+00 0.000000e+00 0.000000e+00
 0.000000e+00 0.000000e+00 0.000000e+00 0.000000e+00 0.000000e+00 8.379169e-01 1.620831e-01 0.000000e+00 0.000000e+00 0.000000e+00 0.000000e+00 0.000000e+00 0.000000e+00 0.000000e+00 0.000000e+00
 0.000000e+00 0.000000e+00 0.000000e+00 0.000000e+00 0.000000e+00 0.000000e+00 7.937472e-01 2.062527e-01 0.000000e+00 0.000000e+00 0.000000e+00 0.000000e+00 0.000000e+00 0.000000e+00 0.000000e+00
 0.000000e+00 0.000000e+00 0.000000e+00 0.000000e+00 0.000000e+00 0.000000e+00 0.000000e+00 8.289729e-01 1.710271e-01 0.000000e+00 0.000000e+00 0.000000e+00 0.000000e+00 0.000000e+00 0.000000e+00
 0.000000e+00 0.000000e+00 0.000000e+00 0.000000e+00 0.000000e+00 0.000000e+00 0.000000e+00 0.000000e+00 8.761070e-01 1.238929e-01 0.000000e+00 0.000000e+00 0.000000e+00 0.000000e+00 0.000000e+00
 0.000000e+00 0.000000e+00 0.000000e+00 0.000000e+00 0.000000e+00 0.000000e+00 0.000000e+00 0.000000e+00 0.000000e+00 8.828738e-01 1.171261e-01 0.000000e+00 0.000000e+00 0.000000e+00 0.000000e+00
 0.000000e+00 0.000000e+00 0.000000e+00 0.000000e+00 0.000000e+00 0.000000e+00 0.000000e+00 0.000000e+00 0.000000e+00 0.000000e+00 7.593258e-01 2.406742e-01 0.000000e+00 0.000000e+00 0.000000e+00
 0.000000e+00 0.000000e+00 0.000000e+00 0.000000e+00 0.000000e+00 0.000000e+00 0.000000e+00 0.000000e+00 0.000000e+00 0.000000e+00 0.000000e+00 8.150886e-01 1.849114e-01 0.000000e+00 0.000000e+00
 0.000000e+00 0.000000e+00 0.000000e+00 0.000000e+00 0.000000e+00 0.000000e+00 0.000000e+00 0.000000e+00 0.000000e+00 0.000000e+00 0.000000e+00 0.000000e+00 8.998619e-01 1.001381e-01 0.000000e+00
 0.000000e+00 0.000000e+00 0.000000e+00 0.000000e+00 0.000000e+00 0.000000e+00 0.000000e+00 0.000000e+00 0.000000e+00 0.000000e+00 0.000000e+00 0.000000e+00 0.000000e+00 8.574236e-01 1.425764e-01
 0.000000e+00 0.000000e+00 0.000000e+00 0.000000e+00 0.000000e+00 0.000000e+00 0.000000e+00 0.000000e+00 0.000000e+00 0.000000e+00 0.000000e+00 0.000000e+00 0.000000e+00 0.000000e+00 0.000000e+00
<ENDHMM>
