~o
<STREAMINFO> 1 12
<VECSIZE> 12<NULLD><MFCC_Z><DIAGC>
~h "T13771896663"
<BEGINHMM>
<NUMSTATES> 8
<STATE> 2
<MEAN> 12
 -1.043508e+01 -2.375305e+00 8.791247e+00 8.012933e+00 -1.306434e+00 -7.184249e-02 5.093880e+00 8.919422e+00 2.524437e+00 2.092916e+00 1.200087e+00 3.360419e+00
<VARIANCE> 12
 2.467856e+01 4.641686e+00 1.334505e+01 2.596489e+01 1.974844e+01 2.530507e+01 2.836902e+01 2.466129e+01 2.634496e+01 2.790088e+01 2.623932e+01 2.626152e+01
<GCONST> 5.854334e+01
<STATE> 3
<MEAN> 12
 2.353347e+00 -1.343743e+00 -3.032120e+00 3.776659e+00 3.324506e+00 -3.139155e+00 -6.631514e-01 3.727708e+00 1.328084e+00 -6.597806e+00 -4.108770e+00 4.199538e-01
<VARIANCE> 12
 5.564404e+00 2.382946e+00 3.659233e+01 9.971178e+00 5.846596e+00 9.138622e+00 5.203918e+00 7.272563e+00 1.609760e+01 9.551764e+00 1.195810e+01 8.127128e+00
<GCONST> 4.776269e+01
<STATE> 4
<MEAN> 12
 3.380194e+00 1.815939e+00 -5.360059e+00 -4.716745e+00 -3.161150e+00 -2.071390e+00 -1.804539e+00 -3.009552e+00 -7.643029e-01 -1.103662e+00 -6.052026e-01 -3.008534e+00
<VARIANCE> 12
 4.797444e+00 6.167667e+00 8.747227e+01 1.320861e+01 1.623859e+01 1.978675e+01 1.350872e+01 1.674629e+01 1.467946e+01 2.444819e+01 7.748954e+00 1.054632e+01
<GCONST> 5.397437e+01
<STATE> 5
<MEAN> 12
 3.567543e+00 2.589404e+00 -4.538889e+00 -4.821051e+00 -4.205645e+00 -1.196108e+00 -9.302363e-01 -3.206211e+00 -1.393824e+00 -1.342443e+00 1.326045e+00 -9.603363e-01
<VARIANCE> 12
 4.797444e+00 5.278065e+00 9.999409e+01 1.322231e+01 2.635048e+01 3.504039e+01 2.336531e+01 1.165401e+01 1.405833e+01 2.042995e+01 2.085168e+01 1.250369e+01
<GCONST> 5.613175e+01
<STATE> 6
<MEAN> 12
 2.580326e+00 -1.336293e+00 -1.858692e+00 -6.300098e-01 5.043702e+00 6.111015e+00 -1.550755e-01 -2.757919e+00 -1.107122e+00 3.625010e-01 9.133273e-01 3.299765e-01
<VARIANCE> 12
 4.797444e+00 3.843207e+00 2.580427e+01 1.103185e+01 1.981054e+01 1.082880e+01 1.180760e+01 1.307412e+01 1.318230e+01 1.606774e+01 9.657952e+00 1.534152e+01
<GCONST> 5.138208e+01
<STATE> 7
<MEAN> 12
 -2.569922e+00 -1.619417e+00 7.115789e+00 3.322768e+00 4.494813e+00 1.459126e+00 -2.758627e-01 2.359996e-01 5.249557e-01 3.914876e+00 -1.839331e-01 1.772007e+00
<VARIANCE> 12
 9.522892e+00 3.289769e+00 1.283776e+01 1.433562e+01 2.016739e+01 2.320290e+01 1.142060e+01 1.531841e+01 1.778486e+01 1.718386e+01 1.692905e+01 1.355081e+01
<GCONST> 5.318479e+01
<TRANSP> 8
 0.000000e+00 1.000000e+00 0.000000e+00 0.000000e+00 0.000000e+00 0.000000e+00 0.000000e+00 0.000000e+00
 0.000000e+00 8.645951e-01 1.354050e-01 0.000000e+00 0.000000e+00 0.000000e+00 0.000000e+00 0.000000e+00
 0.000000e+00 0.000000e+00 7.747537e-01 2.252463e-01 0.000000e+00 0.000000e+00 0.000000e+00 0.000000e+00
 0.000000e+00 0.000000e+00 0.000000e+00 9.177355e-01 8.226456e-02 0.000000e+00 0.000000e+00 0.000000e+00
 0.000000e+00 0.000000e+00 0.000000e+00 0.000000e+00 8.978489e-01 1.021511e-01 0.000000e+00 0.000000e+00
 0.000000e+00 0.000000e+00 0.000000e+00 0.000000e+00 0.000000e+00 8.353795e-01 1.646205e-01 0.000000e+00
 0.000000e+00 0.000000e+00 0.000000e+00 0.000000e+00 0.000000e+00 0.000000e+00 8.974911e-01 1.025089e-01
 0.000000e+00 0.000000e+00 0.000000e+00 0.000000e+00 0.000000e+00 0.000000e+00 0.000000e+00 0.000000e+00
<ENDHMM>
