~o
<STREAMINFO> 1 12
<VECSIZE> 12<NULLD><MFCC_Z><DIAGC>
~h "s080"
<BEGINHMM>
<NUMSTATES> 7
<STATE> 2
<MEAN> 12
 4.486431e+00 -2.403898e+00 -5.678126e+00 9.987963e+00 2.989088e+00 9.255353e-01 7.290906e+00 -6.030027e+00 5.652034e+00 -2.053457e+00 4.642341e-01 -6.647877e-01
<VARIANCE> 12
 1.317632e+01 2.090667e+01 4.419375e+01 2.047608e+01 7.292023e+01 6.217717e+00 1.111487e+01 9.909565e+00 3.990652e+01 1.612824e+01 1.949124e+01 1.642300e+01
<GCONST> 5.753516e+01
<STATE> 3
<MEAN> 12
 -7.550992e-01 -8.674877e+00 -9.482595e+00 1.065895e+01 2.176513e+00 -1.009752e+00 4.136796e-01 -2.819160e+00 -4.774390e-01 -7.348106e+00 -3.388525e+00 3.071745e+00
<VARIANCE> 12
 4.115909e+00 8.884133e+00 2.559306e+01 5.182275e+01 2.442783e+01 2.190841e+01 1.309324e+01 9.909565e+00 1.786357e+01 6.540820e+00 6.804697e+00 1.007545e+01
<GCONST> 5.298054e+01
<STATE> 4
<MEAN> 12
 3.004653e+00 -4.413337e+00 7.087116e-01 -3.375285e+00 -3.009717e-01 -3.748426e+00 1.151638e+00 3.025145e+00 -8.000855e+00 -3.822886e+00 -3.152826e+00 8.989887e-01
<VARIANCE> 12
 4.115909e+00 8.884133e+00 1.795496e+01 1.932625e+01 4.544639e+00 2.323238e+01 5.936260e+00 1.776192e+01 4.529405e+00 6.579365e+00 5.693128e+00 8.459052e+00
<GCONST> 4.808964e+01
<STATE> 5
<MEAN> 12
 -7.096717e+00 9.789426e+00 8.798148e+00 -1.404447e+01 -4.215433e+00 1.016418e+00 -5.587955e+00 1.166674e+01 -7.206637e-01 5.719023e+00 1.874702e+00 -4.116562e+00
<VARIANCE> 12
 4.115909e+00 1.440798e+01 1.160915e+01 1.932625e+01 5.538105e+00 6.431394e+00 1.318970e+01 1.371084e+01 7.386574e+00 1.241783e+01 3.798588e+01 1.491121e+01
<GCONST> 5.117902e+01
<STATE> 6
<MEAN> 12
 4.551437e+00 3.736825e+00 6.593160e+00 -4.000489e+00 -1.487722e-01 1.156659e+00 -7.726053e-01 -7.348378e+00 4.416768e-01 6.631193e+00 3.451683e+00 1.340272e+00
<VARIANCE> 12
 8.878139e+00 8.884133e+00 1.160915e+01 3.109753e+01 5.891293e+00 7.946406e+00 1.087144e+01 1.599303e+01 1.618394e+01 8.265555e+00 1.778838e+01 7.228927e+00
<GCONST> 5.106855e+01
<TRANSP> 7
 0.000000e+00 1.000000e+00 0.000000e+00 0.000000e+00 0.000000e+00 0.000000e+00 0.000000e+00
 0.000000e+00 8.844738e-01 1.155262e-01 0.000000e+00 0.000000e+00 0.000000e+00 0.000000e+00
 0.000000e+00 0.000000e+00 9.203618e-01 7.963822e-02 0.000000e+00 0.000000e+00 0.000000e+00
 0.000000e+00 0.000000e+00 0.000000e+00 7.911127e-01 2.088874e-01 0.000000e+00 0.000000e+00
 0.000000e+00 0.000000e+00 0.000000e+00 0.000000e+00 9.163910e-01 8.360903e-02 0.000000e+00
 0.000000e+00 0.000000e+00 0.000000e+00 0.000000e+00 0.000000e+00 8.893741e-01 1.106260e-01
 0.000000e+00 0.000000e+00 0.000000e+00 0.000000e+00 0.000000e+00 0.000000e+00 0.000000e+00
<ENDHMM>
