~o
<STREAMINFO> 1 12
<VECSIZE> 12<NULLD><MFCC_Z><DIAGC>
~h "s000"
<BEGINHMM>
<NUMSTATES> 15
<STATE> 2
<MEAN> 12
 -6.502714e-01 9.699465e+00 6.800986e+00 -8.587206e+00 -1.181218e+01 -3.593341e+00 -8.560769e+00 1.218492e+00 1.792311e-01 1.023225e+01 -1.039143e+01 -1.139439e-01
<VARIANCE> 12
 7.357876e+00 1.958939e+01 2.356003e+01 2.158494e+01 1.010917e+01 9.766150e+00 1.531375e+01 1.193261e+01 2.908047e+01 2.849722e+01 3.378108e+01 5.844871e+00
<GCONST> 5.506256e+01
<STATE> 3
<MEAN> 12
 -2.687854e+00 1.692104e+01 -3.897967e+00 -4.256452e+00 -8.039425e+00 -2.607262e+00 -1.162127e+01 2.950092e+00 -1.236304e+00 5.955545e+00 5.295543e+00 -6.268306e+00
<VARIANCE> 12
 3.101415e+00 1.958939e+01 6.080553e+00 1.563292e+01 9.669036e+00 1.333309e+01 1.653689e+01 1.343503e+01 2.646610e+01 1.349797e+01 2.749990e+01 2.125548e+01
<GCONST> 5.322768e+01
<STATE> 4
<MEAN> 12
 1.142944e+00 1.556768e+01 -4.399192e+00 2.620651e+00 -1.475256e+00 1.656092e+00 -1.454969e+01 -4.285791e+00 1.448106e-01 4.076263e+00 6.087169e+00 -4.497608e+00
<VARIANCE> 12
 3.101415e+00 1.958939e+01 1.040699e+01 7.738197e+00 2.389796e+01 9.766150e+00 3.058799e+01 1.097476e+01 9.658916e+00 9.894760e+00 7.051918e+00 7.006500e+00
<GCONST> 5.027896e+01
<STATE> 5
<MEAN> 12
 6.504223e-01 8.791267e+00 3.331960e+00 4.362462e+00 5.825319e+00 2.478087e+00 -5.525979e+00 -4.372279e+00 5.437789e+00 2.210519e+00 4.846663e+00 8.050597e-01
<VARIANCE> 12
 1.227062e+01 1.958939e+01 7.665306e+00 1.588634e+01 1.415445e+01 4.591191e+01 2.764125e+01 1.484573e+01 7.323980e+00 1.123560e+01 1.713218e+01 1.068635e+01
<GCONST> 5.445283e+01
<STATE> 6
<MEAN> 12
 -3.694076e+00 5.107603e+00 1.052738e+00 -7.282390e+00 -4.214276e+00 -1.439894e+00 -1.652890e+00 4.331809e+00 7.088068e-01 -4.271467e+00 -6.290753e+00 7.861533e+00
<VARIANCE> 12
 3.101415e+00 1.958939e+01 6.080553e+00 7.738197e+00 9.669036e+00 3.328580e+01 1.907748e+01 1.592144e+01 1.424871e+01 9.894760e+00 5.613409e+01 5.844871e+00
<GCONST> 5.224485e+01
<STATE> 7
<MEAN> 12
 -1.299797e+00 -9.386445e+00 -4.555237e+00 2.425774e+00 3.666000e+00 -1.981223e+00 4.534434e+00 7.688158e-01 -1.102816e+01 -2.213594e+00 -5.086170e+00 5.626545e+00
<VARIANCE> 12
 3.101415e+00 1.958939e+01 6.080553e+00 8.373826e+00 9.669036e+00 2.784149e+01 1.531375e+01 1.097476e+01 1.990152e+01 1.804909e+01 7.051918e+00 9.555572e+00
<GCONST> 5.090570e+01
<STATE> 8
<MEAN> 12
 5.455362e+00 -1.778185e+00 -5.859146e+00 2.131553e-01 7.884492e+00 -3.310066e+00 5.525812e+00 -6.940291e+00 5.633975e+00 -8.272826e+00 7.684006e-01 3.688814e+00
<VARIANCE> 12
 5.300638e+00 1.958939e+01 1.267495e+01 7.913422e+00 9.669036e+00 1.088252e+01 1.531375e+01 3.359533e+01 1.123749e+01 3.401390e+01 1.589000e+01 1.369321e+01
<GCONST> 5.353336e+01
<STATE> 9
<MEAN> 12
 9.561940e-01 -9.493267e+00 5.337863e+00 9.205825e+00 3.005026e+00 1.244093e+00 4.581317e+00 5.776837e+00 -1.622232e+00 5.691656e+00 3.671310e+00 5.817626e+00
<VARIANCE> 12
 6.881909e+00 1.958939e+01 1.268445e+01 2.399305e+01 3.222636e+01 9.766150e+00 1.531375e+01 1.223095e+01 6.705409e+00 9.894760e+00 1.091417e+01 1.368137e+01
<GCONST> 5.286200e+01
<STATE> 10
<MEAN> 12
 -2.082942e+00 -7.215623e+00 6.533841e-01 7.440707e+00 7.892297e-01 -4.698394e+00 8.954272e+00 1.041974e+01 -3.312472e+00 -1.663870e+00 -7.924464e-01 -3.768683e+00
<VARIANCE> 12
 2.509404e+01 1.958939e+01 2.227641e+01 1.097430e+01 9.808797e+00 6.293969e+01 3.099980e+01 2.398961e+01 9.347888e+00 5.971110e+01 2.221955e+01 2.000253e+01
<GCONST> 5.920978e+01
<STATE> 11
<MEAN> 12
 5.485847e-02 -5.512997e+00 -6.003551e+00 -1.777701e+00 -4.269468e-01 -1.014070e+01 8.924156e+00 8.690377e+00 -5.290475e+00 -3.569763e+00 -1.812247e+00 -8.830463e-01
<VARIANCE> 12
 3.770745e+00 1.958939e+01 6.080553e+00 1.474525e+01 9.904004e+00 1.915288e+01 1.531375e+01 1.097476e+01 6.705409e+00 2.412247e+01 1.233410e+01 1.129072e+01
<GCONST> 5.124495e+01
<STATE> 12
<MEAN> 12
 1.577112e+00 -3.251954e+00 6.516633e+00 -5.321161e+00 -4.606397e+00 6.215019e+00 3.504910e+00 2.875308e-01 -1.336323e+00 -4.638254e+00 -7.069328e-01 -3.090032e-01
<VARIANCE> 12
 1.019355e+01 1.958939e+01 2.419584e+01 1.467035e+01 9.669036e+00 9.766150e+00 7.228571e+01 2.713767e+01 3.132949e+01 3.181492e+01 7.051918e+00 6.406449e+00
<GCONST> 5.606778e+01
<STATE> 13
<MEAN> 12
 -2.901294e+00 -7.159169e+00 3.090112e+00 -5.938704e+00 -6.736610e+00 1.129102e+01 -5.381758e+00 -1.183231e+00 -7.473657e-01 -7.133438e-02 -1.706675e+00 -5.888739e+00
<VARIANCE> 12
 3.101415e+00 1.958939e+01 7.126300e+00 1.223819e+01 1.730118e+01 9.766150e+00 1.531375e+01 1.408957e+01 1.764015e+01 9.894760e+00 7.051918e+00 1.005699e+01
<GCONST> 5.055736e+01
<STATE> 14
<MEAN> 12
 -2.121258e-01 -1.223191e+01 1.053762e+00 2.468938e+00 5.719406e+00 5.551191e+00 4.529997e+00 -8.921227e+00 2.079001e+00 3.036907e+00 -7.935841e-02 3.179779e+00
<VARIANCE> 12
 1.277059e+01 1.958939e+01 6.080553e+00 7.738197e+00 9.669036e+00 1.401641e+01 2.922906e+01 2.211104e+01 1.559725e+01 1.141586e+01 1.037792e+01 5.844871e+00
<GCONST> 5.209566e+01
<TRANSP> 15
 0.000000e+00 1.000000e+00 0.000000e+00 0.000000e+00 0.000000e+00 0.000000e+00 0.000000e+00 0.000000e+00 0.000000e+00 0.000000e+00 0.000000e+00 0.000000e+00 0.000000e+00 0.000000e+00 0.000000e+00
 0.000000e+00 8.319589e-01 1.680411e-01 0.000000e+00 0.000000e+00 0.000000e+00 0.000000e+00 0.000000e+00 0.000000e+00 0.000000e+00 0.000000e+00 0.000000e+00 0.000000e+00 0.000000e+00 0.000000e+00
 0.000000e+00 0.000000e+00 8.979986e-01 1.020014e-01 0.000000e+00 0.000000e+00 0.000000e+00 0.000000e+00 0.000000e+00 0.000000e+00 0.000000e+00 0.000000e+00 0.000000e+00 0.000000e+00 0.000000e+00
 0.000000e+00 0.000000e+00 0.000000e+00 7.408638e-01 2.591362e-01 0.000000e+00 0.000000e+00 0.000000e+00 0.000000e+00 0.000000e+00 0.000000e+00 0.000000e+00 0.000000e+00 0.000000e+00 0.000000e+00
 0.000000e+00 0.000000e+00 0.000000e+00 0.000000e+00 9.037892e-01 9.621075e-02 0.000000e+00 0.000000e+00 0.000000e+00 0.000000e+00 0.000000e+00 0.000000e+00 0.000000e+00 0.000000e+00 0.000000e+00
 0.000000e+00 0.000000e+00 0.000000e+00 0.000000e+00 0.000000e+00 7.581951e-01 2.418049e-01 0.000000e+00 0.000000e+00 0.000000e+00 0.000000e+00 0.000000e+00 0.000000e+00 0.000000e+00 0.000000e+00
 0.000000e+00 0.000000e+00 0.000000e+00 0.000000e+00 0.000000e+00 0.000000e+00 8.072527e-01 1.927472e-01 0.000000e+00 0.000000e+00 0.000000e+00 0.000000e+00 0.000000e+00 0.000000e+00 0.000000e+00
 0.000000e+00 0.000000e+00 0.000000e+00 0.000000e+00 0.000000e+00 0.000000e+00 0.000000e+00 9.228054e-01 7.719457e-02 0.000000e+00 0.000000e+00 0.000000e+00 0.000000e+00 0.000000e+00 0.000000e+00
 0.000000e+00 0.000000e+00 0.000000e+00 0.000000e+00 0.000000e+00 0.000000e+00 0.000000e+00 0.000000e+00 7.285636e-01 2.714364e-01 0.000000e+00 0.000000e+00 0.000000e+00 0.000000e+00 0.000000e+00
 0.000000e+00 0.000000e+00 0.000000e+00 0.000000e+00 0.000000e+00 0.000000e+00 0.000000e+00 0.000000e+00 0.000000e+00 9.105833e-01 8.941673e-02 0.000000e+00 0.000000e+00 0.000000e+00 0.000000e+00
 0.000000e+00 0.000000e+00 0.000000e+00 0.000000e+00 0.000000e+00 0.000000e+00 0.000000e+00 0.000000e+00 0.000000e+00 0.000000e+00 7.942454e-01 2.057545e-01 0.000000e+00 0.000000e+00 0.000000e+00
 0.000000e+00 0.000000e+00 0.000000e+00 0.000000e+00 0.000000e+00 0.000000e+00 0.000000e+00 0.000000e+00 0.000000e+00 0.000000e+00 0.000000e+00 8.617076e-01 1.382924e-01 0.000000e+00 0.000000e+00
 0.000000e+00 0.000000e+00 0.000000e+00 0.000000e+00 0.000000e+00 0.000000e+00 0.000000e+00 0.000000e+00 0.000000e+00 0.000000e+00 0.000000e+00 0.000000e+00 8.518888e-01 1.481112e-01 0.000000e+00
 0.000000e+00 0.000000e+00 0.000000e+00 0.000000e+00 0.000000e+00 0.000000e+00 0.000000e+00 0.000000e+00 0.000000e+00 0.000000e+00 0.000000e+00 0.000000e+00 0.000000e+00 8.889369e-01 1.110631e-01
 0.000000e+00 0.000000e+00 0.000000e+00 0.000000e+00 0.000000e+00 0.000000e+00 0.000000e+00 0.000000e+00 0.000000e+00 0.000000e+00 0.000000e+00 0.000000e+00 0.000000e+00 0.000000e+00 0.000000e+00
<ENDHMM>
~o
<STREAMINFO> 1 12
<VECSIZE> 12<NULLD><MFCC_Z><DIAGC>
~h "s001"
<BEGINHMM>
<NUMSTATES> 8
<STATE> 2
<MEAN> 12
 3.228495e+00 2.342979e+00 2.972528e-01 6.938874e-01 -5.864766e+00 3.052150e+00 1.211814e+01 3.219809e+00 -2.741981e+00 4.007182e+00 -1.966381e-01 1.788200e+00
<VARIANCE> 12
 1.438324e+01 3.941980e+01 2.073405e+01 1.977597e+01 3.199925e+01 1.676987e+01 1.085490e+01 4.842399e+01 8.135047e+00 8.550374e+00 2.401338e+01 4.680470e+00
<GCONST> 5.592518e+01
<STATE> 3
<MEAN> 12
 -5.757246e+00 -2.778056e+00 -1.774458e+00 -1.126622e+00 1.525608e-01 3.178667e+00 -3.013196e+00 -6.478526e+00 1.362917e+00 5.842649e-01 -1.014726e+00 2.893238e+00
<VARIANCE> 12
 2.979120e+00 1.819534e+01 6.417160e+00 4.035215e+01 1.073244e+01 1.780775e+01 2.248817e+01 5.014190e+00 4.527075e+00 2.098756e+01 1.401915e+01 4.680470e+00
<GCONST> 5.031993e+01
<STATE> 4
<MEAN> 12
 -1.647368e+00 1.323214e+01 -6.851404e+00 -1.330357e+01 -4.027007e+00 1.284028e+00 -7.981368e+00 2.085149e+00 3.277862e+00 -7.930069e+00 2.117235e+00 -6.610430e+00
<VARIANCE> 12
 2.979120e+00 1.735937e+01 1.354082e+01 1.977597e+01 6.968792e+00 1.212604e+01 2.045456e+01 1.357122e+01 1.238422e+01 1.480500e+01 1.051615e+01 1.163085e+01
<GCONST> 5.167138e+01
<STATE> 5
<MEAN> 12
 -1.841883e+00 2.276896e+00 1.912766e+00 -6.262472e+00 -1.648330e+00 1.680621e+01 -3.699421e+00 1.192164e-01 2.376578e+00 -4.646326e+00 5.568857e+00 6.124227e+00
<VARIANCE> 12
 2.979120e+00 1.735937e+01 1.183301e+01 1.977597e+01 1.006565e+01 8.886416e+00 1.085490e+01 5.014190e+00 2.835647e+00 8.349808e+00 4.715823e+00 4.680470e+00
<GCONST> 4.620502e+01
<STATE> 6
<MEAN> 12
 2.542326e+00 -4.068177e+00 8.658830e+00 5.454296e+00 2.803155e+00 2.798784e+00 5.508141e-01 3.695183e+00 -2.836856e+00 7.122011e+00 -2.139563e+00 2.082839e+00
<VARIANCE> 12
 2.979120e+00 1.735937e+01 6.417160e+00 1.977597e+01 5.751759e+00 1.851109e+01 1.085490e+01 5.014190e+00 6.643833e+00 1.339163e+01 1.750899e+01 6.645027e+00
<GCONST> 4.875339e+01
<STATE> 7
<MEAN> 12
 2.566899e+00 -9.261324e+00 3.472124e+00 1.022531e+01 5.110204e+00 -7.164110e+00 3.120852e+00 -6.753333e-01 -1.623881e+00 2.696669e+00 -1.092573e+00 1.549806e+00
<VARIANCE> 12
 3.737570e+00 1.735937e+01 6.417160e+00 1.977597e+01 7.952651e+00 1.131884e+01 1.085490e+01 9.542989e+00 8.843004e+00 1.940441e+01 2.711658e+01 1.111412e+01
<GCONST> 5.106442e+01
<TRANSP> 8
 0.000000e+00 1.000000e+00 0.000000e+00 0.000000e+00 0.000000e+00 0.000000e+00 0.000000e+00 0.000000e+00
 0.000000e+00 8.583139e-01 1.416862e-01 0.000000e+00 0.000000e+00 0.000000e+00 0.000000e+00 0.000000e+00
 0.000000e+00 0.000000e+00 8.881199e-01 1.118801e-01 0.000000e+00 0.000000e+00 0.000000e+00 0.000000e+00
 0.000000e+00 0.000000e+00 0.000000e+00 9.231008e-01 7.689921e-02 0.000000e+00 0.000000e+00 0.000000e+00
 0.000000e+00 0.000000e+00 0.000000e+00 0.000000e+00 5.001241e-01 4.998759e-01 0.000000e+00 0.000000e+00
 0.000000e+00 0.000000e+00 0.000000e+00 0.000000e+00 0.000000e+00 8.014197e-01 1.985803e-01 0.000000e+00
 0.000000e+00 0.000000e+00 0.000000e+00 0.000000e+00 0.000000e+00 0.000000e+00 9.373580e-01 6.264201e-02
 0.000000e+00 0.000000e+00 0.000000e+00 0.000000e+00 0.000000e+00 0.000000e+00 0.000000e+00 0.000000e+00
<ENDHMM>
~o
<STREAMINFO> 1 12
<VECSIZE> 12<NULLD><MFCC_Z><DIAGC>
~h "s002"
<BEGINHMM>
<NUMSTATES> 8
<STATE> 2
<MEAN> 12
 8.790944e+00 6.484021e+00 -1.416027e+01 -9.431955e-01 -1.643417e+00 -7.001218e+00 2.565303e+00 -9.218206e-01 1.433390e+01 -9.136543e+00 3.951811e-01 -4.993223e+00
<VARIANCE> 12
 1.368626e+01 3.551519e+01 4.564281e+01 2.632264e+01 4.148980e+01 1.233092e+01 2.020513e+01 8.171938e+00 1.979894e+01 8.608842e+00 4.767648e+00 9.183942e+00
<GCONST> 5.559408e+01
<STATE> 3
<MEAN> 12
 -2.791737e+00 -6.007101e+00 -9.611903e+00 7.085957e+00 -1.858736e+00 -1.004368e+01 9.886786e+00 3.930149e+00 -1.022189e+01 -2.403606e+00 2.809814e+00 6.251611e+00
<VARIANCE> 12
 4.196691e+00 7.961236e+00 3.479739e+01 1.027650e+01 1.918353e+01 1.334489e+01 5.910921e+00 8.171938e+00 1.824798e+01 4.771007e+01 4.767648e+00 4.811525e+00
<GCONST> 5.076756e+01
<STATE> 4
<MEAN> 12
 -1.982806e+00 4.055086e+00 2.057466e+00 -4.120585e+00 -3.348262e+00 4.999053e+00 -2.281291e+00 5.960575e+00 -5.818776e-01 -1.175292e+00 1.761036e+00 1.592880e+00
<VARIANCE> 12
 8.158034e+00 8.341046e+00 1.297648e+01 3.253372e+01 3.660948e+01 3.099535e+01 1.170132e+01 1.629426e+01 4.222373e+01 8.995126e+00 3.891965e+01 1.298603e+01
<GCONST> 5.676983e+01
<STATE> 5
<MEAN> 12
 2.270137e+00 -5.689508e+00 -7.521369e-01 2.326872e-01 -4.984571e+00 -8.849364e+00 5.956393e+00 2.244787e+00 -1.630861e+01 -3.582362e+00 -1.644848e+00 9.839730e-01
<VARIANCE> 12
 5.635629e+00 1.428158e+01 1.297648e+01 6.070562e+00 1.093169e+01 1.136067e+01 1.992341e+01 8.171938e+00 2.055026e+01 1.383352e+01 1.274233e+01 2.132225e+01
<GCONST> 5.197826e+01
<STATE> 6
<MEAN> 12
 -3.872697e+00 -8.406012e+00 1.654474e+00 2.380230e+00 -5.055413e-01 -3.335105e+00 -2.187029e-01 -9.297967e+00 -2.081379e+00 1.037207e+01 -1.720922e+00 -1.516874e+00
<VARIANCE> 12
 4.196691e+00 7.961236e+00 1.297648e+01 7.806807e+00 9.880191e+00 1.136067e+01 1.301210e+01 8.171938e+00 1.807942e+01 8.608842e+00 7.453273e+00 5.960962e+00
<GCONST> 4.841027e+01
<STATE> 7
<MEAN> 12
 1.602539e-02 -4.686492e-01 8.565988e+00 2.865057e+00 9.464438e+00 6.244824e+00 -4.099512e+00 -5.229657e+00 3.904315e+00 3.468145e+00 -2.225735e+00 -1.051645e+00
<VARIANCE> 12
 4.196691e+00 1.611138e+01 1.297648e+01 6.070562e+00 9.880191e+00 1.136067e+01 7.463603e+00 1.007979e+01 1.807942e+01 1.274825e+01 2.114535e+01 3.616022e+00
<GCONST> 4.945316e+01
<TRANSP> 8
 0.000000e+00 1.000000e+00 0.000000e+00 0.000000e+00 0.000000e+00 0.000000e+00 0.000000e+00 0.000000e+00
 0.000000e+00 8.571374e-01 1.428626e-01 0.000000e+00 0.000000e+00 0.000000e+00 0.000000e+00 0.000000e+00
 0.000000e+00 0.000000e+00 7.499953e-01 2.500047e-01 0.000000e+00 0.000000e+00 0.000000e+00 0.000000e+00
 0.000000e+00 0.000000e+00 0.000000e+00 9.419807e-01 5.801928e-02 0.000000e+00 0.000000e+00 0.000000e+00
 0.000000e+00 0.000000e+00 0.000000e+00 0.000000e+00 7.900714e-01 2.099286e-01 0.000000e+00 0.000000e+00
 0.000000e+00 0.000000e+00 0.000000e+00 0.000000e+00 0.000000e+00 8.575291e-01 1.424709e-01 0.000000e+00
 0.000000e+00 0.000000e+00 0.000000e+00 0.000000e+00 0.000000e+00 0.000000e+00 9.089435e-01 9.105653e-02
 0.000000e+00 0.000000e+00 0.000000e+00 0.000000e+00 0.000000e+00 0.000000e+00 0.000000e+00 0.000000e+00
<ENDHMM>
~o
<STREAMINFO> 1 12
<VECSIZE> 12<NULLD><MFCC_Z><DIAGC>
~h "s003"
<BEGINHMM>
<NUMSTATES> 10
<STATE> 2
<MEAN> 12
 -2.962993e+00 -7.033823e-01 -1.994653e+00 -9.192327e+00 -5.166648e+00 5.966773e+00 1.466203e+00 1.439875e+00 -2.978130e+00 -7.603837e+00 -5.855994e+00 4.862787e+00
<VARIANCE> 12
 5.510506e+00 1.633072e+01 1.050783e+01 1.142738e+01 9.805326e+00 1.435227e+01 1.047360e+01 8.999772e+00 1.228319e+01 1.635196e+01 3.963896e+01 6.534246e+00
<GCONST> 5.169471e+01
<STATE> 3
<MEAN> 12
 -2.287666e+00 9.243952e+00 -3.176394e+00 -6.228452e+00 -8.049577e+00 -1.979487e+00 -6.488794e+00 1.790927e+00 1.883289e+00 -4.050838e+00 3.624132e+00 -5.970010e+00
<VARIANCE> 12
 5.510506e+00 1.134157e+01 1.050783e+01 1.234976e+01 9.805326e+00 1.435227e+01 2.442850e+01 9.344497e+00 7.675661e+00 9.397452e+00 6.745855e+00 8.549175e+00
<GCONST> 4.976604e+01
<STATE> 4
<MEAN> 12
 -5.165259e+00 1.011997e+01 1.128704e+00 -8.129001e-01 2.484798e+00 5.598678e-01 -1.846267e+00 -2.754174e+00 -2.879018e+00 -3.185440e-01 4.233954e-01 -2.762686e-01
<VARIANCE> 12
 7.332773e+00 1.175545e+01 1.050783e+01 5.550887e+01 1.000584e+01 1.646252e+01 2.203243e+01 5.329138e+01 3.518538e+01 1.830904e+01 1.249869e+01 1.029330e+01
<GCONST> 5.637754e+01
<STATE> 5
<MEAN> 12
 2.002638e+00 -2.455158e+00 1.907919e+00 -7.653179e+00 -9.184737e+00 -7.406600e-01 4.784013e-01 4.162437e+00 -2.476558e+00 7.564477e+00 1.154934e+00 -4.241808e+00
<VARIANCE> 12
 5.510506e+00 1.134157e+01 1.050783e+01 3.404631e+01 9.805326e+00 2.168653e+01 1.047360e+01 7.993401e+00 5.174411e+00 3.127258e+01 9.285295e+00 2.103006e+01
<GCONST> 5.221744e+01
<STATE> 6
<MEAN> 12
 4.387177e+00 -3.443495e+00 -3.492642e+00 8.382135e-03 4.830904e+00 -1.182960e+01 -7.572595e+00 -1.739436e+00 7.103724e-01 1.513519e+00 -1.748690e-02 2.359641e+00
<VARIANCE> 12
 5.510506e+00 1.134157e+01 1.050783e+01 1.142738e+01 9.805326e+00 1.435227e+01 1.310966e+01 1.997220e+01 1.017146e+01 9.728703e+00 1.312580e+01 1.678000e+01
<GCONST> 5.148175e+01
<STATE> 7
<MEAN> 12
 5.427699e+00 -4.857026e+00 -9.089076e+00 6.746954e+00 9.036601e+00 -4.422279e+00 1.028046e+00 -6.063672e-01 3.930872e+00 4.789611e-01 -4.144700e+00 7.148111e+00
<VARIANCE> 12
 5.510506e+00 1.134157e+01 1.050783e+01 4.832682e+01 2.199739e+01 1.435227e+01 1.047360e+01 7.406662e+00 5.702206e+00 3.614193e+01 2.042192e+01 1.584304e+01
<GCONST> 5.363348e+01
<STATE> 8
<MEAN> 12
 5.868642e+00 -1.014180e+01 2.263207e+00 8.313344e+00 3.261198e+00 2.164636e+00 8.901719e+00 3.906507e+00 -7.845484e+00 -4.027757e+00 4.319365e+00 -1.469793e-02
<VARIANCE> 12
 5.510506e+00 1.134157e+01 1.742139e+01 1.142738e+01 2.148436e+01 6.335942e+01 1.047360e+01 5.018296e+00 1.158684e+01 1.173296e+01 4.886011e+00 1.935351e+01
<GCONST> 5.212299e+01
<STATE> 9
<MEAN> 12
 -2.952590e+00 -7.063468e+00 1.426331e+01 5.809098e+00 -3.760815e+00 1.379589e+01 1.077032e+01 -1.782672e-01 3.175904e+00 6.166684e+00 1.675710e+00 -5.063272e+00
<VARIANCE> 12
 4.857581e+01 1.134157e+01 1.050783e+01 1.142738e+01 2.326303e+01 1.435227e+01 1.302602e+01 2.608933e+01 1.779002e+01 3.233527e+01 1.210611e+01 7.065146e+00
<GCONST> 5.559719e+01
<TRANSP> 10
 0.000000e+00 1.000000e+00 0.000000e+00 0.000000e+00 0.000000e+00 0.000000e+00 0.000000e+00 0.000000e+00 0.000000e+00 0.000000e+00
 0.000000e+00 8.331615e-01 1.668385e-01 0.000000e+00 0.000000e+00 0.000000e+00 0.000000e+00 0.000000e+00 0.000000e+00 0.000000e+00
 0.000000e+00 0.000000e+00 8.882267e-01 1.117733e-01 0.000000e+00 0.000000e+00 0.000000e+00 0.000000e+00 0.000000e+00 0.000000e+00
 0.000000e+00 0.000000e+00 0.000000e+00 9.084837e-01 9.151626e-02 0.000000e+00 0.000000e+00 0.000000e+00 0.000000e+00 0.000000e+00
 0.000000e+00 0.000000e+00 0.000000e+00 0.000000e+00 7.094099e-01 2.905901e-01 0.000000e+00 0.000000e+00 0.000000e+00 0.000000e+00
 0.000000e+00 0.000000e+00 0.000000e+00 0.000000e+00 0.000000e+00 8.968787e-01 1.031213e-01 0.000000e+00 0.000000e+00 0.000000e+00
 0.000000e+00 0.000000e+00 0.000000e+00 0.000000e+00 0.000000e+00 0.000000e+00 8.898309e-01 1.101691e-01 0.000000e+00 0.000000e+00
 0.000000e+00 0.000000e+00 0.000000e+00 0.000000e+00 0.000000e+00 0.000000e+00 0.000000e+00 7.413390e-01 2.586611e-01 0.000000e+00
 0.000000e+00 0.000000e+00 0.000000e+00 0.000000e+00 0.000000e+00 0.000000e+00 0.000000e+00 0.000000e+00 8.895134e-01 1.104866e-01
 0.000000e+00 0.000000e+00 0.000000e+00 0.000000e+00 0.000000e+00 0.000000e+00 0.000000e+00 0.000000e+00 0.000000e+00 0.000000e+00
<ENDHMM>
~o
<STREAMINFO> 1 12
<VECSIZE> 12<NULLD><MFCC_Z><DIAGC>
~h "s004"
<BEGINHMM>
<NUMSTATES> 7
<STATE> 2
<MEAN> 12
 1.253826e-01 1.901147e+00 3.552676e+00 3.768700e-01 -4.190297e-01 -1.811711e+00 7.113057e+00 -1.059765e+00 -2.676769e+00 -5.344420e+00 3.484428e+00 2.084231e+00
<VARIANCE> 12
 5.000583e+00 3.636845e+01 5.644658e+01 4.683395e+01 6.099984e+01 1.531029e+01 3.336114e+01 1.087775e+01 1.753904e+01 3.863208e+01 2.333873e+01 1.030063e+01
<GCONST> 5.987203e+01
<STATE> 3
<MEAN> 12
 5.073256e+00 6.049231e+00 -8.113365e+00 -6.027837e+00 4.837490e+00 6.952986e+00 9.552587e-01 -4.258421e+00 7.430298e+00 -5.356027e+00 -4.930452e-01 -3.532756e+00
<VARIANCE> 12
 5.000583e+00 1.282864e+01 9.206685e+00 1.351771e+01 9.249507e+00 1.531029e+01 9.373336e+00 1.333438e+01 1.396420e+01 1.505259e+01 4.827073e+00 1.642482e+01
<GCONST> 5.054208e+01
<STATE> 4
<MEAN> 12
 5.055956e+00 8.725854e+00 2.662035e+00 -5.830383e+00 -7.043586e+00 1.127638e+01 -9.622227e+00 2.184950e+00 2.050624e+00 5.492166e+00 -3.935632e+00 -2.780074e+00
<VARIANCE> 12
 5.000583e+00 1.282864e+01 1.688891e+01 1.047419e+01 7.327392e+00 2.208405e+01 3.211375e+01 2.342868e+01 2.361916e+01 9.011017e+00 7.145099e+00 2.092545e+01
<GCONST> 5.346895e+01
<STATE> 5
<MEAN> 12
 -4.392711e+00 -4.529895e+00 -9.648810e+00 -1.549975e-01 -2.549552e+00 -7.473988e+00 1.880873e+00 3.428271e+00 -8.629848e+00 -4.257933e+00 -4.022881e+00 8.009210e+00
<VARIANCE> 12
 5.928674e+00 1.365049e+01 9.206685e+00 3.628699e+01 1.471831e+01 1.531029e+01 9.373336e+00 7.474634e+00 7.572642e+00 9.011017e+00 3.797950e+01 1.622281e+01
<GCONST> 5.257295e+01
<STATE> 6
<MEAN> 12
 -5.271489e+00 -9.256220e+00 2.968338e+00 6.952643e+00 2.152961e+00 -8.190775e+00 -2.979101e-03 1.246146e+00 -2.072801e+00 4.473894e+00 1.172299e+00 6.862058e-01
<VARIANCE> 12
 9.188222e+00 1.282864e+01 1.005082e+01 2.011892e+01 1.079236e+01 2.710160e+01 9.373336e+00 1.767860e+01 1.117861e+01 2.035268e+01 2.190184e+01 1.631209e+01
<GCONST> 5.422779e+01
<TRANSP> 7
 0.000000e+00 1.000000e+00 0.000000e+00 0.000000e+00 0.000000e+00 0.000000e+00 0.000000e+00
 0.000000e+00 9.006556e-01 9.934440e-02 0.000000e+00 0.000000e+00 0.000000e+00 0.000000e+00
 0.000000e+00 0.000000e+00 8.886916e-01 1.113084e-01 0.000000e+00 0.000000e+00 0.000000e+00
 0.000000e+00 0.000000e+00 0.000000e+00 8.882688e-01 1.117312e-01 0.000000e+00 0.000000e+00
 0.000000e+00 0.000000e+00 0.000000e+00 0.000000e+00 6.855562e-01 3.144437e-01 0.000000e+00
 0.000000e+00 0.000000e+00 0.000000e+00 0.000000e+00 0.000000e+00 9.325222e-01 6.747780e-02
 0.000000e+00 0.000000e+00 0.000000e+00 0.000000e+00 0.000000e+00 0.000000e+00 0.000000e+00
<ENDHMM>
~o
<STREAMINFO> 1 12
<VECSIZE> 12<NULLD><MFCC_Z><DIAGC>
~h "s005"
<BEGINHMM>
<NUMSTATES> 10
<STATE> 2
<MEAN> 12
 -2.250129e+00 5.949694e+00 5.646142e+00 -7.434146e+00 4.178885e-01 -7.029511e+00 1.122193e+01 8.946229e-01 -8.384289e-01 5.617524e-01 4.887268e+00 -1.484007e+00
<VARIANCE> 12
 6.788597e+00 7.156184e+01 6.097953e+01 1.545521e+01 8.718755e+01 8.042495e+00 1.881978e+01 3.573983e+01 1.067334e+01 4.965537e+01 5.383541e+01 3.690272e+00
<GCONST> 5.971728e+01
<STATE> 3
<MEAN> 12
 9.014435e-01 -5.948645e+00 -8.533518e+00 -5.594422e-01 1.168898e+01 4.757389e+00 -6.049475e+00 7.012235e+00 2.629295e-01 4.926105e-01 4.387097e+00 -3.068677e-01
<VARIANCE> 12
 2.722495e+00 1.235933e+01 1.933699e+01 1.009135e+01 7.714174e+00 2.738401e+01 2.585788e+01 9.739922e+00 1.134376e+01 5.438588e+00 1.084581e+01 3.690272e+00
<GCONST> 4.953772e+01
<STATE> 4
<MEAN> 12
 3.874827e+00 5.602573e+00 -1.405653e+01 -8.891410e+00 1.948974e+00 9.669113e+00 -3.908350e+00 2.364548e+00 7.690259e+00 3.953659e+00 -3.466221e+00 1.817718e+00
<VARIANCE> 12
 2.622303e+00 1.235933e+01 1.493961e+01 1.508764e+01 3.577541e+01 8.138110e+00 1.404501e+01 2.274722e+01 1.067334e+01 5.438588e+00 2.402360e+01 3.690272e+00
<GCONST> 5.093741e+01
<STATE> 5
<MEAN> 12
 5.062424e+00 1.268741e+01 -2.353942e-01 -3.965584e+00 -1.274380e+00 -4.143481e+00 -1.407016e+01 -1.393031e+01 1.190364e+01 4.288878e+00 7.783480e+00 7.817894e+00
<VARIANCE> 12
 2.622303e+00 1.235933e+01 1.493961e+01 1.009135e+01 7.714174e+00 1.484231e+01 1.296308e+01 9.739922e+00 1.186494e+01 1.422428e+01 1.132309e+01 5.172054e+00
<GCONST> 4.932622e+01
<STATE> 6
<MEAN> 12
 1.038850e+00 2.517800e+00 -5.794701e+00 -3.097017e+00 -2.826232e+00 -3.856715e+00 8.136012e-02 7.120965e+00 7.260166e+00 -6.469290e+00 -2.809390e+00 3.457161e+00
<VARIANCE> 12
 3.474521e+00 1.242180e+01 1.493961e+01 1.547314e+01 7.714174e+00 6.819330e+00 1.296308e+01 9.739922e+00 2.927670e+01 9.408852e+00 2.552465e+01 1.417050e+01
<GCONST> 5.157296e+01
<STATE> 7
<MEAN> 12
 -4.122750e+00 -5.150597e+00 -1.943783e-01 8.039429e+00 -3.330120e+00 -1.072279e+00 4.834059e-01 4.965946e+00 -1.312136e+00 -5.608045e-01 4.351048e-01 2.195925e+00
<VARIANCE> 12
 2.705758e+00 1.235933e+01 1.493961e+01 1.719328e+01 7.714174e+00 6.819330e+00 1.296308e+01 1.007529e+01 1.067334e+01 5.438588e+00 9.164785e+00 4.551600e+00
<GCONST> 4.773999e+01
<STATE> 8
<MEAN> 12
 -3.089981e+00 -7.552292e+00 4.411947e+00 6.123410e+00 -2.838401e+00 -2.925101e-01 5.794742e+00 1.167014e+00 -6.994198e+00 -3.664947e-01 -3.956799e-01 -2.739857e+00
<VARIANCE> 12
 4.758712e+00 1.235933e+01 1.493961e+01 1.995992e+01 7.714174e+00 6.819330e+00 1.296308e+01 9.739922e+00 1.067334e+01 2.015772e+01 1.325883e+01 3.690272e+00
<GCONST> 4.988951e+01
<STATE> 9
<MEAN> 12
 1.273254e+00 -1.370346e+00 1.033738e+01 4.188948e+00 -1.985726e+00 -5.805633e-01 -1.910744e-01 -5.007235e+00 -6.902884e+00 -5.313382e+00 -1.006366e+01 -5.114509e+00
<VARIANCE> 12
 2.622303e+00 1.235933e+01 1.493961e+01 1.009135e+01 7.714174e+00 1.600741e+01 1.493785e+01 9.739922e+00 1.669021e+01 1.889068e+01 9.164785e+00 9.462726e+00
<GCONST> 5.056115e+01
<TRANSP> 10
 0.000000e+00 1.000000e+00 0.000000e+00 0.000000e+00 0.000000e+00 0.000000e+00 0.000000e+00 0.000000e+00 0.000000e+00 0.000000e+00
 0.000000e+00 8.679783e-01 1.320217e-01 0.000000e+00 0.000000e+00 0.000000e+00 0.000000e+00 0.000000e+00 0.000000e+00 0.000000e+00
 0.000000e+00 0.000000e+00 8.422065e-01 1.577935e-01 0.000000e+00 0.000000e+00 0.000000e+00 0.000000e+00 0.000000e+00 0.000000e+00
 0.000000e+00 0.000000e+00 0.000000e+00 8.765814e-01 1.234186e-01 0.000000e+00 0.000000e+00 0.000000e+00 0.000000e+00 0.000000e+00
 0.000000e+00 0.000000e+00 0.000000e+00 0.000000e+00 8.569779e-01 1.430221e-01 0.000000e+00 0.000000e+00 0.000000e+00 0.000000e+00
 0.000000e+00 0.000000e+00 0.000000e+00 0.000000e+00 0.000000e+00 6.502370e-01 3.497630e-01 0.000000e+00 0.000000e+00 0.000000e+00
 0.000000e+00 0.000000e+00 0.000000e+00 0.000000e+00 0.000000e+00 0.000000e+00 8.350088e-01 1.649912e-01 0.000000e+00 0.000000e+00
 0.000000e+00 0.000000e+00 0.000000e+00 0.000000e+00 0.000000e+00 0.000000e+00 0.000000e+00 9.291095e-01 7.089057e-02 0.000000e+00
 0.000000e+00 0.000000e+00 0.000000e+00 0.000000e+00 0.000000e+00 0.000000e+00 0.000000e+00 0.000000e+00 8.744885e-01 1.255115e-01
 0.000000e+00 0.000000e+00 0.000000e+00 0.000000e+00 0.000000e+00 0.000000e+00 0.000000e+00 0.000000e+00 0.000000e+00 0.000000e+00
<ENDHMM>
~o
<STREAMINFO> 1 12
<VECSIZE> 12<NULLD><MFCC_Z><DIAGC>
~h "s006"
<BEGINHMM>
<NUMSTATES> 10
<STATE> 2
<MEAN> 12
 6.877761e+00 -8.365538e+00 -2.208527e+00 9.621775e+00 1.100567e+00 -1.111404e+01 1.530228e+00 7.235440e+00 -8.605919e-02 -2.014709e+00 -6.264179e+00 7.037541e+00
<VARIANCE> 12
 1.071027e+01 2.412934e+01 8.325676e+00 1.312919e+01 4.138546e+00 4.747653e+01 8.181052e+01 6.785490e+01 3.697939e+01 6.648784e+01 9.328970e+00 1.308193e+01
<GCONST> 5.881743e+01
<STATE> 3
<MEAN> 12
 -3.381722e+00 -1.146872e+01 -7.506247e-01 -8.099221e+00 -4.474976e+00 1.305668e+01 6.224370e+00 3.173445e+00 -7.927096e+00 -1.238938e+00 -9.855791e+00 -2.889832e+00
<VARIANCE> 12
 7.416768e+00 1.672935e+01 2.786210e+00 2.467473e+01 4.138546e+00 3.480085e+01 2.870148e+01 1.174819e+01 3.041878e+01 3.625949e+01 9.328970e+00 1.308193e+01
<GCONST> 5.370665e+01
<STATE> 4
<MEAN> 12
 -3.688894e+00 5.767136e-01 -2.189616e+00 -8.084081e+00 -2.234227e+00 1.668607e+00 -3.424428e+00 5.070247e+00 -5.559512e-01 2.087558e-01 6.269500e-01 -3.004858e+00
<VARIANCE> 12
 7.416768e+00 8.057399e+00 3.136846e+00 1.312919e+01 4.138546e+00 1.227650e+01 7.469099e+00 8.244114e+00 6.319770e+00 1.036272e+01 1.530590e+01 1.308193e+01
<GCONST> 4.739259e+01
<STATE> 5
<MEAN> 12
 -3.766600e+00 5.873813e+00 2.273706e+00 3.423025e+00 -4.228565e+00 -2.648660e+00 -2.245789e-01 8.769016e-01 2.209897e+00 -2.775178e+00 9.173512e-01 -4.796403e+00
<VARIANCE> 12
 1.652795e+01 8.057399e+00 2.872798e+00 4.290966e+01 8.320187e+00 1.227650e+01 8.604763e+00 3.009309e+01 7.030077e+00 9.723526e+00 9.328970e+00 2.161611e+01
<GCONST> 5.147485e+01
<STATE> 6
<MEAN> 12
 -6.667386e+00 4.883990e+00 6.328440e-01 -1.209710e+00 9.129688e-01 -4.440490e+00 -3.875208e+00 -2.052088e+00 -2.094871e+00 -4.455682e+00 2.817759e-01 -9.638566e+00
<VARIANCE> 12
 7.766687e+00 8.057399e+00 2.065140e+00 5.707394e+01 1.367006e+01 1.227650e+01 1.284126e+01 9.197270e+00 3.050604e+01 1.836931e+01 7.644266e+01 5.537978e+01
<GCONST> 5.553433e+01
<STATE> 7
<MEAN> 12
 1.164624e+00 2.146272e+00 -5.438491e+00 -1.014962e+01 6.223982e+00 -2.914588e+00 -2.143394e+00 -2.124543e+00 -4.150518e+00 2.274878e+00 1.224517e+01 2.284019e+00
<VARIANCE> 12
 7.416768e+00 8.057399e+00 2.065140e+00 1.312919e+01 1.034027e+01 1.227650e+01 5.420608e+00 7.107424e+00 1.507193e+01 2.775296e+01 1.293237e+01 4.458885e+01
<GCONST> 5.033337e+01
<STATE> 8
<MEAN> 12
 7.735396e+00 1.685012e+00 -1.716227e+00 7.204155e-01 4.675731e+00 -1.782662e+00 -2.035980e-01 -4.907079e+00 2.120681e+00 6.228014e+00 1.891983e+00 9.393574e+00
<VARIANCE> 12
 7.416768e+00 8.057399e+00 4.933664e+00 1.395169e+01 7.275893e+00 1.336247e+01 5.681041e+00 1.063603e+01 6.319770e+00 1.754266e+01 9.328970e+00 1.308193e+01
<GCONST> 4.856761e+01
<STATE> 9
<MEAN> 12
 6.847573e+00 -2.237727e+00 3.740178e+00 6.564364e+00 2.732901e+00 7.748691e+00 2.498513e+00 -5.506498e+00 5.871828e+00 5.155676e+00 1.155134e+00 8.634275e+00
<VARIANCE> 12
 7.416768e+00 8.057399e+00 3.506826e+00 1.535756e+01 1.131012e+01 1.275082e+01 1.012972e+01 7.107424e+00 8.373299e+00 2.040347e+01 9.636776e+00 1.308193e+01
<GCONST> 4.935666e+01
<TRANSP> 10
 0.000000e+00 1.000000e+00 0.000000e+00 0.000000e+00 0.000000e+00 0.000000e+00 0.000000e+00 0.000000e+00 0.000000e+00 0.000000e+00
 0.000000e+00 8.333338e-01 1.666662e-01 0.000000e+00 0.000000e+00 0.000000e+00 0.000000e+00 0.000000e+00 0.000000e+00 0.000000e+00
 0.000000e+00 0.000000e+00 8.449434e-01 1.550566e-01 0.000000e+00 0.000000e+00 0.000000e+00 0.000000e+00 0.000000e+00 0.000000e+00
 0.000000e+00 0.000000e+00 0.000000e+00 8.469256e-01 1.530744e-01 0.000000e+00 0.000000e+00 0.000000e+00 0.000000e+00 0.000000e+00
 0.000000e+00 0.000000e+00 0.000000e+00 0.000000e+00 9.228539e-01 7.714611e-02 0.000000e+00 0.000000e+00 0.000000e+00 0.000000e+00
 0.000000e+00 0.000000e+00 0.000000e+00 0.000000e+00 0.000000e+00 8.895864e-01 1.104135e-01 0.000000e+00 0.000000e+00 0.000000e+00
 0.000000e+00 0.000000e+00 0.000000e+00 0.000000e+00 0.000000e+00 0.000000e+00 7.990828e-01 2.009172e-01 0.000000e+00 0.000000e+00
 0.000000e+00 0.000000e+00 0.000000e+00 0.000000e+00 0.000000e+00 0.000000e+00 0.000000e+00 8.290743e-01 1.709257e-01 0.000000e+00
 0.000000e+00 0.000000e+00 0.000000e+00 0.000000e+00 0.000000e+00 0.000000e+00 0.000000e+00 0.000000e+00 8.909607e-01 1.090393e-01
 0.000000e+00 0.000000e+00 0.000000e+00 0.000000e+00 0.000000e+00 0.000000e+00 0.000000e+00 0.000000e+00 0.000000e+00 0.000000e+00
<ENDHMM>
~o
<STREAMINFO> 1 12
<VECSIZE> 12<NULLD><MFCC_Z><DIAGC>
~h "s007"
<BEGINHMM>
<NUMSTATES> 13
<STATE> 2
<MEAN> 12
 -3.919710e+00 7.544864e+00 1.067728e+01 -1.505346e+01 -1.318707e+01 2.693846e+00 -3.558530e+00 -1.969772e+00 8.954339e+00 7.007329e+00 -6.666909e-01 -7.275806e+00
<VARIANCE> 12
 3.989562e+00 8.143701e+00 1.754182e+01 2.137491e+01 1.743228e+01 6.273256e+00 5.262590e+01 2.126706e+01 2.414628e+01 8.715762e+01 5.875279e+01 3.928223e+01
<GCONST> 5.857320e+01
<STATE> 3
<MEAN> 12
 -3.361631e+00 8.181620e-02 7.005519e+00 -8.776258e+00 -1.480642e+01 -2.424309e+00 1.025442e+01 -1.090047e+01 7.059368e+00 1.139122e+01 -1.238180e+01 -1.383412e+01
<VARIANCE> 12
 3.989562e+00 8.143701e+00 1.754182e+01 2.137491e+01 1.743228e+01 7.765860e+00 9.019011e+00 1.353763e+01 3.049119e+01 1.477550e+01 1.457177e+01 1.170573e+01
<GCONST> 5.242469e+01
<STATE> 4
<MEAN> 12
 -5.092078e+00 -9.642111e+00 2.325820e+00 1.589187e+00 -1.208320e+00 6.616395e-01 1.043817e+01 -1.626150e+01 -8.556992e+00 2.707943e+00 2.617118e+00 -7.619403e+00
<VARIANCE> 12
 3.989562e+00 8.143701e+00 1.754182e+01 3.442314e+01 1.743228e+01 2.150511e+01 9.534657e+00 1.353763e+01 2.044358e+01 1.269364e+01 1.985271e+01 1.170573e+01
<GCONST> 5.373298e+01
<STATE> 5
<MEAN> 12
 -1.709955e+00 -9.498607e+00 -7.865163e+00 1.478901e+01 5.388435e+00 -5.141819e+00 2.096736e+00 -3.629052e+00 -3.232328e+00 -6.475176e+00 7.484644e+00 4.208558e+00
<VARIANCE> 12
 3.989562e+00 8.428464e+00 1.754182e+01 2.137491e+01 1.743228e+01 1.127348e+01 1.157330e+01 2.278543e+01 1.082351e+01 3.383425e+01 1.983625e+01 2.988966e+01
<GCONST> 5.464044e+01
<STATE> 6
<MEAN> 12
 2.391019e+00 5.573441e-01 -1.032934e+01 5.428953e+00 3.879713e+00 -3.874262e+00 -2.658578e+00 1.948333e+00 3.891188e+00 1.787018e+00 8.182431e-01 2.670394e+00
<VARIANCE> 12
 3.989562e+00 8.143701e+00 1.754182e+01 2.432949e+01 1.743228e+01 1.050314e+01 1.353017e+01 5.197657e+01 1.499811e+01 1.578131e+01 1.425462e+01 1.170573e+01
<GCONST> 5.394135e+01
<STATE> 7
<MEAN> 12
 -1.670118e+00 -6.891865e-01 8.908526e-01 -2.900524e+00 -5.848602e+00 -2.505708e+00 1.513434e+00 7.078193e+00 -7.301298e+00 -1.201102e+00 -2.972882e+00 -5.763058e+00
<VARIANCE> 12
 6.063261e+00 8.143701e+00 1.754182e+01 4.171826e+01 2.213834e+01 2.339429e+01 9.019011e+00 1.383404e+01 1.082351e+01 1.269364e+01 3.398144e+01 2.657674e+01
<GCONST> 5.535449e+01
<STATE> 8
<MEAN> 12
 -3.404408e+00 5.860816e+00 1.179524e+01 -1.017469e+01 -6.532682e+00 8.123199e+00 -4.973566e+00 5.243275e+00 -6.554538e+00 2.912702e-01 -1.073775e+00 3.571415e+00
<VARIANCE> 12
 1.543096e+01 8.143701e+00 1.754182e+01 2.137491e+01 1.743228e+01 7.338135e+00 1.861685e+01 1.353763e+01 1.082351e+01 1.413802e+01 1.158667e+01 1.830352e+01
<GCONST> 5.358344e+01
<STATE> 9
<MEAN> 12
 4.783492e+00 4.764978e+00 5.364069e+00 -5.504010e-01 -4.075281e-01 8.608750e-01 -9.079649e+00 6.476676e+00 3.968285e+00 3.963080e+00 3.639251e+00 5.477138e+00
<VARIANCE> 12
 3.989562e+00 8.143701e+00 1.754182e+01 2.137491e+01 1.743228e+01 9.155117e+00 9.605685e+00 1.353763e+01 1.082351e+01 1.499356e+01 7.947931e+00 3.133826e+01
<GCONST> 5.200982e+01
<STATE> 10
<MEAN> 12
 7.084158e+00 5.221232e+00 -6.901476e+00 3.159510e+00 1.012319e+01 -3.186839e+00 -5.100779e+00 8.522591e+00 7.357555e+00 4.798424e+00 -1.918143e+00 -3.221688e+00
<VARIANCE> 12
 3.989562e+00 8.143701e+00 1.754182e+01 2.137491e+01 1.743228e+01 6.273256e+00 1.628790e+01 2.050224e+01 1.082351e+01 1.269364e+01 7.947931e+00 1.170573e+01
<GCONST> 5.142364e+01
<STATE> 11
<MEAN> 12
 4.611283e+00 -3.205208e+00 -1.269120e+01 4.380989e+00 1.173159e+01 -3.270663e+00 4.491150e+00 5.636837e+00 4.743021e+00 -1.100020e+01 1.164594e+00 8.900031e+00
<VARIANCE> 12
 3.989562e+00 8.143701e+00 1.754182e+01 2.137491e+01 1.743228e+01 6.273256e+00 9.019011e+00 1.353763e+01 2.186815e+01 1.269364e+01 1.939220e+01 1.754086e+01
<GCONST> 5.241721e+01
<STATE> 12
<MEAN> 12
 3.101147e+00 -6.586616e+00 -5.701690e+00 1.276631e+01 1.016255e+01 -6.062974e-01 2.667787e+00 -4.552633e+00 -5.400731e+00 -9.295424e+00 2.607886e+00 6.278600e+00
<VARIANCE> 12
 3.989562e+00 8.143701e+00 2.232244e+01 2.137491e+01 1.743228e+01 3.164436e+01 9.019011e+00 2.271071e+01 1.082351e+01 1.826664e+01 2.580110e+01 1.170573e+01
<GCONST> 5.433561e+01
<TRANSP> 13
 0.000000e+00 1.000000e+00 0.000000e+00 0.000000e+00 0.000000e+00 0.000000e+00 0.000000e+00 0.000000e+00 0.000000e+00 0.000000e+00 0.000000e+00 0.000000e+00 0.000000e+00
 0.000000e+00 8.862304e-01 1.137696e-01 0.000000e+00 0.000000e+00 0.000000e+00 0.000000e+00 0.000000e+00 0.000000e+00 0.000000e+00 0.000000e+00 0.000000e+00 0.000000e+00
 0.000000e+00 0.000000e+00 8.202735e-01 1.797265e-01 0.000000e+00 0.000000e+00 0.000000e+00 0.000000e+00 0.000000e+00 0.000000e+00 0.000000e+00 0.000000e+00 0.000000e+00
 0.000000e+00 0.000000e+00 0.000000e+00 8.243675e-01 1.756325e-01 0.000000e+00 0.000000e+00 0.000000e+00 0.000000e+00 0.000000e+00 0.000000e+00 0.000000e+00 0.000000e+00
 0.000000e+00 0.000000e+00 0.000000e+00 0.000000e+00 8.575193e-01 1.424807e-01 0.000000e+00 0.000000e+00 0.000000e+00 0.000000e+00 0.000000e+00 0.000000e+00 0.000000e+00
 0.000000e+00 0.000000e+00 0.000000e+00 0.000000e+00 0.000000e+00 8.838747e-01 1.161254e-01 0.000000e+00 0.000000e+00 0.000000e+00 0.000000e+00 0.000000e+00 0.000000e+00
 0.000000e+00 0.000000e+00 0.000000e+00 0.000000e+00 0.000000e+00 0.000000e+00 7.686469e-01 2.313531e-01 0.000000e+00 0.000000e+00 0.000000e+00 0.000000e+00 0.000000e+00
 0.000000e+00 0.000000e+00 0.000000e+00 0.000000e+00 0.000000e+00 0.000000e+00 0.000000e+00 9.292771e-01 7.072283e-02 0.000000e+00 0.000000e+00 0.000000e+00 0.000000e+00
 0.000000e+00 0.000000e+00 0.000000e+00 0.000000e+00 0.000000e+00 0.000000e+00 0.000000e+00 0.000000e+00 6.525158e-01 3.474841e-01 0.000000e+00 0.000000e+00 0.000000e+00
 0.000000e+00 0.000000e+00 0.000000e+00 0.000000e+00 0.000000e+00 0.000000e+00 0.000000e+00 0.000000e+00 0.000000e+00 8.746418e-01 1.253582e-01 0.000000e+00 0.000000e+00
 0.000000e+00 0.000000e+00 0.000000e+00 0.000000e+00 0.000000e+00 0.000000e+00 0.000000e+00 0.000000e+00 0.000000e+00 0.000000e+00 8.322858e-01 1.677142e-01 0.000000e+00
 0.000000e+00 0.000000e+00 0.000000e+00 0.000000e+00 0.000000e+00 0.000000e+00 0.000000e+00 0.000000e+00 0.000000e+00 0.000000e+00 0.000000e+00 9.004292e-01 9.957071e-02
 0.000000e+00 0.000000e+00 0.000000e+00 0.000000e+00 0.000000e+00 0.000000e+00 0.000000e+00 0.000000e+00 0.000000e+00 0.000000e+00 0.000000e+00 0.000000e+00 0.000000e+00
<ENDHMM>
~o
<STREAMINFO> 1 12
<VECSIZE> 12<NULLD><MFCC_Z><DIAGC>
~h "s008"
<BEGINHMM>
<NUMSTATES> 11
<STATE> 2
<MEAN> 12
 -6.952510e-01 1.293208e+01 1.509011e+01 -1.356673e+01 -1.342199e+01 3.092056e+00 4.199127e-02 6.586949e-01 3.721473e-02 2.604019e+00 1.851044e+00 -2.081663e+00
<VARIANCE> 12
 1.094475e+01 8.088401e+00 2.770462e+01 3.659700e+01 1.076479e+01 1.412084e+01 5.690897e+00 5.022084e+01 1.697425e+01 1.651119e+01 5.909282e+00 6.007957e+01
<GCONST> 5.564655e+01
<STATE> 3
<MEAN> 12
 -6.224807e-01 5.152728e+00 3.358149e+00 -1.123113e+01 -1.264826e+01 -8.042069e+00 3.787653e+00 1.273586e+01 -2.913784e+00 -1.942282e+00 4.858362e+00 -1.026349e+01
<VARIANCE> 12
 2.174652e+00 8.088401e+00 2.770462e+01 1.677872e+01 2.783735e+01 1.412084e+01 5.120450e+00 1.179929e+01 7.455360e+00 3.550854e+01 6.933300e+00 2.033518e+01
<GCONST> 5.166625e+01
<STATE> 4
<MEAN> 12
 2.877377e+00 9.354476e-01 -4.113134e+00 -8.225872e+00 -3.169529e+00 -7.891785e+00 -1.564618e+00 5.681764e+00 5.346604e+00 -7.266840e+00 -3.346517e+00 -4.472164e+00
<VARIANCE> 12
 2.140186e+00 1.430813e+01 4.047167e+01 1.633889e+01 2.031564e+01 1.699760e+01 7.988930e+00 1.725486e+01 1.693737e+01 1.651119e+01 4.948415e+00 7.371229e+00
<GCONST> 5.197123e+01
<STATE> 5
<MEAN> 12
 -7.112455e-01 -6.451015e+00 -8.057468e+00 1.763214e+00 4.538939e+00 -7.155930e+00 2.389495e+00 -2.933259e+00 -2.761349e-01 -1.235637e+01 5.385387e+00 5.924887e+00
<VARIANCE> 12
 2.140186e+00 8.088401e+00 2.770462e+01 1.522841e+01 1.076479e+01 1.471086e+01 5.980573e+00 1.048573e+01 1.454579e+01 1.651119e+01 4.706262e+00 1.012041e+01
<GCONST> 4.949880e+01
<STATE> 6
<MEAN> 12
 6.129456e-01 -2.017778e+00 -1.588269e+01 6.473823e+00 5.875945e+00 -3.480574e+00 -5.762252e+00 1.226187e+00 2.822774e+00 -6.627372e+00 1.724098e+00 3.200303e+00
<VARIANCE> 12
 6.989887e+00 9.030743e+00 2.770462e+01 2.196185e+01 1.076479e+01 1.412084e+01 8.860570e+00 1.048573e+01 2.953529e+01 1.651119e+01 2.063619e+01 1.697646e+01
<GCONST> 5.421459e+01
<STATE> 7
<MEAN> 12
 4.169879e+00 1.319247e+00 -8.845191e+00 2.388157e+00 2.568621e+00 -1.038140e+00 1.557964e-02 3.669882e+00 -7.452116e-01 -4.352494e+00 -2.126524e+00 5.564775e+00
<VARIANCE> 12
 1.032040e+01 1.183914e+01 2.770462e+01 1.522841e+01 1.076479e+01 3.163020e+01 2.317226e+01 4.963469e+01 3.982108e+01 1.651119e+01 1.498386e+01 1.204499e+01
<GCONST> 5.746692e+01
<STATE> 8
<MEAN> 12
 -4.309013e+00 -5.019628e+00 1.155396e+00 6.949818e+00 5.776411e+00 -3.136670e-01 1.644648e-01 -1.802272e+00 -1.023985e+01 7.984743e+00 4.915137e+00 -2.989945e-01
<VARIANCE> 12
 2.140186e+00 8.088401e+00 2.770462e+01 1.522841e+01 1.076479e+01 1.412084e+01 7.093519e+00 1.195611e+01 7.916466e+00 1.651119e+01 2.598923e+01 2.182180e+01
<GCONST> 5.162855e+01
<STATE> 9
<MEAN> 12
 -4.283151e+00 -6.197009e+00 9.014520e+00 6.553658e+00 3.700953e+00 4.624589e+00 1.925527e+00 -4.033719e+00 -6.046525e+00 1.508940e+01 -4.700234e+00 -1.703385e+00
<VARIANCE> 12
 2.140186e+00 8.088401e+00 2.770462e+01 1.522841e+01 1.076479e+01 1.412084e+01 1.139272e+01 1.048573e+01 7.455360e+00 1.651119e+01 1.910137e+01 1.082966e+01
<GCONST> 5.090256e+01
<STATE> 10
<MEAN> 12
 -7.502502e-02 -1.658862e+00 1.407391e+01 5.881250e+00 2.329366e+00 1.523738e+01 5.182255e+00 -1.033318e+01 1.655306e+00 9.768767e+00 -3.119362e+00 1.728455e+00
<VARIANCE> 12
 5.004534e+00 1.800291e+01 2.770462e+01 1.522841e+01 1.076479e+01 2.642023e+01 3.882504e+01 1.227468e+01 1.274981e+01 3.202507e+01 4.706262e+00 7.062813e+00
<GCONST> 5.393295e+01
<TRANSP> 11
 0.000000e+00 1.000000e+00 0.000000e+00 0.000000e+00 0.000000e+00 0.000000e+00 0.000000e+00 0.000000e+00 0.000000e+00 0.000000e+00 0.000000e+00
 0.000000e+00 8.750446e-01 1.249554e-01 0.000000e+00 0.000000e+00 0.000000e+00 0.000000e+00 0.000000e+00 0.000000e+00 0.000000e+00 0.000000e+00
 0.000000e+00 0.000000e+00 7.314596e-01 2.685404e-01 0.000000e+00 0.000000e+00 0.000000e+00 0.000000e+00 0.000000e+00 0.000000e+00 0.000000e+00
 0.000000e+00 0.000000e+00 0.000000e+00 9.112929e-01 8.870713e-02 0.000000e+00 0.000000e+00 0.000000e+00 0.000000e+00 0.000000e+00 0.000000e+00
 0.000000e+00 0.000000e+00 0.000000e+00 0.000000e+00 7.938732e-01 2.061267e-01 0.000000e+00 0.000000e+00 0.000000e+00 0.000000e+00 0.000000e+00
 0.000000e+00 0.000000e+00 0.000000e+00 0.000000e+00 0.000000e+00 9.210733e-01 7.892675e-02 0.000000e+00 0.000000e+00 0.000000e+00 0.000000e+00
 0.000000e+00 0.000000e+00 0.000000e+00 0.000000e+00 0.000000e+00 0.000000e+00 8.198541e-01 1.801459e-01 0.000000e+00 0.000000e+00 0.000000e+00
 0.000000e+00 0.000000e+00 0.000000e+00 0.000000e+00 0.000000e+00 0.000000e+00 0.000000e+00 8.280561e-01 1.719439e-01 0.000000e+00 0.000000e+00
 0.000000e+00 0.000000e+00 0.000000e+00 0.000000e+00 0.000000e+00 0.000000e+00 0.000000e+00 0.000000e+00 8.365659e-01 1.634342e-01 0.000000e+00
 0.000000e+00 0.000000e+00 0.000000e+00 0.000000e+00 0.000000e+00 0.000000e+00 0.000000e+00 0.000000e+00 0.000000e+00 8.999332e-01 1.000668e-01
 0.000000e+00 0.000000e+00 0.000000e+00 0.000000e+00 0.000000e+00 0.000000e+00 0.000000e+00 0.000000e+00 0.000000e+00 0.000000e+00 0.000000e+00
<ENDHMM>
~o
<STREAMINFO> 1 12
<VECSIZE> 12<NULLD><MFCC_Z><DIAGC>
~h "s009"
<BEGINHMM>
<NUMSTATES> 11
<STATE> 2
<MEAN> 12
 -8.424932e+00 1.178338e+00 2.907953e+00 4.182665e+00 -6.102744e+00 -2.324757e+00 3.601703e+00 -6.353927e+00 4.315417e+00 -9.772835e-01 9.213202e+00 -4.829196e+00
<VARIANCE> 12
 4.316133e+01 2.702925e+01 3.125333e+01 1.373156e+01 1.160875e+02 2.241022e+01 1.208610e+01 3.716519e+01 4.433256e+01 1.767964e+01 1.880075e+01 2.636773e+01
<GCONST> 6.201966e+01
<STATE> 3
<MEAN> 12
 -2.176773e+00 -9.750073e+00 -8.263480e+00 6.264243e+00 6.181604e+00 -1.029961e+01 -5.317937e+00 -7.681308e-01 -1.183214e+01 -1.844890e+00 4.044443e+00 -2.084859e+00
<VARIANCE> 12
 7.668586e+00 6.694582e+00 3.125333e+01 1.324701e+01 2.293038e+01 2.953401e+01 7.911310e+00 1.725461e+01 8.908336e+00 1.156803e+01 6.259985e+01 2.584529e+01
<GCONST> 5.547736e+01
<STATE> 4
<MEAN> 12
 1.288880e+00 1.534818e+00 -1.220588e+01 -2.768509e+00 -1.633850e+00 -6.147377e+00 -3.672519e+00 -1.828132e+00 2.904697e+00 -3.222535e+00 -6.850177e+00 2.923396e-01
<VARIANCE> 12
 7.668586e+00 4.193546e+01 3.125333e+01 1.768508e+01 1.560569e+01 2.241022e+01 5.434656e+00 7.866422e+00 2.077379e+01 6.536810e+01 1.409966e+01 5.481594e+00
<GCONST> 5.531646e+01
<STATE> 5
<MEAN> 12
 3.177310e+00 3.400410e+00 -1.042638e+01 1.628447e+00 1.430365e+00 -1.370855e+01 -7.690495e-01 8.282189e-01 1.069894e-03 -2.106992e+00 -2.356718e+00 9.950868e-01
<VARIANCE> 12
 7.668586e+00 1.188124e+01 4.237398e+01 1.766293e+01 3.148083e+01 2.241022e+01 2.061579e+01 5.112192e+01 1.837635e+01 3.039450e+01 8.234611e+00 3.848983e+01
<GCONST> 5.878785e+01
<STATE> 6
<MEAN> 12
 6.829702e+00 4.608943e+00 -1.092301e+01 -2.768299e+00 1.093420e+01 -1.409083e+00 5.399787e-01 -1.392994e+00 9.522148e-01 3.688394e+00 1.006405e+00 6.035153e+00
<VARIANCE> 12
 7.668586e+00 6.694582e+00 3.125333e+01 6.646538e+00 1.560569e+01 2.241022e+01 1.054281e+01 1.088286e+01 8.068530e+00 7.091012e+00 7.929655e+00 1.177580e+01
<GCONST> 5.051241e+01
<STATE> 7
<MEAN> 12
 2.954332e+00 1.146610e+00 8.909145e+00 8.978794e-01 4.193653e+00 2.725893e+00 1.746841e+00 6.126349e+00 7.527203e+00 2.350945e+00 -5.822608e+00 5.901353e+00
<VARIANCE> 12
 1.391460e+01 6.694582e+00 3.564628e+01 5.959083e+00 1.560569e+01 4.747135e+01 4.361482e+00 5.323737e+00 1.244105e+01 7.241038e+00 5.211723e+01 1.846674e+01
<GCONST> 5.307030e+01
<STATE> 8
<MEAN> 12
 -1.151467e+01 3.519277e+00 1.751146e+01 6.171729e-01 5.431865e+00 1.033243e+01 -4.342774e-01 3.932752e+00 1.338179e+00 6.891865e+00 4.315549e+00 -2.695644e+00
<VARIANCE> 12
 1.531613e+01 6.694582e+00 3.125333e+01 9.770993e+00 1.560569e+01 2.241022e+01 2.883692e+01 1.504524e+01 1.590849e+01 3.395031e+01 1.785749e+01 5.481594e+00
<GCONST> 5.521172e+01
<STATE> 9
<MEAN> 12
 1.609040e+00 -3.055896e+00 1.550275e+01 -5.931063e+00 -1.547908e+01 6.223183e+00 3.993957e-01 1.874277e+00 1.654721e+00 8.496456e-01 -1.676700e-01 -3.280199e+00
<VARIANCE> 12
 7.668586e+00 9.205197e+00 3.125333e+01 9.492168e+00 1.560569e+01 2.241022e+01 8.846474e+00 7.234625e+00 7.140149e+00 7.091012e+00 7.929655e+00 1.626202e+01
<GCONST> 5.080407e+01
<STATE> 10
<MEAN> 12
 2.280117e+00 -5.783616e+00 9.958035e+00 1.876605e+00 -4.172389e+00 1.733372e+01 5.304460e+00 3.705757e-01 -4.631753e+00 -3.408963e+00 -6.682621e-01 -1.162990e-01
<VARIANCE> 12
 7.668586e+00 6.694582e+00 3.125333e+01 4.670379e+00 1.560569e+01 2.241022e+01 8.202340e+00 9.847067e+00 7.359255e+00 1.137453e+01 2.800452e+01 1.012764e+01
<GCONST> 5.130004e+01
<TRANSP> 11
 0.000000e+00 1.000000e+00 0.000000e+00 0.000000e+00 0.000000e+00 0.000000e+00 0.000000e+00 0.000000e+00 0.000000e+00 0.000000e+00 0.000000e+00
 0.000000e+00 8.335433e-01 1.664567e-01 0.000000e+00 0.000000e+00 0.000000e+00 0.000000e+00 0.000000e+00 0.000000e+00 0.000000e+00 0.000000e+00
 0.000000e+00 0.000000e+00 8.337501e-01 1.662499e-01 0.000000e+00 0.000000e+00 0.000000e+00 0.000000e+00 0.000000e+00 0.000000e+00 0.000000e+00
 0.000000e+00 0.000000e+00 0.000000e+00 9.087031e-01 9.129684e-02 0.000000e+00 0.000000e+00 0.000000e+00 0.000000e+00 0.000000e+00 0.000000e+00
 0.000000e+00 0.000000e+00 0.000000e+00 0.000000e+00 9.025471e-01 9.745295e-02 0.000000e+00 0.000000e+00 0.000000e+00 0.000000e+00 0.000000e+00
 0.000000e+00 0.000000e+00 0.000000e+00 0.000000e+00 0.000000e+00 8.977280e-01 1.022720e-01 0.000000e+00 0.000000e+00 0.000000e+00 0.000000e+00
 0.000000e+00 0.000000e+00 0.000000e+00 0.000000e+00 0.000000e+00 0.000000e+00 6.655101e-01 3.344899e-01 0.000000e+00 0.000000e+00 0.000000e+00
 0.000000e+00 0.000000e+00 0.000000e+00 0.000000e+00 0.000000e+00 0.000000e+00 0.000000e+00 8.749568e-01 1.250432e-01 0.000000e+00 0.000000e+00
 0.000000e+00 0.000000e+00 0.000000e+00 0.000000e+00 0.000000e+00 0.000000e+00 0.000000e+00 0.000000e+00 8.733419e-01 1.266581e-01 0.000000e+00
 0.000000e+00 0.000000e+00 0.000000e+00 0.000000e+00 0.000000e+00 0.000000e+00 0.000000e+00 0.000000e+00 0.000000e+00 8.901433e-01 1.098568e-01
 0.000000e+00 0.000000e+00 0.000000e+00 0.000000e+00 0.000000e+00 0.000000e+00 0.000000e+00 0.000000e+00 0.000000e+00 0.000000e+00 0.000000e+00
<ENDHMM>
~o
<STREAMINFO> 1 12
<VECSIZE> 12<NULLD><MFCC_Z><DIAGC>
~h "s010"
<BEGINHMM>
<NUMSTATES> 11
<STATE> 2
<MEAN> 12
 -2.794144e+00 -1.999665e+00 -5.327142e+00 -1.373050e+00 -9.135173e-01 1.579811e+00 2.282113e+00 -5.031805e+00 -4.246905e+00 -1.445764e+01 1.273304e+00 -2.384590e-01
<VARIANCE> 12
 8.507805e+00 2.334727e+01 7.416952e+00 7.632625e+00 5.066572e+01 8.979254e+01 3.652332e+01 1.446033e+01 1.502680e+01 9.684723e+00 1.336880e+01 7.388689e+01
<GCONST> 5.795015e+01
<STATE> 3
<MEAN> 12
 -4.154697e+00 -1.038710e+01 -1.348145e+00 1.707898e+00 7.707429e+00 -8.025220e+00 -4.967479e+00 1.055165e-01 -7.169899e+00 2.251262e+00 1.335536e+00 -4.808366e+00
<VARIANCE> 12
 3.169934e+00 1.262536e+01 5.333823e+00 8.814742e+00 1.974878e+01 2.671092e+01 3.311203e+01 1.247842e+01 1.114181e+01 2.325939e+01 2.569596e+01 7.467632e+00
<GCONST> 5.270083e+01
<STATE> 4
<MEAN> 12
 3.516446e+00 -6.721563e+00 1.404838e+00 7.631712e+00 1.032774e+01 7.758897e+00 2.042368e+00 -5.137149e-02 3.867376e+00 2.524897e+00 3.311340e+00 -6.213342e+00
<VARIANCE> 12
 2.749891e+00 1.262536e+01 5.333823e+00 2.236367e+01 1.974878e+01 3.634842e+01 2.432588e+01 1.237754e+01 1.921620e+01 1.251260e+01 2.090883e+01 1.765927e+01
<GCONST> 5.406089e+01
<STATE> 5
<MEAN> 12
 -4.768559e+00 -2.753987e+00 3.798109e+00 -7.798343e-01 5.794337e+00 1.076947e+01 -1.082231e+01 2.925047e+00 6.736785e+00 -1.400158e+00 2.299724e+00 4.195364e-01
<VARIANCE> 12
 8.066525e+00 2.668107e+01 5.333823e+00 4.452402e+00 1.974878e+01 1.642574e+01 1.739661e+01 2.664512e+01 2.303950e+01 1.264828e+01 1.141066e+01 7.822124e+00
<GCONST> 5.268078e+01
<STATE> 6
<MEAN> 12
 3.826410e+00 7.920100e+00 1.300218e+01 -5.314759e+00 -9.687665e+00 2.931843e+00 -4.722359e+00 3.131140e+00 9.713221e+00 -1.195999e+00 -1.784878e+00 -3.094273e+00
<VARIANCE> 12
 2.749891e+00 1.262536e+01 5.333823e+00 4.452402e+00 1.974878e+01 1.642574e+01 2.383726e+01 6.313231e+00 7.817848e+00 2.743134e+01 8.948870e+00 1.157114e+01
<GCONST> 4.957328e+01
<STATE> 7
<MEAN> 12
 3.442733e+00 1.221697e+01 4.050371e+00 2.420763e+00 -9.546887e+00 -8.239029e+00 3.301926e+00 4.576762e+00 8.642495e-01 3.336090e+00 -5.054037e+00 1.170973e+00
<VARIANCE> 12
 2.749891e+00 1.262536e+01 7.498415e+00 1.637846e+01 1.974878e+01 1.642574e+01 1.296284e+01 7.395273e+00 1.480208e+01 1.241154e+01 5.889333e+00 8.424888e+00
<GCONST> 4.987505e+01
<STATE> 8
<MEAN> 12
 1.718376e+00 8.575256e+00 -3.170161e+00 -3.372467e+00 -1.439898e+01 -8.607325e+00 5.830209e-01 1.440961e+00 -5.342430e-01 1.649264e+00 3.537742e-01 4.620228e+00
<VARIANCE> 12
 4.221967e+00 1.262536e+01 5.481094e+00 9.383382e+00 2.733147e+01 1.642574e+01 5.529039e+01 2.998447e+01 2.059281e+01 1.073337e+01 3.874741e+01 7.467632e+00
<GCONST> 5.455688e+01
<STATE> 9
<MEAN> 12
 1.270015e+00 1.143264e+00 -5.606523e+00 -3.168998e+00 -1.146699e+00 1.472993e+00 8.649026e+00 -3.643625e+00 -1.500518e+00 -2.923278e+00 -7.299108e+00 1.067613e+01
<VARIANCE> 12
 4.330962e+00 1.262536e+01 5.333823e+00 7.484578e+00 3.671736e+01 1.801767e+01 1.171130e+01 1.267233e+01 1.246764e+01 6.718538e+00 9.320124e+00 7.467632e+00
<GCONST> 4.990827e+01
<STATE> 10
<MEAN> 12
 1.315550e-01 6.774075e-02 -8.634384e-01 -1.968881e-01 6.945526e+00 1.054724e+01 4.916396e+00 -3.338577e+00 5.547700e-01 2.264304e+00 2.435617e+00 -3.373683e-01
<VARIANCE> 12
 3.055596e+00 1.262536e+01 7.000667e+00 5.528303e+00 1.974878e+01 1.642574e+01 3.781055e+01 1.180169e+01 1.532361e+01 6.808249e+00 1.320338e+01 1.001027e+01
<GCONST> 5.077748e+01
<TRANSP> 11
 0.000000e+00 1.000000e+00 0.000000e+00 0.000000e+00 0.000000e+00 0.000000e+00 0.000000e+00 0.000000e+00 0.000000e+00 0.000000e+00 0.000000e+00
 0.000000e+00 8.002713e-01 1.997287e-01 0.000000e+00 0.000000e+00 0.000000e+00 0.000000e+00 0.000000e+00 0.000000e+00 0.000000e+00 0.000000e+00
 0.000000e+00 0.000000e+00 9.227908e-01 7.720924e-02 0.000000e+00 0.000000e+00 0.000000e+00 0.000000e+00 0.000000e+00 0.000000e+00 0.000000e+00
 0.000000e+00 0.000000e+00 0.000000e+00 8.754174e-01 1.245826e-01 0.000000e+00 0.000000e+00 0.000000e+00 0.000000e+00 0.000000e+00 0.000000e+00
 0.000000e+00 0.000000e+00 0.000000e+00 0.000000e+00 8.337318e-01 1.662682e-01 0.000000e+00 0.000000e+00 0.000000e+00 0.000000e+00 0.000000e+00
 0.000000e+00 0.000000e+00 0.000000e+00 0.000000e+00 0.000000e+00 8.003134e-01 1.996866e-01 0.000000e+00 0.000000e+00 0.000000e+00 0.000000e+00
 0.000000e+00 0.000000e+00 0.000000e+00 0.000000e+00 0.000000e+00 0.000000e+00 8.336691e-01 1.663308e-01 0.000000e+00 0.000000e+00 0.000000e+00
 0.000000e+00 0.000000e+00 0.000000e+00 0.000000e+00 0.000000e+00 0.000000e+00 0.000000e+00 9.084960e-01 9.150396e-02 0.000000e+00 0.000000e+00
 0.000000e+00 0.000000e+00 0.000000e+00 0.000000e+00 0.000000e+00 0.000000e+00 0.000000e+00 0.000000e+00 8.508914e-01 1.491086e-01 0.000000e+00
 0.000000e+00 0.000000e+00 0.000000e+00 0.000000e+00 0.000000e+00 0.000000e+00 0.000000e+00 0.000000e+00 0.000000e+00 8.801712e-01 1.198288e-01
 0.000000e+00 0.000000e+00 0.000000e+00 0.000000e+00 0.000000e+00 0.000000e+00 0.000000e+00 0.000000e+00 0.000000e+00 0.000000e+00 0.000000e+00
<ENDHMM>
~o
<STREAMINFO> 1 12
<VECSIZE> 12<NULLD><MFCC_Z><DIAGC>
~h "s011"
<BEGINHMM>
<NUMSTATES> 13
<STATE> 2
<MEAN> 12
 -3.295354e+00 -7.863393e+00 -5.259455e+00 -1.324886e+00 -1.263857e+00 -8.058871e+00 -7.995037e-01 -1.735028e+00 -4.518646e+00 -4.229804e+00 2.093751e+00 -6.580360e+00
<VARIANCE> 12
 4.229136e+00 1.782766e+01 5.115992e+00 8.380028e+00 1.284992e+01 2.168814e+01 1.143849e+01 7.505568e+00 1.562592e+01 3.604617e+01 1.422705e+01 3.087713e+01
<GCONST> 5.263712e+01
<STATE> 3
<MEAN> 12
 -4.748530e+00 -8.525263e+00 -1.413683e+00 -1.536530e+00 5.096801e+00 -9.516398e+00 -1.303841e+00 -5.922977e+00 -3.431521e+00 8.959520e+00 -3.394647e+00 6.381623e-01
<VARIANCE> 12
 4.229136e+00 1.782766e+01 6.277503e+00 7.974233e+00 1.284992e+01 1.603038e+01 1.434510e+01 1.186054e+01 7.831676e+00 2.006053e+01 9.825951e+00 2.496325e+01
<GCONST> 5.131427e+01
<STATE> 4
<MEAN> 12
 5.131135e-01 -9.044415e-01 -1.295292e+00 -7.456134e+00 2.752110e+00 -9.047875e-01 2.491786e+00 -7.602108e+00 2.918235e+00 6.863707e+00 -5.992014e+00 -1.882718e-01
<VARIANCE> 12
 1.170319e+01 1.782766e+01 1.734430e+01 1.554644e+01 1.284992e+01 9.900846e+00 3.523789e+01 9.291239e+00 2.992054e+01 2.006053e+01 7.431361e+00 1.608847e+01
<GCONST> 5.481050e+01
<STATE> 5
<MEAN> 12
 9.081696e-01 1.790046e+01 -4.782324e+00 -8.476702e-01 -2.345157e+00 -1.092413e+00 -9.841796e+00 4.734970e+00 -1.842621e+00 1.173383e+01 3.505860e+00 -8.647890e+00
<VARIANCE> 12
 6.249105e+00 1.782766e+01 5.115992e+00 2.527602e+01 1.357261e+01 1.108881e+01 1.172898e+01 1.310748e+01 5.015703e+01 2.362563e+01 1.171596e+01 1.064902e+01
<GCONST> 5.358308e+01
<STATE> 6
<MEAN> 12
 -3.218700e+00 1.214611e+01 5.238834e-01 -1.216551e+01 2.309801e+00 4.573494e+00 -2.575613e+00 1.808301e+00 3.609555e+00 2.712239e+00 -1.769442e+00 1.963843e+00
<VARIANCE> 12
 4.229136e+00 1.782766e+01 5.115992e+00 6.630188e+01 3.262517e+01 9.900846e+00 2.160951e+01 3.551337e+01 1.954030e+01 2.006053e+01 3.269771e+01 3.637275e+01
<GCONST> 5.767697e+01
<STATE> 7
<MEAN> 12
 8.651056e-01 2.063010e-01 -4.041638e+00 2.579647e+00 6.813733e+00 -1.962283e+00 1.071430e+01 1.772886e+00 -7.387410e+00 4.338166e+00 9.429763e+00 5.101801e+00
<VARIANCE> 12
 4.229136e+00 1.782766e+01 5.115992e+00 7.974233e+00 1.284992e+01 9.900846e+00 1.132870e+01 8.543945e+00 1.980280e+01 2.006053e+01 7.431361e+00 1.063327e+01
<GCONST> 4.985865e+01
<STATE> 8
<MEAN> 12
 4.300936e+00 4.899166e-01 3.076080e+00 1.519221e+00 6.725410e+00 5.490642e+00 2.437851e+00 4.460712e+00 -2.441326e+00 -9.515884e+00 9.168869e+00 1.732754e+00
<VARIANCE> 12
 4.229136e+00 1.782766e+01 1.261038e+01 7.974233e+00 2.620313e+01 1.360093e+01 1.788759e+01 5.615243e+00 4.237932e+01 2.535832e+01 7.431361e+00 8.403076e+00
<GCONST> 5.258770e+01
<STATE> 9
<MEAN> 12
 7.062784e+00 -6.363571e+00 2.923412e+00 1.968206e+00 -1.235095e+01 7.368045e+00 5.602314e+00 1.240203e+00 2.461308e+00 -1.361515e+01 4.178465e+00 3.208452e+00
<VARIANCE> 12
 4.229136e+00 2.344923e+01 1.683735e+01 1.274665e+01 3.163960e+01 1.479410e+01 5.998567e+01 5.994911e+00 1.471051e+01 2.006053e+01 1.285058e+01 9.015955e+00
<GCONST> 5.449359e+01
<STATE> 10
<MEAN> 12
 -2.209098e+00 6.864826e-01 -4.416329e+00 5.289705e+00 9.963748e-01 7.981812e+00 -2.496939e+00 4.888129e+00 -4.015712e+00 -1.021082e+01 -5.646581e+00 2.427503e+00
<VARIANCE> 12
 1.430067e+01 1.782766e+01 5.115992e+00 1.179008e+01 1.284992e+01 1.628675e+01 3.334216e+01 5.615243e+00 6.741127e+01 2.006053e+01 8.875882e+00 7.244121e+00
<GCONST> 5.364430e+01
<STATE> 11
<MEAN> 12
 -4.119471e+00 2.848475e+00 4.079465e+00 1.006851e+01 1.058369e+00 -3.989860e+00 4.989085e+00 5.566722e+00 2.228124e+00 -4.790019e+00 -4.504128e+00 6.028384e+00
<VARIANCE> 12
 6.971281e+00 1.782766e+01 1.131565e+01 7.974233e+00 1.284992e+01 1.301835e+01 1.062270e+01 5.615243e+00 1.501317e+01 2.006053e+01 1.405992e+01 7.244121e+00
<GCONST> 5.091885e+01
<STATE> 12
<MEAN> 12
 -1.558062e+00 -4.179412e+00 6.717319e+00 1.427922e+00 8.985713e+00 1.446725e+00 -1.720234e+00 -3.600303e+00 5.203817e+00 3.972659e+00 -4.675225e+00 1.245514e+00
<VARIANCE> 12
 5.015895e+00 1.782766e+01 7.403107e+00 2.209942e+01 1.447133e+01 2.827153e+01 1.459280e+01 6.895023e+00 1.416849e+01 2.049866e+01 3.349801e+01 1.654912e+01
<GCONST> 5.425989e+01
<TRANSP> 13
 0.000000e+00 1.000000e+00 0.000000e+00 0.000000e+00 0.000000e+00 0.000000e+00 0.000000e+00 0.000000e+00 0.000000e+00 0.000000e+00 0.000000e+00 0.000000e+00 0.000000e+00
 0.000000e+00 8.524431e-01 1.475569e-01 0.000000e+00 0.000000e+00 0.000000e+00 0.000000e+00 0.000000e+00 0.000000e+00 0.000000e+00 0.000000e+00 0.000000e+00 0.000000e+00
 0.000000e+00 0.000000e+00 9.008769e-01 9.912305e-02 0.000000e+00 0.000000e+00 0.000000e+00 0.000000e+00 0.000000e+00 0.000000e+00 0.000000e+00 0.000000e+00 0.000000e+00
 0.000000e+00 0.000000e+00 0.000000e+00 8.278188e-01 1.721812e-01 0.000000e+00 0.000000e+00 0.000000e+00 0.000000e+00 0.000000e+00 0.000000e+00 0.000000e+00 0.000000e+00
 0.000000e+00 0.000000e+00 0.000000e+00 0.000000e+00 9.114468e-01 8.855325e-02 0.000000e+00 0.000000e+00 0.000000e+00 0.000000e+00 0.000000e+00 0.000000e+00 0.000000e+00
 0.000000e+00 0.000000e+00 0.000000e+00 0.000000e+00 0.000000e+00 7.937307e-01 2.062693e-01 0.000000e+00 0.000000e+00 0.000000e+00 0.000000e+00 0.000000e+00 0.000000e+00
 0.000000e+00 0.000000e+00 0.000000e+00 0.000000e+00 0.000000e+00 0.000000e+00 7.117677e-01 2.882322e-01 0.000000e+00 0.000000e+00 0.000000e+00 0.000000e+00 0.000000e+00
 0.000000e+00 0.000000e+00 0.000000e+00 0.000000e+00 0.000000e+00 0.000000e+00 0.000000e+00 6.327104e-01 3.672897e-01 0.000000e+00 0.000000e+00 0.000000e+00 0.000000e+00
 0.000000e+00 0.000000e+00 0.000000e+00 0.000000e+00 0.000000e+00 0.000000e+00 0.000000e+00 0.000000e+00 9.334661e-01 6.653384e-02 0.000000e+00 0.000000e+00 0.000000e+00
 0.000000e+00 0.000000e+00 0.000000e+00 0.000000e+00 0.000000e+00 0.000000e+00 0.000000e+00 0.000000e+00 0.000000e+00 7.717312e-01 2.282689e-01 0.000000e+00 0.000000e+00
 0.000000e+00 0.000000e+00 0.000000e+00 0.000000e+00 0.000000e+00 0.000000e+00 0.000000e+00 0.000000e+00 0.000000e+00 0.000000e+00 8.208910e-01 1.791091e-01 0.000000e+00
 0.000000e+00 0.000000e+00 0.000000e+00 0.000000e+00 0.000000e+00 0.000000e+00 0.000000e+00 0.000000e+00 0.000000e+00 0.000000e+00 0.000000e+00 8.999997e-01 1.000003e-01
 0.000000e+00 0.000000e+00 0.000000e+00 0.000000e+00 0.000000e+00 0.000000e+00 0.000000e+00 0.000000e+00 0.000000e+00 0.000000e+00 0.000000e+00 0.000000e+00 0.000000e+00
<ENDHMM>
~o
<STREAMINFO> 1 12
<VECSIZE> 12<NULLD><MFCC_Z><DIAGC>
~h "s012"
<BEGINHMM>
<NUMSTATES> 15
<STATE> 2
<MEAN> 12
 1.217747e+00 -7.973357e+00 -1.549962e+01 -5.957515e-01 1.378653e+00 -3.252341e+00 -6.918318e+00 1.233080e+00 -6.459618e-01 4.999929e-01 -1.281989e+01 -2.732956e+00
<VARIANCE> 12
 6.744564e+00 1.668764e+01 1.735353e+01 6.972556e+00 1.741470e+01 7.961030e+00 7.426979e+00 2.470926e+01 1.255430e+01 6.309700e+00 3.189880e+01 9.074213e+00
<GCONST> 5.175803e+01
<STATE> 3
<MEAN> 12
 3.464881e+00 -2.308936e-01 -1.322898e+01 -3.734761e+00 -1.439321e+00 7.665593e-01 -7.099923e+00 -9.712182e+00 4.670327e+00 -2.930097e-01 3.264565e+00 6.971126e+00
<VARIANCE> 12
 6.744564e+00 1.668764e+01 1.735353e+01 1.046927e+01 8.788596e+00 8.229849e+00 1.453934e+01 9.889489e+00 9.450686e+00 1.248755e+01 1.132549e+01 5.405768e+00
<GCONST> 5.011506e+01
<STATE> 4
<MEAN> 12
 8.283647e+00 2.890685e+00 -6.149803e+00 6.797100e-01 5.234649e+00 7.267463e+00 7.552455e+00 -6.252681e+00 7.530395e+00 3.591863e+00 1.572062e-01 4.576633e+00
<VARIANCE> 12
 6.744564e+00 1.668764e+01 1.735353e+01 3.670337e+01 8.788596e+00 1.682134e+01 1.729527e+01 9.889489e+00 9.450686e+00 1.948166e+01 1.533555e+01 2.227079e+01
<GCONST> 5.442162e+01
<STATE> 5
<MEAN> 12
 6.398147e+00 -8.100121e-01 -3.730353e+00 1.008975e+01 1.226380e+01 1.759503e+00 5.047008e+00 -9.404166e-01 8.044084e+00 2.844081e-01 -1.441172e+00 -8.182529e-01
<VARIANCE> 12
 6.744564e+00 2.251808e+01 1.735353e+01 6.972556e+00 2.468592e+01 3.734853e+01 2.934389e+01 9.889489e+00 9.450686e+00 1.565540e+01 1.132549e+01 5.405768e+00
<GCONST> 5.348187e+01
<STATE> 6
<MEAN> 12
 2.496023e-01 -7.310628e+00 -1.114203e+01 3.047827e+00 4.396103e+00 -5.847469e+00 -5.195064e+00 1.063894e+00 7.721250e+00 -6.992140e+00 -6.670625e+00 3.272339e+00
<VARIANCE> 12
 6.744564e+00 1.668764e+01 1.735353e+01 6.972556e+00 9.006691e+00 1.303462e+01 7.426979e+00 9.889489e+00 2.144417e+01 1.483820e+01 1.132549e+01 8.343713e+00
<GCONST> 5.094710e+01
<STATE> 7
<MEAN> 12
 5.064557e+00 -8.681546e+00 -2.492676e+00 3.139945e+00 -1.286711e+00 -9.539306e+00 9.953635e-01 -1.250722e+00 -4.257260e-02 -8.411597e+00 -3.331522e+00 1.347968e+00
<VARIANCE> 12
 6.744564e+00 1.668764e+01 1.735353e+01 6.972556e+00 1.108207e+01 1.004398e+01 8.292787e+00 9.889489e+00 9.450686e+00 6.309700e+00 1.132549e+01 1.425326e+01
<GCONST> 4.986509e+01
<STATE> 8
<MEAN> 12
 -7.135241e+00 -7.000570e+00 1.147843e+01 1.850092e-01 -2.987305e+00 5.809308e+00 9.991079e-01 4.656034e+00 -3.992917e-01 4.071639e+00 2.531377e+00 -5.183446e+00
<VARIANCE> 12
 2.484430e+01 1.668764e+01 1.735353e+01 6.972556e+00 1.269732e+01 9.692397e+00 1.428860e+01 9.889489e+00 1.926182e+01 3.109807e+01 1.232117e+01 5.405768e+00
<GCONST> 5.323532e+01
<STATE> 9
<MEAN> 12
 -1.629679e+00 -1.061945e+01 7.403562e+00 -1.506555e+00 -6.570666e+00 1.533216e+00 4.594026e+00 1.032525e+01 -9.388761e+00 1.020105e+00 -5.151558e+00 -1.446535e+00
<VARIANCE> 12
 9.341510e+00 1.668764e+01 1.735353e+01 1.176218e+01 8.788596e+00 2.741291e+01 8.080922e+00 3.596027e+01 1.366725e+01 3.036907e+01 8.015661e+01 9.641330e+00
<GCONST> 5.625721e+01
<STATE> 10
<MEAN> 12
 3.004344e+00 -3.995250e+00 7.325052e+00 -6.072783e+00 -7.548430e+00 -9.805807e-01 3.849524e+00 -1.028134e+01 1.517580e+00 2.708591e+00 -4.039450e+00 3.656159e+00
<VARIANCE> 12
 9.700298e+00 1.668764e+01 1.735353e+01 2.678569e+01 1.915378e+01 2.477094e+01 1.071823e+01 3.924888e+01 2.309324e+01 1.749137e+01 1.822634e+01 1.417194e+01
<GCONST> 5.704243e+01
<STATE> 11
<MEAN> 12
 -7.457419e+00 2.873879e+00 1.616201e+00 7.357173e-01 -3.758122e-01 4.036716e+00 4.636868e+00 3.448542e+00 6.962591e-02 8.709482e+00 7.045930e+00 1.575839e+00
<VARIANCE> 12
 1.078003e+01 1.668764e+01 1.735353e+01 6.972556e+00 8.788596e+00 2.693023e+01 4.090683e+01 9.889489e+00 2.668565e+01 2.794201e+01 1.481507e+01 3.496810e+01
<GCONST> 5.637648e+01
<STATE> 12
<MEAN> 12
 -1.139882e+01 5.140606e+00 5.468637e+00 4.306141e+00 4.383568e+00 7.741749e+00 -3.773261e-01 4.441902e-01 -2.823452e+00 -4.524108e+00 1.002924e+01 2.795798e+00
<VARIANCE> 12
 1.673361e+01 1.668764e+01 1.735353e+01 6.972556e+00 8.788596e+00 2.028718e+01 1.644363e+01 9.889489e+00 2.134938e+01 1.350835e+01 1.132549e+01 2.535666e+01
<GCONST> 5.408168e+01
<STATE> 13
<MEAN> 12
 -1.827756e+00 1.770851e+01 8.502923e+00 -6.020639e-01 -3.246815e+00 -7.441125e-01 -3.972136e+00 3.556673e+00 -6.385254e+00 2.484740e-01 8.485389e+00 -5.314326e+00
<VARIANCE> 12
 6.744564e+00 1.668764e+01 1.735353e+01 6.972556e+00 8.788596e+00 7.961030e+00 1.034205e+01 9.889489e+00 9.450686e+00 6.309700e+00 1.132549e+01 5.405768e+00
<GCONST> 4.865211e+01
<STATE> 14
<MEAN> 12
 -3.592158e+00 1.132952e+01 7.672371e+00 -8.351542e+00 -2.957017e+00 -6.800491e+00 -1.144898e+00 5.092113e+00 -7.588029e+00 -9.685816e-01 3.401986e+00 -5.468650e+00
<VARIANCE> 12
 6.744564e+00 1.750773e+01 1.735353e+01 2.580717e+01 2.444193e+01 1.988017e+01 1.655830e+01 1.089744e+01 1.346089e+01 2.857792e+01 1.132549e+01 5.405768e+00
<GCONST> 5.437874e+01
<TRANSP> 15
 0.000000e+00 1.000000e+00 0.000000e+00 0.000000e+00 0.000000e+00 0.000000e+00 0.000000e+00 0.000000e+00 0.000000e+00 0.000000e+00 0.000000e+00 0.000000e+00 0.000000e+00 0.000000e+00 0.000000e+00
 0.000000e+00 8.571258e-01 1.428742e-01 0.000000e+00 0.000000e+00 0.000000e+00 0.000000e+00 0.000000e+00 0.000000e+00 0.000000e+00 0.000000e+00 0.000000e+00 0.000000e+00 0.000000e+00 0.000000e+00
 0.000000e+00 0.000000e+00 8.760377e-01 1.239623e-01 0.000000e+00 0.000000e+00 0.000000e+00 0.000000e+00 0.000000e+00 0.000000e+00 0.000000e+00 0.000000e+00 0.000000e+00 0.000000e+00 0.000000e+00
 0.000000e+00 0.000000e+00 0.000000e+00 8.139133e-01 1.860867e-01 0.000000e+00 0.000000e+00 0.000000e+00 0.000000e+00 0.000000e+00 0.000000e+00 0.000000e+00 0.000000e+00 0.000000e+00 0.000000e+00
 0.000000e+00 0.000000e+00 0.000000e+00 0.000000e+00 8.948880e-01 1.051121e-01 0.000000e+00 0.000000e+00 0.000000e+00 0.000000e+00 0.000000e+00 0.000000e+00 0.000000e+00 0.000000e+00 0.000000e+00
 0.000000e+00 0.000000e+00 0.000000e+00 0.000000e+00 0.000000e+00 8.376878e-01 1.623122e-01 0.000000e+00 0.000000e+00 0.000000e+00 0.000000e+00 0.000000e+00 0.000000e+00 0.000000e+00 0.000000e+00
 0.000000e+00 0.000000e+00 0.000000e+00 0.000000e+00 0.000000e+00 0.000000e+00 7.942320e-01 2.057680e-01 0.000000e+00 0.000000e+00 0.000000e+00 0.000000e+00 0.000000e+00 0.000000e+00 0.000000e+00
 0.000000e+00 0.000000e+00 0.000000e+00 0.000000e+00 0.000000e+00 0.000000e+00 0.000000e+00 8.299708e-01 1.700292e-01 0.000000e+00 0.000000e+00 0.000000e+00 0.000000e+00 0.000000e+00 0.000000e+00
 0.000000e+00 0.000000e+00 0.000000e+00 0.000000e+00 0.000000e+00 0.000000e+00 0.000000e+00 0.000000e+00 8.753264e-01 1.246736e-01 0.000000e+00 0.000000e+00 0.000000e+00 0.000000e+00 0.000000e+00
 0.000000e+00 0.000000e+00 0.000000e+00 0.000000e+00 0.000000e+00 0.000000e+00 0.000000e+00 0.000000e+00 0.000000e+00 8.808725e-01 1.191275e-01 0.000000e+00 0.000000e+00 0.000000e+00 0.000000e+00
 0.000000e+00 0.000000e+00 0.000000e+00 0.000000e+00 0.000000e+00 0.000000e+00 0.000000e+00 0.000000e+00 0.000000e+00 0.000000e+00 7.562229e-01 2.437771e-01 0.000000e+00 0.000000e+00 0.000000e+00
 0.000000e+00 0.000000e+00 0.000000e+00 0.000000e+00 0.000000e+00 0.000000e+00 0.000000e+00 0.000000e+00 0.000000e+00 0.000000e+00 0.000000e+00 8.222803e-01 1.777196e-01 0.000000e+00 0.000000e+00
 0.000000e+00 0.000000e+00 0.000000e+00 0.000000e+00 0.000000e+00 0.000000e+00 0.000000e+00 0.000000e+00 0.000000e+00 0.000000e+00 0.000000e+00 0.000000e+00 8.997722e-01 1.002278e-01 0.000000e+00
 0.000000e+00 0.000000e+00 0.000000e+00 0.000000e+00 0.000000e+00 0.000000e+00 0.000000e+00 0.000000e+00 0.000000e+00 0.000000e+00 0.000000e+00 0.000000e+00 0.000000e+00 8.576043e-01 1.423957e-01
 0.000000e+00 0.000000e+00 0.000000e+00 0.000000e+00 0.000000e+00 0.000000e+00 0.000000e+00 0.000000e+00 0.000000e+00 0.000000e+00 0.000000e+00 0.000000e+00 0.000000e+00 0.000000e+00 0.000000e+00
<ENDHMM>
~o
<STREAMINFO> 1 12
<VECSIZE> 12<NULLD><MFCC_Z><DIAGC>
~h "s013"
<BEGINHMM>
<NUMSTATES> 9
<STATE> 2
<MEAN> 12
 -7.241630e+00 -7.060221e-01 4.557741e+00 -6.600373e+00 1.799237e+00 -2.780585e+00 5.624469e+00 4.320866e+00 -5.218182e+00 6.700323e+00 6.619525e-01 -1.619284e+00
<VARIANCE> 12
 3.644806e+01 8.127427e+01 7.726913e+00 1.351048e+01 1.087489e+02 3.741207e+01 1.221950e+01 1.812311e+01 4.519822e+01 6.162014e+01 3.542916e+01 4.116656e+01
<GCONST> 6.362488e+01
<STATE> 3
<MEAN> 12
 -2.099803e+00 -1.711087e+01 -3.138588e+00 1.112326e+01 4.424446e+00 -2.306223e+00 -6.028294e+00 5.576063e+00 -1.229663e+01 -4.230683e+00 2.977194e+00 1.750847e+00
<VARIANCE> 12
 5.598506e+00 3.070764e+01 4.805124e+00 1.351048e+01 3.427149e+01 6.594061e+01 2.988241e+01 2.036833e+01 4.886088e+01 1.307595e+01 5.413485e+01 5.420141e+00
<GCONST> 5.765036e+01
<STATE> 4
<MEAN> 12
 3.750450e+00 -9.293904e+00 -7.863331e+00 6.176689e+00 -1.630227e-01 -5.191597e+00 -1.487432e+00 -6.236247e+00 6.990170e+00 -1.016022e+01 4.854434e+00 3.662639e-01
<VARIANCE> 12
 5.598506e+00 3.294072e+01 4.805124e+00 2.471712e+01 6.395302e+00 1.418525e+01 6.462814e+00 1.812311e+01 1.788128e+01 2.846802e+01 1.105773e+01 7.702898e+00
<GCONST> 5.199719e+01
<STATE> 5
<MEAN> 12
 6.041578e+00 1.390963e+00 -2.311036e+00 3.801082e+00 -4.000521e+00 -4.463845e+00 5.657051e-01 -6.662901e+00 8.198435e-01 1.755664e+00 -1.863056e+00 -2.226215e+00
<VARIANCE> 12
 2.299856e+01 3.070764e+01 4.805124e+00 1.504593e+01 2.119507e+01 4.318560e+01 1.097795e+01 1.812311e+01 5.404553e+01 3.083218e+01 2.206807e+01 7.281211e+00
<GCONST> 5.750542e+01
<STATE> 6
<MEAN> 12
 -8.758635e-01 1.942167e+01 5.951948e+00 -1.667435e+00 -6.120503e-01 -9.954984e-01 -2.430877e+00 7.707379e+00 2.988428e+00 5.425389e+00 7.039878e+00 -5.293004e+00
<VARIANCE> 12
 5.598506e+00 3.070764e+01 5.172180e+00 1.351048e+01 6.120714e+00 1.418525e+01 4.578691e+00 2.228874e+01 1.248698e+01 1.009966e+01 1.105773e+01 5.420141e+00
<GCONST> 4.946811e+01
<STATE> 7
<MEAN> 12
 -3.977373e+00 9.909996e+00 1.563589e+00 -1.267768e+01 -5.657555e-01 3.312095e+00 2.361855e+00 1.299922e+01 4.654323e+00 1.425883e+00 -2.145298e+00 3.431983e+00
<VARIANCE> 12
 5.598506e+00 3.308825e+01 4.805124e+00 1.351048e+01 6.120714e+00 2.308224e+01 4.578691e+00 1.812311e+01 1.248698e+01 1.445536e+01 1.764627e+01 2.331724e+01
<GCONST> 5.203416e+01
<STATE> 8
<MEAN> 12
 -8.938526e-01 -6.034926e+00 1.667632e+00 -6.437989e+00 1.213161e+00 1.353160e+01 3.555321e+00 -1.072413e+01 1.822286e+00 -1.659827e+00 -1.154603e+01 6.169855e+00
<VARIANCE> 12
 8.161389e+00 3.070764e+01 6.740145e+00 3.345383e+01 1.108266e+01 3.278853e+01 7.696608e+00 9.052808e+01 1.248698e+01 1.900626e+01 1.105773e+01 2.069362e+01
<GCONST> 5.634100e+01
<TRANSP> 9
 0.000000e+00 1.000000e+00 0.000000e+00 0.000000e+00 0.000000e+00 0.000000e+00 0.000000e+00 0.000000e+00 0.000000e+00
 0.000000e+00 8.333269e-01 1.666731e-01 0.000000e+00 0.000000e+00 0.000000e+00 0.000000e+00 0.000000e+00 0.000000e+00
 0.000000e+00 0.000000e+00 8.761925e-01 1.238076e-01 0.000000e+00 0.000000e+00 0.000000e+00 0.000000e+00 0.000000e+00
 0.000000e+00 0.000000e+00 0.000000e+00 8.623487e-01 1.376513e-01 0.000000e+00 0.000000e+00 0.000000e+00 0.000000e+00
 0.000000e+00 0.000000e+00 0.000000e+00 0.000000e+00 9.145236e-01 8.547641e-02 0.000000e+00 0.000000e+00 0.000000e+00
 0.000000e+00 0.000000e+00 0.000000e+00 0.000000e+00 0.000000e+00 8.998095e-01 1.001904e-01 0.000000e+00 0.000000e+00
 0.000000e+00 0.000000e+00 0.000000e+00 0.000000e+00 0.000000e+00 0.000000e+00 8.106229e-01 1.893771e-01 0.000000e+00
 0.000000e+00 0.000000e+00 0.000000e+00 0.000000e+00 0.000000e+00 0.000000e+00 0.000000e+00 8.850291e-01 1.149709e-01
 0.000000e+00 0.000000e+00 0.000000e+00 0.000000e+00 0.000000e+00 0.000000e+00 0.000000e+00 0.000000e+00 0.000000e+00
<ENDHMM>
~o
<STREAMINFO> 1 12
<VECSIZE> 12<NULLD><MFCC_Z><DIAGC>
~h "s014"
<BEGINHMM>
<NUMSTATES> 10
<STATE> 2
<MEAN> 12
 -1.609661e+01 -1.552693e+00 -2.988299e-01 8.394757e-01 1.214876e+01 2.701914e+00 1.438004e+01 8.162057e+00 1.864574e+00 5.462098e+00 2.765320e+00 7.712334e+00
<VARIANCE> 12
 1.573717e+01 7.768746e+00 2.598225e+01 1.390577e+01 1.243810e+01 1.873065e+01 1.076004e+01 2.187351e+01 1.436900e+01 1.688820e+01 1.855303e+01 2.143190e+01
<GCONST> 5.513962e+01
<STATE> 3
<MEAN> 12
 -1.036800e+00 9.130759e+00 1.352146e+01 -9.475926e+00 9.172804e+00 -6.655790e+00 -5.308829e+00 5.328682e+00 -6.375144e+00 2.421210e+00 1.694522e+00 -5.857685e+00
<VARIANCE> 12
 1.573717e+01 7.768746e+00 2.598225e+01 1.771336e+01 1.523089e+01 9.849117e+00 1.833226e+01 3.232089e+01 5.560669e+00 7.826084e+00 1.403886e+01 1.233596e+01
<GCONST> 5.331500e+01
<STATE> 4
<MEAN> 12
 -4.853736e-01 7.390603e+00 1.526862e+01 -1.086902e+01 -4.044882e+00 2.357436e+00 -4.932461e+00 4.553026e+00 1.509333e+00 1.939176e+00 -3.664085e-01 -4.260966e+00
<VARIANCE> 12
 1.573717e+01 1.191769e+01 2.598225e+01 2.172453e+01 1.243810e+01 9.976114e+00 1.124598e+01 1.509198e+01 1.858867e+01 1.102861e+01 1.441974e+01 1.047319e+01
<GCONST> 5.392002e+01
<STATE> 5
<MEAN> 12
 -7.793020e+00 4.422915e+00 4.679064e+00 1.031921e+01 -1.919186e+00 8.005181e+00 1.367127e+00 -1.145983e+00 2.435659e+00 3.067655e+00 6.847259e+00 -1.045493e+00
<VARIANCE> 12
 1.573717e+01 2.263429e+01 2.598225e+01 1.970506e+01 2.249499e+01 9.849117e+00 1.579557e+01 1.509198e+01 4.837128e+01 1.821439e+01 1.566092e+01 1.695712e+01
<GCONST> 5.740585e+01
<STATE> 6
<MEAN> 12
 4.183204e+00 -5.805406e+00 -9.087361e+00 9.952637e+00 -9.639359e+00 -1.722536e+01 5.455983e-02 8.501939e+00 -7.566147e-02 -9.301557e+00 -6.537780e+00 4.751893e-01
<VARIANCE> 12
 1.573717e+01 7.768746e+00 2.629153e+01 1.236194e+01 1.243810e+01 9.849117e+00 1.086426e+01 1.509198e+01 5.560669e+00 9.191500e+00 8.355376e+00 1.062110e+01
<GCONST> 5.097206e+01
<STATE> 7
<MEAN> 12
 6.884407e+00 -6.408661e+00 -2.008508e+01 4.185669e+00 -3.903928e-01 -2.744126e+00 -7.684129e+00 4.441885e+00 1.026273e-01 -5.103202e+00 -6.791750e+00 2.508746e+00
<VARIANCE> 12
 1.573717e+01 7.768746e+00 2.598225e+01 1.666201e+01 1.243810e+01 3.319488e+01 1.076004e+01 4.518769e+01 8.685370e+00 7.826084e+00 1.384967e+01 1.152204e+01
<GCONST> 5.443265e+01
<STATE> 8
<MEAN> 12
 9.791818e+00 -2.949910e+00 -5.517653e+00 -3.659693e+00 -4.628686e+00 -1.916046e+00 -8.695040e-02 -1.192560e+01 3.169346e+00 -6.705554e+00 -1.887363e+00 6.779137e-02
<VARIANCE> 12
 1.573717e+01 7.768746e+00 4.621915e+01 1.236194e+01 1.243810e+01 2.337769e+01 1.076004e+01 1.509198e+01 1.403939e+01 1.292528e+01 2.444607e+01 3.134214e+01
<GCONST> 5.581371e+01
<STATE> 9
<MEAN> 12
 5.928690e+00 -5.414176e+00 2.932232e+00 1.923024e+00 -8.845486e+00 4.818457e+00 6.131856e-01 -8.458744e+00 -3.298996e+00 4.366733e+00 -2.130302e-01 -1.061842e+00
<VARIANCE> 12
 1.573717e+01 7.768746e+00 2.598225e+01 1.236194e+01 1.243810e+01 9.849117e+00 1.076004e+01 1.726704e+01 1.789465e+01 3.757385e+01 1.654676e+01 2.945157e+01
<GCONST> 5.536523e+01
<TRANSP> 10
 0.000000e+00 1.000000e+00 0.000000e+00 0.000000e+00 0.000000e+00 0.000000e+00 0.000000e+00 0.000000e+00 0.000000e+00 0.000000e+00
 0.000000e+00 8.889110e-01 1.110890e-01 0.000000e+00 0.000000e+00 0.000000e+00 0.000000e+00 0.000000e+00 0.000000e+00 0.000000e+00
 0.000000e+00 0.000000e+00 8.887941e-01 1.112060e-01 0.000000e+00 0.000000e+00 0.000000e+00 0.000000e+00 0.000000e+00 0.000000e+00
 0.000000e+00 0.000000e+00 0.000000e+00 8.196665e-01 1.803335e-01 0.000000e+00 0.000000e+00 0.000000e+00 0.000000e+00 0.000000e+00
 0.000000e+00 0.000000e+00 0.000000e+00 0.000000e+00 8.942984e-01 1.057016e-01 0.000000e+00 0.000000e+00 0.000000e+00 0.000000e+00
 0.000000e+00 0.000000e+00 0.000000e+00 0.000000e+00 0.000000e+00 6.209306e-01 3.790695e-01 0.000000e+00 0.000000e+00 0.000000e+00
 0.000000e+00 0.000000e+00 0.000000e+00 0.000000e+00 0.000000e+00 0.000000e+00 8.923945e-01 1.076055e-01 0.000000e+00 0.000000e+00
 0.000000e+00 0.000000e+00 0.000000e+00 0.000000e+00 0.000000e+00 0.000000e+00 0.000000e+00 9.092593e-01 9.074071e-02 0.000000e+00
 0.000000e+00 0.000000e+00 0.000000e+00 0.000000e+00 0.000000e+00 0.000000e+00 0.000000e+00 0.000000e+00 8.757510e-01 1.242490e-01
 0.000000e+00 0.000000e+00 0.000000e+00 0.000000e+00 0.000000e+00 0.000000e+00 0.000000e+00 0.000000e+00 0.000000e+00 0.000000e+00
<ENDHMM>
~o
<STREAMINFO> 1 12
<VECSIZE> 12<NULLD><MFCC_Z><DIAGC>
~h "s015"
<BEGINHMM>
<NUMSTATES> 10
<STATE> 2
<MEAN> 12
 -4.967124e+00 1.014236e+01 1.422252e+01 -1.011081e+01 -7.400114e+00 3.655356e+00 -4.749751e+00 1.551375e+01 5.972954e+00 3.162644e+00 8.640905e+00 -1.865390e+00
<VARIANCE> 12
 3.136368e+00 1.069924e+01 1.568190e+01 2.518533e+01 2.158597e+01 9.718862e+00 9.157903e+00 2.173766e+01 1.631780e+01 1.226255e+01 4.781918e+01 2.615666e+01
<GCONST> 5.461665e+01
<STATE> 3
<MEAN> 12
 -9.683219e-01 3.552022e+00 -2.715525e+00 -3.100174e+00 -6.762815e+00 -8.938373e+00 -5.800985e+00 1.692949e+01 6.721980e+00 6.115677e+00 7.105169e+00 -5.319332e+00
<VARIANCE> 12
 3.136368e+00 8.229414e+00 2.591485e+01 1.148359e+01 5.820551e+01 9.718862e+00 2.637482e+01 2.173766e+01 1.982663e+01 6.681057e+01 9.023470e+01 1.261483e+01
<GCONST> 5.791672e+01
<STATE> 4
<MEAN> 12
 5.143028e+00 5.470373e+00 -1.198421e+01 -4.267616e+00 4.840717e+00 -8.672826e-01 -9.652476e-01 -5.666764e+00 2.066321e+00 3.455413e+00 4.508709e+00 -1.354999e+00
<VARIANCE> 12
 6.883892e+00 8.229414e+00 1.568190e+01 1.148359e+01 7.856369e+00 5.039779e+01 9.157903e+00 2.202818e+01 1.512209e+01 3.763089e+01 1.773723e+01 2.269194e+01
<GCONST> 5.491473e+01
<STATE> 5
<MEAN> 12
 2.540666e+00 9.810472e-01 -5.228503e+00 3.323194e+00 3.470984e+00 7.292571e+00 -6.498997e+00 -4.241887e+00 3.079207e+00 -1.948978e+00 -2.056802e+00 -1.655408e+00
<VARIANCE> 12
 1.067949e+01 1.033564e+01 3.232850e+01 1.148359e+01 1.013301e+01 4.232284e+01 2.610531e+01 2.427587e+01 1.262722e+01 2.733173e+01 1.838164e+01 1.068014e+01
<GCONST> 5.631171e+01
<STATE> 6
<MEAN> 12
 -1.974636e+00 -8.259662e+00 -8.062533e+00 6.513778e+00 8.067791e+00 -8.629880e+00 -4.511429e-01 7.102854e+00 -9.412003e+00 -7.334414e+00 -5.992890e+00 7.185117e+00
<VARIANCE> 12
 5.201416e+00 8.229414e+00 1.568190e+01 1.148359e+01 9.045414e+00 9.718862e+00 1.449390e+01 2.173766e+01 2.985196e+01 1.171868e+01 2.479188e+01 8.965032e+00
<GCONST> 5.249498e+01
<STATE> 7
<MEAN> 12
 -4.601938e+00 -8.550895e+00 5.371034e+00 -7.456796e-01 -8.783140e-01 -5.031644e+00 1.018848e+01 -2.759345e+00 -1.298032e+01 8.101203e-01 3.051505e-01 5.009105e+00
<VARIANCE> 12
 3.136368e+00 8.229414e+00 1.568190e+01 2.242611e+01 7.856369e+00 1.698736e+01 9.157903e+00 3.093706e+01 1.091305e+01 1.416757e+01 1.119391e+01 4.831541e+00
<GCONST> 5.073986e+01
<STATE> 8
<MEAN> 12
 1.812889e+00 -3.198080e+00 4.639353e+00 -1.992146e-01 -2.917707e+00 -7.672360e-02 6.487426e+00 -1.184865e+01 -1.462916e+00 -3.476592e+00 -4.682060e+00 4.678638e-01
<VARIANCE> 12
 3.136368e+00 8.229414e+00 1.568190e+01 6.110207e+01 1.263276e+01 9.718862e+00 1.385026e+01 2.173766e+01 1.651132e+01 2.923749e+01 1.119391e+01 8.291848e+00
<GCONST> 5.339820e+01
<STATE> 9
<MEAN> 12
 -2.481345e-01 -3.537102e+00 1.721996e+00 1.145409e+01 1.943201e+00 5.120640e+00 2.592693e-01 -2.289405e+00 3.328481e+00 -4.443524e-01 -7.444139e+00 -8.676214e-01
<VARIANCE> 12
 3.136368e+00 8.229414e+00 1.568190e+01 1.148359e+01 1.412745e+01 1.681807e+01 2.264533e+01 2.173766e+01 1.098826e+01 7.743320e+00 1.119391e+01 1.283269e+01
<GCONST> 5.157933e+01
<TRANSP> 10
 0.000000e+00 1.000000e+00 0.000000e+00 0.000000e+00 0.000000e+00 0.000000e+00 0.000000e+00 0.000000e+00 0.000000e+00 0.000000e+00
 0.000000e+00 8.744320e-01 1.255680e-01 0.000000e+00 0.000000e+00 0.000000e+00 0.000000e+00 0.000000e+00 0.000000e+00 0.000000e+00
 0.000000e+00 0.000000e+00 8.019090e-01 1.980911e-01 0.000000e+00 0.000000e+00 0.000000e+00 0.000000e+00 0.000000e+00 0.000000e+00
 0.000000e+00 0.000000e+00 0.000000e+00 8.882701e-01 1.117299e-01 0.000000e+00 0.000000e+00 0.000000e+00 0.000000e+00 0.000000e+00
 0.000000e+00 0.000000e+00 0.000000e+00 0.000000e+00 8.911654e-01 1.088346e-01 0.000000e+00 0.000000e+00 0.000000e+00 0.000000e+00
 0.000000e+00 0.000000e+00 0.000000e+00 0.000000e+00 0.000000e+00 7.987744e-01 2.012256e-01 0.000000e+00 0.000000e+00 0.000000e+00
 0.000000e+00 0.000000e+00 0.000000e+00 0.000000e+00 0.000000e+00 0.000000e+00 8.550696e-01 1.449304e-01 0.000000e+00 0.000000e+00
 0.000000e+00 0.000000e+00 0.000000e+00 0.000000e+00 0.000000e+00 0.000000e+00 0.000000e+00 9.011474e-01 9.885255e-02 0.000000e+00
 0.000000e+00 0.000000e+00 0.000000e+00 0.000000e+00 0.000000e+00 0.000000e+00 0.000000e+00 0.000000e+00 8.543148e-01 1.456852e-01
 0.000000e+00 0.000000e+00 0.000000e+00 0.000000e+00 0.000000e+00 0.000000e+00 0.000000e+00 0.000000e+00 0.000000e+00 0.000000e+00
<ENDHMM>
~o
<STREAMINFO> 1 12
<VECSIZE> 12<NULLD><MFCC_Z><DIAGC>
~h "s016"
<BEGINHMM>
<NUMSTATES> 8
<STATE> 2
<MEAN> 12
 -1.446375e+01 5.819409e+00 -1.506479e+00 3.959930e+00 1.484515e+01 1.694503e+00 1.248148e+01 1.601717e+00 6.211982e+00 6.138956e+00 4.153727e+00 9.147467e-01
<VARIANCE> 12
 1.006160e+01 1.394541e+01 1.571580e+01 2.095210e+01 2.331924e+01 6.724973e+00 1.644688e+01 6.796653e+00 1.615327e+01 6.238524e+00 2.482008e+01 2.295369e+01
<GCONST> 5.352498e+01
<STATE> 3
<MEAN> 12
 -1.225099e-01 1.267665e+01 1.180369e+01 -1.293527e+01 -6.903583e+00 -9.052931e-01 -1.304668e+01 4.119938e-01 2.216351e+00 -9.296980e-01 1.126142e+01 -6.935798e+00
<VARIANCE> 12
 1.006160e+01 1.394541e+01 1.571580e+01 2.095210e+01 8.527750e+01 1.246563e+01 6.423879e+01 6.796653e+00 9.087967e+00 3.293381e+01 3.711096e+01 9.448446e+00
<GCONST> 5.740445e+01
<STATE> 4
<MEAN> 12
 9.214122e-01 1.518267e+00 5.075461e+00 -9.187103e+00 -1.264612e+01 2.404690e+00 4.223303e-01 4.975432e+00 -8.810446e-01 -1.191236e-02 -4.135294e+00 2.521160e+00
<VARIANCE> 12
 1.006160e+01 1.394541e+01 1.571580e+01 2.095210e+01 3.667805e+01 3.253796e+01 1.644688e+01 2.333302e+01 1.068709e+01 6.238524e+00 7.043909e+01 2.617113e+01
<GCONST> 5.754908e+01
<STATE> 5
<MEAN> 12
 1.096239e+00 -5.339046e+00 3.460586e+00 -1.643282e-01 4.465999e+00 9.215278e+00 5.237053e+00 -7.462392e+00 -1.091324e+01 4.122601e+00 1.253740e+00 -1.519286e-01
<VARIANCE> 12
 1.006160e+01 1.394541e+01 1.571580e+01 5.291567e+01 2.331924e+01 8.370049e+00 1.644688e+01 2.978989e+01 3.368180e+01 1.115703e+01 2.745442e+01 7.297364e+00
<GCONST> 5.641908e+01
<STATE> 6
<MEAN> 12
 3.074638e+00 -1.141216e+01 -4.272058e+00 1.302025e+01 8.251606e+00 -5.927547e+00 4.093078e+00 -7.681858e-01 -8.481709e+00 1.935039e+00 1.237965e+00 1.869208e+00
<VARIANCE> 12
 1.006160e+01 1.394541e+01 3.247675e+01 2.095210e+01 2.331924e+01 8.338140e+00 1.644688e+01 2.050579e+01 1.470634e+01 6.238524e+00 3.055808e+01 2.689141e+01
<GCONST> 5.584258e+01
<STATE> 7
<MEAN> 12
 7.373481e+00 -6.718272e+00 -1.223452e+01 8.547202e+00 1.042988e-01 -2.980401e+00 -3.603600e+00 -2.754912e+00 4.346961e+00 -6.625137e+00 -9.475354e+00 1.433458e+00
<VARIANCE> 12
 1.006160e+01 1.394541e+01 1.571580e+01 2.095210e+01 2.331924e+01 8.911663e+00 1.644688e+01 4.073246e+01 1.136598e+01 1.809600e+01 1.683050e+01 4.862341e+01
<GCONST> 5.667273e+01
<TRANSP> 8
 0.000000e+00 1.000000e+00 0.000000e+00 0.000000e+00 0.000000e+00 0.000000e+00 0.000000e+00 0.000000e+00
 0.000000e+00 8.750000e-01 1.250000e-01 0.000000e+00 0.000000e+00 0.000000e+00 0.000000e+00 0.000000e+00
 0.000000e+00 0.000000e+00 8.882078e-01 1.117922e-01 0.000000e+00 0.000000e+00 0.000000e+00 0.000000e+00
 0.000000e+00 0.000000e+00 0.000000e+00 9.062963e-01 9.370369e-02 0.000000e+00 0.000000e+00 0.000000e+00
 0.000000e+00 0.000000e+00 0.000000e+00 0.000000e+00 7.811733e-01 2.188267e-01 0.000000e+00 0.000000e+00
 0.000000e+00 0.000000e+00 0.000000e+00 0.000000e+00 0.000000e+00 8.536878e-01 1.463122e-01 0.000000e+00
 0.000000e+00 0.000000e+00 0.000000e+00 0.000000e+00 0.000000e+00 0.000000e+00 9.089118e-01 9.108821e-02
 0.000000e+00 0.000000e+00 0.000000e+00 0.000000e+00 0.000000e+00 0.000000e+00 0.000000e+00 0.000000e+00
<ENDHMM>
~o
<STREAMINFO> 1 12
<VECSIZE> 12<NULLD><MFCC_Z><DIAGC>
~h "s017"
<BEGINHMM>
<NUMSTATES> 8
<STATE> 2
<MEAN> 12
 -1.493087e+00 1.305870e+01 2.647519e+00 -5.106150e+00 -6.839534e+00 -6.339162e+00 -8.184457e+00 3.090108e+00 5.181921e+00 -2.320233e+00 2.011190e-01 -7.442646e-01
<VARIANCE> 12
 9.736641e+00 1.639656e+01 2.418550e+01 4.666721e+01 2.121865e+01 2.552842e+01 3.388309e+01 2.426336e+01 2.040318e+01 4.700348e+01 5.885784e+01 8.460881e+00
<GCONST> 6.023933e+01
<STATE> 3
<MEAN> 12
 2.686105e+00 1.934566e+00 7.007025e+00 -8.819128e+00 -1.467426e+01 -1.012932e+01 -8.475188e+00 1.203318e+01 4.607416e+00 5.463241e+00 1.604231e+00 -9.341076e+00
<VARIANCE> 12
 9.436931e+00 3.227865e+01 1.430450e+01 3.101480e+01 2.264647e+01 2.552842e+01 7.461888e+01 1.886270e+01 1.910982e+01 1.223618e+01 6.923727e+00 3.179052e+01
<GCONST> 5.832670e+01
<STATE> 4
<MEAN> 12
 6.735717e+00 -7.446869e+00 -1.090299e+01 6.466933e+00 -3.962598e+00 -1.640977e+01 -5.577380e-01 1.126673e+01 5.250810e+00 -4.875245e+00 -1.399631e+00 -3.395845e+00
<VARIANCE> 12
 2.886161e+00 1.639656e+01 9.673395e+00 1.167507e+01 2.121865e+01 2.552842e+01 2.058546e+01 1.886270e+01 4.164996e+01 3.834731e+01 1.654461e+01 2.648133e+01
<GCONST> 5.635329e+01
<STATE> 5
<MEAN> 12
 -7.911716e-02 -1.229958e+01 -1.241372e+01 6.913693e+00 -6.484097e+00 -1.499273e+00 1.255853e+01 4.067917e+00 -1.273169e+01 1.225733e+00 5.890528e+00 3.527177e+00
<VARIANCE> 12
 3.170153e+00 1.639656e+01 9.673395e+00 1.167507e+01 2.121865e+01 7.086192e+01 1.607716e+01 7.954813e+01 2.193555e+01 2.759271e+01 8.805898e+00 8.460881e+00
<GCONST> 5.591813e+01
<STATE> 6
<MEAN> 12
 -3.251613e+00 -7.710635e+00 7.196298e-01 4.828100e+00 8.281056e+00 1.284916e+01 3.251137e+00 -1.253882e+01 -4.200919e+00 1.155221e-01 -1.017736e+00 7.389595e+00
<VARIANCE> 12
 2.886161e+00 1.639656e+01 1.807534e+01 2.284523e+01 2.139350e+01 2.552842e+01 1.607716e+01 1.886270e+01 1.904078e+01 3.364829e+01 8.012422e+00 2.106651e+01
<GCONST> 5.554350e+01
<STATE> 7
<MEAN> 12
 3.612567e-02 7.454171e-01 1.734825e+00 8.691207e-02 1.180038e+01 8.417613e+00 7.176027e+00 -4.293363e+00 -2.786124e+00 1.347284e+00 -1.202170e+00 -9.523870e-01
<VARIANCE> 12
 3.472103e+00 1.639656e+01 1.127983e+01 3.066512e+01 2.121865e+01 2.552842e+01 3.391904e+01 1.886270e+01 1.311947e+01 2.487168e+01 1.349800e+01 8.460881e+00
<GCONST> 5.522416e+01
<TRANSP> 8
 0.000000e+00 1.000000e+00 0.000000e+00 0.000000e+00 0.000000e+00 0.000000e+00 0.000000e+00 0.000000e+00
 0.000000e+00 9.142511e-01 8.574882e-02 0.000000e+00 0.000000e+00 0.000000e+00 0.000000e+00 0.000000e+00
 0.000000e+00 0.000000e+00 8.449435e-01 1.550565e-01 0.000000e+00 0.000000e+00 0.000000e+00 0.000000e+00
 0.000000e+00 0.000000e+00 0.000000e+00 8.223211e-01 1.776789e-01 0.000000e+00 0.000000e+00 0.000000e+00
 0.000000e+00 0.000000e+00 0.000000e+00 0.000000e+00 6.969167e-01 3.030833e-01 0.000000e+00 0.000000e+00
 0.000000e+00 0.000000e+00 0.000000e+00 0.000000e+00 0.000000e+00 9.142766e-01 8.572339e-02 0.000000e+00
 0.000000e+00 0.000000e+00 0.000000e+00 0.000000e+00 0.000000e+00 0.000000e+00 9.028729e-01 9.712708e-02
 0.000000e+00 0.000000e+00 0.000000e+00 0.000000e+00 0.000000e+00 0.000000e+00 0.000000e+00 0.000000e+00
<ENDHMM>
~o
<STREAMINFO> 1 12
<VECSIZE> 12<NULLD><MFCC_Z><DIAGC>
~h "s018"
<BEGINHMM>
<NUMSTATES> 12
<STATE> 2
<MEAN> 12
 -1.417912e+01 4.760246e+00 -5.391553e+00 3.156271e+00 1.128162e+01 1.911108e+00 6.822332e+00 7.285226e+00 7.483007e+00 9.002128e+00 -2.136932e-01 8.973651e+00
<VARIANCE> 12
 9.755198e+00 2.271602e+01 5.721014e+00 2.987363e+01 1.250955e+01 2.136095e+01 9.533775e+00 1.014899e+01 1.439602e+01 1.941513e+01 7.584404e+00 2.608318e+01
<GCONST> 5.367718e+01
<STATE> 3
<MEAN> 12
 2.714650e+00 -3.086337e+00 -2.711604e-01 7.645413e-01 5.473622e+00 -5.090640e+00 7.411963e+00 2.346469e+00 -7.761456e+00 -4.033923e+00 -1.869915e+00 7.538240e+00
<VARIANCE> 12
 1.047688e+01 3.720099e+01 5.100912e+01 5.587125e+01 5.611296e+01 2.068662e+01 2.297296e+01 1.986340e+01 1.983685e+01 3.335410e+01 2.257496e+01 3.155500e+01
<GCONST> 6.221843e+01
<STATE> 4
<MEAN> 12
 8.767944e+00 -2.204745e+00 -7.754457e+00 1.158010e+01 1.005297e+01 -4.572753e-02 5.549546e+00 2.318186e+00 4.974345e+00 -3.846262e+00 -6.284348e+00 1.905127e+00
<VARIANCE> 12
 9.755198e+00 2.271602e+01 1.575994e+01 1.233826e+01 1.250955e+01 4.830620e+01 2.817316e+01 3.173872e+01 1.455314e+01 1.051888e+01 1.054112e+01 2.306028e+01
<GCONST> 5.644991e+01
<STATE> 5
<MEAN> 12
 -1.092275e+01 -2.488007e+00 1.215627e+00 1.834201e+00 1.517378e+00 7.542525e+00 2.449577e+00 2.912321e+00 7.185197e+00 4.048256e+00 -3.435954e+00 4.358223e-01
<VARIANCE> 12
 1.090417e+01 2.271602e+01 8.002503e+00 1.233826e+01 1.250955e+01 6.686310e+00 1.358962e+01 3.526092e+01 2.478154e+01 8.856680e+00 3.348790e+01 8.432696e+00
<GCONST> 5.379241e+01
<STATE> 6
<MEAN> 12
 -3.874298e+00 -6.442876e+00 1.006690e+01 1.133265e+00 2.267451e+00 2.356792e+00 -1.211276e-01 -5.280572e+00 -2.117365e+00 -2.941160e-01 -5.002994e+00 -4.183560e+00
<VARIANCE> 12
 5.456749e+01 2.271602e+01 9.594067e+00 1.233826e+01 5.828052e+01 3.530723e+01 1.698480e+01 8.150092e+00 8.854650e+00 3.927618e+01 1.705088e+01 1.209046e+01
<GCONST> 5.769077e+01
<STATE> 7
<MEAN> 12
 3.780985e+00 -1.772868e+01 2.410467e+00 1.473356e+00 -9.052922e+00 3.652800e+00 -7.608712e+00 -1.693551e+00 -4.724841e+00 -9.607505e+00 2.594985e+00 -7.799119e-01
<VARIANCE> 12
 9.755198e+00 2.271602e+01 5.721014e+00 1.233826e+01 1.250955e+01 1.898371e+01 9.533775e+00 8.150092e+00 1.220778e+01 3.043979e+01 7.584404e+00 1.765171e+01
<GCONST> 5.234995e+01
<STATE> 8
<MEAN> 12
 -3.551119e+00 -5.015382e+00 1.487560e+00 -7.847281e+00 -4.384943e+00 9.419332e-01 1.074125e-01 -7.074735e+00 -4.036166e+00 1.775601e+00 -3.043930e+00 -4.121308e+00
<VARIANCE> 12
 9.755198e+00 4.608718e+01 1.420203e+01 6.662613e+01 1.250955e+01 2.297995e+01 2.351381e+01 2.658511e+01 2.719832e+01 1.804979e+01 2.621683e+01 2.307640e+01
<GCONST> 5.971590e+01
<STATE> 9
<MEAN> 12
 6.454374e-01 1.104520e+01 7.801474e-02 -2.344565e+00 -7.344994e+00 -2.000646e+00 -3.867374e+00 -1.836978e+00 -6.294097e+00 7.224150e-01 3.002264e+00 -5.746478e+00
<VARIANCE> 12
 9.755198e+00 2.271602e+01 5.721014e+00 2.366033e+01 1.250955e+01 4.495867e+01 9.533775e+00 2.142554e+01 1.357626e+01 8.856680e+00 7.584404e+00 8.432696e+00
<GCONST> 5.296271e+01
<STATE> 10
<MEAN> 12
 2.231553e+00 1.668898e+01 2.035756e+00 -6.205481e+00 -5.230851e+00 -4.396204e+00 -7.319989e+00 4.628815e+00 2.846176e+00 2.623936e+00 8.572504e+00 -5.084217e+00
<VARIANCE> 12
 9.755198e+00 2.271602e+01 5.721014e+00 1.233826e+01 1.514004e+01 6.686310e+00 1.930517e+01 8.600402e+00 9.074885e+00 1.161467e+01 1.450403e+01 1.298339e+01
<GCONST> 5.133771e+01
<STATE> 11
<MEAN> 12
 3.352993e+00 5.613555e+00 2.089393e+00 2.654139e+00 -1.548657e+00 7.427008e-01 -1.522808e+00 -4.795472e+00 3.004647e+00 4.008432e+00 2.233697e+00 7.519687e-01
<VARIANCE> 12
 9.755198e+00 2.271602e+01 5.721014e+00 1.233826e+01 1.657052e+01 1.082097e+01 9.533775e+00 2.128280e+01 1.928794e+01 2.346802e+01 1.094103e+01 1.880826e+01
<GCONST> 5.365603e+01
<TRANSP> 12
 0.000000e+00 1.000000e+00 0.000000e+00 0.000000e+00 0.000000e+00 0.000000e+00 0.000000e+00 0.000000e+00 0.000000e+00 0.000000e+00 0.000000e+00 0.000000e+00
 0.000000e+00 8.333333e-01 1.666667e-01 0.000000e+00 0.000000e+00 0.000000e+00 0.000000e+00 0.000000e+00 0.000000e+00 0.000000e+00 0.000000e+00 0.000000e+00
 0.000000e+00 0.000000e+00 8.889859e-01 1.110141e-01 0.000000e+00 0.000000e+00 0.000000e+00 0.000000e+00 0.000000e+00 0.000000e+00 0.000000e+00 0.000000e+00
 0.000000e+00 0.000000e+00 0.000000e+00 8.990136e-01 1.009864e-01 0.000000e+00 0.000000e+00 0.000000e+00 0.000000e+00 0.000000e+00 0.000000e+00 0.000000e+00
 0.000000e+00 0.000000e+00 0.000000e+00 0.000000e+00 8.018925e-01 1.981075e-01 0.000000e+00 0.000000e+00 0.000000e+00 0.000000e+00 0.000000e+00 0.000000e+00
 0.000000e+00 0.000000e+00 0.000000e+00 0.000000e+00 0.000000e+00 6.055285e-01 3.944716e-01 0.000000e+00 0.000000e+00 0.000000e+00 0.000000e+00 0.000000e+00
 0.000000e+00 0.000000e+00 0.000000e+00 0.000000e+00 0.000000e+00 0.000000e+00 8.856664e-01 1.143337e-01 0.000000e+00 0.000000e+00 0.000000e+00 0.000000e+00
 0.000000e+00 0.000000e+00 0.000000e+00 0.000000e+00 0.000000e+00 0.000000e+00 0.000000e+00 9.234153e-01 7.658470e-02 0.000000e+00 0.000000e+00 0.000000e+00
 0.000000e+00 0.000000e+00 0.000000e+00 0.000000e+00 0.000000e+00 0.000000e+00 0.000000e+00 0.000000e+00 6.189557e-01 3.810442e-01 0.000000e+00 0.000000e+00
 0.000000e+00 0.000000e+00 0.000000e+00 0.000000e+00 0.000000e+00 0.000000e+00 0.000000e+00 0.000000e+00 0.000000e+00 9.176096e-01 8.239041e-02 0.000000e+00
 0.000000e+00 0.000000e+00 0.000000e+00 0.000000e+00 0.000000e+00 0.000000e+00 0.000000e+00 0.000000e+00 0.000000e+00 0.000000e+00 8.559399e-01 1.440602e-01
 0.000000e+00 0.000000e+00 0.000000e+00 0.000000e+00 0.000000e+00 0.000000e+00 0.000000e+00 0.000000e+00 0.000000e+00 0.000000e+00 0.000000e+00 0.000000e+00
<ENDHMM>
~o
<STREAMINFO> 1 12
<VECSIZE> 12<NULLD><MFCC_Z><DIAGC>
~h "s019"
<BEGINHMM>
<NUMSTATES> 11
<STATE> 2
<MEAN> 12
 -3.268505e+00 1.632113e+01 5.031456e+00 -1.023679e+01 -4.148563e+00 -3.339530e+00 -8.232250e+00 5.748433e+00 -7.084763e+00 -2.657948e+00 1.007702e+00 -8.091900e+00
<VARIANCE> 12
 8.370374e+00 2.244232e+01 1.405455e+01 1.766821e+01 9.676782e+00 3.192090e+01 1.667858e+01 2.194138e+01 1.337611e+01 8.001168e+00 1.785104e+01 4.617250e+01
<GCONST> 5.582788e+01
<STATE> 3
<MEAN> 12
 3.325669e+00 2.157115e+00 7.130790e+00 -2.835908e+00 -1.028469e+01 -9.727490e+00 -7.713976e+00 2.424879e+00 -5.473238e-01 1.875682e+00 5.281960e+00 -1.722090e+00
<VARIANCE> 12
 8.370374e+00 1.982718e+01 2.502803e+01 2.816653e+01 1.673945e+01 2.190590e+01 2.778791e+01 1.221013e+01 1.337611e+01 4.404906e+01 3.855981e+01 2.437041e+01
<GCONST> 5.868016e+01
<STATE> 4
<MEAN> 12
 5.698952e+00 -2.906571e+00 -1.230433e+01 2.955181e+00 2.368417e+00 -1.283220e+01 -1.831810e+00 7.426429e+00 4.816135e-01 -1.221227e+00 -1.033657e+01 4.890750e+00
<VARIANCE> 12
 8.370374e+00 1.771973e+01 2.860156e+01 1.371575e+01 9.041337e+00 2.190590e+01 1.946350e+01 1.019465e+01 2.866117e+01 2.933323e+01 6.315015e+00 5.674025e+01
<GCONST> 5.622055e+01
<STATE> 5
<MEAN> 12
 -2.162399e+00 -1.655015e+01 -9.175461e+00 7.839962e+00 8.963181e+00 -2.365438e+00 7.476464e+00 -1.384044e+00 -1.432113e+01 -6.271973e-01 1.625741e+00 1.017669e+01
<VARIANCE> 12
 8.370374e+00 1.771973e+01 3.268354e+01 1.371575e+01 8.955884e+00 2.190590e+01 8.523400e+00 3.942873e+01 1.337611e+01 3.225866e+01 1.113141e+01 2.826543e+01
<GCONST> 5.607436e+01
<STATE> 6
<MEAN> 12
 -4.826185e+00 -7.694425e+00 -7.174968e-01 -7.161101e+00 2.888946e+00 1.017453e+01 1.056357e-01 -6.784232e+00 -1.591595e+00 3.902725e-01 -9.978082e-02 2.402001e+00
<VARIANCE> 12
 8.370374e+00 3.760350e+01 8.991493e+00 2.548611e+01 8.955884e+00 2.190590e+01 8.608466e+00 1.898554e+01 1.967848e+01 4.622028e+01 5.486344e+00 9.927300e+00
<GCONST> 5.442672e+01
<STATE> 7
<MEAN> 12
 -6.444345e+00 -1.026295e+00 1.664122e+00 -1.316932e+00 5.052238e+00 1.102994e+01 3.141866e+00 -1.487655e+00 6.634509e+00 -3.345905e+00 2.703531e+00 1.902372e+00
<VARIANCE> 12
 3.951101e+01 1.771973e+01 1.757900e+01 1.720330e+01 4.418120e+01 2.200453e+01 2.978840e+01 3.927514e+01 1.591876e+01 4.271918e+01 1.165726e+01 1.766981e+01
<GCONST> 6.011178e+01
<STATE> 8
<MEAN> 12
 3.417402e+00 -6.329495e-01 4.869303e+00 7.329442e-01 -8.645054e+00 -8.956486e+00 2.964346e+00 3.099141e-01 -6.016943e+00 -2.890085e+00 -2.925969e+00 -2.999863e+00
<VARIANCE> 12
 1.850818e+01 1.771973e+01 1.420523e+01 1.371575e+01 8.955884e+00 9.318379e+01 9.030000e+00 4.705135e+01 1.337611e+01 1.027334e+01 8.919021e+00 1.427507e+01
<GCONST> 5.566797e+01
<STATE> 9
<MEAN> 12
 7.209650e+00 -4.242109e-02 -3.547503e+00 5.648977e+00 -2.164468e+00 -1.291775e+01 -6.723279e-01 5.154732e+00 2.115144e+00 2.465986e+00 -3.192979e+00 1.491221e+00
<VARIANCE> 12
 8.370374e+00 1.771973e+01 8.991493e+00 1.371575e+01 8.955884e+00 2.438050e+01 8.523400e+00 1.074048e+01 3.189364e+01 7.968375e+00 5.486344e+00 2.312385e+01
<GCONST> 5.215267e+01
<STATE> 10
<MEAN> 12
 7.768341e+00 -1.249795e+00 1.402969e+00 1.246773e+01 -9.548122e-01 5.918188e+00 5.437937e+00 -7.559183e+00 1.073796e+01 7.814063e+00 1.078639e+00 -2.586986e+00
<VARIANCE> 12
 8.370374e+00 1.771973e+01 8.991493e+00 1.371575e+01 2.320969e+01 2.556819e+01 1.681996e+01 1.510818e+01 1.337611e+01 2.147183e+01 2.523621e+01 1.413916e+01
<GCONST> 5.532989e+01
<TRANSP> 11
 0.000000e+00 1.000000e+00 0.000000e+00 0.000000e+00 0.000000e+00 0.000000e+00 0.000000e+00 0.000000e+00 0.000000e+00 0.000000e+00 0.000000e+00
 0.000000e+00 9.167365e-01 8.326345e-02 0.000000e+00 0.000000e+00 0.000000e+00 0.000000e+00 0.000000e+00 0.000000e+00 0.000000e+00 0.000000e+00
 0.000000e+00 0.000000e+00 7.866433e-01 2.133567e-01 0.000000e+00 0.000000e+00 0.000000e+00 0.000000e+00 0.000000e+00 0.000000e+00 0.000000e+00
 0.000000e+00 0.000000e+00 0.000000e+00 8.227717e-01 1.772283e-01 0.000000e+00 0.000000e+00 0.000000e+00 0.000000e+00 0.000000e+00 0.000000e+00
 0.000000e+00 0.000000e+00 0.000000e+00 0.000000e+00 8.221093e-01 1.778907e-01 0.000000e+00 0.000000e+00 0.000000e+00 0.000000e+00 0.000000e+00
 0.000000e+00 0.000000e+00 0.000000e+00 0.000000e+00 0.000000e+00 8.865648e-01 1.134352e-01 0.000000e+00 0.000000e+00 0.000000e+00 0.000000e+00
 0.000000e+00 0.000000e+00 0.000000e+00 0.000000e+00 0.000000e+00 0.000000e+00 9.278122e-01 7.218787e-02 0.000000e+00 0.000000e+00 0.000000e+00
 0.000000e+00 0.000000e+00 0.000000e+00 0.000000e+00 0.000000e+00 0.000000e+00 0.000000e+00 7.710585e-01 2.289414e-01 0.000000e+00 0.000000e+00
 0.000000e+00 0.000000e+00 0.000000e+00 0.000000e+00 0.000000e+00 0.000000e+00 0.000000e+00 0.000000e+00 8.513033e-01 1.486968e-01 0.000000e+00
 0.000000e+00 0.000000e+00 0.000000e+00 0.000000e+00 0.000000e+00 0.000000e+00 0.000000e+00 0.000000e+00 0.000000e+00 8.922147e-01 1.077854e-01
 0.000000e+00 0.000000e+00 0.000000e+00 0.000000e+00 0.000000e+00 0.000000e+00 0.000000e+00 0.000000e+00 0.000000e+00 0.000000e+00 0.000000e+00
<ENDHMM>
~o
<STREAMINFO> 1 12
<VECSIZE> 12<NULLD><MFCC_Z><DIAGC>
~h "s020"
<BEGINHMM>
<NUMSTATES> 9
<STATE> 2
<MEAN> 12
 7.473712e+00 -6.396381e+00 -2.382290e+00 2.304966e+00 -6.214150e+00 -1.579019e+01 -3.814124e+00 1.366078e+01 -4.492825e+00 1.866058e+00 -6.477647e-01 -7.188190e+00
<VARIANCE> 12
 1.356520e+01 1.825232e+01 4.295445e+00 9.407494e+00 1.048909e+01 1.435701e+01 6.900551e+01 2.952063e+01 4.438030e+01 1.581421e+01 5.793542e+00 5.297155e+01
<GCONST> 5.617944e+01
<STATE> 3
<MEAN> 12
 -6.046594e+00 -2.511929e+00 8.920915e-01 -1.031233e+01 -2.469245e+00 -3.286351e+00 -4.954930e+00 7.048131e+00 -6.268754e+00 -4.489872e+00 -4.843400e+00 -5.592591e+00
<VARIANCE> 12
 1.068425e+01 3.183476e+01 1.401553e+01 1.874903e+01 4.482160e+01 1.209405e+01 1.817289e+01 2.553252e+01 1.424737e+01 3.802594e+01 1.032232e+01 2.737904e+01
<GCONST> 5.782937e+01
<STATE> 4
<MEAN> 12
 3.491665e-01 6.891623e+00 8.986156e-01 -6.278148e+00 -1.187812e+00 9.156210e-01 -7.574944e-01 9.604027e+00 -5.418096e-01 3.120622e+00 1.425247e+00 -4.157303e+00
<VARIANCE> 12
 1.068425e+01 5.418190e+00 3.933620e+00 2.384732e+01 5.818765e+00 5.039618e+01 1.748866e+01 2.553252e+01 6.733544e+00 2.562538e+01 1.170328e+01 1.055863e+01
<GCONST> 5.240430e+01
<STATE> 5
<MEAN> 12
 -9.910024e+00 3.737710e+00 -1.459784e-01 3.553509e+00 3.878480e+00 2.457256e+00 3.677429e+00 7.202564e+00 6.884111e+00 -4.373324e+00 1.170715e+00 4.216974e+00
<VARIANCE> 12
 1.068425e+01 5.418190e+00 7.829073e+00 1.022285e+01 5.818765e+00 1.450521e+01 1.441401e+01 2.553252e+01 1.101597e+01 6.527783e+00 5.226663e+01 3.740593e+01
<GCONST> 5.269288e+01
<STATE> 6
<MEAN> 12
 -2.296702e+00 -4.175703e+00 5.105320e+00 4.798289e+00 5.764243e+00 7.141108e+00 8.122202e+00 -6.551276e+00 8.176608e-01 1.448358e+00 -8.230677e-01 2.990946e+00
<VARIANCE> 12
 2.545458e+01 5.418190e+00 3.700773e+00 1.164579e+01 1.181569e+01 1.209405e+01 8.144576e+00 2.553252e+01 1.869537e+01 1.286536e+01 1.311575e+01 1.696144e+01
<GCONST> 5.193169e+01
<STATE> 7
<MEAN> 12
 4.351202e+00 8.303748e-01 1.909259e+00 2.989807e+00 -1.974961e+00 4.739325e+00 3.426138e+00 -1.075037e+01 6.958760e-01 7.027818e+00 -4.487000e+00 3.815551e+00
<VARIANCE> 12
 1.068425e+01 5.418190e+00 5.047012e+00 1.197228e+01 5.818765e+00 1.209405e+01 8.144576e+00 2.553252e+01 1.251651e+01 6.527783e+00 7.530551e+00 9.337918e+00
<GCONST> 4.846172e+01
<STATE> 8
<MEAN> 12
 8.436781e+00 2.289278e+00 -4.844746e+00 3.810320e+00 -5.556646e-01 1.602495e+00 -3.741973e+00 -1.494330e+01 2.463892e+00 4.833346e-01 5.346068e+00 4.352795e+00
<VARIANCE> 12
 1.068425e+01 5.418190e+00 6.766089e+00 1.155648e+01 1.363318e+01 3.092530e+01 1.128584e+01 2.922052e+01 1.244754e+01 2.893283e+01 1.497475e+01 1.847889e+01
<GCONST> 5.382422e+01
<TRANSP> 9
 0.000000e+00 1.000000e+00 0.000000e+00 0.000000e+00 0.000000e+00 0.000000e+00 0.000000e+00 0.000000e+00 0.000000e+00
 0.000000e+00 8.339339e-01 1.660661e-01 0.000000e+00 0.000000e+00 0.000000e+00 0.000000e+00 0.000000e+00 0.000000e+00
 0.000000e+00 0.000000e+00 8.970346e-01 1.029654e-01 0.000000e+00 0.000000e+00 0.000000e+00 0.000000e+00 0.000000e+00
 0.000000e+00 0.000000e+00 0.000000e+00 8.403212e-01 1.596787e-01 0.000000e+00 0.000000e+00 0.000000e+00 0.000000e+00
 0.000000e+00 0.000000e+00 0.000000e+00 0.000000e+00 8.725745e-01 1.274255e-01 0.000000e+00 0.000000e+00 0.000000e+00
 0.000000e+00 0.000000e+00 0.000000e+00 0.000000e+00 0.000000e+00 8.902983e-01 1.097017e-01 0.000000e+00 0.000000e+00
 0.000000e+00 0.000000e+00 0.000000e+00 0.000000e+00 0.000000e+00 0.000000e+00 7.546492e-01 2.453509e-01 0.000000e+00
 0.000000e+00 0.000000e+00 0.000000e+00 0.000000e+00 0.000000e+00 0.000000e+00 0.000000e+00 9.087972e-01 9.120280e-02
