~o
<STREAMINFO> 1 12
<VECSIZE> 12<NULLD><MFCC_Z><DIAGC>
~h "s068"
<BEGINHMM>
<NUMSTATES> 7
<STATE> 2
<MEAN> 12
 6.247443e+00 -1.022755e+01 -7.974244e-01 4.165365e+00 2.215260e+00 -5.100223e-01 7.108436e+00 -7.243006e+00 3.753593e+00 -9.300259e-01 -1.348419e+00 9.867146e+00
<VARIANCE> 12
 1.300114e+01 2.142257e+01 1.301279e+01 6.832382e+00 1.714126e+01 3.456995e+01 2.760099e+01 2.363225e+01 2.865123e+01 9.168610e+00 1.564575e+01 3.738194e+01
<GCONST> 5.697892e+01
<STATE> 3
<MEAN> 12
 3.999469e+00 -6.978523e+00 -2.101092e+00 2.339630e+00 3.629885e+00 -3.674553e-01 3.295183e+00 -3.027864e+00 3.934551e+00 -7.159036e-01 -1.171626e+00 3.999659e+00
<VARIANCE> 12
 3.984386e+01 7.075516e+01 1.658793e+01 2.293637e+01 2.991301e+01 5.606683e+01 6.601804e+01 3.361131e+01 2.392762e+01 1.131712e+01 3.636693e+01 6.291294e+01
<GCONST> 6.440651e+01
<STATE> 4
<MEAN> 12
 -1.308704e+00 8.847259e-01 -4.253065e-01 -9.650421e-01 4.022354e-01 -9.415118e-01 -2.385792e+00 1.142904e+00 6.612589e-01 -9.283874e-01 5.226581e-01 -2.701792e+00
<VARIANCE> 12
 4.336921e+01 9.622288e+01 1.710073e+01 2.648248e+01 5.112362e+01 5.746289e+01 5.240351e+01 3.907193e+01 3.748465e+01 1.129061e+01 4.850809e+01 7.714619e+01
<GCONST> 6.639164e+01
<STATE> 5
<MEAN> 12
 -4.681913e+00 7.492988e+00 9.471781e-01 -3.092375e+00 -3.524362e+00 4.401344e-01 -5.165165e+00 4.185208e+00 -3.883269e+00 -1.758316e-01 2.233434e-01 -6.413964e+00
<VARIANCE> 12
 1.586281e+01 4.526110e+01 8.213357e+00 1.304622e+01 3.599372e+01 3.383199e+01 1.779031e+01 2.494549e+01 3.555580e+01 1.085887e+01 3.984464e+01 5.140283e+01
<GCONST> 6.008608e+01
<STATE> 6
<MEAN> 12
 -4.256295e+00 8.828363e+00 2.376643e+00 -2.447580e+00 -2.723023e+00 1.378859e+00 -2.852652e+00 4.942767e+00 -4.466128e+00 2.750140e+00 1.774047e+00 -4.751053e+00
<VARIANCE> 12
 8.620646e+00 2.135960e+01 6.092550e+00 7.018948e+00 1.997510e+01 1.681697e+01 2.597496e+01 2.004195e+01 3.977901e+01 1.271598e+01 2.687645e+01 3.106670e+01
<GCONST> 5.605129e+01
<TRANSP> 7
 0.000000e+00 1.000000e+00 0.000000e+00 0.000000e+00 0.000000e+00 0.000000e+00 0.000000e+00
 0.000000e+00 8.809524e-01 1.190476e-01 0.000000e+00 0.000000e+00 0.000000e+00 0.000000e+00
 0.000000e+00 0.000000e+00 8.809524e-01 1.190476e-01 0.000000e+00 0.000000e+00 0.000000e+00
 0.000000e+00 0.000000e+00 0.000000e+00 8.809524e-01 1.190476e-01 0.000000e+00 0.000000e+00
 0.000000e+00 0.000000e+00 0.000000e+00 0.000000e+00 8.809524e-01 1.190476e-01 0.000000e+00
 0.000000e+00 0.000000e+00 0.000000e+00 0.000000e+00 0.000000e+00 8.809524e-01 1.190476e-01
 0.000000e+00 0.000000e+00 0.000000e+00 0.000000e+00 0.000000e+00 0.000000e+00 0.000000e+00
<ENDHMM>
