~o
<STREAMINFO> 1 12
<VECSIZE> 12<NULLD><MFCC_Z><DIAGC>
~h "s060"
<BEGINHMM>
<NUMSTATES> 8
<STATE> 2
<MEAN> 12
 -5.954525e+00 -8.182050e+00 3.574520e+00 1.984445e+01 4.385711e+00 -1.585311e+00 7.715282e+00 3.910277e+00 -1.426847e+00 -2.578253e+00 7.033487e+00 2.895252e+00
<VARIANCE> 12
 4.695927e+01 2.118757e+01 1.196335e+01 2.191979e+01 5.912021e+00 3.527198e+01 2.258291e+01 5.129879e+01 1.635464e+01 1.541479e+01 2.068540e+01 1.807235e+01
<GCONST> 5.837505e+01
<STATE> 3
<MEAN> 12
 -1.835755e+00 -1.022539e+01 -3.191816e+00 9.653340e+00 2.978925e+00 -3.237937e+00 -2.052449e+00 -7.226713e+00 -2.759608e+00 6.199725e+00 -7.994518e-01 1.662557e+00
<VARIANCE> 12
 3.474730e+00 1.686657e+01 4.823729e+00 3.289855e+01 4.048659e+01 5.249535e+01 1.183036e+01 5.606543e+00 5.759698e+00 1.759879e+01 4.538826e+01 7.366520e+00
<GCONST> 5.347956e+01
<STATE> 4
<MEAN> 12
 6.532309e-01 4.391788e+00 -6.360532e+00 -8.430718e+00 -5.112347e+00 4.179477e-01 -6.117239e+00 -2.600981e+00 5.252838e-01 -2.008220e+00 -4.140618e+00 -3.492508e+00
<VARIANCE> 12
 5.142233e+00 1.980930e+01 4.823729e+00 2.191979e+01 1.078917e+01 1.700771e+01 1.183036e+01 9.832676e+00 3.921471e+01 3.344827e+01 2.016534e+01 1.153417e+01
<GCONST> 5.393602e+01
<STATE> 5
<MEAN> 12
 -4.778504e-01 9.149695e+00 -7.243641e-01 -8.830232e+00 -6.073869e-01 -3.595941e+00 -9.115476e+00 1.155209e+00 4.889757e-01 -3.656921e+00 -3.036437e-01 -4.359140e+00
<VARIANCE> 12
 1.391288e+01 9.446472e+00 3.547560e+01 2.191979e+01 1.701423e+01 1.244655e+01 1.183036e+01 1.394159e+01 2.796728e+01 1.360364e+01 1.644266e+01 8.356003e+00
<GCONST> 5.491448e+01
<STATE> 6
<MEAN> 12
 2.788886e+00 4.184501e+00 8.742697e+00 -1.402262e+01 -5.739004e+00 1.952974e+00 -3.882370e+00 8.132562e+00 1.091231e+01 -6.778547e-01 1.905960e+00 6.730199e-01
<VARIANCE> 12
 3.474730e+00 9.446472e+00 4.823729e+00 2.191979e+01 9.055694e+00 1.228366e+01 4.075105e+01 8.596803e+00 2.046889e+01 4.277644e+00 1.920661e+01 3.456839e+00
<GCONST> 4.944507e+01
<STATE> 7
<MEAN> 12
 4.356805e+00 -1.454335e+00 1.050135e-01 4.746757e-01 1.495473e+00 6.018061e+00 1.135122e+01 -1.419831e+00 -3.334787e+00 3.058417e+00 -2.571557e+00 3.251799e+00
<VARIANCE> 12
 3.474730e+00 9.446472e+00 1.548946e+01 2.615410e+01 6.066570e+00 8.145896e+00 1.183036e+01 1.847970e+01 2.037642e+01 1.252571e+01 1.303217e+01 7.011655e+00
<GCONST> 5.089465e+01
<TRANSP> 8
 0.000000e+00 1.000000e+00 0.000000e+00 0.000000e+00 0.000000e+00 0.000000e+00 0.000000e+00 0.000000e+00
 0.000000e+00 8.735474e-01 1.264526e-01 0.000000e+00 0.000000e+00 0.000000e+00 0.000000e+00 0.000000e+00
 0.000000e+00 0.000000e+00 8.678105e-01 1.321896e-01 0.000000e+00 0.000000e+00 0.000000e+00 0.000000e+00
 0.000000e+00 0.000000e+00 0.000000e+00 8.557057e-01 1.442943e-01 0.000000e+00 0.000000e+00 0.000000e+00
 0.000000e+00 0.000000e+00 0.000000e+00 0.000000e+00 9.126280e-01 8.737198e-02 0.000000e+00 0.000000e+00
 0.000000e+00 0.000000e+00 0.000000e+00 0.000000e+00 0.000000e+00 8.144542e-01 1.855458e-01 0.000000e+00
 0.000000e+00 0.000000e+00 0.000000e+00 0.000000e+00 0.000000e+00 0.000000e+00 9.070796e-01 9.292040e-02
 0.000000e+00 0.000000e+00 0.000000e+00 0.000000e+00 0.000000e+00 0.000000e+00 0.000000e+00 0.000000e+00
<ENDHMM>
