~o
<STREAMINFO> 1 12
<VECSIZE> 12<NULLD><MFCC_Z><DIAGC>
~h "s041"
<BEGINHMM>
<NUMSTATES> 5
<STATE> 2
<MEAN> 12
 -1.349077e-02 -1.747681e+00 -3.103282e+00 4.954141e+00 1.371856e+00 -1.116775e+01 2.614260e+00 -6.354082e+00 -1.424405e+00 -2.292037e-01 2.464412e+00 -2.822701e+00
<VARIANCE> 12
 3.531359e+00 3.058161e+00 3.279867e+00 1.167337e+01 1.702053e+01 2.060345e+01 1.396279e+01 1.361882e+01 1.325639e+01 1.179808e+01 9.976960e+00 5.875054e+00
<GCONST> 4.831027e+01
<STATE> 3
<MEAN> 12
 -3.690318e+00 -2.551246e+00 1.201433e+00 -6.288996e+00 1.950876e+00 7.118840e+00 -1.808726e+00 -7.770293e+00 -4.414538e+00 3.411973e+00 -4.965792e+00 9.937389e+00
<VARIANCE> 12
 1.164827e+00 2.146721e+00 2.625793e+00 1.582376e+01 3.347251e+00 2.060345e+01 2.358368e+01 1.445343e+01 3.020910e+00 2.376402e+00 4.811005e+00 8.876313e+00
<GCONST> 4.248846e+01
<STATE> 4
<MEAN> 12
 8.095299e-01 2.669311e+00 3.507900e+00 -4.660624e+00 -2.084176e+00 1.202306e+01 -2.783900e+00 9.381334e+00 2.677463e+00 -4.551715e-01 -1.923502e+00 1.289777e+00
<VARIANCE> 12
 1.078043e+01 3.099104e+00 1.419572e+01 3.228606e+01 1.013257e+01 2.060345e+01 3.226399e+01 1.877733e+01 1.850240e+01 1.936806e+01 1.486448e+01 1.506957e+01
<GCONST> 5.473195e+01
<TRANSP> 5
 0.000000e+00 1.000000e+00 0.000000e+00 0.000000e+00 0.000000e+00
 0.000000e+00 9.411441e-01 5.885589e-02 0.000000e+00 0.000000e+00
 0.000000e+00 0.000000e+00 6.676715e-01 3.323285e-01 0.000000e+00
 0.000000e+00 0.000000e+00 0.000000e+00 9.285728e-01 7.142715e-02
 0.000000e+00 0.000000e+00 0.000000e+00 0.000000e+00 0.000000e+00
<ENDHMM>
