~o
<STREAMINFO> 1 12
<VECSIZE> 12<NULLD><MFCC_Z><DIAGC>
~h "s034"
<BEGINHMM>
<NUMSTATES> 12
<STATE> 2
<MEAN> 12
 9.240767e+00 1.265699e+01 -3.493274e+00 -5.636913e+00 -1.489275e+01 -3.927995e+00 -2.515351e-01 -1.814613e+00 2.725600e+00 -4.352107e+00 -3.097337e+00 -6.586871e+00
<VARIANCE> 12
 6.821475e+00 1.003578e+01 1.069966e+01 1.472000e+01 2.415016e+01 2.584636e+01 8.978041e+00 2.596034e+01 6.810209e+00 1.095059e+01 2.700752e+01 8.124261e+00
<GCONST> 5.293078e+01
<STATE> 3
<MEAN> 12
 5.053779e-01 2.242402e+00 -6.356828e-01 -1.370828e+01 2.778078e+00 -1.585421e+01 -2.846613e+00 1.632515e+01 3.157559e+00 2.465010e+00 -4.583809e+00 -3.130780e+00
<VARIANCE> 12
 6.821475e+00 1.104440e+01 9.436303e+00 1.472000e+01 1.639160e+01 1.748177e+01 8.347878e+01 4.352550e+01 2.198100e+01 1.451355e+01 1.835426e+01 6.155630e+01
<GCONST> 5.796124e+01
<STATE> 4
<MEAN> 12
 -4.003204e+00 -5.799733e+00 -4.961879e+00 2.881333e+00 2.208194e+00 -8.846378e-01 5.655379e+00 -2.785004e+00 -4.989806e+00 2.390095e+00 4.306112e+00 6.383733e+00
<VARIANCE> 12
 6.821475e+00 1.003578e+01 1.151449e+01 1.472000e+01 1.639160e+01 1.748177e+01 1.911930e+01 1.842058e+01 3.457278e+01 3.333327e+01 1.764538e+01 1.664042e+01
<GCONST> 5.566760e+01
<STATE> 5
<MEAN> 12
 6.862291e+00 4.191254e+00 -6.080453e+00 -1.937633e-01 -6.876656e+00 -8.518214e-01 3.917800e+00 -1.510869e+01 4.105787e+00 3.961362e+00 1.071472e+01 -4.641733e+00
<VARIANCE> 12
 6.821475e+00 1.407009e+01 7.964918e+00 1.472000e+01 1.639160e+01 1.748177e+01 9.168104e+00 1.648867e+01 6.810209e+00 1.763333e+01 1.089975e+01 2.137884e+01
<GCONST> 5.229859e+01
<STATE> 6
<MEAN> 12
 2.172359e+00 7.381898e+00 -8.653880e-01 2.074071e+00 -5.240446e+00 1.394423e+00 -4.442536e+00 -1.538935e+00 1.911674e+00 -3.362202e+00 8.059156e-01 -2.318729e+00
<VARIANCE> 12
 3.707638e+01 1.003578e+01 2.302773e+01 3.799570e+01 1.711796e+01 2.244598e+01 1.201511e+01 3.753210e+01 5.049482e+01 3.161583e+01 3.411434e+01 1.561996e+01
<GCONST> 6.046423e+01
<STATE> 7
<MEAN> 12
 3.959522e+00 -5.259461e-01 -6.451347e+00 2.524064e+00 -3.339549e-01 -1.039505e+01 -3.943488e+00 8.226909e+00 5.863613e-01 -4.817443e+00 -1.211167e+01 -4.999349e+00
<VARIANCE> 12
 2.395696e+01 1.003578e+01 3.641758e+01 1.472000e+01 1.639160e+01 3.591488e+01 2.554933e+01 6.163619e+01 8.073080e+01 1.095059e+01 1.725361e+01 1.348920e+01
<GCONST> 5.979541e+01
<STATE> 8
<MEAN> 12
 -4.926119e+00 6.210643e-01 6.101962e+00 -9.549712e+00 -1.140558e+01 1.274144e+01 -2.074501e+00 2.667325e+00 -5.820962e+00 -9.729087e+00 -4.711097e+00 -3.600231e+00
<VARIANCE> 12
 6.821475e+00 1.165365e+01 7.964918e+00 2.194453e+01 1.639160e+01 1.748177e+01 8.978041e+00 1.640690e+01 1.503088e+01 3.054718e+01 2.302941e+01 3.484230e+01
<GCONST> 5.506118e+01
<STATE> 9
<MEAN> 12
 -7.068347e+00 7.125012e-01 2.407667e+00 -1.339751e+01 -1.329110e+00 1.936150e+01 -1.002346e+01 3.021501e+00 -4.098732e+00 -1.237368e+01 3.966644e+00 7.764221e+00
<VARIANCE> 12
 6.821475e+00 1.250389e+01 7.964918e+00 1.472000e+01 2.701288e+01 1.748177e+01 8.978041e+00 1.938929e+01 6.810209e+00 2.740278e+01 1.030533e+01 9.051640e+00
<GCONST> 5.234655e+01
<STATE> 10
<MEAN> 12
 -5.673026e+00 -6.980168e+00 6.684978e+00 1.797536e+00 7.068212e+00 4.262628e+00 -5.244902e+00 -7.880957e-01 -1.172801e+00 6.067539e+00 -2.425868e+00 2.842755e+00
<VARIANCE> 12
 6.821475e+00 1.003578e+01 7.964918e+00 1.472000e+01 1.639160e+01 1.748177e+01 1.658629e+01 1.640690e+01 6.810209e+00 1.095059e+01 1.328687e+01 9.214768e+00
<GCONST> 5.142862e+01
<STATE> 11
<MEAN> 12
 -2.876377e+00 -7.697548e+00 7.446585e+00 1.076014e+01 1.272590e+01 1.143834e+00 4.906445e+00 4.222952e-01 5.921167e-01 6.580787e+00 -9.006140e-01 3.319051e+00
<VARIANCE> 12
 6.821475e+00 1.150842e+01 7.964918e+00 1.472000e+01 1.639160e+01 3.474918e+01 2.233829e+01 1.799127e+01 9.468962e+00 1.322404e+01 1.688481e+01 8.560607e+00
<GCONST> 5.332669e+01
<TRANSP> 12
 0.000000e+00 1.000000e+00 0.000000e+00 0.000000e+00 0.000000e+00 0.000000e+00 0.000000e+00 0.000000e+00 0.000000e+00 0.000000e+00 0.000000e+00 0.000000e+00
 0.000000e+00 8.339582e-01 1.660418e-01 0.000000e+00 0.000000e+00 0.000000e+00 0.000000e+00 0.000000e+00 0.000000e+00 0.000000e+00 0.000000e+00 0.000000e+00
 0.000000e+00 0.000000e+00 8.327037e-01 1.672963e-01 0.000000e+00 0.000000e+00 0.000000e+00 0.000000e+00 0.000000e+00 0.000000e+00 0.000000e+00 0.000000e+00
 0.000000e+00 0.000000e+00 0.000000e+00 8.987455e-01 1.012544e-01 0.000000e+00 0.000000e+00 0.000000e+00 0.000000e+00 0.000000e+00 0.000000e+00 0.000000e+00
 0.000000e+00 0.000000e+00 0.000000e+00 0.000000e+00 8.769342e-01 1.230657e-01 0.000000e+00 0.000000e+00 0.000000e+00 0.000000e+00 0.000000e+00 0.000000e+00
 0.000000e+00 0.000000e+00 0.000000e+00 0.000000e+00 0.000000e+00 8.891110e-01 1.108890e-01 0.000000e+00 0.000000e+00 0.000000e+00 0.000000e+00 0.000000e+00
 0.000000e+00 0.000000e+00 0.000000e+00 0.000000e+00 0.000000e+00 0.000000e+00 8.278957e-01 1.721043e-01 0.000000e+00 0.000000e+00 0.000000e+00 0.000000e+00
 0.000000e+00 0.000000e+00 0.000000e+00 0.000000e+00 0.000000e+00 0.000000e+00 0.000000e+00 7.544656e-01 2.455344e-01 0.000000e+00 0.000000e+00 0.000000e+00
 0.000000e+00 0.000000e+00 0.000000e+00 0.000000e+00 0.000000e+00 0.000000e+00 0.000000e+00 0.000000e+00 8.038044e-01 1.961956e-01 0.000000e+00 0.000000e+00
 0.000000e+00 0.000000e+00 0.000000e+00 0.000000e+00 0.000000e+00 0.000000e+00 0.000000e+00 0.000000e+00 0.000000e+00 7.096224e-01 2.903776e-01 0.000000e+00
 0.000000e+00 0.000000e+00 0.000000e+00 0.000000e+00 0.000000e+00 0.000000e+00 0.000000e+00 0.000000e+00 0.000000e+00 0.000000e+00 9.313008e-01 6.869926e-02
 0.000000e+00 0.000000e+00 0.000000e+00 0.000000e+00 0.000000e+00 0.000000e+00 0.000000e+00 0.000000e+00 0.000000e+00 0.000000e+00 0.000000e+00 0.000000e+00
<ENDHMM>
