~o
<STREAMINFO> 1 12
<VECSIZE> 12<NULLD><MFCC_Z><DIAGC>
~h "s061"
<BEGINHMM>
<NUMSTATES> 8
<STATE> 2
<MEAN> 12
 -1.651849e+00 -6.689605e+00 -1.220443e+01 5.236108e+00 -2.568354e+00 -1.355925e+00 1.876882e-01 8.061193e-01 -9.719088e-02 -8.675256e+00 -1.031729e+01 1.167712e+00
<VARIANCE> 12
 9.907453e+00 3.845295e+00 2.142674e+01 1.128878e+01 4.951278e+01 4.424353e+01 1.019114e+01 1.667671e+01 8.016412e+00 6.929552e+01 7.132680e+00 3.910651e+01
<GCONST> 5.596143e+01
<STATE> 3
<MEAN> 12
 3.543264e+00 7.612126e-02 -5.208916e+00 -2.697439e+00 2.220850e+00 8.520908e-01 5.242775e-02 -8.383037e+00 -1.995666e-01 7.799302e+00 -7.278911e-01 2.159035e+00
<VARIANCE> 12
 4.135072e+00 5.487941e+00 1.991362e+01 1.128878e+01 2.128535e+01 1.694475e+01 1.821731e+01 1.271277e+01 1.326321e+01 1.470933e+01 3.564124e+01 1.816444e+01
<GCONST> 5.367120e+01
<STATE> 4
<MEAN> 12
 4.805809e+00 2.056020e+00 3.909588e+00 5.740582e+00 5.445299e+00 -4.918520e+00 -4.523918e-01 3.336833e+00 3.811061e+00 6.953679e+00 3.375321e+00 -4.797081e+00
<VARIANCE> 12
 5.798130e+00 3.845295e+00 1.011744e+01 1.128878e+01 5.482556e+00 1.492249e+01 6.162416e+01 4.573166e+01 2.358676e+01 1.181406e+01 1.830155e+01 5.430203e+00
<GCONST> 5.247421e+01
<STATE> 5
<MEAN> 12
 -7.208948e+00 7.698672e+00 1.191249e+01 -1.537373e+01 -1.473747e+00 9.319230e-01 -9.895204e+00 1.384633e+01 3.768727e+00 1.772877e-01 5.869383e+00 -6.034937e+00
<VARIANCE> 12
 1.059854e+01 8.992894e+00 1.011744e+01 1.128878e+01 3.882927e+00 5.968223e+00 1.046530e+01 2.060301e+01 5.724119e+00 1.089443e+01 4.473796e+01 7.132691e+00
<GCONST> 4.976474e+01
<STATE> 6
<MEAN> 12
 -7.050151e+00 -2.387928e+00 4.793283e+00 -4.365724e+00 -2.171630e-01 9.269453e+00 5.186028e+00 1.152021e-01 -9.220341e+00 -4.392546e-01 -4.639279e+00 4.656857e+00
<VARIANCE> 12
 4.135072e+00 1.364576e+01 1.355134e+01 3.222720e+01 3.882927e+00 1.282449e+01 1.496700e+01 1.271277e+01 3.858620e+01 1.241922e+01 7.132680e+00 5.430203e+00
<GCONST> 5.115196e+01
<STATE> 7
<MEAN> 12
 1.382897e+00 -3.077126e+00 -3.187788e+00 6.157060e+00 -3.995316e+00 1.265535e+00 5.954786e+00 -7.814835e+00 -3.325549e+00 -6.982975e+00 3.308683e-01 5.277103e+00
<VARIANCE> 12
 9.729227e+00 6.058168e+00 1.011744e+01 1.513146e+01 6.027187e+00 1.226910e+01 7.344074e+00 2.314911e+01 3.268533e+01 9.125870e+00 1.869766e+01 2.157101e+01
<GCONST> 5.229911e+01
<TRANSP> 8
 0.000000e+00 1.000000e+00 0.000000e+00 0.000000e+00 0.000000e+00 0.000000e+00 0.000000e+00 0.000000e+00
 0.000000e+00 8.566380e-01 1.433621e-01 0.000000e+00 0.000000e+00 0.000000e+00 0.000000e+00 0.000000e+00
 0.000000e+00 0.000000e+00 8.842167e-01 1.157833e-01 0.000000e+00 0.000000e+00 0.000000e+00 0.000000e+00
 0.000000e+00 0.000000e+00 0.000000e+00 9.121868e-01 8.781319e-02 0.000000e+00 0.000000e+00 0.000000e+00
 0.000000e+00 0.000000e+00 0.000000e+00 0.000000e+00 8.888883e-01 1.111117e-01 0.000000e+00 0.000000e+00
 0.000000e+00 0.000000e+00 0.000000e+00 0.000000e+00 0.000000e+00 7.284429e-01 2.715571e-01 0.000000e+00
 0.000000e+00 0.000000e+00 0.000000e+00 0.000000e+00 0.000000e+00 0.000000e+00 9.188154e-01 8.118466e-02
 0.000000e+00 0.000000e+00 0.000000e+00 0.000000e+00 0.000000e+00 0.000000e+00 0.000000e+00 0.000000e+00
<ENDHMM>
