~o
<STREAMINFO> 1 12
<VECSIZE> 12<NULLD><MFCC_Z><DIAGC>
~h "s054"
<BEGINHMM>
<NUMSTATES> 9
<STATE> 2
<MEAN> 12
 2.030503e+00 7.727983e+00 1.068900e+01 -8.978875e+00 -4.896304e+00 -1.265061e+00 -1.420219e+01 1.190595e+01 4.319512e-01 -2.508640e+00 8.573363e+00 -3.887635e+00
<VARIANCE> 12
 4.693179e+00 1.115316e+01 7.590539e+00 1.526160e+01 7.056634e+00 1.426741e+01 9.555467e+00 1.991153e+01 3.839911e+00 7.547538e+00 9.425695e+00 7.711594e+00
<GCONST> 4.827779e+01
<STATE> 3
<MEAN> 12
 -2.526367e+00 1.354850e+01 3.999926e+00 -1.563548e+00 1.236789e+00 -6.589972e+00 4.445822e-01 1.106533e+01 4.539907e+00 -1.691222e+00 3.179859e+00 3.662543e+00
<VARIANCE> 12
 3.310056e+00 1.115316e+01 7.375241e+00 5.309909e+01 2.441185e+01 1.271270e+01 1.962598e+01 1.991153e+01 2.010964e+01 8.970894e+00 9.425695e+00 1.180009e+01
<GCONST> 5.324606e+01
<STATE> 4
<MEAN> 12
 -3.207701e+00 6.260162e+00 3.000610e+00 1.306322e+00 8.282910e+00 2.767415e+00 2.025780e+00 1.158854e+01 3.032557e+00 9.969847e-01 2.203676e+00 2.691599e+00
<VARIANCE> 12
 2.880476e+01 3.703351e+01 2.529722e+01 3.691895e+01 5.960364e+01 2.079167e+01 4.807081e+01 1.991153e+01 3.005914e+01 4.078242e+01 2.804649e+01 3.937343e+01
<GCONST> 6.397093e+01
<STATE> 5
<MEAN> 12
 -7.400842e-01 -7.297225e+00 1.562719e-01 -5.737853e+00 3.528957e-01 5.070747e+00 6.860115e+00 1.071795e+00 -1.825377e+00 4.987966e-01 4.102516e+00 -3.239834e+00
<VARIANCE> 12
 8.715055e+00 1.115316e+01 1.231516e+01 8.864960e+00 1.573578e+01 4.121136e+00 1.370614e+01 3.746716e+01 5.630478e+01 6.851934e+00 2.125130e+01 4.145097e+00
<GCONST> 5.217126e+01
<STATE> 6
<MEAN> 12
 -4.490918e+00 -1.148995e+01 -4.410331e+00 2.523320e+00 4.687157e+00 3.117489e+00 2.334107e+00 -8.675179e+00 -3.219963e+00 6.369871e+00 6.933595e-01 -9.382375e-02
<VARIANCE> 12
 3.310056e+00 1.115316e+01 7.375241e+00 2.205540e+01 7.056634e+00 4.920462e+00 1.585077e+01 1.991153e+01 6.704826e+00 1.531918e+01 3.876579e+01 1.391298e+01
<GCONST> 5.097908e+01
<STATE> 7
<MEAN> 12
 1.285249e+00 -6.497179e+00 -7.343522e+00 2.078791e+00 -4.720580e+00 -1.752506e+00 3.204884e+00 -1.234643e+01 1.128067e+00 -6.014037e-01 -1.086066e+01 1.321756e+00
<VARIANCE> 12
 2.020592e+01 1.233801e+01 7.375241e+00 7.644966e+00 1.678232e+01 1.991652e+01 9.555467e+00 1.991153e+01 1.102360e+01 1.625091e+01 1.179140e+01 2.980973e+01
<GCONST> 5.371605e+01
<STATE> 8
<MEAN> 12
 5.350804e+00 -2.296452e+00 -6.233575e+00 7.495406e+00 -4.515937e+00 -2.453135e+00 3.916110e+00 -1.279737e+01 -3.198560e+00 -2.564031e+00 -5.921865e+00 1.635496e-02
<VARIANCE> 12
 3.310056e+00 1.115316e+01 7.375241e+00 1.737721e+01 8.184689e+00 1.802716e+01 9.555467e+00 1.991153e+01 1.840211e+01 2.233884e+01 3.627642e+01 2.731892e+01
<GCONST> 5.367660e+01
<TRANSP> 9
 0.000000e+00 1.000000e+00 0.000000e+00 0.000000e+00 0.000000e+00 0.000000e+00 0.000000e+00 0.000000e+00 0.000000e+00
 0.000000e+00 8.960509e-01 1.039491e-01 0.000000e+00 0.000000e+00 0.000000e+00 0.000000e+00 0.000000e+00 0.000000e+00
 0.000000e+00 0.000000e+00 7.563208e-01 2.436792e-01 0.000000e+00 0.000000e+00 0.000000e+00 0.000000e+00 0.000000e+00
 0.000000e+00 0.000000e+00 0.000000e+00 9.039480e-01 9.605199e-02 0.000000e+00 0.000000e+00 0.000000e+00 0.000000e+00
 0.000000e+00 0.000000e+00 0.000000e+00 0.000000e+00 7.936475e-01 2.063525e-01 0.000000e+00 0.000000e+00 0.000000e+00
 0.000000e+00 0.000000e+00 0.000000e+00 0.000000e+00 0.000000e+00 8.660558e-01 1.339442e-01 0.000000e+00 0.000000e+00
 0.000000e+00 0.000000e+00 0.000000e+00 0.000000e+00 0.000000e+00 0.000000e+00 8.752136e-01 1.247864e-01 0.000000e+00
 0.000000e+00 0.000000e+00 0.000000e+00 0.000000e+00 0.000000e+00 0.000000e+00 0.000000e+00 8.951733e-01 1.048267e-01
 0.000000e+00 0.000000e+00 0.000000e+00 0.000000e+00 0.000000e+00 0.000000e+00 0.000000e+00 0.000000e+00 0.000000e+00
<ENDHMM>
