~o
<STREAMINFO> 1 12
<VECSIZE> 12<NULLD><MFCC_Z><DIAGC>
~h "s072"
<BEGINHMM>
<NUMSTATES> 11
<STATE> 2
<MEAN> 12
 -1.129381e+01 9.796193e-01 4.565171e+00 1.805272e+00 1.215780e+01 3.295613e+00 -1.418098e+00 -1.565004e+00 6.348898e+00 1.108294e+00 3.539561e+00 4.588928e+00
<VARIANCE> 12
 4.560850e+01 4.548880e+01 2.093865e+01 1.385536e+01 1.597592e+02 2.654622e+01 7.058001e+00 7.091390e+01 4.286843e+01 4.747815e+01 3.578703e+01 3.353324e+01
<GCONST> 6.463908e+01
<STATE> 3
<MEAN> 12
 -5.124084e+00 -4.115917e+00 7.844236e-01 1.942716e+00 1.510952e+00 1.317620e+00 -4.846711e-01 -7.809645e+00 3.189510e+00 -2.152426e+00 2.048864e+00 2.016863e+00
<VARIANCE> 12
 4.420662e+01 4.118838e+01 2.274024e+01 1.653873e+01 1.290988e+02 3.170376e+01 9.618904e+00 7.688534e+01 3.575543e+01 3.611018e+01 2.426629e+01 2.977222e+01
<GCONST> 6.416039e+01
<STATE> 4
<MEAN> 12
 -1.459252e+00 -4.955388e+00 -1.195415e+00 1.861980e+00 -3.347404e+00 7.228804e-01 1.285888e-01 -8.089648e+00 2.799222e+00 -1.698130e+00 6.819729e-01 3.137511e-01
<VARIANCE> 12
 2.130620e+01 2.253152e+01 1.323016e+01 1.623641e+01 4.389400e+01 4.804137e+01 1.392914e+01 7.805920e+01 5.075710e+01 3.088140e+01 1.475292e+01 2.080418e+01
<GCONST> 6.132728e+01
<STATE> 5
<MEAN> 12
 6.172015e-02 -3.466816e+00 -1.799735e+00 2.226587e+00 -4.328236e+00 -7.094657e-01 8.937132e-01 -3.193792e+00 7.773792e-01 -8.995623e-01 -7.096715e-02 -5.596208e-01
<VARIANCE> 12
 1.205661e+01 1.740144e+01 1.386026e+01 1.629427e+01 2.149399e+01 7.912355e+01 2.388109e+01 9.879965e+01 7.198838e+01 2.472053e+01 1.461000e+01 1.774102e+01
<GCONST> 6.106721e+01
<STATE> 6
<MEAN> 12
 8.231950e-01 -1.523973e+00 -1.760602e+00 1.949537e+00 -3.923342e+00 -2.930696e+00 2.035204e+00 2.740862e+00 -2.759699e+00 -5.718111e-01 -5.436564e-01 -1.277647e+00
<VARIANCE> 12
 9.088732e+00 2.390350e+01 2.054008e+01 2.713552e+01 1.830502e+01 8.941578e+01 3.441665e+01 8.314840e+01 6.815875e+01 2.320769e+01 1.651362e+01 1.576550e+01
<GCONST> 6.204679e+01
<STATE> 7
<MEAN> 12
 1.708657e+00 1.226174e+00 -5.389776e-01 -3.395523e-01 -2.577323e+00 -3.249321e+00 2.458989e+00 7.146020e+00 -4.909070e+00 -3.495114e-01 -8.868952e-01 -1.719280e+00
<VARIANCE> 12
 9.088732e+00 3.808661e+01 2.966306e+01 5.224089e+01 1.752135e+01 7.695903e+01 3.845398e+01 5.546402e+01 4.236923e+01 3.082034e+01 1.658173e+01 1.504638e+01
<GCONST> 6.281311e+01
<STATE> 8
<MEAN> 12
 2.984402e+00 4.180760e+00 9.087644e-01 -3.908405e+00 -6.512617e-01 -1.287688e+00 1.087456e+00 8.307335e+00 -4.295500e+00 6.494436e-01 -1.411465e+00 -1.705548e+00
<VARIANCE> 12
 9.088732e+00 3.821642e+01 3.277980e+01 5.926202e+01 1.469510e+01 5.673267e+01 3.550260e+01 5.551735e+01 2.892731e+01 4.845420e+01 1.428514e+01 1.561044e+01
<GCONST> 6.244135e+01
<STATE> 9
<MEAN> 12
 5.011936e+00 4.884383e+00 8.320108e-02 -5.110478e+00 6.736372e-01 1.624727e-01 -1.188636e+00 4.407983e+00 -1.670388e+00 2.471506e+00 -1.793335e+00 -8.573210e-01
<VARIANCE> 12
 9.726295e+00 2.650517e+01 3.315205e+01 4.469359e+01 1.380984e+01 3.351615e+01 2.285924e+01 8.597897e+01 2.890950e+01 5.521832e+01 1.118623e+01 1.643127e+01
<GCONST> 6.121784e+01
<STATE> 10
<MEAN> 12
 7.287110e+00 2.791163e+00 -1.046860e+00 -4.274951e-01 4.853757e-01 2.678663e+00 -3.512560e+00 -1.944069e+00 5.196310e-01 1.442207e+00 -1.563997e+00 -8.000847e-01
<VARIANCE> 12
 9.088732e+00 1.425822e+01 2.263456e+01 4.747145e+01 1.380984e+01 4.032443e+01 1.118312e+01 5.472713e+01 2.092861e+01 3.839247e+01 9.007936e+00 1.556532e+01
<GCONST> 5.826973e+01
<TRANSP> 11
 0.000000e+00 1.000000e+00 0.000000e+00 0.000000e+00 0.000000e+00 0.000000e+00 0.000000e+00 0.000000e+00 0.000000e+00 0.000000e+00 0.000000e+00
 0.000000e+00 8.695652e-01 1.304348e-01 0.000000e+00 0.000000e+00 0.000000e+00 0.000000e+00 0.000000e+00 0.000000e+00 0.000000e+00 0.000000e+00
 0.000000e+00 0.000000e+00 8.695652e-01 1.304348e-01 0.000000e+00 0.000000e+00 0.000000e+00 0.000000e+00 0.000000e+00 0.000000e+00 0.000000e+00
 0.000000e+00 0.000000e+00 0.000000e+00 8.695652e-01 1.304348e-01 0.000000e+00 0.000000e+00 0.000000e+00 0.000000e+00 0.000000e+00 0.000000e+00
 0.000000e+00 0.000000e+00 0.000000e+00 0.000000e+00 8.695652e-01 1.304348e-01 0.000000e+00 0.000000e+00 0.000000e+00 0.000000e+00 0.000000e+00
 0.000000e+00 0.000000e+00 0.000000e+00 0.000000e+00 0.000000e+00 8.695652e-01 1.304348e-01 0.000000e+00 0.000000e+00 0.000000e+00 0.000000e+00
 0.000000e+00 0.000000e+00 0.000000e+00 0.000000e+00 0.000000e+00 0.000000e+00 8.695652e-01 1.304348e-01 0.000000e+00 0.000000e+00 0.000000e+00
 0.000000e+00 0.000000e+00 0.000000e+00 0.000000e+00 0.000000e+00 0.000000e+00 0.000000e+00 8.695652e-01 1.304348e-01 0.000000e+00 0.000000e+00
 0.000000e+00 0.000000e+00 0.000000e+00 0.000000e+00 0.000000e+00 0.000000e+00 0.000000e+00 0.000000e+00 8.695652e-01 1.304348e-01 0.000000e+00
 0.000000e+00 0.000000e+00 0.000000e+00 0.000000e+00 0.000000e+00 0.000000e+00 0.000000e+00 0.000000e+00 0.000000e+00 8.695652e-01 1.304348e-01
 0.000000e+00 0.000000e+00 0.000000e+00 0.000000e+00 0.000000e+00 0.000000e+00 0.000000e+00 0.000000e+00 0.000000e+00 0.000000e+00 0.000000e+00
<ENDHMM>
