~o
<STREAMINFO> 1 12
<VECSIZE> 12<NULLD><MFCC_Z><DIAGC>
~h "T1375864630"
<BEGINHMM>
<NUMSTATES> 7
<STATE> 2
<MEAN> 12
 -1.310352e+00 -3.481638e-01 6.306314e-01 -4.690745e-02 -7.299714e+00 -4.428014e-01 2.583429e+00 2.311467e+00 -2.353507e+00 -1.121663e+00 -6.560912e-01 -3.733324e+00
<VARIANCE> 12
 3.932911e+01 2.185962e+01 2.448652e+01 4.992761e+01 1.762297e+01 1.185791e+01 7.334190e+01 1.452695e+01 7.491846e+00 1.587656e+01 5.223096e+01 3.501629e+01
<GCONST> 6.052332e+01
<STATE> 3
<MEAN> 12
 -4.308998e+00 1.987301e+00 4.616541e+00 -4.715431e+00 -4.907683e+00 -5.211431e-01 -1.084859e+00 1.391993e+00 -9.259396e-01 5.080858e-01 -2.398043e+00 -2.760048e+00
<VARIANCE> 12
 2.354503e+01 1.988127e+01 3.399298e+01 4.454558e+01 3.710462e+01 1.498301e+01 6.411754e+01 1.177655e+01 1.554261e+01 1.852858e+01 3.461345e+01 3.546202e+01
<GCONST> 6.124898e+01
<STATE> 4
<MEAN> 12
 -1.048494e+00 2.214134e+00 4.478005e+00 -3.141540e+00 -1.601546e-01 -3.805158e-01 -4.022513e+00 6.895249e-01 6.829677e-01 1.686336e+00 -5.090221e-02 -1.530140e-01
<VARIANCE> 12
 3.765803e+01 1.087427e+01 5.726949e+01 3.917410e+01 4.379111e+01 1.786923e+01 3.145900e+01 1.183679e+01 1.825121e+01 2.648690e+01 2.497603e+01 2.323067e+01
<GCONST> 6.091193e+01
<STATE> 5
<MEAN> 12
 3.041723e+00 5.958303e-01 -1.329918e+00 1.457720e+00 4.458391e+00 6.887093e-01 -1.390542e+00 -6.403536e-01 2.056927e+00 1.413535e+00 1.010284e+00 1.889350e+00
<VARIANCE> 12
 2.847827e+01 1.683170e+01 8.098414e+01 3.142554e+01 3.201058e+01 1.598911e+01 4.377957e+01 1.655884e+01 1.833023e+01 3.657978e+01 1.677079e+01 2.190627e+01
<GCONST> 6.130732e+01
<STATE> 6
<MEAN> 12
 3.626131e+00 -4.449067e+00 -8.395232e+00 6.446143e+00 7.909164e+00 6.557204e-01 3.914397e+00 -3.752605e+00 5.395555e-01 -2.486290e+00 2.094766e+00 4.757041e+00
<VARIANCE> 12
 1.207445e+01 3.813591e+01 3.923439e+01 2.641443e+01 1.275068e+01 8.608499e+00 3.564138e+01 2.683576e+01 2.353219e+01 3.124520e+01 1.286200e+01 2.405474e+01
<GCONST> 5.902666e+01
<TRANSP> 7
 0.000000e+00 1.000000e+00 0.000000e+00 0.000000e+00 0.000000e+00 0.000000e+00 0.000000e+00
 0.000000e+00 8.913043e-01 1.086956e-01 0.000000e+00 0.000000e+00 0.000000e+00 0.000000e+00
 0.000000e+00 0.000000e+00 8.913043e-01 1.086956e-01 0.000000e+00 0.000000e+00 0.000000e+00
 0.000000e+00 0.000000e+00 0.000000e+00 8.913043e-01 1.086956e-01 0.000000e+00 0.000000e+00
 0.000000e+00 0.000000e+00 0.000000e+00 0.000000e+00 8.913043e-01 1.086956e-01 0.000000e+00
 0.000000e+00 0.000000e+00 0.000000e+00 0.000000e+00 0.000000e+00 8.913044e-01 1.086957e-01
 0.000000e+00 0.000000e+00 0.000000e+00 0.000000e+00 0.000000e+00 0.000000e+00 0.000000e+00
<ENDHMM>
