~o
<STREAMINFO> 1 12
<VECSIZE> 12<NULLD><MFCC_Z><DIAGC>
~h "T1375867734"
<BEGINHMM>
<NUMSTATES> 15
<STATE> 2
<MEAN> 12
 3.043641e-08 -7.812013e-07 7.101830e-08 3.956734e-07 1.521821e-07 5.580009e-08 -6.975012e-09 -3.043641e-08 -1.217457e-07 -1.724730e-07 1.623275e-07 1.217457e-07
<VARIANCE> 12
 5.481606e+01 4.907880e+01 3.583995e+01 3.878374e+01 6.681416e+01 5.383588e+01 4.264327e+01 3.580379e+01 2.594737e+01 3.584958e+01 3.515511e+01 2.960568e+01
<GCONST> 6.649091e+01
<STATE> 3
<MEAN> 12
 3.043641e-08 -7.812013e-07 7.101830e-08 3.956734e-07 1.521821e-07 5.580009e-08 -6.975012e-09 -3.043641e-08 -1.217457e-07 -1.724730e-07 1.623275e-07 1.217457e-07
<VARIANCE> 12
 5.481606e+01 4.907880e+01 3.583995e+01 3.878374e+01 6.681416e+01 5.383588e+01 4.264327e+01 3.580379e+01 2.594737e+01 3.584958e+01 3.515511e+01 2.960568e+01
<GCONST> 6.649091e+01
<STATE> 4
<MEAN> 12
 3.043641e-08 -7.812013e-07 7.101830e-08 3.956734e-07 1.521821e-07 5.580009e-08 -6.975012e-09 -3.043641e-08 -1.217457e-07 -1.724730e-07 1.623275e-07 1.217457e-07
<VARIANCE> 12
 5.481606e+01 4.907880e+01 3.583995e+01 3.878374e+01 6.681416e+01 5.383588e+01 4.264327e+01 3.580379e+01 2.594737e+01 3.584958e+01 3.515511e+01 2.960568e+01
<GCONST> 6.649091e+01
<STATE> 5
<MEAN> 12
 3.043641e-08 -7.812013e-07 7.101830e-08 3.956734e-07 1.521821e-07 5.580009e-08 -6.975012e-09 -3.043641e-08 -1.217457e-07 -1.724730e-07 1.623275e-07 1.217457e-07
<VARIANCE> 12
 5.481606e+01 4.907880e+01 3.583995e+01 3.878374e+01 6.681416e+01 5.383588e+01 4.264327e+01 3.580379e+01 2.594737e+01 3.584958e+01 3.515511e+01 2.960568e+01
<GCONST> 6.649091e+01
<STATE> 6
<MEAN> 12
 3.043641e-08 -7.812013e-07 7.101830e-08 3.956734e-07 1.521821e-07 5.580009e-08 -6.975012e-09 -3.043641e-08 -1.217457e-07 -1.724730e-07 1.623275e-07 1.217457e-07
<VARIANCE> 12
 5.481606e+01 4.907880e+01 3.583995e+01 3.878374e+01 6.681416e+01 5.383588e+01 4.264327e+01 3.580379e+01 2.594737e+01 3.584958e+01 3.515511e+01 2.960568e+01
<GCONST> 6.649091e+01
<STATE> 7
<MEAN> 12
 3.043641e-08 -7.812013e-07 7.101830e-08 3.956734e-07 1.521821e-07 5.580009e-08 -6.975012e-09 -3.043641e-08 -1.217457e-07 -1.724730e-07 1.623275e-07 1.217457e-07
<VARIANCE> 12
 5.481606e+01 4.907880e+01 3.583995e+01 3.878374e+01 6.681416e+01 5.383588e+01 4.264327e+01 3.580379e+01 2.594737e+01 3.584958e+01 3.515511e+01 2.960568e+01
<GCONST> 6.649091e+01
<STATE> 8
<MEAN> 12
 3.043641e-08 -7.812013e-07 7.101830e-08 3.956734e-07 1.521821e-07 5.580009e-08 -6.975012e-09 -3.043641e-08 -1.217457e-07 -1.724730e-07 1.623275e-07 1.217457e-07
<VARIANCE> 12
 5.481606e+01 4.907880e+01 3.583995e+01 3.878374e+01 6.681416e+01 5.383588e+01 4.264327e+01 3.580379e+01 2.594737e+01 3.584958e+01 3.515511e+01 2.960568e+01
<GCONST> 6.649091e+01
<STATE> 9
<MEAN> 12
 3.043641e-08 -7.812013e-07 7.101830e-08 3.956734e-07 1.521821e-07 5.580009e-08 -6.975012e-09 -3.043641e-08 -1.217457e-07 -1.724730e-07 1.623275e-07 1.217457e-07
<VARIANCE> 12
 5.481606e+01 4.907880e+01 3.583995e+01 3.878374e+01 6.681416e+01 5.383588e+01 4.264327e+01 3.580379e+01 2.594737e+01 3.584958e+01 3.515511e+01 2.960568e+01
<GCONST> 6.649091e+01
<STATE> 10
<MEAN> 12
 3.043641e-08 -7.812013e-07 7.101830e-08 3.956734e-07 1.521821e-07 5.580009e-08 -6.975012e-09 -3.043641e-08 -1.217457e-07 -1.724730e-07 1.623275e-07 1.217457e-07
<VARIANCE> 12
 5.481606e+01 4.907880e+01 3.583995e+01 3.878374e+01 6.681416e+01 5.383588e+01 4.264327e+01 3.580379e+01 2.594737e+01 3.584958e+01 3.515511e+01 2.960568e+01
<GCONST> 6.649091e+01
<STATE> 11
<MEAN> 12
 3.043641e-08 -7.812013e-07 7.101830e-08 3.956734e-07 1.521821e-07 5.580009e-08 -6.975012e-09 -3.043641e-08 -1.217457e-07 -1.724730e-07 1.623275e-07 1.217457e-07
<VARIANCE> 12
 5.481606e+01 4.907880e+01 3.583995e+01 3.878374e+01 6.681416e+01 5.383588e+01 4.264327e+01 3.580379e+01 2.594737e+01 3.584958e+01 3.515511e+01 2.960568e+01
<GCONST> 6.649091e+01
<STATE> 12
<MEAN> 12
 3.043641e-08 -7.812013e-07 7.101830e-08 3.956734e-07 1.521821e-07 5.580009e-08 -6.975012e-09 -3.043641e-08 -1.217457e-07 -1.724730e-07 1.623275e-07 1.217457e-07
<VARIANCE> 12
 5.481606e+01 4.907880e+01 3.583995e+01 3.878374e+01 6.681416e+01 5.383588e+01 4.264327e+01 3.580379e+01 2.594737e+01 3.584958e+01 3.515511e+01 2.960568e+01
<GCONST> 6.649091e+01
<STATE> 13
<MEAN> 12
 3.043641e-08 -7.812013e-07 7.101830e-08 3.956734e-07 1.521821e-07 5.580009e-08 -6.975012e-09 -3.043641e-08 -1.217457e-07 -1.724730e-07 1.623275e-07 1.217457e-07
<VARIANCE> 12
 5.481606e+01 4.907880e+01 3.583995e+01 3.878374e+01 6.681416e+01 5.383588e+01 4.264327e+01 3.580379e+01 2.594737e+01 3.584958e+01 3.515511e+01 2.960568e+01
<GCONST> 6.649091e+01
<STATE> 14
<MEAN> 12
 3.043641e-08 -7.812013e-07 7.101830e-08 3.956734e-07 1.521821e-07 5.580009e-08 -6.975012e-09 -3.043641e-08 -1.217457e-07 -1.724730e-07 1.623275e-07 1.217457e-07
<VARIANCE> 12
 5.481606e+01 4.907880e+01 3.583995e+01 3.878374e+01 6.681416e+01 5.383588e+01 4.264327e+01 3.580379e+01 2.594737e+01 3.584958e+01 3.515511e+01 2.960568e+01
<GCONST> 6.649091e+01
<TRANSP> 15
 0.000000e+00 1.000000e+00 0.000000e+00 0.000000e+00 0.000000e+00 0.000000e+00 0.000000e+00 0.000000e+00 0.000000e+00 0.000000e+00 0.000000e+00 0.000000e+00 0.000000e+00 0.000000e+00 0.000000e+00
 0.000000e+00 9.000000e-01 9.999999e-02 0.000000e+00 0.000000e+00 0.000000e+00 0.000000e+00 0.000000e+00 0.000000e+00 0.000000e+00 0.000000e+00 0.000000e+00 0.000000e+00 0.000000e+00 0.000000e+00
 0.000000e+00 0.000000e+00 9.000000e-01 9.999999e-02 0.000000e+00 0.000000e+00 0.000000e+00 0.000000e+00 0.000000e+00 0.000000e+00 0.000000e+00 0.000000e+00 0.000000e+00 0.000000e+00 0.000000e+00
 0.000000e+00 0.000000e+00 0.000000e+00 9.000000e-01 9.999999e-02 0.000000e+00 0.000000e+00 0.000000e+00 0.000000e+00 0.000000e+00 0.000000e+00 0.000000e+00 0.000000e+00 0.000000e+00 0.000000e+00
 0.000000e+00 0.000000e+00 0.000000e+00 0.000000e+00 9.000000e-01 9.999999e-02 0.000000e+00 0.000000e+00 0.000000e+00 0.000000e+00 0.000000e+00 0.000000e+00 0.000000e+00 0.000000e+00 0.000000e+00
 0.000000e+00 0.000000e+00 0.000000e+00 0.000000e+00 0.000000e+00 9.000000e-01 9.999999e-02 0.000000e+00 0.000000e+00 0.000000e+00 0.000000e+00 0.000000e+00 0.000000e+00 0.000000e+00 0.000000e+00
 0.000000e+00 0.000000e+00 0.000000e+00 0.000000e+00 0.000000e+00 0.000000e+00 9.000000e-01 9.999999e-02 0.000000e+00 0.000000e+00 0.000000e+00 0.000000e+00 0.000000e+00 0.000000e+00 0.000000e+00
 0.000000e+00 0.000000e+00 0.000000e+00 0.000000e+00 0.000000e+00 0.000000e+00 0.000000e+00 9.000000e-01 9.999999e-02 0.000000e+00 0.000000e+00 0.000000e+00 0.000000e+00 0.000000e+00 0.000000e+00
 0.000000e+00 0.000000e+00 0.000000e+00 0.000000e+00 0.000000e+00 0.000000e+00 0.000000e+00 0.000000e+00 9.000000e-01 9.999999e-02 0.000000e+00 0.000000e+00 0.000000e+00 0.000000e+00 0.000000e+00
 0.000000e+00 0.000000e+00 0.000000e+00 0.000000e+00 0.000000e+00 0.000000e+00 0.000000e+00 0.000000e+00 0.000000e+00 9.000000e-01 9.999999e-02 0.000000e+00 0.000000e+00 0.000000e+00 0.000000e+00
 0.000000e+00 0.000000e+00 0.000000e+00 0.000000e+00 0.000000e+00 0.000000e+00 0.000000e+00 0.000000e+00 0.000000e+00 0.000000e+00 9.000000e-01 9.999999e-02 0.000000e+00 0.000000e+00 0.000000e+00
 0.000000e+00 0.000000e+00 0.000000e+00 0.000000e+00 0.000000e+00 0.000000e+00 0.000000e+00 0.000000e+00 0.000000e+00 0.000000e+00 0.000000e+00 9.000000e-01 9.999999e-02 0.000000e+00 0.000000e+00
 0.000000e+00 0.000000e+00 0.000000e+00 0.000000e+00 0.000000e+00 0.000000e+00 0.000000e+00 0.000000e+00 0.000000e+00 0.000000e+00 0.000000e+00 0.000000e+00 9.000000e-01 9.999999e-02 0.000000e+00
 0.000000e+00 0.000000e+00 0.000000e+00 0.000000e+00 0.000000e+00 0.000000e+00 0.000000e+00 0.000000e+00 0.000000e+00 0.000000e+00 0.000000e+00 0.000000e+00 0.000000e+00 9.000000e-01 9.999999e-02
 0.000000e+00 0.000000e+00 0.000000e+00 0.000000e+00 0.000000e+00 0.000000e+00 0.000000e+00 0.000000e+00 0.000000e+00 0.000000e+00 0.000000e+00 0.000000e+00 0.000000e+00 0.000000e+00 0.000000e+00
<ENDHMM>
