~o
<STREAMINFO> 1 12
<VECSIZE> 12<NULLD><MFCC_Z><DIAGC>
~h "s084"
<BEGINHMM>
<NUMSTATES> 9
<STATE> 2
<MEAN> 12
 -9.808311e+00 -8.131461e+00 1.187504e+01 1.158022e+01 5.689820e+00 -4.783127e+00 5.102104e+00 8.630603e+00 3.420212e+00 -1.476200e+00 7.058645e-01 4.972865e+00
<VARIANCE> 12
 2.951297e+01 9.095326e+00 2.328138e+01 1.743463e+01 1.396420e+01 8.644198e+00 1.981254e+01 3.122287e+01 1.927970e+01 6.361462e+00 1.048282e+01 3.035449e+01
<GCONST> 5.544608e+01
<STATE> 3
<MEAN> 12
 -6.795544e+00 -6.907141e+00 2.859294e+00 4.792683e+00 1.224486e+00 -3.608045e+00 -1.014838e+00 1.449449e+00 -6.691320e+00 2.956812e+00 1.657443e+00 2.503653e+00
<VARIANCE> 12
 7.852960e+00 7.212645e+00 1.192762e+01 1.743463e+01 2.024147e+01 1.717068e+01 4.225958e+00 2.138349e+01 1.602753e+01 2.500965e+01 1.473130e+01 4.462759e+00
<GCONST> 5.196268e+01
<STATE> 4
<MEAN> 12
 3.581488e-01 -2.106359e+00 -5.482716e-01 8.277274e+00 -2.304472e+00 -7.482993e+00 -4.943465e+00 3.399204e+00 -3.172902e+00 -7.101491e+00 -6.546178e+00 -3.939520e+00
<VARIANCE> 12
 7.852960e+00 1.235623e+01 1.192762e+01 1.743463e+01 2.427637e+01 8.061296e+00 2.054780e+01 1.307088e+01 1.445587e+01 1.582034e+01 1.027345e+01 4.800594e+00
<GCONST> 5.216731e+01
<STATE> 5
<MEAN> 12
 3.270373e+00 3.168143e+00 1.075095e+00 9.915300e+00 -3.040342e+00 -1.683444e+00 1.576470e+00 -1.542027e+00 5.831700e-01 -1.414917e+00 1.535848e+00 -3.824356e+00
<VARIANCE> 12
 7.852960e+00 7.212645e+00 1.192762e+01 1.743463e+01 9.573391e+00 6.505216e+00 4.437135e+00 1.624805e+01 1.518099e+01 1.998648e+01 2.173225e+01 4.462759e+00
<GCONST> 5.012780e+01
<STATE> 6
<MEAN> 12
 4.058013e+00 4.790238e+00 -8.684322e+00 -4.238727e+00 1.340059e+00 3.688420e+00 2.849326e+00 -1.401455e+00 7.165990e+00 -1.440521e+00 3.760665e+00 -2.786486e+00
<VARIANCE> 12
 7.852960e+00 7.212645e+00 1.673248e+01 3.469804e+01 4.353387e+00 6.505216e+00 9.817033e+00 7.684842e+00 1.330937e+01 9.492867e+00 7.588859e+00 7.901505e+00
<GCONST> 4.905496e+01
<STATE> 7
<MEAN> 12
 4.610923e+00 6.164097e+00 -8.245588e+00 -1.102467e+01 1.822321e-01 5.076610e+00 -2.725188e+00 -2.783266e+00 2.569926e+00 2.927112e+00 1.573030e-01 1.816628e+00
<VARIANCE> 12
 7.852960e+00 7.212645e+00 1.743419e+01 1.743463e+01 1.032145e+01 6.505216e+00 8.383839e+00 6.688419e+00 1.118191e+01 8.899233e+00 1.671315e+01 1.814095e+01
<GCONST> 5.035629e+01
<STATE> 8
<MEAN> 12
 5.052000e+00 3.539244e+00 3.552534e+00 -8.649449e+00 -4.368538e+00 5.090404e+00 9.842175e-02 -6.182810e+00 -2.771729e+00 2.277066e+00 -1.516571e+00 -1.506736e+00
<VARIANCE> 12
 7.852960e+00 7.212645e+00 1.368261e+01 1.743463e+01 4.353387e+00 1.016577e+01 9.304081e+00 6.688419e+00 1.844893e+01 1.800307e+01 2.164243e+01 1.620292e+01
<GCONST> 5.115204e+01
<TRANSP> 9
 0.000000e+00 1.000000e+00 0.000000e+00 0.000000e+00 0.000000e+00 0.000000e+00 0.000000e+00 0.000000e+00 0.000000e+00
 0.000000e+00 8.676702e-01 1.323298e-01 0.000000e+00 0.000000e+00 0.000000e+00 0.000000e+00 0.000000e+00 0.000000e+00
 0.000000e+00 0.000000e+00 8.965425e-01 1.034574e-01 0.000000e+00 0.000000e+00 0.000000e+00 0.000000e+00 0.000000e+00
 0.000000e+00 0.000000e+00 0.000000e+00 8.565935e-01 1.434065e-01 0.000000e+00 0.000000e+00 0.000000e+00 0.000000e+00
 0.000000e+00 0.000000e+00 0.000000e+00 0.000000e+00 6.811363e-01 3.188637e-01 0.000000e+00 0.000000e+00 0.000000e+00
 0.000000e+00 0.000000e+00 0.000000e+00 0.000000e+00 0.000000e+00 8.854115e-01 1.145885e-01 0.000000e+00 0.000000e+00
 0.000000e+00 0.000000e+00 0.000000e+00 0.000000e+00 0.000000e+00 0.000000e+00 8.911872e-01 1.088128e-01 0.000000e+00
 0.000000e+00 0.000000e+00 0.000000e+00 0.000000e+00 0.000000e+00 0.000000e+00 0.000000e+00 8.974466e-01 1.025534e-01
 0.000000e+00 0.000000e+00 0.000000e+00 0.000000e+00 0.000000e+00 0.000000e+00 0.000000e+00 0.000000e+00 0.000000e+00
<ENDHMM>
