~o
<STREAMINFO> 1 12
<VECSIZE> 12<NULLD><MFCC_Z><DIAGC>
~h "s025"
<BEGINHMM>
<NUMSTATES> 12
<STATE> 2
<MEAN> 12
 7.285012e-08 9.271834e-08 -1.241763e-07 4.503462e-07 2.516641e-07 4.768372e-07 -4.635917e-08 1.059638e-07 5.298191e-08 3.245142e-07 -1.589457e-07 3.576279e-07
<VARIANCE> 12
 2.431573e+01 3.731596e+01 2.755960e+01 6.671961e+01 2.263590e+01 2.919205e+01 5.333148e+01 8.587224e+01 2.593916e+01 4.258612e+01 3.254454e+01 5.649050e+01
<GCONST> 6.582870e+01
<STATE> 3
<MEAN> 12
 7.285012e-08 9.271834e-08 -1.241763e-07 4.503462e-07 2.516641e-07 4.768372e-07 -4.635917e-08 1.059638e-07 5.298191e-08 3.245142e-07 -1.589457e-07 3.576279e-07
<VARIANCE> 12
 2.431573e+01 3.731596e+01 2.755960e+01 6.671961e+01 2.263590e+01 2.919205e+01 5.333148e+01 8.587224e+01 2.593916e+01 4.258612e+01 3.254454e+01 5.649050e+01
<GCONST> 6.582870e+01
<STATE> 4
<MEAN> 12
 7.285012e-08 9.271834e-08 -1.241763e-07 4.503462e-07 2.516641e-07 4.768372e-07 -4.635917e-08 1.059638e-07 5.298191e-08 3.245142e-07 -1.589457e-07 3.576279e-07
<VARIANCE> 12
 2.431573e+01 3.731596e+01 2.755960e+01 6.671961e+01 2.263590e+01 2.919205e+01 5.333148e+01 8.587224e+01 2.593916e+01 4.258612e+01 3.254454e+01 5.649050e+01
<GCONST> 6.582870e+01
<STATE> 5
<MEAN> 12
 7.285012e-08 9.271834e-08 -1.241763e-07 4.503462e-07 2.516641e-07 4.768372e-07 -4.635917e-08 1.059638e-07 5.298191e-08 3.245142e-07 -1.589457e-07 3.576279e-07
<VARIANCE> 12
 2.431573e+01 3.731596e+01 2.755960e+01 6.671961e+01 2.263590e+01 2.919205e+01 5.333148e+01 8.587224e+01 2.593916e+01 4.258612e+01 3.254454e+01 5.649050e+01
<GCONST> 6.582870e+01
<STATE> 6
<MEAN> 12
 7.285012e-08 9.271834e-08 -1.241763e-07 4.503462e-07 2.516641e-07 4.768372e-07 -4.635917e-08 1.059638e-07 5.298191e-08 3.245142e-07 -1.589457e-07 3.576279e-07
<VARIANCE> 12
 2.431573e+01 3.731596e+01 2.755960e+01 6.671961e+01 2.263590e+01 2.919205e+01 5.333148e+01 8.587224e+01 2.593916e+01 4.258612e+01 3.254454e+01 5.649050e+01
<GCONST> 6.582870e+01
<STATE> 7
<MEAN> 12
 7.285012e-08 9.271834e-08 -1.241763e-07 4.503462e-07 2.516641e-07 4.768372e-07 -4.635917e-08 1.059638e-07 5.298191e-08 3.245142e-07 -1.589457e-07 3.576279e-07
<VARIANCE> 12
 2.431573e+01 3.731596e+01 2.755960e+01 6.671961e+01 2.263590e+01 2.919205e+01 5.333148e+01 8.587224e+01 2.593916e+01 4.258612e+01 3.254454e+01 5.649050e+01
<GCONST> 6.582870e+01
<STATE> 8
<MEAN> 12
 7.285012e-08 9.271834e-08 -1.241763e-07 4.503462e-07 2.516641e-07 4.768372e-07 -4.635917e-08 1.059638e-07 5.298191e-08 3.245142e-07 -1.589457e-07 3.576279e-07
<VARIANCE> 12
 2.431573e+01 3.731596e+01 2.755960e+01 6.671961e+01 2.263590e+01 2.919205e+01 5.333148e+01 8.587224e+01 2.593916e+01 4.258612e+01 3.254454e+01 5.649050e+01
<GCONST> 6.582870e+01
<STATE> 9
<MEAN> 12
 7.285012e-08 9.271834e-08 -1.241763e-07 4.503462e-07 2.516641e-07 4.768372e-07 -4.635917e-08 1.059638e-07 5.298191e-08 3.245142e-07 -1.589457e-07 3.576279e-07
<VARIANCE> 12
 2.431573e+01 3.731596e+01 2.755960e+01 6.671961e+01 2.263590e+01 2.919205e+01 5.333148e+01 8.587224e+01 2.593916e+01 4.258612e+01 3.254454e+01 5.649050e+01
<GCONST> 6.582870e+01
<STATE> 10
<MEAN> 12
 7.285012e-08 9.271834e-08 -1.241763e-07 4.503462e-07 2.516641e-07 4.768372e-07 -4.635917e-08 1.059638e-07 5.298191e-08 3.245142e-07 -1.589457e-07 3.576279e-07
<VARIANCE> 12
 2.431573e+01 3.731596e+01 2.755960e+01 6.671961e+01 2.263590e+01 2.919205e+01 5.333148e+01 8.587224e+01 2.593916e+01 4.258612e+01 3.254454e+01 5.649050e+01
<GCONST> 6.582870e+01
<STATE> 11
<MEAN> 12
 7.285012e-08 9.271834e-08 -1.241763e-07 4.503462e-07 2.516641e-07 4.768372e-07 -4.635917e-08 1.059638e-07 5.298191e-08 3.245142e-07 -1.589457e-07 3.576279e-07
<VARIANCE> 12
 2.431573e+01 3.731596e+01 2.755960e+01 6.671961e+01 2.263590e+01 2.919205e+01 5.333148e+01 8.587224e+01 2.593916e+01 4.258612e+01 3.254454e+01 5.649050e+01
<GCONST> 6.582870e+01
<TRANSP> 12
 0.000000e+00 1.000000e+00 0.000000e+00 0.000000e+00 0.000000e+00 0.000000e+00 0.000000e+00 0.000000e+00 0.000000e+00 0.000000e+00 0.000000e+00 0.000000e+00
 0.000000e+00 9.000000e-01 9.999999e-02 0.000000e+00 0.000000e+00 0.000000e+00 0.000000e+00 0.000000e+00 0.000000e+00 0.000000e+00 0.000000e+00 0.000000e+00
 0.000000e+00 0.000000e+00 9.000000e-01 9.999999e-02 0.000000e+00 0.000000e+00 0.000000e+00 0.000000e+00 0.000000e+00 0.000000e+00 0.000000e+00 0.000000e+00
 0.000000e+00 0.000000e+00 0.000000e+00 9.000000e-01 9.999999e-02 0.000000e+00 0.000000e+00 0.000000e+00 0.000000e+00 0.000000e+00 0.000000e+00 0.000000e+00
 0.000000e+00 0.000000e+00 0.000000e+00 0.000000e+00 9.000000e-01 9.999999e-02 0.000000e+00 0.000000e+00 0.000000e+00 0.000000e+00 0.000000e+00 0.000000e+00
 0.000000e+00 0.000000e+00 0.000000e+00 0.000000e+00 0.000000e+00 9.000000e-01 9.999999e-02 0.000000e+00 0.000000e+00 0.000000e+00 0.000000e+00 0.000000e+00
 0.000000e+00 0.000000e+00 0.000000e+00 0.000000e+00 0.000000e+00 0.000000e+00 9.000000e-01 9.999999e-02 0.000000e+00 0.000000e+00 0.000000e+00 0.000000e+00
 0.000000e+00 0.000000e+00 0.000000e+00 0.000000e+00 0.000000e+00 0.000000e+00 0.000000e+00 9.000000e-01 9.999999e-02 0.000000e+00 0.000000e+00 0.000000e+00
 0.000000e+00 0.000000e+00 0.000000e+00 0.000000e+00 0.000000e+00 0.000000e+00 0.000000e+00 0.000000e+00 9.000000e-01 9.999999e-02 0.000000e+00 0.000000e+00
 0.000000e+00 0.000000e+00 0.000000e+00 0.000000e+00 0.000000e+00 0.000000e+00 0.000000e+00 0.000000e+00 0.000000e+00 9.000000e-01 9.999999e-02 0.000000e+00
 0.000000e+00 0.000000e+00 0.000000e+00 0.000000e+00 0.000000e+00 0.000000e+00 0.000000e+00 0.000000e+00 0.000000e+00 0.000000e+00 9.000000e-01 9.999999e-02
 0.000000e+00 0.000000e+00 0.000000e+00 0.000000e+00 0.000000e+00 0.000000e+00 0.000000e+00 0.000000e+00 0.000000e+00 0.000000e+00 0.000000e+00 0.000000e+00
<ENDHMM>
