~o
<STREAMINFO> 1 39
<VECSIZE> 39<NULLD><MFCC_E_D_A_Z><DIAGC>
~h "s000"
<BEGINHMM>
<NUMSTATES> 10
<STATE> 2
<MEAN> 39
 -2.227086e+00 -1.765487e+00 9.893486e-02 2.583524e+00 3.843611e+00 7.390847e+00 5.566850e+00 -9.582715e-01 -6.991859e-01 2.925680e-01 -4.693183e-01 6.052358e-01 1.628899e-01 7.758787e-02 2.108451e-01 8.395743e-02 -7.585064e-02 4.680982e-03 -1.890684e-03 -1.452279e-01 3.984111e-02 -1.780777e-01 2.698826e-02 3.579727e-03 3.271168e-02 2.410196e-04 -4.030715e-04 -4.700533e-02 -1.963544e-02 3.837932e-02 3.319060e-03 -4.812121e-02 -2.342937e-03 3.737620e-03 -5.756304e-02 -6.350680e-02 3.365061e-02 4.808434e-02 1.712604e-04
<VARIANCE> 39
 3.122540e+00 7.939609e+00 3.028937e+00 1.319476e+01 8.257264e+00 1.259441e+01 2.827614e+01 2.288437e+01 2.573583e+01 2.161528e+01 1.550689e+01 1.834677e+01 1.393073e-03 2.662511e-01 7.936251e-01 3.524825e-01 1.298393e+00 1.192006e+00 1.761172e+00 3.101372e+00 2.762186e+00 3.785933e+00 2.751987e+00 1.798813e+00 1.672543e+00 1.192974e-04 4.029960e-02 1.279683e-01 7.177113e-02 2.260863e-01 2.756532e-01 4.401605e-01 5.489364e-01 5.827280e-01 7.755690e-01 5.684817e-01 3.779892e-01 2.767561e-01 1.977784e-05
<GCONST> 6.350802e+01
<STATE> 3
<MEAN> 39
 4.381974e-01 3.280173e+00 4.429590e-01 2.568314e+00 3.081417e+00 2.983897e+00 3.120754e+00 -1.170321e-02 -5.168840e+00 -1.689817e+00 2.584805e+00 3.610096e+00 1.817304e-01 3.663269e-01 9.512189e-01 -2.833658e-01 2.184873e-01 8.890801e-01 -1.293661e+00 -1.873405e+00 -1.599093e-01 -5.551974e-01 -1.838485e+00 1.231985e+00 1.335838e+00 2.241865e-02 3.381392e-01 2.509215e-01 5.685323e-01 -9.180622e-01 -1.529769e+00 -9.440129e-01 -8.988095e-02 1.462439e-01 1.042370e+00 9.432542e-01 -8.505286e-01 -9.920281e-01 3.321033e-02
<VARIANCE> 39
 4.085004e-01 1.217291e+00 3.322558e+00 8.145977e-01 7.512543e-01 1.982363e+00 1.109709e+01 2.762515e+00 3.115758e-02 7.785282e-01 1.912261e+01 6.031566e-02 3.414864e-05 3.013113e-02 6.016004e-02 4.661338e-03 3.130003e-01 3.906536e-01 1.166764e-01 4.513228e-02 3.926186e-03 1.860189e-01 4.345638e-01 8.249934e-03 6.259932e-02 4.939238e-04 4.548494e-04 7.688775e-05 8.722281e-02 4.844698e-02 2.405302e-01 2.886047e-02 4.385915e-02 3.295384e-02 8.577901e-04 1.958221e-01 3.602864e-01 4.041731e-03 5.776731e-05
<GCONST> -3.945987e+01
<STATE> 4
<MEAN> 39
 -5.443933e-02 1.401464e+01 -4.442833e-01 -5.488626e+00 -1.101923e+01 -6.605750e+00 -1.300977e+01 2.002564e+00 -1.619849e+00 5.544336e+00 1.954746e-01 -4.715480e+00 7.819028e-01 7.529394e-02 6.368849e-01 -2.158205e-01 -7.076423e-02 -3.931106e-01 -2.478602e-01 -7.942302e-01 -1.554687e-01 2.443105e-01 2.817478e-01 1.480669e-01 -4.346998e-01 2.203218e-02 -6.608695e-03 -8.406765e-02 5.972685e-02 2.095037e-02 2.390865e-01 1.203583e-01 1.971563e-01 -1.968923e-02 9.489923e-02 -2.101268e-02 3.496262e-03 4.824073e-02 -5.166884e-03
<VARIANCE> 39
 6.976306e+00 2.613561e+01 3.721783e+01 3.247660e+01 3.674314e+01 1.774633e+01 3.917242e+01 1.614715e+01 2.184848e+01 3.058626e+01 7.233076e+01 2.443833e+01 3.608805e-02 8.321618e-01 6.718278e-01 3.389746e+00 3.057333e+00 7.354218e+00 2.908401e+00 3.050089e+00 1.569762e+00 2.889152e+00 5.502652e+00 7.721666e+00 2.916894e+00 3.637054e-03 1.267341e-01 5.310863e-02 6.815249e-01 3.437890e-01 1.133346e+00 3.720969e-01 4.547871e-01 2.342955e-01 5.125155e-01 1.292720e+00 1.416506e+00 6.966643e-01 2.433894e-04
<GCONST> 9.591991e+01
<STATE> 5
<MEAN> 39
 6.213170e-01 9.649708e+00 1.941534e+00 -9.002419e-01 -7.264246e-01 -3.628827e+00 -8.430126e+00 -1.101654e+00 3.646624e+00 1.884315e-01 2.029845e+00 9.974172e-01 6.431520e-01 -3.251587e-01 -1.203250e+00 1.952953e-01 -4.130667e-01 -8.476638e-02 1.752055e-01 1.008337e+00 2.602376e-01 -5.083047e-01 -2.956520e-01 -9.600767e-01 6.110910e-01 7.067207e-03 -1.735449e-02 -1.846934e-01 -2.071642e-01 1.694503e-01 -1.034522e-01 3.377509e-02 -5.653959e-02 -9.329976e-03 -3.834165e-01 1.192335e-01 8.980484e-02 -1.122718e-01 1.679602e-03
<VARIANCE> 39
 1.227102e+01 1.795219e+01 8.014510e+00 3.613639e+01 2.861695e+01 4.242372e+01 3.121968e+01 2.864835e+01 1.264901e+01 1.716353e+01 5.070356e+01 1.957347e+01 2.534756e-02 1.014746e+00 3.701232e+00 1.888431e+00 3.492215e+00 3.625416e+00 7.174625e+00 5.184439e+00 4.629472e+00 3.214923e+00 1.448038e+00 7.616205e+00 2.625132e+00 3.201834e-03 2.091007e-01 5.353642e-01 2.010000e-01 7.012048e-01 4.884503e-01 1.587156e+00 1.011144e+00 1.125693e+00 1.896053e-01 2.653332e-01 1.896071e+00 5.859802e-01 5.534128e-04
<GCONST> 9.902173e+01
<STATE> 6
<MEAN> 39
 2.178914e+00 -4.648286e+00 -2.326439e+00 2.205082e+00 5.494024e-01 -7.229599e+00 3.127337e+00 2.304716e+00 -1.118863e+00 -3.483465e+00 -2.568566e-01 5.749936e-01 6.521894e-01 2.532246e-01 7.359743e-03 -1.350650e-01 3.244870e-01 1.337522e-01 -5.955198e-01 -1.087298e-02 2.446322e-01 7.282819e-02 -2.901957e-01 1.182496e-01 -2.278264e-01 -2.104227e-03 1.297192e-02 1.204154e-01 -1.489376e-02 -1.252968e-01 -5.339539e-02 -6.801876e-02 -4.779387e-02 2.756538e-02 1.212147e-01 -5.784293e-02 -1.349851e-02 4.771405e-02 1.896827e-03
<VARIANCE> 39
 2.421532e+01 2.237027e+01 3.022683e+01 2.514288e+01 2.236527e+01 2.665109e+01 1.710949e+01 8.235286e+01 4.826649e+01 5.627031e+01 2.144754e+01 3.193723e+01 2.310303e-02 2.188454e+00 2.632331e+00 1.882155e+00 2.641441e+00 2.683250e+00 4.275568e+00 2.182729e+00 4.708767e+00 4.683066e+00 4.074244e+00 3.751652e+00 3.589857e+00 1.936194e-03 2.989448e-01 3.729329e-01 1.564436e-01 4.309774e-01 4.287445e-01 9.384399e-01 3.964965e-01 7.518887e-01 8.993738e-01 4.532518e-01 8.582928e-01 8.656662e-01 3.339320e-04
<GCONST> 1.001311e+02
<STATE> 7
<MEAN> 39
 1.658682e+00 -3.267474e+00 1.043913e+00 -6.021901e+00 -7.637444e+00 -4.076026e+00 -5.826274e-01 4.628887e+00 -2.216187e+00 -4.137181e+00 -1.755362e+00 -3.398483e+00 6.931253e-01 -4.377747e-01 -2.559033e-01 4.175042e-01 -5.885758e-01 -5.547726e-01 1.430687e+00 -4.140563e-01 -4.295575e-01 1.780620e-01 4.924470e-01 1.475494e-01 -1.694447e-01 3.115661e-03 -9.133703e-02 -7.660998e-02 2.241957e-02 1.924804e-01 1.343429e-01 8.924050e-02 2.675095e-02 -1.134618e-01 -9.797921e-02 2.032669e-02 9.972427e-03 5.559630e-02 -2.423763e-03
<VARIANCE> 39
 8.646215e+00 3.483024e+00 4.664187e+01 2.285187e+01 2.189999e+01 1.007365e+02 6.098974e+01 2.763088e+01 2.328135e+01 3.022578e+01 8.646263e+00 1.670324e+01 7.450257e-03 1.469733e+00 6.357227e-01 3.304078e+00 3.100737e+00 1.761919e+00 2.513110e+00 5.905316e+00 3.830064e+00 2.401048e+00 4.799610e+00 8.967792e-01 1.717367e+00 1.118422e-03 4.824752e-01 9.358604e-02 4.526898e-01 5.860089e-01 4.912241e-01 5.656672e-01 1.128238e+00 9.583970e-01 4.050980e-01 1.261436e+00 1.690800e-01 3.437360e-01 2.599067e-04
<GCONST> 8.935903e+01
<STATE> 8
<MEAN> 39
 4.424566e-01 -9.971298e+00 1.237060e-01 -6.245959e-01 4.148965e-01 2.094017e+00 -1.799181e-01 -7.151152e+00 -5.332174e-02 1.921407e+00 -6.406676e-01 7.418019e-01 6.613317e-01 4.512599e-01 8.153266e-02 -2.479846e-01 4.882723e-01 1.026018e+00 -1.628665e-01 1.103627e+00 -5.648310e-01 3.132554e-01 3.140305e-01 1.520152e-01 6.134940e-01 -3.067251e-02 2.967117e-02 1.781151e-01 1.325865e-01 -1.039123e-01 -1.747315e-01 4.430895e-02 -1.057724e-01 1.742764e-01 2.038355e-01 -1.587312e-02 4.437195e-02 -1.781037e-01 -2.750984e-03
<VARIANCE> 39
 1.395623e+01 9.939638e+00 5.208211e+00 7.368826e+00 2.382788e+01 1.553507e+01 3.881911e+01 2.264747e+01 2.188565e+01 1.314556e+01 8.120875e+00 1.296168e+01 2.120766e-02 7.849073e-01 1.735865e+00 6.647285e-01 1.267250e+00 2.217412e+00 1.886532e+00 1.565976e+00 3.754604e+00 2.468052e+00 1.261497e+00 1.126300e+00 7.407683e-01 5.174659e-04 1.360756e-01 1.874986e-01 1.729143e-01 2.329815e-01 3.024981e-01 2.931183e-01 4.711533e-01 5.938867e-01 5.291237e-01 2.492030e-01 2.672098e-01 5.395363e-02 5.526924e-05
<GCONST> 6.949800e+01
<STATE> 9
<MEAN> 39
 -4.832557e-01 -1.170013e+00 8.096529e-01 1.797160e+00 5.662233e+00 4.255905e+00 2.282786e+00 -1.175635e+00 2.877321e+00 8.186255e-01 8.403212e-01 2.550560e+00 2.081392e-01 -1.899074e-01 8.854382e-02 5.842288e-02 1.281657e-01 2.468134e-02 4.885954e-02 4.230687e-02 5.499672e-01 1.611990e-01 3.931000e-02 7.353573e-02 1.195381e-01 -6.413083e-03 7.970461e-03 -3.385742e-02 -4.682715e-02 -1.293145e-02 -5.421328e-03 -2.172876e-02 1.190914e-01 7.057145e-02 2.272644e-02 6.699809e-02 -5.296149e-02 6.219739e-02 9.182336e-04
<VARIANCE> 39
 5.595450e+00 3.413490e+00 6.663716e+00 1.106278e+01 1.742861e+01 1.936065e+01 1.539113e+01 2.713416e+01 2.276173e+01 1.725050e+01 1.919857e+01 1.558769e+01 5.115204e-03 2.420007e-01 4.393792e-01 9.412050e-01 2.129172e+00 1.990768e+00 2.161907e+00 2.092621e+00 2.530327e+00 2.485407e+00 1.814695e+00 2.573483e+00 1.590445e+00 2.524454e-04 4.224778e-02 5.228915e-02 1.715475e-01 5.344509e-01 4.162373e-01 3.834714e-01 3.280929e-01 4.452731e-01 4.272893e-01 3.138462e-01 5.850153e-01 3.375361e-01 4.651434e-05
<GCONST> 6.752313e+01
<TRANSP> 10
 0.000000e+00 1.000000e+00 0.000000e+00 0.000000e+00 0.000000e+00 0.000000e+00 0.000000e+00 0.000000e+00 0.000000e+00 0.000000e+00
 0.000000e+00 9.772727e-01 2.272727e-02 0.000000e+00 0.000000e+00 0.000000e+00 0.000000e+00 0.000000e+00 0.000000e+00 0.000000e+00
 0.000000e+00 0.000000e+00 5.000079e-01 4.999921e-01 0.000000e+00 0.000000e+00 0.000000e+00 0.000000e+00 0.000000e+00 0.000000e+00
 0.000000e+00 0.000000e+00 0.000000e+00 9.526581e-01 4.734194e-02 0.000000e+00 0.000000e+00 0.000000e+00 0.000000e+00 0.000000e+00
 0.000000e+00 0.000000e+00 0.000000e+00 0.000000e+00 9.374206e-01 6.257940e-02 0.000000e+00 0.000000e+00 0.000000e+00 0.000000e+00
 0.000000e+00 0.000000e+00 0.000000e+00 0.000000e+00 0.000000e+00 9.681152e-01 3.188486e-02 0.000000e+00 0.000000e+00 0.000000e+00
 0.000000e+00 0.000000e+00 0.000000e+00 0.000000e+00 0.000000e+00 0.000000e+00 9.434587e-01 5.654126e-02 0.000000e+00 0.000000e+00
 0.000000e+00 0.000000e+00 0.000000e+00 0.000000e+00 0.000000e+00 0.000000e+00 0.000000e+00 9.277948e-01 7.220513e-02 0.000000e+00
 0.000000e+00 0.000000e+00 0.000000e+00 0.000000e+00 0.000000e+00 0.000000e+00 0.000000e+00 0.000000e+00 9.687489e-01 3.125110e-02
 0.000000e+00 0.000000e+00 0.000000e+00 0.000000e+00 0.000000e+00 0.000000e+00 0.000000e+00 0.000000e+00 0.000000e+00 0.000000e+00
<ENDHMM>
~h "s001"
<BEGINHMM>
<NUMSTATES> 10
<STATE> 2
<MEAN> 39
 -1.329916e+00 -3.783048e+00 -1.960863e+00 4.264251e+00 2.307904e+00 -1.548318e+00 -1.375319e+00 8.532758e-01 4.535643e+00 2.299385e+00 5.125561e+00 2.163018e-01 3.376799e-01 7.745431e-02 3.266194e-01 8.607966e-02 -3.479904e-01 -4.975442e-01 1.939793e-02 -1.158857e-01 1.214790e-01 -6.343072e-03 7.360630e-02 2.460620e-01 7.623159e-02 -1.650587e-03 -6.192610e-03 -2.616966e-02 8.422390e-03 7.606048e-02 1.129180e-01 6.157741e-02 1.081924e-01 3.647009e-02 -1.634317e-01 -6.169132e-02 -3.163943e-02 2.265813e-02 -1.006582e-04
<VARIANCE> 39
 1.931221e+00 1.137396e+01 6.205863e+00 7.299264e+00 1.618589e+01 8.434211e+00 1.107191e+01 1.506799e+01 2.112873e+01 1.831352e+01 1.831374e+01 1.688709e+01 4.172215e-04 1.548304e-01 4.054981e-01 6.081041e-01 1.129642e+00 1.262026e+00 1.157307e+00 1.347043e+00 1.483906e+00 3.773035e+00 2.321328e+00 2.416205e+00 2.028784e+00 5.196957e-05 2.652350e-02 9.584375e-02 1.515170e-01 1.678358e-01 2.895622e-01 2.284708e-01 1.484048e-01 1.955691e-01 6.206136e-01 5.534196e-01 5.491909e-01 4.017263e-01 1.157108e-05
<GCONST> 5.449763e+01
<STATE> 3
<MEAN> 39
 5.111813e-01 7.172014e-01 2.345184e+00 1.062728e+00 -1.189189e+00 3.648643e+00 2.758552e+00 5.235666e+00 -3.719233e+00 -2.345290e+00 3.217284e+00 2.593882e+00 3.008842e-01 9.720637e-02 3.010513e-01 3.246562e-01 -5.383078e-02 1.319027e-01 2.502518e-01 2.208365e-01 -5.536857e-01 -7.309229e-01 -6.661124e-02 -4.642910e-02 -2.736701e-01 8.562647e-03 1.051491e-01 1.425717e-01 -8.227494e-03 3.034900e-02 -1.572283e-01 -2.470657e-01 -3.918259e-03 -7.365580e-02 3.786894e-01 3.664595e-01 -1.563358e-01 -2.306026e-01 7.224368e-03
<VARIANCE> 39
 1.985634e+00 2.234864e+00 4.368272e+00 5.255196e+00 8.614602e+00 1.445583e+01 1.298510e+01 1.699397e+01 2.449192e+01 1.947572e+01 2.054158e+01 1.655150e+01 2.095580e-04 2.896095e-01 8.321071e-01 2.903055e-01 5.746748e-01 1.358701e+00 1.270644e+00 1.507407e+00 8.066890e-01 3.797800e+00 3.701459e+00 2.433502e+00 1.350865e+00 4.813824e-04 6.713546e-02 1.546949e-01 5.068730e-02 1.160517e-01 3.351953e-01 1.756715e-01 3.415729e-01 1.237348e-01 1.191258e+00 4.603052e-01 7.714650e-01 2.357538e-01 1.388192e-04
<GCONST> 5.688351e+01
<STATE> 4
<MEAN> 39
 3.236126e+00 4.209614e+00 6.894332e-01 -1.852453e+00 -7.137459e+00 -8.578424e-01 7.890198e+00 1.115854e+00 -4.575732e+00 4.208976e+00 -2.830683e+00 -1.162408e+00 7.316946e-01 -5.859271e-01 -1.112088e+00 -1.115085e+00 2.608912e-01 2.867128e-02 -2.395222e-01 1.868864e-01 -9.212745e-01 5.245939e-01 2.039980e-01 -5.163444e-01 2.460460e-01 6.048944e-02 -3.276048e-01 -5.053129e-01 -8.114967e-02 3.486791e-01 3.995071e-01 9.949128e-02 -4.380360e-01 -2.885207e-01 5.936044e-02 -2.850775e-01 2.261373e-01 1.276138e-01 -7.449989e-03
<VARIANCE> 39
 8.458065e+00 2.737395e+01 1.829066e+01 3.184402e+00 3.448350e+01 1.808146e+01 5.326758e+00 2.851124e+01 1.194134e+01 7.173761e+00 2.921482e+01 6.625903e+00 1.790248e-02 2.081803e+00 5.581003e+00 1.669579e+00 2.201394e+00 9.737366e+00 4.202375e+00 2.305750e+00 8.155280e+00 2.423455e+00 2.114761e+00 9.632941e+00 1.111271e+00 1.304806e-03 1.805513e-01 7.211632e-01 4.683326e-01 2.140760e-01 1.642098e+00 1.129220e+00 4.032989e-01 1.531863e+00 6.787983e-01 5.058026e-01 2.056370e+00 2.295963e-01 1.409048e-04
<GCONST> 9.121168e+01
<STATE> 5
<MEAN> 39
 -4.279136e+00 5.592460e+00 -6.026924e+00 -9.384114e+00 -4.384011e+00 -1.909897e+00 -9.550993e+00 -4.740720e+00 1.927798e+00 -3.629273e+00 -1.744880e+00 -3.670024e+00 9.339207e-01 8.386074e-03 3.404329e-01 2.899260e-01 -4.545721e-01 -1.538186e-01 3.259312e-01 -5.492393e-01 3.029488e-01 2.394928e-01 -3.482250e-01 -9.724846e-02 5.559961e-02 -2.197148e-03 1.007318e-01 -6.318134e-02 1.112599e-01 7.054839e-02 3.248940e-03 5.168548e-02 1.295676e-01 6.331918e-02 -1.431918e-01 1.114235e-01 -7.893600e-02 6.384439e-02 -1.141647e-03
<VARIANCE> 39
 6.458743e+00 7.459995e+01 1.407221e+01 6.429321e+01 1.280479e+01 2.309505e+01 3.457008e+01 2.677381e+01 9.985382e+00 3.605780e+01 1.606131e+01 3.235180e+01 1.804278e-03 6.037188e-01 3.521912e+00 1.787024e+00 3.685856e+00 1.834042e+00 3.901919e+00 2.702065e+00 2.071018e+00 1.815895e+00 2.861658e+00 2.865498e+00 3.807193e+00 2.242276e-04 7.873767e-02 2.785630e-01 1.624178e-01 5.740045e-01 5.341442e-01 7.262126e-01 1.837924e-01 5.271869e-01 3.629245e-01 7.035033e-01 6.930282e-01 5.986116e-01 3.619750e-05
<GCONST> 8.302306e+01
<STATE> 6
<MEAN> 39
 9.613383e-01 -4.398821e+00 6.241514e+00 5.270779e+00 9.486340e-01 -1.895501e+00 -4.736974e+00 1.844308e-01 -1.320409e+00 6.440488e+00 -4.675692e+00 6.286216e-01 8.355290e-01 3.789040e-01 -1.263551e+00 3.200487e-01 2.841164e+00 1.186963e+00 -2.604202e+00 4.315094e-01 -7.147106e-02 -3.145374e-01 1.573709e+00 -2.056820e-01 -1.733556e-01 2.242124e-04 -1.640090e-01 3.090803e-01 -4.653104e-01 -4.753371e-01 -2.644169e-01 -1.505272e-01 7.239761e-02 -2.023400e-02 1.598541e-01 -5.625584e-01 4.417520e-01 -1.011152e-01 6.087075e-04
<VARIANCE> 39
 2.502514e+00 5.113218e+00 3.077180e+00 4.450346e+01 4.846614e+00 5.107998e+01 5.286684e+00 3.963739e+00 1.218595e+01 2.097237e+01 1.954520e+01 1.399021e+01 6.821601e-05 5.280570e-01 9.245692e-01 2.100940e+00 8.595963e-01 4.025055e-01 6.979788e-01 6.129223e-01 6.905746e-01 2.659412e+00 5.284748e+00 3.085793e+00 9.581904e-01 1.279237e-05 4.804249e-02 1.353054e-01 4.758681e-02 1.835774e-01 4.300923e-02 8.509698e-01 2.374369e-01 1.992907e-01 6.176785e-01 3.772989e-01 2.140953e-01 3.485124e-01 3.949048e-06
<GCONST> 4.683812e+01
<STATE> 7
<MEAN> 39
 1.638945e+00 -9.659263e+00 1.795627e+00 8.036306e+00 3.441392e+00 -1.161672e+01 -1.169791e+00 -4.151462e+00 -2.425659e+00 2.810218e+00 -4.204749e+00 5.450231e-01 7.270011e-01 7.790434e-02 1.944701e-01 -1.385539e-01 -4.908024e-01 -1.360652e-01 4.703591e-01 4.016361e-01 6.081934e-02 8.156791e-02 3.460584e-02 6.625962e-03 3.139855e-01 -2.545015e-02 -1.129404e-02 1.335472e-01 6.882586e-02 -1.283092e-01 -1.035007e-01 2.051664e-01 2.872609e-02 1.726338e-01 1.255130e-01 1.417744e-01 -1.558471e-02 4.922328e-02 -2.869202e-03
<VARIANCE> 39
 3.826770e+00 5.929437e+00 4.321214e+00 1.152809e+01 1.306111e+01 1.305088e+01 9.648517e+00 6.708598e+00 6.813048e+00 1.684121e+01 2.528425e+01 8.891995e+00 1.490930e-02 5.279251e-01 8.606117e-01 7.805645e-01 2.242110e+00 2.068265e+00 1.195450e+00 2.026427e+00 1.460456e+00 1.566734e+00 3.668665e+00 3.521459e+00 2.327954e+00 4.828683e-04 1.116185e-01 3.139676e-02 1.459250e-01 4.610621e-01 4.097368e-01 1.353015e-01 2.996542e-01 2.026134e-01 2.912460e-01 7.431709e-01 6.146254e-01 4.196551e-01 2.661640e-05
<GCONST> 6.448019e+01
<STATE> 8
<MEAN> 39
 1.665053e+00 7.118856e-01 1.211175e+00 1.793771e+00 2.348170e+00 3.876774e+00 1.728692e+00 1.630565e+00 1.205893e+00 1.736322e+00 -1.553165e-01 2.082820e+00 3.507752e-01 7.822974e-02 6.977848e-01 3.116001e-02 -5.391421e-01 -1.899387e-01 5.316985e-01 -2.673623e-02 3.489101e-02 -2.456944e-02 -6.480553e-01 1.309001e-01 -5.563710e-01 -3.384339e-03 1.434976e-02 -5.840102e-02 -1.897729e-02 1.244205e-01 1.141756e-01 -1.662033e-01 -6.172572e-02 -4.465330e-02 -1.382468e-01 -4.299626e-02 -1.105688e-02 -4.134388e-02 2.415712e-03
<VARIANCE> 39
 1.619743e+00 5.665232e+00 8.819933e+00 5.326110e+00 9.475256e+00 2.125420e+01 1.591675e+01 2.145829e+01 1.747452e+01 3.031694e+01 1.411751e+01 2.145521e+01 1.212731e-03 2.247624e-01 8.275596e-01 7.569575e-01 4.432138e-01 1.310918e+00 3.807523e+00 2.261971e+00 4.033975e+00 2.655385e+00 4.066379e+00 2.261288e+00 1.115726e+00 3.871488e-04 6.594070e-02 2.035129e-01 1.672955e-01 1.072270e-01 3.470556e-01 8.443430e-01 6.817995e-01 1.077692e+00 7.626715e-01 1.406642e+00 5.269625e-01 4.391491e-01 8.902202e-05
<GCONST> 7.005836e+01
<STATE> 9
<MEAN> 39
 1.588083e+00 3.372462e+00 2.202142e+00 -2.637999e+00 5.453211e-01 6.215179e+00 6.226923e+00 1.910611e+00 -1.788474e+00 -3.085804e+00 -3.385025e-01 5.940658e-01 3.794932e-01 -1.325838e-02 -7.766081e-02 -2.309967e-02 -1.303405e-01 1.618810e-01 2.915529e-01 2.019409e-03 -6.586732e-02 -1.271427e-01 3.897301e-02 -4.542518e-02 -1.599177e-02 3.360244e-04 1.850709e-02 -1.644067e-02 7.653182e-03 2.649730e-02 2.564843e-02 1.273365e-01 -5.547086e-02 -1.411431e-01 4.968737e-03 4.379335e-02 -3.066779e-02 -4.571484e-02 -1.051465e-04
<VARIANCE> 39
 1.379213e+00 2.515147e+00 7.660791e+00 9.924968e+00 1.614152e+01 1.414229e+01 1.223913e+01 1.848706e+01 1.734181e+01 1.810437e+01 2.196224e+01 1.872732e+01 2.404391e-03 1.621570e-01 2.635520e-01 1.053972e+00 7.920790e-01 1.765650e+00 2.198374e+00 1.934594e+00 3.091162e+00 1.882441e+00 3.150650e+00 3.819262e+00 1.626480e+00 2.746845e-04 2.325525e-02 5.803582e-02 2.152357e-01 1.716733e-01 2.860223e-01 3.293662e-01 4.253920e-01 5.758475e-01 3.565798e-01 6.481233e-01 9.714409e-01 3.350024e-01 5.242028e-05
<GCONST> 6.294213e+01
<TRANSP> 10
 0.000000e+00 1.000000e+00 0.000000e+00 0.000000e+00 0.000000e+00 0.000000e+00 0.000000e+00 0.000000e+00 0.000000e+00 0.000000e+00
 0.000000e+00 9.644165e-01 3.558350e-02 0.000000e+00 0.000000e+00 0.000000e+00 0.000000e+00 0.000000e+00 0.000000e+00 0.000000e+00
 0.000000e+00 0.000000e+00 9.159411e-01 8.405896e-02 0.000000e+00 0.000000e+00 0.000000e+00 0.000000e+00 0.000000e+00 0.000000e+00
 0.000000e+00 0.000000e+00 0.000000e+00 8.750530e-01 1.249470e-01 0.000000e+00 0.000000e+00 0.000000e+00 0.000000e+00 0.000000e+00
 0.000000e+00 0.000000e+00 0.000000e+00 0.000000e+00 9.583287e-01 4.167137e-02 0.000000e+00 0.000000e+00 0.000000e+00 0.000000e+00
 0.000000e+00 0.000000e+00 0.000000e+00 0.000000e+00 0.000000e+00 8.723243e-01 1.276757e-01 0.000000e+00 0.000000e+00 0.000000e+00
 0.000000e+00 0.000000e+00 0.000000e+00 0.000000e+00 0.000000e+00 0.000000e+00 9.381481e-01 6.185189e-02 0.000000e+00 0.000000e+00
 0.000000e+00 0.000000e+00 0.000000e+00 0.000000e+00 0.000000e+00 0.000000e+00 0.000000e+00 9.231608e-01 7.683919e-02 0.000000e+00
 0.000000e+00 0.000000e+00 0.000000e+00 0.000000e+00 0.000000e+00 0.000000e+00 0.000000e+00 0.000000e+00 9.696839e-01 3.031606e-02
 0.000000e+00 0.000000e+00 0.000000e+00 0.000000e+00 0.000000e+00 0.000000e+00 0.000000e+00 0.000000e+00 0.000000e+00 0.000000e+00
<ENDHMM>
~h "s002"
<BEGINHMM>
<NUMSTATES> 10
<STATE> 2
<MEAN> 39
 2.364504e-01 2.437207e+00 1.596004e+00 1.821379e+00 -1.643187e+00 1.340556e+00 -1.247037e+00 2.479660e+00 3.397042e+00 7.436687e-02 2.470575e+00 -1.453651e+00 2.695837e-01 -7.115131e-02 -5.651893e-02 2.235435e-02 1.595712e-02 5.540298e-02 1.032305e-01 1.619127e-01 4.275313e-01 8.521423e-02 6.768534e-03 2.770074e-01 1.289274e-01 -2.879524e-03 4.556618e-03 2.752442e-02 9.372467e-03 -1.768311e-02 -1.465944e-02 1.988121e-02 2.385898e-02 -2.388130e-03 3.708483e-02 -2.292088e-02 -8.759351e-02 -3.599173e-02 5.564789e-04
<VARIANCE> 39
 2.777128e+00 3.302064e+00 4.514812e+00 6.729604e+00 9.015502e+00 2.018022e+01 2.131881e+01 3.443527e+01 3.583019e+01 1.326146e+01 2.167974e+01 1.584482e+01 1.773880e-03 1.588614e-01 3.985950e-01 5.191573e-01 6.640843e-01 8.747135e-01 1.102620e+00 1.478306e+00 2.845158e+00 2.933480e+00 1.485059e+00 2.054481e+00 2.377264e+00 1.320019e-04 2.919384e-02 7.135212e-02 1.191539e-01 1.158833e-01 1.828797e-01 1.691234e-01 2.653103e-01 6.943339e-01 5.199459e-01 2.532310e-01 2.745062e-01 5.267000e-01 3.060645e-05
<GCONST> 5.649865e+01
<STATE> 3
<MEAN> 39
 -1.269233e+00 2.594917e+00 3.760192e+00 1.241532e+00 -4.584665e+00 7.118944e+00 5.147359e+00 7.921045e+00 8.445053e+00 -2.703258e-01 1.971447e+00 -4.361630e+00 2.333741e-01 9.083049e-01 7.990814e-01 1.141493e+00 4.975527e-01 -8.978294e-01 -6.601601e-01 -3.921802e-01 -3.418741e+00 -2.604242e-01 -6.438674e-01 -1.276549e+00 -5.983996e-01 6.252433e-02 9.430822e-01 2.020132e-01 -8.053270e-01 -1.628885e-01 -2.186766e-02 -1.393495e+00 -1.134515e+00 -8.706900e-01 -3.495987e-01 -1.832131e-01 5.992842e-02 2.447334e-01 3.490749e-02
<VARIANCE> 39
 6.641009e-01 1.473351e+00 3.857645e+00 2.425155e+00 2.355968e+00 7.232098e+00 4.313551e+00 1.404258e+01 4.027159e+00 8.054322e+00 1.978113e+00 3.460603e-01 1.743803e-04 1.683432e+00 2.727274e-01 7.673447e-01 2.531740e-01 3.346942e-02 3.462364e+00 4.661025e+00 3.502554e+00 7.511038e-01 6.702448e-01 1.509049e-01 4.294705e-02 2.119877e-03 8.287611e-02 2.756379e-02 4.215401e-01 3.817396e-01 4.046096e-04 3.687101e-01 7.626662e-02 7.890656e-01 7.937744e-03 8.099199e-02 6.277353e-04 1.799585e-02 2.054657e-05
<GCONST> 1.255308e+01
<STATE> 4
<MEAN> 39
 6.212581e+00 8.363426e-01 -1.425661e+01 -2.469462e+00 -6.872542e-01 -1.254245e+01 4.236189e+00 -3.032879e+00 1.170424e+00 -7.433321e+00 -2.101866e+00 2.961269e-01 8.475918e-01 -4.231078e-01 -1.056914e+00 -1.106392e+00 -3.841413e-01 1.445001e-01 -1.370958e+00 8.697999e-01 -1.155945e-01 -2.148084e+00 4.485340e-01 -2.376279e-01 9.306802e-01 4.559151e-02 -3.007295e-01 -2.398757e-02 4.250345e-01 -1.691161e-01 -1.196687e-01 5.755377e-01 8.001892e-02 2.161413e-01 -6.300786e-03 2.970121e-01 -3.687575e-02 -6.846293e-02 -1.185562e-02
<VARIANCE> 39
 3.266570e+01 5.999597e+01 9.237053e+01 4.139971e+01 3.620354e+01 3.786382e+01 3.632503e+01 7.445607e+00 1.061819e+02 1.410073e+01 3.446092e+00 3.688980e+01 1.870346e-02 5.685556e+00 4.411066e+00 1.389008e+01 9.050703e+00 6.414777e+00 6.742524e+00 3.642924e+00 1.680482e+00 1.053302e+01 4.862335e+00 1.026941e+00 3.506116e+00 2.603572e-03 5.619809e-01 8.664941e-01 1.461206e+00 2.125705e+00 1.136617e+00 6.016112e-01 1.114697e+00 3.918781e-01 2.192846e+00 4.531995e-01 2.534642e-01 8.574302e-01 1.557763e-04
<GCONST> 1.103147e+02
<STATE> 5
<MEAN> 39
 -5.461483e-01 -1.312704e+00 -2.732084e+00 -8.664015e+00 -2.295344e+00 -4.237851e+00 1.710051e+00 1.427099e+00 -1.132035e+01 -9.156064e-01 -2.364765e+00 4.074956e+00 7.630228e-01 7.208677e-02 -1.486060e-01 2.401993e-01 -2.942408e-02 1.523953e-01 -1.451256e-02 -2.042084e-01 -2.893716e-01 9.346922e-02 9.588674e-02 -9.204940e-02 -2.183540e-01 -2.566050e-04 -2.926707e-02 -6.412101e-02 -1.299006e-01 1.602472e-01 1.330636e-01 -9.212279e-02 -2.940627e-02 -1.032233e-01 2.082031e-01 5.090202e-02 3.654581e-02 -4.302235e-02 5.119276e-04
<VARIANCE> 39
 1.066777e+01 2.613374e+01 5.944179e+00 2.921564e+01 3.098782e+01 5.609579e+01 3.138373e+01 1.624265e+01 8.160684e+01 1.354922e+01 3.367627e+01 1.441454e+01 3.375459e-02 2.057151e+00 3.134484e+00 1.658418e+00 4.052764e+00 3.834690e+00 6.644138e+00 4.024795e+00 2.925761e+00 9.462924e+00 2.945419e+00 4.210027e+00 2.597617e+00 3.362688e-03 4.694559e-01 4.064986e-01 3.596164e-01 4.193521e-01 6.777668e-01 9.705510e-01 7.435891e-01 5.291834e-01 1.847358e+00 7.984930e-01 7.214485e-01 5.742653e-01 4.603526e-04
<GCONST> 1.023860e+02
<STATE> 6
<MEAN> 39
 -2.934883e+00 -1.097695e+01 -1.960592e+00 -3.377011e+00 1.857681e+00 -8.977612e+00 5.888667e-01 -1.242124e+01 -7.407560e+00 1.059774e+01 -5.769384e+00 7.359718e-01 8.680863e-01 1.068560e-01 4.992752e-01 5.994678e-01 -1.703687e-02 1.071684e+00 1.077815e+00 -1.315747e+00 -5.497567e-01 2.000939e+00 5.954132e-02 -5.602239e-01 -1.035106e-01 -2.445828e-02 2.928532e-01 1.769092e-01 1.857601e-02 -4.966113e-02 1.230097e-01 1.024692e-01 1.839593e-01 3.735722e-01 -4.096591e-01 -7.214554e-01 -2.591736e-02 2.173815e-01 -2.295131e-03
<VARIANCE> 39
 1.247535e+00 2.826041e+00 3.025104e+00 6.862294e+00 8.498474e+00 6.916368e+00 1.612991e+01 5.139317e+00 2.507679e+01 5.360120e+00 9.449831e+00 5.716529e+00 3.527080e-03 6.551147e-01 5.091217e-01 7.950451e-01 1.320047e+00 1.558300e+00 2.459164e-01 6.230429e-01 2.304246e+00 1.497250e+00 4.719211e+00 1.218351e+00 1.363078e+00 9.908955e-05 2.725145e-02 3.913030e-02 1.772723e-01 4.023371e-01 2.894882e-01 4.597698e-02 1.638260e-01 2.872817e-01 3.125741e-01 9.600385e-02 2.806207e-01 3.606094e-01 1.546868e-05
<GCONST> 4.556718e+01
<STATE> 7
<MEAN> 39
 -3.208966e-01 -1.437369e+00 4.083897e+00 -2.335309e+00 1.386127e+01 6.610999e-01 -1.945858e+00 -7.218524e+00 -4.323448e+00 3.117084e+00 -4.883128e+00 4.781990e-01 5.357023e-01 -1.016958e-01 5.566164e-01 2.960115e-02 9.373889e-02 2.808914e-01 3.494284e-01 4.998099e-02 7.078042e-01 -5.374564e-03 -2.165333e-01 4.610489e-01 -2.771122e-01 -3.061910e-02 -3.469846e-02 -6.975774e-02 -7.049341e-02 -2.040603e-02 -3.231318e-01 -5.213832e-02 6.856419e-02 1.021283e-01 1.033704e-01 2.068025e-01 1.731043e-01 -3.777073e-02 2.899581e-04
<VARIANCE> 39
 4.399837e+00 1.547623e+01 6.120064e+00 5.423667e+00 2.190634e+01 8.994170e+00 1.288866e+01 2.104624e+01 1.392515e+01 1.284719e+01 1.441614e+01 7.272554e+00 1.856952e-02 4.393876e-01 8.957298e-01 7.642565e-01 6.670892e-01 3.094881e+00 1.206116e+00 1.219314e+00 1.372175e+00 2.236066e+00 2.280879e+00 1.422785e+00 4.248421e-01 1.727806e-04 6.205448e-02 1.668582e-01 8.631187e-02 1.392207e-01 5.731833e-01 1.361520e-01 2.004106e-01 1.824042e-01 4.524235e-01 4.968244e-01 3.524293e-01 5.803267e-02 4.598964e-05
<GCONST> 5.860725e+01
<STATE> 8
<MEAN> 39
 -1.025518e+00 6.487395e-01 1.865632e+00 2.573142e+00 -1.645211e+00 4.477316e+00 -9.573265e-01 2.145690e+00 3.649681e+00 -1.550809e-01 8.590354e-01 -9.722820e-01 2.182051e-01 8.507489e-02 -6.701859e-02 -3.397464e-02 1.887120e-01 -3.525997e-01 1.295396e-01 1.217500e-01 9.864918e-02 5.740058e-02 -1.160435e-01 5.388318e-02 -6.179026e-02 -7.503408e-04 -5.571095e-03 -1.131823e-02 7.823518e-03 2.263346e-02 1.205336e-01 -1.098611e-02 2.651871e-03 -3.055727e-02 -4.468786e-02 -2.495021e-02 1.922617e-02 1.209952e-02 1.385075e-03
<VARIANCE> 39
 1.776426e+00 4.350170e+00 8.227893e+00 7.977198e+00 1.968408e+01 1.049148e+01 1.349442e+01 1.646943e+01 1.206349e+01 2.034477e+01 2.971350e+01 1.652716e+01 1.711791e-03 1.397925e-01 4.744630e-01 7.126244e-01 7.727135e-01 2.082726e+00 1.001564e+00 1.527458e+00 1.432829e+00 1.908522e+00 2.099683e+00 4.588768e+00 1.780043e+00 2.609721e-04 2.083844e-02 1.019072e-01 1.198829e-01 1.115151e-01 1.695877e-01 1.417279e-01 2.724189e-01 2.628996e-01 3.851454e-01 4.084640e-01 1.043634e+00 3.308584e-01 4.227197e-05
<GCONST> 5.759730e+01
<STATE> 9
<MEAN> 39
 -7.867112e-02 1.280582e-01 1.687198e+00 4.432211e+00 -9.402542e-01 2.691876e+00 7.431858e-02 5.163829e-01 2.938032e+00 -6.496644e-01 2.370498e+00 -2.068682e-01 2.645325e-01 -7.474001e-02 1.301222e-01 7.565916e-02 -1.655792e-01 -1.660837e-01 -7.818031e-02 1.789348e-01 5.255298e-02 2.653393e-01 5.980765e-02 1.882438e-01 2.587361e-01 -9.366373e-04 -1.375464e-02 1.382897e-02 -1.231617e-02 -2.843073e-02 -9.269551e-02 -4.067284e-03 5.176900e-02 6.954452e-03 3.033280e-04 -3.730552e-02 -4.960595e-02 2.404884e-02 -1.025718e-03
<VARIANCE> 39
 1.372257e+00 4.139372e+00 4.776339e+00 1.178006e+01 1.103372e+01 1.400378e+01 1.099728e+01 2.018166e+01 9.848101e+00 1.555264e+01 1.129764e+01 1.897982e+01 1.676568e-03 1.390562e-01 4.838978e-01 6.061562e-01 7.032015e-01 1.414657e+00 1.702641e+00 9.240230e-01 2.378118e+00 8.815184e-01 1.658450e+00 1.156409e+00 1.606248e+00 2.403801e-04 3.607462e-02 1.199472e-01 1.363023e-01 1.628840e-01 2.868515e-01 3.516358e-01 1.215875e-01 4.879691e-01 1.845011e-01 3.407586e-01 1.884888e-01 3.192685e-01 5.019471e-05
<GCONST> 5.283027e+01
<TRANSP> 10
 0.000000e+00 1.000000e+00 0.000000e+00 0.000000e+00 0.000000e+00 0.000000e+00 0.000000e+00 0.000000e+00 0.000000e+00 0.000000e+00
 0.000000e+00 9.743590e-01 2.564103e-02 0.000000e+00 0.000000e+00 0.000000e+00 0.000000e+00 0.000000e+00 0.000000e+00 0.000000e+00
 0.000000e+00 0.000000e+00 6.666667e-01 3.333333e-01 0.000000e+00 0.000000e+00 0.000000e+00 0.000000e+00 0.000000e+00 0.000000e+00
 0.000000e+00 0.000000e+00 0.000000e+00 9.165622e-01 8.343779e-02 0.000000e+00 0.000000e+00 0.000000e+00 0.000000e+00 0.000000e+00
 0.000000e+00 0.000000e+00 0.000000e+00 0.000000e+00 9.565501e-01 4.344989e-02 0.000000e+00 0.000000e+00 0.000000e+00 0.000000e+00
 0.000000e+00 0.000000e+00 0.000000e+00 0.000000e+00 0.000000e+00 8.749605e-01 1.250395e-01 0.000000e+00 0.000000e+00 0.000000e+00
 0.000000e+00 0.000000e+00 0.000000e+00 0.000000e+00 0.000000e+00 0.000000e+00 9.338062e-01 6.619375e-02 0.000000e+00 0.000000e+00
 0.000000e+00 0.000000e+00 0.000000e+00 0.000000e+00 0.000000e+00 0.000000e+00 0.000000e+00 9.721152e-01 2.788479e-02 0.000000e+00
 0.000000e+00 0.000000e+00 0.000000e+00 0.000000e+00 0.000000e+00 0.000000e+00 0.000000e+00 0.000000e+00 9.643284e-01 3.567158e-02
 0.000000e+00 0.000000e+00 0.000000e+00 0.000000e+00 0.000000e+00 0.000000e+00 0.000000e+00 0.000000e+00 0.000000e+00 0.000000e+00
<ENDHMM>
~h "s003"
<BEGINHMM>
<NUMSTATES> 10
<STATE> 2
<MEAN> 39
 -6.239496e-01 -1.481119e+00 1.724096e+00 4.821584e+00 2.311456e+00 4.551878e+00 -1.552545e+00 2.073801e+00 6.332615e-01 1.253691e+00 3.720547e+00 1.280825e+00 2.915121e-01 -4.689665e-02 -2.491535e-02 1.838437e-02 -1.078968e-01 -1.224367e-02 -3.699720e-02 -3.622515e-02 -6.334880e-02 -1.271429e-01 3.330633e-03 1.698811e-02 1.104048e-01 -1.977783e-04 -7.556991e-03 1.862602e-02 -2.579735e-02 -1.681135e-02 3.400032e-02 -6.866972e-02 -2.711047e-02 -6.585609e-02 5.251757e-02 3.980843e-02 1.334868e-02 -6.865086e-03 -5.000142e-04
<VARIANCE> 39
 1.232570e+00 3.028925e+00 5.173411e+00 6.211222e+00 8.570491e+00 1.779218e+01 1.573324e+01 1.873537e+01 1.866996e+01 1.190240e+01 1.790701e+01 1.839799e+01 1.194425e-03 1.473131e-01 3.506808e-01 4.618510e-01 4.788491e-01 7.446177e-01 1.762409e+00 1.915533e+00 2.520274e+00 2.245166e+00 1.360096e+00 1.763942e+00 1.912625e+00 1.611015e-04 3.093983e-02 6.755398e-02 8.649185e-02 8.235664e-02 1.615254e-01 3.432889e-01 3.972887e-01 5.174935e-01 5.200532e-01 2.967997e-01 3.429224e-01 3.832816e-01 3.089779e-05
<GCONST> 5.275011e+01
<STATE> 3
<MEAN> 39
 -3.979605e+00 -6.220826e-02 7.765094e-01 2.656614e-01 6.578784e+00 1.724501e+00 -1.822643e-01 -2.289953e+00 7.895631e-01 2.708855e+00 -1.860027e-01 2.521829e+00 2.651211e-01 -7.472118e-01 3.494234e-01 -2.538102e-02 -1.333120e-01 5.334452e-01 -9.445589e-01 5.707319e-01 4.266733e-03 8.064817e-01 3.097858e-02 -8.651638e-01 2.937577e-01 2.754805e-04 7.833122e-02 -5.783442e-02 -4.504565e-02 1.021344e-01 -5.132307e-01 1.119114e-01 -1.083001e-01 2.081178e-01 -4.135284e-01 -1.385467e-01 1.213576e-01 5.112885e-02 8.000939e-03
<VARIANCE> 39
 3.380669e+00 1.265225e+00 2.585445e+00 1.334209e+00 7.543877e+00 7.429052e+00 2.167370e+01 2.461616e+01 7.692215e+00 8.084095e+00 4.888583e+00 1.081975e+01 1.383167e-04 2.675292e-01 4.858970e-02 2.679602e-01 1.519441e-01 1.373299e+00 3.140952e-01 2.003981e+00 7.930231e+00 8.512973e-01 9.472115e-01 1.330065e+00 1.388743e+00 2.273378e-04 3.687814e-02 2.917644e-03 4.237134e-02 4.160090e-03 1.446576e-01 1.112512e-01 4.682173e-01 2.829831e+00 4.221303e-01 1.344799e-01 1.770516e-01 2.997598e-01 3.365348e-05
<GCONST> 3.254424e+01
<STATE> 4
<MEAN> 39
 -7.394982e+00 8.700277e-01 3.749496e-01 3.184574e-02 8.094357e-01 -3.756440e+00 2.538672e-01 -6.759188e+00 -3.343952e+00 1.646748e+00 -1.486452e+00 4.778591e+00 3.490905e-01 2.625613e-01 -1.435907e-01 -1.068022e+00 -8.332639e-01 -3.847893e+00 -1.351910e+00 -2.285274e-01 -1.772053e+00 -3.403012e+00 -2.353810e-01 -4.621276e-01 -6.608167e-02 7.543556e-02 6.014184e-01 -2.621438e-01 -1.715481e-01 -1.034982e+00 -2.375289e-01 3.461138e-01 5.317576e-01 8.795747e-01 -8.051734e-02 -4.243229e-01 -7.006596e-01 -3.279582e-01 2.639683e-02
<VARIANCE> 39
 3.835052e+00 4.829949e-01 8.247691e+00 3.091850e+00 4.524761e+01 1.416083e+01 4.133095e+00 7.333889e+00 2.281747e+01 2.234488e+00 4.973279e+00 4.532601e+00 1.050233e-03 1.282732e+00 1.547000e-01 1.318040e-02 1.426410e+00 6.270080e-01 9.011359e-03 1.998373e-01 2.456040e+00 1.643945e-02 2.728879e-01 1.632381e+00 1.667600e-01 1.194780e-03 3.127839e-02 4.618277e-03 3.342055e-02 1.179342e-01 1.031884e+00 1.284994e-01 7.610201e-02 4.123266e-01 6.952493e-01 4.080889e-02 3.402942e-01 3.216979e-02 5.257587e-06
<GCONST> 2.058438e+01
<STATE> 5
<MEAN> 39
 -2.833331e+00 9.831965e+00 -4.934000e+00 -1.256743e+01 -3.066858e+00 -8.242675e+00 -1.419855e+00 -2.997151e-01 -3.133880e+00 -4.849223e+00 -3.158993e+00 -1.674575e+00 8.183567e-01 2.604783e-01 1.658905e-02 -5.163827e-02 -3.972764e-01 -8.864950e-02 -2.262826e-01 3.889459e-02 3.777185e-01 1.334963e-01 1.306672e-01 7.693990e-02 -3.205537e-01 1.153798e-02 6.492577e-03 -3.366577e-02 -1.828139e-02 2.101365e-01 1.210195e-01 -1.001179e-01 -3.204128e-03 -1.226399e-02 5.696141e-02 5.336833e-02 7.169754e-02 -1.675008e-02 -3.339413e-03
<VARIANCE> 39
 7.168433e+00 3.728263e+01 8.384737e+00 4.577561e+01 3.115814e+01 1.948583e+01 2.688937e+01 3.001471e+01 2.600857e+01 3.126174e+01 2.968837e+01 2.480452e+01 1.638769e-02 1.259877e+00 2.362610e+00 6.097945e-01 6.163467e+00 2.812527e+00 2.213170e+00 3.136920e+00 3.855246e+00 3.542987e+00 3.857448e+00 4.070677e+00 1.688137e+00 2.038650e-03 1.795226e-01 1.904633e-01 8.250000e-02 8.428735e-01 6.978528e-01 4.410398e-01 5.372380e-01 6.425784e-01 8.244563e-01 6.559221e-01 8.037997e-01 1.769793e-01 1.363534e-04
<GCONST> 9.084335e+01
<STATE> 6
<MEAN> 39
 5.308002e+00 -9.261206e-01 -9.419513e+00 -4.231128e+00 6.505066e+00 -1.680976e+01 -6.674600e-01 4.764088e-02 -8.203477e-01 -1.882938e+00 -3.578535e+00 2.668950e+00 8.215436e-01 1.513371e-01 -3.408460e-01 1.903836e-01 5.756043e-01 3.081289e-01 4.511688e-01 3.991835e-01 -1.042619e-01 -2.022954e-01 -4.495984e-01 1.111208e-01 6.928984e-02 -6.462038e-03 -6.152373e-02 3.968475e-02 1.913867e-01 -1.551331e-01 -2.043699e-01 3.319615e-01 -1.419791e-02 -8.527669e-02 4.646247e-02 3.283262e-02 -5.560707e-03 -5.969852e-02 -8.031764e-04
<VARIANCE> 39
 1.484663e+00 5.010869e+00 1.722308e+01 3.592870e+01 2.865597e+01 2.795527e+01 4.227878e+01 1.869024e+01 2.375035e+01 3.002762e+01 2.478045e+01 2.905585e+01 5.245250e-03 3.778042e-01 6.105857e-01 2.924119e+00 2.975713e+00 4.741442e+00 5.827771e+00 2.573737e+00 2.998273e+00 2.439350e+00 2.960152e+00 3.997014e+00 2.953415e+00 1.595959e-04 8.810985e-02 1.419763e-01 2.463345e-01 5.273435e-01 4.918400e-01 6.314350e-01 4.025072e-01 7.426230e-01 4.907541e-01 5.932631e-01 8.214600e-01 3.808090e-01 2.409567e-05
<GCONST> 8.130160e+01
<STATE> 7
<MEAN> 39
 -7.712963e-01 -4.426090e+00 9.805693e+00 -2.237188e+00 -6.201229e+00 3.939581e+00 8.798612e+00 -1.125293e+00 1.103333e+00 1.294429e+00 -3.120282e+00 -6.364036e+00 5.949450e-01 4.140399e-02 -3.922172e-02 3.400752e-01 1.360389e-01 -1.039653e+00 4.467601e-01 -8.161975e-02 -2.353685e-01 6.462983e-01 3.145802e-02 -3.240206e-01 -1.108333e-01 -3.118852e-03 1.195899e-02 4.157390e-02 -2.193827e-01 6.310306e-02 2.199312e-01 -2.274957e-01 3.377060e-02 1.267045e-01 -6.121505e-02 -1.292968e-01 1.513085e-01 1.271649e-01 -2.882515e-04
<VARIANCE> 39
 5.144102e+01 9.360170e+00 9.235847e+00 1.032631e+01 5.189182e+01 8.687078e+00 2.003783e+01 1.780985e+01 1.876359e+01 2.741187e+01 1.658849e+01 5.538388e+00 8.451381e-03 6.292679e+00 1.120374e+00 1.465977e+00 1.202647e+00 5.565748e+00 1.798326e+00 2.857575e+00 3.373424e+00 2.207107e+00 4.266283e+00 2.551142e+00 1.129263e+00 9.536523e-04 8.093242e-01 2.065025e-01 4.291362e-02 1.799304e-01 1.382761e+00 3.814911e-01 6.330079e-01 7.972301e-01 3.386465e-01 5.973246e-01 5.856655e-01 2.801149e-01 1.299693e-04
<GCONST> 8.349484e+01
<STATE> 8
<MEAN> 39
 5.404070e+00 -6.536715e+00 4.538670e+00 1.369665e+00 -1.294973e+01 7.049400e+00 9.414637e+00 1.227718e+00 3.219851e-01 -3.382934e+00 -1.915777e+00 -5.867123e+00 5.216458e-01 -6.606218e-01 5.564858e-01 -7.405822e-01 2.217122e-01 1.758220e+00 2.905404e-01 -8.950570e-01 3.772604e-01 -1.249543e-01 7.102854e-01 3.779231e-01 -7.104777e-02 -4.456877e-02 -1.068826e-01 6.258169e-02 7.358579e-02 1.060368e-01 2.029979e-01 7.644010e-02 -3.340843e-01 -1.805386e-01 1.153818e-01 3.168685e-01 -1.951592e-01 1.755227e-01 -9.859938e-04
<VARIANCE> 39
 4.411551e+00 2.986835e+00 2.800910e+00 6.767593e+00 2.266488e+01 3.156305e+00 7.973323e+00 7.704517e+00 5.121643e+00 1.090700e+01 5.817466e+00 1.912682e+00 1.559857e-02 2.509172e-01 1.659191e-01 1.322151e-01 1.393928e+00 5.281269e-01 9.693344e-02 1.938204e+00 7.500765e-01 4.708534e-01 4.142703e-01 1.614218e+00 1.331132e-01 5.068949e-04 9.555919e-02 4.029287e-02 5.906364e-02 3.601788e-01 2.104938e-01 6.862332e-02 2.231892e-01 1.601136e-01 8.445668e-02 9.433369e-02 3.480743e-01 1.599341e-01 2.530073e-04
<GCONST> 3.664837e+01
<STATE> 9
<MEAN> 39
 3.347040e-01 -1.778812e+00 1.663328e+00 5.773048e+00 -4.543488e-01 6.492061e+00 -1.771885e+00 -1.128603e+00 1.450897e+00 2.359315e+00 1.412482e+00 9.780042e-01 2.969264e-01 -6.841832e-02 1.867633e-02 -2.321270e-02 -1.773020e-02 1.116027e-01 -6.943685e-02 -1.528823e-01 -6.430696e-02 5.392197e-02 1.110376e-01 2.812060e-02 1.448795e-01 -2.612609e-03 1.349359e-03 -2.406786e-02 -4.117252e-03 -6.891357e-02 -3.065124e-02 -4.603680e-02 8.284615e-03 1.560969e-02 -5.211733e-03 -1.226729e-02 -2.024780e-02 -2.337594e-02 -7.132324e-05
<VARIANCE> 39
 1.312958e+00 4.252657e+00 5.063673e+00 6.819082e+00 1.498676e+01 1.843756e+01 1.272815e+01 9.289796e+00 1.375719e+01 1.721881e+01 1.202037e+01 1.462632e+01 1.387116e-03 1.306206e-01 5.327448e-01 4.749192e-01 7.305517e-01 1.556306e+00 2.515820e+00 1.233623e+00 9.220643e-01 1.569110e+00 1.438098e+00 8.105791e-01 1.545387e+00 1.383884e-04 2.397657e-02 1.062606e-01 9.859876e-02 1.191247e-01 2.865481e-01 5.728872e-01 2.389625e-01 1.654615e-01 2.975178e-01 2.465836e-01 8.513819e-02 3.037340e-01 2.613028e-05
<GCONST> 4.903920e+01
<TRANSP> 10
 0.000000e+00 1.000000e+00 0.000000e+00 0.000000e+00 0.000000e+00 0.000000e+00 0.000000e+00 0.000000e+00 0.000000e+00 0.000000e+00
 0.000000e+00 9.799547e-01 2.004532e-02 0.000000e+00 0.000000e+00 0.000000e+00 0.000000e+00 0.000000e+00 0.000000e+00 0.000000e+00
 0.000000e+00 0.000000e+00 8.364150e-01 1.635850e-01 0.000000e+00 0.000000e+00 0.000000e+00 0.000000e+00 0.000000e+00 0.000000e+00
 0.000000e+00 0.000000e+00 0.000000e+00 6.666667e-01 3.333333e-01 0.000000e+00 0.000000e+00 0.000000e+00 0.000000e+00 0.000000e+00
 0.000000e+00 0.000000e+00 0.000000e+00 0.000000e+00 9.665657e-01 3.343431e-02 0.000000e+00 0.000000e+00 0.000000e+00 0.000000e+00
 0.000000e+00 0.000000e+00 0.000000e+00 0.000000e+00 0.000000e+00 9.567044e-01 4.329564e-02 0.000000e+00 0.000000e+00 0.000000e+00
 0.000000e+00 0.000000e+00 0.000000e+00 0.000000e+00 0.000000e+00 0.000000e+00 9.411539e-01 5.884608e-02 0.000000e+00 0.000000e+00
 0.000000e+00 0.000000e+00 0.000000e+00 0.000000e+00 0.000000e+00 0.000000e+00 0.000000e+00 8.571450e-01 1.428551e-01 0.000000e+00
 0.000000e+00 0.000000e+00 0.000000e+00 0.000000e+00 0.000000e+00 0.000000e+00 0.000000e+00 0.000000e+00 9.777778e-01 2.222222e-02
 0.000000e+00 0.000000e+00 0.000000e+00 0.000000e+00 0.000000e+00 0.000000e+00 0.000000e+00 0.000000e+00 0.000000e+00 0.000000e+00
<ENDHMM>
~h "s004"
<BEGINHMM>
<NUMSTATES> 10
<STATE> 2
<MEAN> 39
 -1.356753e+00 3.284731e+00 4.290848e+00 -1.449556e+00 -2.796175e+00 7.280751e+00 1.103523e+00 4.674040e-01 -1.613622e+00 2.302597e+00 -3.935641e-01 2.574602e+00 2.608595e-01 3.238037e-02 7.731576e-03 2.773473e-02 -3.441614e-02 5.996532e-02 -5.427870e-02 2.058322e-01 1.536742e-01 2.186774e-01 1.460100e-01 -1.638223e-02 -1.084021e-01 2.286690e-03 1.681788e-02 1.353864e-02 -2.629290e-02 -2.661365e-02 -2.855350e-02 1.596975e-02 -6.680354e-02 -2.255959e-02 -4.861831e-02 -4.747736e-02 2.854705e-02 2.621043e-02 1.980857e-04
<VARIANCE> 39
 1.444067e+00 2.443980e+00 6.253272e+00 6.241339e+00 1.086361e+01 1.368779e+01 1.542997e+01 2.009223e+01 2.305415e+01 1.820243e+01 2.023729e+01 1.145102e+01 1.815898e-03 1.565813e-01 3.227244e-01 9.282419e-01 5.478743e-01 1.409571e+00 1.582918e+00 2.008908e+00 2.411170e+00 3.835476e+00 1.951753e+00 1.898674e+00 1.740094e+00 1.860891e-04 2.954783e-02 7.956289e-02 2.013060e-01 8.885740e-02 2.760987e-01 3.773190e-01 4.040455e-01 5.307608e-01 7.801064e-01 3.630078e-01 3.265009e-01 3.679225e-01 4.484399e-05
<GCONST> 5.858169e+01
<STATE> 3
<MEAN> 39
 -5.889695e-01 3.359269e+00 5.223987e+00 -3.630117e+00 -4.906696e-01 1.021675e+01 2.157643e+00 5.165801e+00 5.429335e-01 5.265285e+00 -1.103233e-01 1.279061e+00 3.137024e-01 5.914284e-01 1.543851e+00 3.886780e-01 -6.912259e-01 -6.730316e-01 -2.978217e+00 -6.246728e-01 3.490882e-01 -6.948978e-02 -1.721489e+00 -1.867369e+00 -2.234430e+00 4.301264e-02 2.831152e-01 3.261663e-01 3.403280e-01 -3.564699e-01 -6.589527e-01 -2.643238e+00 1.149925e+00 -1.043207e+00 -9.304439e-01 -6.142049e-01 -1.388957e-01 9.366589e-02 2.655301e-02
<VARIANCE> 39
 2.101196e-01 4.583368e-01 8.848574e-03 1.588128e-01 2.007420e+00 3.613554e-02 4.960051e+00 2.270982e-01 5.563379e-01 3.213362e+00 3.272057e+00 1.363946e-01 1.055056e-03 1.005999e-01 2.432711e-01 4.073156e-01 1.259215e-01 9.962459e-01 5.205690e+00 1.634956e-01 8.022261e-01 6.033554e-01 2.208021e-01 3.567437e-01 2.607431e-01 5.592712e-04 5.420228e-03 5.220043e-02 7.973285e-02 6.389189e-03 1.110268e-08 2.703723e-02 1.185609e-01 1.062357e-01 1.817741e-02 7.924584e-05 1.178920e-01 7.377978e-02 2.494731e-06
<GCONST> -3.891058e+01
<STATE> 4
<MEAN> 39
 3.572880e+00 5.163020e+00 2.161864e+00 -7.303895e+00 -4.924333e+00 -1.241856e+01 1.057566e+01 -6.151561e+00 -5.807724e+00 -5.204236e+00 -8.915035e-01 -1.211006e+00 5.975586e-01 3.512201e-01 -1.764882e+00 -2.430230e+00 7.514011e-01 1.594540e+00 -3.313992e+00 2.751290e+00 -3.052090e+00 -1.654793e+00 -2.093775e+00 1.745899e+00 7.638412e-01 5.901957e-02 -2.349445e-01 -7.980515e-01 -6.073687e-01 1.034844e+00 1.054200e+00 1.056880e+00 -5.711183e-01 3.271393e-01 2.229264e-01 7.274076e-04 3.645460e-01 3.697073e-01 -8.007132e-03
<VARIANCE> 39
 5.636112e-01 2.039205e+01 2.770964e+01 7.898465e+00 2.758043e+01 2.646233e+01 8.530074e+01 4.101955e+01 1.166025e+01 2.171109e+01 4.184806e+01 1.305336e+01 7.503328e-03 6.463602e-01 4.583488e+00 2.960749e+00 6.651872e+00 1.089255e+01 1.141968e+01 7.531110e+00 1.530647e+00 4.134721e-01 1.671838e-01 3.351907e+00 1.555384e+00 5.111720e-04 5.973410e-02 6.045728e-01 5.088760e-01 4.474199e-01 9.203595e-01 1.004496e+00 2.881984e+00 1.294466e+00 5.639783e-01 4.718057e-02 1.270801e+00 5.886810e-01 8.341845e-05
<GCONST> 8.706911e+01
<STATE> 5
<MEAN> 39
 6.318897e+00 -3.493597e-01 -1.338453e+01 -2.731324e+00 4.083181e+00 -8.893912e+00 2.326688e+00 -8.984114e+00 -1.606170e+00 -7.303822e+00 -9.562491e-01 -2.239506e+00 7.300320e-01 -2.460639e-01 -3.061810e-01 -2.033707e-01 3.832583e-01 6.465963e-02 -3.566059e-01 -2.802210e-01 2.606254e-01 -1.481144e-03 2.125631e-01 -6.934933e-02 7.227725e-02 1.008092e-02 -1.879623e-02 6.762839e-02 1.939061e-01 -5.028688e-02 -7.025902e-02 -4.156873e-02 4.555326e-02 2.404520e-02 4.727067e-02 9.650971e-02 -1.002906e-02 -6.798729e-02 -5.942301e-04
<VARIANCE> 39
 1.672873e+01 3.375349e+01 3.244453e+01 3.912739e+01 3.610434e+01 6.151081e+01 4.916201e+01 2.299438e+01 4.637361e+01 4.425232e+01 2.163894e+01 3.163936e+01 1.265192e-02 1.033324e+00 2.612719e+00 4.775681e+00 4.857454e+00 2.284086e+00 5.908585e+00 4.544168e+00 1.804478e+00 3.092227e+00 3.237744e+00 2.328349e+00 2.267273e+00 1.698820e-03 6.846394e-02 3.055759e-01 8.268933e-01 6.890889e-01 3.049566e-01 7.271392e-01 7.326046e-01 3.307501e-01 4.576065e-01 4.793386e-01 5.093463e-01 3.751155e-01 2.781938e-04
<GCONST> 9.740208e+01
<STATE> 6
<MEAN> 39
 -1.472384e+00 -1.355743e+01 -7.351019e+00 6.263072e+00 6.392663e+00 -2.143371e+01 3.523658e+00 -7.839012e+00 -5.227687e+00 -1.158277e+00 3.036919e-01 -1.710932e+00 8.354399e-01 4.316390e-01 -3.348020e-02 8.041331e-01 -1.402842e-01 -1.126874e-01 8.122686e-01 -3.545154e-01 -1.081032e-01 5.985189e-01 3.552976e-01 -4.498981e-01 -6.015933e-01 -3.040275e-02 -5.910500e-03 8.252644e-02 -1.220027e-01 -1.488580e-01 -1.852114e-01 1.377913e-01 -1.139806e-01 3.824639e-02 -1.084748e-01 -1.698442e-02 3.466411e-02 1.818376e-01 -4.749429e-03
<VARIANCE> 39
 9.811521e+00 2.612314e+00 7.105468e+00 2.178666e+01 1.008650e+01 2.792447e+01 6.115825e+00 1.521698e+01 4.271916e+00 1.833706e+01 2.297461e+01 1.595827e+01 1.426209e-02 5.454667e-01 5.928809e-01 8.456646e-01 3.413600e+00 1.596701e+00 1.141836e+00 1.155402e+00 1.591997e+00 9.095226e-01 2.648053e+00 3.774341e+00 2.811890e+00 2.162865e-04 1.309862e-01 1.008704e-01 2.173690e-01 8.382215e-01 3.189323e-01 1.670234e-01 2.777490e-01 2.140212e-01 1.594196e-01 6.525769e-01 1.159085e+00 6.760887e-01 2.646289e-05
<GCONST> 6.726486e+01
<STATE> 7
<MEAN> 39
 -8.803079e-01 -1.103076e+01 1.537691e+00 7.920019e+00 4.406413e+00 -1.068252e+01 -1.406168e+00 -3.283345e+00 -2.919410e+00 4.455130e+00 -1.032203e+00 -7.594883e-01 4.451398e-01 -6.433668e-01 4.868869e-01 8.115352e-01 -3.126447e-01 -2.548875e-01 1.131882e+00 -4.597318e-01 5.170838e-01 1.841705e-01 1.353433e+00 2.402624e-01 4.260254e-01 -3.220526e-02 7.081039e-02 1.204539e-01 -1.047444e-01 -1.836302e-01 -1.295270e-02 4.905849e-02 2.332347e-01 -2.186134e-01 4.563802e-02 6.315349e-02 -5.959021e-02 -2.181233e-02 4.742054e-03
<VARIANCE> 39
 1.203506e+00 2.279811e+00 7.487758e+00 6.378751e+00 1.506368e+01 2.183165e+01 9.844962e+00 1.158819e+01 1.282695e+01 2.333689e+01 6.071377e+00 3.082292e+00 2.908721e-03 4.553648e-02 3.107353e-01 2.954096e-01 6.975825e-01 1.833919e+00 6.989970e-01 1.028075e+00 1.794282e+00 1.350193e+00 1.728336e+00 9.917285e-01 5.166805e-01 2.766235e-04 4.922874e-03 2.991175e-02 4.984101e-02 6.464487e-02 4.148712e-01 1.550515e-01 1.129710e-01 2.911171e-01 3.044646e-01 4.303129e-01 1.934056e-01 1.008322e-01 2.223140e-05
<GCONST> 3.948185e+01
<STATE> 8
<MEAN> 39
 -1.986395e+00 -2.941167e+00 3.215572e+00 4.547298e+00 3.851502e+00 -2.736392e-01 -3.651275e+00 2.265823e+00 2.647371e+00 6.550620e+00 -3.104840e-01 -1.726720e+00 3.049306e-01 1.293195e-01 6.709473e-01 -3.879288e-02 -5.003923e-01 -2.472817e-01 7.415217e-01 -3.186120e-01 7.663003e-01 5.303416e-01 -7.779920e-01 3.431534e-01 2.207681e-01 -4.980888e-03 3.872859e-02 -2.811663e-02 -2.806770e-02 -3.674145e-02 -9.307806e-02 -4.186944e-02 -1.005352e-02 6.942549e-02 -1.184648e-02 -2.675648e-01 1.311951e-02 6.450561e-02 1.376387e-03
<VARIANCE> 39
 5.835747e-01 9.319583e+00 4.240728e+00 8.222566e+00 6.750311e+00 1.554966e+01 9.605548e+00 2.429564e+01 9.823907e+00 1.783420e+01 1.181259e+01 1.355731e+01 1.064881e-03 5.459357e-02 3.982868e-01 3.173635e-01 1.779846e+00 8.923326e-01 1.227336e+00 6.291501e-01 1.427314e+00 3.565645e-01 9.295314e-01 6.989874e-01 2.645399e+00 1.831955e-04 1.781027e-02 7.567940e-02 6.159493e-02 3.534130e-01 1.367282e-01 2.334971e-01 1.220444e-01 3.323653e-01 6.531921e-02 2.914779e-01 9.298436e-02 4.235996e-01 2.720992e-05
<GCONST> 4.212171e+01
<STATE> 9
<MEAN> 39
 -1.442204e+00 1.933675e+00 3.512863e+00 -5.292787e-03 -2.090853e+00 5.361025e+00 -3.108740e+00 6.417732e+00 3.846450e+00 2.078273e-01 1.071228e+00 -2.081931e-01 2.809456e-01 -1.010358e-02 5.901526e-02 1.045664e-02 1.999161e-02 -1.084016e-02 9.176794e-02 -2.168092e-02 5.296041e-02 -7.229100e-02 5.645989e-02 4.016321e-02 -8.332904e-02 -9.516399e-04 -4.796194e-03 -1.525643e-02 3.302247e-03 1.789797e-02 4.676843e-02 -1.008368e-02 -1.582798e-02 5.544757e-02 -2.581162e-03 6.002948e-02 -9.532169e-03 -5.000485e-02 -5.959580e-05
<VARIANCE> 39
 1.296189e+00 3.065352e+00 5.087283e+00 5.692197e+00 1.467094e+01 1.660847e+01 1.692299e+01 1.226339e+01 2.003535e+01 2.427286e+01 1.148039e+01 1.311215e+01 1.877665e-03 1.346245e-01 2.849653e-01 5.732976e-01 4.801031e-01 1.463376e+00 1.329463e+00 1.982890e+00 1.456363e+00 2.618033e+00 2.939106e+00 1.456031e+00 1.480530e+00 2.046839e-04 2.604558e-02 4.401836e-02 1.153865e-01 9.474113e-02 2.495795e-01 2.619477e-01 3.767537e-01 2.786621e-01 5.785227e-01 5.253082e-01 3.463505e-01 3.063057e-01 3.650574e-05
<GCONST> 5.374571e+01
<TRANSP> 10
 0.000000e+00 1.000000e+00 0.000000e+00 0.000000e+00 0.000000e+00 0.000000e+00 0.000000e+00 0.000000e+00 0.000000e+00 0.000000e+00
 0.000000e+00 9.795918e-01 2.040816e-02 0.000000e+00 0.000000e+00 0.000000e+00 0.000000e+00 0.000000e+00 0.000000e+00 0.000000e+00
 0.000000e+00 0.000000e+00 5.000000e-01 5.000000e-01 0.000000e+00 0.000000e+00 0.000000e+00 0.000000e+00 0.000000e+00 0.000000e+00
 0.000000e+00 0.000000e+00 0.000000e+00 7.989717e-01 2.010283e-01 0.000000e+00 0.000000e+00 0.000000e+00 0.000000e+00 0.000000e+00
 0.000000e+00 0.000000e+00 0.000000e+00 0.000000e+00 9.643324e-01 3.566759e-02 0.000000e+00 0.000000e+00 0.000000e+00 0.000000e+00
 0.000000e+00 0.000000e+00 0.000000e+00 0.000000e+00 0.000000e+00 9.230113e-01 7.698870e-02 0.000000e+00 0.000000e+00 0.000000e+00
 0.000000e+00 0.000000e+00 0.000000e+00 0.000000e+00 0.000000e+00 0.000000e+00 8.535765e-01 1.464234e-01 0.000000e+00 0.000000e+00
 0.000000e+00 0.000000e+00 0.000000e+00 0.000000e+00 0.000000e+00 0.000000e+00 0.000000e+00 9.188604e-01 8.113955e-02 0.000000e+00
 0.000000e+00 0.000000e+00 0.000000e+00 0.000000e+00 0.000000e+00 0.000000e+00 0.000000e+00 0.000000e+00 9.814285e-01 1.857146e-02
 0.000000e+00 0.000000e+00 0.000000e+00 0.000000e+00 0.000000e+00 0.000000e+00 0.000000e+00 0.000000e+00 0.000000e+00 0.000000e+00
<ENDHMM>
~h "s005"
<BEGINHMM>
<NUMSTATES> 10
<STATE> 2
<MEAN> 39
 -2.729078e+00 3.338383e+00 6.796822e+00 -6.445849e-01 3.338889e-01 8.006767e+00 1.589045e+00 1.599131e+00 5.142705e-01 -6.327714e-01 4.261511e+00 4.171485e-02 2.650115e-01 1.711679e-01 6.256887e-02 -4.710007e-02 6.783952e-02 -1.853612e-02 1.634208e-01 5.613753e-03 -1.838815e-02 -1.400682e-02 3.063476e-02 -2.476610e-01 -1.103886e-01 3.892721e-04 -6.773703e-03 -2.150916e-02 2.133166e-02 3.365062e-03 -1.916773e-02 -1.095886e-01 1.531012e-02 -2.808999e-02 -1.651678e-02 1.519783e-02 -2.784853e-02 3.242306e-02 1.854473e-03
<VARIANCE> 39
 3.292321e+00 3.490274e+00 5.737420e+00 9.213132e+00 2.100342e+01 1.297495e+01 9.141221e+00 2.489790e+01 1.915994e+01 1.799387e+01 1.871173e+01 9.284079e+00 2.075117e-03 2.798567e-01 5.100766e-01 4.216946e-01 1.268271e+00 2.798509e+00 1.516300e+00 1.000548e+00 2.919002e+00 2.582186e+00 2.707510e+00 1.213668e+00 1.035656e+00 2.948504e-04 5.606475e-02 9.036338e-02 8.014023e-02 2.912234e-01 5.591144e-01 3.682677e-01 2.146538e-01 5.578171e-01 6.064240e-01 6.317317e-01 2.760476e-01 1.905982e-01 8.754902e-05
<GCONST> 6.194008e+01
<STATE> 3
<MEAN> 39
 1.371180e+00 6.514831e+00 8.393684e+00 -2.324053e+00 -3.942686e+00 1.749684e-01 3.484029e-01 -2.891639e+00 -3.273489e+00 1.592528e+00 -3.340990e+00 -6.992526e-01 4.748699e-01 7.256337e-01 1.491512e+00 2.504663e-01 -3.565821e+00 -1.888095e+00 -6.003884e+00 5.250743e-01 1.043976e+00 -1.189586e+00 1.306050e+00 -2.123606e+00 8.215187e-02 1.069817e-01 -2.626733e-01 -2.766540e-01 -8.867100e-01 -6.429409e-01 -1.836440e-01 -1.009869e+00 5.436273e-01 7.988040e-01 4.318223e-01 8.292679e-02 4.760857e-01 -1.272716e-01 6.511532e-03
<VARIANCE> 39
 3.531526e+00 1.431210e+01 4.104839e+00 5.207254e+01 8.128878e+00 1.248019e+02 1.265985e+01 6.091315e+00 9.861983e+00 1.070076e+01 1.177074e+01 1.735736e+00 2.614717e-02 2.813289e-01 3.267785e-01 1.667223e+00 3.333524e+00 2.176663e-01 7.459325e+00 8.485259e-01 2.507194e+00 8.045641e-01 1.418779e+00 6.476249e-01 2.422867e-01 3.712530e-04 2.312928e-01 6.151832e-01 5.328542e-01 1.695609e+00 6.265499e-01 2.425784e+00 1.645781e-01 3.496584e-01 8.018363e-02 5.428852e-01 4.284949e-01 3.789315e-02 4.708348e-04
<GCONST> 6.781039e+01
<STATE> 4
<MEAN> 39
 2.198855e+00 -4.167267e+00 -1.589886e+01 -8.213431e+00 3.877364e+00 -1.006629e+01 -3.392945e+00 2.532999e+00 -1.033159e+00 2.587853e-01 -1.887243e+00 2.453399e-01 8.475825e-01 1.947197e-01 -2.587812e-01 -1.114154e+00 -4.280961e-02 2.008824e-01 4.394007e-01 -7.050108e-01 -5.869305e-01 5.072466e-01 -1.393546e-01 2.693321e-01 2.448555e-01 6.740311e-03 3.710123e-02 6.568678e-02 2.454581e-01 2.225743e-01 7.068951e-02 1.089684e-01 -2.800773e-01 -2.810053e-01 2.794573e-02 1.339559e-02 9.862354e-02 8.061843e-02 -2.817310e-03
<VARIANCE> 39
 1.049337e+01 5.253270e+01 7.762265e+01 2.308709e+01 6.394541e+01 6.586430e+01 8.141685e+01 2.874667e+01 2.116619e+01 2.171712e+01 4.697094e+01 4.425325e+00 1.346100e-03 7.685279e-01 5.361170e+00 4.208391e+00 2.377251e+00 6.909920e+00 4.752966e+00 6.895511e+00 6.301680e+00 1.002932e+00 3.688832e+00 6.287289e+00 1.870363e-01 3.554525e-04 1.188353e-01 5.500447e-01 2.346701e-01 6.702267e-01 1.204179e+00 1.229422e+00 9.972102e-01 1.013681e+00 1.528857e-01 9.072698e-01 1.076293e+00 4.210036e-02 8.920825e-05
<GCONST> 9.238319e+01
<STATE> 5
<MEAN> 39
 4.611593e+00 2.228873e+00 -1.122450e+01 -5.636906e+00 -2.991423e+00 -1.621698e+01 -1.213643e+01 -6.766595e+00 5.621092e+00 -4.964060e-01 3.109947e-01 6.118472e+00 9.389299e-01 -6.669506e-01 -1.206786e+00 3.399158e-01 1.254758e+00 -4.718788e-02 -6.804371e-01 8.901069e-01 1.377342e+00 -9.301974e-01 -5.451115e-01 -2.978645e-01 -5.365170e-02 1.201198e-02 -1.079917e-01 -2.062892e-01 -8.778577e-02 4.398785e-02 -9.000932e-02 3.076359e-01 2.546643e-01 2.924940e-01 -1.594972e-01 4.188392e-02 -1.843325e-01 -1.545504e-01 -1.174164e-03
<VARIANCE> 39
 7.563902e+00 4.065205e+01 1.644884e+01 1.265115e+01 4.598486e+00 1.472979e+01 5.982874e+01 1.105568e+02 2.948948e+01 3.403031e+01 3.565403e+01 1.377811e+01 1.334334e-03 4.857410e-01 3.901947e+00 3.639711e+00 1.690354e+00 7.824115e-01 4.464212e+00 7.003055e+00 8.980401e+00 4.102697e+00 2.956260e+00 5.132761e+00 1.794817e+00 2.515913e-04 4.032477e-02 4.942835e-01 7.095135e-01 3.315568e-01 1.549530e-01 3.618589e-01 1.204038e+00 1.630141e+00 7.382765e-01 4.973680e-01 9.539475e-01 2.679546e-01 5.007907e-05
<GCONST> 8.668469e+01
<STATE> 6
<MEAN> 39
 -1.002077e+00 -1.195482e+01 -3.723277e+00 3.860522e+00 -3.583415e+00 -1.375937e+01 -1.215100e+00 -4.217643e-01 -9.718853e+00 -2.475046e+00 -6.545935e+00 -2.461275e+00 9.045044e-01 1.842658e-01 2.305252e-01 5.624244e-01 2.733119e-03 3.949130e-02 5.441355e-02 -1.799631e-02 -5.158839e-01 -2.813492e-01 -2.193561e-01 -3.766677e-01 -3.182324e-01 -1.201204e-02 2.591729e-02 1.122031e-01 -7.403845e-02 -1.157192e-01 8.121386e-04 3.058354e-02 9.937920e-02 9.445143e-03 1.192057e-01 -3.649461e-02 3.807741e-02 1.009963e-01 -2.370426e-03
<VARIANCE> 39
 8.039113e+00 7.368412e+00 1.636126e+01 1.837549e+01 5.352260e+00 5.729007e+00 1.918338e+01 1.241048e+01 1.189156e+01 2.063726e+01 3.031252e+01 1.066509e+01 6.364449e-03 3.224787e-01 7.109556e-01 1.189725e+00 1.916013e+00 8.098688e-01 4.300988e-01 1.964852e+00 4.344573e-01 1.226574e+00 2.412768e+00 2.316981e+00 5.471963e-01 1.360741e-04 4.647543e-02 6.751052e-02 1.685086e-01 2.316605e-01 1.516753e-01 7.900482e-02 2.991105e-01 6.529815e-02 2.906371e-01 3.821025e-01 3.522004e-01 1.199685e-01 1.707950e-05
<GCONST> 5.343595e+01
<STATE> 7
<MEAN> 39
 2.143073e+00 -1.411629e+00 2.747223e+00 4.428991e+00 -7.653713e-01 -5.009791e+00 2.148941e-01 -3.065953e+00 -5.306285e+00 -8.455280e+00 -8.898743e+00 -4.831616e-01 5.056347e-01 -1.965063e-01 7.391949e-01 3.626862e-01 5.805205e-01 5.998723e-01 1.227205e+00 1.323694e-01 9.516432e-01 1.045645e+00 1.865534e-01 1.536353e+00 7.447756e-01 -3.183361e-02 8.390321e-03 -4.531260e-02 -2.654955e-02 -8.255345e-03 2.022066e-02 -7.737297e-02 -1.069950e-01 4.801901e-02 -7.850057e-02 1.247651e-01 1.638073e-01 -1.549766e-01 2.233440e-03
<VARIANCE> 39
 4.908577e-01 3.869908e+00 8.018798e+00 9.842913e+00 1.307423e+01 2.067558e+01 1.115782e+01 1.883725e+01 1.651104e+01 1.111047e+01 3.235324e+01 9.926235e+00 5.984521e-03 1.259260e-01 1.901733e-01 7.094718e-01 3.132112e-01 5.797178e-01 6.559535e-01 2.925578e+00 7.404448e-01 7.174981e-01 2.095966e+00 2.337404e+00 3.341537e+00 3.041603e-04 2.888390e-02 5.577598e-02 2.179197e-01 1.642931e-01 1.665432e-01 1.157046e-01 6.558348e-01 1.924135e-01 1.104269e-01 3.649288e-01 1.948302e-01 8.215067e-01 4.239838e-05
<GCONST> 5.154396e+01
<STATE> 8
<MEAN> 39
 4.621996e-01 3.146182e+00 2.146245e+00 4.658530e+00 1.584682e+00 2.051671e+00 2.861323e-01 1.102602e+00 5.350732e+00 -3.763305e+00 2.114227e+00 -5.064988e-01 3.183043e-01 -2.015298e-01 2.807566e-01 -3.163175e-01 -5.427681e-01 -8.418263e-02 1.112714e+00 1.259501e-01 -4.766056e-01 9.218844e-01 7.339746e-01 5.506206e-01 -4.189022e-01 -1.376268e-02 2.819821e-02 -2.156586e-02 2.269131e-01 5.872913e-02 1.931850e-02 9.583691e-02 -1.471645e-01 -1.779540e-01 -3.328061e-01 -1.564588e-01 -2.818820e-01 1.949623e-02 4.376714e-03
<VARIANCE> 39
 8.524123e-01 2.405583e+00 2.936056e+00 5.278912e+00 6.074449e+00 1.972545e+01 4.524127e+00 1.308398e+01 2.892362e+01 1.312561e+01 1.458799e+01 9.982135e+00 1.205497e-03 8.219497e-02 4.394842e-01 5.127671e-01 6.287726e-01 8.899538e-01 1.494923e+00 3.931897e-01 1.033059e+00 4.270994e+00 5.725185e-01 2.646090e+00 1.311215e+00 2.072142e-04 1.260076e-02 1.211649e-01 4.389019e-02 8.685501e-02 1.552697e-01 2.340948e-01 6.254133e-02 9.361143e-02 7.648537e-01 4.010161e-02 1.019990e+00 4.566183e-01 7.303227e-06
<GCONST> 4.020544e+01
<STATE> 9
<MEAN> 39
 -3.042297e-01 4.490304e+00 5.450030e+00 2.002967e+00 8.939320e-01 1.067807e+01 3.844473e+00 3.138871e-01 4.259941e+00 3.765395e+00 2.925394e+00 -9.497249e-02 3.551864e-01 -2.281362e-02 1.125291e-02 1.598147e-01 -5.785073e-02 7.168463e-03 1.277783e-02 1.046275e-02 -3.517554e-02 -5.829871e-02 9.161345e-02 -8.734197e-03 1.041791e-01 1.082271e-03 -3.582189e-04 -1.920377e-02 -1.105957e-02 -2.851534e-02 -9.542841e-03 -6.651191e-02 -1.441682e-02 4.431369e-03 2.846358e-02 1.402551e-02 2.539966e-02 2.847579e-02 -3.084529e-04
<VARIANCE> 39
 9.275756e-01 3.294482e+00 5.297323e+00 6.901299e+00 6.954509e+00 9.828801e+00 1.638947e+01 1.750679e+01 1.144200e+01 1.539569e+01 1.227624e+01 1.701754e+01 2.909420e-03 1.111662e-01 3.667277e-01 5.334426e-01 8.850638e-01 8.430896e-01 1.216896e+00 1.984723e+00 1.691585e+00 1.199216e+00 1.256565e+00 2.040879e+00 2.284021e+00 2.252468e-04 2.268493e-02 7.360940e-02 8.070949e-02 1.836492e-01 1.949029e-01 2.539735e-01 4.543978e-01 3.403804e-01 2.292010e-01 2.391763e-01 4.473105e-01 4.822980e-01 4.416101e-05
<GCONST> 5.184407e+01
<TRANSP> 10
 0.000000e+00 1.000000e+00 0.000000e+00 0.000000e+00 0.000000e+00 0.000000e+00 0.000000e+00 0.000000e+00 0.000000e+00 0.000000e+00
 0.000000e+00 9.687500e-01 3.125000e-02 0.000000e+00 0.000000e+00 0.000000e+00 0.000000e+00 0.000000e+00 0.000000e+00 0.000000e+00
 0.000000e+00 0.000000e+00 7.503591e-01 2.496409e-01 0.000000e+00 0.000000e+00 0.000000e+00 0.000000e+00 0.000000e+00 0.000000e+00
 0.000000e+00 0.000000e+00 0.000000e+00 9.519297e-01 4.807032e-02 0.000000e+00 0.000000e+00 0.000000e+00 0.000000e+00 0.000000e+00
 0.000000e+00 0.000000e+00 0.000000e+00 0.000000e+00 9.124956e-01 8.750436e-02 0.000000e+00 0.000000e+00 0.000000e+00 0.000000e+00
 0.000000e+00 0.000000e+00 0.000000e+00 0.000000e+00 0.000000e+00 9.596188e-01 4.038120e-02 0.000000e+00 0.000000e+00 0.000000e+00
 0.000000e+00 0.000000e+00 0.000000e+00 0.000000e+00 0.000000e+00 0.000000e+00 8.888851e-01 1.111149e-01 0.000000e+00 0.000000e+00
 0.000000e+00 0.000000e+00 0.000000e+00 0.000000e+00 0.000000e+00 0.000000e+00 0.000000e+00 8.644693e-01 1.355307e-01 0.000000e+00
 0.000000e+00 0.000000e+00 0.000000e+00 0.000000e+00 0.000000e+00 0.000000e+00 0.000000e+00 0.000000e+00 9.790010e-01 2.099901e-02
 0.000000e+00 0.000000e+00 0.000000e+00 0.000000e+00 0.000000e+00 0.000000e+00 0.000000e+00 0.000000e+00 0.000000e+00 0.000000e+00
<ENDHMM>
~h "s006"
<BEGINHMM>
<NUMSTATES> 10
<STATE> 2
<MEAN> 39
 -2.242903e+00 -4.875428e+00 2.646957e+00 6.448808e+00 5.326971e+00 1.008687e+01 4.412194e+00 9.051372e-01 1.837478e+00 1.188549e+00 -7.117229e-01 3.129628e+00 8.655128e-02 2.285311e-02 5.602111e-02 3.696210e-02 8.044629e-02 -1.083220e-02 9.861173e-03 2.910089e-02 8.134809e-02 -1.146404e-01 -9.686602e-02 3.043827e-02 1.127579e-01 1.518451e-03 1.524919e-02 2.862821e-02 3.011052e-02 -3.796105e-04 -1.430525e-03 -1.231937e-02 -1.468813e-02 -5.295174e-02 1.614591e-02 -4.072065e-03 -7.958974e-03 -4.362753e-02 8.760643e-04
<VARIANCE> 39
 2.086028e+00 3.881843e+00 1.113562e+01 8.889245e+00 1.238638e+01 7.812509e+00 1.220935e+01 1.879926e+01 1.980643e+01 1.610293e+01 1.429109e+01 2.098584e+01 3.945704e-03 1.546774e-01 5.444378e-01 1.096022e+00 1.009322e+00 1.047075e+00 1.159660e+00 1.511506e+00 2.745909e+00 2.527831e+00 1.701509e+00 2.184540e+00 3.082319e+00 3.286233e-04 2.808127e-02 9.877165e-02 2.114441e-01 1.815678e-01 1.948393e-01 2.730379e-01 3.528637e-01 5.341471e-01 5.486448e-01 3.405348e-01 5.290967e-01 7.538473e-01 4.974126e-05
<GCONST> 6.263937e+01
<STATE> 3
<MEAN> 39
 5.350856e-01 -1.696241e+00 1.052469e+00 1.038630e+01 8.771303e+00 9.897839e+00 2.717420e+00 3.267767e-01 -1.816393e+00 -4.949049e+00 1.596677e+00 1.137109e+01 1.038810e-01 -2.266774e-01 1.386834e-01 9.980482e-01 1.142183e+00 1.017751e+00 -1.058073e+00 -1.602413e+00 -5.100898e-02 -7.495027e-01 -2.696329e+00 6.319614e-01 2.324585e+00 2.327690e-02 7.157224e-01 1.719892e-01 -4.641303e-01 -1.342138e+00 -1.341548e+00 -1.251681e+00 -9.549770e-01 -1.926076e-01 4.157193e-01 5.910466e-01 -6.112182e-01 -5.406689e-01 2.971497e-02
<VARIANCE> 39
 1.313605e-03 3.166671e-03 6.838378e-02 1.079583e-01 2.231285e-01 8.125886e-02 8.404052e-02 1.588133e-02 7.927565e-03 8.136788e-02 1.052770e-02 3.632229e-02 3.941112e-08 1.430244e-02 7.345726e-03 3.027117e-04 2.675444e-02 4.412871e-02 4.561115e-03 2.755322e-03 8.219228e-04 3.936188e-03 1.931644e-02 3.349693e-03 1.007992e-02 1.311585e-05 3.342260e-04 1.212220e-04 6.345684e-04 9.277160e-04 3.084044e-04 1.482351e-03 8.624348e-05 4.041059e-07 8.115036e-05 1.589382e-03 4.002185e-05 3.244182e-04 5.796967e-07
<GCONST> -1.803600e+02
<STATE> 4
<MEAN> 39
 5.033082e+00 -2.957390e+00 -2.713939e+00 -4.338881e-01 -4.411777e+00 -1.236461e+01 -1.864082e+00 3.087023e+00 -4.899854e+00 -2.588343e+00 -4.552512e+00 -2.645208e-03 6.400185e-01 -2.606124e-02 -4.993778e-01 -7.116338e-01 -2.622481e+00 -1.414618e+00 -7.463532e-01 6.244653e-02 2.747248e-01 -8.582705e-01 5.086184e-01 -9.394127e-01 -1.588094e+00 6.776626e-02 -2.183348e-01 1.855558e-02 -2.055610e-02 -2.976888e-01 6.956685e-02 5.035314e-01 -6.944078e-02 -5.648670e-02 2.027775e-01 2.942132e-02 -1.050373e-01 -1.817594e-02 -4.898202e-03
<VARIANCE> 39
 2.323671e+01 2.657989e+01 2.766091e+01 6.757149e+01 2.677841e+01 2.522345e+02 6.732108e+01 6.270368e+01 5.495560e+01 4.915325e+01 1.599167e+01 4.907833e+01 6.525064e-02 4.978597e+00 3.231129e+00 2.564855e+00 3.953277e+00 2.595282e+00 5.317669e+01 1.382152e+01 1.223307e+01 6.766975e+00 1.141866e+01 7.077819e-01 3.030870e+00 3.342113e-03 6.783370e-01 7.279510e-01 5.540298e-01 1.146403e+00 7.442439e-01 8.098545e+00 3.191340e+00 2.773219e+00 1.962827e+00 3.457671e+00 1.754102e-01 9.617089e-01 5.923128e-04
<GCONST> 1.247221e+02
<STATE> 5
<MEAN> 39
 -3.246583e+00 -1.463637e+00 -4.249234e+00 -2.202103e+01 -8.861039e+00 -2.742186e+00 -3.890843e+00 4.167222e+00 -5.204307e+00 -5.277538e+00 -9.434462e+00 -7.584649e+00 8.771889e-01 -4.497995e-01 2.180927e+00 -7.443560e-02 -8.090401e-01 4.415090e-01 -1.977351e+00 -1.746228e+00 4.760736e-01 1.553766e+00 -9.176480e-01 1.252148e+00 2.959765e-01 5.943055e-03 2.776718e-01 4.047612e-02 -1.813139e-01 8.156728e-01 9.582349e-02 -8.419521e-01 2.028605e-01 1.066953e-01 -2.596280e-01 3.965980e-01 7.015394e-01 -8.070915e-02 5.119914e-04
<VARIANCE> 39
 1.446416e+00 1.834087e+01 2.835554e+00 2.344610e+00 7.955782e-01 3.624501e+01 5.795558e+00 6.979627e+00 7.271244e+00 2.199752e+01 9.567601e+00 2.055277e+00 2.865380e-05 3.252769e-01 1.545757e-01 2.811927e-01 2.032071e+00 3.883566e-02 1.210439e+00 1.891904e+00 1.485856e+00 1.640692e+00 5.702203e+00 3.592194e+00 8.048651e-01 3.227101e-05 4.988131e-03 1.570873e-01 4.788693e-02 9.656670e-02 7.729719e-02 2.212919e+00 3.462504e-01 7.968739e-01 1.772388e-01 1.462672e+00 1.895809e-01 2.352829e-01 1.650570e-05
<GCONST> 3.783434e+01
<STATE> 6
<MEAN> 39
 -2.471207e+00 1.061719e+01 -3.934300e+00 -1.257449e+01 -6.211778e+00 -1.693774e+01 -8.687737e+00 9.252016e-02 -1.986946e+00 -3.392445e+00 3.057179e+00 -1.081032e+01 7.805715e-01 3.017605e-01 6.817668e-02 -1.050884e-01 1.294101e-01 2.832903e-01 -2.203401e-01 -2.131060e-02 -2.270929e-01 4.780711e-02 2.739284e-02 2.501287e-01 3.982325e-01 -1.146288e-03 2.190226e-02 -5.742451e-02 3.923851e-02 4.543058e-02 -3.862869e-02 3.849538e-02 7.547632e-02 4.140726e-03 5.883486e-02 -2.101238e-02 -1.906168e-01 5.831062e-02 -1.640247e-03
<VARIANCE> 39
 1.636514e+01 6.312812e+00 9.939125e+00 6.091369e+01 2.259107e+01 1.075692e+01 1.122193e+01 2.320815e+01 2.004951e+01 2.111370e+01 4.447245e+01 4.670757e+01 3.116152e-02 1.498705e+00 7.335767e-01 7.745064e-01 3.488444e+00 1.907903e+00 1.194265e+00 1.042860e+00 2.173859e+00 2.366564e+00 3.680909e+00 8.429354e+00 6.607861e+00 1.986655e-03 2.134753e-01 7.255336e-02 1.458977e-01 3.597895e-01 4.138630e-01 1.492049e-01 1.723534e-01 4.537141e-01 4.443936e-01 9.402898e-01 1.882741e+00 9.726381e-01 2.326492e-04
<GCONST> 8.560715e+01
<STATE> 7
<MEAN> 39
 8.761738e+00 6.593318e+00 -2.840553e+00 -8.339224e+00 -1.107693e+00 -1.142755e+01 -5.205896e+00 -5.393321e+00 2.668719e+00 4.212138e+00 1.062761e+00 3.442364e+00 6.481566e-01 1.046525e-01 -2.985049e-01 8.039114e-01 1.158867e+00 -5.113103e-01 7.320911e-01 2.379178e-01 -2.783398e-01 4.313790e-01 6.217262e-01 -2.022004e-01 -1.860643e-01 -3.428825e-02 -1.139951e-01 -4.832850e-02 -1.965412e-02 -4.556911e-02 4.254412e-02 5.821398e-02 -4.711204e-02 7.455032e-02 -2.336237e-01 -1.086634e-01 3.011324e-01 -1.581459e-01 1.091590e-03
<VARIANCE> 39
 2.028580e+00 3.955747e+00 1.107157e+01 1.098921e+01 8.040913e+00 3.477857e+01 7.545969e+00 8.223690e+00 1.059180e+01 1.206207e+01 9.021146e+00 4.725313e+00 1.809793e-02 5.446838e-01 6.622941e-01 2.088301e-01 1.342878e+00 1.159412e+00 2.114039e+00 1.334523e+00 9.390856e-01 2.076343e+00 2.838171e+00 2.494879e+00 6.247569e-01 2.637004e-04 5.587199e-02 1.584914e-01 4.820433e-02 2.441355e-01 2.148736e-01 4.084405e-01 2.430458e-01 2.594784e-01 5.079935e-01 5.463060e-01 4.898238e-01 2.207062e-01 6.261222e-05
<GCONST> 5.817058e+01
<STATE> 8
<MEAN> 39
 5.209586e+00 2.230305e-01 8.930688e-01 1.157230e+00 -4.900423e+00 -3.859255e+00 -3.540126e+00 -5.287236e+00 1.191267e+00 3.601266e+00 1.906767e+00 2.587053e+00 2.845179e-01 -6.328056e-01 -5.770774e-01 -5.615478e-02 6.039031e-01 -2.685056e-02 6.786378e-01 2.268909e-01 1.804896e-01 -4.933165e-01 -2.732658e-01 -3.354027e-01 2.356038e-01 -3.560963e-02 -1.834827e-02 6.327662e-02 4.981715e-03 -1.166665e-01 2.170116e-01 1.328778e-01 -4.578326e-02 7.264595e-03 8.340342e-03 2.679482e-02 -1.036135e-02 6.083955e-02 3.735686e-04
<VARIANCE> 39
 6.524290e+00 4.393239e+00 4.724751e+00 9.620707e+00 1.147445e+01 6.165843e+00 1.435232e+01 1.879620e+00 7.424591e+00 2.267509e+01 1.990721e+01 8.677873e+00 1.334782e-02 3.417467e-01 3.019811e-01 7.424721e-01 1.604839e+00 1.639070e+00 1.050630e+00 3.562683e-01 2.186151e-01 7.989466e-01 1.485323e+00 1.196614e+00 4.411694e-01 8.122520e-05 6.753597e-02 5.234885e-02 1.454530e-01 2.457001e-01 4.701488e-01 2.489416e-01 3.437430e-02 4.822627e-02 1.641432e-01 2.637829e-01 1.980967e-01 7.145581e-02 3.008524e-05
<GCONST> 4.304165e+01
<STATE> 9
<MEAN> 39
 -2.670863e-01 -3.664121e+00 1.990345e+00 7.637745e+00 2.595315e+00 9.436354e+00 5.097667e+00 3.247356e-01 5.267563e-01 7.746993e-01 1.933481e-01 4.027188e+00 1.247533e-01 -3.598512e-02 -7.200328e-02 6.499606e-03 9.812958e-02 1.459358e-01 1.275614e-01 1.756602e-01 2.688193e-01 1.887391e-01 -7.990313e-02 -9.916695e-02 1.454111e-02 -9.357843e-04 8.128797e-03 4.159891e-03 -8.468423e-03 -3.511661e-02 -3.802892e-02 -5.882807e-02 3.466457e-02 6.564647e-02 7.720156e-02 -4.930279e-02 -6.412750e-02 6.128870e-03 6.471334e-04
<VARIANCE> 39
 1.373996e+00 4.299769e+00 6.174562e+00 1.354601e+01 2.134826e+01 2.332376e+01 2.354767e+01 1.836857e+01 1.917520e+01 1.486406e+01 1.342984e+01 1.598618e+01 3.706216e-03 1.888874e-01 5.984943e-01 5.859355e-01 1.107458e+00 2.776960e+00 2.111978e+00 1.298446e+00 2.039646e+00 3.176783e+00 2.105690e+00 1.642828e+00 1.509660e+00 2.916873e-04 4.495103e-02 1.341125e-01 1.203783e-01 1.783178e-01 5.859658e-01 2.873547e-01 1.787445e-01 2.959973e-01 6.473407e-01 4.318762e-01 3.374448e-01 2.447068e-01 4.984110e-05
<GCONST> 6.303516e+01
<TRANSP> 10
 0.000000e+00 1.000000e+00 0.000000e+00 0.000000e+00 0.000000e+00 0.000000e+00 0.000000e+00 0.000000e+00 0.000000e+00 0.000000e+00
 0.000000e+00 9.782609e-01 2.173913e-02 0.000000e+00 0.000000e+00 0.000000e+00 0.000000e+00 0.000000e+00 0.000000e+00 0.000000e+00
 0.000000e+00 0.000000e+00 3.507024e-03 9.964930e-01 0.000000e+00 0.000000e+00 0.000000e+00 0.000000e+00 0.000000e+00 0.000000e+00
 0.000000e+00 0.000000e+00 0.000000e+00 9.090618e-01 9.093818e-02 0.000000e+00 0.000000e+00 0.000000e+00 0.000000e+00 0.000000e+00
 0.000000e+00 0.000000e+00 0.000000e+00 0.000000e+00 8.333333e-01 1.666667e-01 0.000000e+00 0.000000e+00 0.000000e+00 0.000000e+00
 0.000000e+00 0.000000e+00 0.000000e+00 0.000000e+00 0.000000e+00 9.687654e-01 3.123458e-02 0.000000e+00 0.000000e+00 0.000000e+00
 0.000000e+00 0.000000e+00 0.000000e+00 0.000000e+00 0.000000e+00 0.000000e+00 9.165550e-01 8.344498e-02 0.000000e+00 0.000000e+00
 0.000000e+00 0.000000e+00 0.000000e+00 0.000000e+00 0.000000e+00 0.000000e+00 0.000000e+00 9.000168e-01 9.998324e-02 0.000000e+00
 0.000000e+00 0.000000e+00 0.000000e+00 0.000000e+00 0.000000e+00 0.000000e+00 0.000000e+00 0.000000e+00 9.761896e-01 2.381033e-02
 0.000000e+00 0.000000e+00 0.000000e+00 0.000000e+00 0.000000e+00 0.000000e+00 0.000000e+00 0.000000e+00 0.000000e+00 0.000000e+00
<ENDHMM>
~h "s007"
<BEGINHMM>
<NUMSTATES> 10
<STATE> 2
<MEAN> 39
 -2.466688e+00 1.202942e+00 4.773777e+00 3.749330e+00 4.438025e+00 1.210794e+01 5.589263e+00 9.379178e-02 4.478797e-01 3.848943e+00 5.488448e+00 3.293432e+00 9.000274e-02 -3.640778e-02 -2.186178e-02 3.045108e-02 5.733468e-02 -3.998537e-02 5.677057e-02 6.707092e-02 1.718223e-02 -1.001141e-01 -1.235594e-01 -7.741589e-02 9.290790e-02 -1.371517e-03 -1.115560e-02 1.721910e-02 -3.043871e-02 -3.174205e-02 1.906735e-02 -3.979656e-02 -4.012803e-02 -1.318391e-02 -4.864389e-02 -2.156565e-02 -5.056246e-02 -2.003287e-02 -2.974582e-04
<VARIANCE> 39
 2.332182e+00 2.911891e+00 5.375412e+00 9.532072e+00 8.845800e+00 1.403826e+01 1.382467e+01 1.910923e+01 1.071688e+01 1.607167e+01 1.582392e+01 1.733088e+01 3.478746e-03 1.540158e-01 3.136821e-01 7.263290e-01 7.657951e-01 9.444222e-01 1.241717e+00 1.843448e+00 2.655894e+00 1.158522e+00 1.666787e+00 2.117297e+00 2.598795e+00 2.960456e-04 3.182343e-02 6.676040e-02 1.391974e-01 1.362944e-01 1.980058e-01 2.865432e-01 4.088773e-01 6.010338e-01 2.216856e-01 3.429641e-01 4.302849e-01 6.599464e-01 4.099883e-05
<GCONST> 5.706950e+01
<STATE> 3
<MEAN> 39
 -6.936762e+00 3.982221e+00 1.293048e+00 3.078003e+00 7.224900e+00 8.977013e+00 4.272478e+00 1.700846e+00 -5.795760e+00 1.287020e+00 2.179202e-03 -4.885408e-02 4.871556e-02 -1.938767e+00 1.876404e+00 -1.550924e+00 -7.868823e-01 4.048182e-01 -1.992751e+00 -5.685412e-03 3.191447e-01 1.788601e-01 8.947188e-01 -2.263954e-01 -7.748249e-01 2.126617e-02 -1.318226e-01 1.106639e-01 -2.978435e-01 1.815724e-01 -5.341273e-01 -2.091968e-01 -1.231197e-01 2.306431e-01 9.197026e-01 6.823006e-02 4.429906e-01 5.341617e-01 9.918243e-03
<VARIANCE> 39
 1.403394e+01 1.607978e+01 1.072901e+01 6.032618e+00 3.422467e+01 1.310557e+01 1.482725e+01 8.267242e+00 3.463040e+01 2.558638e+01 2.775470e+01 1.961312e+01 2.387594e-03 3.185075e-01 6.453873e-01 2.108837e+00 3.067620e-01 6.574591e+00 5.955971e-01 6.479201e-01 4.686893e-01 5.025549e+00 9.606606e-01 2.283254e+00 3.912028e+00 2.877005e-04 1.953190e-01 4.280793e-01 2.680910e-01 1.314473e-01 8.650663e-01 6.264848e-02 9.174010e-02 4.885322e-02 3.825800e-01 2.719815e-01 2.661415e-01 5.218595e-01 1.380340e-05
<GCONST> 6.341861e+01
<STATE> 4
<MEAN> 39
 -1.300228e+01 8.272127e+00 -2.596569e+00 3.344563e-01 1.250779e+00 -3.720712e+00 2.949852e-01 3.250440e+00 6.803864e+00 -1.961963e+00 1.929698e+00 1.118171e+00 3.365683e-01 1.091386e+00 3.553535e-02 1.017847e+00 -1.655008e+00 -2.052694e+00 -1.639081e+00 -2.179769e+00 -3.626480e-01 1.226676e+00 -1.632497e+00 -1.706264e-01 -1.383883e+00 7.008192e-02 4.578804e-01 -1.159632e-01 3.808954e-01 -5.711184e-01 -3.531935e-01 2.154661e-01 -2.455634e-01 -6.133422e-02 -1.656707e-01 7.652985e-02 -1.648250e-01 -6.199420e-01 1.031701e-02
<VARIANCE> 39
 2.719322e+01 5.072839e+00 1.376715e+01 2.638784e+01 5.118367e+01 2.847110e+01 6.187623e+01 2.366386e+01 2.186860e+01 3.253366e+01 2.647835e+01 1.434213e+01 2.587306e-02 5.716914e+00 9.512258e-01 1.061847e+00 6.052474e+00 9.338651e+00 9.274153e-01 6.990459e+00 2.695022e+00 3.842232e+00 1.101817e+00 3.249452e+00 6.502597e+00 2.290796e-03 5.715146e-01 3.749878e-01 2.556957e-01 3.754895e-01 1.352733e+00 2.251077e-01 1.271106e+00 5.919325e-01 7.489777e-01 8.993558e-01 5.529822e-01 4.183081e-01 2.264503e-04
<GCONST> 9.737926e+01
<STATE> 5
<MEAN> 39
 -4.127855e-01 -6.344702e-01 3.425657e+00 -1.480525e+01 -1.571049e+01 -1.322241e+01 -1.972357e+00 -8.363860e+00 4.487283e+00 5.053618e+00 -9.415688e+00 -1.377103e+01 9.454085e-01 5.886098e-02 -1.163948e+00 -3.475360e-01 9.033288e-01 5.971138e-01 -4.550644e-01 8.608318e-01 -6.273737e-01 -6.308505e-01 5.451517e-01 1.808403e-01 9.750959e-02 8.421922e-03 -1.039178e-01 -2.631968e-02 -1.589890e-01 4.292983e-01 3.232329e-01 -1.118458e-01 4.719264e-02 1.309320e-01 -1.875920e-02 -9.732167e-02 1.587790e-01 3.187927e-01 -6.469177e-03
<VARIANCE> 39
 1.697111e+00 5.393984e+01 1.609522e+01 5.151459e+01 3.603135e+01 1.310816e+01 7.649187e+01 5.180581e+01 8.477954e+01 5.395091e+01 7.014780e+01 3.000171e+01 1.327235e-03 4.595067e-01 6.384305e-01 1.065835e+00 4.537269e+00 3.558302e+00 2.316724e+00 2.571702e+00 2.223948e+00 8.542056e+00 6.062091e+00 6.778423e+00 7.613600e+00 1.360281e-03 2.394824e-01 1.617235e-01 2.225790e-01 2.859175e-01 6.115769e-01 4.795207e-01 5.041112e-01 3.821700e-01 1.797577e+00 6.726756e-01 5.563717e-01 2.156660e+00 2.702191e-04
<GCONST> 9.558244e+01
<STATE> 6
<MEAN> 39
 4.101970e+00 -8.769158e-02 -4.211403e+00 -5.074696e+00 -4.400599e+00 -1.403907e+01 -9.192085e+00 3.930691e+00 -2.587358e-03 -1.669654e+00 -5.463830e+00 -3.037356e+00 7.812067e-01 2.433658e-01 2.900501e-01 -3.134367e-01 -1.698955e-01 1.985097e-01 7.556831e-02 -1.033830e-01 4.562665e-01 2.814648e-01 -1.366068e-01 -2.494500e-01 1.203462e-01 -4.701869e-03 -2.544304e-02 -3.385884e-02 2.220479e-02 -8.285058e-02 -2.314438e-02 5.685886e-02 7.977249e-02 -5.064176e-02 -3.580841e-02 -5.280647e-02 -3.945798e-02 1.751237e-02 -2.706587e-04
<VARIANCE> 39
 2.182617e+01 3.479842e+01 9.259982e+01 9.041516e+01 4.940929e+01 4.047977e+01 2.506897e+01 3.791931e+01 4.066722e+01 2.751847e+01 2.571933e+01 2.928596e+01 9.557985e-03 8.175058e-01 1.082203e+00 3.218992e+00 3.161277e+00 2.607333e+00 2.666438e+00 3.441830e+00 3.462510e+00 2.389749e+00 3.814134e+00 2.500072e+00 4.620289e+00 4.767823e-04 7.406448e-02 1.732225e-01 2.323051e-01 4.681555e-01 4.055837e-01 4.509392e-01 5.851787e-01 6.946718e-01 3.912645e-01 6.764330e-01 6.034690e-01 9.194556e-01 7.758410e-05
<GCONST> 9.386158e+01
<STATE> 7
<MEAN> 39
 7.297666e+00 -6.913532e+00 -1.224529e+01 4.052862e+00 5.590037e+00 -1.578678e+01 -2.865804e+00 -7.423237e-01 -7.281118e-01 -1.204399e+01 -4.041476e+00 2.809548e+00 6.689265e-01 -2.251072e-01 -4.167712e-01 6.960392e-01 8.256425e-01 -1.389808e-01 8.020326e-01 8.938738e-03 -8.546404e-01 -6.035855e-01 -3.965684e-02 4.744968e-01 3.899138e-01 -1.913956e-02 -1.560078e-02 1.414582e-01 -1.387717e-02 -2.551652e-02 -2.503045e-02 1.224518e-01 -9.277911e-02 9.460501e-02 1.046879e-01 3.773381e-01 2.001594e-01 -5.082512e-02 -4.342490e-03
<VARIANCE> 39
 2.820490e+00 5.587698e+00 2.574918e+01 2.407253e+01 4.344688e+00 2.386082e+01 5.447721e+00 4.203091e+01 3.441727e+01 1.592836e+01 2.385380e+01 1.243037e+01 5.654998e-03 5.205706e-01 8.456860e-01 8.619292e-01 2.749920e-01 7.831095e-01 2.429905e+00 4.764549e-01 1.900410e+00 2.580905e+00 5.257917e+00 4.796238e+00 3.324157e+00 8.087927e-04 1.051081e-01 4.035128e-02 1.949641e-01 1.089110e-01 1.863287e-01 1.940862e-01 1.575174e-01 5.695188e-01 2.961289e-01 8.963705e-01 9.327701e-01 4.982782e-01 3.485784e-05
<GCONST> 6.690076e+01
<STATE> 8
<MEAN> 39
 5.133251e+00 -5.707187e+00 -7.373380e+00 6.737668e+00 4.758995e+00 -5.731099e-01 -7.195252e-01 9.755071e-01 1.672288e+00 -3.087135e+00 4.281639e+00 5.554588e+00 2.651007e-01 -6.274146e-01 7.349401e-01 1.051630e-01 -6.455092e-01 2.408061e-01 1.198267e+00 1.847425e+00 2.041789e+00 -5.324984e-01 3.250639e-01 1.354734e+00 7.911863e-01 -5.175763e-02 1.278045e-01 2.085746e-01 5.205826e-01 1.306968e-01 -1.209080e-02 -1.252823e-01 4.442287e-02 -6.349980e-01 -5.893217e-01 -3.508375e-01 -9.011999e-01 -7.296171e-01 1.188625e-02
<VARIANCE> 39
 3.155220e-01 4.474154e-01 2.160034e+00 3.589081e+00 3.758738e+00 5.848657e+00 2.555290e+01 7.805895e+00 6.781691e+00 2.023810e+00 5.242470e+00 1.011296e+01 2.631580e-03 3.003236e-02 1.870057e-01 1.679330e+00 8.372353e-01 1.358015e-01 4.616481e-02 8.566708e-01 1.684733e+00 2.753992e+00 2.482962e+00 1.897145e+00 1.723179e+00 3.900702e-04 8.470109e-04 8.852796e-03 7.448312e-02 8.343530e-02 7.249647e-02 1.548858e-01 2.560397e-01 6.629997e-01 3.316554e-01 8.065563e-01 3.330793e-02 1.940510e-01 7.361910e-06
<GCONST> 2.519051e+01
<STATE> 9
<MEAN> 39
 -8.036063e-01 -1.275211e-01 2.567811e+00 4.550775e+00 2.602138e+00 1.088468e+01 4.100787e+00 -1.057643e+00 -2.875064e+00 -6.540849e-02 3.792983e+00 3.366959e+00 4.702714e-02 -8.146545e-02 9.285866e-02 2.068456e-01 -5.091556e-02 -2.083595e-02 2.276534e-01 -5.086689e-03 -9.386785e-02 1.585995e-02 1.200702e-01 4.712830e-02 -7.168429e-03 -2.638666e-03 2.257140e-02 -1.612293e-02 -4.681196e-03 9.225131e-03 3.019427e-02 -4.416497e-02 -5.707125e-02 -4.236870e-03 4.283235e-02 -7.370247e-02 -2.604683e-03 3.776015e-02 6.984152e-04
<VARIANCE> 39
 4.343884e+00 2.593297e+00 7.764561e+00 7.712763e+00 1.039796e+01 1.532245e+01 1.858835e+01 1.232519e+01 1.573036e+01 2.960063e+01 1.026274e+01 8.970805e+00 2.786384e-03 2.504306e-01 2.867237e-01 7.928306e-01 1.008971e+00 1.328204e+00 1.123990e+00 9.254351e-01 1.293261e+00 1.523265e+00 3.683483e+00 1.160286e+00 1.015056e+00 2.181356e-04 4.137444e-02 4.312221e-02 1.634771e-01 2.416335e-01 2.295406e-01 1.853497e-01 1.947084e-01 2.264591e-01 2.971812e-01 7.875321e-01 2.537359e-01 1.965802e-01 3.519332e-05
<GCONST> 5.411671e+01
<TRANSP> 10
 0.000000e+00 1.000000e+00 0.000000e+00 0.000000e+00 0.000000e+00 0.000000e+00 0.000000e+00 0.000000e+00 0.000000e+00 0.000000e+00
 0.000000e+00 9.804176e-01 1.958239e-02 0.000000e+00 0.000000e+00 0.000000e+00 0.000000e+00 0.000000e+00 0.000000e+00 0.000000e+00
 0.000000e+00 0.000000e+00 7.969434e-01 2.030565e-01 0.000000e+00 0.000000e+00 0.000000e+00 0.000000e+00 0.000000e+00 0.000000e+00
 0.000000e+00 0.000000e+00 0.000000e+00 8.889996e-01 1.110004e-01 0.000000e+00 0.000000e+00 0.000000e+00 0.000000e+00 0.000000e+00
 0.000000e+00 0.000000e+00 0.000000e+00 0.000000e+00 9.486581e-01 5.134190e-02 0.000000e+00 0.000000e+00 0.000000e+00 0.000000e+00
 0.000000e+00 0.000000e+00 0.000000e+00 0.000000e+00 0.000000e+00 9.780592e-01 2.194077e-02 0.000000e+00 0.000000e+00 0.000000e+00
 0.000000e+00 0.000000e+00 0.000000e+00 0.000000e+00 0.000000e+00 0.000000e+00 9.372863e-01 6.271374e-02 0.000000e+00 0.000000e+00
 0.000000e+00 0.000000e+00 0.000000e+00 0.000000e+00 0.000000e+00 0.000000e+00 0.000000e+00 7.502336e-01 2.497664e-01 0.000000e+00
 0.000000e+00 0.000000e+00 0.000000e+00 0.000000e+00 0.000000e+00 0.000000e+00 0.000000e+00 0.000000e+00 9.791650e-01 2.083496e-02
 0.000000e+00 0.000000e+00 0.000000e+00 0.000000e+00 0.000000e+00 0.000000e+00 0.000000e+00 0.000000e+00 0.000000e+00 0.000000e+00
<ENDHMM>
~h "s008"
<BEGINHMM>
<NUMSTATES> 10
<STATE> 2
<MEAN> 39
 -3.134605e+00 2.508351e+00 6.071887e+00 6.214412e-02 2.363633e+00 1.230772e+01 3.884093e+00 3.412610e+00 7.250186e-01 1.169369e+00 3.552884e+00 3.454660e+00 2.156519e-01 9.853593e-03 -1.988753e-02 -1.055356e-01 -1.046851e-01 1.147984e-02 -9.115245e-02 5.047532e-02 1.302135e-01 -6.775806e-02 -6.759088e-02 -1.669031e-01 -1.405466e-01 -2.266057e-03 2.012360e-02 1.073742e-02 5.082548e-02 -6.909224e-03 -3.342000e-02 -1.017245e-02 -2.267273e-02 -6.553534e-02 3.205313e-02 5.831351e-02 -5.207609e-02 3.183686e-03 3.954617e-04
<VARIANCE> 39
 3.418939e+00 2.553308e+00 1.093868e+01 9.625341e+00 7.694269e+00 7.853709e+00 1.316221e+01 1.666287e+01 1.631493e+01 1.537552e+01 2.261694e+01 1.861682e+01 8.171785e-04 2.271603e-01 2.720593e-01 8.292418e-01 1.038927e+00 9.152039e-01 6.784174e-01 1.501567e+00 2.227603e+00 2.776899e+00 9.372215e-01 3.123219e+00 1.652677e+00 7.970771e-05 2.989851e-02 5.116108e-02 1.295607e-01 2.105958e-01 1.953091e-01 2.066848e-01 2.882336e-01 3.898123e-01 6.128668e-01 2.087263e-01 6.753056e-01 3.277307e-01 1.535104e-05
<GCONST> 5.328037e+01
<STATE> 3
<MEAN> 39
 -1.142940e+00 2.698336e+00 5.475267e+00 1.687403e-01 1.674590e+00 9.067608e+00 4.106049e+00 5.101377e+00 1.011709e+00 4.726534e+00 1.213883e+00 3.724327e+00 2.064598e-01 2.138366e-01 4.740593e-01 1.345282e+00 2.511871e-01 1.259294e+00 -4.791676e+00 -1.615887e-01 -7.084541e-01 -1.378056e+00 1.375789e+00 -8.311014e-01 5.893062e-01 3.389904e-02 4.017091e-01 4.902675e-01 4.315453e-02 -1.807062e-01 -6.710137e-01 -7.825016e-01 -2.872852e-01 -6.758319e-01 -5.298079e-01 -6.397085e-01 -2.645049e-01 -3.028163e-01 2.097219e-02
<VARIANCE> 39
 1.451938e-01 5.341125e-01 3.737633e+00 1.844556e-01 2.192896e+01 1.403798e+01 1.274560e+00 3.861077e+00 1.045519e+01 2.178436e+00 1.056185e+01 2.480069e+00 7.292355e-04 5.040308e-01 1.754156e-01 2.350951e-01 7.501745e-01 2.412534e-02 2.685077e+00 3.012250e-01 1.159400e+00 1.175452e+00 1.883641e+00 1.418126e+00 7.620386e-01 3.465544e-04 7.087304e-02 2.192931e-02 3.783476e-03 6.435134e-02 9.691795e-01 6.811513e-01 1.692134e-01 1.405963e-01 2.678284e-02 2.603427e-01 1.615813e-02 2.858736e-03 1.490006e-05
<GCONST> 1.519093e+01
<STATE> 4
<MEAN> 39
 1.412059e+00 8.246738e+00 7.308197e+00 -1.277869e+01 -1.297664e+01 -1.019393e+01 -2.190086e+00 1.341822e-01 -1.692817e+00 6.461718e-01 -1.473033e+00 -5.880094e+00 6.967070e-01 1.989143e-01 -1.220236e-01 -7.911434e-01 -1.020412e+00 -1.510982e+00 -1.627590e+00 -2.398368e-01 7.272475e-01 -1.987068e-02 -8.814645e-01 3.097794e-01 -1.316671e+00 5.080737e-02 -2.994036e-02 -1.863591e-01 -3.542166e-01 3.136923e-01 4.166586e-01 2.060079e-01 4.223718e-02 3.325936e-01 1.674280e-01 -2.004445e-01 -3.290403e-02 1.628179e-01 -5.984440e-03
<VARIANCE> 39
 1.039599e+01 1.370662e+01 2.533291e+01 6.586796e+01 5.703512e+01 1.927666e+01 8.673794e+00 4.563714e+01 1.682021e+01 1.341419e+01 7.562351e+00 7.309662e+01 3.520150e-02 2.313147e+00 2.640834e+00 3.866929e+00 6.372812e+00 6.639737e+00 1.762091e+00 2.238828e+00 7.789757e+00 3.228916e+00 2.376969e+00 5.987851e-01 4.181663e+00 1.090516e-03 4.685563e-01 2.350883e-01 4.164415e-01 8.082986e-01 1.212293e+00 5.681341e-01 4.618849e-01 1.207104e+00 8.176939e-01 5.449331e-01 2.326289e-01 8.691247e-01 8.683292e-05
<GCONST> 9.588404e+01
<STATE> 5
<MEAN> 39
 4.620580e+00 -1.886189e+00 -9.678439e+00 -9.103464e+00 -5.178158e+00 -2.045788e+01 -4.348561e+00 3.908648e+00 3.765321e+00 -1.042947e+01 -5.150873e+00 -7.003288e+00 9.214649e-01 7.422105e-03 -7.680935e-01 -6.695761e-01 7.215601e-01 1.062531e+00 3.441572e-02 -4.386156e-02 -9.975524e-01 2.926442e-01 -6.065344e-01 2.389248e-02 1.037998e+00 4.400741e-03 -1.097366e-01 6.954911e-03 4.621604e-02 -2.467549e-02 -8.019252e-02 2.355539e-01 7.429081e-02 -1.974034e-01 -1.905268e-01 1.220550e-01 1.751656e-01 -3.059145e-03 5.307292e-04
<VARIANCE> 39
 2.244778e+00 1.847651e+01 3.469548e+01 1.795240e+01 2.356843e+01 1.634243e+01 1.046552e+01 3.162748e+01 2.180823e+01 5.217127e+00 1.633623e+01 1.326088e+01 8.734997e-04 5.312450e-01 7.768729e-01 8.106185e+00 4.614984e+00 6.881283e+00 3.152810e+00 2.261490e+00 1.384699e+00 3.678225e+00 1.390766e+00 3.410513e+00 2.218275e+00 3.879263e-05 4.952859e-02 1.641458e-01 1.390906e+00 6.747788e-01 1.247427e+00 7.111709e-01 4.955788e-01 4.014156e-01 7.000463e-01 2.428344e-01 4.220655e-01 4.108540e-01 8.270065e-06
<GCONST> 7.527887e+01
<STATE> 6
<MEAN> 39
 3.261607e+00 -4.886401e+00 -1.798854e+01 3.431670e+00 2.861394e+00 -1.472736e+01 -6.347465e+00 -1.282395e+00 -4.866916e-01 -8.984437e+00 -1.656400e+00 1.289783e+00 8.812423e-01 -1.721158e-01 1.925556e-02 2.566122e-01 3.205426e-01 1.177238e-01 3.296969e-01 -1.253960e-01 -7.180224e-02 -5.205630e-01 8.029244e-01 1.270835e-01 -1.911194e-01 -4.890301e-03 3.089386e-03 3.712210e-02 2.047536e-01 -9.877288e-02 -7.536828e-02 -3.936316e-02 -7.345776e-02 -2.448125e-02 1.413202e-01 1.706865e-01 -7.767525e-02 -2.022958e-01 -8.728919e-04
<VARIANCE> 39
 1.139875e+01 1.565061e+01 2.223257e+01 1.683431e+01 7.180669e+00 1.392545e+01 2.411999e+01 2.072783e+01 4.502592e+01 2.181038e+01 2.495733e+01 1.805448e+01 9.230422e-03 1.418458e+00 1.402634e+00 2.276764e+00 2.314653e+00 9.900870e-01 2.132941e+00 2.490622e+00 4.203633e+00 4.733201e+00 1.933986e+00 2.261073e+00 2.886338e+00 7.589303e-04 1.929569e-01 2.417748e-01 1.737459e-01 3.040152e-01 2.095480e-01 4.964870e-01 4.024752e-01 9.401734e-01 7.848441e-01 2.629024e-01 4.235224e-01 5.750510e-01 1.641490e-04
<GCONST> 8.332703e+01
<STATE> 7
<MEAN> 39
 -8.981951e-01 -7.597567e+00 3.659995e+00 4.338360e+00 1.546396e+00 -5.794213e+00 -2.417804e+00 -8.724105e+00 -4.412348e+00 9.979014e+00 -5.911669e+00 -3.938182e+00 6.349040e-01 3.468221e-01 3.958793e-01 1.037088e+00 -2.444699e-02 -1.101353e-01 1.187427e+00 2.035617e-01 -5.224102e-01 6.374834e-01 -1.458226e-01 -7.792131e-01 1.701726e-02 -2.036900e-02 8.658022e-02 7.837293e-02 -1.828952e-01 3.451336e-03 -1.929521e-02 9.293091e-02 2.780190e-01 1.959374e-01 -2.911378e-02 -2.402694e-01 6.395859e-02 2.069000e-01 1.136384e-03
<VARIANCE> 39
 2.698229e+00 6.641579e+00 2.098367e+01 6.976536e+00 5.878459e+00 3.209222e+01 2.310732e+01 2.775228e+01 2.770672e+01 1.142437e+01 2.400146e+01 8.314368e+00 1.756890e-02 1.865756e-01 1.256902e+00 8.725100e-01 9.596106e-01 5.707458e-01 9.080474e-01 4.068541e+00 2.006012e+00 1.571829e+00 2.217636e+00 2.417295e+00 1.195862e+00 4.091480e-04 2.166484e-02 1.493825e-01 1.861240e-01 2.209408e-01 1.066751e-01 1.259775e-01 1.020906e+00 5.221568e-01 2.909237e-01 2.162924e-01 4.928720e-01 2.346026e-01 5.676780e-05
<GCONST> 6.402483e+01
<STATE> 8
<MEAN> 39
 2.564923e+00 6.193545e-02 7.942874e+00 6.235880e+00 6.256607e-01 9.704264e+00 3.116940e+00 -7.088969e+00 2.570665e+00 2.893388e+00 -3.987141e+00 -9.368941e-01 4.070014e-01 -4.549683e-01 2.695023e-01 -6.164562e-01 -1.758152e-02 -8.317580e-03 5.546365e-01 1.643785e-01 1.596945e+00 3.637639e-01 -4.408403e-01 9.099394e-01 6.906101e-01 -3.010647e-02 -1.532682e-01 -1.685237e-01 -1.180432e-02 -1.494738e-01 -3.854295e-02 -1.872802e-01 -3.204488e-01 -4.044672e-02 -5.680313e-02 2.579585e-01 9.211070e-02 8.036152e-02 -3.280318e-03
<VARIANCE> 39
 4.476192e+00 2.172482e+00 6.866298e+00 4.378900e+00 1.028060e+01 3.640028e+00 1.264802e+01 2.378506e+01 1.212883e+01 4.498950e+01 1.282443e+01 1.830863e+01 9.772209e-03 3.705795e-01 2.649282e-01 5.872715e-01 5.226216e-01 1.616404e+00 1.203167e-01 3.682880e+00 8.205031e-01 1.918407e+00 7.502811e+00 3.257480e-01 2.858858e+00 3.095451e-04 8.926637e-02 5.617911e-02 1.075484e-01 3.261648e-02 4.574803e-01 9.469181e-02 7.120358e-01 1.581227e-01 4.030682e-01 2.271413e+00 5.882286e-02 5.547341e-01 8.891440e-05
<GCONST> 5.518826e+01
<STATE> 9
<MEAN> 39
 -1.789679e+00 2.233655e+00 3.942937e+00 2.627962e+00 1.505367e+00 1.040381e+01 3.355369e+00 1.190490e+00 -7.843993e-02 3.773192e+00 4.304976e+00 2.644709e+00 2.023405e-01 -7.359131e-02 1.307960e-01 5.399242e-02 -5.960483e-02 2.872777e-02 -2.758190e-02 7.903136e-02 7.940912e-02 -1.630462e-01 9.202466e-02 2.805866e-01 7.019159e-02 -2.423682e-03 1.217898e-02 1.906566e-02 6.367147e-02 7.042339e-02 1.172300e-02 3.092391e-03 1.800723e-02 -2.348946e-02 -9.267193e-04 -4.469832e-02 -2.099016e-02 -9.203106e-03 1.052620e-03
<VARIANCE> 39
 1.165991e+00 2.736702e+00 5.108327e+00 9.464641e+00 1.104487e+01 9.857882e+00 1.891784e+01 1.012701e+01 1.329032e+01 1.582270e+01 1.188520e+01 1.308110e+01 9.105117e-04 1.096317e-01 4.070809e-01 6.529819e-01 1.174608e+00 8.234925e-01 8.350568e-01 1.778147e+00 9.160999e-01 1.391186e+00 2.133522e+00 1.271443e+00 1.201397e+00 1.308351e-04 1.685182e-02 9.134464e-02 1.455844e-01 2.441976e-01 1.212134e-01 1.236410e-01 2.619376e-01 1.459184e-01 2.760683e-01 4.404545e-01 2.865214e-01 2.434399e-01 2.722959e-05
<GCONST> 4.680459e+01
<TRANSP> 10
 0.000000e+00 1.000000e+00 0.000000e+00 0.000000e+00 0.000000e+00 0.000000e+00 0.000000e+00 0.000000e+00 0.000000e+00 0.000000e+00
 0.000000e+00 9.714286e-01 2.857143e-02 0.000000e+00 0.000000e+00 0.000000e+00 0.000000e+00 0.000000e+00 0.000000e+00 0.000000e+00
 0.000000e+00 0.000000e+00 6.666667e-01 3.333333e-01 0.000000e+00 0.000000e+00 0.000000e+00 0.000000e+00 0.000000e+00 0.000000e+00
 0.000000e+00 0.000000e+00 0.000000e+00 9.166902e-01 8.330983e-02 0.000000e+00 0.000000e+00 0.000000e+00 0.000000e+00 0.000000e+00
 0.000000e+00 0.000000e+00 0.000000e+00 0.000000e+00 9.311317e-01 6.886832e-02 0.000000e+00 0.000000e+00 0.000000e+00 0.000000e+00
 0.000000e+00 0.000000e+00 0.000000e+00 0.000000e+00 0.000000e+00 9.573943e-01 4.260569e-02 0.000000e+00 0.000000e+00 0.000000e+00
 0.000000e+00 0.000000e+00 0.000000e+00 0.000000e+00 0.000000e+00 0.000000e+00 9.375198e-01 6.248018e-02 0.000000e+00 0.000000e+00
 0.000000e+00 0.000000e+00 0.000000e+00 0.000000e+00 0.000000e+00 0.000000e+00 0.000000e+00 8.814029e-01 1.185972e-01 0.000000e+00
 0.000000e+00 0.000000e+00 0.000000e+00 0.000000e+00 0.000000e+00 0.000000e+00 0.000000e+00 0.000000e+00 9.672862e-01 3.271382e-02
 0.000000e+00 0.000000e+00 0.000000e+00 0.000000e+00 0.000000e+00 0.000000e+00 0.000000e+00 0.000000e+00 0.000000e+00 0.000000e+00
<ENDHMM>
~h "s009"
<BEGINHMM>
<NUMSTATES> 10
<STATE> 2
<MEAN> 39
 -2.381182e+00 4.551226e-01 1.103474e+00 3.773259e+00 3.197165e+00 5.538500e+00 4.109858e+00 -9.737509e-01 -1.590750e+00 1.253530e+00 1.066383e+00 4.298380e+00 7.799657e-02 -2.956580e-03 -4.005779e-02 -1.492534e-02 7.786810e-02 2.042577e-02 6.967477e-02 2.993617e-02 2.869158e-02 -8.278837e-02 -7.371497e-03 2.717637e-02 7.429389e-02 1.376768e-03 1.298043e-02 3.117097e-02 -1.478818e-02 -1.018822e-02 -3.675137e-02 -9.467985e-03 -3.947381e-03 2.684078e-02 2.037862e-02 1.960197e-02 -1.536846e-02 -8.678761e-02 -1.863285e-04
<VARIANCE> 39
 1.621553e+00 2.809937e+00 3.671083e+00 7.184986e+00 1.257049e+01 1.376140e+01 1.360449e+01 1.228365e+01 1.202781e+01 1.369038e+01 1.730102e+01 1.467207e+01 1.108147e-03 1.144561e-01 3.901004e-01 3.811782e-01 7.127960e-01 1.434393e+00 1.151708e+00 1.435378e+00 1.562274e+00 1.619324e+00 1.735659e+00 2.772951e+00 1.829696e+00 8.793121e-05 1.780584e-02 8.522309e-02 8.380650e-02 1.563166e-01 2.580560e-01 2.072924e-01 3.097042e-01 2.884436e-01 4.104387e-01 3.595039e-01 6.353745e-01 3.062451e-01 1.766373e-05
<GCONST> 5.012587e+01
<STATE> 3
<MEAN> 39
 -1.436803e+00 1.085602e+00 -3.186065e-01 4.529573e+00 1.618172e+00 7.231528e+00 1.722228e+00 2.342604e-01 2.422469e+00 4.915047e+00 3.811277e+00 2.416525e+00 1.014706e-01 -1.129444e+00 -1.030990e-03 4.041918e-01 -2.012326e+00 2.051506e-01 -1.768570e+00 -1.325986e+00 8.212652e-01 4.496511e+00 1.016331e+00 1.511284e+00 -1.505855e-01 3.859958e-02 -7.446465e-01 -6.770925e-02 4.130534e-01 -1.486712e-01 5.255566e-01 -8.779423e-01 6.113131e-02 -3.322558e-01 4.169551e-01 -5.546914e-01 3.460278e-01 -3.204892e-03 2.625457e-02
<VARIANCE> 39
 8.898779e-01 1.740291e-01 4.603733e+00 1.239853e+01 1.906513e+00 4.483527e+00 3.481654e+00 6.877604e+00 5.841743e+01 9.093232e+00 1.647765e+01 1.121599e+01 9.710058e-04 2.995291e+00 5.415041e-01 1.262091e+00 2.613701e-01 3.242411e+00 2.124045e+00 1.674202e+00 5.257464e-02 1.055326e+00 1.182161e+00 7.007086e-01 1.129095e+00 1.630415e-03 1.383200e-01 1.180153e-01 7.229009e-02 3.825278e-01 5.199956e-01 1.296446e-01 9.360261e-02 3.897680e-01 2.064872e+00 8.326375e-01 1.073494e+00 6.264245e-01 3.104594e-05
<GCONST> 5.223140e+01
<STATE> 4
<MEAN> 39
 -3.162181e+00 -4.224263e+00 -2.911196e+00 1.186631e+00 -4.309671e+00 -1.355266e+01 -2.706512e+00 -4.160115e+00 1.229561e+00 -5.348064e+00 4.216864e+00 -7.119738e+00 7.624831e-01 7.523230e-01 -8.900853e-01 -1.265562e+00 2.191212e-01 -1.217393e-01 -2.044847e+00 -9.648109e-01 -3.958904e-01 -1.780746e+00 -1.133272e+00 -1.077388e+00 -4.194577e-01 6.250455e-02 2.733629e-01 3.722996e-02 -2.316602e-01 -3.236281e-02 -1.529320e-01 5.076462e-01 6.114997e-02 5.482595e-03 -8.228859e-02 -1.972297e-02 -3.516761e-01 1.239602e-01 -1.035899e-02
<VARIANCE> 39
 3.824379e+01 4.520672e+01 3.889703e+01 1.211435e+01 1.298199e+02 4.982809e+01 3.302040e+01 3.848182e+01 1.020975e+02 2.107612e+01 2.328553e+01 3.112759e+01 5.093186e-02 4.736130e+00 4.199214e+00 1.305989e+00 1.333893e+00 2.669491e+01 5.341453e+00 2.251883e+00 7.368194e+00 5.201157e+00 3.360071e+00 5.345424e+00 6.151905e+00 2.502021e-03 1.192867e+00 8.918732e-01 2.245708e-01 3.323033e-01 6.561316e+00 1.416735e+00 5.241957e-01 1.607186e+00 1.678995e+00 7.208830e-01 1.103822e+00 9.367565e-01 1.509657e-04
<GCONST> 1.151205e+02
<STATE> 5
<MEAN> 39
 5.759354e+00 7.778242e-01 -1.457662e+01 -4.410698e+00 -3.485492e+00 -1.856011e+01 -5.948996e+00 -2.123247e+00 3.144937e+00 -7.283619e+00 -8.951199e+00 -3.488123e+00 8.762072e-01 3.454666e-01 5.217583e-01 -3.169718e-01 -4.321794e-01 2.082087e-01 3.001375e-01 1.863537e-01 1.047690e-01 5.019487e-01 3.062225e-01 -2.092587e-02 1.076558e-01 -7.419256e-03 -3.945181e-04 2.236679e-02 1.196247e-01 6.314974e-02 6.401905e-02 2.371467e-02 2.761534e-02 -3.610290e-02 -1.178991e-01 7.021055e-02 1.860661e-01 7.879320e-02 -6.661104e-04
<VARIANCE> 39
 6.311745e+00 3.265374e+01 2.577879e+01 2.451332e+01 3.277002e+01 2.418139e+01 1.381394e+01 3.101031e+01 2.991843e+01 4.946398e+01 1.880448e+01 1.841684e+01 7.986046e-03 7.317713e-01 1.910935e+00 2.975881e+00 3.960289e+00 5.757599e+00 3.716254e+00 1.841226e+00 3.155690e+00 4.544551e+00 9.520751e+00 2.631053e+00 3.178138e+00 1.157410e-03 1.742014e-01 1.804788e-01 4.941397e-01 8.069670e-01 1.170192e+00 5.825553e-01 3.907664e-01 5.206875e-01 6.740646e-01 2.257972e+00 4.269548e-01 6.673729e-01 2.406112e-04
<GCONST> 9.573874e+01
<STATE> 6
<MEAN> 39
 2.820380e+00 1.450882e+00 4.914845e+00 -6.031256e+00 -3.269339e+00 -3.813750e+00 -3.217579e+00 2.211507e-01 4.421615e+00 -1.485580e+00 -3.641164e+00 -2.394760e+00 5.983800e-01 -1.518165e-01 -3.079816e-01 1.168237e+00 5.332885e-02 -1.117433e+00 5.317279e-01 1.607821e-01 6.176669e-03 -1.023876e-03 -2.550665e-01 3.127531e-02 -4.145757e-01 -3.225090e-03 3.593070e-03 -6.186724e-02 -9.230649e-02 5.634693e-02 4.851647e-02 -4.047292e-02 1.970318e-02 4.817121e-02 1.463933e-02 -6.138619e-02 -7.136870e-02 -8.845785e-02 1.012419e-03
<VARIANCE> 39
 6.465939e+01 1.480283e+01 1.569028e+02 1.645000e+01 1.121636e+02 2.760016e+01 1.536125e+01 1.747772e+01 1.496465e+01 1.878713e+01 2.429294e+01 3.119278e+01 9.979402e-03 4.939199e+00 1.298736e+00 3.511639e+00 2.097687e+00 5.240065e+00 2.732273e+00 2.226599e+00 2.380965e+00 1.727876e+00 2.297903e+00 4.106161e+00 2.096134e+00 1.006935e-03 6.185981e-01 2.758809e-01 2.949121e-01 3.817860e-01 1.154726e+00 5.428854e-01 4.019455e-01 4.366795e-01 3.177593e-01 4.779335e-01 8.904228e-01 3.951057e-01 1.304192e-04
<GCONST> 9.447206e+01
<STATE> 7
<MEAN> 39
 4.189431e+00 -5.464142e+00 6.869868e+00 -1.561953e+00 -7.732937e+00 6.863134e+00 -6.128883e-01 -1.211244e+00 -2.085409e-01 -6.892195e+00 -5.034261e+00 -4.847676e+00 4.260340e-01 -5.017716e-01 2.277185e-01 -5.064218e-01 2.830663e-01 1.186781e+00 3.560324e-01 -2.501512e-01 -2.305292e-01 -2.061177e-01 2.822429e-01 1.508512e-02 8.945304e-01 -3.676661e-02 -6.014812e-02 4.840414e-02 -3.602308e-02 -1.576912e-01 -1.160982e-01 -1.283832e-01 -1.563974e-02 8.884663e-03 2.475813e-02 2.189533e-01 1.854116e-01 8.264367e-02 -1.548678e-03
<VARIANCE> 39
 8.817911e+00 5.634393e+00 6.568398e+00 9.707063e+00 3.300464e+01 2.145462e+01 1.960514e+01 1.419046e+01 1.145492e+01 1.443952e+01 2.178544e+01 2.295391e+01 2.971802e-02 3.567770e-01 6.799152e-01 1.139498e+00 9.675283e-01 9.869491e-01 2.410922e+00 1.690093e+00 8.429521e-01 1.492491e+00 1.494471e+00 3.527586e+00 4.288830e+00 2.297676e-04 5.305504e-02 1.254126e-01 2.290873e-01 8.113491e-02 1.653026e-01 2.703962e-01 2.515374e-01 1.131934e-01 2.330339e-01 1.695637e-01 9.069344e-01 1.102796e+00 5.986280e-05
<GCONST> 6.615949e+01
<STATE> 8
<MEAN> 39
 -2.331122e+00 -1.452708e+00 1.028408e+00 7.117350e-01 1.397889e+00 7.405110e+00 1.328949e+00 1.167731e+00 -2.121418e-01 5.036118e+00 2.279111e+00 8.255641e-01 1.096143e-01 -2.334314e-01 1.246757e-01 -1.009520e-02 9.764736e-01 9.842367e-01 3.877157e-01 5.593529e-01 7.629010e-01 -2.274183e-01 1.136384e+00 1.228241e+00 9.622623e-02 3.189339e-03 7.379791e-02 4.506696e-02 1.864547e-01 3.564059e-02 -1.875689e-02 -1.877024e-01 -2.801245e-01 -1.778960e-01 -4.665069e-02 -1.775895e-01 -1.123414e-01 6.863748e-02 3.653212e-03
<VARIANCE> 39
 1.189515e+00 3.684735e+00 4.665668e+00 2.421446e+01 1.542110e+01 2.596230e+01 1.505660e+01 3.911218e+01 1.391038e+01 1.250757e+01 1.891221e+01 4.192187e+00 2.390821e-03 1.363140e-01 1.510574e-01 1.064978e+00 1.717659e+00 9.067406e-01 3.092681e+00 2.051817e+00 4.488490e+00 1.030590e+00 1.216320e+00 3.249511e+00 1.009524e+00 5.516879e-04 3.153169e-02 5.664270e-02 1.616776e-01 5.145219e-01 3.997014e-01 8.241663e-01 1.448103e-01 1.085882e+00 2.236706e-01 1.312342e-01 6.741837e-01 3.210923e-01 1.198460e-04
<GCONST> 6.176974e+01
<STATE> 9
<MEAN> 39
 -2.358803e+00 1.283603e+00 2.273571e+00 1.742795e+00 3.674968e+00 5.630108e+00 1.464979e+00 2.998657e+00 -2.897667e+00 5.541285e+00 5.486516e+00 1.976258e+00 1.108695e-01 9.953101e-03 3.171385e-02 3.982491e-02 -7.105375e-02 -9.394123e-02 -1.456497e-01 -1.497993e-01 -1.926536e-01 -6.016546e-02 -8.369485e-02 6.277338e-02 1.903464e-02 -2.169903e-03 -8.100189e-03 -1.896652e-02 2.330183e-02 2.501688e-02 8.323960e-03 2.972829e-02 2.437720e-02 1.714123e-02 -1.537301e-02 -2.360045e-03 -2.803639e-02 -4.903307e-02 -4.133845e-05
<VARIANCE> 39
 1.733823e+00 2.523776e+00 5.145478e+00 8.691861e+00 1.026084e+01 1.295755e+01 3.003567e+01 1.794341e+01 1.487141e+01 2.070489e+01 1.069811e+01 2.065101e+01 2.162599e-03 1.847778e-01 2.739229e-01 5.669863e-01 7.490718e-01 8.176095e-01 2.237971e+00 3.124719e+00 2.146651e+00 2.341230e+00 2.616924e+00 1.102921e+00 2.141249e+00 2.188851e-04 3.438290e-02 3.979271e-02 1.095348e-01 1.494930e-01 1.310971e-01 5.089328e-01 5.102864e-01 4.290717e-01 5.524558e-01 5.683828e-01 2.217079e-01 4.202965e-01 4.725525e-05
<GCONST> 5.761337e+01
<TRANSP> 10
 0.000000e+00 1.000000e+00 0.000000e+00 0.000000e+00 0.000000e+00 0.000000e+00 0.000000e+00 0.000000e+00 0.000000e+00 0.000000e+00
 0.000000e+00 9.772727e-01 2.272727e-02 0.000000e+00 0.000000e+00 0.000000e+00 0.000000e+00 0.000000e+00 0.000000e+00 0.000000e+00
