~o
<STREAMINFO> 1 12
<VECSIZE> 12<NULLD><MFCC_Z><DIAGC>
~h "T1375865101"
<BEGINHMM>
<NUMSTATES> 14
<STATE> 2
<MEAN> 12
 3.793023e-08 -1.219186e-07 -4.334883e-08 4.334883e-08 -4.497441e-07 4.389069e-07 2.763488e-07 8.453022e-07 4.876744e-08 1.029535e-07 1.083721e-07 3.413720e-07
<VARIANCE> 12
 1.541260e+01 3.056481e+01 9.567748e+01 4.003941e+01 4.985968e+01 3.663821e+01 7.440805e+01 5.937140e+01 5.373869e+01 1.689025e+01 3.240193e+01 2.362611e+01
<GCONST> 6.581553e+01
<STATE> 3
<MEAN> 12
 3.793023e-08 -1.219186e-07 -4.334883e-08 4.334883e-08 -4.497441e-07 4.389069e-07 2.763488e-07 8.453022e-07 4.876744e-08 1.029535e-07 1.083721e-07 3.413720e-07
<VARIANCE> 12
 1.541260e+01 3.056481e+01 9.567748e+01 4.003941e+01 4.985968e+01 3.663821e+01 7.440805e+01 5.937140e+01 5.373869e+01 1.689025e+01 3.240193e+01 2.362611e+01
<GCONST> 6.581553e+01
<STATE> 4
<MEAN> 12
 3.793023e-08 -1.219186e-07 -4.334883e-08 4.334883e-08 -4.497441e-07 4.389069e-07 2.763488e-07 8.453022e-07 4.876744e-08 1.029535e-07 1.083721e-07 3.413720e-07
<VARIANCE> 12
 1.541260e+01 3.056481e+01 9.567748e+01 4.003941e+01 4.985968e+01 3.663821e+01 7.440805e+01 5.937140e+01 5.373869e+01 1.689025e+01 3.240193e+01 2.362611e+01
<GCONST> 6.581553e+01
<STATE> 5
<MEAN> 12
 3.793023e-08 -1.219186e-07 -4.334883e-08 4.334883e-08 -4.497441e-07 4.389069e-07 2.763488e-07 8.453022e-07 4.876744e-08 1.029535e-07 1.083721e-07 3.413720e-07
<VARIANCE> 12
 1.541260e+01 3.056481e+01 9.567748e+01 4.003941e+01 4.985968e+01 3.663821e+01 7.440805e+01 5.937140e+01 5.373869e+01 1.689025e+01 3.240193e+01 2.362611e+01
<GCONST> 6.581553e+01
<STATE> 6
<MEAN> 12
 3.793023e-08 -1.219186e-07 -4.334883e-08 4.334883e-08 -4.497441e-07 4.389069e-07 2.763488e-07 8.453022e-07 4.876744e-08 1.029535e-07 1.083721e-07 3.413720e-07
<VARIANCE> 12
 1.541260e+01 3.056481e+01 9.567748e+01 4.003941e+01 4.985968e+01 3.663821e+01 7.440805e+01 5.937140e+01 5.373869e+01 1.689025e+01 3.240193e+01 2.362611e+01
<GCONST> 6.581553e+01
<STATE> 7
<MEAN> 12
 3.793023e-08 -1.219186e-07 -4.334883e-08 4.334883e-08 -4.497441e-07 4.389069e-07 2.763488e-07 8.453022e-07 4.876744e-08 1.029535e-07 1.083721e-07 3.413720e-07
<VARIANCE> 12
 1.541260e+01 3.056481e+01 9.567748e+01 4.003941e+01 4.985968e+01 3.663821e+01 7.440805e+01 5.937140e+01 5.373869e+01 1.689025e+01 3.240193e+01 2.362611e+01
<GCONST> 6.581553e+01
<STATE> 8
<MEAN> 12
 3.793023e-08 -1.219186e-07 -4.334883e-08 4.334883e-08 -4.497441e-07 4.389069e-07 2.763488e-07 8.453022e-07 4.876744e-08 1.029535e-07 1.083721e-07 3.413720e-07
<VARIANCE> 12
 1.541260e+01 3.056481e+01 9.567748e+01 4.003941e+01 4.985968e+01 3.663821e+01 7.440805e+01 5.937140e+01 5.373869e+01 1.689025e+01 3.240193e+01 2.362611e+01
<GCONST> 6.581553e+01
<STATE> 9
<MEAN> 12
 3.793023e-08 -1.219186e-07 -4.334883e-08 4.334883e-08 -4.497441e-07 4.389069e-07 2.763488e-07 8.453022e-07 4.876744e-08 1.029535e-07 1.083721e-07 3.413720e-07
<VARIANCE> 12
 1.541260e+01 3.056481e+01 9.567748e+01 4.003941e+01 4.985968e+01 3.663821e+01 7.440805e+01 5.937140e+01 5.373869e+01 1.689025e+01 3.240193e+01 2.362611e+01
<GCONST> 6.581553e+01
<STATE> 10
<MEAN> 12
 3.793023e-08 -1.219186e-07 -4.334883e-08 4.334883e-08 -4.497441e-07 4.389069e-07 2.763488e-07 8.453022e-07 4.876744e-08 1.029535e-07 1.083721e-07 3.413720e-07
<VARIANCE> 12
 1.541260e+01 3.056481e+01 9.567748e+01 4.003941e+01 4.985968e+01 3.663821e+01 7.440805e+01 5.937140e+01 5.373869e+01 1.689025e+01 3.240193e+01 2.362611e+01
<GCONST> 6.581553e+01
<STATE> 11
<MEAN> 12
 3.793023e-08 -1.219186e-07 -4.334883e-08 4.334883e-08 -4.497441e-07 4.389069e-07 2.763488e-07 8.453022e-07 4.876744e-08 1.029535e-07 1.083721e-07 3.413720e-07
<VARIANCE> 12
 1.541260e+01 3.056481e+01 9.567748e+01 4.003941e+01 4.985968e+01 3.663821e+01 7.440805e+01 5.937140e+01 5.373869e+01 1.689025e+01 3.240193e+01 2.362611e+01
<GCONST> 6.581553e+01
<STATE> 12
<MEAN> 12
 3.793023e-08 -1.219186e-07 -4.334883e-08 4.334883e-08 -4.497441e-07 4.389069e-07 2.763488e-07 8.453022e-07 4.876744e-08 1.029535e-07 1.083721e-07 3.413720e-07
<VARIANCE> 12
 1.541260e+01 3.056481e+01 9.567748e+01 4.003941e+01 4.985968e+01 3.663821e+01 7.440805e+01 5.937140e+01 5.373869e+01 1.689025e+01 3.240193e+01 2.362611e+01
<GCONST> 6.581553e+01
<STATE> 13
<MEAN> 12
 3.793023e-08 -1.219186e-07 -4.334883e-08 4.334883e-08 -4.497441e-07 4.389069e-07 2.763488e-07 8.453022e-07 4.876744e-08 1.029535e-07 1.083721e-07 3.413720e-07
<VARIANCE> 12
 1.541260e+01 3.056481e+01 9.567748e+01 4.003941e+01 4.985968e+01 3.663821e+01 7.440805e+01 5.937140e+01 5.373869e+01 1.689025e+01 3.240193e+01 2.362611e+01
<GCONST> 6.581553e+01
<TRANSP> 14
 0.000000e+00 1.000000e+00 0.000000e+00 0.000000e+00 0.000000e+00 0.000000e+00 0.000000e+00 0.000000e+00 0.000000e+00 0.000000e+00 0.000000e+00 0.000000e+00 0.000000e+00 0.000000e+00
 0.000000e+00 9.000000e-01 9.999999e-02 0.000000e+00 0.000000e+00 0.000000e+00 0.000000e+00 0.000000e+00 0.000000e+00 0.000000e+00 0.000000e+00 0.000000e+00 0.000000e+00 0.000000e+00
 0.000000e+00 0.000000e+00 9.000000e-01 9.999999e-02 0.000000e+00 0.000000e+00 0.000000e+00 0.000000e+00 0.000000e+00 0.000000e+00 0.000000e+00 0.000000e+00 0.000000e+00 0.000000e+00
 0.000000e+00 0.000000e+00 0.000000e+00 9.000000e-01 9.999999e-02 0.000000e+00 0.000000e+00 0.000000e+00 0.000000e+00 0.000000e+00 0.000000e+00 0.000000e+00 0.000000e+00 0.000000e+00
 0.000000e+00 0.000000e+00 0.000000e+00 0.000000e+00 9.000000e-01 9.999999e-02 0.000000e+00 0.000000e+00 0.000000e+00 0.000000e+00 0.000000e+00 0.000000e+00 0.000000e+00 0.000000e+00
 0.000000e+00 0.000000e+00 0.000000e+00 0.000000e+00 0.000000e+00 9.000000e-01 9.999999e-02 0.000000e+00 0.000000e+00 0.000000e+00 0.000000e+00 0.000000e+00 0.000000e+00 0.000000e+00
 0.000000e+00 0.000000e+00 0.000000e+00 0.000000e+00 0.000000e+00 0.000000e+00 9.000000e-01 9.999999e-02 0.000000e+00 0.000000e+00 0.000000e+00 0.000000e+00 0.000000e+00 0.000000e+00
 0.000000e+00 0.000000e+00 0.000000e+00 0.000000e+00 0.000000e+00 0.000000e+00 0.000000e+00 9.000000e-01 9.999999e-02 0.000000e+00 0.000000e+00 0.000000e+00 0.000000e+00 0.000000e+00
 0.000000e+00 0.000000e+00 0.000000e+00 0.000000e+00 0.000000e+00 0.000000e+00 0.000000e+00 0.000000e+00 9.000000e-01 9.999999e-02 0.000000e+00 0.000000e+00 0.000000e+00 0.000000e+00
 0.000000e+00 0.000000e+00 0.000000e+00 0.000000e+00 0.000000e+00 0.000000e+00 0.000000e+00 0.000000e+00 0.000000e+00 9.000000e-01 9.999999e-02 0.000000e+00 0.000000e+00 0.000000e+00
 0.000000e+00 0.000000e+00 0.000000e+00 0.000000e+00 0.000000e+00 0.000000e+00 0.000000e+00 0.000000e+00 0.000000e+00 0.000000e+00 9.000000e-01 9.999999e-02 0.000000e+00 0.000000e+00
 0.000000e+00 0.000000e+00 0.000000e+00 0.000000e+00 0.000000e+00 0.000000e+00 0.000000e+00 0.000000e+00 0.000000e+00 0.000000e+00 0.000000e+00 9.000000e-01 9.999999e-02 0.000000e+00
 0.000000e+00 0.000000e+00 0.000000e+00 0.000000e+00 0.000000e+00 0.000000e+00 0.000000e+00 0.000000e+00 0.000000e+00 0.000000e+00 0.000000e+00 0.000000e+00 9.000000e-01 9.999999e-02
 0.000000e+00 0.000000e+00 0.000000e+00 0.000000e+00 0.000000e+00 0.000000e+00 0.000000e+00 0.000000e+00 0.000000e+00 0.000000e+00 0.000000e+00 0.000000e+00 0.000000e+00 0.000000e+00
<ENDHMM>
