~o
<STREAMINFO> 1 12
<VECSIZE> 12<NULLD><MFCC_Z><DIAGC>
~h "s036"
<BEGINHMM>
<NUMSTATES> 8
<STATE> 2
<MEAN> 12
 -2.243940e-07 9.349748e-08 3.926894e-07 -5.422854e-07 2.150442e-07 1.495960e-07 -1.121970e-07 1.121970e-07 2.337437e-07 2.056945e-07 -1.542709e-07 1.355714e-07
<VARIANCE> 12
 2.175955e+01 2.758092e+01 7.114595e+01 6.630391e+01 7.355347e+01 7.968085e+01 6.201531e+01 6.748533e+01 6.066265e+01 3.571754e+01 3.043537e+01 3.609987e+01
<GCONST> 6.860888e+01
<STATE> 3
<MEAN> 12
 -2.243940e-07 9.349748e-08 3.926894e-07 -5.422854e-07 2.150442e-07 1.495960e-07 -1.121970e-07 1.121970e-07 2.337437e-07 2.056945e-07 -1.542709e-07 1.355714e-07
<VARIANCE> 12
 2.175955e+01 2.758092e+01 7.114595e+01 6.630391e+01 7.355347e+01 7.968085e+01 6.201531e+01 6.748533e+01 6.066265e+01 3.571754e+01 3.043537e+01 3.609987e+01
<GCONST> 6.860888e+01
<STATE> 4
<MEAN> 12
 -2.243940e-07 9.349748e-08 3.926894e-07 -5.422854e-07 2.150442e-07 1.495960e-07 -1.121970e-07 1.121970e-07 2.337437e-07 2.056945e-07 -1.542709e-07 1.355714e-07
<VARIANCE> 12
 2.175955e+01 2.758092e+01 7.114595e+01 6.630391e+01 7.355347e+01 7.968085e+01 6.201531e+01 6.748533e+01 6.066265e+01 3.571754e+01 3.043537e+01 3.609987e+01
<GCONST> 6.860888e+01
<STATE> 5
<MEAN> 12
 -2.243940e-07 9.349748e-08 3.926894e-07 -5.422854e-07 2.150442e-07 1.495960e-07 -1.121970e-07 1.121970e-07 2.337437e-07 2.056945e-07 -1.542709e-07 1.355714e-07
<VARIANCE> 12
 2.175955e+01 2.758092e+01 7.114595e+01 6.630391e+01 7.355347e+01 7.968085e+01 6.201531e+01 6.748533e+01 6.066265e+01 3.571754e+01 3.043537e+01 3.609987e+01
<GCONST> 6.860888e+01
<STATE> 6
<MEAN> 12
 -2.243940e-07 9.349748e-08 3.926894e-07 -5.422854e-07 2.150442e-07 1.495960e-07 -1.121970e-07 1.121970e-07 2.337437e-07 2.056945e-07 -1.542709e-07 1.355714e-07
<VARIANCE> 12
 2.175955e+01 2.758092e+01 7.114595e+01 6.630391e+01 7.355347e+01 7.968085e+01 6.201531e+01 6.748533e+01 6.066265e+01 3.571754e+01 3.043537e+01 3.609987e+01
<GCONST> 6.860888e+01
<STATE> 7
<MEAN> 12
 -2.243940e-07 9.349748e-08 3.926894e-07 -5.422854e-07 2.150442e-07 1.495960e-07 -1.121970e-07 1.121970e-07 2.337437e-07 2.056945e-07 -1.542709e-07 1.355714e-07
<VARIANCE> 12
 2.175955e+01 2.758092e+01 7.114595e+01 6.630391e+01 7.355347e+01 7.968085e+01 6.201531e+01 6.748533e+01 6.066265e+01 3.571754e+01 3.043537e+01 3.609987e+01
<GCONST> 6.860888e+01
<TRANSP> 8
 0.000000e+00 1.000000e+00 0.000000e+00 0.000000e+00 0.000000e+00 0.000000e+00 0.000000e+00 0.000000e+00
 0.000000e+00 9.000000e-01 9.999999e-02 0.000000e+00 0.000000e+00 0.000000e+00 0.000000e+00 0.000000e+00
 0.000000e+00 0.000000e+00 9.000000e-01 9.999999e-02 0.000000e+00 0.000000e+00 0.000000e+00 0.000000e+00
 0.000000e+00 0.000000e+00 0.000000e+00 9.000000e-01 9.999999e-02 0.000000e+00 0.000000e+00 0.000000e+00
 0.000000e+00 0.000000e+00 0.000000e+00 0.000000e+00 9.000000e-01 9.999999e-02 0.000000e+00 0.000000e+00
 0.000000e+00 0.000000e+00 0.000000e+00 0.000000e+00 0.000000e+00 9.000000e-01 9.999999e-02 0.000000e+00
 0.000000e+00 0.000000e+00 0.000000e+00 0.000000e+00 0.000000e+00 0.000000e+00 9.000000e-01 9.999999e-02
 0.000000e+00 0.000000e+00 0.000000e+00 0.000000e+00 0.000000e+00 0.000000e+00 0.000000e+00 0.000000e+00
<ENDHMM>
