~o
<STREAMINFO> 1 12
<VECSIZE> 12<NULLD><MFCC_Z><DIAGC>
~h "s011"
<BEGINHMM>
<NUMSTATES> 13
<STATE> 2
<MEAN> 12
 -1.192093e-07 1.311302e-07 -2.682209e-08 -2.980232e-08 -1.549721e-07 -1.072884e-07 -2.980232e-08 1.549721e-07 1.430512e-07 -3.576279e-07 1.579523e-07 -9.536743e-08
<VARIANCE> 12
 2.114568e+01 8.913828e+01 2.557996e+01 3.987117e+01 6.424962e+01 4.950423e+01 5.311348e+01 2.807621e+01 3.774675e+01 1.003027e+02 3.715680e+01 3.622060e+01
<GCONST> 6.733967e+01
<STATE> 3
<MEAN> 12
 -1.192093e-07 1.311302e-07 -2.682209e-08 -2.980232e-08 -1.549721e-07 -1.072884e-07 -2.980232e-08 1.549721e-07 1.430512e-07 -3.576279e-07 1.579523e-07 -9.536743e-08
<VARIANCE> 12
 2.114568e+01 8.913828e+01 2.557996e+01 3.987117e+01 6.424962e+01 4.950423e+01 5.311348e+01 2.807621e+01 3.774675e+01 1.003027e+02 3.715680e+01 3.622060e+01
<GCONST> 6.733967e+01
<STATE> 4
<MEAN> 12
 -1.192093e-07 1.311302e-07 -2.682209e-08 -2.980232e-08 -1.549721e-07 -1.072884e-07 -2.980232e-08 1.549721e-07 1.430512e-07 -3.576279e-07 1.579523e-07 -9.536743e-08
<VARIANCE> 12
 2.114568e+01 8.913828e+01 2.557996e+01 3.987117e+01 6.424962e+01 4.950423e+01 5.311348e+01 2.807621e+01 3.774675e+01 1.003027e+02 3.715680e+01 3.622060e+01
<GCONST> 6.733967e+01
<STATE> 5
<MEAN> 12
 -1.192093e-07 1.311302e-07 -2.682209e-08 -2.980232e-08 -1.549721e-07 -1.072884e-07 -2.980232e-08 1.549721e-07 1.430512e-07 -3.576279e-07 1.579523e-07 -9.536743e-08
<VARIANCE> 12
 2.114568e+01 8.913828e+01 2.557996e+01 3.987117e+01 6.424962e+01 4.950423e+01 5.311348e+01 2.807621e+01 3.774675e+01 1.003027e+02 3.715680e+01 3.622060e+01
<GCONST> 6.733967e+01
<STATE> 6
<MEAN> 12
 -1.192093e-07 1.311302e-07 -2.682209e-08 -2.980232e-08 -1.549721e-07 -1.072884e-07 -2.980232e-08 1.549721e-07 1.430512e-07 -3.576279e-07 1.579523e-07 -9.536743e-08
<VARIANCE> 12
 2.114568e+01 8.913828e+01 2.557996e+01 3.987117e+01 6.424962e+01 4.950423e+01 5.311348e+01 2.807621e+01 3.774675e+01 1.003027e+02 3.715680e+01 3.622060e+01
<GCONST> 6.733967e+01
<STATE> 7
<MEAN> 12
 -1.192093e-07 1.311302e-07 -2.682209e-08 -2.980232e-08 -1.549721e-07 -1.072884e-07 -2.980232e-08 1.549721e-07 1.430512e-07 -3.576279e-07 1.579523e-07 -9.536743e-08
<VARIANCE> 12
 2.114568e+01 8.913828e+01 2.557996e+01 3.987117e+01 6.424962e+01 4.950423e+01 5.311348e+01 2.807621e+01 3.774675e+01 1.003027e+02 3.715680e+01 3.622060e+01
<GCONST> 6.733967e+01
<STATE> 8
<MEAN> 12
 -1.192093e-07 1.311302e-07 -2.682209e-08 -2.980232e-08 -1.549721e-07 -1.072884e-07 -2.980232e-08 1.549721e-07 1.430512e-07 -3.576279e-07 1.579523e-07 -9.536743e-08
<VARIANCE> 12
 2.114568e+01 8.913828e+01 2.557996e+01 3.987117e+01 6.424962e+01 4.950423e+01 5.311348e+01 2.807621e+01 3.774675e+01 1.003027e+02 3.715680e+01 3.622060e+01
<GCONST> 6.733967e+01
<STATE> 9
<MEAN> 12
 -1.192093e-07 1.311302e-07 -2.682209e-08 -2.980232e-08 -1.549721e-07 -1.072884e-07 -2.980232e-08 1.549721e-07 1.430512e-07 -3.576279e-07 1.579523e-07 -9.536743e-08
<VARIANCE> 12
 2.114568e+01 8.913828e+01 2.557996e+01 3.987117e+01 6.424962e+01 4.950423e+01 5.311348e+01 2.807621e+01 3.774675e+01 1.003027e+02 3.715680e+01 3.622060e+01
<GCONST> 6.733967e+01
<STATE> 10
<MEAN> 12
 -1.192093e-07 1.311302e-07 -2.682209e-08 -2.980232e-08 -1.549721e-07 -1.072884e-07 -2.980232e-08 1.549721e-07 1.430512e-07 -3.576279e-07 1.579523e-07 -9.536743e-08
<VARIANCE> 12
 2.114568e+01 8.913828e+01 2.557996e+01 3.987117e+01 6.424962e+01 4.950423e+01 5.311348e+01 2.807621e+01 3.774675e+01 1.003027e+02 3.715680e+01 3.622060e+01
<GCONST> 6.733967e+01
<STATE> 11
<MEAN> 12
 -1.192093e-07 1.311302e-07 -2.682209e-08 -2.980232e-08 -1.549721e-07 -1.072884e-07 -2.980232e-08 1.549721e-07 1.430512e-07 -3.576279e-07 1.579523e-07 -9.536743e-08
<VARIANCE> 12
 2.114568e+01 8.913828e+01 2.557996e+01 3.987117e+01 6.424962e+01 4.950423e+01 5.311348e+01 2.807621e+01 3.774675e+01 1.003027e+02 3.715680e+01 3.622060e+01
<GCONST> 6.733967e+01
<STATE> 12
<MEAN> 12
 -1.192093e-07 1.311302e-07 -2.682209e-08 -2.980232e-08 -1.549721e-07 -1.072884e-07 -2.980232e-08 1.549721e-07 1.430512e-07 -3.576279e-07 1.579523e-07 -9.536743e-08
<VARIANCE> 12
 2.114568e+01 8.913828e+01 2.557996e+01 3.987117e+01 6.424962e+01 4.950423e+01 5.311348e+01 2.807621e+01 3.774675e+01 1.003027e+02 3.715680e+01 3.622060e+01
<GCONST> 6.733967e+01
<TRANSP> 13
 0.000000e+00 1.000000e+00 0.000000e+00 0.000000e+00 0.000000e+00 0.000000e+00 0.000000e+00 0.000000e+00 0.000000e+00 0.000000e+00 0.000000e+00 0.000000e+00 0.000000e+00
 0.000000e+00 9.000000e-01 9.999999e-02 0.000000e+00 0.000000e+00 0.000000e+00 0.000000e+00 0.000000e+00 0.000000e+00 0.000000e+00 0.000000e+00 0.000000e+00 0.000000e+00
 0.000000e+00 0.000000e+00 9.000000e-01 9.999999e-02 0.000000e+00 0.000000e+00 0.000000e+00 0.000000e+00 0.000000e+00 0.000000e+00 0.000000e+00 0.000000e+00 0.000000e+00
 0.000000e+00 0.000000e+00 0.000000e+00 9.000000e-01 9.999999e-02 0.000000e+00 0.000000e+00 0.000000e+00 0.000000e+00 0.000000e+00 0.000000e+00 0.000000e+00 0.000000e+00
 0.000000e+00 0.000000e+00 0.000000e+00 0.000000e+00 9.000000e-01 9.999999e-02 0.000000e+00 0.000000e+00 0.000000e+00 0.000000e+00 0.000000e+00 0.000000e+00 0.000000e+00
 0.000000e+00 0.000000e+00 0.000000e+00 0.000000e+00 0.000000e+00 9.000000e-01 9.999999e-02 0.000000e+00 0.000000e+00 0.000000e+00 0.000000e+00 0.000000e+00 0.000000e+00
 0.000000e+00 0.000000e+00 0.000000e+00 0.000000e+00 0.000000e+00 0.000000e+00 9.000000e-01 9.999999e-02 0.000000e+00 0.000000e+00 0.000000e+00 0.000000e+00 0.000000e+00
 0.000000e+00 0.000000e+00 0.000000e+00 0.000000e+00 0.000000e+00 0.000000e+00 0.000000e+00 9.000000e-01 9.999999e-02 0.000000e+00 0.000000e+00 0.000000e+00 0.000000e+00
 0.000000e+00 0.000000e+00 0.000000e+00 0.000000e+00 0.000000e+00 0.000000e+00 0.000000e+00 0.000000e+00 9.000000e-01 9.999999e-02 0.000000e+00 0.000000e+00 0.000000e+00
 0.000000e+00 0.000000e+00 0.000000e+00 0.000000e+00 0.000000e+00 0.000000e+00 0.000000e+00 0.000000e+00 0.000000e+00 9.000000e-01 9.999999e-02 0.000000e+00 0.000000e+00
 0.000000e+00 0.000000e+00 0.000000e+00 0.000000e+00 0.000000e+00 0.000000e+00 0.000000e+00 0.000000e+00 0.000000e+00 0.000000e+00 9.000000e-01 9.999999e-02 0.000000e+00
 0.000000e+00 0.000000e+00 0.000000e+00 0.000000e+00 0.000000e+00 0.000000e+00 0.000000e+00 0.000000e+00 0.000000e+00 0.000000e+00 0.000000e+00 9.000000e-01 9.999999e-02
 0.000000e+00 0.000000e+00 0.000000e+00 0.000000e+00 0.000000e+00 0.000000e+00 0.000000e+00 0.000000e+00 0.000000e+00 0.000000e+00 0.000000e+00 0.000000e+00 0.000000e+00
<ENDHMM>
