~o
<STREAMINFO> 1 12
<VECSIZE> 12<NULLD><MFCC_Z><DIAGC>
~h "s051"
<BEGINHMM>
<NUMSTATES> 10
<STATE> 2
<MEAN> 12
 -1.032019e+00 -1.736569e+00 3.934649e+00 -6.582427e+00 -1.129529e+01 3.422603e+00 3.295053e+00 2.306936e+00 -2.728292e+00 -2.360349e+00 6.286270e+00 -5.485913e+00
<VARIANCE> 12
 2.012787e+01 4.912436e+01 4.064753e+01 1.465317e+01 9.594260e+01 2.813959e+01 2.170377e+01 7.799992e+01 1.948397e+01 1.450123e+02 3.350142e+01 4.801147e+01
<GCONST> 6.600515e+01
<STATE> 3
<MEAN> 12
 4.966828e+00 -3.741837e+00 -1.051732e+01 -3.893998e+00 -1.348338e+00 -6.234408e+00 1.213458e+00 5.003174e+00 -2.826769e+00 4.482656e+00 -1.084728e+01 -7.198632e+00
<VARIANCE> 12
 8.285666e+00 1.583123e+01 2.828679e+01 1.465317e+01 2.210542e+01 1.155092e+01 1.634973e+01 1.396680e+01 1.365011e+01 3.829105e+01 1.255604e+01 2.286170e+01
<GCONST> 5.585020e+01
<STATE> 4
<MEAN> 12
 3.486052e+00 3.096826e+00 3.853449e+00 -7.626912e+00 -3.753809e+00 -2.450834e+00 -6.674457e+00 3.511655e+00 1.839553e+00 1.059581e+00 6.154762e-02 -1.135444e-01
<VARIANCE> 12
 2.177139e+01 1.583123e+01 4.447742e+01 5.701943e+01 3.770944e+01 1.289492e+01 1.067115e+02 6.245267e+00 1.107042e+01 1.943510e+01 5.874392e+01 1.642500e+01
<GCONST> 6.066753e+01
<STATE> 5
<MEAN> 12
 -2.614995e+00 1.468748e+01 9.014600e+00 -1.455439e+01 -4.318530e+00 3.578637e+00 -9.312464e+00 2.351150e+00 3.387402e+00 -2.338048e+00 9.720138e+00 -3.946044e+00
<VARIANCE> 12
 5.722692e+00 2.267493e+01 1.691540e+01 3.817223e+01 9.900726e+00 1.746883e+01 8.432600e+01 1.747034e+01 8.509719e+00 1.577588e+01 1.388472e+01 1.432454e+01
<GCONST> 5.603123e+01
<STATE> 6
<MEAN> 12
 -9.232283e+00 1.228889e+01 1.091741e+01 -6.928450e-01 3.482804e+00 9.756594e+00 1.371401e+00 -3.814581e+00 7.781357e+00 3.098580e+00 5.533522e+00 4.269254e+00
<VARIANCE> 12
 2.107475e+01 5.558419e+01 1.304644e+01 1.605667e+01 2.212631e+01 5.222504e+01 1.734527e+01 2.792415e+01 2.674416e+01 1.371286e+01 1.027811e+01 3.134272e+01
<GCONST> 5.937992e+01
<STATE> 7
<MEAN> 12
 -7.146336e+00 -7.126783e-01 8.455864e+00 6.303108e+00 3.591014e+00 9.514188e+00 -4.647639e+00 -4.366660e+00 -1.988157e+00 2.031854e+00 2.462247e+00 -1.668622e+00
<VARIANCE> 12
 2.186777e+01 1.583123e+01 1.361868e+01 1.798380e+01 7.811506e+00 1.049683e+02 2.448486e+01 5.413424e+00 4.563388e+01 8.835999e+00 1.267773e+01 3.743037e+01
<GCONST> 5.716045e+01
<STATE> 8
<MEAN> 12
 3.367361e-01 -1.116886e+01 -5.424782e+00 9.467560e+00 7.033626e+00 -8.337518e+00 1.638703e+00 -6.461202e+00 -5.903664e+00 -5.744324e+00 1.343230e+00 2.170494e+00
<VARIANCE> 12
 5.722692e+00 1.583123e+01 1.304644e+01 1.465317e+01 1.056494e+01 9.964850e+00 1.128280e+01 8.422812e+00 2.505001e+01 3.371837e+01 1.036138e+01 9.236255e+00
<GCONST> 5.232509e+01
<STATE> 9
<MEAN> 12
 5.593915e+00 -7.839630e+00 -4.470129e+00 1.313574e+01 2.689778e+00 -7.765148e-01 4.322605e+00 -3.650635e-01 9.382538e-01 -1.227477e+00 -4.352726e+00 1.081866e+01
<VARIANCE> 12
 7.128897e+00 1.583123e+01 2.016508e+01 1.465317e+01 1.809881e+01 2.184019e+01 7.756752e+00 5.413424e+00 1.027969e+01 4.435268e+01 2.468048e+01 1.166329e+01
<GCONST> 5.397112e+01
<TRANSP> 10
 0.000000e+00 1.000000e+00 0.000000e+00 0.000000e+00 0.000000e+00 0.000000e+00 0.000000e+00 0.000000e+00 0.000000e+00 0.000000e+00
 0.000000e+00 8.337272e-01 1.662728e-01 0.000000e+00 0.000000e+00 0.000000e+00 0.000000e+00 0.000000e+00 0.000000e+00 0.000000e+00
 0.000000e+00 0.000000e+00 9.235654e-01 7.643455e-02 0.000000e+00 0.000000e+00 0.000000e+00 0.000000e+00 0.000000e+00 0.000000e+00
 0.000000e+00 0.000000e+00 0.000000e+00 5.397748e-01 4.602252e-01 0.000000e+00 0.000000e+00 0.000000e+00 0.000000e+00 0.000000e+00
 0.000000e+00 0.000000e+00 0.000000e+00 0.000000e+00 8.778260e-01 1.221740e-01 0.000000e+00 0.000000e+00 0.000000e+00 0.000000e+00
 0.000000e+00 0.000000e+00 0.000000e+00 0.000000e+00 0.000000e+00 8.869928e-01 1.130073e-01 0.000000e+00 0.000000e+00 0.000000e+00
 0.000000e+00 0.000000e+00 0.000000e+00 0.000000e+00 0.000000e+00 0.000000e+00 6.792846e-01 3.207154e-01 0.000000e+00 0.000000e+00
 0.000000e+00 0.000000e+00 0.000000e+00 0.000000e+00 0.000000e+00 0.000000e+00 0.000000e+00 8.828850e-01 1.171150e-01 0.000000e+00
 0.000000e+00 0.000000e+00 0.000000e+00 0.000000e+00 0.000000e+00 0.000000e+00 0.000000e+00 0.000000e+00 9.003901e-01 9.960989e-02
 0.000000e+00 0.000000e+00 0.000000e+00 0.000000e+00 0.000000e+00 0.000000e+00 0.000000e+00 0.000000e+00 0.000000e+00 0.000000e+00
<ENDHMM>
