~o
<STREAMINFO> 1 39
<VECSIZE> 39<NULLD><MFCC_E_D_A_Z><DIAGC>
~h "s000"
<BEGINHMM>
<NUMSTATES> 9
<STATE> 2
<MEAN> 39
 -1.068115e+00 1.184412e+01 1.005408e+00 -4.153186e+00 -6.630068e+00 -2.559611e+00 -9.094571e+00 1.109516e+00 1.977134e-01 5.901717e+00 -1.283109e+00 -2.247702e+00 7.994207e-01 -2.871089e-01 2.343997e-01 -6.089733e-01 3.172169e-01 5.098298e-01 3.849794e-01 -1.810789e-01 1.222565e-01 -3.286011e-02 -5.472224e-01 8.557361e-01 -2.149821e-01 3.451240e-03 6.314225e-02 -6.081169e-03 -7.026923e-02 -4.023938e-02 9.486194e-02 -1.200750e-01 1.684749e-01 -5.572372e-02 1.379550e-01 -9.164527e-02 8.769055e-03 8.168749e-02 -5.291083e-04
<VARIANCE> 39
 8.550817e+00 3.563489e+01 3.796453e+01 3.835420e+01 5.101728e+01 2.103540e+01 3.490982e+01 2.287775e+01 2.834752e+01 3.778186e+01 7.878774e+01 2.633848e+01 1.916806e-02 8.606939e-01 1.554811e+00 2.767711e+00 2.513180e+00 2.070778e+00 2.250880e+00 2.883528e+00 2.016197e+00 3.779422e+00 2.442717e+00 5.553387e+00 3.098559e+00 1.450479e-03 8.353420e-02 1.734535e-01 5.081556e-01 4.702837e-01 3.570845e-01 4.493873e-01 4.767130e-01 3.604864e-01 7.479832e-01 5.347663e-01 1.085797e+00 6.953792e-01 2.036060e-04
<GCONST> 9.411044e+01
<STATE> 3
<MEAN> 39
 -4.498080e-01 8.082316e+00 -1.308555e+00 -2.437153e-01 -6.789919e-01 -1.081704e+00 -5.613821e+00 -4.251608e-01 5.839095e-01 1.274944e+00 2.008096e+00 -3.900842e-01 7.350606e-01 6.369314e-02 -3.646415e-01 -1.222196e-01 2.592819e-01 4.014873e-01 6.790654e-02 3.256244e-01 -9.254193e-02 1.903887e-02 -3.218016e-01 1.516543e-01 1.600716e-01 -4.890595e-03 1.889724e-02 -3.779820e-02 3.468266e-02 -5.353293e-03 -1.510950e-02 -1.795689e-02 2.671264e-02 -7.978239e-03 -2.857097e-03 1.925977e-02 -4.878670e-02 1.885827e-02 -4.499928e-04
<VARIANCE> 39
 1.234816e+01 8.469505e+01 2.346164e+01 3.479167e+01 5.152188e+01 2.947012e+01 7.042783e+01 3.388475e+01 3.825237e+01 4.193438e+01 4.431388e+01 3.478914e+01 2.504492e-02 9.495787e-01 2.665952e+00 1.997230e+00 2.865902e+00 2.879773e+00 4.028130e+00 3.315366e+00 3.390475e+00 4.148497e+00 2.199304e+00 5.626485e+00 3.111712e+00 1.790679e-03 1.323536e-01 3.567958e-01 2.996098e-01 4.714516e-01 4.080767e-01 8.815230e-01 5.576128e-01 6.768698e-01 6.980658e-01 3.719618e-01 1.116023e+00 7.113460e-01 2.813885e-04
<GCONST> 1.010018e+02
<STATE> 4
<MEAN> 39
 4.197400e-01 1.710374e+00 -1.466916e+00 1.358644e+00 2.138611e+00 -1.698003e+00 -1.586550e-01 -3.001309e-01 3.880156e-01 -1.770781e+00 9.236387e-01 1.603185e+00 6.926570e-01 4.874493e-02 -4.467934e-01 4.988006e-03 8.851159e-02 1.348822e-01 -5.042032e-02 3.811097e-01 6.655498e-02 -3.343748e-02 -1.802678e-01 -8.569875e-02 8.587281e-02 -2.800095e-03 -2.931060e-03 2.304399e-03 7.082146e-03 -1.179632e-02 -1.906690e-02 -3.581621e-03 -3.709649e-03 9.982390e-03 -3.267947e-03 1.093073e-02 -9.915098e-03 -8.998491e-03 1.584256e-04
<VARIANCE> 39
 1.692312e+01 8.528750e+01 2.675100e+01 3.036616e+01 3.599074e+01 3.509342e+01 6.997511e+01 5.216544e+01 4.345942e+01 4.764273e+01 3.636256e+01 2.954496e+01 2.272795e-02 1.310330e+00 3.107121e+00 1.708285e+00 3.097678e+00 2.987690e+00 4.955877e+00 3.283944e+00 4.417166e+00 4.665111e+00 2.990404e+00 5.215422e+00 2.996325e+00 1.928180e-03 1.952640e-01 4.274246e-01 2.136302e-01 5.170368e-01 4.401053e-01 1.082819e+00 5.905546e-01 8.269571e-01 7.726996e-01 4.380503e-01 1.131906e+00 6.908506e-01 3.352098e-04
<GCONST> 1.039252e+02
<STATE> 5
<MEAN> 39
 6.384646e-01 -2.750756e+00 -1.080993e+00 1.788539e+00 2.150047e+00 -2.279605e+00 3.605227e+00 1.635441e+00 -3.892428e-01 -2.860843e+00 -2.231384e-02 1.213639e+00 6.664131e-01 -1.132688e-02 -2.627197e-01 6.251536e-02 -1.845210e-02 -6.922475e-02 2.676632e-02 1.711825e-01 1.219127e-01 -6.457211e-02 -3.000583e-02 -5.729444e-02 -7.676870e-02 -1.414684e-03 -3.647177e-03 1.185476e-02 3.499924e-03 -7.250327e-03 -8.963564e-03 1.030175e-02 -1.701881e-02 -6.360063e-03 7.894835e-04 9.990728e-03 2.440745e-03 -6.116401e-03 1.074812e-04
<VARIANCE> 39
 2.004523e+01 4.919360e+01 3.153487e+01 3.492656e+01 3.228807e+01 4.475041e+01 4.797797e+01 6.806040e+01 3.917968e+01 4.776615e+01 2.728668e+01 2.922615e+01 2.104889e-02 1.849746e+00 2.715454e+00 2.025364e+00 3.030279e+00 2.791793e+00 5.091215e+00 3.468445e+00 4.818023e+00 4.006762e+00 3.798267e+00 4.313703e+00 3.123268e+00 1.932736e-03 3.171687e-01 3.595468e-01 2.235957e-01 5.217311e-01 4.577125e-01 1.002530e+00 6.271871e-01 8.630591e-01 6.831410e-01 5.500887e-01 9.796159e-01 7.096792e-01 3.620986e-04
<GCONST> 1.042920e+02
<STATE> 6
<MEAN> 39
 1.416068e-01 -5.028034e+00 1.195579e-01 8.938210e-01 4.454456e-01 -9.725989e-01 4.204639e+00 2.692223e+00 -1.224912e+00 -2.556768e+00 -5.453528e-01 -2.783236e-01 6.567607e-01 -4.145058e-02 -1.509679e-01 9.193797e-02 -9.393184e-02 -8.867174e-02 2.056950e-01 -4.032157e-02 -9.406710e-02 -1.135626e-02 7.363412e-02 -2.813267e-02 -6.529678e-02 -1.384237e-04 3.375517e-03 6.656775e-03 -2.281993e-03 3.967268e-03 1.187480e-02 9.319031e-03 -2.433403e-03 -1.912465e-02 8.782427e-03 7.807822e-03 3.015884e-03 7.908723e-03 -1.928940e-04
<VARIANCE> 39
 1.923001e+01 2.585625e+01 3.340899e+01 4.102809e+01 3.481266e+01 6.493640e+01 4.567997e+01 6.837031e+01 3.009071e+01 4.330510e+01 1.871442e+01 2.730684e+01 1.813510e-02 2.157847e+00 1.914502e+00 2.419138e+00 2.908629e+00 2.723932e+00 4.920187e+00 4.227655e+00 4.874943e+00 3.020356e+00 4.135419e+00 2.977965e+00 2.874312e+00 1.874082e-03 4.166537e-01 2.511711e-01 2.780549e-01 5.189326e-01 4.678235e-01 8.192900e-01 7.591588e-01 9.099969e-01 5.343389e-01 7.006539e-01 6.950939e-01 6.157659e-01 3.488831e-04
<GCONST> 1.023478e+02
<STATE> 7
<MEAN> 39
 -3.601772e-01 -6.748582e+00 1.233059e+00 -4.160982e-01 -2.243322e-01 2.429581e+00 3.117803e+00 7.344945e-02 -8.967252e-01 -1.219504e+00 -7.977851e-01 -6.482696e-01 6.573307e-01 4.702162e-02 -6.923269e-02 3.229215e-02 3.631747e-02 1.602025e-01 2.859733e-01 3.427403e-02 -3.399365e-01 1.367545e-01 1.680985e-01 2.024933e-02 8.006256e-02 -5.129259e-03 1.018246e-02 2.958632e-02 4.888577e-03 2.107294e-02 1.703253e-02 3.167416e-03 -2.416636e-03 8.587398e-04 6.947466e-03 4.792267e-03 1.268051e-02 -1.221911e-04 -7.723483e-04
<VARIANCE> 39
 1.511531e+01 2.041025e+01 2.656691e+01 3.527911e+01 3.732475e+01 6.592678e+01 5.110212e+01 7.019170e+01 2.512990e+01 3.466586e+01 1.251666e+01 2.304149e+01 1.822863e-02 1.815414e+00 1.506708e+00 2.263042e+00 2.575863e+00 2.673871e+00 3.824340e+00 4.565896e+00 4.307079e+00 2.659438e+00 3.521662e+00 1.809599e+00 2.195385e+00 1.619123e-03 3.566745e-01 1.853548e-01 2.916063e-01 4.717730e-01 4.474241e-01 5.616493e-01 7.958572e-01 8.569555e-01 4.972410e-01 7.096344e-01 4.167670e-01 4.071912e-01 2.480969e-04
<GCONST> 9.635721e+01
<STATE> 8
<MEAN> 39
 6.783081e-01 -7.109484e+00 1.498446e+00 7.720482e-01 2.799327e+00 6.161877e+00 3.939480e+00 -4.785306e+00 1.341212e+00 1.231197e+00 -2.831969e-01 7.476283e-01 5.646628e-01 1.899520e-01 4.074342e-01 1.477210e-01 3.710781e-01 3.910437e-01 3.108510e-01 -7.008364e-02 -2.592290e-01 1.594480e-01 2.415103e-01 2.260336e-01 4.636426e-02 -1.531758e-02 8.669107e-03 3.100986e-02 2.170851e-02 5.765700e-02 6.343044e-02 -7.777919e-04 -4.806676e-02 -3.045985e-02 -8.558297e-02 4.630431e-02 2.400801e-02 2.888164e-02 1.276499e-03
<VARIANCE> 39
 1.110435e+01 1.920048e+01 1.411494e+01 2.151969e+01 3.576699e+01 3.256949e+01 4.677525e+01 4.559057e+01 2.126417e+01 2.075779e+01 9.236717e+00 1.872826e+01 3.065105e-02 9.795175e-01 1.354961e+00 1.557607e+00 1.565476e+00 1.869134e+00 1.895356e+00 3.894142e+00 2.617853e+00 2.265148e+00 1.880361e+00 1.155646e+00 1.375696e+00 1.062201e-03 1.837621e-01 1.560457e-01 2.508703e-01 2.903496e-01 3.200751e-01 2.676887e-01 6.480245e-01 5.069435e-01 4.705570e-01 4.075868e-01 2.487776e-01 2.262643e-01 1.280349e-04
<GCONST> 8.183232e+01
<TRANSP> 9
 0.000000e+00 1.000000e+00 0.000000e+00 0.000000e+00 0.000000e+00 0.000000e+00 0.000000e+00 0.000000e+00 0.000000e+00
 0.000000e+00 9.306930e-01 6.930694e-02 0.000000e+00 0.000000e+00 0.000000e+00 0.000000e+00 0.000000e+00 0.000000e+00
 0.000000e+00 0.000000e+00 9.306931e-01 6.930692e-02 0.000000e+00 0.000000e+00 0.000000e+00 0.000000e+00 0.000000e+00
 0.000000e+00 0.000000e+00 0.000000e+00 9.306931e-01 6.930692e-02 0.000000e+00 0.000000e+00 0.000000e+00 0.000000e+00
 0.000000e+00 0.000000e+00 0.000000e+00 0.000000e+00 9.306931e-01 6.930694e-02 0.000000e+00 0.000000e+00 0.000000e+00
 0.000000e+00 0.000000e+00 0.000000e+00 0.000000e+00 0.000000e+00 9.306931e-01 6.930692e-02 0.000000e+00 0.000000e+00
 0.000000e+00 0.000000e+00 0.000000e+00 0.000000e+00 0.000000e+00 0.000000e+00 9.306930e-01 6.930692e-02 0.000000e+00
 0.000000e+00 0.000000e+00 0.000000e+00 0.000000e+00 0.000000e+00 0.000000e+00 0.000000e+00 9.306931e-01 6.930693e-02
 0.000000e+00 0.000000e+00 0.000000e+00 0.000000e+00 0.000000e+00 0.000000e+00 0.000000e+00 0.000000e+00 0.000000e+00
<ENDHMM>
