~o
<STREAMINFO> 1 12
<VECSIZE> 12<NULLD><MFCC_Z><DIAGC>
~h "s048"
<BEGINHMM>
<NUMSTATES> 10
<STATE> 2
<MEAN> 12
 -4.961839e+00 6.232022e+00 5.172299e+00 1.026874e+00 2.700379e+00 4.153558e+00 -9.882030e-01 1.145863e+00 7.428768e+00 -2.831627e+00 9.860180e+00 -1.908929e+00
<VARIANCE> 12
 1.102164e+01 1.181957e+02 3.451903e+01 4.528240e+01 8.350715e+01 6.972459e+01 7.850514e+01 3.056984e+01 6.092919e+01 2.584337e+01 3.143669e+01 2.762238e+01
<GCONST> 6.716218e+01
<STATE> 3
<MEAN> 12
 -3.845237e+00 -1.931201e+00 -6.605314e-01 8.954061e-01 8.480879e+00 -1.921234e+00 2.889133e+00 -7.741054e-01 3.112914e+00 -3.308173e-01 5.964365e+00 1.438301e+00
<VARIANCE> 12
 2.513568e+01 7.967458e+01 4.622687e+01 4.924939e+01 6.330674e+01 6.199116e+01 4.450478e+01 2.807942e+01 5.052990e+01 2.022229e+01 5.099377e+01 5.072764e+01
<GCONST> 6.758036e+01
<STATE> 4
<MEAN> 12
 -5.586414e-01 -3.682275e+00 -3.977079e+00 9.515636e-01 7.501790e+00 -3.551305e+00 3.305568e-01 -5.472922e-02 1.464394e+00 1.364650e-01 1.837085e+00 3.973074e+00
<VARIANCE> 12
 2.624285e+01 2.790342e+01 2.563163e+01 4.966909e+01 4.895490e+01 4.784747e+01 4.668189e+01 3.463570e+01 2.818365e+01 1.502901e+01 5.710386e+01 5.734426e+01
<GCONST> 6.508971e+01
<STATE> 5
<MEAN> 12
 1.373939e+00 -2.854725e+00 -3.934657e+00 8.373144e-01 3.323955e+00 -3.172621e+00 -1.856231e+00 1.907976e+00 1.328989e+00 5.989447e-01 -1.955937e+00 2.196736e+00
<VARIANCE> 12
 1.553198e+01 1.622760e+01 1.758774e+01 5.115505e+01 5.737086e+01 5.589991e+01 6.009597e+01 5.860220e+01 3.361926e+01 1.790934e+01 5.225395e+01 7.755318e+01
<GCONST> 6.533353e+01
<STATE> 6
<MEAN> 12
 1.580483e+00 -1.773189e+00 -2.341319e+00 2.183433e-01 -1.346418e+00 -3.151203e+00 -8.307251e-01 2.781703e+00 5.213736e-02 1.207638e+00 -4.484663e+00 -1.400580e+00
<VARIANCE> 12
 1.100726e+01 1.262601e+01 1.644396e+01 5.333366e+01 6.279332e+01 7.043002e+01 8.614175e+01 9.097253e+01 4.742218e+01 2.272466e+01 4.224733e+01 7.965797e+01
<GCONST> 6.623021e+01
<STATE> 7
<MEAN> 12
 1.658904e+00 -1.931653e-01 -3.814630e-01 -1.706181e+00 -5.324180e+00 -2.619984e+00 1.536187e+00 8.173736e-01 -2.511466e+00 1.324901e+00 -5.127112e+00 -2.736390e+00
<VARIANCE> 12
 1.003430e+01 1.008576e+01 1.358525e+01 4.798508e+01 5.019364e+01 7.611689e+01 8.878651e+01 1.088500e+02 4.690743e+01 2.287125e+01 3.030967e+01 6.163956e+01
<GCONST> 6.508674e+01
<STATE> 8
<MEAN> 12
 2.400839e+00 1.577070e+00 1.715903e+00 -2.510717e+00 -7.669847e+00 1.030079e+00 1.016863e+00 -2.156492e+00 -4.820751e+00 7.521386e-01 -4.183649e+00 -1.374513e+00
<VARIANCE> 12
 8.161413e+00 8.764285e+00 1.029510e+01 3.144623e+01 2.744593e+01 9.472404e+01 6.483572e+01 7.376418e+01 2.830798e+01 1.624910e+01 2.180920e+01 4.070173e+01
<GCONST> 6.136027e+01
<STATE> 9
<MEAN> 12
 2.351559e+00 2.625623e+00 4.406945e+00 2.875471e-01 -7.666621e+00 9.232922e+00 -2.097788e+00 -3.667530e+00 -6.054914e+00 -8.577150e-01 -1.910128e+00 -1.878092e-01
<VARIANCE> 12
 4.237847e+00 8.764285e+00 8.734435e+00 2.253395e+01 1.758625e+01 8.961043e+01 2.715488e+01 2.434915e+01 1.104576e+01 9.943482e+00 1.507149e+01 1.861647e+01
<GCONST> 5.514402e+01
<TRANSP> 10
 0.000000e+00 1.000000e+00 0.000000e+00 0.000000e+00 0.000000e+00 0.000000e+00 0.000000e+00 0.000000e+00 0.000000e+00 0.000000e+00
 0.000000e+00 8.709678e-01 1.290322e-01 0.000000e+00 0.000000e+00 0.000000e+00 0.000000e+00 0.000000e+00 0.000000e+00 0.000000e+00
 0.000000e+00 0.000000e+00 8.709677e-01 1.290323e-01 0.000000e+00 0.000000e+00 0.000000e+00 0.000000e+00 0.000000e+00 0.000000e+00
 0.000000e+00 0.000000e+00 0.000000e+00 8.709677e-01 1.290323e-01 0.000000e+00 0.000000e+00 0.000000e+00 0.000000e+00 0.000000e+00
 0.000000e+00 0.000000e+00 0.000000e+00 0.000000e+00 8.709677e-01 1.290323e-01 0.000000e+00 0.000000e+00 0.000000e+00 0.000000e+00
 0.000000e+00 0.000000e+00 0.000000e+00 0.000000e+00 0.000000e+00 8.709677e-01 1.290323e-01 0.000000e+00 0.000000e+00 0.000000e+00
 0.000000e+00 0.000000e+00 0.000000e+00 0.000000e+00 0.000000e+00 0.000000e+00 8.709677e-01 1.290323e-01 0.000000e+00 0.000000e+00
 0.000000e+00 0.000000e+00 0.000000e+00 0.000000e+00 0.000000e+00 0.000000e+00 0.000000e+00 8.709677e-01 1.290323e-01 0.000000e+00
 0.000000e+00 0.000000e+00 0.000000e+00 0.000000e+00 0.000000e+00 0.000000e+00 0.000000e+00 0.000000e+00 8.709677e-01 1.290323e-01
 0.000000e+00 0.000000e+00 0.000000e+00 0.000000e+00 0.000000e+00 0.000000e+00 0.000000e+00 0.000000e+00 0.000000e+00 0.000000e+00
<ENDHMM>
